// Neural Network File Format by Kyle Julian, Stanford 2016
3,4,1,100,
4,100,100,1,
0,
0.0,0.0,0.0,0.0,
0.0,0.0,0.0,0.0,
0.0,0.0,0.0,0.0,0.0,
0.0,0.0,0.0,0.0,0.0,
-0.035541363,0.221431464,-0.365452319,-0.420066237,
-0.215032712,0.090361454,-0.039364174,0.365669668,
-0.044372022,0.132306278,-0.151106536,-0.098282695,
-0.405183077,-0.307037562,-0.133528575,0.045774847,
0.192508161,0.250565648,-0.338137716,-0.237681270,
0.183037996,0.389521003,-0.074150376,0.377221733,
-0.063397631,0.030487297,0.462771714,-0.476415753,
-0.326387525,-0.152222380,-0.208443478,0.414124459,
-0.324089825,-0.230166435,-0.349320233,-0.468280494,
-0.278389484,0.390758783,0.229276910,0.218169630,
0.026295781,-0.256341755,0.084592342,-0.466847360,
-0.281499982,-0.243880391,0.351038754,0.304904193,
-0.241866052,-0.079820819,0.296553940,0.443556070,
0.177410379,0.031002313,0.312344223,-0.324299961,
0.093172014,-0.387652755,-0.346543074,-0.258291781,
0.232716992,0.212859631,-0.268450737,0.176426172,
0.305732131,-0.071287021,0.046506349,0.117187828,
0.257226586,0.420120388,-0.409383982,-0.241720647,
0.107447863,0.272180170,0.355144799,0.311768174,
0.144704178,-0.424787402,0.056372907,-0.299995333,
-0.418939471,0.464843512,0.435824692,-0.458834767,
0.093586028,-0.084230006,-0.082280576,-0.228878438,
0.205925554,-0.333541483,0.165841818,0.230699241,
0.302877545,0.161107391,-0.557696819,-0.361253649,
0.263384163,0.081659868,-0.366537809,-0.285397977,
0.523461044,0.453865170,-0.168378070,-0.013510012,
-0.476299047,-0.008987069,-0.376529455,-0.385678351,
-0.027549803,0.075072527,-0.204765141,0.296688795,
-0.250775427,0.500619888,0.454557329,-0.329135031,
-0.110914201,-0.008763478,0.076149635,0.107603714,
0.182079896,0.036128614,-0.469763160,0.242555469,
-0.458103687,-0.319677711,-0.325813770,-0.305646092,
-0.145979181,-0.427658200,-0.065440170,0.094901383,
-0.358974457,-0.016118266,0.346193343,-0.057088941,
-0.001092742,-0.055392571,0.094396308,0.307199895,
0.424069881,0.279337227,0.429212540,-0.079224639,
-0.291875839,-0.187189683,0.422371089,0.025831686,
-0.248523176,-0.383155882,-0.467926025,-0.422004104,
-0.097370729,0.209169611,0.259952694,-0.519057095,
0.311891019,-0.391254723,-0.105705142,-0.202736318,
-0.096307635,-0.098171353,-0.448674977,-0.431718946,
-0.078239739,0.006466091,-0.227137446,0.188349605,
-0.515857160,-0.101446174,0.363381684,-0.262690216,
0.404413939,0.138981834,-0.515340388,0.281351209,
-0.057697237,-0.223203421,0.399826646,-0.404047608,
0.036191847,-0.154564902,0.326561511,0.100483112,
0.255055070,0.239954129,-0.149579272,-0.037331507,
-0.417897373,0.204210952,0.375285327,0.309638143,
-0.091667980,0.118894711,-0.890430331,-0.064301565,
-0.291352749,0.170872509,-0.297956586,-0.010908604,
-0.044609729,0.268910408,-0.430251569,-0.392024070,
-0.320135832,0.321495533,-0.194384396,0.403527230,
0.124845922,0.029323354,-0.047777537,-0.141168296,
0.025514327,-0.121325254,-0.033335842,0.046540100,
-0.391102552,-0.262065709,0.403746367,-0.405773342,
-0.106303357,0.387913138,0.107109353,-0.079234771,
-0.439550936,0.221566200,-0.402107954,-0.163425684,
-0.200161815,-0.117534101,-0.016218156,0.377797067,
0.115716986,0.485705256,0.381613940,-0.241167143,
0.224252045,-0.353448033,-0.211912572,0.147061348,
0.140212536,0.350797743,-0.182450816,-0.029129200,
0.257411778,-0.483546078,0.361490309,-0.413461208,
0.021708464,-0.071510591,-0.279871047,0.086531475,
0.413459361,-0.146159768,-0.296847045,-0.184919417,
-0.572048783,0.142606393,-0.331920356,-0.373365998,
-0.332437813,0.228747457,0.230220377,0.342679501,
0.120920815,-0.206818849,-0.195387140,0.112218641,
0.408978432,0.069476821,-0.256354362,-0.235398829,
-0.472734511,0.108024001,-0.280591249,-0.445787907,
0.432790101,-0.346238345,-0.140293688,0.082056850,
-0.027802190,-0.355286896,-0.448284894,0.385693192,
0.073296070,0.364718139,-0.186473683,0.112545557,
-0.178566217,-0.058791362,-0.353469402,0.135602817,
0.238477722,0.117198035,-0.306129783,-0.146067113,
0.311053872,-0.424618930,0.123267815,-0.234111294,
-0.241234004,0.089822531,-0.259728491,0.115202427,
0.098190427,-0.371244729,0.083249271,0.212964594,
0.218985632,-0.074794307,-0.372745365,-0.070832029,
0.166644469,-0.155492470,0.273352474,0.333254933,
-0.274029732,-0.057136677,0.191567719,-0.006787023,
0.041765749,0.062432706,-0.393073857,0.039294124,
0.346117228,0.406325251,0.293839961,0.030905696,
0.233507097,-0.243239820,-0.414344192,-0.429960549,
0.488865972,0.268829793,-0.361046940,0.167792425,
0.380622566,0.466115952,0.435222924,0.359022319,
-0.122350708,-0.217148900,0.400036931,0.253706127,
-0.348883361,0.343245924,0.221554652,0.195331141,
-0.358624309,0.121330105,-0.204220772,0.364832819,
-0.122916266,0.155698955,0.054677915,0.192290500,
-0.055740073,0.273141086,-0.857515097,0.043365002,
-0.408888549,-0.510018110,-0.328816742,0.354875177,
0.202464134,0.400225848,0.355694652,-0.520509660,
-0.310058445,-0.099151976,-0.289785445,0.344425529,
-0.378003895,-0.243950725,-0.483045697,-0.283872783,
0.400208980,0.346316814,0.341227949,0.338671088,
0.418290675,-0.208772436,0.178051621,0.370999128,
0.105552934,0.431809008,0.233255804,0.264240086,
-0.174996078,0.239913762,0.057453275,-0.119408667,
-0.351367980,-0.327806652,-0.456586510,0.283280969,
0.327945232,-0.140308574,-0.330077827,0.323696613,
0.287311137,
0.012357454,
-0.236067653,
0.498676419,
0.185126320,
-0.382005841,
0.478146702,
0.358433902,
-0.182245433,
0.272111595,
-0.284094512,
-0.057357863,
0.378638923,
-0.010042855,
-0.353609085,
-0.156517223,
-0.115287602,
-0.152335599,
-0.075624734,
0.481580496,
0.054083299,
-0.308719993,
0.010578286,
0.207975760,
0.249898642,
-0.369200796,
-0.089471221,
-0.371572256,
-0.140398234,
0.177693129,
-0.350821733,
0.142918408,
0.428512335,
0.031066181,
-0.344744354,
-0.223139971,
0.163185179,
-0.381159008,
0.216188371,
-0.453934789,
-0.480646670,
-0.485830307,
-0.169413954,
0.293332845,
-0.473239481,
0.378569037,
-0.167163700,
0.113397650,
0.043496020,
-0.450859547,
0.366717726,
0.241989359,
0.451069206,
0.228200242,
-0.330034494,
0.324661821,
-0.000854080,
0.204202577,
-0.363993645,
-0.143813252,
-0.515246570,
-0.194746256,
0.121089280,
-0.392580867,
0.081872560,
0.223640025,
0.026275525,
-0.371716321,
-0.387659848,
-0.185779035,
0.202453986,
0.467835039,
0.242175385,
0.041557863,
0.119491600,
-0.490531445,
-0.427050650,
0.239931300,
-0.282651335,
0.204411939,
-0.352966070,
-0.275338799,
-0.411844492,
0.240605250,
-0.067665607,
0.365147591,
0.235192493,
0.245885983,
-0.011831611,
-0.165211499,
-0.141819090,
-0.002823343,
0.256182611,
-0.350294948,
0.382383764,
-0.120158866,
-0.478359848,
-0.270528913,
0.394396424,
0.398963124,
-0.111577004,0.046928074,0.050115921,0.026104964,0.066520654,-0.070225835,0.012618838,0.017042482,-0.029549336,0.012693549,-0.028771341,0.096816696,-0.047621451,-0.051008783,0.025174905,0.008992183,-0.047143422,0.009469676,0.040509362,-0.027748475,-0.000089703,-0.024118697,0.025091410,-0.083006799,-0.072797477,-0.067088053,0.091901086,-0.026908411,-0.011773233,-0.069159918,0.122658052,0.072498232,-0.098355688,-0.120689772,-0.077364028,-0.012963141,0.023067225,-0.065454565,-0.056712840,0.018893087,-0.052249074,0.022158254,-0.008068388,-0.065129191,0.013738549,0.063789129,-0.085727207,-0.017431440,0.133353040,0.098130636,-0.113586500,-0.118233338,0.081000760,-0.080844857,0.019172335,-0.027723592,0.001833861,-0.042182572,0.032623116,0.004779696,-0.091050319,-0.059036016,-0.043203201,0.050321639,-0.063836202,0.074025065,-0.048684418,-0.030865360,0.078355804,0.022490026,0.048889395,0.038910989,-0.053136967,-0.066146441,-0.014753737,0.082763754,-0.033561982,-0.110092238,0.008992298,0.076232888,-0.028468324,-0.098580763,-0.090705968,0.008232871,-0.024499441,-0.069387965,-0.000579110,0.015096045,0.060117051,0.167943880,-0.059179980,-0.103756227,-0.117636241,0.093368962,0.026635440,0.030521551,-0.106228881,0.092601575,0.069593981,0.072853379,
-0.135321781,-0.061420258,-0.068776384,0.051537789,-0.065453149,-0.106540993,0.053099450,-0.052798662,-0.049252212,-0.023913560,-0.009611952,-0.105691388,0.080116905,-0.038457070,0.035471488,0.030700196,0.066294000,-0.051741548,0.081228875,0.041933239,-0.130255088,0.094599955,0.052165899,-0.159720883,-0.042920899,-0.157011226,0.087675296,-0.016514588,-0.195268959,-0.015359133,0.024931729,-0.013292049,0.051583808,-0.059678040,0.041634519,-0.022238966,-0.077158585,-0.093470849,-0.091926485,0.043340255,-0.059211340,0.014346647,0.001973874,0.005436004,-0.064834975,0.099535622,-0.124364100,0.066081919,-0.234165609,-0.024054850,0.032605059,-0.058372077,0.087290302,-0.055210628,-0.083977155,-0.053265378,-0.000640222,0.089416392,-0.189149171,0.035762824,-0.034487106,-0.021686232,0.023220103,-0.077498592,0.007746912,0.083376825,-0.002140762,0.062353320,-0.030795682,0.067352906,-0.145794734,-0.023800060,-0.025161983,-0.036942311,0.057387222,0.076781690,-0.014898598,-0.015342614,-0.017581752,-0.033999644,0.087663367,-0.079653218,-0.010820985,-0.011252766,0.037470806,0.071526401,-0.030052237,-0.099012204,0.033810735,-0.095474303,0.004088255,-0.064868383,0.030589370,0.094715498,0.005315055,-0.078730263,0.027854571,-0.074145131,0.009967301,0.016815320,
-0.049111683,0.032943115,-0.089443266,0.021226997,-0.065519944,-0.010813368,0.008222027,0.082851887,-0.047712028,0.059434138,-0.012703383,-0.047492780,-0.091472857,-0.094443709,0.097661071,-0.024939954,0.004994881,0.027111232,0.063567184,0.083264455,0.077109940,-0.074088313,-0.016021682,-0.059173763,-0.057867505,0.023720706,0.093864799,-0.080110393,0.057506401,-0.054591704,-0.019477427,0.079377092,-0.023817593,0.006611713,-0.069903255,0.081817135,-0.015200179,-0.073139049,0.025219882,-0.071101740,-0.079350732,0.006091916,0.077189103,-0.030614432,0.047066689,0.081764862,0.066326097,-0.056732953,-0.010961986,-0.031468488,-0.083639510,-0.003649239,0.071250267,0.082158118,0.009330071,0.017860286,-0.043292165,0.072906315,-0.042732395,-0.069465280,0.015399349,0.059938539,-0.090159155,0.090396754,0.034400895,-0.074478485,-0.021540750,0.086757995,-0.076723471,-0.029227722,0.032798029,-0.092104614,0.053681016,0.052054763,0.061576579,-0.063754715,0.099600099,-0.059276152,0.099834047,-0.099284232,-0.089097001,0.058618069,0.010451294,0.002790985,-0.059706088,-0.046052746,-0.033906184,-0.100460202,0.002834417,0.017685890,-0.000084662,0.028089495,0.094508886,0.026588405,-0.041640937,-0.041305866,-0.065469593,-0.069321886,-0.016249079,-0.020331906,
0.026457733,-0.057662524,0.079720370,-0.102235414,-0.004511975,0.041943889,0.111984566,-0.057324901,0.017812897,0.008565337,-0.046885170,-0.054822739,0.032115620,-0.052048519,0.016499568,0.003718560,-0.011110739,0.047246352,-0.001415938,0.086804204,0.048060969,-0.030566836,0.084075056,-0.052998304,-0.010542575,-0.084735654,-0.000621259,-0.037776839,-0.018585542,0.004046251,0.055230215,-0.056571331,0.032563470,-0.086370580,-0.079220183,0.053426947,-0.024935665,-0.040048372,-0.033193462,0.026152134,-0.018081689,0.065347590,-0.022281829,0.046776470,0.043569624,-0.012503878,0.004145351,0.068148233,-0.296390831,0.019569291,0.001025089,0.063776456,-0.028474666,-0.031989895,0.043575358,-0.083697654,-0.002574673,-0.041669987,-0.022437947,-0.093103908,0.050971277,0.098935679,-0.016597103,-0.006662667,0.097909644,-0.042622931,0.006499471,-0.029620023,-0.013804126,0.023212863,-0.031809028,-0.016611984,-0.098617017,-0.082666017,0.035856344,0.015043676,0.076625027,0.101454094,-0.143599346,-0.004886060,-0.040067364,-0.092724398,-0.072765909,0.099152043,0.061902054,0.064839937,0.052749183,-0.084362082,0.006590405,-0.170023650,-0.089941874,0.099074036,-0.002049664,0.070354357,-0.035796870,0.064432390,-0.119403690,-0.006349552,0.022458410,0.040655371,
0.073496111,0.099983923,0.090975702,0.004997965,0.060558259,-0.013181610,-0.083313107,-0.043345556,-0.011226452,-0.055583898,0.051117089,0.333381176,0.014536346,0.016636098,0.087845229,0.033793621,-0.097202741,-0.077950716,0.041925330,-0.026282452,0.055089556,-0.099871993,-0.091355748,0.053105533,0.050637323,-0.080708228,0.037958529,-0.078084424,0.108082458,0.028751465,0.086180188,-0.102351457,-0.132360369,0.144850835,0.084315687,0.058896348,0.251911432,-0.084227137,0.065855026,-0.094414711,0.022340167,-0.065503478,-0.031563543,0.010448946,-0.039318003,-0.019714219,-0.094720170,-0.091679282,-0.157956794,-0.042327847,-0.070133723,-0.041861679,-0.089050174,-0.087622188,0.059837233,0.046356693,0.008137791,-0.056304850,0.073686175,0.004492521,-0.080348983,0.021518981,0.082613796,-0.098360635,-0.094894633,0.011809137,0.066111766,-0.067386620,0.022013713,0.060444631,0.021219432,0.016349344,0.087352522,-0.043797538,-0.062418696,0.008643651,0.051087238,0.077520281,0.258966625,0.054186787,-0.029033184,-0.098950177,0.022197401,-0.061145321,0.012644948,-0.066441707,-0.077302359,-0.010997057,-0.033468239,-0.012590753,0.008621812,0.072810769,0.002991854,-0.032156136,0.064103067,-0.000791189,0.020534972,-0.032162260,-0.009675961,-0.026440796,
-0.008501733,-0.077987932,-0.000614989,-0.083004430,-0.021513080,0.057954621,-0.069535032,-0.067405179,-0.024417652,-0.027413404,0.016928745,0.016601562,0.050709654,-0.068888061,-0.007057119,0.055929124,0.086497150,-0.007294548,-0.057862021,0.028746260,0.056947734,-0.062474992,-0.058029342,0.044199824,-0.007006598,-0.094449870,-0.057658505,0.040553283,-0.033917572,0.069022909,0.079053991,0.014546990,-0.007907474,-0.031742718,-0.005056584,0.018202091,-0.076385103,-0.023899568,-0.083180092,0.061375488,-0.063683629,0.091354385,-0.025778079,-0.057287525,0.048045315,0.014907909,0.069245599,0.041746974,-0.096333943,0.063249044,-0.018831385,-0.044197109,0.063505389,0.072933033,-0.087893069,-0.009042335,0.082120657,0.038728680,0.084246933,-0.034269869,-0.055164244,0.085990965,0.041682292,0.095998250,-0.041769661,-0.064206682,-0.011721290,-0.094157994,0.039197516,0.073758841,0.024005687,-0.009880686,0.049580634,-0.063475132,0.097824313,-0.099434368,-0.095794521,-0.023630166,0.081684448,0.010012579,0.038404573,-0.073300682,0.036468577,-0.011174345,0.040082362,0.070624255,0.043468025,-0.008506417,-0.006159914,-0.062718026,-0.036170211,0.064983808,-0.040099658,0.062103976,-0.039653193,-0.023289884,0.002128220,-0.091766551,-0.000998497,-0.010079575,
-0.008983636,-0.019990420,0.078837730,0.073798716,-0.067775726,0.046452679,-0.078438260,-0.085132137,0.030568196,0.001469648,-0.046650637,-0.096450381,-0.038713612,0.033399951,-0.092560150,-0.097146548,0.012687254,-0.072040416,-0.087608032,-0.038528621,-0.016100084,-0.090870522,-0.066772774,0.006556785,-0.094297171,-0.014055443,-0.064570270,-0.069323733,0.039303102,-0.076968968,-0.075783424,0.057028152,0.018696630,0.091071285,-0.026729548,-0.048301507,-0.009254646,0.000505936,0.076264434,-0.099607997,-0.007120073,0.044235218,-0.055068303,-0.050814081,0.048326779,-0.095818520,0.023695577,-0.077418648,0.049706187,-0.085504048,0.061480474,-0.094663262,-0.084056675,0.001473689,0.078798845,-0.085639559,-0.044605970,0.087828256,-0.016769743,0.041428458,-0.096199825,-0.031448092,-0.050783217,0.084306121,0.041503992,-0.072967567,0.016122699,-0.001149344,-0.041086983,-0.057107665,-0.033183862,0.078822650,-0.071685232,-0.071234338,-0.030851914,0.001739633,0.027221192,0.003000808,-0.024072563,-0.060635019,-0.017943263,-0.040255334,0.080792882,-0.097340956,-0.063785903,-0.081359021,-0.018275678,0.077927344,0.087653928,-0.087055527,-0.004332685,0.058696616,0.044079747,0.081910387,-0.002773821,-0.067189276,0.066153049,-0.034291457,0.051778615,-0.024643648,
0.034866713,0.083171524,0.092985548,-0.098928578,-0.073750049,-0.046498448,-0.071948692,0.089098096,-0.008831883,-0.074142806,-0.044498947,-0.055236459,0.033513203,-0.095525108,-0.093240313,-0.099178426,0.043052413,0.041924000,-0.069453716,0.016654523,0.064780317,0.014530134,-0.021158159,0.000022959,-0.018412335,0.036209095,-0.067901134,0.050710250,0.045940444,-0.068139508,0.081656359,0.098218478,-0.044647712,-0.036590181,0.049835552,-0.086198844,0.032605711,0.023330474,0.054887831,-0.086860679,-0.083078481,0.044912912,0.029031260,-0.100152761,-0.055765953,-0.098966829,-0.088350065,-0.052846763,-0.006601332,-0.019905090,0.049733222,0.087419696,0.037968189,-0.096671000,0.050322272,0.030410118,0.069051661,-0.105395049,0.048641056,0.081854142,-0.093036473,0.010462630,0.083394557,-0.072730817,0.024970336,0.036573913,0.020152306,0.099427581,0.081877962,0.085795477,-0.015894208,0.076231033,-0.099981815,-0.053962935,-0.028800534,-0.029705679,0.092369474,0.041009240,0.064381301,0.060431372,-0.074700356,-0.019421883,0.014602459,0.018673707,0.043733995,-0.047306243,-0.037751891,0.076359659,-0.034269605,-0.078283921,0.067803979,0.059660029,-0.037726682,-0.019992007,-0.081421576,-0.090330288,0.030602472,-0.042719256,0.074204043,-0.086818449,
-0.003631547,0.007679731,0.051394712,0.101960123,0.063855052,0.083333172,-0.066358395,-0.080950424,-0.089461282,-0.000974325,0.096988022,-0.005995754,-0.017529808,-0.095468171,0.030700970,0.096281633,-0.135600373,-0.039528444,0.061189368,-0.022003654,0.037343442,0.017875826,-0.049250133,-0.052170333,-0.106336839,0.127190083,-0.011893666,-0.037138727,0.009990803,-0.063798577,-0.022873219,-0.053593352,0.045388173,0.080651626,-0.057529595,-0.053802211,0.076410137,-0.037030544,0.017185485,0.027534151,-0.062949322,0.025050152,0.032399829,0.070286661,-0.036181998,-0.045264527,0.119611047,-0.085147597,0.300601840,0.096350230,-0.050562751,0.092096187,0.067571007,0.065405153,-0.009542311,0.078778856,-0.041053995,-0.046620384,0.119170211,0.021124721,0.064549416,0.095031932,-0.031940874,0.053072669,0.031222170,0.043981310,0.028609116,-0.055579491,-0.079035603,0.073774137,-0.020567564,0.052882042,-0.104767643,0.074110664,-0.036080882,0.017302359,0.008083201,0.018563291,0.061246712,0.014774674,0.098958433,-0.072606564,-0.005459678,-0.051947407,0.075687468,0.066636674,-0.008685049,-0.038734175,-0.066682756,0.324599653,0.025461964,0.077057339,0.075491138,0.087530456,0.063783415,-0.089070961,0.050516751,-0.041465890,0.052047085,-0.027469311,
0.028538465,-0.092566259,-0.089372568,0.059633605,0.004133779,-0.032031391,0.055479966,-0.055650447,0.035498083,-0.076232761,0.020719994,-0.048195180,0.050956167,0.065259561,0.086852372,-0.016953504,0.020683026,-0.111758925,-0.083276011,0.038828064,-0.012969420,-0.078507297,-0.060788333,-0.033425093,-0.110187270,-0.024851501,0.068169408,0.040586341,-0.062615164,-0.109793298,-0.089605756,0.059766319,0.070688754,-0.028056135,-0.065114714,-0.082676843,-0.006299300,-0.094965473,-0.103026085,0.098439060,-0.047691610,-0.018036366,-0.042056389,-0.109918274,-0.017629314,0.013210271,-0.074860930,-0.025600927,-0.113842279,-0.099550486,0.064413905,0.060007431,0.051322997,-0.047887068,0.052256323,-0.114335082,-0.061252784,-0.037913620,-0.063958302,0.042000007,-0.045565784,-0.011590386,-0.004465592,-0.093908302,-0.021278635,-0.105256639,0.075270168,0.053446293,0.093679205,-0.021612138,0.030420952,-0.000867696,0.097784109,0.033799045,-0.027775595,-0.085090272,-0.090128832,-0.057250716,0.084916137,0.018446974,0.096485317,0.040017042,0.001449764,-0.085181385,0.071871772,0.062712766,0.022505587,-0.070459776,0.054315735,-0.016745698,0.104713455,0.018775301,0.047256667,-0.087747596,-0.077533104,0.033711161,-0.058342960,-0.086997978,0.102967791,-0.021421606,
0.090459362,-0.101915956,0.034429383,-0.056813866,-0.053266503,-0.008248402,-0.069173567,0.024157491,-0.018999910,0.050647691,0.022818316,-0.033374548,-0.087896645,-0.117974594,-0.029172231,-0.066230237,-0.063658409,0.033271145,-0.032843847,-0.093817808,0.090094469,0.056317985,-0.061566431,-0.019734126,0.046743613,0.139510676,-0.091563858,-0.021605922,0.015282208,-0.064882323,0.108891442,-0.007546314,0.042048823,-0.000300504,-0.002143095,-0.084759951,-0.013234092,0.032222964,0.023788523,-0.003558016,0.095284283,-0.069213286,0.055864312,0.062695526,-0.017388238,0.047366358,0.035247035,-0.100257531,0.227265969,0.037221551,-0.055547029,0.000418384,0.068538912,-0.000792925,-0.009358979,-0.000907459,-0.030165909,-0.113287672,-0.018723011,-0.083910249,0.030006189,0.019478321,-0.021206895,-0.097815059,0.055418037,-0.082841769,-0.042920534,-0.096053652,-0.056415822,0.029019874,-0.085688546,-0.083230019,0.050824523,0.067442007,-0.070447035,-0.028077377,0.042745914,-0.081762202,0.047279168,0.010586544,-0.007259321,-0.004082168,-0.076284759,0.019150740,0.010295471,-0.046051163,-0.106422357,0.016282665,0.041825559,0.200993240,0.045966368,0.013323191,-0.055472687,-0.006942034,0.070611663,-0.031134069,-0.087426916,-0.007292831,0.024051424,-0.062143799,
-0.059558664,0.075015664,0.052901175,-0.023627479,-0.002057091,-0.017649094,0.015821837,-0.003674793,-0.060513496,0.011156867,0.002615476,-0.001105928,-0.045469061,0.018250065,-0.080864608,0.023628958,0.047823232,-0.018041553,-0.085003465,-0.007455452,-0.007408683,-0.086420476,-0.077558525,0.085573055,0.067814499,0.049066238,0.069275871,0.038496293,0.048567634,0.058854997,-0.023360765,-0.012712205,0.064797193,-0.007743283,-0.065068655,-0.084872089,0.047925964,0.082831942,0.070268571,0.016641904,0.069028057,-0.091813326,-0.080632582,-0.103299722,0.080568627,-0.008231385,-0.052448492,0.026413335,-0.037433293,-0.064134419,0.031348307,0.011008374,-0.078869902,-0.073065922,0.046886969,0.068713374,0.001023723,-0.057552814,0.040642280,0.017440546,-0.092887364,-0.064804494,0.015997628,0.061877441,-0.039491050,0.040978044,-0.067919627,0.089674503,0.071254410,0.018730724,0.044489253,0.027541177,-0.065996349,-0.006792629,0.019692047,-0.022571420,0.095894538,-0.045114618,-0.094749950,-0.055035491,-0.092808485,0.075093664,-0.044890929,-0.077511482,-0.018126754,-0.074761190,-0.059596479,0.043684032,-0.082429007,0.040840786,0.072923854,-0.007568992,0.037545361,-0.056015860,0.070686139,0.090051092,0.016408518,0.091127589,-0.105810709,-0.018086087,
0.030056324,-0.085078821,0.048663177,-0.027143426,-0.035014991,-0.053136520,0.050807383,-0.079101011,-0.021220565,0.054204658,0.075334623,0.009288981,-0.031006943,-0.025641503,0.056128275,0.016968822,0.066558808,0.049619056,0.088296264,-0.081395172,0.133050829,-0.045945417,-0.019319173,-0.003221730,-0.032343879,0.051632881,0.089109682,-0.059748519,0.083506070,-0.073548749,-0.038915228,0.065719865,0.057461478,0.169821516,0.054008760,-0.000577858,0.036663137,-0.041785467,0.104039393,0.050070476,-0.073192000,0.086465649,0.028612508,-0.013720353,-0.027368521,-0.021726964,0.003318640,-0.033957135,-0.264943093,-0.051510599,-0.019323874,0.079082951,0.070444286,-0.069723032,-0.003839731,-0.023226086,-0.096827261,-0.016612090,0.037178170,0.055895057,-0.048188098,0.015385282,-0.101668216,-0.031210506,0.074326225,-0.040918097,-0.031723406,0.077332012,0.034226727,0.072854631,-0.062328324,-0.033311762,-0.045744080,-0.115263790,-0.011173070,0.084339157,-0.054868162,-0.061875496,0.177224234,0.092257515,0.095659308,0.029683072,0.004215110,-0.048474573,0.063947067,-0.052432451,-0.015848670,-0.081149243,-0.090419032,0.106079340,-0.030435191,0.090735808,0.081439182,0.052475322,0.043056928,-0.024637163,0.086069547,0.048086774,0.020788450,-0.010525621,
0.014936971,0.000443685,-0.072572552,0.023213863,-0.073514536,0.048520137,-0.059580959,-0.032665052,-0.047425319,0.078931116,-0.070421867,0.051061369,0.050153028,0.070707440,0.025055408,0.054514874,0.079050004,0.019697620,0.034001768,-0.078193404,-0.026822984,0.009067190,0.012115836,-0.035330117,-0.099133782,-0.026006032,0.038284101,0.086107053,-0.090302922,0.047743451,-0.094887391,-0.095630184,-0.062624454,-0.013208330,0.027929390,-0.076051116,0.077044003,0.090430401,0.006152630,0.081398390,-0.045271542,-0.039559472,-0.012904502,0.010926533,-0.069758631,-0.080073752,0.039503336,0.028832674,0.097826891,-0.040771294,0.035314035,-0.040353846,0.049364951,-0.005539513,0.074130796,0.055556871,0.083234765,0.051389553,0.003756988,0.086177245,-0.058738183,0.094318621,0.097718708,0.095526777,-0.046712089,-0.052985825,0.006326830,0.031139780,0.050162710,0.040670287,0.085148945,-0.025054013,-0.032807350,0.033520021,0.027866721,-0.058332767,0.009672463,-0.075924985,-0.029336918,-0.039247312,0.087658338,-0.090017371,-0.059042502,-0.097862996,0.025220538,-0.076968901,0.032354068,-0.069461107,-0.064058088,-0.051087558,0.015006900,0.091888085,0.093671225,-0.007554972,-0.097949684,-0.033037510,-0.038111102,-0.021269573,0.038208853,0.050323498,
0.006791368,-0.000550223,-0.040482797,-0.046997659,-0.005818352,-0.110545099,-0.007371542,-0.023668909,-0.094481282,0.050917137,-0.010110247,-0.119595446,0.073561795,-0.044011895,0.035404395,0.049787097,0.028854713,-0.020132899,0.034705523,0.115683474,-0.108243309,-0.056271899,0.020158680,0.039613694,-0.000311668,-0.007770642,-0.000743485,0.030682016,-0.097242303,-0.008631399,-0.100168064,-0.132820174,0.026376691,-0.022971185,0.070191637,0.008284613,-0.001262027,0.041823711,-0.101767689,-0.087893344,-0.077534609,0.001719272,-0.092831194,-0.033514686,-0.014961409,0.042185124,-0.026735248,0.073664904,-0.167363808,-0.063795678,-0.019256545,-0.003389186,0.090705335,-0.017822299,-0.039300214,-0.072402872,0.043612383,-0.034344260,-0.152182743,0.067636959,0.082452312,-0.004214132,-0.116106950,0.081478514,-0.047018327,-0.058833633,-0.059967309,-0.048512537,-0.078316510,-0.063308291,-0.145492330,-0.030288421,0.029459193,0.294968843,0.037747830,-0.036876179,0.048369825,0.079680212,-0.099844232,-0.060586885,-0.076836422,-0.070804946,0.028872311,0.017363254,0.046320777,-0.013071842,0.035276838,-0.108459108,0.008927192,-0.095315374,-0.153350264,-0.054284483,0.022458162,-0.015634870,-0.057061810,0.075869329,-0.036462717,0.003916705,-0.052572079,0.077169277,
0.037415717,0.003531090,0.015261150,0.019890128,0.057839680,-0.088723227,0.001904689,0.044940811,-0.048457861,0.090675585,-0.068499923,0.026540890,-0.066408962,0.049839024,0.069845699,-0.027530674,0.018709498,0.027790267,-0.066223763,-0.025902590,-0.135936514,-0.061554909,0.032612450,-0.069738403,0.026717626,-0.064503476,0.083225727,-0.043360818,-0.069275022,0.066817112,-0.034097373,0.060067359,-0.016929904,-0.050395764,-0.019108690,0.060010001,0.000401930,-0.053252827,0.066806607,-0.006354225,-0.025287760,-0.002017164,0.041642707,0.107530452,0.048659064,0.029881608,0.026070403,-0.047047529,-0.357048273,-0.028878583,-0.066966504,0.037995957,0.023621317,-0.012676135,-0.010152233,0.001761591,0.081776358,0.094019063,-0.165296838,0.036649682,0.028941937,0.038236763,-0.050766569,0.025008811,0.024816331,0.097865276,-0.081212722,-0.022692217,-0.067280196,-0.046664469,-0.025521580,0.063679375,-0.073834330,-0.021520961,0.122715488,-0.049290705,0.017453862,-0.046746772,-0.063277900,-0.044624329,-0.038955487,-0.067095928,-0.083390012,0.085513234,-0.008625730,0.008721606,-0.052185606,0.065232880,-0.060664695,-0.309380412,-0.111159295,-0.073587604,0.060836982,-0.077219568,-0.006364978,-0.010261755,0.006233032,0.026746904,-0.087197416,0.100872084,
-0.106840879,0.002614897,-0.008354390,-0.028588779,0.060942680,0.077297255,0.005940769,-0.042639125,0.074344955,0.055697195,0.017960811,-0.034078293,-0.002968844,0.082016282,0.010844457,-0.025685376,-0.091275856,-0.060730856,0.065013349,-0.010557630,-0.013604217,0.038936067,-0.072687581,-0.013836317,-0.035301708,0.045621961,0.081382394,0.062790766,0.067966580,-0.096548431,-0.035501670,0.011841595,-0.092250794,0.020066155,-0.069743611,0.035730269,0.075126640,-0.085544907,0.076670468,0.046660136,-0.065992169,0.095717765,-0.095002197,-0.074560151,-0.049744572,-0.012221462,0.011614040,-0.036509864,-0.094784729,-0.011543155,0.068623573,0.069814101,0.042891137,0.007298822,0.024847461,-0.084276080,0.033835050,-0.106815159,-0.047553651,-0.026279712,0.073433220,-0.002915061,-0.045550931,0.017470872,-0.090700045,-0.033653222,0.027695214,-0.006622839,-0.010501969,0.061117519,-0.075962804,-0.057647526,0.089473397,0.019898891,-0.023260737,0.051798619,0.060158443,-0.022947399,-0.047714598,-0.023559336,0.036310840,-0.019857902,0.058200061,-0.088717826,-0.056168567,0.069067754,0.005941228,0.012900781,0.025685595,-0.023629321,-0.039990772,0.021557895,-0.033739038,-0.041309785,0.006080700,0.017016754,-0.016213004,-0.067629531,-0.022055622,-0.063946135,
0.069549300,-0.003990464,0.079733625,0.089118890,-0.066505000,0.131716356,-0.166942418,0.021154471,-0.062435713,-0.068385862,0.009907997,0.078713782,0.070077948,-0.177521139,0.083002284,0.133787289,0.071092546,-0.033013631,-0.061082724,-0.134130582,0.165108830,-0.049737573,-0.136230409,0.013482803,0.020957550,0.049921960,0.080633931,-0.073993854,0.201430768,-0.039533671,-0.219781309,0.218084827,-0.000640647,0.118322253,-0.102561988,0.042431884,0.016377088,0.050452877,0.080199189,0.027255034,-0.007835972,-0.079649530,-0.092055723,-0.053708084,-0.025372302,0.019195827,0.091814101,0.019771969,-0.706936002,-0.065367892,0.028138148,0.139922217,0.057708584,0.050070010,-0.009862638,0.005968140,-0.099438712,-0.008506489,0.148150325,0.085558884,0.005709135,-0.067520671,0.173642606,0.016597724,-0.046006922,-0.066880383,-0.138381779,0.473928094,-0.014426506,-0.062914245,0.158520713,0.056833170,0.042190317,0.040379595,-0.213073954,0.057346679,-0.021860778,-0.014022629,0.177225813,0.042263079,0.038074862,0.000067882,-0.013270438,-0.000826283,0.024469679,-0.107873701,-0.074500144,0.085738569,-0.012174056,-0.740878105,0.249610350,0.022294711,0.093016848,0.013108349,0.015221303,-0.101996921,0.083649501,0.036667574,0.177403599,-0.098422445,
-0.060057472,-0.114021257,-0.039869428,0.059984703,-0.086857855,-0.096268989,0.078505591,-0.068895802,0.073086612,0.029565066,0.025101651,0.035258587,-0.085381389,0.111505501,0.032429766,-0.073232397,0.101921529,-0.066190869,-0.033066291,0.091645159,-0.081241697,0.087443672,0.164110363,-0.019332496,-0.064223863,0.019073909,0.006607044,0.066842102,-0.033091493,0.033969380,0.008174213,-0.049707033,-0.009022269,-0.154381186,-0.000785279,0.057991970,-0.018454876,0.097066619,-0.019638853,-0.065252699,0.016666783,-0.028161108,-0.014010710,0.111722901,-0.002869248,0.109826587,0.026482157,-0.045826107,0.109741211,-0.056962885,-0.007948089,0.011902442,0.062978767,-0.066643544,0.004905570,-0.023910269,-0.023222560,0.029097628,0.026669616,0.060125984,-0.022388101,-0.006406951,0.049614999,-0.080598913,-0.148500234,0.003361927,-0.096464932,-0.087379135,0.088336006,-0.011592365,-0.118992180,-0.039126262,0.064240448,0.120019518,0.090137556,0.045012653,0.012379623,-0.064880557,0.122167014,0.046541594,0.086918510,0.057143822,-0.033715393,-0.016416261,0.060135752,-0.002523654,0.013935434,-0.115044922,-0.064041555,0.125792116,-0.076874457,-0.038075298,-0.108564854,0.063555993,-0.006041304,-0.038966641,0.089711241,0.048662663,-0.084445171,-0.049475942,
0.096631281,0.000417531,-0.060142245,0.057544675,-0.020829905,0.006850302,-0.052093364,-0.084699474,-0.066412270,-0.010980296,-0.072394766,0.098560885,0.001082313,-0.038283180,0.039522018,-0.088656880,-0.051149216,0.037560105,-0.084966265,0.049840298,0.008405519,-0.083380722,-0.099243224,0.031605065,0.047266830,-0.019990636,-0.088425539,-0.057634640,0.010628343,0.003638101,0.025597692,0.017682016,-0.005241632,0.052772652,0.097001366,0.083281375,0.090867594,-0.033750333,-0.034131479,-0.011060131,0.029555881,0.040477872,-0.008913613,-0.064592622,-0.075450003,0.096271865,-0.026885582,-0.013516880,-0.061286021,-0.049575984,0.021963967,0.042118646,-0.039532352,-0.036807228,0.079215921,-0.051501669,-0.074608482,-0.015601563,0.095154420,0.021758890,0.013817322,-0.012451244,0.062488880,-0.049565088,0.067801096,0.023624409,0.011118317,0.013766634,-0.061672520,0.074270681,0.052520789,-0.078211747,-0.093108170,-0.025742913,0.066435218,-0.049233165,0.092683695,-0.050277580,-0.090330243,0.043988753,-0.060434401,-0.015763832,-0.031190395,-0.007945919,-0.087137304,-0.091720127,0.042987682,-0.011331546,-0.060323048,-0.002547467,-0.091273248,0.026544238,0.047490299,0.096981660,-0.081467308,-0.012125718,0.054269493,0.091646075,-0.071147203,0.042496230,
0.038976248,0.055659238,-0.068941616,0.075444423,-0.063507386,-0.036841754,-0.014932113,0.064557888,-0.066222154,0.033756904,-0.011452568,0.043434452,0.052448109,-0.011059605,-0.083015643,-0.008342180,-0.032994919,-0.060079161,-0.007238324,-0.111252189,0.008827545,0.035774101,-0.121828914,-0.058648352,0.014219467,-0.051642694,0.068818830,-0.077107921,0.009822977,-0.001688314,0.038171612,-0.025811279,-0.025887942,0.076624207,0.078434840,-0.108216792,-0.027260724,0.029131627,-0.028230239,-0.067482710,-0.084165074,-0.088792935,-0.043777969,-0.072552279,-0.069439948,-0.119903252,0.027859829,0.042818058,0.214806855,0.009999776,-0.019637138,0.030730218,-0.103205897,-0.033710673,0.093339503,0.047511678,-0.100219406,-0.037081111,0.063885547,-0.033019613,-0.057605345,-0.069582634,0.088073701,-0.032374647,-0.009402668,0.008522499,-0.082693346,-0.013999636,0.059481252,-0.073269159,0.055167221,-0.028119992,0.037800744,0.182287261,-0.010699435,0.003021574,-0.086083069,0.008759417,0.116664715,-0.055444159,-0.099294260,0.057456862,-0.023472810,-0.007917948,-0.054271154,0.032804668,0.079288714,0.047777049,-0.047686517,0.271338314,0.079055198,-0.020667916,-0.073538736,-0.042939316,-0.127773821,0.032292169,0.105913050,0.058251392,0.026823713,-0.007313061,
0.066056341,-0.061215680,-0.033572543,-0.106516846,-0.037682015,-0.009824256,0.003023153,-0.083803408,-0.011571932,-0.102338895,-0.081343971,0.005038090,-0.115057342,0.000539911,-0.092119865,-0.090774111,-0.042746700,-0.126097381,0.061325401,0.052374396,-0.079165660,0.020948006,0.040359963,0.002433653,-0.047252454,-0.134075701,0.072713889,-0.087709680,-0.052113451,-0.012561469,-0.038973343,-0.054679230,-0.102264561,-0.010463757,-0.015469751,0.064537540,-0.044461109,0.077291504,-0.021986743,-0.044928219,-0.023781860,-0.011348116,-0.016507726,-0.038001854,0.029677307,0.062774576,-0.024944166,0.018963296,0.115345858,0.021555185,0.019663597,0.034120046,0.071089320,-0.110989250,0.034219135,-0.026059959,-0.030188030,-0.054537892,0.029935447,0.091478743,-0.082385480,0.054028001,0.051375221,0.017477393,-0.021018565,0.058141124,-0.012695203,-0.078434043,-0.007384455,-0.025532246,0.014800960,-0.027124902,0.014295991,0.011351792,-0.103389218,0.024917675,0.061184417,-0.019358469,-0.004106364,0.059224077,-0.087368123,-0.067629114,-0.045199074,0.063924342,-0.117262088,-0.008258260,-0.116175279,-0.020098034,0.020399440,0.009284011,0.090004049,-0.025251850,-0.062680148,0.025786579,0.031112334,-0.015900211,0.069244854,-0.063291609,0.030205537,0.036801409,
0.042215250,-0.007274649,0.028546417,-0.087072007,-0.085759841,-0.012687697,-0.020294787,0.066692054,0.072612680,0.060320541,-0.045803297,-0.085752361,-0.101271577,0.028796634,-0.090108231,-0.105259925,-0.056920275,-0.091029949,-0.046648886,-0.071361817,-0.059683349,0.095072441,-0.026348861,0.075787894,-0.005132450,-0.016854927,-0.029278219,-0.071482718,-0.088812344,0.061703894,-0.030815959,-0.098812863,0.083769046,-0.006069548,-0.066915050,-0.085536554,-0.092399701,-0.087685518,0.082827874,0.068949357,0.008179009,-0.085227430,-0.032871280,-0.101188742,0.034462012,-0.034054656,-0.025416544,-0.038697951,-0.060631279,0.054128945,0.014420147,-0.019958237,-0.017371494,-0.009274949,-0.074466407,0.090134799,-0.049834225,0.050731190,-0.063162662,0.000671315,0.029511489,-0.091818050,0.038732655,-0.076544479,0.006125664,-0.027290875,0.050163113,0.092137009,0.022536576,-0.010039017,-0.056683227,0.029861674,-0.055605158,-0.004919535,-0.050446302,0.067831412,0.076703601,0.054097202,-0.005487920,0.038711216,-0.091123261,0.074340194,-0.025981223,0.029224325,-0.024165081,-0.041150451,-0.054394174,0.057023019,-0.061708361,-0.020897238,0.043144882,0.002705224,-0.091749139,-0.099437475,-0.055983424,0.085141733,-0.077915959,0.055113532,0.063951768,-0.048740514,
-0.050690565,-0.078313388,0.015598166,-0.013979661,-0.001557616,0.037014853,0.035484321,-0.037849404,0.006868112,0.017328214,0.002128625,0.013690794,-0.046921890,0.075443283,-0.010257030,-0.018935500,-0.096034057,-0.078873992,-0.003310674,-0.022131393,-0.056901295,0.052345064,-0.015334610,0.028815551,0.077833317,-0.052191656,-0.049217224,-0.020094717,-0.015246006,-0.056435790,-0.024008418,-0.002882397,0.038832396,0.085956484,0.067502066,0.004127990,-0.012629280,0.025615275,-0.010601197,-0.013123679,0.034387041,-0.081360020,-0.091366678,-0.005960504,-0.030309809,-0.055891875,-0.099299371,0.060559917,-0.003984392,-0.053727519,-0.047159832,0.019909104,-0.078949474,0.000027827,-0.001233184,0.027635200,0.039669573,-0.071710676,0.036467303,0.075511806,0.006437946,0.050945438,-0.037858751,0.019862926,0.029219842,-0.052607775,0.055616330,-0.099303655,-0.037563611,-0.064009055,-0.065346211,-0.067006700,-0.100428194,0.017161680,-0.026333038,-0.084201075,-0.000041127,-0.022731323,0.034906659,-0.084770910,-0.028132534,0.014144898,0.042388678,0.001173307,0.020673944,0.093535170,-0.041063901,0.061797272,0.079732299,-0.088461630,0.024189426,0.050165772,-0.021736130,0.055189837,-0.003020773,0.069736041,-0.004267020,-0.064022243,0.069870636,0.023371061,
0.067376271,0.012136720,0.053100716,0.044970550,0.001091805,-0.041354623,0.004788686,-0.082821019,0.003416324,-0.047827754,0.006322432,-0.099201746,0.047581017,-0.105276518,0.042824138,0.041073933,-0.097426936,0.074633747,-0.087478846,-0.033683520,0.031443503,-0.031710278,0.081534036,-0.061089665,-0.030964453,-0.111514397,-0.046392929,0.097584598,0.051079512,-0.007248908,0.008222247,-0.093450502,0.065262981,-0.032288812,-0.041709390,-0.093996219,0.063231342,0.047418751,0.044622138,0.010354543,-0.067857042,0.040963449,0.008981564,0.019435355,-0.024900842,-0.060688224,0.015523551,0.018832587,-0.123597115,0.008929896,-0.037297159,-0.024184613,0.041448105,-0.092716776,0.090503313,0.052356720,-0.030682394,-0.053071521,-0.007912265,-0.066190839,0.064955078,-0.052886069,-0.001809936,-0.098383091,0.034502421,0.052799974,0.067668997,0.008162511,0.059043743,0.034096111,0.059647273,0.040980559,-0.100119606,0.013925209,-0.041675821,-0.047749616,0.069996193,-0.029972469,0.010355212,0.049921356,0.067312233,0.038527898,-0.017458905,-0.104151681,-0.111116409,0.017247034,-0.015750380,-0.077581473,0.029053638,0.070230886,0.052169878,-0.029232234,-0.000679394,-0.063786447,0.032039795,-0.085785247,0.056336705,-0.045674920,-0.049376827,-0.096491970,
-0.076490246,-0.043702029,-0.046093095,0.029867064,0.027080111,-0.155239552,-0.006482669,0.018768262,0.096479729,-0.042402823,0.061393000,-0.040017523,-0.044057120,0.073744699,-0.089109018,0.014249511,0.125207424,-0.097850025,0.031517092,0.143304989,-0.041586261,0.039106656,0.068175249,-0.103178665,0.001464384,-0.146433726,0.085391402,-0.042851426,-0.053113021,-0.040964641,-0.013718797,-0.049288515,0.075906388,-0.090237692,-0.083005026,0.040845621,-0.091242388,-0.082103066,0.023529744,-0.060143150,-0.037587464,-0.024969531,-0.025921566,-0.043773532,-0.035990190,-0.021462061,-0.005211368,0.011333872,-0.327507913,-0.069123022,-0.029233838,0.007124596,-0.002397921,0.068920597,0.084111027,0.016415501,-0.028434575,0.049053624,-0.144719645,0.017738152,0.071492463,-0.047886409,-0.060323797,-0.039095916,-0.096542567,0.038367413,0.079001576,-0.070445359,0.037478697,0.022127876,-0.028690225,0.040611908,0.070221528,0.041230265,-0.052862789,-0.039202727,0.053110279,-0.079747729,-0.049648691,-0.052176442,0.019861042,0.034703519,0.031431187,0.060833711,-0.021410793,0.056929052,0.013925206,-0.055843469,-0.092816077,-0.123334423,-0.095969565,0.069732390,0.016506141,-0.004026830,-0.088729657,0.022513863,-0.095378272,0.026021505,-0.071993113,0.073953278,
-0.112461269,-0.034186024,0.015769852,-0.013766062,0.062891580,-0.012806304,-0.101076245,0.047997061,0.027943004,0.050434150,-0.059185553,-0.004628886,-0.056667827,-0.008642183,0.033885922,-0.051428992,0.001225269,-0.007226973,0.077853382,-0.056854613,0.085702509,-0.061333012,-0.052797064,-0.082590304,0.048684198,-0.027846757,0.041393317,-0.036746264,0.075690232,-0.002006778,-0.078211807,0.020359639,-0.013299214,-0.115520336,0.011705943,0.083833709,0.071240075,-0.000531805,-0.044141367,0.026574016,-0.044551551,0.098476544,0.106258102,0.030174209,-0.037247863,-0.111530401,-0.038413137,0.083204195,0.040351745,-0.095481277,-0.030477660,0.016499078,-0.119171575,-0.113421030,0.000543678,-0.050166339,0.058423929,0.013240309,-0.051509365,-0.090130925,0.073501304,-0.017732108,-0.048167497,0.031498086,-0.037177421,0.032371797,0.002583833,-0.066771343,-0.080148950,0.037388720,-0.072875053,-0.027804948,-0.007402086,-0.059345961,0.054696649,-0.070338763,0.024560643,-0.013402794,0.091172062,-0.115635805,0.005776548,0.039128255,-0.064021707,0.009403600,-0.012807235,0.067608759,-0.036546480,-0.015829697,-0.055439875,0.065255664,0.019894319,-0.113250136,0.066683449,0.071910106,0.026735926,0.064278610,-0.027593117,0.022777522,-0.014427453,-0.085725248,
-0.073748842,-0.064593591,-0.024725342,-0.125906602,-0.087432265,-0.074913204,-0.006758474,-0.100115560,0.021366740,0.040915374,0.083281375,0.053497482,-0.071899056,-0.016607402,-0.047439694,-0.042830363,0.050849188,-0.028511191,0.056420717,0.101625785,-0.124007680,0.068648197,0.097877339,-0.027879935,-0.093544602,-0.146334350,0.027867615,0.034574222,0.005409259,0.043333191,0.006827278,-0.056209274,0.094384655,-0.100475498,0.044379834,-0.039817300,-0.041011829,0.059099473,0.038614761,-0.022440469,-0.001266217,-0.055513322,0.017789762,0.066871010,0.034422230,-0.089233153,-0.129855931,0.051460166,-0.301229209,0.061412882,0.057622585,-0.047648765,-0.051332325,-0.077290669,0.038251866,0.045902193,-0.060550366,-0.100584574,-0.170899063,-0.005388057,0.036032557,-0.033508252,-0.125863120,-0.069617510,0.076397635,0.026626239,-0.071673572,-0.055980068,-0.084889494,0.013429333,-0.106268965,-0.007651915,-0.027231636,-0.157295957,-0.050413933,-0.077562869,-0.041881051,0.007931160,-0.132190183,-0.007707824,-0.011978316,0.082176521,-0.045586992,0.090089746,-0.081400126,-0.077278480,0.019736348,-0.076470621,0.035209157,-0.281532705,-0.018675718,0.100293018,-0.036722362,0.021371985,0.092657350,0.075649612,-0.129977942,-0.003201103,-0.112939894,0.080084220,
-0.024693478,0.019145463,-0.061438955,-0.043615926,0.017320899,0.130650252,-0.051408786,0.011263276,0.090520673,0.100017615,-0.019550586,0.134201244,0.040995818,0.091575757,0.002966964,-0.054389384,-0.017629743,0.056275275,0.059343837,-0.129149958,0.116672456,-0.089707576,0.050541986,0.104797333,0.022491181,0.045749117,0.055060543,-0.029680241,-0.043340974,-0.062690206,0.049471121,0.021777699,-0.013074933,-0.063881069,-0.105318442,-0.018444616,0.093920283,-0.066639520,0.030205715,-0.054657008,0.081361465,-0.026203109,0.005908813,-0.089108586,-0.089569166,0.006487530,0.053313229,0.066732056,0.210489213,0.017522061,-0.018717123,0.067259081,-0.050878488,0.017539717,0.040296961,0.054365218,-0.039751556,0.034837585,0.059666164,0.026927937,-0.052072722,-0.079460934,-0.065393195,-0.062862717,-0.053399570,0.021461582,-0.048405655,-0.026944287,0.000840056,-0.038149394,0.071722172,-0.077115431,-0.046047609,0.022846000,-0.008536756,0.005455577,-0.005752599,0.090983734,0.033620998,-0.006920097,0.025835728,0.099222362,0.075797640,0.015487843,-0.028694510,0.033610892,0.071668588,0.002781300,0.064665772,0.326789588,-0.105564781,-0.020745844,-0.067885995,0.022955334,0.075390652,-0.018036172,0.054742176,0.031953394,-0.004163655,0.076053128,
0.014572144,-0.098294571,-0.082578614,-0.099076532,0.004121637,0.054056790,-0.013193048,0.089911297,-0.017990291,0.020445038,0.090174071,0.050609183,-0.003190291,0.096322298,-0.059746444,0.037247565,0.063153699,-0.061919164,-0.093934357,0.031986214,-0.037938882,-0.050464164,0.019890536,-0.072542824,0.089940384,-0.008976591,-0.032025244,0.083598129,0.027844155,0.019052232,-0.047813095,0.095307469,-0.030456865,0.083173014,-0.007350850,0.050163757,0.070312276,-0.074450247,-0.066650324,-0.098885417,0.072126262,0.085998572,-0.036546957,-0.048977923,0.016739024,0.053837933,0.024683548,-0.020840991,-0.063607477,0.085526787,-0.064761363,-0.096629910,-0.039927255,0.019940807,0.037169088,0.038666725,-0.057929873,-0.038378991,-0.044467974,-0.048425950,-0.084227338,0.020469964,-0.029081738,-0.096250609,-0.058391728,-0.060054600,-0.043136276,-0.061790418,-0.017341925,0.035836279,-0.080931388,-0.008566463,-0.028778970,-0.051125824,-0.022204829,-0.042383123,0.003214777,-0.072185002,0.018963886,0.091813229,0.082861118,-0.044835914,0.030822827,-0.094520412,0.084194340,-0.099656478,-0.089362621,-0.089762919,-0.092865400,0.013542986,-0.026443267,0.023934746,-0.006187415,-0.002148116,-0.036128141,-0.059329476,-0.083725564,0.050458372,-0.051559936,-0.020337880,
0.041485019,-0.031682078,-0.025213469,-0.073740199,-0.092608318,0.040911578,-0.029478958,0.055954788,0.006581652,-0.007060988,-0.090280108,-0.001910586,-0.029480100,-0.063893124,-0.023143781,-0.001727347,-0.075348236,0.009439485,0.062703580,0.012971689,0.088483319,0.046664216,-0.081670634,-0.046490386,-0.031202851,0.029914260,-0.002852154,0.080469668,0.004602027,-0.070247978,-0.036661576,-0.083196118,-0.034354262,0.042373873,0.000965655,-0.102198415,-0.093104638,0.036254611,-0.094718128,-0.079761982,-0.059621491,0.095311835,-0.035064366,-0.048185822,-0.067521289,0.057112269,-0.014690181,0.012385943,0.021989537,0.028202666,0.056987293,-0.001768666,0.003416588,-0.013360742,-0.077706732,-0.029820181,0.087627769,-0.077755868,-0.070013084,-0.099231385,0.006063771,-0.093532242,-0.058004688,0.092144109,0.034211174,0.046361782,0.017123116,-0.084977977,-0.046531975,-0.080955856,-0.065525852,0.027099004,-0.034742769,0.097726323,-0.079158172,-0.085340999,0.098740242,-0.093581259,0.085093133,0.020030327,-0.091145135,0.080223449,-0.027224422,-0.048196997,-0.084892683,-0.091428801,0.015337611,-0.105180107,0.034186505,-0.032304984,0.035094596,-0.031408451,0.027500927,-0.002731609,0.022490844,-0.046951558,-0.075625442,0.012735510,-0.070786521,-0.068899013,
-0.116957076,-0.050905228,-0.066818833,0.050667848,0.056710709,-0.011712393,0.078450195,0.038907811,-0.094202258,-0.021660069,-0.016232228,-0.114930592,0.022078022,-0.029530497,-0.047817886,-0.036139175,-0.080488242,0.047665246,0.055645838,0.106027953,-0.048642881,0.032659508,0.000194147,-0.113786466,0.028907087,-0.114940099,-0.036098123,-0.044782426,-0.130399197,-0.006235047,-0.036203519,-0.042687528,0.077572949,-0.011838976,-0.030072561,-0.060764667,-0.133702889,-0.014217067,-0.065878704,-0.065967299,-0.013226247,-0.017656589,-0.103232466,0.049059555,0.084807694,-0.071058095,0.003819441,-0.057429790,-0.123707719,0.093350448,-0.002679419,-0.109214887,0.087335311,-0.005052796,-0.050073396,-0.061781731,0.056440584,-0.006871654,-0.003053888,0.065722816,-0.048831802,0.008487773,-0.107140422,0.083505370,-0.057689700,0.056319386,0.034539491,0.029294536,-0.070456982,-0.002922771,0.022979315,-0.014560125,-0.012310964,0.023919873,-0.066555381,-0.020048892,0.045549180,0.033363350,0.059248757,-0.027668353,0.023693884,-0.059073709,-0.016783465,-0.060516376,0.064952083,-0.003790830,0.029879596,0.042607110,0.003809053,-0.100473270,-0.044527378,-0.090439864,-0.008326471,-0.022154415,-0.091834255,0.092419207,-0.032846749,-0.049908675,-0.111040935,-0.098750144,
0.038898122,-0.052478146,-0.043197311,-0.074491240,0.076915890,-0.004455314,0.032825124,0.069090135,-0.077530168,0.060517721,-0.019095778,0.060815610,0.033854008,-0.132657319,0.018577874,0.066498190,-0.075623684,0.094514884,-0.098223530,-0.091167368,0.079106405,0.097664729,0.024183873,-0.056812771,-0.095034488,-0.035592057,-0.024998737,0.056649614,0.009218290,-0.027937200,0.119848333,0.091009431,-0.073597118,-0.029239330,-0.036533695,-0.003679285,-0.028498605,0.038606372,0.043811977,-0.018031215,0.049109187,0.013600552,0.026005061,0.028156364,-0.026728261,-0.067913666,0.068033680,-0.077984340,0.317610651,-0.064162090,0.061405711,0.031121293,-0.046707261,0.031200795,-0.032932606,0.004562880,0.053475529,-0.001612589,0.022592010,-0.001985204,-0.020585159,0.055790972,0.065218620,0.037299514,0.046895064,-0.066828087,-0.021630950,-0.043640498,0.080698453,-0.112336576,-0.030326892,-0.038210012,-0.090438202,-0.405763358,0.026811637,0.004664874,-0.080447666,-0.016025865,0.021867171,-0.055228613,-0.083644859,0.039698027,-0.012351155,0.084775053,-0.092896506,-0.078199379,-0.017948402,-0.077007413,0.060527425,0.278682679,0.081438117,-0.087405704,0.082483314,0.069433331,-0.058326162,-0.006637940,0.050145615,0.071558967,-0.092861660,0.084478617,
-0.028143581,0.060880389,-0.062108900,-0.035137814,-0.072966926,0.091130525,-0.061637465,0.069994107,0.030231416,0.044802304,-0.022242416,-0.003203004,-0.043744233,-0.089622162,0.092203133,0.021691278,-0.074790813,-0.084298082,0.002180418,-0.124419354,0.015519800,0.063140765,-0.070256755,0.050362658,-0.044952001,0.036568966,-0.099043898,0.049677946,-0.080791712,0.054986466,0.020838944,0.078749508,-0.073225275,0.144791171,-0.106455818,-0.093588322,0.102809735,0.003398597,-0.069477908,-0.020976460,-0.088993490,-0.087030903,-0.000416020,0.070172764,0.029864503,0.013603372,0.063616700,0.101001196,0.295617074,0.033765282,-0.006372673,0.023687588,0.022060784,0.063792773,0.057560802,0.009884476,0.032339834,-0.023149095,0.080757767,0.028071905,0.075107895,-0.015613413,-0.052008770,0.019754564,0.028464656,0.084622703,0.034321249,0.004507321,0.079580523,-0.059788346,0.129588857,0.050514106,0.072634995,0.253138572,-0.111160152,0.052085843,0.093133762,-0.070128955,0.060163084,-0.053717904,-0.024147069,0.009533977,0.053490877,-0.033225682,-0.097106874,0.051324189,0.061349839,-0.007256889,0.090631202,0.314672261,0.008730973,-0.016712604,0.052098792,-0.019595886,-0.028990222,-0.052800942,-0.036746662,0.049941339,-0.008960379,-0.051688079,
0.050266661,-0.020292290,0.072152212,0.076821513,-0.053392638,-0.031755343,0.074914083,-0.098809123,-0.029982734,-0.018060485,-0.006784308,0.017455060,0.024169262,-0.062375154,0.007786489,0.042390991,-0.087088034,-0.125471026,-0.112745345,0.070179917,-0.120154440,-0.048630096,0.063643552,-0.102344699,0.049653254,-0.087207094,0.015820015,0.013090170,-0.039201058,0.034506086,0.040115669,-0.043704391,0.047800958,0.002868613,-0.006151261,-0.108556755,0.042311296,0.072583750,-0.109335497,-0.092355408,-0.098308399,0.023106122,-0.028733468,-0.067768335,0.093115844,-0.050854500,-0.108618706,-0.021674167,-0.078814730,-0.029299438,0.013732248,-0.012399245,-0.099801891,0.067180105,0.067656271,-0.102096997,-0.012376789,0.010893221,-0.105884783,-0.070279352,-0.082802415,0.044544984,-0.018457428,0.042261887,-0.095911950,0.042586770,-0.013268203,-0.103640169,-0.025170077,0.043625571,-0.008958002,-0.048753761,-0.106550254,-0.063352615,0.100081414,-0.057283580,0.070864238,-0.066667244,-0.005638584,-0.115928218,-0.032506417,0.043165628,-0.089779966,0.014536377,-0.118924372,-0.009479843,-0.124505483,-0.114323735,-0.118735723,-0.097127639,-0.022668008,-0.111327216,-0.005895492,0.060228970,0.049351480,0.058950920,0.019354934,-0.029446352,-0.037075769,0.055601541,
0.028196381,-0.044071320,0.075499907,-0.121342376,0.077826321,0.004923610,-0.062265690,-0.083063699,0.078202583,0.093200848,0.008726311,-0.060843289,0.060285188,0.061658416,-0.012480211,0.036871601,0.091342337,-0.014602226,0.055242877,-0.052345529,-0.100974597,0.010961843,0.056541085,-0.041878279,0.038866866,-0.040670071,-0.092420399,0.031541824,-0.053868648,-0.070429265,-0.006481017,-0.062677003,-0.031195970,-0.142552420,0.087466076,-0.049366664,-0.024971144,0.080109991,-0.014138785,-0.065541402,-0.096745767,0.016615355,-0.078563392,0.014040994,0.031942118,-0.017706241,0.025170861,-0.020707740,-0.340560019,-0.066119783,0.024656128,-0.069854140,0.032954030,0.007106038,0.068725504,-0.047824673,-0.057468973,-0.010421619,-0.152685672,0.038124394,-0.046276741,0.041027535,0.018456316,0.058393490,-0.021278925,0.052597504,-0.040020198,-0.089025132,-0.009516991,-0.073139422,-0.125635102,0.025467876,0.084185600,-0.129486367,0.033250019,-0.072449446,0.017477727,0.029859824,-0.100827090,0.075859539,-0.080482744,-0.016069079,-0.055507042,0.090856634,0.086347967,0.108042389,0.087001048,0.032200862,-0.082951061,-0.329532772,-0.013511403,-0.081111312,0.032373652,0.043474268,0.028992502,-0.069903284,0.039459795,-0.010583556,-0.055127371,0.061007433,
0.002462346,-0.050379351,0.023405302,-0.060970832,0.086951815,0.081695914,0.040139008,0.046979122,-0.099405706,-0.061574850,-0.096226715,-0.052120592,-0.088877670,0.067669615,0.053951230,0.052931234,-0.044393491,0.070230268,-0.020438114,-0.031752385,0.047969978,0.066223145,-0.071873061,0.089212604,-0.016079016,0.020717971,-0.099573664,0.011132550,-0.043718234,-0.068541877,-0.041752614,-0.000465810,-0.024298174,-0.058460411,0.071598463,0.023770900,-0.093064450,0.020976758,0.018586362,0.003674555,0.024282563,-0.008372438,0.043734264,-0.076391973,-0.042638171,0.068936184,-0.067868851,0.043126013,0.092527233,-0.091441073,-0.049802437,0.079352438,-0.012036983,0.013789305,0.014231957,0.035216130,-0.046672113,0.007074776,0.062774494,-0.008436263,-0.091745615,0.034565534,-0.031346090,-0.021096850,0.046323407,0.011546283,-0.060825400,-0.046147037,-0.015200960,-0.024706518,-0.021169974,-0.074346088,0.066478506,0.051862180,0.019734597,0.022642136,0.011706817,0.068798319,0.022628104,0.009385028,-0.054971099,0.027379390,-0.093554668,0.025544034,-0.092669480,-0.047314126,0.046806283,-0.065530553,0.073682986,-0.060706530,0.094719090,0.024832256,-0.048928991,0.060987890,-0.094555430,-0.069236636,-0.068601802,0.013163996,0.003973146,-0.092001714,
0.078513518,-0.014420471,-0.053399671,-0.028615965,-0.047342617,-0.020073654,0.049528155,-0.027039049,0.005829811,0.056962412,-0.065043129,-0.041895811,-0.008963531,-0.048127215,0.008144724,-0.036046728,-0.051632952,-0.015775394,0.101223536,0.095321745,-0.105074093,0.091536663,-0.038453262,-0.075458393,0.048600443,0.011644321,0.095428608,0.086092450,-0.097236671,0.023946632,-0.071285099,-0.034027137,0.106318012,0.000651340,-0.087664627,-0.029544748,-0.121352062,0.047107138,-0.011433769,-0.073102295,-0.031954397,0.032816436,-0.018566880,0.103375316,-0.001327646,0.044231728,-0.069667809,0.007035653,-0.296523124,0.085898124,0.039586216,-0.061851706,-0.074512243,-0.073391736,-0.036315825,0.016877450,0.088606730,-0.004825374,-0.049389314,0.050822534,-0.086275704,-0.082721554,0.001075629,0.046610929,-0.047347452,0.016456192,-0.083156653,0.015330961,0.024512280,0.002902870,-0.060694337,0.044549063,-0.025679776,-0.014646924,-0.047561005,-0.057149686,-0.083483294,-0.085762888,-0.009077115,-0.022590525,-0.078552686,0.020809781,-0.075725578,0.011067796,0.051819667,-0.009251785,0.049240455,0.016203562,-0.083593138,-0.241192997,0.029563904,-0.012595400,-0.018215716,0.012757408,0.016319614,0.044937633,-0.125904292,0.075871527,0.033410046,0.023648050,
0.008112945,-0.086811811,-0.028552091,-0.004349673,0.013590512,-0.063956939,0.000165851,-0.036713511,0.072787955,-0.095496252,0.010453284,0.067749463,-0.085750222,-0.012241409,0.046209265,0.029586947,0.000762800,0.030656466,-0.078282766,0.070592798,-0.010103041,0.064640753,0.021951547,-0.021526046,0.032069810,0.080503605,0.098641686,-0.084174626,0.000428158,-0.080758952,0.058264840,0.071789443,-0.070219755,-0.005779564,0.069197856,0.056661867,-0.075186960,0.067143023,-0.027510971,-0.085047223,0.019919908,0.046586215,0.059972096,-0.078093275,-0.072428264,-0.076533243,0.043303613,-0.093664579,-0.010957450,-0.029386079,0.033688944,0.010305083,-0.060476642,0.008243018,0.092026770,0.006841448,-0.049554408,-0.002801913,-0.107010879,-0.064159609,-0.021309933,-0.062315166,0.071887210,0.019411027,0.072930820,-0.031300727,-0.020148009,0.017213300,-0.029733956,-0.034087289,-0.098688781,0.065156721,0.082354993,-0.105422705,-0.040764276,-0.075638793,-0.040592551,0.065338492,0.053492095,-0.013824292,0.042710174,0.020266937,0.054611754,-0.090642780,0.021032531,-0.103603370,-0.074455306,-0.044880766,-0.017273620,-0.101343133,0.002488720,0.006298143,-0.039686609,0.032435324,0.077232018,-0.024722099,-0.060013503,-0.088582836,-0.076507509,-0.065192968,
-0.125122339,-0.057132747,0.055088487,-0.006486307,0.072758727,0.046271287,-0.024977854,-0.040893931,0.013684499,-0.085219406,0.054391898,-0.062528022,-0.077885926,-0.055463273,-0.068906836,-0.029957755,0.106852487,0.012121174,-0.021550732,-0.028489059,-0.124908090,-0.068311945,0.014660044,-0.155026078,0.042058930,-0.181160435,-0.062205460,0.067110024,-0.163848013,0.023572627,0.015819348,0.061948493,0.073862612,-0.095615104,0.032459140,0.012012015,-0.094678998,0.000325680,0.016843325,0.067051984,0.041976418,0.047749043,-0.062993690,0.000085101,0.041989684,0.037473120,-0.166955471,0.010044487,-0.208133325,-0.053029787,0.020129088,0.009980070,0.027729010,-0.027638581,0.046207406,0.094341673,-0.013352312,0.045255613,-0.215812519,0.059449520,0.024831502,0.045052804,-0.006137227,-0.026302457,-0.019998116,0.095073760,0.083088838,-0.119174957,0.079342365,0.073233411,-0.032848556,-0.079121031,0.012516778,-0.157110944,0.101239078,-0.096078411,0.025590349,-0.013543043,-0.029725308,0.070186868,0.001806474,-0.079747818,-0.058333743,-0.037708644,0.014921322,0.051533125,-0.024098188,-0.049818285,0.036330383,-0.214847967,0.032147180,-0.003671251,0.039362669,0.075561397,0.017214570,0.056698684,-0.086851105,0.071648411,0.049056869,-0.006572714,
0.034243785,-0.005601323,0.078129008,0.041164495,0.068037778,-0.092636824,0.092766896,0.035514947,0.048618197,0.017773289,0.065678708,0.094142154,-0.012426585,-0.085678421,0.091826335,-0.024052706,-0.048523854,0.056856759,0.051018424,0.009786362,-0.006902296,-0.019130087,0.091690958,0.055990990,0.054814208,0.060414799,-0.052335929,0.020879520,-0.086508967,0.055512369,-0.099120773,-0.099940419,-0.098848201,0.061666753,0.010406995,-0.004291132,0.015905475,-0.037845124,-0.034713816,-0.067359209,-0.024421692,-0.061533656,0.002631056,0.073381014,-0.082669221,0.044750456,-0.077282354,-0.043167885,0.019554436,0.017206717,0.077012569,-0.004277217,-0.043132614,-0.044971362,0.002931798,-0.080144063,-0.078405835,-0.044627521,0.002568829,-0.067534111,-0.057083320,0.071399525,0.091153100,-0.031323530,-0.085793756,-0.042289458,0.038476575,0.030589091,-0.030999972,-0.088071942,-0.030068804,-0.027623199,0.054252706,-0.050322339,0.057003610,0.013871849,-0.016759826,-0.093317166,0.098726727,-0.019016180,0.062919855,-0.056036975,-0.097383074,-0.084968068,-0.056212347,-0.035230950,-0.018644925,0.080144487,-0.094247676,0.049911667,0.084142864,-0.004287457,-0.062364209,0.003198421,0.018326880,0.041202739,-0.032281701,-0.034317136,-0.047638249,-0.101724468,
0.035120882,-0.075601481,-0.048040152,-0.001029074,0.077090405,0.088913597,-0.072736017,0.086728707,0.089578107,0.080783606,0.008706212,0.080314592,0.048586596,-0.071755961,-0.052707721,0.001880670,-0.070867956,-0.032928195,0.080624163,0.046557952,0.087087929,0.000766623,-0.050990082,0.066184796,0.007372224,0.016840374,-0.042369794,0.041077089,-0.073854625,0.079797648,0.087484278,0.036082208,0.077872612,0.060696818,-0.038191736,-0.086733341,0.013159013,0.062787615,-0.010230148,0.008414126,0.074119322,0.041289248,0.074758984,0.014683736,0.011209476,-0.023919750,-0.016874863,-0.053146567,0.066857673,0.091204904,0.037111498,0.002841377,-0.033010509,-0.098733187,-0.018516554,-0.070990622,-0.073826216,-0.019801641,-0.019672096,0.020172572,-0.072481953,0.071865872,-0.091045156,-0.047359325,-0.037965178,0.006165314,0.041338075,-0.026353193,0.015606892,-0.023673510,-0.039331008,-0.013987685,0.020134186,-0.097135104,-0.069604330,0.078125119,0.045218494,-0.002673757,0.003158033,0.013803506,0.023242224,-0.068273835,-0.027258754,-0.091777585,-0.078618579,-0.018815530,-0.013203693,0.078214608,0.017224539,-0.016214574,-0.002770448,0.055849232,-0.030292476,-0.018694377,-0.020060694,-0.080637291,-0.013976264,-0.092444174,-0.053751852,-0.063651383,
0.074492589,-0.092118420,0.096353188,0.037494745,-0.067579329,0.082848959,-0.022035956,-0.084698513,-0.013887214,0.049421012,-0.097228885,-0.007493818,0.040688314,-0.038972534,0.009107781,-0.039192285,-0.067089789,0.078314066,-0.071004771,-0.001172376,0.033305980,-0.055884805,0.048284162,-0.083045892,0.095505096,0.044535886,-0.014157391,-0.083183937,0.003083885,0.035470929,-0.054310944,-0.012593627,-0.099657647,-0.099970296,-0.010860455,0.083674565,-0.004706550,0.031351198,-0.039971579,-0.032652665,-0.010991848,-0.050553180,0.061191417,0.062359918,-0.077740051,0.030671919,-0.041310500,-0.057504404,-0.012199843,-0.031016231,-0.056939032,0.014737606,0.057077359,-0.015430677,-0.006995118,0.007525086,-0.042977847,0.052941144,0.092267863,-0.009139610,0.006797803,0.080573618,0.081905901,-0.074390009,-0.046310257,-0.098092914,0.061249137,0.078050338,-0.036396146,0.032077350,0.024223411,-0.086035781,0.039933361,0.049068119,0.002199244,0.010255003,0.023237431,0.072040811,0.088357054,0.014372694,0.042625666,-0.026162565,0.059620440,-0.039335158,-0.082428910,0.046917450,0.037088659,0.022010779,0.042546857,0.011899662,0.034033895,0.040748298,-0.053944636,-0.005358017,0.015070165,-0.015182293,-0.084078394,0.009485925,0.061114013,-0.053479850,
0.053830620,-0.006056858,0.042530667,-0.081856489,-0.099577293,-0.099908940,0.014693950,-0.054753091,0.089056648,-0.075464234,-0.067352526,-0.083501920,0.089874662,-0.024717866,0.092513166,-0.008206896,0.011240858,-0.006983027,0.047143329,-0.004390914,-0.096355930,0.096862458,0.089738809,-0.098419458,-0.033286076,-0.012727533,0.050766554,0.007926798,-0.147786051,-0.079329804,-0.030748297,-0.063869961,0.012902201,-0.138574302,-0.032236207,0.110328346,-0.118342653,-0.077609532,0.059629988,0.099500708,-0.096196294,-0.090443850,-0.064114846,0.099878617,-0.056755651,0.018531054,0.034690257,-0.048776086,-0.275843740,-0.067123331,-0.013988186,0.075576738,0.049734019,0.087982155,-0.006625128,-0.019799432,-0.085911065,0.054073460,-0.139328852,-0.085419573,-0.044613164,0.039135505,0.036861070,-0.018183231,-0.113321930,-0.081599571,-0.071380727,0.033631608,0.073712878,0.020879658,-0.030523688,0.059505332,0.054347944,0.052495345,0.094424151,0.027058983,0.051616311,-0.078179747,-0.143950775,0.024433097,0.015562213,-0.093981348,-0.072849832,-0.081905469,0.077567011,0.073670059,-0.063766241,-0.002999135,-0.038356006,-0.055326793,-0.169495657,-0.066902213,-0.126755968,0.058197845,-0.048283264,0.078071080,-0.007405175,-0.048879255,-0.052368484,-0.035704594,
0.044117428,-0.040103223,0.033936907,0.007143974,-0.079860643,-0.062861197,-0.069337383,0.052399483,0.021668125,-0.002514398,-0.059544124,-0.099080741,-0.035388637,-0.076534249,-0.099466376,-0.095376030,-0.065319441,-0.097214065,0.031172574,0.037417259,0.040306784,-0.099549487,0.061835945,0.019496357,0.051133838,-0.024577677,0.048021462,-0.094841503,0.034060728,0.079296373,0.042036545,-0.094261289,-0.028072346,-0.012418401,0.052395381,-0.037840214,0.014382672,-0.035105087,-0.015885843,-0.001990628,-0.057421651,-0.069409348,0.082553707,0.084019922,-0.003027475,0.086556904,0.077058569,-0.062988155,-0.039735902,-0.068684697,0.032330967,0.002529013,-0.013713705,0.074246697,-0.039087046,-0.054729093,-0.071087614,-0.050872911,0.096382871,-0.048619058,-0.027515328,0.045071434,-0.076803289,-0.060695864,0.073600829,-0.038354304,-0.051890731,-0.012937832,-0.014249218,0.018275356,0.036662128,-0.077104621,0.090876177,-0.095075324,0.033868480,-0.028215636,-0.042229559,0.093542054,-0.096365325,0.006829596,0.064078465,0.089399412,-0.084541522,0.012048388,0.098937988,-0.097952902,0.024425197,-0.062657095,0.016233671,-0.090458445,0.049200345,-0.022183919,0.059764292,-0.001503754,-0.014253962,-0.024278319,-0.091564119,-0.042476095,0.003321040,-0.077364646,
0.079981439,-0.070960633,-0.038959205,-0.016810631,-0.088450231,-0.007685676,-0.053895812,-0.089408174,0.002452850,0.082482100,0.024624933,0.081268780,-0.006814990,-0.041299380,0.080595806,-0.061054986,-0.100422852,0.013841882,0.043608129,-0.062488586,0.031678829,-0.035478320,-0.017845502,-0.030250804,-0.029533492,-0.090732500,0.024508357,-0.026304377,0.073952287,0.010831299,-0.090514854,-0.076075427,-0.056207541,0.045529034,-0.070454396,-0.052482981,0.016541040,-0.069329791,-0.055165354,0.090678513,-0.052869368,-0.033317175,0.073126636,0.015686039,0.078489959,-0.094015181,0.040561050,-0.020933695,-0.064064637,-0.042829644,-0.103822663,0.063045338,-0.025623558,-0.104168028,0.085521661,0.058494665,0.031353697,0.092038929,0.087348923,0.093455851,0.085250631,0.081267737,0.019044565,-0.008374560,-0.006030146,-0.047501996,0.040261142,0.000580254,0.023592604,-0.072277479,-0.043459784,0.068527296,0.003516741,0.034509182,-0.095402136,-0.042822611,-0.002545059,-0.018336255,0.057698734,-0.035359405,0.083459735,-0.026068743,0.038894892,-0.077207826,0.010588316,-0.103160664,-0.091817230,-0.069962658,0.021974176,-0.000898773,0.009879611,-0.017722545,0.078401402,0.097960010,0.036122460,0.073196791,-0.011428109,-0.036763180,0.013931859,0.059275258,
-0.060535602,-0.103293814,0.033023596,-0.056228258,-0.070936725,-0.002205197,0.005270219,-0.063075043,-0.059837211,0.082015984,0.065044761,-0.107485749,0.000789203,0.011510612,0.047666419,-0.151622191,0.027595609,-0.027971860,0.049195990,0.060061429,-0.122785993,-0.096001461,0.087884955,0.038837090,-0.043770917,-0.182437092,0.029258585,-0.070109859,-0.156295210,0.021922216,-0.073447660,-0.049084615,0.120125458,-0.075705759,0.032402802,-0.024538701,0.036911052,0.030507242,0.078320689,0.034877945,-0.035421755,0.043585386,0.056250680,0.017591935,0.046102870,-0.060988080,-0.017276732,-0.107094616,-0.189784810,0.041302372,-0.016112331,-0.111013778,0.097466201,0.081029661,0.092186846,0.033345744,-0.011967611,-0.026733426,-0.154159874,0.039640296,0.025120508,-0.003242004,-0.044899371,0.034351360,-0.112252392,-0.096330486,-0.018665809,0.066186838,0.048788227,-0.090994105,-0.091053590,-0.017945843,0.021254942,-0.058980346,0.039932460,-0.077838600,0.006135905,-0.050289348,-0.134458318,0.053270545,-0.013435197,0.037546214,0.077865832,0.005084238,0.052567385,-0.038628567,0.044082332,-0.012015451,0.051241398,-0.120866463,-0.165174156,0.094759218,0.037628345,-0.080556892,0.029340185,-0.062996790,-0.010165456,0.015463996,-0.114637002,0.040443499,
-0.027468026,0.099677734,0.097600810,0.034521010,0.078824297,0.036118068,0.094609775,-0.009232664,0.024715042,-0.016518295,-0.001748836,-0.030166639,-0.039575484,0.057847787,0.042912710,-0.044143785,-0.088130154,0.048895728,-0.091987170,-0.004425121,-0.086044274,0.083733082,0.081427693,-0.082184188,-0.092973314,-0.059124719,0.027594125,-0.050007593,-0.023814607,-0.025347924,0.018343294,-0.047300577,0.045481492,-0.071558677,-0.008901382,0.083822630,-0.055217862,0.076721840,0.052046001,-0.032301821,0.034676444,-0.067557588,0.008048261,0.028326059,0.086496130,-0.055957891,-0.056872200,-0.049910486,-0.097417250,0.020222748,-0.082776986,-0.026844395,-0.044618156,0.005591107,0.030334879,-0.072668567,-0.029521465,-0.009613884,-0.057808232,0.023101151,0.037019636,-0.071268119,0.078631654,0.071059994,-0.030042458,0.014879144,0.012175798,-0.013797211,-0.067113809,0.082402043,0.049210299,-0.083566882,-0.077501573,0.095095493,0.015960490,-0.022974564,0.067773774,0.028727902,0.035897087,0.079333924,-0.007804787,0.095287524,-0.070243470,-0.060850013,0.016943848,-0.012140477,0.057065155,-0.027192712,0.015724827,-0.020778799,0.075074650,-0.006559253,0.001534939,0.073259346,0.097217821,0.095685497,-0.097772382,-0.056506075,-0.021714831,-0.020644331,
0.035441186,0.026029162,-0.008225179,-0.032115482,0.012479270,0.034049183,0.062200233,-0.053093590,-0.051226880,0.024984457,-0.010114587,-0.087703004,-0.094385162,0.030374065,-0.029202318,-0.102177776,0.044530939,0.056755677,0.085304730,0.098719195,-0.131111249,0.057072975,0.080916695,0.004303318,-0.024921695,-0.073338665,-0.054239858,-0.022525728,-0.064709134,-0.016797226,-0.108050525,-0.004986096,-0.060052406,-0.127442285,0.044203401,-0.071377896,0.057276044,0.095754586,-0.034357056,-0.017234063,-0.076505505,0.006182230,-0.010452505,-0.049204182,0.031358350,0.006058265,-0.072807685,-0.009234068,-0.389465570,-0.070443228,0.006192697,0.087158769,-0.048218932,0.083136335,0.009151936,-0.042975176,-0.009452813,0.049367301,-0.080943920,0.088521890,-0.028558098,-0.066778086,0.050579358,-0.028560067,0.059418086,0.062808864,0.029979698,-0.074713103,-0.098174296,0.045022573,-0.024478322,0.057100587,-0.090757646,-0.106498450,0.125056669,0.052538063,0.083103411,0.078900687,-0.109165944,-0.069365025,-0.059628833,0.030190013,-0.039693583,0.002370973,0.016565697,0.070964493,0.049572051,0.048295293,-0.003751515,-0.192104027,-0.087597013,-0.032941297,-0.048006970,-0.058072533,0.093349479,0.001548090,-0.005560104,-0.003109086,-0.015789263,-0.045391575,
-0.007341719,-0.089449517,-0.047820963,0.076956086,-0.093795113,0.016456092,0.015931202,-0.095711447,0.019531477,0.046431482,0.072428204,0.018717576,0.078167669,0.003764021,0.038102221,0.029520905,-0.073733270,-0.021951437,-0.070420705,0.077699795,0.047705878,-0.042410661,-0.018299520,0.026695503,-0.087192334,0.002823699,0.047701824,0.012530076,-0.009201038,0.064290248,0.043498706,-0.088899486,0.058851328,-0.078872763,0.056172695,0.084204711,0.009215987,-0.033797096,-0.051654603,-0.044403959,-0.018433202,-0.041458178,0.099271238,-0.043134537,0.041518878,-0.092732660,0.050685167,0.085091308,-0.071686745,-0.025514318,0.023833966,-0.095722727,-0.063271903,0.034778465,0.094164528,-0.029874397,-0.000910711,-0.096533433,-0.095984749,0.086967759,0.084860742,-0.030476904,-0.039541852,-0.006473553,0.046399105,-0.096638858,-0.055392172,-0.032967091,-0.043525983,-0.002641737,0.072940789,0.021833837,-0.090498127,0.092488244,0.080518939,0.031485509,0.048948027,0.037382614,0.081966393,-0.096179627,-0.062251415,-0.012699342,-0.019022001,-0.066412844,-0.095899813,-0.076372467,-0.015531385,0.084887408,0.066298001,0.028824342,-0.061418366,-0.040229607,0.009633469,-0.092690580,-0.004565013,0.020335127,0.090408660,-0.026249826,0.098157704,0.007544387,
-0.104301721,0.075949095,0.086697750,-0.106018811,-0.089625806,0.023889564,-0.080554776,0.046587326,-0.047713172,-0.051752392,-0.028706718,0.111779250,-0.052084398,-0.035293501,0.060507681,-0.101403937,-0.017455352,-0.112055026,-0.110803880,-0.059689865,-0.008705455,0.085276783,-0.106043629,-0.067516945,-0.011573374,0.018991448,0.058425318,-0.080408908,-0.049475309,0.003654633,-0.111417934,0.050391257,-0.116062768,0.054206509,0.015283419,-0.047738105,0.038000777,0.084697895,0.054638263,0.060655307,-0.058212996,0.028735900,0.066988364,-0.009128986,0.066206895,-0.080617987,0.045328118,-0.020375742,-0.133789763,-0.025922561,0.057919428,-0.057902046,-0.041325085,-0.062824689,-0.054372776,-0.004197460,0.027859146,-0.006888733,-0.023697052,0.005784690,-0.076535352,-0.052689780,-0.038888406,-0.079929434,0.042302277,-0.004610138,-0.025515750,-0.028414290,0.084459662,0.113376774,0.013842240,0.025820067,-0.074891940,0.040878523,-0.075494036,0.043217540,-0.071008243,-0.039859541,0.076058045,0.055298407,0.088420585,0.014053074,0.038817789,0.000913660,0.052265711,0.034596045,0.009962702,-0.057006322,-0.068606123,-0.071871884,0.047723878,-0.074136667,0.003031965,0.087490253,0.062681101,-0.089676104,0.011559378,0.065387249,-0.114962220,0.039340731,
-0.069679022,-0.079369023,-0.042389300,-0.045183789,-0.048408959,0.022106476,0.031649236,0.031650275,0.069042899,-0.070332117,-0.094952941,-0.087459683,-0.062024456,-0.052546684,0.043941330,-0.079139613,-0.078733832,0.046699859,-0.070560545,0.011516497,-0.083561882,0.038155485,0.055930387,-0.091240637,0.026887648,-0.058917996,0.063463859,0.089940645,-0.091222890,0.030315092,0.061051607,0.109248951,0.068151660,0.012131288,0.002214999,0.013895947,-0.067366473,-0.019592905,-0.008658928,-0.063278712,-0.004433906,-0.013284302,-0.041611820,-0.037731595,-0.099592626,0.088266619,0.042755045,0.065233514,-0.049742956,-0.097900607,0.067171045,-0.024672214,0.008518524,0.043039676,0.006390226,-0.010344388,0.052654225,0.072789274,-0.034200754,-0.085375965,-0.060777675,0.071462527,0.001102975,0.085624233,-0.042196505,-0.101812050,0.024196049,-0.048574809,-0.059785854,0.055208709,-0.000347554,-0.015591254,0.090142101,0.061435990,-0.087907046,-0.091925740,-0.049450066,-0.084875822,-0.057560876,0.060321320,-0.066539697,0.084981605,0.031200457,-0.002632770,0.010202660,0.014064499,0.025112990,-0.088497683,-0.008767079,0.059512302,0.096146710,-0.012190416,-0.078777552,0.045957994,-0.098470770,0.082327455,0.054782558,0.045041393,0.006312359,0.065661035,
-0.040395927,-0.083408438,-0.055278718,0.074414216,-0.049978506,-0.079736829,0.021903729,-0.062118065,-0.004232788,-0.063471697,0.021128654,-0.016325057,0.013194168,0.046223808,-0.064389519,-0.034094669,-0.066682152,0.083273306,-0.035804775,0.037659813,0.023078835,-0.098658137,-0.070991732,-0.025699997,-0.076660946,0.053025018,0.062859893,-0.000183451,0.012244678,0.026352489,0.033259679,-0.019342005,-0.039348174,-0.061832573,0.003981948,0.079074815,-0.012430144,0.086045019,0.034978688,-0.051453460,0.038842238,0.040055372,-0.044505786,-0.017528117,-0.010385299,0.035300460,0.078029774,-0.021993017,0.065026939,0.053919483,-0.086648040,0.073104762,-0.004050267,0.077185445,0.077893458,-0.096834414,-0.083280936,-0.011383021,0.032133948,-0.015915012,-0.096271537,0.054395270,-0.057182647,0.045397639,0.070633255,-0.033728864,0.060224559,0.013297808,-0.031393744,0.006487072,0.035960685,0.051188089,-0.057382394,0.074745014,-0.047296155,-0.086142622,-0.043229379,-0.088532262,0.028000057,0.006732047,-0.004869652,-0.067679100,0.052716028,0.016376926,-0.025097573,0.017717255,0.035268988,-0.060079481,-0.028802037,-0.045411911,0.088507526,0.024726689,-0.075468771,0.070623063,-0.015878653,0.006882739,0.012938643,-0.011679149,0.094669163,0.043317009,
0.007115964,-0.045910560,0.023015916,-0.096640363,-0.049703144,0.064505115,-0.117681347,-0.020649379,-0.036856413,0.037623443,-0.062464323,0.041786745,-0.044305388,0.069240466,-0.014921474,-0.065227166,-0.046111781,0.077056870,0.025265520,-0.008294535,0.066949226,0.038616657,-0.026640151,-0.061104346,-0.116542391,0.075873375,0.077985778,-0.038220178,-0.026264213,0.001878487,0.017001228,0.041692376,-0.029352479,-0.009787487,-0.081790939,0.019510247,0.033805668,0.023591459,0.043693032,0.042542279,0.000190473,-0.007704711,-0.023504835,0.073973864,0.083234467,-0.017630054,0.120036349,0.075368546,0.274241626,0.051404215,0.022354174,-0.031236976,-0.008311303,0.061110649,-0.016849507,0.016066846,-0.011732303,0.001359149,0.089624949,0.062193204,0.058351647,0.047583770,-0.012182614,0.091059066,0.060217310,0.081037261,-0.105617031,-0.079966426,-0.083035223,-0.019518536,0.061309982,-0.083676860,0.006077925,-0.006009056,-0.106388822,-0.003926885,-0.011741173,-0.069671862,-0.038622994,0.042515121,-0.010262060,-0.028935621,-0.027802348,-0.027823834,-0.040013626,-0.076841012,0.029342452,-0.015917210,-0.099810131,0.072604313,-0.019472891,-0.052236699,0.012233506,0.093552582,-0.087050386,-0.014468106,0.088687971,-0.058290828,-0.099346377,0.009777354,
-0.009676629,-0.010400322,0.062825672,-0.087274931,-0.068114266,0.061067067,-0.081088692,-0.022446012,0.046426978,-0.063482530,-0.077546254,-0.059717692,-0.083261974,-0.095927276,-0.016388476,-0.100864522,-0.068157807,-0.000650329,0.084650330,0.103085808,0.075572528,0.011070705,0.053989105,-0.038838357,-0.072241075,0.042504773,0.039449837,0.035198867,0.038828772,-0.034447413,0.067394465,0.054498971,-0.053009991,0.069889054,0.036038052,-0.005005656,0.000914909,0.085951142,-0.005493382,0.035167646,0.072976343,0.005405223,0.089717463,-0.067318529,-0.009770322,-0.000707348,-0.002107867,-0.082130156,0.087083384,-0.056113135,0.063582644,-0.048576407,0.031272303,-0.063828729,-0.043549623,0.017765479,0.068765655,-0.016962634,0.028675502,-0.055160571,0.031610228,-0.011235666,-0.031145703,0.049235560,-0.033194352,-0.069940686,-0.036401324,0.061035004,0.095732346,0.084029734,0.061220925,-0.070111960,0.080557145,0.041787729,0.011856249,-0.057971526,-0.053129148,0.017840458,-0.011979169,-0.039669950,-0.076332681,0.076815255,0.030958438,0.004998379,0.001030163,0.044707447,-0.069180630,-0.012864545,0.079216830,-0.025656676,-0.085621856,-0.068414152,0.052437857,0.052661955,0.060707506,-0.043614682,-0.055098630,-0.088407792,-0.002599108,-0.029831827,
0.069573119,-0.062698752,-0.063542940,0.012703987,-0.060219590,-0.005121612,0.078354619,0.038203858,-0.099668913,-0.014695803,0.003147090,0.104201794,-0.106048495,0.046886839,-0.098191909,-0.095890462,-0.049070571,-0.094162926,-0.023418095,0.051376872,-0.018658618,-0.075836256,-0.015413395,-0.090661980,0.037945606,0.051965844,0.088689111,0.042421866,0.051834244,0.013169124,0.087091357,-0.073457137,-0.088538185,0.061235525,0.045195039,0.078914262,0.045334332,0.036204662,0.040341366,0.065158270,0.054871596,-0.078420296,0.052988574,-0.089845151,0.012908006,0.035236236,-0.018749179,0.068413883,0.063393980,0.028789246,-0.097500287,-0.018922647,0.055848844,-0.004238429,0.087116890,-0.013047134,-0.059499364,0.044958159,0.074737817,0.055211961,-0.063532896,-0.075822487,0.061447069,0.034983326,0.053735349,-0.102625869,-0.069756851,-0.000960950,-0.051938832,0.176477596,0.058311556,0.065592661,-0.013305929,-0.088468276,-0.042516518,0.023199487,-0.026987422,0.009874760,-0.001918167,0.061545704,0.086622618,0.085590415,0.033118274,-0.088127479,-0.042310391,-0.072246365,0.025336765,-0.030996220,0.022633694,0.067464143,-0.039038494,-0.004153625,-0.039959528,0.017313600,-0.084894307,-0.010835357,0.068969816,0.051738013,-0.089768663,0.062167320,
-0.065169469,0.101702444,-0.020390082,0.115426458,0.063416272,0.042189475,0.063841581,0.091911502,-0.078216434,0.036028530,0.068455152,0.075214386,0.079768106,0.035554238,-0.079311982,0.001369569,0.102290377,0.051835414,-0.036612593,-0.035651434,0.095374711,-0.086108439,-0.005062701,-0.010478253,0.046917263,0.003820230,-0.090878010,-0.024689330,-0.084508918,0.068906166,-0.479184002,0.053860944,0.043770663,-0.126037568,-0.039197374,-0.081355557,-0.164617807,-0.079737857,0.062030010,0.080979899,0.044409133,-0.083367757,0.223093927,-0.074706286,-0.038369179,0.068363518,-0.030560086,0.074820258,-0.678336799,-0.087573051,-0.091530092,0.026005965,-0.086002730,-0.048257828,0.065349616,0.000623033,-0.023059353,-0.059946060,0.072861545,0.090108410,0.018180156,0.017638648,-0.308433563,-0.072305039,0.015792539,-0.069833502,-0.030280776,-0.004818952,0.007028246,0.102582015,-0.028170509,0.014667380,-0.064952455,0.288003832,-0.140327439,-0.044888951,-0.024936652,0.086413339,-0.038392268,0.042811465,-0.082401931,0.158152401,-0.059936106,0.054577895,-0.050400704,-0.051416755,0.002262117,-0.042432405,-0.002322446,-0.863383651,-0.039085221,-0.049116358,0.061958615,0.056400478,-0.021261133,0.071052201,0.062980369,-0.081690215,-0.006630494,-0.022550853,
0.070000850,-0.032217283,-0.081419982,0.078720756,0.017184692,0.025139604,-0.015330399,-0.084849969,0.032192718,-0.005093105,-0.066208959,0.056986239,-0.099047199,-0.067856729,-0.023316372,-0.098874398,-0.095299713,-0.035231743,-0.024225904,0.067389548,0.040694736,0.092977278,0.025479535,0.008132054,-0.024505170,-0.046980310,-0.089585386,-0.091338910,0.037330419,-0.068685278,-0.041624829,0.046733167,-0.067780815,0.036972690,-0.005533648,0.015233563,-0.045552064,0.072916090,-0.087417230,-0.093357764,0.078021780,-0.067559831,0.095994703,0.039110012,0.038594890,-0.017840033,0.013810826,0.020212196,-0.047023799,0.073606186,0.056170437,0.000569112,0.023290547,-0.017547909,-0.036120702,-0.082451701,-0.042274062,-0.101119936,-0.037412684,0.052319147,0.095434107,-0.091506712,-0.088035703,0.082536601,-0.040867720,-0.005238974,0.057433616,0.082966477,0.037870884,0.020390419,-0.007652406,-0.002809684,0.035068881,-0.099979557,-0.102750421,0.067428522,-0.097887650,0.047345851,0.066192016,0.060691223,0.030501712,0.005752878,0.046182301,0.054283682,-0.002212274,-0.077435881,0.056842834,0.005827734,0.054886021,-0.068939477,-0.024997283,-0.069671929,0.000528164,0.084979437,0.013640032,0.079616487,0.068155803,-0.068782106,0.090697952,0.000220304,
0.076266199,0.012164799,-0.017073823,0.077830702,-0.081392720,-0.004761243,-0.021548897,-0.002580308,-0.028690148,0.072006933,-0.005226874,0.034633607,0.035762571,0.083447374,0.035957575,-0.106091686,-0.082902446,-0.101921827,-0.105384156,-0.090500988,-0.009227393,0.094644904,-0.071151324,0.034760486,-0.052979060,0.077468514,0.065037787,0.046464052,0.080023535,-0.082764842,-0.084913649,-0.059908539,0.013349019,0.080640934,0.066023961,0.023712691,-0.025681293,-0.056778491,0.091848113,-0.087530248,-0.068980925,0.058851004,0.069084026,0.019137911,-0.001747012,-0.019219596,0.007235944,-0.057699114,0.100512661,0.099872649,-0.046108894,0.062155563,-0.031117948,-0.079756632,0.017168391,-0.026509354,0.075491659,-0.000243064,-0.030019158,-0.079435878,0.065419197,0.066743486,0.007426783,-0.008760667,-0.041272439,0.015823675,0.089519545,-0.016475691,0.009123946,-0.095273934,0.019114001,-0.050180599,-0.030793013,-0.053032782,0.085381918,0.068095110,-0.043064345,-0.031566113,0.024633115,0.030227832,-0.047078945,0.033120051,0.015899826,0.050222419,-0.061407972,-0.071895331,0.039119076,-0.011124987,-0.050900057,0.071880765,-0.017139684,-0.074364200,-0.021172604,-0.046330478,-0.041877836,-0.089154266,0.072381511,0.087989405,-0.091204748,0.055425715,
0.003245546,-0.061479826,-0.029329503,-0.015536692,-0.004455269,0.081771232,0.072725609,-0.020541470,0.094063304,-0.080404595,0.000846541,-0.091426268,0.026974976,0.001693402,-0.060575198,-0.073421560,-0.030841090,-0.034985095,-0.059949923,-0.123725019,-0.057342354,0.082997821,-0.051113058,0.034020536,-0.023459772,0.002075848,0.032714762,0.075299837,0.046508569,-0.011320489,0.048958231,-0.000349538,-0.009658634,0.076669127,-0.074446239,0.056128535,-0.042000391,-0.005136168,-0.080580920,0.065983571,-0.080430105,-0.044302892,0.020844549,-0.062546596,0.010745418,0.070424616,-0.081576936,-0.084464744,0.016276009,0.095624864,-0.002724407,-0.095395431,-0.111071847,0.049500432,0.091835678,-0.082754679,0.024654534,-0.046442639,0.092623025,-0.055957474,0.075933531,0.099846937,0.052374206,-0.017109597,0.004613182,0.022390803,-0.093768395,-0.051340260,-0.097822785,0.035113316,-0.079593532,0.062635243,-0.050192457,-0.032008987,0.030831691,-0.009727299,-0.067794316,-0.025623130,0.011574003,-0.094873235,-0.063095167,0.018051039,0.008416319,-0.063741885,0.016999256,-0.051594529,-0.098643064,0.010159979,-0.053877518,0.184385031,0.071879566,0.054355096,-0.126432255,0.085765056,0.068506002,-0.087827154,-0.111652277,-0.078063361,-0.057382453,-0.028534429,
0.027560366,0.023850037,0.019373691,-0.078068458,0.096248448,0.086142436,0.048720565,0.021841491,-0.055839863,0.007307756,-0.071363382,0.091913380,-0.088810459,0.085110620,0.094148360,-0.048411217,-0.089231528,0.035278477,-0.076750673,-0.092263512,-0.060246170,0.070691727,-0.062678091,-0.040021610,-0.040555444,0.071073413,0.038747359,0.057319928,-0.018681658,-0.059129622,0.036040973,0.040346384,0.082770407,-0.093703054,-0.073377445,0.065608613,0.025866628,0.066389620,-0.025287235,0.099712454,0.039080955,-0.038706101,-0.048310306,0.026272928,-0.002462626,-0.048465837,-0.053600501,0.033694338,0.049362600,0.095239662,-0.042199016,-0.059037067,-0.063041680,-0.067741193,0.098781340,-0.048904609,-0.047040667,0.073364370,0.079521835,-0.091519251,-0.011022985,0.030049324,0.015293158,-0.056852233,-0.080585219,-0.072158255,0.033309411,-0.046556570,-0.090927497,0.098590031,0.045822836,-0.029834509,0.015957130,-0.035537291,-0.065921262,-0.092391826,0.065185860,-0.092346169,-0.075427316,0.083444141,-0.062978864,-0.033574890,0.000461805,-0.098751917,-0.090795688,-0.081115320,-0.015074551,-0.036191523,0.074267581,0.064326800,0.097290613,-0.086529754,-0.047647595,0.068121195,0.034666479,-0.065139823,0.074975207,-0.051074088,0.094953731,-0.079813100,
0.028833101,-0.039271157,-0.086557664,0.037986979,-0.062155392,-0.055367939,-0.037492521,-0.039969627,-0.025593519,0.024307199,-0.008076704,-0.010499167,0.026390608,-0.004221727,0.040090907,-0.095252559,-0.110603340,-0.117410123,-0.086234584,-0.068486221,-0.014191064,-0.008897710,-0.097220592,0.008843501,0.034731530,0.009646996,0.004100621,-0.007321298,0.022076530,-0.103814363,-0.084327079,0.062755615,0.073474973,0.005278728,-0.024581943,0.018604090,-0.042424150,-0.003357518,0.070392214,0.085363366,-0.056808319,0.089995421,-0.061416127,-0.000500581,0.089063741,-0.057002839,-0.034153186,-0.032559197,-0.351731330,-0.006088054,0.062096767,0.030679949,-0.064601451,0.081485949,0.020343805,0.067126416,-0.015252121,-0.046304397,0.009845336,-0.014822948,0.006239171,0.003253162,-0.066437811,-0.007759345,-0.123101212,-0.010195371,0.093690552,0.020397849,-0.092399858,0.021170022,-0.054768734,0.008868951,-0.112960592,-0.000498133,-0.069390036,0.014228905,0.060187139,0.043407667,-0.050440051,0.076477855,-0.005881941,-0.079884760,0.046740461,-0.018096292,-0.099030830,0.052144825,0.077245377,0.032476831,-0.043191213,-0.276392013,0.039645169,-0.067195058,-0.019670643,-0.090481773,0.043929659,0.008222793,0.057373807,0.048528828,-0.118719287,0.062439673,
-0.108780414,-0.074565150,0.051632073,-0.096260644,0.013510773,-0.049215063,0.013057902,-0.062948972,0.069985531,0.001474325,0.037126925,-0.021938171,-0.052768622,-0.023812748,0.066565655,-0.137345672,-0.011689383,-0.130022064,-0.061114330,0.054038011,-0.090998314,0.033323791,0.101570763,-0.009860548,0.092967935,-0.078171238,0.096474670,0.016133536,-0.087281004,0.019971972,-0.098237224,0.041262385,0.111806981,-0.150967777,-0.054760624,0.086520463,-0.019761700,-0.036152292,-0.057462011,-0.022912502,-0.018821800,0.092248850,-0.088785797,0.015470116,0.028344274,-0.043960728,-0.054446172,-0.033454511,-0.174735203,0.071548417,-0.016218249,-0.067296416,-0.050223634,-0.027066763,0.086750925,0.077076152,0.001731157,-0.096725218,-0.071616583,-0.018585552,0.046315502,0.051976215,0.032475706,0.007281792,0.004531910,-0.008383376,0.080713227,0.085413612,0.047117233,-0.023090320,-0.090118043,0.086490117,-0.059651852,-0.281830311,0.070080504,0.051783409,-0.060652580,-0.022547165,-0.094584405,-0.014358078,-0.085825108,0.034983750,-0.076459743,-0.027515441,0.026148288,0.082890630,-0.029356427,-0.071630515,-0.058763437,-0.216556773,-0.140380830,0.028739495,0.005494770,0.094375923,0.083534971,-0.005805147,0.002206776,0.013119841,0.026567059,-0.041389551,
0.076180227,-0.015237902,0.063336335,0.044330008,-0.039398283,0.060514577,-0.044998564,0.029933283,-0.015520168,-0.097592205,-0.025492800,0.012710935,0.061264627,-0.091493867,-0.058029603,0.034495097,-0.064316787,-0.011659936,-0.086859696,-0.039052770,-0.054756962,0.022333158,0.019838983,0.004226706,-0.099627003,0.038747508,0.084173501,-0.089664496,0.065160222,-0.105661012,-0.039031412,-0.022320433,-0.032770321,-0.071754649,0.070422649,0.002093421,-0.048459765,-0.003537142,0.060224202,0.099089168,-0.056968082,-0.088695422,-0.078713723,-0.073337592,-0.081697896,-0.054848462,-0.075738683,-0.018689653,-0.202092767,0.064235225,-0.084698379,-0.090409793,-0.062657334,-0.093189225,0.005386210,-0.093977638,-0.040574212,-0.033334460,-0.087681741,-0.045147646,0.033592708,-0.028668214,-0.117857784,0.081356131,-0.041042969,-0.006668716,0.060461618,0.045632143,-0.080828510,0.083018288,-0.048694238,0.006470823,0.024302885,0.023703072,0.034765143,-0.045128118,0.074317627,0.039220449,-0.090690501,-0.055881284,0.086419336,-0.088030040,-0.090484396,0.043112244,0.017822411,-0.008354902,0.061715085,-0.014286658,0.080332898,-0.129015446,-0.111589074,-0.035174742,0.075633340,-0.085499719,0.022878071,0.009182141,-0.054410476,-0.082009815,0.020750215,0.018270135,
-0.002615535,0.039513018,0.054685343,-0.070432007,-0.086442627,-0.016628742,-0.014391494,-0.038410854,0.026319755,-0.076738514,0.097171046,-0.020123458,-0.055859040,-0.015978551,-0.079184055,-0.086530522,0.028940333,-0.027443303,-0.054152060,0.046118319,0.078116380,0.011212552,-0.049832035,0.054417264,-0.034438051,-0.046290625,-0.019496763,-0.024299776,0.096539095,-0.017947031,-0.090038300,-0.031758368,0.036684502,0.043241154,-0.067082241,-0.070442416,-0.028453065,0.006394565,-0.082295135,0.046036568,-0.018768180,0.058171358,0.029803706,-0.015957629,-0.009024739,0.030740142,-0.051965382,-0.025923872,0.045766186,-0.089253582,-0.019908190,0.020815838,-0.051571395,0.047340751,0.049536586,-0.014498007,-0.032131340,0.048398998,0.005633438,-0.077323116,0.057633795,0.098443344,0.085585788,-0.055163503,0.092840970,-0.041674830,-0.075777851,0.071610510,-0.070519857,0.091916516,0.098005176,-0.067210831,0.066225469,-0.019069089,-0.026000990,0.015171409,0.037769783,-0.068061285,0.098063171,0.070068650,-0.057773080,0.047221530,0.017753983,0.054956436,-0.002328658,0.033830144,0.027947819,0.093454279,0.014096940,0.081510603,0.016544867,0.032209981,-0.011137116,-0.010860789,-0.075158753,0.096122660,-0.054104198,0.052339580,0.023072291,0.064849153,
-0.107297122,-0.029803911,-0.095838837,-0.109896928,0.020604970,-0.026362056,0.044774082,0.049776673,0.000244987,-0.050037105,0.069364861,0.092193268,-0.009666346,-0.098410919,0.041807987,-0.017514300,-0.098935433,0.038232390,-0.016296308,-0.026369443,0.102382258,0.050758447,0.045142412,0.004672193,-0.032941658,0.071070522,-0.074821256,0.094499469,0.013104054,-0.114622347,-0.076562874,0.035210099,-0.007283224,0.025484065,-0.091158129,-0.016253071,0.063555367,0.055242348,-0.013626596,-0.098870516,0.087393098,0.038410127,0.049430680,0.040376991,0.059101798,-0.033075463,0.089167938,0.046903245,0.264793068,-0.077056006,0.053682409,-0.070094645,0.064224944,-0.085351206,-0.006891096,-0.058295544,-0.031642515,-0.054976452,0.095716588,0.033038020,0.000056093,-0.080315076,-0.076798953,0.056792762,-0.052735705,-0.097911403,-0.080022156,-0.019531336,-0.044440102,0.038279444,-0.022707973,0.074465930,-0.114724711,0.115653485,0.020704297,0.061311733,-0.041064240,0.021491576,-0.057872437,-0.082717516,0.054684807,-0.021145867,-0.073179603,-0.022673700,0.069476031,0.000267966,-0.039948344,-0.040160332,-0.078977764,0.202268571,-0.004987843,-0.067954667,-0.017661331,0.030909384,-0.015767841,-0.026148418,-0.104225501,-0.003014553,-0.055741251,-0.022233564,
-0.043600243,0.030018903,-0.061915051,-0.040169653,-0.041239560,-0.026625399,-0.022062888,-0.057784706,-0.043285705,-0.000233407,0.042029202,-0.093821391,0.036444385,0.008347694,0.077201821,0.042407047,0.044204757,-0.056765318,0.015152124,-0.128249630,0.045251694,-0.038364079,-0.048039913,0.101482019,0.092054255,0.020513413,-0.057564806,0.054645360,-0.033041026,-0.061306119,-0.068054497,0.117729083,-0.023785857,0.035721235,-0.088231601,0.027281616,-0.121791452,-0.029029930,-0.030667493,0.058852565,-0.009317184,0.014361024,0.055905044,0.022647263,0.081241488,-0.055475935,0.090884067,-0.027652653,0.319426179,0.021369135,0.098845243,-0.006904830,-0.029971397,-0.065162428,-0.063166671,0.044362698,0.031601820,-0.048063960,0.063530765,0.017070878,-0.006942888,0.083573021,0.085824475,0.024363805,-0.036674131,-0.054272760,0.086903267,0.002519569,-0.090783454,-0.057377860,0.051541597,0.015631372,0.080919467,0.339229137,-0.030545942,0.070708446,-0.014769864,0.032873236,-0.023227813,-0.053491309,-0.075427137,0.000488337,-0.078400016,0.065303028,-0.057867911,-0.090636835,-0.004044528,-0.053785983,-0.070913665,0.311811298,0.055054173,0.000897248,0.057340335,-0.033415545,-0.005734548,0.075880326,-0.033667833,0.040293384,0.085033715,-0.029768217,
0.090591781,-0.034062229,-0.019964565,0.043146558,-0.018956756,-0.013622050,-0.031964410,0.009252796,-0.055236459,-0.085875697,-0.078370333,0.097180352,-0.010019013,0.029950405,-0.095779613,-0.000007753,-0.101201080,0.005136092,0.075497694,0.055148188,-0.012868138,-0.054322567,-0.098337181,-0.034845266,0.035238348,-0.028661987,0.054966655,-0.035920192,0.118385226,-0.034534153,0.017662551,0.093559824,0.054520942,0.068282381,0.080754101,-0.108515203,0.143603787,-0.052301276,0.061894562,0.077807128,-0.008338488,0.034481037,0.046743929,0.032830633,0.067068450,0.015040843,-0.011063821,-0.007153280,0.249088049,-0.082629003,0.030026177,-0.073930338,0.050928626,0.074687667,0.013610172,0.072378621,0.024758745,0.050164327,0.074968643,-0.083333910,-0.070805006,-0.024008561,0.078234553,-0.018608106,-0.024826346,0.049139611,0.066911496,0.022880498,0.029639816,0.029356139,0.015965333,-0.099677026,-0.109498158,-0.033512119,-0.102791891,0.075738929,-0.007063293,-0.066156283,0.026002955,-0.011488017,-0.060000908,-0.107748374,0.023148907,-0.008446545,-0.047221683,-0.069681562,-0.036966942,0.077358894,-0.090229139,0.128875986,-0.062795639,0.078455850,0.009113599,0.068173610,-0.021812944,-0.031872369,0.052217469,-0.038475599,0.051606316,0.075342372,
0.032931607,0.054161131,-0.077496901,0.092259586,-0.068142466,0.048400387,0.023868920,-0.000112835,0.025901390,-0.105615042,0.095505528,-0.011689850,0.081814289,-0.004824178,-0.040762570,0.054259796,-0.010274037,-0.071549028,0.005009932,-0.106998891,-0.067568310,-0.081263386,-0.002674055,-0.062965713,-0.010257370,-0.084763549,-0.086155824,-0.011550236,0.006052482,0.064431265,-0.041637842,0.095129542,-0.079263337,0.029915603,-0.098529965,0.082675517,-0.042803969,0.055543434,-0.002298024,-0.040213287,-0.023839915,-0.037358094,0.057126403,0.065274313,0.095172107,-0.031242840,-0.038524985,-0.057490386,-0.006841922,0.024185408,-0.015784137,-0.072152555,-0.000194341,-0.010500045,-0.079987645,-0.034708835,-0.004092264,-0.104715303,0.007286346,0.027459538,-0.018466011,-0.013817537,-0.006028988,0.025489021,-0.047236562,-0.016795775,0.049564555,-0.037063666,-0.000140560,-0.100940868,-0.084016465,-0.017267499,-0.042154521,0.089585029,-0.029389445,-0.083447933,0.085270904,-0.072879635,0.075672694,-0.017116046,0.019635869,-0.105632201,0.090741992,-0.008906206,-0.057755824,-0.078829296,0.010760934,-0.101916596,0.066757612,0.049176194,0.086675659,0.081587993,-0.066806316,-0.027078701,0.053644609,0.056366663,0.090350121,-0.041322529,0.007002661,-0.011086305,
0.049239811,-0.019613920,0.090531044,-0.016640335,0.059998974,0.112680137,-0.089278810,0.042582348,-0.068569258,0.072145484,0.085635617,0.021763114,-0.042902667,-0.046847347,0.077887855,0.002916290,-0.067823119,0.086558022,0.088987730,-0.032811437,0.001584400,0.012278355,0.115342505,0.052601244,0.026515543,0.050612438,0.032203235,-0.073875986,0.027141823,0.066530824,0.011075168,0.070838660,-0.011675379,-0.049191624,-0.091731407,0.111782096,-0.016142726,-0.073002398,0.100386515,-0.070690833,0.081265941,0.089070320,-0.023112310,0.074494712,0.076537505,-0.074949369,-0.024219176,0.040320754,0.350776762,-0.068262748,-0.078360491,0.118069418,-0.035311688,-0.088543944,0.043928899,-0.032867275,-0.033893801,-0.009638948,0.107443571,0.038055088,0.106987409,-0.035341442,0.087656215,-0.081146754,0.041839011,0.027394684,0.010978856,0.061096910,0.007659245,-0.100387760,-0.034942631,0.036350764,-0.019720739,0.134566993,-0.104745410,-0.067199908,0.087214231,-0.027688928,-0.009666347,0.095212944,-0.027133847,0.027089642,0.061958253,0.052767824,-0.071171008,0.038443044,0.119879670,0.016885843,0.095301569,0.310492933,0.030767979,-0.081757069,0.118430234,0.078981496,0.050601285,0.018199548,-0.026721306,0.022045469,-0.007463728,0.107868925,
-0.136179984,0.004742891,-0.002110338,-0.037822161,-0.026156338,-0.006964788,-0.082037367,0.020190243,-0.066588096,0.022289610,-0.008490098,-0.011282604,0.056980666,-0.031565536,-0.080479853,-0.086757816,0.105960369,-0.126710966,0.064224631,0.002358246,-0.063887462,0.040958203,-0.006441638,-0.106946997,0.028775984,-0.006221208,0.037260771,-0.003483200,-0.077642672,0.037041768,0.025025133,-0.087535709,0.092394628,-0.077171572,-0.035727534,-0.023740008,-0.029447692,-0.051742088,-0.086967781,0.055763640,0.081605129,-0.099389993,0.050616797,-0.053627346,0.023620307,0.099516109,-0.099877611,-0.052275751,-0.216031298,-0.062551133,-0.051862016,-0.093892045,0.019543363,0.080101423,0.026782537,-0.020670816,0.085791439,0.080212928,-0.165668398,0.057203781,-0.032984018,0.032249797,-0.025500581,0.043768324,-0.051569413,-0.053292010,-0.043733742,-0.053269081,-0.043119755,0.024898343,-0.012579865,0.015419206,0.075315632,0.156034023,0.120289885,0.062239170,-0.000784075,0.023810664,-0.137558609,-0.002902932,0.007581461,-0.089439504,0.081845343,-0.021808337,0.074517481,0.053942963,-0.063005440,0.020881349,-0.052278172,-0.260310233,-0.003316228,0.048843857,-0.085708417,-0.050557494,0.077134423,-0.019763088,-0.102001332,-0.084678687,0.046703618,0.079280563,
0.099131338,-0.075080790,0.011991692,0.019450247,0.009893382,0.020188546,-0.092372611,-0.096132748,-0.041461803,0.009195769,0.007574988,-0.014294279,-0.099872015,0.062443998,-0.067038551,0.023742676,-0.073069945,0.072087705,0.080489397,-0.052257765,0.085798912,-0.030129647,-0.097174108,-0.016180038,-0.075480759,0.020856846,0.019324267,-0.044115018,-0.028834498,0.029476119,-0.054749645,0.041113507,-0.074052788,0.058442891,-0.047580194,-0.083468594,0.019185591,0.010540104,-0.073851764,0.087910645,-0.036073577,0.065896705,-0.025825595,0.066873789,-0.048206832,-0.069506720,-0.081627898,-0.051048137,-0.054553188,0.045620989,-0.066007853,-0.016947640,-0.036332071,-0.037755277,-0.012249279,0.055177797,-0.041239928,-0.083792984,0.068079315,-0.058108833,0.069008492,-0.010178817,-0.011822033,0.093792394,0.018001808,-0.090466060,-0.095856406,-0.093541577,-0.073795997,0.036146581,0.041534331,0.051818203,-0.092016280,0.060091317,0.088650338,0.039251532,-0.039424609,-0.086716644,0.098866820,0.009810746,0.021563483,0.003783941,0.067139104,-0.098284818,0.050554004,-0.067962997,0.092753612,-0.078043677,-0.022053290,0.033044972,0.033249963,0.033449318,0.004035485,0.027452910,-0.067305759,-0.005908227,0.027882088,0.080216147,-0.081409387,-0.039473653,
-0.067033686,-0.051675584,-0.058440961,-0.015261710,0.036133017,-0.019448413,0.020038962,-0.023642814,-0.096228197,0.012718022,0.004378617,-0.067910627,-0.096290387,0.024690224,-0.027517272,0.020027542,-0.021858228,-0.024623072,-0.040106285,0.096092105,-0.089063123,-0.024827708,-0.027255451,-0.035197008,0.050701763,0.088912286,0.082473539,-0.048661079,-0.043633975,0.039698996,0.053677585,-0.083843783,-0.045338999,-0.047137059,-0.009733463,-0.035152614,-0.077300921,-0.016788935,-0.023118544,0.007676411,-0.038115393,-0.046678331,0.089284956,-0.028816903,0.059562314,-0.065408126,-0.043350268,0.040691938,0.019744575,-0.075407602,0.077307336,-0.027223516,-0.000028133,-0.013615727,0.076373987,0.024207581,0.046593368,-0.021751000,0.099703662,0.038915575,0.049361467,-0.019401526,-0.082782209,0.072263919,-0.089053050,-0.098860860,0.009498715,-0.019329607,-0.072046891,0.076975428,0.010084010,-0.046344887,0.064306058,0.035402562,-0.078078806,-0.016529286,-0.086160958,-0.055726912,0.018027449,0.027704287,-0.038676631,-0.035206269,-0.085395291,-0.061821964,-0.006355179,0.003593111,0.056263246,0.066432610,0.087269165,0.019446015,-0.073991992,-0.028274834,-0.087998725,-0.007690001,0.052365970,0.011442375,0.045664679,0.084430091,0.052026261,-0.020793403,
0.071414582,0.038936019,-0.074214995,-0.018870408,0.041903477,-0.017554000,0.107856438,-0.066318914,0.014081681,0.092327297,-0.062714420,-0.075354889,0.071667872,0.067176923,0.078695953,-0.058653485,0.086711213,-0.123458557,-0.053673737,0.057381038,-0.123523287,-0.001722634,-0.007993993,0.072756656,-0.027266964,-0.034535311,0.019199669,0.096352182,-0.042967614,0.055869620,-0.076375857,-0.109450504,0.073805757,0.011240521,-0.046667185,0.092041619,-0.005412756,-0.056673110,0.047564775,0.099431530,-0.025632847,0.077670634,-0.059166051,-0.086135648,-0.079015665,-0.022530844,0.053825218,0.035032116,-0.212505981,0.050680269,-0.005627237,-0.073054783,-0.078211896,-0.013180776,-0.044160664,0.092039034,-0.030402655,-0.008945112,-0.072185569,0.082090259,-0.019947456,0.052440681,-0.107292369,-0.095273130,-0.016716680,0.044606477,0.076372720,0.049596053,0.075791657,-0.057672493,-0.024249438,0.084148802,-0.061972544,-0.019486597,-0.042163871,0.065043211,0.052134480,0.090183794,-0.096524402,-0.005244460,-0.060080029,0.089804128,-0.003461850,-0.021991888,0.008888640,0.062133502,-0.054906391,-0.086036690,-0.029756222,-0.230240062,-0.025909167,-0.017664833,-0.016827406,-0.008129763,0.083338298,-0.041112769,0.064076521,0.000949669,0.057969119,0.049814340,
