// Neural Network File Format by Kyle Julian, Stanford 2016
2,4,1,1000,
4,1000,1,
0,
0.0,0.0,0.0,0.0,
0.0,0.0,0.0,0.0,
0.0,0.0,0.0,0.0,0.0,
0.0,0.0,0.0,0.0,0.0,
-0.008957426,0.263792008,-0.436451465,-0.379278839,
-0.187040478,0.134194657,0.003052949,0.397322208,
-0.044019859,0.132320166,-0.134136423,-0.097836241,
-0.477674246,-0.331141055,-0.206111550,0.018521786,
0.198403969,0.300385684,-0.321985781,-0.216919094,
0.172673032,0.406190038,-0.094688982,0.365115047,
0.023828184,0.049326666,0.501461565,-0.224703774,
-0.314768970,-0.126582623,-0.194899976,0.432000399,
-0.300424874,-0.117275685,-0.749835789,-0.440591812,
-0.293309152,0.428736418,0.205719545,0.240838200,
0.026295781,-0.256341755,0.084592342,-0.466847360,
-0.343860626,-0.249529481,0.316245317,0.309540510,
-0.229043946,-0.024715645,0.352067232,0.489969581,
0.198663667,0.066217929,0.356149375,-0.297153801,
0.093172014,-0.387652755,-0.346543074,-0.258291781,
0.226793200,0.201275989,-0.279245615,0.151684672,
0.275257260,-0.062667564,0.036961712,0.116706647,
0.307699919,0.477831692,-0.407717645,-0.186134115,
0.194784269,0.412955463,0.418261498,0.439405352,
0.099507272,-0.434791327,0.045996249,-0.312802672,
-0.475337088,0.439024568,0.381737053,-0.492665529,
0.057936881,-0.096026041,0.020862432,-0.383115411,
0.220080703,-0.277610630,0.198820829,0.256400406,
0.291566044,0.181130111,-1.058640599,-0.187080905,
0.250400692,0.104169555,-0.384953469,-0.286316752,
0.471115679,0.337285042,-0.200952828,-0.125030935,
-0.476299047,-0.008987069,-0.376529455,-0.385678351,
-0.027490625,0.074717231,-0.189433575,0.296797365,
-0.310027719,0.444678158,0.330985397,-0.432276398,
-0.124442160,0.022561312,0.072950542,0.118587136,
0.196204260,0.030373780,-0.227064386,0.237231404,
-0.479624450,-0.296353340,-0.125164926,-0.243556678,
-0.174916685,-0.409810841,-0.106357574,0.106878221,
-0.325732887,-0.025659680,0.357925415,-0.051400125,
0.014534561,-0.042813551,0.119297855,0.318644702,
0.475736499,0.325489372,0.492141813,-0.029659135,
0.049965031,-0.187948704,0.859565914,-0.003331977,
-0.226674035,-0.350104690,-0.395566046,-0.467744440,
-0.099775590,0.287474096,0.290253401,-0.451337457,
0.311891019,-0.391254723,-0.105705142,-0.202736318,
-0.096307635,-0.098171353,-0.448674977,-0.431718946,
-0.073913991,0.008555164,-0.211373121,0.188962311,
-0.493005097,-0.044245932,0.426929146,-0.216615602,
0.448814869,0.177360252,-0.477519393,0.313723862,
-0.039455645,-0.213332802,0.403588861,-0.420086414,
0.052063782,-0.109954976,0.354618728,0.135794446,
0.238544792,0.175240010,-0.138272494,-0.106911302,
-0.401428699,0.277295262,0.423164785,0.344139934,
-0.352689147,0.022299945,-0.352467060,-0.275242090,
-0.291352749,0.170872509,-0.297956586,-0.010908604,
0.023092031,0.324383706,-0.358257949,-0.337016493,
-0.289435953,0.347014427,-0.214735523,0.418001622,
0.180436909,0.062680729,0.014065823,-0.099077448,
0.062733173,-0.114172339,-0.003513217,0.063796520,
-0.364210784,-0.255012304,0.423256069,-0.368850589,
-0.041015785,0.489859343,0.162789285,0.011516457,
-0.433304965,0.247688949,-0.356140375,-0.141932130,
-0.166320845,-0.077726215,-0.012243066,0.409836829,
0.037841823,0.430099785,0.294172406,-0.340156555,
0.218649715,-0.337159693,-0.252094328,0.163906068,
0.161830187,0.371436834,-0.184587955,-0.004799010,
0.319214493,-0.470584482,0.343352765,-0.498670936,
0.005639805,-0.085384086,-0.280984759,0.065132171,
0.411587566,-0.147671208,-0.297898978,-0.183628857,
-0.038015530,0.179019302,-1.439440012,0.009145059,
-0.287641883,0.287584513,0.283306926,0.384257048,
0.181361556,-0.166979849,-0.139724076,0.147714972,
0.411017358,0.135946095,-0.236572683,-0.235038698,
-0.259623230,0.101493701,-0.521345973,-0.384118646,
0.438438237,-0.324705601,-0.056880772,0.143246770,
0.015929163,-0.336440861,-0.404160857,0.398541212,
0.079932466,0.413665503,-0.185847223,0.145717800,
-0.118776843,-0.026442727,-0.328602403,0.164668888,
0.158082962,-0.010314286,-0.112451077,-0.308214903,
0.345772386,-0.372212052,0.204832733,-0.168126762,
-0.241234004,0.089822531,-0.259728491,0.115202427,
0.036297143,-0.389298886,0.061371084,0.216429830,
0.034178846,-0.015358876,-0.999961913,-0.014831072,
0.189576954,-0.167211309,0.182350203,0.340281785,
-0.260945916,0.004846557,0.226648092,0.039452672,
0.041765749,0.062432706,-0.393073857,0.039294124,
0.345952153,0.450016469,0.313276380,0.066813059,
0.233507097,-0.243239820,-0.414344192,-0.429960549,
0.499490231,0.317721814,-0.328446090,0.196379587,
0.374493271,0.497209489,0.421772838,0.384283274,
-0.113847785,-0.174992546,0.429091007,0.281061858,
-0.300136238,0.449930042,0.259551972,0.273400486,
-0.312732428,0.143731996,-0.158344820,0.391396582,
-0.066309579,0.177810520,0.089637294,0.194742292,
-0.169913769,0.243785679,-0.349235475,0.112927496,
-0.378951192,-0.502903283,-0.417709917,0.380319268,
0.273067564,0.481241018,0.422570497,-0.422791898,
-0.347562522,-0.084169954,-0.352417111,0.344847590,
-0.246180400,-0.166782126,-1.110962272,-0.059573967,
0.409406006,0.407949835,0.341093421,0.384177864,
0.436552256,-0.133156568,0.222885445,0.434802800,
0.162275761,0.496626735,0.279681116,0.307820171,
-0.175980896,0.244466588,0.089816563,-0.108263522,
-0.298285186,-0.296173692,-0.396935284,0.314111412,
0.353910267,-0.058391385,-0.308577418,0.384787053,
0.319151342,0.036142655,-0.222150594,0.458960384,
0.202420935,-0.382950664,0.474131286,0.377272606,
-0.181540579,0.281216592,-0.303201616,-0.078065813,
0.526765585,0.055198550,-0.224254459,-0.099899173,
-0.135231405,-0.096284896,0.065948352,0.462995499,
0.025171390,-0.309904367,0.008644502,0.238108367,
0.380611241,-0.329771608,-0.516040742,-0.606818795,
-0.212735578,0.180348665,-0.339146316,0.186529368,
0.424389064,0.032794178,-0.333243847,-0.179142475,
0.109182060,-0.381159008,0.248405159,-0.453934789,
-0.480646670,-0.485830307,-0.101431668,0.336216450,
-0.477617681,0.426005661,-0.171657920,0.159930483,
0.022801459,-0.450859547,0.414664507,0.269221723,
0.490837753,0.246100977,-0.323966056,0.411084831,
0.025526859,0.236669049,-0.418813646,-0.144198000,
-0.435783267,-0.173439696,0.054344721,-0.458482057,
0.316205829,0.246000901,-0.135417208,-0.560692906,
-0.382808536,-0.152315006,0.203902468,0.491622955,
0.281091779,-0.058203299,0.139611661,-0.525782466,
-0.319379002,0.287584633,-0.575969636,0.186361283,
-0.363129824,-0.251937926,-0.382476479,0.258800507,
-0.050159309,0.385257572,0.327466518,0.277537555,
0.016078055,-0.154588997,-0.108715832,0.066450298,
0.246393636,-0.351307273,0.403653413,-0.055852160,
-0.412646621,-0.264939785,0.436744213,0.464098692,
-0.462369680,0.353089541,0.268729270,0.296805382,
0.423264623,-0.269475162,0.157887876,0.204616606,
-0.147047192,0.167640328,-0.127078205,0.309884876,
-0.138727307,-0.186397851,0.125874519,0.177346826,
-0.244285822,0.044199169,0.289767861,-0.049748361,
0.152166963,-0.120593488,0.175249815,-0.362197101,
-0.214416623,-0.243684843,0.525464714,-0.117221028,
-0.023965051,-0.257995129,0.500604153,0.470036685,
-0.377093315,-0.405334949,-0.378996491,-0.002411366,
-0.111609355,-0.327385634,-0.217892945,0.092771173,
-0.261412174,0.107500084,-0.099010013,-0.255686462,
0.049852695,0.473435700,-0.919942737,0.000847299,
-0.202211797,0.489675075,-0.534036160,-0.476751804,
0.493616253,-0.311964542,0.076826192,-0.047044057,
0.044019245,-0.069231972,0.476571351,-0.010184423,
-0.459582746,-0.275386095,-0.182758465,0.263360232,
-0.332274467,0.466669768,-0.133588850,-0.097392626,
0.390321970,0.250234336,0.406982481,0.287708163,
-0.151676953,-0.331736207,-0.037201524,0.413818777,
-0.111102566,-0.458122343,0.209082499,0.490933567,
-0.147723868,-0.427540243,-0.426382869,0.114740349,
-0.037859857,-0.252493620,0.101065934,0.189879417,
0.398509920,0.388668418,-0.057248238,-0.439783603,
-0.453250378,0.465782046,0.203645349,0.216455594,
-0.421137094,0.465940714,0.465933025,0.455342650,
-0.494533926,-0.176553831,-0.486327291,0.464275658,
-0.194718108,-0.208839372,0.277512372,-0.209531382,
-0.246261060,-0.043735743,-0.048059762,-0.389489233,
0.416502029,-0.215557799,0.162107185,0.433952004,
0.250719488,0.069766477,0.409037679,0.065725967,
-0.235756040,0.469138980,0.101867683,-0.494462401,
-0.142345786,-0.340583742,0.438376486,-0.082572937,
-0.450428516,-0.023226561,0.311620235,0.137609452,
0.158474088,0.046546053,0.205387115,-0.121338740,
-0.089545436,-0.417671531,-0.408447117,0.273025364,
-0.296056688,0.071733236,0.159595728,0.035401940,
-0.328763396,0.472883672,-0.287851423,0.406482875,
-0.397754133,-0.120274246,0.271984398,-0.204290330,
0.420021474,-0.344078243,-0.419885755,-0.225459576,
0.081623018,0.460814595,-0.221417964,0.179681107,
-0.132917449,-0.110132925,0.363184750,-0.387347311,
0.053701591,0.472160757,-0.053860158,0.388904363,
-0.103374153,0.333841056,-1.037757397,0.010942912,
-0.092282102,0.159534693,0.179363549,0.382018805,
0.040712614,-0.003359766,0.391802669,-0.089118421,
0.438316822,-0.332906067,-0.054104924,-0.026855469,
0.398002923,0.347200632,-0.860895693,-0.630495906,
0.245657533,0.147954062,0.184896871,-0.310522497,
0.320279777,0.472508550,0.025746867,-0.468468428,
0.342668265,-0.384165347,-0.073170222,0.082801916,
-0.229411989,0.174826607,-0.434280038,0.112643696,
-0.322714150,-0.058602203,0.053957772,0.418861896,
-0.238213673,0.320339829,-0.046127182,-0.237019002,
-0.177581012,-0.407441109,0.567232370,0.018708199,
0.023316083,0.134308100,0.323377788,0.425024331,
0.405508578,-0.370441556,-0.080108404,-0.295868814,
-0.284752697,0.110746399,0.463681638,-0.410907745,
0.302602232,-0.259233356,-0.097387135,0.396885455,
-0.115361266,0.040724162,-0.380555868,0.421542704,
-0.064634919,-0.365695238,0.146405160,-0.355508685,
-0.172430888,-0.001727082,0.462858438,-0.089287713,
0.233675733,0.428413689,0.314862669,-0.263980538,
-0.054809928,-0.157342434,-0.402061462,0.000206590,
0.374663591,0.420076132,0.029050879,0.111948639,
-0.005448859,0.399725020,-0.975897849,-0.032514434,
0.077713624,0.300043821,-0.433758825,0.452769428,
0.178812474,-0.348632604,-0.122647010,0.434102595,
-0.383617342,-0.146138608,0.163990140,-0.438042521,
0.274818987,0.260687858,0.328525215,-0.317960918,
0.498000503,-0.296380758,0.499170244,-0.479845226,
-0.326551527,0.311800957,0.147027895,0.101570129,
-0.276879191,-0.209737718,-0.146193743,-0.487077713,
0.022754258,0.085578129,-0.018215246,0.158182785,
0.475437582,0.136067539,-0.160788447,-0.199580342,
-0.319902778,-0.346609414,-0.080524921,-0.088432789,
0.222526073,-0.213195011,0.421755731,-0.349830300,
0.000175393,0.449027151,0.480801970,-0.289553255,
0.089064479,0.059061348,-0.234425843,-0.172747433,
0.120702602,-0.359342009,0.076278061,0.205489263,
-0.193613932,0.414590299,-0.051690858,0.224075019,
0.492045581,-0.157518968,0.260927528,-0.146831393,
-0.080160931,-0.080414712,-0.008733829,-0.180682510,
-0.001745188,0.031549342,0.476130277,-0.004489404,
0.018907918,-0.006678496,-1.276446581,0.010599674,
0.063330539,-0.201135382,-0.154022083,0.130241364,
-0.095612846,0.320477724,0.022072159,0.181068733,
0.223721996,-0.115468942,0.224412948,0.371187687,
0.023134599,0.096354514,0.035185974,0.346661955,
-0.211097658,-0.265784919,0.217876792,-0.435157061,
0.069848590,-0.253640026,0.354908288,-0.289091229,
0.303620070,0.494796455,0.118948385,-0.032783568,
0.492174923,-0.213676155,-0.040066779,-0.218952477,
-0.070758149,0.107360885,0.050236434,-0.096204542,
-0.499151200,0.026043281,0.003041233,0.076074407,
0.379415840,0.481850415,-0.288038284,-0.034870159,
-0.196927249,-0.484892279,-0.358278483,0.452741921,
0.290060908,0.267503470,0.260805398,-0.398755074,
0.051064029,0.466479868,-0.298403263,0.442120045,
0.131989256,0.350505888,-0.198207870,0.231623366,
-0.439367890,-0.030699870,0.189029425,0.151850805,
0.419007421,0.491615355,0.473120809,0.336382896,
0.349788606,-0.065132253,-0.405290931,-0.186491817,
-0.055645742,-0.269946665,0.275184005,0.176120669,
0.088962473,0.130299181,0.440397561,0.192733854,
-0.418560237,-0.362292171,0.191952303,0.071025982,
0.243845820,-0.499359965,-0.461434662,0.306613207,
0.319822848,-0.452355504,0.189792633,-0.390422106,
0.376832575,0.155562490,0.479034424,-0.494821191,
-0.480652362,0.338428020,0.462486833,0.307110280,
0.332414925,-0.421135664,0.361906826,-0.472073555,
0.111700833,-0.327517390,-0.198597729,0.088534415,
-0.196590006,-0.079111457,-0.473912179,-0.471436620,
0.220305562,-0.176446646,-0.483624518,-0.127064034,
-0.457604617,-0.370555639,0.316490501,0.277087510,
0.066601753,-0.273129821,0.166350484,0.022462606,
-0.402465403,0.186718494,0.458298951,-0.526755214,
-0.486553818,0.082310848,0.369660228,-0.312099576,
0.104217120,0.346185505,0.140536651,0.102401920,
0.496670485,0.323896050,-0.299934596,0.040975571,
0.254070371,0.439935923,-0.516311169,0.269279599,
-0.640825331,-0.415823430,-0.009514309,-0.309906125,
0.070856094,-0.324623466,-0.376264513,-0.042425513,
-0.167429462,0.292617410,0.060761377,0.390879363,
0.146100059,-0.124449521,0.341964275,0.049915612,
0.091089502,-0.163007215,-0.013947874,-0.098818198,
0.056565914,-0.350795150,0.040223304,-0.431912065,
-0.107565403,0.289773107,-0.347675145,-0.337025881,
-0.122088253,-0.137067020,0.084643722,0.083007812,
0.253548265,-0.344440281,-0.035285592,0.279645622,
0.455270559,0.019030575,-0.493215024,0.155900359,
0.277668536,-0.328069329,-0.263323426,0.215397939,
-0.036114193,-0.473357379,-0.266988754,0.203286618,
-0.170917019,0.343767375,0.420854241,0.071549490,
-0.039010141,-0.158455625,-0.007117088,0.091682360,
-0.405665487,-0.132470086,-0.476603895,0.295754582,
-0.327323407,0.443741053,-0.141548410,-0.297519535,
0.236121029,0.077249601,0.342551976,0.214262441,
-0.474492311,0.321008682,-0.117558159,-0.212863475,
0.316024244,0.363479793,-0.458419144,-0.046789017,
0.403780133,0.182177022,0.433264077,-0.184037343,
-0.279190153,0.427022487,0.192580625,0.476574987,
-0.208848298,-0.321033418,-0.058606446,-0.470789969,
0.195212767,0.367750525,0.138655126,-0.050086845,
0.256858408,-0.310703635,0.476644397,-0.509634793,
-0.465183705,-0.091598675,0.437623084,0.032668781,
0.192022860,-0.366503417,0.182342887,-0.055871725,
0.201153755,0.353535980,0.235398918,-0.041708522,
0.018830346,-0.307365477,-0.094771311,0.365207940,
-0.201904312,0.309464604,-0.216377288,-0.117918737,
0.010641098,-0.458832741,-0.004992485,-0.050397873,
-0.039987598,-0.095465511,0.389369398,0.376233369,
-0.338878632,0.232263386,-0.392191291,-0.425660670,
0.152840972,0.007348239,-0.233253181,-0.482251883,
-0.191911444,0.171041280,-0.521204829,-0.477477789,
0.063436270,-0.360202074,-0.438040137,-0.192643106,
-0.080500424,-0.454352617,-0.333863854,0.032783926,
-0.010414952,0.053448405,-1.482303381,0.014176657,
0.196515501,-0.384844840,-0.378917098,0.285140753,
0.094808921,0.455917627,-0.116765670,-0.239613011,
-0.057364143,-0.005144192,0.376907885,-0.504257202,
-0.029073192,0.150483355,-0.991195202,0.001944076,
0.235195175,-0.483141303,0.104608990,-0.388623774,
0.259909600,-0.456806451,0.268574297,-0.474635601,
-0.420283377,0.007368445,0.393994212,-0.428197801,
-0.223215014,0.438569367,-0.067612395,0.207008451,
-0.487641007,-0.165064648,-0.273148835,0.422962546,
0.207519948,-0.364837825,0.080613494,-0.005746722,
-0.283898979,-0.284846276,-0.172705546,0.387505800,
-0.198829502,-0.532396913,-0.031071443,-0.004316329,
0.155633748,-0.007584769,-0.199916050,-0.302823037,
-0.071648352,-0.182392702,0.399920046,-0.524509728,
-0.318929493,-0.406795084,-0.091378391,0.389636695,
0.438855439,-0.434715688,-0.002401724,0.294133723,
0.220243737,0.409070998,0.003489312,-0.335739762,
0.345667243,-0.172161490,0.270904213,-0.133731440,
0.211320370,0.447303504,0.449291527,-0.458469778,
-0.330740154,-0.206733406,-0.318850517,0.479750037,
-0.044159412,-0.331670284,-0.222494721,-0.276182294,
0.203994691,-0.436125576,-0.466201544,-0.492880583,
0.212763786,0.244944170,-0.332383633,0.121391349,
0.355713069,0.068730414,-0.172664806,0.054241754,
-0.055132531,0.250861317,-0.358400434,0.251932949,
0.290380985,-0.295864701,0.415674210,0.499086827,
-0.164032742,-0.106638424,0.265462548,-0.350863218,
0.197728992,0.116652369,0.315164864,-0.434303403,
-0.459379941,0.214895427,0.222119376,-0.521422923,
-0.308282226,-0.495051056,-0.343200445,-0.243503526,
0.406119347,-0.095442712,0.304173559,0.486431003,
0.261119545,-0.461666465,0.232416540,0.179100737,
0.407518327,-0.476111889,0.323397517,0.415023834,
-0.483712912,0.057016082,0.420359254,-0.363884658,
0.161213726,0.218504265,0.114399083,0.494236678,
0.407989174,0.427932084,-0.080121733,0.417887062,
-0.465956330,-0.269814670,-0.106940567,-0.148528397,
0.460206270,0.234586850,0.304837972,0.338412583,
-0.367399335,-0.059777860,0.072462052,0.129366457,
0.255485177,-0.200220153,-0.168741167,0.416680604,
-0.135327861,-0.355670244,0.341151595,0.328819335,
-0.156783462,-0.099960029,-0.368939996,-0.417546868,
0.186493456,-0.215463385,0.394504875,-0.415831029,
-0.075502418,0.004831027,0.283818841,0.398509473,
0.339155257,0.220309496,-0.212384403,-0.356430441,
-0.507681787,0.023654394,0.480289876,-0.105444089,
-0.012935928,-0.355259120,0.143702313,0.324959368,
-0.492957950,-0.352061093,0.370353878,0.118382275,
-0.029592464,0.090059109,-0.056342475,-0.347926795,
-0.469175965,0.327272117,-0.077513054,-0.187690690,
-0.129057586,-0.272711515,-0.148091674,-0.429207206,
0.374819279,0.206745639,-0.230429217,-0.165415213,
0.222425178,-0.186591402,0.115627214,0.135758162,
-0.314007163,0.125651702,0.048384324,0.437507391,
-0.180909991,-0.128534257,0.430800319,-0.408301175,
0.034720819,0.480697870,-0.242149323,0.477868229,
0.443908393,0.465037167,-0.030702848,0.452608407,
-0.217859685,-0.171152592,0.189116299,0.105623603,
0.276364803,0.475510150,-0.296070814,0.266151726,
0.159417450,0.256957352,0.231321245,-0.194514513,
-0.397964448,0.397669643,-0.305781156,0.316795379,
-0.476321757,-0.086501181,0.005299449,0.086511791,
0.040416002,0.157553136,-0.055672288,0.122452199,
0.494792163,-0.323526025,-0.027298391,-0.190861523,
0.438852429,0.427837014,0.003896196,-0.173086450,
-0.314033449,0.335541308,0.029779183,0.439222604,
0.287108272,0.438477159,0.414027303,-0.322820157,
0.146351099,-0.207329452,0.250876606,-0.044954896,
0.046728808,-0.282415003,-0.955208063,0.118649766,
0.107827120,0.033588231,0.327001452,-0.222161740,
0.177490413,-0.275380790,0.103599966,-0.114149272,
0.348583221,0.436061800,0.417470455,0.020859344,
0.287976652,-0.508377910,-0.338436514,0.084037542,
0.007569970,-0.393361270,-0.223463252,-0.235913783,
-0.485900313,0.030467911,0.337342560,0.182184890,
-0.237566471,-0.459132612,-0.403388500,0.009274602,
0.343956649,-0.202486277,-0.272072494,-0.266728222,
0.071157999,-0.553922176,-0.267840683,0.502432525,
-0.238458037,-0.090181828,-0.133776367,-0.439253092,
-0.088146567,0.153058350,-0.203028798,-0.021309912,
-0.014025431,-0.508716524,0.350706130,0.400508225,
0.356541723,-0.151608229,0.278169513,-0.445615232,
-0.125265494,-0.102903657,-0.194734260,0.208371982,
-0.227828920,-0.057951927,-0.144376695,-0.469541490,
0.046812519,-0.426347226,0.259366721,0.292764276,
0.469128996,-0.167543262,0.043580968,0.098659694,
0.499369115,0.454142034,-0.236024901,-0.429574102,
0.059689805,-0.201108068,0.555709541,0.133813366,
0.491823256,0.379291296,-0.017479697,-0.329865932,
0.486619622,0.399850965,0.199301943,-0.274808556,
0.394645303,0.045944456,0.348815173,0.209524140,
0.265504181,-0.438737988,-0.277240574,0.299885750,
-0.104167938,-0.434989870,0.454699636,-0.010812759,
0.403341949,-0.390808403,0.172146916,-0.188334346,
-0.225910828,-0.109573916,-0.194165096,0.263786197,
-0.096483648,0.378003061,0.096659020,-0.078797571,
-0.514971554,-0.400214851,-0.457892150,-0.664959133,
-0.092635334,0.008172154,-0.032221913,-0.245608449,
0.347640187,0.281847835,-0.105991364,-0.196864918,
0.312398225,0.433309436,-0.478852332,-0.110067278,
-0.056482788,-0.184254646,0.449897468,-0.078801923,
0.423924267,0.002471805,-0.054235637,-0.291650832,
-0.169542909,0.158487782,0.209436506,-0.021011442,
0.455079943,-0.367598742,0.180416211,0.431829780,
-0.195447877,0.433282673,-0.329851002,-0.485701233,
-0.040845569,0.182132348,-1.107102633,-0.001104545,
0.480213195,0.157810688,-0.072053194,0.113052621,
-0.288071871,-0.420126557,-0.375849783,-0.419551253,
0.114483275,0.090434387,-0.535520256,-0.446046144,
0.343958050,-0.265652865,-0.146180019,-0.269567519,
-0.282079101,0.208579957,-0.465863466,-0.285119832,
0.367623061,-0.292816281,-0.194312394,-0.136289030,
0.212279633,-0.329037100,0.032979324,0.202705324,
-0.022800596,0.149344265,-0.878656864,0.116718553,
0.005352855,0.169509247,-1.265536666,0.005680960,
0.383781463,-0.088181332,0.198228776,0.181812719,
-0.214468226,-0.058638420,0.473606855,-0.018992154,
-0.398056746,-0.036464155,0.248746336,-0.163211823,
-0.160893425,0.458702624,0.323376387,-0.043389473,
0.025544465,-0.052881360,0.116082788,0.017769754,
-0.302084088,0.092809714,0.031075751,0.032906275,
-0.191848055,0.128481194,-0.419300228,0.151663736,
0.271728903,-0.054608706,-0.371511132,-0.000959114,
-0.001995894,-0.437925160,-0.379082590,0.460081607,
0.370495945,0.274095684,0.334439605,0.189352542,
0.284121990,0.333662093,-0.096662097,-0.063896649,
0.313694835,0.000510339,-0.461740136,-0.396346778,
0.278460443,0.409371048,0.373588741,0.073525578,
0.313240021,-0.454476207,-0.411571652,-0.453092158,
0.394174695,-0.012970343,-0.325055629,0.153708994,
-0.187166452,-0.320672095,0.192849159,0.091549397,
-0.358059227,-0.329330981,0.234434843,0.380188406,
0.040703535,-0.251142502,0.241437197,0.087202728,
-0.424603373,-0.327940196,0.107542731,0.311404854,
-0.159924209,0.242110193,-0.292544037,0.479242980,
0.356099814,0.093238987,0.241570935,0.174022779,
-0.295048594,-0.004359961,0.133330226,-0.112857103,
0.479472697,-0.192818224,-0.446534812,-0.238038063,
-0.561936319,0.387986749,-0.534342110,-0.144741550,
-0.054049373,-0.336904228,-0.261186719,0.254905045,
-0.332972556,0.268322200,0.381986201,0.038136970,
0.131452873,-0.249127448,0.463467926,0.546298087,
0.119590379,0.456022471,-0.480044931,-0.054064859,
0.099346519,-0.434593439,0.243315876,-0.190557241,
-0.180841267,-0.396707177,0.204408884,-0.363813519,
-0.110082626,0.218818426,0.365011692,0.109170817,
-0.186521351,-0.217482686,0.280641377,0.092768848,
0.419335127,0.184411883,0.387986720,-0.407839030,
0.400142431,-0.231150553,-0.151760042,0.001143363,
-0.093019322,0.099360786,0.464348972,-0.297895461,
0.145024747,-0.412594795,0.064131729,0.407604784,
0.337618679,0.428122014,0.288818985,-0.041830309,
0.128869668,-0.210135669,0.409000874,0.248649061,
-0.366795331,0.431473851,-0.025767040,-0.023516202,
-0.136842608,-0.131920159,0.025025189,-0.244094789,
-0.458850473,-0.269029766,-0.102906480,0.370816588,
0.417713284,-0.289698452,-0.005864005,-0.117549062,
-0.266281933,-0.087505154,-0.156626731,0.280006379,
-0.258251280,0.066765107,-0.340850830,-0.152603418,
0.394012779,-0.245385990,-0.012207388,0.478009880,
0.078002885,-0.269580275,-0.264738858,-0.273688734,
-0.156351849,0.217647970,-0.094755329,0.422202915,
-0.285118192,-0.166564241,0.167431027,0.397243828,
0.479438186,0.082949623,0.039732222,-0.218436703,
0.282509387,-0.289824545,-0.131422877,-0.417898357,
-0.482905239,0.277921945,0.013777166,0.397055626,
0.400860310,0.262280703,0.218614519,-0.125080585,
0.270192146,0.243683517,0.190059438,-0.004945580,
0.074877918,0.003554322,-0.378358990,0.118078604,
-0.371662825,0.241997451,-0.270648181,-0.162146628,
-0.236460552,0.394902289,-0.336198628,0.256018192,
0.249212027,0.352087438,0.108152121,0.271129102,
0.394236356,0.099056922,0.153334841,-0.389777988,
-0.134004205,0.045204204,0.079379380,-0.176402763,
-0.479680538,-0.124155223,0.229920775,0.451722145,
-0.476934493,0.227465406,-0.459662944,-0.489440858,
-0.313122272,-0.066041648,0.139646947,-0.380255580,
0.383779019,0.451074123,0.013087267,0.405485868,
-0.198012620,-0.203425646,-0.075793073,0.053808521,
-0.344423056,-0.406435519,0.197732955,0.142535299,
0.489115834,-0.205826581,0.195733383,-0.199716508,
0.257859409,-0.017645121,0.392611206,0.285012007,
0.414424002,0.255553603,0.000975998,0.429062724,
-0.292901099,0.472054154,0.506694615,0.478503168,
-0.241165698,-0.267964154,0.052280471,0.154775828,
0.273724377,0.220489502,0.419149756,-0.124745622,
-0.163629562,0.167742595,0.158156425,-0.291135788,
0.048314199,-0.378690809,-0.112107642,-0.204671696,
0.393465906,-0.493564159,-0.414101571,-0.477224767,
0.126102686,-0.384844482,0.161770344,-0.347305536,
-0.329160094,-0.256678283,0.092979752,0.460763395,
0.403278619,0.046467949,-1.099679351,-0.026537206,
-0.192040756,-0.107427493,0.174218118,0.250085801,
0.221687376,0.142834127,-0.202413976,-0.005304098,
0.049298342,-0.259441882,-0.062112276,-0.066205338,
-0.424646139,0.338442415,-0.101912104,-0.493249357,
0.382118613,-0.277448267,0.161378726,0.493803859,
0.023934379,0.144308314,0.216654927,0.378762156,
-0.112704627,-0.269712925,-0.032017179,0.402200371,
0.065860882,0.344669878,-0.069856547,0.164673358,
0.017386138,0.013572991,-0.475809753,-0.437117100,
0.037517704,0.247066796,0.353947520,0.027989076,
0.200025126,0.195928887,-0.392227322,-0.475249827,
-0.412589014,0.013338258,-0.280352205,-0.147093475,
-0.075256385,0.194266871,0.134501606,0.463357002,
0.445633143,-0.324336320,-0.011529585,0.077285789,
0.435391605,-0.151781335,-0.246730730,-0.316597462,
0.421866745,-0.149248630,-0.842506528,0.357929885,
0.460709721,-0.020808242,-0.335541546,0.408090502,
-0.171002388,-0.230412424,-0.351511955,-0.240467548,
-0.308946401,-0.319433331,-0.868152916,-0.024455748,
0.203125224,-0.380441844,0.014659415,-0.189222813,
0.238223046,0.429044515,-0.055400740,-0.255417168,
-0.215623364,-0.276878148,0.227793589,0.129360944,
0.269264758,-0.074294746,0.256916761,-0.445461452,
0.134451881,0.484996647,-0.480764210,-0.259459496,
0.318684489,-0.079321362,-0.284949988,0.303549945,
0.021783624,0.007060299,-0.188214123,0.369165570,
0.278023362,0.089914151,0.094214737,0.259300023,
0.309741199,-0.200685263,-0.076813482,0.222824752,
-0.243722051,0.466432899,-0.360754699,0.229220554,
-0.358441085,0.160958305,0.368194997,0.061083343,
-0.049511638,0.318168700,-0.343097657,-0.336654037,
-0.426148236,-0.307774544,0.012977123,-0.226722896,
0.111991733,0.017203480,0.435242295,-0.216094941,
-0.138313770,0.329512507,-0.144482404,0.477094054,
-0.198094755,-0.005335091,-0.101446807,0.233844936,
0.234671652,-0.238334149,0.328563184,-0.008584736,
-0.126325011,-0.010216414,0.367599308,0.490691125,
0.241869807,0.086464800,0.309336782,-0.210556328,
-0.250951737,-0.178736523,-0.305459261,0.205105335,
0.047494888,-0.171067178,-0.050761163,-0.009913921,
0.427126080,0.445087910,-0.403253078,0.181592286,
0.194158450,0.192248404,-0.051461056,0.125842750,
-0.019260680,0.416680664,-1.068549871,-0.043403432,
-0.329477340,-0.233960971,0.113415964,0.303149998,
-0.377342224,0.325675786,0.436454952,-0.245593682,
0.211895496,-0.238146722,-0.683142245,-0.101745233,
-0.242003471,-0.325999409,-0.456222475,0.394767463,
-0.040527526,-0.007361844,-0.297389567,0.349997342,
-0.341242284,-0.240432635,-0.357638299,-0.426027328,
0.439625412,-0.395698369,-0.037285693,-0.145967871,
0.180891573,0.131772786,-0.403295785,0.446704894,
-0.496075660,0.048610959,-0.060571510,-0.117682382,
0.334580809,0.415009588,0.043268405,-0.185461387,
0.372454494,0.314529389,0.107648946,-0.135946035,
0.002386783,0.429921091,0.044978257,-0.108407386,
-0.360035479,-0.275299221,0.384955853,-0.016135124,
-0.033296525,0.194680333,-0.328963518,-0.033776343,
-0.127733365,0.264362156,0.419577271,0.309582382,
0.372777820,-0.446850955,-0.177508354,0.059207976,
-0.430126071,0.132770166,-0.348130107,0.212236613,
0.402270436,-0.432390481,0.419961482,0.222863421,
-0.354025096,0.484069377,-0.525076210,-0.263415366,
-0.250721455,-0.031953570,0.085927770,-0.148134246,
-0.448952496,-0.047005914,0.390049577,0.398283094,
0.238482445,0.061547406,0.109991767,-0.397842169,
0.202469766,-0.497617900,-0.206484914,-0.131398559,
0.357958883,-0.036767140,-0.199513525,0.082990319,
-0.414885163,-0.132378697,0.138476074,-0.033114195,
-0.058001745,0.297104895,-0.512724757,-0.218102500,
0.481027126,0.096941784,-0.098840646,0.256012827,
0.300792217,-0.083550572,-0.208270669,-0.081728816,
0.189503297,-0.059460215,0.303182185,-0.401989520,
-0.248409808,0.378611356,0.061438039,0.095037706,
0.164447665,-0.118146598,-0.199953854,0.143442094,
-0.135635987,-0.207038730,0.059351966,0.123419680,
-0.122624502,-0.401438117,-0.009379770,-0.272179306,
0.261696517,-0.332334906,0.382312387,0.197643548,
-0.401980400,0.373841494,-0.715715408,0.002125369,
-0.312178552,-0.430137634,0.049539983,-0.242429376,
0.367954999,-0.390010655,0.404079914,0.310593694,
0.444068819,-0.171378180,-0.343197495,-0.278086692,
0.415785253,-0.248687863,-0.061563730,-0.077068269,
0.086018860,-0.410289645,0.403169632,-0.369969249,
0.530744195,-0.167934448,-0.463608325,-0.008442561,
0.177278563,-0.074117318,-0.785844803,0.323753536,
0.491802722,0.257923931,0.501168430,0.145131081,
-0.039179862,-0.398247659,-0.437002480,-0.344248474,
-0.126310632,0.291345209,-0.189353019,-0.018791506,
-0.016778631,-0.335620970,-0.023670992,0.473497331,
0.400243461,0.380742997,-0.031937286,0.009311091,
0.297111571,-0.171287179,-0.406458288,0.437186092,
0.028545678,-0.337603331,0.421302617,0.082988620,
0.247274354,-0.480297863,0.080331668,0.267758727,
-0.064011797,-0.275226653,0.400872350,0.244971335,
0.143080473,0.122006349,-0.006343759,0.285954058,
-0.109303892,-0.294322371,0.190924048,0.133397818,
0.190374315,-0.055535555,-0.066352189,-0.039739490,
0.199044898,-0.368913412,-0.395370424,0.210233033,
-0.273276955,-0.041841537,0.157893628,0.070720732,
0.309609681,0.049269967,0.131260961,-0.049412224,
0.072691187,0.183330461,0.360125303,-0.475409865,
-0.240767539,-0.442927510,-0.200904816,0.303608626,
-0.473750949,-0.448009074,0.289511502,-0.295268536,
0.357921898,0.142278075,0.094906725,0.387469709,
-0.464670837,0.365022629,0.145033389,-0.336620629,
0.121656001,-0.139349759,-0.200695157,-0.054151714,
-0.237177297,0.436166734,0.413387597,-0.054836791,
-0.526061296,-0.038684905,0.014941253,0.332694173,
0.016087055,0.145523012,0.132667601,-0.283700764,
-0.310143352,-0.446885049,-0.003926396,0.154864728,
-0.023257947,0.490724981,-0.141756758,-0.279574454,
0.102772072,-0.120385878,-0.092696354,0.493522614,
-0.016986443,0.435507894,0.048094094,-0.187219918,
0.366825521,-0.284830183,0.035109371,0.112754293,
0.224417090,-0.461329758,0.024527848,-0.129459858,
0.324156880,0.167920068,0.219118357,0.300700873,
-0.112925045,-0.031709708,0.389582992,-0.401793808,
-0.036187578,0.098691225,-1.361824274,-0.005599043,
0.437148213,-0.062494457,-0.428163797,-0.230156466,
0.459669292,-0.104847386,-0.243677363,0.225112900,
0.055027273,-0.436433047,0.429331571,0.280760467,
0.435291708,0.219143674,-0.151402459,-0.162447602,
0.242311060,-0.096926928,0.098026752,-0.484494090,
-0.247161150,0.185723782,-0.024649441,-0.240375340,
-0.460149348,0.385076642,0.046301011,-0.493293554,
0.514842868,0.280204266,-0.556952178,-0.593034208,
0.483713448,0.002246514,-0.284273028,0.288384587,
-0.104149520,0.034251511,-0.260466814,-0.423497379,
-0.340345711,-0.053918283,-0.343300462,0.492223918,
0.005411565,-0.191415906,0.197610080,-0.443284392,
-0.255325973,0.187814444,-0.409183979,0.249682382,
0.021335464,-0.427248746,-0.620733023,0.128604844,
0.236334145,-0.099953175,-0.442127705,-0.288173199,
0.051226318,0.016705278,0.111281149,0.086466283,
-0.027753249,0.262715846,0.468083709,0.414809346,
0.454958826,-0.168462604,-0.153297260,-0.054586951,
0.146836489,0.200796410,-0.020722520,-0.326531976,
-0.376515687,0.481741756,-0.117044196,-0.066774204,
-0.288356692,-0.237266198,0.120266199,0.221287265,
-0.197661757,-0.184036136,0.396079600,-0.257508337,
-0.004051636,-0.033778161,0.682893395,0.074574515,
0.079556920,-0.055920254,0.308874995,-0.250730574,
0.351275176,0.128487617,0.065624043,0.029056557,
-0.289406449,0.370921135,0.259605855,-0.395238787,
-0.429067880,-0.099008411,0.351257592,-0.220358327,
0.460164279,-0.258694500,-0.492349774,0.216714337,
-0.300932169,-0.078202806,-0.138293460,-0.038720898,
-0.435686529,-0.458600640,0.214938402,-0.056657732,
-0.301615238,-0.012737334,-0.456366241,0.132721186,
0.238206446,0.485292852,-0.390401632,-0.059804764,
0.269388586,0.456537843,-0.375854075,0.210424587,
0.206999272,0.301601887,-0.328475237,0.357427508,
-0.145962849,-0.304573178,0.135370076,0.430191934,
-0.332533717,0.265885592,-0.075147048,0.158128083,
0.418804318,0.162628785,-0.699446261,-0.063686542,
0.093131706,-0.431574315,0.091244414,-0.247444347,
-0.099376909,0.179441392,-0.417789876,-0.320347875,
0.295088530,-0.493993819,0.257884264,-0.453517854,
-0.009568818,0.101543792,0.180579692,-0.311885059,
0.064398482,0.213107497,0.417434275,-0.379109859,
-0.248585999,0.145658135,-0.016051352,-0.337413549,
-0.420825362,-0.443964660,-0.349874079,-0.212884307,
-0.393952698,-0.457365334,-0.011042677,0.274684310,
-0.236048937,0.049413219,0.011846980,0.233516306,
-0.359103024,0.021256322,0.476895779,0.357912779,
-0.499691516,-0.079729214,0.000224259,-0.169413805,
-0.237940669,-0.338019609,0.399920911,-0.092633791,
-0.033061188,0.145238355,-0.298030645,0.043696146,
0.297629297,-0.292309314,0.165568605,-0.016701207,
0.275101483,0.332116753,0.150886059,0.015378180,
-0.444192350,0.200668305,0.316004395,-0.169302627,
-0.464549899,0.418918163,-0.151263580,0.102800734,
-0.142320067,0.317441702,0.472117275,0.311640859,
-0.151868477,0.349361271,0.234259784,0.041441523,
-0.397753477,-0.210680261,-0.466355532,0.334632665,
0.495037794,0.291714609,0.177631408,0.119042575,
0.463686943,-0.270228297,-0.218726724,-0.483659625,
-0.096609227,0.017634578,0.228546679,-0.437356293,
-0.057859659,-0.412000477,-0.406719863,0.065171838,
-0.488076150,0.133139074,-0.460599303,-0.347912908,
-0.021017602,-0.417035580,0.347738504,0.510926187,
0.008596632,0.106191061,0.515386224,0.072380655,
-0.066977918,-0.471605599,0.363569438,-0.438548386,
-0.092599869,0.031015754,-0.164671004,-0.182877362,
-0.440677583,0.026329581,-0.035956107,0.440614253,
-0.164342657,0.386594921,0.041447360,-0.224678516,
-0.118909299,-0.056740582,0.005179107,-0.082376301,
0.146865711,0.410609037,0.061033387,0.179525882,
0.325437158,0.117675118,0.220227897,0.263288796,
0.468006611,-0.456326902,0.171095669,-0.022655725,
-0.060595389,-0.167925656,0.314599663,0.478656620,
-0.408082604,0.271515280,0.367324501,0.081820175,
0.003791320,0.383048624,-0.002882071,-0.126854777,
-0.034295570,0.169265032,0.142096221,-0.029833104,
0.157230943,0.132959083,-0.395194203,0.123113140,
0.305560380,0.060081150,-0.066603802,0.382062554,
-0.495061725,-0.189715832,-0.279142827,0.438690990,
-0.483610868,0.049588859,-0.484344542,-0.016441882,
0.183804527,-0.126057833,0.470488548,-0.004565733,
-0.254915059,0.128932893,0.260031998,-0.000993371,
0.433375359,-0.302029938,0.177676469,0.323811799,
0.249099031,0.000272796,0.161150619,-0.391399056,
-0.397391260,-0.035514493,-0.042838063,0.372188449,
0.362297326,0.335116059,-0.208979920,-0.398448288,
-0.666277349,0.120278597,-0.754597306,-0.280438811,
-0.252690077,-0.422151923,-0.197043896,-0.314773262,
-0.255844653,0.475671440,-0.076937549,0.415505379,
0.011093736,-0.064296842,-0.146391094,-0.357413590,
-0.169675708,0.402151138,-0.885285199,-0.412552685,
0.458864808,0.009274781,-0.334575236,-0.393026769,
-0.419892550,-0.438427567,0.452460647,0.344746768,
0.040895045,-0.426137149,-0.130775869,-0.469697356,
0.172310054,-0.132759809,-0.106997252,-0.156006753,
0.235156521,0.271046311,0.127440795,-0.061798312,
-0.063963175,-0.024105957,-0.439818740,0.480472147,
-0.185990050,0.268878847,-0.550220490,0.019534785,
0.171163678,-0.459090233,0.229349911,-0.382722378,
0.066925496,-0.101916157,0.311317921,0.483283430,
0.102981508,-0.029920295,-0.237933487,0.175498039,
-0.238634348,0.210361168,-0.246858016,0.337462932,
0.384302497,0.307023585,0.022525562,0.232728958,
-0.418965548,0.413401961,-0.242633045,0.126183718,
-0.089594372,-0.154993162,-0.399709553,0.322476864,
-0.272024632,-0.088172734,0.252225041,0.050393403,
-0.438189298,-0.519006610,-0.261073083,0.421694487,
-0.379627734,0.289147109,0.352072865,-0.212430596,
-0.218721241,-0.360007674,0.070336871,-0.074508816,
0.024292409,0.216880322,0.209919930,-0.157748520,
0.034905925,0.119016521,0.028508039,0.100708880,
-0.204038575,0.408697784,-0.069240436,-0.065531351,
-0.448756337,-0.362434089,0.015553355,-0.077326715,
-0.250660568,0.262113124,-0.027126711,0.176651165,
0.491455972,-0.213856444,-1.166399837,-0.018644458,
-0.042340517,-0.250081301,-0.120042086,-0.014411986,
0.220960721,0.459299326,0.395105094,0.049725380,
-0.030877495,0.128377035,-0.002724025,-0.064899959,
0.171935201,-0.406800091,-0.425218344,0.002025306,
-0.127243802,-0.252992183,-0.409462035,0.340636909,
0.003096871,-0.250808746,-0.340878934,0.130932003,
-0.362617433,0.032113016,-0.006165922,0.170331359,
0.188076764,-0.338713855,0.225066900,0.370435119,
0.012127440,0.233004957,-0.228958026,0.092356138,
0.146099210,-0.230941117,0.308708727,-0.472748637,
-0.197481677,-0.257051855,-0.427412868,-0.211615145,
-0.471145391,0.085808396,-0.098908365,-0.421005368,
-0.283147782,0.038463332,0.229313031,-0.421313524,
-0.143213972,0.100925788,0.198179275,0.035291728,
0.136159122,0.500217974,-0.156625912,0.341017097,
0.428178608,-0.442586124,0.142657071,0.287099540,
-0.083197176,0.275433570,0.042407174,0.380743504,
0.011454588,-0.319689840,0.398940176,0.149498567,
0.423700273,0.122838400,0.248593062,0.310019940,
0.084193349,-0.116232932,0.103267252,-0.348625004,
0.017081618,-0.160707235,0.031612158,-0.395879328,
0.296199620,-0.464842051,0.197268784,0.337268919,
-0.454925865,0.453133225,-0.389322579,-0.097718753,
0.032177519,-0.072609000,0.986524105,0.002958253,
0.002239796,-0.330192655,-0.167512491,0.492416352,
0.376031756,0.036815286,0.041111231,-0.424297631,
0.377473831,-0.074964225,-0.208546937,-0.397911251,
0.397490889,0.225127116,0.315476120,0.038784832,
-0.340765446,0.203713760,0.040195551,0.166250169,
-0.099110715,-0.197918653,0.432474494,0.198673472,
-0.215124622,0.040934235,-0.141336977,-0.039552718,
0.272777766,-0.401261538,0.450653881,0.338708788,
0.000429630,-0.204517007,0.101945758,-0.330954194,
0.320078909,-0.269127667,0.091077685,-0.495076060,
0.236841902,0.337778538,0.361534923,0.037505988,
0.295664191,0.170631289,0.353922486,0.282691568,
-0.440864414,0.050609808,-0.165460393,-0.239295006,
0.354127079,-0.066948123,0.107468590,0.316582412,
0.336471140,0.265565336,-0.108296297,-0.446284562,
-0.479992390,0.157164752,-0.005933583,-0.315905988,
0.219818696,0.457666099,0.310121149,-0.066331692,
0.067562521,-0.318932235,0.235996425,-0.387474358,
0.345196187,-0.228374600,-0.198306561,-0.418805778,
-0.161853567,-0.057163313,-0.061676189,0.366044492,
0.272841364,-0.451624691,-0.067429937,0.158636570,
0.478655994,-0.122894891,0.336732507,-0.031415228,
-0.211116895,0.296246350,-0.470332116,0.418036848,
0.498856068,-0.136868164,0.182369947,0.495359987,
0.152410477,0.196500584,0.202081621,-0.202460155,
0.122049153,-0.266486824,0.426957011,-0.214257121,
0.113080785,-0.145942926,0.276084572,0.007284668,
0.272869468,-0.137096673,-0.312380910,0.189593881,
-0.281390607,-0.410515308,0.193180144,-0.300715744,
-0.187937319,-0.124847651,0.035503745,-0.173169613,
-0.181644917,-0.126898274,0.334739685,0.147998005,
-0.245176703,-0.342099220,0.028311931,0.156967878,
-0.008120569,0.274661869,0.424517930,0.123770975,
0.147034660,0.259691745,-0.230598778,0.062912397,
0.404242218,-0.239432037,0.038914561,-0.195479572,
-0.380557060,0.265988648,0.383975297,-0.267707080,
0.183671013,0.150137573,0.180250302,0.271542579,
0.469523400,0.377703905,-0.438499451,-0.196184576,
0.385964245,-0.279943138,0.366057068,-0.142389268,
0.097339503,0.242400244,0.140149519,0.361196220,
-0.060167551,0.271435559,0.161644399,-0.157575965,
-0.352527767,0.457678586,-0.131957859,0.377282381,
0.314779073,-0.020275874,-0.429803431,0.040557608,
-0.240179971,0.129031599,-0.180654645,0.387152761,
-0.434596688,-0.143463597,0.047561970,0.045296226,
0.410986781,-0.158311039,-0.380871415,0.331204206,
0.140481591,0.329774350,-0.278946936,-0.292829871,
-0.204839185,0.033572320,0.154843047,-0.289955169,
0.045134101,-0.095035911,0.727484167,-0.005373993,
0.553867042,-0.328761011,0.008307137,-0.299406499,
0.368350148,-0.343839288,0.206966579,-0.183731318,
0.496704191,0.069532797,-0.452521354,0.084546268,
0.078922272,-0.497654080,0.117067084,0.490053564,
0.143888116,-0.002659023,-0.103651106,0.132870078,
-0.225762621,0.489896089,0.417747229,0.230575666,
-0.209900245,-0.478967100,-0.325546920,0.474515975,
-0.420512408,-0.503853917,-0.182497591,0.129538521,
-0.281063795,-0.465856344,0.224282861,0.006470102,
0.348351628,0.142553851,-0.421952695,-0.453045994,
0.341665298,-0.090944491,-0.239699066,0.156061202,
-0.100681067,0.237203464,0.111134291,-0.218889073,
-0.400744736,0.270671070,-0.300405383,-0.055302024,
0.068364143,-0.290983438,0.272362292,-0.351693809,
0.155117005,0.064974159,0.205779672,-0.469132513,
0.034269143,0.238449246,-0.363946140,0.125687003,
0.017831581,0.453778982,-0.709410727,0.029504843,
-0.217468679,-0.123226464,0.143138528,-0.482222438,
0.377888381,0.358506441,0.194285303,0.372820497,
-0.155643284,0.113887608,0.025437355,-0.345747292,
-0.233095467,-0.202349603,-0.137268141,-0.463655263,
-0.497776389,-0.061641585,-0.088355057,-0.459858716,
0.104301944,0.270195961,0.401151359,0.418247551,
-0.349383056,-0.160241067,-0.237198472,0.091705263,
0.135352924,0.122821756,0.295611531,0.279488534,
-0.264692277,0.342803061,0.327333808,0.064290866,
-0.415124804,-0.315137476,0.078358360,0.177688599,
0.462399244,0.252522498,0.203704000,-0.011108649,
0.341199815,-0.181926608,0.223517761,-0.237727046,
0.029146701,0.294698447,0.250860691,-0.046752572,
-0.006331086,-0.277566612,0.231599271,0.336440742,
0.374311149,-0.424732655,-0.750464737,0.337145954,
-0.071490943,0.306929410,0.388065606,-0.146240503,
-0.293360949,-0.470396936,0.191259325,0.256442070,
-0.089274123,-0.487923026,-0.318148524,-0.029251000,
0.229913726,-0.175514787,-0.283146918,-0.359241396,
0.453327835,0.192759007,-0.484458327,-0.281181067,
-0.429570347,0.072115831,-0.237718523,-0.001551219,
-0.354091883,-0.383868009,-1.175358772,-0.542254150,
-0.209405243,0.077767372,-0.235138416,-0.017822385,
-0.061444789,0.456012368,-0.246867284,0.468103826,
-0.393765956,-0.427607745,0.174083725,-0.276648283,
0.255547225,-0.277593702,0.416965306,0.483396888,
0.038433414,0.113136165,0.470934600,0.298428148,
-0.398159266,-0.004170449,-0.417340159,0.393310815,
-0.078523599,0.000979622,-0.392580390,-0.269576311,
0.063418053,0.411403865,-0.269624114,0.045704748,
0.452972770,0.448113233,-0.080635883,0.469062418,
0.192588761,0.456335276,0.037607878,-0.415959239,
-0.136101961,0.149965227,0.266637027,-0.498103976,
0.384396940,-0.451524317,0.302482486,0.496587634,
0.115732461,-0.104168750,0.261551648,-0.161851108,
-0.347504020,-0.325892061,0.200823277,0.415709883,
0.020246387,-0.484794974,-0.491303980,-0.112903714,
0.269909620,-0.333197594,0.134770393,-0.273285031,
0.404585123,-0.131849036,-0.123687461,-0.438795447,
-0.447845817,0.033792377,0.080845594,0.270133674,
-0.437214553,0.087610304,-0.072229743,0.293297887,
-0.228950292,0.147759184,0.184509307,0.249515846,
-0.173314393,0.159463674,-0.115824424,0.132771894,
-0.307451546,-0.397304654,-0.408993185,-0.314313591,
-0.211613834,0.074425995,-0.109368622,-0.284637928,
0.004200280,-0.157898366,0.308215201,-0.411802709,
-0.186015040,-0.322342724,0.045083363,0.025794020,
-0.046960272,0.465462625,-0.271270812,-0.102222249,
0.120556623,0.409306973,0.410187066,0.048615407,
-0.190570340,0.163245976,0.297572583,-0.012128973,
0.273881555,0.409950495,-0.290084124,-0.110655487,
-0.476485729,0.144542143,0.353168845,-0.087973364,
0.084627025,0.158376843,-0.047777686,0.386896640,
0.072860718,-0.491472840,-0.412893057,-0.495382667,
0.020171465,0.269539088,-0.048577242,0.449209213,
-0.095006883,0.098118186,0.445502967,0.248166278,
-0.017408714,0.480497718,-0.316932172,0.184711218,
0.395920306,-0.299308002,-0.687211037,0.031490885,
-0.189694405,-0.252320826,0.099452674,-0.362714112,
0.447993100,-0.049794868,-0.138856038,0.418310791,
0.136168391,0.092513256,-0.259030223,0.473418772,
-0.153876036,0.414594889,-0.055053499,0.249135435,
0.351561368,-0.372251213,-0.333251595,-0.494427085,
0.359500915,0.427658081,-0.211584404,-0.249886632,
0.081944607,0.267841607,0.106356256,-0.105999455,
-0.318282008,0.427042723,-0.309644729,-0.483295411,
-0.182887465,0.107328385,0.178297684,0.199599013,
-0.289649367,-0.191894948,-0.222339869,-0.242129743,
-0.421136677,0.102349818,-0.145408690,-0.481253028,
-0.291958630,-0.300273001,-0.215681374,-0.308952093,
-0.087603502,0.176879853,-0.397151023,-0.044540893,
-0.157594115,-0.267074913,-0.103964016,-0.249803990,
0.010206492,-0.365789294,0.088623337,0.453558058,
0.401759624,-0.235208780,0.143685043,-0.488613099,
0.436695993,-0.494439811,-0.388896257,-0.433398396,
-0.478822678,0.060361896,-0.155647710,0.114616103,
-0.016909122,-0.014484360,-0.254513562,-0.287235379,
-0.417279959,0.252769768,-0.242166385,-0.100393355,
0.250653535,-0.134890899,-0.246243358,-0.421609312,
-0.428870767,0.238544986,-0.097317472,0.313390911,
0.032908261,-0.000635087,-0.451400518,0.011039019,
-0.112998366,-0.285317183,-0.115718901,0.026139379,
-0.385908514,0.078104973,0.331950426,0.092478015,
0.476146251,0.230738491,-0.394081652,-0.198731914,
-0.194219381,0.201507583,0.191078871,0.418871164,
0.058083117,-0.316655278,-0.183307886,-0.415980577,
-0.137864769,0.245828450,0.004828274,-0.476802170,
-0.435821384,0.178753644,-0.433890283,-0.402013212,
-0.297491848,0.476818502,-0.125057250,-0.205456719,
-0.311301976,0.305392116,-0.158080667,0.069095396,
0.113323256,0.135538831,0.355675042,0.020092487,
0.051718771,-0.032470047,-0.388533652,-0.114424169,
0.476949304,-0.357016504,-0.268244475,-0.495504260,
0.030318856,-0.467661202,-0.256097078,0.460720539,
0.270852268,0.265950859,0.222788110,-0.366600454,
-0.232659876,-0.404779255,-0.309179425,0.170272112,
-0.140856445,0.487362921,-0.383211166,-0.429522961,
0.505145550,-0.423676878,0.457416773,0.118994556,
-0.463896066,0.426884025,-0.142230064,-0.214406282,
-0.436282068,-0.470015585,0.107079856,-0.489461601,
0.205462992,-0.123554587,0.175472975,-0.122420490,
0.352389276,-0.099961974,0.008777998,-0.052004836,
-0.343922973,0.063677549,-0.319139361,-0.309954941,
-0.460093647,-0.149564952,-0.459223330,0.396171927,
0.356702745,0.111164160,0.435705602,0.238417506,
-0.511149287,-0.046369549,-0.139659777,-0.292706788,
0.136362538,-0.190067738,-0.262290567,0.045485985,
-0.345719427,0.407707781,0.328131169,0.469137847,
-0.088559985,0.163297534,-0.020111024,-0.413739800,
0.226208568,-0.349246025,-0.180490613,-0.223912120,
-0.535438955,-0.000012408,0.096372381,-0.051761068,
0.365934938,0.025281843,-0.117303930,-0.273370057,
-0.296952605,-0.071085334,-0.293452144,-0.329836488,
-0.066131234,-0.088282943,-0.305211365,0.292144835,
0.424038470,-0.340914130,0.219004631,-0.232005179,
-0.053484738,0.464693844,0.083069488,-0.490547717,
0.459644377,-0.021154702,-0.250366986,-0.264055014,
0.422781646,-0.002673713,0.264245957,0.322681129,
-0.194065750,0.042438865,-0.323427677,0.417526841,
-0.275025219,0.325180292,0.141576931,0.308531255,
-0.352284908,-0.015549421,0.259079874,-0.019957662,
-0.007366561,0.245089740,-0.387056708,-0.098814361,
0.226332903,0.244211391,0.447596312,-0.100371964,
0.133541346,-0.255653501,-0.107197523,-0.253511041,
0.354457676,0.008559740,0.199243695,0.288277954,
0.093836747,0.053575758,-0.060928881,-0.421197176,
0.079243541,-0.113052949,-0.404880852,0.466206223,
-0.045841560,-0.259967506,-0.421029061,-0.554526687,
0.190401673,-0.228252232,-0.215986550,-0.289310694,
0.401689827,-0.121658303,0.308147877,0.394993454,
-0.357350022,0.380224347,-0.116759844,0.484304309,
0.242759645,-0.498260289,0.092017137,0.161429062,
-0.181391984,0.378712714,-0.399983227,-0.158591673,
0.474900156,0.487195432,0.232537210,-0.300041050,
-0.430200636,-0.406534374,-0.124993682,0.283248067,
0.176869959,-0.044031985,0.457666188,0.399553359,
-0.238771096,-0.221586347,-0.010800342,0.097840242,
-0.005578998,0.191514686,0.329612970,-0.092168063,
0.249651879,0.063094385,0.215945914,0.185728163,
-0.137853563,-0.234604269,0.203399464,-0.330006242,
0.309815764,-0.302479476,0.370232522,0.199001923,
-0.120745391,0.284874976,-0.212619364,0.101247266,
0.145164132,0.049501549,0.085499860,-0.012168366,
-0.130344450,0.287682027,0.187270597,0.194531158,
0.337557614,-0.261609972,-0.116169095,-0.014251471,
0.400341004,-0.397122711,-0.323728949,-0.117991425,
-0.433142811,-0.395784914,0.337002754,0.021816308,
-0.402238309,-0.082559526,-0.016438425,-0.177758038,
-0.423814952,0.266924769,-0.079980277,0.482602477,
-0.279939413,-0.253935754,-0.091627389,-0.347495973,
0.362296700,0.380006969,0.460501522,-0.325554401,
0.354783028,0.344323725,-0.220628262,0.053160205,
0.240051955,0.360146672,-0.447324008,0.499838412,
-0.128836289,0.216607809,-0.366889477,-0.339493215,
-0.333132625,0.296771467,-0.230690762,0.291726828,
0.151638314,0.204025999,-0.153730586,-0.150057420,
-0.218899414,-0.260034800,0.484395564,-0.005387246,
-0.214417756,-0.465202451,0.021751583,-0.496318817,
0.001261367,0.308896214,-0.434175998,0.236886844,
-0.159495115,-0.384555161,-0.495219469,0.248389721,
-0.349585414,0.241481796,0.102668926,0.296916634,
-0.376498580,0.436616242,-0.516877890,-0.380239189,
0.349228799,0.061852995,-0.478039980,-0.070416510,
-0.428038210,-0.469498366,-0.117695257,0.364315301,
0.148172274,0.092789069,-0.116664983,0.453998297,
0.004788637,0.168826401,0.007947087,0.078022957,
0.163007811,0.382575065,0.272390157,0.059434969,
0.200114146,-0.150367036,0.361837417,0.140700907,
0.377346486,-0.096979387,-0.427726537,0.095803134,
0.204961419,0.407485306,0.212091371,0.186064988,
0.383339614,-0.180347115,0.434411883,0.253804177,
0.332613111,0.355490804,-0.427768648,0.258916944,
0.473762184,-0.347692758,-0.033894181,-0.286794454,
-0.122300409,0.073417209,0.251991123,-0.146742404,
-0.155447200,0.232275128,0.331307054,-0.036443155,
0.426605970,0.384376645,-0.127996296,0.017813271,
0.088075161,-0.097979426,-0.123181820,-0.225699842,
-0.286753386,0.249439791,-0.175841868,-0.238659024,
0.441255450,0.083306707,0.378881514,0.457265824,
-0.023945577,0.089453653,0.494409829,-0.300607502,
-0.152245224,0.069235250,-0.051336773,0.130765706,
0.330427170,-0.160341263,0.274567246,0.534000456,
-0.261398911,-0.349136442,-0.372364342,0.295480371,
-0.469377100,-0.248204216,0.327485263,-0.314994216,
0.405142069,-0.234801039,0.061916452,0.063939467,
0.010338162,0.301917225,0.462867707,-0.262209147,
0.275857806,0.127303377,-0.030452836,-0.356376439,
0.143915147,0.358999223,-0.454106331,-0.465711713,
-0.491541982,0.115530610,-0.143667340,-0.155313790,
0.465591758,-0.128126472,-0.295030117,0.046288483,
-0.274430692,-0.146497190,0.264114559,0.115396917,
-0.346619070,0.473530799,0.323110580,-0.344374180,
0.217791319,0.205459595,-0.358775496,-0.351396739,
-0.413257807,0.223144501,0.105027169,0.212141380,
-0.201301560,0.394754887,0.099190779,-0.365813226,
-0.127443567,0.253966719,0.092718057,-0.078133002,
-0.442664891,-0.313075542,0.423995972,-0.310123891,
0.349332899,-0.185945883,0.110389605,-0.676361144,
-0.162582532,0.420525640,-0.440954834,0.251466483,
-0.420792222,0.072926342,-0.453318179,-0.395817161,
-0.403648794,-0.173375130,0.068078697,-0.366586030,
0.119461522,0.294758737,0.402366549,0.435610414,
0.314199090,-0.134482324,-0.022159664,0.478217453,
0.241739810,
-0.131593183,
0.378832996,
-0.436962426,
0.429622084,
0.272134542,
-0.362854302,
-0.407806516,
0.412155300,
0.490867138,
0.043631554,
-0.180361152,
0.281231165,
0.225633562,
-0.062401056,
0.401827067,
0.325928122,
0.120450914,
0.257042021,
-0.468348205,
-0.241861582,
0.103712648,
0.149564654,
-0.085158870,
0.188730866,
0.154019922,
-0.462101996,
0.158560783,
-0.048090763,
-0.344072700,
0.018371426,
-0.122969627,
-0.265519977,
-0.455618501,
0.420029938,
-0.293998897,
0.108175419,
0.412352771,
-0.046828371,
-0.327706993,
-0.483728826,
0.085604988,
-0.261047632,
0.031198660,
0.159091115,
-0.145810902,
0.336306155,
-0.056524545,
-0.199543476,
-0.330598891,
0.155651465,
-0.316677749,
0.105910629,
-0.063104928,
0.357987612,
-0.253387243,
-0.246311128,
-0.069963343,
-0.321829081,
0.202995479,
-0.189398333,
0.184774354,
0.287763685,
0.290334851,
-0.092966229,
0.274455458,
-0.264764011,
-0.498174667,
-0.030824065,
-0.362533331,
-0.387364030,
0.124553770,
0.421129405,
-0.196766675,
-0.028283894,
-0.362247229,
0.097690403,
0.052778572,
-0.064650685,
0.381925404,
-0.402413726,
-0.065987803,
-0.277535200,
0.440698653,
0.419861943,
0.493766397,
0.461854339,
0.199629441,
-0.400032401,
-0.339157939,
0.106670558,
-0.435895026,
0.311621428,
0.223628700,
0.116626725,
-0.445330411,
0.362376094,
-0.049200784,
-0.231345296,
0.258201182,
0.042361692,
-0.224567339,
0.114919178,
-0.291346610,
0.466318339,
0.435773730,
0.208277509,
0.265936047,
-0.497028530,
-0.277943730,
-0.481133580,
-0.245110050,
-0.414537013,
0.362448901,
0.267515123,
0.306711763,
-0.255662620,
0.381579787,
-0.083303586,
-0.126091182,
0.266825765,
0.332989126,
-0.359365284,
0.473803133,
-0.046404291,
0.135038152,
-0.497868299,
0.057284560,
-0.247458100,
-0.313070357,
-0.208763063,
0.061244916,
-0.154261559,
-0.320297062,
0.357240587,
0.143713996,
-0.410845280,
0.099779844,
0.123893820,
0.019963024,
0.136823833,
-0.049556565,
0.216311842,
-0.351989806,
-0.222938627,
0.366127282,
-0.309770286,
0.247244880,
0.460247308,
-0.454591841,
-0.217982277,
0.443979025,
-0.030233502,
0.102109760,
0.068910733,
0.200427234,
-0.206015825,
0.070969969,
0.342212349,
-0.007831431,
-0.458728075,
0.168045640,
-0.127642989,
-0.105484247,
0.262550622,
0.088741519,
-0.298141330,
-0.203282163,
-0.080010615,
-0.086613186,
-0.105849862,
-0.358102202,
0.359428614,
0.256941706,
0.099800400,
0.114834428,
0.053768504,
0.375244200,
0.213990346,
0.073698565,
-0.274855494,
0.162106082,
-0.467773318,
0.150589213,
-0.433394670,
-0.192455366,
0.261466354,
-0.297806025,
0.395617247,
-0.318027437,
0.475273013,
0.155936942,
-0.216677070,
0.306805134,
-0.442796350,
-0.305692792,
-0.313254952,
0.061710756,
0.054666817,
-0.430053592,
0.484781772,
-0.001786614,
-0.266998351,
0.003387694,
-0.218680933,
0.132360995,
0.185707062,
-0.052791581,
0.046068814,
0.297733635,
-0.333115637,
-0.104688361,
-0.073887900,
-0.330806434,
0.199262202,
0.019912776,
-0.403864324,
0.100015298,
0.479061007,
0.262668669,
-0.291304082,
0.455313921,
-0.345238894,
-0.254177123,
0.225367129,
0.399504751,
0.474646211,
0.432269573,
-0.266328871,
0.123605452,
-0.313957036,
0.011041641,
0.411794454,
0.248043731,
-0.461686909,
-0.215186298,
-0.421870530,
0.248982295,
-0.031430338,
-0.365511477,
-0.088986672,
0.172774255,
0.040283650,
0.465895772,
-0.009159727,
0.229927599,
-0.151463509,
0.061250169,
0.050193049,
0.426126152,
0.226852000,
-0.284946024,
-0.444278717,
-0.475719452,
-0.147172511,
0.062727250,
0.470326215,
-0.048207857,
0.197168931,
0.237733856,
-0.396034658,
-0.413298696,
0.191515476,
0.230401412,
-0.239313424,
0.074364468,
-0.489555478,
0.006836022,
0.133645341,
0.027675183,
-0.079364955,
0.209951162,
-0.098031133,
0.369741023,
-0.430664718,
-0.281069160,
-0.417416453,
-0.452201247,
0.370821565,
-0.123736441,
-0.392763436,
0.004240785,
-0.378627896,
0.028137935,
0.231312513,
-0.080905370,
0.253453672,
0.064134784,
-0.401220143,
0.099145353,
0.313200265,
-0.115909874,
0.049483344,
0.090267032,
0.010469175,
0.137935281,
-0.478729606,
0.381298840,
0.219128400,
0.058911953,
0.087638587,
-0.403233945,
-0.142760456,
-0.021748364,
0.114883915,
-0.281879216,
0.050492283,
-0.148918420,
0.390860438,
-0.429180622,
0.048112117,
0.311218053,
-0.380854964,
0.024406498,
0.244873494,
0.201265797,
0.055212121,
0.199712783,
-0.348548412,
0.413915813,
0.007242122,
0.320567638,
0.105271637,
-0.055623710,
0.208033949,
0.471273929,
0.494749963,
-0.421895087,
0.035717417,
-0.359188139,
0.293585837,
0.355970591,
-0.351098776,
-0.024103520,
0.343351156,
0.332449079,
-0.375934780,
0.333283424,
-0.087278411,
-0.425236106,
0.101271026,
0.226198018,
0.295752555,
-0.339961469,
-0.362141311,
-0.335945606,
0.284576237,
-0.476140738,
-0.001542285,
-0.146930397,
0.244601309,
0.087809339,
-0.252487779,
0.084898978,
0.450982898,
0.078945912,
-0.262460798,
0.016739964,
-0.458623707,
-0.331910878,
-0.092873991,
-0.311575830,
0.413626939,
0.109230898,
0.384657830,
-0.113854468,
-0.034753848,
0.127911299,
-0.151856318,
-0.092140563,
-0.476620793,
0.374143064,
0.454383761,
-0.495061159,
-0.165429235,
-0.378193974,
-0.212562054,
0.378219634,
0.296791255,
-0.038796008,
0.215153694,
0.145975322,
0.272460133,
-0.401800156,
0.151210204,
-0.492795050,
-0.294817060,
-0.101094492,
-0.062089942,
-0.471852362,
-0.052774560,
0.129619643,
-0.198433042,
0.133363008,
0.434552342,
-0.102819771,
-0.101838730,
-0.432532400,
-0.389054179,
-0.276543736,
-0.313651800,
-0.196575165,
0.277023792,
0.154831573,
0.452382714,
0.489457011,
-0.183722079,
-0.189556107,
0.069775313,
-0.404825866,
0.303956866,
-0.104921415,
-0.418664455,
-0.377490819,
-0.344534159,
0.132864088,
0.384962171,
0.397276133,
-0.137677491,
-0.290427983,
-0.258375794,
-0.341559708,
-0.096691936,
-0.403830051,
0.268908888,
-0.470597625,
-0.311027288,
0.331588387,
-0.374004602,
0.114766181,
0.371718019,
0.494794846,
0.243832409,
-0.133688271,
0.283382058,
-0.018566206,
-0.154170096,
-0.006727225,
0.109666355,
0.336919218,
0.200648010,
0.240253761,
0.101107188,
-0.024023371,
0.200226560,
0.124836132,
-0.478445113,
0.078153089,
-0.218457058,
-0.256914645,
0.192151830,
0.102811418,
0.086145349,
-0.239332289,
0.230219990,
0.470568627,
0.062848769,
0.194913894,
-0.438664019,
0.294822454,
0.183700278,
0.217961177,
0.211484119,
-0.118667327,
-0.032737494,
0.485517144,
0.365041167,
-0.342595667,
0.398337275,
0.496215880,
0.094263792,
-0.390091062,
0.092585787,
-0.104093388,
0.357138544,
-0.480392039,
0.123781927,
-0.001288912,
0.033321928,
0.345815003,
0.018508147,
-0.419300079,
-0.291668713,
-0.199389443,
0.044429917,
0.196136579,
-0.092328094,
-0.202689111,
0.217192709,
-0.480631143,
0.350974679,
-0.058123589,
0.322164625,
0.378123194,
0.050300784,
0.199495643,
-0.282803237,
0.358914912,
0.290118933,
-0.089383855,
0.196645245,
-0.028848944,
0.388145536,
0.207747906,
0.365943849,
-0.454489470,
0.489010096,
0.183727503,
0.244557157,
0.135586485,
0.329860479,
0.468393862,
-0.051958472,
-0.410260141,
0.456481993,
-0.102465898,
-0.318671852,
0.317139834,
0.280989647,
0.092533201,
-0.029659476,
-0.099557415,
0.439116508,
0.299559325,
0.294277102,
0.317251474,
-0.274401665,
0.106196277,
-0.448065430,
0.298969358,
-0.495603859,
-0.496952951,
-0.494240999,
0.304240972,
0.046152994,
0.002969512,
0.075793669,
-0.173012331,
-0.163517818,
-0.336796045,
-0.137687057,
-0.307668269,
0.010167863,
0.389002979,
-0.413346112,
0.252280563,
-0.373960048,
-0.207161963,
0.093739755,
0.084823981,
0.407774568,
-0.024928018,
-0.190434217,
-0.203277737,
-0.009755391,
-0.374914408,
-0.392029166,
-0.152459204,
0.024675073,
-0.327485323,
-0.285416603,
0.358506769,
0.452912211,
-0.156085700,
-0.392799377,
-0.191426754,
0.159675881,
0.169369996,
-0.152271464,
-0.440359712,
-0.150344014,
-0.100197539,
0.289675802,
-0.262702197,
0.300806701,
0.065873623,
-0.083799124,
-0.461445004,
0.491199911,
-0.089158416,
0.312261879,
-0.262115538,
-0.486915350,
-0.398550987,
-0.264745176,
-0.145918518,
-0.072602049,
0.418471009,
-0.461129248,
0.250785559,
0.419625074,
-0.021028589,
-0.316370249,
0.017899578,
0.121677347,
0.222913444,
-0.151984572,
-0.171585679,
-0.123579524,
-0.462985545,
0.177088559,
-0.378007412,
-0.243308946,
-0.005145371,
0.386668235,
0.430045933,
-0.363680065,
0.430911601,
0.445468664,
0.405559838,
0.043653108,
0.403306991,
0.252400160,
-0.358779788,
-0.139671087,
0.012626524,
-0.348120481,
-0.167834029,
0.425616771,
0.224727347,
0.437331438,
0.003833115,
-0.254950404,
0.332622200,
0.033626072,
0.085636705,
-0.215413421,
0.202942222,
-0.369002163,
0.395361006,
0.436086714,
0.179786518,
0.386994660,
0.300554782,
-0.190958679,
-0.433666706,
0.048209585,
0.314801604,
-0.050633594,
0.037951872,
0.407563925,
0.205606878,
0.375442833,
0.074770607,
0.052930091,
-0.110888295,
-0.087119192,
-0.267968059,
0.340256751,
0.457883775,
0.168204993,
0.069032274,
-0.165052533,
-0.493665934,
-0.045122307,
-0.265192270,
-0.369131088,
-0.099008203,
-0.097978607,
0.102066681,
-0.362409770,
0.356845021,
-0.446589470,
-0.236796618,
-0.171673790,
0.033644415,
0.203647330,
-0.120538652,
0.077766292,
-0.115772545,
-0.189095914,
-0.069938421,
0.091754727,
-0.485675514,
-0.330941737,
0.392522991,
0.224314392,
-0.015194800,
-0.002108285,
0.069017529,
0.117875926,
-0.341369152,
-0.182606086,
-0.458887935,
-0.393092871,
-0.094077647,
-0.066018462,
0.392880291,
0.070216477,
-0.095221460,
-0.013852239,
0.278713852,
-0.162728012,
-0.090491042,
-0.098460220,
-0.398171186,
-0.075018808,
-0.462220848,
-0.310111642,
-0.308497995,
0.370912671,
-0.460592091,
0.483414888,
0.184955925,
-0.337896645,
0.416009545,
-0.150170103,
-0.423492551,
-0.070351712,
0.248788297,
-0.486144423,
-0.025633546,
0.210814610,
-0.194862664,
0.038484398,
-0.218935072,
-0.335448921,
0.425772458,
-0.355023861,
0.028948681,
0.163599119,
-0.278192073,
0.242080584,
-0.413940430,
0.479468882,
0.220135495,
-0.070786953,
-0.415919662,
0.014047705,
0.176053837,
0.012810790,
-0.065000460,
-0.498288214,
-0.499851465,
-0.063207820,
0.415934443,
0.007721851,
0.150951385,
-0.201425329,
-0.163263321,
-0.059657317,
-0.254668683,
0.307598114,
0.309267133,
-0.396788597,
0.150284931,
-0.206552505,
-0.280016333,
-0.060999215,
-0.155081153,
-0.292809159,
0.064724796,
0.284751445,
-0.087948143,
-0.035500892,
0.040454965,
-0.214889228,
0.265808046,
0.458177239,
-0.045698047,
0.033989012,
0.400479913,
0.413293898,
-0.388721108,
-0.267581224,
-0.490464568,
0.306164265,
0.386080444,
-0.181415230,
0.149515435,
0.118296064,
-0.430178881,
0.201247275,
0.243497849,
0.012275733,
0.051757935,
0.117212638,
0.361918986,
0.438785523,
0.031885043,
0.196047351,
-0.130812824,
0.295543432,
-0.166472867,
-0.412144542,
0.231134236,
0.178616375,
0.186429352,
0.257192254,
0.059395373,
0.166661054,
0.200678974,
-0.269723177,
-0.026790082,
0.082545951,
-0.085845336,
-0.406455010,
0.047429621,
0.303196222,
-0.267399251,
0.472077847,
0.099139988,
0.209546939,
-0.193072677,
-0.397989511,
-0.187293380,
0.017537389,
-0.227015421,
0.446943223,
-0.320840180,
-0.336762607,
-0.202364132,
0.450014442,
-0.228627503,
0.459557682,
0.235018134,
-0.059538227,
0.254904330,
0.291525781,
-0.254495978,
-0.105697162,
0.479942292,
0.287681788,
-0.239923790,
-0.128165439,
0.274371862,
0.251292527,
0.041007929,
-0.318996459,
-0.368782997,
-0.105847545,
0.173848078,
-0.037952159,
-0.418041229,
-0.122539759,
0.496968895,
-0.413259625,
-0.388047636,
0.311831087,
0.494703144,
-0.480981469,
-0.452219248,
-0.156342864,
0.496216327,
-0.321967602,
0.038097486,
0.405854493,
-0.178253815,
-0.126686826,
-0.340757549,
0.019197762,
0.467363864,
0.200394347,
0.348931849,
-0.038869679,
-0.079419255,
-0.093306169,
0.280936897,
-0.068231717,
-0.427097857,
-0.178935096,
0.193047777,
0.487975895,
-0.083702743,
-0.435331941,
-0.368158937,
-0.393403292,
0.200660780,
0.355857402,
0.142919526,
0.162421539,
0.329633206,
0.333957613,
0.291934252,
0.281335771,
0.119079791,
0.257907510,
-0.343082607,
-0.323627412,
0.128566027,
0.075029917,
-0.402066976,
-0.364249170,
-0.398037672,
0.394448251,
0.328486830,
-0.274939060,
0.073424935,
-0.115003645,
0.439792991,
-0.452867389,
-0.358433783,
-0.416282594,
0.287690312,
-0.244376078,
0.288983494,
0.145006761,
-0.244396269,
-0.133333802,
-0.202341318,
0.215429291,
-0.203746125,
0.164218888,
0.067154303,
-0.403054178,
-0.314305961,
-0.346686900,
0.245626792,
0.105598062,
-0.012571990,
-0.297720611,
-0.495403707,
-0.173385933,
-0.382671237,
-0.506077290,
-0.476880133,
-0.329380900,
-0.486070335,
0.155249521,
0.184804857,
0.188408375,
-0.503510654,
0.308113486,
0.096639417,
0.236543119,
-0.122888386,
0.237487599,
-0.472030014,
0.157200605,
0.397100329,
0.207749829,
-0.471306443,
-0.124551125,
-0.068016648,
0.259347290,
-0.196994320,
0.055042505,
-0.142026812,
-0.085951477,
-0.012664236,
-0.278497130,
-0.347046733,
0.411346734,
0.416906893,
-0.015137374,
0.426329702,
0.415885687,
-0.318429857,
-0.203351066,
-0.339672893,
0.171946228,
0.015548780,
-0.065588228,
0.388040304,
-0.195435226,
-0.296365052,
-0.355438054,
-0.251577765,
0.479390532,
-0.216677353,
-0.155983299,
0.225201309,
-0.384016454,
-0.306553423,
0.369629323,
-0.208979338,
-0.252508134,
-0.073316753,
-0.073887378,
0.095391303,
0.181064308,
-0.417826265,
0.451947957,
-0.475376606,
0.166246042,
-0.136214763,
-0.187355310,
0.464490652,
-0.401492268,
0.032412097,
0.312532157,
0.444620222,
-0.412273914,
0.054265060,
0.488605648,
-0.489764512,
0.123095334,
-0.313285470,
0.077801920,
-0.452292204,
0.247824118,
-0.093469612,
0.296312481,
-0.009171322,
-0.057249792,
-0.121520512,
-0.457820594,
-0.212380469,
0.010520268,
-0.374759793,
0.037117705,-0.019086491,-0.012517505,-0.004228878,-0.024475709,-0.000955194,-0.055359643,-0.026469495,0.074802741,0.025382690,0.007787087,-0.012316448,-0.004712404,-0.018244347,0.025486629,-0.016396910,-0.031374626,0.010155178,0.012546105,-0.018902980,0.013040663,-0.145693481,-0.010130098,0.090924300,0.004990403,-0.024832703,0.007750222,-0.006901785,0.009758551,0.005278200,-0.020439193,-0.024057159,-0.016480640,0.015143425,-0.023090109,-0.021565991,0.320609421,-0.014629839,-0.019638054,0.028675063,-0.016718762,-0.002641068,0.017055308,0.011434352,0.024689185,-0.032806307,0.015294142,-0.012172434,-0.020259015,-0.013543922,-0.020163774,0.035046160,-0.007623903,-0.031007536,0.032838345,0.017209649,0.013075469,0.028983066,0.022288539,0.038295422,0.034652825,0.062092930,0.011875426,0.002890073,0.853061676,-0.016361102,0.014858204,0.000916131,0.126388311,-0.020369736,-0.011906876,0.024094492,0.004615272,0.010912761,-0.027606918,-0.013541698,-0.016122267,0.088270292,0.014590493,-0.014290015,0.026392285,-0.009392055,0.012299644,-0.021990495,0.002484425,-0.036222279,-0.029819017,-0.019626047,-0.015702456,0.002450987,0.000405862,-0.011492820,0.032119166,0.228630871,0.010494621,0.015984835,-0.004009082,-0.022866908,-0.008426802,0.021955591,-0.003165855,-0.019997139,0.017310480,-0.178041816,-0.017566152,0.016945668,-0.124427147,-0.015049886,-0.018922186,0.029781073,0.020568958,-0.022990622,0.000015117,-0.000386783,0.019724060,-0.047586154,0.054798439,0.006039372,-0.025692467,0.057306487,-0.002147360,-0.033410743,0.017092533,0.020997548,-0.004990678,-0.031895634,0.009252377,-0.020880051,-0.020661214,0.008619921,-0.003002981,-0.093176842,0.023333132,-0.005546707,0.024631159,-0.005783376,0.492067724,0.032515306,0.017241452,0.097390652,-0.013477082,0.018304378,0.023315834,0.005993567,0.036803097,-0.002376250,0.017134370,-0.030525129,0.025275357,0.004492418,0.026210986,-0.040367160,0.028756522,0.015969483,0.022634782,0.008855176,0.010649841,-0.009601240,-0.016886994,-0.028451795,0.010966947,0.000136985,0.005029873,0.010862853,-0.030291190,-0.022254106,-0.006874443,0.372698218,0.011620598,-0.097857259,-0.009494695,0.257178158,0.006638396,0.024210483,-0.004089128,-0.011678964,0.000300705,-0.013310948,-0.155301735,0.013283079,-0.004248582,0.010376864,0.024623334,0.007174245,0.017811485,-0.072857365,0.013996038,0.001263338,0.019402755,0.746894419,-0.023107952,0.031562924,0.024139622,-0.029708587,0.009269947,-0.077239908,0.010257989,0.003696215,-0.026236245,0.011479664,-0.017334279,0.024133040,0.030864082,0.004063191,0.026687432,0.003603201,0.036790214,0.066507533,0.300124615,-0.004140206,0.004714814,-0.010911621,-0.013604246,0.018293075,0.105269134,-0.015714834,-0.027869200,0.011604288,-0.031375598,-0.000709471,0.043711949,0.022832882,0.032784093,-0.017802028,-0.038019769,-0.021701997,0.011150994,-0.021675821,-0.011044228,0.003292890,0.005800658,-0.014957755,0.008510218,-0.027248964,-0.002814864,0.026507042,-0.017461421,0.074042939,0.039776713,-0.010214732,0.051393211,-0.030943420,0.000085766,0.008944401,0.031692199,-0.225454271,-0.017984567,-0.017321827,-0.033528585,0.003635025,-0.006444999,-0.008488942,-0.014109498,0.001768063,0.059427630,-0.030719854,-0.005090753,-0.009506979,-0.020843728,0.020272154,0.000307390,-0.020920960,0.027584909,0.025210675,-0.016290836,0.002169111,0.003850325,-0.006667587,-0.007207826,0.051040038,0.015561662,-0.029384699,-0.130013794,0.030451737,0.005047150,-0.000254186,0.021431947,0.009084559,0.030731618,0.025087589,-0.002468090,0.803739727,-0.022212934,-0.017649831,0.002403093,0.536905289,-0.000593843,-0.030409086,0.004972626,-0.006805962,0.026797805,-0.002074218,-0.009829539,0.144777507,0.067811467,0.034393866,-0.030918341,-0.020204829,-0.008035092,-0.026970424,0.012067009,0.014282329,-0.002601030,0.000749136,0.009411713,0.035409786,0.021014990,-0.025683727,-0.021580519,0.010000614,-0.031985708,-0.005793579,-0.037227254,0.037172213,-0.016303610,-0.025595654,0.003844398,0.029926816,0.026265297,0.015169913,-0.016117895,0.017664868,0.015468976,0.010550720,-0.012261154,-0.003900940,-0.017119177,0.024492335,0.000331139,-0.004479583,-0.032088015,0.010133145,-0.025873471,-0.013923331,0.009160635,-0.027818786,0.030167626,0.030075479,-0.010525820,-0.005449889,-0.023015061,-0.001763808,0.006674233,-0.017347144,0.009916380,-0.001217004,-0.010573866,-0.005930719,-0.036176391,-0.022276102,0.075009122,0.021212358,-0.018743536,0.016364705,0.008616481,0.003412077,-0.005717877,0.015160759,0.003762178,0.157939926,-0.005984847,-0.021117084,0.023699371,-0.018411908,0.020198019,0.020858280,0.030924132,-0.028441520,-0.021531291,-0.104091793,0.018995030,0.015730852,-0.031351678,-0.004356735,0.027322117,0.016613992,0.009951866,0.022504441,0.107633866,-0.021534594,-0.018965051,0.014531238,-0.025962060,0.000125415,-0.000137624,0.027535845,-0.416997671,0.742561638,0.001399673,0.017852623,0.097279355,-0.120859921,-0.005006935,-0.030451829,0.025067007,0.087224290,0.656793058,0.104141027,0.004577170,-0.016854653,-0.021903075,-0.028286418,-0.017457070,0.032590795,-0.027535196,0.007807452,0.000479905,-0.023885876,0.024414238,0.008986857,0.048217975,0.020797474,0.024718786,0.001190288,0.012048979,0.007861288,-0.022862252,-0.009914282,-0.022268981,0.024570830,0.176017359,-0.013411428,-0.018823136,0.046319131,-0.024549086,0.000892932,0.015084640,-0.000275154,-0.002909624,0.013732608,0.013281556,-0.034215473,0.016559733,-0.028660165,0.011089802,0.026556384,0.002914351,-0.001443443,-0.077619381,-0.013614233,0.016041515,-0.014677653,0.082015537,-0.012748339,0.010350832,-0.031349842,0.016028056,0.025359526,-0.026354505,-0.009541920,0.013655621,-0.001480197,-0.016580956,0.009208915,0.025429474,-0.012496361,-0.011267954,0.019165883,-0.030353040,0.026100015,0.049765397,-0.004738169,-0.020650931,-0.011160149,0.013612970,-0.033955403,-0.023510180,-0.003923324,-0.017647808,-0.002745540,-0.099015020,0.006904465,-0.037107892,0.239282310,0.021111824,0.009956592,-0.008168691,0.034579068,0.020145584,-0.033233527,-0.020740077,0.044945616,-0.006015284,-0.031342529,-0.010533746,-0.026963098,-0.007250905,0.020999433,0.028921975,-0.422579795,-0.018534323,-0.012721718,0.075899363,-0.038533214,-0.001387470,0.032492153,0.028589727,-0.005530900,0.032047205,0.006126825,-0.024070850,0.028506789,0.028182577,-0.031418003,-0.015319242,0.015120422,-0.025001137,0.021190410,-0.015127980,-0.019276129,-0.013287515,0.025881974,-0.020526832,-0.006148913,0.019532891,-0.020042732,0.164314896,-0.027945712,-0.035718560,-0.563495219,0.009413830,0.050607383,-0.029539535,-0.011575919,0.009715951,0.009842558,0.020836733,-0.027508913,-0.005966426,0.018129507,-0.025349034,0.020019215,-0.030173426,0.023069097,0.008886512,0.032251846,0.005958471,0.027352246,-0.013659270,0.019180892,-0.005735870,0.009087089,0.069514588,0.004500256,0.020936457,-0.029504823,-0.000874418,-0.001048957,-0.024639469,0.085262686,0.021680124,0.067876227,-0.005476956,-0.011473235,-0.041521084,0.005478546,0.019183425,-0.106349021,0.028846815,-0.004930386,-0.023713605,-0.016397510,-0.000598227,-0.024798511,0.046701558,0.004819937,-0.005202379,-0.007668498,0.025916757,0.028859718,0.015440570,0.060523540,-0.020540657,0.020909995,-0.028393064,0.004606645,-0.022454776,0.006443582,0.019530160,0.020998500,0.023635419,-0.048719198,0.012275262,0.008480166,0.050887018,0.020463798,0.007774899,-0.013671079,-0.015304276,-0.010516478,0.004937281,0.847775102,0.002588411,0.032909457,0.030284535,-0.022950962,0.009013568,0.020677263,-0.205799550,-0.222175598,-0.017998250,-0.022864809,-0.017917423,-0.011894413,-0.010744602,0.029416807,0.012250694,0.009348977,0.018132132,-0.020228978,-0.029722150,-0.025890136,-0.022252189,-0.014464542,-0.149701416,-0.016919632,-0.037558444,0.006385247,-0.028581811,0.014189095,-0.024061302,0.012065823,0.019760106,-0.025203018,0.013033605,-0.014541954,0.047175836,0.027728403,-0.199916393,0.009720803,0.025429931,0.087678626,0.019289939,-0.000151089,0.001848705,0.006515520,-0.022450617,-0.008039111,-0.009090944,-0.015345933,0.023536820,-0.000447807,-0.016265895,-0.012050111,-0.043116510,0.041690815,0.009556537,0.008228956,-0.015776288,-0.033213932,0.035501834,-0.081487566,0.004929323,0.015856903,0.033218000,-0.094766863,0.018790212,0.025262877,-0.020193974,-0.028493673,-0.017339941,0.020805296,-0.002025147,0.027076757,-0.024729667,-0.038768161,0.008402118,-0.027905915,-0.011577966,0.019692648,0.014024202,-0.002700264,0.018908167,0.027547732,-0.049867149,-0.033521038,-0.017157793,-0.017074671,0.043019347,0.021334462,-0.021433495,0.029002946,0.321951210,0.001373501,0.005409067,0.006674670,0.010174795,-0.028020846,0.006519031,0.141648665,0.031417377,-0.005719525,0.000973901,0.023841836,-0.029670715,0.004794120,0.065727852,0.014243338,-0.002114173,0.034279794,0.003870468,-0.026376063,-0.019379430,0.022892533,-0.015804591,-0.026569499,-0.647409320,-0.019643456,-0.005384641,-0.021604702,0.006681467,-0.003401668,0.023000691,0.014617250,-0.026664495,0.026651552,-0.021086745,0.080737635,-0.011322463,0.173903584,0.002182929,-0.028458508,-0.027589943,-0.005980748,-0.031056210,0.013693473,0.019878043,-0.000058012,-0.009939972,0.014422650,0.549525261,-0.010867505,-0.012442985,-0.019553175,-0.003051198,0.022807397,0.013958875,0.035874896,0.019467415,-0.016271012,0.006892656,0.006054575,-0.017476598,-0.000391533,-0.029043395,0.011725700,0.024675181,-0.012115847,0.020563323,0.017050836,-0.208353788,0.006360473,-0.006421121,0.034594461,0.019874163,-0.036142733,-0.026335742,-0.010300156,0.010869690,-0.005032768,-0.030443732,0.011118528,-0.022735059,0.018819544,0.042650618,-0.010666002,0.011355435,0.001515136,0.011751663,-0.081793971,0.008958530,0.016187094,-0.018264988,0.028553300,-0.011038724,-0.004125561,-0.006744050,-0.026650790,0.003647776,0.056629181,-0.019934218,-0.021402009,0.019320529,0.025481116,-0.007936549,0.001874292,0.016072882,-0.100737870,-0.100799233,0.010490335,0.030299561,0.004212161,-0.023865318,0.022332972,-0.014854343,0.014443511,0.486227870,-0.003693271,0.027644508,0.013698040,0.010536548,-0.055108156,0.003630193,-0.023024872,-0.017561799,0.004461791,-0.035930853,-0.004275104,-0.016836029,0.031859383,-0.019752951,-0.392248750,-0.013194753,0.026529627,0.003233210,-0.011867218,0.029265594,0.032212719,0.230613127,0.006770662,0.021631191,0.016896876,-0.009383194,-0.020834031,0.013536488,0.038670246,0.025389897,-0.012532810,-0.013794038,0.005452252,-0.013214294,0.014239707,0.011505038,-0.000952509,-0.029399302,0.008377653,0.000109888,0.007460274,0.016015494,0.012362188,0.000060233,-0.002436443,-0.015972283,0.023229428,0.071979329,-0.004222072,0.027221847,0.039080679,0.023957364,0.026434977,0.012519438,-0.006771933,-0.002378719,0.026182849,-0.114898756,0.009869089,-0.008761685,0.005507302,0.018357281,0.019667218,0.023638291,0.012350158,-0.005741072,0.021909667,0.022218063,0.029936556,-0.025568213,-0.006772420,-0.034156647,-0.000501037,0.019200420,-0.019325709,0.009266684,0.006073263,-0.026089959,0.024274027,-0.004096384,-0.015337427,-0.019734586,0.008808470,0.003355666,-0.072290421,-0.008791874,-0.004043302,0.004989808,-0.019057544,0.003785774,-0.006153652,-0.028278889,-0.019973176,-0.006451600,-0.136752039,0.007459889,0.033521574,-0.087160125,-0.000071109,0.051287390,-0.018433178,0.361633539,0.008434575,0.011466026,-0.007719064,-0.041850705,-0.217014387,-0.023084726,0.021947639,-0.022200780,-0.014247668,0.016713804,-0.017269503,-0.024522277,-0.018884391,-0.030100260,-0.027098686,-0.009862852,-0.029353790,-0.024105856,0.002333745,0.036449838,0.025925517,0.029384548,-0.013373991,0.017613720,-0.000907450,-0.016242096,0.015869927,0.008361517,0.020771164,0.010609093,-0.005433437,0.020410815,0.017234087,-0.018329449,0.017993037,0.006429669,-0.006502198,-0.000088945,0.062527016,0.009038864,0.005960787,0.015227281,0.001709282,0.033186141,-0.008373523,-0.003089647,0.001375361,-0.023327436,-0.029012373,0.036055338,-0.004976880,0.045194626,-0.007940256,0.027614877,-0.033237781,-0.013771598,0.045909733,0.021745607,-0.014641472,0.015968185,-0.176747024,0.024866870,-0.003958810,-0.007204890,0.009960671,-0.015697662,-0.068893053,-0.011844492,0.007050040,0.034892075,0.040701222,0.013888064,-0.065078214,0.027333489,0.012873608,0.011230316,-0.022956394,-0.037262850,0.006525003,-0.130967423,-0.002302749,-0.018839821,0.023967618,-0.014374335,0.003282979,0.005252928,0.017016450,-0.010282875,-0.001262791,0.021437189,-0.004908703,-0.029639646,-0.031733032,0.016899839,0.042220823,0.161974177,0.000191381,-0.014703091,-0.027956996,-0.001702079,-0.038328573,
0.027895037,
