// Neural Network File Format by Kyle Julian, Stanford 2016
3,4,1,50,
4,50,50,1,
0,
0.0,0.0,0.0,0.0,
0.0,0.0,0.0,0.0,
0.0,0.0,0.0,0.0,0.0,
0.0,0.0,0.0,0.0,0.0,
-0.047723565,0.248828039,-0.682868779,-0.166075543,
-0.198871925,0.125740737,-0.020603905,0.390203118,
-0.044372022,0.132306278,-0.151106536,-0.098282695,
-0.477674246,-0.331141055,-0.206111550,0.018521786,
0.017975742,0.346682668,-0.926420748,-0.003025491,
0.156853765,0.387938261,-0.114818268,0.353033513,
-0.101635344,0.033958305,0.437890798,-0.472839981,
-0.321280390,-0.128465727,-0.207756639,0.419605732,
-0.334268987,-0.236334696,-0.329956293,-0.473200589,
-0.298933655,0.429899901,0.211493254,0.245647490,
0.026295781,-0.256341755,0.084592342,-0.466847360,
-0.374268383,-0.268752337,0.301136553,0.283476919,
-0.230574191,-0.023506928,0.311167717,0.489118457,
0.163004756,0.034599848,0.285970151,-0.335081488,
0.093172014,-0.387652755,-0.346543074,-0.258291781,
0.211495146,0.191197038,-0.319754213,0.150892392,
0.274486005,-0.063108683,0.019090772,0.115852356,
0.231040433,0.443852335,-0.532933533,-0.164512873,
0.187563702,0.419666111,0.418435186,0.442827314,
0.099507272,-0.434791327,0.045996249,-0.312802672,
-0.474486530,0.434490293,0.380916148,-0.500350296,
0.077102676,-0.100689530,-0.097940639,-0.239755183,
0.181754187,-0.306998849,0.182288229,0.249094889,
0.338066727,0.179865956,-0.571055949,-0.278040886,
0.249657512,0.104650676,-0.390042007,-0.287909746,
0.469018012,0.328468472,-0.217519239,-0.126053870,
-0.476299047,-0.008987069,-0.376529455,-0.385678351,
-0.056952573,0.031161692,-0.269660115,0.230282292,
-0.293712914,0.472254872,0.316053599,-0.434016079,
-0.136655867,0.003471392,0.062977739,0.104054250,
0.185932994,0.032504138,-0.263991386,0.237876803,
-0.437497139,-0.340364426,-0.146905616,-0.233902723,
-0.171625555,-0.406276286,-0.099802561,0.110266127,
-0.324853122,-0.027969530,0.358571410,-0.054770567,
0.007925795,-0.045550182,0.079873577,0.310196400,
0.475878596,0.318148404,0.468083203,-0.050432820,
-0.416576833,-0.245813519,0.348119378,-0.018179610,
-0.248523176,-0.383155882,-0.467926025,-0.422004104,
-0.106791422,0.286876380,0.264494419,-0.485748351,
0.467802554,-0.317044675,-0.216661960,-0.188220114,
-0.104547560,-0.103099108,-0.460531175,-0.442077190,
-0.087718070,0.009807960,-0.244538382,0.189800665,
-0.453770399,-0.038716793,0.434403777,-0.210875094,
0.448019028,0.178896800,-0.456215262,0.310376048,
-0.028129509,-0.212412760,0.427974939,-0.354568928,
0.053652465,-0.104684353,0.357056320,0.139572263,
0.237123147,0.171799794,-0.120457180,-0.112545945,
-0.440138340,0.273710340,0.370191008,0.355750322,
-0.055964902,0.090053186,-0.984611034,-0.016554544,
-0.062393367,0.191589907,-0.744382858,0.018408827,
-0.013717150,
0.319010109,
-0.377960026,
-0.343256116,
-0.241627395,
0.330423892,
-0.200302973,
0.416292161,
0.174238831,
0.065497950,
-0.003722012,
-0.109308988,
0.054709923,
-0.145883709,
-0.003513217,
0.059840184,
-0.391102552,
-0.301987588,
0.404062748,
-0.405773342,
-0.045055356,
0.477106452,
0.175729632,
0.011775565,
-0.433304965,
0.244037166,
-0.356140375,
-0.184513018,
-0.147985116,
-0.088805504,
0.008683243,
0.392737865,
0.062759176,
0.442952394,
0.299327135,
-0.317278147,
0.215596467,
-0.353448033,
-0.198833480,
0.114565060,
0.159224063,
0.380716026,
-0.165382743,
-0.005131718,
0.274900228,
-0.483546078,
0.354526967,
-0.403709173,
0.022262579,
-0.098233007,
-0.070475847,0.016112713,0.116943970,-0.041340228,-0.326986402,-0.052717056,-0.141802430,0.056370284,-0.098008282,-0.094536766,-0.081473045,0.068470649,0.069680192,0.108865209,0.051296797,-0.046933524,-0.039519940,0.042916462,0.115985751,0.038451362,-0.047181461,-0.067203276,-0.138056919,0.048563298,-0.079363197,-0.123201698,0.124009065,-0.103948697,0.001802202,0.033396605,0.001667266,-0.104005657,-0.114457868,0.110724337,0.020004626,0.124013074,-0.055006132,0.041656431,-0.022695940,0.039668586,-0.062078878,0.044981457,0.055135433,-0.003802848,-0.035439074,-0.087176345,0.098799348,-0.105761699,-0.270738691,-0.333508223,
-0.114222713,0.024290476,-0.073462315,0.032584168,-0.272271991,-0.105918445,0.022270620,0.056592010,0.029444553,-0.017012496,-0.115935482,-0.038496975,0.048845854,-0.051326431,0.053680874,0.093104541,-0.073843390,-0.021429079,0.057926916,0.011084301,0.019185092,0.012449813,-0.113717958,-0.006000145,0.097930029,0.126272991,0.083120532,0.012626863,0.067917027,-0.075801790,-0.118347935,-0.127122536,0.138575837,0.087515265,-0.099609479,0.058373146,0.098349966,0.141366899,0.129641026,0.162017807,-0.014933940,-0.052020434,0.127103940,0.077580966,-0.089760296,0.127140239,0.066054620,0.081802070,-0.435533643,-0.227765113,
0.022444962,0.116301082,-0.025447443,0.055057105,0.361431003,0.065030761,-0.049074162,0.079421930,-0.056336362,0.035472278,-0.095684543,-0.128332362,-0.110431723,0.109536737,0.076513998,0.139039323,0.113295659,-0.099636197,-0.093083411,-0.022851231,-0.101388901,0.106454656,-0.104996964,-0.048432183,-0.136625960,-0.075683825,0.116315886,0.126916900,0.097640075,0.115231648,0.132637277,-0.027694289,0.055688728,0.131159514,0.051912770,0.135143131,0.078042619,0.087914355,-0.057392493,0.016257267,0.002130149,-0.025421124,-0.092211105,-0.072153971,-0.107489735,0.094940454,0.106535546,-0.019165549,0.352893621,0.433453143,
0.090437397,0.010512419,-0.066770017,0.129972994,0.057832949,-0.107359372,0.135351971,0.107391678,-0.051546793,0.079500660,-0.080354065,-0.022162752,0.120081045,0.005843408,-0.100015759,-0.047267675,-0.038388144,-0.027284253,0.013534112,0.130790666,0.007571749,-0.087319203,0.007248449,0.067809731,0.070150688,-0.129250437,-0.025306284,-0.105096512,-0.060342453,0.050953183,-0.100427583,0.052570120,0.120035358,0.009275595,-0.094255596,-0.050669145,0.030881351,-0.107808053,0.070259593,-0.128392160,-0.135947421,-0.137413561,-0.028689209,0.095096380,-0.133852348,0.117547616,-0.056571778,0.041420069,0.006449227,-0.127522349,
0.111525059,0.069878511,0.140572220,0.071447797,-0.093347855,0.111558534,-0.004036846,0.061513796,-0.114301033,-0.047572065,-0.138858467,-0.059305068,0.024302131,-0.121039994,0.045080069,0.069902532,0.019701310,-0.094622679,-0.116261236,-0.043630842,0.053250473,0.133252263,0.075494587,-0.018243752,0.049584657,-0.145708486,-0.120788172,0.061402947,-0.089331917,0.062421814,-0.104544617,-0.074111149,-0.113282837,0.067151718,-0.020527633,0.100439936,0.081201889,0.078254461,-0.007304575,-0.046292622,-0.033190861,0.012850825,0.058471698,-0.103527524,0.110574529,-0.015376756,-0.125072196,-0.084118068,0.125132129,0.129471079,
-0.059577130,0.106376365,0.070874617,0.083709918,0.449723095,-0.070535406,0.044813022,0.068857044,-0.001370535,0.051818173,-0.040688824,0.099661678,-0.034862038,-0.054300617,0.035602693,0.057166003,-0.069094464,0.039135057,0.086335950,-0.014070962,0.034631383,-0.025454704,0.052727878,-0.081705138,-0.083159834,-0.066494130,0.129967764,-0.026052129,-0.003185337,-0.062120698,0.148831144,0.147419423,-0.109837793,-0.108653277,-0.101177379,-0.005598476,-0.029688390,-0.092566743,-0.057872184,-0.029639157,-0.085187398,0.040274926,-0.044480037,-0.060678620,0.022727046,0.116284877,-0.088982545,0.005075287,0.373042375,0.451497763,
-0.059778746,-0.127204716,0.139354482,-0.089475878,0.375574529,-0.006269932,-0.030533550,-0.014284923,0.035713430,0.012637896,-0.137689903,-0.045169406,-0.041431710,0.069561131,-0.091518529,0.141357034,-0.031498685,-0.000165611,0.114717297,0.071079463,0.111174427,0.087339722,-0.042203393,-0.075409122,-0.010522180,0.120626144,-0.047463812,-0.096944511,0.055260148,0.145980492,-0.029479494,-0.133221284,-0.128277615,0.040431466,-0.004315807,-0.078843243,0.035700724,0.053706013,0.105286658,-0.090396456,-0.095475793,-0.113608375,-0.139320239,0.141524002,0.058848985,0.061646614,-0.117226765,0.127996996,0.582171977,0.501188457,
-0.102893956,-0.054755747,-0.097264498,0.133921161,-0.299950451,-0.064371854,0.067967683,-0.069714606,-0.092596814,-0.012424173,-0.013593354,-0.122998655,0.114222430,-0.071240783,0.050164260,0.125995383,0.071321122,0.025879607,0.119878143,0.019010741,-0.064068511,0.130545005,0.029154984,-0.114440598,-0.040261470,-0.093906194,0.123991601,-0.032669574,-0.134721130,-0.016188992,0.092536964,0.026263520,0.044028509,0.008420118,0.050439283,-0.031002199,-0.063864470,-0.132187754,-0.123694390,0.024797400,-0.063494451,0.019077167,0.061058249,0.013878412,-0.113200150,0.135245264,-0.082040645,0.115567729,-0.413107276,-0.272516787,
0.164815351,-0.058379184,0.118800022,-0.097320028,0.245991111,-0.065448932,0.011103912,0.136167467,0.019912522,0.045745306,-0.035455331,-0.034729179,0.100460157,-0.115029708,0.015020834,0.134175688,-0.019433020,0.140415803,-0.047200654,0.113838844,-0.172362953,-0.017338492,-0.026327210,0.068624251,0.055483479,0.106587298,-0.021069800,0.003976198,0.061939921,-0.039542004,0.128223941,-0.077398956,-0.042260658,-0.010474742,0.062435139,0.082467273,-0.020580336,-0.117164858,0.026211912,-0.082558393,0.034599170,-0.084396623,0.074711964,0.137303844,0.002447705,-0.132094398,0.098642938,-0.122202896,0.495646656,0.374361902,
-0.001549979,0.055322383,-0.126491889,0.032210056,0.226218075,-0.010122431,0.017778350,0.130825415,-0.029239845,0.094614290,-0.017965298,-0.055179778,-0.119158097,-0.131753013,0.138113618,-0.028818248,0.007063829,0.062616132,0.100046732,0.120699473,0.106462277,-0.096872695,-0.019932538,-0.064613611,-0.080801345,0.038300261,0.132744879,-0.101741336,0.082454428,-0.067322560,-0.020391656,0.121855572,-0.032883137,0.018269198,-0.093348883,0.115568668,-0.012100765,-0.103434235,0.034075852,-0.148165271,-0.119630978,0.016876943,0.100491948,-0.032655340,0.069398493,0.121526383,0.099835552,-0.075757705,0.401925087,0.259073317,
-0.113720156,0.000058432,0.106410399,0.119149700,0.013194712,0.032120049,-0.061224371,0.106750838,-0.058846630,-0.098238744,0.021777969,0.084765896,-0.127504304,0.127840310,0.050873660,-0.099081613,-0.030463221,0.122694336,-0.108503371,-0.041334242,0.046383418,-0.123897143,0.077526942,0.073616557,0.087710313,-0.090162784,0.140855819,-0.083829142,0.141186669,-0.135720730,-0.126002192,0.086860478,0.014780361,0.008158500,-0.078313269,-0.059322789,-0.041349836,-0.137766391,0.007349484,0.025011627,-0.000119731,0.045669246,0.134187803,0.037601683,-0.051770460,-0.058201496,-0.090482175,-0.098035954,-0.022775888,-0.025012571,
0.247163489,-0.056727026,0.112741627,-0.099232569,0.398661077,0.123520941,0.136426911,-0.055669066,0.026413774,0.015170533,-0.066305645,-0.045890637,0.034572344,-0.106673680,0.023333913,0.064319946,-0.055729937,0.151468962,-0.019906236,0.064164668,0.111554228,-0.046032831,0.053876985,-0.008428534,-0.020657841,-0.034528449,-0.000878593,-0.011438082,0.003186126,0.005927847,0.097731560,0.109657884,0.009436321,-0.058376696,-0.122485675,0.012265308,0.014497119,-0.056636956,-0.088641174,-0.464348286,0.114255182,0.103450045,-0.005873468,0.054796319,0.035635989,-0.034700040,0.053927783,0.084183469,0.552277684,0.468000233,
0.004606959,0.088624008,-0.059707437,-0.075175330,0.061624866,-0.132240534,-0.004918071,-0.074442416,0.084419787,-0.140828490,0.085748374,0.129307151,0.019228272,-0.016095240,0.139208093,-0.069571286,-0.011332597,-0.061929114,-0.028661476,0.030736366,0.011039237,-0.035671592,-0.150891170,0.000795231,-0.004189178,0.012482694,0.108364157,0.127669647,-0.091479473,-0.018318588,-0.066169851,-0.139549360,-0.113930836,0.123581141,0.073184647,0.067589059,0.069081970,-0.112356305,0.007647442,0.123418480,-0.087659858,0.116507933,0.029647551,0.090336427,-0.068543188,0.065197758,-0.134293735,-0.018227521,0.047171261,0.037415467,
0.108634487,0.132952258,0.128659084,0.094949201,0.099427991,-0.024460608,-0.119568534,-0.057718206,-0.015876601,-0.082642101,0.072290480,0.048136950,0.017185008,0.025484724,0.124231920,0.045205891,-0.124017969,-0.113191262,0.056170657,0.019272793,0.061471082,-0.147731841,-0.136479348,0.086723313,0.090459563,-0.134747654,0.053681467,-0.116642892,0.099704288,0.042288430,0.134070814,-0.146931037,-0.141494632,0.089447252,0.119714908,0.079977244,0.088800654,-0.119115159,0.092529416,-0.133522570,0.031593770,-0.098675661,-0.065138988,0.019715721,-0.064031251,-0.022376100,-0.140470177,-0.138425007,0.054781415,-0.059860617,
-0.077945195,-0.059600420,-0.115621656,-0.113052264,-0.197601378,0.069432184,0.014198258,-0.084341429,0.015783623,0.004733043,-0.101070002,0.018844187,0.122598439,-0.142836526,-0.140628293,0.016195249,0.106493443,-0.090037875,0.028741222,0.099417135,0.061570983,0.027612017,0.134211153,0.104097173,-0.079539202,0.012105375,0.072248265,0.111863129,-0.124175675,0.067458823,-0.045626104,-0.146505222,0.032519653,-0.080355830,0.015473841,-0.090205818,-0.113982521,-0.011999748,-0.047592327,0.107940450,0.034207698,0.106532276,0.032236144,-0.048512816,0.090795450,0.007727979,0.025098555,-0.048790053,-0.340795726,-0.324378759,
-0.012023265,-0.110291600,-0.000869726,-0.117385991,-0.030424092,0.081960216,-0.098337382,-0.095325321,-0.034531776,-0.038768411,0.023940861,0.023478156,0.071714282,-0.097422428,-0.009980273,0.079095729,0.122325450,-0.010316049,-0.081829257,0.040653352,0.080536261,-0.088352986,-0.082065888,0.062507994,-0.009908826,-0.133572280,-0.081541441,0.057351008,-0.047966689,0.097613133,0.111799225,0.020572552,-0.011182858,-0.044890981,-0.007151090,0.025741644,-0.108024858,-0.033799093,-0.117634423,0.086798050,-0.090062253,0.129194617,-0.036455709,-0.081016801,0.067946337,0.021082968,0.097928070,0.059039138,-0.136236772,0.089447655,
0.025051801,-0.061537202,0.089810185,0.103142887,-0.417859703,-0.010478701,0.114703469,0.052662071,0.086656973,-0.045225836,-0.078014024,0.108508915,0.056034457,0.128455445,-0.059071220,-0.086572088,-0.016576407,-0.124450147,0.056903370,0.104310758,0.054000016,-0.013213856,0.064661711,-0.060249202,0.138344467,-0.135783494,-0.135473922,-0.038962439,0.133233562,0.007372725,0.055918910,-0.110997371,0.050288815,-0.016022986,0.055845890,0.101586275,0.053648070,-0.012029891,-0.003054588,-0.371523380,-0.029824618,0.093298420,-0.046059962,0.090657048,-0.065291107,-0.032936871,0.006056334,-0.130091026,-0.180023104,-0.245765045,
-0.022798695,-0.037599411,0.111493386,0.104367152,-0.095849358,0.056303345,-0.120183095,-0.129539132,0.033510372,-0.007429543,-0.065973967,-0.136401430,-0.064036213,0.037470926,-0.130899817,-0.146895617,0.017942488,-0.111896411,-0.133245483,-0.054487702,-0.032456387,-0.137718260,-0.103218623,-0.000409841,-0.133356348,-0.029263321,-0.091316156,-0.098038562,0.045690972,-0.115664192,-0.116187662,0.071798205,0.018804442,0.119532757,-0.047028970,-0.077973381,-0.022108486,0.000715502,0.097818837,-0.148830920,-0.021177867,0.053326499,-0.086913377,-0.081050530,0.059305627,-0.135507852,0.024207460,-0.118730307,0.071160726,-0.130958408,
0.086946525,-0.133874074,-0.118874095,0.002084111,0.111438394,-0.121112630,-0.063082375,0.124207914,-0.023715999,0.058588691,-0.136047095,-0.044474319,-0.071818314,0.119226865,0.058695506,-0.103191726,0.022800941,-0.001625419,-0.058105770,-0.080762438,-0.046929069,0.111472063,-0.101378232,-0.100740567,-0.043631196,0.002460213,0.038496580,0.004243783,-0.034043748,-0.085750870,-0.025375606,-0.056929640,0.114258394,-0.137660906,-0.090206884,-0.115059033,-0.025845714,0.110205904,0.123961374,-0.123115115,-0.006127343,0.083009556,0.062338177,0.115838781,-0.003922776,-0.095019989,0.093554541,-0.048495449,0.073226020,-0.034851383,
0.052266330,0.116500504,0.131501421,-0.128702641,-0.093547449,-0.069069013,-0.090184547,0.124845892,-0.023403013,-0.104152381,-0.062931016,-0.088206790,0.047168262,-0.131461710,-0.131861717,-0.150044993,0.060885306,0.064148754,-0.098335505,0.035069466,0.095789596,0.009634239,-0.040801451,0.003028235,-0.015164285,0.060621727,-0.096026711,0.061273847,0.072412536,-0.095075376,0.104679205,0.126918808,-0.070273772,-0.050323568,0.059786186,-0.117996529,0.045022998,0.032994274,0.083386555,-0.137016565,-0.128101826,0.052649800,0.050885540,-0.142198339,-0.090075791,-0.129397511,-0.112001985,-0.072321102,0.104172274,-0.032913469,
0.019576285,0.126634330,0.064450271,-0.126601875,-0.238042712,0.047138646,0.107955456,-0.150993615,0.051123213,0.109989770,-0.131573454,0.001664673,0.114912108,-0.102732822,0.046403076,0.054558929,0.037065137,0.116059422,0.110125273,0.121333130,-0.011397980,0.109422997,-0.136459365,-0.095881648,-0.030247362,-0.048388239,0.130630165,0.053808648,0.092234179,0.089254953,-0.114264309,-0.026834177,0.019318612,0.029748090,0.065595888,-0.053700469,-0.050685637,0.118333101,-0.032254796,-0.055286050,0.100979276,0.086124673,-0.033721570,-0.036985841,-0.109726548,-0.118100092,0.045633320,-0.060998097,-0.299493909,-0.411027461,
0.045163788,0.009781595,0.072683103,0.114456654,0.408795118,0.068050854,-0.064378515,-0.090063751,-0.087969415,0.011688845,0.137161776,-0.014072138,-0.001248724,-0.104015186,0.043417729,0.096687034,-0.139429569,-0.074653685,0.109319650,0.033483565,-0.016666550,0.033735733,-0.018038228,-0.079298347,-0.132148340,0.098360039,-0.016820185,-0.040271677,-0.039105587,-0.070851728,-0.034129467,-0.111467920,0.105561420,0.063804023,-0.065166742,-0.052451242,0.070569940,-0.052369095,0.030487724,-0.009187807,-0.096086599,0.044298042,-0.002908912,0.131416053,-0.047045868,-0.036354981,0.128471941,-0.116366401,0.424903870,0.436572820,
-0.109171458,0.125995427,0.125488922,0.131569907,-0.357188314,0.118955866,-0.065124206,-0.060536668,0.019114316,0.021953885,0.077962145,0.130030066,-0.096538156,0.070071906,0.047314577,0.065399215,0.067058101,-0.074884802,-0.120166458,0.113191500,-0.079642393,0.078109793,-0.143472910,-0.040512607,0.001498911,0.015392204,0.011431372,0.031859677,-0.018754592,0.027545176,0.130703628,-0.107860416,-0.004553194,-0.064341195,0.114574179,0.118722700,-0.016683795,-0.049021255,-0.093911409,0.119577304,0.005789623,0.121968642,0.072639659,0.114488654,0.094860181,-0.091901578,0.031295426,-0.059341062,-0.382065535,-0.368754655,
0.012242834,-0.097808257,-0.126391903,0.053255461,0.032864258,0.012284256,0.096052624,-0.059053943,0.050201871,-0.077889450,0.029302496,-0.032286290,0.099041156,0.123670511,0.122827806,0.006361730,0.083395198,-0.141299501,-0.082956955,0.025275281,0.000788702,-0.111026086,-0.062594734,-0.066051431,-0.140114933,0.013487464,0.096406102,0.057397757,-0.067193948,-0.129862323,-0.114095502,0.002623254,0.097285636,-0.057271771,-0.076953724,-0.075442135,-0.012242666,-0.134301469,-0.124796502,0.139213860,-0.067446120,-0.025507273,-0.037837673,-0.124239542,-0.024931615,0.043291442,-0.057425220,-0.006027353,-0.000676491,-0.140785649,
0.176188469,0.120454259,0.096421860,-0.046442542,0.398465276,-0.127336636,-0.034636177,-0.018099785,-0.008717666,0.063599043,-0.064439751,-0.004148739,-0.036455587,-0.134060055,-0.023354413,-0.113419428,0.082463384,0.102278873,0.136371434,-0.047489688,-0.001146934,0.035301257,0.143894896,0.148745015,-0.073191144,-0.115886264,-0.127461419,-0.055879310,0.116373882,0.054026324,0.143710613,0.113102041,-0.000347433,-0.082273923,0.143648431,0.108621411,0.067721739,-0.077253319,0.104627386,-0.095983788,0.078757942,0.067353159,0.063344888,-0.116777025,-0.077291988,0.084820502,-0.023663633,-0.124122411,0.554067552,0.308169186,
0.081349626,-0.115585387,0.048690502,-0.053268999,-0.322200388,-0.032673821,-0.057544634,0.066956103,-0.063858017,0.105667979,0.032269973,-0.029373014,-0.086030409,-0.127848461,-0.041255765,-0.134414047,-0.026201230,-0.011478658,-0.011189081,-0.069468565,0.108780816,0.072083339,-0.040603265,-0.063888729,0.088910215,0.121389844,-0.129490852,-0.054909099,-0.009497851,-0.061447993,0.115549296,-0.032932639,0.096793339,-0.004685019,-0.020400189,-0.072533689,-0.056155384,0.045570154,0.065022916,0.037830941,0.142663851,-0.104921676,0.046093967,0.123836569,-0.030312322,0.112275705,-0.001210229,-0.102078982,-0.418729752,-0.223273382,
-0.061834648,0.026014630,0.139194727,0.048038069,-0.013235595,0.027384778,-0.081479035,-0.126883343,-0.115401298,-0.126406267,0.029022422,0.027546506,-0.067864120,-0.138331398,0.076608628,-0.088164307,-0.023609973,-0.118579254,-0.087710783,0.058995325,-0.136960760,-0.088769242,0.097992808,-0.078976944,-0.058853339,-0.047731407,0.060451850,-0.092768118,0.014179667,0.057756864,-0.018069038,0.017314460,-0.115841523,0.055868745,0.044853460,-0.017738784,-0.125063822,0.056565087,0.092283309,-0.033196673,0.057807032,0.044343740,-0.056563955,-0.017513422,0.132521585,0.000667657,-0.120641060,-0.010313621,0.070356093,-0.046163276,
-0.074060038,0.116499849,0.074813560,-0.024026487,0.007225066,-0.014957108,0.032833170,0.005026046,-0.085579008,0.026201736,0.003698841,0.009143388,-0.053893968,0.036235351,-0.114359833,0.042274117,0.076635301,-0.015563871,-0.109856136,-0.000514090,0.000200754,-0.122217014,-0.100026645,0.130806088,0.105757542,0.078376152,0.097970873,0.054441981,0.079590350,0.093666434,-0.033037111,-0.017977772,0.100839995,-0.000050930,-0.092020974,-0.109657966,0.079093486,0.117142066,0.109829567,0.023535205,0.097620420,-0.129843652,-0.101888850,-0.136079937,0.113941245,-0.001279663,-0.065119550,0.047853213,-0.052938670,-0.090699770,
0.012364637,0.021781938,-0.101274446,-0.093148872,-0.296289921,0.103558719,0.007758158,-0.077300780,0.032298796,0.022388576,-0.123811483,-0.107258670,0.028109750,0.082627386,-0.045433562,0.064119637,-0.087584056,0.113040350,0.097381681,0.026489245,0.071860880,0.041100524,-0.088206038,-0.015962087,0.037711486,-0.036271624,0.135615364,-0.063271098,-0.121700034,-0.077835396,-0.135144621,0.108255684,-0.077611335,-0.104643226,-0.019861793,-0.094789311,-0.079811290,0.072098039,-0.104653075,0.089550637,0.119041428,-0.005801179,0.069476783,-0.083537348,0.108348779,0.137382582,0.028333921,0.127536193,-0.592326880,-0.381236285,
-0.028090371,-0.122299761,0.068820126,-0.053897731,-0.354874998,-0.111768678,0.056308143,-0.104137920,-0.068475567,0.065022334,0.106539249,0.018682944,-0.050337180,-0.061569437,0.079377376,0.026861293,0.119049072,0.030333320,0.114567317,-0.113958560,0.120386243,-0.070798524,-0.038182013,-0.018409889,-0.026521007,0.027248118,0.126020133,-0.079418294,0.044808369,-0.119590238,0.024363907,0.106515452,0.096719168,0.119120345,0.076297246,-0.008458366,0.029309386,-0.059093576,0.125870287,0.114645958,-0.094968125,0.121421948,0.008948458,-0.005528065,-0.043423783,-0.037312657,0.005163450,-0.060265314,-0.497289956,-0.353922993,
-0.072416283,0.100086182,0.104037374,-0.084732935,-0.320645928,-0.046184156,-0.083928622,-0.035080146,-0.055907656,0.074220814,-0.070136234,0.006591509,-0.086535186,-0.044667844,0.111330263,-0.074421771,-0.008503751,0.114868969,0.043404017,-0.071983315,-0.073979042,-0.057837438,-0.050899241,0.051074695,-0.031441484,0.115140714,-0.077595301,-0.055935998,0.058859196,0.104255632,0.129676566,0.001138566,0.019923860,-0.070933193,0.073134743,-0.079598360,-0.056280866,-0.118199512,-0.114398465,0.143587917,0.015665870,0.104890063,0.102034979,0.069005519,0.036284786,-0.036701292,0.069451444,0.063079208,-0.393221140,-0.310993701,
0.080029473,-0.014519506,-0.102633096,0.032829363,0.281668752,0.053032055,-0.102467984,-0.057524294,-0.052588034,0.094595179,-0.099591561,0.056501366,0.051801108,0.081502065,0.035433698,0.063245118,0.111793593,0.035651799,0.031011624,-0.110582173,-0.064520545,0.002100738,-0.002949798,-0.048695166,-0.140196338,-0.051558740,0.054141894,0.107329957,-0.146449894,0.056030855,-0.148993716,-0.151133657,-0.124742001,-0.033679839,0.023648161,-0.133577883,0.087400228,0.127887905,-0.015054287,0.067593694,-0.105623893,-0.068186931,-0.044044137,0.001683075,-0.123838313,-0.113241389,0.042265855,0.016774556,0.627601147,0.342661470,
0.116816796,-0.052486114,0.069812581,-0.007834055,0.427857012,0.081206344,0.118392937,0.082662158,0.063817993,0.124422245,-0.083068341,0.145849690,0.142179713,0.129587620,-0.066060871,-0.071558371,0.008947490,0.064910442,0.072220780,0.057516474,0.111194782,-0.031443011,-0.045755871,0.054821990,0.039409496,-0.082149804,0.013678929,-0.095244028,-0.046140235,-0.049127374,0.128716141,-0.124126874,-0.088245682,-0.134908766,0.039226551,-0.119178176,0.051433217,-0.098232843,-0.100146785,-0.319430292,0.000267049,0.136150301,0.120437734,-0.007002724,-0.144140676,-0.046722092,-0.051794223,-0.031509358,0.477941215,0.382135540,
0.126323014,0.047317561,-0.057251319,-0.001500226,0.328155935,-0.066239372,-0.011867523,-0.006622134,-0.095569842,0.100773878,-0.014298050,-0.109290935,0.116867460,-0.077121742,0.050069381,0.147438869,0.006546754,0.065392852,0.060990255,0.106885001,-0.050917484,-0.071027711,-0.007312471,0.130026013,0.012159670,0.103791684,-0.001051446,0.055812310,0.002551556,0.010215024,-0.126644120,-0.113557667,0.012193082,0.076241083,0.101361081,0.002344584,0.067056961,0.059147660,-0.128662527,-0.171630785,-0.115963310,0.011432687,-0.100829519,-0.037199426,-0.016616367,0.055177208,0.039574053,0.130673483,0.540235579,0.207704976,
-0.000445526,0.023353552,0.123460636,-0.043829452,-0.055578899,-0.089584246,0.104207903,-0.040065758,-0.052965861,0.095653102,0.130130798,-0.005959683,-0.099688783,0.115228020,-0.048366781,-0.065170474,-0.099422596,-0.068014495,-0.110756278,-0.081630424,-0.128828928,-0.028503865,0.056862019,-0.107356556,-0.000197500,-0.052150793,0.068405263,0.122488074,-0.018747240,-0.071177334,-0.108663112,-0.083088130,0.040831614,0.032448187,0.076159582,-0.021013729,0.072667040,-0.125995532,0.038016763,0.137290955,-0.139964491,-0.073415719,0.090533607,-0.022111047,-0.075383723,0.086276174,0.009479973,0.005539057,-0.042954501,0.106552444,
0.086304292,0.023272099,0.021582525,0.073128022,0.095963620,-0.060715437,-0.015494329,0.064232685,-0.071220711,0.129763857,-0.096873522,0.065258466,-0.105623603,0.036078900,0.098776743,0.014864804,-0.014174374,0.088646285,-0.105052441,-0.095412143,-0.120885760,-0.089464433,-0.002337455,-0.064739741,0.031506557,0.001780309,0.117698960,-0.059300095,-0.039181776,0.090357244,-0.038063969,0.124788448,-0.057064708,-0.004634915,-0.036632054,0.059580274,0.044121396,-0.075310878,0.078846000,-0.010250334,-0.034357056,-0.004092752,0.098421596,0.136530131,0.056369487,0.024746271,0.089618877,-0.067616172,-0.073907234,-0.031383965,
-0.107573740,0.058564123,0.013433584,-0.048385106,-0.027697658,-0.004901321,0.132889539,0.122225933,-0.116468459,0.050778817,0.054609522,0.047209620,-0.020653529,0.044672403,0.035586778,0.132735357,-0.135542169,-0.069991872,-0.096382670,-0.068599291,0.032136161,0.083779223,-0.109294847,0.072666049,0.118129566,-0.072004467,0.024683489,-0.086314127,0.036654409,-0.066398486,-0.066701382,-0.106465243,-0.126005128,0.111981012,-0.019980660,0.000783880,-0.068589047,0.098571114,-0.066436894,-0.068600744,-0.130884558,-0.122352965,0.140816480,-0.120249905,-0.014856178,-0.040935852,0.049459994,0.040419396,-0.120085992,0.105518632,
-0.075846925,0.020222228,-0.011814891,-0.032773070,0.409720659,0.124700785,0.018333238,-0.039410468,0.143259823,0.092997976,0.025400423,-0.026238604,0.010143443,0.124254242,0.015336379,-0.021311115,-0.119735137,-0.051156659,0.106185831,-0.004979954,-0.017791023,0.063077681,-0.090128787,0.009692245,-0.039775383,0.078835212,0.115092091,0.100630261,0.102255277,-0.120424330,-0.042905133,0.026416203,-0.120618947,0.043908030,-0.087036669,0.055840835,0.121072225,-0.120978773,0.111251406,0.016730586,-0.100586772,0.143781126,-0.134281039,-0.087733045,-0.066905096,-0.007161357,0.031535633,-0.042967945,0.279205441,0.284503788,
0.107298650,0.108885579,0.070794404,0.020532817,0.035139617,-0.109023079,0.057267100,-0.140747607,-0.058402754,-0.037165128,0.103850260,-0.004122518,-0.064418748,0.024707546,-0.117347248,-0.037442353,0.039166950,-0.009366109,-0.014852027,0.086433224,-0.107427634,-0.071407266,0.136891842,0.028141284,-0.022897676,0.073254310,0.085076891,-0.023631671,-0.058907844,-0.023116400,0.051351283,-0.018054262,0.082307316,-0.115327030,-0.069385804,0.107811123,0.018552925,0.028478255,0.046512827,-0.033416905,-0.056555495,0.040571552,-0.037481043,-0.058420863,0.018684255,0.034207191,-0.012769164,-0.095642596,-0.021383222,-0.080147378,
0.074432433,-0.093705751,0.112760372,0.056326468,-0.121101521,0.104948930,-0.139856696,-0.008222412,-0.088297434,-0.121661298,0.014012024,-0.068569385,0.102224424,-0.111172721,0.117382959,0.085319087,0.123865291,-0.041412719,-0.086684927,-0.093955413,0.117601834,-0.070339553,-0.017412852,-0.021798199,0.024329809,-0.116047442,0.114033595,-0.104643114,0.139096305,-0.055335950,-0.063133642,-0.019438718,0.041854519,-0.026203219,-0.141145363,0.099473476,0.140076205,0.071351148,0.138384521,0.038544443,-0.011081738,-0.112641454,-0.123602971,-0.097368173,-0.035881855,0.082350649,-0.058348183,-0.005492696,-0.001995889,-0.092444159,
0.061380360,0.143030792,0.113031663,0.107709229,0.300219685,0.008051629,0.077542685,-0.036288112,-0.018671066,0.125400990,0.008073937,-0.082878187,0.123584680,0.021967387,0.075668566,-0.116029307,0.026243798,0.111390747,-0.016105669,-0.080384545,0.104987204,0.074032709,0.043443058,0.052904539,0.003121396,0.086193807,-0.030915810,-0.071208544,0.051110767,0.043868154,0.061373204,-0.005934483,-0.019334404,-0.005438289,0.043193735,-0.113041006,-0.124989748,0.052919298,-0.084452435,-0.060739197,0.031739190,0.028492779,0.079501018,0.026225571,0.038743153,-0.012658756,0.027262442,0.050640509,0.511449218,0.167373776,
-0.058910929,-0.126902819,-0.056383889,0.086207576,-0.133997008,-0.126716107,0.081886224,-0.083514556,0.103360079,0.044065360,0.035499096,0.112346895,-0.130997926,0.103562176,0.045862619,-0.094767816,0.034409516,-0.039414067,-0.056765165,-0.015316418,-0.066675223,0.123664036,0.121721670,-0.015086499,-0.125409171,-0.008651517,0.009343771,0.094529010,0.004550106,0.041160125,0.037524067,-0.080242701,-0.087721787,-0.126398191,-0.001110553,0.043802362,-0.010055733,0.137272939,-0.026977895,-0.092281252,0.023570390,-0.039825823,-0.019387366,0.137030214,-0.004057730,0.123537458,0.018886190,-0.052611828,0.103684388,-0.080557689,
-0.036299057,0.026326859,0.063474745,-0.130483761,-0.287554353,-0.040999062,0.090246968,0.038249243,0.064595692,0.081643045,-0.031661555,-0.022164233,0.108370155,-0.113640189,-0.097753227,0.005461210,-0.056020901,-0.010172743,0.121334970,-0.016394079,-0.110002391,-0.070576429,0.125400737,-0.040082563,-0.062010139,0.060392216,0.017507430,-0.137470245,0.124152809,0.072826020,0.116703749,0.051120065,-0.048557673,-0.051154271,0.063164003,-0.023738688,0.019733433,-0.137035623,-0.067092456,0.093466453,0.004276487,-0.074824452,-0.112512194,0.084064305,-0.035729844,-0.138951153,0.131863251,0.068573460,-0.482761890,-0.386805266,
0.136657268,0.000590477,-0.085053980,0.081380457,-0.029457934,0.009687791,-0.073671147,-0.119783156,-0.093921140,-0.015528484,-0.102381662,0.139386147,0.001530622,-0.054140598,0.055892576,-0.125379771,-0.072335914,0.053118013,-0.120160453,0.070484824,0.011887199,-0.117918156,-0.140351117,0.044696312,0.066845395,-0.028271029,-0.125052601,-0.081507690,0.015030747,0.005145052,0.036200605,0.025006147,-0.007412788,0.074631803,0.137180641,0.117777653,0.128506184,-0.047730178,-0.048269205,-0.015641388,0.041798331,0.057244357,-0.012605752,-0.091347769,-0.106702425,0.136148974,-0.038021956,-0.019115755,-0.086671524,-0.070111036,
0.031061741,0.059564762,-0.055907190,-0.052053284,0.112028234,-0.072834358,-0.105512328,-0.022063944,0.134568676,0.030771719,0.019540645,-0.017608719,0.088372625,-0.070095621,0.095885232,0.033409961,0.015723675,0.019468961,-0.087218121,0.105034605,0.074275613,-0.110608123,-0.131674841,-0.036405977,0.093953587,-0.069626212,0.131074548,-0.071103238,-0.127746254,0.062209494,-0.085467152,-0.022293424,-0.044109881,-0.011237227,-0.123230763,-0.129711851,0.060793765,-0.016025227,-0.085309677,-0.003602662,-0.129079878,0.037539221,0.067161426,0.137152776,-0.115212172,-0.017148357,0.076748654,0.129607126,-0.100617342,0.060098745,
0.068041764,0.083231114,-0.097498171,0.100920618,-0.428462118,-0.089977458,0.024765400,0.118306845,-0.129754946,0.074523158,-0.016196378,0.032329537,0.107720010,0.031227358,-0.117401853,-0.043339428,0.028068909,-0.139422879,0.019408608,-0.075938880,-0.026631981,0.042056467,-0.122429296,-0.096732773,0.064502887,-0.144536912,0.097324528,-0.100586273,-0.005895564,0.022020921,0.056956224,-0.098367795,0.018678345,0.054877091,0.117045805,-0.119295403,-0.078054890,0.041198343,-0.005176117,-0.365137756,-0.115451485,-0.127720013,-0.088190563,-0.061189964,-0.109065421,-0.124061480,0.005544740,0.082436912,-0.258780092,-0.117842771,
-0.064040601,0.058659852,-0.098076679,0.006714195,-0.176858306,0.094409138,-0.141616598,-0.032656893,-0.035633333,-0.052202154,-0.092911854,-0.111581989,0.088392869,-0.045385566,-0.009101056,0.033800632,-0.086803041,-0.012023989,0.078720152,-0.082687400,0.047805086,-0.013811761,0.073366977,0.074450500,0.037519883,-0.001828837,-0.121739842,0.043514974,0.087786369,-0.058123227,-0.148838565,0.104208946,-0.034393989,0.021499183,-0.046651300,0.093149655,0.129990831,0.088648379,-0.039051566,0.143715486,0.074424990,0.004350934,-0.103069790,-0.069233619,-0.145118102,0.094587363,0.132490441,0.082115434,-0.367110163,-0.263379157,
0.040151324,-0.062636383,-0.047478747,-0.126979187,-0.179621622,0.015734231,0.034560490,-0.082791500,0.030117806,-0.108214527,-0.115037754,0.042017035,-0.122355297,0.037800886,-0.130277157,-0.097163156,-0.029344374,-0.173881620,0.121847287,0.115874484,-0.071288377,0.032365978,0.084032319,-0.011367662,-0.018944217,-0.131495833,0.102832973,-0.133337498,-0.020180782,0.020669753,-0.045642700,-0.059498351,-0.058820818,0.018191431,-0.006458333,0.126589820,-0.057015911,0.109306693,0.015634930,0.006295409,-0.073866092,-0.008531273,-0.013714452,-0.021605676,0.044294938,0.116462775,0.026296658,0.060171500,-0.428557515,-0.045503061,
0.081231453,0.060084831,0.132372260,-0.129068747,0.345080107,-0.020456469,-0.040638816,-0.067398258,0.086713217,0.114690080,-0.115412541,0.060627338,0.081666633,0.009610973,0.001665913,0.095517159,0.004192937,-0.041338328,-0.025021898,0.045372922,0.018496301,-0.019295016,0.028214963,0.030229868,-0.114559643,0.021828288,0.086527839,0.000165032,-0.026155895,0.097965509,-0.137739509,-0.078945272,-0.088472851,0.108446814,-0.151012406,-0.003679442,-0.155107304,-0.004650467,0.035211951,-0.043124586,0.110959671,-0.012499396,-0.088482112,0.023156624,0.050839834,-0.000280968,0.108015798,-0.106522299,0.555166662,0.440852106,
0.070242748,-0.000051874,0.040370733,-0.110946663,-0.110981219,-0.008790265,-0.017724773,0.105008997,0.102689840,0.095890425,-0.064775646,-0.111021005,-0.132653087,0.051181920,-0.127432287,-0.141175076,-0.071471550,-0.119402602,-0.055732433,-0.089031324,-0.072554067,0.134452730,-0.026650397,0.117314480,0.003137782,-0.018185893,-0.041405655,-0.101091832,-0.113624707,0.097923234,-0.043580350,-0.137882948,0.129786566,0.002623304,-0.094632171,-0.111164764,-0.118763551,-0.124006048,0.127975196,0.097509116,0.011566866,-0.120529793,-0.036989003,-0.132850483,0.048736647,-0.037550148,-0.030263394,-0.044125374,0.066305608,0.076549895,
0.029947208,
-0.020138780,
-0.007665759,
-0.002471154,
-0.111674726,
0.145000458,
-0.054716554,
0.080476411,
-0.079469964,
0.007328644,
0.048412401,
-0.133309051,
0.055719309,
-0.114535354,
0.016879389,
-0.028043756,
0.082328424,
0.128206477,
0.031871531,
-0.014845359,
-0.077984430,
0.059732892,
-0.078678794,
0.058416497,
-0.055038564,
0.090709180,
0.100393333,
0.086717449,
-0.004011147,
0.063823335,
-0.135758042,
0.100890659,
-0.033310566,
0.058727399,
-0.023948094,
-0.050091345,
-0.068459958,
0.097736195,
-0.076940186,
-0.024939016,
0.078106910,
0.014253408,
-0.124341816,
-0.140625834,
-0.068755254,
0.125218973,
-0.108239755,
0.084918365,
0.087911628,
-0.058618784,
-0.069343254,-0.115993530,0.041803453,-0.019770227,0.000576476,0.086099423,0.109663501,-0.047371827,0.033719417,0.043644056,0.003010330,0.104591317,-0.048453260,0.108947925,-0.018038705,-0.018094199,-0.130139664,-0.092964455,0.004399153,-0.010975602,-0.069892339,0.087030195,-0.016306851,0.049736217,0.153691083,-0.075460598,-0.061361134,-0.028418222,-0.022500318,-0.086047374,-0.045111552,0.010421832,0.088623993,0.143142641,0.104723766,0.012436967,-0.006781695,0.045060113,-0.005773056,-0.018559687,0.060213726,-0.115060449,-0.125139579,0.000572843,-0.042864542,-0.071434386,-0.133384362,0.095376156,0.007558961,-0.075982191,
-0.050200298,
