// Neural Network File Format by Kyle Julian, Stanford 2016
2,4,1,500,
4,500,1,
0,
0.0,0.0,0.0,0.0,
0.0,0.0,0.0,0.0,
0.0,0.0,0.0,0.0,0.0,
0.0,0.0,0.0,0.0,0.0,
0.003404207,0.268043369,-0.419245601,-0.374941468,
-0.186653748,0.135046870,-0.016069420,0.395381212,
-0.054872040,0.129034922,-0.147185296,-0.098752119,
-0.423177153,-0.322569788,-0.199619785,0.042240016,
0.190633535,0.297627956,-0.334224373,-0.218090564,
0.175061002,0.412977427,-0.097803369,0.374068528,
-0.075717673,0.056703854,0.448295027,-0.468107492,
-0.306978971,-0.127492920,-0.199854463,0.431314230,
-0.324089825,-0.230166435,-0.349320233,-0.468280494,
-0.285995901,0.430699140,0.216845542,0.241222486,
0.026295781,-0.256341755,0.084592342,-0.466847360,
-0.358030647,-0.260624975,0.312001258,0.287029952,
-0.235376954,-0.039448179,0.311585844,0.478306741,
0.204818919,0.068129338,0.329701304,-0.294841766,
0.083873257,-0.415975600,-0.367478013,-0.281508923,
0.218800843,0.198281556,-0.291932702,0.150234744,
0.279469192,-0.057327606,0.015733102,0.118456870,
0.303521663,0.478127033,-0.380026966,-0.183187127,
0.201582834,0.413850069,0.428005755,0.438382924,
0.099507272,-0.434791327,0.045996249,-0.312802672,
-0.469201565,0.455935627,0.371918887,-0.509439886,
0.093586028,-0.084230006,-0.082280576,-0.228878438,
0.195987612,-0.290617734,0.180944264,0.261316597,
0.362158984,0.135021046,-0.502630770,-0.290841579,
0.258417815,0.116089225,-0.401494831,-0.277468473,
0.463785172,0.335213035,-0.212141156,-0.124967664,
-0.446859121,-0.005450171,-0.396517664,-0.380097240,
-0.065666251,0.053810623,-0.162990764,0.290220439,
-0.308136165,0.470978826,0.322122812,-0.404136091,
-0.119253799,0.022505790,0.066007003,0.116532750,
0.208477542,0.035726447,-0.262950212,0.231306329,
-0.506768346,-0.302450389,-0.135546565,-0.258101672,
-0.174916685,-0.409810841,-0.106357574,0.106878221,
-0.336213589,-0.010943512,0.357353866,-0.046701141,
0.025918672,-0.038221665,0.093176313,0.318311721,
0.466970384,0.315489054,0.480014920,-0.036186401,
-0.460805118,-0.228490859,0.336552382,0.002241684,
-0.248523176,-0.383155882,-0.467926025,-0.422004104,
-0.117278203,0.254259765,0.253762990,-0.503526390,
0.311891019,-0.391254723,-0.105705142,-0.202736318,
-0.096307635,-0.098171353,-0.448674977,-0.431718946,
-0.092689335,0.001916265,-0.190872177,0.193508461,
-0.451484561,-0.023855804,0.443122506,-0.192129046,
0.444475830,0.178654253,-0.446386218,0.315923750,
-0.061369956,-0.221799806,0.392832935,-0.415687174,
0.047109623,-0.106650189,0.362528741,0.139604554,
0.243802428,0.174993068,-0.128868178,-0.108554542,
-0.400089473,0.269664228,0.392156035,0.342898637,
-0.352689147,0.022299945,-0.352467060,-0.275242090,
-0.038654257,0.212460548,-0.957934201,0.000645836,
0.021034062,0.322311521,-0.377960026,-0.343256116,
-0.284544051,0.350779682,-0.186062232,0.420532018,
0.173987418,0.060272664,0.001675061,-0.100748911,
0.062733173,-0.114172339,-0.003513217,0.063796520,
-0.391102552,-0.262065709,0.403746367,-0.405773342,
-0.029923046,0.495680422,0.174455926,0.013182334,
-0.440451235,0.245298252,-0.351743132,-0.142380953,
-0.175763488,-0.078238785,0.008938260,0.410038829,
0.087518558,0.454144597,0.291545182,-0.326308727,
0.218720466,-0.370850891,-0.214251623,0.135280564,
0.158352554,0.373009056,-0.155765280,0.000705733,
0.245615318,-0.489817739,0.361223429,-0.427173674,
0.006891251,-0.085008383,-0.263336480,0.066085517,
0.396620452,-0.167723820,-0.300947636,-0.211928830,
-0.530528307,0.267780870,-0.202590391,-0.314396620,
-0.282522261,0.287870020,0.258172274,0.382139176,
0.181361556,-0.166979849,-0.139724076,0.147714972,
0.414151222,0.149452761,-0.264151216,-0.207780898,
-0.472734511,0.108024001,-0.280591249,-0.445787907,
0.432900399,-0.330243528,-0.062100466,0.137708247,
0.023831116,-0.327351391,-0.460977077,0.391037166,
0.065449029,0.397689879,-0.185971394,0.129413381,
-0.114338100,-0.022235572,-0.304522097,0.169100463,
0.163384840,-0.011501055,-0.122755945,-0.312174290,
0.352329016,-0.364308894,0.200066715,-0.161376119,
-0.241234004,0.089822531,-0.259728491,0.115202427,
0.110712439,-0.365431994,0.078065902,0.217756391,
0.197915494,-0.062939346,-0.409893811,-0.077077031,
0.179479688,-0.179777667,0.184123784,0.332239568,
-0.261075795,0.004930913,0.206749499,0.039188921,
0.041765749,0.062432706,-0.393073857,0.039294124,
0.351085752,0.450585991,0.287922949,0.064601764,
0.233507097,-0.243239820,-0.414344192,-0.429960549,
0.503826439,0.317446083,-0.352819800,0.193704531,
0.370351881,0.496886700,0.441719234,0.386432409,
-0.120157108,-0.189629406,0.413979530,0.259628803,
-0.292699695,0.450574696,0.234477788,0.271357626,
-0.307467490,0.144444793,-0.181462348,0.389648587,
-0.116449855,0.191202000,0.103372671,0.218973115,
-0.045288052,0.275613308,-0.965155184,0.008785096,
-0.338295937,-0.493268788,-0.401527882,0.394735038,
0.271677524,0.465922356,0.396791786,-0.445825130,
-0.345627576,-0.081626341,-0.317996293,0.347488850,
-0.378003895,-0.243950725,-0.483045697,-0.283872783,
0.404667348,0.407460093,0.363352120,0.386149704,
0.444965214,-0.131143346,0.215116113,0.444813371,
0.171470448,0.501035333,0.253272712,0.310010731,
-0.169059932,0.240863025,0.051229678,-0.120460764,
-0.281854928,-0.280558288,-0.384740412,0.335665166,
0.360657483,-0.056672599,-0.296314836,0.384691536,
0.334775031,0.070862629,-0.247352168,0.475939602,
0.199570447,-0.381010592,0.475498706,0.384637624,
-0.087466121,0.234952077,-0.613810360,-0.049386110,
0.412872195,-0.020148234,-0.354932696,-0.179273710,
-0.144571126,-0.102176592,0.049868222,0.458312064,
0.029860135,-0.311143219,0.017124359,0.235425860,
0.244338155,-0.459883332,-0.091392040,-0.375436366,
-0.049935676,0.222796425,-0.985129178,0.065434411,
0.414649010,0.027228506,-0.334339201,-0.182967946,
0.101944424,-0.390835047,0.234323204,-0.480173796,
-0.509345293,-0.495959133,-0.126682416,0.325347900,
-0.528870821,0.391521096,-0.208994195,0.130507082,
0.017527195,-0.451911300,0.416066855,0.265215158,
0.502320945,0.252972335,-0.336899579,0.415664673,
0.017261578,0.231551915,-0.399955958,-0.142064661,
-0.490938783,-0.194746256,0.107865572,-0.392580867,
0.159382105,0.268403411,0.069654644,-0.334541678,
-0.369335026,-0.127981052,0.223026976,0.511390269,
0.300261527,-0.042577364,0.171417326,-0.471936822,
-0.411194086,0.233289629,-0.299345613,0.235472456,
-0.372240216,-0.283217102,-0.364965588,0.265913218,
-0.045727681,0.384773850,0.302489698,0.274647504,
0.016078055,-0.154588997,-0.108715832,0.066450298,
0.184263811,-0.261815429,0.544639766,0.007078834,
-0.409979820,-0.259475827,0.448290318,0.462255716,
-0.469679475,0.350711554,0.256061971,0.296018779,
0.429212958,-0.268393219,0.151707426,0.203692570,
-0.154353842,0.165359840,-0.138450786,0.309161574,
-0.146283820,-0.190016925,0.129986808,0.175612599,
-0.244285822,0.044199169,0.289767861,-0.049748361,
0.152166963,-0.120593488,0.175249815,-0.362197101,
-0.284277737,-0.243712679,0.467792839,-0.131485894,
0.001138991,-0.245019317,0.498908997,0.483149827,
-0.435085148,-0.397294194,-0.420424372,-0.010276120,
-0.127451956,-0.327272832,-0.179336071,0.094465435,
-0.243659571,0.111432955,-0.133369178,-0.244454175,
0.061495021,0.408424377,-0.333466202,0.022506008,
-0.184383869,0.490653157,-0.474381626,-0.479330599,
0.495112628,-0.318953097,0.086393796,-0.047422696,
-0.112062410,-0.114036508,0.322924346,0.023519369,
-0.486807287,-0.295180082,-0.170450151,0.251608193,
-0.332247943,0.466148704,-0.109352723,-0.093296953,
0.386007071,0.241681233,0.412964970,0.278541148,
-0.178330109,-0.343266249,-0.053727180,0.406740218,
-0.152021185,-0.467859030,0.199149966,0.498641014,
-0.162630051,-0.420161128,-0.376912385,0.155005217,
-0.042942066,-0.260368019,0.097236142,0.182002723,
0.395958126,0.397676289,-0.101624891,-0.419433594,
-0.461759329,0.450481653,0.210972875,0.201245159,
-0.426262558,0.463373810,0.467021823,0.449377835,
-0.408489078,-0.183170721,-0.349350721,0.472595692,
-0.215450138,-0.235303566,0.258226544,-0.238313049,
-0.227504894,-0.042795882,-0.046079867,-0.392152250,
0.410296589,-0.220105946,0.181859493,0.436836451,
0.257790118,0.071350478,0.418876678,0.065782212,
-0.282308608,0.497228712,-0.005326074,-0.475139558,
-0.147338524,-0.340403885,0.436168164,-0.084600687,
-0.455762446,-0.031431675,0.314006448,0.129900217,
0.196870670,0.061658967,0.175339609,-0.120742455,
-0.201965660,-0.479619294,-0.386817336,0.204438940,
-0.302635521,0.069734596,0.165021241,0.035401858,
-0.318325192,0.479072481,-0.297000080,0.410123974,
-0.397754133,-0.120274246,0.271984398,-0.204290330,
0.465972781,-0.341547459,-0.618480921,-0.138887733,
0.085640728,0.453711390,-0.395420521,0.136134088,
-0.132644922,-0.116748460,0.359350115,-0.395276994,
0.053554382,0.465280831,-0.079104014,0.381697506,
-0.184934750,0.335776985,-0.637894154,-0.114139922,
-0.098236121,0.154584244,0.197041556,0.378319442,
-0.068826444,-0.019352710,0.335888118,-0.136796594,
0.438316822,-0.332906067,-0.054104924,-0.026855469,
0.197537020,0.314997673,-0.109040789,-0.442710578,
0.253283858,0.150086313,0.194148779,-0.309883565,
0.326794267,0.474890769,0.034971848,-0.467349857,
0.346840441,-0.374886245,0.111154892,0.068991996,
-0.227173150,0.175881833,-0.451312304,0.113333546,
-0.311255574,-0.053204283,0.058129068,0.424901396,
-0.246676445,0.323611230,-0.059143454,-0.241007462,
-0.435399830,-0.458759189,0.488305330,-0.124699771,
0.031014850,0.136591509,0.333795875,0.425805718,
0.434862435,-0.363139570,-0.138277069,-0.222073480,
-0.285758197,0.123023570,0.464108616,-0.406654149,
0.295629919,-0.261610329,-0.092424572,0.396496981,
-0.273156524,0.070418485,-0.900474489,0.427793562,
-0.064634919,-0.365695238,0.146405160,-0.355508685,
-0.392199159,0.028436102,0.389241427,-0.145474672,
0.228697062,0.427685589,0.337043077,-0.262301028,
-0.011110956,-0.012759945,-1.252693176,-0.005620292,
0.381840676,0.421926796,0.040077936,0.112237319,
-0.194509342,0.368377090,-0.444315970,-0.330239207,
0.082644202,0.295692503,-0.462558329,0.449577689,
0.174938649,-0.358084649,-0.117116325,0.423443288,
-0.383617342,-0.146138608,0.163990140,-0.438042521,
0.272835314,0.256961197,0.315925211,-0.314839393,
0.491025448,-0.298250258,0.506389439,-0.472622424,
-0.473242223,0.285626143,0.050017115,0.007480348,
-0.276879191,-0.209737718,-0.146193743,-0.487077713,
0.025984347,0.088429451,-0.000423312,0.161465168,
0.476512372,0.144601375,-0.198760599,-0.192837521,
-0.319902778,-0.346609414,-0.080524921,-0.088432789,
0.217538387,-0.221617773,0.400630951,-0.353738308,
-0.005478096,0.436099470,0.467710584,-0.319536448,
0.094447553,0.059541836,-0.241283774,-0.174230143,
0.124275103,-0.357568234,0.083626948,0.211717531,
-0.220751837,0.399475813,-0.022941940,0.235798597,
0.483391792,-0.162947983,0.265139073,-0.152020827,
-0.073036492,-0.084735572,-0.003106296,-0.188884199,
0.101528116,0.011645020,0.324028015,-0.105515532,
0.050140083,-0.185995162,-0.418726861,0.202333629,
0.063978970,-0.200241864,-0.169052482,0.130760670,
-0.097262144,0.324374229,0.033388004,0.188489124,
0.223988578,-0.114060447,0.219527841,0.380161971,
0.016422171,0.095906496,0.023594167,0.346245676,
-0.211097658,-0.265784919,0.217876792,-0.435157061,
0.016317559,-0.216098696,0.331675023,-0.451915622,
0.296587706,0.492764175,0.106583379,-0.033215638,
0.485240847,-0.215885878,-0.035092901,-0.219109356,
-0.069944829,0.109160788,0.066052265,-0.097462960,
-0.499920309,0.025602043,-0.014810979,0.075218379,
0.376782119,0.483043879,-0.289263099,-0.032770049,
-0.224761352,-0.474906474,-0.358554274,0.464892626,
0.292273998,0.269892007,0.277623177,-0.390559644,
0.044608530,0.461679310,-0.275414437,0.443005919,
0.137368008,0.352927148,-0.220350131,0.229658797,
-0.455705225,-0.033810135,0.144794881,0.162515476,
0.409920245,0.485923767,0.457149178,0.332736880,
0.343984365,-0.067180097,-0.383477807,-0.185980305,
-0.056132257,-0.270193279,0.255585432,0.175513625,
0.074061513,0.118772022,0.444604754,0.182112038,
-0.438469708,-0.362940371,0.220374823,0.068139613,
0.348879784,-0.408810467,-0.574178457,0.339850366,
0.319822848,-0.452355504,0.189792633,-0.390422106,
0.388655484,0.166706607,0.490424037,-0.481135249,
-0.512441754,0.318583101,0.438972771,0.289813668,
0.332414925,-0.421135664,0.361906826,-0.472073555,
0.102967717,-0.329636514,-0.193927988,0.088439927,
-0.207366705,-0.093762159,-0.468331575,-0.502798975,
0.192811757,-0.214449123,-0.285986334,-0.204806671,
-0.397160470,-0.401758939,0.294187576,0.256410122,
0.073774002,-0.250340044,0.193594664,0.033748284,
-0.372756869,0.094328418,0.432079256,-0.515997529,
-0.497196078,0.064062476,0.376511157,-0.304244876,
0.101483688,0.345006496,0.152219281,0.103381336,
0.489897549,0.310218424,-0.274784118,0.032551851,
0.261099368,0.443553656,-0.500835180,0.270436078,
-0.205959216,-0.463720232,0.141553178,-0.237329975,
0.070856094,-0.324623466,-0.376264513,-0.042425513,
-0.175029784,0.289683431,0.047927596,0.389469355,
0.083488502,-0.126719877,0.376853377,0.036786769,
0.093845844,-0.160811305,0.001794398,-0.096136570,
-0.042508662,-0.389939666,-0.003074944,-0.415022135,
-0.116503157,0.284705669,-0.346328050,-0.340194106,
-0.130896047,-0.142831877,0.086503424,0.078916878,
0.237129316,-0.361300677,-0.053967752,0.262388021,
0.424077094,-0.047073454,-0.282604545,0.136994690,
0.278332055,-0.295981407,-0.317993969,0.232724726,
-0.036278874,-0.465190470,-0.282713413,0.207631037,
-0.161765948,0.346420050,0.388822943,0.071650550,
-0.039537370,-0.158713579,-0.025282919,0.091010451,
-0.391534865,-0.129514411,-0.426520050,0.295868754,
-0.306483805,0.458064854,-0.138726801,-0.287996322,
0.245022222,0.077834480,0.346409440,0.215032846,
-0.475839943,0.317039669,-0.100491978,-0.222195357,
0.310791492,0.362780660,-0.434033275,-0.044869218,
0.415290773,0.193049610,0.413638353,-0.173847690,
-0.287652045,0.431111157,0.216868997,0.481150150,
-0.208848298,-0.321033418,-0.058606446,-0.470789969,
0.202037439,0.369990468,0.113945760,-0.050213039,
0.260375857,-0.262270898,0.581458807,-0.370131016,
-0.481420457,-0.125836134,0.400742471,0.042380508,
0.185179070,-0.368800312,0.187409252,-0.056154709,
0.206068739,0.353775978,0.210797936,-0.043868732,
-0.046667177,-0.317948014,-0.161429539,0.327733546,
-0.194627240,0.311370283,-0.204562902,-0.117570497,
0.010641098,-0.458832741,-0.004992485,-0.050397873,
-0.038936477,-0.098921336,0.388065308,0.368005037,
-0.084565304,0.276748955,-1.260495186,-0.061362974,
0.152840972,0.007348239,-0.233253181,-0.482251883,
-0.162437767,0.205906421,-0.624541640,-0.358814240,
0.049933258,-0.356771320,-0.315402716,-0.234023660,
-0.096894018,-0.423423678,-0.345801353,0.044070862,
-0.471485853,-0.070277214,-0.322851360,-0.346618652,
0.265131712,-0.355065495,-0.340083808,0.303490728,
0.098323844,0.455857724,-0.140837967,-0.244734406,
-0.055313673,-0.003830465,0.371706516,-0.512531221,
-0.035600364,0.221176088,-0.275341511,-0.254070401,
0.241633892,-0.479092598,0.118477881,-0.387093246,
0.261256903,-0.420438617,0.308078498,-0.446590453,
-0.422843367,0.002323589,0.388905436,-0.433723122,
-0.230711654,0.435392231,-0.079998672,0.205244809,
-0.470048875,-0.160499722,-0.272947282,0.414259017,
0.236028880,-0.333873630,0.130958870,-0.008637981,
-0.212591738,-0.284363180,-0.160648838,0.394085407,
-0.358934313,-0.359019220,-0.160745487,0.002601409,
0.131618053,0.012649118,-0.125449598,-0.304712266,
-0.096478954,-0.212261900,0.392997265,-0.497424841,
-0.280845642,-0.358221233,-0.069160514,0.420809358,
0.442055225,-0.428250909,-0.023486031,0.297990382,
0.226346463,0.410635233,-0.020094415,-0.336855918,
0.330765247,-0.171457291,0.258893073,-0.123218238,
0.212497488,0.448188424,0.460875839,-0.458145469,
-0.330740154,-0.206733406,-0.318850517,0.479750037,
-0.044159412,-0.331670284,-0.222494721,-0.276182294,
0.293108910,-0.451190442,-0.709845662,-0.504765451,
0.066188090,0.395038217,-1.055548310,0.071909107,
0.365471572,0.069080658,-0.110189557,0.034093726,
-0.047935534,0.252508461,-0.345972180,0.252296478,
0.292040855,-0.290350288,0.402804315,0.504873574,
-0.207529768,-0.154285833,0.238997221,-0.408974320,
0.201068699,0.118177310,0.309836119,-0.433687150,
-0.378643155,0.269776702,0.165483907,-0.413138717,
-0.214178979,-0.421508968,-0.341320962,-0.195378244,
0.423229426,-0.091775641,0.275854230,0.484682679,
0.232884571,-0.449463278,0.245965421,0.188368902,
0.378402054,-0.500571370,0.305035263,0.404692709,
-0.463443428,0.050240733,0.424578071,-0.367942303,
0.157460779,0.218980268,0.136456966,0.497180462,
0.402673244,0.426918507,-0.057060454,0.419282436,
-0.465956330,-0.269814670,-0.106940567,-0.148528397,
0.453724444,0.231614560,0.325039029,0.337785870,
-0.373501778,-0.057910502,0.073012292,0.130046248,
0.262910813,-0.198044106,-0.157096207,0.417265981,
-0.142846271,-0.353228301,0.341126412,0.334235936,
-0.156783462,-0.099960029,-0.368939996,-0.417546868,
0.188024759,-0.213596284,0.398047745,-0.400356591,
-0.073995911,0.014685257,0.260915756,0.405217916,
0.322758883,0.199564159,-0.231070146,-0.387417734,
-0.465353429,0.019852379,0.487490058,-0.096875958,
-0.019957682,-0.363226622,0.144999832,0.316821009,
-0.491026938,-0.347906947,0.373317331,0.119546331,
-0.047324326,0.088752739,-0.083940044,-0.350442201,
-0.469060659,0.316652000,-0.067097351,-0.192244962,
-0.129057586,-0.272711515,-0.148091674,-0.429207206,
0.350215703,0.181405663,-0.271430582,-0.186436549,
0.220217779,-0.189896017,0.133717045,0.129946128,
-0.310504705,0.123757929,0.023082186,0.433171928,
-0.170417383,-0.108297862,0.464867771,-0.377696782,
0.041458204,0.482031941,-0.231020227,0.477617919,
0.428765923,0.450138807,-0.063292332,0.436704099,
-0.217859685,-0.171152592,0.189116299,0.105623603,
0.281165898,0.475778013,-0.319654405,0.263982862,
0.161037222,0.258343488,0.240252465,-0.192644492,
-0.403123677,0.397599638,-0.278055847,0.320276707,
-0.498989552,-0.103707634,0.001657561,0.069147289,
0.033164293,0.154748976,-0.051155452,0.121609002,
0.487481833,-0.328881145,-0.021089615,-0.195351750,
0.432105780,0.426099300,-0.008283366,-0.173086509,
-0.302987516,0.358413815,-0.043159824,0.469114751,
0.271021247,0.422163635,0.380258560,-0.340423495,
0.146351099,-0.207329452,0.250876606,-0.044954896,
0.050869573,-0.316861957,-0.552257180,0.195501238,
0.123884030,0.045086607,0.334042937,-0.207275912,
0.181742996,-0.276452839,0.102073736,-0.113912515,
0.354988635,0.431875110,0.424489617,0.014018884,
0.270205200,-0.521478891,-0.295440137,0.074677944,
0.002788484,-0.392536461,-0.221305788,-0.233527064,
-0.485083699,0.050490946,0.334668487,0.202074140,
-0.243845806,-0.401253074,-0.500885189,0.018417904,
0.349886894,-0.194792047,-0.289295107,-0.243034452,
-0.032794211,-0.473683268,-0.460680276,0.487510502,
-0.238458037,-0.090181828,-0.133776367,-0.439253092,
-0.020387536,0.120301768,-0.589935601,-0.000751240,
-0.004207464,-0.495883405,0.366896838,0.403872788,
0.340902746,-0.164199173,0.261281610,-0.468461215,
-0.123693347,-0.101692140,-0.176574826,0.210000038,
-0.227828920,-0.057951927,-0.144376695,-0.469541490,
0.054840602,-0.307120711,0.350878567,0.377137780,
0.462072551,-0.174954519,0.026750140,0.093578838,
0.491979718,0.455769151,-0.254181445,-0.425956964,
-0.447277367,-0.233191684,0.427483588,0.168416545,
0.479526043,0.355817616,0.018660435,-0.311126173,
0.481053799,0.394305229,0.219498619,-0.279672533,
0.387302548,0.043569747,0.336030394,0.208753586,
0.269430608,-0.440164089,-0.275642306,0.299832135,
-0.104167938,-0.434989870,0.454699636,-0.010812759,
0.408774614,-0.394125521,0.166629478,-0.185877591,
-0.283650368,-0.109491900,-0.099959284,0.279730588,
-0.099513285,0.380597383,0.114569880,-0.079832628,
-0.197530240,-0.408169866,-0.090791330,-0.409908861,
-0.097912893,0.007255976,-0.026179014,-0.243926242,
0.339658618,0.278668731,-0.118928440,-0.198462173,
0.319376469,0.435193002,-0.465080231,-0.109789990,
-0.054652162,-0.191798344,0.416056514,-0.084017046,
0.441862255,-0.007807077,-0.115665585,-0.222736835,
-0.160740182,0.161407635,0.214509204,-0.019493008,
0.485467106,-0.333146840,0.190959454,0.457098454,
-0.095889233,0.392352462,0.014423602,-0.377786577,
-0.274308205,0.186107755,-0.216374457,0.120255530,
0.494892210,0.178953677,-0.055052873,0.128332809,
-0.083486266,-0.437166423,-0.151314750,-0.386087984,
0.095012806,0.101365581,-0.329265535,-0.453496695,
0.270852387,-0.283704638,-0.083473861,-0.419240952,
-0.282079101,0.208579957,-0.465863466,-0.285119832,
0.381758571,-0.245479196,-0.212236434,-0.130038321,
0.207703128,-0.355184019,0.042491626,0.228635520,
-0.036296606,0.090409338,-0.381423771,0.226049721,
0.186895087,-0.067266628,-0.424258471,0.193892851,
0.319546014,-0.089579977,0.240907133,0.185208336,
-0.210109562,-0.038947269,0.492812514,0.007908754,
-0.398056746,-0.036464155,0.248746336,-0.163211823,
-0.255801588,0.413027257,0.258416355,-0.085817471,
0.007133640,-0.034449492,0.153608486,0.001598499,
-0.302567482,0.092637122,0.013077378,0.032326758,
-0.184603930,0.129214823,-0.410378844,0.148538664,
0.033509314,0.070148304,-1.126027107,0.006728553,
0.009298270,-0.426890284,-0.318669021,0.470465183,
0.379172713,0.277905405,0.339784831,0.190707505,
0.297021747,0.308572441,-0.161297306,-0.047994655,
0.356523216,-0.000180066,-0.325343251,-0.387699425,
0.272537351,0.411418349,0.392974705,0.082481652,
0.345140278,-0.459066629,-0.360231459,-0.481115222,
0.396161973,-0.006530096,-0.224937201,0.169189826,
-0.034942262,-0.211487800,0.324822426,0.103351973,
-0.371489167,-0.338395417,0.222340018,0.368739873,
0.034235165,-0.265945226,0.238113821,0.077370174,
-0.437739670,-0.324022472,0.109438419,0.309387207,
-0.177336425,0.238211602,-0.293844312,0.479649872,
0.362299651,0.094822086,0.216347292,0.173239484,
-0.295048594,-0.004359961,0.133330226,-0.112857103,
0.464915395,-0.201074287,-0.466407835,-0.243705273,
-0.442798823,0.409860909,-0.247685015,-0.352083296,
-0.054049373,-0.336904228,-0.261186719,0.254905045,
-0.365262300,0.232658118,0.361823559,0.010810640,
0.215915725,-0.283724725,0.394225657,0.485050768,
0.109838262,0.450839996,-0.495121926,-0.057842515,
0.099346519,-0.434593439,0.243315876,-0.190557241,
-0.180841267,-0.396707177,0.204408884,-0.363813519,
-0.087063275,0.220266968,0.384273797,0.100576192,
-0.199278429,-0.221595138,0.271637738,0.092508525,
0.428386629,0.193165585,0.395046622,-0.396237254,
0.404013664,-0.225355133,-0.147097886,0.010170555,
-0.088478789,0.113830894,0.442316055,-0.288804531,
0.138046876,-0.411288291,0.079140343,0.404262275,
0.328956842,0.423846543,0.273576826,-0.043772638,
0.123653352,-0.211375520,0.429432243,0.249893188,
-0.372573525,0.430316448,-0.002045191,-0.022235196,
-0.126472294,-0.128662735,0.018885467,-0.242001235,
-0.474215597,-0.283252269,-0.106569320,0.362324238,
0.367827654,-0.299576163,-0.019198656,-0.144308209,
-0.271653086,-0.074378133,-0.200048909,0.285307199,
-0.278251320,0.070097074,-0.257093370,-0.162458286,
0.399269789,-0.244549215,-0.036620647,0.476254791,
0.171133637,-0.254499435,-0.300201535,-0.175337076,
-0.138995171,0.218917444,-0.120696537,0.421472013,
-0.284603804,-0.163180977,0.174667865,0.389567763,
0.471371233,0.077696636,0.025997311,-0.224327609,
0.282509387,-0.289824545,-0.131422877,-0.417898357,
-0.468290925,0.282405615,0.025676496,0.397941977,
0.414991111,0.274593592,0.220422134,-0.117696099,
0.266968399,0.243553117,0.163037583,-0.020592788,
0.064454086,-0.004458915,-0.363671720,0.112526253,
-0.381182343,0.235165909,-0.293979019,-0.168726847,
-0.242580935,0.382907659,-0.370712250,0.249549717,
0.244185716,0.351451814,0.130596519,0.272537351,
0.401273012,0.099669166,0.163870960,-0.391777813,
-0.134114921,0.045335948,0.060579181,-0.176650584,
-0.511040926,-0.143407196,0.177279890,0.415187687,
-0.447078705,0.250971347,-0.272286355,-0.624980152,
-0.304191887,-0.066842422,0.132511958,-0.381693423,
0.378495842,0.450046360,0.036002237,0.406889319,
-0.222351193,-0.213138297,-0.056554899,0.045520183,
-0.357071817,-0.420208484,0.176104471,0.125684068,
0.493796408,-0.203485221,0.170603558,-0.204343721,
0.242441878,-0.028819539,0.373231560,0.281245470,
0.421943724,0.257796496,0.012400726,0.429727316,
-0.287702501,0.472622097,0.482466251,0.476643294,
-0.206277549,-0.236952990,0.024191499,0.185830563,
0.254620492,0.201498732,0.417343915,-0.128905565,
-0.164036751,0.167600095,0.139333606,-0.291663826,
0.040974777,-0.369081348,-0.124119058,-0.191623166,
0.428726882,-0.454161048,-0.303579509,-0.483600706,
0.126102686,-0.384844482,0.161770344,-0.347305536,
-0.320290446,-0.255437791,0.075034499,0.459440410,
0.472252637,0.007906950,-0.594028771,-0.109764047,
-0.197517127,-0.108986050,0.195999488,0.250935823,
0.245019317,0.129273072,-0.266115308,-0.062628664,
0.069565512,-0.254326850,-0.050927423,-0.063347064,
-0.440313190,0.400156230,0.032417051,-0.414019138,
0.397501558,-0.266568631,0.183364391,0.496662498,
0.029074674,0.144849405,0.192471787,0.376877159,
-0.098040856,-0.323384225,-0.051851306,0.407914907,
0.048808999,0.348304778,-0.010056268,0.152292266,
0.017386138,0.013572991,-0.475809753,-0.437117100,
0.034993704,0.245499745,0.341303825,0.021734484,
0.210760832,0.209118545,-0.431626141,-0.439466715,
-0.387673020,0.008596361,-0.316158235,-0.160006523,
-0.094004586,0.174971864,0.097953506,0.444053352,
0.454046667,-0.327453703,-0.117192343,0.070643745,
0.436499238,-0.154960513,-0.196501076,-0.316728115,
0.375580192,-0.137957096,-0.194808304,0.336881071,
0.458912194,-0.007387070,-0.376409233,0.411441565,
-0.146518484,-0.138641536,-0.179378495,-0.421245694,
-0.392241389,-0.284989893,-0.508550167,-0.118767425,
0.192870349,-0.386160254,0.007150750,-0.189872801,
0.250688523,0.459124684,-0.087601595,-0.193965033,
-0.397193521,-0.304849595,0.132044077,0.104214422,
0.274987131,-0.068881951,0.253238201,-0.440119684,
0.127430707,0.483045101,-0.490004003,-0.259897739,
0.302362502,-0.094625913,-0.291655034,0.286309570,
0.026876928,0.017598264,-0.146491855,0.376729459,
0.276094079,
0.090033904,
0.073853098,
0.269388050,
0.309585452,
-0.206640825,
-0.050159559,
0.218984008,
-0.242289305,
0.467919111,
-0.342499614,
0.228972167,
-0.377916008,
0.160450041,
0.323595554,
0.057893850,
-0.044380568,
0.316486180,
-0.359936565,
-0.337332845,
-0.414737999,
-0.307774544,
0.015829775,
-0.273722202,
0.119914085,
0.015938273,
0.420083344,
-0.239079967,
-0.121422648,
0.330160528,
-0.127793953,
0.466363668,
-0.198590040,
0.007261137,
-0.116756499,
0.231758893,
0.193712026,
-0.266264141,
0.311070114,
-0.031771123,
-0.126438797,
-0.010526784,
0.356184423,
0.488532364,
0.238158271,
0.086071178,
0.324144959,
-0.210487679,
-0.261301517,
-0.122192137,
-0.323611975,
0.215284139,
0.044892289,
-0.171067178,
-0.050761163,
-0.009409316,
0.426928878,
0.442685187,
-0.376415700,
0.167964339,
0.191474766,
0.179133639,
-0.068165779,
0.105300471,
0.141151577,
0.486552596,
-0.479213893,
-0.181599006,
-0.336400986,
-0.248073712,
0.104148626,
0.287700802,
-0.378107011,
0.323972672,
0.423323452,
-0.246453524,
0.090814792,
-0.256688774,
0.108790025,
-0.231811404,
-0.194777429,
-0.335551232,
-0.416950047,
0.398490340,
-0.065528497,
-0.023521744,
-0.249330014,
0.348982275,
-0.285490632,
-0.176963508,
-0.390307307,
-0.423770607,
0.443321168,
-0.386097848,
-0.070425510,
-0.146342233,
0.183823347,
0.134184554,
-0.383295476,
0.448713094,
-0.471560538,
0.046114553,
-0.107029796,
-0.152764782,
0.335589081,
0.419275612,
0.060431160,
-0.153966025,
0.366190344,
0.298731118,
0.077456973,
-0.155738264,
0.018334175,
0.445462406,
0.049889829,
-0.098532557,
-0.423327625,
-0.249649704,
0.372123241,
-0.021461211,
-0.026667587,
0.194173858,
-0.328963518,
0.068692327,
-0.133967549,
0.260210723,
0.407469571,
0.312508404,
0.369735777,
-0.446850955,
-0.177508354,
0.070388205,
-0.427473009,
0.119131655,
-0.327740848,
0.214327365,
0.402458847,
-0.427724540,
0.415767193,
0.231511384,
-0.329960823,
0.473803490,
-0.443041354,
-0.343548566,
-0.238122761,
0.000580960,
0.084374577,
-0.143112481,
-0.489777267,
-0.057625074,
0.383608699,
0.380299449,
0.256847829,
0.072964087,
0.124303192,
-0.361366123,
0.200598627,
-0.497617900,
-0.193182781,
-0.142893344,
0.365705729,
-0.014185159,
-0.227754653,
0.089008927,
-0.436069816,
-0.140684962,
0.133080557,
-0.103501990,
-0.059220638,
0.305600971,
-0.379814029,
-0.284319043,
0.483985931,
0.099962384,
-0.084531985,
0.259892523,
0.301181823,
-0.072424263,
-0.208270669,
-0.081243336,
0.180210322,
-0.062081620,
0.289120913,
-0.392358571,
-0.245315850,
0.379039764,
0.064057998,
0.080657147,
0.164586201,
-0.148271397,
-0.205825537,
0.135224104,
-0.132515490,
-0.207556337,
0.070887603,
0.101239949,
-0.045145810,
-0.338147640,
-0.067915656,
-0.283363760,
0.257622242,
-0.345439196,
0.398584694,
0.190581739,
-0.437329829,
0.361187756,
-0.494468093,
-0.033503551,
-0.312178552,
-0.430137634,
0.047706373,
-0.232351288,
0.360000759,
-0.393054903,
0.425995499,
0.300253183,
0.436182618,
-0.145924807,
-0.306477487,
-0.333032101,
0.404683381,
-0.248418614,
-0.064780757,
-0.076410614,
0.078355439,
-0.415452093,
0.400704563,
-0.369969249,
0.490301877,
-0.195642114,
-0.197575599,
-0.068726242,
0.155319273,
-0.108202711,
-0.499024212,
0.349923521,
0.481504291,
0.249361426,
0.487654835,
0.156654820,
-0.053498641,
-0.398247659,
-0.442636639,
-0.355667621,
-0.124918208,
0.312052161,
-0.206291974,
-0.021622019,
0.027989903,
-0.326839447,
-0.013535082,
0.478041232,
0.394447803,
0.363450438,
-0.057526682,
0.019147743,
0.274505109,
-0.165868476,
-0.202635586,
0.417407423,
0.029745955,
-0.332905948,
0.421599090,
0.081644885,
0.266436666,
-0.429475933,
0.092785835,
0.306499243,
-0.010071554,
-0.291939795,
0.398256391,
0.232699588,
0.140198797,
0.118542343,
0.011035800,
0.287263751,
-0.102532573,
-0.294322371,
0.219299227,
0.142668501,
0.206159294,
-0.055535555,
-0.036097467,
-0.040563114,
0.120599695,
-0.383679330,
-0.466029704,
0.199569643,
-0.278863966,
-0.045231402,
0.134428024,
0.113369621,
0.322986066,
0.059797924,
0.119531997,
-0.056036308,
0.100226551,
0.190561801,
0.341661662,
-0.473756015,
-0.208891153,
-0.448669195,
-0.199347138,
0.260049999,
-0.350132942,
-0.451591283,
0.289733291,
-0.284262687,
0.353021711,
0.155386731,
0.157469615,
0.429658771,
-0.456980556,
0.364490539,
0.154291481,
-0.337130964,
0.120221309,
-0.140961602,
-0.200695157,
-0.057853255,
-0.235732496,
0.437595040,
0.425113887,
-0.053338826,
-0.443388343,
-0.028695177,
0.014991893,
0.329874814,
0.013997739,
0.146659866,
0.127386034,
-0.295924723,
-0.310143352,
-0.468901664,
-0.007041716,
0.152993530,
-0.003839413,
0.485087782,
-0.110548846,
-0.326263487,
0.083401375,
-0.144053206,
-0.069922537,
0.468738258,
-0.016660232,
0.432471722,
0.065429345,
-0.186424211,
0.351449847,
-0.284814417,
0.038204990,
0.113379404,
0.221367896,
-0.468346596,
0.003466319,
-0.129459858,
0.326213062,
0.179189980,
0.207840845,
0.300833106,
-0.111940503,
-0.067838222,
0.402387172,
-0.402994573,
-0.345609844,
0.036577523,
-0.118852273,
0.021836048,
0.439611256,
-0.051431350,
-0.440757960,
-0.231539801,
0.457768410,
-0.107768074,
-0.219238937,
0.220563129,
0.067637086,
-0.439342856,
0.459464133,
0.281064034,
0.432146728,
0.218377143,
-0.179364458,
-0.172349364,
0.242136270,
-0.086485364,
0.094491310,
-0.484494090,
-0.242311656,
0.232697606,
-0.048197363,
-0.240375340,
-0.436133742,
0.326927632,
-0.065673910,
-0.491266489,
0.477147728,
0.241709292,
-0.304923683,
-0.364915669,
0.483783960,
0.018947441,
-0.300711215,
0.288266838,
-0.019881181,
0.032337528,
-0.259761631,
-0.438649058,
-0.332061350,
-0.057094418,
-0.361973822,
0.491304249,
0.109605394,
-0.203589037,
0.185808972,
-0.443284392,
-0.254651666,
0.188448116,
-0.424831331,
0.240371600,
0.038492445,
-0.416903615,
-0.499747276,
0.155225649,
0.231792659,
-0.099953175,
-0.442127705,
-0.289691001,
0.052411478,
0.020256281,
0.131297931,
0.100453421,
-0.033439163,
0.260039419,
0.483099341,
0.414923877,
0.456674188,
-0.181859866,
-0.170657396,
-0.071510255,
0.141766727,
0.202730238,
-0.044568062,
-0.323567599,
-0.387030214,
0.479525119,
-0.134427905,
-0.066219896,
-0.291460007,
-0.250042826,
0.103763990,
0.203451082,
-0.212776899,
-0.185579672,
0.396733910,
-0.257508337,
-0.388394684,
-0.067392677,
0.475405812,
0.107204221,
0.060626816,
-0.081083946,
0.311690450,
-0.247431889,
0.339327484,
0.118651524,
0.071028993,
0.066564903,
-0.308362603,
0.383948594,
0.262876689,
-0.391058743,
-0.465540826,
-0.095332004,
0.330097973,
-0.254779309,
0.463958949,
-0.157403290,
-0.450017929,
0.220430329,
-0.284487635,
-0.078481369,
-0.155951977,
-0.041192438,
-0.435686529,
-0.458600640,
0.195226341,
-0.062815227,
-0.301615238,
-0.008630914,
-0.448331684,
0.182780057,
0.226325125,
0.479939401,
-0.387769312,
-0.071630672,
0.274300516,
0.456356853,
-0.373448312,
0.211011186,
0.028004760,0.026059926,-0.022989156,0.025731713,-0.014352584,-0.024966523,0.005629542,0.035362590,-0.029615449,0.023607304,-0.005121744,0.007623793,0.032515943,0.012509175,-0.028851278,-0.008175898,0.012031959,-0.033280313,0.006105349,-0.024013983,0.002745301,0.015998665,-0.039674275,-0.059830189,0.039484382,-0.037477180,0.028779007,-0.055229709,-0.009083136,0.008828780,0.035023596,-0.019237997,0.006018281,0.022389369,0.033636685,-0.032682575,-0.014649498,0.013028060,-0.001593322,-0.030179186,-0.037639767,-0.025796665,-0.039813105,-0.015716895,-0.018519918,-0.042105101,0.006442504,0.017819455,-0.021085538,0.481773645,-0.000551310,0.021264704,-0.025252886,0.002123215,0.041742697,0.032093551,-0.042228200,-0.006881882,-0.001731095,-0.017667545,-0.026462130,-0.017655987,0.029715884,-0.008741586,-0.039864209,0.012567229,-0.027449531,0.012373825,0.026600825,-0.020714851,0.023649549,0.000461727,0.024589410,0.035438474,0.012858887,0.001351289,-0.038004335,0.017806001,0.026380127,-0.016243931,-0.044405743,0.037054554,-0.010497360,0.012124066,-0.012047959,0.025891649,0.039016347,0.028108448,-0.035241764,0.404787391,0.021820977,0.000440792,-0.035255805,-0.019203046,-0.043474767,0.030259689,0.044770155,0.025541797,0.014289343,0.013179425,0.017026467,-0.025138181,0.086894587,-0.063438483,-0.004931134,0.002997048,0.009900083,0.222470924,0.001206847,-0.021371981,-0.039516024,-0.010173100,-0.041264195,0.014541417,-0.025271917,-0.031118277,-0.009279505,-0.036970057,0.036977682,0.030783838,-0.070302136,0.009072653,0.022878330,0.071320727,-0.003626358,-0.043669894,0.033769090,-0.038338482,-0.009579468,0.002774133,-0.014728623,-0.026233733,-0.032765917,-0.004289715,-0.005077890,0.036874916,-0.011887375,0.034565810,0.004728003,-0.023302274,-0.010635572,-0.004119138,-0.000592967,-0.026791207,0.043091126,0.072184280,0.007391490,0.026491160,0.008594005,0.006750010,0.019724933,0.023507876,0.052566558,-0.040214177,0.014953550,-0.048631262,-0.006104672,-0.017241964,0.060171142,0.021562226,-0.037797600,0.024902387,0.030837601,-0.140822649,0.048495352,0.025262399,0.002499066,0.033819564,-0.004959178,0.012444266,0.011195508,0.014482705,0.015573096,0.016015342,-0.030026119,0.014628517,0.025519937,-0.015179229,-0.004082021,0.032399613,-0.058843400,-0.019723380,-0.018006027,0.239070848,-0.043255474,0.000333544,-0.042105824,0.532063365,0.018623337,0.064900786,0.050670605,0.000865824,-0.022800297,0.008572379,0.019042309,-0.003837889,0.038257957,-0.028304869,0.032172345,0.025394386,0.024181494,0.000233606,0.016614862,-0.034226686,-0.050104428,-0.000895263,-0.005605066,0.037891276,0.032473378,0.030323215,-0.020041736,-0.041639939,-0.041227698,0.016185144,-0.039325066,-0.042852338,-0.017868249,-0.036509886,-0.017624142,-0.007910192,-0.023060191,0.036500532,-0.005955296,0.040481411,-0.010536546,-0.005616885,-0.004643018,-0.031968046,-0.036032394,0.030966045,-0.146082386,-0.043602418,0.041459437,-0.006096520,-0.029925320,-0.029621443,-0.031626895,-0.029788176,0.034495071,0.049232956,-0.000698465,-0.038114868,-0.002204942,-0.013214133,0.021904655,-0.029555205,-0.009570125,-0.014497642,0.045174781,0.024207201,0.009796643,-0.001632170,-0.004984058,0.000871529,-0.016509941,0.022107890,-0.007761998,0.021302948,-0.025070701,0.001551461,0.016000483,-0.041380167,0.020276181,-0.026922515,0.007162537,-0.013275254,0.025635323,0.044832800,-0.062818401,-0.002687664,-0.021738742,0.017681660,-0.026391320,0.021211240,-0.019383471,0.028698944,0.487902611,0.027422465,0.041782793,0.029595234,-0.046580452,0.036267817,-0.046308376,0.022633782,-0.005834229,-0.015016849,-0.021001395,0.025581462,-0.022690093,-0.007437851,0.007441260,0.048016183,-0.038511980,-0.031376380,-0.016198670,0.034178317,-0.032275286,0.027775513,0.034591556,-0.018536886,-0.018030861,-0.032174170,0.006975712,-0.050154984,0.342595518,0.016949065,0.020992463,-0.010027800,0.006008130,0.009444442,-0.008990977,0.028300235,-0.023204448,0.035805751,-0.004251646,-0.010364726,-0.039522134,-0.029849730,0.001391134,-0.005940740,-0.022484999,0.025170276,-0.006415432,0.015727973,0.037667297,-0.023365859,-0.011347221,-0.015562102,0.000155242,-0.019309929,-0.010294229,0.001834319,0.020060262,0.022303823,0.029554216,0.003172465,-0.044347320,0.012844838,0.000490694,-0.005869088,0.018519657,-0.034180768,-0.037160248,-0.002410673,-0.011167508,-0.017098777,-0.037844811,0.027513403,-0.000678904,-0.024027677,-0.043082628,0.010774820,-0.029404191,0.005982527,0.001339778,0.015234901,0.014075903,-0.034644406,0.022331581,0.035565652,0.002879137,0.226747021,-0.018492606,0.008882971,0.013067511,-0.020656003,0.054196402,-0.037926521,-0.012445278,-0.024945015,-0.032121155,-0.020940796,-0.041289773,0.014765664,-0.008846633,-0.042642195,-0.014263191,-0.008765644,0.026207535,-0.032908589,-0.009477627,0.014502281,0.006474083,-0.033419341,0.010968660,0.041238647,-0.012108242,0.030479616,0.045134746,0.086969800,0.057797596,0.025332388,-0.006975957,0.034243289,0.061465949,0.034045618,0.004414157,-0.027785195,0.037140753,0.013300325,0.037801787,0.035077184,0.023747364,0.030827405,0.308184594,-0.008992074,0.009420368,-0.079856947,0.001527826,-0.013841394,0.002827477,-0.032429889,0.066732608,-0.023367377,0.018604403,0.029451717,-0.032155029,0.041429505,-0.033245146,0.003766880,0.006931606,-0.014181268,0.031087397,-0.021066478,-0.000955060,-0.029233692,-0.020747550,0.044844814,0.029685896,0.004097166,0.011712295,-0.039432760,0.029509244,-0.005368360,-0.019199992,-0.035314035,0.036473934,0.019722611,0.026936969,-0.027333522,-0.028540809,0.020105435,0.005157677,0.015499443,-0.000596943,-0.018176993,0.036713187,0.009428411,-0.018236483,0.009937117,-0.000894005,-0.000216787,0.034911893,-0.034139521,0.042930204,0.030099975,0.002560245,-0.242648453,0.003375008,-0.027877659,0.022391124,-0.011443856,0.011397937,-0.047376286,0.022953345,0.028837474,0.051836494,0.003615753,0.026405165,0.030403629,0.003751031,0.025236614,-0.039127976,0.028321413,-0.016886268,-0.111745380,0.032888278,-0.026332993,0.008312574,0.027993150,0.094554193,0.025110533,-0.007807859,-0.040957674,-0.042931825,0.014057243,-0.000616863,-0.082689665,0.019531284,0.045600191,-0.000568089,-0.134814650,-0.004559185,-0.025756853,0.032050610,-0.029299801,0.029076695,-0.016016709,-0.013057604,-0.035953589,
-0.009784512,
