// Neural Network File Format by Kyle Julian, Stanford 2016
3,2,1,50,
2,50,50,1,
0,
0.0,0.0,
0.0,0.0,
0.0,0.0,0.0,
0.0,0.0,0.0,
-0.274644405,0.522619545,
-0.191083193,-0.986554086,
-0.272345245,0.189615890,
-0.680362284,1.376494408,
-0.062751517,0.187109336,
-0.213696912,-0.138992712,
-0.675533414,-0.468304157,
-0.291485757,0.026193760,
0.143695921,1.029830933,
-0.443726391,-0.200964928,
0.345300347,1.383347034,
-0.378002405,1.011155009,
-0.113973841,0.074821867,
0.934025764,-0.958431125,
-1.040831685,-0.529419243,
-0.275630176,0.610940814,
-0.458332211,-0.325504482,
-2.611300468,0.044735350,
-0.431073546,1.321325541,
-0.049804755,0.323489696,
0.059160076,-0.760772347,
0.516875148,-0.864726067,
-0.510931492,-0.364534736,
0.235753581,0.741689563,
-0.313598335,-0.025514100,
0.479215115,1.168832183,
1.889930129,0.554085433,
1.469293594,-0.669911087,
0.131765127,-0.548223794,
-0.490085900,-0.365279734,
0.362384558,0.515954018,
-0.495297760,0.940113187,
0.388181835,-0.089249156,
-0.082276508,0.743440211,
0.164859802,0.956995428,
-0.544913113,-0.259133220,
0.217712834,0.990263581,
0.742081702,0.815485477,
0.512673438,-1.176416159,
-0.000913307,-0.452120930,
-0.883699119,1.261279225,
0.856873810,-1.024552822,
-0.063457742,-0.459730953,
-0.116362303,-0.323682994,
0.271922261,-0.418821812,
0.072309814,1.409003139,
0.293106437,-0.165476844,
-0.699848473,-0.458697975,
0.747111678,0.762201667,
-0.551602662,-0.407165855,
0.474519432,
0.925708830,
-0.308316320,
-0.238958314,
-0.673588574,
-0.012709634,
-0.532493055,
-0.545431554,
-0.027462142,
0.562078476,
-0.335752815,
0.371083111,
-0.430302113,
0.654573619,
1.100648165,
-0.596291065,
-0.175987795,
0.689751148,
0.303237200,
0.026411556,
0.544516802,
0.345469266,
-0.345017731,
0.250599682,
-0.678291380,
-0.053437050,
-0.605938137,
-0.778319061,
-0.247369543,
-0.579560041,
-0.077112898,
0.354675323,
-0.460655868,
0.057001356,
0.434996873,
-0.072690755,
-0.037651170,
-0.065734476,
0.633631647,
0.458639383,
0.738974571,
0.559364319,
0.500796080,
-0.051139131,
-0.635209203,
-0.793828964,
0.206669450,
-0.004583807,
-0.582462907,
-0.541864216,
-0.132350311,-0.119361043,-0.028685451,0.077555545,0.076458193,-0.136391267,0.088216104,-0.110663556,-0.029904392,-0.057344351,-0.027245240,-0.027778337,-0.126904458,-0.122108676,-0.022137422,0.001828887,-0.064244173,0.053271782,-0.127289459,-0.009546738,0.124368697,-0.057684641,0.127703935,0.051209539,-0.127627254,0.089474626,-0.016319243,-0.063131467,0.113088056,-0.114281930,0.015172249,-0.029619243,0.100990780,0.039474338,0.067946821,0.049944218,-0.034012388,-0.029747134,-0.116542719,0.076628260,0.112273619,0.096764013,-0.099755660,0.006307377,-0.099692747,-0.077850223,-0.082407095,0.048330046,-0.084274851,-0.003085419,
0.019272415,0.653530955,-0.106903248,-0.512313068,-0.082117945,0.098985538,-0.050836030,0.119287319,0.130129457,0.537027717,0.347182304,0.075637169,0.017743621,-0.285761982,0.515086830,0.018044382,-0.110620514,-1.222457647,0.338607073,-0.151923001,0.342770845,0.193957716,0.051086634,-0.025451144,-0.122557156,0.030043395,0.113153726,3.275076151,-0.047449175,-0.020942720,-0.008251939,0.371378094,0.017654877,0.259012252,0.081374794,-0.089408562,0.110548213,-0.131432116,0.380951762,-0.068011694,0.216702357,-0.199214101,-0.082580082,0.000226396,0.072807051,-0.728744566,0.033347111,-0.116944492,0.381493479,-0.024044003,
-0.085360818,0.546712756,0.116943970,-0.036803275,-0.083961025,-0.052303113,-0.140169546,0.063836746,-0.012714812,0.417280376,0.305199176,0.160281479,0.074893035,-0.168623030,0.542894602,-0.047229037,-0.039519940,-1.082341909,0.321900636,-0.022749770,0.251694739,-0.033371046,-0.133709520,-0.021443341,-0.079363197,-0.151275903,0.333425999,3.250683069,-0.016088312,0.040516306,-0.020174656,0.137983471,-0.114313960,0.234418452,-0.006323069,0.117326632,-0.023100749,-0.010570574,0.347684026,-0.135875344,0.061002541,-0.282643110,-0.014331680,-0.002917321,-0.031805970,-0.550377846,0.006301933,-0.105277471,0.469582319,-0.047553431,
-0.072264753,-0.062989250,-0.073462315,-0.270682752,0.027772447,-0.105003871,0.023546450,0.060235485,0.047006417,-0.050002076,-0.145138964,-0.028080903,0.049116727,-0.047812186,0.067600377,0.094181336,-0.073843390,-0.141712874,0.049809229,0.006560443,0.027589560,0.024055488,-0.111178078,0.005606722,0.097930029,0.114189886,0.064239100,-0.363962442,0.066045783,-0.068798617,-0.123243347,-0.124907106,0.141083330,0.086739875,-0.104299031,0.055330064,0.098300263,0.132368892,0.026172081,0.119223773,-0.038374171,-0.041635189,0.116550684,0.079249650,-0.085104406,0.087905049,0.064159833,0.077093802,-0.191885605,0.040573761,
0.116803430,0.745896816,-0.025447443,-9.997262001,0.025119523,0.060170293,-0.048058875,0.068953007,-0.086433873,0.609472096,-0.894808710,-0.075505286,-0.113569237,0.525848329,-0.168845028,0.132683754,0.113295659,-1.836199999,-0.582690537,0.172092602,0.377908379,1.148536563,-0.106915653,0.120443806,-0.136625960,-0.195078626,0.472596645,-2.064245939,0.101234749,0.109195292,0.239073634,-0.560041785,0.062225696,0.210644588,0.200239047,0.141375586,0.138948247,0.196143061,0.877395272,0.402111799,-0.004813763,0.458582461,0.085941657,-0.079353869,-0.108821027,3.963314056,0.293494433,-0.016095545,-0.970363736,0.109305345,
0.090437397,0.010512419,-0.066770017,0.129972994,0.057832949,-0.107359372,0.135351971,0.107391678,-0.051546793,0.079500660,-0.080354065,-0.022162752,0.120081045,0.005843408,-0.100015759,-0.047267675,-0.038388144,-0.027284253,0.013534112,0.130790666,0.007571749,-0.087319203,0.007248449,0.067809731,0.070150688,-0.129250437,-0.025306284,-0.105096512,-0.060342453,0.050953183,-0.100427583,0.052570120,0.120035358,0.009275595,-0.094255596,-0.050669145,0.030881351,-0.107808053,0.070259593,-0.128392160,-0.135947421,-0.137413561,-0.028689209,0.095096380,-0.133852348,0.117547616,-0.056571778,0.041420069,0.006449227,-0.127522349,
0.085539259,0.044394411,0.140572220,0.071447797,-0.093347855,0.118027970,0.007600611,0.067064337,-0.144766465,-0.072418056,-0.138858467,-0.086816318,0.030508993,-0.142792150,0.013331809,0.075915955,0.019701310,-0.094622679,-0.141346201,-0.075345293,0.030333875,0.107754715,0.081321388,-0.047665223,0.049584657,-0.170309186,-0.120788172,0.065988332,-0.080103211,0.068037204,-0.131259054,-0.101760060,-0.116487220,0.042276602,-0.046156846,0.108838037,0.055943955,0.046557698,-0.027202064,-0.075466387,-0.062495835,-0.012956191,0.038361359,-0.099078380,0.118691817,-0.015376756,-0.150246233,-0.076517135,0.125132129,0.129333675,
-0.130995736,0.099744245,0.070874617,0.083709918,0.119717322,-0.076219089,0.044657439,0.057874318,-0.041789073,0.047327101,-0.040688824,0.087435357,-0.039238010,-0.052721277,0.035602693,0.050161261,-0.069094464,0.012501413,0.081958733,-0.014070962,0.043039318,-0.034108993,0.049568135,-0.102444813,-0.083159834,-0.071784146,0.129967764,-0.038054239,-0.000386133,-0.068518020,0.141179547,0.138122022,-0.106658101,-0.114646040,-0.107196398,-0.000682037,-0.036048859,-0.092566743,-0.050723903,0.026718860,-0.073891349,0.031336505,-0.032430165,-0.068527609,0.019429242,0.116284877,-0.095612049,0.006566816,-0.052151635,0.138777673,
-0.165365681,-0.164404199,0.139354482,-0.089475878,0.027113777,-0.012205525,-0.029791400,-0.031586148,0.058577150,-0.008257217,-0.169033676,-0.114727415,-0.048210584,0.039792053,-0.091518529,0.133348972,-0.031498685,-0.025393900,0.079553075,0.040444937,0.090933405,0.051319666,-0.042900722,-0.125235111,-0.010522180,0.085602626,-0.078981243,-0.161089718,0.057972640,0.137669653,-0.071432360,-0.148091286,-0.128277615,0.004509296,-0.042181920,-0.071415983,-0.002732423,0.022249516,0.081680588,0.080151819,-0.052434184,-0.155952290,-0.157095343,0.132043660,0.062516056,0.031965859,-0.153379589,0.130958408,0.102844112,0.127683729,
-0.119300939,-0.053361587,-0.097264498,0.133921161,-0.060765930,-0.064566568,0.074092478,-0.065420441,-0.069653146,-0.012370337,-0.013593354,-0.110164195,0.117898479,-0.062384032,0.050164260,0.123005986,0.071321122,0.020022418,0.120329358,0.019010741,-0.065429531,0.133784533,0.033471681,-0.137982115,-0.040261470,-0.096331634,0.123991601,-0.023355154,-0.128909096,-0.008890221,0.088814437,0.036741331,0.044718061,0.013134257,0.052724529,-0.034457594,-0.056257449,-0.132187754,-0.106537931,0.061292376,-0.083737478,0.020289224,0.045140490,0.010013182,-0.091690511,0.135245264,-0.082236446,0.116319157,-0.112501860,-0.034018695,
0.059785903,-0.070202284,0.118800022,-0.116069198,-0.118761629,-0.063769601,0.022860823,0.130214542,-0.085268885,0.041120734,-0.054392278,-0.047933578,0.103987612,-0.126305386,-0.000313542,0.132993951,-0.019433020,0.109804936,-0.061532840,0.096422955,-0.151897669,-0.026386933,-0.024840157,0.028378136,0.055483479,0.089663297,-0.039123975,-0.005608077,0.096846938,-0.038264822,0.105888970,-0.110945381,-0.015303184,-0.025930071,0.045734443,0.096686408,-0.040108774,-0.135026276,0.060330756,0.025920304,0.039649177,-0.103609443,0.074126095,0.133947954,0.012271325,-0.151080832,0.081939064,-0.104857050,0.014342994,0.020551041,
-0.272585541,0.409802407,-0.126491889,-7.222185612,-0.089654207,-0.015292412,0.018190866,0.120483145,-1.073554754,0.310344964,2.147522926,-0.540019751,-0.123149678,0.025842845,-0.090448789,-0.035270423,0.007063829,3.197680712,-0.883688748,-0.161390826,0.401224881,0.178260148,-0.022658080,-0.358478248,-0.080801345,-0.974779963,0.619866192,-0.792333305,0.085588843,-0.073322266,-0.514656842,-0.596997261,-0.031985313,-0.847004831,-0.392919600,0.120383643,-0.735584021,-0.611701131,0.504651129,0.054388694,-0.547867060,0.230759442,0.110350907,-0.040019985,0.066562355,-3.898787498,-0.043138593,-0.074184135,4.611716747,-0.044503164,
-0.138197377,-0.029929906,0.106410399,0.109162413,0.013194712,0.032120049,-0.061224371,0.106750838,-0.079370722,-0.124300055,0.009990321,0.060583111,-0.127504304,0.103036858,0.024652539,-0.099081613,-0.030463221,0.122953974,-0.132860094,-0.064723738,0.020664418,-0.155616462,0.077526942,0.049432278,0.087710313,-0.102870047,0.123879492,-0.083829142,0.141186669,-0.135720730,-0.142743587,0.059165046,0.014780361,-0.009152196,-0.102093160,-0.059322789,-0.063237540,-0.160191774,-0.019537659,-0.001150425,-0.025220275,0.020635612,0.109205134,0.037601683,-0.051770460,-0.058201496,-0.114968829,-0.098035954,-0.022775888,-0.025012571,
0.092701942,0.501510203,0.112741627,-0.250211835,0.000401946,0.127126485,0.140627295,-0.081920058,0.121282607,0.559932411,0.328279704,0.070049942,0.038304541,-0.335196435,0.542171061,0.061196517,-0.055729937,-1.009627700,0.231728807,0.044308774,0.492550731,0.024346992,0.076849520,-0.051683102,-0.020657841,-0.021235816,0.246947289,3.270861387,0.033147316,0.005328812,0.105515935,0.239525482,0.014181757,0.102711074,-0.106253609,0.057228595,0.082661897,-0.068566620,0.366115093,-0.056796748,0.159395128,-0.198879793,-0.013644503,0.053420037,0.061616756,-0.553663194,0.010461319,0.104359530,0.413663268,0.027675156,
0.115134180,0.491408110,-0.059707437,-8.199631691,0.061624866,-0.123081006,0.002267332,-0.065038420,0.107194543,0.552177608,-0.601266265,0.210213631,0.028615216,0.158587202,-0.301194340,-0.060436744,-0.011332597,-1.139954567,-0.106617048,0.128467202,0.206130564,0.450602084,-0.141398817,0.105061300,-0.004189178,0.017180521,0.216568589,-3.047794819,-0.083902813,-0.008818251,-0.027222212,-0.201394960,-0.102906540,0.177256480,0.171745181,0.075964637,0.125781178,-0.062665395,0.448310375,0.246488065,-0.028449569,0.315059960,0.106766991,0.099496089,-0.060583163,2.682933331,-0.034111582,-0.008979622,-1.200649261,0.042411484,
0.069717571,0.102952659,0.128659084,0.051105805,0.099427991,-0.018247563,-0.109749608,-0.052499447,-0.065211557,-0.123180963,0.019739123,0.000744185,0.022818608,-0.021108072,0.097939901,0.051510092,-0.124017969,-0.101030260,0.010305811,-0.031257484,0.040328410,-0.184351608,-0.130513445,0.034604173,0.090459563,-0.178777426,0.001408206,-0.110428050,0.107099496,0.044376671,0.090331107,-0.193870544,-0.136142969,0.042307235,0.074716680,0.086646035,0.043304227,-0.171970919,0.064243205,-0.173472062,-0.016022492,-0.148986086,-0.092331693,0.025041316,-0.055604052,-0.058165211,-0.189024791,-0.133342415,0.011108921,-0.059860617,
-0.099146508,-0.065294012,-0.115621656,-0.124337114,0.084622629,0.071876295,0.018837821,-0.077252783,0.034016851,0.006353385,-0.113289431,0.017594486,0.128770366,-0.152858019,-0.153079540,0.018119605,0.106493443,-0.086053453,0.019739736,0.086202085,0.029687358,0.014896587,0.141099766,0.078818813,-0.079539202,-0.000200856,0.059074733,0.124720842,-0.140704766,0.076580420,-0.054213535,-0.147929966,0.031391867,-0.088943139,0.006856903,-0.091817386,-0.119403929,-0.025289323,-0.063334949,0.068894312,-0.000296562,0.096418351,0.013135301,-0.045475643,0.095789440,-0.003510194,0.013161115,-0.045484308,-0.009955109,-0.027191529,
-0.024193520,-0.122872658,-0.000869726,-0.123390123,-0.030424092,0.081960216,-0.098337382,-0.095325321,-0.046571966,-0.038768411,0.014449953,0.011427943,0.071714282,-0.109720849,-0.022196181,0.079095729,0.122325450,-0.010316049,-0.087834574,0.028488487,0.068202734,-0.100503996,-0.082065888,0.050305985,-0.009908826,-0.143726394,-0.093567811,0.057351008,-0.047966689,0.097613133,0.099782191,0.020572552,-0.011182858,-0.053824257,-0.019317893,0.025741644,-0.120054893,-0.045950450,-0.130019546,0.074467145,-0.101929791,0.116874315,-0.048701372,-0.081016801,0.067946337,0.021082968,0.085701615,0.059039138,-0.136236772,0.089447655,
-0.048640206,-0.081519634,0.089810185,0.081936963,-0.124299578,-0.012787793,0.116136149,0.054770626,0.096857011,-0.058551706,-0.100623503,0.099787325,0.058947664,0.113297261,-0.079511791,-0.090801969,-0.016576407,-0.133159518,0.034037970,0.082043745,0.012150696,-0.039563950,0.070117608,-0.112256475,0.138344467,-0.163521543,-0.157750070,-0.033418104,0.115519255,0.014159925,0.031773414,-0.123745851,0.051574361,-0.038420584,0.034448486,0.099877782,0.039238460,-0.034808517,-0.030972615,-0.111177787,-0.072722308,0.069322355,-0.078862980,0.087828286,-0.056078088,-0.054502919,-0.019467810,-0.129777506,-0.021891568,-0.014254672,
-0.012704780,-0.028270725,0.111493386,0.104367152,-0.095849358,0.065694012,-0.110928454,-0.120395027,0.043229956,0.002078396,-0.065973967,-0.136401430,-0.054749314,0.047234666,-0.130899817,-0.137385964,0.017942488,-0.101880535,-0.123896465,-0.054487702,-0.022768959,-0.128510326,-0.094430961,0.009272695,-0.133356348,-0.019877398,-0.091316156,-0.098038562,0.055582982,-0.108850561,-0.107173942,0.080649987,0.026441028,0.128794253,-0.037801292,-0.068308651,-0.013088047,0.000715502,0.107854195,-0.140866980,-0.010069304,0.062558047,-0.077878341,-0.071861967,0.068344392,-0.135507852,0.033510607,-0.109486505,0.070295162,-0.120920986,
-0.163223907,-0.862335443,-0.118874095,-5.833073139,0.111438394,-0.121112630,-0.063082375,0.124207914,-0.102656417,-1.537825465,-0.423753649,-0.527691185,-0.071818314,0.404979259,-6.835966587,-0.103191726,0.022800941,-0.001625419,-0.979857028,-0.083333887,0.256126344,0.520620525,-0.101378232,-0.107452713,-0.043631196,0.071267188,0.619623065,1.883667827,-0.034043748,-0.085750870,0.151551858,-1.327635884,0.114258394,-0.376735270,-0.171855390,-0.115059033,-0.071954764,0.255162388,0.665549219,0.024193460,-0.991472363,0.462039798,0.132880211,0.115838781,-0.003922776,5.045921803,0.159284160,-0.048495449,1.812502027,-0.034851383,
0.042009249,0.109096810,0.131501421,-0.128702641,-0.093547449,-0.058473039,-0.090184547,0.135693803,-0.030592941,-0.111896940,-0.081021257,-0.096221857,0.057698414,-0.141464397,-0.149958253,-0.139407694,0.060885306,0.069926448,-0.087833852,0.016962096,0.086289518,0.002442351,-0.029922156,-0.007660209,-0.015164285,0.053106435,-0.114129230,0.053608719,0.079708412,-0.085683621,0.097375982,0.121171109,-0.055752359,-0.057712015,0.052369207,-0.110792384,0.037820637,0.014886470,0.071037218,-0.140947327,-0.135594979,0.045407455,0.032832682,-0.131630227,-0.078864969,-0.129397511,-0.119426660,-0.063809268,0.098974444,-0.028150050,
0.207891077,0.598645926,0.064450271,-2.730158091,0.071166441,0.053942997,0.109610826,-0.139502868,-0.058330860,1.044567704,-0.273304194,0.095207527,0.120727614,0.072071426,1.090768576,0.062490899,0.037065137,-1.072779894,0.173536703,0.117685415,0.348188072,0.612377763,-0.131792352,-0.046664186,-0.030247362,-0.360865444,0.569161296,3.404899359,0.091048911,0.096196137,-0.215611339,0.157247812,0.020650996,0.002938304,0.125021458,-0.056272518,-0.141783968,0.026685448,0.163026825,0.242199466,0.271551520,0.289665014,0.238007545,-0.028272968,-0.104351997,-7.395121098,0.145141304,-0.060414154,-0.172663018,-0.113237947,
-0.049493056,0.003053539,0.072683103,0.086270012,0.095771179,0.062253125,-0.064911529,-0.100995742,-0.155614465,-0.010765384,0.107719839,-0.056744874,-0.005953630,-0.129998237,0.018844813,0.089658789,-0.139429569,-0.099577919,0.074781604,0.004114043,-0.019323688,0.016983770,-0.021501975,-0.128901333,-0.132148340,0.063120663,-0.041641761,-0.052522089,-0.036502998,-0.077134468,-0.070172988,-0.150767654,0.105831772,0.029997004,-0.101632580,-0.048268985,0.033981811,-0.082244866,0.037291922,0.014210314,-0.119264305,0.013212622,-0.020603880,0.123515137,-0.051169075,-0.062934607,0.091820255,-0.115485020,-0.015058042,0.136259809,
-0.050575648,0.698139906,0.125488922,-0.204699010,-0.013494865,0.127934471,-0.061620027,-0.048409265,0.131737232,0.552054763,0.440789372,0.238167226,-0.088528231,-0.181507155,0.571475029,0.074609399,0.067058101,-1.185729265,0.114553176,0.074362911,0.272421926,0.140599996,-0.134724140,-0.055117603,0.001498911,-0.009538892,0.226832688,3.387752295,-0.015746502,0.034634713,0.129845902,0.165053517,-0.007721151,0.080239877,0.117848359,0.121062323,0.042415317,-0.082032941,0.347359776,-0.009342136,0.161765128,-0.176013470,0.042618476,0.123786770,0.111853495,-0.656973183,-0.029265285,-0.058641627,0.471658260,-0.012715166,
0.012242834,-0.097808257,-0.126391903,0.053255461,0.032864258,0.012284256,0.096052624,-0.059053943,0.050201871,-0.077889450,0.029302496,-0.032286290,0.099041156,0.123670511,0.122827806,0.006361730,0.083395198,-0.141299501,-0.082956955,0.025275281,0.000788702,-0.111026086,-0.062594734,-0.066051431,-0.140114933,0.013487464,0.096406102,0.057397757,-0.067193948,-0.129862323,-0.114095502,0.002623254,0.097285636,-0.057271771,-0.076953724,-0.075442135,-0.012242666,-0.134301469,-0.124796502,0.139213860,-0.067446120,-0.025507273,-0.037837673,-0.124239542,-0.024931615,0.043291442,-0.057425220,-0.006027353,-0.000676491,-0.140785649,
0.081252046,0.068519562,0.096421860,1.848964810,0.073901601,-0.132500842,-0.034985762,-0.028762883,0.023809407,0.283571750,0.013891709,0.001485964,-0.040835898,-0.294343740,-0.038654692,-0.119851246,0.082463384,1.492664814,0.149294868,-0.006428951,-0.134984270,-0.158755824,0.141169429,0.126501352,-0.073191144,0.052094728,-6.336621761,-3.380553246,0.118905187,0.047496315,0.172561646,0.124200188,0.002050276,-0.058239046,0.128973261,0.113444149,0.137327328,-0.039624240,0.303450584,-0.104577601,0.097091317,-0.156269446,-0.063008241,-0.124093845,-0.078415483,3.503184795,-0.079963207,-0.123033717,2.277163506,-0.003058310,
0.011048362,-0.060950164,0.048690502,2.921335459,-0.059512280,-0.029496221,-0.052346539,0.077493273,-0.164487734,0.281583577,1.539857626,-0.118921660,-0.081684895,-0.228149459,-0.066147536,-0.130960643,-0.026201230,0.239708140,-0.127507746,-0.146215692,0.018676929,0.586315751,-0.034842987,-0.169210985,0.088910215,0.172359988,-5.231776714,-2.798667908,-0.013124209,-0.051203147,-0.041173287,-0.104907788,0.119903892,-0.126688212,-0.131137580,-0.082491316,-0.162259445,-0.092225470,0.501636982,-0.094893910,0.046519566,-0.203506067,-0.095816925,0.127374783,-0.024590680,2.597359180,-0.106164888,-0.105902664,0.838838279,0.052639224,
-0.061199941,0.034013402,0.139194727,0.048038069,-0.013235595,0.035348967,-0.081479035,-0.118829742,-0.106306374,-0.118667021,0.029022422,0.027546506,-0.060099553,-0.138331398,0.076608628,-0.080243796,-0.023609973,-0.118579254,-0.079784021,0.058995325,-0.131766096,-0.080644071,0.106027871,-0.072527766,-0.058853339,-0.039707407,0.060451850,-0.092768118,0.014179667,0.057756864,-0.010266231,0.025571624,-0.107882939,0.063936517,0.052853331,-0.017738784,-0.116937131,0.056565087,0.092283309,-0.024735717,0.066657215,0.052419119,-0.056563955,-0.009817518,0.140776262,0.000667657,-0.112587452,-0.010313621,0.070356093,-0.046163276,
-0.036375768,0.686493754,0.074813560,0.184444040,0.007225066,-0.014957108,0.032833170,0.005026046,0.011595883,0.588391423,0.434684098,0.133883163,-0.053893968,-0.191611066,0.419766963,0.042274117,0.076635301,-1.102011681,0.138444155,-0.016032860,0.360186726,-0.053854108,-0.100026645,0.126032427,0.105757542,0.106973000,0.359486550,3.396637201,0.079590350,0.093666434,-0.013266573,0.257291555,0.100839995,0.166578695,-0.073774748,-0.109657966,0.145962149,0.109371617,0.528626263,-0.058913141,0.290982336,-0.413340151,-0.114115290,-0.136079937,0.113941245,-0.356203467,-0.108352691,0.047853213,0.419067651,-0.090699770,
0.033824615,0.001081019,-0.101274446,-0.109088168,0.066308193,0.107533522,0.011512699,-0.071033828,0.049332969,-0.025948517,-0.140383035,-0.112248763,0.030953860,0.066689074,-0.067897439,0.068381965,-0.087584056,0.079970472,0.079497412,0.006506336,0.041216370,0.025237093,-0.083452351,-0.021619236,0.037711486,-0.048353154,0.119986989,-0.054537233,-0.126299128,-0.067327335,-0.148513407,0.092662588,-0.063485362,-0.118000373,-0.035570584,-0.095290907,-0.093302600,0.052592710,-0.127886653,0.044943646,0.081857637,-0.021236818,0.041848969,-0.079218395,0.110282749,0.124040924,0.013076844,0.128873870,-0.152268901,-0.015528181,
0.053975124,-0.622493446,0.068820126,0.726253033,-0.051149637,-0.112205736,0.057815567,-0.102902010,-0.081190526,-0.360267639,-0.031554699,-0.041079972,-0.052756209,0.306286752,-0.379498214,0.026238995,0.119049072,0.808156192,-0.057698470,-0.030386193,-0.066254862,0.163472190,-0.037856318,0.078070506,-0.026521007,0.165707856,0.123791285,-3.447437763,0.043697383,-0.113660954,0.127622128,-0.093400262,0.095358059,0.134162039,0.121664859,-0.011700489,0.030153139,0.024423935,-0.083562933,0.291127324,-0.244416565,0.565354109,0.112624966,-0.006286489,-0.038704935,0.731448472,0.144707739,-0.069040433,-0.449579149,-0.072846986,
-0.000436315,0.663180947,0.104037374,0.210086495,-0.005430200,-0.040816527,-0.075655974,-0.024868581,0.037026446,0.633511961,0.371873140,0.135823548,-0.079806104,-0.280211270,0.637742281,-0.069428861,-0.008503751,-0.947496593,0.286429554,-0.097931653,0.264504641,0.009376557,-0.044285990,0.046673499,-0.031441484,0.145910099,0.177361056,3.298885584,0.051488735,0.112946831,0.145933121,0.287044764,0.005961065,0.094500311,0.087722011,-0.081974767,0.019033894,-0.136277288,0.259064943,-0.011213207,0.192728058,-0.178965107,0.090890251,0.074211314,0.056596022,-0.348622918,0.022159860,0.068004973,0.544911206,-0.004082394,
0.044297885,0.570988834,-0.102633096,-0.304330885,-0.103965253,0.068617836,-0.084260203,-0.046195358,0.021813843,0.642301619,0.268598199,0.186384216,0.070927098,-0.147266194,0.566680372,0.077095680,0.111793593,-1.103746295,0.284561485,-0.138968676,0.321991146,0.069778882,0.017134381,-0.070121907,-0.140196338,-0.060862619,0.280185819,3.463746548,-0.127707615,0.067519441,-0.133951887,0.131242931,-0.088564359,0.125605091,0.043858539,-0.107552521,0.165694475,0.105425946,0.452012420,0.012678657,0.117584527,-0.356508881,-0.047634881,0.015452451,-0.098653607,-0.673074603,-0.004606114,0.040775560,0.543460429,-0.057659321,
0.020800719,-0.087283835,0.069812581,-0.033231691,0.104836784,0.078569286,0.117711738,0.072675802,-0.023042016,0.099569768,-0.110939272,0.104586922,0.138195127,0.105258159,-0.094756581,-0.074933276,0.008947490,0.044038299,0.042389985,0.028499011,0.090822749,-0.072275840,-0.046396602,0.017798105,0.039409496,-0.111255959,-0.013599638,-0.107374139,-0.041488670,-0.055504080,0.095976561,-0.156525522,-0.083498709,-0.168502063,0.006508613,-0.108850464,0.017113376,-0.127770826,-0.120896585,-0.102795415,-0.007796024,0.099869229,0.102885462,-0.010684345,-0.138521776,-0.071766630,-0.083576411,-0.030079719,0.031262122,0.071168177,
0.042316258,0.031395018,-0.057251319,-0.024135755,0.017998340,-0.072236665,-0.012651035,-0.017653478,-0.155169308,0.095872737,-0.038151667,-0.142689750,0.111888848,-0.096268564,0.034587789,0.140249342,0.006546754,0.040687438,0.035216585,0.085840575,-0.060176019,-0.086924210,-0.011067189,0.089386784,0.012159670,0.074029520,-0.025372295,0.043390926,0.004917543,0.003839022,-0.156966850,-0.140202790,0.011756375,0.047127087,0.074074917,0.006136160,0.038188547,0.037179723,-0.132727832,-0.143811226,-0.129620165,-0.017410619,-0.109566793,-0.045256682,-0.021158630,0.028924137,0.011750909,0.131193176,0.102125674,-0.090220712,
-0.012668131,0.000831046,0.123460636,-0.073950410,-0.055578899,-0.089584246,0.104207903,-0.040065758,-0.061056282,0.054707501,0.124230459,-0.019487420,-0.099688783,0.111557156,-0.109024435,-0.065170474,-0.099422596,-0.028356003,-0.128936112,-0.091524325,-0.142615214,-0.029760979,0.056862019,-0.114079438,-0.000197500,-0.057245348,0.072412267,0.165976495,-0.018747240,-0.071177334,-0.113104790,-0.104845628,0.040831614,0.017823810,0.068960585,-0.021013729,0.065726146,-0.129190296,0.033563863,0.119611166,-0.158395305,-0.076126479,0.070162199,-0.022111047,-0.075383723,0.056577586,0.002353104,0.005539057,-0.039403986,0.106552444,
0.086296052,-1.597079039,0.021582525,-0.034455948,0.088106915,-0.058011245,-0.015494329,0.062087167,-0.083786964,-0.207616076,0.075363532,0.002402424,-0.101584733,0.593152642,0.239035025,0.017048283,-0.014174374,2.824689865,-0.129150435,-0.032404918,-1.741849184,-0.357719511,0.003670485,-0.003791960,0.031506557,0.195956528,0.047914971,-7.731934547,-0.038688160,0.093535244,0.043921255,0.109223440,-0.056169748,0.003976844,0.006443601,0.065979682,0.057343267,0.015398580,-2.901803732,0.462625414,-0.142784327,0.835803688,0.462531924,0.138726041,0.068814307,-0.355110586,0.250157207,-0.059137866,0.164637953,-0.040840484,
-0.067035742,0.611311018,0.013433584,0.187556773,-0.014357426,-0.002804080,0.121259004,0.126242086,-0.024008963,0.600822926,0.490348130,0.165477082,-0.019280195,-0.204500884,0.554622412,0.137645245,-0.135542169,-1.149432659,0.140805185,-0.096701428,0.371302873,0.144996449,-0.106944814,0.074540637,0.118129566,-0.047914442,0.274382263,3.264252424,0.030290570,-0.065566167,-0.045976311,0.167537376,-0.117931284,0.268655121,-0.012681248,-0.003923332,-0.015631126,0.078854404,0.309676468,-0.151373804,0.069458239,-0.414267331,0.100430742,-0.109204970,-0.019524410,-0.381322771,-0.004075581,0.037825838,0.368124217,0.127006903,
-0.190796599,-0.038934380,-0.011814891,-0.032773070,0.096373968,0.119404420,0.018422034,-0.049949884,0.054936167,0.044093456,0.010991574,-0.088379666,0.005962313,0.075794645,-0.034809522,-0.027869217,-0.119735137,-0.075785249,0.102139436,-0.055580705,-0.060886491,0.002512229,-0.093044937,-0.059395794,-0.039775383,0.021660971,0.062381554,0.035560694,0.105437495,-0.126388535,-0.101917483,0.002667506,-0.120116904,-0.008404057,-0.142531097,0.060600813,0.064044029,-0.171213523,0.066552222,0.015647111,-0.142174542,0.084900342,-0.172323048,-0.095207646,-0.070349447,-0.007161357,-0.024610525,-0.041503016,-0.163895562,-0.016324487,
0.122378945,0.672615886,0.070794404,-0.238487527,0.035139617,-0.109023079,0.057267100,-0.140747607,0.021154366,0.492846608,0.471484751,0.100978583,-0.064418748,-0.227660432,0.402365506,-0.037442353,0.039166950,-1.139719844,0.213523760,0.050371140,0.244081393,-0.015279367,0.136891842,0.000637451,-0.022897676,0.048659235,0.307144493,3.308396816,-0.058907844,-0.023116400,0.045568474,0.240195647,0.082307316,0.023671038,-0.073108800,0.107811123,0.066801041,-0.000972168,0.475755632,-0.139331639,0.116215900,-0.264565140,-0.071330689,-0.058420863,0.018684255,-0.513993502,-0.079633221,-0.095642596,0.370670915,-0.080147378,
0.074432433,-0.093705751,0.112760372,0.056326468,-0.121101521,0.104948930,-0.139856696,-0.008222412,-0.088297434,-0.121661298,0.014012024,-0.068569385,0.102224424,-0.111172721,0.117382959,0.085319087,0.123865291,-0.041412719,-0.086684927,-0.093955413,0.117601834,-0.070339553,-0.017412852,-0.021798199,0.024329809,-0.116047442,0.114033595,-0.104643114,0.139096305,-0.055335950,-0.063133642,-0.019438718,0.041854519,-0.026203219,-0.141145363,0.099473476,0.140076205,0.071351148,0.138384521,0.038544443,-0.011081738,-0.112641454,-0.123602971,-0.097368173,-0.035881855,0.082350649,-0.058348183,-0.005492696,-0.001995889,-0.092444159,
0.125182167,-1.384556055,0.113031663,0.994999588,-0.013947876,0.002508109,0.077313170,-0.047040503,0.069268256,-0.169626683,0.492499709,0.074689806,0.119162381,0.127690256,0.325889587,-0.122825883,0.026243798,2.011169195,0.446058691,0.017326862,-1.595122695,-1.128904581,0.040277604,0.114326485,0.003121396,0.472596437,-0.766487062,-9.392266273,0.054001477,0.037730601,0.135196626,0.446305066,-0.018767234,0.112465225,0.147149101,-0.108520910,0.000466757,0.162156463,-4.104599953,0.183732346,0.274338782,0.188415289,0.391951561,0.018538006,0.035012435,-0.200609237,0.133091897,0.051855784,-0.020902762,-0.133998439,
-0.084376991,-0.145332471,-0.056383889,0.059090842,-0.133997008,-0.126716107,0.081886224,-0.083514556,0.076730840,0.033979747,0.006518511,0.086838432,-0.130997926,0.078331836,0.024085691,-0.094767816,0.034409516,-0.039414067,-0.083210334,-0.041389614,-0.089448176,0.102120399,0.121721670,-0.041416202,-0.125409171,-0.038155101,-0.018926304,0.094529010,0.004550106,0.041160125,0.010043740,-0.103865333,-0.087721787,-0.155269817,-0.027094983,0.043802362,-0.036582708,0.110080607,-0.046989031,-0.117241487,-0.001646733,-0.064769924,-0.044675458,0.137030214,-0.004057730,0.094744049,-0.007255133,-0.052611828,0.077461101,-0.080557689,
0.033251431,0.601681411,0.063474745,-0.155901626,0.006937523,-0.036616780,0.091692850,0.047580354,0.147402227,0.633635104,0.362759680,0.107033782,0.113455795,-0.348059297,0.424168468,0.010345686,-0.056020901,-1.112477183,0.362904429,-0.038581733,0.238727704,-0.000548772,0.129876688,-0.043712050,-0.062010139,0.067898981,0.264005810,3.194172144,0.117773823,0.079637870,0.134115890,0.328526616,-0.047680765,0.108580753,0.078833319,-0.027415076,0.088016771,-0.151420951,0.366229355,-0.037149217,0.175959155,-0.355299711,-0.142433330,0.089881748,-0.028434020,-0.607919693,0.085697338,0.068819404,0.326194882,-0.103213742,
0.100830674,-0.039695524,-0.085053980,0.050379500,-0.029457934,0.009687791,-0.073671147,-0.119783156,-0.128098056,-0.059756789,-0.137359381,0.103503712,0.001530622,-0.089540198,0.020288490,-0.125379771,-0.072335914,0.053118013,-0.159756437,0.035066377,-0.021817207,-0.154044509,-0.140351117,0.008134092,0.066845395,-0.065728046,-0.157685980,-0.081507690,0.015030747,0.005145052,0.002451729,-0.017488945,-0.007412788,0.031720575,0.101475663,0.117777653,0.093175650,-0.084313199,-0.077917270,-0.053007126,0.004606953,0.022120362,-0.048876103,-0.091347769,-0.106702425,0.106451392,-0.074495599,-0.019115755,-0.112103581,-0.070111036,
0.012170274,0.037653491,-0.055907190,-0.066627681,0.112028234,-0.072834358,-0.105512328,-0.022063944,0.116949707,0.013337255,0.003704658,-0.036235739,0.088372625,-0.089539997,0.075895861,0.033409961,0.015723675,0.019468961,-0.105182044,0.086580455,0.054142039,-0.133490905,-0.131674841,-0.055191498,0.093953587,-0.085640565,0.114875935,-0.071103238,-0.127746254,0.062209494,-0.102178395,-0.042136360,-0.044109881,-0.027567934,-0.141866520,-0.129711851,0.042909637,-0.034193967,-0.106748775,-0.023659188,-0.148007780,0.017847927,0.047934599,0.137152776,-0.115212172,-0.031325262,0.057808660,0.129607126,-0.113898404,0.060098745,
0.058387801,0.085258812,-0.097498171,0.100920618,-0.061598010,-0.087051742,0.028080221,0.119803719,-0.093652271,0.075506002,-0.016196378,0.045146983,0.110318623,0.038398765,-0.117401853,-0.042578571,0.028068909,-0.119301699,0.023511266,-0.075938880,-0.028111342,0.050592221,-0.113818698,-0.090794548,0.064502887,-0.139871478,0.097324528,-0.109047070,-0.002277144,0.029031510,0.055803794,-0.087775670,0.019031478,0.060894243,0.121298447,-0.106426559,-0.070310742,0.041198343,-0.004540008,-0.095434971,-0.119027391,-0.125572175,-0.098959342,-0.060212776,-0.098202921,-0.124061480,0.011039204,0.082937449,-0.066678323,0.014141819,
0.022438236,0.628286123,-0.098076679,0.157245651,0.132001996,0.100963339,-0.140165091,-0.021289503,0.086293273,0.504371881,0.326707363,0.013565177,0.093969874,-0.287200570,0.516314983,0.041497383,-0.086803041,-1.079449177,0.320907742,-0.111298881,0.391747564,0.054958202,0.077758543,0.075962916,0.037519883,0.017973907,0.126347825,3.410140753,0.086219795,-0.051367823,-0.133474231,0.378892362,-0.033195566,0.182397291,-0.034852691,0.090188526,0.192617565,0.068277456,0.361213565,0.003975356,0.249836206,-0.282721251,-0.138958082,-0.060725369,-0.139920413,-0.292513072,0.083199494,0.082379915,0.506252408,0.033423718,
0.140765727,0.468437195,-0.047478747,0.038431127,-0.014004050,0.009700873,0.038712692,-0.098384604,0.049588379,0.415569544,0.294695765,0.110524133,-0.138048783,-0.221144378,0.374107242,-0.098404638,-0.029344374,-1.238473535,0.331419766,0.068428293,0.257101715,0.074912526,0.072347634,0.007589709,-0.018944217,-0.135525614,0.331114262,3.211640120,-0.026191199,0.008772580,-0.057462070,0.192392930,-0.122226305,0.143459618,-0.030822739,0.123291492,-0.010876522,0.070119694,0.390016437,-0.174508601,0.127179086,-0.328849286,-0.040005002,-0.023299538,0.041970052,-0.270371497,-0.053161733,0.051224623,0.529887497,0.030483637,
0.065184519,
0.000648904,
0.037647069,
-0.131556034,
0.280436546,
-0.006408007,
-0.057152729,
-0.054523882,
0.053621151,
0.129370481,
-0.132383063,
0.052307807,
0.072688811,
-0.029814303,
0.127686962,
0.059673108,
-0.009091638,
-0.047506168,
-0.032553975,
0.045372922,
-0.136348575,
-0.025738962,
0.256332427,
0.008486135,
-0.188502148,
0.035238914,
0.021667248,
-0.076795578,
-0.012908485,
0.066099659,
-0.144584596,
0.071417414,
-0.114666559,
0.058345631,
-0.166286632,
-0.006141143,
-0.147165671,
0.126039550,
-0.002421647,
-0.082549274,
0.066881008,
0.000450196,
0.083884992,
0.011162555,
0.020052537,
-0.036447622,
0.101755269,
-0.089507855,
0.003877425,
0.004536150,
0.070242748,0.330867261,0.395438462,-0.053346798,-1.586471796,-0.008790265,0.009571987,0.105008997,0.102456383,0.095890425,-0.050172474,-13.001665115,-0.111964501,0.451095849,-1.622953176,-0.074248709,-0.059834693,-0.108419836,-0.037515491,-0.089031324,-9.082487106,0.118408538,1.603734016,0.115540735,0.385235518,-0.018185893,-3.096681595,-11.193914413,-0.113624707,0.514749348,-0.026362048,-1.323772907,0.510986090,0.380595207,-0.071986608,-0.092808351,-0.113268033,-3.107399702,0.520837903,0.087772958,0.374385417,-0.120529793,-2.073054075,-0.111913010,0.403572083,-0.006246622,-0.014070941,-0.044125374,0.465365291,0.405211687,
0.034910154,
