// Neural Network File Format by Kyle Julian, Stanford 2016
3,2,1,50,
2,50,50,1,
0,
0.0,0.0,
0.0,0.0,
0.0,0.0,0.0,
0.0,0.0,0.0,
-0.459832847,0.323240399,
-0.427145541,-0.625184953,
-0.272345245,0.189615890,
-0.659900010,1.327104688,
-0.062751517,0.187109336,
-0.213696912,-0.138992712,
-0.675533414,-0.468304157,
-0.291485757,0.026193760,
0.096102685,0.890111864,
0.347891361,-0.992888570,
-1.193551540,1.449835420,
-0.627616584,0.565389574,
-0.113973841,0.074821867,
0.838419080,-0.988625705,
-1.122396469,-0.141619295,
-0.283382744,0.603097320,
-0.458332211,-0.325504482,
-0.645432532,-1.386197090,
-0.673925459,0.704202712,
-0.671217978,0.289630145,
0.397708267,-1.125057459,
0.766800106,-0.693492115,
-0.510931492,-0.364534736,
0.302088350,0.428277254,
-0.313598335,-0.025514100,
0.235745236,1.784444928,
1.304739237,1.171717763,
1.321823955,-0.407182664,
0.131765127,-0.548223794,
-0.490085900,-0.365279734,
0.652952969,0.838635862,
-0.764559567,0.310516715,
0.388181835,-0.089249156,
-0.323980927,0.610521615,
0.071496069,0.750269473,
-0.544913113,-0.259133220,
-0.224192709,1.412958503,
0.373284280,1.103698254,
0.848326623,-0.840320110,
0.247819468,-0.767178714,
-1.159165978,0.847649574,
1.093344688,-1.123858929,
-0.244262815,-0.591522992,
-0.116362303,-0.323682994,
0.271922261,-0.418821812,
-0.269866943,1.629055858,
0.307141215,0.123256244,
-0.699848473,-0.458697975,
0.307232291,0.090170592,
-0.551602662,-0.407165855,
0.845001340,
0.925139368,
-0.308316320,
-0.274780720,
-0.673588574,
-0.012709634,
-0.532493055,
-0.545431554,
-0.007571510,
0.577981830,
0.385425299,
0.596352160,
-0.430302113,
0.250636607,
0.960063815,
-0.604134560,
-0.175987795,
0.895443916,
0.521841586,
0.216739655,
0.645742714,
0.087418139,
-0.345017731,
0.146026209,
-0.678291380,
-0.435533762,
-0.815200984,
-0.075781323,
-0.247369543,
-0.579560041,
-0.065722816,
0.608698189,
-0.460655868,
0.242040619,
0.399452478,
-0.072690755,
0.012992506,
0.000562737,
0.145144001,
0.456624269,
1.043510795,
0.217050821,
0.729612947,
-0.051139131,
-0.635209203,
-0.314352691,
0.068191610,
-0.004583807,
-0.397146761,
-0.541864216,
-0.132349476,-0.119360790,-0.028685451,0.077556327,0.076458193,-0.136391267,0.088216104,-0.110663556,-0.029897930,-0.057342492,-0.027239915,-0.027767053,-0.126904458,-0.122108564,-0.022129541,0.001828887,-0.064244173,0.053273316,-0.127287477,-0.009544138,0.124368697,-0.057684641,0.127703935,0.051216278,-0.127627254,0.089476921,-0.016319243,-0.063131467,0.113088056,-0.114281930,0.015175209,-0.029609207,0.100990780,0.039476998,0.067953721,0.049944218,-0.034008261,-0.029741684,-0.116542719,0.076628335,0.112285465,0.096764013,-0.099755563,0.006307377,-0.099692747,-0.077850223,-0.082407005,0.048330046,-0.084274851,-0.003085419,
-0.199605063,-0.189709291,-0.106903248,0.435572833,-0.082117945,0.098985538,-0.050836030,0.119287319,0.006485874,1.014815807,1.108647346,-0.225318670,0.017743621,0.110962063,1.517982721,0.010526631,-0.110620514,-1.573197007,-0.116905995,-1.099997401,0.734903932,0.585682631,0.051086634,-0.085167296,-0.122557156,-0.275177270,1.424285173,-1.105435252,-0.047449175,-0.020942720,-0.071638510,-0.134204149,0.017654877,-0.001187752,-0.022222629,-0.089408562,-0.236991420,-0.152404666,0.634093225,0.223201126,-0.201742247,0.560818791,-0.329911798,0.000226396,0.072807051,0.188587993,0.015423578,-0.116944492,0.016260099,-0.024044003,
-0.294093907,-0.317996502,0.116943970,0.711036861,-0.083961025,-0.052303113,-0.140169546,0.063836746,-0.086745642,0.910032213,1.120213151,-0.123015672,0.074893035,0.221451014,1.503116488,-0.054874219,-0.039519940,-1.392337799,-0.098812304,-0.931973934,0.617996097,0.358751088,-0.133709520,-0.060483176,-0.079363197,-0.379929066,1.677795529,-1.115472794,-0.016088312,0.040516306,-0.038847957,-0.348660707,-0.114313960,-0.001415666,-0.087979943,0.117326632,-0.334098399,0.009175919,0.579852223,0.144615382,-0.350268900,0.468748599,-0.256712198,-0.002917321,-0.031805970,0.332094938,0.002554379,-0.105277471,0.069797307,-0.047553431,
0.175295413,0.690025449,-0.073462315,0.051972352,0.027772447,-0.105003871,0.023546450,0.060235485,0.070407383,-2.574590445,-0.027503351,0.242670044,0.049116727,-1.850723267,-1.482127666,0.094181336,-0.073843390,2.594504595,0.556231439,-0.015986996,-3.670230627,-2.289757013,-0.111178078,0.101655237,0.097930029,0.112964526,-0.640688300,0.052194681,0.066045783,-0.068798617,-0.135585248,0.521266341,0.141083330,0.176656708,0.014568477,0.055330064,0.105521969,0.126779363,-3.574925900,-0.922052383,0.368576080,-3.492975473,0.915220559,0.079249650,-0.085104406,0.210713491,0.176929414,0.077093802,-0.098892480,0.040573761,
0.084733784,0.007891703,-0.025447443,-6.607321739,0.025119523,0.060170293,-0.048058875,0.068953007,0.236035869,0.040748887,-3.411806822,0.162904277,-0.113569237,-0.083520450,0.034133382,0.132683754,0.113295659,0.911288738,0.193102136,2.514270782,-0.289492548,0.390233755,-0.106915653,0.002638953,-0.136625960,1.223984241,-1.515476823,1.199785829,0.101234749,0.109195292,0.271759063,0.027844824,0.062225696,0.551527143,0.171354070,0.141375586,1.102675438,0.321236551,0.037651073,-0.099524364,0.354181617,-0.227316201,-0.157898098,-0.079353869,-0.108821027,-1.789288402,0.093674764,-0.016095545,-0.099942498,0.109305345,
0.090437397,0.010512419,-0.066770017,0.129972994,0.057832949,-0.107359372,0.135351971,0.107391678,-0.051546793,0.079500660,-0.080354065,-0.022162752,0.120081045,0.005843408,-0.100015759,-0.047267675,-0.038388144,-0.027284253,0.013534112,0.130790666,0.007571749,-0.087319203,0.007248449,0.067809731,0.070150688,-0.129250437,-0.025306284,-0.105096512,-0.060342453,0.050953183,-0.100427583,0.052570120,0.120035358,0.009275595,-0.094255596,-0.050669145,0.030881351,-0.107808053,0.070259593,-0.128392160,-0.135947421,-0.137413561,-0.028689209,0.095096380,-0.133852348,0.117547616,-0.056571778,0.041420069,0.006449227,-0.127522349,
0.111788131,0.057670936,0.140572220,0.099514648,-0.093347855,0.118027970,0.007600611,0.067064337,-0.100146763,-0.058824897,-0.117131017,-0.055518620,0.030508993,-0.124124825,0.022307351,0.075915955,0.019701310,-0.136259750,-0.104673117,-0.042574547,0.043913819,0.126455843,0.081321388,-0.014222930,0.049584657,-0.126120716,-0.144399598,0.066319034,-0.080103211,0.068037204,-0.090963744,-0.072301880,-0.116487220,0.083678968,-0.012821500,0.108838037,0.101262748,0.088664874,-0.008485059,-0.062229544,-0.031611130,0.005802366,0.051536016,-0.099078380,0.118691817,-0.004299753,-0.119309500,-0.076517135,0.125132129,0.129333675,
-0.130995736,0.099744245,0.070874617,0.083709918,0.119717322,-0.076219089,0.044657439,0.057874318,-0.041789073,0.047327101,-0.040688824,0.087435357,-0.039238010,-0.052721277,0.035602693,0.050161261,-0.069094464,0.012501413,0.081958733,-0.014070962,0.043039318,-0.034108993,0.049568135,-0.102444813,-0.083159834,-0.071784146,0.129967764,-0.038054239,-0.000386133,-0.068518020,0.141179547,0.138122022,-0.106658101,-0.114646040,-0.107196398,-0.000682037,-0.036048859,-0.092566743,-0.050723903,0.026718860,-0.073891349,0.031336505,-0.032430165,-0.068527609,0.019429242,0.116284877,-0.095612049,0.006566816,-0.052151635,0.138777673,
-0.134175390,-0.135575175,0.139354482,-0.089475878,0.027113777,-0.012205525,-0.029791400,-0.031586148,0.089864872,0.006759512,-0.137689903,-0.083489537,-0.048210584,0.071165547,-0.091518529,0.133348972,-0.031498685,-0.025393900,0.110811844,0.071079463,0.119942330,0.081804387,-0.042900722,-0.093829170,-0.010522180,0.117045633,-0.047463812,-0.131149918,0.057972640,0.137669653,-0.040260289,-0.117100216,-0.128277615,0.035440106,-0.010708385,-0.071415983,0.028585764,0.053706013,0.112475090,0.109797031,-0.021168474,-0.124700710,-0.127791613,0.132043660,0.062516056,0.061646614,-0.122360736,0.130958408,0.133974552,0.127683729,
-0.119300939,-0.053361587,-0.097264498,0.133921161,-0.060765930,-0.064566568,0.074092478,-0.065420441,-0.069653146,-0.012370337,-0.013593354,-0.110164195,0.117898479,-0.062384032,0.050164260,0.123005986,0.071321122,0.020022418,0.120329358,0.019010741,-0.065429531,0.133784533,0.033471681,-0.137982115,-0.040261470,-0.096331634,0.123991601,-0.023355154,-0.128909096,-0.008890221,0.088814437,0.036741331,0.044718061,0.013134257,0.052724529,-0.034457594,-0.056257449,-0.132187754,-0.106537931,0.061292376,-0.083737478,0.020289224,0.045140490,0.010013182,-0.091690511,0.135245264,-0.082236446,0.116319157,-0.112501860,-0.034018695,
0.060023960,-0.069952071,0.118800022,-0.115741096,-0.118761629,-0.063769601,0.022860823,0.130214542,-0.085049808,0.039919324,-0.054053262,-0.047668170,0.103987612,-0.126192570,-0.000069258,0.132993951,-0.019433020,0.109804936,-0.061117619,0.096633956,-0.151943415,-0.026386127,-0.024840157,0.028600153,0.055483479,0.090021558,-0.038968500,-0.005608077,0.096846938,-0.038264822,0.106094502,-0.110477358,-0.015303184,-0.025685348,0.045959093,0.096686408,-0.039874494,-0.134804606,0.060280651,0.026064465,0.039993532,-0.103573397,0.074325308,0.133947954,0.012271325,-0.150494516,0.082150936,-0.104857050,0.014462416,0.020551041,
-0.325832546,0.145555884,-0.126491889,3.314074755,-0.089654207,-0.015292412,0.018190866,0.120483145,-0.937494516,0.462659448,1.497465730,-0.368980408,-0.123149678,-0.192161083,0.203148380,-0.035270423,0.007063829,1.477705240,-0.229739070,-0.121708550,0.427148342,-0.006657287,-0.022658080,-0.442748338,-0.080801345,2.089431047,-6.254759789,-3.078673840,0.085588843,-0.073322266,-1.200012922,-0.056281038,-0.031985313,-0.507542074,-0.476748079,0.120383643,-0.659587979,-0.957335770,0.237322405,0.004857371,-0.357046098,0.081459746,-0.027448395,-0.040019985,0.066562355,2.724032402,-0.196278200,-0.074184135,-0.015502590,-0.044503164,
-0.156016424,-0.046661261,0.106410399,0.108124897,0.013194712,0.032120049,-0.061224371,0.106750838,-0.108479179,-0.139214143,-0.020521792,0.040571366,-0.127504304,0.082084283,0.007622360,-0.099081613,-0.030463221,0.116053745,-0.153208956,-0.090946674,0.001888124,-0.176185101,0.077526942,0.026256097,0.087710313,-0.103845365,0.123757467,-0.099315301,0.141186669,-0.135720730,-0.170437917,0.040162649,0.014780361,-0.034398012,-0.123285197,-0.059322789,-0.092192940,-0.187084794,-0.042140074,-0.021750582,-0.041552212,-0.000534767,0.090015300,0.037601683,-0.051770460,-0.058201496,-0.138157263,-0.098035954,-0.022775888,-0.025012571,
-0.134243190,-0.364663452,0.112741627,0.552407205,0.000401946,0.127126485,0.140627295,-0.081920058,0.018649535,1.039127827,1.112780809,-0.233830273,0.038304541,0.041328199,1.496001959,0.053520810,-0.055729937,-1.353888750,-0.213195905,-0.896972775,0.857354999,0.410224587,0.076849520,-0.109496452,-0.020657841,-0.294378638,1.551561952,-1.078463674,0.033147316,0.005328812,0.059108127,-0.268615395,0.014181757,-0.155711681,-0.208114490,0.057228595,-0.250269145,-0.074363001,0.592093110,0.210028917,-0.269315958,0.538907051,-0.273952603,0.053420037,0.061616756,0.347784728,-0.009798178,0.104359530,0.016508594,0.027675156,
-0.184041008,-0.442369968,-0.059707437,-0.119540907,0.061624866,-0.123081006,0.002267332,-0.065038420,0.177183792,-0.460495412,-3.553753376,-0.085389666,0.028615216,0.015301969,-4.301259995,-0.060436744,-0.011332597,1.338673711,-0.484460115,-0.023445969,0.000501697,-0.000260041,-0.141398817,0.007036820,-0.004189178,0.354884744,0.618155360,0.771173477,-0.083902813,-0.008818251,0.172018170,-0.894568920,-0.102906540,-0.018722819,0.056332629,0.075964637,-0.078934364,0.021042060,0.037928384,0.010775984,-0.756883681,0.165526599,-0.098404013,0.099496089,-0.060583163,-4.266993046,-0.122514181,-0.008979622,0.025895568,0.042411484,
0.057918239,0.076228872,0.128659084,0.048211791,0.099427991,-0.018247563,-0.109749608,-0.052499447,-0.069647819,-0.135464177,0.023243368,-0.009980112,0.022818608,-0.027857259,0.063841991,0.051510092,-0.124017969,-0.099281915,0.002974632,-0.040404100,0.012088171,-0.191908419,-0.130513445,0.027026281,0.090459563,-0.177652255,-0.004884705,-0.131512523,0.107099496,0.044376671,0.089937367,-0.200500265,-0.136142969,0.038232449,0.065980017,0.086646035,0.037855543,-0.175475463,0.049156960,-0.196750075,-0.028615255,-0.154637828,-0.119077280,0.025041316,-0.055604052,-0.061081376,-0.194773942,-0.133342415,0.030021010,-0.059860617,
-0.559640527,-0.940724015,-0.115621656,-0.549967051,0.084622629,0.071876295,0.018837821,-0.077252783,0.111347474,-0.145333797,-0.613773942,-0.716449201,0.128770366,0.062826551,-3.601440668,0.018119605,0.106493443,0.044860374,-1.433179736,0.043992758,0.182437643,0.279587179,0.141099766,0.122759029,-0.079539202,-0.958175063,0.935542047,1.044286489,-0.140704766,0.076580420,0.338321000,-2.857074261,0.031391867,-0.743727565,-0.058079362,-0.091817386,-0.958590686,0.182499975,0.215274334,0.042942077,-1.772657871,0.379316747,-0.249681696,-0.045475643,0.095789440,0.001692470,0.070398711,-0.045484308,-0.009898013,-0.027191529,
-0.024347767,-0.119607374,-0.000869726,-0.117385991,-0.030424092,0.081960216,-0.098337382,-0.095325321,-0.046937097,-0.038768411,0.013279160,0.011252230,0.071714282,-0.109891705,-0.021687115,0.079095729,0.122325450,-0.010316049,-0.087834574,0.028241176,0.068152405,-0.100016877,-0.082065888,0.050067216,-0.009908826,-0.145039767,-0.094232224,0.063777968,-0.047966689,0.097613133,0.099290587,0.020572552,-0.011182858,-0.055769354,-0.019541867,0.025741644,-0.120396070,-0.046301018,-0.130148694,0.074366562,-0.101993889,0.116703250,-0.048834085,-0.081016801,0.067946337,0.021082968,0.085485019,0.059039138,-0.136236772,0.089447655,
-0.048758939,-0.081346400,0.089810185,0.082054183,-0.124299578,-0.012787793,0.116136149,0.054770626,0.096746653,-0.057099018,-0.100574523,0.099722430,0.058947664,0.113030389,-0.079517506,-0.090801969,-0.016576407,-0.133159518,0.034200598,0.081893563,0.011847600,-0.040380213,0.070117608,-0.112419933,0.138344467,-0.163468540,-0.157747447,-0.021634692,0.115519255,0.014159925,0.031625494,-0.123622373,0.051574361,-0.038515557,0.034310844,0.099877782,0.039141823,-0.034974426,-0.032340243,-0.111425169,-0.072693810,0.068999410,-0.079039611,0.087828286,-0.056078088,-0.053720359,-0.019645773,-0.129777506,-0.021221982,-0.014254672,
-0.012704780,-0.028270725,0.111493386,0.104367152,-0.095849358,0.065694012,-0.110928454,-0.120395027,0.043229956,0.002078396,-0.065973967,-0.136401430,-0.054749314,0.047234666,-0.130899817,-0.137385964,0.017942488,-0.101880535,-0.123896465,-0.054487702,-0.022768959,-0.128510326,-0.094430961,0.009272695,-0.133356348,-0.019877398,-0.091316156,-0.098038562,0.055582982,-0.108850561,-0.107173942,0.080649987,0.026441028,0.128794253,-0.037801292,-0.068308651,-0.013088047,0.000715502,0.107854195,-0.140866980,-0.010069304,0.062558047,-0.077878341,-0.071861967,0.068344392,-0.135507852,0.033510607,-0.109486505,0.070295162,-0.120920986,
0.234422177,-0.313559860,-0.118874095,-7.854920864,0.111438394,-0.121112630,-0.063082375,0.124207914,0.400146931,0.111185960,-3.379795074,0.280034840,-0.071818314,-0.083426386,-0.210504383,-0.103191726,0.022800941,0.610710204,0.336372793,2.296271324,-0.307120591,0.274292201,-0.101378232,0.016461201,-0.043631196,1.511408806,-1.582856178,0.800209701,-0.034043748,-0.085750870,0.213560477,0.101668820,0.114258394,0.377178311,0.074965641,-0.115059033,1.075090408,0.419379443,0.101752453,-0.319669962,0.345701456,-0.129634157,-0.031308629,0.115838781,-0.003922776,-1.735399842,0.123852618,-0.048495449,0.060917091,-0.034851383,
0.041550700,0.108637087,0.131501421,-0.128702641,-0.093547449,-0.058473039,-0.090184547,0.135693803,-0.031051824,-0.112371728,-0.081476100,-0.096680284,0.057698414,-0.141923100,-0.150414586,-0.139407694,0.060885306,0.069926448,-0.087833852,0.016503295,0.085830554,0.001982181,-0.029922156,-0.008118927,-0.015164285,0.052647255,-0.114588574,0.053151000,0.079708412,-0.085683621,0.096916847,0.138901904,-0.055752359,-0.058170769,0.051910542,-0.110792384,0.037361853,0.014427652,0.070576273,-0.141406029,-0.136052370,0.044948686,0.032374050,-0.131630227,-0.078864969,-0.147929534,-0.119885325,-0.063809268,0.117031619,-0.028150050,
0.317943364,1.123901367,0.064450271,-0.918032050,0.071166441,0.053942997,0.109610826,-0.139502868,-0.314153641,1.496750355,0.915885985,0.151675463,0.120727614,0.230137363,1.316552639,0.058838900,0.037065137,-1.708432078,0.134126723,-1.221101761,0.576005340,0.891777575,-0.131792352,-0.090124093,-0.030247362,-1.429658175,1.439612269,-1.048416853,0.091048911,0.096196137,-0.397869587,0.355355620,0.020650996,-0.031442873,0.084804386,-0.056272518,-0.646989167,-0.179236025,0.518297613,0.373171151,0.339202970,0.489494801,0.504165769,-0.028272968,-0.104351997,-0.185471132,0.121618524,-0.060414154,0.089992225,-0.113237947,
-0.043020118,-0.017622404,0.072683103,0.091419846,0.095771179,0.062253125,-0.064911529,-0.100995742,-0.149213582,-0.002736823,0.114093244,-0.050302081,-0.005953630,-0.102770053,0.021705145,0.089658789,-0.139429569,-0.099577919,0.081319392,0.010578800,-0.008817070,0.025280237,-0.021501975,-0.122173302,-0.132148340,0.070073150,-0.020873806,-0.052522089,-0.036502998,-0.077134468,-0.063571647,-0.144526362,0.105831772,0.035438038,-0.094836295,-0.048268985,0.040303815,-0.075537957,0.037291922,0.021125691,-0.112696081,0.035426266,-0.014422686,0.123515137,-0.051169075,-0.059182826,0.098535657,-0.115485020,0.010217476,0.136259809,
-0.261904925,-0.148716822,0.125488922,0.710612833,-0.013494865,0.127934471,-0.061620027,-0.048409265,0.024766341,1.039021611,1.219571710,-0.055267245,-0.088528231,0.222921431,1.568546414,0.067083240,0.067058101,-1.533693075,-0.331981957,-0.858167887,0.669616222,0.542288780,-0.134724140,-0.102468923,0.001498911,-0.293894142,1.551980972,-0.999197364,-0.015746502,0.034634713,0.084499262,-0.336657137,-0.007721151,-0.170467868,0.026084762,0.121062323,-0.289644390,-0.085801207,0.606515229,0.286570698,-0.253381252,0.593305111,-0.198457718,0.123786770,0.111853495,0.264141560,-0.035622280,-0.058641627,0.085608803,-0.012715166,
0.012242834,-0.097808257,-0.126391903,0.053255461,0.032864258,0.012284256,0.096052624,-0.059053943,0.050201871,-0.077889450,0.029302496,-0.032286290,0.099041156,0.123670511,0.122827806,0.006361730,0.083395198,-0.141299501,-0.082956955,0.025275281,0.000788702,-0.111026086,-0.062594734,-0.066051431,-0.140114933,0.013487464,0.096406102,0.057397757,-0.067193948,-0.129862323,-0.114095502,0.002623254,0.097285636,-0.057271771,-0.076953724,-0.075442135,-0.012242666,-0.134301469,-0.124796502,0.139213860,-0.067446120,-0.025507273,-0.037837673,-0.124239542,-0.024931615,0.043291442,-0.057425220,-0.006027353,-0.000676491,-0.140785649,
-0.191930667,-0.088587001,0.096421860,1.895685673,0.073901601,-0.132500842,-0.034985762,-0.028762883,-0.318047225,0.216466144,0.836999357,-0.347907066,-0.040835898,0.296425521,-0.277885705,-0.114228636,0.082463384,2.021398067,-0.300655216,0.000754950,0.440910459,0.125041977,0.141169429,-0.062746689,-0.073191144,1.183159351,-2.443924665,-3.855177164,0.118905187,0.047496315,0.056762733,-0.297663003,0.002050276,-0.477014691,-0.098107040,0.113444149,-0.206705227,-0.300358623,0.261083812,0.198958516,-0.303026348,0.357195616,-0.130423203,-0.124093845,-0.078415483,2.074141502,-0.215981036,-0.123033717,0.104105301,-0.003058310,
0.402684778,0.605250835,0.048690502,-0.140002921,-0.059512280,-0.029496221,-0.052346539,0.077493273,0.107745819,-1.916509509,0.178035274,0.243386745,-0.081684895,0.075233631,-2.805532694,-0.123332843,-0.026201230,1.034397602,0.491785377,-0.056578185,-2.912843466,-0.332695752,-0.034842987,0.174581021,0.088910215,0.278917879,-0.595104456,-0.109340280,-0.013124209,-0.051203147,0.299609542,0.579268336,0.119903892,0.207204491,0.203671217,-0.082491316,0.037203789,0.177233562,-1.747431874,-0.357149690,0.489781648,-1.346221924,0.970484257,0.127374783,-0.024590680,0.397771180,0.266820163,-0.105902664,-0.070721939,0.052639224,
-0.061199941,0.034013402,0.139194727,0.048038069,-0.013235595,0.035348967,-0.081479035,-0.118829742,-0.106306374,-0.118667021,0.029022422,0.027546506,-0.060099553,-0.138331398,0.076608628,-0.080243796,-0.023609973,-0.118579254,-0.079784021,0.058995325,-0.131766096,-0.080644071,0.106027871,-0.072527766,-0.058853339,-0.039707407,0.060451850,-0.092768118,0.014179667,0.057756864,-0.010266231,0.025571624,-0.107882939,0.063936517,0.052853331,-0.017738784,-0.116937131,0.056565087,0.092283309,-0.024735717,0.066657215,0.052419119,-0.056563955,-0.009817518,0.140776262,0.000667657,-0.112587452,-0.010313621,0.070356093,-0.046163276,
-0.284112900,-0.224442646,0.074813560,0.810507655,0.007225066,-0.014957108,0.032833170,0.005026046,-0.087056063,1.043627381,1.233301640,-0.186686784,-0.053893968,0.157427281,1.312320113,0.034550376,0.076635301,-1.429531455,-0.313238502,-0.950771928,0.680104196,0.305504024,-0.100026645,0.053314708,0.105757542,-0.137622580,1.646669984,-0.932088912,0.079590350,0.093666434,-0.052877281,-0.267039001,0.100839995,-0.103478678,-0.190365762,-0.109657966,-0.190778404,0.101784348,0.705851495,0.178878933,-0.162236348,0.292970568,-0.390623927,-0.136079937,0.113941245,0.465822101,-0.147594571,0.047853213,-0.038281046,-0.090699770,
-0.121303238,0.085890181,-0.101274446,1.608575702,0.066308193,0.107533522,0.011512699,-0.071033828,-0.326168984,0.454551518,0.821050704,-0.332752168,0.030953860,0.382681698,-0.063910246,0.068381965,-0.087584056,0.870778084,-0.250675350,-0.031032518,0.531541348,0.395676881,-0.083452351,-0.156755611,0.037711486,1.230597019,-6.684226513,-3.598668098,-0.126299128,-0.067327335,-0.398745477,-0.145139500,-0.063485362,-0.425412387,-0.210170075,-0.095290907,-0.418190628,-0.253352940,0.071345769,0.296851009,-0.167621344,0.196586505,0.030136481,-0.079218395,0.110282749,1.882625103,-0.057377066,0.128873870,-0.152235880,-0.015528181,
-0.098619007,-0.764410615,0.068820126,-0.521594584,-0.051149637,-0.112205736,0.057815567,-0.102902010,0.175916031,-2.508341551,0.543907762,-0.149098888,-0.052756209,-0.163643822,0.134415448,0.026238995,0.119049072,5.753422260,-0.112811372,0.915043652,-2.610888243,-0.084144726,-0.037856318,0.245324686,-0.026521007,0.727495670,1.075930953,0.684190273,0.043697383,-0.113660954,0.405028462,-0.398181498,0.095358059,0.021350764,0.214625970,-0.011700489,0.144109875,0.214989692,-0.455544919,-1.472028732,-0.420689881,-0.387015909,-0.565614104,-0.006286489,-0.038704935,0.860128701,0.270583361,-0.069040433,-0.139723644,-0.072846986,
-0.258596778,-0.276718974,0.104037374,0.802154303,-0.005430200,-0.040816527,-0.075655974,-0.024868581,-0.052499332,1.078318596,1.157232046,-0.193728641,-0.079806104,0.060326576,1.483649492,-0.077170722,-0.008503751,-1.294411540,-0.170423210,-1.057828546,0.557466090,0.364498615,-0.044285990,-0.026327906,-0.031441484,-0.077678651,1.475313425,-1.032722116,0.051488735,0.112946831,0.115745917,-0.254191369,0.005961065,-0.177791640,-0.030829361,-0.081974767,-0.313281685,-0.137400299,0.428439409,0.209580809,-0.273308486,0.519417226,-0.205135748,0.074211314,0.056596022,0.447396159,-0.018378096,0.068004973,0.065592200,-0.004082394,
-0.180087805,-0.285967529,-0.102633096,0.603991628,-0.103965253,0.068617836,-0.084260203,-0.046195358,-0.098742336,1.115197659,1.035972118,-0.119489595,0.070927098,0.243669882,1.553047299,0.069569588,0.111793593,-1.458893299,-0.173607200,-1.085069537,0.706293881,0.460494578,0.017134381,-0.131619319,-0.140196338,-0.358837157,1.593301654,-0.931618452,-0.127707615,0.067519441,-0.193950683,-0.381238550,-0.088564359,-0.136929825,-0.061801169,-0.107552521,-0.179704562,0.087528050,0.698892593,0.296451181,-0.308726579,0.399519384,-0.301157027,0.015452451,-0.098653607,0.236951798,-0.024860580,0.040775560,0.153648674,-0.057659321,
0.020910403,-0.086404674,0.069812581,-0.032874390,0.104836784,0.078569286,0.117711738,0.072675802,-0.022941012,0.102578692,-0.110514544,0.104750894,0.138195127,0.105209760,-0.094482288,-0.074933276,0.008947490,0.049213938,0.042735338,0.028556008,0.090747252,-0.072438121,-0.046396602,0.017858176,0.039409496,-0.110808089,-0.012934163,-0.094502255,-0.041488670,-0.055504080,0.096100889,-0.156113818,-0.083498709,-0.168419614,0.006591273,-0.108850464,0.017233215,-0.127727270,-0.122385994,-0.102773331,-0.007519030,0.099762455,0.102941833,-0.010684345,-0.138521776,-0.069992319,-0.083529621,-0.030079719,0.032537665,0.071168177,
0.042265270,0.031121338,-0.057251319,-0.023948614,0.017998340,-0.072236665,-0.012651035,-0.017653478,-0.155111164,0.095872737,-0.037990492,-0.142713934,0.111888848,-0.096415080,0.034273520,0.140249342,0.006546754,0.040687438,0.035259604,0.085839361,-0.060779091,-0.084025122,-0.011067189,0.089382820,0.012159670,0.074220248,-0.025201321,0.048940726,0.004917543,0.003839022,-0.156834662,-0.140412152,0.011756375,0.047120772,0.074062981,0.006136160,0.038233630,0.037241712,-0.132870391,-0.144059762,-0.129621536,-0.017636968,-0.109671555,-0.045256682,-0.021158630,0.029436104,0.011726471,0.131193176,0.102470912,-0.090220712,
0.274601698,0.067106679,0.123460636,-8.916624069,-0.055578899,-0.089584246,0.104207903,-0.040065758,0.471616000,0.020913839,-2.939121485,0.398337066,-0.099688783,0.165378407,-0.682568729,-0.065170474,-0.099422596,0.200841963,0.265964925,1.509455442,-0.144795805,0.037449036,0.056862019,0.176730663,-0.000197500,1.581790090,-1.513127089,0.488627046,-0.018747240,-0.071177334,0.283859938,0.206349820,0.040831614,0.723054111,0.395487249,-0.021013729,1.232717872,0.344400078,0.074758850,0.174933553,0.201331943,-0.037303321,0.181487143,-0.022111047,-0.075383723,-1.484096766,0.212421566,0.005539057,-0.042954501,0.106552444,
-0.159574777,-0.025125094,0.021582525,2.229650974,0.088106915,-0.058011245,-0.015494329,0.062087167,-0.414777547,0.570701718,1.023389101,-0.222946659,-0.101584733,0.439206153,-0.017202778,0.017048283,-0.014174374,1.426227212,-0.467286974,-0.121919468,0.282933652,0.244091839,0.003670485,-0.248255253,0.031506557,1.376035452,-3.067405224,-3.893048286,-0.038688160,0.093535244,-0.271920711,-0.145537525,-0.056169748,-0.337269276,-0.256299585,0.065979682,-0.262611330,-0.365286320,0.326916277,0.153197363,-0.361158311,0.335815877,-0.025464432,0.138726041,0.068814307,2.009740591,-0.054090109,-0.059137866,-0.082336381,-0.040840484,
-0.295355260,-0.280983984,0.013433584,0.820449412,-0.014357426,-0.002804080,0.121259004,0.126242086,-0.101234131,1.078700304,1.303828716,-0.133998439,-0.019280195,0.156273976,1.464755297,0.129902557,-0.135542169,-1.459623814,-0.288088590,-1.007959723,0.701309204,0.516742766,-0.106944814,0.020111367,0.118129566,-0.269729733,1.582489133,-1.058879733,0.030290570,-0.065566167,-0.065920502,-0.334010720,-0.117931284,0.018769134,-0.109909289,-0.003923332,-0.332824230,0.091048509,0.501361430,0.098007515,-0.363059819,0.301758617,-0.158318415,-0.109204970,-0.019524410,0.446876675,-0.026263239,0.037825838,-0.092436463,0.127006903,
-0.171522647,-0.015775556,-0.011814891,-0.032773070,0.096373968,0.119404420,0.018422034,-0.049949884,0.073716149,0.068129264,0.001010262,-0.069929875,0.005962313,0.094857670,-0.016715679,-0.027869217,-0.119735137,-0.075916402,0.102139436,-0.036402196,-0.042125858,0.020173946,-0.093044937,-0.040712658,-0.039775383,0.048354890,0.081473403,0.053303752,0.105437495,-0.126388535,-0.082865581,0.016746545,-0.120116904,0.010985516,-0.123519577,0.060600813,0.082958020,-0.152192444,0.084404662,0.034644648,-0.125533208,0.103874415,-0.153380543,-0.095207646,-0.070349447,-0.007161357,-0.005571767,-0.041503016,-0.143801630,-0.016324487,
-0.095669098,-0.184862867,0.070794404,0.633770168,0.035139617,-0.109023079,0.057267100,-0.140747607,-0.084060483,0.974665821,1.257919550,-0.197293997,-0.064418748,0.166527629,1.383337975,-0.045014869,0.039166950,-1.484822154,-0.233059004,-0.885369003,0.629514575,0.378273249,0.136891842,-0.051078834,-0.022897676,-0.230447277,1.626094103,-1.059954405,-0.058907844,-0.023116400,0.000618191,-0.264940917,0.082307316,-0.230655074,-0.169245273,0.107811123,-0.266035974,-0.005721714,0.722284496,0.145940199,-0.305334449,0.493486524,-0.320635051,-0.058420863,0.018684255,0.401949078,-0.091959782,-0.095642596,-0.010576926,-0.080147378,
0.074432433,-0.093705751,0.112760372,0.056326468,-0.121101521,0.104948930,-0.139856696,-0.008222412,-0.088297434,-0.121661298,0.014012024,-0.068569385,0.102224424,-0.111172721,0.117382959,0.085319087,0.123865291,-0.041412719,-0.086684927,-0.093955413,0.117601834,-0.070339553,-0.017412852,-0.021798199,0.024329809,-0.116047442,0.114033595,-0.104643114,0.139096305,-0.055335950,-0.063133642,-0.019438718,0.041854519,-0.026203219,-0.141145363,0.099473476,0.140076205,0.071351148,0.138384521,0.038544443,-0.011081738,-0.112641454,-0.123602971,-0.097368173,-0.035881855,0.082350649,-0.058348183,-0.005492696,-0.001995889,-0.092444159,
-0.139456272,-0.292995602,0.113031663,-1.303472996,-0.013947876,0.002508109,0.077313170,-0.047040503,0.341044128,0.387845308,-5.468118191,-0.351308972,0.119162381,0.371664792,-1.133478880,-0.122825883,0.026243798,1.526247859,-0.678196251,-5.322096825,0.267111897,0.826812565,0.040277604,0.292858243,0.003121396,1.585098505,-1.455669761,1.580963135,0.054001477,0.037730601,0.614956677,-1.177079678,-0.018767234,-0.069627196,0.183108926,-0.108520910,0.679558218,0.511440992,0.603114605,0.114359617,-0.520082474,0.476658672,-0.110389747,0.018538006,0.035012435,-2.624754667,0.269074142,0.051855784,0.085497737,-0.133998439,
-0.087052926,-0.148605064,-0.056383889,0.058529761,-0.133997008,-0.126716107,0.081886224,-0.083514556,0.070939973,0.004081456,-0.002230638,0.083766021,-0.130997926,0.074959949,0.024212558,-0.094767816,0.034409516,-0.039414067,-0.091403656,-0.044967741,-0.092753008,0.084038980,0.121721670,-0.045481361,-0.125409171,-0.049754463,-0.037519142,0.089780875,0.004550106,0.041160125,-0.003789307,-0.115931816,-0.087721787,-0.167594671,-0.030496527,0.043802362,-0.041419864,0.104755141,-0.069160081,-0.120232642,-0.004423343,-0.069042385,-0.046951316,0.137030214,-0.004057730,0.081370480,-0.010714225,-0.052611828,0.078018293,-0.080557689,
-0.206226766,-0.282569975,0.063474745,0.587168455,0.006937523,-0.036616780,0.091692850,0.047580354,0.038137928,1.099188209,1.151245713,-0.207646236,0.113455795,0.015213462,1.361122489,0.002674190,-0.056020901,-1.439268351,-0.088714361,-0.988587618,0.586045861,0.368028849,0.129876688,-0.114309929,-0.062010139,-0.202295050,1.561887980,-1.151284695,0.117773823,0.079637870,0.081178866,-0.187327623,-0.047680765,-0.159279332,-0.035484649,-0.027415076,-0.255998224,-0.167046502,0.577180564,0.218464240,-0.264489651,0.368327707,-0.413238496,0.089881748,-0.028434020,0.264707625,0.051054895,0.068819404,-0.073754452,-0.103213742,
0.100945063,-0.038172349,-0.085053980,0.050243326,-0.029457934,0.009687791,-0.073671147,-0.119783156,-0.128157005,-0.050846864,-0.137442216,0.103684604,0.001530622,-0.089639649,0.020853475,-0.119593143,-0.072335914,0.061914112,-0.159239531,0.035044186,-0.021871248,-0.155278638,-0.140351117,0.008154650,0.066845395,-0.065615743,-0.157540694,-0.070729427,0.015030747,0.005145052,0.002272604,-0.016506655,-0.007412788,0.031822152,0.101512142,0.117777653,0.093195140,-0.084380262,-0.079725131,-0.052928120,0.005015613,0.021954766,-0.048802670,-0.091347769,-0.106702425,0.107530974,-0.074483946,-0.019115755,-0.111260079,-0.070111036,
0.011816858,0.037441753,-0.055907190,-0.066709213,0.112028234,-0.072834358,-0.105512328,-0.022063944,0.116627455,0.013298830,0.003363227,-0.036559235,0.088372625,-0.089972019,0.075599924,0.033409961,0.015723675,0.024524035,-0.105245359,0.086215504,0.053723659,-0.133254811,-0.131674841,-0.055562604,0.093953587,-0.085968785,0.114499487,-0.063555002,-0.127746254,0.062209494,-0.102533519,-0.042182233,-0.044109881,-0.027887259,-0.142226577,-0.129711851,0.042588156,-0.034547426,-0.107634097,-0.024063751,-0.148267403,0.017391570,0.047550701,0.137152776,-0.115212172,-0.031263381,0.057427153,0.129607126,-0.114304803,0.060098745,
0.058387801,0.085258812,-0.097498171,0.100920618,-0.061598010,-0.087051742,0.028080221,0.119803719,-0.093652271,0.075506002,-0.016196378,0.045146983,0.110318623,0.038398765,-0.117401853,-0.042578571,0.028068909,-0.119301699,0.023511266,-0.075938880,-0.028111342,0.050592221,-0.113818698,-0.090794548,0.064502887,-0.139871478,0.097324528,-0.109047070,-0.002277144,0.029031510,0.055803794,-0.087775670,0.019031478,0.060894243,0.121298447,-0.106426559,-0.070310742,0.041198343,-0.004540008,-0.095434971,-0.119027391,-0.125572175,-0.098959342,-0.060212776,-0.098202921,-0.124061480,0.011039204,0.082937449,-0.066678323,0.014141819,
-0.226275042,-0.287861735,-0.098076679,0.809862375,0.132001996,0.100963339,-0.140165091,-0.021289503,-0.012451333,0.956640780,1.118719339,-0.308472574,0.093969874,0.064583227,1.405112147,0.033807702,-0.086803041,-1.420017719,-0.134015381,-1.054775357,0.710218132,0.416661024,0.077758543,0.004152849,0.037519883,-0.228132471,1.421709061,-0.947434604,0.086219795,-0.051367823,-0.173975527,-0.149720773,-0.033195566,-0.087900721,-0.151082173,0.090188526,-0.144733325,0.061058909,0.545697212,0.242241442,-0.204629436,0.428073168,-0.419828802,-0.060725369,-0.139920413,0.538516343,0.045406375,0.082379915,0.058862794,0.033423718,
-0.062927194,-0.386113852,-0.047478747,0.705315351,-0.014004050,0.009700873,0.038712692,-0.098384604,-0.024709318,0.916315019,1.115883350,-0.165720537,-0.138048783,0.161922336,1.343573809,-0.106104523,-0.029344374,-1.488887668,-0.077241376,-0.809808671,0.617656887,0.460777223,0.072347634,-0.035943463,-0.018944217,-0.358572125,1.656566620,-1.126449943,-0.026191199,0.008772580,-0.075832672,-0.276736528,-0.122226305,-0.090181440,-0.114225477,0.123291492,-0.324971378,0.086601473,0.601507664,0.107097350,-0.277637810,0.408374816,-0.262784451,-0.023299538,0.041970052,0.574026227,-0.063882746,0.051224623,0.102031790,0.030483637,
0.065191112,
-0.108834617,
-0.074343026,
0.118253581,
0.040245835,
-0.006408007,
-0.032598309,
-0.054523882,
0.085022606,
0.129370481,
-0.132159531,
-0.087323837,
0.056781173,
-0.155278131,
-0.190557167,
0.047557544,
-0.314724952,
-0.047631513,
-0.032705497,
0.045372922,
0.035610288,
-0.026197609,
0.366191030,
0.014699361,
-0.291480869,
0.035238914,
-0.160215348,
0.375747591,
-0.012908485,
-0.088553227,
-0.229172438,
-0.043520030,
-0.281501085,
-0.058088236,
-0.166201949,
-0.006231316,
0.019812977,
-0.180865988,
-0.139984429,
-0.063270733,
-0.045394026,
0.000450196,
-0.114677727,
0.008662774,
-0.121020690,
-0.036343865,
0.101385385,
-0.089507855,
-0.150574699,
-0.109613247,
0.070242748,0.911699831,1.389088869,-2.192364931,-1.494284153,-0.008790265,-0.005506598,0.105008997,0.102689840,0.095890425,-0.050296184,-11.555313110,-0.087895192,1.366671443,-11.204753876,-0.069849402,-17.639076233,-0.109491199,-0.037268408,-0.089031324,-1.594621181,0.115984641,1.509641409,0.111923724,1.061167359,-0.018185893,-6.054671288,-1.588255525,-0.113624707,1.233543396,-8.161852837,-3.730378866,1.325749397,1.016236544,-0.071760483,-0.092995681,-1.646410108,-7.700758934,1.573075294,0.081230685,1.089055181,-0.120529793,-3.000093699,-0.111743115,1.235915422,-0.006340067,-0.013678129,-0.044125374,1.118783712,1.296027422,
-0.155532256,
