// Neural Network File Format by Kyle Julian, Stanford 2016
3,2,1,50,
2,50,50,1,
0,
0.0,0.0,
0.0,0.0,
0.0,0.0,0.0,
0.0,0.0,0.0,
-0.292888999,0.335576862,
-0.243567616,-1.014688134,
-0.272345245,0.189615890,
-0.713258326,1.652055979,
-0.062751517,0.187109336,
-0.213696912,-0.138992712,
-0.675533414,-0.468304157,
-0.291485757,0.026193760,
0.020605261,0.586897194,
-0.407809347,-0.293594331,
0.886614859,1.472888947,
-0.332027912,0.941492677,
-0.113973841,0.074821867,
0.821701765,-0.949105680,
-1.087008119,-0.477832764,
-0.275630176,0.610940814,
-0.458332211,-0.325504482,
-2.156190872,-0.394835383,
-0.353725404,1.269159675,
-0.024207724,0.916432738,
0.112828106,-0.841036677,
0.487821460,-0.718122959,
-0.510931492,-0.364534736,
-0.466316760,0.774251521,
-0.313598335,-0.025514100,
0.398769319,0.727894604,
1.450866699,1.244381070,
1.300947428,-0.883451700,
0.131765127,-0.548223794,
-0.490085900,-0.365279734,
0.479573488,-0.564217448,
-0.422682464,0.970277548,
0.388181835,-0.089249156,
0.051974948,0.597594261,
-0.025008531,0.572134912,
-0.544913113,-0.259133220,
0.022934269,0.423240930,
0.506593168,0.361467689,
0.854730546,-1.345692039,
-0.133863881,-0.478430122,
-0.849932790,1.264554739,
0.754207313,-1.020256042,
-0.162215292,-0.362276316,
-0.116362303,-0.323682994,
0.271922261,-0.418821812,
0.058952682,1.699442267,
0.193284735,-0.113672301,
-0.699848473,-0.458697975,
1.003082633,0.198316947,
-0.551602662,-0.407165855,
0.400472850,
1.003978491,
-0.308316320,
-0.372764230,
-0.673588574,
-0.012709634,
-0.532493055,
-0.545431554,
-0.009281216,
0.594990492,
-0.310806215,
0.230694577,
-0.430302113,
0.717823505,
1.151947856,
-0.596291065,
-0.175987795,
0.735297859,
0.249246061,
-0.040690683,
0.560221136,
0.591357827,
-0.345017731,
0.098121382,
-0.678291380,
-0.078742802,
-0.860540330,
-0.064364605,
-0.247369543,
-0.579560041,
0.015090444,
0.308099121,
-0.460655868,
-0.013030767,
-0.019916160,
-0.072690755,
-0.008509165,
-0.057485994,
0.377682030,
0.777359903,
0.687725544,
0.681008339,
0.612521470,
-0.051139131,
-0.635209203,
-0.870022178,
0.019025981,
-0.004583807,
-0.785215616,
-0.541864216,
-0.132349476,-0.119360790,-0.028685451,0.077556327,0.076458193,-0.136391267,0.088216104,-0.110663556,-0.029897930,-0.057342492,-0.027239915,-0.027767053,-0.126904458,-0.122108564,-0.022129541,0.001828887,-0.064244173,0.053273316,-0.127287477,-0.009544138,0.124368697,-0.057684641,0.127703935,0.051216278,-0.127627254,0.089476921,-0.016319243,-0.063131467,0.113088056,-0.114281930,0.015175209,-0.029609207,0.100990780,0.039476998,0.067953721,0.049944218,-0.034008261,-0.029741684,-0.116542719,0.076628335,0.112285465,0.096764013,-0.099755563,0.006307377,-0.099692747,-0.077850223,-0.082407005,0.048330046,-0.084274851,-0.003085419,
-0.099573880,0.451510459,-0.106903248,-0.251271218,-0.082117945,0.098985538,-0.050836030,0.119287319,0.029763985,0.289586812,-0.722929239,-0.105936356,0.017743621,-0.324146628,1.520434856,0.018044382,-0.110620514,-1.699404955,0.155192882,-0.270303190,0.076917499,-0.072521262,0.051086634,0.748226106,-0.122557156,0.053792369,1.565653324,0.440592438,-0.047449175,-0.020942720,0.392719269,0.137200162,0.017654877,0.108898439,-0.000311431,-0.089408562,0.038350102,-0.122490130,0.266299039,-0.273352742,-0.031356744,-0.224536523,-0.235767365,0.000226396,0.072807051,0.049050469,0.061828069,-0.116944492,-0.908183753,-0.024044003,
-0.182058632,0.374284774,0.116943970,0.243048519,-0.083961025,-0.052303113,-0.140169546,0.063836746,-0.097287998,0.196790352,-0.760957003,-0.002683999,0.074893035,-0.182009593,1.587214112,-0.047229037,-0.039519940,-1.538866520,0.155112997,-0.123794951,0.015421368,-0.275715083,-0.133709520,0.769444108,-0.079363197,-0.110146195,1.822773218,0.427825332,-0.016088312,0.040516306,0.401616395,-0.078957908,-0.114313960,0.099858530,-0.068788745,0.117326632,-0.079427302,0.016635282,0.258185029,-0.315582007,-0.167309940,-0.282515377,-0.142212108,-0.002917321,-0.031805970,0.244745642,0.056865204,-0.105277471,-0.818592370,-0.047553431,
-0.100500427,-0.005532132,-0.073462315,0.020572603,0.027772447,-0.105003871,0.023546450,0.060235485,0.032090541,-0.057714991,-0.119735010,-0.052452262,0.049116727,-0.084699430,0.003400403,0.094181336,-0.073843390,0.001394673,0.024978222,-0.019902412,-0.021093933,-0.014631728,-0.111178078,-0.019902106,0.097930029,0.100773193,0.054843221,-0.001581564,0.066045783,-0.068798617,-0.146408781,-0.185762480,0.141083330,0.058225531,-0.127785444,0.055330064,0.080692418,0.113167398,0.091579407,0.074943274,-0.067246884,-0.082333244,0.082265787,0.079249650,-0.085104406,0.114794731,0.036420155,0.077093802,-0.047948495,0.040573761,
0.050098352,0.800977767,-0.025447443,-13.399931908,0.025119523,0.060170293,-0.048058875,0.068953007,-0.005296128,0.866134465,1.507872343,0.009716027,-0.113569237,0.411242843,-0.562719464,0.132683754,0.113295659,-2.032289743,-0.483658701,0.444030732,0.356630862,1.041606307,-0.106915653,-2.019125700,-0.136625960,-0.227375776,-1.069993615,0.211097658,0.101234749,0.109195292,-0.158325896,-0.414135844,0.062225696,0.391688108,0.277567267,0.141375586,0.216847315,0.149803877,0.845725238,0.353916168,0.072647735,0.338060468,0.014225831,-0.079353869,-0.108821027,1.438855290,0.218663618,-0.016095545,-0.481068313,0.109305345,
0.090437397,0.010512419,-0.066770017,0.129972994,0.057832949,-0.107359372,0.135351971,0.107391678,-0.051546793,0.079500660,-0.080354065,-0.022162752,0.120081045,0.005843408,-0.100015759,-0.047267675,-0.038388144,-0.027284253,0.013534112,0.130790666,0.007571749,-0.087319203,0.007248449,0.067809731,0.070150688,-0.129250437,-0.025306284,-0.105096512,-0.060342453,0.050953183,-0.100427583,0.052570120,0.120035358,0.009275595,-0.094255596,-0.050669145,0.030881351,-0.107808053,0.070259593,-0.128392160,-0.135947421,-0.137413561,-0.028689209,0.095096380,-0.133852348,0.117547616,-0.056571778,0.041420069,0.006449227,-0.127522349,
0.085646451,0.044474151,0.140572220,0.071447797,-0.093347855,0.118027970,0.007600611,0.067064337,-0.142991781,-0.072267793,-0.138858467,-0.086619519,0.030508993,-0.142717078,0.013444429,0.075915955,0.019701310,-0.094622679,-0.140966266,-0.075095125,0.030471615,0.107863709,0.081321388,-0.047485020,0.049584657,-0.169905692,-0.120788172,0.034647871,-0.080103211,0.068037204,-0.130803943,-0.101450846,-0.116487220,0.045277756,-0.046034839,0.108838037,0.057599213,0.046860147,-0.027076291,-0.075356998,-0.062381670,-0.012869605,0.038476076,-0.099078380,0.118691817,-0.015376756,-0.150138274,-0.076517135,0.125132129,0.129333675,
-0.155379087,0.072805725,0.070874617,0.083709918,0.119717322,-0.076219089,0.044657439,0.057874318,-0.042245816,0.022790084,-0.040688824,0.067503810,-0.039238010,-0.078391418,0.008183084,0.050161261,-0.069094464,-0.012518519,0.062732913,-0.014070962,0.019139845,-0.058665916,0.049568135,-0.102444813,-0.083159834,-0.071784146,0.129967764,-0.038054239,-0.000386133,-0.068518020,0.140112936,0.117373206,-0.106658101,-0.119360894,-0.124813318,-0.000682037,-0.036425915,-0.092566743,-0.072056852,0.000756479,-0.099800535,0.006080020,-0.057545260,-0.068527609,0.019429242,0.116284877,-0.112076916,0.006566816,-0.052151635,0.138777673,
-0.162492275,-0.165995374,0.139354482,-0.089475878,0.027113777,-0.012205525,-0.029791400,-0.031586148,0.067312486,-0.021359960,-0.166685745,-0.097508311,-0.048210584,0.040117465,-0.119037606,0.133348972,-0.031498685,-0.025393900,0.093836628,0.054540694,0.089818612,0.051052395,-0.042900722,-0.093829170,-0.010522180,0.088338859,-0.077318236,-0.161880732,0.057972640,0.137669653,-0.069146700,-0.117100216,-0.128277615,0.012573569,-0.029766614,-0.071415983,0.005715348,0.024268629,0.081671566,0.079552747,-0.043755773,-0.155685559,-0.157563314,0.132043660,0.062516056,0.061646614,-0.149553269,0.130958408,0.111177646,0.127683729,
-0.150824606,-0.084963948,-0.097264498,0.133921161,-0.060765930,-0.064566568,0.074092478,-0.065420441,-0.069653146,-0.043873787,-0.013593354,-0.141536355,0.117898479,-0.093930796,0.018558530,0.123005986,0.071321122,-0.011454927,0.089126162,-0.011625306,-0.096893020,0.102306105,0.033471681,-0.168917045,-0.040261470,-0.096331634,0.123991601,-0.023355154,-0.128909096,-0.008890221,0.088814437,0.005432957,0.044718061,-0.015410797,0.021313334,-0.034457594,-0.056257449,-0.132187754,-0.137870014,0.029743772,-0.115310512,-0.011229289,0.013621251,0.010013182,-0.091690511,0.135245264,-0.113612697,0.116319157,-0.112501860,-0.034018695,
0.059785903,-0.070202284,0.118800022,-0.116069198,-0.118761629,-0.063769601,0.022860823,0.130214542,-0.085268885,0.041120734,-0.054392278,-0.047933578,0.103987612,-0.126305386,-0.000313542,0.132993951,-0.019433020,0.109804936,-0.061532840,0.096422955,-0.151897669,-0.026386933,-0.024840157,0.028378136,0.055483479,0.089663297,-0.039123975,-0.005608077,0.096846938,-0.038264822,0.105888970,-0.110945381,-0.015303184,-0.025930071,0.045734443,0.096686408,-0.040108774,-0.135026276,0.060330756,0.025920304,0.039649177,-0.103609443,0.074126095,0.133947954,0.012271325,-0.151080832,0.081939064,-0.104857050,0.014342994,0.020551041,
-0.106434986,0.029266441,-0.126491889,0.034065682,-0.089654207,-0.015292412,0.018190866,0.120483145,-0.126576871,0.072201192,-0.044185732,-0.106020689,-0.123149678,-0.174031094,0.119408786,-0.035270423,0.007063829,0.062414404,0.060145419,0.073401392,0.076326288,-0.136892557,-0.022658080,-0.130161226,-0.080801345,-0.010985489,0.073593751,-0.177162498,0.085588843,-0.073322266,-0.075180262,0.080147505,-0.031985313,-0.031579122,-0.143758640,0.120383643,-0.069525614,-0.163421229,0.018435987,-0.139991835,-0.144483700,-0.035263095,0.071025006,-0.040019985,0.066562355,0.139719337,0.047630459,-0.074184135,-0.012118595,-0.044503164,
-0.148184657,-0.038058247,0.106410399,0.087488770,0.013194712,0.032120049,-0.061224371,0.106750838,-0.100323759,-0.132947326,-0.021502145,0.048669167,-0.127504304,0.093779057,0.016576588,-0.099081613,-0.030463221,0.119075909,-0.145601436,-0.085944213,0.012112500,-0.164784685,0.077526942,0.026333876,0.087710313,-0.128174588,0.123879492,-0.087546803,0.141186669,-0.135720730,-0.147891343,0.047631994,0.014780361,-0.026990779,-0.114776731,-0.059322789,-0.083988905,-0.189813837,-0.028210796,-0.009793052,-0.035207186,0.011537807,0.100266382,0.037601683,-0.051770460,-0.058201496,-0.126333222,-0.098035954,-0.022775888,-0.025012571,
-0.014528031,0.316226810,0.112741627,0.020741882,0.000401946,0.127126485,0.140627295,-0.081920058,0.028007889,0.327431202,-0.735543072,-0.102110602,0.038304541,-0.361090750,1.566437960,0.061196517,-0.055729937,-1.476118088,0.056985445,-0.065848954,0.244003907,-0.226370350,0.076849520,0.728872895,-0.020657841,0.010812589,1.709382415,0.474543333,0.033147316,0.005328812,0.515141606,0.014748371,0.014181757,-0.040441103,-0.178819954,0.057228595,0.017130790,-0.051389329,0.263558090,-0.247215644,-0.077827685,-0.211015448,-0.151140317,0.053420037,0.061616756,0.231161609,0.049675062,0.104359530,-0.872284651,0.027675156,
0.082123660,0.704706550,-0.059707437,-14.504406929,0.061624866,-0.123081006,0.002267332,-0.065038420,0.052681327,0.942718565,1.715220928,0.235477895,0.028615216,0.072835654,-0.397786498,-0.060436744,-0.011332597,-0.818338573,-0.092338264,0.287585914,0.323085129,0.402528167,-0.141398817,-4.267838001,-0.004189178,-0.148758233,-1.654625177,-0.536134601,-0.083902813,-0.008818251,-0.326932371,-0.111763857,-0.102906540,0.216693029,0.194100738,0.075964637,0.060626015,-0.226751268,0.477237612,0.307208329,0.061555959,0.234404400,0.135480613,0.099496089,-0.060583163,-13.020210266,-0.090029158,-0.008979622,-1.057485938,0.042411484,
0.083868109,0.097578458,0.128659084,0.064616852,0.099427991,-0.018247563,-0.109749608,-0.052499447,-0.048000872,-0.126548231,0.040213414,0.015057887,0.022818608,0.000506701,0.087751456,0.051510092,-0.124017969,-0.102655046,0.024563506,-0.014175373,0.035424497,-0.172244236,-0.130513445,0.052374952,0.090459563,-0.160768867,0.025398780,-0.110428050,0.107099496,0.044376671,0.109339677,-0.180973202,-0.136142969,0.058474578,0.091616936,0.086646035,0.060854316,-0.152752414,0.073694661,-0.169132069,-0.004468827,-0.125951931,-0.090848789,0.025041316,-0.055604052,-0.050388250,-0.168414220,-0.133342415,0.029585689,-0.059860617,
-0.099146508,-0.065294012,-0.115621656,-0.124337114,0.084622629,0.071876295,0.018837821,-0.077252783,0.034016851,0.006353385,-0.113289431,0.017594486,0.128770366,-0.152858019,-0.153079540,0.018119605,0.106493443,-0.086053453,0.019739736,0.086202085,0.029687358,0.014896587,0.141099766,0.078818813,-0.079539202,-0.000200856,0.059074733,0.124720842,-0.140704766,0.076580420,-0.054213535,-0.147929966,0.031391867,-0.088943139,0.006856903,-0.091817386,-0.119403929,-0.025289323,-0.063334949,0.068894312,-0.000296562,0.096418351,0.013135301,-0.045475643,0.095789440,-0.003510194,0.013161115,-0.045484308,-0.009955109,-0.027191529,
-0.024193520,-0.122872658,-0.000869726,-0.123390123,-0.030424092,0.081960216,-0.098337382,-0.095325321,-0.046571966,-0.038768411,0.014449953,0.011427943,0.071714282,-0.109720849,-0.022196181,0.079095729,0.122325450,-0.010316049,-0.087834574,0.028488487,0.068202734,-0.100503996,-0.082065888,0.050305985,-0.009908826,-0.143726394,-0.093567811,0.057351008,-0.047966689,0.097613133,0.099782191,0.020572552,-0.011182858,-0.053824257,-0.019317893,0.025741644,-0.120054893,-0.045950450,-0.130019546,0.074467145,-0.101929791,0.116874315,-0.048701372,-0.081016801,0.067946337,0.021082968,0.085701615,0.059039138,-0.136236772,0.089447655,
-0.048640206,-0.081519634,0.089810185,0.081936963,-0.124299578,-0.012787793,0.116136149,0.054770626,0.096857011,-0.058551706,-0.100623503,0.099787325,0.058947664,0.113297261,-0.079511791,-0.090801969,-0.016576407,-0.133159518,0.034037970,0.082043745,0.012150696,-0.039563950,0.070117608,-0.112256475,0.138344467,-0.163521543,-0.157750070,-0.033418104,0.115519255,0.014159925,0.031773414,-0.123745851,0.051574361,-0.038420584,0.034448486,0.099877782,0.039238460,-0.034808517,-0.030972615,-0.111177787,-0.072722308,0.069322355,-0.078862980,0.087828286,-0.056078088,-0.054502919,-0.019467810,-0.129777506,-0.021891568,-0.014254672,
-0.012704780,-0.028270725,0.111493386,0.104367152,-0.095849358,0.065694012,-0.110928454,-0.120395027,0.043229956,0.002078396,-0.065973967,-0.136401430,-0.054749314,0.047234666,-0.130899817,-0.137385964,0.017942488,-0.101880535,-0.123896465,-0.054487702,-0.022768959,-0.128510326,-0.094430961,0.009272695,-0.133356348,-0.019877398,-0.091316156,-0.098038562,0.055582982,-0.108850561,-0.107173942,0.080649987,0.026441028,0.128794253,-0.037801292,-0.068308651,-0.013088047,0.000715502,0.107854195,-0.140866980,-0.010069304,0.062558047,-0.077878341,-0.071861967,0.068344392,-0.135507852,0.033510607,-0.109486505,0.070295162,-0.120920986,
-0.214173555,-0.825275123,-0.118874095,-6.618195057,0.111438394,-0.121112630,-0.063082375,0.124207914,-0.197297946,-1.063959837,-0.590903163,-0.567985058,-0.071818314,0.328267366,-5.427961826,-0.103191726,0.022800941,-0.001625419,-1.005332828,-0.240743786,0.292315364,0.383981049,-0.101378232,0.252440959,-0.043631196,-0.060266275,0.428927302,1.278349757,-0.034043748,-0.085750870,0.358872622,-1.262552500,0.114258394,-0.375793546,-0.260595292,-0.115059033,-0.166435868,0.111387350,0.717417538,-0.044864509,-0.998144627,0.382321566,0.018916529,0.115838781,-0.003922776,7.248514652,0.057865541,-0.048495449,1.461415887,-0.034851383,
0.041532852,0.108620696,0.131501421,-0.128702641,-0.093547449,-0.058473039,-0.090184547,0.135693803,-0.031069223,-0.112374902,-0.081497870,-0.096698195,0.057698414,-0.141940847,-0.150434017,-0.139407694,0.060885306,0.069926448,-0.105895340,0.016485693,0.085813284,0.001965995,-0.029922156,-0.008136667,-0.015164285,0.052630063,-0.114605516,0.053132460,0.079708412,-0.085683621,0.096899681,0.120589748,-0.055752359,-0.058188196,0.051892761,-0.110792384,0.037344292,0.014410041,0.070560858,-0.141423747,-0.136071324,0.044931032,0.032356262,-0.131630227,-0.078864969,-0.129397511,-0.119903117,-0.063809268,0.098482549,-0.028150050,
0.476123035,0.594469905,0.064450271,-2.153860807,0.071166441,0.053942997,0.109610826,-0.139502868,0.119548030,0.921148956,-1.795743346,0.295850128,0.120727614,0.290766001,1.443952680,0.062490899,0.037065137,-1.555428147,0.387853235,0.230120853,0.339962274,0.810070038,-0.131792352,1.253590465,-0.030247362,-0.054261789,2.126255035,0.292680204,0.091048911,0.096196137,0.062962815,0.358855635,0.020650996,0.162488475,0.344522893,-0.056272518,0.029680500,0.250964999,-0.244137272,0.511983633,0.483068347,0.498552978,0.471324444,-0.028272968,-0.104351997,-5.272959709,0.444310695,-0.060414154,-3.895458698,-0.113237947,
-0.049486335,0.003053539,0.072683103,0.086475819,0.095771179,0.062253125,-0.064911529,-0.100995742,-0.155593157,-0.011214566,0.107735172,-0.056714099,-0.005953630,-0.130019307,0.018675517,0.089658789,-0.139429569,-0.099577919,0.074813880,0.004147228,-0.020062761,0.014617887,-0.021501975,-0.128868386,-0.132148340,0.063077696,-0.042364068,-0.052522089,-0.036502998,-0.077134468,-0.070207365,-0.150744528,0.105831772,0.030069016,-0.101599887,-0.048268985,0.034038492,-0.082237728,0.037291922,0.014396193,-0.119251221,0.012872544,-0.020514539,0.123515137,-0.051169075,-0.062796853,0.091838419,-0.115485020,-0.015279231,0.136259809,
-0.166032642,0.500704110,0.125488922,0.058746610,-0.013494865,0.127934471,-0.061620027,-0.048409265,0.033438575,0.309087455,-0.634631991,0.059109643,-0.088528231,-0.215602726,1.587910533,0.074609399,0.067058101,-1.657757163,-0.066905700,-0.041730486,0.010543893,-0.121201865,-0.134724140,0.721040606,0.001498911,0.016487218,1.694680810,0.533773005,-0.015746502,0.034634713,0.532707214,-0.067185543,-0.007721151,-0.067958817,0.038647521,0.121062323,-0.027579620,-0.070728436,0.235119343,-0.210101575,-0.083777085,-0.196581960,-0.106061891,0.123786770,0.111853495,0.126133218,0.002229257,-0.058641627,-0.831732512,-0.012715166,
-0.019139627,-0.097808257,-0.126391903,0.022601653,0.032864258,0.012284256,0.096052624,-0.059053943,0.018893985,-0.077889450,-0.002293098,-0.063679986,0.099041156,0.092250004,0.122827806,0.006361730,0.083395198,-0.141299501,-0.114447854,-0.005616712,0.000788702,-0.142223030,-0.062594734,-0.096929610,-0.140114933,-0.017997378,0.064811409,0.026269689,-0.067193948,-0.129862323,-0.124393158,-0.028759748,0.097285636,-0.088448413,-0.108355619,-0.075442135,-0.043470945,-0.165717274,-0.151890278,0.108539850,-0.098947711,-0.056816630,-0.068556219,-0.124239542,-0.024931615,0.012033252,-0.088227987,-0.006027353,-0.031683490,-0.140785649,
-0.128807351,0.509943128,0.096421860,5.303252697,0.073901601,-0.132500842,-0.034985762,-0.028762883,-0.689134955,0.632242203,1.383409858,-0.370878726,-0.040835898,-0.132944137,0.302779704,-0.119851246,0.082463384,1.962920427,-0.398027062,-0.368646234,0.343816459,0.035833117,0.141169429,-0.244238898,-0.073191144,-0.892612159,-5.256029129,-5.164326191,0.118905187,0.047496315,-2.378025293,-0.290120244,0.002050276,-0.713911712,-0.257820517,0.113444149,-0.522919714,-0.916129053,1.816098928,0.145314693,-0.171342626,0.188986629,0.073183917,-0.124093845,-0.078415483,4.201489925,-0.261423141,-0.123033717,-0.393855274,-0.003058310,
0.315673321,-1.877251267,0.048690502,-0.555548608,-0.059512280,-0.029496221,-0.052346539,0.077493273,0.115287527,-0.511163116,0.046844624,0.144524395,-0.081684895,0.552763939,-1.779037356,-0.130960643,-0.026201230,1.822858453,0.130375192,0.108530961,-0.756289601,1.003264904,-0.034842987,0.149640605,0.088910215,0.238808438,-0.906882703,-1.498954773,-0.013124209,-0.051203147,-1.639389753,0.141411960,0.119903892,0.122510888,0.150280863,-0.082491316,0.089193128,0.250842333,-4.456640720,0.662270308,0.314617187,0.758346379,0.446220070,0.127374783,-0.024590680,-0.965919018,0.178668976,-0.105902664,1.790961981,0.052639224,
-0.092961267,0.034013402,0.139194727,0.016276518,-0.013235595,0.035348967,-0.081479035,-0.118829742,-0.138066828,-0.150398076,-0.002741205,-0.004215681,-0.060099553,-0.170084193,0.044870391,-0.080243796,-0.023609973,-0.118579254,-0.111547090,0.027239101,-0.131766096,-0.112388097,0.106027871,-0.104280576,-0.058853339,-0.071469329,0.028689209,-0.092768118,0.014179667,0.057756864,-0.010266231,-0.006190662,-0.107882939,0.032177147,0.021092407,-0.017738784,-0.148696557,0.024804773,0.092283309,-0.056486331,0.034893770,0.020688949,-0.088315338,-0.009817518,0.140776262,-0.031093197,-0.144327670,-0.010313621,0.070356093,-0.046163276,
-0.153033838,0.494412571,0.074813560,0.433018327,0.007225066,-0.014957108,0.032833170,0.005026046,-0.092959717,0.348276645,-0.638331771,-0.049252085,-0.053893968,-0.224686459,1.428639531,0.042274117,0.076635301,-1.574473977,-0.048095837,-0.137099683,0.106057636,-0.307283372,-0.100026645,0.895419180,0.105757542,0.127614319,1.790577769,0.611410260,0.079590350,0.093666434,0.389396191,0.020997027,0.100839995,0.011913301,-0.157199293,-0.109657966,0.069025360,0.116090775,0.421786219,-0.254432827,0.043309595,-0.431525886,-0.257556379,-0.136079937,0.113941245,0.410026491,-0.078055821,0.047853213,-0.873029232,-0.090699770,
0.014000710,-0.014081996,-0.101274446,0.006862757,0.066308193,0.107533522,0.011512699,-0.071033828,0.035239443,0.002880572,-0.103945330,-0.128983349,0.030953860,0.037648350,-0.070736185,0.068381965,-0.087584056,0.288827926,0.069913857,-0.014292273,0.023268413,-0.101647004,-0.083452351,-0.043081995,0.037711486,-0.031305686,0.076779991,-0.078735240,-0.126299128,-0.067327335,-0.162310630,0.078457139,-0.063485362,-0.139535040,-0.056726951,-0.095290907,-0.112002946,0.032781351,-0.186303273,0.023378449,0.068303227,-0.053055733,0.019311124,-0.079218395,0.110282749,0.111445136,-0.010097792,0.128873870,-0.172237128,-0.015528181,
0.248358876,-0.496046335,0.068820126,0.346065372,-0.051149637,-0.112205736,0.057815567,-0.102902010,0.177950695,-0.158801600,0.916387737,0.262710065,-0.052756209,0.373544782,-1.519949675,0.026238995,0.119049072,-0.998756826,0.270601034,0.171233848,0.114314474,0.415145159,-0.037856318,-0.684411168,-0.026521007,0.310362995,-1.359857559,-0.721482515,0.043697383,-0.113660954,-0.398751169,0.273742855,0.095358059,0.445926785,0.301158190,-0.011700489,0.256586313,0.168184966,0.007290606,0.469242752,0.101089418,0.598596334,0.253586411,-0.006286489,-0.038704935,-0.046839353,0.185020715,-0.069040433,0.873118639,-0.072846986,
-0.116621569,0.468672603,0.104037374,0.460621595,-0.005430200,-0.040816527,-0.075655974,-0.024868581,-0.065381482,0.390408963,-0.700004637,-0.046385624,-0.079806104,-0.312124103,1.644242048,-0.069428861,-0.008503751,-1.424301624,0.100926533,-0.216652885,0.008984000,-0.244243264,-0.044285990,0.818258882,-0.031441484,0.169050008,1.614328980,0.510729194,0.051488735,0.112946831,0.551131904,0.051171441,0.005961065,-0.058280297,0.006137423,-0.081974767,-0.055709478,-0.126735732,0.152487457,-0.207745969,-0.054860454,-0.196161494,-0.053260691,0.074211314,0.056596022,0.421733469,0.054211508,0.068004973,-0.744142175,-0.004082394,
-0.069516614,0.375902891,-0.102633096,-0.039836887,-0.103965253,0.068617836,-0.084260203,-0.046195358,-0.074895345,0.401136220,-0.803787589,0.009142224,0.070927098,-0.179993838,1.583403111,0.077095680,0.111793593,-1.574794650,0.104899436,-0.253176481,0.062809646,-0.189142033,0.017134381,0.707275569,-0.140196338,-0.033186067,1.744614244,0.621761084,-0.127707615,0.067519441,0.268934250,-0.099059701,-0.088564359,-0.020996427,-0.033593200,-0.107552521,0.097186968,0.118280783,0.342538357,-0.186179221,-0.126026645,-0.375665754,-0.193816885,0.015452451,-0.098653607,0.109740689,0.028341752,0.040775560,-0.755428195,-0.057659321,
0.020800719,-0.087283835,0.069812581,-0.033231691,0.104836784,0.078569286,0.117711738,0.072675802,-0.023042016,0.099569768,-0.110939272,0.104586922,0.138195127,0.105258159,-0.094756581,-0.074933276,0.008947490,0.044038299,0.042389985,0.028499011,0.090822749,-0.072275840,-0.046396602,0.017798105,0.039409496,-0.111255959,-0.013599638,-0.107374139,-0.041488670,-0.055504080,0.095976561,-0.156525522,-0.083498709,-0.168502063,0.006508613,-0.108850464,0.017113376,-0.127770826,-0.120896585,-0.102795415,-0.007796024,0.099869229,0.102885462,-0.010684345,-0.138521776,-0.071766630,-0.083576411,-0.030079719,0.031262122,0.071168177,
0.042316258,0.031395018,-0.057251319,-0.024135755,0.017998340,-0.072236665,-0.012651035,-0.017653478,-0.155169308,0.095872737,-0.038151667,-0.142689750,0.111888848,-0.096268564,0.034587789,0.140249342,0.006546754,0.040687438,0.035216585,0.085840575,-0.060176019,-0.086924210,-0.011067189,0.089386784,0.012159670,0.074029520,-0.025372295,0.043390926,0.004917543,0.003839022,-0.156966850,-0.140202790,0.011756375,0.047127087,0.074074917,0.006136160,0.038188547,0.037179723,-0.132727832,-0.143811226,-0.129620165,-0.017410619,-0.109566793,-0.045256682,-0.021158630,0.028924137,0.011750909,0.131193176,0.102125674,-0.090220712,
-0.042083088,0.179289773,0.123460636,-0.130408317,-0.055578899,-0.089584246,0.104207903,-0.040065758,-0.462350518,0.124584921,-2.007417440,-0.459901154,-0.099688783,0.400407672,-0.364626557,-0.065170474,-0.099422596,-0.833268583,-0.696400583,2.775626898,0.113834336,0.236213088,0.056862019,-2.788304329,-0.000197500,0.029121637,-7.571552753,0.614956975,-0.018747240,-0.071177334,0.673617661,-0.575380921,0.040831614,-0.495888263,0.692987680,-0.021013729,-0.311377376,0.178960025,0.489791721,0.286086619,-0.449648321,0.231099874,0.214208871,-0.022111047,-0.075383723,-0.001406420,0.263819963,0.005539057,0.685172975,0.106552444,
0.077098750,-1.825072289,0.021582525,0.116736814,0.088106915,-0.058011245,-0.015494329,0.062087167,-0.033987444,-0.510092437,0.081940256,0.055827226,-0.101584733,0.507282317,-0.300985485,0.017048283,-0.014174374,2.326145411,-0.025402626,-0.040250149,-1.585319638,0.155729339,0.003670485,-0.020669496,0.031506557,0.189933166,-0.774799824,-2.445834875,-0.038688160,0.093535244,-1.507313013,0.216632277,-0.056169748,0.065253697,-0.023964668,0.065979682,0.075872734,0.036862165,-5.039250851,0.366351902,-0.048416626,0.639544070,0.241291240,0.138726041,0.068814307,-0.129675150,0.231556773,-0.059137866,4.102458954,-0.040840484,
-0.178372830,0.424490452,0.013433584,0.446820170,-0.014357426,-0.002804080,0.121259004,0.126242086,-0.123532511,0.365999252,-0.580560684,-0.012396220,-0.019280195,-0.232084736,1.573739767,0.137645245,-0.135542169,-1.617112517,-0.040589500,-0.212464005,0.122482404,-0.105529152,-0.106944814,0.849899054,0.118129566,-0.021931518,1.724645615,0.474208027,0.030290570,-0.065566167,0.361546308,-0.063751169,-0.117931284,0.118948266,-0.090542980,-0.003923332,-0.087452203,0.090913974,0.206026196,-0.342406452,-0.173087895,-0.427203268,-0.038379863,-0.109204970,-0.019524410,0.394580543,0.031703487,0.037825838,-0.924014688,0.127006903,
-0.192061201,-0.039214447,-0.011814891,-0.032773070,0.096373968,0.119404420,0.018422034,-0.049949884,0.053240366,0.043496199,0.011048416,-0.090097807,0.005962313,0.074951202,-0.036685824,-0.027869217,-0.119735137,-0.075785249,0.102139436,-0.056576375,-0.061520297,0.002213357,-0.093044937,-0.060592685,-0.039775383,0.021028996,0.062072463,0.035206821,0.105437495,-0.126388535,-0.102682374,0.002733763,-0.120116904,-0.012051268,-0.143760085,0.060600813,0.062774904,-0.172220618,0.066339701,0.014747806,-0.144924313,0.084134728,-0.173552215,-0.095207646,-0.070349447,-0.007161357,-0.025607755,-0.041503016,-0.164324895,-0.016324487,
0.011318047,0.484918445,0.070794404,0.025090672,0.035139617,-0.109023079,0.057267100,-0.140747607,-0.076390706,0.258692920,-0.600726724,-0.075483717,-0.064418748,-0.256487906,1.425408483,-0.037442353,0.039166950,-1.605322957,0.034127560,-0.064586669,-0.008105552,-0.270902693,0.136891842,0.777963936,-0.022897676,0.075967550,1.769058585,0.481018811,-0.058907844,-0.023116400,0.453664958,0.010822522,0.082307316,-0.123710528,-0.149956986,0.107811123,-0.002652744,0.011843632,0.371174127,-0.332840711,-0.125382066,-0.279590160,-0.213470578,-0.058420863,0.018684255,0.265526712,-0.044075850,-0.095642596,-0.925846994,-0.080147378,
0.074432433,-0.093705751,0.112760372,0.056326468,-0.121101521,0.104948930,-0.139856696,-0.008222412,-0.088297434,-0.121661298,0.014012024,-0.068569385,0.102224424,-0.111172721,0.117382959,0.085319087,0.123865291,-0.041412719,-0.086684927,-0.093955413,0.117601834,-0.070339553,-0.017412852,-0.021798199,0.024329809,-0.116047442,0.114033595,-0.104643114,0.139096305,-0.055335950,-0.063133642,-0.019438718,0.041854519,-0.026203219,-0.141145363,0.099473476,0.140076205,0.071351148,0.138384521,0.038544443,-0.011081738,-0.112641454,-0.123602971,-0.097368173,-0.035881855,0.082350649,-0.058348183,-0.005492696,-0.001995889,-0.092444159,
0.006332533,-1.221535444,0.113031663,1.102156639,-0.013947876,0.002508109,0.077313170,-0.047040503,0.038465478,-0.056673385,0.376698017,0.021664333,0.119162381,-0.133260027,0.330053449,-0.122825883,0.026243798,3.354636431,0.410601109,-0.068445392,-1.621828914,-0.614728093,0.040277604,0.057985306,0.003121396,0.352654994,-1.347721457,-4.817968369,0.054001477,0.037730601,0.093374655,0.402677476,-0.018767234,0.080262631,0.018991157,-0.108520910,-0.038328309,0.075436048,-15.316096306,-0.037918247,0.231631786,-0.183340624,0.063337483,0.018538006,0.035012435,0.648342848,-0.051646877,0.051855784,5.847418785,-0.133998439,
-0.084376991,-0.145332471,-0.056383889,0.059090842,-0.133997008,-0.126716107,0.081886224,-0.083514556,0.076730840,0.033979747,0.006518511,0.086838432,-0.130997926,0.078331836,0.024085691,-0.094767816,0.034409516,-0.039414067,-0.083210334,-0.041389614,-0.089448176,0.102120399,0.121721670,-0.041416202,-0.125409171,-0.038155101,-0.018926304,0.094529010,0.004550106,0.041160125,0.010043740,-0.103865333,-0.087721787,-0.155269817,-0.027094983,0.043802362,-0.036582708,0.110080607,-0.046989031,-0.117241487,-0.001646733,-0.064769924,-0.044675458,0.137030214,-0.004057730,0.094744049,-0.007255133,-0.052611828,0.077461101,-0.080557689,
-0.076176763,0.417104512,0.063474745,0.105687529,0.006937523,-0.036616780,0.091692850,0.047580354,0.050080471,0.400514126,-0.702510178,-0.068787239,0.113455795,-0.374803036,1.443795681,0.010345686,-0.056020901,-1.580771327,0.184311956,-0.152942941,-0.008871434,-0.251180708,0.129876688,0.732429445,-0.062010139,0.096405417,1.712975621,0.414087802,0.117773823,0.079637870,0.546678007,0.100196421,-0.047680765,-0.038718656,0.002832011,-0.027415076,0.018294265,-0.137220666,0.266272783,-0.227894515,-0.064242393,-0.368025124,-0.281268865,0.089881748,-0.028434020,0.168324366,0.123419613,0.068819404,-0.955379069,-0.103213742,
0.100830667,-0.039695401,-0.085053980,0.050379328,-0.029457934,0.009687791,-0.073671147,-0.119783156,-0.128098086,-0.059746437,-0.137359545,0.103503682,0.001530622,-0.089540191,0.020288520,-0.125379771,-0.072335914,0.053118013,-0.159756497,0.035066348,-0.021817159,-0.154044509,-0.140351117,0.008134080,0.066845395,-0.065728150,-0.157685980,-0.081507690,0.015030747,0.005145052,0.002451662,-0.017488994,-0.007412788,0.031720471,0.101475649,0.117777653,0.093175635,-0.084313251,-0.077917270,-0.053007115,0.004606936,0.022120394,-0.048876103,-0.091347769,-0.106702425,0.106451392,-0.074495606,-0.019115755,-0.112103581,-0.070111036,
0.012170274,0.037653491,-0.055907190,-0.066627681,0.112028234,-0.072834358,-0.105512328,-0.022063944,0.116949707,0.013337255,0.003704658,-0.036235739,0.088372625,-0.089539997,0.075895861,0.033409961,0.015723675,0.019468961,-0.105182044,0.086580455,0.054142039,-0.133490905,-0.131674841,-0.055191498,0.093953587,-0.085640565,0.114875935,-0.071103238,-0.127746254,0.062209494,-0.102178395,-0.042136360,-0.044109881,-0.027567934,-0.141866520,-0.129711851,0.042909637,-0.034193967,-0.106748775,-0.023659188,-0.148007780,0.017847927,0.047934599,0.137152776,-0.115212172,-0.031325262,0.057808660,0.129607126,-0.113898404,0.060098745,
0.058387801,0.085258812,-0.097498171,0.100920618,-0.061598010,-0.087051742,0.028080221,0.119803719,-0.093652271,0.075506002,-0.016196378,0.045146983,0.110318623,0.038398765,-0.117401853,-0.042578571,0.028068909,-0.119301699,0.023511266,-0.075938880,-0.028111342,0.050592221,-0.113818698,-0.090794548,0.064502887,-0.139871478,0.097324528,-0.109047070,-0.002277144,0.029031510,0.055803794,-0.087775670,0.019031478,0.060894243,0.121298447,-0.106426559,-0.070310742,0.041198343,-0.004540008,-0.095434971,-0.119027391,-0.125572175,-0.098959342,-0.060212776,-0.098202921,-0.124061480,0.011039204,0.082937449,-0.066678323,0.014141819,
-0.096215770,0.432049364,-0.098076679,0.405607432,0.132001996,0.100963339,-0.140165091,-0.021289503,-0.018712427,0.260159343,-0.750113368,-0.171209276,0.093969874,-0.321525604,1.522811055,0.041497383,-0.086803041,-1.555714726,0.132906333,-0.232878536,0.133586317,-0.202140376,0.077758543,0.845422566,0.037519883,0.038424060,1.563304543,0.600954175,0.086219795,-0.051367823,0.270310968,0.140626177,-0.033195566,0.027168557,-0.119145170,0.090188526,0.115434237,0.075104110,0.252699286,-0.194997936,-0.000280948,-0.302361220,-0.286003917,-0.060725369,-0.139920413,0.476139843,0.112811908,0.082379915,-0.789108455,0.033423718,
0.040435620,0.299152106,-0.047478747,0.305641174,-0.014004050,0.009700873,0.038712692,-0.098384604,-0.042290434,0.198125914,-0.771850467,-0.058158748,-0.138048783,-0.237023905,1.416538119,-0.098404638,-0.029344374,-1.694067478,0.158671409,-0.040315084,0.023968000,-0.166635036,0.072347634,0.790491819,-0.018944217,-0.101709455,1.794258714,0.415604174,-0.026191199,0.008772580,0.360169858,-0.029725060,-0.122226305,0.001601928,-0.099889576,0.123291492,-0.074927062,0.090188153,0.300143301,-0.352767527,-0.105159238,-0.330333441,-0.167184234,-0.023299538,0.041970052,0.511737764,-0.006617063,0.051224623,-0.755703330,0.030483637,
0.065191112,
-0.182622701,
-0.121944979,
-0.162845045,
0.253728122,
-0.006408007,
-0.057084717,
-0.081596404,
0.054211643,
0.097758390,
-0.132383063,
0.038152233,
0.063309312,
-0.200816929,
0.133756086,
0.074031904,
-0.009091638,
-0.047506168,
-0.032553975,
0.045372922,
-0.197912857,
-0.026215404,
0.457812101,
0.008513319,
-0.368459404,
0.003732748,
-0.029881211,
0.441442758,
-0.044670776,
-0.113875367,
-0.165008351,
0.312417507,
-0.294087648,
-0.119807608,
-0.166286632,
-0.006141143,
-0.019563096,
0.177689746,
-0.176884785,
-0.083643936,
-0.107831635,
0.000450196,
-0.020910263,
0.011162555,
-0.152721792,
-0.036447622,
0.101755269,
-0.089507855,
-0.178122252,
-0.158161536,
0.070242748,1.031277299,1.829010010,-0.086772077,-1.557925940,-0.008790265,0.008971115,0.104348823,0.088093407,0.092129052,-0.050172474,-0.098676480,-0.090045296,1.747332215,-2.800938129,-0.114969492,-0.059834693,-0.108419836,-0.037515491,-0.089031324,-12.309380531,0.115992002,2.283123732,0.116852224,1.358312011,0.007238040,-7.518245220,-5.260556698,-0.082989253,1.323176265,0.027283782,-1.882207990,1.461419106,1.203493953,-0.071986608,-0.092808351,-8.027532578,-7.144568443,1.840573549,0.081235394,1.279771805,-0.120529793,-6.131371498,-0.111913010,1.470916510,-0.006246631,-0.014070941,-0.044125374,1.282612443,1.607859015,
-0.131340951,
