// Neural Network File Format by Kyle Julian, Stanford 2016
3,2,1,50,
2,50,50,1,
0,
0.0,0.0,
0.0,0.0,
0.0,0.0,0.0,
0.0,0.0,0.0,
-0.121365204,0.453381270,
-0.292745441,-0.520719111,
-0.272345245,0.189615890,
-0.591501355,1.016945124,
-0.062751517,0.187109336,
-0.213696912,-0.138992712,
-0.675533414,-0.468304157,
-0.291485757,0.026193760,
0.298966646,0.594473183,
0.051150493,-0.644243777,
-0.156156898,1.032942414,
-0.254444778,0.679454744,
-0.113973841,0.074821867,
0.939489305,-0.942301810,
-0.560933828,-0.259004056,
-0.275630176,0.610940814,
-0.458332211,-0.325504482,
-0.983825505,-0.771580517,
-0.443081260,0.958241999,
0.312718421,0.309051454,
0.291492373,-0.747198224,
0.602481365,-0.729405284,
-0.510931492,-0.364534736,
0.545604348,0.458943218,
-0.313598335,-0.025514100,
0.320698440,1.069284201,
0.786102951,-0.056143817,
1.242893815,-0.302524090,
0.131765127,-0.548223794,
-0.490085900,-0.365279734,
0.741751254,0.299069047,
-0.523908615,0.581430793,
0.388181835,-0.089249156,
-0.047908477,0.384043872,
0.487677574,0.629199743,
-0.544913113,-0.259133220,
0.242922455,0.702326775,
0.776106477,0.726175308,
0.585367620,-0.725921512,
0.253118008,-0.553227603,
-0.854456306,0.971109807,
0.838103235,-0.916703522,
0.126412153,-0.132264242,
-0.116362303,-0.323682994,
0.271922261,-0.418821812,
-0.164026335,1.024082780,
0.570945680,0.280482054,
-0.699848473,-0.458697975,
0.308302253,0.091603920,
-0.551602662,-0.407165855,
0.799763024,
0.791905046,
-0.308316320,
-0.214067310,
-0.673588574,
-0.012709634,
-0.532493055,
-0.545431554,
-0.008461675,
0.525868654,
-0.238005131,
0.556959093,
-0.430302113,
0.757881045,
0.685214341,
-0.596291065,
-0.175987795,
0.786972523,
0.381566852,
0.329011470,
0.431015640,
0.502547920,
-0.345017731,
0.487219959,
-0.678291380,
-0.279570252,
-0.052403588,
-0.195520863,
-0.247369543,
-0.579560041,
-0.014360695,
0.471450388,
-0.460655868,
0.144422472,
0.611462772,
-0.072690755,
0.134512275,
0.053482115,
0.491184860,
0.611846149,
0.883155882,
0.618839681,
0.847937465,
-0.051139131,
-0.635209203,
-0.235114694,
0.629347086,
-0.004583807,
-0.396291733,
-0.541864216,
-0.132349476,-0.119360790,-0.028685451,0.077556327,0.076458193,-0.136391267,0.088216104,-0.110663556,-0.029897930,-0.057342492,-0.027239915,-0.027767053,-0.126904458,-0.122108564,-0.022129541,0.001828887,-0.064244173,0.053273316,-0.127287477,-0.009544138,0.124368697,-0.057684641,0.127703935,0.051216278,-0.127627254,0.089476921,-0.016319243,-0.063131467,0.113088056,-0.114281930,0.015175209,-0.029609207,0.100990780,0.039476998,0.067953721,0.049944218,-0.034008261,-0.029741684,-0.116542719,0.076628335,0.112285465,0.096764013,-0.099755563,0.006307377,-0.099692747,-0.077850223,-0.082407005,0.048330046,-0.084274851,-0.003085419,
0.171195433,0.518635809,-0.106903248,-0.901696920,-0.082117945,0.098985538,-0.050836030,0.119287319,0.091459908,0.734093845,-0.150189936,0.125874639,0.017743621,0.157258973,0.376659662,0.018044382,-0.110620514,-1.577350020,0.237800971,0.009271591,0.317803949,0.635654807,0.051086634,0.129074916,-0.122557156,-0.134432569,-0.106959648,-1.264774919,-0.047449175,-0.020942720,0.010432175,0.358166486,0.017654877,0.257678449,0.211984590,-0.089408562,0.141327247,-0.036079913,0.405366689,0.269768596,0.232536718,0.317026436,0.141258135,0.000226396,0.072807051,-0.676457167,0.240254208,-0.116944492,0.015339258,-0.024044003,
0.048625421,0.363097191,0.116943970,-0.618578553,-0.083961025,-0.052303113,-0.140169546,0.063836746,-0.022120573,0.600690007,-0.160069048,0.199259520,0.074893035,0.248199865,0.315751523,-0.047229037,-0.039519940,-1.441064715,0.227173239,0.138245329,0.175521463,0.392123967,-0.133709520,0.131624594,-0.079363197,-0.253623098,0.122647867,-1.294881582,-0.016088312,0.040516306,0.024448641,0.111315444,-0.114313960,0.234325275,0.122190565,0.117326632,0.023880843,0.105221108,0.315025568,0.163958311,0.054352961,0.203233719,0.183787867,-0.002917321,-0.031805970,-0.533711851,0.206319988,-0.105277471,0.072542958,-0.047553431,
0.049237981,-0.490545630,-0.073462315,1.147033691,0.027772447,-0.105003871,0.023546450,0.060235485,0.273312509,-0.965019941,0.447191507,0.268428206,0.049116727,-0.763425410,-0.085163608,0.094181336,-0.073843390,1.936354637,0.702581644,0.040005520,-1.102334499,-0.950393856,-0.111178078,0.033655357,0.097930029,0.534871995,-0.194760650,-0.112214617,0.066045783,-0.068798617,-0.061614070,0.545298696,0.141083330,0.346674830,-0.013453295,0.055330064,0.337985873,0.247354582,-0.924902976,-0.509850919,0.398000956,-0.931716263,-0.049287699,0.079249650,-0.085104406,0.898467600,0.010700446,0.077093802,-0.095371790,0.040573761,
-0.128307268,0.070658624,-0.025447443,-0.078415260,0.025119523,0.060170293,-0.048058875,0.068953007,-0.186641991,0.409510463,-0.533258796,-0.265738308,-0.113569237,0.173391283,-0.041825052,0.132683754,0.113295659,1.236658454,-0.537940800,-0.062950112,0.039718341,0.638612807,-0.106915653,-0.109745145,-0.136625960,-0.005572345,0.358765185,1.486206174,0.101234749,0.109195292,0.127079278,-0.651630819,0.062225696,-0.096669227,-0.006833715,0.141375586,-0.016526574,0.047387522,0.300497115,0.103132918,-0.189744800,0.064350002,-0.111104056,-0.079353869,-0.108821027,-1.101777077,0.070637643,-0.016095545,-0.099886067,0.109305345,
0.090437397,0.010512419,-0.066770017,0.129972994,0.057832949,-0.107359372,0.135351971,0.107391678,-0.051546793,0.079500660,-0.080354065,-0.022162752,0.120081045,0.005843408,-0.100015759,-0.047267675,-0.038388144,-0.027284253,0.013534112,0.130790666,0.007571749,-0.087319203,0.007248449,0.067809731,0.070150688,-0.129250437,-0.025306284,-0.105096512,-0.060342453,0.050953183,-0.100427583,0.052570120,0.120035358,0.009275595,-0.094255596,-0.050669145,0.030881351,-0.107808053,0.070259593,-0.128392160,-0.135947421,-0.137413561,-0.028689209,0.095096380,-0.133852348,0.117547616,-0.056571778,0.041420069,0.006449227,-0.127522349,
0.117284842,0.076147407,0.140572220,0.071447797,-0.093347855,0.118027970,0.007600611,0.067064337,-0.113395765,-0.040676530,-0.138858467,-0.055082563,0.030508993,-0.111038640,0.045080069,0.075915955,0.019701310,-0.094622679,-0.109646767,-0.043630842,0.062078062,0.139497533,0.081321388,-0.015925355,0.049584657,-0.138743252,-0.120788172,0.065988332,-0.080103211,0.068037204,-0.099833883,-0.070047542,-0.116487220,0.073799424,-0.014410143,0.108838037,0.087521747,0.078254461,0.004547561,-0.043724373,-0.030749483,0.018794984,0.070103921,-0.099078380,0.118691817,-0.015376756,-0.118503407,-0.076517135,0.125132129,0.129333675,
-0.130995736,0.099744245,0.070874617,0.083709918,0.119717322,-0.076219089,0.044657439,0.057874318,-0.041789073,0.047327101,-0.040688824,0.087435357,-0.039238010,-0.052721277,0.035602693,0.050161261,-0.069094464,0.012501413,0.081958733,-0.014070962,0.043039318,-0.034108993,0.049568135,-0.102444813,-0.083159834,-0.071784146,0.129967764,-0.038054239,-0.000386133,-0.068518020,0.141179547,0.138122022,-0.106658101,-0.114646040,-0.107196398,-0.000682037,-0.036048859,-0.092566743,-0.050723903,0.026718860,-0.073891349,0.031336505,-0.032430165,-0.068527609,0.019429242,0.116284877,-0.095612049,0.006566816,-0.052151635,0.138777673,
-0.134175390,-0.135575175,0.139354482,-0.089475878,0.027113777,-0.012205525,-0.029791400,-0.031586148,0.089864872,0.006759512,-0.137689903,-0.083489537,-0.048210584,0.071165547,-0.091518529,0.133348972,-0.031498685,-0.025393900,0.110811844,0.071079463,0.119942330,0.081804387,-0.042900722,-0.093829170,-0.010522180,0.117045633,-0.047463812,-0.131149918,0.057972640,0.137669653,-0.040260289,-0.117100216,-0.128277615,0.035440106,-0.010708385,-0.071415983,0.028585764,0.053706013,0.112475090,0.109797031,-0.021168474,-0.124700710,-0.127791613,0.132043660,0.062516056,0.061646614,-0.122360736,0.130958408,0.133974552,0.127683729,
-0.119300939,-0.053361587,-0.097264498,0.133921161,-0.060765930,-0.064566568,0.074092478,-0.065420441,-0.069653146,-0.012370337,-0.013593354,-0.110164195,0.117898479,-0.062384032,0.050164260,0.123005986,0.071321122,0.020022418,0.120329358,0.019010741,-0.065429531,0.133784533,0.033471681,-0.137982115,-0.040261470,-0.096331634,0.123991601,-0.023355154,-0.128909096,-0.008890221,0.088814437,0.036741331,0.044718061,0.013134257,0.052724529,-0.034457594,-0.056257449,-0.132187754,-0.106537931,0.061292376,-0.083737478,0.020289224,0.045140490,0.010013182,-0.091690511,0.135245264,-0.082236446,0.116319157,-0.112501860,-0.034018695,
0.059785903,-0.070202284,0.118800022,-0.116069198,-0.118761629,-0.063769601,0.022860823,0.130214542,-0.085268885,0.041120734,-0.054392278,-0.047933578,0.103987612,-0.126305386,-0.000313542,0.132993951,-0.019433020,0.109804936,-0.061532840,0.096422955,-0.151897669,-0.026386933,-0.024840157,0.028378136,0.055483479,0.089663297,-0.039123975,-0.005608077,0.096846938,-0.038264822,0.105888970,-0.110945381,-0.015303184,-0.025930071,0.045734443,0.096686408,-0.040108774,-0.135026276,0.060330756,0.025920304,0.039649177,-0.103609443,0.074126095,0.133947954,0.012271325,-0.151080832,0.081939064,-0.104857050,0.014342994,0.020551041,
0.043376073,0.367617965,-0.126491889,1.211670399,-0.089654207,-0.015292412,0.018190866,0.120483145,-0.590089262,0.270503402,0.538853168,0.080460221,-0.123149678,-0.356662005,0.567273855,-0.035270423,0.007063829,1.586504459,0.356281191,-0.041116357,0.056970485,-0.280450463,-0.022658080,-0.233129561,-0.080801345,0.290530235,-1.756753206,-1.485037804,0.085588843,-0.073322266,-1.261736631,0.503583491,-0.031985313,-0.026058160,-0.186692938,0.120383643,-0.289040327,-0.720328748,-0.093631327,-0.079564773,0.181115270,-0.260923684,0.166214153,-0.040019985,0.066562355,0.710236073,-0.027770346,-0.074184135,-0.015502590,-0.044503164,
-0.138402492,-0.030301694,0.106410399,0.109162413,0.013194712,0.032120049,-0.061224371,0.106750838,-0.079370730,-0.124528892,0.009990321,0.060417991,-0.127504304,0.102768354,0.024221782,-0.099081613,-0.030463221,0.122694336,-0.132990614,-0.064738125,0.020451052,-0.155750811,0.077526942,0.049313176,0.087710313,-0.102870047,0.123879492,-0.083829142,0.141186669,-0.135720730,-0.142743587,0.059012935,0.014780361,-0.009181483,-0.102288924,-0.059322789,-0.063237540,-0.160191774,-0.019789960,-0.001336782,-0.025537251,0.020408167,0.109003715,0.037601683,-0.051770460,-0.058201496,-0.115061842,-0.098035954,-0.022775888,-0.025012571,
0.198592201,0.309081465,0.112741627,-0.784051776,0.000401946,0.127126485,0.140627295,-0.081920058,0.070285290,0.722229660,-0.170044392,0.080719739,0.038304541,0.054308388,0.321663648,0.061196517,-0.055729937,-1.382383347,0.107065484,0.171640277,0.406015247,0.426283598,0.076849520,0.067534611,-0.020657841,-0.180117413,-0.003769458,-1.273798823,0.033147316,0.005328812,0.105968334,0.189892158,0.014181757,0.070780538,-0.011288447,0.057228595,0.092324331,0.007020238,0.316001713,0.222377524,0.129328623,0.262009710,0.160617024,0.053420037,0.061616756,-0.534350693,0.177991062,0.104359530,0.016381096,0.027675156,
-0.022033015,0.065240078,-0.059707437,-0.098191187,0.061624866,-0.123081006,0.002267332,-0.065038420,0.068003803,-0.159834802,0.061287519,0.113017991,0.028615216,-0.037035868,0.110404372,-0.060436744,-0.011332597,-0.061929114,-0.046501733,0.004254086,-0.009505897,-0.060277574,-0.141398817,-0.019829018,-0.004189178,-0.003463845,0.084537305,0.137462899,-0.083902813,-0.008818251,-0.080995284,-0.160035029,-0.102906540,0.106741324,0.055661187,0.075964637,0.052747797,-0.138673291,-0.014444399,0.102885567,-0.106498681,0.097971559,0.009571387,0.099496089,-0.060583163,0.041879054,-0.152603418,-0.008979622,0.025009867,0.042411484,
0.083890930,0.097622544,0.128659084,0.064670578,0.099427991,-0.018247563,-0.109749608,-0.052499447,-0.047983591,-0.126587421,0.040235687,0.015087030,0.022818608,0.000513226,0.087785318,0.051510092,-0.124017969,-0.102655046,0.024635034,-0.014155940,0.035427060,-0.172244236,-0.130513445,0.052394919,0.090459563,-0.160745591,0.025398780,-0.110428050,0.107099496,0.044376671,0.109352186,-0.180872440,-0.136142969,0.058542632,0.091637038,0.086646035,0.060878195,-0.152733371,0.073694661,-0.169117659,-0.004430610,-0.125950396,-0.090829670,0.025041316,-0.055604052,-0.050388250,-0.168396130,-0.133342415,0.029585689,-0.059860617,
-0.172479436,-0.484001756,-0.115621656,-0.452731013,0.084622629,0.071876295,0.018837821,-0.077252783,0.161517546,-0.179348066,-0.394250959,-0.081747577,0.128770366,-0.120985545,-0.886763155,0.018119605,0.106493443,-0.456125587,-0.215693608,0.121863931,-0.012304042,0.065886214,0.141099766,0.119008064,-0.079539202,0.311839432,0.325209200,0.603646994,-0.140704766,0.076580420,0.147786483,-0.753173828,0.031391867,-0.085843220,0.028995631,-0.091817386,-0.044923943,0.106046170,-0.030410280,0.016617347,-0.293332011,0.134654909,-0.042001352,-0.045475643,0.095789440,-0.748848319,0.039745886,-0.045484308,-0.009955109,-0.027191529,
-0.024193520,-0.122872658,-0.000869726,-0.123390123,-0.030424092,0.081960216,-0.098337382,-0.095325321,-0.046571966,-0.038768411,0.014449953,0.011427943,0.071714282,-0.109720849,-0.022196181,0.079095729,0.122325450,-0.010316049,-0.087834574,0.028488487,0.068202734,-0.100503996,-0.082065888,0.050305985,-0.009908826,-0.143726394,-0.093567811,0.057351008,-0.047966689,0.097613133,0.099782191,0.020572552,-0.011182858,-0.053824257,-0.019317893,0.025741644,-0.120054893,-0.045950450,-0.130019546,0.074467145,-0.101929791,0.116874315,-0.048701372,-0.081016801,0.067946337,0.021082968,0.085701615,0.059039138,-0.136236772,0.089447655,
-0.048640206,-0.081519634,0.089810185,0.081936963,-0.124299578,-0.012787793,0.116136149,0.054770626,0.096857011,-0.058551706,-0.100623503,0.099787325,0.058947664,0.113297261,-0.079511791,-0.090801969,-0.016576407,-0.133159518,0.034037970,0.082043745,0.012150696,-0.039563950,0.070117608,-0.112256475,0.138344467,-0.163521543,-0.157750070,-0.033418104,0.115519255,0.014159925,0.031773414,-0.123745851,0.051574361,-0.038420584,0.034448486,0.099877782,0.039238460,-0.034808517,-0.030972615,-0.111177787,-0.072722308,0.069322355,-0.078862980,0.087828286,-0.056078088,-0.054502919,-0.019467810,-0.129777506,-0.021891568,-0.014254672,
-0.012704780,-0.028270725,0.111493386,0.104367152,-0.095849358,0.065694012,-0.110928454,-0.120395027,0.043229956,0.002078396,-0.065973967,-0.136401430,-0.054749314,0.047234666,-0.130899817,-0.137385964,0.017942488,-0.101880535,-0.123896465,-0.054487702,-0.022768959,-0.128510326,-0.094430961,0.009272695,-0.133356348,-0.019877398,-0.091316156,-0.098038562,0.055582982,-0.108850561,-0.107173942,0.080649987,0.026441028,0.128794253,-0.037801292,-0.068308651,-0.013088047,0.000715502,0.107854195,-0.140866980,-0.010069304,0.062558047,-0.077878341,-0.071861967,0.068344392,-0.135507852,0.033510607,-0.109486505,0.070295162,-0.120920986,
0.018034047,-0.218238786,-0.118874095,-0.105671979,0.111438394,-0.121112630,-0.063082375,0.124207914,-0.068510160,0.488696098,-0.495283574,-0.153373390,-0.071818314,0.170510799,-0.087959856,-0.103191726,0.022800941,1.232626557,-0.432141781,-0.101041898,0.042262215,0.537798047,-0.101378232,-0.122202605,-0.043631196,0.219604135,0.334646612,1.097422004,-0.034043748,-0.085750870,0.034659479,-0.584037662,0.114258394,-0.285742462,-0.125399292,-0.115059033,-0.078282632,0.107865214,0.392131031,-0.105662659,-0.198203519,0.160624310,0.032168400,0.115838781,-0.003922776,-1.198900342,0.077401295,-0.048495449,0.062214650,-0.034851383,
0.041391034,0.108477421,0.131501421,-0.128702641,-0.093547449,-0.058473039,-0.090184547,0.135693803,-0.031211479,-0.112531558,-0.081636965,-0.096839860,0.057698414,-0.142082736,-0.150575623,-0.139407694,0.060885306,0.069926448,-0.087833852,0.016343666,0.085670806,0.001822599,-0.029922156,-0.008278527,-0.015164285,0.052487887,-0.114748299,0.052991800,0.079708412,-0.085683621,0.096757188,0.138901904,-0.055752359,-0.058330663,0.051750921,-0.110792384,0.037202239,0.014268083,0.070416525,-0.141565651,-0.136212468,0.044789080,0.032214403,-0.131630227,-0.078864969,-0.148075029,-0.120044976,-0.063809268,0.117031619,-0.028150050,
0.135812789,0.471758246,0.064450271,-0.959877610,0.071166441,0.053942997,0.109610826,-0.139502868,0.014190423,0.975834608,-0.322923452,0.065293722,0.120727614,-0.052910395,0.319003254,0.062490899,0.037065137,-1.672096133,0.179232970,0.127307788,0.122040473,0.577266455,-0.131792352,-0.071324572,-0.030247362,-0.446378767,0.044186965,-1.221240759,0.091048911,0.096196137,-0.198961079,0.177013174,0.020650996,0.086547628,0.081370339,-0.056272518,-0.078068547,0.057116039,0.142948076,0.010767817,0.194681183,0.156131193,0.027039303,-0.028272968,-0.104351997,-0.477866024,0.070131958,-0.060414154,0.089559078,-0.113237947,
-0.031194281,-0.000515067,0.072683103,0.105977848,0.095771179,0.062253125,-0.064911529,-0.100995742,-0.133524433,0.007015158,0.128459066,-0.038252737,-0.005953630,-0.102770053,0.038578819,0.089658789,-0.139429569,-0.099577919,0.093117870,0.025703888,-0.008817070,0.025280237,-0.021501975,-0.109035343,-0.132148340,0.084964730,-0.016820185,-0.052522089,-0.036502998,-0.077134468,-0.046013646,-0.131141111,0.105831772,0.051690925,-0.083251804,-0.048268985,0.054380074,-0.061410051,0.037291922,0.037502415,-0.103219055,0.035426266,0.000059845,0.123515137,-0.051169075,-0.043829326,0.111767814,-0.115485020,0.010217476,0.136259809,
0.096939825,0.550467074,0.125488922,-0.637034655,-0.013494865,0.127934471,-0.061620027,-0.048409265,0.098107740,0.742735505,-0.057018697,0.284480125,-0.088528231,0.258980989,0.406446695,0.074609399,0.067058101,-1.546881437,0.011917126,0.236129642,0.236380428,0.582817912,-0.134724140,0.099441521,0.001498911,-0.162508830,0.009915208,-1.171652913,-0.015746502,0.034634713,0.154163048,0.145794258,-0.007721151,0.078194991,0.247901782,0.121062323,0.076157063,0.018337622,0.364657432,0.321775734,0.170187220,0.337784588,0.261632979,0.123786770,0.111853495,-0.616970420,0.177189469,-0.058641627,0.085238360,-0.012715166,
0.012242834,-0.097808257,-0.126391903,0.053255461,0.032864258,0.012284256,0.096052624,-0.059053943,0.050201871,-0.077889450,0.029302496,-0.032286290,0.099041156,0.123670511,0.122827806,0.006361730,0.083395198,-0.141299501,-0.082956955,0.025275281,0.000788702,-0.111026086,-0.062594734,-0.066051431,-0.140114933,0.013487464,0.096406102,0.057397757,-0.067193948,-0.129862323,-0.114095502,0.002623254,0.097285636,-0.057271771,-0.076953724,-0.075442135,-0.012242666,-0.134301469,-0.124796502,0.139213860,-0.067446120,-0.025507273,-0.037837673,-0.124239542,-0.024931615,0.043291442,-0.057425220,-0.006027353,-0.000676491,-0.140785649,
0.060786229,0.071812294,0.096421860,0.048168130,0.073901601,-0.132500842,-0.034985762,-0.028762883,-0.097753003,-0.022660047,-0.057199009,-0.056693453,-0.040835898,-0.184920937,-0.050577525,-0.119851246,0.082463384,1.620607257,0.097224347,-0.095311053,-0.050029963,-0.357758462,0.141169429,0.080884531,-0.073191144,-0.147329912,-0.375891417,-2.681398869,0.118905187,0.047496315,0.055954758,0.083074681,0.002050276,-0.154714048,0.092635714,0.113444149,0.013944479,-0.130805686,-0.074955389,-0.038833715,0.057555232,0.001919564,0.029438414,-0.124093845,-0.078415483,0.273180753,-0.077697366,-0.123033717,0.103068314,-0.003058310,
0.239918754,-0.422206491,0.048690502,1.009948492,-0.059512280,-0.029496221,-0.052346539,0.077493273,0.159571901,-0.785456181,0.572682261,0.232586280,-0.081684895,-0.675441146,0.040847924,-0.130960643,-0.026201230,1.074410558,0.599628210,-0.030000173,-0.947369516,-1.145342708,-0.034842987,-0.017765457,0.088910215,0.495743245,-0.431164384,-0.667216420,-0.013124209,-0.051203147,0.170207769,0.688837528,0.119903892,0.319511622,0.068623878,-0.082491316,0.150788635,0.133605301,-1.295358539,-0.468243629,0.518163741,-0.855049312,-0.017443756,0.127374783,-0.024590680,0.953820884,-0.016416393,-0.105902664,-0.067524232,0.052639224,
-0.061199941,0.034013402,0.139194727,0.048038069,-0.013235595,0.035348967,-0.081479035,-0.118829742,-0.106306374,-0.118667021,0.029022422,0.027546506,-0.060099553,-0.138331398,0.076608628,-0.080243796,-0.023609973,-0.118579254,-0.079784021,0.058995325,-0.131766096,-0.080644071,0.106027871,-0.072527766,-0.058853339,-0.039707407,0.060451850,-0.092768118,0.014179667,0.057756864,-0.010266231,0.025571624,-0.107882939,0.063936517,0.052853331,-0.017738784,-0.116937131,0.056565087,0.092283309,-0.024735717,0.066657215,0.052419119,-0.056563955,-0.009817518,0.140776262,0.000667657,-0.112587452,-0.010313621,0.070356093,-0.046163276,
0.036544822,0.428216487,0.074813560,-0.502097964,0.007225066,-0.014957108,0.032833170,0.005026046,-0.038414732,0.709754765,-0.050422788,0.115857720,-0.053893968,0.161409318,0.114454314,0.042274117,0.076635301,-1.493606925,-0.005285206,0.091629960,0.215102449,0.318941444,-0.100026645,0.224217564,0.105757542,-0.022534667,0.098725572,-1.141212583,0.079590350,0.093666434,-0.008750520,0.173492298,0.100839995,0.116704918,-0.000878137,-0.109657966,0.147748664,0.179842323,0.425185204,0.175770685,0.223495632,0.009191340,0.022867860,-0.136079937,0.113941245,-0.401104629,0.034307562,0.047853213,-0.035188280,-0.090699770,
0.020453509,0.004178228,-0.101274446,-0.109775588,0.066308193,0.107533522,0.011512699,-0.071033828,0.020327818,0.139940724,-0.139584273,-0.133294255,0.030953860,0.072789051,-0.073595695,0.068381965,-0.087584056,0.372011632,-0.007619952,-0.007821555,0.070179731,0.134974241,-0.083452351,-0.034890018,0.037711486,-0.047916234,0.090887986,-0.887353420,-0.126299128,-0.067327335,-0.185405314,-0.035808351,-0.063485362,-0.257769942,-0.048284646,-0.095290907,-0.119170360,0.031816028,-0.052713275,0.049863029,0.054314699,-0.009833420,0.035000123,-0.079218395,0.110282749,0.125869051,0.002909445,0.128873870,-0.152268901,-0.015528181,
0.014759411,-0.465579242,0.068820126,0.194940582,-0.051149637,-0.112205736,0.057815567,-0.102902010,0.035530332,-0.845689476,0.290335864,0.033920228,-0.052756209,-0.122104734,-0.122023553,0.026238995,0.119049072,1.434921384,0.152795807,-0.100408219,-0.169353008,-0.287518591,-0.037856318,0.012179499,-0.026521007,0.208183944,0.263151884,-0.006792016,0.043697383,-0.113660954,0.117835574,0.087588169,0.095358059,0.191655666,0.084982410,-0.011700489,0.085181646,-0.003549749,-0.064385414,-0.025278011,-0.116162926,0.042207755,-0.038775504,-0.006286489,-0.038704935,0.328664303,0.006461153,-0.069040433,-0.140613094,-0.072846986,
0.074354410,0.398029894,0.104037374,-0.510891020,-0.005430200,-0.040816527,-0.075655974,-0.024868581,-0.001719247,0.758474946,-0.112136908,0.121126615,-0.079806104,0.071200542,0.316408068,-0.069428861,-0.008503751,-1.335183024,0.148544133,0.014871147,0.108853884,0.380571783,-0.044285990,0.149880052,-0.031441484,0.034960303,-0.074823521,-1.233897567,0.051488735,0.112946831,0.162225783,0.204228908,0.005961065,0.050036311,0.165669575,-0.081974767,0.029300023,-0.056441035,0.143348292,0.219414249,0.126280144,0.240254313,0.227833524,0.074211314,0.056596022,-0.411506653,0.168531150,0.068004973,0.068715177,-0.004082394,
0.182687417,0.417776257,-0.102633096,-0.741888225,-0.103965253,0.068617836,-0.084260203,-0.046195358,-0.022454495,0.826126456,-0.235749781,0.223434404,0.070927098,0.284938008,0.397961736,0.077095680,0.111793593,-1.468986392,0.172650859,0.012992451,0.280916214,0.505995095,0.017134381,0.074559882,-0.140196338,-0.225726590,0.052306030,-1.097311020,-0.127707615,0.067519441,-0.120200597,0.103450269,-0.088564359,0.113879748,0.164044559,-0.107552521,0.189263850,0.195253998,0.462641597,0.337043375,0.117407121,0.149686456,0.163963869,0.015452451,-0.098653607,-0.639983535,0.192395598,0.040775560,0.153320760,-0.057659321,
0.020800719,-0.087283835,0.069812581,-0.033231691,0.104836784,0.078569286,0.117711738,0.072675802,-0.023042016,0.099569768,-0.110939272,0.104586922,0.138195127,0.105258159,-0.094756581,-0.074933276,0.008947490,0.044038299,0.042389985,0.028499011,0.090822749,-0.072275840,-0.046396602,0.017798105,0.039409496,-0.111255959,-0.013599638,-0.107374139,-0.041488670,-0.055504080,0.095976561,-0.156525522,-0.083498709,-0.168502063,0.006508613,-0.108850464,0.017113376,-0.127770826,-0.120896585,-0.102795415,-0.007796024,0.099869229,0.102885462,-0.010684345,-0.138521776,-0.071766630,-0.083576411,-0.030079719,0.031262122,0.071168177,
0.042316258,0.031395018,-0.057251319,-0.024135755,0.017998340,-0.072236665,-0.012651035,-0.017653478,-0.155169308,0.095872737,-0.038151667,-0.142689750,0.111888848,-0.096268564,0.034587789,0.140249342,0.006546754,0.040687438,0.035216585,0.085840575,-0.060176019,-0.086924210,-0.011067189,0.089386784,0.012159670,0.074029520,-0.025372295,0.043390926,0.004917543,0.003839022,-0.156966850,-0.140202790,0.011756375,0.047127087,0.074074917,0.006136160,0.038188547,0.037179723,-0.132727832,-0.143811226,-0.129620165,-0.017410619,-0.109566793,-0.045256682,-0.021158630,0.028924137,0.011750909,0.131193176,0.102125674,-0.090220712,
-0.050620280,0.084959120,0.123460636,-0.579151750,-0.055578899,-0.089584246,0.104207903,-0.040065758,-0.108877406,0.302523881,-0.314330965,-0.154061109,-0.099688783,0.356659919,-0.175182506,-0.065170474,-0.099422596,1.061820626,-0.577520609,-0.035083245,0.140387684,0.245823443,0.056862019,-0.062308621,-0.000197500,0.164527103,0.323290378,0.704742312,-0.018747240,-0.071177334,-0.006256944,-0.589056611,0.040831614,-0.060827184,0.087612405,-0.021013729,0.026925029,-0.078337781,0.313635141,0.315980196,-0.451071858,0.200109422,0.152419791,-0.022111047,-0.075383723,-0.880085647,0.075420655,0.005539057,-0.042954501,0.106552444,
0.058167376,0.031850699,0.021582525,0.357265949,0.088106915,-0.058011245,-0.015494329,0.062087167,-0.108247019,0.263143122,0.047242384,0.048131596,-0.101584733,0.008961111,0.107189499,0.017048283,-0.014174374,0.870956242,-0.093560040,-0.126971796,-0.154466331,-0.247911558,0.003670485,-0.096646346,0.031506557,0.061364662,-0.299276590,-1.764909267,-0.038688160,0.093535244,-0.140325233,0.179943681,-0.056169748,-0.016768731,-0.062096946,0.065979682,0.020534890,-0.121425569,-0.033272613,-0.037470326,-0.041400257,-0.045014970,0.074677356,0.138726041,0.068814307,0.469508022,0.061135769,-0.059137866,-0.083037734,-0.040840484,
0.014184870,0.362350583,0.013433584,-0.505052745,-0.014357426,-0.002804080,0.121259004,0.126242086,-0.062091436,0.736948490,0.006828145,0.156558916,-0.019280195,0.153859884,0.251731277,0.137645245,-0.135542169,-1.531908989,0.007696202,0.020024359,0.229094148,0.521702230,-0.106944814,0.181982160,0.118129566,-0.163306341,0.024784705,-1.269639492,0.030290570,-0.065566167,-0.030277308,0.092817850,-0.117931284,0.227868229,0.069781475,-0.003923332,-0.003360809,0.160104677,0.206077695,0.087612905,0.010608012,0.012140429,0.244446933,-0.109204970,-0.019524410,-0.427458256,0.147262931,0.037825838,-0.089343116,0.127006903,
-0.169164687,-0.018790623,-0.011814891,-0.032773070,0.096373968,0.119404420,0.018422034,-0.049949884,0.074268274,0.069105163,0.005693914,-0.068052284,0.005962313,0.097916983,-0.016390050,-0.027869217,-0.119735137,-0.075785249,0.102139436,-0.034391772,-0.040166844,0.022427611,-0.093044937,-0.037737902,-0.039775383,0.042367477,0.082677789,0.055778023,0.105437495,-0.126388535,-0.081783570,0.016746545,-0.120116904,0.005924338,-0.120887578,0.060600813,0.084431529,-0.149597272,0.085871883,0.037560135,-0.123394236,0.106807843,-0.150656387,-0.095207646,-0.070349447,-0.026065931,-0.002517922,-0.041503016,-0.134045854,-0.016324487,
0.257418603,0.507223248,0.070794404,-0.704226255,0.035139617,-0.109023079,0.057267100,-0.140747607,-0.014086727,0.671432078,-0.016652910,0.137421027,-0.064418748,0.195986882,0.218156472,-0.037442353,0.039166950,-1.504569650,0.106639259,0.202823341,0.190143377,0.411983967,0.136891842,0.145614028,-0.022897676,-0.100169659,0.082538530,-1.238337517,-0.058907844,-0.023116400,0.065980218,0.212904647,0.082307316,0.014711061,0.047416221,0.107811123,0.095965706,0.094415583,0.469734073,0.173656538,0.113368191,0.231258720,0.132054403,-0.058420863,0.018684255,-0.473787814,0.115335196,-0.095642596,-0.010025084,-0.080147378,
0.074432433,-0.093705751,0.112760372,0.056326468,-0.121101521,0.104948930,-0.139856696,-0.008222412,-0.088297434,-0.121661298,0.014012024,-0.068569385,0.102224424,-0.111172721,0.117382959,0.085319087,0.123865291,-0.041412719,-0.086684927,-0.093955413,0.117601834,-0.070339553,-0.017412852,-0.021798199,0.024329809,-0.116047442,0.114033595,-0.104643114,0.139096305,-0.055335950,-0.063133642,-0.019438718,0.041854519,-0.026203219,-0.141145363,0.099473476,0.140076205,0.071351148,0.138384521,0.038544443,-0.011081738,-0.112641454,-0.123602971,-0.097368173,-0.035881855,0.082350649,-0.058348183,-0.005492696,-0.001995889,-0.092444159,
-0.117473684,0.042145886,0.113031663,-0.215294808,-0.013947876,0.002508109,0.077313170,-0.047040503,-0.116709106,0.474054426,-0.475133955,-0.300015956,0.119162381,0.186733052,-0.198635176,-0.122825883,0.026243798,1.794940352,-0.696384072,-0.078110583,0.333863378,0.586746395,0.040277604,0.031957973,0.003121396,0.318469614,0.403403282,1.229944944,0.054001477,0.037730601,0.182449624,-0.842708290,-0.018767234,-0.204980299,0.001000340,-0.108520910,-0.203547984,0.088570848,0.333368391,0.078803100,-0.349838972,0.236096516,0.073495053,0.018538006,0.035012435,-1.220062971,0.032843169,0.051855784,0.085624576,-0.133998439,
-0.084376991,-0.145332471,-0.056383889,0.059090842,-0.133997008,-0.126716107,0.081886224,-0.083514556,0.076730840,0.033979747,0.006518511,0.086838432,-0.130997926,0.078331836,0.024085691,-0.094767816,0.034409516,-0.039414067,-0.083210334,-0.041389614,-0.089448176,0.102120399,0.121721670,-0.041416202,-0.125409171,-0.038155101,-0.018926304,0.094529010,0.004550106,0.041160125,0.010043740,-0.103865333,-0.087721787,-0.155269817,-0.027094983,0.043802362,-0.036582708,0.110080607,-0.046989031,-0.117241487,-0.001646733,-0.064769924,-0.044675458,0.137030214,-0.004057730,0.094744049,-0.007255133,-0.052611828,0.077461101,-0.080557689,
0.134253189,0.391886026,0.063474745,-0.727496386,0.006937523,-0.036616780,0.091692850,0.047580354,0.102107279,0.783197880,-0.116378367,0.114639677,0.113455795,0.033366662,0.187247351,0.010345686,-0.056020901,-1.487180591,0.238957927,0.087217666,0.139168859,0.391591668,0.129876688,0.073598593,-0.062010139,-0.075430647,0.014719628,-1.336422443,0.117773823,0.079637870,0.140851080,0.275370628,-0.047680765,0.077258438,0.171716541,-0.027415076,0.100367509,-0.073328227,0.310469449,0.231976226,0.140779763,0.096498415,0.023182452,0.089881748,-0.028434020,-0.593174040,0.249345481,0.068819404,-0.070676133,-0.103213742,
0.100858636,-0.039635804,-0.085053980,0.050430637,-0.029457934,0.009687791,-0.073671147,-0.119783156,-0.128077254,-0.059734832,-0.137334257,0.103538461,0.001530622,-0.089528628,0.020329762,-0.125379771,-0.072335914,0.053118013,-0.159673408,0.035090771,-0.021808155,-0.154044509,-0.140351117,0.008159393,0.066845395,-0.065700822,-0.157685980,-0.081507690,0.015030747,0.005145052,0.002468786,-0.017366001,-0.007412788,0.031801146,0.101500489,0.117777653,0.093204372,-0.084289283,-0.077917270,-0.052986205,0.004652301,0.022127390,-0.048851345,-0.091347769,-0.106702425,0.106451392,-0.074472159,-0.019115755,-0.112103581,-0.070111036,
0.012170274,0.037653491,-0.055907190,-0.066627681,0.112028234,-0.072834358,-0.105512328,-0.022063944,0.116949707,0.013337255,0.003704658,-0.036235739,0.088372625,-0.089539997,0.075895861,0.033409961,0.015723675,0.019468961,-0.105182044,0.086580455,0.054142039,-0.133490905,-0.131674841,-0.055191498,0.093953587,-0.085640565,0.114875935,-0.071103238,-0.127746254,0.062209494,-0.102178395,-0.042136360,-0.044109881,-0.027567934,-0.141866520,-0.129711851,0.042909637,-0.034193967,-0.106748775,-0.023659188,-0.148007780,0.017847927,0.047934599,0.137152776,-0.115212172,-0.031325262,0.057808660,0.129607126,-0.113898404,0.060098745,
0.058387801,0.085258812,-0.097498171,0.100920618,-0.061598010,-0.087051742,0.028080221,0.119803719,-0.093652271,0.075506002,-0.016196378,0.045146983,0.110318623,0.038398765,-0.117401853,-0.042578571,0.028068909,-0.119301699,0.023511266,-0.075938880,-0.028111342,0.050592221,-0.113818698,-0.090794548,0.064502887,-0.139871478,0.097324528,-0.109047070,-0.002277144,0.029031510,0.055803794,-0.087775670,0.019031478,0.060894243,0.121298447,-0.106426559,-0.070310742,0.041198343,-0.004540008,-0.095434971,-0.119027391,-0.125572175,-0.098959342,-0.060212776,-0.098202921,-0.124061480,0.011039204,0.082937449,-0.066678323,0.014141819,
0.111830376,0.386940241,-0.098076679,-0.502338111,0.132001996,0.100963339,-0.140165091,-0.021289503,0.048019279,0.640421033,-0.154173166,0.011009303,0.093969874,0.082711488,0.227951780,0.041497383,-0.086803041,-1.464189172,0.190410793,0.011277407,0.261737555,0.441393554,0.077758543,0.189290643,0.037519883,-0.103712775,-0.121093288,-1.138491869,0.086219795,-0.051367823,-0.117207244,0.310255855,-0.033195566,0.146551982,0.053296339,0.090188526,0.207189575,0.151617870,0.271656603,0.255713999,0.198534891,0.156471074,0.014233184,-0.060725369,-0.139920413,-0.320892185,0.241454095,0.082379915,0.061917845,0.033423718,
0.246388257,0.240281016,-0.047478747,-0.611316979,-0.014004050,0.009700873,0.038712692,-0.098384604,0.030700661,0.568202436,-0.169913784,0.124903560,-0.138048783,0.162054196,0.097122110,-0.098404638,-0.029344374,-1.611459494,0.219040290,0.207753435,0.138528630,0.470575392,0.072347634,0.138185054,-0.018944217,-0.234085694,0.104157358,-1.318505049,-0.026191199,0.008772580,-0.022106236,0.140097842,-0.122226305,0.124789082,0.074842684,0.123291492,0.022017280,0.172027126,0.311425924,0.088055737,0.092122570,0.121879101,0.125698105,-0.023299538,0.041970052,-0.286940545,0.121415503,0.051224623,0.105150945,0.030483637,
0.065191112,
0.255727798,
0.264426231,
-0.185380548,
-0.003109590,
-0.006408007,
-0.025397912,
-0.054523882,
0.085022606,
0.129370481,
-0.132383063,
0.197960362,
0.072273262,
0.170468807,
-0.025946544,
0.074051932,
-0.085703567,
-0.047506168,
-0.032553975,
0.045372922,
-0.013983006,
-0.026357178,
0.112989865,
0.027406555,
0.060563818,
0.035238914,
0.043836117,
0.034093451,
-0.012908485,
0.226206422,
-0.151738435,
-0.098849677,
0.044881955,
0.298671454,
-0.166286632,
-0.006141143,
-0.129109859,
-0.025822913,
0.165020630,
-0.059921164,
0.300400823,
0.000450196,
-0.143493220,
0.011162555,
0.212966383,
-0.036422335,
0.101755269,
-0.089507855,
0.181584895,
0.197750390,
0.070242748,0.221742436,0.232643872,-1.279152513,-0.726156235,-0.008790265,-0.017724773,0.105008997,0.102689840,0.095890425,-0.050172474,-1.944616914,-0.111944914,0.345702678,-0.106148578,-0.114970654,-1.357542396,-0.108419836,-0.037515491,-0.089031324,-0.540559351,0.115954839,0.340036839,0.117286421,0.202036858,-0.018185893,-0.057726629,-1.304282188,-0.113624707,0.336168826,-0.085218787,-0.661574602,0.342668027,0.206363022,-0.071986608,-0.092808351,-0.737112999,-0.314774364,0.384110808,0.080617733,0.226377085,-0.120529793,-0.804302216,-0.111913010,0.310000539,-0.006250185,-0.014070941,-0.044125374,0.268094957,0.275262803,
0.118667901,
