// Neural Network File Format by Kyle Julian, Stanford 2016
2,1,1,100,
1,100,1,
0,
0.0,
0.0,
0.0,0.0,
0.0,0.0,
0.062304184,
0.590073705,
-0.823045135,
-0.735939026,
-0.385154366,
0.323658168,
-0.019813180,
0.893406034,
-0.088744044,
0.333176106,
-0.302213073,
-0.221243501,
-0.955348492,
-0.699939787,
-0.356833309,
0.037043571,
0.358133286,
0.564590752,
-0.751064599,
-0.479008168,
0.422211468,
0.883405447,
-0.205800176,
0.828548789,
-0.161183357,
0.105814099,
0.869136572,
-0.927670360,
-0.629537940,
-0.253165245,
-0.389799953,
0.917508006,
-0.648179650,
-0.460332870,
-0.651006639,
-0.936560988,
-0.603437662,
0.821033418,
0.412317991,
0.543410301,
0.108735830,
-0.463493913,
0.136511832,
-0.933694720,
-0.722566247,
-0.515529990,
0.684114337,
0.547036886,
-0.443495035,
-0.036082387,
0.639560699,
1.142007947,
0.446018994,
0.104787737,
0.631288946,
-0.588802338,
0.142594039,
-0.775305510,
-0.693086147,
-0.516583562,
0.415507555,
0.457212061,
-0.592352509,
0.302107096,
0.612253785,
-0.249756426,
0.038181543,
0.290151656,
0.620376587,
1.025085807,
-0.817392230,
-0.366469741,
0.349632829,
0.891799092,
0.870207310,
0.840024054,
0.267485380,
-0.869582653,
0.110540226,
-0.625605345,
-0.787152052,
0.850659668,
0.718459964,
-0.976720631,
0.249965325,
-0.117785826,
-0.164561152,
-0.457756877,
0.384556174,
-0.651925802,
0.326216727,
0.563302934,
0.947992980,
0.461079597,
-0.989735246,
-0.648696899,
0.499315023,
0.167514622,
-0.780084014,
-0.575819492,
0.953981698,
0.692450464,
-0.436025143,
-0.251684785,
-0.952598095,
-0.000113746,
-0.753058910,
-0.657749772,
-0.055099607,
0.163792387,
-0.409530282,
0.567273378,
-0.608539104,
0.886642933,
0.692980170,
-0.843282938,
-0.289958388,
0.020419411,
0.113052517,
0.289106488,
0.363227814,
0.078660056,
-0.487928748,
0.482523531,
-0.959248900,
-0.592706680,
-0.280022711,
-0.487113357,
-0.349833369,
-0.819621682,
-0.212715149,
0.232381269,
-0.651465774,
-0.051319361,
0.736715317,
-0.102800250,
-0.000614302,
-0.120399177,
0.177254900,
0.652878642,
0.965168655,
0.655274808,
0.924210191,
-0.072321653,
-0.898321509,
-0.474077225,
0.699675977,
-0.029101918,
-0.497046351,
-0.766311765,
-0.935852051,
-0.672876477,
-0.175212860,
0.522460759,
0.517315507,
-0.964431882,
0.602070928,
-0.782509446,
-0.211410284,
-0.405472636,
-0.227620319,
-0.156863764,
-0.897349954,
-0.863437891,
-0.094673827,
0.182050452,
-0.454274893,
0.393792778,
-0.900058389,
-0.008967010,
0.859795451,
-0.407891989,
0.881141543,
0.377608746,
-0.902460933,
0.610429287,
-0.027097769,
-0.446406841,
0.767439604,
-0.808095217,
0.309801042,
-0.243799657,
0.691715717,
0.272142768,
0.496228695,
0.372829050,
-0.240474701,
-0.210305452,
-0.824081421,
0.544887304,
0.771157384,
0.701622665,
-0.393954158,
0.035071258,
-0.704934120,
-0.550484180,
-0.582705498,
0.319332182,
-0.595913172,
-0.021817207,
0.025152517,0.094828114,-0.075592004,-0.068651222,-0.058066156,0.121244021,-0.035946500,0.106381968,0.036160756,0.049092248,-0.000744402,-0.007687749,0.012546635,-0.028017575,0.003511111,0.012759305,-0.066603132,-0.007421883,-0.092528909,-0.178086102,0.024233095,0.144436717,0.036123704,0.037914325,-0.086660996,0.049537789,-0.020185225,-0.028386427,-0.033551633,-0.014808739,0.001093829,0.123322062,0.012483883,0.089569286,0.040570382,-0.063221395,0.018530598,-0.023315554,-0.005840198,0.059565473,0.054947648,0.068308063,-0.009094599,0.000160086,0.051482357,-0.096709214,0.103600755,-0.036177821,0.001378250,-0.017001677,-0.052667297,0.087664992,0.151836768,-0.005340597,-0.026644226,-0.036983885,-0.074547976,0.045139398,-0.048026372,-0.066734031,-0.006304468,0.122011341,0.052957367,0.076752186,0.091118298,-0.256620854,-0.027944816,0.058753811,0.082203470,0.077792078,-0.063592248,-0.047007740,-0.068167448,0.059076048,-0.056118250,-0.055579923,0.165398300,-0.064941123,0.011002047,0.028649354,-0.200165942,-0.018924786,-0.049115367,-0.047695946,0.043162201,0.093306810,-0.033524062,0.029455543,-0.022867620,-0.048951346,-0.034252498,0.063756898,0.107986890,0.043280296,-0.022490216,-0.061642982,0.069154479,-0.046617392,0.040966548,-0.033625353,
-0.027770244,
