// Neural Network File Format by Kyle Julian, Stanford 2016
2,1,1,100,
1,100,1,
0,
0.0,
0.0,
0.0,0.0,
0.0,0.0,
0.062234461,
0.590025127,
-0.823045135,
-0.735939026,
-0.385154366,
0.323609024,
-0.019813180,
0.893353879,
-0.088744044,
0.333116561,
-0.302213073,
-0.221264333,
-0.955348492,
-0.699916184,
-0.356935084,
0.037043571,
0.358192146,
0.564584374,
-0.751047850,
-0.478955507,
0.422137052,
0.883358657,
-0.205800176,
0.828484356,
-0.161183357,
0.105814099,
0.869147480,
-0.927670360,
-0.629537940,
-0.253165245,
-0.389799953,
0.917460442,
-0.648179650,
-0.460332870,
-0.651046991,
-0.936560988,
-0.603437662,
0.821044922,
0.412306130,
0.543356061,
0.108682647,
-0.463537395,
0.136502638,
-0.933694720,
-0.722566247,
-0.515529990,
0.684066415,
0.547057033,
-0.443495035,
-0.036082387,
0.639560699,
1.141957998,
0.445973784,
0.104766712,
0.631303370,
-0.588802338,
0.142623872,
-0.775305510,
-0.693086147,
-0.516583562,
0.415510893,
0.457176447,
-0.592352509,
0.302107096,
0.612202466,
-0.249668866,
0.038181543,
0.290097386,
0.620376587,
1.025031567,
-0.817357004,
-0.366469741,
0.349661589,
0.891742885,
0.870207310,
0.840049446,
0.267437398,
-0.869582653,
0.110443808,
-0.625605345,
-0.787060738,
0.850674987,
0.718484163,
-0.976700485,
0.249906257,
-0.117831282,
-0.164561152,
-0.457756877,
0.384556174,
-0.651907384,
0.326236546,
0.563249648,
0.947943985,
0.461015970,
-0.989735246,
-0.648696899,
0.499315023,
0.167538881,
-0.780084014,
-0.575819492,
0.953909516,
0.692399442,
-0.436025143,
-0.251684785,
-0.952598095,
-0.000167766,
-0.753058910,
-0.657804430,
-0.055099607,
0.163731560,
-0.409530282,
0.567250490,
-0.608539104,
0.886667192,
0.692850649,
-0.843282938,
-0.289917618,
0.020411778,
0.113099150,
0.289153934,
0.363152623,
0.078611054,
-0.487928748,
0.482458204,
-0.959248900,
-0.592706680,
-0.280008107,
-0.487113357,
-0.349833369,
-0.819621682,
-0.212715149,
0.232331440,
-0.651465774,
-0.051319361,
0.736669481,
-0.102800250,
-0.000614302,
-0.120385319,
0.177240789,
0.652822196,
0.965112686,
0.655227184,
0.924199760,
-0.072321653,
-0.898321509,
-0.474077225,
0.699625671,
-0.029067531,
-0.497046351,
-0.766311765,
-0.935852051,
-0.672924697,
-0.175263688,
0.522436202,
0.517331779,
-0.964431882,
0.602103353,
-0.782509446,
-0.211410284,
-0.405472636,
-0.227613956,
-0.156883746,
-0.897349954,
-0.863437891,
-0.094718419,
0.182117209,
-0.454274893,
0.393736303,
-0.900058389,
-0.009020524,
0.859831870,
-0.407891989,
0.881172895,
0.377551019,
-0.902460933,
0.610457361,
-0.027147746,
-0.446406841,
0.767339826,
-0.808095217,
0.309853524,
-0.243776366,
0.691742480,
0.272189796,
0.496167511,
0.372780323,
-0.240474701,
-0.210305452,
-0.824081421,
0.544921696,
0.771179438,
0.701567292,
-0.394004345,
0.035007268,
-0.704934120,
-0.550484180,
-0.582705498,
0.319358945,
-0.595913172,
-0.021817207,
0.025109045,0.094785452,-0.075592004,-0.068651222,-0.058066156,0.121196665,-0.035946500,0.106336869,0.036160756,0.049047105,-0.000744402,-0.007727963,0.012546635,-0.028058093,0.003466752,0.012759305,-0.066702470,-0.007459392,-0.092579477,-0.178122312,0.024189994,0.144394547,0.036123704,0.037871789,-0.086660996,0.049537789,-0.020219503,-0.028386427,-0.033551633,-0.014808739,0.001093829,0.123279892,0.012483883,0.089569286,0.040524293,-0.063221395,0.018530598,-0.023352124,-0.005879180,0.059522640,0.054904357,0.068261951,-0.009135580,0.000160086,0.051482357,-0.096709214,0.103558235,-0.036215194,0.001378250,-0.017001677,-0.052667297,0.087612264,0.151796460,-0.005381107,-0.026684109,-0.036983885,-0.074587978,0.045139398,-0.048026372,-0.066734031,-0.006326249,0.121960588,0.052957367,0.076752186,0.091071054,-0.256654620,-0.027944816,0.058709823,0.082203470,0.077749237,-0.063632354,-0.047007740,-0.068207979,0.059033707,-0.056118250,-0.055619854,0.165343836,-0.064941123,0.010959269,0.028649354,-0.200175136,-0.018964339,-0.049155504,-0.047784932,0.043118328,0.093260035,-0.033524062,0.029455543,-0.022867620,-0.049004160,-0.034292929,0.063714154,0.107941411,0.043235172,-0.022490216,-0.061642982,0.069154479,-0.046656121,0.040966548,-0.033625353,
-0.027812300,
