// Neural Network File Format by Kyle Julian, Stanford 2016
2,1,1,100,
1,100,1,
0,
0.0,
0.0,
0.0,0.0,
0.0,0.0,
0.062231634,
0.590033531,
-0.823045135,
-0.735939026,
-0.385154366,
0.323618650,
-0.019813180,
0.893221557,
-0.088744044,
0.333121747,
-0.302213073,
-0.221306041,
-0.955348492,
-0.699943244,
-0.356982410,
0.037043571,
0.358307749,
0.564570248,
-0.751168907,
-0.478931695,
0.422133774,
0.883368790,
-0.205800176,
0.828487337,
-0.161183357,
0.105814099,
0.869155407,
-0.927670360,
-0.629537940,
-0.253165245,
-0.389799953,
0.917469978,
-0.648179650,
-0.460332870,
-0.651045144,
-0.936560988,
-0.603437662,
0.821038544,
0.412288278,
0.543362260,
0.108688146,
-0.463531941,
0.136476561,
-0.933694720,
-0.722566247,
-0.515529990,
0.684074759,
0.547061205,
-0.443495035,
-0.036082387,
0.639560699,
1.142008066,
0.446006507,
0.104738794,
0.631286919,
-0.588802338,
0.142609403,
-0.775305510,
-0.693086147,
-0.516583562,
0.415549189,
0.457297653,
-0.592352509,
0.302107096,
0.612224698,
-0.249527231,
0.038181543,
0.290103525,
0.620376587,
1.025039554,
-0.817375720,
-0.366469741,
0.349646926,
0.891749501,
0.870207310,
0.840035260,
0.267466336,
-0.869582653,
0.110421963,
-0.625605345,
-0.786809504,
0.850717664,
0.718469143,
-0.976657808,
0.249910086,
-0.117823765,
-0.164561152,
-0.457756877,
0.384556174,
-0.651897013,
0.326219469,
0.563256443,
0.947999239,
0.461020291,
-0.989735246,
-0.648696899,
0.499315023,
0.167523324,
-0.780084014,
-0.575819492,
0.953915417,
0.692416847,
-0.436025143,
-0.251684785,
-0.952598095,
-0.000160504,
-0.753058910,
-0.658004165,
-0.055099607,
0.163745940,
-0.409530282,
0.567198455,
-0.608539104,
0.886630774,
0.692795277,
-0.843282938,
-0.289911866,
0.020392474,
0.113082118,
0.289138496,
0.363158852,
0.078629948,
-0.487928748,
0.482470453,
-0.959248900,
-0.592706680,
-0.279979110,
-0.487113357,
-0.349833369,
-0.819621682,
-0.212715149,
0.232349873,
-0.651465774,
-0.051319361,
0.736678183,
-0.102800250,
-0.000614302,
-0.120379195,
0.177217141,
0.652837634,
0.965127349,
0.655240774,
0.924165130,
-0.072321653,
-0.898321509,
-0.474077225,
0.699643314,
-0.028976623,
-0.497046351,
-0.766311765,
-0.935852051,
-0.672858536,
-0.175261542,
0.522400200,
0.517306924,
-0.964431882,
0.602079928,
-0.782509446,
-0.211410284,
-0.405472636,
-0.227554217,
-0.156630367,
-0.897349954,
-0.863437891,
-0.094634525,
0.182150543,
-0.454274893,
0.393751413,
-0.900058389,
-0.008983962,
0.859803379,
-0.407891989,
0.881149650,
0.377566785,
-0.902460933,
0.610434353,
-0.027111989,
-0.446406841,
0.767325997,
-0.808095217,
0.309839606,
-0.243684515,
0.691719055,
0.272364408,
0.496180475,
0.372796476,
-0.240474701,
-0.210305452,
-0.824081421,
0.544952750,
0.771153808,
0.701583028,
-0.393957525,
0.035020985,
-0.704934120,
-0.550484180,
-0.582705498,
0.319334656,
-0.595913172,
-0.021817207,
0.025128452,0.094802305,-0.075592004,-0.068651222,-0.058066156,0.121205308,-0.035946500,0.106571048,0.036160756,0.049061239,-0.000744402,-0.007704990,0.012546635,-0.028030517,0.003490027,0.012759305,-0.067265585,-0.007447523,-0.092656545,-0.178065896,0.024205659,0.144406259,0.036123704,0.037887119,-0.086660996,0.049537789,-0.020212263,-0.028386427,-0.033551633,-0.014808739,0.001093829,0.123293340,0.012483883,0.089569286,0.040552061,-0.063221395,0.018530598,-0.023346221,-0.005864105,0.059539530,0.054923579,0.068286978,-0.009116037,0.000160086,0.051482357,-0.096709214,0.103574850,-0.036216535,0.001378250,-0.017001677,-0.052667297,0.087619729,0.151859865,-0.005361864,-0.026667343,-0.036983885,-0.074568458,0.045139398,-0.048026372,-0.066734031,-0.006280706,0.121954918,0.052957367,0.076752186,0.091074340,-0.256559223,-0.027944816,0.058726631,0.082203470,0.077759907,-0.063601963,-0.047007740,-0.068189181,0.059048284,-0.056118250,-0.055603322,0.165370032,-0.064941123,0.010977901,0.028649354,-0.199879542,-0.018993193,-0.049138390,-0.048130609,0.043135863,0.093280882,-0.033524062,0.029455543,-0.022867620,-0.049055982,-0.034274261,0.063731141,0.108010508,0.043245830,-0.022490216,-0.061642982,0.069154479,-0.046637375,0.040966548,-0.033625353,
-0.027792186,
