// Neural Network File Format by Kyle Julian, Stanford 2016
2,1,1,100,
1,100,1,
0,
0.0,
0.0,
0.0,0.0,
0.0,0.0,
0.061958153,
0.589972198,
-0.823045135,
-0.735939026,
-0.385154366,
0.323570669,
-0.019813180,
0.892881334,
-0.088744044,
0.332983494,
-0.302213073,
-0.221940443,
-0.955348492,
-0.700204074,
-0.358004451,
0.037043571,
0.358524412,
0.564343691,
-0.751556814,
-0.478959292,
0.421841890,
0.883332491,
-0.205800176,
0.828305662,
-0.161183357,
0.105814099,
0.869073331,
-0.927670360,
-0.629537940,
-0.253165245,
-0.389799953,
0.917425513,
-0.648179650,
-0.460332870,
-0.651164949,
-0.936560988,
-0.603437662,
0.820915163,
0.411990196,
0.543255806,
0.108574122,
-0.463612616,
0.136082351,
-0.933694720,
-0.722566247,
-0.515529990,
0.684019864,
0.546991050,
-0.443495035,
-0.036082387,
0.639560699,
1.142022371,
0.446022689,
0.104268849,
0.631113827,
-0.588802338,
0.142525002,
-0.775305510,
-0.693086147,
-0.516583562,
0.415543675,
0.457533807,
-0.592352509,
0.302107096,
0.612193763,
-0.249321386,
0.038181543,
0.289994687,
0.620376587,
1.024960160,
-0.817494392,
-0.366469741,
0.349556684,
0.891640902,
0.870207310,
0.839934349,
0.267475516,
-0.869582653,
0.109812662,
-0.625605345,
-0.786200166,
0.850720406,
0.718356133,
-0.976738095,
0.249756083,
-0.117885210,
-0.164561152,
-0.457756877,
0.384556174,
-0.652094364,
0.326063156,
0.563158214,
0.948059678,
0.460859090,
-0.989735246,
-0.648696899,
0.499315023,
0.167403534,
-0.780084014,
-0.575819492,
0.953634381,
0.692352593,
-0.436025143,
-0.251684785,
-0.952598095,
-0.000270586,
-0.753058910,
-0.658517361,
-0.055099607,
0.163604736,
-0.409530282,
0.566508591,
-0.608539104,
0.886365652,
0.691514552,
-0.843282938,
-0.290030718,
0.020123783,
0.112920523,
0.289083093,
0.362864286,
0.078591414,
-0.487928748,
0.482285708,
-0.959248900,
-0.592706680,
-0.280001491,
-0.487113357,
-0.349833369,
-0.819621682,
-0.212715149,
0.232302919,
-0.651465774,
-0.051319361,
0.736542284,
-0.102800250,
-0.000614302,
-0.120456994,
0.176864237,
0.652727902,
0.965008378,
0.655152202,
0.923717201,
-0.072321653,
-0.898321509,
-0.474077225,
0.699585915,
-0.028846106,
-0.497046351,
-0.766311765,
-0.935852051,
-0.672813594,
-0.175375223,
0.521855652,
0.517114758,
-0.964431882,
0.601990104,
-0.782509446,
-0.211410284,
-0.405472636,
-0.227495015,
-0.156075507,
-0.897349954,
-0.863437891,
-0.094533332,
0.182179824,
-0.454274893,
0.393638164,
-0.900058389,
-0.009023919,
0.859681904,
-0.407891989,
0.881053329,
0.377454430,
-0.902460933,
0.610325456,
-0.027157189,
-0.446406841,
0.766699791,
-0.808095217,
0.309760064,
-0.243548930,
0.691596985,
0.272762775,
0.496021390,
0.372730464,
-0.240474701,
-0.210305452,
-0.824081421,
0.544904470,
0.770983636,
0.701481283,
-0.393954337,
0.034858752,
-0.704934120,
-0.550484180,
-0.582705498,
0.319205314,
-0.595913172,
-0.021817207,
0.025125105,0.094800010,-0.075592004,-0.068651222,-0.058066156,0.121152192,-0.035946500,0.107136443,0.036160756,0.049036723,-0.000744402,-0.007679941,0.012546635,-0.028001314,0.003485155,0.012759305,-0.068869919,-0.007430720,-0.092704460,-0.177951112,0.024194563,0.144396201,0.036123704,0.037883203,-0.086660996,0.049537789,-0.020187294,-0.028386427,-0.033551633,-0.014808739,0.001093829,0.123287320,0.012483883,0.089569286,0.040537462,-0.063221395,0.018530598,-0.023328524,-0.005848790,0.059536226,0.054921154,0.068270490,-0.009102290,0.000160086,0.051482357,-0.096709214,0.103573225,-0.036221813,0.001378250,-0.017001677,-0.052667297,0.087583095,0.151981995,-0.005346844,-0.026650820,-0.036983885,-0.074547097,0.045139398,-0.048026372,-0.066734031,-0.006133697,0.121869050,0.052957367,0.076752186,0.091035679,-0.256280720,-0.027944816,0.058715001,0.082203470,0.077748701,-0.063568480,-0.047007740,-0.068172783,0.059043795,-0.056118250,-0.055587333,0.165342435,-0.064941123,0.010972867,0.028649354,-0.199044451,-0.019072620,-0.049122553,-0.049163230,0.043126430,0.093255222,-0.033524062,0.029455543,-0.022867620,-0.049253091,-0.034257583,0.063728541,0.108178899,0.043214101,-0.022490216,-0.061642982,0.069154479,-0.046608791,0.040966548,-0.033625353,
-0.027784253,
