// Neural Network File Format by Kyle Julian, Stanford 2016
2,1,1,100,
1,100,1,
0,
0.0,
0.0,
0.0,0.0,
0.0,0.0,
0.061946694,
0.589961469,
-0.823045135,
-0.735939026,
-0.385154366,
0.323559701,
-0.019813180,
0.892701566,
-0.088744044,
0.332972050,
-0.302213073,
-0.221933365,
-0.955348492,
-0.700193465,
-0.358011097,
0.037043571,
0.358689457,
0.564346313,
-0.751762152,
-0.478916258,
0.421829998,
0.883321583,
-0.205800176,
0.828293860,
-0.161183357,
0.105814099,
0.869112432,
-0.927670360,
-0.629537940,
-0.253165245,
-0.389799953,
0.917414665,
-0.648179650,
-0.460332870,
-0.651172936,
-0.936560988,
-0.603437662,
0.820932448,
0.411992669,
0.543244600,
0.108563423,
-0.463622004,
0.136087626,
-0.933694720,
-0.722566247,
-0.515529990,
0.684009075,
0.547027588,
-0.443495035,
-0.036082387,
0.639560699,
1.142063975,
0.446053237,
0.104272388,
0.631121159,
-0.588802338,
0.142534167,
-0.775305510,
-0.693086147,
-0.516583562,
0.415634215,
0.457701921,
-0.592352509,
0.302107096,
0.612211943,
-0.249183998,
0.038181543,
0.289983749,
0.620376587,
1.024949193,
-0.817483723,
-0.366469741,
0.349565744,
0.891630054,
0.870207310,
0.839942873,
0.267500520,
-0.869582653,
0.109801091,
-0.625605345,
-0.785809040,
0.850818753,
0.718364418,
-0.976717532,
0.249744847,
-0.117895298,
-0.164561152,
-0.457756877,
0.384556174,
-0.652011096,
0.326071441,
0.563147068,
0.948120058,
0.460847259,
-0.989735246,
-0.648696899,
0.499315023,
0.167412117,
-0.780084014,
-0.575819492,
0.953636289,
0.692354739,
-0.436025143,
-0.251684785,
-0.952598095,
-0.000298219,
-0.753058910,
-0.658812761,
-0.055099607,
0.163606748,
-0.409530282,
0.566506267,
-0.608539104,
0.886363089,
0.691514373,
-0.843282938,
-0.290081143,
0.020122778,
0.112788893,
0.289086044,
0.362866163,
0.078593493,
-0.487928748,
0.482287735,
-0.959248900,
-0.592706680,
-0.279928535,
-0.487113357,
-0.349833369,
-0.819621682,
-0.212715149,
0.232305080,
-0.651465774,
-0.051319361,
0.736543357,
-0.102800250,
-0.000614302,
-0.120405152,
0.176863074,
0.652730167,
0.965010464,
0.655153871,
0.923715353,
-0.072321653,
-0.898321509,
-0.474077225,
0.699588060,
-0.028687265,
-0.497046351,
-0.766311765,
-0.935852051,
-0.672743142,
-0.175408944,
0.521853864,
0.517112792,
-0.964431882,
0.601988196,
-0.782509446,
-0.211410284,
-0.405472636,
-0.227364376,
-0.155693263,
-0.897349954,
-0.863437891,
-0.094410121,
0.182196781,
-0.454274893,
0.393640071,
-0.900058389,
-0.008991164,
0.859679341,
-0.407891989,
0.881051540,
0.377456427,
-0.902460933,
0.610323727,
-0.027139783,
-0.446406841,
0.766701281,
-0.808095217,
0.309716910,
-0.243373901,
0.691595256,
0.273085594,
0.496023297,
0.372732311,
-0.240474701,
-0.210305452,
-0.824081421,
0.545012176,
0.770981908,
0.701483607,
-0.393925548,
0.034860812,
-0.704934120,
-0.550484180,
-0.582705498,
0.319203258,
-0.595913172,
-0.021817207,
0.025126696,0.094798103,-0.075592004,-0.068651222,-0.058066156,0.121141620,-0.035946500,0.107593164,0.036160756,0.049032133,-0.000744402,-0.007674564,0.012546635,-0.027989795,0.003492197,0.012759305,-0.069971509,-0.007439685,-0.092682742,-0.177911863,0.024191763,0.144387737,0.036123704,0.037879240,-0.086660996,0.049537789,-0.020206843,-0.028386427,-0.033551633,-0.014808739,0.001093829,0.123280965,0.012483883,0.089569286,0.040551569,-0.063221395,0.018530598,-0.023341822,-0.005853494,0.059534345,0.054922447,0.068280660,-0.009101192,0.000160086,0.051482357,-0.096709214,0.103570923,-0.036256541,0.001378250,-0.017001677,-0.052667297,0.087543145,0.152085453,-0.005346046,-0.026653692,-0.036983885,-0.074546501,0.045139398,-0.048026372,-0.066734031,-0.006079562,0.121834487,0.052957367,0.076752186,0.091020368,-0.256161213,-0.027944816,0.058713421,0.082203470,0.077738360,-0.063552961,-0.047007740,-0.068172976,0.059038859,-0.056118250,-0.055590529,0.165369824,-0.064941123,0.010973965,0.028649354,-0.198539183,-0.019155422,-0.049124967,-0.049831133,0.043125745,0.093259968,-0.033524062,0.029455543,-0.022867620,-0.049372382,-0.034257859,0.063726813,0.108283065,0.043205194,-0.022490216,-0.061642982,0.069154479,-0.046609495,0.040966548,-0.033625353,
-0.027782226,
