// Neural Network File Format by Kyle Julian, Stanford 2016
2,1,1,100,
1,100,1,
0,
0.0,
0.0,
0.0,0.0,
0.0,0.0,
0.061650552,
0.589896321,
-0.823045135,
-0.735939026,
-0.385154366,
0.323509544,
-0.019813180,
0.892598748,
-0.088744044,
0.332824737,
-0.302213073,
-0.222684011,
-0.955348492,
-0.700482905,
-0.359248936,
0.037043571,
0.358860433,
0.564055383,
-0.752104819,
-0.478933811,
0.421516657,
0.883284092,
-0.205800176,
0.828099787,
-0.161183357,
0.105814099,
0.868978143,
-0.927670360,
-0.629537940,
-0.253165245,
-0.389799953,
0.917368174,
-0.648179650,
-0.460332870,
-0.651311338,
-0.936560988,
-0.603437662,
0.820764184,
0.411611766,
0.543130636,
0.108439825,
-0.463711232,
0.135603711,
-0.933694720,
-0.722566247,
-0.515529990,
0.683950663,
0.546921611,
-0.443495035,
-0.036082387,
0.639560699,
1.142057776,
0.446066678,
0.103683002,
0.630912185,
-0.588802338,
0.142434895,
-0.775305510,
-0.693086147,
-0.516583562,
0.415573746,
0.457853615,
-0.592352509,
0.302107096,
0.612179518,
-0.249118432,
0.038181543,
0.289866537,
0.620376587,
1.024863601,
-0.817617714,
-0.366469741,
0.349459529,
0.891513646,
0.870207310,
0.839822531,
0.267507136,
-0.869582653,
0.109130315,
-0.625605345,
-0.785333455,
0.850746036,
0.718230367,
-0.976957262,
0.249578878,
-0.117961369,
-0.164561152,
-0.457756877,
0.384556174,
-0.652197540,
0.325886220,
0.563041985,
0.948148012,
0.460676223,
-0.989735246,
-0.648696899,
0.499315023,
0.167270124,
-0.780084014,
-0.575819492,
0.953327119,
0.692280531,
-0.436025143,
-0.251684785,
-0.952598095,
-0.000411782,
-0.753058910,
-0.659026742,
-0.055099607,
0.163450882,
-0.409530282,
0.565705538,
-0.608539104,
0.886077523,
0.689994156,
-0.843282938,
-0.290181905,
0.019780347,
0.112604238,
0.289048463,
0.362544388,
0.078547962,
-0.487928748,
0.482084870,
-0.959248900,
-0.592706680,
-0.280022711,
-0.487113357,
-0.349833369,
-0.819621682,
-0.212715149,
0.232250258,
-0.651465774,
-0.051319361,
0.736386120,
-0.102800250,
-0.000614302,
-0.120548978,
0.176416025,
0.652606308,
0.964876413,
0.655052900,
0.923175991,
-0.072321653,
-0.898321509,
-0.474077225,
0.699521244,
-0.028649002,
-0.497046351,
-0.766311765,
-0.935852051,
-0.672725260,
-0.175490379,
0.521178484,
0.516888559,
-0.964431882,
0.601889670,
-0.782509446,
-0.211410284,
-0.405472636,
-0.227362275,
-0.155316293,
-0.897349954,
-0.863437891,
-0.094319329,
0.182169154,
-0.454274893,
0.393513590,
-0.900058389,
-0.009049550,
0.859550536,
-0.407891989,
0.880944848,
0.377331018,
-0.902460933,
0.610200763,
-0.027166031,
-0.446406841,
0.766009986,
-0.808095217,
0.309672177,
-0.243356898,
0.691456795,
0.273312181,
0.495847255,
0.372656822,
-0.240474701,
-0.210305452,
-0.824081421,
0.544922769,
0.770787656,
0.701368928,
-0.393943369,
0.034682438,
-0.704934120,
-0.550484180,
-0.582705498,
0.319057077,
-0.595913172,
-0.021817207,
0.025120690,0.094794698,-0.075592004,-0.068651222,-0.058066156,0.121086240,-0.035946500,0.108048365,0.036160756,0.049005907,-0.000744402,-0.007649837,0.012546635,-0.027964655,0.003480675,0.012759305,-0.071273416,-0.007417347,-0.092639610,-0.177818701,0.024179405,0.144378543,0.036123704,0.037875120,-0.086660996,0.049537789,-0.020178502,-0.028386427,-0.033551633,-0.014808739,0.001093829,0.123275407,0.012483883,0.089569286,0.040526234,-0.063221395,0.018530598,-0.023312939,-0.005834989,0.059529841,0.054917410,0.068255581,-0.009087582,0.000160086,0.051482357,-0.096709214,0.103568412,-0.036245864,0.001378250,-0.017001677,-0.052667297,0.087505154,0.152164742,-0.005330523,-0.026635196,-0.036983885,-0.074524365,0.045139398,-0.048026372,-0.066734031,-0.005942144,0.121751502,0.052957367,0.076752186,0.090986259,-0.255915105,-0.027944816,0.058699604,0.082203470,0.077729009,-0.063524827,-0.047007740,-0.068156146,0.059034482,-0.056118250,-0.055572700,0.165331453,-0.064941123,0.010966230,0.028649354,-0.197912455,-0.019205688,-0.049107693,-0.050633576,0.043114066,0.093227431,-0.033524062,0.029455543,-0.022867620,-0.049496237,-0.034240503,0.063723058,0.108403519,0.043173302,-0.022490216,-0.061642982,0.069154479,-0.046578202,0.040966548,-0.033625353,
-0.027776130,
