// Neural Network File Format by Kyle Julian, Stanford 2016
2,1,1,100,
1,100,1,
0,
0.0,
0.0,
0.0,0.0,
0.0,0.0,
0.061397493,
0.589835763,
-0.823045135,
-0.735939026,
-0.385154366,
0.323462456,
-0.019813180,
0.892503262,
-0.088744044,
0.332696617,
-0.302213073,
-0.223347455,
-0.955348492,
-0.700719595,
-0.360382527,
0.037043571,
0.358914196,
0.563776612,
-0.752453566,
-0.478979826,
0.421250194,
0.883246779,
-0.205800176,
0.827932239,
-0.161183357,
0.105814099,
0.868843377,
-0.927670360,
-0.629537940,
-0.253165245,
-0.389799953,
0.917323470,
-0.648179650,
-0.460332870,
-0.651436388,
-0.936560988,
-0.603437662,
0.820605874,
0.411247879,
0.543028951,
0.108330451,
-0.463792503,
0.135161370,
-0.933694720,
-0.722566247,
-0.515529990,
0.683895826,
0.546821237,
-0.443495035,
-0.036082387,
0.639560699,
1.142029405,
0.446063608,
0.103129789,
0.630727410,
-0.588802338,
0.142352968,
-0.775305510,
-0.693086147,
-0.516583562,
0.415485352,
0.457946420,
-0.592352509,
0.302107096,
0.612148166,
-0.249139220,
0.038181543,
0.289763093,
0.620376587,
1.024786949,
-0.817724645,
-0.366469741,
0.349371463,
0.891410232,
0.870207310,
0.839720428,
0.267503560,
-0.869582653,
0.108559385,
-0.625605345,
-0.785019398,
0.850654304,
0.718115807,
-0.977174282,
0.249434561,
-0.118022159,
-0.164561152,
-0.457756877,
0.384556174,
-0.652360618,
0.325726688,
0.562947810,
0.948159993,
0.460528731,
-0.989735246,
-0.648696899,
0.499315023,
0.167149216,
-0.780084014,
-0.575819492,
0.953061104,
0.692210078,
-0.436025143,
-0.251684785,
-0.952598095,
-0.000512618,
-0.753058910,
-0.659210742,
-0.055099607,
0.163312316,
-0.409530282,
0.565008998,
-0.608539104,
0.885847330,
0.688630581,
-0.843282938,
-0.290343016,
0.019455425,
0.112390786,
0.289014399,
0.362267792,
0.078500837,
-0.487928748,
0.481907070,
-0.959248900,
-0.592706680,
-0.280128092,
-0.487113357,
-0.349833369,
-0.819621682,
-0.212715149,
0.232195243,
-0.651465774,
-0.051319361,
0.736242473,
-0.102800250,
-0.000614302,
-0.120688975,
0.175993308,
0.652494013,
0.964756012,
0.654959440,
0.922691643,
-0.072321653,
-0.898321509,
-0.474077225,
0.699456394,
-0.028658014,
-0.497046351,
-0.766311765,
-0.935852051,
-0.672735870,
-0.175578192,
0.520552337,
0.516696036,
-0.964431882,
0.601812720,
-0.782509446,
-0.211410284,
-0.405472636,
-0.227401242,
-0.155070692,
-0.897349954,
-0.863437891,
-0.094252959,
0.182117492,
-0.454274893,
0.393399239,
-0.900058389,
-0.009108593,
0.859451413,
-0.407891989,
0.880860925,
0.377217323,
-0.902460933,
0.610101283,
-0.027217632,
-0.446406841,
0.765421450,
-0.808095217,
0.309611171,
-0.243384853,
0.691343963,
0.273469299,
0.495691597,
0.372584999,
-0.240474701,
-0.210305452,
-0.824081421,
0.544840157,
0.770626068,
0.701264083,
-0.393974990,
0.034525231,
-0.704934120,
-0.550484180,
-0.582705498,
0.318938106,
-0.595913172,
-0.021817207,
0.025107423,0.094784640,-0.075592004,-0.068651222,-0.058066156,0.121035099,-0.035946500,0.108393259,0.036160756,0.048977677,-0.000744402,-0.007637459,0.012546635,-0.027954763,0.003460126,0.012759305,-0.072248392,-0.007401811,-0.092560336,-0.177770138,0.024162319,0.144365564,0.036123704,0.037865248,-0.086660996,0.049537789,-0.020153929,-0.028386427,-0.033551633,-0.014808739,0.001093829,0.123264827,0.012483883,0.089569286,0.040492158,-0.063221395,0.018530598,-0.023288764,-0.005824443,0.059518848,0.054905005,0.068223335,-0.009083647,0.000160086,0.051482357,-0.096709214,0.103559114,-0.036237590,0.001378250,-0.017001677,-0.052667297,0.087454736,0.152224556,-0.005324512,-0.026625881,-0.036983885,-0.074513257,0.045139398,-0.048026372,-0.066734031,-0.005837978,0.121683113,0.052957367,0.076752186,0.090955891,-0.255737454,-0.027944816,0.058680706,0.082203470,0.077716589,-0.063513510,-0.047007740,-0.068149395,0.059024602,-0.056118250,-0.055564083,0.165295213,-0.064941123,0.010951659,0.028649354,-0.197428316,-0.019241039,-0.049099792,-0.051246632,0.043096740,0.093190670,-0.033524062,0.029455543,-0.022867620,-0.049593475,-0.034233145,0.063712694,0.108499154,0.043141827,-0.022490216,-0.061642982,0.069154479,-0.046558492,0.040966548,-0.033625353,
-0.027779378,
