// Neural Network File Format by Kyle Julian, Stanford 2016
2,1,1,100,
1,100,1,
0,
0.0,
0.0,
0.0,0.0,
0.0,0.0,
0.061375033,
0.589831650,
-0.823045135,
-0.735939026,
-0.385154366,
0.323459417,
-0.019813180,
0.892528713,
-0.088744044,
0.332685918,
-0.302213073,
-0.223412186,
-0.955348492,
-0.700743377,
-0.360490888,
0.037043571,
0.359011114,
0.563748956,
-0.752486765,
-0.478970289,
0.421226501,
0.883244514,
-0.205800176,
0.827917933,
-0.161183357,
0.105814099,
0.868832469,
-0.927670360,
-0.629537940,
-0.253165245,
-0.389799953,
0.917320430,
-0.648179650,
-0.460332870,
-0.651447177,
-0.936560988,
-0.603437662,
0.820589840,
0.411211878,
0.543020546,
0.108321525,
-0.463798910,
0.135117739,
-0.933694720,
-0.722566247,
-0.515529990,
0.683891952,
0.546813905,
-0.443495035,
-0.036082387,
0.639560699,
1.142034292,
0.446074128,
0.103075370,
0.630708516,
-0.588802338,
0.142343834,
-0.775305510,
-0.693086147,
-0.516583562,
0.415490031,
0.457969457,
-0.592352509,
0.302107096,
0.612151206,
-0.249084875,
0.038181543,
0.289754748,
0.620376587,
1.024781346,
-0.817736387,
-0.366469741,
0.349361748,
0.891401768,
0.870207310,
0.839709520,
0.267509848,
-0.869582653,
0.108506739,
-0.625605345,
-0.784922957,
0.850654602,
0.718103647,
-0.977213085,
0.249422356,
-0.118026532,
-0.164561152,
-0.457756877,
0.384556174,
-0.652382731,
0.325710177,
0.562940359,
0.948170781,
0.460516334,
-0.989735246,
-0.648696899,
0.499315023,
0.167136371,
-0.780084014,
-0.575819492,
0.953040004,
0.692207396,
-0.436025143,
-0.251684785,
-0.952598095,
-0.000519645,
-0.753058910,
-0.659191668,
-0.055099607,
0.163303345,
-0.409530282,
0.564939022,
-0.608539104,
0.885821462,
0.688502789,
-0.843282938,
-0.290286064,
0.019422056,
0.112384163,
0.289012760,
0.362245828,
0.078500412,
-0.487928748,
0.481894493,
-0.959248900,
-0.592706680,
-0.280134290,
-0.487113357,
-0.349833369,
-0.819621682,
-0.212715149,
0.232194096,
-0.651465774,
-0.051319361,
0.736232162,
-0.102800250,
-0.000614302,
-0.120705068,
0.175950423,
0.652487636,
0.964748561,
0.654954314,
0.922641933,
-0.072321653,
-0.898321509,
-0.474077225,
0.699454248,
-0.028644266,
-0.497046351,
-0.766311765,
-0.935852051,
-0.672726035,
-0.175574645,
0.520489573,
0.516674340,
-0.964431882,
0.601801634,
-0.782509446,
-0.211410284,
-0.405472636,
-0.227385804,
-0.155016169,
-0.897349954,
-0.863437891,
-0.094222128,
0.182135731,
-0.454274893,
0.393392473,
-0.900058389,
-0.009106047,
0.859438002,
-0.407891989,
0.880849183,
0.377210706,
-0.902460933,
0.610088170,
-0.027206520,
-0.446406841,
0.765369713,
-0.808095217,
0.309617847,
-0.243371770,
0.691329420,
0.273504704,
0.495681018,
0.372582108,
-0.240474701,
-0.210305452,
-0.824081421,
0.544831395,
0.770607114,
0.701258063,
-0.393967062,
0.034514550,
-0.704934120,
-0.550484180,
-0.582705498,
0.318923086,
-0.595913172,
-0.021817207,
0.025110012,0.094786815,-0.075592004,-0.068651222,-0.058066156,0.121031709,-0.035946500,0.108450390,0.036160756,0.048977632,-0.000744402,-0.007631714,0.012546635,-0.027948022,0.003463085,0.012759305,-0.072484642,-0.007398808,-0.092575267,-0.177754015,0.024163628,0.144366071,0.036123704,0.037867013,-0.086660996,0.049537789,-0.020152967,-0.028386427,-0.033551633,-0.014808739,0.001093829,0.123266019,0.012483883,0.089569286,0.040495269,-0.063221395,0.018530598,-0.023286546,-0.005820974,0.059520941,0.054907609,0.068225853,-0.009079560,0.000160086,0.051482357,-0.096709214,0.103561297,-0.036238056,0.001378250,-0.017001677,-0.052667297,0.087449640,0.152239501,-0.005320297,-0.026622111,-0.036983885,-0.074508615,0.045139398,-0.048026372,-0.066734031,-0.005820598,0.121674426,0.052957367,0.076752186,0.090952694,-0.255706161,-0.027944816,0.058682133,0.082203470,0.077716798,-0.063505843,-0.047007740,-0.068145312,0.059026163,-0.056118250,-0.055560455,0.165296689,-0.064941123,0.010953991,0.028649354,-0.197337046,-0.019251393,-0.049096063,-0.051364820,0.043098498,0.093191698,-0.033524062,0.029455543,-0.022867620,-0.049608167,-0.034229025,0.063714847,0.108515851,0.043140568,-0.022490216,-0.061642982,0.069154479,-0.046553303,0.040966548,-0.033625353,
-0.027775766,
