// Neural Network File Format by Kyle Julian, Stanford 2016
2,1,1,100,
1,100,1,
0,
0.0,
0.0,
0.0,0.0,
0.0,0.0,
0.061368510,
0.589826822,
-0.823045135,
-0.735939026,
-0.385154366,
0.323454440,
-0.019813180,
0.892452896,
-0.088744044,
0.332680225,
-0.302213073,
-0.223413438,
-0.955348492,
-0.700740576,
-0.360502124,
0.037043571,
0.359166026,
0.563748121,
-0.752707660,
-0.478924543,
0.421219707,
0.883240044,
-0.205800176,
0.827912390,
-0.161183357,
0.105814099,
0.868855953,
-0.927670360,
-0.629537940,
-0.253165245,
-0.389799953,
0.917315900,
-0.648179650,
-0.460332870,
-0.651452005,
-0.936560988,
-0.603437662,
0.820598543,
0.411210656,
0.543015122,
0.108316220,
-0.463803887,
0.135117441,
-0.933694720,
-0.722566247,
-0.515529990,
0.683887482,
0.546845198,
-0.443495035,
-0.036082387,
0.639560699,
1.142065406,
0.446111321,
0.103073366,
0.630710721,
-0.588802338,
0.142347351,
-0.775305510,
-0.693086147,
-0.516583562,
0.415597111,
0.458094209,
-0.592352509,
0.302107096,
0.612185001,
-0.249001130,
0.038181543,
0.289749324,
0.620376587,
1.024776697,
-0.817732871,
-0.366469741,
0.349365383,
0.891396523,
0.870207310,
0.839712441,
0.267543346,
-0.869582653,
0.108497977,
-0.625605345,
-0.784568369,
0.850735247,
0.718106508,
-0.977203071,
0.249416620,
-0.118031383,
-0.164561152,
-0.457756877,
0.384556174,
-0.652285814,
0.325712860,
0.562935352,
0.948226988,
0.460510284,
-0.989735246,
-0.648696899,
0.499315023,
0.167139530,
-0.780084014,
-0.575819492,
0.953044295,
0.692212760,
-0.436025143,
-0.251684785,
-0.952598095,
-0.000533494,
-0.753058910,
-0.659362257,
-0.055099607,
0.163308337,
-0.409530282,
0.564928532,
-0.608539104,
0.885813713,
0.688497126,
-0.843282938,
-0.290327609,
0.019417211,
0.112228200,
0.289022088,
0.362249911,
0.078505911,
-0.487928748,
0.481899291,
-0.959248900,
-0.592706680,
-0.280093551,
-0.487113357,
-0.349833369,
-0.819621682,
-0.212715149,
0.232199624,
-0.651465774,
-0.051319361,
0.736236274,
-0.102800250,
-0.000614302,
-0.120678276,
0.175944835,
0.652493000,
0.964753449,
0.654959023,
0.922634125,
-0.072321653,
-0.898321509,
-0.474077225,
0.699459553,
-0.028515840,
-0.497046351,
-0.766311765,
-0.935852051,
-0.672670126,
-0.175588578,
0.520481646,
0.516667783,
-0.964431882,
0.601795673,
-0.782509446,
-0.211410284,
-0.405472636,
-0.227231279,
-0.154733256,
-0.897349954,
-0.863437891,
-0.094061658,
0.182128325,
-0.454274893,
0.393397480,
-0.900058389,
-0.009068497,
0.859431148,
-0.407891989,
0.880843043,
0.377215743,
-0.902460933,
0.610082209,
-0.027171304,
-0.446406841,
0.765371025,
-0.808095217,
0.309595078,
-0.243236154,
0.691323221,
0.273788542,
0.495685726,
0.372586936,
-0.240474701,
-0.210305452,
-0.824081421,
0.544920564,
0.770600736,
0.701263309,
-0.393936604,
0.034519438,
-0.704934120,
-0.550484180,
-0.582705498,
0.318917006,
-0.595913172,
-0.021817207,
0.025115261,0.094789177,-0.075592004,-0.068651222,-0.058066156,0.121026888,-0.035946500,0.108894929,0.036160756,0.048977748,-0.000744402,-0.007623244,0.012546635,-0.027934553,0.003472699,0.012759305,-0.073552653,-0.007402402,-0.092517830,-0.177723855,0.024165222,0.144362897,0.036123704,0.037867695,-0.086660996,0.049537789,-0.020169379,-0.028386427,-0.033551633,-0.014808739,0.001093829,0.123264700,0.012483883,0.089569286,0.040510461,-0.063221395,0.018530598,-0.023292739,-0.005820917,0.059523340,0.054912645,0.068237931,-0.009074648,0.000160086,0.051482357,-0.096709214,0.103563346,-0.036266200,0.001378250,-0.017001677,-0.052667297,0.087410420,0.152336225,-0.005315633,-0.026620457,-0.036983885,-0.074504070,0.045139398,-0.048026372,-0.066734031,-0.005768409,0.121649198,0.052957367,0.076752186,0.090944745,-0.255594015,-0.027944816,0.058684777,0.082203470,0.077712201,-0.063489147,-0.047007740,-0.068141453,0.059026036,-0.056118250,-0.055559106,0.165330425,-0.064941123,0.010958797,0.028649354,-0.196908966,-0.019320602,-0.049094036,-0.051932156,0.043101873,0.093199350,-0.033524062,0.029455543,-0.022867620,-0.049683418,-0.034225240,0.063717373,0.108606786,0.043137118,-0.022490216,-0.061642982,0.069154479,-0.046549816,0.040966548,-0.033625353,
-0.027770113,
