// Neural Network File Format by Kyle Julian, Stanford 2016
2,1,1,100,
1,100,1,
0,
0.0,
0.0,
0.0,0.0,
0.0,0.0,
0.061368316,
0.589826703,
-0.823045135,
-0.735939026,
-0.385154366,
0.323454231,
-0.019813180,
0.892450809,
-0.088744044,
0.332680017,
-0.302213073,
-0.223413289,
-0.955348492,
-0.700740397,
-0.360502273,
0.037043571,
0.359170407,
0.563748121,
-0.752715111,
-0.478924006,
0.421219498,
0.883239865,
-0.205800176,
0.827912211,
-0.161183357,
0.105814099,
0.868856549,
-0.927670360,
-0.629537940,
-0.253165245,
-0.389799953,
0.917315722,
-0.648179650,
-0.460332870,
-0.651452124,
-0.936560988,
-0.603437662,
0.820598841,
0.411210716,
0.543014944,
0.108316034,
-0.463804066,
0.135117561,
-0.933694720,
-0.722566247,
-0.515529990,
0.683887362,
0.546846151,
-0.443495035,
-0.036082387,
0.639560699,
1.142066002,
0.446112186,
0.103073463,
0.630710840,
-0.588802338,
0.142347530,
-0.775305510,
-0.693086147,
-0.516583562,
0.415600151,
0.458097428,
-0.592352509,
0.302107096,
0.612185955,
-0.248999104,
0.038181543,
0.289749116,
0.620376587,
1.024776459,
-0.817732692,
-0.366469741,
0.349365562,
0.891396344,
0.870207310,
0.839712560,
0.267544210,
-0.869582653,
0.108497791,
-0.625605345,
-0.784559250,
0.850737512,
0.718106627,
-0.977203846,
0.249416426,
-0.118031569,
-0.164561152,
-0.457756877,
0.384556174,
-0.652284026,
0.325713038,
0.562935174,
0.948228478,
0.460510075,
-0.989735246,
-0.648696899,
0.499315023,
0.167139694,
-0.780084014,
-0.575819492,
0.953044355,
0.692212820,
-0.436025143,
-0.251684785,
-0.952598095,
-0.000533998,
-0.753058910,
-0.659366906,
-0.055099607,
0.163308397,
-0.409530282,
0.564928472,
-0.608539104,
0.885813653,
0.688497126,
-0.843282938,
-0.290328890,
0.019417193,
0.112222850,
0.289022177,
0.362249941,
0.078505963,
-0.487928748,
0.481899321,
-0.959248900,
-0.592706680,
-0.280092537,
-0.487113357,
-0.349833369,
-0.819621682,
-0.212715149,
0.232199684,
-0.651465774,
-0.051319361,
0.736236334,
-0.102800250,
-0.000614302,
-0.120677456,
0.175944805,
0.652493060,
0.964753509,
0.654959083,
0.922634125,
-0.072321653,
-0.898321509,
-0.474077225,
0.699459612,
-0.028512381,
-0.497046351,
-0.766311765,
-0.935852051,
-0.672668815,
-0.175589353,
0.520481646,
0.516667724,
-0.964431882,
0.601795614,
-0.782509446,
-0.211410284,
-0.405472636,
-0.227226928,
-0.154725894,
-0.897349954,
-0.863437891,
-0.094057016,
0.182128087,
-0.454274893,
0.393397510,
-0.900058389,
-0.009067552,
0.859431088,
-0.407891989,
0.880842984,
0.377215773,
-0.902460933,
0.610082150,
-0.027170846,
-0.446406841,
0.765371084,
-0.808095217,
0.309593976,
-0.243232355,
0.691323161,
0.273796022,
0.495685756,
0.372586966,
-0.240474701,
-0.210305452,
-0.824081421,
0.544922650,
0.770600677,
0.701263368,
-0.393936008,
0.034519486,
-0.704934120,
-0.550484180,
-0.582705498,
0.318916947,
-0.595913172,
-0.021817207,
0.025115300,0.094789140,-0.075592004,-0.068651222,-0.058066156,0.121026702,-0.035946500,0.108906940,0.036160756,0.048977669,-0.000744402,-0.007623135,0.012546635,-0.027934330,0.003472838,0.012759305,-0.073583111,-0.007402569,-0.092515729,-0.177723438,0.024165178,0.144362748,0.036123704,0.037867628,-0.086660996,0.049537789,-0.020169849,-0.028386427,-0.033551633,-0.014808739,0.001093829,0.123264588,0.012483883,0.089569286,0.040510729,-0.063221395,0.018530598,-0.023292946,-0.005821001,0.059523314,0.054912679,0.068238132,-0.009074620,0.000160086,0.051482357,-0.096709214,0.103563309,-0.036267068,0.001378250,-0.017001677,-0.052667297,0.087408975,0.152339011,-0.005315611,-0.026620502,-0.036983885,-0.074504048,0.045139398,-0.048026372,-0.066734031,-0.005767132,0.121648505,0.052957367,0.076752186,0.090944499,-0.255591184,-0.027944816,0.058684755,0.082203470,0.077712014,-0.063488849,-0.047007740,-0.068141453,0.059025951,-0.056118250,-0.055559162,0.165331379,-0.064941123,0.010958826,0.028649354,-0.196896866,-0.019322552,-0.049094077,-0.051948018,0.043101866,0.093199447,-0.033524062,0.029455543,-0.022867620,-0.049685698,-0.034225237,0.063717343,0.108609438,0.043136958,-0.022490216,-0.061642982,0.069154479,-0.046549819,0.040966548,-0.033625353,
-0.027770067,
