// Neural Network File Format by Kyle Julian, Stanford 2016
2,1,1,100,
1,100,1,
0,
0.0,
0.0,
0.0,0.0,
0.0,0.0,
0.060982041,
0.589746416,
-0.823045135,
-0.735939026,
-0.385154366,
0.323396295,
-0.019813180,
0.892425358,
-0.088744044,
0.332494020,
-0.302213073,
-0.224562719,
-0.955348492,
-0.701137006,
-0.362510800,
0.037043571,
0.359168321,
0.563204467,
-0.753148317,
-0.479017228,
0.420814157,
0.883196831,
-0.205800176,
0.827663362,
-0.161183357,
0.105814099,
0.868551612,
-0.927670360,
-0.629537940,
-0.253165245,
-0.389799953,
0.917260349,
-0.648179650,
-0.460332870,
-0.651649892,
-0.936560988,
-0.603437662,
0.820285916,
0.410508275,
0.542869270,
0.108157165,
-0.463921040,
0.134313136,
-0.933694720,
-0.722566247,
-0.515529990,
0.683816195,
0.546628833,
-0.443495035,
-0.036082387,
0.639560699,
1.142011166,
0.446094602,
0.102035306,
0.630377352,
-0.588802338,
0.142195344,
-0.775305510,
-0.693086147,
-0.516583562,
0.415308833,
0.458117515,
-0.592352509,
0.302107096,
0.612128675,
-0.249088615,
0.038181543,
0.289600879,
0.620376587,
1.024672031,
-0.817921758,
-0.366469741,
0.349202365,
0.891248345,
0.870207310,
0.839525759,
0.267529458,
-0.869582653,
0.107596435,
-0.625605345,
-0.784372926,
0.850460351,
0.717898786,
-0.977535248,
0.249203354,
-0.118113235,
-0.164561152,
-0.457756877,
0.384556174,
-0.652592897,
0.325427353,
0.562801361,
0.948205829,
0.460294157,
-0.989735246,
-0.648696899,
0.499315023,
0.166920111,
-0.780084014,
-0.575819492,
0.952631772,
0.692108631,
-0.436025143,
-0.251684785,
-0.952598095,
-0.000650835,
-0.753058910,
-0.659440994,
-0.055099607,
0.163098738,
-0.409530282,
0.563745618,
-0.608539104,
0.885437250,
0.686150432,
-0.843282938,
-0.290496916,
0.018793982,
0.111992374,
0.288962394,
0.361821055,
0.078440137,
-0.487928748,
0.481627077,
-0.959248900,
-0.592706680,
-0.280385554,
-0.487113357,
-0.349833369,
-0.819621682,
-0.212715149,
0.232121527,
-0.651465774,
-0.051319361,
0.736006975,
-0.102800250,
-0.000614302,
-0.120994270,
0.175139755,
0.652323365,
0.964569628,
0.654816210,
0.921774805,
-0.072321653,
-0.898321509,
-0.474077225,
0.699364781,
-0.028657628,
-0.497046351,
-0.766311765,
-0.935852051,
-0.672714710,
-0.175679475,
0.519327223,
0.516332150,
-0.964431882,
0.601660311,
-0.782509446,
-0.211410284,
-0.405472636,
-0.227467269,
-0.154632092,
-0.897349954,
-0.863437891,
-0.094037406,
0.182053506,
-0.454274893,
0.393225104,
-0.900058389,
-0.009174198,
0.859263480,
-0.407891989,
0.880696297,
0.377044380,
-0.902460933,
0.609907866,
-0.027243489,
-0.446406841,
0.764438331,
-0.808095217,
0.309531778,
-0.243466541,
0.691126883,
0.273782730,
0.495448083,
0.372481436,
-0.240474701,
-0.210305452,
-0.824081421,
0.544712126,
0.770323038,
0.701105297,
-0.393998325,
0.034280658,
-0.704934120,
-0.550484180,
-0.582705498,
0.318709701,
-0.595913172,
-0.021817207,
0.025104292,0.094785072,-0.075592004,-0.068651222,-0.058066156,0.120962322,-0.035946500,0.109076031,0.036160756,0.048946656,-0.000744402,-0.007594015,0.012546635,-0.027914409,0.003444865,0.012759305,-0.074212179,-0.007358302,-0.092447042,-0.177656814,0.024150746,0.144357964,0.036123704,0.037865359,-0.086660996,0.049537789,-0.020100897,-0.028386427,-0.033551633,-0.014808739,0.001093829,0.123262495,0.012483883,0.089569286,0.040457673,-0.063221395,0.018530598,-0.023233227,-0.005787964,0.059517898,0.054903064,0.068191014,-0.009056956,0.000160086,0.051482357,-0.096709214,0.103560828,-0.036213107,0.001378250,-0.017001677,-0.052667297,0.087375462,0.152349845,-0.005293665,-0.026591931,-0.036983885,-0.074475005,0.045139398,-0.048026372,-0.066734031,-0.005626192,0.121573545,0.052957367,0.076752186,0.090915062,-0.255393893,-0.027944816,0.058666572,0.082203470,0.077709541,-0.063469023,-0.047007740,-0.068119183,0.059024159,-0.056118250,-0.055531900,0.165261716,-0.064941123,0.010945774,0.028649354,-0.196535945,-0.019298140,-0.049068477,-0.052359477,0.043085694,0.093148567,-0.033524062,0.029455543,-0.022867620,-0.049735915,-0.034201629,0.063712746,0.108678147,0.043103538,-0.022490216,-0.061642982,0.069154479,-0.046505518,0.040966548,-0.033625353,
-0.027765403,
