// Neural Network File Format by Kyle Julian, Stanford 2016
2,1,1,100,
1,100,1,
0,
0.0,
0.0,
0.0,0.0,
0.0,0.0,
0.060906395,
0.589682341,
-0.823045135,
-0.735939026,
-0.385154366,
0.323334306,
-0.019813180,
0.892297804,
-0.088744044,
0.332425952,
-0.302213073,
-0.224558622,
-0.955348492,
-0.701091647,
-0.362634540,
0.037043571,
0.359624416,
0.563204706,
-0.753549933,
-0.478879452,
0.420737028,
0.883134484,
-0.205800176,
0.827591360,
-0.161183357,
0.105814099,
0.868585289,
-0.927670360,
-0.629537940,
-0.253165245,
-0.389799953,
0.917197347,
-0.648179650,
-0.460332870,
-0.651711106,
-0.936560988,
-0.603437662,
0.820320427,
0.410504609,
0.542802215,
0.108091645,
-0.463981330,
0.134322792,
-0.933694720,
-0.722566247,
-0.515529990,
0.683752954,
0.546733260,
-0.443495035,
-0.036082387,
0.639560699,
1.142006874,
0.446125686,
0.102025218,
0.630414963,
-0.588802338,
0.142245144,
-0.775305510,
-0.693086147,
-0.516583562,
0.415594906,
0.458276540,
-0.592352509,
0.302107096,
0.612157404,
-0.248847842,
0.038181543,
0.289535165,
0.620376587,
1.024612069,
-0.817868173,
-0.366469741,
0.349251240,
0.891180515,
0.870207310,
0.839573324,
0.267553270,
-0.869582653,
0.107500754,
-0.625605345,
-0.783613682,
0.850648224,
0.717945397,
-0.977429926,
0.249134883,
-0.118174225,
-0.164561152,
-0.457756877,
0.384556174,
-0.652304649,
0.325468600,
0.562734663,
0.948262632,
0.460224509,
-0.989735246,
-0.648696899,
0.499315023,
0.166965321,
-0.780084014,
-0.575819492,
0.952573597,
0.692062974,
-0.436025143,
-0.251684785,
-0.952598095,
-0.000709721,
-0.753058910,
-0.659750402,
-0.055099607,
0.163049325,
-0.409530282,
0.563734174,
-0.608539104,
0.885463595,
0.686021984,
-0.843282938,
-0.290438056,
0.018787369,
0.111746393,
0.289036632,
0.361762464,
0.078397147,
-0.487928748,
0.481574625,
-0.959248900,
-0.592706680,
-0.280358076,
-0.487113357,
-0.349833369,
-0.819621682,
-0.212715149,
0.232078001,
-0.651465774,
-0.051319361,
0.735960305,
-0.102800250,
-0.000614302,
-0.120957129,
0.175125703,
0.652275205,
0.964520872,
0.654771149,
0.921771765,
-0.072321653,
-0.898321509,
-0.474077225,
0.699319541,
-0.028330825,
-0.497046351,
-0.766311765,
-0.935852051,
-0.672666550,
-0.175739214,
0.519305229,
0.516354680,
-0.964431882,
0.601694286,
-0.782509446,
-0.211410284,
-0.405472636,
-0.227056965,
-0.154202223,
-0.897349954,
-0.863437891,
-0.093706913,
0.182101950,
-0.454274893,
0.393177271,
-0.900058389,
-0.009139183,
0.859298348,
-0.407891989,
0.880729616,
0.376996309,
-0.902460933,
0.609939456,
-0.027217876,
-0.446406841,
0.764359295,
-0.808095217,
0.309556246,
-0.243173078,
0.691157281,
0.274393380,
0.495397419,
0.372437239,
-0.240474701,
-0.210305452,
-0.824081421,
0.544948757,
0.770349979,
0.701057434,
-0.393985271,
0.034229856,
-0.704934120,
-0.550484180,
-0.582705498,
0.318739176,
-0.595913172,
-0.021817207,
0.025063490,0.094739273,-0.075592004,-0.068651222,-0.058066156,0.120901063,-0.035946500,0.109945789,0.036160756,0.048895665,-0.000744402,-0.007626763,0.012546635,-0.027938697,0.003411975,0.012759305,-0.076574266,-0.007412164,-0.092393540,-0.177659169,0.024103405,0.144302204,0.036123704,0.037816577,-0.086660996,0.049537789,-0.020174988,-0.028386427,-0.033551633,-0.014808739,0.001093829,0.123210087,0.012483883,0.089569286,0.040433500,-0.063221395,0.018530598,-0.023291342,-0.005835776,0.059472151,0.054861851,0.068161182,-0.009096994,0.000160086,0.051482357,-0.096709214,0.103514545,-0.036319688,0.001378250,-0.017001677,-0.052667297,0.087228686,0.152487189,-0.005333724,-0.026637502,-0.036983885,-0.074515402,0.045139398,-0.048026372,-0.066734031,-0.005562586,0.121474154,0.052957367,0.076752186,0.090847917,-0.255217224,-0.027944816,0.058620654,0.082203470,0.077650733,-0.063487180,-0.047007740,-0.068161055,0.058973949,-0.056118250,-0.055578116,0.165282831,-0.064941123,0.010904519,0.028649354,-0.195769727,-0.019475939,-0.049113579,-0.053476401,0.043041218,0.093110532,-0.033524062,0.029455543,-0.022867620,-0.049908597,-0.034243576,0.063667215,0.108794458,0.043045979,-0.022490216,-0.061642982,0.069154479,-0.046547029,0.040966548,-0.033625353,
-0.027804874,
