// Neural Network File Format by Kyle Julian, Stanford 2016
2,1,1,100,
1,100,1,
0,
0.0,
0.0,
0.0,0.0,
0.0,0.0,
0.060706642,
0.589673758,
-0.823045135,
-0.735939026,
-0.385154366,
0.323340356,
-0.019813180,
0.892355382,
-0.088744044,
0.332352489,
-0.302213073,
-0.225346386,
-0.955348492,
-0.701384008,
-0.363955379,
0.037043571,
0.359620363,
0.562799215,
-0.753745377,
-0.478971094,
0.420526505,
0.883149385,
-0.205800176,
0.827478766,
-0.161183357,
0.105814099,
0.868330002,
-0.927670360,
-0.629537940,
-0.253165245,
-0.389799953,
0.917204618,
-0.648179650,
-0.460332870,
-0.651802063,
-0.936560988,
-0.603437662,
0.820074975,
0.409987092,
0.542753041,
0.108033523,
-0.464016169,
0.133749321,
-0.933694720,
-0.722566247,
-0.515529990,
0.683750391,
0.546554446,
-0.443495035,
-0.036082387,
0.639560699,
1.142015338,
0.446161151,
0.101279981,
0.630159140,
-0.588802338,
0.142107576,
-0.775305510,
-0.693086147,
-0.516583562,
0.415376514,
0.458318859,
-0.592352509,
0.302107096,
0.612163723,
-0.248914197,
0.038181543,
0.289484292,
0.620376587,
1.024588466,
-0.818030000,
-0.366469741,
0.349106878,
0.891130626,
0.870207310,
0.839413404,
0.267589450,
-0.869582653,
0.106974326,
-0.625605345,
-0.783509731,
0.850422680,
0.717772186,
-0.977670133,
0.249043748,
-0.118184753,
-0.164561152,
-0.457756877,
0.384556174,
-0.652531266,
0.325244993,
0.562692881,
0.948291242,
0.460132807,
-0.989735246,
-0.648696899,
0.499315023,
0.166784525,
-0.780084014,
-0.575819492,
0.952360094,
0.692041576,
-0.436025143,
-0.251684785,
-0.952598095,
-0.000725989,
-0.753058910,
-0.659716427,
-0.055099607,
0.162962973,
-0.409530282,
0.562928498,
-0.608539104,
0.885183096,
0.684514344,
-0.843282938,
-0.290543407,
0.018324764,
0.111639738,
0.288959801,
0.361539036,
0.078399807,
-0.487928748,
0.481449306,
-0.959248900,
-0.592706680,
-0.280623883,
-0.487113357,
-0.349833369,
-0.819621682,
-0.212715149,
0.232072964,
-0.651465774,
-0.051319361,
0.735853672,
-0.102800250,
-0.000614302,
-0.121212922,
0.174536526,
0.652213395,
0.964449704,
0.654723406,
0.921164751,
-0.072321653,
-0.898321509,
-0.474077225,
0.699304044,
-0.028466908,
-0.497046351,
-0.766311765,
-0.935852051,
-0.672651947,
-0.175740004,
0.518484056,
0.516097069,
-0.964431882,
0.601565301,
-0.782509446,
-0.211410284,
-0.405472636,
-0.227233410,
-0.154126525,
-0.897349954,
-0.863437891,
-0.093650833,
0.182028055,
-0.454274893,
0.393113524,
-0.900058389,
-0.009154752,
0.859148145,
-0.407891989,
0.880593538,
0.376933515,
-0.902460933,
0.609785914,
-0.027210569,
-0.446406841,
0.763816595,
-0.808095217,
0.309498876,
-0.243374646,
0.690989792,
0.274332672,
0.495293200,
0.372414261,
-0.240474701,
-0.210305452,
-0.824081421,
0.544772804,
0.770130396,
0.701002955,
-0.393976092,
0.034125481,
-0.704934120,
-0.550484180,
-0.582705498,
0.318564385,
-0.595913172,
-0.021817207,
0.025100086,0.094779633,-0.075592004,-0.068651222,-0.058066156,0.120902680,-0.035946500,0.110086150,0.036160756,0.048919048,-0.000744402,-0.007564360,0.012546635,-0.027881717,0.003437173,0.012759305,-0.076971501,-0.007341761,-0.092339598,-0.177572206,0.024137070,0.144340917,0.036123704,0.037857786,-0.086660996,0.049537789,-0.020089548,-0.028386427,-0.033551633,-0.014808739,0.001093829,0.123250887,0.012483883,0.089569286,0.040444788,-0.063221395,0.018530598,-0.023212871,-0.005771855,0.059511714,0.054899253,0.068176150,-0.009042278,0.000160086,0.051482357,-0.096709214,0.103555813,-0.036244657,0.001378250,-0.017001677,-0.052667297,0.087247886,0.152529135,-0.005276070,-0.026576687,-0.036983885,-0.074453935,0.045139398,-0.048026372,-0.066734031,-0.005434269,0.121469490,0.052957367,0.076752186,0.090870775,-0.255048752,-0.027944816,0.058652345,0.082203470,0.077690966,-0.063429765,-0.047007740,-0.068103895,0.059015278,-0.056118250,-0.055518318,0.165284365,-0.064941123,0.010939385,0.028649354,-0.195518970,-0.019416470,-0.049054701,-0.053658456,0.043074321,0.093122683,-0.033524062,0.029455543,-0.022867620,-0.049886145,-0.034185562,0.063707329,0.108872257,0.043067239,-0.022490216,-0.061642982,0.069154479,-0.046475962,0.040966548,-0.033625353,
-0.027758490,
