// Neural Network File Format by Kyle Julian, Stanford 2016
2,1,1,100,
1,100,1,
0,
0.0,
0.0,
0.0,0.0,
0.0,0.0,
0.060635109,
0.589694202,
-0.823045135,
-0.735939026,
-0.385154366,
0.323368102,
-0.019813180,
0.892339587,
-0.088744044,
0.332341969,
-0.302213073,
-0.225758180,
-0.955348492,
-0.701549590,
-0.364600927,
0.037043571,
0.359663844,
0.562572598,
-0.754090428,
-0.479021013,
0.420450091,
0.883181632,
-0.205800176,
0.827450037,
-0.161183357,
0.105814099,
0.868158102,
-0.927670360,
-0.629537940,
-0.253165245,
-0.389799953,
0.917233229,
-0.648179650,
-0.460332870,
-0.651823580,
-0.936560988,
-0.603437662,
0.819932580,
0.409701973,
0.542754114,
0.108029999,
-0.464008987,
0.133439556,
-0.933694720,
-0.722566247,
-0.515529990,
0.683773637,
0.546472311,
-0.443495035,
-0.036082387,
0.639560699,
1.142058372,
0.446239531,
0.100878611,
0.630009592,
-0.588802338,
0.142016575,
-0.775305510,
-0.693086147,
-0.516583562,
0.415392876,
0.458454132,
-0.592352509,
0.302107096,
0.612226248,
-0.248973966,
0.038181543,
0.289484441,
0.620376587,
1.024602056,
-0.818132699,
-0.366469741,
0.349012405,
0.891131163,
0.870207310,
0.839311242,
0.267669052,
-0.869582653,
0.106744528,
-0.625605345,
-0.783255577,
0.850349247,
0.717663229,
-0.977751195,
0.249024555,
-0.118165500,
-0.164561152,
-0.457756877,
0.384556174,
-0.652536273,
0.325111747,
0.562697530,
0.948374569,
0.460113704,
-0.989735246,
-0.648696899,
0.499315023,
0.166672334,
-0.780084014,
-0.575819492,
0.952287734,
0.692061841,
-0.436025143,
-0.251684785,
-0.952598095,
-0.000707382,
-0.753058910,
-0.659838617,
-0.055099607,
0.162951991,
-0.409530282,
0.562504530,
-0.608539104,
0.885017633,
0.683793008,
-0.843282938,
-0.290716797,
0.018065080,
0.111405432,
0.288903803,
0.361462027,
0.078431480,
-0.487928748,
0.481419504,
-0.959248900,
-0.592706680,
-0.280830532,
-0.487113357,
-0.349833369,
-0.819621682,
-0.212715149,
0.232100889,
-0.651465774,
-0.051319361,
0.735830724,
-0.102800250,
-0.000614302,
-0.121353731,
0.174211413,
0.652213931,
0.964445770,
0.654730141,
0.920835316,
-0.072321653,
-0.898321509,
-0.474077225,
0.699327230,
-0.028446717,
-0.497046351,
-0.766311765,
-0.935852051,
-0.672584772,
-0.175720319,
0.518042147,
0.515941679,
-0.964431882,
0.601473033,
-0.782509446,
-0.211410284,
-0.405472636,
-0.227133378,
-0.153867424,
-0.897349954,
-0.863437891,
-0.093457766,
0.181919888,
-0.454274893,
0.393113226,
-0.900058389,
-0.009091172,
0.859045565,
-0.407891989,
0.880497813,
0.376933694,
-0.902460933,
0.609681964,
-0.027159097,
-0.446406841,
0.763584912,
-0.808095217,
0.309404731,
-0.243397668,
0.690879166,
0.274516553,
0.495273590,
0.372433424,
-0.240474701,
-0.210305452,
-0.824081421,
0.544749856,
0.769994020,
0.701006949,
-0.393925011,
0.034105971,
-0.704934120,
-0.550484180,
-0.582705498,
0.318449676,
-0.595913172,
-0.021817207,
0.025147760,0.094827488,-0.075592004,-0.068651222,-0.058066156,0.120928019,-0.035946500,0.110633023,0.036160756,0.048957590,-0.000744402,-0.007502620,0.012546635,-0.027819844,0.003481150,0.012759305,-0.078109726,-0.007282656,-0.092223927,-0.177497104,0.024181250,0.144384876,0.036123704,0.037905123,-0.086660996,0.049537789,-0.020028356,-0.028386427,-0.033551633,-0.014808739,0.001093829,0.123296857,0.012483883,0.089569286,0.040485647,-0.063221395,0.018530598,-0.023150695,-0.005713830,0.059559226,0.054947209,0.068217203,-0.008986071,0.000160086,0.051482357,-0.096709214,0.103603952,-0.036208805,0.001378250,-0.017001677,-0.052667297,0.087236263,0.152659178,-0.005218545,-0.026519399,-0.036983885,-0.074394740,0.045139398,-0.048026372,-0.066734031,-0.005303254,0.121480264,0.052957367,0.076752186,0.090905413,-0.254844010,-0.027944816,0.058696222,0.082203470,0.077734821,-0.063365884,-0.047007740,-0.068047188,0.059062198,-0.056118250,-0.055461735,0.165350705,-0.064941123,0.010985866,0.028649354,-0.195039943,-0.019410055,-0.048998181,-0.054132465,0.043119300,0.093160033,-0.033524062,0.029455543,-0.022867620,-0.049886260,-0.034128431,0.063755095,0.109009437,0.043102752,-0.022490216,-0.061642982,0.069154479,-0.046412747,0.040966548,-0.033625353,
-0.027705908,
