// Neural Network File Format by Kyle Julian, Stanford 2016
2,1,1,100,
1,100,1,
0,
0.0,
0.0,
0.0,0.0,
0.0,0.0,
0.060463134,
0.589622140,
-0.823045135,
-0.735939026,
-0.385154366,
0.323303372,
-0.019813180,
0.892328858,
-0.088744044,
0.332235217,
-0.302213073,
-0.226120189,
-0.955348492,
-0.701633215,
-0.365381092,
0.037043571,
0.359766781,
0.562368155,
-0.754118741,
-0.478985429,
0.420271873,
0.883121789,
-0.205800176,
0.827322543,
-0.161183357,
0.105814099,
0.868061841,
-0.927670360,
-0.629537940,
-0.253165245,
-0.389799953,
0.917169392,
-0.648179650,
-0.460332870,
-0.651933432,
-0.936560988,
-0.603437662,
0.819849610,
0.409433395,
0.542660534,
0.107932158,
-0.464092106,
0.133176014,
-0.933694720,
-0.722566247,
-0.515529990,
0.683704495,
0.546432972,
-0.443495035,
-0.036082387,
0.639560699,
1.141998291,
0.446189672,
0.100497156,
0.629931033,
-0.588802338,
0.142008945,
-0.775305510,
-0.693086147,
-0.516583562,
0.415274978,
0.458402842,
-0.592352509,
0.302107096,
0.612158775,
-0.248916283,
0.038181543,
0.289390028,
0.620376587,
1.024521232,
-0.818148732,
-0.366469741,
0.349000752,
0.891036570,
0.870207310,
0.839289427,
0.267619431,
-0.869582653,
0.106402688,
-0.625605345,
-0.783145905,
0.850269139,
0.717634141,
-0.977842748,
0.248908907,
-0.118237332,
-0.164561152,
-0.457756877,
0.384556174,
-0.652602613,
0.325055271,
0.562607765,
0.948319018,
0.459997147,
-0.989735246,
-0.648696899,
0.499315023,
0.166639760,
-0.780084014,
-0.575819492,
0.952108681,
0.691983044,
-0.436025143,
-0.251684785,
-0.952598095,
-0.000783713,
-0.753058910,
-0.659849584,
-0.055099607,
0.162838742,
-0.409530282,
0.562137842,
-0.608539104,
0.884940088,
0.682921588,
-0.843282938,
-0.290662795,
0.017834974,
0.111432329,
0.288940281,
0.361277550,
0.078364938,
-0.487928748,
0.481285781,
-0.959248900,
-0.592706680,
-0.280932039,
-0.487113357,
-0.349833369,
-0.819621682,
-0.212715149,
0.232030302,
-0.651465774,
-0.051319361,
0.735711098,
-0.102800250,
-0.000614302,
-0.121440634,
0.173909053,
0.652113676,
0.964340985,
0.654639304,
0.920560718,
-0.072321653,
-0.898321509,
-0.474077225,
0.699251354,
-0.028463369,
-0.497046351,
-0.766311765,
-0.935852051,
-0.672640026,
-0.175786316,
0.517627180,
0.515866041,
-0.964431882,
0.601471364,
-0.782509446,
-0.211410284,
-0.405472636,
-0.227228478,
-0.153907239,
-0.897349954,
-0.863437891,
-0.093504526,
0.181965619,
-0.454274893,
0.393012077,
-0.900058389,
-0.009167760,
0.859035850,
-0.407891989,
0.880491853,
0.376832604,
-0.902460933,
0.609665692,
-0.027219974,
-0.446406841,
0.763235092,
-0.808095217,
0.309442163,
-0.243464708,
0.690855503,
0.274525911,
0.495151281,
0.372354507,
-0.240474701,
-0.210305452,
-0.824081421,
0.544717431,
0.769941866,
0.700910509,
-0.393988341,
0.033983149,
-0.704934120,
-0.550484180,
-0.582705498,
0.318422288,
-0.595913172,
-0.021817207,
0.025099801,0.094781548,-0.075592004,-0.068651222,-0.058066156,0.120861724,-0.035946500,0.110599548,0.036160756,0.048902743,-0.000744402,-0.007536031,0.012546635,-0.027856860,0.003427506,0.012759305,-0.078358829,-0.007310456,-0.092273712,-0.177520230,0.024132118,0.144338340,0.036123704,0.037859756,-0.086660996,0.049537789,-0.020046860,-0.028386427,-0.033551633,-0.014808739,0.001093829,0.123251334,0.012483883,0.089569286,0.040424023,-0.063221395,0.018530598,-0.023174645,-0.005745638,0.059512872,0.054899611,0.068157569,-0.009023963,0.000160086,0.051482357,-0.096709214,0.103558511,-0.036234215,0.001378250,-0.017001677,-0.052667297,0.087176159,0.152610362,-0.005254299,-0.026554018,-0.036983885,-0.074429259,0.045139398,-0.048026372,-0.066734031,-0.005296294,0.121410161,0.052957367,0.076752186,0.090849169,-0.254832357,-0.027944816,0.058645658,0.082203470,0.077688843,-0.063402630,-0.047007740,-0.068084069,0.059016928,-0.056118250,-0.055497039,0.165281594,-0.064941123,0.010937420,0.028649354,-0.194990292,-0.019440966,-0.049033999,-0.054274350,0.043069474,0.093098886,-0.033524062,0.029455543,-0.022867620,-0.049939670,-0.034164749,0.063709006,0.108976424,0.043046996,-0.022490216,-0.061642982,0.069154479,-0.046441853,0.040966548,-0.033625353,
-0.027748717,
