// Neural Network File Format by Kyle Julian, Stanford 2016
2,1,1,100,
1,100,1,
0,
0.0,
0.0,
0.0,0.0,
0.0,0.0,
0.060443778,
0.589607298,
-0.823045135,
-0.735939026,
-0.385154366,
0.323288888,
-0.019813180,
0.892317176,
-0.088744044,
0.332218707,
-0.302213073,
-0.226125732,
-0.955348492,
-0.701625049,
-0.365424871,
0.037043571,
0.359889209,
0.562364578,
-0.754159391,
-0.478945255,
0.420251995,
0.883107424,
-0.205800176,
0.827305079,
-0.161183357,
0.105814099,
0.868053436,
-0.927670360,
-0.629537940,
-0.253165245,
-0.389799953,
0.917154789,
-0.648179650,
-0.460332870,
-0.651949048,
-0.936560988,
-0.603437662,
0.819856405,
0.409427285,
0.542644739,
0.107916214,
-0.464107037,
0.133173630,
-0.933694720,
-0.722566247,
-0.515529990,
0.683689773,
0.546456814,
-0.443495035,
-0.036082387,
0.639560699,
1.141991258,
0.446197599,
0.100487731,
0.629937828,
-0.588802338,
0.142019719,
-0.775305510,
-0.693086147,
-0.516583562,
0.415355504,
0.458429992,
-0.592352509,
0.302107096,
0.612159371,
-0.248854026,
0.038181543,
0.289374143,
0.620376587,
1.024506450,
-0.818137705,
-0.366469741,
0.349011362,
0.891020775,
0.870207310,
0.839299321,
0.267624825,
-0.869582653,
0.106375903,
-0.625605345,
-0.782980561,
0.850305438,
0.717643678,
-0.977794468,
0.248892054,
-0.118251942,
-0.164561152,
-0.457756877,
0.384556174,
-0.652524114,
0.325063586,
0.562592208,
0.948326290,
0.459980100,
-0.989735246,
-0.648696899,
0.499315023,
0.166649267,
-0.780084014,
-0.575819492,
0.952092946,
0.691971719,
-0.436025143,
-0.251684785,
-0.952598095,
-0.000792926,
-0.753058910,
-0.659898520,
-0.055099607,
0.162825987,
-0.409530282,
0.562128425,
-0.608539104,
0.884944320,
0.682876348,
-0.843282938,
-0.290614724,
0.017829122,
0.111420169,
0.288961679,
0.361261696,
0.078354284,
-0.487928748,
0.481272101,
-0.959248900,
-0.592706680,
-0.280958176,
-0.487113357,
-0.349833369,
-0.819621682,
-0.212715149,
0.232019424,
-0.651465774,
-0.051319361,
0.735698521,
-0.102800250,
-0.000614302,
-0.121433482,
0.173899993,
0.652101517,
0.964328706,
0.654627621,
0.920554936,
-0.072321653,
-0.898321509,
-0.474077225,
0.699240208,
-0.028393807,
-0.497046351,
-0.766311765,
-0.935852051,
-0.672639191,
-0.175790966,
0.517614126,
0.515869617,
-0.964431882,
0.601478875,
-0.782509446,
-0.211410284,
-0.405472636,
-0.227111772,
-0.153828934,
-0.897349954,
-0.863437891,
-0.093451530,
0.181981772,
-0.454274893,
0.392999798,
-0.900058389,
-0.009157455,
0.859043181,
-0.407891989,
0.880499184,
0.376820296,
-0.902460933,
0.609672546,
-0.027209621,
-0.446406841,
0.763211966,
-0.808095217,
0.309461147,
-0.243409976,
0.690861642,
0.274654508,
0.495138079,
0.372343391,
-0.240474701,
-0.210305452,
-0.824081421,
0.544770896,
0.769946814,
0.700898767,
-0.393986523,
0.033969894,
-0.704934120,
-0.550484180,
-0.582705498,
0.318428516,
-0.595913172,
-0.021817207,
0.025089908,0.094770633,-0.075592004,-0.068651222,-0.058066156,0.120847225,-0.035946500,0.110791884,0.036160756,0.048890606,-0.000744402,-0.007543960,0.012546635,-0.027863119,0.003419187,0.012759305,-0.078861579,-0.007322761,-0.092290260,-0.177520096,0.024120813,0.144325316,0.036123704,0.037848238,-0.086660996,0.049537789,-0.020062456,-0.028386427,-0.033551633,-0.014808739,0.001093829,0.123239055,0.012483883,0.089569286,0.040417317,-0.063221395,0.018530598,-0.023188444,-0.005756712,0.059501968,0.054889634,0.068149716,-0.009033518,0.000160086,0.051482357,-0.096709214,0.103547513,-0.036258854,0.001378250,-0.017001677,-0.052667297,0.087146141,0.152632311,-0.005263802,-0.026564693,-0.036983885,-0.074438848,0.045139398,-0.048026372,-0.066734031,-0.005282086,0.121388294,0.052957367,0.076752186,0.090833172,-0.254793912,-0.027944816,0.058634654,0.082203470,0.077675134,-0.063407607,-0.047007740,-0.068094008,0.059005111,-0.056118250,-0.055507872,0.165285215,-0.064941123,0.010927403,0.028649354,-0.194851443,-0.019476620,-0.049044583,-0.054481268,0.043058783,0.093089312,-0.033524062,0.029455543,-0.022867620,-0.049965408,-0.034174703,0.063698135,0.108992137,0.043033462,-0.022490216,-0.061642982,0.069154479,-0.046451576,0.040966548,-0.033625353,
-0.027758248,
