// Neural Network File Format by Kyle Julian, Stanford 2016
2,1,1,100,
1,100,1,
0,
0.0,
0.0,
0.0,0.0,
0.0,0.0,
0.060239017,
0.589539468,
-0.823045135,
-0.735939026,
-0.385154366,
0.323231637,
-0.019813180,
0.892238021,
-0.088744044,
0.332104176,
-0.302213073,
-0.226663738,
-0.955348492,
-0.701772928,
-0.366514981,
0.037043571,
0.359921187,
0.562043607,
-0.754415691,
-0.478945881,
0.420039266,
0.883056641,
-0.205800176,
0.827162445,
-0.161183357,
0.105814099,
0.867862940,
-0.927670360,
-0.629537940,
-0.253165245,
-0.389799953,
0.917098463,
-0.648179650,
-0.460332870,
-0.652073205,
-0.936560988,
-0.603437662,
0.819714308,
0.409010977,
0.542547822,
0.107813187,
-0.464191347,
0.132770583,
-0.933694720,
-0.722566247,
-0.515529990,
0.683626175,
0.546391070,
-0.443495035,
-0.036082387,
0.639560699,
1.141936064,
0.446179897,
0.099909402,
0.629798293,
-0.588802338,
0.141977996,
-0.775305510,
-0.693086147,
-0.516583562,
0.415262610,
0.458447427,
-0.592352509,
0.302107096,
0.612115264,
-0.248876706,
0.038181543,
0.289276093,
0.620376587,
1.024427652,
-0.818192184,
-0.366469741,
0.348964036,
0.890923142,
0.870207310,
0.839238346,
0.267610997,
-0.869582653,
0.105935790,
-0.625605345,
-0.782767594,
0.850197375,
0.717572510,
-0.977874458,
0.248765051,
-0.118319713,
-0.164561152,
-0.457756877,
0.384556174,
-0.652524352,
0.324954271,
0.562500477,
0.948306739,
0.459852308,
-0.989735246,
-0.648696899,
0.499315023,
0.166573137,
-0.780084014,
-0.575819492,
0.951879978,
0.691896498,
-0.436025143,
-0.251684785,
-0.952598095,
-0.000863019,
-0.753058910,
-0.660056114,
-0.055099607,
0.162703753,
-0.409530282,
0.561584115,
-0.608539104,
0.884803891,
0.681675673,
-0.843282938,
-0.290749401,
0.017469533,
0.111280948,
0.288973361,
0.361041427,
0.078295939,
-0.487928748,
0.481121749,
-0.959248900,
-0.592706680,
-0.281187266,
-0.487113357,
-0.349833369,
-0.819621682,
-0.212715149,
0.231955469,
-0.651465774,
-0.051319361,
0.735563517,
-0.102800250,
-0.000614302,
-0.121567056,
0.173434287,
0.651996970,
0.964217722,
0.654534638,
0.920136929,
-0.072321653,
-0.898321509,
-0.474077225,
0.699168980,
-0.028383806,
-0.497046351,
-0.766311765,
-0.935852051,
-0.672678232,
-0.175858468,
0.516989410,
0.515732050,
-0.964431882,
0.601443827,
-0.782509446,
-0.211410284,
-0.405472636,
-0.227127865,
-0.153731599,
-0.897349954,
-0.863437891,
-0.093422242,
0.181946546,
-0.454274893,
0.392893821,
-0.900058389,
-0.009201332,
0.858996093,
-0.407891989,
0.880458355,
0.376714677,
-0.902460933,
0.609617770,
-0.027260760,
-0.446406841,
0.762762547,
-0.808095217,
0.309439570,
-0.243480593,
0.690796494,
0.274794668,
0.495003104,
0.372267574,
-0.240474701,
-0.210305452,
-0.824081421,
0.544766247,
0.769842446,
0.700799286,
-0.394032627,
0.033834551,
-0.704934120,
-0.550484180,
-0.582705498,
0.318358004,
-0.595913172,
-0.021817207,
0.025056729,0.094739817,-0.075592004,-0.068651222,-0.058066156,0.120787732,-0.035946500,0.111108691,0.036160756,0.048847374,-0.000744402,-0.007556888,0.012546635,-0.027880453,0.003378030,0.012759305,-0.079700895,-0.007329130,-0.092246480,-0.177525863,0.024085458,0.144292980,0.036123704,0.037818000,-0.086660996,0.049537789,-0.020056866,-0.028386427,-0.033551633,-0.014808739,0.001093829,0.123208292,0.012483883,0.089569286,0.040366340,-0.063221395,0.018530598,-0.023188440,-0.005768134,0.059470616,0.054856941,0.068101309,-0.009052897,0.000160086,0.051482357,-0.096709214,0.103517339,-0.036278654,0.001378250,-0.017001677,-0.052667297,0.087063193,0.152648896,-0.005280158,-0.026580064,-0.036983885,-0.074453726,0.045139398,-0.048026372,-0.066734031,-0.005217591,0.121319547,0.052957367,0.076752186,0.090789147,-0.254684448,-0.027944816,0.058597606,0.082203470,0.077643454,-0.063424222,-0.047007740,-0.068112195,0.058974896,-0.056118250,-0.055524256,0.165249884,-0.064941123,0.010893277,0.028649354,-0.194563016,-0.019512840,-0.049061589,-0.054879941,0.043022845,0.093038388,-0.033524062,0.029455543,-0.022867620,-0.050020270,-0.034192126,0.063667178,0.109024845,0.042988520,-0.022490216,-0.061642982,0.069154479,-0.046459157,0.040966548,-0.033625353,
-0.027784327,
