// Neural Network File Format by Kyle Julian, Stanford 2016
2,1,1,100,
1,100,1,
0,
0.0,
0.0,
0.0,0.0,
0.0,0.0,
0.060202289,
0.589532793,
-0.823045135,
-0.735939026,
-0.385154366,
0.323227286,
-0.019813180,
0.892245948,
-0.088744044,
0.332087308,
-0.302213073,
-0.226790085,
-0.955348492,
-0.701813579,
-0.366750449,
0.037043571,
0.359928250,
0.561967015,
-0.754441023,
-0.478950828,
0.420000792,
0.883053720,
-0.205800176,
0.827139437,
-0.161183357,
0.105814099,
0.867819726,
-0.927670360,
-0.629537940,
-0.253165245,
-0.389799953,
0.917094290,
-0.648179650,
-0.460332870,
-0.652093053,
-0.936560988,
-0.603437662,
0.819675207,
0.408912957,
0.542534828,
0.107798718,
-0.464202017,
0.132674366,
-0.933694720,
-0.722566247,
-0.515529990,
0.683620393,
0.546364427,
-0.443495035,
-0.036082387,
0.639560699,
1.141932964,
0.446179271,
0.099774532,
0.629759967,
-0.588802338,
0.141960844,
-0.775305510,
-0.693086147,
-0.516583562,
0.415212303,
0.458445698,
-0.592352509,
0.302107096,
0.612109363,
-0.248882398,
0.038181543,
0.289262772,
0.620376587,
1.024418592,
-0.818212330,
-0.366469741,
0.348945796,
0.890909910,
0.870207310,
0.839217186,
0.267610550,
-0.869582653,
0.105847254,
-0.625605345,
-0.782760859,
0.850157857,
0.717549086,
-0.977920771,
0.248745382,
-0.118326545,
-0.164561152,
-0.457756877,
0.384556174,
-0.652562916,
0.324922472,
0.562488556,
0.948304772,
0.459832579,
-0.989735246,
-0.648696899,
0.499315023,
0.166548520,
-0.780084014,
-0.575819492,
0.951840997,
0.691887796,
-0.436025143,
-0.251684785,
-0.952598095,
-0.000871225,
-0.753058910,
-0.660047114,
-0.055099607,
0.162684754,
-0.409530282,
0.561456680,
-0.608539104,
0.884765148,
0.681416869,
-0.843282938,
-0.290753782,
0.017384067,
0.111273140,
0.288969666,
0.361000866,
0.078290895,
-0.487928748,
0.481096625,
-0.959248900,
-0.592706680,
-0.281232387,
-0.487113357,
-0.349833369,
-0.819621682,
-0.212715149,
0.231949240,
-0.651465774,
-0.051319361,
0.735541165,
-0.102800250,
-0.000614302,
-0.121607505,
0.173325062,
0.651981831,
0.964201033,
0.654521883,
0.920037389,
-0.072321653,
-0.898321509,
-0.474077225,
0.699161053,
-0.028406210,
-0.497046351,
-0.766311765,
-0.935852051,
-0.672679663,
-0.175862968,
0.516844392,
0.515694320,
-0.964431882,
0.601428509,
-0.782509446,
-0.211410284,
-0.405472636,
-0.227172166,
-0.153731659,
-0.897349954,
-0.863437891,
-0.093424506,
0.181942031,
-0.454274893,
0.392878354,
-0.900058389,
-0.009209991,
0.858977973,
-0.407891989,
0.880441785,
0.376699299,
-0.902460933,
0.609598100,
-0.027264729,
-0.446406841,
0.762671649,
-0.808095217,
0.309433669,
-0.243517488,
0.690774500,
0.274776369,
0.494981289,
0.372258633,
-0.240474701,
-0.210305452,
-0.824081421,
0.544738710,
0.769811928,
0.700785279,
-0.394036323,
0.033812709,
-0.704934120,
-0.550484180,
-0.582705498,
0.318334907,
-0.595913172,
-0.021817207,
0.025057184,0.094740905,-0.075592004,-0.068651222,-0.058066156,0.120782793,-0.035946500,0.111103557,0.036160756,0.048845824,-0.000744402,-0.007552183,0.012546635,-0.027876873,0.003376441,0.012759305,-0.079742424,-0.007322519,-0.092248514,-0.177519336,0.024085548,0.144293934,0.036123704,0.037819270,-0.086660996,0.049537789,-0.020047508,-0.028386427,-0.033551633,-0.014808739,0.001093829,0.123209521,0.012483883,0.089569286,0.040362503,-0.063221395,0.018530598,-0.023180734,-0.005762758,0.059471577,0.054857519,0.068098165,-0.009049422,0.000160086,0.051482357,-0.096709214,0.103518575,-0.036270905,0.001378250,-0.017001677,-0.052667297,0.087059617,0.152647287,-0.005276031,-0.026575588,-0.036983885,-0.074449249,0.045139398,-0.048026372,-0.066734031,-0.005203024,0.121313952,0.052957367,0.076752186,0.090787441,-0.254668117,-0.027944816,0.058597315,0.082203470,0.077644639,-0.063420609,-0.047007740,-0.068108417,0.058976196,-0.056118250,-0.055519991,0.165243819,-0.064941123,0.010893498,0.028649354,-0.194540590,-0.019506270,-0.049057476,-0.054899540,0.043022767,0.093034863,-0.033524062,0.029455543,-0.022867620,-0.050020177,-0.034188185,0.063668221,0.109028704,0.042986717,-0.022490216,-0.061642982,0.069154479,-0.046453055,0.040966548,-0.033625353,
-0.027782332,
