// Neural Network File Format by Kyle Julian, Stanford 2016
2,1,1,100,
1,100,1,
0,
0.0,
0.0,
0.0,0.0,
0.0,0.0,
0.060184486,
0.589544177,
-0.823045135,
-0.735939026,
-0.385154366,
0.323240936,
-0.019813180,
0.892295897,
-0.088744044,
0.332088888,
-0.302213073,
-0.226929784,
-0.955348492,
-0.701871216,
-0.366965830,
0.037043571,
0.360129118,
0.561882496,
-0.754508495,
-0.478922278,
0.419981390,
0.883068860,
-0.205800176,
0.827135324,
-0.161183357,
0.105814099,
0.867735505,
-0.927670360,
-0.629537940,
-0.253165245,
-0.389799953,
0.917108357,
-0.648179650,
-0.460332870,
-0.652095854,
-0.936560988,
-0.603437662,
0.819623351,
0.408807069,
0.542540073,
0.107802458,
-0.464195102,
0.132565558,
-0.933694720,
-0.722566247,
-0.515529990,
0.683632731,
0.546347320,
-0.443495035,
-0.036082387,
0.639560699,
1.141959906,
0.446230561,
0.099630304,
0.629706144,
-0.588802338,
0.141926810,
-0.775305510,
-0.693086147,
-0.516583562,
0.415305674,
0.458521664,
-0.592352509,
0.302107096,
0.612142861,
-0.248808339,
0.038181543,
0.289267689,
0.620376587,
1.024428248,
-0.818249822,
-0.366469741,
0.348910511,
0.890915036,
0.870207310,
0.839179218,
0.267659903,
-0.869582653,
0.105778791,
-0.625605345,
-0.782541931,
0.850153565,
0.717509031,
-0.977956533,
0.248744234,
-0.118315578,
-0.164561152,
-0.457756877,
0.384556174,
-0.652517140,
0.324874640,
0.562494874,
0.948354185,
0.459831476,
-0.989735246,
-0.648696899,
0.499315023,
0.166507378,
-0.780084014,
-0.575819492,
0.951827586,
0.691903591,
-0.436025143,
-0.251684785,
-0.952598095,
-0.000843763,
-0.753058910,
-0.660046756,
-0.055099607,
0.162690714,
-0.409530282,
0.561309993,
-0.608539104,
0.884702742,
0.681185961,
-0.843282938,
-0.290670335,
0.017285351,
0.111244433,
0.288965315,
0.360986143,
0.078310482,
-0.487928748,
0.481096774,
-0.959248900,
-0.592706680,
-0.281355292,
-0.487113357,
-0.349833369,
-0.819621682,
-0.212715149,
0.231967524,
-0.651465774,
-0.051319361,
0.735542536,
-0.102800250,
-0.000614302,
-0.121662624,
0.173203111,
0.651991725,
0.964209259,
0.654533446,
0.919919133,
-0.072321653,
-0.898321509,
-0.474077225,
0.699177861,
-0.028350102,
-0.497046351,
-0.766311765,
-0.935852051,
-0.672637403,
-0.175832376,
0.516684592,
0.515634716,
-0.964431882,
0.601389527,
-0.782509446,
-0.211410284,
-0.405472636,
-0.227009356,
-0.153580919,
-0.897349954,
-0.863437891,
-0.093313225,
0.181936890,
-0.454274893,
0.392887592,
-0.900058389,
-0.009157144,
0.858935893,
-0.407891989,
0.880401492,
0.376708925,
-0.902460933,
0.609555304,
-0.027209766,
-0.446406841,
0.762607276,
-0.808095217,
0.309420317,
-0.243490919,
0.690729380,
0.274897695,
0.494984627,
0.372274220,
-0.240474701,
-0.210305452,
-0.824081421,
0.544754148,
0.769758761,
0.700796366,
-0.393995941,
0.033816058,
-0.704934120,
-0.550484180,
-0.582705498,
0.318288505,
-0.595913172,
-0.021817207,
0.025081629,0.094764113,-0.075592004,-0.068651222,-0.058066156,0.120795742,-0.035946500,0.111417755,0.036160756,0.048865136,-0.000744402,-0.007521870,0.012546635,-0.027844347,0.003401400,0.012759305,-0.080551535,-0.007298299,-0.092253409,-0.177474871,0.024107262,0.144313514,0.036123704,0.037841577,-0.086660996,0.049537789,-0.020026052,-0.028386427,-0.033551633,-0.014808739,0.001093829,0.123230495,0.012483883,0.089569286,0.040389098,-0.063221395,0.018530598,-0.023158522,-0.005737236,0.059494697,0.054881934,0.068123505,-0.009022409,0.000160086,0.051482357,-0.096709214,0.103541747,-0.036265794,0.001378250,-0.017001677,-0.052667297,0.087048762,0.152717575,-0.005248653,-0.026549706,-0.036983885,-0.074421473,0.045139398,-0.048026372,-0.066734031,-0.005133709,0.121316843,0.052957367,0.076752186,0.090800323,-0.254559010,-0.027944816,0.058619428,0.082203470,0.077663317,-0.063385956,-0.047007740,-0.068081737,0.058998022,-0.056118250,-0.055494480,0.165285990,-0.064941123,0.010917351,0.028649354,-0.194273874,-0.019517591,-0.049031671,-0.055183467,0.043045532,0.093057118,-0.033524062,0.029455543,-0.022867620,-0.050014302,-0.034161404,0.063691460,0.109093629,0.043003459,-0.022490216,-0.061642982,0.069154479,-0.046424471,0.040966548,-0.033625353,
-0.027756171,
