// Neural Network File Format by Kyle Julian, Stanford 2016
2,1,1,100,
1,100,1,
0,
0.0,
0.0,
0.0,0.0,
0.0,0.0,
0.060184758,
0.589544415,
-0.823045135,
-0.735939026,
-0.385154366,
0.323241204,
-0.019813180,
0.892298281,
-0.088744044,
0.332089156,
-0.302213073,
-0.226930022,
-0.955348492,
-0.701871455,
-0.366965592,
0.037043571,
0.360118955,
0.561882317,
-0.754500389,
-0.478925943,
0.419981658,
0.883069098,
-0.205800176,
0.827135563,
-0.161183357,
0.105814099,
0.867737770,
-0.927670360,
-0.629537940,
-0.253165245,
-0.389799953,
0.917108595,
-0.648179650,
-0.460332870,
-0.652095616,
-0.936560988,
-0.603437662,
0.819622874,
0.408806950,
0.542540312,
0.107802734,
-0.464194834,
0.132565349,
-0.933694720,
-0.722566247,
-0.515529990,
0.683632970,
0.546345174,
-0.443495035,
-0.036082387,
0.639560699,
1.141959667,
0.446228713,
0.099630117,
0.629705906,
-0.588802338,
0.141926557,
-0.775305510,
-0.693086147,
-0.516583562,
0.415294200,
0.458517134,
-0.592352509,
0.302107096,
0.612141609,
-0.248811737,
0.038181543,
0.289267957,
0.620376587,
1.024428487,
-0.818250060,
-0.366469741,
0.348910242,
0.890915275,
0.870207310,
0.839178979,
0.267657787,
-0.869582653,
0.105779067,
-0.625605345,
-0.782556057,
0.850149751,
0.717508793,
-0.977960527,
0.248744503,
-0.118315309,
-0.164561152,
-0.457756877,
0.384556174,
-0.652526200,
0.324874401,
0.562495112,
0.948352098,
0.459831744,
-0.989735246,
-0.648696899,
0.499315023,
0.166507125,
-0.780084014,
-0.575819492,
0.951827526,
0.691903532,
-0.436025143,
-0.251684785,
-0.952598095,
-0.000844674,
-0.753058910,
-0.660039425,
-0.055099607,
0.162690699,
-0.409530282,
0.561309993,
-0.608539104,
0.884702802,
0.681185961,
-0.843282938,
-0.290671706,
0.017285384,
0.111249410,
0.288963526,
0.360986114,
0.078310430,
-0.487928748,
0.481096745,
-0.959248900,
-0.592706680,
-0.281349957,
-0.487113357,
-0.349833369,
-0.819621682,
-0.212715149,
0.231967494,
-0.651465774,
-0.051319361,
0.735542536,
-0.102800250,
-0.000614302,
-0.121663615,
0.173203140,
0.651991665,
0.964209199,
0.654533386,
0.919919193,
-0.072321653,
-0.898321509,
-0.474077225,
0.699177802,
-0.028357651,
-0.497046351,
-0.766311765,
-0.935852051,
-0.672638893,
-0.175832152,
0.516684651,
0.515634716,
-0.964431882,
0.601389587,
-0.782509446,
-0.211410284,
-0.405472636,
-0.227025717,
-0.153591111,
-0.897349954,
-0.863437891,
-0.093319453,
0.181937501,
-0.454274893,
0.392887533,
-0.900058389,
-0.009160082,
0.858935952,
-0.407891989,
0.880401552,
0.376708895,
-0.902460933,
0.609555364,
-0.027211601,
-0.446406841,
0.762607217,
-0.808095217,
0.309421420,
-0.243496954,
0.690729439,
0.274884313,
0.494984597,
0.372274160,
-0.240474701,
-0.210305452,
-0.824081421,
0.544748604,
0.769758821,
0.700796306,
-0.393997014,
0.033816006,
-0.704934120,
-0.550484180,
-0.582705498,
0.318288565,
-0.595913172,
-0.021817207,
0.025081590,0.094764166,-0.075592004,-0.068651222,-0.058066156,0.120796017,-0.035946500,0.111393072,0.036160756,0.048865262,-0.000744402,-0.007522008,0.012546635,-0.027844638,0.003401220,0.012759305,-0.080491811,-0.007298051,-0.092254765,-0.177475139,0.024107337,0.144313753,0.036123704,0.037841678,-0.086660996,0.049537789,-0.020025596,-0.028386427,-0.033551633,-0.014808739,0.001093829,0.123230673,0.012483883,0.089569286,0.040388744,-0.063221395,0.018530598,-0.023158181,-0.005737108,0.059494752,0.054881901,0.068123259,-0.009022435,0.000160086,0.051482357,-0.096709214,0.103541806,-0.036263939,0.001378250,-0.017001677,-0.052667297,0.087051608,0.152713254,-0.005248672,-0.026549626,-0.036983885,-0.074421488,0.045139398,-0.048026372,-0.066734031,-0.005136252,0.121317670,0.052957367,0.076752186,0.090800710,-0.254564196,-0.027944816,0.058619469,0.082203470,0.077663608,-0.063386351,-0.047007740,-0.068081737,0.058998149,-0.056118250,-0.055494390,0.165283814,-0.064941123,0.010917325,0.028649354,-0.194291472,-0.019514753,-0.049031608,-0.055161119,0.043045554,0.093056999,-0.033524062,0.029455543,-0.022867620,-0.050012853,-0.034161389,0.063691512,0.109090082,0.043003689,-0.022490216,-0.061642982,0.069154479,-0.046424452,0.040966548,-0.033625353,
-0.027756220,
