// Neural Network File Format by Kyle Julian, Stanford 2016
2,1,1,100,
1,100,1,
0,
0.0,
0.0,
0.0,0.0,
0.0,0.0,
0.060184132,
0.589543700,
-0.823045135,
-0.735939026,
-0.385154366,
0.323240638,
-0.019813180,
0.892292261,
-0.088744044,
0.332088590,
-0.302213073,
-0.226929471,
-0.955348492,
-0.701870739,
-0.366966188,
0.037043571,
0.360145181,
0.561882734,
-0.754521370,
-0.478917062,
0.419981092,
0.883068383,
-0.205800176,
0.827134848,
-0.161183357,
0.105814099,
0.867731869,
-0.927670360,
-0.629537940,
-0.253165245,
-0.389799953,
0.917107880,
-0.648179650,
-0.460332870,
-0.652096272,
-0.936560988,
-0.603437662,
0.819624007,
0.408807307,
0.542539597,
0.107802100,
-0.464195430,
0.132565826,
-0.933694720,
-0.722566247,
-0.515529990,
0.683632255,
0.546350539,
-0.443495035,
-0.036082387,
0.639560699,
1.141960382,
0.446233392,
0.099630557,
0.629706562,
-0.588802338,
0.141927168,
-0.775305510,
-0.693086147,
-0.516583562,
0.415323585,
0.458528876,
-0.592352509,
0.302107096,
0.612144887,
-0.248803079,
0.038181543,
0.289267391,
0.620376587,
1.024427891,
-0.818249345,
-0.366469741,
0.348910838,
0.890914559,
0.870207310,
0.839179635,
0.267663211,
-0.869582653,
0.105778433,
-0.625605345,
-0.782519937,
0.850159526,
0.717509449,
-0.977952242,
0.248743847,
-0.118315928,
-0.164561152,
-0.457756877,
0.384556174,
-0.652503371,
0.324874997,
0.562494397,
0.948357582,
0.459831178,
-0.989735246,
-0.648696899,
0.499315023,
0.166507721,
-0.780084014,
-0.575819492,
0.951827765,
0.691903770,
-0.436025143,
-0.251684785,
-0.952598095,
-0.000842307,
-0.753058910,
-0.660058081,
-0.055099607,
0.162690833,
-0.409530282,
0.561309814,
-0.608539104,
0.884702563,
0.681186140,
-0.843282938,
-0.290668041,
0.017285274,
0.111236684,
0.288967878,
0.360986263,
0.078310609,
-0.487928748,
0.481096894,
-0.959248900,
-0.592706680,
-0.281363636,
-0.487113357,
-0.349833369,
-0.819621682,
-0.212715149,
0.231967643,
-0.651465774,
-0.051319361,
0.735542715,
-0.102800250,
-0.000614302,
-0.121661127,
0.173203021,
0.651991904,
0.964209437,
0.654533625,
0.919918954,
-0.072321653,
-0.898321509,
-0.474077225,
0.699178040,
-0.028338447,
-0.497046351,
-0.766311765,
-0.935852051,
-0.672635376,
-0.175832808,
0.516684473,
0.515634537,
-0.964431882,
0.601389349,
-0.782509446,
-0.211410284,
-0.405472636,
-0.226983860,
-0.153564960,
-0.897349954,
-0.863437891,
-0.093303487,
0.181935951,
-0.454274893,
0.392887712,
-0.900058389,
-0.009152521,
0.858935714,
-0.407891989,
0.880401313,
0.376709044,
-0.902460933,
0.609555125,
-0.027206931,
-0.446406841,
0.762607455,
-0.808095217,
0.309418470,
-0.243481502,
0.690729201,
0.274917662,
0.494984746,
0.372274339,
-0.240474701,
-0.210305452,
-0.824081421,
0.544762671,
0.769758582,
0.700796545,
-0.393994391,
0.033816177,
-0.704934120,
-0.550484180,
-0.582705498,
0.318288356,
-0.595913172,
-0.021817207,
0.025081731,0.094764069,-0.075592004,-0.068651222,-0.058066156,0.120795399,-0.035946500,0.111456230,0.036160756,0.048865009,-0.000744402,-0.007521621,0.012546635,-0.027843874,0.003401710,0.012759305,-0.080644861,-0.007298621,-0.092251539,-0.177474573,0.024107197,0.144313246,0.036123704,0.037841465,-0.086660996,0.049537789,-0.020026688,-0.028386427,-0.033551633,-0.014808739,0.001093829,0.123230293,0.012483883,0.089569286,0.040389661,-0.063221395,0.018530598,-0.023158982,-0.005737380,0.059494674,0.054882023,0.068123907,-0.009022328,0.000160086,0.051482357,-0.096709214,0.103541695,-0.036268633,0.001378250,-0.017001677,-0.052667297,0.087044284,0.152724460,-0.005248581,-0.026549773,-0.036983885,-0.074421421,0.045139398,-0.048026372,-0.066734031,-0.005129774,0.121315621,0.052957367,0.076752186,0.090799801,-0.254550964,-0.027944816,0.058619406,0.082203470,0.077662937,-0.063385330,-0.047007740,-0.068081699,0.058997877,-0.056118250,-0.055494554,0.165289477,-0.064941123,0.010917435,0.028649354,-0.194246396,-0.019521940,-0.049031727,-0.055218402,0.043045551,0.093057334,-0.033524062,0.029455543,-0.022867620,-0.050016548,-0.034161374,0.063691422,0.109099261,0.043003161,-0.022490216,-0.061642982,0.069154479,-0.046424448,0.040966548,-0.033625353,
-0.027756054,
