// Neural Network File Format by Kyle Julian, Stanford 2016
2,1,1,100,
1,100,1,
0,
0.0,
0.0,
0.0,0.0,
0.0,0.0,
0.060183655,
0.589543223,
-0.823045135,
-0.735939026,
-0.385154366,
0.323240191,
-0.019813180,
0.892288566,
-0.088744044,
0.332088113,
-0.302213073,
-0.226929039,
-0.955348492,
-0.701870263,
-0.366966605,
0.037043571,
0.360162735,
0.561883032,
-0.754535437,
-0.478912383,
0.419980615,
0.883067906,
-0.205800176,
0.827134371,
-0.161183357,
0.105814099,
0.867727935,
-0.927670360,
-0.629537940,
-0.253165245,
-0.389799953,
0.917107403,
-0.648179650,
-0.460332870,
-0.652096748,
-0.936560988,
-0.603437662,
0.819624662,
0.408807546,
0.542539120,
0.107801639,
-0.464195877,
0.132566214,
-0.933694720,
-0.722566247,
-0.515529990,
0.683631778,
0.546354413,
-0.443495035,
-0.036082387,
0.639560699,
1.141960382,
0.446236342,
0.099630877,
0.629706979,
-0.588802338,
0.141927660,
-0.775305510,
-0.693086147,
-0.516583562,
0.415342897,
0.458536476,
-0.592352509,
0.302107096,
0.612147033,
-0.248797268,
0.038181543,
0.289266914,
0.620376587,
1.024427533,
-0.818248868,
-0.366469741,
0.348911285,
0.890914083,
0.870207310,
0.839180112,
0.267666608,
-0.869582653,
0.105777971,
-0.625605345,
-0.782496750,
0.850166142,
0.717509925,
-0.977948487,
0.248743340,
-0.118316390,
-0.164561152,
-0.457756877,
0.384556174,
-0.652489066,
0.324875444,
0.562493920,
0.948361039,
0.459830701,
-0.989735246,
-0.648696899,
0.499315023,
0.166508183,
-0.780084014,
-0.575819492,
0.951827824,
0.691903830,
-0.436025143,
-0.251684785,
-0.952598095,
-0.000840857,
-0.753058910,
-0.660070062,
-0.055099607,
0.162690878,
-0.409530282,
0.561309755,
-0.608539104,
0.884702504,
0.681186199,
-0.843282938,
-0.290665329,
0.017285256,
0.111228101,
0.288970262,
0.360986292,
0.078310624,
-0.487928748,
0.481096923,
-0.959248900,
-0.592706680,
-0.281372577,
-0.487113357,
-0.349833369,
-0.819621682,
-0.212715149,
0.231967688,
-0.651465774,
-0.051319361,
0.735542774,
-0.102800250,
-0.000614302,
-0.121659353,
0.173203006,
0.651991963,
0.964209497,
0.654533684,
0.919918835,
-0.072321653,
-0.898321509,
-0.474077225,
0.699178100,
-0.028326470,
-0.497046351,
-0.766311765,
-0.935852051,
-0.672633708,
-0.175833523,
0.516684413,
0.515634477,
-0.964431882,
0.601389289,
-0.782509446,
-0.211410284,
-0.405472636,
-0.226956472,
-0.153547928,
-0.897349954,
-0.863437891,
-0.093293354,
0.181935057,
-0.454274893,
0.392887741,
-0.900058389,
-0.009147671,
0.858935654,
-0.407891989,
0.880401254,
0.376709074,
-0.902460933,
0.609555066,
-0.027204430,
-0.446406841,
0.762607515,
-0.808095217,
0.309416234,
-0.243471265,
0.690729141,
0.274938613,
0.494984776,
0.372274369,
-0.240474701,
-0.210305452,
-0.824081421,
0.544771612,
0.769758523,
0.700796604,
-0.393992871,
0.033816196,
-0.704934120,
-0.550484180,
-0.582705498,
0.318288356,
-0.595913172,
-0.021817207,
0.025081737,0.094763950,-0.075592004,-0.068651222,-0.058066156,0.120794937,-0.035946500,0.111497544,0.036160756,0.048864771,-0.000744402,-0.007521464,0.012546635,-0.027843481,0.003401931,0.012759305,-0.080745362,-0.007299055,-0.092249431,-0.177474424,0.024107028,0.144312859,0.036123704,0.037841249,-0.086660996,0.049537789,-0.020027410,-0.028386427,-0.033551633,-0.014808739,0.001093829,0.123229973,0.012483883,0.089569286,0.040390149,-0.063221395,0.018530598,-0.023159558,-0.005737632,0.059494536,0.054882016,0.068124242,-0.009022346,0.000160086,0.051482357,-0.096709214,0.103541553,-0.036271777,0.001378250,-0.017001677,-0.052667297,0.087039299,0.152731821,-0.005248606,-0.026549948,-0.036983885,-0.074421450,0.045139398,-0.048026372,-0.066734031,-0.005125690,0.121314280,0.052957367,0.076752186,0.090799160,-0.254542440,-0.027944816,0.058619287,0.082203470,0.077662468,-0.063384771,-0.047007740,-0.068081766,0.058997627,-0.056118250,-0.055494744,0.165293127,-0.064941123,0.010917421,0.028649354,-0.194216788,-0.019526668,-0.049031880,-0.055255875,0.043045465,0.093057461,-0.033524062,0.029455543,-0.022867620,-0.050019082,-0.034161445,0.063691303,0.109105304,0.043002758,-0.022490216,-0.061642982,0.069154479,-0.046424534,0.040966548,-0.033625353,
-0.027756033,
