// Neural Network File Format by Kyle Julian, Stanford 2016
2,1,1,100,
1,100,1,
0,
0.0,
0.0,
0.0,0.0,
0.0,0.0,
0.060183629,
0.589543223,
-0.823045135,
-0.735939026,
-0.385154366,
0.323240161,
-0.019813180,
0.892287910,
-0.088744044,
0.332088083,
-0.302213073,
-0.226929024,
-0.955348492,
-0.701870263,
-0.366966605,
0.037043571,
0.360166073,
0.561883092,
-0.754538357,
-0.478911608,
0.419980586,
0.883067906,
-0.205800176,
0.827134371,
-0.161183357,
0.105814099,
0.867727101,
-0.927670360,
-0.629537940,
-0.253165245,
-0.389799953,
0.917107403,
-0.648179650,
-0.460332870,
-0.652096748,
-0.936560988,
-0.603437662,
0.819624782,
0.408807576,
0.542539120,
0.107801624,
-0.464195907,
0.132566243,
-0.933694720,
-0.722566247,
-0.515529990,
0.683631778,
0.546355069,
-0.443495035,
-0.036082387,
0.639560699,
1.141960263,
0.446237028,
0.099630900,
0.629706979,
-0.588802338,
0.141927689,
-0.775305510,
-0.693086147,
-0.516583562,
0.415346712,
0.458538055,
-0.592352509,
0.302107096,
0.612147450,
-0.248796195,
0.038181543,
0.289266884,
0.620376587,
1.024427414,
-0.818248868,
-0.366469741,
0.348911315,
0.890914083,
0.870207310,
0.839180112,
0.267667353,
-0.869582653,
0.105777957,
-0.625605345,
-0.782492161,
0.850167394,
0.717509925,
-0.977947831,
0.248743311,
-0.118316412,
-0.164561152,
-0.457756877,
0.384556174,
-0.652486324,
0.324875474,
0.562493920,
0.948361814,
0.459830672,
-0.989735246,
-0.648696899,
0.499315023,
0.166508198,
-0.780084014,
-0.575819492,
0.951827884,
0.691903889,
-0.436025143,
-0.251684785,
-0.952598095,
-0.000840507,
-0.753058910,
-0.660072327,
-0.055099607,
0.162690938,
-0.409530282,
0.561309695,
-0.608539104,
0.884702444,
0.681186259,
-0.843282938,
-0.290665001,
0.017285217,
0.111226320,
0.288970649,
0.360986352,
0.078310691,
-0.487928748,
0.481096983,
-0.959248900,
-0.592706680,
-0.281374454,
-0.487113357,
-0.349833369,
-0.819621682,
-0.212715149,
0.231967747,
-0.651465774,
-0.051319361,
0.735542834,
-0.102800250,
-0.000614302,
-0.121659040,
0.173202962,
0.651992023,
0.964209557,
0.654533744,
0.919918776,
-0.072321653,
-0.898321509,
-0.474077225,
0.699178159,
-0.028324286,
-0.497046351,
-0.766311765,
-0.935852051,
-0.672633290,
-0.175833613,
0.516684353,
0.515634418,
-0.964431882,
0.601389229,
-0.782509446,
-0.211410284,
-0.405472636,
-0.226951018,
-0.153544456,
-0.897349954,
-0.863437891,
-0.093291290,
0.181934819,
-0.454274893,
0.392887801,
-0.900058389,
-0.009146640,
0.858935595,
-0.407891989,
0.880401194,
0.376709133,
-0.902460933,
0.609555006,
-0.027203972,
-0.446406841,
0.762607574,
-0.808095217,
0.309415728,
-0.243469268,
0.690729082,
0.274942756,
0.494984835,
0.372274429,
-0.240474701,
-0.210305452,
-0.824081421,
0.544773340,
0.769758463,
0.700796664,
-0.393992513,
0.033816259,
-0.704934120,
-0.550484180,
-0.582705498,
0.318288296,
-0.595913172,
-0.021817207,
0.025081798,0.094763979,-0.075592004,-0.068651222,-0.058066156,0.120794922,-0.035946500,0.111505888,0.036160756,0.048864789,-0.000744402,-0.007521376,0.012546635,-0.027843352,0.003402030,0.012759305,-0.080765471,-0.007299074,-0.092248969,-0.177474365,0.024107058,0.144312859,0.036123704,0.037841268,-0.086660996,0.049537789,-0.020027479,-0.028386427,-0.033551633,-0.014808739,0.001093829,0.123229980,0.012483883,0.089569286,0.040390298,-0.063221395,0.018530598,-0.023159601,-0.005737618,0.059494574,0.054882076,0.068124361,-0.009022289,0.000160086,0.051482357,-0.096709214,0.103541583,-0.036272340,0.001378250,-0.017001677,-0.052667297,0.087038368,0.152733386,-0.005248551,-0.026549919,-0.036983885,-0.074421398,0.045139398,-0.048026372,-0.066734031,-0.005124814,0.121314093,0.052957367,0.076752186,0.090799101,-0.254540682,-0.027944816,0.058619328,0.082203470,0.077662431,-0.063384607,-0.047007740,-0.068081714,0.058997646,-0.056118250,-0.055494715,0.165293932,-0.064941123,0.010917478,0.028649354,-0.194210812,-0.019527540,-0.049031850,-0.055263340,0.043045506,0.093057536,-0.033524062,0.029455543,-0.022867620,-0.050019544,-0.034161396,0.063691333,0.109106600,0.043002743,-0.022490216,-0.061642982,0.069154479,-0.046424493,0.040966548,-0.033625353,
-0.027755970,
