// Neural Network File Format by Kyle Julian, Stanford 2016
2,1,1,100,
1,100,1,
0,
0.0,
0.0,
0.0,0.0,
0.0,0.0,
0.060183201,
0.589542806,
-0.823045135,
-0.735939026,
-0.385154366,
0.323239744,
-0.019813180,
0.892284453,
-0.088744044,
0.332087666,
-0.302213073,
-0.226928622,
-0.955348492,
-0.701869845,
-0.366966933,
0.037043571,
0.360181898,
0.561883450,
-0.754551768,
-0.478907973,
0.419980168,
0.883067489,
-0.205800176,
0.827133954,
-0.161183357,
0.105814099,
0.867723346,
-0.927670360,
-0.629537940,
-0.253165245,
-0.389799953,
0.917106986,
-0.648179650,
-0.460332870,
-0.652097106,
-0.936560988,
-0.603437662,
0.819625556,
0.408807784,
0.542538702,
0.107801214,
-0.464196324,
0.132566571,
-0.933694720,
-0.722566247,
-0.515529990,
0.683631361,
0.546358407,
-0.443495035,
-0.036082387,
0.639560699,
1.141959786,
0.446239799,
0.099631183,
0.629707336,
-0.588802338,
0.141928121,
-0.775305510,
-0.693086147,
-0.516583562,
0.415364653,
0.458545148,
-0.592352509,
0.302107096,
0.612149239,
-0.248791218,
0.038181543,
0.289266467,
0.620376587,
1.024426818,
-0.818248451,
-0.366469741,
0.348911732,
0.890913665,
0.870207310,
0.839180470,
0.267670482,
-0.869582653,
0.105777539,
-0.625605345,
-0.782470822,
0.850173533,
0.717510283,
-0.977944732,
0.248742849,
-0.118316829,
-0.164561152,
-0.457756877,
0.384556174,
-0.652473748,
0.324875861,
0.562493503,
0.948365092,
0.459830254,
-0.989735246,
-0.648696899,
0.499315023,
0.166508615,
-0.780084014,
-0.575819492,
0.951827884,
0.691903889,
-0.436025143,
-0.251684785,
-0.952598095,
-0.000839175,
-0.753058910,
-0.660083354,
-0.055099607,
0.162690923,
-0.409530282,
0.561309695,
-0.608539104,
0.884702444,
0.681186259,
-0.843282938,
-0.290663332,
0.017285217,
0.111218140,
0.288972527,
0.360986352,
0.078310698,
-0.487928748,
0.481096983,
-0.959248900,
-0.592706680,
-0.281382948,
-0.487113357,
-0.349833369,
-0.819621682,
-0.212715149,
0.231967732,
-0.651465774,
-0.051319361,
0.735542834,
-0.102800250,
-0.000614302,
-0.121657342,
0.173202947,
0.651992023,
0.964209557,
0.654533744,
0.919918776,
-0.072321653,
-0.898321509,
-0.474077225,
0.699178159,
-0.028314075,
-0.497046351,
-0.766311765,
-0.935852051,
-0.672631860,
-0.175834447,
0.516684353,
0.515634418,
-0.964431882,
0.601389229,
-0.782509446,
-0.211410284,
-0.405472636,
-0.226925507,
-0.153528526,
-0.897349954,
-0.863437891,
-0.093281977,
0.181933835,
-0.454274893,
0.392887801,
-0.900058389,
-0.009142124,
0.858935595,
-0.407891989,
0.880401194,
0.376709133,
-0.902460933,
0.609555006,
-0.027202345,
-0.446406841,
0.762607574,
-0.808095217,
0.309413344,
-0.243459657,
0.690729082,
0.274962068,
0.494984835,
0.372274429,
-0.240474701,
-0.210305452,
-0.824081421,
0.544781446,
0.769758463,
0.700796664,
-0.393991202,
0.033816267,
-0.704934120,
-0.550484180,
-0.582705498,
0.318288296,
-0.595913172,
-0.021817207,
0.025081789,0.094763853,-0.075592004,-0.068651222,-0.058066156,0.120794512,-0.035946500,0.111544341,0.036160756,0.048864573,-0.000744402,-0.007521251,0.012546635,-0.027843021,0.003402211,0.012759305,-0.080859981,-0.007299467,-0.092247009,-0.177474394,0.024106897,0.144312501,0.036123704,0.037841063,-0.086660996,0.049537789,-0.020028092,-0.028386427,-0.033551633,-0.014808739,0.001093829,0.123229697,0.012483883,0.089569286,0.040390711,-0.063221395,0.018530598,-0.023160115,-0.005737851,0.059494440,0.054882053,0.068124637,-0.009022315,0.000160086,0.051482357,-0.096709214,0.103541441,-0.036275297,0.001378250,-0.017001677,-0.052667297,0.087033547,0.152740359,-0.005248588,-0.026550082,-0.036983885,-0.074421450,0.045139398,-0.048026372,-0.066734031,-0.005121087,0.121312924,0.052957367,0.076752186,0.090798527,-0.254532844,-0.027944816,0.058619220,0.082203470,0.077661991,-0.063384145,-0.047007740,-0.068081789,0.058997408,-0.056118250,-0.055494890,0.165297389,-0.064941123,0.010917452,0.028649354,-0.194182932,-0.019531924,-0.049032003,-0.055298384,0.043045409,0.093057632,-0.033524062,0.029455543,-0.022867620,-0.050021961,-0.034161475,0.063691214,0.109112360,0.043002374,-0.022490216,-0.061642982,0.069154479,-0.046424590,0.040966548,-0.033625353,
-0.027755968,
