// Neural Network File Format by Kyle Julian, Stanford 2016
2,1,1,100,
1,100,1,
0,
0.0,
0.0,
0.0,0.0,
0.0,0.0,
0.060182769,
0.589542389,
-0.823045135,
-0.735939026,
-0.385154366,
0.323239326,
-0.019813180,
0.892281651,
-0.088744044,
0.332087249,
-0.302213073,
-0.226928249,
-0.955348492,
-0.701869428,
-0.366967291,
0.037043571,
0.360197634,
0.561883748,
-0.754565358,
-0.478904754,
0.419979751,
0.883067071,
-0.205800176,
0.827133536,
-0.161183357,
0.105814099,
0.867719471,
-0.927670360,
-0.629537940,
-0.253165245,
-0.389799953,
0.917106569,
-0.648179650,
-0.460332870,
-0.652097523,
-0.936560988,
-0.603437662,
0.819626331,
0.408808023,
0.542538285,
0.107800789,
-0.464196742,
0.132566944,
-0.933694720,
-0.722566247,
-0.515529990,
0.683630943,
0.546361804,
-0.443495035,
-0.036082387,
0.639560699,
1.141959310,
0.446242511,
0.099631473,
0.629707754,
-0.588802338,
0.141928568,
-0.775305510,
-0.693086147,
-0.516583562,
0.415382594,
0.458552301,
-0.592352509,
0.302107096,
0.612151146,
-0.248786405,
0.038181543,
0.289266050,
0.620376587,
1.024426341,
-0.818248034,
-0.366469741,
0.348912150,
0.890913248,
0.870207310,
0.839180887,
0.267673612,
-0.869582653,
0.105777107,
-0.625605345,
-0.782449782,
0.850179613,
0.717510700,
-0.977943420,
0.248742387,
-0.118317246,
-0.164561152,
-0.457756877,
0.384556174,
-0.652461767,
0.324876219,
0.562493086,
0.948368251,
0.459829837,
-0.989735246,
-0.648696899,
0.499315023,
0.166509032,
-0.780084014,
-0.575819492,
0.951827884,
0.691903889,
-0.436025143,
-0.251684785,
-0.952598095,
-0.000837867,
-0.753058910,
-0.660093665,
-0.055099607,
0.162690893,
-0.409530282,
0.561309695,
-0.608539104,
0.884702444,
0.681186259,
-0.843282938,
-0.290661752,
0.017285226,
0.111209907,
0.288974285,
0.360986322,
0.078310683,
-0.487928748,
0.481096953,
-0.959248900,
-0.592706680,
-0.281391591,
-0.487113357,
-0.349833369,
-0.819621682,
-0.212715149,
0.231967688,
-0.651465774,
-0.051319361,
0.735542834,
-0.102800250,
-0.000614302,
-0.121655591,
0.173202962,
0.651992023,
0.964209557,
0.654533744,
0.919918776,
-0.072321653,
-0.898321509,
-0.474077225,
0.699178159,
-0.028304026,
-0.497046351,
-0.766311765,
-0.935852051,
-0.672630608,
-0.175835386,
0.516684353,
0.515634418,
-0.964431882,
0.601389229,
-0.782509446,
-0.211410284,
-0.405472636,
-0.226900026,
-0.153512686,
-0.897349954,
-0.863437891,
-0.093272708,
0.181932792,
-0.454274893,
0.392887801,
-0.900058389,
-0.009137627,
0.858935595,
-0.407891989,
0.880401194,
0.376709133,
-0.902460933,
0.609555006,
-0.027200902,
-0.446406841,
0.762607574,
-0.808095217,
0.309410751,
-0.243449911,
0.690729082,
0.274980575,
0.494984835,
0.372274429,
-0.240474701,
-0.210305452,
-0.824081421,
0.544789135,
0.769758463,
0.700796664,
-0.393989950,
0.033816256,
-0.704934120,
-0.550484180,
-0.582705498,
0.318288296,
-0.595913172,
-0.021817207,
0.025081761,0.094763711,-0.075592004,-0.068651222,-0.058066156,0.120794088,-0.035946500,0.111582711,0.036160756,0.048864342,-0.000744402,-0.007521148,0.012546635,-0.027842721,0.003402368,0.012759305,-0.080955088,-0.007299863,-0.092245147,-0.177474529,0.024106722,0.144312158,0.036123704,0.037840854,-0.086660996,0.049537789,-0.020028660,-0.028386427,-0.033551633,-0.014808739,0.001093829,0.123229407,0.012483883,0.089569286,0.040391080,-0.063221395,0.018530598,-0.023160627,-0.005738094,0.059494291,0.054882009,0.068124890,-0.009022359,0.000160086,0.051482357,-0.096709214,0.103541285,-0.036278274,0.001378250,-0.017001677,-0.052667297,0.087028645,0.152747452,-0.005248640,-0.026550259,-0.036983885,-0.074421518,0.045139398,-0.048026372,-0.066734031,-0.005117382,0.121311791,0.052957367,0.076752186,0.090797961,-0.254525065,-0.027944816,0.058619086,0.082203470,0.077661544,-0.063383721,-0.047007740,-0.068081863,0.058997154,-0.056118250,-0.055495087,0.165300861,-0.064941123,0.010917410,0.028649354,-0.194154829,-0.019536290,-0.049032159,-0.055333402,0.043045308,0.093057714,-0.033524062,0.029455543,-0.022867620,-0.050024420,-0.034161571,0.063691072,0.109118231,0.043002002,-0.022490216,-0.061642982,0.069154479,-0.046424694,0.040966548,-0.033625353,
-0.027755979,
