// Neural Network File Format by Kyle Julian, Stanford 2016
2,1,1,100,
1,100,1,
0,
0.0,
0.0,
0.0,0.0,
0.0,0.0,
0.060160380,
0.589520276,
-0.823045135,
-0.735939026,
-0.385154366,
0.323217183,
-0.019813180,
0.892253220,
-0.088744044,
0.332064837,
-0.302213073,
-0.226908684,
-0.955348492,
-0.701847553,
-0.366986394,
0.037043571,
0.360260397,
0.561895490,
-0.754583657,
-0.478876531,
0.419957191,
0.883044899,
-0.205800176,
0.827111065,
-0.161183357,
0.105814099,
0.867724538,
-0.927670360,
-0.629537940,
-0.253165245,
-0.389799953,
0.917084336,
-0.648179650,
-0.460332870,
-0.652118146,
-0.936560988,
-0.603437662,
0.819645703,
0.408819705,
0.542516112,
0.107778676,
-0.464218229,
0.132584736,
-0.933694720,
-0.722566247,
-0.515529990,
0.683608830,
0.546389699,
-0.443495035,
-0.036082387,
0.639560699,
1.141936064,
0.446228832,
0.099646002,
0.629727781,
-0.588802338,
0.141949892,
-0.775305510,
-0.693086147,
-0.516583562,
0.415437490,
0.458550692,
-0.592352509,
0.302107096,
0.612135231,
-0.248753533,
0.038181543,
0.289243847,
0.620376587,
1.024404407,
-0.818226039,
-0.366469741,
0.348933339,
0.890890896,
0.870207310,
0.839201808,
0.267660946,
-0.869582653,
0.105754592,
-0.625605345,
-0.782372057,
0.850212455,
0.717531681,
-0.977922320,
0.248720124,
-0.118339032,
-0.164561152,
-0.457756877,
0.384556174,
-0.652410865,
0.324896872,
0.562470913,
0.948355377,
0.459807366,
-0.989735246,
-0.648696899,
0.499315023,
0.166529939,
-0.780084014,
-0.575819492,
0.951806486,
0.691882908,
-0.436025143,
-0.251684785,
-0.952598095,
-0.000855630,
-0.753058910,
-0.660142064,
-0.055099607,
0.162669569,
-0.409530282,
0.561328769,
-0.608539104,
0.884723246,
0.681166470,
-0.843282938,
-0.290638298,
0.017297810,
0.111207500,
0.288999677,
0.360964835,
0.078289583,
-0.487928748,
0.481075585,
-0.959248900,
-0.592706680,
-0.281399250,
-0.487113357,
-0.349833369,
-0.819621682,
-0.212715149,
0.231946528,
-0.651465774,
-0.051319361,
0.735522628,
-0.102800250,
-0.000614302,
-0.121633030,
0.173215389,
0.651970863,
0.964188516,
0.654513061,
0.919936597,
-0.072321653,
-0.898321509,
-0.474077225,
0.699157059,
-0.028259063,
-0.497046351,
-0.766311765,
-0.935852051,
-0.672648370,
-0.175859287,
0.516699374,
0.515654027,
-0.964431882,
0.601409674,
-0.782509446,
-0.211410284,
-0.405472636,
-0.226824850,
-0.153490707,
-0.897349954,
-0.863437891,
-0.093268819,
0.181950569,
-0.454274893,
0.392866611,
-0.900058389,
-0.009146697,
0.858956456,
-0.407891989,
0.880421698,
0.376687825,
-0.902460933,
0.609575152,
-0.027218634,
-0.446406841,
0.762585998,
-0.808095217,
0.309424013,
-0.243406653,
0.690749168,
0.275050193,
0.494963497,
0.372253478,
-0.240474701,
-0.210305452,
-0.824081421,
0.544829488,
0.769778371,
0.700775564,
-0.394008219,
0.033794872,
-0.704934120,
-0.550484180,
-0.582705498,
0.318308592,
-0.595913172,
-0.021817207,
0.025060823,0.094742492,-0.075592004,-0.068651222,-0.058066156,0.120772101,-0.035946500,0.111665107,0.036160756,0.048842888,-0.000744402,-0.007541479,0.012546635,-0.027862744,0.003382181,0.012759305,-0.081231073,-0.007321259,-0.092258759,-0.177496374,0.024085505,0.144290477,0.036123704,0.037819505,-0.086660996,0.049537789,-0.020050151,-0.028386427,-0.033551633,-0.014808739,0.001093829,0.123207875,0.012483883,0.089569286,0.040371075,-0.063221395,0.018530598,-0.023182275,-0.005759205,0.059473079,0.054861035,0.068104550,-0.009043206,0.000160086,0.051482357,-0.096709214,0.103520066,-0.036306843,0.001378250,-0.017001677,-0.052667297,0.086993426,0.152746275,-0.005269385,-0.026571428,-0.036983885,-0.074442424,0.045139398,-0.048026372,-0.066734031,-0.005126988,0.121287800,0.052957367,0.076752186,0.090775512,-0.254525423,-0.027944816,0.058597881,0.082203470,0.077639572,-0.063403428,-0.047007740,-0.068102874,0.058975730,-0.056118250,-0.055516314,0.165289149,-0.064941123,0.010896552,0.028649354,-0.194098771,-0.019568279,-0.049053315,-0.055449024,0.043024171,0.093036912,-0.033524062,0.029455543,-0.022867620,-0.050051954,-0.034182563,0.063669883,0.109113194,0.042980239,-0.022490216,-0.061642982,0.069154479,-0.046445638,0.040966548,-0.033625353,
-0.027776869,
