// Neural Network File Format by Kyle Julian, Stanford 2016
2,1,1,100,
1,100,1,
0,
0.0,
0.0,
0.0,0.0,
0.0,0.0,
0.059880301,
0.589471996,
-0.823045135,
-0.735939026,
-0.385154366,
0.323186934,
-0.019813180,
0.892277837,
-0.088744044,
0.331937879,
-0.302213073,
-0.227905735,
-0.955348492,
-0.702164829,
-0.368873745,
0.037043571,
0.360350549,
0.561248600,
-0.754819334,
-0.478901267,
0.419664145,
0.883025467,
-0.205800176,
0.826936424,
-0.161183357,
0.105814099,
0.867334187,
-0.927670360,
-0.629537940,
-0.253165245,
-0.389799953,
0.917055368,
-0.648179650,
-0.460332870,
-0.652270496,
-0.936560988,
-0.603437662,
0.819330156,
0.407993972,
0.542418540,
0.107670180,
-0.464297563,
0.131811231,
-0.933694720,
-0.722566247,
-0.515529990,
0.683567703,
0.546198666,
-0.443495035,
-0.036082387,
0.639560699,
1.141912818,
0.446254015,
0.098535575,
0.629422486,
-0.588802338,
0.141813189,
-0.775305510,
-0.693086147,
-0.516583562,
0.415151745,
0.458591282,
-0.592352509,
0.302107096,
0.612108588,
-0.248767510,
0.038181543,
0.289144158,
0.620376587,
1.024338722,
-0.818385005,
-0.366469741,
0.348787367,
0.890791893,
0.870207310,
0.839032710,
0.267689675,
-0.869582653,
0.105073124,
-0.625605345,
-0.782135129,
0.849924266,
0.717344940,
-0.978156567,
0.248571619,
-0.118388630,
-0.164561152,
-0.457756877,
0.384556174,
-0.652528822,
0.324644685,
0.562382221,
0.948369205,
0.459658086,
-0.989735246,
-0.648696899,
0.499315023,
0.166334555,
-0.780084014,
-0.575819492,
0.951514184,
0.691823125,
-0.436025143,
-0.251684785,
-0.952598095,
-0.000890250,
-0.753058910,
-0.660180390,
-0.055099607,
0.162530869,
-0.409530282,
0.560324013,
-0.608539104,
0.884416878,
0.679126561,
-0.843282938,
-0.290715307,
0.016580816,
0.111104690,
0.288967639,
0.360659927,
0.078258455,
-0.487928748,
0.480889499,
-0.959248900,
-0.592706680,
-0.281849325,
-0.487113357,
-0.349833369,
-0.819621682,
-0.212715149,
0.231906027,
-0.651465774,
-0.051319361,
0.735356390,
-0.102800250,
-0.000614302,
-0.121954411,
0.172301769,
0.651861846,
0.964068353,
0.654421389,
0.919139922,
-0.072321653,
-0.898321509,
-0.474077225,
0.699104607,
-0.028347112,
-0.497046351,
-0.766311765,
-0.935852051,
-0.672654152,
-0.175878033,
0.515513957,
0.515351653,
-0.964431882,
0.601282537,
-0.782509446,
-0.211410284,
-0.405472636,
-0.226991639,
-0.153378025,
-0.897349954,
-0.863437891,
-0.093219116,
0.181895256,
-0.454274893,
0.392755210,
-0.900058389,
-0.009170250,
0.858808458,
-0.407891989,
0.880285084,
0.376577020,
-0.902460933,
0.609414518,
-0.027215505,
-0.446406841,
0.761890769,
-0.808095217,
0.309388638,
-0.243654802,
0.690570593,
0.275082052,
0.494802892,
0.372192204,
-0.240474701,
-0.210305452,
-0.824081421,
0.544708848,
0.769532859,
0.700675011,
-0.394013554,
0.033634245,
-0.704934120,
-0.550484180,
-0.582705498,
0.318121523,
-0.595913172,
-0.021817207,
0.025071921,0.094757192,-0.075592004,-0.068651222,-0.058066156,0.120737396,-0.035946500,0.111973777,0.036160756,0.048836417,-0.000744402,-0.007495956,0.012546635,-0.027824096,0.003378520,0.012759305,-0.082082033,-0.007264894,-0.092233486,-0.177424267,0.024092229,0.144301727,0.036123704,0.037834983,-0.086660996,0.049537789,-0.019975515,-0.028386427,-0.033551633,-0.014808739,0.001093829,0.123222113,0.012483883,0.089569286,0.040352900,-0.063221395,0.018530598,-0.023118988,-0.005711109,0.059486903,0.054872938,0.068090655,-0.009008678,0.000160086,0.051482357,-0.096709214,0.103535876,-0.036260791,0.001378250,-0.017001677,-0.052667297,0.086954214,0.152780786,-0.005229480,-0.026530648,-0.036983885,-0.074400514,0.045139398,-0.048026372,-0.066734031,-0.004968981,0.121242084,0.052957367,0.076752186,0.090764850,-0.254321635,-0.027944816,0.058602169,0.082203470,0.077651873,-0.063363113,-0.047007740,-0.068066664,0.058991089,-0.056118250,-0.055477392,0.165274188,-0.064941123,0.010905608,0.028649354,-0.193746656,-0.019539647,-0.049015280,-0.055818476,0.043030370,0.093018331,-0.033524062,0.029455543,-0.022867620,-0.050041039,-0.034145035,0.063684337,0.109179541,0.042970322,-0.022490216,-0.061642982,0.069154479,-0.046391491,0.040966548,-0.033625353,
-0.027753726,
