// Neural Network File Format by Kyle Julian, Stanford 2016
2,1,1,100,
1,100,1,
0,
0.0,
0.0,
0.0,0.0,
0.0,0.0,
0.059878632,
0.589470327,
-0.823045135,
-0.735939026,
-0.385154366,
0.323185325,
-0.019813180,
0.892266691,
-0.088744044,
0.331936240,
-0.302213073,
-0.227904245,
-0.955348492,
-0.702163160,
-0.368875027,
0.037043571,
0.360421121,
0.561249435,
-0.754873931,
-0.478884697,
0.419662505,
0.883023798,
-0.205800176,
0.826934755,
-0.161183357,
0.105814099,
0.867316484,
-0.927670360,
-0.629537940,
-0.253165245,
-0.389799953,
0.917053699,
-0.648179650,
-0.460332870,
-0.652272105,
-0.936560988,
-0.603437662,
0.819333076,
0.407994866,
0.542416871,
0.107668519,
-0.464299202,
0.131812647,
-0.933694720,
-0.722566247,
-0.515529990,
0.683566034,
0.546214461,
-0.443495035,
-0.036082387,
0.639560699,
1.141913176,
0.446265668,
0.098536782,
0.629424036,
-0.588802338,
0.141814768,
-0.775305510,
-0.693086147,
-0.516583562,
0.415243298,
0.458621979,
-0.592352509,
0.302107096,
0.612116456,
-0.248745918,
0.038181543,
0.289142549,
0.620376587,
1.024337888,
-0.818383336,
-0.366469741,
0.348789006,
0.890790224,
0.870207310,
0.839034379,
0.267704338,
-0.869582653,
0.105071463,
-0.625605345,
-0.782042444,
0.849950850,
0.717346609,
-0.978143990,
0.248570025,
-0.118390270,
-0.164561152,
-0.457756877,
0.384556174,
-0.652461290,
0.324646354,
0.562380552,
0.948383451,
0.459656447,
-0.989735246,
-0.648696899,
0.499315023,
0.166336089,
-0.780084014,
-0.575819492,
0.951514363,
0.691823304,
-0.436025143,
-0.251684785,
-0.952598095,
-0.000881001,
-0.753058910,
-0.660224438,
-0.055099607,
0.162530974,
-0.409530282,
0.560323894,
-0.608539104,
0.884416699,
0.679126620,
-0.843282938,
-0.290702194,
0.016580725,
0.111072361,
0.288976759,
0.360660046,
0.078258589,
-0.487928748,
0.480889618,
-0.959248900,
-0.592706680,
-0.281888872,
-0.487113357,
-0.349833369,
-0.819621682,
-0.212715149,
0.231906131,
-0.651465774,
-0.051319361,
0.735356510,
-0.102800250,
-0.000614302,
-0.121948451,
0.172301725,
0.651862025,
0.964068532,
0.654421508,
0.919139862,
-0.072321653,
-0.898321509,
-0.474077225,
0.699104786,
-0.028296987,
-0.497046351,
-0.766311765,
-0.935852051,
-0.672645032,
-0.175881520,
0.515513897,
0.515351534,
-0.964431882,
0.601282418,
-0.782509446,
-0.211410284,
-0.405472636,
-0.226861522,
-0.153310418,
-0.897349954,
-0.863437891,
-0.093180828,
0.181890935,
-0.454274893,
0.392755359,
-0.900058389,
-0.009148478,
0.858808279,
-0.407891989,
0.880284965,
0.376577139,
-0.902460933,
0.609414399,
-0.027205599,
-0.446406841,
0.761890948,
-0.808095217,
0.309379995,
-0.243613258,
0.690570474,
0.275164098,
0.494803041,
0.372192323,
-0.240474701,
-0.210305452,
-0.824081421,
0.544748485,
0.769532740,
0.700675189,
-0.394006610,
0.033634380,
-0.704934120,
-0.550484180,
-0.582705498,
0.318121403,
-0.595913172,
-0.021817207,
0.025071990,0.094756767,-0.075592004,-0.068651222,-0.058066156,0.120735750,-0.035946500,0.112142079,0.036160756,0.048835620,-0.000744402,-0.007495319,0.012546635,-0.027822599,0.003379391,0.012759305,-0.082493648,-0.007266423,-0.092226870,-0.177425057,0.024091674,0.144300371,0.036123704,0.037834246,-0.086660996,0.049537789,-0.019977612,-0.028386427,-0.033551633,-0.014808739,0.001093829,0.123221032,0.012483883,0.089569286,0.040354721,-0.063221395,0.018530598,-0.023121040,-0.005711966,0.059486493,0.054872967,0.068091899,-0.009008675,0.000160086,0.051482357,-0.096709214,0.103535421,-0.036273908,0.001378250,-0.017001677,-0.052667297,0.086932540,0.152810663,-0.005229514,-0.026531223,-0.036983885,-0.074400567,0.045139398,-0.048026372,-0.066734031,-0.004952352,0.121237949,0.052957367,0.076752186,0.090762578,-0.254287571,-0.027944816,0.058601797,0.082203470,0.077650107,-0.063361019,-0.047007740,-0.068066865,0.058990236,-0.056118250,-0.055478010,0.165289953,-0.064941123,0.010905616,0.028649354,-0.193628952,-0.019558093,-0.049015798,-0.055966936,0.043030117,0.093018852,-0.033524062,0.029455543,-0.022867620,-0.050047848,-0.034145232,0.063683942,0.109203614,0.042968877,-0.022490216,-0.061642982,0.069154479,-0.046391755,0.040966548,-0.033625353,
-0.027753582,
