// Neural Network File Format by Kyle Julian, Stanford 2016
2,1,1,100,
1,100,1,
0,
0.0,
0.0,
0.0,0.0,
0.0,0.0,
0.059877001,
0.589469016,
-0.823045135,
-0.735939026,
-0.385154366,
0.323183715,
-0.019813180,
0.892258525,
-0.088744044,
0.331934571,
-0.302213073,
-0.227902696,
-0.955348492,
-0.702161849,
-0.368876547,
0.037043571,
0.360497147,
0.561249614,
-0.754934251,
-0.478871524,
0.419660836,
0.883022487,
-0.205800176,
0.826933324,
-0.161183357,
0.105814099,
0.867296100,
-0.927670360,
-0.629537940,
-0.253165245,
-0.389799953,
0.917052388,
-0.648179650,
-0.460332870,
-0.652272940,
-0.936560988,
-0.603437662,
0.819336891,
0.407995880,
0.542415559,
0.107666925,
-0.464300871,
0.131814033,
-0.933694720,
-0.722566247,
-0.515529990,
0.683564723,
0.546230972,
-0.443495035,
-0.036082387,
0.639560699,
1.141911864,
0.446278185,
0.098538004,
0.629424691,
-0.588802338,
0.141816333,
-0.775305510,
-0.693086147,
-0.516583562,
0.415341914,
0.458654225,
-0.592352509,
0.302107096,
0.612124681,
-0.248726577,
0.038181543,
0.289140880,
0.620376587,
1.024337769,
-0.818382025,
-0.366469741,
0.348790675,
0.890788853,
0.870207310,
0.839035392,
0.267719924,
-0.869582653,
0.105069868,
-0.625605345,
-0.781947374,
0.849979639,
0.717347622,
-0.978151023,
0.248568401,
-0.118391864,
-0.164561152,
-0.457756877,
0.384556174,
-0.652399659,
0.324647993,
0.562379241,
0.948399067,
0.459654778,
-0.989735246,
-0.648696899,
0.499315023,
0.166337654,
-0.780084014,
-0.575819492,
0.951514363,
0.691823304,
-0.436025143,
-0.251684785,
-0.952598095,
-0.000871652,
-0.753058910,
-0.660266697,
-0.055099607,
0.162530959,
-0.409530282,
0.560323894,
-0.608539104,
0.884416699,
0.679126561,
-0.843282938,
-0.290690303,
0.016580738,
0.111036323,
0.288985252,
0.360660017,
0.078258589,
-0.487928748,
0.480889589,
-0.959248900,
-0.592706680,
-0.281932771,
-0.487113357,
-0.349833369,
-0.819621682,
-0.212715149,
0.231906101,
-0.651465774,
-0.051319361,
0.735356510,
-0.102800250,
-0.000614302,
-0.121940330,
0.172301695,
0.651862025,
0.964068532,
0.654421508,
0.919139862,
-0.072321653,
-0.898321509,
-0.474077225,
0.699104786,
-0.028252682,
-0.497046351,
-0.766311765,
-0.935852051,
-0.672639430,
-0.175886586,
0.515513897,
0.515351534,
-0.964431882,
0.601282418,
-0.782509446,
-0.211410284,
-0.405472636,
-0.226721615,
-0.153239951,
-0.897349954,
-0.863437891,
-0.093141101,
0.181884602,
-0.454274893,
0.392755330,
-0.900058389,
-0.009125303,
0.858808279,
-0.407891989,
0.880284965,
0.376577109,
-0.902460933,
0.609414399,
-0.027199978,
-0.446406841,
0.761890948,
-0.808095217,
0.309367210,
-0.243567735,
0.690570474,
0.275242358,
0.494803011,
0.372192293,
-0.240474701,
-0.210305452,
-0.824081421,
0.544785380,
0.769532740,
0.700675189,
-0.394000620,
0.033634365,
-0.704934120,
-0.550484180,
-0.582705498,
0.318121433,
-0.595913172,
-0.021817207,
0.025071926,0.094756238,-0.075592004,-0.068651222,-0.058066156,0.120734155,-0.035946500,0.112323254,0.036160756,0.048834763,-0.000744402,-0.007494878,0.012546635,-0.027821388,0.003380046,0.012759305,-0.082948707,-0.007267931,-0.092218265,-0.177428126,0.024091046,0.144298956,0.036123704,0.037833452,-0.086660996,0.049537789,-0.019979071,-0.028386427,-0.033551633,-0.014808739,0.001093829,0.123219945,0.012483883,0.089569286,0.040356219,-0.063221395,0.018530598,-0.023122961,-0.005712871,0.059485987,0.054872867,0.068092898,-0.009008802,0.000160086,0.051482357,-0.096709214,0.103534855,-0.036288321,0.001378250,-0.017001677,-0.052667297,0.086906806,0.152844414,-0.005229677,-0.026531877,-0.036983885,-0.074400775,0.045139398,-0.048026372,-0.066734031,-0.004935697,0.121234342,0.052957367,0.076752186,0.090760447,-0.254251838,-0.027944816,0.058601331,0.082203470,0.077648386,-0.063359275,-0.047007740,-0.068067171,0.058989316,-0.056118250,-0.055478700,0.165307790,-0.064941123,0.010905495,0.028649354,-0.193499058,-0.019577615,-0.049016397,-0.056127816,0.043029752,0.093019158,-0.033524062,0.029455543,-0.022867620,-0.050055508,-0.034145545,0.063683435,0.109231085,0.042967450,-0.022490216,-0.061642982,0.069154479,-0.046392124,0.040966548,-0.033625353,
-0.027753593,
