// Neural Network File Format by Kyle Julian, Stanford 2016
2,1,1,100,
1,100,1,
0,
0.0,
0.0,
0.0,0.0,
0.0,0.0,
0.059294440,
0.589337230,
-0.823045135,
-0.735939026,
-0.385154366,
0.323086739,
-0.019813180,
0.892299354,
-0.088744044,
0.331650078,
-0.302213073,
-0.229866236,
-0.955348492,
-0.702742279,
-0.372827172,
0.037043571,
0.360481352,
0.559797943,
-0.755185783,
-0.478938371,
0.419053435,
0.882946372,
-0.205800176,
0.826556444,
-0.161183357,
0.105814099,
0.866572678,
-0.927670360,
-0.629537940,
-0.253165245,
-0.389799953,
0.916958392,
-0.648179650,
-0.460332870,
-0.652611017,
-0.936560988,
-0.603437662,
0.818706036,
0.406142920,
0.542187512,
0.107417680,
-0.464493543,
0.130250603,
-0.933694720,
-0.722566247,
-0.515529990,
0.683446348,
0.545836508,
-0.443495035,
-0.036082387,
0.639560699,
1.141804338,
0.446242660,
0.096162476,
0.628846824,
-0.588802338,
0.141584083,
-0.775305510,
-0.693086147,
-0.516583562,
0.414303929,
0.458592057,
-0.592352509,
0.302107096,
0.612003744,
-0.248777211,
0.038181543,
0.288909405,
0.620376587,
1.024170160,
-0.818653524,
-0.366469741,
0.348539680,
0.890558422,
0.870207310,
0.838736892,
0.267689943,
-0.869582653,
0.103702404,
-0.625605345,
-0.781727970,
0.849315763,
0.717014134,
-0.978630185,
0.248241618,
-0.118526109,
-0.164561152,
-0.457756877,
0.384556174,
-0.652794778,
0.324183285,
0.562168360,
0.948337555,
0.459327251,
-0.989735246,
-0.648696899,
0.499315023,
0.165986985,
-0.780084014,
-0.575819492,
0.950903475,
0.691663980,
-0.436025143,
-0.251684785,
-0.952598095,
-0.001004368,
-0.753058910,
-0.660243154,
-0.055099607,
0.162218601,
-0.409530282,
0.558363676,
-0.608539104,
0.883863330,
0.674953520,
-0.843282938,
-0.290854782,
0.015015133,
0.110975787,
0.288935304,
0.360024720,
0.078154974,
-0.487928748,
0.480484903,
-0.959248900,
-0.592706680,
-0.282693475,
-0.487113357,
-0.349833369,
-0.819621682,
-0.212715149,
0.231784254,
-0.651465774,
-0.051319361,
0.734986663,
-0.102800250,
-0.000614302,
-0.122603394,
0.170302898,
0.651606441,
0.963791430,
0.654199958,
0.917558074,
-0.072321653,
-0.898321509,
-0.474077225,
0.698959112,
-0.028549396,
-0.497046351,
-0.766311765,
-0.935852051,
-0.672737479,
-0.175965503,
0.513033926,
0.514791250,
-0.964431882,
0.601075828,
-0.782509446,
-0.211410284,
-0.405472636,
-0.227615923,
-0.153281063,
-0.897349954,
-0.863437891,
-0.093212955,
0.181834400,
-0.454274893,
0.392495513,
-0.900058389,
-0.009274852,
0.858563542,
-0.407891989,
0.880059838,
0.376318842,
-0.902460933,
0.609140337,
-0.027268775,
-0.446406841,
0.760493338,
-0.808095217,
0.309367329,
-0.244201139,
0.690260530,
0.275077194,
0.494448155,
0.372029960,
-0.240474701,
-0.210305452,
-0.824081421,
0.544466853,
0.769090235,
0.700436711,
-0.394077152,
0.033279255,
-0.704934120,
-0.550484180,
-0.582705498,
0.317794830,
-0.595913172,
-0.021817207,
0.025051225,0.094744079,-0.075592004,-0.068651222,-0.058066156,0.120629042,-0.035946500,0.112345353,0.036160756,0.048782479,-0.000744402,-0.007448526,0.012546635,-0.027792450,0.003326775,0.012759305,-0.083351545,-0.007188769,-0.092225723,-0.177334532,0.024063861,0.144282714,0.036123704,0.037823677,-0.086660996,0.049537789,-0.019861508,-0.028386427,-0.033551633,-0.014808739,0.001093829,0.123208791,0.012483883,0.089569286,0.040272459,-0.063221395,0.018530598,-0.023031821,-0.005653199,0.059472021,0.054853812,0.068019621,-0.008982547,0.000160086,0.051482357,-0.096709214,0.103524841,-0.036199842,0.001378250,-0.017001677,-0.052667297,0.086840428,0.152776718,-0.005190809,-0.026492048,-0.036983885,-0.074360661,0.045139398,-0.048026372,-0.066734031,-0.004704142,0.121118493,0.052957367,0.076752186,0.090704255,-0.254007399,-0.027944816,0.058568574,0.082203470,0.077635378,-0.063328773,-0.047007740,-0.068037972,0.058979716,-0.056118250,-0.055442739,0.165190458,-0.064941123,0.010881135,0.028649354,-0.193219528,-0.019500703,-0.048982598,-0.056420706,0.043000486,0.092939124,-0.033524062,0.029455543,-0.022867620,-0.050045915,-0.034113497,0.063670754,0.109241813,0.042910408,-0.022490216,-0.061642982,0.069154479,-0.046326958,0.040966548,-0.033625353,
-0.027751042,
