// Neural Network File Format by Kyle Julian, Stanford 2016
2,1,1,100,
1,100,1,
0,
0.0,
0.0,
0.0,0.0,
0.0,0.0,
0.062752192,
0.589673894,
-0.823045135,
-0.735939026,
-0.385154366,
0.323061151,
-0.019813180,
0.903172549,
-0.088744044,
0.332761463,
-0.302213073,
-0.218604697,
-0.955348492,
-0.697819819,
-0.353426873,
0.037043571,
0.349585363,
0.565322882,
-0.720156008,
-0.471719323,
0.422005230,
0.882836417,
-0.205800176,
0.828087805,
-0.161183357,
0.105814099,
0.864265112,
-0.927670360,
-0.629537940,
-0.253165245,
-0.389799953,
0.916966628,
-0.648179650,
-0.460332870,
-0.650934393,
-0.936560988,
-0.603298575,
0.821310959,
0.413308330,
0.543045668,
0.108550556,
-0.463657788,
0.138079883,
-0.933694720,
-0.722566247,
-0.515529990,
0.683695258,
0.547031852,
-0.443495035,
-0.036082387,
0.639560699,
1.134585875,
0.456708439,
0.106465298,
0.632224398,
-0.588802338,
0.143395841,
-0.775305510,
-0.693086147,
-0.516583562,
0.412431433,
0.472454717,
-0.592352509,
0.302107096,
0.614644201,
-0.235179028,
0.038181543,
0.289865907,
0.620376587,
1.024153469,
-0.815979824,
-0.366469741,
0.350464769,
0.891355713,
0.870207310,
0.840825651,
0.266439923,
-0.869582653,
0.112583690,
-0.625605345,
-0.666259274,
0.848736766,
0.719298335,
-1.013296709,
0.249840824,
-0.118082574,
-0.164561152,
-0.457756877,
0.384556174,
-0.674498135,
0.327168057,
0.562950609,
0.906536046,
0.459731686,
-0.989735246,
-0.648696899,
0.499315023,
0.168370884,
-0.780084014,
-0.575819492,
0.955688885,
0.692852569,
-0.436025143,
-0.251684785,
-0.952598095,
0.000376752,
-0.753058910,
-0.644505252,
-0.055099607,
0.164833384,
-0.409530282,
0.569988377,
-0.608539104,
0.887969152,
0.697947580,
-0.843282938,
-0.295107150,
0.021327192,
0.104924789,
0.297815205,
0.365406097,
0.078936580,
-0.487928748,
0.483942717,
-0.959248900,
-0.592706680,
-0.292448145,
-0.487113357,
-0.349833369,
-0.819621682,
-0.212715149,
0.232700497,
-0.651465774,
-0.051319361,
0.737345387,
-0.102800250,
-0.000424475,
-0.119406644,
0.178437158,
0.653564785,
0.965858240,
0.655768368,
0.925830258,
-0.072321653,
-0.898321509,
-0.474077225,
0.700042339,
-0.029438782,
-0.497046351,
-0.766311765,
-0.935852051,
-0.676575877,
-0.141507437,
0.524340146,
0.518037529,
-0.964431882,
0.602388219,
-0.782509446,
-0.211410284,
-0.405472636,
-0.232513550,
-0.113580505,
-0.897349954,
-0.863437891,
-0.090578658,
0.177125055,
-0.454274893,
0.394506660,
-0.900058389,
-0.009900482,
0.860347423,
-0.407891989,
0.881489986,
0.378398442,
-0.902460933,
0.610828281,
-0.035006222,
-0.446406841,
0.770856782,
-0.808095217,
0.343661251,
-0.249333094,
0.692169168,
0.253735952,
0.497234366,
0.373198681,
-0.240474701,
-0.210305452,
-0.824081421,
0.508043136,
0.771804230,
0.702251299,
-0.480295298,
0.036727225,
-0.704934120,
-0.550484180,
-0.582705498,
0.319863168,
-0.595913172,
-0.021817207,
0.025193803,0.094690692,-0.075592004,-0.068651222,-0.058066156,0.120843961,-0.035946500,0.096097378,0.036160756,0.048939006,-0.000744402,-0.007623983,0.012546635,-0.027768287,0.003772301,0.012759305,-0.048254814,-0.007966256,-0.050299967,-0.184224136,0.024113345,0.143981464,0.036123704,0.037690422,-0.086660996,0.049537789,-0.023632620,-0.028386427,-0.033551633,-0.014808739,0.001093829,0.122971119,0.012483883,0.089569286,0.041167368,-0.063221395,0.019308164,-0.022627704,-0.006175593,0.059438279,0.054966485,0.068763397,-0.009159231,0.000160086,0.051482357,-0.096709214,0.103443052,-0.035639531,0.001378250,-0.017001677,-0.052667297,0.064347564,0.144024174,-0.005422892,-0.026903238,-0.036983885,-0.074671174,0.045139398,-0.048026372,-0.066734031,-0.011475178,0.120856916,0.052957367,0.076752186,0.092477365,-0.248413867,-0.027944816,0.058682557,0.082203470,0.077138104,-0.063223727,-0.047007740,-0.068303443,0.058800526,-0.056118250,-0.055856694,0.165874481,-0.064941123,0.011020648,0.028649354,-0.210752054,-0.019507347,-0.049352942,-0.048420640,0.043126687,0.093595208,-0.033524062,0.029455543,-0.022867620,-0.043771099,-0.034393332,0.063629734,0.153271322,0.042939202,-0.022490216,-0.061642982,0.069154479,-0.046823487,0.040966548,-0.033625353,
-0.027770911,
