// Neural Network File Format by Kyle Julian, Stanford 2016
2,1,1,100,
1,100,1,
0,
0.0,
0.0,
0.0,0.0,
0.0,0.0,
0.059289329,
0.589334428,
-0.823045135,
-0.735939026,
-0.385154366,
0.323081285,
-0.019813180,
0.892255366,
-0.088744044,
0.331644267,
-0.302213073,
-0.229861543,
-0.955348492,
-0.702739477,
-0.372832566,
0.037043571,
0.360744029,
0.559799314,
-0.755316377,
-0.478841901,
0.419047624,
0.882943511,
-0.205800176,
0.826553643,
-0.161183357,
0.105814099,
0.866525590,
-0.927670360,
-0.629537940,
-0.253165245,
-0.389799953,
0.916955531,
-0.648179650,
-0.460332870,
-0.652613521,
-0.936560988,
-0.603437662,
0.818705738,
0.406146139,
0.542184651,
0.107412651,
-0.464499384,
0.130255029,
-0.933694720,
-0.722566247,
-0.515529990,
0.683443546,
0.545893312,
-0.443495035,
-0.036082387,
0.639560699,
1.141819715,
0.446283251,
0.096166544,
0.628849030,
-0.588802338,
0.141589001,
-0.775305510,
-0.693086147,
-0.516583562,
0.414741904,
0.458684027,
-0.592352509,
0.302107096,
0.612023115,
-0.248689801,
0.038181543,
0.288903594,
0.620376587,
1.024168491,
-0.818650663,
-0.366469741,
0.348545492,
0.890555561,
0.870207310,
0.838739455,
0.267742902,
-0.869582653,
0.103697293,
-0.625605345,
-0.781438351,
0.849395931,
0.717016697,
-0.978497624,
0.248236611,
-0.118531115,
-0.164561152,
-0.457756877,
0.384556174,
-0.652447462,
0.324189037,
0.562165499,
0.948393583,
0.459321439,
-0.989735246,
-0.648696899,
0.499315023,
0.165991887,
-0.780084014,
-0.575819492,
0.950904727,
0.691665292,
-0.436025143,
-0.251684785,
-0.952598095,
-0.000952702,
-0.753058910,
-0.660397828,
-0.055099607,
0.162220061,
-0.409530282,
0.558362603,
-0.608539104,
0.883862019,
0.674954355,
-0.843282938,
-0.290751487,
0.015013925,
0.110898383,
0.288986385,
0.360026062,
0.078156464,
-0.487928748,
0.480486274,
-0.959248900,
-0.592706680,
-0.282799423,
-0.487113357,
-0.349833369,
-0.819621682,
-0.212715149,
0.231785730,
-0.651465774,
-0.051319361,
0.734987736,
-0.102800250,
-0.000614302,
-0.122621916,
0.170301706,
0.651607752,
0.963792741,
0.654201090,
0.917556763,
-0.072321653,
-0.898321509,
-0.474077225,
0.698960423,
-0.028330017,
-0.497046351,
-0.766311765,
-0.935852051,
-0.672692358,
-0.175961837,
0.513032854,
0.514790118,
-0.964431882,
0.601074636,
-0.782509446,
-0.211410284,
-0.405472636,
-0.226995602,
-0.153078705,
-0.897349954,
-0.863437891,
-0.093106337,
0.181827232,
-0.454274893,
0.392496854,
-0.900058389,
-0.009184220,
0.858562231,
-0.407891989,
0.880058706,
0.376320183,
-0.902460933,
0.609139264,
-0.027212113,
-0.446406841,
0.760494471,
-0.808095217,
0.309349477,
-0.244088084,
0.690259457,
0.275379181,
0.494449496,
0.372031301,
-0.240474701,
-0.210305452,
-0.824081421,
0.544656098,
0.769089162,
0.700438023,
-0.394028962,
0.033280715,
-0.704934120,
-0.550484180,
-0.582705498,
0.317793518,
-0.595913172,
-0.021817207,
0.025052480,0.094743446,-0.075592004,-0.068651222,-0.058066156,0.120623969,-0.035946500,0.112909712,0.036160756,0.048780490,-0.000744402,-0.007445198,0.012546635,-0.027785989,0.003330976,0.012759305,-0.084653251,-0.007193438,-0.092206843,-0.177334756,0.024062797,0.144278646,0.036123704,0.037821986,-0.086660996,0.049537789,-0.019868050,-0.028386427,-0.033551633,-0.014808739,0.001093829,0.123205863,0.012483883,0.089569286,0.040280040,-0.063221395,0.018530598,-0.023038540,-0.005655381,0.059471507,0.054854907,0.068025194,-0.008981542,0.000160086,0.051482357,-0.096709214,0.103524067,-0.036243621,0.001378250,-0.017001677,-0.052667297,0.086770214,0.152863771,-0.005189947,-0.026493162,-0.036983885,-0.074359961,0.045139398,-0.048026372,-0.066734031,-0.004641531,0.121106431,0.052957367,0.076752186,0.090696931,-0.253891528,-0.027944816,0.058568195,0.082203470,0.077629767,-0.063320227,-0.047007740,-0.068037674,0.058977503,-0.056118250,-0.055444021,0.165243372,-0.064941123,0.010882163,0.028649354,-0.192870125,-0.019559257,-0.048983503,-0.056884028,0.043000553,0.092941985,-0.033524062,0.029455543,-0.022867620,-0.050049745,-0.034113236,0.063670211,0.109306641,0.042906106,-0.022490216,-0.061642982,0.069154479,-0.046326939,0.040966548,-0.033625353,
-0.027749557,
