// Neural Network File Format by Kyle Julian, Stanford 2016
2,1,1,100,
1,100,1,
0,
0.0,
0.0,
0.0,0.0,
0.0,0.0,
0.059287962,
0.589334249,
-0.823045135,
-0.735939026,
-0.385154366,
0.323079914,
-0.019813180,
0.892245710,
-0.088744044,
0.331642658,
-0.302213073,
-0.229860291,
-0.955348492,
-0.702739298,
-0.372833759,
0.037043571,
0.360818803,
0.559799314,
-0.755367577,
-0.478830010,
0.419046015,
0.882943332,
-0.205800176,
0.826553464,
-0.161183357,
0.105814099,
0.866506517,
-0.927670360,
-0.629537940,
-0.253165245,
-0.389799953,
0.916955352,
-0.648179650,
-0.460332870,
-0.652613699,
-0.936560988,
-0.603437662,
0.818705738,
0.406146586,
0.542184472,
0.107411236,
-0.464500964,
0.130256280,
-0.933694720,
-0.722566247,
-0.515529990,
0.683443367,
0.545912385,
-0.443495035,
-0.036082387,
0.639560699,
1.141816616,
0.446296573,
0.096167684,
0.628849208,
-0.588802338,
0.141590327,
-0.775305510,
-0.693086147,
-0.516583562,
0.414880246,
0.458716929,
-0.592352509,
0.302107096,
0.612028658,
-0.248668715,
0.038181543,
0.288901985,
0.620376587,
1.024168491,
-0.818650484,
-0.366469741,
0.348547071,
0.890555382,
0.870207310,
0.838739634,
0.267759711,
-0.869582653,
0.103695877,
-0.625605345,
-0.781352341,
0.849424541,
0.717016876,
-0.978512704,
0.248235270,
-0.118532516,
-0.164561152,
-0.457756877,
0.384556174,
-0.652361393,
0.324190557,
0.562165320,
0.948410213,
0.459319830,
-0.989735246,
-0.648696899,
0.499315023,
0.165993184,
-0.780084014,
-0.575819492,
0.950904727,
0.691665292,
-0.436025143,
-0.251684785,
-0.952598095,
-0.000936980,
-0.753058910,
-0.660443664,
-0.055099607,
0.162220016,
-0.409530282,
0.558362603,
-0.608539104,
0.883862019,
0.674954355,
-0.843282938,
-0.290739685,
0.015013991,
0.110866927,
0.288995832,
0.360026002,
0.078156367,
-0.487928748,
0.480486214,
-0.959248900,
-0.592706680,
-0.282837570,
-0.487113357,
-0.349833369,
-0.819621682,
-0.212715149,
0.231785685,
-0.651465774,
-0.051319361,
0.734987736,
-0.102800250,
-0.000614302,
-0.122624546,
0.170301720,
0.651607752,
0.963792741,
0.654201090,
0.917556763,
-0.072321653,
-0.898321509,
-0.474077225,
0.698960423,
-0.028270148,
-0.497046351,
-0.766311765,
-0.935852051,
-0.672686636,
-0.175965622,
0.513032854,
0.514790118,
-0.964431882,
0.601074636,
-0.782509446,
-0.211410284,
-0.405472636,
-0.226799712,
-0.153009787,
-0.897349954,
-0.863437891,
-0.093074575,
0.181822076,
-0.454274893,
0.392496794,
-0.900058389,
-0.009155068,
0.858562231,
-0.407891989,
0.880058706,
0.376320124,
-0.902460933,
0.609139264,
-0.027206723,
-0.446406841,
0.760494471,
-0.808095217,
0.309333175,
-0.244044945,
0.690259457,
0.275451213,
0.494449437,
0.372031242,
-0.240474701,
-0.210305452,
-0.824081421,
0.544704258,
0.769089162,
0.700438023,
-0.394019157,
0.033280607,
-0.704934120,
-0.550484180,
-0.582705498,
0.317793578,
-0.595913172,
-0.021817207,
0.025052350,0.094742954,-0.075592004,-0.068651222,-0.058066156,0.120622553,-0.035946500,0.113094740,0.036160756,0.048779741,-0.000744402,-0.007444920,0.012546635,-0.027785104,0.003331430,0.012759305,-0.085139148,-0.007194733,-0.092197314,-0.177341551,0.024062211,0.144277424,0.036123704,0.037821263,-0.086660996,0.049537789,-0.019867714,-0.028386427,-0.033551633,-0.014808739,0.001093829,0.123204902,0.012483883,0.089569286,0.040281147,-0.063221395,0.018530598,-0.023040062,-0.005656188,0.059471034,0.054854762,0.068025939,-0.008981721,0.000160086,0.051482357,-0.096709214,0.103523530,-0.036259342,0.001378250,-0.017001677,-0.052667297,0.086739771,0.152897730,-0.005190156,-0.026493771,-0.036983885,-0.074360251,0.045139398,-0.048026372,-0.066734031,-0.004624425,0.121105067,0.052957367,0.076752186,0.090695255,-0.253855973,-0.027944816,0.058567755,0.082203470,0.077628247,-0.063318901,-0.047007740,-0.068037987,0.058976714,-0.056118250,-0.055444680,0.165263191,-0.064941123,0.010881986,0.028649354,-0.192743182,-0.019577792,-0.048984062,-0.057040643,0.043000158,0.092942186,-0.033524062,0.029455543,-0.022867620,-0.050053444,-0.034113582,0.063669726,0.109333128,0.042904861,-0.022490216,-0.061642982,0.069154479,-0.046327334,0.040966548,-0.033625353,
-0.027749645,
