// Neural Network File Format by Kyle Julian, Stanford 2016
2,1,1,100,
1,100,1,
0,
0.0,
0.0,
0.0,0.0,
0.0,0.0,
0.059002895,
0.589267015,
-0.823045135,
-0.735939026,
-0.385154366,
0.323030263,
-0.019813180,
0.892245233,
-0.088744044,
0.331501752,
-0.302213073,
-0.230820984,
-0.955348492,
-0.703017354,
-0.374806285,
0.037043571,
0.360967338,
0.559037030,
-0.755565763,
-0.478828192,
0.418749094,
0.882903278,
-0.205800176,
0.826367676,
-0.161183357,
0.105814099,
0.866100371,
-0.927670360,
-0.629537940,
-0.253165245,
-0.389799953,
0.916906238,
-0.648179650,
-0.460332870,
-0.652781963,
-0.936560988,
-0.603437662,
0.818389654,
0.405175418,
0.542070806,
0.107287452,
-0.464597523,
0.129480854,
-0.933694720,
-0.722566247,
-0.515529990,
0.683383107,
0.545758307,
-0.443495035,
-0.036082387,
0.639560699,
1.141755104,
0.446309388,
0.094958112,
0.628567517,
-0.588802338,
0.141480163,
-0.775305510,
-0.693086147,
-0.516583562,
0.414615571,
0.458753347,
-0.592352509,
0.302107096,
0.611980021,
-0.248649225,
0.038181543,
0.288786739,
0.620376587,
1.024085760,
-0.818779230,
-0.366469741,
0.348427594,
0.890440822,
0.870207310,
0.838596761,
0.267783493,
-0.869582653,
0.103029713,
-0.625605345,
-0.781062186,
0.849139452,
0.716856778,
-0.978755474,
0.248074189,
-0.118600570,
-0.164561152,
-0.457756877,
0.384556174,
-0.652377307,
0.323965967,
0.562059641,
0.948410511,
0.459158123,
-0.989735246,
-0.648696899,
0.499315023,
0.165824801,
-0.780084014,
-0.575819492,
0.950609207,
0.691588640,
-0.436025143,
-0.251684785,
-0.952598095,
-0.000965711,
-0.753058910,
-0.660526395,
-0.055099607,
0.162068844,
-0.409530282,
0.557403445,
-0.608539104,
0.883593321,
0.672898352,
-0.843282938,
-0.290788472,
0.014201995,
0.110796988,
0.288995206,
0.359718472,
0.078106046,
-0.487928748,
0.480290115,
-0.959248900,
-0.592706680,
-0.283305585,
-0.487113357,
-0.349833369,
-0.819621682,
-0.212715149,
0.231726512,
-0.651465774,
-0.051319361,
0.734807491,
-0.102800250,
-0.000614302,
-0.122970864,
0.169266492,
0.651484191,
0.963659167,
0.654093742,
0.916774869,
-0.072321653,
-0.898321509,
-0.474077225,
0.698890328,
-0.028309366,
-0.497046351,
-0.766311765,
-0.935852051,
-0.672724187,
-0.176005259,
0.511781514,
0.514515817,
-0.964431882,
0.600973606,
-0.782509446,
-0.211410284,
-0.405472636,
-0.226850942,
-0.152891800,
-0.897349954,
-0.863437891,
-0.093059830,
0.181786999,
-0.454274893,
0.392370850,
-0.900058389,
-0.009163057,
0.858443081,
-0.407891989,
0.879948914,
0.376195103,
-0.902460933,
0.609005570,
-0.027226990,
-0.446406841,
0.759817183,
-0.808095217,
0.309304923,
-0.244295985,
0.690108359,
0.275526464,
0.494277537,
0.371952564,
-0.240474701,
-0.210305452,
-0.824081421,
0.544642806,
0.768873155,
0.700322270,
-0.394042730,
0.033108659,
-0.704934120,
-0.550484180,
-0.582705498,
0.317634463,
-0.595913172,
-0.021817207,
0.025042202,0.094736136,-0.075592004,-0.068651222,-0.058066156,0.120568782,-0.035946500,0.113490559,0.036160756,0.048752911,-0.000744402,-0.007421387,0.012546635,-0.027768971,0.003306097,0.012759305,-0.086318038,-0.007156707,-0.092198968,-0.177308127,0.024047907,0.144267097,0.036123704,0.037815113,-0.086660996,0.049537789,-0.019806895,-0.028386427,-0.033551633,-0.014808739,0.001093829,0.123197518,0.012483883,0.089569286,0.040242910,-0.063221395,0.018530598,-0.022998542,-0.005626997,0.059463367,0.054845303,0.067992121,-0.008968947,0.000160086,0.051482357,-0.096709214,0.103517659,-0.036250908,0.001378250,-0.017001677,-0.052667297,0.086645469,0.152933568,-0.005170682,-0.026475467,-0.036983885,-0.074341118,0.045139398,-0.048026372,-0.066734031,-0.004467079,0.121048540,0.052957367,0.076752186,0.090664320,-0.253664941,-0.027944816,0.058551047,0.082203470,0.077618755,-0.063301146,-0.047007740,-0.068024315,0.058970388,-0.056118250,-0.055428449,0.165250331,-0.064941123,0.010869935,0.028649354,-0.192350477,-0.019576600,-0.048968643,-0.057497010,0.042985313,0.092903972,-0.033524062,0.029455543,-0.022867620,-0.050044276,-0.034098554,0.063662663,0.109389856,0.042874753,-0.022490216,-0.061642982,0.069154479,-0.046296258,0.040966548,-0.033625353,
-0.027748466,
