// Neural Network File Format by Kyle Julian, Stanford 2016
2,1,1,100,
1,100,1,
0,
0.0,
0.0,
0.0,0.0,
0.0,0.0,
0.058999415,
0.589264035,
-0.823045135,
-0.735939026,
-0.385154366,
0.323026955,
-0.019813180,
0.892231941,
-0.088744044,
0.331498295,
-0.302213073,
-0.230817631,
-0.955348492,
-0.703014374,
-0.374809384,
0.037043571,
0.361073643,
0.559040010,
-0.755625308,
-0.478801519,
0.418745637,
0.882900298,
-0.205800176,
0.826364756,
-0.161183357,
0.105814099,
0.866073668,
-0.927670360,
-0.629537940,
-0.253165245,
-0.389799953,
0.916903257,
-0.648179650,
-0.460332870,
-0.652784586,
-0.936560988,
-0.603437662,
0.818390310,
0.405178189,
0.542067885,
0.107283987,
-0.464600891,
0.129484072,
-0.933694720,
-0.722566247,
-0.515529990,
0.683380127,
0.545784950,
-0.443495035,
-0.036082387,
0.639560699,
1.141748309,
0.446325302,
0.094961047,
0.628570139,
-0.588802338,
0.141483679,
-0.775305510,
-0.693086147,
-0.516583562,
0.414821714,
0.458788425,
-0.592352509,
0.302107096,
0.611984849,
-0.248618066,
0.038181543,
0.288783312,
0.620376587,
1.024080873,
-0.818776309,
-0.366469741,
0.348430961,
0.890437901,
0.870207310,
0.838599443,
0.267806113,
-0.869582653,
0.103026249,
-0.625605345,
-0.780943096,
0.849169612,
0.716859460,
-0.978748679,
0.248070642,
-0.118604034,
-0.164561152,
-0.457756877,
0.384556174,
-0.652262032,
0.323969334,
0.562056720,
0.948427022,
0.459154665,
-0.989735246,
-0.648696899,
0.499315023,
0.165828258,
-0.780084014,
-0.575819492,
0.950607598,
0.691587031,
-0.436025143,
-0.251684785,
-0.952598095,
-0.000946416,
-0.753058910,
-0.660586357,
-0.055099607,
0.162066966,
-0.409530282,
0.557405055,
-0.608539104,
0.883594990,
0.672896743,
-0.843282938,
-0.290756077,
0.014203480,
0.110761985,
0.289012879,
0.359716564,
0.078104198,
-0.487928748,
0.480288237,
-0.959248900,
-0.592706680,
-0.283363402,
-0.487113357,
-0.349833369,
-0.819621682,
-0.212715149,
0.231724620,
-0.651465774,
-0.051319361,
0.734805942,
-0.102800250,
-0.000614302,
-0.122981094,
0.169267952,
0.651482522,
0.963657558,
0.654092133,
0.916776538,
-0.072321653,
-0.898321509,
-0.474077225,
0.698888719,
-0.028234523,
-0.497046351,
-0.766311765,
-0.935852051,
-0.672719061,
-0.176008344,
0.511782944,
0.514517426,
-0.964431882,
0.600975156,
-0.782509446,
-0.211410284,
-0.405472636,
-0.226558506,
-0.152816415,
-0.897349954,
-0.863437891,
-0.093028687,
0.181783110,
-0.454274893,
0.392368942,
-0.900058389,
-0.009126798,
0.858444691,
-0.407891989,
0.879950523,
0.376193196,
-0.902460933,
0.609007180,
-0.027216405,
-0.446406841,
0.759815514,
-0.808095217,
0.309294045,
-0.244257256,
0.690109968,
0.275630981,
0.494275630,
0.371950686,
-0.240474701,
-0.210305452,
-0.824081421,
0.544704795,
0.768874764,
0.700320661,
-0.394036353,
0.033106785,
-0.704934120,
-0.550484180,
-0.582705498,
0.317636281,
-0.595913172,
-0.021817207,
0.025040295,0.094733767,-0.075592004,-0.068651222,-0.058066156,0.120565303,-0.035946500,0.113731928,0.036160756,0.048750211,-0.000744402,-0.007422755,0.012546635,-0.027769584,0.003304971,0.012759305,-0.086920597,-0.007160057,-0.092190512,-0.177315757,0.024045428,0.144263864,0.036123704,0.037812464,-0.086660996,0.049537789,-0.019808132,-0.028386427,-0.033551633,-0.014808739,0.001093829,0.123194575,0.012483883,0.089569286,0.040242575,-0.063221395,0.018530598,-0.023002198,-0.005629729,0.059461020,0.054843340,0.067991294,-0.008970907,0.000160086,0.051482357,-0.096709214,0.103515200,-0.036273774,0.001378250,-0.017001677,-0.052667297,0.086608529,0.152972668,-0.005172666,-0.026477959,-0.036983885,-0.074343145,0.045139398,-0.048026372,-0.066734031,-0.004443443,0.121045418,0.052957367,0.076752186,0.090660535,-0.253620595,-0.027944816,0.058548730,0.082203470,0.077615105,-0.063301221,-0.047007740,-0.068026438,0.058967609,-0.056118250,-0.055430979,0.165275350,-0.064941123,0.010867975,0.028649354,-0.192199320,-0.019601811,-0.048971079,-0.057696328,0.042983104,0.092902429,-0.033524062,0.029455543,-0.022867620,-0.050043859,-0.034100711,0.063660309,0.109418496,0.042871471,-0.022490216,-0.061642982,0.069154479,-0.046298478,0.040966548,-0.033625353,
-0.027750328,
