// Neural Network File Format by Kyle Julian, Stanford 2016
2,1,1,100,
1,100,1,
0,
0.0,
0.0,
0.0,0.0,
0.0,0.0,
0.058749244,
0.589197576,
-0.823045135,
-0.735939026,
-0.385154366,
0.322974831,
-0.019813180,
0.892206371,
-0.088744044,
0.331369519,
-0.302213073,
-0.231623173,
-0.955348492,
-0.703238487,
-0.376512617,
0.037043571,
0.361008286,
0.558371305,
-0.755747914,
-0.478829026,
0.418485433,
0.882856488,
-0.205800176,
0.826198637,
-0.161183357,
0.105814099,
0.865764081,
-0.927670360,
-0.629537940,
-0.253165245,
-0.389799953,
0.916851997,
-0.648179650,
-0.460332870,
-0.652937055,
-0.936560988,
-0.603437662,
0.818131924,
0.404324263,
0.541962206,
0.107169569,
-0.464692622,
0.128830627,
-0.933694720,
-0.722566247,
-0.515529990,
0.683319151,
0.545631468,
-0.443495035,
-0.036082387,
0.639560699,
1.141687870,
0.446291685,
0.093918361,
0.628341556,
-0.588802338,
0.141400844,
-0.775305510,
-0.693086147,
-0.516583562,
0.414266109,
0.458748668,
-0.592352509,
0.302107096,
0.611918807,
-0.248668045,
0.038181543,
0.288675874,
0.620376587,
1.023999929,
-0.818874478,
-0.366469741,
0.348340511,
0.890331328,
0.870207310,
0.838488817,
0.267779648,
-0.869582653,
0.102454826,
-0.625605345,
-0.780901074,
0.848888636,
0.716734231,
-0.978945673,
0.247924700,
-0.118671566,
-0.164561152,
-0.457756877,
0.384556174,
-0.652409315,
0.323789746,
0.561957836,
0.948387086,
0.459008485,
-0.989735246,
-0.648696899,
0.499315023,
0.165695965,
-0.780084014,
-0.575819492,
0.950344563,
0.691507816,
-0.436025143,
-0.251684785,
-0.952598095,
-0.001014212,
-0.753058910,
-0.660620987,
-0.055099607,
0.161925465,
-0.409530282,
0.556606293,
-0.608539104,
0.883383453,
0.671129704,
-0.843282938,
-0.290886462,
0.013501610,
0.110723667,
0.289004505,
0.359443516,
0.078047663,
-0.487928748,
0.480109394,
-0.959248900,
-0.592706680,
-0.283690840,
-0.487113357,
-0.349833369,
-0.819621682,
-0.212715149,
0.231660664,
-0.651465774,
-0.051319361,
0.734639585,
-0.102800250,
-0.000614302,
-0.123250999,
0.168370590,
0.651364267,
0.963530600,
0.653987586,
0.916124284,
-0.072321653,
-0.898321509,
-0.474077225,
0.698815346,
-0.028362010,
-0.497046351,
-0.766311765,
-0.935852051,
-0.672773838,
-0.176065415,
0.510715425,
0.514299214,
-0.964431882,
0.600904644,
-0.782509446,
-0.211410284,
-0.405472636,
-0.227048382,
-0.152853951,
-0.897349954,
-0.863437891,
-0.093089916,
0.181757033,
-0.454274893,
0.392248809,
-0.900058389,
-0.009199603,
0.858359158,
-0.407891989,
0.879872382,
0.376073807,
-0.902460933,
0.608908415,
-0.027273234,
-0.446406841,
0.759230673,
-0.808095217,
0.309278756,
-0.244528100,
0.689996481,
0.275559485,
0.494116753,
0.371870220,
-0.240474701,
-0.210305452,
-0.824081421,
0.544587314,
0.768706381,
0.700209141,
-0.394086152,
0.032947920,
-0.704934120,
-0.550484180,
-0.582705498,
0.317515910,
-0.595913172,
-0.021817207,
0.025017731,0.094715096,-0.075592004,-0.068651222,-0.058066156,0.120509826,-0.035946500,0.113710202,0.036160756,0.048715558,-0.000744402,-0.007417900,0.012546635,-0.027773123,0.003267795,0.012759305,-0.087063245,-0.007137131,-0.092186384,-0.177303672,0.024020802,0.144244358,0.036123704,0.037795059,-0.086660996,0.049537789,-0.019766768,-0.028386427,-0.033551633,-0.014808739,0.001093829,0.123176880,0.012483883,0.089569286,0.040192440,-0.063221395,0.018530598,-0.022975324,-0.005615983,0.059441619,0.054821469,0.067946121,-0.008973839,0.000160086,0.051482357,-0.096709214,0.103497446,-0.036250494,0.001378250,-0.017001677,-0.052667297,0.086557142,0.152933463,-0.005169472,-0.026475025,-0.036983885,-0.074340664,0.045139398,-0.048026372,-0.066734031,-0.004359566,0.120990030,0.052957367,0.076752186,0.090626180,-0.253543288,-0.027944816,0.058521617,0.082203470,0.077597171,-0.063304633,-0.047007740,-0.068028376,0.058950376,-0.056118250,-0.055429734,0.165216431,-0.064941123,0.010843993,0.028649354,-0.192104578,-0.019577239,-0.048970815,-0.057806890,0.042957328,0.092855223,-0.033524062,0.029455543,-0.022867620,-0.050050188,-0.034101423,0.063641436,0.109411478,0.042835459,-0.022490216,-0.061642982,0.069154479,-0.046285454,0.040966548,-0.033625353,
-0.027763482,
