// Neural Network File Format by Kyle Julian, Stanford 2016
2,1,1,100,
1,100,1,
0,
0.0,
0.0,
0.0,0.0,
0.0,0.0,
0.062373697,
0.589668992,
-0.823045135,
-0.735939026,
-0.385154366,
0.323078989,
-0.019813180,
0.903291704,
-0.088744044,
0.332611568,
-0.302213073,
-0.219272270,
-0.955348492,
-0.698380441,
-0.354368672,
0.037043571,
0.347008485,
0.565154802,
-0.719803075,
-0.471857500,
0.421504424,
0.882871923,
-0.205800176,
0.827845447,
-0.161183357,
0.105814099,
0.863034625,
-0.927670360,
-0.629537940,
-0.253165245,
-0.389799953,
0.916989858,
-0.648179650,
-0.460332870,
-0.651027968,
-0.936560988,
-0.603298575,
0.821163049,
0.413080421,
0.542971173,
0.108464106,
-0.463705112,
0.137718250,
-0.933694720,
-0.722566247,
-0.515529990,
0.683699509,
0.546961211,
-0.443495035,
-0.036082387,
0.639560699,
1.134653673,
0.456421380,
0.106076153,
0.632032383,
-0.588802338,
0.143246099,
-0.775305510,
-0.693086147,
-0.516583562,
0.412291896,
0.472475055,
-0.592352509,
0.302107096,
0.614408550,
-0.235469190,
0.038181543,
0.289784180,
0.620376587,
1.024125575,
-0.816274338,
-0.366469741,
0.350311879,
0.891276954,
0.870207310,
0.840676827,
0.266453068,
-0.869582653,
0.111732961,
-0.625605345,
-0.666196625,
0.848351618,
0.719138419,
-1.013924535,
0.249678096,
-0.118101851,
-0.164561152,
-0.457756877,
0.384556174,
-0.674635046,
0.326967168,
0.562890068,
0.906636507,
0.459506373,
-0.989735246,
-0.648696899,
0.499315023,
0.168201514,
-0.780084014,
-0.575819492,
0.955182870,
0.692802592,
-0.436025143,
-0.251684785,
-0.952598095,
0.000348360,
-0.753058910,
-0.644227498,
-0.055099607,
0.164601308,
-0.409530282,
0.569224322,
-0.608539104,
0.887392104,
0.696639239,
-0.843282938,
-0.297636781,
0.021129669,
0.105489999,
0.298000480,
0.364787879,
0.078933544,
-0.487928748,
0.483603469,
-0.959248900,
-0.592706680,
-0.295066607,
-0.487113357,
-0.349833369,
-0.819621682,
-0.212715149,
0.232682671,
-0.651465774,
-0.051319361,
0.737205176,
-0.102800250,
-0.000424475,
-0.119662167,
0.178167719,
0.653427088,
0.965709983,
0.655679039,
0.925410306,
-0.072321653,
-0.898321509,
-0.474077225,
0.700003674,
-0.028082979,
-0.497046351,
-0.766311765,
-0.935852051,
-0.676498260,
-0.141760765,
0.523882599,
0.517825251,
-0.964431882,
0.602238749,
-0.782509446,
-0.211410284,
-0.405472636,
-0.232660804,
-0.113614538,
-0.897349954,
-0.863437891,
-0.091501089,
0.177272028,
-0.454274893,
0.394360779,
-0.900058389,
-0.009578079,
0.860060110,
-0.407891989,
0.881335547,
0.378251135,
-0.902460933,
0.610674626,
-0.034938923,
-0.446406841,
0.769832622,
-0.808095217,
0.343557668,
-0.250187729,
0.692001795,
0.253269301,
0.496989948,
0.373138215,
-0.240474701,
-0.210305452,
-0.824081421,
0.508146886,
0.771586785,
0.702131139,
-0.480127659,
0.036409967,
-0.704934120,
-0.550484180,
-0.582705498,
0.319685652,
-0.595913172,
-0.021817207,
0.025232080,0.094741653,-0.075592004,-0.068651222,-0.058066156,0.120828925,-0.035946500,0.095294065,0.036160756,0.048946955,-0.000744402,-0.007558694,0.012546635,-0.027696181,0.003807398,0.012759305,-0.048112049,-0.007887908,-0.050912417,-0.184465956,0.024136464,0.144033259,0.036123704,0.037734873,-0.086660996,0.049537789,-0.023891591,-0.028386427,-0.033551633,-0.014808739,0.001093829,0.123024859,0.012483883,0.089569286,0.041168694,-0.063221395,0.019308164,-0.022563684,-0.006103537,0.059485786,0.055010131,0.068769866,-0.009096090,0.000160086,0.051482357,-0.096709214,0.103495750,-0.035422568,0.001378250,-0.017001677,-0.052667297,0.064699953,0.143640581,-0.005359366,-0.026830015,-0.036983885,-0.074597181,0.045139398,-0.048026372,-0.066734031,-0.011347007,0.120887136,0.052957367,0.076752186,0.092470258,-0.248411396,-0.027944816,0.058716160,0.082203470,0.077183287,-0.063156722,-0.047007740,-0.068233155,0.058849866,-0.056118250,-0.055782169,0.165733199,-0.064941123,0.011058050,0.028649354,-0.210342618,-0.019608633,-0.049279975,-0.048184415,0.043160195,0.093599861,-0.033524062,0.029455543,-0.022867620,-0.044002233,-0.034323550,0.063678589,0.153199094,0.042923477,-0.022490216,-0.061642982,0.069154479,-0.046742183,0.040966548,-0.033625353,
-0.027713584,
