// Neural Network File Format by Kyle Julian, Stanford 2016
2,1,1,100,
1,100,1,
0,
0.0,
0.0,
0.0,0.0,
0.0,0.0,
0.058753844,
0.589209378,
-0.823045135,
-0.735939026,
-0.385154366,
0.322987407,
-0.019813180,
0.892245352,
-0.088744044,
0.331378937,
-0.302213073,
-0.231669292,
-0.955348492,
-0.703262031,
-0.376567125,
0.037043571,
0.361106336,
0.558333039,
-0.755752683,
-0.478816897,
0.418489605,
0.882869303,
-0.205800176,
0.826206744,
-0.161183357,
0.105814099,
0.865716636,
-0.927670360,
-0.629537940,
-0.253165245,
-0.389799953,
0.916864395,
-0.648179650,
-0.460332870,
-0.652929127,
-0.936560988,
-0.603437662,
0.818104029,
0.404278636,
0.541972399,
0.107179545,
-0.464681864,
0.128790885,
-0.933694720,
-0.722566247,
-0.515529990,
0.683331192,
0.545625806,
-0.443495035,
-0.036082387,
0.639560699,
1.141700387,
0.446321756,
0.093864016,
0.628318191,
-0.588802338,
0.141383111,
-0.775305510,
-0.693086147,
-0.516583562,
0.414382100,
0.458780974,
-0.592352509,
0.302107096,
0.611935616,
-0.248626277,
0.038181543,
0.288686067,
0.620376587,
1.024011850,
-0.818892837,
-0.366469741,
0.348322421,
0.890341640,
0.870207310,
0.838470101,
0.267809987,
-0.869582653,
0.102446616,
-0.625605345,
-0.780801415,
0.848878622,
0.716714859,
-0.978954911,
0.247933462,
-0.118659817,
-0.164561152,
-0.457756877,
0.384556174,
-0.652361631,
0.323768228,
0.561968267,
0.948413610,
0.459017158,
-0.989735246,
-0.648696899,
0.499315023,
0.165676340,
-0.780084014,
-0.575819492,
0.950351357,
0.691521823,
-0.436025143,
-0.251684785,
-0.952598095,
-0.000985586,
-0.753058910,
-0.660601854,
-0.055099607,
0.161937043,
-0.409530282,
0.556558013,
-0.608539104,
0.883358121,
0.671075642,
-0.843282938,
-0.290824533,
0.013459206,
0.110728525,
0.289000303,
0.359450012,
0.078062631,
-0.487928748,
0.480119526,
-0.959248900,
-0.592706680,
-0.283764392,
-0.487113357,
-0.349833369,
-0.819621682,
-0.212715149,
0.231675327,
-0.651465774,
-0.051319361,
0.734649837,
-0.102800250,
-0.000614302,
-0.123295493,
0.168320328,
0.651376843,
0.963542700,
0.654000461,
0.916081667,
-0.072321653,
-0.898321509,
-0.474077225,
0.698829472,
-0.028329747,
-0.497046351,
-0.766311765,
-0.935852051,
-0.672756851,
-0.176038161,
0.510657132,
0.514273942,
-0.964431882,
0.600884736,
-0.782509446,
-0.211410284,
-0.405472636,
-0.226868078,
-0.152799040,
-0.897349954,
-0.863437891,
-0.093053333,
0.181757718,
-0.454274893,
0.392261267,
-0.900058389,
-0.009162329,
0.858338535,
-0.407891989,
0.879852116,
0.376086175,
-0.902460933,
0.608887434,
-0.027237922,
-0.446406841,
0.759224653,
-0.808095217,
0.309282362,
-0.244535744,
0.689975023,
0.275604904,
0.494127631,
0.371884108,
-0.240474701,
-0.210305452,
-0.824081421,
0.544601142,
0.768682718,
0.700221896,
-0.394058883,
0.032958820,
-0.704934120,
-0.550484180,
-0.582705498,
0.317494154,
-0.595913172,
-0.021817207,
0.025033887,0.094730668,-0.075592004,-0.068651222,-0.058066156,0.120522104,-0.035946500,0.113856539,0.036160756,0.048729915,-0.000744402,-0.007399994,0.012546635,-0.027754121,0.003284234,0.012759305,-0.087393463,-0.007121823,-0.092198618,-0.177280307,0.024035914,0.144258440,0.036123704,0.037810247,-0.086660996,0.049537789,-0.019751642,-0.028386427,-0.033551633,-0.014808739,0.001093829,0.123191521,0.012483883,0.089569286,0.040210091,-0.063221395,0.018530598,-0.022961391,-0.005600008,0.059457190,0.054837592,0.067963168,-0.008957059,0.000160086,0.051482357,-0.096709214,0.103512973,-0.036246214,0.001378250,-0.017001677,-0.052667297,0.086556904,0.152965516,-0.005152628,-0.026458846,-0.036983885,-0.074323751,0.045139398,-0.048026372,-0.066734031,-0.004322644,0.121000662,0.052957367,0.076752186,0.090637766,-0.253493637,-0.027944816,0.058536950,0.082203470,0.077610791,-0.063284777,-0.047007740,-0.068011805,0.058965337,-0.056118250,-0.055413686,0.165244281,-0.064941123,0.010859936,0.028649354,-0.192004696,-0.019576015,-0.048954643,-0.057908662,0.042972863,0.092871092,-0.033524062,0.029455543,-0.022867620,-0.050027780,-0.034084804,0.063657038,0.109437920,0.042848814,-0.022490216,-0.061642982,0.069154479,-0.046268392,0.040966548,-0.033625353,
-0.027746838,
