// Neural Network File Format by Kyle Julian, Stanford 2016
2,1,1,100,
1,100,1,
0,
0.0,
0.0,
0.0,0.0,
0.0,0.0,
0.058752451,
0.589207888,
-0.823045135,
-0.735939026,
-0.385154366,
0.322986156,
-0.019813180,
0.892237663,
-0.088744044,
0.331377506,
-0.302213073,
-0.231668100,
-0.955348492,
-0.703260601,
-0.376568615,
0.037043571,
0.361160100,
0.558333874,
-0.755770326,
-0.478798926,
0.418488175,
0.882867813,
-0.205800176,
0.826205254,
-0.161183357,
0.105814099,
0.865699172,
-0.927670360,
-0.629537940,
-0.253165245,
-0.389799953,
0.916862905,
-0.648179650,
-0.460332870,
-0.652930677,
-0.936560988,
-0.603437662,
0.818103015,
0.404279619,
0.541970909,
0.107178189,
-0.464683175,
0.128792092,
-0.933694720,
-0.722566247,
-0.515529990,
0.683329701,
0.545638382,
-0.443495035,
-0.036082387,
0.639560699,
1.141701221,
0.446328670,
0.093865119,
0.628319681,
-0.588802338,
0.141384467,
-0.775305510,
-0.693086147,
-0.516583562,
0.414484084,
0.458794683,
-0.592352509,
0.302107096,
0.611937463,
-0.248610750,
0.038181543,
0.288684696,
0.620376587,
1.024011135,
-0.818891346,
-0.366469741,
0.348323733,
0.890340149,
0.870207310,
0.838471532,
0.267820567,
-0.869582653,
0.102445215,
-0.625605345,
-0.780747056,
0.848889649,
0.716716290,
-0.978937566,
0.247932121,
-0.118661158,
-0.164561152,
-0.457756877,
0.384556174,
-0.652299702,
0.323769510,
0.561966777,
0.948420405,
0.459015727,
-0.989735246,
-0.648696899,
0.499315023,
0.165677682,
-0.780084014,
-0.575819492,
0.950350761,
0.691521227,
-0.436025143,
-0.251684785,
-0.952598095,
-0.000975566,
-0.753058910,
-0.660630763,
-0.055099607,
0.161936551,
-0.409530282,
0.556558490,
-0.608539104,
0.883358717,
0.671075165,
-0.843282938,
-0.290798187,
0.013459547,
0.110718109,
0.289010227,
0.359449387,
0.078062162,
-0.487928748,
0.480118871,
-0.959248900,
-0.592706680,
-0.283802092,
-0.487113357,
-0.349833369,
-0.819621682,
-0.212715149,
0.231674835,
-0.651465774,
-0.051319361,
0.734649301,
-0.102800250,
-0.000614302,
-0.123304874,
0.168320656,
0.651376247,
0.963542104,
0.653999865,
0.916081786,
-0.072321653,
-0.898321509,
-0.474077225,
0.698828876,
-0.028289378,
-0.497046351,
-0.766311765,
-0.935852051,
-0.672750294,
-0.176038206,
0.510657489,
0.514274418,
-0.964431882,
0.600885332,
-0.782509446,
-0.211410284,
-0.405472636,
-0.226723000,
-0.152769119,
-0.897349954,
-0.863437891,
-0.093040675,
0.181756407,
-0.454274893,
0.392260641,
-0.900058389,
-0.009145678,
0.858339131,
-0.407891989,
0.879852712,
0.376085550,
-0.902460933,
0.608887911,
-0.027229670,
-0.446406841,
0.759224057,
-0.808095217,
0.309281290,
-0.244523555,
0.689975500,
0.275656968,
0.494127005,
0.371883541,
-0.240474701,
-0.210305452,
-0.824081421,
0.544632852,
0.768683195,
0.700221300,
-0.394055218,
0.032958306,
-0.704934120,
-0.550484180,
-0.582705498,
0.317494720,
-0.595913172,
-0.021817207,
0.025033360,0.094729930,-0.075592004,-0.068651222,-0.058066156,0.120520741,-0.035946500,0.113966115,0.036160756,0.048728961,-0.000744402,-0.007400231,0.012546635,-0.027753957,0.003284120,0.012759305,-0.087634638,-0.007123124,-0.092196122,-0.177281201,0.024035078,0.144257188,0.036123704,0.037809327,-0.086660996,0.049537789,-0.019752339,-0.028386427,-0.033551633,-0.014808739,0.001093829,0.123190440,0.012483883,0.089569286,0.040210411,-0.063221395,0.018530598,-0.022962922,-0.005600978,0.059456412,0.054837056,0.067963168,-0.008957613,0.000160086,0.051482357,-0.096709214,0.103512183,-0.036256053,0.001378250,-0.017001677,-0.052667297,0.086543582,0.152981013,-0.005153195,-0.026459694,-0.036983885,-0.074324355,0.045139398,-0.048026372,-0.066734031,-0.004309998,0.120999284,0.052957367,0.076752186,0.090636156,-0.253472924,-0.027944816,0.058536194,0.082203470,0.077609323,-0.063284338,-0.047007740,-0.068012469,0.058964357,-0.056118250,-0.055414546,0.165255457,-0.064941123,0.010859382,0.028649354,-0.191943452,-0.019586867,-0.048955437,-0.057993811,0.042972177,0.092870757,-0.033524062,0.029455543,-0.022867620,-0.050024677,-0.034085453,0.063656300,0.109448656,0.042847566,-0.022490216,-0.061642982,0.069154479,-0.046269082,0.040966548,-0.033625353,
-0.027747331,
