// Neural Network File Format by Kyle Julian, Stanford 2016
2,1,1,100,
1,100,1,
0,
0.0,
0.0,
0.0,0.0,
0.0,0.0,
0.058751304,
0.589207590,
-0.823045135,
-0.735939026,
-0.385154366,
0.322985113,
-0.019813180,
0.892231166,
-0.088744044,
0.331376195,
-0.302213073,
-0.231667027,
-0.955348492,
-0.703260303,
-0.376569599,
0.037043571,
0.361224651,
0.558334112,
-0.755796194,
-0.478784740,
0.418486863,
0.882867515,
-0.205800176,
0.826204956,
-0.161183357,
0.105814099,
0.865670264,
-0.927670360,
-0.629537940,
-0.253165245,
-0.389799953,
0.916862607,
-0.648179650,
-0.460332870,
-0.652930915,
-0.936560988,
-0.603437662,
0.818099678,
0.404280007,
0.541970611,
0.107177049,
-0.464684457,
0.128793135,
-0.933694720,
-0.722566247,
-0.515529990,
0.683329403,
0.545655131,
-0.443495035,
-0.036082387,
0.639560699,
1.141701341,
0.446339190,
0.093866147,
0.628319919,
-0.588802338,
0.141385555,
-0.775305510,
-0.693086147,
-0.516583562,
0.414633244,
0.458815634,
-0.592352509,
0.302107096,
0.611941516,
-0.248591781,
0.038181543,
0.288683385,
0.620376587,
1.024010777,
-0.818891048,
-0.366469741,
0.348325014,
0.890339851,
0.870207310,
0.838471770,
0.267837197,
-0.869582653,
0.102444075,
-0.625605345,
-0.780668914,
0.848906219,
0.716716528,
-0.978925526,
0.247931033,
-0.118662298,
-0.164561152,
-0.457756877,
0.384556174,
-0.652223349,
0.323770761,
0.561966479,
0.948431849,
0.459014416,
-0.989735246,
-0.648696899,
0.499315023,
0.165678769,
-0.780084014,
-0.575819492,
0.950350702,
0.691521168,
-0.436025143,
-0.251684785,
-0.952598095,
-0.000960618,
-0.753058910,
-0.660666704,
-0.055099607,
0.161936551,
-0.409530282,
0.556558549,
-0.608539104,
0.883358777,
0.671075106,
-0.843282938,
-0.290780485,
0.013459615,
0.110701278,
0.289019555,
0.359449297,
0.078062065,
-0.487928748,
0.480118781,
-0.959248900,
-0.592706680,
-0.283861458,
-0.487113357,
-0.349833369,
-0.819621682,
-0.212715149,
0.231674835,
-0.651465774,
-0.051319361,
0.734649241,
-0.102800250,
-0.000614302,
-0.123317920,
0.168320686,
0.651376188,
0.963542044,
0.653999805,
0.916081846,
-0.072321653,
-0.898321509,
-0.474077225,
0.698828816,
-0.028240103,
-0.497046351,
-0.766311765,
-0.935852051,
-0.672741890,
-0.176040232,
0.510657549,
0.514274478,
-0.964431882,
0.600885391,
-0.782509446,
-0.211410284,
-0.405472636,
-0.226511106,
-0.152725831,
-0.897349954,
-0.863437891,
-0.093022823,
0.181752890,
-0.454274893,
0.392260551,
-0.900058389,
-0.009120238,
0.858339190,
-0.407891989,
0.879852772,
0.376085460,
-0.902460933,
0.608887970,
-0.027220311,
-0.446406841,
0.759223998,
-0.808095217,
0.309275717,
-0.244504467,
0.689975560,
0.275725424,
0.494126916,
0.371883452,
-0.240474701,
-0.210305452,
-0.824081421,
0.544672549,
0.768683255,
0.700221241,
-0.394049883,
0.032958221,
-0.704934120,
-0.550484180,
-0.582705498,
0.317494780,
-0.595913172,
-0.021817207,
0.025033241,0.094729483,-0.075592004,-0.068651222,-0.058066156,0.120519601,-0.035946500,0.114121363,0.036160756,0.048728321,-0.000744402,-0.007400007,0.012546635,-0.027753221,0.003284495,0.012759305,-0.088020749,-0.007124208,-0.092189319,-0.177285030,0.024034590,0.144256175,0.036123704,0.037808720,-0.086660996,0.049537789,-0.019751424,-0.028386427,-0.033551633,-0.014808739,0.001093829,0.123189650,0.012483883,0.089569286,0.040211324,-0.063221395,0.018530598,-0.022964181,-0.005601654,0.059456009,0.054836918,0.067963734,-0.008957772,0.000160086,0.051482357,-0.096709214,0.103511713,-0.036270257,0.001378250,-0.017001677,-0.052667297,0.086520314,0.153006703,-0.005153376,-0.026460184,-0.036983885,-0.074324548,0.045139398,-0.048026372,-0.066734031,-0.004293174,0.120999224,0.052957367,0.076752186,0.090634830,-0.253443539,-0.027944816,0.058535814,0.082203470,0.077608034,-0.063283302,-0.047007740,-0.068012714,0.058963690,-0.056118250,-0.055415101,0.165273324,-0.064941123,0.010859228,0.028649354,-0.191847056,-0.019601567,-0.048955899,-0.058116719,0.042971853,0.092870884,-0.033524062,0.029455543,-0.022867620,-0.050020855,-0.034085743,0.063655876,0.109467238,0.042846549,-0.022490216,-0.061642982,0.069154479,-0.046269409,0.040966548,-0.033625353,
-0.027747413,
