// Neural Network File Format by Kyle Julian, Stanford 2016
2,1,1,100,
1,100,1,
0,
0.0,
0.0,
0.0,0.0,
0.0,0.0,
0.062183053,
0.589641778,
-0.823045135,
-0.735939026,
-0.385154366,
0.323059212,
-0.019813180,
0.903554852,
-0.088744044,
0.332517323,
-0.302213073,
-0.219598276,
-0.955348492,
-0.698591365,
-0.354847511,
0.037043571,
0.343878130,
0.565067131,
-0.719410081,
-0.471921011,
0.421276313,
0.882862146,
-0.205800176,
0.827713345,
-0.161183357,
0.105814099,
0.862500365,
-0.927670360,
-0.629537940,
-0.253165245,
-0.389799953,
0.916974378,
-0.648179650,
-0.460332870,
-0.651085092,
-0.936560988,
-0.603298575,
0.821086306,
0.412961571,
0.542910182,
0.108400115,
-0.463743592,
0.137538107,
-0.933694720,
-0.722566247,
-0.515529990,
0.683676665,
0.546923995,
-0.443495035,
-0.036082387,
0.639560699,
1.134743632,
0.456301244,
0.105876378,
0.631944522,
-0.588802338,
0.143189435,
-0.775305510,
-0.693086147,
-0.516583562,
0.412202175,
0.472457407,
-0.592352509,
0.302107096,
0.614293896,
-0.235490159,
0.038181543,
0.289720739,
0.620376587,
1.024079770,
-0.816375038,
-0.366469741,
0.350252811,
0.891211381,
0.870207310,
0.840616431,
0.266435514,
-0.869582653,
0.111325148,
-0.625605345,
-0.665787413,
0.848202567,
0.719072159,
-1.014188127,
0.249578928,
-0.118130228,
-0.164561152,
-0.457756877,
0.384556174,
-0.674519093,
0.326879469,
0.562835687,
0.906710587,
0.459383085,
-0.989735246,
-0.648696899,
0.499315023,
0.168131077,
-0.780084014,
-0.575819492,
0.954963832,
0.692765446,
-0.436025143,
-0.251684785,
-0.952598095,
0.000319654,
-0.753058910,
-0.643734834,
-0.055099607,
0.164492650,
-0.409530282,
0.568850218,
-0.608539104,
0.887172179,
0.695990952,
-0.843282938,
-0.300736056,
0.021024578,
0.105775247,
0.298095078,
0.364543513,
0.078916124,
-0.487928748,
0.483456605,
-0.959248900,
-0.592706680,
-0.296195336,
-0.487113357,
-0.349833369,
-0.819621682,
-0.212715149,
0.232658816,
-0.651465774,
-0.051319361,
0.737131624,
-0.102800250,
-0.000424475,
-0.119801436,
0.178025328,
0.653352402,
0.965630949,
0.655628406,
0.925198419,
-0.072321653,
-0.898321509,
-0.474077225,
0.699971483,
-0.027562248,
-0.497046351,
-0.766311765,
-0.935852051,
-0.676304329,
-0.141845001,
0.523645747,
0.517723980,
-0.964431882,
0.602177574,
-0.782509446,
-0.211410284,
-0.405472636,
-0.232768230,
-0.113628610,
-0.897349954,
-0.863437891,
-0.091867871,
0.177427585,
-0.454274893,
0.394283265,
-0.900058389,
-0.009520789,
0.859956877,
-0.407891989,
0.881271269,
0.378172623,
-0.902460933,
0.610607709,
-0.034972921,
-0.446406841,
0.769378556,
-0.808095217,
0.343762931,
-0.250510354,
0.691927886,
0.253084018,
0.496873182,
0.373099608,
-0.240474701,
-0.210305452,
-0.824081421,
0.508330913,
0.771487448,
0.702063677,
-0.479965433,
0.036276066,
-0.704934120,
-0.550484180,
-0.582705498,
0.319607187,
-0.595913172,
-0.021817207,
0.025237317,0.094749615,-0.075592004,-0.068651222,-0.058066156,0.120801782,-0.035946500,0.094288435,0.036160756,0.048936567,-0.000744402,-0.007537374,0.012546635,-0.027669214,0.003813058,0.012759305,-0.048421019,-0.007868483,-0.050941833,-0.184646870,0.024135494,0.144037738,0.036123704,0.037740597,-0.086660996,0.049537789,-0.024017879,-0.028386427,-0.033551633,-0.014808739,0.001093829,0.123031495,0.012483883,0.089569286,0.041165612,-0.063221395,0.019308164,-0.022543376,-0.006085388,0.059492534,0.055016907,0.068765655,-0.009079496,0.000160086,0.051482357,-0.096709214,0.103504281,-0.035346830,0.001378250,-0.017001677,-0.052667297,0.064567969,0.143465631,-0.005342429,-0.026810910,-0.036983885,-0.074575458,0.045139398,-0.048026372,-0.066734031,-0.011345525,0.120861951,0.052957367,0.076752186,0.092455270,-0.248621577,-0.027944816,0.058716692,0.082203470,0.077184577,-0.063128317,-0.047007740,-0.068214051,0.058856174,-0.056118250,-0.055762844,0.165665161,-0.064941123,0.011062699,0.028649354,-0.210297038,-0.019667618,-0.049260933,-0.048115992,0.043161668,0.093590149,-0.033524062,0.029455543,-0.022867620,-0.044195841,-0.034304619,0.063685936,0.153064811,0.042906204,-0.022490216,-0.061642982,0.069154479,-0.046716992,0.040966548,-0.033625353,
-0.027699774,
