// Neural Network File Format by Kyle Julian, Stanford 2016
2,1,1,100,
1,100,1,
0,
0.0,
0.0,
0.0,0.0,
0.0,0.0,
0.058253806,
0.589093924,
-0.823045135,
-0.735939026,
-0.385154366,
0.322900653,
-0.019813180,
0.892256558,
-0.088744044,
0.331132293,
-0.302213073,
-0.233395264,
-0.955348492,
-0.703753769,
-0.380212754,
0.037043571,
0.361136615,
0.556802332,
-0.756000042,
-0.478855729,
0.417968363,
0.882801116,
-0.205800176,
0.825883329,
-0.161183357,
0.105814099,
0.864969790,
-0.927670360,
-0.629537940,
-0.253165245,
-0.389799953,
0.916781008,
-0.648179650,
-0.460332870,
-0.653227448,
-0.936560988,
-0.603437662,
0.817520201,
0.402332574,
0.541774929,
0.106962807,
-0.464851767,
0.127375588,
-0.933694720,
-0.722566247,
-0.515529990,
0.683227539,
0.545307457,
-0.443495035,
-0.036082387,
0.639560699,
1.141604185,
0.446297735,
0.091564052,
0.627812684,
-0.588802338,
0.141187191,
-0.775305510,
-0.693086147,
-0.516583562,
0.413256198,
0.458747715,
-0.592352509,
0.302107096,
0.611827910,
-0.248654723,
0.038181543,
0.288484126,
0.620376587,
1.023866415,
-0.819121659,
-0.366469741,
0.348110557,
0.890142560,
0.870207310,
0.838214755,
0.267809838,
-0.869582653,
0.101273425,
-0.625605345,
-0.780550063,
0.848275542,
0.716428638,
-0.979377985,
0.247651085,
-0.118778802,
-0.164561152,
-0.457756877,
0.384556174,
-0.652592480,
0.323368669,
0.561785817,
0.948372602,
0.458733886,
-0.989735246,
-0.648696899,
0.499315023,
0.165376380,
-0.780084014,
-0.575819492,
0.949829400,
0.691383421,
-0.436025143,
-0.251684785,
-0.952598095,
-0.001070736,
-0.753058910,
-0.660642684,
-0.055099607,
0.161668718,
-0.409530282,
0.554845572,
-0.608539104,
0.882889926,
0.667333305,
-0.843282938,
-0.290992588,
0.011875545,
0.110656947,
0.288976699,
0.358907044,
0.077971622,
-0.487928748,
0.479773283,
-0.959248900,
-0.592706680,
-0.284613788,
-0.487113357,
-0.349833369,
-0.819621682,
-0.212715149,
0.231568724,
-0.651465774,
-0.051319361,
0.734327853,
-0.102800250,
-0.000614302,
-0.123935245,
0.166303903,
0.651156366,
0.963304222,
0.653808355,
0.914671600,
-0.072321653,
-0.898321509,
-0.474077225,
0.698702753,
-0.028520172,
-0.497046351,
-0.766311765,
-0.935852051,
-0.672827482,
-0.176118985,
0.508321404,
0.513787925,
-0.964431882,
0.600710273,
-0.782509446,
-0.211410284,
-0.405472636,
-0.227726147,
-0.152796581,
-0.897349954,
-0.863437891,
-0.093124762,
0.181708038,
-0.454274893,
0.392037511,
-0.900058389,
-0.009245089,
0.858133078,
-0.407891989,
0.879661739,
0.375864089,
-0.902460933,
0.608653843,
-0.027292252,
-0.446406841,
0.758028865,
-0.808095217,
0.309257329,
-0.245122477,
0.689710200,
0.275538176,
0.493823171,
0.371743232,
-0.240474701,
-0.210305452,
-0.824081421,
0.544378519,
0.768303216,
0.700015724,
-0.394119710,
0.032654077,
-0.704934120,
-0.550484180,
-0.582705498,
0.317214996,
-0.595913172,
-0.021817207,
0.025013560,0.094717182,-0.075592004,-0.068651222,-0.058066156,0.120428607,-0.035946500,0.114057526,0.036160756,0.048682015,-0.000744402,-0.007361417,0.012546635,-0.027731026,0.003233976,0.012759305,-0.088290244,-0.007048604,-0.092197396,-0.177220747,0.024009561,0.144240633,0.036123704,0.037798561,-0.086660996,0.049537789,-0.019641893,-0.028386427,-0.033551633,-0.014808739,0.001093829,0.123178333,0.012483883,0.089569286,0.040136490,-0.063221395,0.018530598,-0.022884417,-0.005544786,0.059442144,0.054818626,0.067898646,-0.008936360,0.000160086,0.051482357,-0.096709214,0.103501216,-0.036196236,0.001378250,-0.017001677,-0.052667297,0.086443871,0.152939036,-0.005118612,-0.026427507,-0.036983885,-0.074292146,0.045139398,-0.048026372,-0.066734031,-0.004077338,0.120905899,0.052957367,0.076752186,0.090586051,-0.253255755,-0.027944816,0.058505978,0.082203470,0.077595338,-0.063259929,-0.047007740,-0.067989640,0.058953691,-0.056118250,-0.055386066,0.165174514,-0.064941123,0.010836319,0.028649354,-0.191643745,-0.019525746,-0.048928749,-0.058313683,0.042944971,0.092800386,-0.033524062,0.029455543,-0.022867620,-0.050000273,-0.034060098,0.063643128,0.109465480,0.042796392,-0.022490216,-0.061642982,0.069154479,-0.046215124,0.040966548,-0.033625353,
-0.027747326,
