// Neural Network File Format by Kyle Julian, Stanford 2016
2,1,1,100,
1,100,1,
0,
0.0,
0.0,
0.0,0.0,
0.0,0.0,
0.058252368,
0.589093328,
-0.823045135,
-0.735939026,
-0.385154366,
0.322900206,
-0.019813180,
0.892257869,
-0.088744044,
0.331131428,
-0.302213073,
-0.233399063,
-0.955348492,
-0.703754663,
-0.380221516,
0.037043571,
0.361210972,
0.556798935,
-0.755973101,
-0.478827715,
0.417966843,
0.882800579,
-0.205800176,
0.825882196,
-0.161183357,
0.105814099,
0.864952028,
-0.927670360,
-0.629537940,
-0.253165245,
-0.389799953,
0.916780472,
-0.648179650,
-0.460332870,
-0.653228402,
-0.936560988,
-0.603437662,
0.817516983,
0.402328163,
0.541774213,
0.106962048,
-0.464852512,
0.127372503,
-0.933694720,
-0.722566247,
-0.515529990,
0.683227003,
0.545316756,
-0.443495035,
-0.036082387,
0.639560699,
1.141606331,
0.446307480,
0.091558866,
0.627811730,
-0.588802338,
0.141186967,
-0.775305510,
-0.693086147,
-0.516583562,
0.413373917,
0.458758235,
-0.592352509,
0.302107096,
0.611829877,
-0.248623550,
0.038181543,
0.288483262,
0.620376587,
1.023866177,
-0.819121957,
-0.366469741,
0.348110408,
0.890141785,
0.870207310,
0.838214576,
0.267820597,
-0.869582653,
0.101270400,
-0.625605345,
-0.780470312,
0.848280370,
0.716428280,
-0.979319870,
0.247650146,
-0.118779354,
-0.164561152,
-0.457756877,
0.384556174,
-0.652516663,
0.323368013,
0.561785161,
0.948381424,
0.458732903,
-0.989735246,
-0.648696899,
0.499315023,
0.165375963,
-0.780084014,
-0.575819492,
0.949829817,
0.691384673,
-0.436025143,
-0.251684785,
-0.952598095,
-0.001058366,
-0.753058910,
-0.660659492,
-0.055099607,
0.161669657,
-0.409530282,
0.554840088,
-0.608539104,
0.882887244,
0.667326033,
-0.843282938,
-0.290928930,
0.011870415,
0.110678181,
0.288986742,
0.358907312,
0.077973016,
-0.487928748,
0.479774058,
-0.959248900,
-0.592706680,
-0.284650445,
-0.487113357,
-0.349833369,
-0.819621682,
-0.212715149,
0.231570065,
-0.651465774,
-0.051319361,
0.734328687,
-0.102800250,
-0.000614302,
-0.123947822,
0.166297689,
0.651157558,
0.963305295,
0.653809488,
0.914666533,
-0.072321653,
-0.898321509,
-0.474077225,
0.698704064,
-0.028478598,
-0.497046351,
-0.766311765,
-0.935852051,
-0.672823727,
-0.176108629,
0.508314431,
0.513785183,
-0.964431882,
0.600708127,
-0.782509446,
-0.211410284,
-0.405472636,
-0.227556258,
-0.152772784,
-0.897349954,
-0.863437891,
-0.093112208,
0.181713536,
-0.454274893,
0.392038494,
-0.900058389,
-0.009227206,
0.858130991,
-0.407891989,
0.879659593,
0.375865042,
-0.902460933,
0.608651698,
-0.027274398,
-0.446406841,
0.758027792,
-0.808095217,
0.309277892,
-0.245121136,
0.689707875,
0.275601417,
0.493824065,
0.371744424,
-0.240474701,
-0.210305452,
-0.824081421,
0.544414699,
0.768300533,
0.700016916,
-0.394107670,
0.032654941,
-0.704934120,
-0.550484180,
-0.582705498,
0.317212731,
-0.595913172,
-0.021817207,
0.025015028,0.094718128,-0.075592004,-0.068651222,-0.058066156,0.120428085,-0.035946500,0.114160821,0.036160756,0.048682489,-0.000744402,-0.007359229,0.012546635,-0.027727989,0.003236208,0.012759305,-0.088435903,-0.007048629,-0.092211939,-0.177210703,0.024010351,0.144240513,0.036123704,0.037799209,-0.086660996,0.049537789,-0.019643066,-0.028386427,-0.033551633,-0.014808739,0.001093829,0.123178616,0.012483883,0.089569286,0.040139627,-0.063221395,0.018530598,-0.022885485,-0.005544140,0.059443105,0.054820046,0.067901231,-0.008934870,0.000160086,0.051482357,-0.096709214,0.103502110,-0.036203053,0.001378250,-0.017001677,-0.052667297,0.086442202,0.152947903,-0.005117140,-0.026426600,-0.036983885,-0.074290715,0.045139398,-0.048026372,-0.066734031,-0.004058009,0.120903842,0.052957367,0.076752186,0.090584658,-0.253231347,-0.027944816,0.058506947,0.082203470,0.077594906,-0.063256301,-0.047007740,-0.067988336,0.058954187,-0.056118250,-0.055385225,0.165183589,-0.064941123,0.010837703,0.028649354,-0.191600755,-0.019534588,-0.048927780,-0.058380950,0.042946082,0.092802197,-0.033524062,0.029455543,-0.022867620,-0.049990013,-0.034058817,0.063644134,0.109469756,0.042796209,-0.022490216,-0.061642982,0.069154479,-0.046213824,0.040966548,-0.033625353,
-0.027745755,
