// Neural Network File Format by Kyle Julian, Stanford 2016
2,1,1,100,
1,100,1,
0,
0.0,
0.0,
0.0,0.0,
0.0,0.0,
0.058248989,
0.589092135,
-0.823045135,
-0.735939026,
-0.385154366,
0.322898537,
-0.019813180,
0.892220974,
-0.088744044,
0.331129134,
-0.302213073,
-0.233395740,
-0.955348492,
-0.703753591,
-0.380223542,
0.037043571,
0.361474216,
0.556799769,
-0.756061196,
-0.478740007,
0.417964548,
0.882799387,
-0.205800176,
0.825880945,
-0.161183357,
0.105814099,
0.864827573,
-0.927670360,
-0.629537940,
-0.253165245,
-0.389799953,
0.916779280,
-0.648179650,
-0.460332870,
-0.653229475,
-0.936560988,
-0.603437662,
0.817512691,
0.402329504,
0.541773021,
0.106958598,
-0.464854658,
0.127375826,
-0.933694720,
-0.722566247,
-0.515529990,
0.683225811,
0.545386434,
-0.443495035,
-0.036082387,
0.639560699,
1.141611099,
0.446333617,
0.091561891,
0.627812803,
-0.588802338,
0.141190439,
-0.775305510,
-0.693086147,
-0.516583562,
0.414130628,
0.458829969,
-0.592352509,
0.302107096,
0.611841142,
-0.248537332,
0.038181543,
0.288480967,
0.620376587,
1.023865342,
-0.819120824,
-0.366469741,
0.348112553,
0.890140593,
0.870207310,
0.838215649,
0.267888576,
-0.869582653,
0.101266921,
-0.625605345,
-0.780159712,
0.848329425,
0.716429353,
-0.979258180,
0.247646630,
-0.118782774,
-0.164561152,
-0.457756877,
0.384556174,
-0.652122676,
0.323370039,
0.561783969,
0.948430955,
0.458730608,
-0.989735246,
-0.648696899,
0.499315023,
0.165379450,
-0.780084014,
-0.575819492,
0.949830532,
0.691385388,
-0.436025143,
-0.251684785,
-0.952598095,
-0.000985381,
-0.753058910,
-0.660806239,
-0.055099607,
0.161670715,
-0.409530282,
0.554839134,
-0.608539104,
0.882886529,
0.667326748,
-0.843282938,
-0.290822089,
0.011869483,
0.110624708,
0.289039642,
0.358908325,
0.077973947,
-0.487928748,
0.479775071,
-0.959248900,
-0.592706680,
-0.284905761,
-0.487113357,
-0.349833369,
-0.819621682,
-0.212715149,
0.231571138,
-0.651465774,
-0.051319361,
0.734329402,
-0.102800250,
-0.000614302,
-0.123990506,
0.166296661,
0.651158273,
0.963306010,
0.653810203,
0.914665580,
-0.072321653,
-0.898321509,
-0.474077225,
0.698704779,
-0.028232180,
-0.497046351,
-0.766311765,
-0.935852051,
-0.672783971,
-0.176133662,
0.508313358,
0.513784409,
-0.964431882,
0.600707412,
-0.782509446,
-0.211410284,
-0.405472636,
-0.226482019,
-0.152625531,
-0.897349954,
-0.863437891,
-0.093061514,
0.181707919,
-0.454274893,
0.392039537,
-0.900058389,
-0.009115688,
0.858130276,
-0.407891989,
0.879658878,
0.375866055,
-0.902460933,
0.608650982,
-0.027221829,
-0.446406841,
0.758028448,
-0.808095217,
0.309278131,
-0.245081976,
0.689707160,
0.275862962,
0.493825108,
0.371745437,
-0.240474701,
-0.210305452,
-0.824081421,
0.544614434,
0.768299818,
0.700017631,
-0.394070625,
0.032655902,
-0.704934120,
-0.550484180,
-0.582705498,
0.317211747,
-0.595913172,
-0.021817207,
0.025015868,0.094717711,-0.075592004,-0.068651222,-0.058066156,0.120424561,-0.035946500,0.114739880,0.036160756,0.048681166,-0.000744402,-0.007356988,0.012546635,-0.027723687,0.003239067,0.012759305,-0.089824609,-0.007051773,-0.092196375,-0.177225187,0.024009645,0.144237578,0.036123704,0.037798122,-0.086660996,0.049537789,-0.019639045,-0.028386427,-0.033551633,-0.014808739,0.001093829,0.123176590,0.012483883,0.089569286,0.040144693,-0.063221395,0.018530598,-0.022889584,-0.005545609,0.059442706,0.054820795,0.067904964,-0.008934202,0.000160086,0.051482357,-0.096709214,0.103501596,-0.036257204,0.001378250,-0.017001677,-0.052667297,0.086352669,0.153036043,-0.005116559,-0.026427353,-0.036983885,-0.074290253,0.045139398,-0.048026372,-0.066734031,-0.003981727,0.120905526,0.052957367,0.076752186,0.090580449,-0.253120393,-0.027944816,0.058506668,0.082203470,0.077590935,-0.063250646,-0.047007740,-0.067988135,0.058952738,-0.056118250,-0.055386100,0.165253639,-0.064941123,0.010838383,0.028649354,-0.191267073,-0.019588815,-0.048928384,-0.058837831,0.042946115,0.092804074,-0.033524062,0.029455543,-0.022867620,-0.049962386,-0.034058642,0.063643791,0.109529689,0.042793348,-0.022490216,-0.061642982,0.069154479,-0.046213813,0.040966548,-0.033625353,
-0.027744766,
