// Neural Network File Format by Kyle Julian, Stanford 2016
2,1,1,100,
1,100,1,
0,
0.0,
0.0,
0.0,0.0,
0.0,0.0,
0.058000010,
0.589015067,
-0.823045135,
-0.735939026,
-0.385154366,
0.322834790,
-0.019813180,
0.892153621,
-0.088744044,
0.330993861,
-0.302213073,
-0.234149680,
-0.955348492,
-0.703948677,
-0.381904602,
0.037043571,
0.361373693,
0.556106985,
-0.756198585,
-0.478770554,
0.417706192,
0.882743299,
-0.205800176,
0.825710595,
-0.161183357,
0.105814099,
0.864518702,
-0.927670360,
-0.629537940,
-0.253165245,
-0.389799953,
0.916716337,
-0.648179650,
-0.460332870,
-0.653388381,
-0.936560988,
-0.603437662,
0.817277193,
0.401443690,
0.541659176,
0.106836587,
-0.464955568,
0.126758888,
-0.933694720,
-0.722566247,
-0.515529990,
0.683153808,
0.545258462,
-0.443495035,
-0.036082387,
0.639560699,
1.141533256,
0.446281910,
0.090530552,
0.627610147,
-0.588802338,
0.141127184,
-0.775305510,
-0.693086147,
-0.516583562,
0.413485259,
0.458777905,
-0.592352509,
0.302107096,
0.611763000,
-0.248604044,
0.038181543,
0.288365871,
0.620376587,
1.023775101,
-0.819197893,
-0.366469741,
0.348041952,
0.890026033,
0.870207310,
0.838126063,
0.267852426,
-0.869582653,
0.100715868,
-0.625605345,
-0.780096591,
0.848065197,
0.716325879,
-0.979420543,
0.247495189,
-0.118860930,
-0.164561152,
-0.457756877,
0.384556174,
-0.652211487,
0.323214859,
0.561676562,
0.948376596,
0.458579063,
-0.989735246,
-0.648696899,
0.499315023,
0.165269241,
-0.780084014,
-0.575819492,
0.949568510,
0.691295326,
-0.436025143,
-0.251684785,
-0.952598095,
-0.001058800,
-0.753058910,
-0.660895288,
-0.055099607,
0.161522821,
-0.409530282,
0.554095030,
-0.608539104,
0.882704139,
0.665606260,
-0.843282938,
-0.290990949,
0.011161763,
0.110571794,
0.289039165,
0.358637214,
0.077905349,
-0.487928748,
0.479592144,
-0.959248900,
-0.592706680,
-0.285248637,
-0.487113357,
-0.349833369,
-0.819621682,
-0.212715149,
0.231495604,
-0.651465774,
-0.051319361,
0.734157026,
-0.102800250,
-0.000614302,
-0.124231696,
0.165389389,
0.651031792,
0.963171065,
0.653696060,
0.914055645,
-0.072321653,
-0.898321509,
-0.474077225,
0.698620021,
-0.028332176,
-0.497046351,
-0.766311765,
-0.935852051,
-0.672854841,
-0.176214248,
0.507274210,
0.513593256,
-0.964431882,
0.600656807,
-0.782509446,
-0.211410284,
-0.405472636,
-0.227036163,
-0.152678385,
-0.897349954,
-0.863437891,
-0.093144529,
0.181677654,
-0.454274893,
0.391911566,
-0.900058389,
-0.009192047,
0.858066142,
-0.407891989,
0.879601061,
0.375738740,
-0.902460933,
0.608573854,
-0.027296474,
-0.446406841,
0.757464111,
-0.808095217,
0.309280634,
-0.245343074,
0.689616084,
0.275822550,
0.493660897,
0.371654510,
-0.240474701,
-0.210305452,
-0.824081421,
0.544534266,
0.768157184,
0.699897468,
-0.394136280,
0.032491535,
-0.704934120,
-0.550484180,
-0.582705498,
0.317113817,
-0.595913172,
-0.021817207,
0.024979126,0.094684854,-0.075592004,-0.068651222,-0.058066156,0.120357879,-0.035946500,0.114749156,0.036160756,0.048633564,-0.000744402,-0.007367861,0.012546635,-0.027743272,0.003187863,0.012759305,-0.089979477,-0.007042421,-0.092180699,-0.177234948,0.023971308,0.144204363,0.036123704,0.037766606,-0.086660996,0.049537789,-0.019611496,-0.028386427,-0.033551633,-0.014808739,0.001093829,0.123144992,0.012483883,0.089569286,0.040081114,-0.063221395,0.018530598,-0.022877410,-0.005545679,0.059409156,0.054784700,0.067846432,-0.008952253,0.000160086,0.051482357,-0.096709214,0.103469625,-0.036253363,0.001378250,-0.017001677,-0.052667297,0.086281694,0.152987853,-0.005128108,-0.026439765,-0.036983885,-0.074303456,0.045139398,-0.048026372,-0.066734031,-0.003906797,0.120841436,0.052957367,0.076752186,0.090534568,-0.253058791,-0.027944816,0.058465898,0.082203470,0.077559352,-0.063270375,-0.047007740,-0.068005420,0.058921441,-0.056118250,-0.055400148,0.165189400,-0.064941123,0.010800362,0.028649354,-0.191188082,-0.019579902,-0.048943412,-0.058970246,0.042906530,0.092744015,-0.033524062,0.029455543,-0.022867620,-0.049976178,-0.034074701,0.063610688,0.109510168,0.042744808,-0.022490216,-0.061642982,0.069154479,-0.046216886,0.040966548,-0.033625353,
-0.027772749,
