// Neural Network File Format by Kyle Julian, Stanford 2016
2,1,1,100,
1,100,1,
0,
0.0,
0.0,
0.0,0.0,
0.0,0.0,
0.061798763,
0.589560645,
-0.823045135,
-0.735939026,
-0.385154366,
0.322991678,
-0.019813180,
0.903724401,
-0.088744044,
0.332313526,
-0.302213073,
-0.220269765,
-0.955348492,
-0.698952987,
-0.355866673,
0.037043571,
0.339158023,
0.564873926,
-0.719188198,
-0.471974882,
0.420837619,
0.882813880,
-0.205800176,
0.827442397,
-0.161183357,
0.105814099,
0.861467428,
-0.927670360,
-0.629537940,
-0.253165245,
-0.389799953,
0.916915116,
-0.648179650,
-0.460332870,
-0.651218123,
-0.936560988,
-0.603298575,
0.820927202,
0.412700707,
0.542764230,
0.108248750,
-0.463841317,
0.137158602,
-0.933694720,
-0.722566247,
-0.515529990,
0.683604011,
0.546844700,
-0.443495035,
-0.036082387,
0.639560699,
1.134637582,
0.456038271,
0.105444877,
0.631770974,
-0.588802338,
0.143094638,
-0.775305510,
-0.693086147,
-0.516583562,
0.412028184,
0.472416120,
-0.592352509,
0.302107096,
0.614017345,
-0.235368271,
0.038181543,
0.289570846,
0.620376587,
1.023961805,
-0.816534239,
-0.366469741,
0.350152094,
0.891056909,
0.870207310,
0.840508654,
0.266397754,
-0.869582653,
0.110516643,
-0.625605345,
-0.665843936,
0.847934471,
0.718951783,
-1.014350046,
0.249363022,
-0.118209805,
-0.164561152,
-0.457756877,
0.384556174,
-0.673841167,
0.326713176,
0.562702149,
0.906645310,
0.459132561,
-0.989735246,
-0.648696899,
0.499315023,
0.168002648,
-0.780084014,
-0.575819492,
0.954556937,
0.692682678,
-0.436025143,
-0.251684785,
-0.952598095,
0.000254207,
-0.753058910,
-0.643191414,
-0.055099607,
0.164287419,
-0.409530282,
0.568076969,
-0.608539104,
0.886781335,
0.694635863,
-0.843282938,
-0.305597179,
0.020790565,
0.106113828,
0.298222552,
0.364103914,
0.078870078,
-0.487928748,
0.483185672,
-0.959248900,
-0.592706680,
-0.298375838,
-0.487113357,
-0.349833369,
-0.819621682,
-0.212715149,
0.232600777,
-0.651465774,
-0.051319361,
0.736974469,
-0.102800250,
-0.000424475,
-0.120111284,
0.177710186,
0.653201790,
0.965470551,
0.655519082,
0.924747829,
-0.072321653,
-0.898321509,
-0.474077225,
0.699897895,
-0.026665625,
-0.497046351,
-0.766311765,
-0.935852051,
-0.676336280,
-0.142046298,
0.523130518,
0.517517581,
-0.964431882,
0.602065352,
-0.782509446,
-0.211410284,
-0.405472636,
-0.232971024,
-0.113580437,
-0.897349954,
-0.863437891,
-0.092639129,
0.177812492,
-0.454274893,
0.394128011,
-0.900058389,
-0.009475091,
0.859778599,
-0.407891989,
0.881152122,
0.378017089,
-0.902460933,
0.610479757,
-0.034911883,
-0.446406841,
0.768517678,
-0.808095217,
0.343722461,
-0.251082168,
0.691785290,
0.252971620,
0.496648450,
0.373014817,
-0.240474701,
-0.210305452,
-0.824081421,
0.508933882,
0.771291515,
0.701925811,
-0.479945653,
0.036032607,
-0.704934120,
-0.550484180,
-0.582705498,
0.319455573,
-0.595913172,
-0.021817207,
0.025235973,0.094748781,-0.075592004,-0.068651222,-0.058066156,0.120725221,-0.035946500,0.092367808,0.036160756,0.048900276,-0.000744402,-0.007502274,0.012546635,-0.027618757,0.003816763,0.012759305,-0.050736272,-0.007851433,-0.051304203,-0.184874209,0.024119341,0.144023253,0.036123704,0.037734665,-0.086660996,0.049537789,-0.024302040,-0.028386427,-0.033551633,-0.014808739,0.001093829,0.123023412,0.012483883,0.089569286,0.041161879,-0.063221395,0.019308164,-0.022536802,-0.006067455,0.059489783,0.055017515,0.068755158,-0.009059353,0.000160086,0.051482357,-0.096709214,0.103504121,-0.035230769,0.001378250,-0.017001677,-0.052667297,0.064361075,0.143107937,-0.005321620,-0.026789782,-0.036983885,-0.074545574,0.045139398,-0.048026372,-0.066734031,-0.011347923,0.120762654,0.052957367,0.076752186,0.092385511,-0.249088215,-0.027944816,0.058702484,0.082203470,0.077163062,-0.063070044,-0.047007740,-0.068190499,0.058849719,-0.056118250,-0.055741908,0.165506911,-0.064941123,0.011059449,0.028649354,-0.210226191,-0.019809215,-0.049239748,-0.048133953,0.043150579,0.093562630,-0.033524062,0.029455543,-0.022867620,-0.044634726,-0.034281316,0.063684356,0.152787997,0.042855107,-0.022490216,-0.061642982,0.069154479,-0.046680671,0.040966548,-0.033625353,
-0.027684781,
