// Neural Network File Format by Kyle Julian, Stanford 2016
2,1,1,100,
1,100,1,
0,
0.0,
0.0,
0.0,0.0,
0.0,0.0,
0.057983004,
0.589030921,
-0.823045135,
-0.735939026,
-0.385154366,
0.322853446,
-0.019813180,
0.892233431,
-0.088744044,
0.330998600,
-0.302213073,
-0.234324291,
-0.955348492,
-0.704016864,
-0.382198721,
0.037043571,
0.361519068,
0.555946469,
-0.756169379,
-0.478758454,
0.417687446,
0.882763147,
-0.205800176,
0.825708985,
-0.161183357,
0.105814099,
0.864400983,
-0.927670360,
-0.629537940,
-0.253165245,
-0.389799953,
0.916735053,
-0.648179650,
-0.460332870,
-0.653388441,
-0.936560988,
-0.603437662,
0.817199290,
0.401245892,
0.541668117,
0.106843896,
-0.464944243,
0.126610696,
-0.933694720,
-0.722566247,
-0.515529990,
0.683170497,
0.545220613,
-0.443495035,
-0.036082387,
0.639560699,
1.141555429,
0.446315378,
0.090303645,
0.627540886,
-0.588802338,
0.141084448,
-0.775305510,
-0.693086147,
-0.516583562,
0.413560867,
0.458812296,
-0.592352509,
0.302107096,
0.611781776,
-0.248542503,
0.038181543,
0.288374484,
0.620376587,
1.023788810,
-0.819243371,
-0.366469741,
0.347997814,
0.890034616,
0.870207310,
0.838078320,
0.267895699,
-0.869582653,
0.100640856,
-0.625605345,
-0.779985666,
0.847996831,
0.716275632,
-0.979478061,
0.247496873,
-0.118845284,
-0.164561152,
-0.457756877,
0.384556174,
-0.652202368,
0.323154628,
0.561686516,
0.948410809,
0.458580762,
-0.989735246,
-0.648696899,
0.499315023,
0.165217564,
-0.780084014,
-0.575819492,
0.949552774,
0.691312313,
-0.436025143,
-0.251684785,
-0.952598095,
-0.001020615,
-0.753058910,
-0.660825729,
-0.055099607,
0.161528781,
-0.409530282,
0.553918362,
-0.608539104,
0.882634819,
0.665309072,
-0.843282938,
-0.290886372,
0.010994466,
0.110605381,
0.289028108,
0.358619690,
0.077926584,
-0.487928748,
0.479591608,
-0.959248900,
-0.592706680,
-0.285405099,
-0.487113357,
-0.349833369,
-0.819621682,
-0.212715149,
0.231515557,
-0.651465774,
-0.051319361,
0.734158278,
-0.102800250,
-0.000614302,
-0.124326907,
0.165183544,
0.651042044,
0.963179767,
0.653708458,
0.913904846,
-0.072321653,
-0.898321509,
-0.474077225,
0.698638141,
-0.028320698,
-0.497046351,
-0.766311765,
-0.935852051,
-0.672824562,
-0.176189229,
0.507041931,
0.513522625,
-0.964431882,
0.600612640,
-0.782509446,
-0.211410284,
-0.405472636,
-0.226849645,
-0.152628496,
-0.897349954,
-0.863437891,
-0.093109481,
0.181683764,
-0.454274893,
0.391921341,
-0.900058389,
-0.009145235,
0.858019412,
-0.407891989,
0.879555643,
0.375748634,
-0.902460933,
0.608524919,
-0.027248072,
-0.446406841,
0.757389963,
-0.808095217,
0.309280276,
-0.245413139,
0.689564586,
0.275839150,
0.493663847,
0.371671528,
-0.240474701,
-0.210305452,
-0.824081421,
0.544512510,
0.768095851,
0.699909031,
-0.394100010,
0.032494396,
-0.704934120,
-0.550484180,
-0.582705498,
0.317060858,
-0.595913172,
-0.021817207,
0.025006287,0.094711758,-0.075592004,-0.068651222,-0.058066156,0.120375730,-0.035946500,0.114877813,0.036160756,0.048656810,-0.000744402,-0.007334950,0.012546635,-0.027709959,0.003213171,0.012759305,-0.090368859,-0.007010267,-0.092208035,-0.177193746,0.023996793,0.144229159,0.036123704,0.037793107,-0.086660996,0.049537789,-0.019576451,-0.028386427,-0.033551633,-0.014808739,0.001093829,0.123170778,0.012483883,0.089569286,0.040106677,-0.063221395,0.018530598,-0.022847209,-0.005513917,0.059435938,0.054811921,0.067871861,-0.008921766,0.000160086,0.051482357,-0.096709214,0.103496566,-0.036234677,0.001378250,-0.017001677,-0.052667297,0.086285882,0.153025344,-0.005096721,-0.026409322,-0.036983885,-0.074272044,0.045139398,-0.048026372,-0.066734031,-0.003837681,0.120859042,0.052957367,0.076752186,0.090553872,-0.252987176,-0.027944816,0.058491353,0.082203470,0.077583760,-0.063235916,-0.047007740,-0.067975037,0.058947723,-0.056118250,-0.055370070,0.165224731,-0.064941123,0.010827022,0.028649354,-0.191065073,-0.019562108,-0.048913278,-0.059070632,0.042932458,0.092767596,-0.033524062,0.029455543,-0.022867620,-0.049935210,-0.034044154,0.063637584,0.109545164,0.042766515,-0.022490216,-0.061642982,0.069154479,-0.046184022,0.040966548,-0.033625353,
-0.027743740,
