// Neural Network File Format by Kyle Julian, Stanford 2016
2,1,1,100,
1,100,1,
0,
0.0,
0.0,
0.0,0.0,
0.0,0.0,
0.057982460,
0.589030266,
-0.823045135,
-0.735939026,
-0.385154366,
0.322853088,
-0.019813180,
0.892227232,
-0.088744044,
0.330998182,
-0.302213073,
-0.234323829,
-0.955348492,
-0.704016149,
-0.382199347,
0.037043571,
0.361557424,
0.555946767,
-0.756178021,
-0.478742123,
0.417687029,
0.882762492,
-0.205800176,
0.825708330,
-0.161183357,
0.105814099,
0.864382327,
-0.927670360,
-0.629537940,
-0.253165245,
-0.389799953,
0.916734397,
-0.648179650,
-0.460332870,
-0.653389037,
-0.936560988,
-0.603437662,
0.817198634,
0.401246339,
0.541667461,
0.106843360,
-0.464944661,
0.126611158,
-0.933694720,
-0.722566247,
-0.515529990,
0.683169842,
0.545230985,
-0.443495035,
-0.036082387,
0.639560699,
1.141556382,
0.446317673,
0.090304039,
0.627541482,
-0.588802338,
0.141084969,
-0.775305510,
-0.693086147,
-0.516583562,
0.413678527,
0.458821744,
-0.592352509,
0.302107096,
0.611782670,
-0.248530626,
0.038181543,
0.288374066,
0.620376587,
1.023788810,
-0.819242716,
-0.366469741,
0.347998232,
0.890033960,
0.870207310,
0.838078916,
0.267905384,
-0.869582653,
0.100640297,
-0.625605345,
-0.779939651,
0.848002315,
0.716276228,
-0.979454696,
0.247496307,
-0.118845813,
-0.164561152,
-0.457756877,
0.384556174,
-0.652147710,
0.323155075,
0.561685860,
0.948416293,
0.458580345,
-0.989735246,
-0.648696899,
0.499315023,
0.165218100,
-0.780084014,
-0.575819492,
0.949553132,
0.691312671,
-0.436025143,
-0.251684785,
-0.952598095,
-0.001010469,
-0.753058910,
-0.660847604,
-0.055099607,
0.161528841,
-0.409530282,
0.553918004,
-0.608539104,
0.882634461,
0.665309250,
-0.843282938,
-0.290867984,
0.010994341,
0.110601977,
0.289037168,
0.358619720,
0.077926643,
-0.487928748,
0.479591668,
-0.959248900,
-0.592706680,
-0.285442919,
-0.487113357,
-0.349833369,
-0.819621682,
-0.212715149,
0.231515631,
-0.651465774,
-0.051319361,
0.734158576,
-0.102800250,
-0.000614302,
-0.124331638,
0.165183380,
0.651042402,
0.963180125,
0.653708756,
0.913904488,
-0.072321653,
-0.898321509,
-0.474077225,
0.698638499,
-0.028286377,
-0.497046351,
-0.766311765,
-0.935852051,
-0.672819018,
-0.176194414,
0.507041693,
0.513522267,
-0.964431882,
0.600612283,
-0.782509446,
-0.211410284,
-0.405472636,
-0.226682097,
-0.152609527,
-0.897349954,
-0.863437891,
-0.093104139,
0.181682855,
-0.454274893,
0.391921371,
-0.900058389,
-0.009129760,
0.858019054,
-0.407891989,
0.879555285,
0.375748694,
-0.902460933,
0.608524501,
-0.027240220,
-0.446406841,
0.757390201,
-0.808095217,
0.309283137,
-0.245409787,
0.689564168,
0.275882006,
0.493663877,
0.371671587,
-0.240474701,
-0.210305452,
-0.824081421,
0.544539094,
0.768095493,
0.699909389,
-0.394096106,
0.032494448,
-0.704934120,
-0.550484180,
-0.582705498,
0.317060798,
-0.595913172,
-0.021817207,
0.025006341,0.094711661,-0.075592004,-0.068651222,-0.058066156,0.120375194,-0.035946500,0.114960417,0.036160756,0.048656572,-0.000744402,-0.007334699,0.012546635,-0.027709432,0.003213505,0.012759305,-0.090551957,-0.007010754,-0.092210278,-0.177194640,0.023996638,0.144228667,0.036123704,0.037792902,-0.086660996,0.049537789,-0.019575711,-0.028386427,-0.033551633,-0.014808739,0.001093829,0.123170458,0.012483883,0.089569286,0.040107295,-0.063221395,0.018530598,-0.022847902,-0.005514175,0.059435818,0.054811958,0.067872308,-0.008921733,0.000160086,0.051482357,-0.096709214,0.103496455,-0.036242649,0.001378250,-0.017001677,-0.052667297,0.086274959,0.153036729,-0.005096698,-0.026409484,-0.036983885,-0.074272044,0.045139398,-0.048026372,-0.066734031,-0.003825862,0.120859586,0.052957367,0.076752186,0.090553172,-0.252971500,-0.027944816,0.058491252,0.082203470,0.077583164,-0.063235193,-0.047007740,-0.067975059,0.058947466,-0.056118250,-0.055370245,0.165234894,-0.064941123,0.010827056,0.028649354,-0.191021636,-0.019569449,-0.048913423,-0.059131846,0.042932406,0.092767805,-0.033524062,0.029455543,-0.022867620,-0.049929202,-0.034044191,0.063637488,0.109552406,0.042766061,-0.022490216,-0.061642982,0.069154479,-0.046184070,0.040966548,-0.033625353,
-0.027743660,
