// Neural Network File Format by Kyle Julian, Stanford 2016
2,1,1,100,
1,100,1,
0,
0.0,
0.0,
0.0,0.0,
0.0,0.0,
0.057986371,
0.589034200,
-0.823045135,
-0.735939026,
-0.385154366,
0.322857261,
-0.019813180,
0.892221749,
-0.088744044,
0.331002206,
-0.302213073,
-0.234327704,
-0.955348492,
-0.704020023,
-0.382195652,
0.037043571,
0.361629397,
0.555943251,
-0.756196737,
-0.478724420,
0.417691022,
0.882766426,
-0.205800176,
0.825712264,
-0.161183357,
0.105814099,
0.864326417,
-0.927670360,
-0.629537940,
-0.253165245,
-0.389799953,
0.916738331,
-0.648179650,
-0.460332870,
-0.653385282,
-0.936560988,
-0.603437662,
0.817192256,
0.401242703,
0.541671395,
0.106847294,
-0.464940637,
0.126607329,
-0.933694720,
-0.722566247,
-0.515529990,
0.683173776,
0.545252383,
-0.443495035,
-0.036082387,
0.639560699,
1.141559243,
0.446327835,
0.090300344,
0.627537727,
-0.588802338,
0.141081035,
-0.775305510,
-0.693086147,
-0.516583562,
0.413968533,
0.458853573,
-0.592352509,
0.302107096,
0.611789405,
-0.248509407,
0.038181543,
0.288378060,
0.620376587,
1.023792982,
-0.819246650,
-0.366469741,
0.347994208,
0.890037894,
0.870207310,
0.838075042,
0.267936021,
-0.869582653,
0.100644201,
-0.625605345,
-0.779834926,
0.848011672,
0.716272414,
-0.979470134,
0.247500256,
-0.118841894,
-0.164561152,
-0.457756877,
0.384556174,
-0.652035296,
0.323151052,
0.561689794,
0.948435247,
0.458584368,
-0.989735246,
-0.648696899,
0.499315023,
0.165214181,
-0.780084014,
-0.575819492,
0.949558318,
0.691317916,
-0.436025143,
-0.251684785,
-0.952598095,
-0.000979585,
-0.753058910,
-0.660892129,
-0.055099607,
0.161533624,
-0.409530282,
0.553912997,
-0.608539104,
0.882629395,
0.665313840,
-0.843282938,
-0.290858716,
0.010989991,
0.110586159,
0.289048731,
0.358624458,
0.077931471,
-0.487928748,
0.479596376,
-0.959248900,
-0.592706680,
-0.285550386,
-0.487113357,
-0.349833369,
-0.819621682,
-0.212715149,
0.231520414,
-0.651465774,
-0.051319361,
0.734163642,
-0.102800250,
-0.000614302,
-0.124346226,
0.165179014,
0.651047647,
0.963185310,
0.653713822,
0.913899541,
-0.072321653,
-0.898321509,
-0.474077225,
0.698643744,
-0.028215853,
-0.497046351,
-0.766311765,
-0.935852051,
-0.672805190,
-0.176207095,
0.507036865,
0.513517201,
-0.964431882,
0.600607216,
-0.782509446,
-0.211410284,
-0.405472636,
-0.226268277,
-0.152552962,
-0.897349954,
-0.863437891,
-0.093088150,
0.181674793,
-0.454274893,
0.391926110,
-0.900058389,
-0.009084394,
0.858013809,
-0.407891989,
0.879550219,
0.375753403,
-0.902460933,
0.608519435,
-0.027222971,
-0.446406841,
0.757395208,
-0.808095217,
0.309277534,
-0.245405063,
0.689559102,
0.275952190,
0.493668616,
0.371676296,
-0.240474701,
-0.210305452,
-0.824081421,
0.544591010,
0.768090427,
0.699914634,
-0.394082516,
0.032499243,
-0.704934120,
-0.550484180,
-0.582705498,
0.317056030,
-0.595913172,
-0.021817207,
0.025011109,0.094716169,-0.075592004,-0.068651222,-0.058066156,0.120379090,-0.035946500,0.115169771,0.036160756,0.048660908,-0.000744402,-0.007329697,0.012546635,-0.027703973,0.003218577,0.012759305,-0.091081172,-0.007006866,-0.092198148,-0.177199200,0.024001084,0.144232735,0.036123704,0.037797268,-0.086660996,0.049537789,-0.019566635,-0.028386427,-0.033551633,-0.014808739,0.001093829,0.123174667,0.012483883,0.089569286,0.040112898,-0.063221395,0.018530598,-0.022843912,-0.005509944,0.059440352,0.054816701,0.067877680,-0.008917009,0.000160086,0.051482357,-0.096709214,0.103500940,-0.036259342,0.001378250,-0.017001677,-0.052667297,0.086242758,0.153074771,-0.005092034,-0.026405051,-0.036983885,-0.074267305,0.045139398,-0.048026372,-0.066734031,-0.003796251,0.120868325,0.052957367,0.076752186,0.090557165,-0.252929926,-0.027944816,0.058495801,0.082203470,0.077586897,-0.063229442,-0.047007740,-0.067970358,0.058951776,-0.056118250,-0.055365816,0.165268421,-0.064941123,0.010831781,0.028649354,-0.190896779,-0.019582571,-0.048908930,-0.059285827,0.042937011,0.092772774,-0.033524062,0.029455543,-0.022867620,-0.049910948,-0.034039564,0.063642018,0.109579369,0.042770069,-0.022490216,-0.061642982,0.069154479,-0.046179477,0.040966548,-0.033625353,
-0.027738858,
