// Neural Network File Format by Kyle Julian, Stanford 2016
2,1,1,100,
1,100,1,
0,
0.0,
0.0,
0.0,0.0,
0.0,0.0,
0.057980467,
0.589121997,
-0.823045135,
-0.735939026,
-0.385154366,
0.322952062,
-0.019813180,
0.892302394,
-0.088744044,
0.331058115,
-0.302213073,
-0.234866887,
-0.955348492,
-0.704255521,
-0.382998556,
0.037043571,
0.361388415,
0.555439770,
-0.756401122,
-0.478886962,
0.417679965,
0.882865608,
-0.205800176,
0.825749457,
-0.161183357,
0.105814099,
0.864042759,
-0.927670360,
-0.629537940,
-0.253165245,
-0.389799953,
0.916833818,
-0.648179650,
-0.460332870,
-0.653343558,
-0.936560988,
-0.603437662,
0.816937506,
0.400631011,
0.541739225,
0.106910504,
-0.464866459,
0.126143098,
-0.933694720,
-0.722566247,
-0.515529990,
0.683264315,
0.545049608,
-0.443495035,
-0.036082387,
0.639560699,
1.141641378,
0.446426272,
0.089608267,
0.627298951,
-0.588802338,
0.140917450,
-0.775305510,
-0.693086147,
-0.516583562,
0.413451225,
0.458950728,
-0.592352509,
0.302107096,
0.611875117,
-0.248697028,
0.038181543,
0.288444906,
0.620376587,
1.023873687,
-0.819418371,
-0.366469741,
0.347826660,
0.890105188,
0.870207310,
0.837897420,
0.268041253,
-0.869582653,
0.100473352,
-0.625605345,
-0.779954255,
0.847734928,
0.716087103,
-0.979666054,
0.247547388,
-0.118755117,
-0.164561152,
-0.457756877,
0.384556174,
-0.652220845,
0.322937727,
0.561761022,
0.948531926,
0.458631396,
-0.989735246,
-0.648696899,
0.499315023,
0.165025339,
-0.780084014,
-0.575819492,
0.949544609,
0.691397786,
-0.436025143,
-0.251684785,
-0.952598095,
-0.000895798,
-0.753058910,
-0.660821736,
-0.055099607,
0.161581695,
-0.409530282,
0.553379893,
-0.608539104,
0.882401884,
0.664492667,
-0.843282938,
-0.291122705,
0.010478146,
0.110422954,
0.288910508,
0.358605593,
0.078022875,
-0.487928748,
0.479625612,
-0.959248900,
-0.592706680,
-0.285842389,
-0.487113357,
-0.349833369,
-0.819621682,
-0.212715149,
0.231608093,
-0.651465774,
-0.051319361,
0.734197736,
-0.102800250,
-0.000614302,
-0.124601021,
0.164556175,
0.651107490,
0.963240683,
0.653780162,
0.913439929,
-0.072321653,
-0.898321509,
-0.474077225,
0.698726356,
-0.028411437,
-0.497046351,
-0.766311765,
-0.935852051,
-0.672724426,
-0.176120386,
0.506341875,
0.513285398,
-0.964431882,
0.600451231,
-0.782509446,
-0.211410284,
-0.405472636,
-0.226754725,
-0.152459651,
-0.897349954,
-0.863437891,
-0.093009777,
0.181520283,
-0.454274893,
0.391985118,
-0.900058389,
-0.009005439,
0.857850194,
-0.407891989,
0.879390299,
0.375812948,
-0.902460933,
0.608349085,
-0.027136404,
-0.446406841,
0.757216513,
-0.808095217,
0.309152722,
-0.245683193,
0.689381361,
0.275795043,
0.493707925,
0.371755242,
-0.240474701,
-0.210305452,
-0.824081421,
0.544414222,
0.767884552,
0.699978113,
-0.393990606,
0.032538403,
-0.704934120,
-0.550484180,
-0.582705498,
0.316874683,
-0.595913172,
-0.021817207,
0.025119614,0.094827153,-0.075592004,-0.068651222,-0.058066156,0.120472297,-0.035946500,0.115283459,0.036160756,0.048763886,-0.000744402,-0.007208772,0.012546635,-0.027587079,0.003315832,0.012759305,-0.090889484,-0.006873863,-0.092053339,-0.177075312,0.024108861,0.144344017,0.036123704,0.037909068,-0.086660996,0.049537789,-0.019424275,-0.028386427,-0.033551633,-0.014808739,0.001093829,0.123286664,0.012483883,0.089569286,0.040205814,-0.063221395,0.018530598,-0.022708006,-0.005382513,0.059550945,0.054925699,0.067973770,-0.008798662,0.000160086,0.051482357,-0.096709214,0.103612445,-0.036124006,0.001378250,-0.017001677,-0.052667297,0.086341739,0.153170094,-0.004971064,-0.026283052,-0.036983885,-0.074145883,0.045139398,-0.048026372,-0.066734031,-0.003631571,0.120962813,0.052957367,0.076752186,0.090662330,-0.252773494,-0.027944816,0.058602396,0.082203470,0.077699289,-0.063112795,-0.047007740,-0.067851044,0.059063811,-0.056118250,-0.055244558,0.165358067,-0.064941123,0.010939212,0.028649354,-0.190756500,-0.019445056,-0.048788264,-0.059198216,0.043044146,0.092868455,-0.033524062,0.029455543,-0.022867620,-0.049790110,-0.033919681,0.063752860,0.109692670,0.042872716,-0.022490216,-0.061642982,0.069154479,-0.046052627,0.040966548,-0.033625353,
-0.027625438,
