// Neural Network File Format by Kyle Julian, Stanford 2016
2,1,1,100,
1,100,1,
0,
0.0,
0.0,
0.0,0.0,
0.0,0.0,
0.057699163,
0.588986754,
-0.823045135,
-0.735939026,
-0.385154366,
0.322827935,
-0.019813180,
0.892213404,
-0.088744044,
0.330873370,
-0.302213073,
-0.235443264,
-0.955348492,
-0.704351425,
-0.384518683,
0.037043571,
0.361434728,
0.554888487,
-0.756398857,
-0.478813201,
0.417390585,
0.882748246,
-0.205800176,
0.825534940,
-0.161183357,
0.105814099,
0.863869250,
-0.927670360,
-0.629537940,
-0.253165245,
-0.389799953,
0.916710496,
-0.648179650,
-0.460332870,
-0.653548300,
-0.936560988,
-0.603437662,
0.816803873,
0.399909079,
0.541572869,
0.106737003,
-0.465021908,
0.125682205,
-0.933694720,
-0.722566247,
-0.515529990,
0.683133483,
0.545001626,
-0.443495035,
-0.036082387,
0.639560699,
1.141517878,
0.446310371,
0.088777468,
0.627195120,
-0.588802338,
0.140933380,
-0.775305510,
-0.693086147,
-0.516583562,
0.412774593,
0.458822578,
-0.592352509,
0.302107096,
0.611737370,
-0.248648003,
0.038181543,
0.288277090,
0.620376587,
1.023726940,
-0.819413900,
-0.366469741,
0.347836405,
0.889937878,
0.870207310,
0.837890506,
0.267932564,
-0.869582653,
0.099935196,
-0.625605345,
-0.779857635,
0.847571254,
0.716068447,
-0.979752779,
0.247348890,
-0.118891269,
-0.164561152,
-0.457756877,
0.384556174,
-0.652294219,
0.322875142,
0.561600029,
0.948411286,
0.458432764,
-0.989735246,
-0.648696899,
0.499315023,
0.165000975,
-0.780084014,
-0.575819492,
0.949253738,
0.691253185,
-0.436025143,
-0.251684785,
-0.952598095,
-0.001034318,
-0.753058910,
-0.660900295,
-0.055099607,
0.161387622,
-0.409530282,
0.552810967,
-0.608539104,
0.882315338,
0.662945330,
-0.843282938,
-0.291107744,
0.009919558,
0.110492162,
0.288990945,
0.358307004,
0.077896193,
-0.487928748,
0.479401857,
-0.959248900,
-0.592706680,
-0.286019951,
-0.487113357,
-0.349833369,
-0.819621682,
-0.212715149,
0.231475502,
-0.651465774,
-0.051319361,
0.733983278,
-0.102800250,
-0.000614302,
-0.124741875,
0.163822874,
0.650931537,
0.963057756,
0.653615177,
0.912985325,
-0.072321653,
-0.898321509,
-0.474077225,
0.698585987,
-0.028445506,
-0.497046351,
-0.766311765,
-0.935852051,
-0.672843099,
-0.176250264,
0.505508423,
0.513190329,
-0.964431882,
0.600476503,
-0.782509446,
-0.211410284,
-0.405472636,
-0.227388456,
-0.152600616,
-0.897349954,
-0.863437891,
-0.093151323,
0.181590840,
-0.454274893,
0.391808003,
-0.900058389,
-0.009153053,
0.857863963,
-0.407891989,
0.879409254,
0.375636369,
-0.902460933,
0.608351588,
-0.027261717,
-0.446406841,
0.756668806,
-0.808095217,
0.309230417,
-0.245843947,
0.689372241,
0.275790155,
0.493500084,
0.371609688,
-0.240474701,
-0.210305452,
-0.824081421,
0.544381022,
0.767831087,
0.699807823,
-0.394116104,
0.032330468,
-0.704934120,
-0.550484180,
-0.582705498,
0.316859514,
-0.595913172,
-0.021817207,
0.025020055,0.094730370,-0.075592004,-0.068651222,-0.058066156,0.120345756,-0.035946500,0.115099989,0.036160756,0.048654389,-0.000744402,-0.007285093,0.012546635,-0.027670747,0.003205807,0.012759305,-0.090953320,-0.006934073,-0.092146382,-0.177143306,0.024007484,0.144246191,0.036123704,0.037813239,-0.086660996,0.049537789,-0.019472372,-0.028386427,-0.033551633,-0.014808739,0.001093829,0.123190381,0.012483883,0.089569286,0.040084928,-0.063221395,0.018530598,-0.022768455,-0.005450277,0.059453618,0.054826584,0.067856684,-0.008882170,0.000160086,0.051482357,-0.096709214,0.103516363,-0.036183212,0.001378250,-0.017001677,-0.052667297,0.086225837,0.153044328,-0.005048401,-0.026362447,-0.036983885,-0.074225605,0.045139398,-0.048026372,-0.066734031,-0.003640019,0.120835893,0.052957367,0.076752186,0.090551965,-0.252807021,-0.027944816,0.058498990,0.082203470,0.077602573,-0.063196220,-0.047007740,-0.067934357,0.058968022,-0.056118250,-0.055325486,0.165222168,-0.064941123,0.010838680,0.028649354,-0.190800712,-0.019501494,-0.048869904,-0.059317164,0.042941868,0.092749402,-0.033524062,0.029455543,-0.022867620,-0.049874853,-0.034001894,0.063655935,0.109594673,0.042761918,-0.022490216,-0.061642982,0.069154479,-0.046123765,0.040966548,-0.033625353,
-0.027717600,
