// Neural Network File Format by Kyle Julian, Stanford 2016
2,1,1,100,
1,100,1,
0,
0.0,
0.0,
0.0,0.0,
0.0,0.0,
0.061058326,
0.589427044,
-0.823045135,
-0.735939026,
-0.385154366,
0.322895317,
-0.019813180,
0.903482681,
-0.088744044,
0.331955509,
-0.302213073,
-0.222015118,
-0.955348492,
-0.699749686,
-0.358497423,
0.037043571,
0.338673804,
0.564287617,
-0.717827404,
-0.472251554,
0.420030358,
0.882751078,
-0.205800176,
0.826957196,
-0.161183357,
0.105814099,
0.858571538,
-0.927670360,
-0.629537940,
-0.253165245,
-0.389799953,
0.916829060,
-0.648179650,
-0.460332870,
-0.651512218,
-0.936560988,
-0.603298575,
0.820435771,
0.411927569,
0.542501601,
0.107966055,
-0.464029651,
0.136104507,
-0.933694720,
-0.722566247,
-0.515529990,
0.683488063,
0.546606826,
-0.443495035,
-0.036082387,
0.639560699,
1.134619490,
0.455468623,
0.104214141,
0.631285737,
-0.588802338,
0.142830041,
-0.775305510,
-0.693086147,
-0.516583562,
0.411570643,
0.472315842,
-0.592352509,
0.302107096,
0.613475419,
-0.235718964,
0.038181543,
0.289301159,
0.620376587,
1.023769898,
-0.816915246,
-0.366469741,
0.349872393,
0.890785526,
0.870207310,
0.840205059,
0.266373836,
-0.869582653,
0.108835487,
-0.625605345,
-0.665353303,
0.847384164,
0.718616611,
-1.015009131,
0.248963297,
-0.118345152,
-0.164561152,
-0.457756877,
0.384556174,
-0.674044895,
0.326262010,
0.562463382,
0.906680137,
0.458702613,
-0.989735246,
-0.648696899,
0.499315023,
0.167647401,
-0.780084014,
-0.575819492,
0.953764000,
0.692519328,
-0.436025143,
-0.251684785,
-0.952598095,
0.000131255,
-0.753058910,
-0.643435344,
-0.055099607,
0.163897641,
-0.409530282,
0.566156473,
-0.608539104,
0.885983809,
0.691278362,
-0.843282938,
-0.307169452,
0.020095578,
0.107201762,
0.298156330,
0.363264797,
0.078781719,
-0.487928748,
0.482669387,
-0.959248900,
-0.592706680,
-0.304345929,
-0.487113357,
-0.349833369,
-0.819621682,
-0.212715149,
0.232487951,
-0.651465774,
-0.051319361,
0.736619118,
-0.102800250,
-0.000424475,
-0.121011010,
0.176793758,
0.652905111,
0.965149502,
0.655290623,
0.923543474,
-0.072321653,
-0.898321509,
-0.474077225,
0.699753106,
-0.024209823,
-0.497046351,
-0.766311765,
-0.935852051,
-0.676555015,
-0.142609751,
0.521694381,
0.516983755,
-0.964431882,
0.601797050,
-0.782509446,
-0.211410284,
-0.405472636,
-0.233404144,
-0.113662058,
-0.897349954,
-0.863437891,
-0.094336620,
0.177984763,
-0.454274893,
0.393823668,
-0.900058389,
-0.009417976,
0.859406198,
-0.407891989,
0.880866085,
0.377714566,
-0.902460933,
0.610162421,
-0.034919006,
-0.446406841,
0.766749530,
-0.808095217,
0.343636232,
-0.252141515,
0.691432337,
0.252569913,
0.496210191,
0.372847217,
-0.240474701,
-0.210305452,
-0.824081421,
0.509012267,
0.770807929,
0.701653499,
-0.480046736,
0.035577177,
-0.704934120,
-0.550484180,
-0.582705498,
0.319082069,
-0.595913172,
-0.021817207,
0.025246935,0.094768191,-0.075592004,-0.068651222,-0.058066156,0.120611374,-0.035946500,0.092047426,0.036160756,0.048858794,-0.000744402,-0.007418817,0.012546635,-0.027529060,0.003815409,0.012759305,-0.057341484,-0.007770808,-0.051708915,-0.184924853,0.024113563,0.144029583,0.036123704,0.037751550,-0.086660996,0.049537789,-0.024961961,-0.028386427,-0.033551633,-0.014808739,0.001093829,0.123038513,0.012483883,0.089569286,0.041124398,-0.063221395,0.019308164,-0.022454328,-0.005996348,0.059505916,0.055031818,0.068717531,-0.009000096,0.000160086,0.051482357,-0.096709214,0.103525829,-0.034929270,0.001378250,-0.017001677,-0.052667297,0.065133525,0.142453281,-0.005258994,-0.026717362,-0.036983885,-0.074463920,0.045139398,-0.048026372,-0.066734031,-0.010843097,0.120639999,0.052957367,0.076752186,0.092319565,-0.249511763,-0.027944816,0.058694450,0.082203470,0.077164422,-0.062974197,-0.047007740,-0.068121457,0.058866599,-0.056118250,-0.055670105,0.165318030,-0.064941123,0.011066241,0.028649354,-0.209439588,-0.020099699,-0.049169503,-0.048201051,0.043147429,0.093506340,-0.033524062,0.029455543,-0.022867620,-0.045206689,-0.034211620,0.063702480,0.153083460,0.042798201,-0.022490216,-0.061642982,0.069154479,-0.046578135,0.040966548,-0.033625353,
-0.027642119,
