// Neural Network File Format by Kyle Julian, Stanford 2016
2,1,1,100,
1,100,1,
0,
0.0,
0.0,
0.0,0.0,
0.0,0.0,
0.060135242,
0.589234224,
-0.823045135,
-0.735939026,
-0.385154366,
0.322753256,
-0.019813180,
0.903314289,
-0.088744044,
0.331503708,
-0.302213073,
-0.224653366,
-0.955348492,
-0.700704583,
-0.362744462,
0.037043571,
0.339346428,
0.563161381,
-0.716322196,
-0.472552612,
0.419047810,
0.882646438,
-0.205800176,
0.826353850,
-0.161183357,
0.105814099,
0.855002841,
-0.927670360,
-0.629537940,
-0.253165245,
-0.389799953,
0.916695398,
-0.648179650,
-0.460332870,
-0.651956429,
-0.936560988,
-0.603298575,
0.819597809,
0.410465783,
0.542151894,
0.107587120,
-0.464302184,
0.134345145,
-0.933694720,
-0.722566247,
-0.515529990,
0.683317205,
0.546217152,
-0.443495035,
-0.036082387,
0.639560699,
1.134561774,
0.454691792,
0.102005075,
0.630540109,
-0.588802338,
0.142479555,
-0.775305510,
-0.693086147,
-0.516583562,
0.410883712,
0.472175697,
-0.592352509,
0.302107096,
0.612779404,
-0.235977110,
0.038181543,
0.288944461,
0.620376587,
1.023512112,
-0.817364783,
-0.366469741,
0.349497578,
0.890428378,
0.870207310,
0.839778629,
0.266331022,
-0.869582653,
0.106703653,
-0.625605345,
-0.664691748,
0.846585130,
0.718142663,
-1.015688687,
0.248451329,
-0.118539468,
-0.164561152,
-0.457756877,
0.384556174,
-0.674401862,
0.325612400,
0.562141985,
0.906664662,
0.458172705,
-0.989735246,
-0.648696899,
0.499315023,
0.167146821,
-0.780084014,
-0.575819492,
0.952776681,
0.692273767,
-0.436025143,
-0.251684785,
-0.952598095,
-0.000071134,
-0.753058910,
-0.643745025,
-0.055099607,
0.163392886,
-0.409530282,
0.563382712,
-0.608539104,
0.885063403,
0.686217902,
-0.843282938,
-0.307882629,
0.018794295,
0.108282956,
0.298147995,
0.362229522,
0.078626827,
-0.487928748,
0.482013463,
-0.959248900,
-0.592706680,
-0.311581821,
-0.487113357,
-0.349833369,
-0.819621682,
-0.212715149,
0.232303339,
-0.651465774,
-0.051319361,
0.736093751,
-0.102800250,
-0.000424475,
-0.122415706,
0.175100683,
0.652500620,
0.964712975,
0.654957381,
0.921623321,
-0.072321653,
-0.898321509,
-0.474077225,
0.699530002,
-0.020890789,
-0.497046351,
-0.766311765,
-0.935852051,
-0.676816987,
-0.143452827,
0.519192681,
0.516218489,
-0.964431882,
0.601476552,
-0.782509446,
-0.211410284,
-0.405472636,
-0.233978527,
-0.113743351,
-0.897349954,
-0.863437891,
-0.096479872,
0.178145019,
-0.454274893,
0.393411882,
-0.900058389,
-0.009363120,
0.858996978,
-0.407891989,
0.880518979,
0.377304541,
-0.902460933,
0.609755934,
-0.035033281,
-0.446406841,
0.764534566,
-0.808095217,
0.343731110,
-0.253533892,
0.690974772,
0.252345950,
0.495641248,
0.372598320,
-0.240474701,
-0.210305452,
-0.824081421,
0.508910020,
0.770161519,
0.701277510,
-0.480183568,
0.034998081,
-0.704934120,
-0.550484180,
-0.582705498,
0.318597981,
-0.595913172,
-0.021817207,
0.025222320,0.094759046,-0.075592004,-0.068651222,-0.058066156,0.120453843,-0.035946500,0.092503854,0.036160756,0.048783232,-0.000744402,-0.007349076,0.012546635,-0.027475404,0.003753039,0.012759305,-0.064677634,-0.007671285,-0.052088751,-0.185122106,0.024078590,0.144015781,0.036123704,0.037745361,-0.086660996,0.049537789,-0.025942211,-0.028386427,-0.033551633,-0.014808739,0.001093829,0.123032133,0.012483883,0.089569286,0.041006290,-0.063221395,0.019308164,-0.022335363,-0.005921270,0.059493355,0.055010630,0.068611085,-0.008957945,0.000160086,0.051482357,-0.096709214,0.103520205,-0.034614235,0.001378250,-0.017001677,-0.052667297,0.065872474,0.141648360,-0.005208150,-0.026650699,-0.036983885,-0.074394193,0.045139398,-0.048026372,-0.066734031,-0.010142825,0.120455705,0.052957367,0.076752186,0.092239472,-0.249791726,-0.027944816,0.058651479,0.082203470,0.077150321,-0.062919258,-0.047007740,-0.068067729,0.058861351,-0.056118250,-0.055606068,0.165116226,-0.064941123,0.011036748,0.028649354,-0.208836403,-0.020484916,-0.049109042,-0.048750026,0.043109508,0.093388309,-0.033524062,0.029455543,-0.022867620,-0.045737640,-0.034155209,0.063692058,0.153291845,0.042714459,-0.022490216,-0.061642982,0.069154479,-0.046473702,0.040966548,-0.033625353,
-0.027628929,
