// Neural Network File Format by Kyle Julian, Stanford 2016
2,1,1,100,
1,100,1,
0,
0.0,
0.0,
0.0,0.0,
0.0,0.0,
0.057778861,
0.588811517,
-0.823045135,
-0.735939026,
-0.385154366,
0.322502285,
-0.019813180,
0.896921992,
-0.088744044,
0.330511898,
-0.302213073,
-0.232753888,
-0.955348492,
-0.703206897,
-0.380864471,
0.037043571,
0.360027432,
0.557120025,
-0.748800874,
-0.463948697,
0.416828185,
0.882463574,
-0.205800176,
0.825045466,
-0.161183357,
0.105814099,
0.866240203,
-0.927670360,
-0.629537940,
-0.253165245,
-0.389799953,
0.916436255,
-0.648179650,
-0.460332870,
-0.653317273,
-0.936560988,
-0.603255808,
0.816177428,
0.402806967,
0.541331172,
0.106649138,
-0.465026885,
0.127816156,
-0.933694720,
-0.722566247,
-0.515529990,
0.682945013,
0.543466628,
-0.443495035,
-0.036082387,
0.639560699,
1.110657334,
0.447810411,
0.092307195,
0.628004551,
-0.588802338,
0.141383111,
-0.775305510,
-0.693086147,
-0.516583562,
0.408093184,
0.476973027,
-0.592352509,
0.302107096,
0.614313364,
-0.239548936,
0.038181543,
0.288103759,
0.620376587,
1.023013115,
-0.818628848,
-0.366469741,
0.348323882,
0.889633238,
0.870207310,
0.838409305,
0.269637078,
-0.869582653,
0.100717939,
-0.625605345,
-0.760863483,
0.838110924,
0.716624379,
-1.008999467,
0.247213691,
-0.118999690,
-0.164561152,
-0.457756877,
0.384556174,
-0.660300493,
0.323541552,
0.561388373,
0.937486112,
0.457332790,
-0.989735246,
-0.648696899,
0.499315023,
0.165553436,
-0.780084014,
-0.575819492,
0.949280739,
0.691014767,
-0.436025143,
-0.251684785,
-0.952598095,
-0.000557681,
-0.753058910,
-0.655680776,
-0.055099607,
0.161097318,
-0.409530282,
0.555516541,
-0.608539104,
0.883390009,
0.666061819,
-0.843282938,
-0.282250345,
0.012380324,
0.118837498,
0.300574750,
0.358006775,
0.077599734,
-0.487928748,
0.479045957,
-0.959248900,
-0.592706680,
-0.285094172,
-0.487113357,
-0.349833369,
-0.819621682,
-0.212715149,
0.231192827,
-0.651465774,
-0.051319361,
0.734183848,
-0.102800250,
-0.000446862,
-0.130529180,
0.166950345,
0.650716662,
0.962921083,
0.653611481,
0.915174484,
-0.072321653,
-0.898321509,
-0.474077225,
0.698338211,
-0.029612456,
-0.497046351,
-0.766311765,
-0.935852051,
-0.710143030,
-0.160376936,
0.509169042,
0.514035940,
-0.964431882,
0.600933909,
-0.782509446,
-0.211410284,
-0.405472636,
-0.235224545,
-0.104173325,
-0.897349954,
-0.863437891,
-0.081234939,
0.173423752,
-0.454274893,
0.391617179,
-0.900058389,
-0.005398208,
0.858578205,
-0.407891989,
0.879884481,
0.375368655,
-0.902460933,
0.608865261,
-0.020281116,
-0.446406841,
0.757425308,
-0.808095217,
0.321192354,
-0.267444432,
0.689925253,
0.245987922,
0.493353069,
0.371436715,
-0.240474701,
-0.210305452,
-0.824081421,
0.511597395,
0.768534780,
0.699593246,
-0.416510344,
0.031605307,
-0.704934120,
-0.550484180,
-0.582705498,
0.317488253,
-0.595913172,
-0.021817207,
0.024702646,0.094429210,-0.075592004,-0.068651222,-0.058066156,0.120127924,-0.035946500,0.134702891,0.036160756,0.048382908,-0.000744402,-0.007677604,0.012546635,-0.028098714,0.002888492,0.012759305,-0.032027639,-0.007253896,-0.100151055,-0.183752328,0.023727613,0.143979430,0.036123704,0.037518710,-0.086660996,0.049537789,-0.023684300,-0.028386427,-0.033551633,-0.014808739,0.001093829,0.122913666,0.012483883,0.089569286,0.039713707,-0.063221395,0.019258607,-0.023107085,-0.005784172,0.059152000,0.054510750,0.067513913,-0.009227519,0.000160086,0.051482357,-0.096709214,0.103217468,-0.033669103,0.001378250,-0.017001677,-0.052667297,0.064203769,0.141243488,-0.005401351,-0.026692692,-0.036983885,-0.074578829,0.045139398,-0.048026372,-0.066734031,0.004399242,0.122406930,0.052957367,0.076752186,0.091011554,-0.244450495,-0.027944816,0.058206175,0.082203470,0.077198334,-0.063664816,-0.047007740,-0.068272546,0.058680836,-0.056118250,-0.055650294,0.166503415,-0.064941123,0.010540348,0.028649354,-0.205160409,-0.017975792,-0.049198799,-0.026651459,0.042642191,0.092450276,-0.033524062,0.029455543,-0.022867620,-0.039712943,-0.034342226,0.063352466,0.120923877,0.042512547,-0.022490216,-0.061642982,0.069154479,-0.046486262,0.040966548,-0.033625353,
-0.028051354,
