// Neural Network File Format by Kyle Julian, Stanford 2016
2,1,1,100,
1,100,1,
0,
0.0,
0.0,
0.0,0.0,
0.0,0.0,
0.057482395,
0.588730991,
-0.823045135,
-0.735939026,
-0.385154366,
0.322437674,
-0.019813180,
0.896960139,
-0.088744044,
0.330358058,
-0.302213073,
-0.233662590,
-0.955348492,
-0.703458488,
-0.383135915,
0.037043571,
0.360092610,
0.556272268,
-0.749125361,
-0.464009881,
0.416519344,
0.882408679,
-0.205800176,
0.824847937,
-0.161183357,
0.105814099,
0.866392851,
-0.927670360,
-0.629537940,
-0.253165245,
-0.389799953,
0.916373372,
-0.648179650,
-0.460332870,
-0.653500140,
-0.936560988,
-0.603255808,
0.815922201,
0.401738048,
0.541205049,
0.106512360,
-0.465137154,
0.127063856,
-0.933694720,
-0.722566247,
-0.515529990,
0.682870388,
0.543242216,
-0.443495035,
-0.036082387,
0.639560699,
1.110474586,
0.447582304,
0.091079555,
0.627742231,
-0.588802338,
0.141290843,
-0.775305510,
-0.693086147,
-0.516583562,
0.407948285,
0.477039516,
-0.592352509,
0.302107096,
0.614237964,
-0.239549384,
0.038181543,
0.287975430,
0.620376587,
1.022915602,
-0.818737209,
-0.366469741,
0.348222703,
0.889505327,
0.870207310,
0.838284612,
0.269666642,
-0.869582653,
0.100033075,
-0.625605345,
-0.760653198,
0.837617457,
0.716482997,
-1.010036707,
0.247039959,
-0.119081795,
-0.164561152,
-0.457756877,
0.384556174,
-0.660392404,
0.323337018,
0.561269522,
0.937513411,
0.457158357,
-0.989735246,
-0.648696899,
0.499315023,
0.165403649,
-0.780084014,
-0.575819492,
0.948963583,
0.690913856,
-0.436025143,
-0.251684785,
-0.952598095,
-0.000612077,
-0.753058910,
-0.655579031,
-0.055099607,
0.160923675,
-0.409530282,
0.554624975,
-0.608539104,
0.883157909,
0.663723409,
-0.843282938,
-0.282127887,
0.011521810,
0.118908942,
0.300590783,
0.357678324,
0.077524967,
-0.487928748,
0.478828579,
-0.959248900,
-0.592706680,
-0.284624636,
-0.487113357,
-0.349833369,
-0.819621682,
-0.212715149,
0.231109545,
-0.651465774,
-0.051319361,
0.733979762,
-0.102800250,
-0.000446862,
-0.130679235,
0.165863737,
0.650570273,
0.962764144,
0.653480113,
0.914436102,
-0.072321653,
-0.898321509,
-0.474077225,
0.698243678,
-0.029490188,
-0.497046351,
-0.766311765,
-0.935852051,
-0.710299790,
-0.160616666,
0.507939637,
0.513792992,
-0.964431882,
0.600861847,
-0.782509446,
-0.211410284,
-0.405472636,
-0.235205129,
-0.104011476,
-0.897349954,
-0.863437891,
-0.081327550,
0.173462242,
-0.454274893,
0.391468585,
-0.900058389,
-0.005400081,
0.858489811,
-0.407891989,
0.879804134,
0.375220567,
-0.902460933,
0.608760953,
-0.020296825,
-0.446406841,
0.756720364,
-0.808095217,
0.321234912,
-0.268248707,
0.689803660,
0.245083794,
0.493159026,
0.371334434,
-0.240474701,
-0.210305452,
-0.824081421,
0.511486471,
0.768350303,
0.699454963,
-0.416436046,
0.031411104,
-0.704934120,
-0.550484180,
-0.582705498,
0.317358404,
-0.595913172,
-0.021817207,
0.024667438,0.094400078,-0.075592004,-0.068651222,-0.058066156,0.120059930,-0.035946500,0.134344667,0.036160756,0.048336431,-0.000744402,-0.007682353,0.012546635,-0.028116345,0.002833422,0.012759305,-0.031568918,-0.007228055,-0.100550473,-0.183825776,0.023691963,0.143952414,0.036123704,0.037491985,-0.086660996,0.049537789,-0.023810631,-0.028386427,-0.033551633,-0.014808739,0.001093829,0.122887701,0.012483883,0.089569286,0.039641060,-0.063221395,0.019258607,-0.023086088,-0.005771663,0.059122026,0.054476425,0.067448750,-0.009239488,0.000160086,0.051482357,-0.096709214,0.103189573,-0.033576041,0.001378250,-0.017001677,-0.052667297,0.063979320,0.140997678,-0.005405173,-0.026696207,-0.036983885,-0.074584588,0.045139398,-0.048026372,-0.066734031,0.004949274,0.122424826,0.052957367,0.076752186,0.090980552,-0.244438872,-0.027944816,0.058167115,0.082203470,0.077173419,-0.063684165,-0.047007740,-0.068283081,0.058654748,-0.056118250,-0.055655666,0.166498631,-0.064941123,0.010503676,0.028649354,-0.205000997,-0.018101139,-0.049205679,-0.026072059,0.042604260,0.092385143,-0.033524062,0.029455543,-0.022867620,-0.039717801,-0.034351178,0.063322976,0.120894849,0.042466369,-0.022490216,-0.061642982,0.069154479,-0.046479058,0.040966548,-0.033625353,
-0.028075891,
