// Neural Network File Format by Kyle Julian, Stanford 2016
2,1,1,100,
1,100,1,
0,
0.0,
0.0,
0.0,0.0,
0.0,0.0,
0.057382766,
0.588742256,
-0.823045135,
-0.735939026,
-0.385154366,
0.322457314,
-0.019813180,
0.897032142,
-0.088744044,
0.330331922,
-0.302213073,
-0.234182850,
-0.955348492,
-0.703640759,
-0.384268612,
0.037043571,
0.359816074,
0.555782139,
-0.749109209,
-0.464219093,
0.416413605,
0.882433653,
-0.205800176,
0.824799418,
-0.161183357,
0.105814099,
0.866536438,
-0.927670360,
-0.629537940,
-0.253165245,
-0.389799953,
0.916394055,
-0.648179650,
-0.460332870,
-0.653542280,
-0.936560988,
-0.603255808,
0.815750897,
0.401132017,
0.541192949,
0.106494844,
-0.465141386,
0.126623973,
-0.933694720,
-0.722566247,
-0.515529990,
0.682885528,
0.543065429,
-0.443495035,
-0.036082387,
0.639560699,
1.110341430,
0.447589993,
0.090392724,
0.627554953,
-0.588802338,
0.141190588,
-0.775305510,
-0.693086147,
-0.516583562,
0.408030570,
0.477147967,
-0.592352509,
0.302107096,
0.614270270,
-0.239791989,
0.038181543,
0.287962347,
0.620376587,
1.022917867,
-0.818846285,
-0.366469741,
0.348118007,
0.889492869,
0.870207310,
0.838167787,
0.269754946,
-0.869582653,
0.099733330,
-0.625605345,
-0.760716975,
0.837346315,
0.716357291,
-1.011121869,
0.247003481,
-0.119071268,
-0.164561152,
-0.457756877,
0.384556174,
-0.660171568,
0.323179245,
0.561261415,
0.937588036,
0.457121789,
-0.989735246,
-0.648696899,
0.499315023,
0.165274054,
-0.780084014,
-0.575819492,
0.948849142,
0.690910935,
-0.436025143,
-0.251684785,
-0.952598095,
-0.000560089,
-0.753058910,
-0.655486524,
-0.055099607,
0.160883471,
-0.409530282,
0.554115057,
-0.608539104,
0.882988334,
0.662550271,
-0.843282938,
-0.282370746,
0.011029079,
0.119115181,
0.300483733,
0.357558072,
0.077535622,
-0.487928748,
0.478765845,
-0.959248900,
-0.592706680,
-0.284255445,
-0.487113357,
-0.349833369,
-0.819621682,
-0.212715149,
0.231115609,
-0.651465774,
-0.051319361,
0.733922362,
-0.102800250,
-0.000446862,
-0.130771443,
0.165251240,
0.650543571,
0.962732255,
0.653461277,
0.914005578,
-0.072321653,
-0.898321509,
-0.474077225,
0.698243976,
-0.029391438,
-0.497046351,
-0.766311765,
-0.935852051,
-0.710446239,
-0.160472363,
0.507253647,
0.513618886,
-0.964431882,
0.600775659,
-0.782509446,
-0.211410284,
-0.405472636,
-0.235056058,
-0.103851922,
-0.897349954,
-0.863437891,
-0.081264243,
0.173327968,
-0.454274893,
0.391440868,
-0.900058389,
-0.005340446,
0.858394325,
-0.407891989,
0.879713058,
0.375193536,
-0.902460933,
0.608657658,
-0.020303085,
-0.446406841,
0.756404996,
-0.808095217,
0.321200728,
-0.268706650,
0.689691901,
0.244228765,
0.493108243,
0.371330559,
-0.240474701,
-0.210305452,
-0.824081421,
0.511534989,
0.768206239,
0.699432731,
-0.416290700,
0.031360302,
-0.704934120,
-0.550484180,
-0.582705498,
0.317242682,
-0.595913172,
-0.021817207,
0.024698429,0.094435371,-0.075592004,-0.068651222,-0.058066156,0.120077692,-0.035946500,0.134279653,0.036160756,0.048363455,-0.000744402,-0.007637394,0.012546635,-0.028079400,0.002851065,0.012759305,-0.030986451,-0.007162562,-0.100904211,-0.183818296,0.023723990,0.143990815,0.036123704,0.037529077,-0.086660996,0.049537789,-0.023882540,-0.028386427,-0.033551633,-0.014808739,0.001093829,0.122925930,0.012483883,0.089569286,0.039649025,-0.063221395,0.019258607,-0.023026351,-0.005714539,0.059156813,0.054508034,0.067461863,-0.009196506,0.000160086,0.051482357,-0.096709214,0.103225559,-0.033454616,0.001378250,-0.017001677,-0.052667297,0.063923560,0.140845656,-0.005358229,-0.026647527,-0.036983885,-0.074538082,0.045139398,-0.048026372,-0.066734031,0.005436166,0.122507848,0.052957367,0.076752186,0.091024220,-0.244379446,-0.027944816,0.058197115,0.082203470,0.077213213,-0.063649245,-0.047007740,-0.068238780,0.058692466,-0.056118250,-0.055607799,0.166580155,-0.064941123,0.010533867,0.028649354,-0.204986826,-0.018172059,-0.049158834,-0.025573764,0.042634528,0.092399843,-0.033524062,0.029455543,-0.022867620,-0.039641421,-0.034306068,0.063358039,0.120867938,0.042494778,-0.022490216,-0.061642982,0.069154479,-0.046425555,0.040966548,-0.033625353,
-0.028039457,
