// Neural Network File Format by Kyle Julian, Stanford 2016
2,1,1,100,
1,100,1,
0,
0.0,
0.0,
0.0,0.0,
0.0,0.0,
0.057189267,
0.588671565,
-0.823045135,
-0.735939026,
-0.385154366,
0.322395802,
-0.019813180,
0.897120774,
-0.088744044,
0.330219954,
-0.302213073,
-0.234678105,
-0.955348492,
-0.703759551,
-0.385613680,
0.037043571,
0.359886408,
0.555303991,
-0.749722064,
-0.464025855,
0.416213453,
0.882378042,
-0.205800176,
0.824662328,
-0.161183357,
0.105814099,
0.866702616,
-0.927670360,
-0.629537940,
-0.253165245,
-0.389799953,
0.916333497,
-0.648179650,
-0.460332870,
-0.653671503,
-0.936560988,
-0.603255808,
0.815655529,
0.400524229,
0.541096330,
0.106392242,
-0.465228915,
0.126216397,
-0.933694720,
-0.722566247,
-0.515529990,
0.682818115,
0.542952597,
-0.443495035,
-0.036082387,
0.639560699,
1.110376120,
0.447506666,
0.089704446,
0.627429128,
-0.588802338,
0.141162708,
-0.775305510,
-0.693086147,
-0.516583562,
0.408082902,
0.477168113,
-0.592352509,
0.302107096,
0.614204109,
-0.239686534,
0.038181543,
0.287864655,
0.620376587,
1.022837043,
-0.818883538,
-0.366469741,
0.348084807,
0.889395297,
0.870207310,
0.838120937,
0.269754112,
-0.869582653,
0.099318281,
-0.625605345,
-0.760615766,
0.837218225,
0.716301084,
-1.011313677,
0.246880069,
-0.119142726,
-0.164561152,
-0.457756877,
0.384556174,
-0.660233915,
0.323087245,
0.561169147,
0.937493086,
0.456998140,
-0.989735246,
-0.648696899,
0.499315023,
0.165213168,
-0.780084014,
-0.575819492,
0.948634088,
0.690818727,
-0.436025143,
-0.251684785,
-0.952598095,
-0.000606520,
-0.753058910,
-0.655331552,
-0.055099607,
0.160750151,
-0.409530282,
0.553638101,
-0.608539104,
0.882890582,
0.661160231,
-0.843282938,
-0.282261878,
0.010557243,
0.118993275,
0.300635397,
0.357336491,
0.077458709,
-0.487928748,
0.478607684,
-0.959248900,
-0.592706680,
-0.283849359,
-0.487113357,
-0.349833369,
-0.819621682,
-0.212715149,
0.231033847,
-0.651465774,
-0.051319361,
0.733771384,
-0.102800250,
-0.000446862,
-0.130724594,
0.164646387,
0.650425255,
0.962608039,
0.653352141,
0.913615942,
-0.072321653,
-0.898321509,
-0.474077225,
0.698155701,
-0.029294711,
-0.497046351,
-0.766311765,
-0.935852051,
-0.710360467,
-0.160491109,
0.506575406,
0.513513923,
-0.964431882,
0.600768626,
-0.782509446,
-0.211410284,
-0.405472636,
-0.234905675,
-0.103797033,
-0.897349954,
-0.863437891,
-0.081346489,
0.173438549,
-0.454274893,
0.391321957,
-0.900058389,
-0.005390311,
0.858378172,
-0.407891989,
0.879701018,
0.375075012,
-0.902460933,
0.608632326,
-0.020364216,
-0.446406841,
0.755968094,
-0.808095217,
0.321243912,
-0.268869847,
0.689656854,
0.243903935,
0.492963374,
0.371237695,
-0.240474701,
-0.210305452,
-0.824081421,
0.511489093,
0.768134952,
0.699319243,
-0.416421145,
0.031215413,
-0.704934120,
-0.550484180,
-0.582705498,
0.317202777,
-0.595913172,
-0.021817207,
0.024644407,0.094387546,-0.075592004,-0.068651222,-0.058066156,0.120014243,-0.035946500,0.133977950,0.036160756,0.048307758,-0.000744402,-0.007676778,0.012546635,-0.028130999,0.002781732,0.012759305,-0.030716252,-0.007171930,-0.101241566,-0.183905840,0.023673171,0.143949315,0.036123704,0.037484203,-0.086660996,0.049537789,-0.023979763,-0.028386427,-0.033551633,-0.014808739,0.001093829,0.122883439,0.012483883,0.089569286,0.039564300,-0.063221395,0.019258607,-0.023036875,-0.005735367,0.059108417,0.054454733,0.067384355,-0.009236783,0.000160086,0.051482357,-0.096709214,0.103178680,-0.033416994,0.001378250,-0.017001677,-0.052667297,0.063809626,0.140676409,-0.005393298,-0.026679901,-0.036983885,-0.074574560,0.045139398,-0.048026372,-0.066734031,0.005831729,0.122510456,0.052957367,0.076752186,0.090985194,-0.244440958,-0.027944816,0.058143329,0.082203470,0.077174380,-0.063704796,-0.047007740,-0.068277337,0.058648720,-0.056118250,-0.055641003,0.166564807,-0.064941123,0.010479436,0.028649354,-0.204955488,-0.018270466,-0.049193576,-0.025204031,0.042580705,0.092326380,-0.033524062,0.029455543,-0.022867620,-0.039695051,-0.034343645,0.063309886,0.120835178,0.042442746,-0.022490216,-0.061642982,0.069154479,-0.046453528,0.040966548,-0.033625353,
-0.028087746,
