// Neural Network File Format by Kyle Julian, Stanford 2016
2,1,1,100,
1,100,1,
0,
0.0,
0.0,
0.0,0.0,
0.0,0.0,
0.056072790,
0.588419497,
-0.823045135,
-0.735939026,
-0.385154366,
0.322208315,
-0.019813180,
0.897043109,
-0.088744044,
0.329675078,
-0.302213073,
-0.238426507,
-0.955348492,
-0.704838514,
-0.395190775,
0.037043571,
0.359868586,
0.551526666,
-0.751358509,
-0.463779777,
0.415048182,
0.882230818,
-0.205800176,
0.823944509,
-0.161183357,
0.105814099,
0.867137015,
-0.927670360,
-0.629537940,
-0.253165245,
-0.389799953,
0.916152120,
-0.648179650,
-0.460332870,
-0.654340565,
-0.936560988,
-0.603255808,
0.814625859,
0.395801783,
0.540661514,
0.105915859,
-0.465601236,
0.123079456,
-0.933694720,
-0.722566247,
-0.515529990,
0.682592392,
0.541912317,
-0.443495035,
-0.036082387,
0.639560699,
1.109275222,
0.447160661,
0.084505729,
0.626297057,
-0.588802338,
0.140721276,
-0.775305510,
-0.693086147,
-0.516583562,
0.407735407,
0.477415115,
-0.592352509,
0.302107096,
0.614041030,
-0.239994019,
0.038181543,
0.287421525,
0.620376587,
1.022515655,
-0.819389462,
-0.366469741,
0.347606778,
0.888956845,
0.870207310,
0.837547421,
0.269977301,
-0.869582653,
0.096635766,
-0.625605345,
-0.760276377,
0.836324394,
0.715659738,
-1.011099577,
0.246255651,
-0.119400732,
-0.164561152,
-0.457756877,
0.384556174,
-0.659839034,
0.322193623,
0.560767651,
0.937557340,
0.456370622,
-0.989735246,
-0.648696899,
0.499315023,
0.164538831,
-0.780084014,
-0.575819492,
0.947426260,
0.690476954,
-0.436025143,
-0.251684785,
-0.952598095,
-0.000677248,
-0.753058910,
-0.655196786,
-0.055099607,
0.160117820,
-0.409530282,
0.549956441,
-0.608539104,
0.881896079,
0.651356101,
-0.843282938,
-0.282021046,
0.006807970,
0.119398527,
0.300881147,
0.356083214,
0.077223495,
-0.487928748,
0.477801532,
-0.959248900,
-0.592706680,
-0.282289594,
-0.487113357,
-0.349833369,
-0.819621682,
-0.212715149,
0.230764002,
-0.651465774,
-0.051319361,
0.733009875,
-0.102800250,
-0.000446862,
-0.131107643,
0.159932137,
0.649901509,
0.962041318,
0.652888238,
0.910549700,
-0.072321653,
-0.898321509,
-0.474077225,
0.697840214,
-0.029162547,
-0.497046351,
-0.766311765,
-0.935852051,
-0.711560786,
-0.160348907,
0.501412153,
0.512467861,
-0.964431882,
0.600414693,
-0.782509446,
-0.211410284,
-0.405472636,
-0.234878242,
-0.103290267,
-0.897349954,
-0.863437891,
-0.081369072,
0.173413426,
-0.454274893,
0.390789360,
-0.900058389,
-0.005330821,
0.857956707,
-0.407891989,
0.879311204,
0.374546915,
-0.902460933,
0.608146608,
-0.020344673,
-0.446406841,
0.753190398,
-0.808095217,
0.321306795,
-0.269738108,
0.689103305,
0.242892608,
0.492249608,
0.370889992,
-0.240474701,
-0.210305452,
-0.824081421,
0.511403859,
0.767328203,
0.698827803,
-0.416131735,
0.030501705,
-0.704934120,
-0.550484180,
-0.582705498,
0.316616327,
-0.595913172,
-0.021817207,
0.024567354,0.094336994,-0.075592004,-0.068651222,-0.058066156,0.119812883,-0.035946500,0.132544070,0.036160756,0.048189037,-0.000744402,-0.007633822,0.012546635,-0.028143613,0.002615059,0.012759305,-0.028418390,-0.006988517,-0.103417464,-0.184034511,0.023596864,0.143911034,0.036123704,0.037444636,-0.086660996,0.049537789,-0.024446592,-0.028386427,-0.033551633,-0.014808739,0.001093829,0.122848436,0.012483883,0.089569286,0.039329067,-0.063221395,0.019258607,-0.022892149,-0.005610466,0.059054498,0.054381698,0.067182362,-0.009219822,0.000160086,0.051482357,-0.096709214,0.103133313,-0.032945488,0.001378250,-0.017001677,-0.052667297,0.063264765,0.139693439,-0.005341988,-0.026626680,-0.036983885,-0.074532777,0.045139398,-0.048026372,-0.066734031,0.008088288,0.122625545,0.052957367,0.076752186,0.090940028,-0.244358554,-0.027944816,0.058052752,0.082203470,0.077145822,-0.063726343,-0.047007740,-0.068254016,0.058612384,-0.056118250,-0.055595290,0.166654989,-0.064941123,0.010396273,0.028649354,-0.204635099,-0.018739300,-0.049154408,-0.023698514,0.042494174,0.092127480,-0.033524062,0.029455543,-0.022867620,-0.039626315,-0.034314122,0.063258030,0.120613687,0.042327758,-0.022490216,-0.061642982,0.069154479,-0.046358667,0.040966548,-0.033625353,
-0.028122025,
