// Neural Network File Format by Kyle Julian, Stanford 2016
2,1,1,100,
1,100,1,
0,
0.0,
0.0,
0.0,0.0,
0.0,0.0,
0.056055352,
0.588452756,
-0.823045135,
-0.735939026,
-0.385154366,
0.322245359,
-0.019813180,
0.897157967,
-0.088744044,
0.329691231,
-0.302213073,
-0.238694876,
-0.955348492,
-0.704949856,
-0.395724177,
0.037043571,
0.359708816,
0.551251113,
-0.751510620,
-0.463656455,
0.415027857,
0.882270515,
-0.205800176,
0.823950589,
-0.161183357,
0.105814099,
0.867095411,
-0.927670360,
-0.629537940,
-0.253165245,
-0.389799953,
0.916189373,
-0.648179650,
-0.460332870,
-0.654332161,
-0.936560988,
-0.603255808,
0.814519763,
0.395469338,
0.540684104,
0.105936028,
-0.465575039,
0.122846730,
-0.933694720,
-0.722566247,
-0.515529990,
0.682627082,
0.541803241,
-0.443495035,
-0.036082387,
0.639560699,
1.109334230,
0.447196454,
0.084148817,
0.626182675,
-0.588802338,
0.140647382,
-0.775305510,
-0.693086147,
-0.516583562,
0.407825887,
0.477467507,
-0.592352509,
0.302107096,
0.614075780,
-0.239979371,
0.038181543,
0.287443608,
0.620376587,
1.022544861,
-0.819467187,
-0.366469741,
0.347530603,
0.888979077,
0.870207310,
0.837465584,
0.270036817,
-0.869582653,
0.096525997,
-0.625605345,
-0.760353982,
0.836240232,
0.715574265,
-1.011212230,
0.246267095,
-0.119367845,
-0.164561152,
-0.457756877,
0.384556174,
-0.659798741,
0.322093099,
0.560792029,
0.937591374,
0.456382006,
-0.989735246,
-0.648696899,
0.499315023,
0.164451286,
-0.780084014,
-0.575819492,
0.947396100,
0.690497458,
-0.436025143,
-0.251684785,
-0.952598095,
-0.000627345,
-0.753058910,
-0.655087233,
-0.055099607,
0.160121202,
-0.409530282,
0.549700320,
-0.608539104,
0.881797493,
0.650806546,
-0.843282938,
-0.282150507,
0.006542793,
0.119320668,
0.300916493,
0.356050193,
0.077250160,
-0.487928748,
0.477794886,
-0.959248900,
-0.592706680,
-0.282268882,
-0.487113357,
-0.349833369,
-0.819621682,
-0.212715149,
0.230788678,
-0.651465774,
-0.051319361,
0.733005941,
-0.102800250,
-0.000446862,
-0.131153345,
0.159609482,
0.649911344,
0.962048411,
0.652901411,
0.910329640,
-0.072321653,
-0.898321509,
-0.474077225,
0.697862387,
-0.029186118,
-0.497046351,
-0.766311765,
-0.935852051,
-0.711524606,
-0.160292879,
0.501066685,
0.512366474,
-0.964431882,
0.600353420,
-0.782509446,
-0.211410284,
-0.405472636,
-0.234814182,
-0.103260495,
-0.897349954,
-0.863437891,
-0.081355073,
0.173402399,
-0.454274893,
0.390798807,
-0.900058389,
-0.005259647,
0.857891738,
-0.407891989,
0.879248142,
0.374556422,
-0.902460933,
0.608077466,
-0.020332398,
-0.446406841,
0.753068149,
-0.808095217,
0.321223348,
-0.269786209,
0.689030647,
0.242708504,
0.492248356,
0.370910019,
-0.240474701,
-0.210305452,
-0.824081421,
0.511384130,
0.767240405,
0.698839426,
-0.416116595,
0.030500274,
-0.704934120,
-0.550484180,
-0.582705498,
0.316541553,
-0.595913172,
-0.021817207,
0.024603467,0.094376914,-0.075592004,-0.068651222,-0.058066156,0.119849153,-0.035946500,0.132677466,0.036160756,0.048226502,-0.000744402,-0.007593692,0.012546635,-0.028109960,0.002640681,0.012759305,-0.027998270,-0.006930390,-0.103400506,-0.183964357,0.023635697,0.143955842,0.036123704,0.037486449,-0.086660996,0.049537789,-0.024410613,-0.028386427,-0.033551633,-0.014808739,0.001093829,0.122892074,0.012483883,0.089569286,0.039348334,-0.063221395,0.019258607,-0.022830028,-0.005558881,0.059094150,0.054418270,0.067206055,-0.009178026,0.000160086,0.051482357,-0.096709214,0.103173792,-0.032867838,0.001378250,-0.017001677,-0.052667297,0.063414738,0.139700845,-0.005298366,-0.026580127,-0.036983885,-0.074489050,0.045139398,-0.048026372,-0.066734031,0.008387466,0.122689746,0.052957367,0.076752186,0.090989798,-0.244296446,-0.027944816,0.058090057,0.082203470,0.077192150,-0.063695602,-0.047007740,-0.068210892,0.058655001,-0.056118250,-0.055548910,0.166712090,-0.064941123,0.010432147,0.028649354,-0.204540268,-0.018704319,-0.049108937,-0.023484919,0.042531140,0.092154592,-0.033524062,0.029455543,-0.022867620,-0.039570164,-0.034270559,0.063297741,0.120680243,0.042368155,-0.022490216,-0.061642982,0.069154479,-0.046311080,0.040966548,-0.033625353,
-0.028083574,
