// Neural Network File Format by Kyle Julian, Stanford 2016
2,1,1,100,
1,100,1,
0,
0.0,
0.0,
0.0,0.0,
0.0,0.0,
0.055960756,
0.588385999,
-0.823045135,
-0.735939026,
-0.385154366,
0.322180748,
-0.019813180,
0.897137284,
-0.088744044,
0.329615146,
-0.302213073,
-0.238758698,
-0.955348492,
-0.704926193,
-0.396100044,
0.037043571,
0.359781146,
0.551180184,
-0.751559198,
-0.463709623,
0.414931774,
0.882207155,
-0.205800176,
0.823868752,
-0.161183357,
0.105814099,
0.867146194,
-0.927670360,
-0.629537940,
-0.253165245,
-0.389799953,
0.916124761,
-0.648179650,
-0.460332870,
-0.654412270,
-0.936560988,
-0.603255808,
0.814546883,
0.395367146,
0.540611446,
0.105862036,
-0.465645581,
0.122802891,
-0.933694720,
-0.722566247,
-0.515529990,
0.682561100,
0.541829646,
-0.443495035,
-0.036082387,
0.639560699,
1.109201074,
0.447151870,
0.084035024,
0.626204550,
-0.588802338,
0.140691712,
-0.775305510,
-0.693086147,
-0.516583562,
0.407656550,
0.477401257,
-0.592352509,
0.302107096,
0.614008605,
-0.239856943,
0.038181543,
0.287370682,
0.620376587,
1.022475719,
-0.819424987,
-0.366469741,
0.347573847,
0.888906300,
0.870207310,
0.837505519,
0.269979060,
-0.869582653,
0.096380912,
-0.625605345,
-0.760320306,
0.836268961,
0.715612173,
-1.011184335,
0.246188372,
-0.119434752,
-0.164561152,
-0.457756877,
0.384556174,
-0.659758091,
0.322122753,
0.560720444,
0.937530100,
0.456303209,
-0.989735246,
-0.648696899,
0.499315023,
0.164487988,
-0.780084014,
-0.575819492,
0.947335124,
0.690464735,
-0.436025143,
-0.251684785,
-0.952598095,
-0.000653608,
-0.753058910,
-0.655102253,
-0.055099607,
0.160079002,
-0.409530282,
0.549601853,
-0.608539104,
0.881787002,
0.650457919,
-0.843282938,
-0.282059759,
0.006438655,
0.119148962,
0.300855041,
0.355987936,
0.077220745,
-0.487928748,
0.477747053,
-0.959248900,
-0.592706680,
-0.282211244,
-0.487113357,
-0.349833369,
-0.819621682,
-0.212715149,
0.230758116,
-0.651465774,
-0.051319361,
0.732959330,
-0.102800250,
-0.000446862,
-0.131109700,
0.159473374,
0.649872541,
0.962008297,
0.652864575,
0.910251677,
-0.072321653,
-0.898321509,
-0.474077225,
0.697830379,
-0.029151650,
-0.497046351,
-0.766311765,
-0.935852051,
-0.711674154,
-0.160292760,
0.500918448,
0.512354374,
-0.964431882,
0.600363910,
-0.782509446,
-0.211410284,
-0.405472636,
-0.235002518,
-0.103335530,
-0.897349954,
-0.863437891,
-0.081413001,
0.173439980,
-0.454274893,
0.390759856,
-0.900058389,
-0.005277609,
0.857899904,
-0.407891989,
0.879257321,
0.374517649,
-0.902460933,
0.608083606,
-0.020390021,
-0.446406841,
0.752956331,
-0.808095217,
0.321192503,
-0.269762963,
0.689034700,
0.242573544,
0.492203504,
0.370876998,
-0.240474701,
-0.210305452,
-0.824081421,
0.511370003,
0.767236054,
0.698801756,
-0.416158348,
0.030455478,
-0.704934120,
-0.550484180,
-0.582705498,
0.316544265,
-0.595913172,
-0.021817207,
0.024578044,0.094341800,-0.075592004,-0.068651222,-0.058066156,0.119783871,-0.035946500,0.132619038,0.036160756,0.048181452,-0.000744402,-0.007602563,0.012546635,-0.028103784,0.002631747,0.012759305,-0.027924638,-0.006981276,-0.103099495,-0.183889613,0.023597196,0.143901065,0.036123704,0.037445538,-0.086660996,0.049537789,-0.024487928,-0.028386427,-0.033551633,-0.014808739,0.001093829,0.122843966,0.012483883,0.089569286,0.039353751,-0.063221395,0.019258607,-0.022887805,-0.005597022,0.059059121,0.054392014,0.067201123,-0.009201712,0.000160086,0.051482357,-0.096709214,0.103137717,-0.032916967,0.001378250,-0.017001677,-0.052667297,0.063344829,0.139604509,-0.005321266,-0.026614891,-0.036983885,-0.074513666,0.045139398,-0.048026372,-0.066734031,0.008374617,0.122627780,0.052957367,0.076752186,0.090925142,-0.244224504,-0.027944816,0.058054809,0.082203470,0.077132218,-0.063678190,-0.047007740,-0.068238460,0.058611263,-0.056118250,-0.055585027,0.166649014,-0.064941123,0.010405342,0.028649354,-0.204437122,-0.018780500,-0.049142778,-0.023187604,0.042498663,0.092134200,-0.033524062,0.029455543,-0.022867620,-0.039511390,-0.034298252,0.063263036,0.120590962,0.042309958,-0.022490216,-0.061642982,0.069154479,-0.046337891,0.040966548,-0.033625353,
-0.028106498,
