// Neural Network File Format by Kyle Julian, Stanford 2016
2,1,1,100,
1,100,1,
0,
0.0,
0.0,
0.0,0.0,
0.0,0.0,
0.055922594,
0.588490486,
-0.823045135,
-0.735939026,
-0.385154366,
0.322249323,
-0.019813180,
0.877616882,
-0.088744044,
0.329461992,
-0.302213073,
-0.241990343,
-0.955348492,
-0.705410779,
-0.389610827,
0.037043571,
0.363116235,
0.549491704,
-0.776769578,
-0.454501808,
0.414456755,
0.882327259,
-0.205800176,
0.823519826,
-0.161183357,
0.105814099,
0.869890809,
-0.927670360,
-0.629537940,
-0.253165245,
-0.389799953,
0.916231036,
-0.648179650,
-0.460332870,
-0.654142141,
-0.936560988,
-0.603166401,
0.815793693,
0.392919093,
0.540635467,
0.105947211,
-0.465424478,
0.120768741,
-0.933694720,
-0.722566247,
-0.515529990,
0.682682633,
0.543143570,
-0.443495035,
-0.036082387,
0.639560699,
1.108784676,
0.460116297,
0.080277339,
0.625508785,
-0.588802338,
0.140298411,
-0.775305510,
-0.693086147,
-0.516583562,
0.406453431,
0.468497783,
-0.592352509,
0.302107096,
0.614040613,
-0.227578223,
0.038181543,
0.287403405,
0.620376587,
1.022585273,
-0.819668829,
-0.366469741,
0.347162992,
0.888844013,
0.870207310,
0.837045729,
0.266110867,
-0.869582653,
0.096725389,
-0.625605345,
-0.660151124,
0.839433789,
0.715125740,
-0.997828007,
0.246166646,
-0.119252019,
-0.164561152,
-0.457756877,
0.384556174,
-0.647733271,
0.321530938,
0.560761273,
0.909662247,
0.455513000,
-0.989735246,
-0.648696899,
0.499315023,
0.163993284,
-0.780084014,
-0.575819492,
0.948441923,
0.691343427,
-0.436025143,
-0.251684785,
-0.952598095,
-0.000424736,
-0.753058910,
-0.678236663,
-0.055099607,
0.161357567,
-0.409530282,
0.545772016,
-0.608539104,
0.880098879,
0.658211529,
-0.843282938,
-0.279785872,
0.004639468,
0.091581307,
0.296158195,
0.357838631,
0.078135014,
-0.487928748,
0.479376942,
-0.959248900,
-0.592706680,
-0.278697550,
-0.487113357,
-0.349833369,
-0.819621682,
-0.212715149,
0.231669307,
-0.651465774,
-0.051319361,
0.733488739,
-0.102800250,
-0.000453223,
-0.128268257,
0.156829208,
0.650838912,
0.962864697,
0.653507292,
0.907904804,
-0.072321653,
-0.898321509,
-0.474077225,
0.698708475,
-0.044616893,
-0.497046351,
-0.766311765,
-0.935852051,
-0.719287038,
-0.128303990,
0.496770263,
0.511377752,
-0.964431882,
0.599514306,
-0.782509446,
-0.211410284,
-0.405472636,
-0.239975959,
-0.119814783,
-0.897349954,
-0.863437891,
-0.074898086,
0.174700782,
-0.454274893,
0.391715497,
-0.900058389,
-0.002174051,
0.856641948,
-0.407891989,
0.878401279,
0.375659138,
-0.902460933,
0.607253790,
-0.000382994,
-0.446406841,
0.753880858,
-0.808095217,
0.355766475,
-0.266652822,
0.688184679,
0.264588743,
0.493228137,
0.371625930,
-0.240474701,
-0.210305452,
-0.824081421,
0.523198366,
0.766274929,
0.699743390,
-0.469287306,
0.032927271,
-0.704934120,
-0.550484180,
-0.582705498,
0.315661967,
-0.595913172,
-0.021817207,
0.025372492,0.094929211,-0.075592004,-0.068651222,-0.058066156,0.119902201,-0.035946500,0.118685611,0.036160756,0.048624184,-0.000744402,-0.006619490,0.012546635,-0.026736785,0.003765545,0.012759305,-0.037584517,-0.006657514,-0.089483164,-0.174207166,0.024127837,0.144169345,0.036123704,0.037928518,-0.086660996,0.049537789,-0.028442048,-0.028386427,-0.033551633,-0.014808739,0.001093829,0.123208582,0.012483883,0.089569286,0.041051243,-0.063221395,0.019175554,-0.024248406,-0.005126803,0.059650499,0.055165805,0.068621472,-0.008453489,0.000160086,0.051482357,-0.096709214,0.103705272,-0.036922809,0.001378250,-0.017001677,-0.052667297,0.084606521,0.141189769,-0.004597905,-0.026066750,-0.036983885,-0.073790558,0.045139398,-0.048026372,-0.066734031,-0.017431803,0.118120320,0.052957367,0.076752186,0.090090491,-0.238238841,-0.027944816,0.058663342,0.082203470,0.077443682,-0.062097289,-0.047007740,-0.067556843,0.059045531,-0.056118250,-0.055055000,0.158940524,-0.064941123,0.011137549,0.028649354,-0.223121867,-0.023248281,-0.048574001,-0.057606809,0.043159612,0.093177177,-0.033524062,0.029455543,-0.022867620,-0.042998426,-0.033622269,0.063860357,0.130295694,0.042537034,-0.022490216,-0.061642982,0.069154479,-0.045679960,0.040966548,-0.033625353,
-0.027298311,
