// Neural Network File Format by Kyle Julian, Stanford 2016
2,1,1,100,
1,100,1,
0,
0.0,
0.0,
0.0,0.0,
0.0,0.0,
0.064209908,
0.590630872,
-0.823045135,
-0.735939026,
-0.385154366,
0.324168431,
-0.019813180,
0.881410873,
-0.088744044,
0.334384034,
-0.302213073,
-0.218609966,
-0.955348492,
-0.698535454,
-0.352555574,
0.037043571,
0.361053889,
0.565213901,
-0.716457735,
-0.472132445,
0.424650008,
0.883802290,
-0.205800176,
0.830160702,
-0.161183357,
0.105814099,
0.866705659,
-0.927670360,
-0.629537940,
-0.253165245,
-0.389799953,
0.917944939,
-0.648179650,
-0.460332870,
-0.650337877,
-0.936560988,
-0.603076731,
0.820909691,
0.413229083,
0.544205479,
0.109566447,
-0.462960250,
0.137957057,
-0.933694720,
-0.722566247,
-0.515529990,
0.684636214,
0.546065678,
-0.443495035,
-0.036082387,
0.639560699,
1.104225266,
0.457466624,
0.106443180,
0.631889235,
-0.588802338,
0.142839423,
-0.775305510,
-0.693086147,
-0.516583562,
0.413160384,
0.466444337,
-0.592352509,
0.302107096,
0.616978012,
-0.258089156,
0.038181543,
0.291013443,
0.620376587,
1.025661487,
-0.816859549,
-0.366469741,
0.349929678,
0.892752811,
0.870207310,
0.840354434,
0.267817425,
-0.869582653,
0.114151606,
-0.625605345,
-0.835635635,
0.850475524,
0.718840797,
-1.048050563,
0.251137224,
-0.117287389,
-0.164561152,
-0.457756877,
0.384556174,
-0.657771401,
0.326755130,
0.564064548,
0.909579471,
0.462820078,
-0.989735246,
-0.648696899,
0.499315023,
0.167902400,
-0.780084014,
-0.575819492,
0.955743669,
0.692812294,
-0.436025143,
-0.251684785,
-0.952598095,
0.000215028,
-0.753058910,
-0.674275816,
-0.055099607,
0.164708248,
-0.409530282,
0.570182768,
-0.608539104,
0.888305196,
0.698395917,
-0.843282938,
-0.282709729,
0.021260487,
0.104883283,
0.298624800,
0.365238463,
0.078869908,
-0.487928748,
0.483763845,
-0.959248900,
-0.592706680,
-0.285526042,
-0.487113357,
-0.349833369,
-0.819621682,
-0.212715149,
0.232638146,
-0.651465774,
-0.051319361,
0.737429795,
-0.102800250,
-0.000332448,
-0.120174199,
0.178396666,
0.653514629,
0.965849918,
0.655810175,
0.925871790,
-0.072321653,
-0.898321509,
-0.474077225,
0.700000818,
-0.038020465,
-0.497046351,
-0.766311765,
-0.935852051,
-0.719270618,
-0.149151992,
0.524374882,
0.518035804,
-0.964431882,
0.602417127,
-0.782509446,
-0.211410284,
-0.405472636,
-0.231808060,
-0.137577390,
-0.897349954,
-0.863437891,
-0.086297517,
0.174949497,
-0.454274893,
0.394462643,
-0.900058389,
-0.028456744,
0.860543350,
-0.407891989,
0.881515100,
0.378290991,
-0.902460933,
0.610835345,
-0.034317105,
-0.446406841,
0.770950779,
-0.808095217,
0.312524671,
-0.243795006,
0.692179110,
0.232424966,
0.497201487,
0.373204110,
-0.240474701,
-0.210305452,
-0.824081421,
0.521595138,
0.771826335,
0.702204383,
-0.467892201,
0.036225726,
-0.704934120,
-0.550484180,
-0.582705498,
0.319882264,
-0.595913172,
-0.021817207,
0.025199836,0.094912280,-0.075592004,-0.068651222,-0.058066156,0.121749627,-0.035946500,0.127163351,0.036160756,0.049372570,-0.000744402,-0.007831502,0.012546635,-0.028290577,0.003465728,0.012759305,-0.044793397,-0.007347751,-0.045458950,-0.184291820,0.024402755,0.144642637,0.036123704,0.038050847,-0.086660996,0.049537789,-0.019695657,-0.028386427,-0.033551633,-0.014808739,0.001093829,0.123485522,0.012483883,0.089569286,0.040493375,-0.063221395,0.019119951,-0.021801825,-0.005808073,0.059658061,0.054987306,0.068284694,-0.009132086,0.000160086,0.051482357,-0.096709214,0.103687713,-0.035267235,0.001378250,-0.017001677,-0.052667297,0.063830821,0.150903106,-0.005377898,-0.026640741,-0.036983885,-0.074619379,0.045139398,-0.048026372,-0.066734031,-0.013095873,0.124200959,0.052957367,0.076752186,0.093739316,-0.256688170,-0.027944816,0.058892068,0.082203470,0.078246085,-0.063920602,-0.047007740,-0.068203222,0.059220427,-0.056118250,-0.055571559,0.168238407,-0.064941123,0.011057951,0.028649354,-0.217172416,-0.016665628,-0.049117092,-0.044923569,0.043278222,0.093415089,-0.033524062,0.029455543,-0.022867620,-0.042449100,-0.034285976,0.063842401,0.125958768,0.043698007,-0.022490216,-0.061642982,0.069154479,-0.046698037,0.040966548,-0.033625353,
-0.027798660,
