// Neural Network File Format by Kyle Julian, Stanford 2016
2,1,1,100,
1,100,1,
0,
0.0,
0.0,
0.0,0.0,
0.0,0.0,
0.063261986,
0.589928150,
-0.823045135,
-0.735939026,
-0.385154366,
0.323345572,
-0.019813180,
0.891279578,
-0.088744044,
0.333202928,
-0.302213073,
-0.218257532,
-0.955348492,
-0.697558701,
-0.352766603,
0.037043571,
0.360715568,
0.565297782,
-0.724285662,
-0.461875290,
0.422874391,
0.883076787,
-0.205800176,
0.828611374,
-0.161183357,
0.105814099,
0.867329061,
-0.927670360,
-0.629537940,
-0.253165245,
-0.389799953,
0.917213500,
-0.648179650,
-0.460332870,
-0.650610805,
-0.936560988,
-0.603383005,
0.821157038,
0.413312554,
0.543374896,
0.108872801,
-0.463387311,
0.138164893,
-0.933694720,
-0.722566247,
-0.515529990,
0.683941662,
0.546273649,
-0.443495035,
-0.036082387,
0.639560699,
1.108056426,
0.457842231,
0.106584691,
0.632142425,
-0.588802338,
0.143274397,
-0.775305510,
-0.693086147,
-0.516583562,
0.413498580,
0.467703521,
-0.592352509,
0.302107096,
0.615789473,
-0.232747227,
0.038181543,
0.290198177,
0.620376587,
1.024577141,
-0.815990448,
-0.366469741,
0.350350708,
0.891741216,
0.870207310,
0.840688527,
0.267396271,
-0.869582653,
0.113439903,
-0.625605345,
-0.661566556,
0.850479007,
0.719169915,
-1.046239734,
0.250239372,
-0.117824882,
-0.164561152,
-0.457756877,
0.384556174,
-0.648443997,
0.327107102,
0.563264847,
0.898675203,
0.460453361,
-0.989735246,
-0.648696899,
0.499315023,
0.168279856,
-0.780084014,
-0.575819492,
0.956825435,
0.693560958,
-0.436025143,
-0.251684785,
-0.952598095,
0.001094817,
-0.753058910,
-0.662032008,
-0.055099607,
0.165996671,
-0.409530282,
0.569830060,
-0.608539104,
0.887370586,
0.698660672,
-0.843282938,
-0.283078134,
0.021115670,
0.112327412,
0.297260106,
0.367297262,
0.079638548,
-0.487928748,
0.485479295,
-0.959248900,
-0.592706680,
-0.285797089,
-0.487113357,
-0.349833369,
-0.819621682,
-0.212715149,
0.233413249,
-0.651465774,
-0.051319361,
0.737794578,
-0.102800250,
-0.000604283,
-0.120903701,
0.178251892,
0.654410303,
0.966615856,
0.656295717,
0.925633907,
-0.072321653,
-0.898321509,
-0.474077225,
0.700738370,
-0.039805416,
-0.497046351,
-0.766311765,
-0.935852051,
-0.714919508,
-0.139007494,
0.524206161,
0.517710447,
-0.964431882,
0.601940155,
-0.782509446,
-0.211410284,
-0.405472636,
-0.231288940,
-0.123992130,
-0.897349954,
-0.863437891,
-0.080625251,
0.170671612,
-0.454274893,
0.395346493,
-0.900058389,
-0.022538871,
0.859663725,
-0.407891989,
0.881054342,
0.379397720,
-0.902460933,
0.610427380,
-0.024836084,
-0.446406841,
0.771698952,
-0.808095217,
0.358068258,
-0.245247424,
0.691775262,
0.243180051,
0.498192042,
0.373804122,
-0.240474701,
-0.210305452,
-0.824081421,
0.521661401,
0.771438003,
0.703068376,
-0.487102777,
0.038945716,
-0.704934120,
-0.550484180,
-0.582705498,
0.319461763,
-0.595913172,
-0.021817207,
0.025761062,0.095090456,-0.075592004,-0.068651222,-0.058066156,0.121090099,-0.035946500,0.125974566,0.036160756,0.049293015,-0.000744402,-0.006928696,0.012546635,-0.026713202,0.004704077,0.012759305,-0.044823732,-0.007779357,-0.068112679,-0.179799154,0.024497250,0.144208133,0.036123704,0.038028132,-0.086660996,0.049537789,-0.023265205,-0.028386427,-0.033551633,-0.014808739,0.001093829,0.123238362,0.012483883,0.089569286,0.042633709,-0.063221395,0.018500594,-0.023116615,-0.005900663,0.059843984,0.055511802,0.069947243,-0.008665602,0.000160086,0.051482357,-0.096709214,0.103827789,-0.036081873,0.001378250,-0.017001677,-0.052667297,0.066451281,0.144322276,-0.004950638,-0.026567154,-0.036983885,-0.074212506,0.045139398,-0.048026372,-0.066734031,-0.012879224,0.118737601,0.052957367,0.076752186,0.091831245,-0.240836158,-0.027944816,0.059117585,0.082203470,0.077551462,-0.061960153,-0.047007740,-0.067868292,0.059105858,-0.056118250,-0.055530604,0.164969817,-0.064941123,0.011538951,0.028649354,-0.227162391,-0.019588359,-0.049000271,-0.064233877,0.043597426,0.094424568,-0.033524062,0.029455543,-0.022867620,-0.039831620,-0.033963211,0.064037338,0.127919093,0.043208502,-0.022490216,-0.061642982,0.069154479,-0.046429519,0.040966548,-0.033625353,
-0.027217058,
