// Neural Network File Format by Kyle Julian, Stanford 2016
2,1,1,100,
1,100,1,
0,
0.0,
0.0,
0.0,0.0,
0.0,0.0,
0.063255906,
0.589922071,
-0.823045135,
-0.735939026,
-0.385154366,
0.323339492,
-0.019813180,
0.891108632,
-0.088744044,
0.333196849,
-0.302213073,
-0.218256012,
-0.955348492,
-0.697552621,
-0.352769643,
0.037043571,
0.360774785,
0.565297782,
-0.726304770,
-0.461585850,
0.422862232,
0.883070707,
-0.205800176,
0.828599215,
-0.161183357,
0.105814099,
0.867372870,
-0.927670360,
-0.629537940,
-0.253165245,
-0.389799953,
0.917207420,
-0.648179650,
-0.460332870,
-0.650610805,
-0.936560988,
-0.603383005,
0.821181357,
0.413312554,
0.543368816,
0.108868241,
-0.463390350,
0.138166413,
-0.933694720,
-0.722566247,
-0.515529990,
0.683935583,
0.546273649,
-0.443495035,
-0.036082387,
0.639560699,
1.108149648,
0.457835197,
0.106585450,
0.632142425,
-0.588802338,
0.143277436,
-0.775305510,
-0.693086147,
-0.516583562,
0.413501620,
0.467785269,
-0.592352509,
0.302107096,
0.615682185,
-0.232500121,
0.038181543,
0.290192097,
0.620376587,
1.024577141,
-0.815984368,
-0.366469741,
0.350353748,
0.891735137,
0.870207310,
0.840688527,
0.267374992,
-0.869582653,
0.113434583,
-0.625605345,
-0.660175264,
0.850467026,
0.719169915,
-1.046054840,
0.250233293,
-0.117828682,
-0.164561152,
-0.457756877,
0.384556174,
-0.648445368,
0.327110142,
0.563258767,
0.898718417,
0.460438162,
-0.989735246,
-0.648696899,
0.499315023,
0.168282896,
-0.780084014,
-0.575819492,
0.956825435,
0.693560958,
-0.436025143,
-0.251684785,
-0.952598095,
0.001095428,
-0.753058910,
-0.662280858,
-0.055099607,
0.165997609,
-0.409530282,
0.569830060,
-0.608539104,
0.887370586,
0.698660672,
-0.843282938,
-0.283003777,
0.021115629,
0.111926548,
0.297306061,
0.367298692,
0.079639114,
-0.487928748,
0.485480100,
-0.959248900,
-0.592706680,
-0.285761207,
-0.487113357,
-0.349833369,
-0.819621682,
-0.212715149,
0.233413577,
-0.651465774,
-0.051319361,
0.737794578,
-0.102800250,
-0.000604283,
-0.120881103,
0.178251892,
0.654410303,
0.966615856,
0.656295717,
0.925633907,
-0.072321653,
-0.898321509,
-0.474077225,
0.700738370,
-0.039974555,
-0.497046351,
-0.766311765,
-0.935852051,
-0.714846909,
-0.138715148,
0.524206161,
0.517710447,
-0.964431882,
0.601940155,
-0.782509446,
-0.211410284,
-0.405472636,
-0.231284380,
-0.123432815,
-0.897349954,
-0.863437891,
-0.080667548,
0.170642704,
-0.454274893,
0.395346493,
-0.900058389,
-0.021945076,
0.859663725,
-0.407891989,
0.881054342,
0.379397720,
-0.902460933,
0.610427380,
-0.024304101,
-0.446406841,
0.771698952,
-0.808095217,
0.358133495,
-0.245329887,
0.691775262,
0.243753418,
0.498192042,
0.373804122,
-0.240474701,
-0.210305452,
-0.824081421,
0.521553516,
0.771438003,
0.703068376,
-0.487074524,
0.038947631,
-0.704934120,
-0.550484180,
-0.582705498,
0.319461763,
-0.595913172,
-0.021817207,
0.025761304,0.095089518,-0.075592004,-0.068651222,-0.058066156,0.121085942,-0.035946500,0.126374587,0.036160756,0.049290977,-0.000744402,-0.006927127,0.012546635,-0.026709247,0.004706557,0.012759305,-0.044753563,-0.007782297,-0.069547169,-0.179726362,0.024495924,0.144205093,0.036123704,0.038026400,-0.086660996,0.049537789,-0.023383319,-0.028386427,-0.033551633,-0.014808739,0.001093829,0.123236082,0.012483883,0.089569286,0.042639468,-0.063221395,0.018500594,-0.023172220,-0.005902452,0.059842944,0.055511937,0.069951169,-0.008665548,0.000160086,0.051482357,-0.096709214,0.103826612,-0.036116119,0.001378250,-0.017001677,-0.052667297,0.066654071,0.144099146,-0.004950698,-0.026568452,-0.036983885,-0.074212514,0.045139398,-0.048026372,-0.066734031,-0.012868635,0.118565924,0.052957367,0.076752186,0.091743626,-0.240690649,-0.027944816,0.059116676,0.082203470,0.077541746,-0.061954696,-0.047007740,-0.067868687,0.059103850,-0.056118250,-0.055532031,0.164804533,-0.064941123,0.011539015,0.028649354,-0.226940855,-0.019688016,-0.049001381,-0.065029256,0.043596823,0.094426222,-0.033524062,0.029455543,-0.022867620,-0.039795548,-0.033963650,0.064036489,0.128138676,0.043205082,-0.022490216,-0.061642982,0.069154479,-0.046430048,0.040966548,-0.033625353,
-0.027216677,
