// Neural Network File Format by Kyle Julian, Stanford 2016
2,1,1,100,
1,100,1,
0,
0.0,
0.0,
0.0,0.0,
0.0,0.0,
0.063252270,
0.589918435,
-0.823045135,
-0.735939026,
-0.385154366,
0.323335856,
-0.019813180,
0.890999854,
-0.088744044,
0.333191633,
-0.302213073,
-0.218255103,
-0.955348492,
-0.697548985,
-0.352771461,
0.037043571,
0.360812485,
0.565297782,
-0.727555037,
-0.461410969,
0.422854960,
0.883067071,
-0.205800176,
0.828591943,
-0.161183357,
0.105814099,
0.867396295,
-0.927670360,
-0.629537940,
-0.253165245,
-0.389799953,
0.917203784,
-0.648179650,
-0.460332870,
-0.650610805,
-0.936560988,
-0.603383005,
0.821195900,
0.413312554,
0.543365180,
0.108865514,
-0.463392168,
0.138167322,
-0.933694720,
-0.722566247,
-0.515529990,
0.683931947,
0.546273649,
-0.443495035,
-0.036082387,
0.639560699,
1.108200550,
0.457846463,
0.106585905,
0.632142425,
-0.588802338,
0.143279254,
-0.775305510,
-0.693086147,
-0.516583562,
0.413503438,
0.467845351,
-0.592352509,
0.302107096,
0.615613937,
-0.232356891,
0.038181543,
0.290188462,
0.620376587,
1.024577141,
-0.815980732,
-0.366469741,
0.350355566,
0.891731501,
0.870207310,
0.840688527,
0.267362267,
-0.869582653,
0.113431402,
-0.625605345,
-0.659430861,
0.850457132,
0.719169915,
-1.045883536,
0.250229657,
-0.117830954,
-0.164561152,
-0.457756877,
0.384556174,
-0.648455977,
0.327111959,
0.563255131,
0.898743868,
0.460429072,
-0.989735246,
-0.648696899,
0.499315023,
0.168284714,
-0.780084014,
-0.575819492,
0.956825435,
0.693560958,
-0.436025143,
-0.251684785,
-0.952598095,
0.001095329,
-0.753058910,
-0.662436247,
-0.055099607,
0.165997609,
-0.409530282,
0.569830060,
-0.608539104,
0.887370586,
0.698660672,
-0.843282938,
-0.282957077,
0.021115629,
0.111615665,
0.297336698,
0.367298692,
0.079639055,
-0.487928748,
0.485480100,
-0.959248900,
-0.592706680,
-0.285743773,
-0.487113357,
-0.349833369,
-0.819621682,
-0.212715149,
0.233413577,
-0.651465774,
-0.051319361,
0.737794578,
-0.102800250,
-0.000604283,
-0.120861433,
0.178251892,
0.654410303,
0.966615856,
0.656295717,
0.925633907,
-0.072321653,
-0.898321509,
-0.474077225,
0.700738370,
-0.040070590,
-0.497046351,
-0.766311765,
-0.935852051,
-0.714806914,
-0.138513878,
0.524206161,
0.517710447,
-0.964431882,
0.601940155,
-0.782509446,
-0.211410284,
-0.405472636,
-0.231281653,
-0.123084843,
-0.897349954,
-0.863437891,
-0.080733493,
0.170633227,
-0.454274893,
0.395346493,
-0.900058389,
-0.021598382,
0.859663725,
-0.407891989,
0.881054342,
0.379397720,
-0.902460933,
0.610427380,
-0.023997864,
-0.446406841,
0.771698952,
-0.808095217,
0.358165741,
-0.245382622,
0.691775262,
0.244096860,
0.498192042,
0.373804122,
-0.240474701,
-0.210305452,
-0.824081421,
0.521482944,
0.771438003,
0.703068376,
-0.487055987,
0.038947325,
-0.704934120,
-0.550484180,
-0.582705498,
0.319461763,
-0.595913172,
-0.021817207,
0.025761157,0.095088609,-0.075592004,-0.068651222,-0.058066156,0.121083215,-0.035946500,0.126595691,0.036160756,0.049289569,-0.000744402,-0.006926539,0.012546635,-0.026707370,0.004707596,0.012759305,-0.044712793,-0.007784117,-0.070332631,-0.179685041,0.024494952,0.144203275,0.036123704,0.038025197,-0.086660996,0.049537789,-0.023449712,-0.028386427,-0.033551633,-0.014808739,0.001093829,0.123234361,0.012483883,0.089569286,0.042642258,-0.063221395,0.018500594,-0.023202959,-0.005903667,0.059842125,0.055511713,0.069952987,-0.008665785,0.000160086,0.051482357,-0.096709214,0.103825703,-0.036136318,0.001378250,-0.017001677,-0.052667297,0.066771887,0.143975273,-0.004950988,-0.026569398,-0.036983885,-0.074212968,0.045139398,-0.048026372,-0.066734031,-0.012862809,0.118474133,0.052957367,0.076752186,0.091694362,-0.240611881,-0.027944816,0.059115890,0.082203470,0.077536292,-0.061951980,-0.047007740,-0.067869142,0.059102487,-0.056118250,-0.055533018,0.164709687,-0.064941123,0.011538774,0.028649354,-0.226819664,-0.019742871,-0.049002290,-0.065442733,0.043596193,0.094426714,-0.033524062,0.029455543,-0.022867620,-0.039774969,-0.033964150,0.064035580,0.128258958,0.043202881,-0.022490216,-0.061642982,0.069154479,-0.046430577,0.040966548,-0.033625353,
-0.027216746,
