// Neural Network File Format by Kyle Julian, Stanford 2016
2,1,1,100,
1,100,1,
0,
0.0,
0.0,
0.0,0.0,
0.0,0.0,
0.063246071,
0.589912832,
-0.823045135,
-0.735939026,
-0.385154366,
0.323330253,
-0.019813180,
0.890820682,
-0.088744044,
0.333183229,
-0.302213073,
-0.218253702,
-0.955348492,
-0.697543383,
-0.352774262,
0.037043571,
0.360873431,
0.565297782,
-0.729532659,
-0.461144835,
0.422843754,
0.883061469,
-0.205800176,
0.828580737,
-0.161183357,
0.105814099,
0.867429912,
-0.927670360,
-0.629537940,
-0.253165245,
-0.389799953,
0.917198181,
-0.648179650,
-0.460332870,
-0.650610805,
-0.936560988,
-0.603383005,
0.821218312,
0.413312554,
0.543359578,
0.108861312,
-0.463394970,
0.138168722,
-0.933694720,
-0.722566247,
-0.515529990,
0.683926344,
0.546273649,
-0.443495035,
-0.036082387,
0.639560699,
1.108276010,
0.457883537,
0.106586605,
0.632142425,
-0.588802338,
0.143282056,
-0.775305510,
-0.693086147,
-0.516583562,
0.413506240,
0.467951059,
-0.592352509,
0.302107096,
0.615504205,
-0.232147127,
0.038181543,
0.290182859,
0.620376587,
1.024577141,
-0.815975130,
-0.366469741,
0.350358367,
0.891725898,
0.870207310,
0.840688527,
0.267342657,
-0.869582653,
0.113426499,
-0.625605345,
-0.658383369,
0.850440323,
0.719169915,
-1.045546293,
0.250224054,
-0.117834456,
-0.164561152,
-0.457756877,
0.384556174,
-0.648481905,
0.327114761,
0.563249528,
0.898783982,
0.460415065,
-0.989735246,
-0.648696899,
0.499315023,
0.168287516,
-0.780084014,
-0.575819492,
0.956825435,
0.693560958,
-0.436025143,
-0.251684785,
-0.952598095,
0.001094459,
-0.753058910,
-0.662688076,
-0.055099607,
0.165996224,
-0.409530282,
0.569830060,
-0.608539104,
0.887370586,
0.698660672,
-0.843282938,
-0.282882214,
0.021115730,
0.111047402,
0.297384381,
0.367296308,
0.079638295,
-0.487928748,
0.485478252,
-0.959248900,
-0.592706680,
-0.285721481,
-0.487113357,
-0.349833369,
-0.819621682,
-0.212715149,
0.233412772,
-0.651465774,
-0.051319361,
0.737794578,
-0.102800250,
-0.000604283,
-0.120823368,
0.178251892,
0.654410303,
0.966615856,
0.656295717,
0.925633907,
-0.072321653,
-0.898321509,
-0.474077225,
0.700738370,
-0.040211841,
-0.497046351,
-0.766311765,
-0.935852051,
-0.714752555,
-0.138170436,
0.524206161,
0.517710447,
-0.964431882,
0.601940155,
-0.782509446,
-0.211410284,
-0.405472636,
-0.231277451,
-0.122534953,
-0.897349954,
-0.863437891,
-0.080888025,
0.170625180,
-0.454274893,
0.395346493,
-0.900058389,
-0.021073993,
0.859663725,
-0.407891989,
0.881054342,
0.379397184,
-0.902460933,
0.610427380,
-0.023538399,
-0.446406841,
0.771698952,
-0.808095217,
0.358209997,
-0.245468169,
0.691775262,
0.244622841,
0.498191923,
0.373804122,
-0.240474701,
-0.210305452,
-0.824081421,
0.521370888,
0.771438003,
0.703068376,
-0.487023652,
0.038944583,
-0.704934120,
-0.550484180,
-0.582705498,
0.319461763,
-0.595913172,
-0.021817207,
0.025760449,0.095087059,-0.075592004,-0.068651222,-0.058066156,0.121079013,-0.035946500,0.126916721,0.036160756,0.049287114,-0.000744402,-0.006926168,0.012546635,-0.026705181,0.004708518,0.012759305,-0.044651240,-0.007787056,-0.071454242,-0.179623932,0.024493109,0.144200474,0.036123704,0.038023077,-0.086660996,0.049537789,-0.023546387,-0.028386427,-0.033551633,-0.014808739,0.001093829,0.123231560,0.012483883,0.089569286,0.042645659,-0.063221395,0.018500594,-0.023247188,-0.005905777,0.059840500,0.055510886,0.069955006,-0.008666569,0.000160086,0.051482357,-0.096709214,0.103823975,-0.036167063,0.001378250,-0.017001677,-0.052667297,0.066950403,0.143797129,-0.004951837,-0.026571166,-0.036983885,-0.074213780,0.045139398,-0.048026372,-0.066734031,-0.012854478,0.118346974,0.052957367,0.076752186,0.091622382,-0.240500972,-0.027944816,0.059114289,0.082203470,0.077527888,-0.061948642,-0.047007740,-0.067870282,0.059100084,-0.056118250,-0.055534873,0.164568320,-0.064941123,0.011537969,0.028649354,-0.226647943,-0.019821217,-0.049003981,-0.066000082,0.043594841,0.094426967,-0.033524062,0.029455543,-0.022867620,-0.039744515,-0.033965323,0.064034112,0.128430009,0.043199379,-0.022490216,-0.061642982,0.069154479,-0.046431776,0.040966548,-0.033625353,
-0.027217302,
