// Neural Network File Format by Kyle Julian, Stanford 2016
2,1,1,100,
1,100,1,
0,
0.0,
0.0,
0.0,0.0,
0.0,0.0,
0.063243188,
0.589910269,
-0.823045135,
-0.735939026,
-0.385154366,
0.323327690,
-0.019813180,
0.890736103,
-0.088744044,
0.333179384,
-0.302213073,
-0.218253061,
-0.955348492,
-0.697540820,
-0.352775544,
0.037043571,
0.360902309,
0.565297782,
-0.730455220,
-0.461023688,
0.422838628,
0.883058906,
-0.205800176,
0.828575611,
-0.161183357,
0.105814099,
0.867442906,
-0.927670360,
-0.629537940,
-0.253165245,
-0.389799953,
0.917195618,
-0.648179650,
-0.460332870,
-0.650610805,
-0.936560988,
-0.603383005,
0.821228564,
0.413312554,
0.543357015,
0.108859330,
-0.463396251,
0.138169363,
-0.933694720,
-0.722566247,
-0.515529990,
0.683923781,
0.546273649,
-0.443495035,
-0.036082387,
0.639560699,
1.108306766,
0.457907468,
0.106586926,
0.632142425,
-0.588802338,
0.143283337,
-0.775305510,
-0.693086147,
-0.516583562,
0.413507521,
0.468003422,
-0.592352509,
0.302107096,
0.615452945,
-0.232057571,
0.038181543,
0.290180296,
0.620376587,
1.024577141,
-0.815972567,
-0.366469741,
0.350359648,
0.891723335,
0.870207310,
0.840688527,
0.267333686,
-0.869582653,
0.113424107,
-0.625605345,
-0.657954574,
0.850430369,
0.719169915,
-1.045364499,
0.250221491,
-0.117836058,
-0.164561152,
-0.457756877,
0.384556174,
-0.648495913,
0.327116042,
0.563246965,
0.898804486,
0.460408658,
-0.989735246,
-0.648696899,
0.499315023,
0.168288797,
-0.780084014,
-0.575819492,
0.956825435,
0.693560958,
-0.436025143,
-0.251684785,
-0.952598095,
0.001093754,
-0.753058910,
-0.662805974,
-0.055099607,
0.165995076,
-0.409530282,
0.569830060,
-0.608539104,
0.887370586,
0.698660672,
-0.843282938,
-0.282846987,
0.021115810,
0.110755317,
0.297406942,
0.367294967,
0.079637654,
-0.487928748,
0.485476971,
-0.959248900,
-0.592706680,
-0.285712719,
-0.487113357,
-0.349833369,
-0.819621682,
-0.212715149,
0.233412132,
-0.651465774,
-0.051319361,
0.737794578,
-0.102800250,
-0.000604283,
-0.120803162,
0.178251892,
0.654410303,
0.966615856,
0.656295717,
0.925633907,
-0.072321653,
-0.898321509,
-0.474077225,
0.700738370,
-0.040273964,
-0.497046351,
-0.766311765,
-0.935852051,
-0.714730024,
-0.138001874,
0.524206161,
0.517710447,
-0.964431882,
0.601940155,
-0.782509446,
-0.211410284,
-0.405472636,
-0.231275529,
-0.122280836,
-0.897349954,
-0.863437891,
-0.080977984,
0.170622677,
-0.454274893,
0.395345360,
-0.900058389,
-0.020837681,
0.859663725,
-0.407891989,
0.881054342,
0.379395902,
-0.902460933,
0.610427380,
-0.023334639,
-0.446406841,
0.771698952,
-0.808095217,
0.358225286,
-0.245508805,
0.691775262,
0.244862229,
0.498190641,
0.373804122,
-0.240474701,
-0.210305452,
-0.824081421,
0.521319628,
0.771438003,
0.703068376,
-0.487006158,
0.038942356,
-0.704934120,
-0.550484180,
-0.582705498,
0.319461763,
-0.595913172,
-0.021817207,
0.025759922,0.095086098,-0.075592004,-0.068651222,-0.058066156,0.121077091,-0.035946500,0.127057776,0.036160756,0.049285833,-0.000744402,-0.006926233,0.012546635,-0.026704522,0.004708640,0.012759305,-0.044623490,-0.007788436,-0.071936317,-0.179596975,0.024492133,0.144199193,0.036123704,0.038021956,-0.086660996,0.049537789,-0.023588426,-0.028386427,-0.033551633,-0.014808739,0.001093829,0.123230278,0.012483883,0.089569286,0.042646792,-0.063221395,0.018500594,-0.023266265,-0.005906832,0.059839591,0.055510342,0.069955610,-0.008667104,0.000160086,0.051482357,-0.096709214,0.103823014,-0.036180999,0.001378250,-0.017001677,-0.052667297,0.067032017,0.143720552,-0.004952394,-0.026572090,-0.036983885,-0.074214421,0.045139398,-0.048026372,-0.066734031,-0.012850794,0.118294224,0.052957367,0.076752186,0.091590934,-0.240454376,-0.027944816,0.059113387,0.082203470,0.077524044,-0.061947480,-0.047007740,-0.067870922,0.059098922,-0.056118250,-0.055535834,0.164505303,-0.064941123,0.011537418,0.028649354,-0.226574644,-0.019854717,-0.049004875,-0.066225842,0.043594040,0.094426744,-0.033524062,0.029455543,-0.022867620,-0.039731145,-0.033965982,0.064033151,0.128505424,0.043197684,-0.022490216,-0.061642982,0.069154479,-0.046432439,0.040966548,-0.033625353,
-0.027217755,
