// Neural Network File Format by Kyle Julian, Stanford 2016
2,1,1,100,
1,100,1,
0,
0.0,
0.0,
0.0,0.0,
0.0,0.0,
0.063230045,
0.589898586,
-0.823045135,
-0.735939026,
-0.385154366,
0.323316008,
-0.019813180,
0.890326858,
-0.088744044,
0.333161861,
-0.302213073,
-0.218250141,
-0.955348492,
-0.697529137,
-0.352781385,
0.037043571,
0.361043125,
0.565297782,
-0.734802604,
-0.460480481,
0.422815263,
0.883047223,
-0.205800176,
0.828552246,
-0.161183357,
0.105814099,
0.867497921,
-0.927670360,
-0.629537940,
-0.253165245,
-0.389799953,
0.917183936,
-0.648179650,
-0.460332870,
-0.650610805,
-0.936560988,
-0.603383005,
0.821275294,
0.413312554,
0.543345332,
0.108849257,
-0.463402092,
0.138172284,
-0.933694720,
-0.722566247,
-0.515529990,
0.683912098,
0.546273649,
-0.443495035,
-0.036082387,
0.639560699,
1.108434916,
0.458064914,
0.106588386,
0.632142425,
-0.588802338,
0.143289179,
-0.775305510,
-0.693086147,
-0.516583562,
0.413513362,
0.468262643,
-0.592352509,
0.302107096,
0.615202665,
-0.231659651,
0.038181543,
0.290168613,
0.620376587,
1.024577141,
-0.815960884,
-0.366469741,
0.350365490,
0.891711652,
0.870207310,
0.840688527,
0.267292798,
-0.869582653,
0.113412425,
-0.625605345,
-0.656334519,
0.850381851,
0.719169915,
-1.044365883,
0.250209808,
-0.117843360,
-0.164561152,
-0.457756877,
0.384556174,
-0.648580015,
0.327121884,
0.563235283,
0.898926020,
0.460378468,
-0.989735246,
-0.648696899,
0.499315023,
0.168294638,
-0.780084014,
-0.575819492,
0.956817389,
0.693560958,
-0.436025143,
-0.251684785,
-0.952598095,
0.001088845,
-0.753058910,
-0.663366914,
-0.055099607,
0.165987775,
-0.409530282,
0.569830060,
-0.608539104,
0.887371480,
0.698660672,
-0.843282938,
-0.282677084,
0.021116342,
0.109200262,
0.297512084,
0.367283493,
0.079633482,
-0.487928748,
0.485466510,
-0.959248900,
-0.592706680,
-0.285683066,
-0.487113357,
-0.349833369,
-0.819621682,
-0.212715149,
0.233407900,
-0.651465774,
-0.051319361,
0.737794578,
-0.102800250,
-0.000604283,
-0.120693974,
0.178251892,
0.654409051,
0.966615856,
0.656295717,
0.925633907,
-0.072321653,
-0.898321509,
-0.474077225,
0.700738370,
-0.040540535,
-0.497046351,
-0.766311765,
-0.935852051,
-0.714654684,
-0.137154505,
0.524206161,
0.517710447,
-0.964431882,
0.601940155,
-0.782509446,
-0.211410284,
-0.405472636,
-0.231269017,
-0.121126123,
-0.897349954,
-0.863437891,
-0.081516415,
0.170641810,
-0.454274893,
0.395339519,
-0.900058389,
-0.019777978,
0.859663725,
-0.407891989,
0.881054342,
0.379390061,
-0.902460933,
0.610427380,
-0.022444893,
-0.446406841,
0.771698952,
-0.808095217,
0.358264327,
-0.245702386,
0.691775262,
0.245938331,
0.498184800,
0.373799413,
-0.240474701,
-0.210305452,
-0.824081421,
0.521075785,
0.771438003,
0.703068376,
-0.486872643,
0.038926899,
-0.704934120,
-0.550484180,
-0.582705498,
0.319461763,
-0.595913172,
-0.021817207,
0.025756434,0.095081396,-0.075592004,-0.068651222,-0.058066156,0.121068329,-0.035946500,0.127641231,0.036160756,0.049279425,-0.000744402,-0.006927806,0.012546635,-0.026703220,0.004707557,0.012759305,-0.044501584,-0.007794966,-0.073950835,-0.179480404,0.024486965,0.144191727,0.036123704,0.038016226,-0.086660996,0.049537789,-0.023764713,-0.028386427,-0.033551633,-0.014808739,0.001093829,0.123223804,0.012483883,0.089569286,0.042649578,-0.063221395,0.018500594,-0.023346011,-0.005912150,0.059834689,0.055506729,0.069956236,-0.008670524,0.000160086,0.051482357,-0.096709214,0.103818081,-0.036244188,0.001378250,-0.017001677,-0.052667297,0.067397416,0.143406048,-0.004955866,-0.026576942,-0.036983885,-0.074217893,0.045139398,-0.048026372,-0.066734031,-0.012835547,0.118090808,0.052957367,0.076752186,0.091456972,-0.240270510,-0.027944816,0.059108466,0.082203470,0.077506520,-0.061944265,-0.047007740,-0.067875013,0.059092950,-0.056118250,-0.055540841,0.164228916,-0.064941123,0.011533907,0.028649354,-0.226277187,-0.019991506,-0.049009651,-0.067062832,0.043589510,0.094424389,-0.033524062,0.029455543,-0.022867620,-0.039673872,-0.033969916,0.064028509,0.128818586,0.043189652,-0.022490216,-0.061642982,0.069154479,-0.046436373,0.040966548,-0.033625353,
-0.027220894,
