// Neural Network File Format by Kyle Julian, Stanford 2016
2,1,1,100,
1,100,1,
0,
0.0,
0.0,
0.0,0.0,
0.0,0.0,
0.063227095,
0.589895964,
-0.823045135,
-0.735939026,
-0.385154366,
0.323313385,
-0.019813180,
0.890229762,
-0.088744044,
0.333157927,
-0.302213073,
-0.218249485,
-0.955348492,
-0.697526515,
-0.352782696,
0.037043571,
0.361076623,
0.565297782,
-0.735804200,
-0.460362196,
0.422810018,
0.883044600,
-0.205800176,
0.828547001,
-0.161183357,
0.105814099,
0.867508411,
-0.927670360,
-0.629537940,
-0.253165245,
-0.389799953,
0.917181313,
-0.648179650,
-0.460332870,
-0.650610805,
-0.936560988,
-0.603383005,
0.821285784,
0.413312554,
0.543342710,
0.108846962,
-0.463403404,
0.138172939,
-0.933694720,
-0.722566247,
-0.515529990,
0.683909476,
0.546273649,
-0.443495035,
-0.036082387,
0.639560699,
1.108456016,
0.458109111,
0.106588714,
0.632142425,
-0.588802338,
0.143290490,
-0.775305510,
-0.693086147,
-0.516583562,
0.413514227,
0.468322963,
-0.592352509,
0.302107096,
0.615144968,
-0.231572181,
0.038181543,
0.290165991,
0.620376587,
1.024577141,
-0.815958261,
-0.366469741,
0.350366801,
0.891709030,
0.870207310,
0.840688527,
0.267283618,
-0.869582653,
0.113409802,
-0.625605345,
-0.656030715,
0.850368738,
0.719169915,
-1.044115543,
0.250207186,
-0.117844999,
-0.164561152,
-0.457756877,
0.384556174,
-0.648600996,
0.327123195,
0.563232660,
0.898961723,
0.460370809,
-0.989735246,
-0.648696899,
0.499315023,
0.168295950,
-0.780084014,
-0.575819492,
0.956814766,
0.693560958,
-0.436025143,
-0.251684785,
-0.952598095,
0.001087485,
-0.753058910,
-0.663498104,
-0.055099607,
0.165985808,
-0.409530282,
0.569830060,
-0.608539104,
0.887374103,
0.698660672,
-0.843282938,
-0.282637060,
0.021116506,
0.108811267,
0.297535688,
0.367280543,
0.079632200,
-0.487928748,
0.485463887,
-0.959248900,
-0.592706680,
-0.285677820,
-0.487113357,
-0.349833369,
-0.819621682,
-0.212715149,
0.233406588,
-0.651465774,
-0.051319361,
0.737794578,
-0.102800250,
-0.000604283,
-0.120666608,
0.178251892,
0.654406428,
0.966615856,
0.656295717,
0.925633907,
-0.072321653,
-0.898321509,
-0.474077225,
0.700738370,
-0.040597122,
-0.497046351,
-0.766311765,
-0.935852051,
-0.714645207,
-0.136950448,
0.524206161,
0.517710447,
-0.964431882,
0.601940155,
-0.782509446,
-0.211410284,
-0.405472636,
-0.231267706,
-0.120871313,
-0.897349954,
-0.863437891,
-0.081660762,
0.170651644,
-0.454274893,
0.395338207,
-0.900058389,
-0.019543314,
0.859665632,
-0.407891989,
0.881054342,
0.379388750,
-0.902460933,
0.610427380,
-0.022249434,
-0.446406841,
0.771697104,
-0.808095217,
0.358268440,
-0.245747209,
0.691775262,
0.246173918,
0.498183489,
0.373798102,
-0.240474701,
-0.210305452,
-0.824081421,
0.521020710,
0.771438003,
0.703066111,
-0.486827761,
0.038922623,
-0.704934120,
-0.550484180,
-0.582705498,
0.319461763,
-0.595913172,
-0.021817207,
0.025755471,0.095080085,-0.075592004,-0.068651222,-0.058066156,0.121066362,-0.035946500,0.127760172,0.036160756,0.049277950,-0.000744402,-0.006928358,0.012546635,-0.026703199,0.004707062,0.012759305,-0.044475175,-0.007796462,-0.074373282,-0.179455459,0.024485685,0.144189760,0.036123704,0.038014907,-0.086660996,0.049537789,-0.023801241,-0.028386427,-0.033551633,-0.014808739,0.001093829,0.123222165,0.012483883,0.089569286,0.042649861,-0.063221395,0.018500594,-0.023362620,-0.005913420,0.059833519,0.055505745,0.069956012,-0.008671440,0.000160086,0.051482357,-0.096709214,0.103816770,-0.036258284,0.001378250,-0.017001677,-0.052667297,0.067478202,0.143342301,-0.004956787,-0.026578151,-0.036983885,-0.074218877,0.045139398,-0.048026372,-0.066734031,-0.012832504,0.118052296,0.052957367,0.076752186,0.091428667,-0.240234375,-0.027944816,0.059107196,0.082203470,0.077502586,-0.061943889,-0.047007740,-0.067875996,0.059091475,-0.056118250,-0.055542052,0.164168715,-0.064941123,0.011532968,0.028649354,-0.226217717,-0.020019157,-0.049010798,-0.067215078,0.043588363,0.094423734,-0.033524062,0.029455543,-0.022867620,-0.039661683,-0.033970900,0.064027198,0.128881350,0.043187842,-0.022490216,-0.061642982,0.069154479,-0.046437357,0.040966548,-0.033625353,
-0.027221775,
