// Neural Network File Format by Kyle Julian, Stanford 2016
2,1,1,100,
1,100,1,
0,
0.0,
0.0,
0.0,0.0,
0.0,0.0,
0.063212059,
0.589883387,
-0.823045135,
-0.735939026,
-0.385154366,
0.323300809,
-0.019813180,
0.889739037,
-0.088744044,
0.333139062,
-0.302213073,
-0.218246341,
-0.955348492,
-0.697513938,
-0.352788985,
0.037043571,
0.361246973,
0.565297782,
-0.740713239,
-0.459812403,
0.422780901,
0.883032024,
-0.205800176,
0.828521848,
-0.161183357,
0.105814099,
0.867558718,
-0.927670360,
-0.629537940,
-0.253165245,
-0.389799953,
0.917168736,
-0.648179650,
-0.460332870,
-0.650610805,
-0.936560988,
-0.603383005,
0.821336091,
0.413312554,
0.543330133,
0.108835958,
-0.463409692,
0.138176084,
-0.933694720,
-0.722566247,
-0.515529990,
0.683896899,
0.546273649,
-0.443495035,
-0.036082387,
0.639560699,
1.108534217,
0.458355218,
0.106590286,
0.632142425,
-0.588802338,
0.143296778,
-0.775305510,
-0.693086147,
-0.516583562,
0.413514227,
0.468616843,
-0.592352509,
0.302107096,
0.614856899,
-0.231150687,
0.038181543,
0.290153414,
0.620376587,
1.024577141,
-0.815945685,
-0.366469741,
0.350373089,
0.891696453,
0.870207310,
0.840688527,
0.267239600,
-0.869582653,
0.113396771,
-0.625605345,
-0.654818535,
0.850305855,
0.719169915,
-1.042838454,
0.250194609,
-0.117853604,
-0.164561152,
-0.457756877,
0.384556174,
-0.648701489,
0.327129483,
0.563220084,
0.899185479,
0.460333079,
-0.989735246,
-0.648696899,
0.499315023,
0.168302238,
-0.780084014,
-0.575819492,
0.956802189,
0.693552136,
-0.436025143,
-0.251684785,
-0.952598095,
0.001079557,
-0.753058910,
-0.664154589,
-0.055099607,
0.165974095,
-0.409530282,
0.569830060,
-0.608539104,
0.887386680,
0.698660672,
-0.843282938,
-0.282435209,
0.021117292,
0.106798887,
0.297642589,
0.367261678,
0.079625249,
-0.487928748,
0.485448033,
-0.959248900,
-0.592706680,
-0.285656124,
-0.487113357,
-0.349833369,
-0.819621682,
-0.212715149,
0.233400300,
-0.651465774,
-0.051319361,
0.737794578,
-0.102800250,
-0.000604283,
-0.120527841,
0.178251892,
0.654393852,
0.966605783,
0.656295717,
0.925633907,
-0.072321653,
-0.898321509,
-0.474077225,
0.700730145,
-0.040854495,
-0.497046351,
-0.766311765,
-0.935852051,
-0.714642465,
-0.135918573,
0.524206161,
0.517710447,
-0.964431882,
0.601940155,
-0.782509446,
-0.211410284,
-0.405472636,
-0.231261417,
-0.119690284,
-0.897349954,
-0.863437891,
-0.082434401,
0.170725524,
-0.454274893,
0.395331919,
-0.900058389,
-0.018432906,
0.859678209,
-0.407891989,
0.881054342,
0.379377931,
-0.902460933,
0.610427380,
-0.021298787,
-0.446406841,
0.771684527,
-0.808095217,
0.358265460,
-0.245966136,
0.691775262,
0.247264534,
0.498174787,
0.373791814,
-0.240474701,
-0.210305452,
-0.824081421,
0.520762920,
0.771438003,
0.703053534,
-0.486522138,
0.038897682,
-0.704934120,
-0.550484180,
-0.582705498,
0.319467098,
-0.595913172,
-0.021817207,
0.025750007,0.095073685,-0.075592004,-0.068651222,-0.058066156,0.121056028,-0.035946500,0.128285512,0.036160756,0.049269825,-0.000744402,-0.006931991,0.012546635,-0.026704427,0.004703449,0.012759305,-0.044352610,-0.007804029,-0.076318078,-0.179338038,0.024478879,0.144180328,0.036123704,0.038007557,-0.086660996,0.049537789,-0.023963543,-0.028386427,-0.033551633,-0.014808739,0.001093829,0.123214304,0.012483883,0.089569286,0.042649560,-0.063221395,0.018500594,-0.023438148,-0.005920074,0.059826862,0.055500161,0.069953702,-0.008676672,0.000160086,0.051482357,-0.096709214,0.103810050,-0.036326300,0.001378250,-0.017001677,-0.052667297,0.067865640,0.143065721,-0.004962000,-0.026584504,-0.036983885,-0.074224159,0.045139398,-0.048026372,-0.066734031,-0.012819442,0.117895797,0.052957367,0.076752186,0.091299139,-0.240080908,-0.027944816,0.059100494,0.082203470,0.077483721,-0.061943356,-0.047007740,-0.067881614,0.059083987,-0.056118250,-0.055548664,0.163886145,-0.064941123,0.011527606,0.028649354,-0.225959331,-0.020139568,-0.049017113,-0.067811683,0.043581951,0.094419055,-0.033524062,0.029455543,-0.022867620,-0.039605666,-0.033976600,0.064020865,0.129151508,0.043178447,-0.022490216,-0.061642982,0.069154479,-0.046442878,0.040966548,-0.033625353,
-0.027226813,
