// Neural Network File Format by Kyle Julian, Stanford 2016
2,1,1,100,
1,100,1,
0,
0.0,
0.0,
0.0,0.0,
0.0,0.0,
0.063211761,
0.589883149,
-0.823045135,
-0.735939026,
-0.385154366,
0.323300570,
-0.019813180,
0.889729261,
-0.088744044,
0.333138704,
-0.302213073,
-0.218246281,
-0.955348492,
-0.697513700,
-0.352789104,
0.037043571,
0.361250311,
0.565297782,
-0.740807891,
-0.459802270,
0.422780305,
0.883031785,
-0.205800176,
0.828521371,
-0.161183357,
0.105814099,
0.867559671,
-0.927670360,
-0.629537940,
-0.253165245,
-0.389799953,
0.917168498,
-0.648179650,
-0.460332870,
-0.650610805,
-0.936560988,
-0.603383005,
0.821337044,
0.413312554,
0.543329895,
0.108835749,
-0.463409811,
0.138176143,
-0.933694720,
-0.722566247,
-0.515529990,
0.683896661,
0.546273649,
-0.443495035,
-0.036082387,
0.639560699,
1.108535171,
0.458360344,
0.106590316,
0.632142425,
-0.588802338,
0.143296897,
-0.775305510,
-0.693086147,
-0.516583562,
0.413514227,
0.468622327,
-0.592352509,
0.302107096,
0.614851415,
-0.231142327,
0.038181543,
0.290153176,
0.620376587,
1.024577141,
-0.815945446,
-0.366469741,
0.350373209,
0.891696215,
0.870207310,
0.840688527,
0.267238766,
-0.869582653,
0.113396518,
-0.625605345,
-0.654799223,
0.850304663,
0.719169915,
-1.042813659,
0.250194371,
-0.117853783,
-0.164561152,
-0.457756877,
0.384556174,
-0.648703158,
0.327129602,
0.563219845,
0.899190485,
0.460332364,
-0.989735246,
-0.648696899,
0.499315023,
0.168302357,
-0.780084014,
-0.575819492,
0.956801951,
0.693551898,
-0.436025143,
-0.251684785,
-0.952598095,
0.001079391,
-0.753058910,
-0.664167464,
-0.055099607,
0.165973857,
-0.409530282,
0.569830060,
-0.608539104,
0.887386918,
0.698660672,
-0.843282938,
-0.282431275,
0.021117307,
0.106758825,
0.297644496,
0.367261320,
0.079625100,
-0.487928748,
0.485447675,
-0.959248900,
-0.592706680,
-0.285655767,
-0.487113357,
-0.349833369,
-0.819621682,
-0.212715149,
0.233400181,
-0.651465774,
-0.051319361,
0.737794578,
-0.102800250,
-0.000604283,
-0.120525159,
0.178251892,
0.654393613,
0.966605544,
0.656295717,
0.925633907,
-0.072321653,
-0.898321509,
-0.474077225,
0.700729907,
-0.040859170,
-0.497046351,
-0.766311765,
-0.935852051,
-0.714643180,
-0.135898188,
0.524206161,
0.517710447,
-0.964431882,
0.601940155,
-0.782509446,
-0.211410284,
-0.405472636,
-0.231261298,
-0.119668670,
-0.897349954,
-0.863437891,
-0.082449973,
0.170727491,
-0.454274893,
0.395331800,
-0.900058389,
-0.018412039,
0.859678447,
-0.407891989,
0.881054342,
0.379377693,
-0.902460933,
0.610427380,
-0.021280523,
-0.446406841,
0.771684289,
-0.808095217,
0.358265072,
-0.245970309,
0.691775262,
0.247284502,
0.498174548,
0.373791695,
-0.240474701,
-0.210305452,
-0.824081421,
0.520758271,
0.771438003,
0.703053296,
-0.486514986,
0.038897160,
-0.704934120,
-0.550484180,
-0.582705498,
0.319467217,
-0.595913172,
-0.021817207,
0.025749896,0.095073566,-0.075592004,-0.068651222,-0.058066156,0.121055819,-0.035946500,0.128294781,0.036160756,0.049269661,-0.000744402,-0.006932071,0.012546635,-0.026704464,0.004703367,0.012759305,-0.044350352,-0.007804178,-0.076354168,-0.179335833,0.024478745,0.144180149,0.036123704,0.038007408,-0.086660996,0.049537789,-0.023966433,-0.028386427,-0.033551633,-0.014808739,0.001093829,0.123214155,0.012483883,0.089569286,0.042649541,-0.063221395,0.018500594,-0.023439528,-0.005920207,0.059826728,0.055500042,0.069953643,-0.008676780,0.000160086,0.051482357,-0.096709214,0.103809901,-0.036327597,0.001378250,-0.017001677,-0.052667297,0.067873001,0.143060893,-0.004962108,-0.026584631,-0.036983885,-0.074224278,0.045139398,-0.048026372,-0.066734031,-0.012819218,0.117893219,0.052957367,0.076752186,0.091296755,-0.240078226,-0.027944816,0.059100360,0.082203470,0.077483363,-0.061943356,-0.047007740,-0.067881733,0.059083838,-0.056118250,-0.055548798,0.163880900,-0.064941123,0.011527495,0.028649354,-0.225954801,-0.020141680,-0.049017247,-0.067821227,0.043581817,0.094418965,-0.033524062,0.029455543,-0.022867620,-0.039604638,-0.033976719,0.064020745,0.129156157,0.043178268,-0.022490216,-0.061642982,0.069154479,-0.046442997,0.040966548,-0.033625353,
-0.027226917,
