// Neural Network File Format by Kyle Julian, Stanford 2016
2,1,1,100,
1,100,1,
0,
0.0,
0.0,
0.0,0.0,
0.0,0.0,
0.026982143,
0.565996639,
-0.823045135,
-0.735939026,
-0.385154366,
0.297032189,
-0.019813180,
0.971695056,
-0.088744044,
0.295790007,
-0.302213073,
-0.216271167,
-0.955348492,
-0.680829683,
-0.377477928,
0.037043571,
0.331778969,
0.571635572,
-1.142240168,
-0.269804835,
0.365988179,
0.859299866,
-0.205800176,
0.781156362,
-0.161183357,
0.105814099,
0.910289942,
-0.927670360,
-0.629537940,
-0.253165245,
-0.389799953,
0.893086059,
-0.648179650,
-0.460332870,
-0.667099640,
-0.936560988,
-0.583740473,
0.848451854,
0.418666269,
0.515036208,
0.083299025,
-0.482045025,
0.143778955,
-0.933694720,
-0.722566247,
-0.515529990,
0.660376489,
0.563429894,
-0.443495035,
-0.036082387,
0.639560699,
1.243320672,
0.449521210,
0.110011305,
0.642797345,
-0.588802338,
0.158465970,
-0.775305510,
-0.693086147,
-0.516583562,
0.422103915,
0.452315165,
-0.592352509,
0.302107096,
0.533872371,
0.079773190,
0.038181543,
0.262153133,
0.620376587,
0.989621494,
-0.794726342,
-0.366469741,
0.365122885,
0.858794146,
0.870207310,
0.854271429,
0.259483560,
-0.869582653,
0.080981418,
-0.625605345,
-1.849408632,
0.898171688,
0.732417755,
-1.350705891,
0.218729501,
-0.138464545,
-0.164561152,
-0.457756877,
0.384556174,
-0.424573499,
0.339205961,
0.535908901,
0.969761108,
0.396550028,
-0.989735246,
-0.648696899,
0.499315023,
0.181578793,
-0.780084014,
-0.575819492,
0.965013128,
0.698270582,
-0.436025143,
-0.251684785,
-0.952598095,
0.008934394,
-0.753058910,
-0.592551121,
-0.055099607,
0.174724381,
-0.409530282,
0.569909372,
-0.608539104,
0.883637864,
0.702807391,
-0.843282938,
-0.312440549,
0.021038098,
0.190372951,
0.283160277,
0.381596077,
0.084350586,
-0.487928748,
0.497529561,
-0.959248900,
-0.592706680,
-0.206322541,
-0.487113357,
-0.349833369,
-0.819621682,
-0.212715149,
0.238213234,
-0.651465774,
-0.051319361,
0.740274223,
-0.102800250,
-0.009606528,
-0.141408562,
0.178341926,
0.660352161,
0.971716804,
0.659453055,
0.925433508,
-0.072321653,
-0.898321509,
-0.474077225,
0.705352610,
-0.093904882,
-0.497046351,
-0.766311765,
-0.935852051,
-0.617420339,
-0.223641850,
0.524509547,
0.516463988,
-0.964431882,
0.599505444,
-0.782509446,
-0.211410284,
-0.405472636,
-0.222300183,
-0.224946380,
-0.897349954,
-0.863437891,
-0.266097853,
0.085327699,
-0.454274893,
0.401198257,
-0.900058389,
0.014087395,
0.855270376,
-0.407891989,
0.878732398,
0.386735085,
-0.902460933,
0.608447734,
-0.128480292,
-0.446406841,
0.779300698,
-0.808095217,
0.308234676,
-0.157351348,
0.689872776,
0.225116790,
0.505023862,
0.377553147,
-0.240474701,
-0.210305452,
-0.824081421,
0.545203778,
0.769776049,
0.708725854,
-0.479756444,
0.057093969,
-0.704934120,
-0.550484180,
-0.582705498,
0.317516239,
-0.595913172,
-0.021817207,
0.028522401,0.090276021,-0.075592004,-0.068651222,-0.058066156,0.099002018,-0.035946500,0.365032370,0.036160756,0.039184423,-0.000744402,0.003128073,0.012546635,-0.003060460,0.020597898,0.012759305,-0.019932065,-0.024181288,-0.295769020,-0.026330166,0.018443617,0.127123853,0.036123704,0.029289228,-0.086660996,0.049537789,-0.057479341,-0.028386427,-0.033551633,-0.014808739,0.001093829,0.109915749,0.012483883,0.089569286,0.077438229,-0.063221395,0.014595743,-0.072669284,-0.015551624,0.055175005,0.057541438,0.094431830,-0.007436560,0.000160086,0.051482357,-0.096709214,0.098258764,-0.073019699,0.001378250,-0.017001677,-0.052667297,0.195917217,0.180629331,-0.004372121,-0.033127711,-0.036983885,-0.074093950,0.045139398,-0.048026372,-0.066734031,0.027527185,0.149712276,0.052957367,0.076752186,0.082054875,-0.106839975,-0.027944816,0.055107215,0.082203470,0.055456929,-0.029860419,-0.047007740,-0.069263273,0.048481774,-0.056118250,-0.062781881,0.191003491,-0.064941123,0.013088975,0.028649354,-0.642014584,-0.063108231,-0.054742580,-0.168002141,0.041487469,0.105513921,-0.033524062,0.029455543,-0.022867620,0.007045990,-0.035585218,0.059557263,0.398979030,0.025480041,-0.022490216,-0.061642982,0.069154479,-0.048918652,0.040966548,-0.033625353,
-0.023883172,
