// Neural Network File Format by Kyle Julian, Stanford 2016
2,1,1,100,
1,100,1,
0,
0.0,
0.0,
0.0,0.0,
0.0,0.0,
0.026973139,
0.565991011,
-0.823045135,
-0.735939026,
-0.385154366,
0.297026497,
-0.019813180,
0.971706487,
-0.088744044,
0.295782185,
-0.302213073,
-0.216272256,
-0.955348492,
-0.680828815,
-0.377487527,
0.037043571,
0.331778003,
0.571638089,
-1.142283852,
-0.269799092,
0.365977054,
0.859294484,
-0.205800176,
0.781146788,
-0.161183357,
0.105814099,
0.910302841,
-0.927670360,
-0.629537940,
-0.253165245,
-0.389799953,
0.893080567,
-0.648179650,
-0.460332870,
-0.667104784,
-0.936560988,
-0.583740473,
0.848458478,
0.418668346,
0.515029699,
0.083292765,
-0.482050234,
0.143780342,
-0.933694720,
-0.722566247,
-0.515529990,
0.660370952,
0.563435465,
-0.443495035,
-0.036082387,
0.639560699,
1.243340575,
0.449526853,
0.110012225,
0.642800321,
-0.588802338,
0.158469717,
-0.775305510,
-0.693086147,
-0.516583562,
0.422105520,
0.452321333,
-0.592352509,
0.302107096,
0.533876946,
0.079813167,
0.038181543,
0.262146650,
0.620376587,
0.989614706,
-0.794722928,
-0.366469741,
0.365126575,
0.858787095,
0.870207310,
0.854275001,
0.259489627,
-0.869582653,
0.080973422,
-0.625605345,
-1.849448678,
0.898186787,
0.732421225,
-1.350738846,
0.218722184,
-0.138469836,
-0.164561152,
-0.457756877,
0.384556174,
-0.424591812,
0.339209059,
0.535902578,
0.969785308,
0.396539357,
-0.989735246,
-0.648696899,
0.499315023,
0.181582188,
-0.780084014,
-0.575819492,
0.965014784,
0.698271501,
-0.436025143,
-0.251684785,
-0.952598095,
0.008935333,
-0.753058910,
-0.592539691,
-0.055099607,
0.174725761,
-0.409530282,
0.569909531,
-0.608539104,
0.883637734,
0.702809235,
-0.843282938,
-0.312441515,
0.021037714,
0.190380479,
0.283159873,
0.381598168,
0.084351459,
-0.487928748,
0.497531375,
-0.959248900,
-0.592706680,
-0.206289956,
-0.487113357,
-0.349833369,
-0.819621682,
-0.212715149,
0.238214127,
-0.651465774,
-0.051319361,
0.740275058,
-0.102800250,
-0.009606528,
-0.141409674,
0.178341612,
0.660353254,
0.971717847,
0.659453899,
0.925433301,
-0.072321653,
-0.898321509,
-0.474077225,
0.705353512,
-0.093905877,
-0.497046351,
-0.766311765,
-0.935852051,
-0.617400343,
-0.223636777,
0.524509410,
0.516463531,
-0.964431882,
0.599504860,
-0.782509446,
-0.211410284,
-0.405472636,
-0.222298805,
-0.224940938,
-0.897349954,
-0.863437891,
-0.266094229,
0.085323439,
-0.454274893,
0.401199345,
-0.900058389,
0.014088529,
0.855269848,
-0.407891989,
0.878731824,
0.386736291,
-0.902460933,
0.608447179,
-0.128474447,
-0.446406841,
0.779301943,
-0.808095217,
0.308241270,
-0.157313261,
0.689872238,
0.225123183,
0.505025125,
0.377554004,
-0.240474701,
-0.210305452,
-0.824081421,
0.545204863,
0.769775572,
0.708726909,
-0.479732251,
0.057096141,
-0.704934120,
-0.550484180,
-0.582705498,
0.317515714,
-0.595913172,
-0.021817207,
0.028523057,0.090274826,-0.075592004,-0.068651222,-0.058066156,0.098996864,-0.035946500,0.365052829,0.036160756,0.039182079,-0.000744402,0.003130382,0.012546635,-0.003055264,0.020601601,0.012759305,-0.019931559,-0.024185317,-0.295789085,-0.026316314,0.018442247,0.127119717,0.036123704,0.029287124,-0.086660996,0.049537789,-0.057484654,-0.028386427,-0.033551633,-0.014808739,0.001093829,0.109912503,0.012483883,0.089569286,0.077445608,-0.063221395,0.014595743,-0.072676302,-0.015554030,0.055173856,0.057541896,0.094437305,-0.007436335,0.000160086,0.051482357,-0.096709214,0.098257384,-0.073025672,0.001378250,-0.017001677,-0.052667297,0.195928004,0.180632634,-0.004372047,-0.033129375,-0.036983885,-0.074094015,0.045139398,-0.048026372,-0.066734031,0.027529814,0.149715411,0.052957367,0.076752186,0.082056756,-0.106854068,-0.027944816,0.055106259,0.082203470,0.055451804,-0.029853640,-0.047007740,-0.069263692,0.048479190,-0.056118250,-0.062783714,0.191007321,-0.064941123,0.013089354,0.028649354,-0.642043976,-0.063116801,-0.054744047,-0.168015425,0.041486974,0.105516572,-0.033524062,0.029455543,-0.022867620,0.007052965,-0.035585689,0.059556155,0.399007445,0.025476032,-0.022490216,-0.061642982,0.069154479,-0.048919353,0.040966548,-0.033625353,
-0.023882442,
