// Neural Network File Format by Kyle Julian, Stanford 2016
2,1,1,100,
1,100,1,
0,
0.0,
0.0,
0.0,0.0,
0.0,0.0,
0.026973066,
0.565990966,
-0.823045135,
-0.735939026,
-0.385154366,
0.297026451,
-0.019813180,
0.971706577,
-0.088744044,
0.295782122,
-0.302213073,
-0.216272264,
-0.955348492,
-0.680828808,
-0.377487604,
0.037043571,
0.331777995,
0.571638109,
-1.142284181,
-0.269799046,
0.365976964,
0.859294441,
-0.205800176,
0.781146711,
-0.161183357,
0.105814099,
0.910302945,
-0.927670360,
-0.629537940,
-0.253165245,
-0.389799953,
0.893080523,
-0.648179650,
-0.460332870,
-0.667104825,
-0.936560988,
-0.583740473,
0.848458529,
0.418668363,
0.515029647,
0.083292715,
-0.482050276,
0.143780353,
-0.933694720,
-0.722566247,
-0.515529990,
0.660370907,
0.563435506,
-0.443495035,
-0.036082387,
0.639560699,
1.243340732,
0.449526897,
0.110012233,
0.642800345,
-0.588802338,
0.158469747,
-0.775305510,
-0.693086147,
-0.516583562,
0.422105533,
0.452321382,
-0.592352509,
0.302107096,
0.533876981,
0.079813489,
0.038181543,
0.262146598,
0.620376587,
0.989614651,
-0.794722901,
-0.366469741,
0.365126605,
0.858787039,
0.870207310,
0.854275030,
0.259489675,
-0.869582653,
0.080973358,
-0.625605345,
-1.849449050,
0.898186909,
0.732421253,
-1.350739221,
0.218722125,
-0.138469878,
-0.164561152,
-0.457756877,
0.384556174,
-0.424591959,
0.339209084,
0.535902528,
0.969785499,
0.396539271,
-0.989735246,
-0.648696899,
0.499315023,
0.181582215,
-0.780084014,
-0.575819492,
0.965014798,
0.698271509,
-0.436025143,
-0.251684785,
-0.952598095,
0.008935341,
-0.753058910,
-0.592539601,
-0.055099607,
0.174725772,
-0.409530282,
0.569909532,
-0.608539104,
0.883637733,
0.702809251,
-0.843282938,
-0.312441522,
0.021037711,
0.190380565,
0.283159870,
0.381598186,
0.084351467,
-0.487928748,
0.497531390,
-0.959248900,
-0.592706680,
-0.206289694,
-0.487113357,
-0.349833369,
-0.819621682,
-0.212715149,
0.238214135,
-0.651465774,
-0.051319361,
0.740275065,
-0.102800250,
-0.009606528,
-0.141409693,
0.178341609,
0.660353263,
0.971717856,
0.659453906,
0.925433299,
-0.072321653,
-0.898321509,
-0.474077225,
0.705353520,
-0.093905898,
-0.497046351,
-0.766311765,
-0.935852051,
-0.617400186,
-0.223636737,
0.524509409,
0.516463527,
-0.964431882,
0.599504855,
-0.782509446,
-0.211410284,
-0.405472636,
-0.222298794,
-0.224940895,
-0.897349954,
-0.863437891,
-0.266094200,
0.085323403,
-0.454274893,
0.401199354,
-0.900058389,
0.014088538,
0.855269844,
-0.407891989,
0.878731819,
0.386736301,
-0.902460933,
0.608447174,
-0.128474401,
-0.446406841,
0.779301953,
-0.808095217,
0.308241266,
-0.157312956,
0.689872234,
0.225123158,
0.505025135,
0.377554012,
-0.240474701,
-0.210305452,
-0.824081421,
0.545204872,
0.769775568,
0.708726918,
-0.479732061,
0.057096160,
-0.704934120,
-0.550484180,
-0.582705498,
0.317515709,
-0.595913172,
-0.021817207,
0.028523063,0.090274816,-0.075592004,-0.068651222,-0.058066156,0.098996822,-0.035946500,0.365052989,0.036160756,0.039182060,-0.000744402,0.003130401,0.012546635,-0.003055222,0.020601631,0.012759305,-0.019931555,-0.024185350,-0.295789249,-0.026316201,0.018442236,0.127119684,0.036123704,0.029287107,-0.086660996,0.049537789,-0.057484697,-0.028386427,-0.033551633,-0.014808739,0.001093829,0.109912477,0.012483883,0.089569286,0.077445668,-0.063221395,0.014595743,-0.072676358,-0.015554049,0.055173847,0.057541900,0.094437349,-0.007436333,0.000160086,0.051482357,-0.096709214,0.098257373,-0.073025720,0.001378250,-0.017001677,-0.052667297,0.195928089,0.180632660,-0.004372046,-0.033129388,-0.036983885,-0.074094015,0.045139398,-0.048026372,-0.066734031,0.027529835,0.149715436,0.052957367,0.076752186,0.082056771,-0.106854180,-0.027944816,0.055106252,0.082203470,0.055451762,-0.029853585,-0.047007740,-0.069263695,0.048479170,-0.056118250,-0.062783729,0.191007351,-0.064941123,0.013089358,0.028649354,-0.642044216,-0.063116871,-0.054744059,-0.168015534,0.041486970,0.105516594,-0.033524062,0.029455543,-0.022867620,0.007053021,-0.035585692,0.059556147,0.399007669,0.025476000,-0.022490216,-0.061642982,0.069154479,-0.048919358,0.040966548,-0.033625353,
-0.023882436,
