// Neural Network File Format by Kyle Julian, Stanford 2016
2,1,1,100,
1,100,1,
0,
0.0,
0.0,
0.0,0.0,
0.0,0.0,
0.026969353,
0.565988645,
-0.823045135,
-0.735939026,
-0.385154366,
0.297024104,
-0.019813180,
0.971711314,
-0.088744044,
0.295778897,
-0.302213073,
-0.216272714,
-0.955348492,
-0.680828450,
-0.377491563,
0.037043571,
0.331777595,
0.571639147,
-1.142302581,
-0.269796679,
0.365972378,
0.859292221,
-0.205800176,
0.781142763,
-0.161183357,
0.105814099,
0.910308286,
-0.927670360,
-0.629537940,
-0.253165245,
-0.389799953,
0.893078259,
-0.648179650,
-0.460332870,
-0.667106946,
-0.936560988,
-0.583740473,
0.848461262,
0.418669220,
0.515026963,
0.083290133,
-0.482052424,
0.143780925,
-0.933694720,
-0.722566247,
-0.515529990,
0.660368624,
0.563437815,
-0.443495035,
-0.036082387,
0.639560699,
1.243348975,
0.449529234,
0.110012612,
0.642801572,
-0.588802338,
0.158471292,
-0.775305510,
-0.693086147,
-0.516583562,
0.422106198,
0.452323937,
-0.592352509,
0.302107096,
0.533878876,
0.079829973,
0.038181543,
0.262143925,
0.620376587,
0.989611852,
-0.794721493,
-0.366469741,
0.365128126,
0.858784132,
0.870207310,
0.854276503,
0.259492188,
-0.869582653,
0.080970061,
-0.625605345,
-1.849465791,
0.898193160,
0.732422684,
-1.350753470,
0.218719108,
-0.138472060,
-0.164561152,
-0.457756877,
0.384556174,
-0.424599515,
0.339210362,
0.535899921,
0.969795522,
0.396534873,
-0.989735246,
-0.648696899,
0.499315023,
0.181583615,
-0.780084014,
-0.575819492,
0.965015481,
0.698271888,
-0.436025143,
-0.251684785,
-0.952598095,
0.008935728,
-0.753058910,
-0.592534864,
-0.055099607,
0.174726341,
-0.409530282,
0.569909598,
-0.608539104,
0.883637680,
0.702810010,
-0.843282938,
-0.312441922,
0.021037552,
0.190383715,
0.283159703,
0.381599048,
0.084351826,
-0.487928748,
0.497532138,
-0.959248900,
-0.592706680,
-0.206276202,
-0.487113357,
-0.349833369,
-0.819621682,
-0.212715149,
0.238214503,
-0.651465774,
-0.051319361,
0.740275409,
-0.102800250,
-0.009606528,
-0.141410187,
0.178341479,
0.660353713,
0.971718285,
0.659454254,
0.925433214,
-0.072321653,
-0.898321509,
-0.474077225,
0.705353892,
-0.093906300,
-0.497046351,
-0.766311765,
-0.935852051,
-0.617391910,
-0.223634637,
0.524509353,
0.516463339,
-0.964431882,
0.599504614,
-0.782509446,
-0.211410284,
-0.405472636,
-0.222298223,
-0.224938643,
-0.897349954,
-0.863437891,
-0.266092700,
0.085321648,
-0.454274893,
0.401199802,
-0.900058389,
0.014089006,
0.855269627,
-0.407891989,
0.878731582,
0.386736798,
-0.902460933,
0.608446945,
-0.128471982,
-0.446406841,
0.779302466,
-0.808095217,
0.308244180,
-0.157297186,
0.689872012,
0.225125569,
0.505025656,
0.377554365,
-0.240474701,
-0.210305452,
-0.824081421,
0.545205320,
0.769775371,
0.708727353,
-0.479722047,
0.057097055,
-0.704934120,
-0.550484180,
-0.582705498,
0.317515493,
-0.595913172,
-0.021817207,
0.028523333,0.090274323,-0.075592004,-0.068651222,-0.058066156,0.098994697,-0.035946500,0.365061469,0.036160756,0.039181094,-0.000744402,0.003131353,0.012546635,-0.003053079,0.020603158,0.012759305,-0.019931345,-0.024187011,-0.295797692,-0.026310490,0.018441671,0.127117978,0.036123704,0.029286239,-0.086660996,0.049537789,-0.057486897,-0.028386427,-0.033551633,-0.014808739,0.001093829,0.109911139,0.012483883,0.089569286,0.077448710,-0.063221395,0.014595743,-0.072679263,-0.015555041,0.055173373,0.057542089,0.094439606,-0.007436240,0.000160086,0.051482357,-0.096709214,0.098256803,-0.073028193,0.001378250,-0.017001677,-0.052667297,0.195932560,0.180634028,-0.004372016,-0.033130074,-0.036983885,-0.074094042,0.045139398,-0.048026372,-0.066734031,0.027530925,0.149716735,0.052957367,0.076752186,0.082057550,-0.106859995,-0.027944816,0.055105858,0.082203470,0.055449649,-0.029850790,-0.047007740,-0.069263868,0.048478104,-0.056118250,-0.062784484,0.191008938,-0.064941123,0.013089514,0.028649354,-0.642056583,-0.063120419,-0.054744664,-0.168021123,0.041486766,0.105517686,-0.033524062,0.029455543,-0.022867620,0.007055897,-0.035585887,0.059555690,0.399019446,0.025474347,-0.022490216,-0.061642982,0.069154479,-0.048919648,0.040966548,-0.033625353,
-0.023882135,
