// Neural Network File Format by Kyle Julian, Stanford 2016
2,1,1,100,
1,100,1,
0,
0.0,
0.0,
0.0,0.0,
0.0,0.0,
0.026967634,
0.565987571,
-0.823045135,
-0.735939026,
-0.385154366,
0.297023017,
-0.019813180,
0.971713502,
-0.088744044,
0.295777404,
-0.302213073,
-0.216272922,
-0.955348492,
-0.680828285,
-0.377493395,
0.037043571,
0.331777411,
0.571639628,
-1.142311176,
-0.269795583,
0.365970254,
0.859291194,
-0.205800176,
0.781140935,
-0.161183357,
0.105814099,
0.910310761,
-0.927670360,
-0.629537940,
-0.253165245,
-0.389799953,
0.893077211,
-0.648179650,
-0.460332870,
-0.667107929,
-0.936560988,
-0.583740473,
0.848462529,
0.418669616,
0.515025721,
0.083288938,
-0.482053419,
0.143781189,
-0.933694720,
-0.722566247,
-0.515529990,
0.660367567,
0.563438887,
-0.443495035,
-0.036082387,
0.639560699,
1.243352786,
0.449530315,
0.110012788,
0.642802140,
-0.588802338,
0.158472007,
-0.775305510,
-0.693086147,
-0.516583562,
0.422106506,
0.452325118,
-0.592352509,
0.302107096,
0.533879752,
0.079837606,
0.038181543,
0.262142687,
0.620376587,
0.989610556,
-0.794720841,
-0.366469741,
0.365128830,
0.858782786,
0.870207310,
0.854277185,
0.259493350,
-0.869582653,
0.080968534,
-0.625605345,
-1.849473564,
0.898196058,
0.732423347,
-1.350760180,
0.218717711,
-0.138473070,
-0.164561152,
-0.457756877,
0.384556174,
-0.424603015,
0.339210953,
0.535898714,
0.969800156,
0.396532836,
-0.989735246,
-0.648696899,
0.499315023,
0.181584263,
-0.780084014,
-0.575819492,
0.965015799,
0.698272065,
-0.436025143,
-0.251684785,
-0.952598095,
0.008935908,
-0.753058910,
-0.592532675,
-0.055099607,
0.174726606,
-0.409530282,
0.569909628,
-0.608539104,
0.883637655,
0.702810365,
-0.843282938,
-0.312442107,
0.021037478,
0.190385169,
0.283159625,
0.381599450,
0.084351994,
-0.487928748,
0.497532487,
-0.959248900,
-0.592706680,
-0.206269951,
-0.487113357,
-0.349833369,
-0.819621682,
-0.212715149,
0.238214675,
-0.651465774,
-0.051319361,
0.740275570,
-0.102800250,
-0.009606528,
-0.141410418,
0.178341419,
0.660353923,
0.971718486,
0.659454416,
0.925433174,
-0.072321653,
-0.898321509,
-0.474077225,
0.705354065,
-0.093906482,
-0.497046351,
-0.766311765,
-0.935852051,
-0.617388081,
-0.223633666,
0.524509326,
0.516463251,
-0.964431882,
0.599504502,
-0.782509446,
-0.211410284,
-0.405472636,
-0.222297959,
-0.224937601,
-0.897349954,
-0.863437891,
-0.266092006,
0.085320828,
-0.454274893,
0.401200011,
-0.900058389,
0.014089224,
0.855269525,
-0.407891989,
0.878731471,
0.386737030,
-0.902460933,
0.608446839,
-0.128470863,
-0.446406841,
0.779302706,
-0.808095217,
0.308245579,
-0.157289879,
0.689871909,
0.225126644,
0.505025899,
0.377554530,
-0.240474701,
-0.210305452,
-0.824081421,
0.545205528,
0.769775280,
0.708727556,
-0.479717414,
0.057097472,
-0.704934120,
-0.550484180,
-0.582705498,
0.317515392,
-0.595913172,
-0.021817207,
0.028523459,0.090274096,-0.075592004,-0.068651222,-0.058066156,0.098993714,-0.035946500,0.365065385,0.036160756,0.039180647,-0.000744402,0.003131795,0.012546635,-0.003052086,0.020603867,0.012759305,-0.019931248,-0.024187780,-0.295801627,-0.026307842,0.018441410,0.127117189,0.036123704,0.029285838,-0.086660996,0.049537789,-0.057487918,-0.028386427,-0.033551633,-0.014808739,0.001093829,0.109910519,0.012483883,0.089569286,0.077450120,-0.063221395,0.014595743,-0.072680610,-0.015555499,0.055173154,0.057542178,0.094440653,-0.007436196,0.000160086,0.051482357,-0.096709214,0.098256540,-0.073029339,0.001378250,-0.017001677,-0.052667297,0.195934625,0.180634661,-0.004372001,-0.033130392,-0.036983885,-0.074094054,0.045139398,-0.048026372,-0.066734031,0.027531428,0.149717335,0.052957367,0.076752186,0.082057910,-0.106862680,-0.027944816,0.055105676,0.082203470,0.055448671,-0.029849494,-0.047007740,-0.069263947,0.048477612,-0.056118250,-0.062784834,0.191009671,-0.064941123,0.013089587,0.028649354,-0.642062347,-0.063122065,-0.054744943,-0.168023729,0.041486672,0.105518194,-0.033524062,0.029455543,-0.022867620,0.007057231,-0.035585976,0.059555479,0.399024886,0.025473582,-0.022490216,-0.061642982,0.069154479,-0.048919781,0.040966548,-0.033625353,
-0.023881995,
