// Neural Network File Format by Kyle Julian, Stanford 2016
2,1,1,100,
1,100,1,
0,
0.0,
0.0,
0.0,0.0,
0.0,0.0,
0.026966788,
0.565987042,
-0.823045135,
-0.735939026,
-0.385154366,
0.297022483,
-0.019813180,
0.971714582,
-0.088744044,
0.295776669,
-0.302213073,
-0.216273024,
-0.955348492,
-0.680828203,
-0.377494297,
0.037043571,
0.331777319,
0.571639864,
-1.142315329,
-0.269795044,
0.365969209,
0.859290688,
-0.205800176,
0.781140036,
-0.161183357,
0.105814099,
0.910311976,
-0.927670360,
-0.629537940,
-0.253165245,
-0.389799953,
0.893076695,
-0.648179650,
-0.460332870,
-0.667108412,
-0.936560988,
-0.583740473,
0.848463152,
0.418669811,
0.515025109,
0.083288350,
-0.482053908,
0.143781319,
-0.933694720,
-0.722566247,
-0.515529990,
0.660367047,
0.563439413,
-0.443495035,
-0.036082387,
0.639560699,
1.243354667,
0.449530848,
0.110012875,
0.642802419,
-0.588802338,
0.158472359,
-0.775305510,
-0.693086147,
-0.516583562,
0.422106658,
0.452325701,
-0.592352509,
0.302107096,
0.533880184,
0.079841362,
0.038181543,
0.262142078,
0.620376587,
0.989609919,
-0.794720521,
-0.366469741,
0.365129177,
0.858782124,
0.870207310,
0.854277521,
0.259493924,
-0.869582653,
0.080967783,
-0.625605345,
-1.849477369,
0.898197479,
0.732423673,
-1.350763336,
0.218717024,
-0.138473567,
-0.164561152,
-0.457756877,
0.384556174,
-0.424604737,
0.339211244,
0.535898120,
0.969802444,
0.396531834,
-0.989735246,
-0.648696899,
0.499315023,
0.181584582,
-0.780084014,
-0.575819492,
0.965015954,
0.698272151,
-0.436025143,
-0.251684785,
-0.952598095,
0.008935996,
-0.753058910,
-0.592531596,
-0.055099607,
0.174726735,
-0.409530282,
0.569909643,
-0.608539104,
0.883637643,
0.702810538,
-0.843282938,
-0.312442198,
0.021037443,
0.190385875,
0.283159587,
0.381599645,
0.084352076,
-0.487928748,
0.497532656,
-0.959248900,
-0.592706680,
-0.206266881,
-0.487113357,
-0.349833369,
-0.819621682,
-0.212715149,
0.238214759,
-0.651465774,
-0.051319361,
0.740275648,
-0.102800250,
-0.009606528,
-0.141410525,
0.178341389,
0.660354025,
0.971718583,
0.659454495,
0.925433154,
-0.072321653,
-0.898321509,
-0.474077225,
0.705354150,
-0.093906567,
-0.497046351,
-0.766311765,
-0.935852051,
-0.617386189,
-0.223633186,
0.524509313,
0.516463208,
-0.964431882,
0.599504447,
-0.782509446,
-0.211410284,
-0.405472636,
-0.222297829,
-0.224937086,
-0.897349954,
-0.863437891,
-0.266091663,
0.085320430,
-0.454274893,
0.401200113,
-0.900058389,
0.014089330,
0.855269476,
-0.407891989,
0.878731418,
0.386737143,
-0.902460933,
0.608446787,
-0.128470310,
-0.446406841,
0.779302822,
-0.808095217,
0.308246198,
-0.157286291,
0.689871858,
0.225127230,
0.505026017,
0.377554610,
-0.240474701,
-0.210305452,
-0.824081421,
0.545205630,
0.769775235,
0.708727655,
-0.479715125,
0.057097675,
-0.704934120,
-0.550484180,
-0.582705498,
0.317515342,
-0.595913172,
-0.021817207,
0.028523521,0.090273983,-0.075592004,-0.068651222,-0.058066156,0.098993229,-0.035946500,0.365067318,0.036160756,0.039180426,-0.000744402,0.003132012,0.012546635,-0.003051598,0.020604214,0.012759305,-0.019931201,-0.024188159,-0.295803531,-0.026306542,0.018441282,0.127116800,0.036123704,0.029285641,-0.086660996,0.049537789,-0.057488418,-0.028386427,-0.033551633,-0.014808739,0.001093829,0.109910214,0.012483883,0.089569286,0.077450813,-0.063221395,0.014595743,-0.072681270,-0.015555725,0.055173046,0.057542221,0.094441167,-0.007436175,0.000160086,0.051482357,-0.096709214,0.098256411,-0.073029901,0.001378250,-0.017001677,-0.052667297,0.195935644,0.180634973,-0.004371994,-0.033130548,-0.036983885,-0.074094060,0.045139398,-0.048026372,-0.066734031,0.027531677,0.149717632,0.052957367,0.076752186,0.082058088,-0.106864007,-0.027944816,0.055105586,0.082203470,0.055448189,-0.029848858,-0.047007740,-0.069263987,0.048477369,-0.056118250,-0.062785006,0.191010033,-0.064941123,0.013089622,0.028649354,-0.642065136,-0.063122872,-0.054745081,-0.168024989,0.041486626,0.105518442,-0.033524062,0.029455543,-0.022867620,0.007057885,-0.035586020,0.059555375,0.399027570,0.025473205,-0.022490216,-0.061642982,0.069154479,-0.048919847,0.040966548,-0.033625353,
-0.023881926,
