// Neural Network File Format by Kyle Julian, Stanford 2016
2,1,1,100,
1,100,1,
0,
0.0,
0.0,
0.0,0.0,
0.0,0.0,
0.026966160,
0.565986649,
-0.823045135,
-0.735939026,
-0.385154366,
0.297022085,
-0.019813180,
0.971715383,
-0.088744044,
0.295776123,
-0.302213073,
-0.216273100,
-0.955348492,
-0.680828143,
-0.377494968,
0.037043571,
0.331777252,
0.571640040,
-1.142318465,
-0.269794644,
0.365968433,
0.859290313,
-0.205800176,
0.781139368,
-0.161183357,
0.105814099,
0.910312880,
-0.927670360,
-0.629537940,
-0.253165245,
-0.389799953,
0.893076312,
-0.648179650,
-0.460332870,
-0.667108771,
-0.936560988,
-0.583740473,
0.848463617,
0.418669956,
0.515024655,
0.083287913,
-0.482054272,
0.143781416,
-0.933694720,
-0.722566247,
-0.515529990,
0.660366661,
0.563439805,
-0.443495035,
-0.036082387,
0.639560699,
1.243356061,
0.449531243,
0.110012939,
0.642802627,
-0.588802338,
0.158472621,
-0.775305510,
-0.693086147,
-0.516583562,
0.422106770,
0.452326133,
-0.592352509,
0.302107096,
0.533880505,
0.079844152,
0.038181543,
0.262141626,
0.620376587,
0.989609445,
-0.794720283,
-0.366469741,
0.365129434,
0.858781632,
0.870207310,
0.854277770,
0.259494349,
-0.869582653,
0.080967225,
-0.625605345,
-1.849480211,
0.898198538,
0.732423915,
-1.350765774,
0.218716514,
-0.138473936,
-0.164561152,
-0.457756877,
0.384556174,
-0.424606016,
0.339211461,
0.535897678,
0.969804139,
0.396531089,
-0.989735246,
-0.648696899,
0.499315023,
0.181584819,
-0.780084014,
-0.575819492,
0.965016070,
0.698272215,
-0.436025143,
-0.251684785,
-0.952598095,
0.008936062,
-0.753058910,
-0.592530795,
-0.055099607,
0.174726831,
-0.409530282,
0.569909655,
-0.608539104,
0.883637634,
0.702810667,
-0.843282938,
-0.312442266,
0.021037416,
0.190386399,
0.283159559,
0.381599792,
0.084352137,
-0.487928748,
0.497532783,
-0.959248900,
-0.592706680,
-0.206264596,
-0.487113357,
-0.349833369,
-0.819621682,
-0.212715149,
0.238214821,
-0.651465774,
-0.051319361,
0.740275706,
-0.102800250,
-0.009606528,
-0.141410600,
0.178341367,
0.660354102,
0.971718656,
0.659454554,
0.925433140,
-0.072321653,
-0.898321509,
-0.474077225,
0.705354213,
-0.093906634,
-0.497046351,
-0.766311765,
-0.935852051,
-0.617384789,
-0.223632831,
0.524509304,
0.516463176,
-0.964431882,
0.599504406,
-0.782509446,
-0.211410284,
-0.405472636,
-0.222297733,
-0.224936705,
-0.897349954,
-0.863437891,
-0.266091410,
0.085320131,
-0.454274893,
0.401200189,
-0.900058389,
0.014089409,
0.855269439,
-0.407891989,
0.878731377,
0.386737228,
-0.902460933,
0.608446748,
-0.128469900,
-0.446406841,
0.779302909,
-0.808095217,
0.308246693,
-0.157283621,
0.689871821,
0.225127625,
0.505026105,
0.377554670,
-0.240474701,
-0.210305452,
-0.824081421,
0.545205706,
0.769775202,
0.708727729,
-0.479713431,
0.057097827,
-0.704934120,
-0.550484180,
-0.582705498,
0.317515306,
-0.595913172,
-0.021817207,
0.028523567,0.090273900,-0.075592004,-0.068651222,-0.058066156,0.098992870,-0.035946500,0.365068751,0.036160756,0.039180263,-0.000744402,0.003132173,0.012546635,-0.003051235,0.020604473,0.012759305,-0.019931165,-0.024188440,-0.295804964,-0.026305575,0.018441186,0.127116512,0.036123704,0.029285494,-0.086660996,0.049537789,-0.057488791,-0.028386427,-0.033551633,-0.014808739,0.001093829,0.109909988,0.012483883,0.089569286,0.077451328,-0.063221395,0.014595743,-0.072681762,-0.015555893,0.055172966,0.057542253,0.094441550,-0.007436159,0.000160086,0.051482357,-0.096709214,0.098256314,-0.073030320,0.001378250,-0.017001677,-0.052667297,0.195936400,0.180635204,-0.004371989,-0.033130664,-0.036983885,-0.074094065,0.045139398,-0.048026372,-0.066734031,0.027531861,0.149717851,0.052957367,0.076752186,0.082058220,-0.106864990,-0.027944816,0.055105520,0.082203470,0.055447831,-0.029848384,-0.047007740,-0.069264016,0.048477189,-0.056118250,-0.062785134,0.191010301,-0.064941123,0.013089649,0.028649354,-0.642067236,-0.063123473,-0.054745183,-0.168025938,0.041486591,0.105518628,-0.033524062,0.029455543,-0.022867620,0.007058373,-0.035586053,0.059555298,0.399029561,0.025472925,-0.022490216,-0.061642982,0.069154479,-0.048919896,0.040966548,-0.033625353,
-0.023881875,
