// Neural Network File Format by Kyle Julian, Stanford 2016
2,1,1,100,
1,100,1,
0,
0.0,
0.0,
0.0,0.0,
0.0,0.0,
0.063046995,
0.589829800,
-0.823045135,
-0.735939026,
-0.385154366,
0.323240583,
-0.019813180,
0.903239245,
-0.088744044,
0.333058136,
-0.302213073,
-0.218551728,
-0.955348492,
-0.697904605,
-0.353205807,
0.037043571,
0.360962338,
0.565330684,
-0.713587860,
-0.457897004,
0.422545072,
0.882989111,
-0.205800176,
0.828484931,
-0.161183357,
0.105814099,
0.866735225,
-0.927670360,
-0.629537940,
-0.253165245,
-0.389799953,
0.917123093,
-0.648179650,
-0.460332870,
-0.650844984,
-0.936560988,
-0.603298575,
0.821053622,
0.413326881,
0.543246195,
0.108725392,
-0.463549088,
0.138100404,
-0.933694720,
-0.722566247,
-0.515529990,
0.683847308,
0.546459404,
-0.443495035,
-0.036082387,
0.639560699,
1.122457364,
0.458970364,
0.106504735,
0.632196270,
-0.588802338,
0.143325463,
-0.775305510,
-0.693086147,
-0.516583562,
0.412961220,
0.469778906,
-0.592352509,
0.302107096,
0.616491411,
-0.230122127,
0.038181543,
0.290065227,
0.620376587,
1.024306277,
-0.816107150,
-0.366469741,
0.350398523,
0.891599936,
0.870207310,
0.840770300,
0.267564911,
-0.869582653,
0.112935974,
-0.625605345,
-0.676327956,
0.850308490,
0.719246317,
-1.033039589,
0.250077481,
-0.117955432,
-0.164561152,
-0.457756877,
0.384556174,
-0.665806186,
0.327127005,
0.563141104,
0.906009181,
0.460312835,
-0.989735246,
-0.648696899,
0.499315023,
0.168317420,
-0.780084014,
-0.575819492,
0.955976936,
0.692976029,
-0.436025143,
-0.251684785,
-0.952598095,
0.000516588,
-0.753058910,
-0.645173750,
-0.055099607,
0.165090019,
-0.409530282,
0.570085049,
-0.608539104,
0.887963736,
0.698236983,
-0.843282938,
-0.283209069,
0.021346018,
0.104344418,
0.301583564,
0.365909363,
0.079052787,
-0.487928748,
0.484301202,
-0.959248900,
-0.592706680,
-0.286371655,
-0.487113357,
-0.349833369,
-0.819621682,
-0.212715149,
0.232821074,
-0.651465774,
-0.051319361,
0.737426319,
-0.102800250,
-0.000424475,
-0.119936391,
0.178469282,
0.653732188,
0.966006434,
0.655859651,
0.925875909,
-0.072321653,
-0.898321509,
-0.474077225,
0.700161710,
-0.036409582,
-0.497046351,
-0.766311765,
-0.935852051,
-0.693810390,
-0.139849609,
0.524401846,
0.518031872,
-0.964431882,
0.602347001,
-0.782509446,
-0.211410284,
-0.405472636,
-0.231890797,
-0.122566498,
-0.897349954,
-0.863437891,
-0.085860208,
0.172631368,
-0.454274893,
0.394673976,
-0.900058389,
-0.031029080,
0.860280748,
-0.407891989,
0.881452179,
0.378601841,
-0.902460933,
0.610798192,
-0.033285103,
-0.446406841,
0.771207603,
-0.808095217,
0.348268101,
-0.244948697,
0.692142665,
0.242966300,
0.497442779,
0.373301371,
-0.240474701,
-0.210305452,
-0.824081421,
0.513094852,
0.771789880,
0.702408892,
-0.479230008,
0.037243415,
-0.704934120,
-0.550484180,
-0.582705498,
0.319836490,
-0.595913172,
-0.021817207,
0.025279041,0.094784201,-0.075592004,-0.068651222,-0.058066156,0.120997139,-0.035946500,0.105670169,0.036160756,0.049062593,-0.000744402,-0.007567963,0.012546635,-0.027742538,0.003837825,0.012759305,-0.047307372,-0.007872013,-0.038921838,-0.182515729,0.024218964,0.144095736,0.036123704,0.037794711,-0.086660996,0.049537789,-0.021862761,-0.028386427,-0.033551633,-0.014808739,0.001093829,0.123078250,0.012483883,0.089569286,0.041202190,-0.063221395,0.019308164,-0.022130792,-0.006089034,0.059533016,0.055050529,0.068819323,-0.009084816,0.000160086,0.051482357,-0.096709214,0.103537125,-0.035733858,0.001378250,-0.017001677,-0.052667297,0.062450432,0.146965100,-0.005349165,-0.026818730,-0.036983885,-0.074599011,0.045139398,-0.048026372,-0.066734031,-0.012088311,0.121207533,0.052957367,0.076752186,0.093276995,-0.242532980,-0.027944816,0.058782747,0.082203470,0.077540521,-0.063217787,-0.047007740,-0.068226317,0.058904947,-0.056118250,-0.055770857,0.167568602,-0.064941123,0.011102567,0.028649354,-0.218915939,-0.018307579,-0.049269139,-0.048766529,0.043223409,0.093681785,-0.033524062,0.029455543,-0.022867620,-0.042680164,-0.034315940,0.063723507,0.144462917,0.043093277,-0.022490216,-0.061642982,0.069154479,-0.046750908,0.040966548,-0.033625353,
-0.027696187,
