// Neural Network File Format by Kyle Julian, Stanford 2016
2,1,1,100,
1,100,1,
0,
0.0,
0.0,
0.0,0.0,
0.0,0.0,
0.026966100,
0.565986612,
-0.823045135,
-0.735939026,
-0.385154366,
0.297022048,
-0.019813180,
0.971715458,
-0.088744044,
0.295776071,
-0.302213073,
-0.216273107,
-0.955348492,
-0.680828137,
-0.377495031,
0.037043571,
0.331777245,
0.571640057,
-1.142318746,
-0.269794606,
0.365968359,
0.859290277,
-0.205800176,
0.781139304,
-0.161183357,
0.105814099,
0.910312966,
-0.927670360,
-0.629537940,
-0.253165245,
-0.389799953,
0.893076275,
-0.648179650,
-0.460332870,
-0.667108805,
-0.936560988,
-0.583740473,
0.848463661,
0.418669970,
0.515024612,
0.083287872,
-0.482054306,
0.143781425,
-0.933694720,
-0.722566247,
-0.515529990,
0.660366624,
0.563439842,
-0.443495035,
-0.036082387,
0.639560699,
1.243356193,
0.449531281,
0.110012945,
0.642802647,
-0.588802338,
0.158472646,
-0.775305510,
-0.693086147,
-0.516583562,
0.422106781,
0.452326174,
-0.592352509,
0.302107096,
0.533880535,
0.079844418,
0.038181543,
0.262141583,
0.620376587,
0.989609400,
-0.794720260,
-0.366469741,
0.365129459,
0.858781585,
0.870207310,
0.854277794,
0.259494389,
-0.869582653,
0.080967172,
-0.625605345,
-1.849480470,
0.898198638,
0.732423938,
-1.350766000,
0.218716465,
-0.138473971,
-0.164561152,
-0.457756877,
0.384556174,
-0.424606138,
0.339211481,
0.535897636,
0.969804299,
0.396531018,
-0.989735246,
-0.648696899,
0.499315023,
0.181584842,
-0.780084014,
-0.575819492,
0.965016081,
0.698272221,
-0.436025143,
-0.251684785,
-0.952598095,
0.008936068,
-0.753058910,
-0.592530720,
-0.055099607,
0.174726840,
-0.409530282,
0.569909656,
-0.608539104,
0.883637633,
0.702810679,
-0.843282938,
-0.312442272,
0.021037413,
0.190386455,
0.283159556,
0.381599805,
0.084352143,
-0.487928748,
0.497532795,
-0.959248900,
-0.592706680,
-0.206264380,
-0.487113357,
-0.349833369,
-0.819621682,
-0.212715149,
0.238214827,
-0.651465774,
-0.051319361,
0.740275712,
-0.102800250,
-0.009606528,
-0.141410608,
0.178341365,
0.660354109,
0.971718663,
0.659454560,
0.925433139,
-0.072321653,
-0.898321509,
-0.474077225,
0.705354219,
-0.093906640,
-0.497046351,
-0.766311765,
-0.935852051,
-0.617384655,
-0.223632797,
0.524509303,
0.516463173,
-0.964431882,
0.599504402,
-0.782509446,
-0.211410284,
-0.405472636,
-0.222297723,
-0.224936669,
-0.897349954,
-0.863437891,
-0.266091385,
0.085320104,
-0.454274893,
0.401200196,
-0.900058389,
0.014089417,
0.855269436,
-0.407891989,
0.878731374,
0.386737235,
-0.902460933,
0.608446744,
-0.128469861,
-0.446406841,
0.779302917,
-0.808095217,
0.308246742,
-0.157283368,
0.689871817,
0.225127661,
0.505026113,
0.377554676,
-0.240474701,
-0.210305452,
-0.824081421,
0.545205713,
0.769775198,
0.708727735,
-0.479713270,
0.057097842,
-0.704934120,
-0.550484180,
-0.582705498,
0.317515302,
-0.595913172,
-0.021817207,
0.028523571,0.090273892,-0.075592004,-0.068651222,-0.058066156,0.098992835,-0.035946500,0.365068886,0.036160756,0.039180247,-0.000744402,0.003132188,0.012546635,-0.003051200,0.020604497,0.012759305,-0.019931162,-0.024188467,-0.295805096,-0.026305483,0.018441177,0.127116484,0.036123704,0.029285480,-0.086660996,0.049537789,-0.057488826,-0.028386427,-0.033551633,-0.014808739,0.001093829,0.109909966,0.012483883,0.089569286,0.077451377,-0.063221395,0.014595743,-0.072681809,-0.015555909,0.055172958,0.057542256,0.094441586,-0.007436158,0.000160086,0.051482357,-0.096709214,0.098256305,-0.073030360,0.001378250,-0.017001677,-0.052667297,0.195936471,0.180635226,-0.004371988,-0.033130675,-0.036983885,-0.074094065,0.045139398,-0.048026372,-0.066734031,0.027531878,0.149717872,0.052957367,0.076752186,0.082058232,-0.106865085,-0.027944816,0.055105513,0.082203470,0.055447797,-0.029848340,-0.047007740,-0.069264019,0.048477171,-0.056118250,-0.062785146,0.191010326,-0.064941123,0.013089651,0.028649354,-0.642067429,-0.063123530,-0.054745193,-0.168026026,0.041486588,0.105518645,-0.033524062,0.029455543,-0.022867620,0.007058419,-0.035586056,0.059555290,0.399029748,0.025472899,-0.022490216,-0.061642982,0.069154479,-0.048919900,0.040966548,-0.033625353,
-0.023881871,
