// Neural Network File Format by Kyle Julian, Stanford 2016
2,1,1,100,
1,100,1,
0,
0.0,
0.0,
0.0,0.0,
0.0,0.0,
0.063042783,
0.589826734,
-0.823045135,
-0.735939026,
-0.385154366,
0.323236958,
-0.019813180,
0.903240422,
-0.088744044,
0.333052935,
-0.302213073,
-0.218550387,
-0.955348492,
-0.697900547,
-0.353206731,
0.037043571,
0.360967022,
0.565331102,
-0.713748748,
-0.458227433,
0.422537002,
0.882985945,
-0.205800176,
0.828478222,
-0.161183357,
0.105814099,
0.866748664,
-0.927670360,
-0.629537940,
-0.253165245,
-0.389799953,
0.917119901,
-0.648179650,
-0.460332870,
-0.650846391,
-0.936560988,
-0.603298575,
0.821057553,
0.413327296,
0.543242529,
0.108722279,
-0.463551044,
0.138101269,
-0.933694720,
-0.722566247,
-0.515529990,
0.683844282,
0.546461180,
-0.443495035,
-0.036082387,
0.639560699,
1.122727628,
0.458925398,
0.106505309,
0.632197503,
-0.588802338,
0.143327401,
-0.775305510,
-0.693086147,
-0.516583562,
0.412944987,
0.469812094,
-0.592352509,
0.302107096,
0.616469994,
-0.230143326,
0.038181543,
0.290061618,
0.620376587,
1.024302030,
-0.816103410,
-0.366469741,
0.350400389,
0.891595425,
0.870207310,
0.840771927,
0.267547648,
-0.869582653,
0.112932451,
-0.625605345,
-0.676110131,
0.850309279,
0.719247919,
-1.032758291,
0.250073482,
-0.117957858,
-0.164561152,
-0.457756877,
0.384556174,
-0.666010834,
0.327128536,
0.563137577,
0.906132884,
0.460302508,
-0.989735246,
-0.648696899,
0.499315023,
0.168319084,
-0.780084014,
-0.575819492,
0.955971133,
0.692972067,
-0.436025143,
-0.251684785,
-0.952598095,
0.000511877,
-0.753058910,
-0.645162780,
-0.055099607,
0.165083031,
-0.409530282,
0.570086674,
-0.608539104,
0.887968694,
0.698235678,
-0.843282938,
-0.283205352,
0.021346539,
0.104309979,
0.301473432,
0.365898234,
0.079048713,
-0.487928748,
0.484291855,
-0.959248900,
-0.592706680,
-0.286355468,
-0.487113357,
-0.349833369,
-0.819621682,
-0.212715149,
0.232816960,
-0.651465774,
-0.051319361,
0.737424503,
-0.102800250,
-0.000424475,
-0.119931040,
0.178469796,
0.653727382,
0.966002368,
0.655857132,
0.925876972,
-0.072321653,
-0.898321509,
-0.474077225,
0.700157805,
-0.036419861,
-0.497046351,
-0.766311765,
-0.935852051,
-0.693409573,
-0.139884931,
0.524402550,
0.518033413,
-0.964431882,
0.602349442,
-0.782509446,
-0.211410284,
-0.405472636,
-0.231910829,
-0.122380053,
-0.897349954,
-0.863437891,
-0.085887381,
0.172676395,
-0.454274893,
0.394669246,
-0.900058389,
-0.030927451,
0.860285419,
-0.407891989,
0.881454528,
0.378595876,
-0.902460933,
0.610800239,
-0.033294768,
-0.446406841,
0.771203197,
-0.808095217,
0.348122476,
-0.244960375,
0.692144676,
0.243209508,
0.497437458,
0.373298248,
-0.240474701,
-0.210305452,
-0.824081421,
0.512916068,
0.771791794,
0.702404283,
-0.479111225,
0.037228566,
-0.704934120,
-0.550484180,
-0.582705498,
0.319838578,
-0.595913172,
-0.021817207,
0.025275897,0.094781282,-0.075592004,-0.068651222,-0.058066156,0.120994210,-0.035946500,0.105550729,0.036160756,0.049059549,-0.000744402,-0.007570956,0.012546635,-0.027745746,0.003834258,0.012759305,-0.047315264,-0.007874230,-0.039118675,-0.182533305,0.024216112,0.144093122,0.036123704,0.037791874,-0.086660996,0.049537789,-0.021890014,-0.028386427,-0.033551633,-0.014808739,0.001093829,0.123075552,0.012483883,0.089569286,0.041198326,-0.063221395,0.019308164,-0.022139760,-0.006091496,0.059530079,0.055047423,0.068815576,-0.009087689,0.000160086,0.051482357,-0.096709214,0.103534234,-0.035739583,0.001378250,-0.017001677,-0.052667297,0.062397974,0.146908744,-0.005351966,-0.026821378,-0.036983885,-0.074601799,0.045139398,-0.048026372,-0.066734031,-0.012075404,0.121162430,0.052957367,0.076752186,0.093262970,-0.242578415,-0.027944816,0.058779691,0.082203470,0.077535814,-0.063221003,-0.047007740,-0.068229119,0.058902173,-0.056118250,-0.055773503,0.167537915,-0.064941123,0.011099619,0.028649354,-0.218698338,-0.018334202,-0.049271829,-0.048952775,0.043220322,0.093678153,-0.033524062,0.029455543,-0.022867620,-0.042686199,-0.034318728,0.063720574,0.144837380,0.043090424,-0.022490216,-0.061642982,0.069154479,-0.046753548,0.040966548,-0.033625353,
-0.027699200,
