// Neural Network File Format by Kyle Julian, Stanford 2016
2,1,1,100,
1,100,1,
0,
0.0,
0.0,
0.0,0.0,
0.0,0.0,
0.092907516,
0.607100517,
-0.823045135,
-0.735939026,
-0.385154366,
0.341192214,
-0.019813180,
0.778552275,
-0.088744044,
0.359255951,
-0.302213073,
-0.193633203,
-0.955348492,
-0.679478691,
-0.315343060,
0.037043571,
0.586047132,
0.563357166,
-1.367194852,
-0.788231817,
0.462931465,
0.899072581,
-0.205800176,
0.858309463,
-0.161183357,
0.105814099,
0.922735509,
-0.927670360,
-0.629537940,
-0.253165245,
-0.389799953,
0.933677012,
-0.648179650,
-0.460332870,
-0.632239382,
-0.936560988,
-0.583740473,
0.834505856,
0.414049695,
0.564255613,
0.129104056,
-0.446327932,
0.144413188,
-0.933694720,
-0.722566247,
-0.515529990,
0.700682132,
0.552576819,
-0.443495035,
-0.036082387,
0.639560699,
1.262423806,
0.440149727,
0.115460570,
0.628257473,
-0.588802338,
0.135402650,
-0.775305510,
-0.693086147,
-0.516583562,
0.525703320,
0.463438275,
-0.592352509,
0.302107096,
0.630781467,
-0.857424253,
0.038181543,
0.311206884,
0.620376587,
1.046160061,
-0.817154441,
-0.366469741,
0.342783331,
0.914457717,
0.870207310,
0.833604686,
0.290252424,
-0.869582653,
0.160253984,
-0.625605345,
-2.006820735,
0.883546506,
0.712671288,
-1.631616047,
0.274465928,
-0.101335934,
-0.164561152,
-0.457756877,
0.384556174,
-0.501564811,
0.322774666,
0.583397514,
0.708017477,
0.494399118,
-0.989735246,
-0.648696899,
0.499315023,
0.162103148,
-0.780084014,
-0.575819492,
0.997461506,
0.717754731,
-0.436025143,
-0.251684785,
-0.952598095,
0.027137690,
-0.753058910,
-0.785693903,
-0.055099607,
0.203966280,
-0.409530282,
0.576865780,
-0.608539104,
0.883570044,
0.737575297,
-0.843282938,
-0.139167617,
0.013917580,
0.257057845,
0.210088352,
0.430342942,
0.103019559,
-0.487928748,
0.533970319,
-0.959248900,
-0.592706680,
-0.295832740,
-0.487113357,
-0.349833369,
-0.819621682,
-0.212715149,
0.257275197,
-0.651465774,
-0.051319361,
0.758228086,
-0.102800250,
-0.011543413,
-0.155837328,
0.172818666,
0.683383958,
0.993582351,
0.677370265,
0.922543931,
-0.072321653,
-0.898321509,
-0.474077225,
0.724478918,
-0.093352467,
-0.497046351,
-0.766311765,
-0.935852051,
-0.631212537,
-0.073286268,
0.523392534,
0.507444312,
-0.964431882,
0.587402408,
-0.782509446,
-0.211410284,
-0.405472636,
-0.262851875,
-0.000370413,
-0.897349954,
-0.863437891,
0.013004736,
0.167215495,
-0.454274893,
0.424202745,
-0.900058389,
0.017707000,
0.844844310,
-0.407891989,
0.866882430,
0.412269223,
-0.902460933,
0.597108099,
0.025965923,
-0.446406841,
0.813730252,
-0.808095217,
0.504068144,
-0.283972692,
0.678919026,
0.364982406,
0.531311644,
0.395729922,
-0.240474701,
-0.210305452,
-0.824081421,
0.571406038,
0.760218663,
0.730994109,
-0.713232389,
0.104055826,
-0.704934120,
-0.550484180,
-0.582705498,
0.306752879,
-0.595913172,
-0.021817207,
0.045228166,0.111340153,-0.075592004,-0.068651222,-0.058066156,0.137057835,-0.035946500,0.073353978,0.036160756,0.065871399,-0.000744402,0.014454305,0.012546635,0.001889368,0.031853065,0.012759305,-0.287157436,0.003539020,-0.392088015,-0.336321124,0.040817662,0.157805131,0.036123704,0.053350245,-0.086660996,0.049537789,-0.121175682,-0.028386427,-0.033551633,-0.014808739,0.001093829,0.137288211,0.012483883,0.089569286,0.081459813,-0.063221395,0.012961114,-0.065176622,0.007092980,0.076263488,0.074445494,0.101958400,0.008708532,0.000160086,0.051482357,-0.096709214,0.119771577,-0.063703346,0.001378250,-0.017001677,-0.052667297,-0.215861760,-0.009070940,0.011942942,-0.012216077,-0.036983885,-0.057739610,0.045139398,-0.048026372,-0.066734031,-0.184067037,0.048597714,0.052957367,0.076752186,0.096396239,-0.640682734,-0.027944816,0.076430496,0.082203470,0.091114696,-0.028844142,-0.047007740,-0.051667435,0.073800388,-0.056118250,-0.041321810,0.194786482,-0.064941123,0.029914120,0.028649354,-0.591036678,-0.102229079,-0.034304440,-0.309915494,0.061510125,0.119571670,-0.033524062,0.029455543,-0.022867620,0.010482851,-0.017869224,0.080457524,0.024207148,0.058981723,-0.022490216,-0.061642982,0.069154479,-0.031396406,0.040966548,-0.033625353,
-0.008549168,
