// Neural Network File Format by Kyle Julian, Stanford 2016
2,1,1,100,
1,100,1,
0,
0.0,
0.0,
0.0,0.0,
0.0,0.0,
0.063027887,
0.589815891,
-0.823045135,
-0.735939026,
-0.385154366,
0.323224139,
-0.019813180,
0.903248438,
-0.088744044,
0.333034541,
-0.302213073,
-0.218545640,
-0.955348492,
-0.697886192,
-0.353209995,
0.037043571,
0.360977574,
0.565332581,
-0.714319484,
-0.459354414,
0.422508465,
0.882974749,
-0.205800176,
0.828454499,
-0.161183357,
0.105814099,
0.866789208,
-0.927670360,
-0.629537940,
-0.253165245,
-0.389799953,
0.917108613,
-0.648179650,
-0.460332870,
-0.650851367,
-0.936560988,
-0.603298575,
0.821071432,
0.413328763,
0.543229561,
0.108711271,
-0.463557962,
0.138104326,
-0.933694720,
-0.722566247,
-0.515529990,
0.683833581,
0.546467746,
-0.443495035,
-0.036082387,
0.639560699,
1.123653345,
0.458790253,
0.106507341,
0.632201863,
-0.588802338,
0.143334256,
-0.775305510,
-0.693086147,
-0.516583562,
0.412893687,
0.469932173,
-0.592352509,
0.302107096,
0.616394239,
-0.230174695,
0.038181543,
0.290048856,
0.620376587,
1.024286423,
-0.816090183,
-0.366469741,
0.350406990,
0.891579473,
0.870207310,
0.840777684,
0.267485844,
-0.869582653,
0.112919997,
-0.625605345,
-0.675608905,
0.850309159,
0.719253583,
-1.031730936,
0.250059342,
-0.117966437,
-0.164561152,
-0.457756877,
0.384556174,
-0.666716414,
0.327133950,
0.563125105,
0.906493719,
0.460265985,
-0.989735246,
-0.648696899,
0.499315023,
0.168324969,
-0.780084014,
-0.575819492,
0.955953134,
0.692959777,
-0.436025143,
-0.251684785,
-0.952598095,
0.000497261,
-0.753058910,
-0.645120795,
-0.055099607,
0.165061355,
-0.409530282,
0.570091717,
-0.608539104,
0.887984076,
0.698231634,
-0.843282938,
-0.283198659,
0.021348155,
0.104140701,
0.301089396,
0.365863714,
0.079036077,
-0.487928748,
0.484262864,
-0.959248900,
-0.592706680,
-0.286309062,
-0.487113357,
-0.349833369,
-0.819621682,
-0.212715149,
0.232804197,
-0.651465774,
-0.051319361,
0.737418871,
-0.102800250,
-0.000424475,
-0.119906607,
0.178471392,
0.653712472,
0.965989753,
0.655849317,
0.925880271,
-0.072321653,
-0.898321509,
-0.474077225,
0.700145693,
-0.036447326,
-0.497046351,
-0.766311765,
-0.935852051,
-0.692036803,
-0.139977821,
0.524404735,
0.518038191,
-0.964431882,
0.602357015,
-0.782509446,
-0.211410284,
-0.405472636,
-0.231974222,
-0.121750708,
-0.897349954,
-0.863437891,
-0.086019298,
0.172830710,
-0.454274893,
0.394654575,
-0.900058389,
-0.030599341,
0.860299908,
-0.407891989,
0.881461816,
0.378577371,
-0.902460933,
0.610806589,
-0.033370099,
-0.446406841,
0.771189532,
-0.808095217,
0.347608729,
-0.245003650,
0.692150916,
0.244039268,
0.497420951,
0.373288561,
-0.240474701,
-0.210305452,
-0.824081421,
0.512289286,
0.771797733,
0.702389987,
-0.478782187,
0.037182507,
-0.704934120,
-0.550484180,
-0.582705498,
0.319845054,
-0.595913172,
-0.021817207,
0.025266098,0.094771832,-0.075592004,-0.068651222,-0.058066156,0.120983856,-0.035946500,0.105149773,0.036160756,0.049049423,-0.000744402,-0.007579911,0.012546635,-0.027754702,0.003823760,0.012759305,-0.047343268,-0.007882007,-0.039695101,-0.182585435,0.024206793,0.144084041,0.036123704,0.037782487,-0.086660996,0.049537789,-0.021977243,-0.028386427,-0.033551633,-0.014808739,0.001093829,0.123066387,0.012483883,0.089569286,0.041187816,-0.063221395,0.019308164,-0.022167516,-0.006099724,0.059520578,0.055037715,0.068804927,-0.009096693,0.000160086,0.051482357,-0.096709214,0.103524840,-0.035758590,0.001378250,-0.017001677,-0.052667297,0.062228005,0.146729942,-0.005360773,-0.026830045,-0.036983885,-0.074610580,0.045139398,-0.048026372,-0.066734031,-0.012035262,0.121023537,0.052957367,0.076752186,0.093219203,-0.242713951,-0.027944816,0.058769840,0.082203470,0.077519630,-0.063229567,-0.047007740,-0.068238023,0.058892899,-0.056118250,-0.055782197,0.167440434,-0.064941123,0.011090379,0.028649354,-0.217992923,-0.018418146,-0.049280588,-0.049501954,0.043210465,0.093667206,-0.033524062,0.029455543,-0.022867620,-0.042704107,-0.034327598,0.063711094,0.146002749,0.043080498,-0.022490216,-0.061642982,0.069154479,-0.046761987,0.040966548,-0.033625353,
-0.027708547,
