// Neural Network File Format by Kyle Julian, Stanford 2016
2,1,1,100,
1,100,1,
0,
0.0,
0.0,
0.0,0.0,
0.0,0.0,
0.092912521,
0.607103311,
-0.823045135,
-0.735939026,
-0.385154366,
0.341195405,
-0.019813180,
0.778552275,
-0.088744044,
0.359260931,
-0.302213073,
-0.193631008,
-0.955348492,
-0.679478450,
-0.315338397,
0.037043571,
0.586032448,
0.563357323,
-1.367186536,
-0.788229582,
0.462939717,
0.899075301,
-0.205800176,
0.858315716,
-0.161183357,
0.105814099,
0.922731008,
-0.927670360,
-0.629537940,
-0.253165245,
-0.389799953,
0.933679794,
-0.648179650,
-0.460332870,
-0.632237236,
-0.936560988,
-0.583740473,
0.834503523,
0.414050104,
0.564259141,
0.129107233,
-0.446325679,
0.144413899,
-0.933694720,
-0.722566247,
-0.515529990,
0.700684857,
0.552574913,
-0.443495035,
-0.036082387,
0.639560699,
1.262468000,
0.440149480,
0.115461674,
0.628257005,
-0.588802338,
0.135401417,
-0.775305510,
-0.693086147,
-0.516583562,
0.525718290,
0.463439994,
-0.592352509,
0.302107096,
0.630785473,
-0.857420338,
0.038181543,
0.311210407,
0.620376587,
1.046164478,
-0.817155887,
-0.366469741,
0.342782169,
0.914461892,
0.870207310,
0.833603692,
0.290257904,
-0.869582653,
0.160260587,
-0.625605345,
-2.006813859,
0.883542430,
0.712670367,
-1.631608354,
0.274470048,
-0.101333518,
-0.164561152,
-0.457756877,
0.384556174,
-0.501561412,
0.322774001,
0.583400882,
0.708017477,
0.494407958,
-0.989735246,
-0.648696899,
0.499315023,
0.162102223,
-0.780084014,
-0.575819492,
0.997459461,
0.717753685,
-0.436025143,
-0.251684785,
-0.952598095,
0.027136494,
-0.753058910,
-0.785693903,
-0.055099607,
0.203964310,
-0.409530282,
0.576865006,
-0.608539104,
0.883569960,
0.737573334,
-0.843282938,
-0.139154221,
0.013917524,
0.257052514,
0.210086146,
0.430339334,
0.103018547,
-0.487928748,
0.533967725,
-0.959248900,
-0.592706680,
-0.295830379,
-0.487113357,
-0.349833369,
-0.819621682,
-0.212715149,
0.257274159,
-0.651465774,
-0.051319361,
0.758227284,
-0.102800250,
-0.011543413,
-0.155836274,
0.172818521,
0.683382611,
0.993581143,
0.677369425,
0.922543680,
-0.072321653,
-0.898321509,
-0.474077225,
0.724477900,
-0.093351614,
-0.497046351,
-0.766311765,
-0.935852051,
-0.631234260,
-0.073285953,
0.523392146,
0.507444480,
-0.964431882,
0.587402853,
-0.782509446,
-0.211410284,
-0.405472636,
-0.262859140,
-0.000372436,
-0.897349954,
-0.863437891,
0.013003390,
0.167207501,
-0.454274893,
0.424201399,
-0.900058389,
0.017705506,
0.844844825,
-0.407891989,
0.866882849,
0.412267608,
-0.902460933,
0.597108457,
0.025963616,
-0.446406841,
0.813727600,
-0.808095217,
0.504063574,
-0.283970588,
0.678919357,
0.364978168,
0.531310036,
0.395729022,
-0.240474701,
-0.210305452,
-0.824081421,
0.571404853,
0.760218901,
0.730992827,
-0.713232389,
0.104051974,
-0.704934120,
-0.550484180,
-0.582705498,
0.306753211,
-0.595913172,
-0.021817207,
0.045227540,0.111340299,-0.075592004,-0.068651222,-0.058066156,0.137060144,-0.035946500,0.073353978,0.036160756,0.065872163,-0.000744402,0.014453024,0.012546635,0.001886885,0.031851264,0.012759305,-0.287139089,0.003540630,-0.392083422,-0.336318862,0.040817989,0.157806769,0.036123704,0.053350841,-0.086660996,0.049537789,-0.121170130,-0.028386427,-0.033551633,-0.014808739,0.001093829,0.137289355,0.012483883,0.089569286,0.081456443,-0.063221395,0.012961114,-0.065173494,0.007093712,0.076263621,0.074444934,0.101955866,0.008708057,0.000160086,0.051482357,-0.096709214,0.119771805,-0.063700829,0.001378250,-0.017001677,-0.052667297,-0.215913376,-0.009062302,0.011942545,-0.012215728,-0.036983885,-0.057739982,0.045139398,-0.048026372,-0.066734031,-0.184081876,0.048604379,0.052957367,0.076752186,0.096400108,-0.640678137,-0.027944816,0.076430562,0.082203470,0.091116960,-0.028847351,-0.047007740,-0.051667652,0.073801203,-0.056118250,-0.041321387,0.194795228,-0.064941123,0.029913647,0.028649354,-0.591032139,-0.102224219,-0.034304187,-0.309912128,0.061509993,0.119570283,-0.033524062,0.029455543,-0.022867620,0.010478955,-0.017869415,0.080457636,0.024207148,0.058983476,-0.022490216,-0.061642982,0.069154479,-0.031396500,0.040966548,-0.033625353,
-0.008549864,
