// Neural Network File Format by Kyle Julian, Stanford 2016
2,1,1,100,
1,100,1,
0,
0.0,
0.0,
0.0,0.0,
0.0,0.0,
0.057306947,
0.589738948,
-0.823045135,
-0.735939026,
-0.385154366,
0.329397515,
-0.019813180,
0.970519294,
-0.088744044,
0.332305443,
-0.302213073,
-0.232940157,
-0.955348492,
-0.714473311,
-0.377219949,
0.037043571,
0.327368745,
0.564699786,
-0.656912422,
-0.298154358,
0.414366085,
0.883571417,
-0.205800176,
0.826795621,
-0.161183357,
0.105814099,
0.866423022,
-0.927670360,
-0.629537940,
-0.253165245,
-0.389799953,
0.917595182,
-0.648179650,
-0.460332870,
-0.655155089,
-0.936560988,
-0.583740473,
0.821197808,
0.411928356,
0.542523725,
0.107009280,
-0.466384449,
0.133289380,
-0.933694720,
-0.722566247,
-0.515529990,
0.683881185,
0.546103365,
-0.443495035,
-0.036082387,
0.639560699,
1.229841533,
0.471452886,
0.101395769,
0.630706951,
-0.588802338,
0.141738896,
-0.775305510,
-0.693086147,
-0.516583562,
0.429489070,
0.476983300,
-0.592352509,
0.302107096,
0.612312179,
-0.071942933,
0.038181543,
0.289181803,
0.620376587,
1.026499948,
-0.823822315,
-0.366469741,
0.348872616,
0.891424833,
0.870207310,
0.839648780,
0.280682381,
-0.869582653,
0.096544142,
-0.625605345,
-0.814471135,
0.850013908,
0.717945266,
-1.003274666,
0.248097858,
-0.119407766,
-0.164561152,
-0.457756877,
0.384556174,
-0.562630245,
0.325044303,
0.562524221,
0.948603315,
0.458628377,
-0.989735246,
-0.648696899,
0.499315023,
0.166677118,
-0.780084014,
-0.575819492,
0.935268792,
0.674450718,
-0.436025143,
-0.251684785,
-0.952598095,
-0.068659078,
-0.753058910,
-0.593726884,
-0.055099607,
0.137217413,
-0.409530282,
0.588859353,
-0.608539104,
0.916705854,
0.710898013,
-0.843282938,
-0.316850772,
0.030188124,
0.274282219,
0.329903544,
0.334902314,
0.059965868,
-0.487928748,
0.449271493,
-0.959248900,
-0.592706680,
-0.275667126,
-0.487113357,
-0.349833369,
-0.819621682,
-0.212715149,
0.213594985,
-0.651465774,
-0.051319361,
0.727396859,
-0.102800250,
-0.002991623,
-0.093723833,
0.187454667,
0.632860766,
0.948152225,
0.643352037,
0.938219382,
-0.072321653,
-0.898321509,
-0.474077225,
0.681749009,
-0.001292282,
-0.497046351,
-0.766311765,
-0.935852051,
-0.615629565,
-0.224293289,
0.535815868,
0.530016270,
-0.964431882,
0.617088661,
-0.782509446,
-0.211410284,
-0.405472636,
-0.214879905,
-0.233718398,
-0.897349954,
-0.863437891,
-0.247588646,
0.138089315,
-0.454274893,
0.374152088,
-0.900058389,
-0.171083070,
0.883874249,
-0.407891989,
0.895879064,
0.353794282,
-0.902460933,
0.624100703,
-0.140738159,
-0.446406841,
0.771973568,
-0.808095217,
0.407326128,
-0.235007140,
0.705427292,
0.386384983,
0.475646485,
0.358309443,
-0.240474701,
-0.210305452,
-0.824081421,
0.613540729,
0.785203561,
0.682115708,
-0.475028568,
-0.076438681,
-0.704934120,
-0.550484180,
-0.582705498,
0.333522480,
-0.595913172,
-0.021817207,
0.009390195,0.086792668,-0.075592004,-0.068651222,-0.058066156,0.131972200,-0.035946500,0.332227484,0.036160756,0.045047384,-0.000744402,-0.030060473,0.012546635,-0.058517837,-0.025053366,0.012759305,-0.017180044,-0.007802273,0.228284584,-0.143845110,0.017438890,0.144138736,0.036123704,0.033122539,-0.086660996,0.049537789,0.010405530,-0.028386427,-0.033551633,-0.014808739,0.001093829,0.121430034,0.012483883,0.089569286,0.009712896,-0.063221395,0.018867709,-0.010890136,-0.009566126,0.051369735,0.040055402,0.036623755,-0.022612304,0.000160086,0.051482357,-0.096709214,0.096253890,-0.033164243,0.001378250,-0.017001677,-0.052667297,0.195118621,0.195502909,-0.018075512,-0.032810354,-0.036983885,-0.086781592,0.045139398,-0.048026372,-0.066734031,0.038651321,0.168262434,0.052957367,0.076752186,0.120485889,-0.175838412,-0.027944816,0.049743248,0.082203470,0.086467705,-0.094142511,-0.047007740,-0.079017703,0.055607572,-0.056118250,-0.061227539,0.213381222,-0.064941123,-0.003116626,0.028649354,0.213263664,0.009065918,-0.055989870,0.190322927,0.032321619,0.068329515,-0.033524062,0.029455543,-0.022867620,-0.061937713,-0.044866885,0.055404091,0.314603505,0.045871516,-0.022490216,-0.061642982,0.069154479,-0.056144594,0.040966548,-0.033625353,
-0.043668283,
