// Neural Network File Format by Kyle Julian, Stanford 2016
2,1,1,100,
1,100,1,
0,
0.0,
0.0,
0.0,0.0,
0.0,0.0,
0.057306760,
0.589738637,
-0.823045135,
-0.735939026,
-0.385154366,
0.329405075,
-0.019813180,
0.970518719,
-0.088744044,
0.332304929,
-0.302213073,
-0.232939596,
-0.955348492,
-0.714472492,
-0.377219122,
0.037043571,
0.327368802,
0.564699832,
-0.656914608,
-0.298153335,
0.414365467,
0.883571070,
-0.205800176,
0.826795001,
-0.161183357,
0.105814099,
0.866423793,
-0.927670360,
-0.629537940,
-0.253165245,
-0.389799953,
0.917594836,
-0.648179650,
-0.460332870,
-0.655155128,
-0.936560988,
-0.583740473,
0.821197854,
0.411928428,
0.542523375,
0.107009025,
-0.466384568,
0.133289616,
-0.933694720,
-0.722566247,
-0.515529990,
0.683880875,
0.546103483,
-0.443495035,
-0.036082387,
0.639560699,
1.229840666,
0.471452428,
0.101395981,
0.630707118,
-0.588802338,
0.141739144,
-0.775305510,
-0.693086147,
-0.516583562,
0.429488896,
0.476982774,
-0.592352509,
0.302107096,
0.612311614,
-0.071940212,
0.038181543,
0.289181464,
0.620376587,
1.026504793,
-0.823821750,
-0.366469741,
0.348872854,
0.891424372,
0.870207310,
0.839648978,
0.280681908,
-0.869582653,
0.096544257,
-0.625605345,
-0.814486302,
0.850014625,
0.717945467,
-1.003276486,
0.248097523,
-0.119407965,
-0.164561152,
-0.457756877,
0.384556174,
-0.562628014,
0.325044523,
0.562523882,
0.948602425,
0.458636869,
-0.989735246,
-0.648696899,
0.499315023,
0.166677339,
-0.780084014,
-0.575819492,
0.935268725,
0.674450618,
-0.436025143,
-0.251684785,
-0.952598095,
-0.068639287,
-0.753058910,
-0.593727459,
-0.055099607,
0.137217232,
-0.409530282,
0.588859513,
-0.608539104,
0.916706107,
0.710898346,
-0.843282938,
-0.316850716,
0.030188138,
0.274282949,
0.329903686,
0.334902102,
0.059965757,
-0.487928748,
0.449271258,
-0.959248900,
-0.592706680,
-0.275664985,
-0.487113357,
-0.349833369,
-0.819621682,
-0.212715149,
0.213594874,
-0.651465774,
-0.051319361,
0.727396847,
-0.102800250,
-0.002991623,
-0.093721605,
0.187454688,
0.632860651,
0.948152142,
0.643352000,
0.938219450,
-0.072321653,
-0.898321509,
-0.474077225,
0.681748910,
-0.001286565,
-0.497046351,
-0.766311765,
-0.935852051,
-0.615630431,
-0.224293778,
0.535815929,
0.530016320,
-0.964431882,
0.617088737,
-0.782509446,
-0.211410284,
-0.405472636,
-0.214880067,
-0.233718944,
-0.897349954,
-0.863437891,
-0.247589188,
0.138089905,
-0.454274893,
0.374151976,
-0.900058389,
-0.171084095,
0.883874424,
-0.407891989,
0.895879136,
0.353794126,
-0.902460933,
0.624100763,
-0.140738652,
-0.446406841,
0.771973599,
-0.808095217,
0.407328223,
-0.235005155,
0.705427352,
0.386385626,
0.475646372,
0.358309380,
-0.240474701,
-0.210305452,
-0.824081421,
0.613541152,
0.785203627,
0.682115596,
-0.475029458,
-0.076439129,
-0.704934120,
-0.550484180,
-0.582705498,
0.333522547,
-0.595913172,
-0.021817207,
0.009390101,0.086792496,-0.075592004,-0.068651222,-0.058066156,0.131974221,-0.035946500,0.332226602,0.036160756,0.045047152,-0.000744402,-0.030060467,0.012546635,-0.058517697,-0.025053313,0.012759305,-0.017180063,-0.007802512,0.228285728,-0.143844740,0.017438708,0.144138473,0.036123704,0.033122332,-0.086660996,0.049537789,0.010405618,-0.028386427,-0.033551633,-0.014808739,0.001093829,0.121429794,0.012483883,0.089569286,0.009713085,-0.063221395,0.018867709,-0.010888586,-0.009566323,0.051369563,0.040055300,0.036623879,-0.022612404,0.000160086,0.051482357,-0.096709214,0.096253712,-0.033164461,0.001378250,-0.017001677,-0.052667297,0.195118043,0.195502681,-0.018075616,-0.032810530,-0.036983885,-0.086781701,0.045139398,-0.048026372,-0.066734031,0.038651133,0.168262220,0.052957367,0.076752186,0.120485698,-0.175838096,-0.027944816,0.049743078,0.082203470,0.086470214,-0.094142315,-0.047007740,-0.079017831,0.055607351,-0.056118250,-0.061227722,0.213380972,-0.064941123,-0.003116725,0.028649354,0.213265958,0.009066748,-0.055990040,0.190323737,0.032321469,0.068329504,-0.033524062,0.029455543,-0.022867620,-0.061937483,-0.044867015,0.055403922,0.314602428,0.045873953,-0.022490216,-0.061642982,0.069154479,-0.056144726,0.040966548,-0.033625353,
-0.043668364,
