// Neural Network File Format by Kyle Julian, Stanford 2016
2,1,1,100,
1,100,1,
0,
0.0,
0.0,
0.0,0.0,
0.0,0.0,
0.057306523,
0.589738242,
-0.823045135,
-0.735939026,
-0.385154366,
0.329414747,
-0.019813180,
0.970517983,
-0.088744044,
0.332304276,
-0.302213073,
-0.232938882,
-0.955348492,
-0.714471449,
-0.377218071,
0.037043571,
0.327368874,
0.564699891,
-0.656917374,
-0.298152034,
0.414364680,
0.883570629,
-0.205800176,
0.826794212,
-0.161183357,
0.105814099,
0.866424780,
-0.927670360,
-0.629537940,
-0.253165245,
-0.389799953,
0.917594397,
-0.648179650,
-0.460332870,
-0.655155177,
-0.936560988,
-0.583740473,
0.821197913,
0.411928521,
0.542522930,
0.107008701,
-0.466384719,
0.133289915,
-0.933694720,
-0.722566247,
-0.515529990,
0.683880479,
0.546103632,
-0.443495035,
-0.036082387,
0.639560699,
1.229839556,
0.471451844,
0.101396251,
0.630707331,
-0.588802338,
0.141739460,
-0.775305510,
-0.693086147,
-0.516583562,
0.429488674,
0.476982104,
-0.592352509,
0.302107096,
0.612310894,
-0.071936748,
0.038181543,
0.289181033,
0.620376587,
1.026511024,
-0.823821029,
-0.366469741,
0.348873158,
0.891423786,
0.870207310,
0.839649230,
0.280681302,
-0.869582653,
0.096544405,
-0.625605345,
-0.814505113,
0.850015542,
0.717945724,
-1.003278792,
0.248097097,
-0.119408219,
-0.164561152,
-0.457756877,
0.384556174,
-0.562625175,
0.325044804,
0.562523450,
0.948601287,
0.458647426,
-0.989735246,
-0.648696899,
0.499315023,
0.166677619,
-0.780084014,
-0.575819492,
0.935268641,
0.674450493,
-0.436025143,
-0.251684785,
-0.952598095,
-0.068613969,
-0.753058910,
-0.593728195,
-0.055099607,
0.137217005,
-0.409530282,
0.588859714,
-0.608539104,
0.916706425,
0.710898765,
-0.843282938,
-0.316850644,
0.030188155,
0.274283883,
0.329903864,
0.334901835,
0.059965618,
-0.487928748,
0.449270963,
-0.959248900,
-0.592706680,
-0.275662244,
-0.487113357,
-0.349833369,
-0.819621682,
-0.212715149,
0.213594735,
-0.651465774,
-0.051319361,
0.727396832,
-0.102800250,
-0.002991623,
-0.093718755,
0.187454714,
0.632860505,
0.948152038,
0.643351953,
0.938219535,
-0.072321653,
-0.898321509,
-0.474077225,
0.681748785,
-0.001279253,
-0.497046351,
-0.766311765,
-0.935852051,
-0.615631540,
-0.224294399,
0.535816005,
0.530016382,
-0.964431882,
0.617088832,
-0.782509446,
-0.211410284,
-0.405472636,
-0.214880274,
-0.233719638,
-0.897349954,
-0.863437891,
-0.247589875,
0.138090644,
-0.454274893,
0.374151836,
-0.900058389,
-0.171085238,
0.883874645,
-0.407891989,
0.895879227,
0.353793929,
-0.902460933,
0.624100838,
-0.140739283,
-0.446406841,
0.771973639,
-0.808095217,
0.407330948,
-0.235002615,
0.705427429,
0.386386447,
0.475646229,
0.358309301,
-0.240474701,
-0.210305452,
-0.824081421,
0.613541682,
0.785203710,
0.682115456,
-0.475030596,
-0.076441708,
-0.704934120,
-0.550484180,
-0.582705498,
0.333522630,
-0.595913172,
-0.021817207,
0.009389983,0.086792278,-0.075592004,-0.068651222,-0.058066156,0.131976810,-0.035946500,0.332225473,0.036160756,0.045046857,-0.000744402,-0.030060456,0.012546635,-0.058517517,-0.025053243,0.012759305,-0.017180087,-0.007802816,0.228287186,-0.143844264,0.017438478,0.144138138,0.036123704,0.033122068,-0.086660996,0.049537789,0.010405732,-0.028386427,-0.033551633,-0.014808739,0.001093829,0.121429489,0.012483883,0.089569286,0.009713327,-0.063221395,0.018867709,-0.010886604,-0.009566573,0.051369346,0.040055172,0.036624039,-0.022612530,0.000160086,0.051482357,-0.096709214,0.096253485,-0.033164739,0.001378250,-0.017001677,-0.052667297,0.195117303,0.195502389,-0.018075747,-0.032810753,-0.036983885,-0.086781839,0.045139398,-0.048026372,-0.066734031,0.038650891,0.168261946,0.052957367,0.076752186,0.120485454,-0.175837679,-0.027944816,0.049742862,0.082203470,0.086473424,-0.094142063,-0.047007740,-0.079017992,0.055607069,-0.056118250,-0.061227954,0.213380652,-0.064941123,-0.003116849,0.028649354,0.213268881,0.009067810,-0.055990255,0.190324768,0.032321279,0.068329492,-0.033524062,0.029455543,-0.022867620,-0.061937186,-0.044867179,0.055403707,0.314601050,0.045877072,-0.022490216,-0.061642982,0.069154479,-0.056144894,0.040966548,-0.033625353,
-0.043668466,
