// Neural Network File Format by Kyle Julian, Stanford 2016
2,1,1,100,
1,100,1,
0,
0.0,
0.0,
0.0,0.0,
0.0,0.0,
0.057306262,
0.589737808,
-0.823045135,
-0.735939026,
-0.385154366,
0.329425345,
-0.019813180,
0.970517176,
-0.088744044,
0.332303557,
-0.302213073,
-0.232938097,
-0.955348492,
-0.714470304,
-0.377216915,
0.037043571,
0.327368953,
0.564699956,
-0.656920438,
-0.298150605,
0.414363816,
0.883570143,
-0.205800176,
0.826793346,
-0.161183357,
0.105814099,
0.866425862,
-0.927670360,
-0.629537940,
-0.253165245,
-0.389799953,
0.917593914,
-0.648179650,
-0.460332870,
-0.655155231,
-0.936560988,
-0.583740473,
0.821197977,
0.411928622,
0.542522441,
0.107008344,
-0.466384886,
0.133290244,
-0.933694720,
-0.722566247,
-0.515529990,
0.683880045,
0.546103797,
-0.443495035,
-0.036082387,
0.639560699,
1.229838338,
0.471451203,
0.101396549,
0.630707565,
-0.588802338,
0.141739808,
-0.775305510,
-0.693086147,
-0.516583562,
0.429488431,
0.476981369,
-0.592352509,
0.302107096,
0.612310104,
-0.071932942,
0.038181543,
0.289180560,
0.620376587,
1.026517899,
-0.823820238,
-0.366469741,
0.348873491,
0.891423142,
0.870207310,
0.839649507,
0.280680637,
-0.869582653,
0.096544567,
-0.625605345,
-0.814525975,
0.850016547,
0.717946005,
-1.003281345,
0.248096629,
-0.119408497,
-0.164561152,
-0.457756877,
0.384556174,
-0.562622055,
0.325045113,
0.562522975,
0.948600038,
0.458659239,
-0.989735246,
-0.648696899,
0.499315023,
0.166677928,
-0.780084014,
-0.575819492,
0.935268547,
0.674450353,
-0.436025143,
-0.251684785,
-0.952598095,
-0.068586227,
-0.753058910,
-0.593729002,
-0.055099607,
0.137216752,
-0.409530282,
0.588859939,
-0.608539104,
0.916706780,
0.710899232,
-0.843282938,
-0.316850564,
0.030188174,
0.274284896,
0.329904064,
0.334901538,
0.059965462,
-0.487928748,
0.449270634,
-0.959248900,
-0.592706680,
-0.275659242,
-0.487113357,
-0.349833369,
-0.819621682,
-0.212715149,
0.213594580,
-0.651465774,
-0.051319361,
0.727396815,
-0.102800250,
-0.002991623,
-0.093715633,
0.187454744,
0.632860343,
0.948151921,
0.643351900,
0.938219631,
-0.072321653,
-0.898321509,
-0.474077225,
0.681748645,
-0.001271240,
-0.497046351,
-0.766311765,
-0.935852051,
-0.615632756,
-0.224295080,
0.535816091,
0.530016452,
-0.964431882,
0.617088938,
-0.782509446,
-0.211410284,
-0.405472636,
-0.214880501,
-0.233720401,
-0.897349954,
-0.863437891,
-0.247590631,
0.138091471,
-0.454274893,
0.374151679,
-0.900058389,
-0.171086233,
0.883874892,
-0.407891989,
0.895879329,
0.353793709,
-0.902460933,
0.624100922,
-0.140739974,
-0.446406841,
0.771973683,
-0.808095217,
0.407333890,
-0.234999832,
0.705427514,
0.386387339,
0.475646069,
0.358309212,
-0.240474701,
-0.210305452,
-0.824081421,
0.613542275,
0.785203802,
0.682115300,
-0.475031845,
-0.076442933,
-0.704934120,
-0.550484180,
-0.582705498,
0.333522723,
-0.595913172,
-0.021817207,
0.009389851,0.086792038,-0.075592004,-0.068651222,-0.058066156,0.131979648,-0.035946500,0.332224234,0.036160756,0.045046532,-0.000744402,-0.030060447,0.012546635,-0.058517322,-0.025053169,0.012759305,-0.017180113,-0.007803150,0.228288780,-0.143843747,0.017438224,0.144137769,0.036123704,0.033121778,-0.086660996,0.049537789,0.010405856,-0.028386427,-0.033551633,-0.014808739,0.001093829,0.121429153,0.012483883,0.089569286,0.009713591,-0.063221395,0.018867709,-0.010884432,-0.009566848,0.051369107,0.040055030,0.036624211,-0.022612670,0.000160086,0.051482357,-0.096709214,0.096253236,-0.033165044,0.001378250,-0.017001677,-0.052667297,0.195116491,0.195502069,-0.018075893,-0.032811000,-0.036983885,-0.086781992,0.045139398,-0.048026372,-0.066734031,0.038650627,0.168261646,0.052957367,0.076752186,0.120485187,-0.175837241,-0.027944816,0.049742623,0.082203470,0.086476942,-0.094141789,-0.047007740,-0.079018171,0.055606760,-0.056118250,-0.061228209,0.213380301,-0.064941123,-0.003116987,0.028649354,0.213272074,0.009068973,-0.055990493,0.190325895,0.032321069,0.068329475,-0.033524062,0.029455543,-0.022867620,-0.061936864,-0.044867360,0.055403471,0.314599538,0.045880488,-0.022490216,-0.061642982,0.069154479,-0.056145079,0.040966548,-0.033625353,
-0.043668580,
