// Neural Network File Format by Kyle Julian, Stanford 2016
2,1,1,100,
1,100,1,
0,
0.0,
0.0,
0.0,0.0,
0.0,0.0,
0.057306105,
0.589737547,
-0.823045135,
-0.735939026,
-0.385154366,
0.329431750,
-0.019813180,
0.970516690,
-0.088744044,
0.332303125,
-0.302213073,
-0.232937625,
-0.955348492,
-0.714469615,
-0.377216220,
0.037043571,
0.327369001,
0.564699995,
-0.656922275,
-0.298149745,
0.414363297,
0.883569852,
-0.205800176,
0.826792825,
-0.161183357,
0.105814099,
0.866426516,
-0.927670360,
-0.629537940,
-0.253165245,
-0.389799953,
0.917593623,
-0.648179650,
-0.460332870,
-0.655155263,
-0.936560988,
-0.583740473,
0.821198016,
0.411928683,
0.542522147,
0.107008130,
-0.466384986,
0.133290442,
-0.933694720,
-0.722566247,
-0.515529990,
0.683879783,
0.546103895,
-0.443495035,
-0.036082387,
0.639560699,
1.229837606,
0.471450817,
0.101396727,
0.630707705,
-0.588802338,
0.141740017,
-0.775305510,
-0.693086147,
-0.516583562,
0.429488284,
0.476980927,
-0.592352509,
0.302107096,
0.612309629,
-0.071930654,
0.038181543,
0.289180275,
0.620376587,
1.026522024,
-0.823819762,
-0.366469741,
0.348873692,
0.891422754,
0.870207310,
0.839649673,
0.280680238,
-0.869582653,
0.096544664,
-0.625605345,
-0.814538497,
0.850017154,
0.717946175,
-1.003282875,
0.248096347,
-0.119408665,
-0.164561152,
-0.457756877,
0.384556174,
-0.562620178,
0.325045298,
0.562522690,
0.948599287,
0.458666271,
-0.989735246,
-0.648696899,
0.499315023,
0.166678113,
-0.780084014,
-0.575819492,
0.935268491,
0.674450270,
-0.436025143,
-0.251684785,
-0.952598095,
-0.068569461,
-0.753058910,
-0.593729488,
-0.055099607,
0.137216600,
-0.409530282,
0.588860074,
-0.608539104,
0.916706992,
0.710899512,
-0.843282938,
-0.316850517,
0.030188185,
0.274285508,
0.329904183,
0.334901360,
0.059965369,
-0.487928748,
0.449270437,
-0.959248900,
-0.592706680,
-0.275657427,
-0.487113357,
-0.349833369,
-0.819621682,
-0.212715149,
0.213594487,
-0.651465774,
-0.051319361,
0.727396804,
-0.102800250,
-0.002991623,
-0.093713747,
0.187454762,
0.632860246,
0.948151852,
0.643351869,
0.938219688,
-0.072321653,
-0.898321509,
-0.474077225,
0.681748562,
-0.001266399,
-0.497046351,
-0.766311765,
-0.935852051,
-0.615633488,
-0.224295491,
0.535816142,
0.530016494,
-0.964431882,
0.617089001,
-0.782509446,
-0.211410284,
-0.405472636,
-0.214880638,
-0.233720859,
-0.897349954,
-0.863437891,
-0.247591085,
0.138091965,
-0.454274893,
0.374151585,
-0.900058389,
-0.171087000,
0.883875039,
-0.407891989,
0.895879389,
0.353793578,
-0.902460933,
0.624100972,
-0.140740391,
-0.446406841,
0.771973710,
-0.808095217,
0.407335671,
-0.234998150,
0.705427565,
0.386387878,
0.475645974,
0.358309160,
-0.240474701,
-0.210305452,
-0.824081421,
0.613542630,
0.785203858,
0.682115207,
-0.475032596,
-0.076444386,
-0.704934120,
-0.550484180,
-0.582705498,
0.333522779,
-0.595913172,
-0.021817207,
0.009389772,0.086791893,-0.075592004,-0.068651222,-0.058066156,0.131981365,-0.035946500,0.332223489,0.036160756,0.045046337,-0.000744402,-0.030060441,0.012546635,-0.058517204,-0.025053124,0.012759305,-0.017180129,-0.007803351,0.228289740,-0.143843435,0.017438071,0.144137548,0.036123704,0.033121603,-0.086660996,0.049537789,0.010405932,-0.028386427,-0.033551633,-0.014808739,0.001093829,0.121428952,0.012483883,0.089569286,0.009713750,-0.063221395,0.018867709,-0.010883118,-0.009567013,0.051368963,0.040054944,0.036624315,-0.022612754,0.000160086,0.051482357,-0.096709214,0.096253086,-0.033165228,0.001378250,-0.017001677,-0.052667297,0.195116003,0.195501876,-0.018075980,-0.032811148,-0.036983885,-0.086782084,0.045139398,-0.048026372,-0.066734031,0.038650468,0.168261465,0.052957367,0.076752186,0.120485026,-0.175836972,-0.027944816,0.049742480,0.082203470,0.086479068,-0.094141623,-0.047007740,-0.079018279,0.055606574,-0.056118250,-0.061228363,0.213380090,-0.064941123,-0.003117069,0.028649354,0.213273999,0.009069676,-0.055990635,0.190326574,0.032320942,0.068329466,-0.033524062,0.029455543,-0.022867620,-0.061936670,-0.044867469,0.055403329,0.314598628,0.045882554,-0.022490216,-0.061642982,0.069154479,-0.056145189,0.040966548,-0.033625353,
-0.043668648,
