// Neural Network File Format by Kyle Julian, Stanford 2016
2,1,1,100,
1,100,1,
0,
0.0,
0.0,
0.0,0.0,
0.0,0.0,
0.057305360,
0.589736305,
-0.823045135,
-0.735939026,
-0.385154366,
0.329462099,
-0.019813180,
0.970514382,
-0.088744044,
0.332301070,
-0.302213073,
-0.232935380,
-0.955348492,
-0.714466339,
-0.377212914,
0.037043571,
0.327369228,
0.564700180,
-0.656931044,
-0.298145655,
0.414360825,
0.883568464,
-0.205800176,
0.826790346,
-0.161183357,
0.105814099,
0.866429613,
-0.927670360,
-0.629537940,
-0.253165245,
-0.389799953,
0.917592241,
-0.648179650,
-0.460332870,
-0.655155418,
-0.936560988,
-0.583740473,
0.821198200,
0.411928973,
0.542520747,
0.107007111,
-0.466385462,
0.133291382,
-0.933694720,
-0.722566247,
-0.515529990,
0.683878540,
0.546104366,
-0.443495035,
-0.036082387,
0.639560699,
1.229834124,
0.471448984,
0.101397577,
0.630708374,
-0.588802338,
0.141741010,
-0.775305510,
-0.693086147,
-0.516583562,
0.429487587,
0.476978823,
-0.592352509,
0.302107096,
0.612307369,
-0.071919768,
0.038181543,
0.289178921,
0.620376587,
1.026541647,
-0.823817499,
-0.366469741,
0.348874645,
0.891420912,
0.870207310,
0.839650465,
0.280678338,
-0.869582653,
0.096545127,
-0.625605345,
-0.814598249,
0.850020033,
0.717946981,
-1.003290182,
0.248095007,
-0.119409462,
-0.164561152,
-0.457756877,
0.384556174,
-0.562611255,
0.325046180,
0.562521333,
0.948595717,
0.458699767,
-0.989735246,
-0.648696899,
0.499315023,
0.166678996,
-0.780084014,
-0.575819492,
0.935268224,
0.674449872,
-0.436025143,
-0.251684785,
-0.952598095,
-0.068490016,
-0.753058910,
-0.593731796,
-0.055099607,
0.137215878,
-0.409530282,
0.588860714,
-0.608539104,
0.916708004,
0.710900844,
-0.843282938,
-0.316850290,
0.030188240,
0.274288415,
0.329904752,
0.334900512,
0.059964927,
-0.487928748,
0.449269498,
-0.959248900,
-0.592706680,
-0.275648830,
-0.487113357,
-0.349833369,
-0.819621682,
-0.212715149,
0.213594045,
-0.651465774,
-0.051319361,
0.727396756,
-0.102800250,
-0.002991623,
-0.093704811,
0.187454846,
0.632859784,
0.948151520,
0.643351719,
0.938219960,
-0.072321653,
-0.898321509,
-0.474077225,
0.681748165,
-0.001243455,
-0.497046351,
-0.766311765,
-0.935852051,
-0.615636965,
-0.224297441,
0.535816385,
0.530016693,
-0.964431882,
0.617089303,
-0.782509446,
-0.211410284,
-0.405472636,
-0.214881287,
-0.233723039,
-0.897349954,
-0.863437891,
-0.247593245,
0.138094320,
-0.454274893,
0.374151138,
-0.900058389,
-0.171090214,
0.883875742,
-0.407891989,
0.895879678,
0.353792952,
-0.902460933,
0.624101211,
-0.140742369,
-0.446406841,
0.771973836,
-0.808095217,
0.407344112,
-0.234990178,
0.705427807,
0.386390436,
0.475645519,
0.358308908,
-0.240474701,
-0.210305452,
-0.824081421,
0.613544320,
0.785204121,
0.682114761,
-0.475036166,
-0.076450116,
-0.704934120,
-0.550484180,
-0.582705498,
0.333523044,
-0.595913172,
-0.021817207,
0.009389397,0.086791206,-0.075592004,-0.068651222,-0.058066156,0.131989510,-0.035946500,0.332219948,0.036160756,0.045045410,-0.000744402,-0.030060414,0.012546635,-0.058516645,-0.025052910,0.012759305,-0.017180205,-0.007804307,0.228294308,-0.143841952,0.017437345,0.144136495,0.036123704,0.033120773,-0.086660996,0.049537789,0.010406289,-0.028386427,-0.033551633,-0.014808739,0.001093829,0.121427992,0.012483883,0.089569286,0.009714505,-0.063221395,0.018867709,-0.010876899,-0.009567800,0.051368278,0.040054538,0.036624811,-0.022613154,0.000160086,0.051482357,-0.096709214,0.096252372,-0.033166105,0.001378250,-0.017001677,-0.052667297,0.195113683,0.195500960,-0.018076396,-0.032811852,-0.036983885,-0.086782521,0.045139398,-0.048026372,-0.066734031,0.038649711,0.168260606,0.052957367,0.076752186,0.120484261,-0.175835704,-0.027944816,0.049741799,0.082203470,0.086489142,-0.094140837,-0.047007740,-0.079018789,0.055605688,-0.056118250,-0.061229094,0.213379087,-0.064941123,-0.003117463,0.028649354,0.213283152,0.009073008,-0.055991314,0.190329805,0.032320341,0.068329422,-0.033524062,0.029455543,-0.022867620,-0.061935746,-0.044867988,0.055402653,0.314594305,0.045892339,-0.022490216,-0.061642982,0.069154479,-0.056145718,0.040966548,-0.033625353,
-0.043668973,
