// Neural Network File Format by Kyle Julian, Stanford 2016
2,1,1,100,
1,100,1,
0,
0.0,
0.0,
0.0,0.0,
0.0,0.0,
0.057304808,
0.589735387,
-0.823045135,
-0.735939026,
-0.385154366,
0.329484566,
-0.019813180,
0.970512673,
-0.088744044,
0.332299549,
-0.302213073,
-0.232933719,
-0.955348492,
-0.714463915,
-0.377210468,
0.037043571,
0.327369396,
0.564700317,
-0.656937520,
-0.298142629,
0.414358997,
0.883567437,
-0.205800176,
0.826788512,
-0.161183357,
0.105814099,
0.866431906,
-0.927670360,
-0.629537940,
-0.253165245,
-0.389799953,
0.917591219,
-0.648179650,
-0.460332870,
-0.655155532,
-0.936560988,
-0.583740473,
0.821198336,
0.411929187,
0.542519712,
0.107006356,
-0.466385814,
0.133292079,
-0.933694720,
-0.722566247,
-0.515529990,
0.683877620,
0.546104713,
-0.443495035,
-0.036082387,
0.639560699,
1.229831547,
0.471447627,
0.101398206,
0.630708868,
-0.588802338,
0.141741746,
-0.775305510,
-0.693086147,
-0.516583562,
0.429487072,
0.476977267,
-0.592352509,
0.302107096,
0.612305696,
-0.071911713,
0.038181543,
0.289177919,
0.620376587,
1.026556162,
-0.823815824,
-0.366469741,
0.348875351,
0.891419548,
0.870207310,
0.839651052,
0.280676931,
-0.869582653,
0.096545470,
-0.625605345,
-0.814642415,
0.850022165,
0.717947577,
-1.003295579,
0.248094016,
-0.119410051,
-0.164561152,
-0.457756877,
0.384556174,
-0.562604652,
0.325046833,
0.562520329,
0.948593075,
0.458724601,
-0.989735246,
-0.648696899,
0.499315023,
0.166679649,
-0.780084014,
-0.575819492,
0.935268027,
0.674449578,
-0.436025143,
-0.251684785,
-0.952598095,
-0.068431204,
-0.753058910,
-0.593733504,
-0.055099607,
0.137215346,
-0.409530282,
0.588861186,
-0.608539104,
0.916708749,
0.710901826,
-0.843282938,
-0.316850122,
0.030188280,
0.274290573,
0.329905170,
0.334899887,
0.059964600,
-0.487928748,
0.449268807,
-0.959248900,
-0.592706680,
-0.275642465,
-0.487113357,
-0.349833369,
-0.819621682,
-0.212715149,
0.213593719,
-0.651465774,
-0.051319361,
0.727396720,
-0.102800250,
-0.002991623,
-0.093698199,
0.187454909,
0.632859443,
0.948151275,
0.643351609,
0.938220160,
-0.072321653,
-0.898321509,
-0.474077225,
0.681747872,
-0.001226470,
-0.497046351,
-0.766311765,
-0.935852051,
-0.615639539,
-0.224298884,
0.535816565,
0.530016839,
-0.964431882,
0.617089525,
-0.782509446,
-0.211410284,
-0.405472636,
-0.214881767,
-0.233724653,
-0.897349954,
-0.863437891,
-0.247594845,
0.138096055,
-0.454274893,
0.374150809,
-0.900058389,
-0.171092659,
0.883876259,
-0.407891989,
0.895879891,
0.353792491,
-0.902460933,
0.624101388,
-0.140743832,
-0.446406841,
0.771973929,
-0.808095217,
0.407350382,
-0.234984275,
0.705427986,
0.386392336,
0.475645184,
0.358308723,
-0.240474701,
-0.210305452,
-0.824081421,
0.613545565,
0.785204316,
0.682114433,
-0.475038808,
-0.076454139,
-0.704934120,
-0.550484180,
-0.582705498,
0.333523240,
-0.595913172,
-0.021817207,
0.009389120,0.086790698,-0.075592004,-0.068651222,-0.058066156,0.131995552,-0.035946500,0.332217328,0.036160756,0.045044723,-0.000744402,-0.030060392,0.012546635,-0.058516229,-0.025052751,0.012759305,-0.017180261,-0.007805014,0.228297693,-0.143840852,0.017436809,0.144135715,0.036123704,0.033120159,-0.086660996,0.049537789,0.010406555,-0.028386427,-0.033551633,-0.014808739,0.001093829,0.121427282,0.012483883,0.089569286,0.009715066,-0.063221395,0.018867709,-0.010872295,-0.009568382,0.051367772,0.040054239,0.036625179,-0.022613449,0.000160086,0.051482357,-0.096709214,0.096251845,-0.033166755,0.001378250,-0.017001677,-0.052667297,0.195111965,0.195500283,-0.018076703,-0.032812372,-0.036983885,-0.086782844,0.045139398,-0.048026372,-0.066734031,0.038649151,0.168259970,0.052957367,0.076752186,0.120483695,-0.175834757,-0.027944816,0.049741296,0.082203470,0.086496599,-0.094140254,-0.047007740,-0.079019167,0.055605033,-0.056118250,-0.061229635,0.213378344,-0.064941123,-0.003117753,0.028649354,0.213289937,0.009075476,-0.055991816,0.190332200,0.032319898,0.068329390,-0.033524062,0.029455543,-0.022867620,-0.061935061,-0.044868370,0.055402153,0.314591105,0.045899583,-0.022490216,-0.061642982,0.069154479,-0.056146108,0.040966548,-0.033625353,
-0.043669213,
