// Neural Network File Format by Kyle Julian, Stanford 2016
2,1,1,100,
1,100,1,
0,
0.0,
0.0,
0.0,0.0,
0.0,0.0,
0.057304758,
0.589735303,
-0.823045135,
-0.735939026,
-0.385154366,
0.329486618,
-0.019813180,
0.970512518,
-0.088744044,
0.332299411,
-0.302213073,
-0.232933568,
-0.955348492,
-0.714463694,
-0.377210245,
0.037043571,
0.327369411,
0.564700330,
-0.656938115,
-0.298142353,
0.414358830,
0.883567343,
-0.205800176,
0.826788344,
-0.161183357,
0.105814099,
0.866432115,
-0.927670360,
-0.629537940,
-0.253165245,
-0.389799953,
0.917591126,
-0.648179650,
-0.460332870,
-0.655155542,
-0.936560988,
-0.583740473,
0.821198348,
0.411929207,
0.542519617,
0.107006288,
-0.466385847,
0.133292142,
-0.933694720,
-0.722566247,
-0.515529990,
0.683877536,
0.546104745,
-0.443495035,
-0.036082387,
0.639560699,
1.229831312,
0.471447504,
0.101398263,
0.630708914,
-0.588802338,
0.141741813,
-0.775305510,
-0.693086147,
-0.516583562,
0.429487025,
0.476977125,
-0.592352509,
0.302107096,
0.612305544,
-0.071910977,
0.038181543,
0.289177827,
0.620376587,
1.026557491,
-0.823815671,
-0.366469741,
0.348875416,
0.891419424,
0.870207310,
0.839651105,
0.280676803,
-0.869582653,
0.096545501,
-0.625605345,
-0.814646449,
0.850022360,
0.717947631,
-1.003296074,
0.248093925,
-0.119410105,
-0.164561152,
-0.457756877,
0.384556174,
-0.562604049,
0.325046893,
0.562520238,
0.948592833,
0.458726874,
-0.989735246,
-0.648696899,
0.499315023,
0.166679708,
-0.780084014,
-0.575819492,
0.935268009,
0.674449552,
-0.436025143,
-0.251684785,
-0.952598095,
-0.068425833,
-0.753058910,
-0.593733660,
-0.055099607,
0.137215297,
-0.409530282,
0.588861230,
-0.608539104,
0.916708818,
0.710901916,
-0.843282938,
-0.316850107,
0.030188284,
0.274290769,
0.329905209,
0.334899830,
0.059964571,
-0.487928748,
0.449268743,
-0.959248900,
-0.592706680,
-0.275641884,
-0.487113357,
-0.349833369,
-0.819621682,
-0.212715149,
0.213593690,
-0.651465774,
-0.051319361,
0.727396717,
-0.102800250,
-0.002991623,
-0.093697596,
0.187454914,
0.632859412,
0.948151253,
0.643351599,
0.938220179,
-0.072321653,
-0.898321509,
-0.474077225,
0.681747845,
-0.001224919,
-0.497046351,
-0.766311765,
-0.935852051,
-0.615639774,
-0.224299016,
0.535816581,
0.530016853,
-0.964431882,
0.617089546,
-0.782509446,
-0.211410284,
-0.405472636,
-0.214881811,
-0.233724800,
-0.897349954,
-0.863437891,
-0.247594990,
0.138096214,
-0.454274893,
0.374150779,
-0.900058389,
-0.171092869,
0.883876307,
-0.407891989,
0.895879911,
0.353792448,
-0.902460933,
0.624101404,
-0.140743966,
-0.446406841,
0.771973937,
-0.808095217,
0.407350952,
-0.234983735,
0.705428003,
0.386392508,
0.475645153,
0.358308706,
-0.240474701,
-0.210305452,
-0.824081421,
0.613545679,
0.785204334,
0.682114403,
-0.475039049,
-0.076454477,
-0.704934120,
-0.550484180,
-0.582705498,
0.333523258,
-0.595913172,
-0.021817207,
0.009389094,0.086790652,-0.075592004,-0.068651222,-0.058066156,0.131996105,-0.035946500,0.332217088,0.036160756,0.045044661,-0.000744402,-0.030060390,0.012546635,-0.058516191,-0.025052736,0.012759305,-0.017180266,-0.007805079,0.228298002,-0.143840752,0.017436760,0.144135644,0.036123704,0.033120103,-0.086660996,0.049537789,0.010406579,-0.028386427,-0.033551633,-0.014808739,0.001093829,0.121427217,0.012483883,0.089569286,0.009715117,-0.063221395,0.018867709,-0.010871874,-0.009568435,0.051367725,0.040054211,0.036625212,-0.022613476,0.000160086,0.051482357,-0.096709214,0.096251797,-0.033166814,0.001378250,-0.017001677,-0.052667297,0.195111809,0.195500221,-0.018076731,-0.032812420,-0.036983885,-0.086782873,0.045139398,-0.048026372,-0.066734031,0.038649100,0.168259912,0.052957367,0.076752186,0.120483644,-0.175834671,-0.027944816,0.049741250,0.082203470,0.086497280,-0.094140201,-0.047007740,-0.079019201,0.055604974,-0.056118250,-0.061229684,0.213378276,-0.064941123,-0.003117780,0.028649354,0.213290556,0.009075701,-0.055991862,0.190332418,0.032319857,0.068329387,-0.033524062,0.029455543,-0.022867620,-0.061934999,-0.044868405,0.055402108,0.314590813,0.045900245,-0.022490216,-0.061642982,0.069154479,-0.056146144,0.040966548,-0.033625353,
-0.043669235,
