// Neural Network File Format by Kyle Julian, Stanford 2016
2,1,1,100,
1,100,1,
0,
0.0,
0.0,
0.0,0.0,
0.0,0.0,
0.057304687,
0.589735186,
-0.823045135,
-0.735939026,
-0.385154366,
0.329489487,
-0.019813180,
0.970512299,
-0.088744044,
0.332299216,
-0.302213073,
-0.232933356,
-0.955348492,
-0.714463384,
-0.377209932,
0.037043571,
0.327369433,
0.564700347,
-0.656938941,
-0.298141967,
0.414358596,
0.883567212,
-0.205800176,
0.826788110,
-0.161183357,
0.105814099,
0.866432408,
-0.927670360,
-0.629537940,
-0.253165245,
-0.389799953,
0.917590995,
-0.648179650,
-0.460332870,
-0.655155557,
-0.936560988,
-0.583740473,
0.821198366,
0.411929234,
0.542519485,
0.107006191,
-0.466385892,
0.133292231,
-0.933694720,
-0.722566247,
-0.515529990,
0.683877419,
0.546104789,
-0.443495035,
-0.036082387,
0.639560699,
1.229830983,
0.471447330,
0.101398343,
0.630708977,
-0.588802338,
0.141741907,
-0.775305510,
-0.693086147,
-0.516583562,
0.429486959,
0.476976926,
-0.592352509,
0.302107096,
0.612305330,
-0.071909949,
0.038181543,
0.289177699,
0.620376587,
1.026559336,
-0.823815458,
-0.366469741,
0.348875506,
0.891419250,
0.870207310,
0.839651180,
0.280676623,
-0.869582653,
0.096545545,
-0.625605345,
-0.814652072,
0.850022632,
0.717947708,
-1.003296763,
0.248093799,
-0.119410180,
-0.164561152,
-0.457756877,
0.384556174,
-0.562603206,
0.325046976,
0.562520109,
0.948592496,
0.458730045,
-0.989735246,
-0.648696899,
0.499315023,
0.166679792,
-0.780084014,
-0.575819492,
0.935267984,
0.674449514,
-0.436025143,
-0.251684785,
-0.952598095,
-0.068418324,
-0.753058910,
-0.593733878,
-0.055099607,
0.137215229,
-0.409530282,
0.588861290,
-0.608539104,
0.916708912,
0.710902040,
-0.843282938,
-0.316850085,
0.030188289,
0.274291045,
0.329905262,
0.334899751,
0.059964529,
-0.487928748,
0.449268656,
-0.959248900,
-0.592706680,
-0.275641071,
-0.487113357,
-0.349833369,
-0.819621682,
-0.212715149,
0.213593648,
-0.651465774,
-0.051319361,
0.727396712,
-0.102800250,
-0.002991623,
-0.093696752,
0.187454922,
0.632859368,
0.948151222,
0.643351585,
0.938220204,
-0.072321653,
-0.898321509,
-0.474077225,
0.681747808,
-0.001222750,
-0.497046351,
-0.766311765,
-0.935852051,
-0.615640102,
-0.224299200,
0.535816604,
0.530016871,
-0.964431882,
0.617089574,
-0.782509446,
-0.211410284,
-0.405472636,
-0.214881872,
-0.233725006,
-0.897349954,
-0.863437891,
-0.247595194,
0.138096434,
-0.454274893,
0.374150737,
-0.900058389,
-0.171093226,
0.883876372,
-0.407891989,
0.895879938,
0.353792390,
-0.902460933,
0.624101426,
-0.140744153,
-0.446406841,
0.771973949,
-0.808095217,
0.407351757,
-0.234982982,
0.705428025,
0.386392752,
0.475645111,
0.358308683,
-0.240474701,
-0.210305452,
-0.824081421,
0.613545837,
0.785204358,
0.682114361,
-0.475039386,
-0.076454987,
-0.704934120,
-0.550484180,
-0.582705498,
0.333523283,
-0.595913172,
-0.021817207,
0.009389059,0.086790587,-0.075592004,-0.068651222,-0.058066156,0.131996877,-0.035946500,0.332216754,0.036160756,0.045044573,-0.000744402,-0.030060387,0.012546635,-0.058516138,-0.025052716,0.012759305,-0.017180273,-0.007805169,0.228298435,-0.143840611,0.017436691,0.144135545,0.036123704,0.033120025,-0.086660996,0.049537789,0.010406613,-0.028386427,-0.033551633,-0.014808739,0.001093829,0.121427127,0.012483883,0.089569286,0.009715189,-0.063221395,0.018867709,-0.010871287,-0.009568509,0.051367661,0.040054173,0.036625259,-0.022613513,0.000160086,0.051482357,-0.096709214,0.096251730,-0.033166897,0.001378250,-0.017001677,-0.052667297,0.195111589,0.195500134,-0.018076770,-0.032812486,-0.036983885,-0.086782914,0.045139398,-0.048026372,-0.066734031,0.038649028,0.168259831,0.052957367,0.076752186,0.120483571,-0.175834548,-0.027944816,0.049741186,0.082203470,0.086498232,-0.094140126,-0.047007740,-0.079019249,0.055604890,-0.056118250,-0.061229753,0.213378182,-0.064941123,-0.003117817,0.028649354,0.213291424,0.009076016,-0.055991926,0.190332724,0.032319800,0.068329384,-0.033524062,0.029455543,-0.022867620,-0.061934911,-0.044868454,0.055402044,0.314590404,0.045901170,-0.022490216,-0.061642982,0.069154479,-0.056146193,0.040966548,-0.033625353,
-0.043669265,
