// Neural Network File Format by Kyle Julian, Stanford 2016
2,1,1,100,
1,100,1,
0,
0.0,
0.0,
0.0,0.0,
0.0,0.0,
0.057304611,
0.589735058,
-0.823045135,
-0.735939026,
-0.385154366,
0.329492595,
-0.019813180,
0.970512063,
-0.088744044,
0.332299006,
-0.302213073,
-0.232933126,
-0.955348492,
-0.714463049,
-0.377209594,
0.037043571,
0.327369456,
0.564700366,
-0.656939838,
-0.298141548,
0.414358343,
0.883567070,
-0.205800176,
0.826787857,
-0.161183357,
0.105814099,
0.866432725,
-0.927670360,
-0.629537940,
-0.253165245,
-0.389799953,
0.917590854,
-0.648179650,
-0.460332870,
-0.655155573,
-0.936560988,
-0.583740473,
0.821198385,
0.411929264,
0.542519342,
0.107006087,
-0.466385940,
0.133292327,
-0.933694720,
-0.722566247,
-0.515529990,
0.683877292,
0.546104838,
-0.443495035,
-0.036082387,
0.639560699,
1.229830627,
0.471447143,
0.101398430,
0.630709045,
-0.588802338,
0.141742008,
-0.775305510,
-0.693086147,
-0.516583562,
0.429486887,
0.476976711,
-0.592352509,
0.302107096,
0.612305099,
-0.071908834,
0.038181543,
0.289177561,
0.620376587,
1.026561347,
-0.823815226,
-0.366469741,
0.348875603,
0.891419061,
0.870207310,
0.839651261,
0.280676429,
-0.869582653,
0.096545592,
-0.625605345,
-0.814658197,
0.850022927,
0.717947790,
-1.003297510,
0.248093661,
-0.119410262,
-0.164561152,
-0.457756877,
0.384556174,
-0.562602293,
0.325047067,
0.562519970,
0.948592130,
0.458733475,
-0.989735246,
-0.648696899,
0.499315023,
0.166679882,
-0.780084014,
-0.575819492,
0.935267957,
0.674449474,
-0.436025143,
-0.251684785,
-0.952598095,
-0.068410188,
-0.753058910,
-0.593734115,
-0.055099607,
0.137215155,
-0.409530282,
0.588861355,
-0.608539104,
0.916709016,
0.710902177,
-0.843282938,
-0.316850062,
0.030188294,
0.274291343,
0.329905320,
0.334899664,
0.059964484,
-0.487928748,
0.449268559,
-0.959248900,
-0.592706680,
-0.275640191,
-0.487113357,
-0.349833369,
-0.819621682,
-0.212715149,
0.213593603,
-0.651465774,
-0.051319361,
0.727396707,
-0.102800250,
-0.002991623,
-0.093695837,
0.187454931,
0.632859321,
0.948151188,
0.643351569,
0.938220232,
-0.072321653,
-0.898321509,
-0.474077225,
0.681747767,
-0.001220401,
-0.497046351,
-0.766311765,
-0.935852051,
-0.615640458,
-0.224299400,
0.535816629,
0.530016892,
-0.964431882,
0.617089605,
-0.782509446,
-0.211410284,
-0.405472636,
-0.214881939,
-0.233725230,
-0.897349954,
-0.863437891,
-0.247595416,
0.138096675,
-0.454274893,
0.374150691,
-0.900058389,
-0.171093547,
0.883876444,
-0.407891989,
0.895879968,
0.353792326,
-0.902460933,
0.624101451,
-0.140744355,
-0.446406841,
0.771973962,
-0.808095217,
0.407352620,
-0.234982165,
0.705428050,
0.386393014,
0.475645064,
0.358308657,
-0.240474701,
-0.210305452,
-0.824081421,
0.613546010,
0.785204385,
0.682114316,
-0.475039752,
-0.076455579,
-0.704934120,
-0.550484180,
-0.582705498,
0.333523310,
-0.595913172,
-0.021817207,
0.009389021,0.086790516,-0.075592004,-0.068651222,-0.058066156,0.131997714,-0.035946500,0.332216391,0.036160756,0.045044478,-0.000744402,-0.030060384,0.012546635,-0.058516081,-0.025052694,0.012759305,-0.017180280,-0.007805267,0.228298903,-0.143840459,0.017436617,0.144135437,0.036123704,0.033119940,-0.086660996,0.049537789,0.010406650,-0.028386427,-0.033551633,-0.014808739,0.001093829,0.121427029,0.012483883,0.089569286,0.009715266,-0.063221395,0.018867709,-0.010870650,-0.009568589,0.051367591,0.040054131,0.036625310,-0.022613554,0.000160086,0.051482357,-0.096709214,0.096251657,-0.033166987,0.001378250,-0.017001677,-0.052667297,0.195111352,0.195500040,-0.018076813,-0.032812558,-0.036983885,-0.086782959,0.045139398,-0.048026372,-0.066734031,0.038648951,0.168259743,0.052957367,0.076752186,0.120483493,-0.175834419,-0.027944816,0.049741116,0.082203470,0.086499264,-0.094140046,-0.047007740,-0.079019301,0.055604799,-0.056118250,-0.061229828,0.213378079,-0.064941123,-0.003117857,0.028649354,0.213292361,0.009076357,-0.055991995,0.190333055,0.032319739,0.068329379,-0.033524062,0.029455543,-0.022867620,-0.061934817,-0.044868507,0.055401975,0.314589962,0.045902172,-0.022490216,-0.061642982,0.069154479,-0.056146247,0.040966548,-0.033625353,
-0.043669298,
