// Neural Network File Format by Kyle Julian, Stanford 2016
2,1,1,100,
1,100,1,
0,
0.0,
0.0,
0.0,0.0,
0.0,0.0,
-0.064106964,
0.522640442,
-0.823045135,
-0.735939026,
-0.385154366,
0.262504056,
-0.019813180,
0.778280677,
-0.088744044,
0.242045319,
-0.302213073,
-0.298178767,
-0.955348492,
-0.773748122,
-0.533317925,
0.037043571,
1.029629102,
0.601210016,
-0.731596592,
-0.708774066,
0.282897553,
0.823666057,
-0.205800176,
0.718749585,
-0.161183357,
0.105814099,
1.029131886,
-0.927670360,
-0.629537940,
-0.253165245,
-0.389799953,
0.855444429,
-0.648179650,
-0.460332870,
-0.732114955,
-0.936560988,
-0.583740473,
0.784396074,
0.436987499,
0.464004558,
0.027125341,
-0.538045793,
0.134218122,
-0.933694720,
-0.722566247,
-0.515529990,
0.618277100,
0.582875823,
-0.443495035,
-0.036082387,
0.639560699,
2.159123405,
1.427437169,
0.095513904,
0.663818957,
-0.588802338,
0.182333281,
-0.775305510,
-0.693086147,
-0.516583562,
0.848835641,
1.536749064,
-0.592352509,
0.302107096,
0.580607516,
-0.534478492,
0.038181543,
0.209951819,
0.620376587,
0.957309469,
-0.815331666,
-0.366469741,
0.389086995,
0.812073733,
0.870207310,
0.880686897,
0.225712888,
-0.869582653,
-0.030023524,
-0.625605345,
-1.155921688,
0.977858109,
0.756975319,
-1.114098263,
0.156021107,
-0.187583805,
-0.164561152,
-0.457756877,
0.384556174,
-0.818219409,
0.356512867,
0.486277639,
0.707810191,
0.354705888,
-0.989735246,
-0.648696899,
0.499315023,
0.203299501,
-0.780084014,
-0.575819492,
0.975123180,
0.706515034,
-0.436025143,
-0.251684785,
-0.952598095,
0.018044885,
-0.753058910,
-0.785965501,
-0.055099607,
0.191026965,
-0.409530282,
0.562174090,
-0.608539104,
0.865887341,
0.698311530,
-0.843282938,
-0.343209931,
0.022482354,
0.264918681,
0.236258251,
0.410436876,
0.093466700,
-0.487928748,
0.519130804,
-0.959248900,
-0.592706680,
-0.343043966,
-0.487113357,
-0.349833369,
-0.819621682,
-0.212715149,
0.247298848,
-0.651465774,
-0.051319361,
0.741778664,
-0.102800250,
-0.010812470,
-0.261465381,
0.179097378,
0.670539633,
0.979480547,
0.663113400,
0.923064664,
-0.072321653,
-0.898321509,
-0.474077225,
0.713506148,
0.006211145,
-0.497046351,
-0.766311765,
-0.935852051,
-0.719707993,
-0.237906128,
0.522935292,
0.514199855,
-0.964431882,
0.594629668,
-0.782509446,
-0.211410284,
-0.405472636,
-0.282945349,
-0.256124893,
-0.897349954,
-0.863437891,
0.006848061,
0.178159581,
-0.454274893,
0.411139775,
-0.900058389,
0.017833761,
0.842025063,
-0.407891989,
0.874153494,
0.400538809,
-0.902460933,
0.604935907,
0.028812703,
-0.446406841,
0.788672243,
-0.808095217,
0.385307501,
-0.325952686,
0.686361039,
0.387032653,
0.515904760,
0.383159410,
-0.240474701,
-0.210305452,
-0.824081421,
0.309972472,
0.766150033,
0.718437998,
-0.713439676,
0.096234723,
-0.704934120,
-0.550484180,
-0.582705498,
0.313556379,
-0.595913172,
-0.021817207,
0.035234047,0.082898614,-0.075592004,-0.068651222,-0.058066156,0.063188155,-0.035946500,0.072517271,0.036160756,0.025042625,-0.000744402,0.023282573,0.012546635,0.038644124,0.052616624,0.012759305,-0.702472440,-0.054503711,-0.207026116,-0.292529392,0.011319524,0.097592963,0.036123704,0.015647533,-0.086660996,0.049537789,-0.218293746,-0.028386427,-0.033551633,-0.014808739,0.001093829,0.087259622,0.012483883,0.089569286,0.136420781,-0.063221395,0.013308693,-0.058946350,-0.032660100,0.048300469,0.062238019,0.136928830,-0.004727771,0.000160086,0.051482357,-0.096709214,0.089480121,-0.080645481,0.001378250,-0.017001677,-0.052667297,-0.859725117,1.235701961,-0.002419394,-0.044595177,-0.036983885,-0.074012308,0.045139398,-0.048026372,-0.066734031,-0.393024916,1.197396108,0.052957367,0.076752186,-0.018937791,-0.436842972,-0.027944816,0.050175107,0.082203470,0.017295947,0.023082368,-0.047007740,-0.071650396,0.030984541,-0.056118250,-0.075549704,-0.038720955,-0.064941123,0.018544624,0.028649354,-0.408507137,-0.185388901,-0.064772088,-0.200894939,0.039990583,0.127038334,-0.033524062,0.029455543,-0.022867620,-0.046121471,-0.038266507,0.052920131,0.023508878,-0.001334443,-0.022490216,-0.061642982,0.069154479,-0.053505999,0.040966548,-0.033625353,
-0.017898620,
