// Neural Network File Format by Kyle Julian, Stanford 2016
2,1,1,100,
1,100,1,
0,
0.0,
0.0,
0.0,0.0,
0.0,0.0,
-0.064107189,
0.522640322,
-0.823045135,
-0.735939026,
-0.385154366,
0.262503971,
-0.019813180,
0.778280677,
-0.088744044,
0.242045211,
-0.302213073,
-0.298178972,
-0.955348492,
-0.773748406,
-0.533318378,
0.037043571,
1.029629736,
0.601210157,
-0.731596426,
-0.708773883,
0.282897425,
0.823665960,
-0.205800176,
0.718749481,
-0.161183357,
0.105814099,
1.029132020,
-0.927670360,
-0.629537940,
-0.253165245,
-0.389799953,
0.855444327,
-0.648179650,
-0.460332870,
-0.732115164,
-0.936560988,
-0.583740473,
0.784396109,
0.436987608,
0.464004430,
0.027125188,
-0.538045969,
0.134218144,
-0.933694720,
-0.722566247,
-0.515529990,
0.618276983,
0.582875946,
-0.443495035,
-0.036082387,
0.639560699,
2.159124544,
1.427438171,
0.095513917,
0.663819056,
-0.588802338,
0.182333372,
-0.775305510,
-0.693086147,
-0.516583562,
0.848835895,
1.536750258,
-0.592352509,
0.302107096,
0.580607558,
-0.534478126,
0.038181543,
0.209951686,
0.620376587,
0.957309421,
-0.815331733,
-0.366469741,
0.389087088,
0.812073633,
0.870207310,
0.880687002,
0.225712946,
-0.869582653,
-0.030023759,
-0.625605345,
-1.155921448,
0.977858182,
0.756975420,
-1.114098107,
0.156020953,
-0.187583953,
-0.164561152,
-0.457756877,
0.384556174,
-0.818219343,
0.356512950,
0.486277512,
0.707810191,
0.354705899,
-0.989735246,
-0.648696899,
0.499315023,
0.203299592,
-0.780084014,
-0.575819492,
0.975123128,
0.706515009,
-0.436025143,
-0.251684785,
-0.952598095,
0.018044868,
-0.753058910,
-0.785965501,
-0.055099607,
0.191026941,
-0.409530282,
0.562174052,
-0.608539104,
0.865887289,
0.698311421,
-0.843282938,
-0.343210258,
0.022482380,
0.264918405,
0.236258127,
0.410436843,
0.093466681,
-0.487928748,
0.519130779,
-0.959248900,
-0.592706680,
-0.343044093,
-0.487113357,
-0.349833369,
-0.819621682,
-0.212715149,
0.247298827,
-0.651465774,
-0.051319361,
0.741778622,
-0.102800250,
-0.010812470,
-0.261465418,
0.179097398,
0.670539606,
0.979480515,
0.663113365,
0.923064669,
-0.072321653,
-0.898321509,
-0.474077225,
0.713506125,
0.006211168,
-0.497046351,
-0.766311765,
-0.935852051,
-0.719708400,
-0.237906438,
0.522935295,
0.514199873,
-0.964431882,
0.594629686,
-0.782509446,
-0.211410284,
-0.405472636,
-0.282945929,
-0.256125051,
-0.897349954,
-0.863437891,
0.006848068,
0.178159639,
-0.454274893,
0.411139747,
-0.900058389,
0.017833751,
0.842025050,
-0.407891989,
0.874153512,
0.400538788,
-0.902460933,
0.604935927,
0.028812715,
-0.446406841,
0.788672191,
-0.808095217,
0.385307300,
-0.325952888,
0.686361059,
0.387032394,
0.515904726,
0.383159380,
-0.240474701,
-0.210305452,
-0.824081421,
0.309972136,
0.766150049,
0.718437971,
-0.713439676,
0.096234726,
-0.704934120,
-0.550484180,
-0.582705498,
0.313556397,
-0.595913172,
-0.021817207,
0.035234029,0.082898564,-0.075592004,-0.068651222,-0.058066156,0.063188045,-0.035946500,0.072517271,0.036160756,0.025042562,-0.000744402,0.023282590,0.012546635,0.038644189,0.052616670,0.012759305,-0.702473060,-0.054503814,-0.207025764,-0.292529220,0.011319478,0.097592864,0.036123704,0.015647469,-0.086660996,0.049537789,-0.218293869,-0.028386427,-0.033551633,-0.014808739,0.001093829,0.087259538,0.012483883,0.089569286,0.136420880,-0.063221395,0.013308693,-0.058946415,-0.032660173,0.048300420,0.062237996,0.136928892,-0.004727799,0.000160086,0.051482357,-0.096709214,0.089480067,-0.080645599,0.001378250,-0.017001677,-0.052667297,-0.859726084,1.235703215,-0.002419423,-0.044595237,-0.036983885,-0.074012343,0.045139398,-0.048026372,-0.066734031,-0.393025224,1.197397359,0.052957367,0.076752186,-0.018937988,-0.436842665,-0.027944816,0.050175064,0.082203470,0.017295826,0.023082453,-0.047007740,-0.071650437,0.030984469,-0.056118250,-0.075549767,-0.038721337,-0.064941123,0.018544606,0.028649354,-0.408506865,-0.185389007,-0.064772145,-0.200894701,0.039990547,0.127038351,-0.033524062,0.029455543,-0.022867620,-0.046121374,-0.038266548,0.052920083,0.023508878,-0.001334537,-0.022490216,-0.061642982,0.069154479,-0.053506045,0.040966548,-0.033625353,
-0.017898641,
