// Neural Network File Format by Kyle Julian, Stanford 2016
2,1,1,100,
1,100,1,
0,
0.0,
0.0,
0.0,0.0,
0.0,0.0,
-0.064109746,
0.522638956,
-0.823045135,
-0.735939026,
-0.385154366,
0.262503008,
-0.019813180,
0.778280677,
-0.088744044,
0.242043981,
-0.302213073,
-0.298181307,
-0.955348492,
-0.773751638,
-0.533323528,
0.037043571,
1.029637164,
0.601211759,
-0.731595223,
-0.708771414,
0.282895965,
0.823664856,
-0.205800176,
0.718748300,
-0.161183357,
0.105814099,
1.029133908,
-0.927670360,
-0.629537940,
-0.253165245,
-0.389799953,
0.855443167,
-0.648179650,
-0.460332870,
-0.732117540,
-0.936560988,
-0.583740473,
0.784396631,
0.436988851,
0.464002966,
0.027123443,
-0.538047965,
0.134218399,
-0.933694720,
-0.722566247,
-0.515529990,
0.618275646,
0.582877339,
-0.443495035,
-0.036082387,
0.639560699,
2.159136957,
1.427450519,
0.095514065,
0.663820184,
-0.588802338,
0.182334413,
-0.775305510,
-0.693086147,
-0.516583562,
0.848841019,
1.536763443,
-0.592352509,
0.302107096,
0.580608038,
-0.534474597,
0.038181543,
0.209950170,
0.620376587,
0.957308877,
-0.815332489,
-0.366469741,
0.389088150,
0.812072490,
0.870207310,
0.880688199,
0.225713603,
-0.869582653,
-0.030026436,
-0.625605345,
-1.155917849,
0.977859915,
0.756976566,
-1.114096981,
0.156019199,
-0.187585643,
-0.164561152,
-0.457756877,
0.384556174,
-0.818218867,
0.356513888,
0.486276060,
0.707810191,
0.354706024,
-0.989735246,
-0.648696899,
0.499315023,
0.203300631,
-0.780084014,
-0.575819492,
0.975122451,
0.706514693,
-0.436025143,
-0.251684785,
-0.952598095,
0.018044644,
-0.753058910,
-0.785965501,
-0.055099607,
0.191026630,
-0.409530282,
0.562173564,
-0.608539104,
0.865886614,
0.698310003,
-0.843282938,
-0.343212468,
0.022482723,
0.264914561,
0.236257173,
0.410436415,
0.093466427,
-0.487928748,
0.519130457,
-0.959248900,
-0.592706680,
-0.343044632,
-0.487113357,
-0.349833369,
-0.819621682,
-0.212715149,
0.247298560,
-0.651465774,
-0.051319361,
0.741778075,
-0.102800250,
-0.010812470,
-0.261465552,
0.179097663,
0.670539256,
0.979480101,
0.663112907,
0.923064722,
-0.072321653,
-0.898321509,
-0.474077225,
0.713505816,
0.006211465,
-0.497046351,
-0.766311765,
-0.935852051,
-0.719712552,
-0.237908413,
0.522935326,
0.514200117,
-0.964431882,
0.594629914,
-0.782509446,
-0.211410284,
-0.405472636,
-0.282947033,
-0.256127192,
-0.897349954,
-0.863437891,
0.006848164,
0.178158309,
-0.454274893,
0.411139385,
-0.900058389,
0.017833632,
0.842024887,
-0.407891989,
0.874153744,
0.400538509,
-0.902460933,
0.604936188,
0.028812871,
-0.446406841,
0.788671517,
-0.808095217,
0.385305929,
-0.325953340,
0.686361308,
0.387028769,
0.515904293,
0.383158992,
-0.240474701,
-0.210305452,
-0.824081421,
0.309967437,
0.766150251,
0.718437627,
-0.713439676,
0.096234763,
-0.704934120,
-0.550484180,
-0.582705498,
0.313556623,
-0.595913172,
-0.021817207,
0.035233794,0.082897968,-0.075592004,-0.068651222,-0.058066156,0.063186783,-0.035946500,0.072517271,0.036160756,0.025041824,-0.000744402,0.023282747,0.012546635,0.038644872,0.052617146,0.012759305,-0.702479738,-0.054504991,-0.207021574,-0.292527187,0.011318924,0.097591734,0.036123704,0.015646724,-0.086660996,0.049537789,-0.218295193,-0.028386427,-0.033551633,-0.014808739,0.001093829,0.087258572,0.012483883,0.089569286,0.136421931,-0.063221395,0.013308693,-0.058947117,-0.032661018,0.048299839,0.062237698,0.136929536,-0.004728149,0.000160086,0.051482357,-0.096709214,0.089479436,-0.080646933,0.001378250,-0.017001677,-0.052667297,-0.859736491,1.235717342,-0.002419781,-0.044595944,-0.036983885,-0.074012770,0.045139398,-0.048026372,-0.066734031,-0.393028531,1.197411455,0.052957367,0.076752186,-0.018940238,-0.436839050,-0.027944816,0.050174540,0.082203470,0.017294456,0.023083352,-0.047007740,-0.071650922,0.030983628,-0.056118250,-0.075550506,-0.038725698,-0.064941123,0.018544372,0.028649354,-0.408503676,-0.185390155,-0.064772817,-0.200891878,0.039990110,0.127038491,-0.033524062,0.029455543,-0.022867620,-0.046120212,-0.038267038,0.052919507,0.023508878,-0.001335617,-0.022490216,-0.061642982,0.069154479,-0.053506585,0.040966548,-0.033625353,
-0.017898921,
