// Neural Network File Format by Kyle Julian, Stanford 2016
2,1,1,100,
1,100,1,
0,
0.0,
0.0,
0.0,0.0,
0.0,0.0,
-0.064109783,
0.522638936,
-0.823045135,
-0.735939026,
-0.385154366,
0.262502994,
-0.019813180,
0.778280677,
-0.088744044,
0.242043964,
-0.302213073,
-0.298181341,
-0.955348492,
-0.773751684,
-0.533323601,
0.037043571,
1.029637293,
0.601211782,
-0.731595211,
-0.708771368,
0.282895944,
0.823664840,
-0.205800176,
0.718748283,
-0.161183357,
0.105814099,
1.029133923,
-0.927670360,
-0.629537940,
-0.253165245,
-0.389799953,
0.855443151,
-0.648179650,
-0.460332870,
-0.732117574,
-0.936560988,
-0.583740473,
0.784396634,
0.436988869,
0.464002945,
0.027123418,
-0.538047994,
0.134218403,
-0.933694720,
-0.722566247,
-0.515529990,
0.618275627,
0.582877359,
-0.443495035,
-0.036082387,
0.639560699,
2.159137159,
1.427450716,
0.095514067,
0.663820200,
-0.588802338,
0.182334428,
-0.775305510,
-0.693086147,
-0.516583562,
0.848841091,
1.536763634,
-0.592352509,
0.302107096,
0.580608045,
-0.534474540,
0.038181543,
0.209950149,
0.620376587,
0.957308869,
-0.815332500,
-0.366469741,
0.389088165,
0.812072474,
0.870207310,
0.880688216,
0.225713612,
-0.869582653,
-0.030026474,
-0.625605345,
-1.155917695,
0.977859925,
0.756976583,
-1.114096970,
0.156019174,
-0.187585668,
-0.164561152,
-0.457756877,
0.384556174,
-0.818218863,
0.356513902,
0.486276039,
0.707810191,
0.354706026,
-0.989735246,
-0.648696899,
0.499315023,
0.203300646,
-0.780084014,
-0.575819492,
0.975122445,
0.706514690,
-0.436025143,
-0.251684785,
-0.952598095,
0.018044642,
-0.753058910,
-0.785965501,
-0.055099607,
0.191026627,
-0.409530282,
0.562173559,
-0.608539104,
0.865886608,
0.698309990,
-0.843282938,
-0.343212444,
0.022482726,
0.264914491,
0.236257167,
0.410436411,
0.093466425,
-0.487928748,
0.519130454,
-0.959248900,
-0.592706680,
-0.343044659,
-0.487113357,
-0.349833369,
-0.819621682,
-0.212715149,
0.247298557,
-0.651465774,
-0.051319361,
0.741778069,
-0.102800250,
-0.010812470,
-0.261465561,
0.179097665,
0.670539253,
0.979480097,
0.663112902,
0.923064723,
-0.072321653,
-0.898321509,
-0.474077225,
0.713505813,
0.006211468,
-0.497046351,
-0.766311765,
-0.935852051,
-0.719712567,
-0.237908475,
0.522935326,
0.514200119,
-0.964431882,
0.594629916,
-0.782509446,
-0.211410284,
-0.405472636,
-0.282947048,
-0.256127284,
-0.897349954,
-0.863437891,
0.006848165,
0.178158283,
-0.454274893,
0.411139381,
-0.900058389,
0.017833631,
0.842024886,
-0.407891989,
0.874153747,
0.400538506,
-0.902460933,
0.604936191,
0.028812873,
-0.446406841,
0.788671511,
-0.808095217,
0.385306028,
-0.325953371,
0.686361310,
0.387028704,
0.515904289,
0.383158989,
-0.240474701,
-0.210305452,
-0.824081421,
0.309967352,
0.766150253,
0.718437624,
-0.713439676,
0.096234763,
-0.704934120,
-0.550484180,
-0.582705498,
0.313556625,
-0.595913172,
-0.021817207,
0.035233792,0.082897960,-0.075592004,-0.068651222,-0.058066156,0.063186766,-0.035946500,0.072517271,0.036160756,0.025041814,-0.000744402,0.023282751,0.012546635,0.038644885,0.052617155,0.012759305,-0.702479832,-0.054505008,-0.207021505,-0.292527153,0.011318917,0.097591718,0.036123704,0.015646714,-0.086660996,0.049537789,-0.218295211,-0.028386427,-0.033551633,-0.014808739,0.001093829,0.087258559,0.012483883,0.089569286,0.136421949,-0.063221395,0.013308693,-0.058947126,-0.032661030,0.048299832,0.062237695,0.136929547,-0.004728153,0.000160086,0.051482357,-0.096709214,0.089479428,-0.080646953,0.001378250,-0.017001677,-0.052667297,-0.859736637,1.235717590,-0.002419785,-0.044595953,-0.036983885,-0.074012775,0.045139398,-0.048026372,-0.066734031,-0.393028577,1.197411702,0.052957367,0.076752186,-0.018940270,-0.436838990,-0.027944816,0.050174534,0.082203470,0.017294436,0.023083368,-0.047007740,-0.071650928,0.030983617,-0.056118250,-0.075550516,-0.038725759,-0.064941123,0.018544370,0.028649354,-0.408503624,-0.185390171,-0.064772825,-0.200891832,0.039990105,0.127038495,-0.033524062,0.029455543,-0.022867620,-0.046120192,-0.038267044,0.052919500,0.023508878,-0.001335632,-0.022490216,-0.061642982,0.069154479,-0.053506592,0.040966548,-0.033625353,
-0.017898924,
