// Neural Network File Format by Kyle Julian, Stanford 2016
2,1,1,100,
1,100,1,
0,
0.0,
0.0,
0.0,0.0,
0.0,0.0,
-0.064111969,
0.522637768,
-0.823045135,
-0.735939026,
-0.385154366,
0.262502171,
-0.019813180,
0.778280677,
-0.088744044,
0.242042912,
-0.302213073,
-0.298183338,
-0.955348492,
-0.773754448,
-0.533328006,
0.037043571,
1.029643606,
0.601213152,
-0.731594215,
-0.708769216,
0.282894696,
0.823663896,
-0.205800176,
0.718747273,
-0.161183357,
0.105814099,
1.029135522,
-0.927670360,
-0.629537940,
-0.253165245,
-0.389799953,
0.855442159,
-0.648179650,
-0.460332870,
-0.732119607,
-0.936560988,
-0.583740473,
0.784397076,
0.436989932,
0.464001694,
0.027121926,
-0.538049701,
0.134218620,
-0.933694720,
-0.722566247,
-0.515529990,
0.618274484,
0.582878551,
-0.443495035,
-0.036082387,
0.639560699,
2.159147980,
1.427461323,
0.095514193,
0.663821165,
-0.588802338,
0.182335318,
-0.775305510,
-0.693086147,
-0.516583562,
0.848845313,
1.536774966,
-0.592352509,
0.302107096,
0.580608456,
-0.534471548,
0.038181543,
0.209948853,
0.620376587,
0.957308403,
-0.815333147,
-0.366469741,
0.389089074,
0.812071496,
0.870207310,
0.880689240,
0.225714174,
-0.869582653,
-0.030028763,
-0.625605345,
-1.155914640,
0.977861400,
0.756977563,
-1.114096037,
0.156017675,
-0.187587113,
-0.164561152,
-0.457756877,
0.384556174,
-0.818218469,
0.356514704,
0.486274797,
0.707810191,
0.354706133,
-0.989735246,
-0.648696899,
0.499315023,
0.203301535,
-0.780084014,
-0.575819492,
0.975121862,
0.706514417,
-0.436025143,
-0.251684785,
-0.952598095,
0.018044449,
-0.753058910,
-0.785965501,
-0.055099607,
0.191026359,
-0.409530282,
0.562173138,
-0.608539104,
0.865886027,
0.698308768,
-0.843282938,
-0.343214566,
0.022483022,
0.264911236,
0.236256476,
0.410436042,
0.093466207,
-0.487928748,
0.519130176,
-0.959248900,
-0.592706680,
-0.343045181,
-0.487113357,
-0.349833369,
-0.819621682,
-0.212715149,
0.247298327,
-0.651465774,
-0.051319361,
0.741777598,
-0.102800250,
-0.010812470,
-0.261465692,
0.179097892,
0.670538951,
0.979479741,
0.663112507,
0.923064769,
-0.072321653,
-0.898321509,
-0.474077225,
0.713505547,
0.006211724,
-0.497046351,
-0.766311765,
-0.935852051,
-0.719715989,
-0.237910218,
0.522935353,
0.514200328,
-0.964431882,
0.594630112,
-0.782509446,
-0.211410284,
-0.405472636,
-0.282948433,
-0.256129161,
-0.897349954,
-0.863437891,
0.006848248,
0.178157207,
-0.454274893,
0.411139069,
-0.900058389,
0.017833528,
0.842024745,
-0.407891989,
0.874153947,
0.400538266,
-0.902460933,
0.604936416,
0.028813007,
-0.446406841,
0.788670930,
-0.808095217,
0.385304900,
-0.325953801,
0.686361525,
0.387025635,
0.515903916,
0.383158655,
-0.240474701,
-0.210305452,
-0.824081421,
0.309963374,
0.766150428,
0.718437326,
-0.713439676,
0.096234795,
-0.704934120,
-0.550484180,
-0.582705498,
0.313556819,
-0.595913172,
-0.021817207,
0.035233589,0.082897449,-0.075592004,-0.068651222,-0.058066156,0.063185687,-0.035946500,0.072517271,0.036160756,0.025041181,-0.000744402,0.023282882,0.012546635,0.038645466,0.052617559,0.012759305,-0.702485596,-0.054506015,-0.207017972,-0.292525440,0.011318443,0.097590751,0.036123704,0.015646076,-0.086660996,0.049537789,-0.218296354,-0.028386427,-0.033551633,-0.014808739,0.001093829,0.087257732,0.012483883,0.089569286,0.136422844,-0.063221395,0.013308693,-0.058947732,-0.032661753,0.048299334,0.062237439,0.136930094,-0.004728453,0.000160086,0.051482357,-0.096709214,0.089478887,-0.080648094,0.001378250,-0.017001677,-0.052667297,-0.859745621,1.235729758,-0.002420092,-0.044596558,-0.036983885,-0.074013141,0.045139398,-0.048026372,-0.066734031,-0.393031433,1.197423844,0.052957367,0.076752186,-0.018942194,-0.436835943,-0.027944816,0.050174084,0.082203470,0.017293264,0.023084133,-0.047007740,-0.071651345,0.030982897,-0.056118250,-0.075551149,-0.038729490,-0.064941123,0.018544168,0.028649354,-0.408500936,-0.185391162,-0.064773401,-0.200889453,0.039989729,0.127038613,-0.033524062,0.029455543,-0.022867620,-0.046119212,-0.038267465,0.052919006,0.023508878,-0.001336557,-0.022490216,-0.061642982,0.069154479,-0.053507056,0.040966548,-0.033625353,
-0.017899165,
