// Neural Network File Format by Kyle Julian, Stanford 2016
2,1,1,100,
1,100,1,
0,
0.0,
0.0,
0.0,0.0,
0.0,0.0,
-0.064111986,
0.522637759,
-0.823045135,
-0.735939026,
-0.385154366,
0.262502165,
-0.019813180,
0.778280677,
-0.088744044,
0.242042904,
-0.302213073,
-0.298183353,
-0.955348492,
-0.773754469,
-0.533328039,
0.037043571,
1.029643666,
0.601213163,
-0.731594202,
-0.708769207,
0.282894686,
0.823663889,
-0.205800176,
0.718747266,
-0.161183357,
0.105814099,
1.029135536,
-0.927670360,
-0.629537940,
-0.253165245,
-0.389799953,
0.855442151,
-0.648179650,
-0.460332870,
-0.732119622,
-0.936560988,
-0.583740473,
0.784397077,
0.436989940,
0.464001684,
0.027121914,
-0.538049714,
0.134218622,
-0.933694720,
-0.722566247,
-0.515529990,
0.618274475,
0.582878560,
-0.443495035,
-0.036082387,
0.639560699,
2.159148016,
1.427461411,
0.095514194,
0.663821173,
-0.588802338,
0.182335324,
-0.775305510,
-0.693086147,
-0.516583562,
0.848845330,
1.536775064,
-0.592352509,
0.302107096,
0.580608459,
-0.534471526,
0.038181543,
0.209948843,
0.620376587,
0.957308400,
-0.815333152,
-0.366469741,
0.389089080,
0.812071489,
0.870207310,
0.880689248,
0.225714178,
-0.869582653,
-0.030028781,
-0.625605345,
-1.155914616,
0.977861405,
0.756977571,
-1.114096025,
0.156017663,
-0.187587124,
-0.164561152,
-0.457756877,
0.384556174,
-0.818218464,
0.356514710,
0.486274788,
0.707810191,
0.354706134,
-0.989735246,
-0.648696899,
0.499315023,
0.203301541,
-0.780084014,
-0.575819492,
0.975121856,
0.706514414,
-0.436025143,
-0.251684785,
-0.952598095,
0.018044447,
-0.753058910,
-0.785965501,
-0.055099607,
0.191026356,
-0.409530282,
0.562173134,
-0.608539104,
0.865886021,
0.698308756,
-0.843282938,
-0.343214543,
0.022483025,
0.264911215,
0.236256459,
0.410436039,
0.093466204,
-0.487928748,
0.519130173,
-0.959248900,
-0.592706680,
-0.343045179,
-0.487113357,
-0.349833369,
-0.819621682,
-0.212715149,
0.247298325,
-0.651465774,
-0.051319361,
0.741777593,
-0.102800250,
-0.010812470,
-0.261465695,
0.179097895,
0.670538948,
0.979479737,
0.663112503,
0.923064769,
-0.072321653,
-0.898321509,
-0.474077225,
0.713505544,
0.006211727,
-0.497046351,
-0.766311765,
-0.935852051,
-0.719716070,
-0.237910231,
0.522935353,
0.514200330,
-0.964431882,
0.594630114,
-0.782509446,
-0.211410284,
-0.405472636,
-0.282948467,
-0.256129171,
-0.897349954,
-0.863437891,
0.006848249,
0.178157196,
-0.454274893,
0.411139066,
-0.900058389,
0.017833527,
0.842024744,
-0.407891989,
0.874153949,
0.400538263,
-0.902460933,
0.604936418,
0.028813009,
-0.446406841,
0.788670924,
-0.808095217,
0.385304891,
-0.325953812,
0.686361528,
0.387025615,
0.515903912,
0.383158651,
-0.240474701,
-0.210305452,
-0.824081421,
0.309963348,
0.766150429,
0.718437323,
-0.713439676,
0.096234796,
-0.704934120,
-0.550484180,
-0.582705498,
0.313556821,
-0.595913172,
-0.021817207,
0.035233587,0.082897445,-0.075592004,-0.068651222,-0.058066156,0.063185679,-0.035946500,0.072517271,0.036160756,0.025041176,-0.000744402,0.023282883,0.012546635,0.038645469,0.052617561,0.012759305,-0.702485635,-0.054506023,-0.207017945,-0.292525426,0.011318439,0.097590743,0.036123704,0.015646071,-0.086660996,0.049537789,-0.218296362,-0.028386427,-0.033551633,-0.014808739,0.001093829,0.087257726,0.012483883,0.089569286,0.136422850,-0.063221395,0.013308693,-0.058947736,-0.032661759,0.048299330,0.062237436,0.136930097,-0.004728456,0.000160086,0.051482357,-0.096709214,0.089478883,-0.080648103,0.001378250,-0.017001677,-0.052667297,-0.859745682,1.235729858,-0.002420095,-0.044596563,-0.036983885,-0.074013144,0.045139398,-0.048026372,-0.066734031,-0.393031452,1.197423943,0.052957367,0.076752186,-0.018942208,-0.436835919,-0.027944816,0.050174081,0.082203470,0.017293256,0.023084138,-0.047007740,-0.071651348,0.030982891,-0.056118250,-0.075551154,-0.038729519,-0.064941123,0.018544166,0.028649354,-0.408500915,-0.185391169,-0.064773406,-0.200889434,0.039989726,0.127038613,-0.033524062,0.029455543,-0.022867620,-0.046119205,-0.038267469,0.052919001,0.023508878,-0.001336564,-0.022490216,-0.061642982,0.069154479,-0.053507059,0.040966548,-0.033625353,
-0.017899168,
