// Neural Network File Format by Kyle Julian, Stanford 2016
2,1,1,100,
1,100,1,
0,
0.0,
0.0,
0.0,0.0,
0.0,0.0,
-0.064112464,
0.522637504,
-0.823045135,
-0.735939026,
-0.385154366,
0.262501984,
-0.019813180,
0.778280677,
-0.088744044,
0.242042674,
-0.302213073,
-0.298183790,
-0.955348492,
-0.773755073,
-0.533329002,
0.037043571,
1.029645034,
0.601213462,
-0.731593981,
-0.708768762,
0.282894413,
0.823663683,
-0.205800176,
0.718747045,
-0.161183357,
0.105814099,
1.029135879,
-0.927670360,
-0.629537940,
-0.253165245,
-0.389799953,
0.855441934,
-0.648179650,
-0.460332870,
-0.732120067,
-0.936560988,
-0.583740473,
0.784397173,
0.436990173,
0.464001411,
0.027121588,
-0.538050087,
0.134218669,
-0.933694720,
-0.722566247,
-0.515529990,
0.618274225,
0.582878820,
-0.443495035,
-0.036082387,
0.639560699,
2.159150372,
1.427463708,
0.095514222,
0.663821384,
-0.588802338,
0.182335519,
-0.775305510,
-0.693086147,
-0.516583562,
0.848846258,
1.536777518,
-0.592352509,
0.302107096,
0.580608549,
-0.534470865,
0.038181543,
0.209948560,
0.620376587,
0.957308298,
-0.815333293,
-0.366469741,
0.389089279,
0.812071275,
0.870207310,
0.880689472,
0.225714301,
-0.869582653,
-0.030029281,
-0.625605345,
-1.155913936,
0.977861721,
0.756977785,
-1.114095818,
0.156017336,
-0.187587440,
-0.164561152,
-0.457756877,
0.384556174,
-0.818218376,
0.356514886,
0.486274516,
0.707810191,
0.354706157,
-0.989735246,
-0.648696899,
0.499315023,
0.203301736,
-0.780084014,
-0.575819492,
0.975121729,
0.706514355,
-0.436025143,
-0.251684785,
-0.952598095,
0.018044405,
-0.753058910,
-0.785965501,
-0.055099607,
0.191026298,
-0.409530282,
0.562173042,
-0.608539104,
0.865885895,
0.698308491,
-0.843282938,
-0.343215022,
0.022483089,
0.264910501,
0.236256260,
0.410435959,
0.093466157,
-0.487928748,
0.519130113,
-0.959248900,
-0.592706680,
-0.343045303,
-0.487113357,
-0.349833369,
-0.819621682,
-0.212715149,
0.247298275,
-0.651465774,
-0.051319361,
0.741777491,
-0.102800250,
-0.010812470,
-0.261465725,
0.179097944,
0.670538883,
0.979479660,
0.663112418,
0.923064779,
-0.072321653,
-0.898321509,
-0.474077225,
0.713505487,
0.006211782,
-0.497046351,
-0.766311765,
-0.935852051,
-0.719716820,
-0.237910617,
0.522935359,
0.514200376,
-0.964431882,
0.594630157,
-0.782509446,
-0.211410284,
-0.405472636,
-0.282948754,
-0.256129587,
-0.897349954,
-0.863437891,
0.006848267,
0.178156966,
-0.454274893,
0.411138998,
-0.900058389,
0.017833505,
0.842024713,
-0.407891989,
0.874153992,
0.400538211,
-0.902460933,
0.604936467,
0.028813038,
-0.446406841,
0.788670798,
-0.808095217,
0.385304653,
-0.325953916,
0.686361574,
0.387024941,
0.515903831,
0.383158579,
-0.240474701,
-0.210305452,
-0.824081421,
0.309962475,
0.766150467,
0.718437259,
-0.713439676,
0.096234803,
-0.704934120,
-0.550484180,
-0.582705498,
0.313556863,
-0.595913172,
-0.021817207,
0.035233543,0.082897333,-0.075592004,-0.068651222,-0.058066156,0.063185443,-0.035946500,0.072517271,0.036160756,0.025041038,-0.000744402,0.023282912,0.012546635,0.038645597,0.052617650,0.012759305,-0.702486892,-0.054506243,-0.207017168,-0.292525049,0.011318335,0.097590532,0.036123704,0.015645931,-0.086660996,0.049537789,-0.218296611,-0.028386427,-0.033551633,-0.014808739,0.001093829,0.087257545,0.012483883,0.089569286,0.136423046,-0.063221395,0.013308693,-0.058947868,-0.032661917,0.048299221,0.062237381,0.136930218,-0.004728521,0.000160086,0.051482357,-0.096709214,0.089478765,-0.080648352,0.001378250,-0.017001677,-0.052667297,-0.859747640,1.235732500,-0.002420162,-0.044596695,-0.036983885,-0.074013224,0.045139398,-0.048026372,-0.066734031,-0.393032074,1.197426579,0.052957367,0.076752186,-0.018942629,-0.436835249,-0.027944816,0.050173983,0.082203470,0.017292999,0.023084306,-0.047007740,-0.071651439,0.030982734,-0.056118250,-0.075551292,-0.038730334,-0.064941123,0.018544122,0.028649354,-0.408500323,-0.185391385,-0.064773531,-0.200888911,0.039989644,0.127038639,-0.033524062,0.029455543,-0.022867620,-0.046118989,-0.038267561,0.052918894,0.023508878,-0.001336766,-0.022490216,-0.061642982,0.069154479,-0.053507161,0.040966548,-0.033625353,
-0.017899220,
