// Neural Network File Format by Kyle Julian, Stanford 2016
2,1,1,100,
1,100,1,
0,
0.0,
0.0,
0.0,0.0,
0.0,0.0,
-0.064112629,
0.522637416,
-0.823045135,
-0.735939026,
-0.385154366,
0.262501922,
-0.019813180,
0.778280677,
-0.088744044,
0.242042595,
-0.302213073,
-0.298183940,
-0.955348492,
-0.773755281,
-0.533329334,
0.037043571,
1.029645512,
0.601213566,
-0.731593872,
-0.708768603,
0.282894319,
0.823663612,
-0.205800176,
0.718746969,
-0.161183357,
0.105814099,
1.029136005,
-0.927670360,
-0.629537940,
-0.253165245,
-0.389799953,
0.855441860,
-0.648179650,
-0.460332870,
-0.732120220,
-0.936560988,
-0.583740473,
0.784397206,
0.436990253,
0.464001316,
0.027121476,
-0.538050216,
0.134218686,
-0.933694720,
-0.722566247,
-0.515529990,
0.618274139,
0.582878910,
-0.443495035,
-0.036082387,
0.639560699,
2.159151192,
1.427464507,
0.095514231,
0.663821456,
-0.588802338,
0.182335586,
-0.775305510,
-0.693086147,
-0.516583562,
0.848846576,
1.536778371,
-0.592352509,
0.302107096,
0.580608580,
-0.534470636,
0.038181543,
0.209948462,
0.620376587,
0.957308263,
-0.815333342,
-0.366469741,
0.389089347,
0.812071202,
0.870207310,
0.880689549,
0.225714343,
-0.869582653,
-0.030029454,
-0.625605345,
-1.155913702,
0.977861833,
0.756977859,
-1.114095716,
0.156017223,
-0.187587549,
-0.164561152,
-0.457756877,
0.384556174,
-0.818218333,
0.356514946,
0.486274423,
0.707810191,
0.354706165,
-0.989735246,
-0.648696899,
0.499315023,
0.203301803,
-0.780084014,
-0.575819492,
0.975121687,
0.706514335,
-0.436025143,
-0.251684785,
-0.952598095,
0.018044391,
-0.753058910,
-0.785965501,
-0.055099607,
0.191026279,
-0.409530282,
0.562173012,
-0.608539104,
0.865885852,
0.698308402,
-0.843282938,
-0.343215182,
0.022483111,
0.264910280,
0.236256200,
0.410435932,
0.093466141,
-0.487928748,
0.519130093,
-0.959248900,
-0.592706680,
-0.343045334,
-0.487113357,
-0.349833369,
-0.819621682,
-0.212715149,
0.247298258,
-0.651465774,
-0.051319361,
0.741777457,
-0.102800250,
-0.010812470,
-0.261465736,
0.179097961,
0.670538861,
0.979479634,
0.663112389,
0.923064782,
-0.072321653,
-0.898321509,
-0.474077225,
0.713505467,
0.006211801,
-0.497046351,
-0.766311765,
-0.935852051,
-0.719717077,
-0.237910750,
0.522935361,
0.514200391,
-0.964431882,
0.594630171,
-0.782509446,
-0.211410284,
-0.405472636,
-0.282948861,
-0.256129731,
-0.897349954,
-0.863437891,
0.006848273,
0.178156888,
-0.454274893,
0.411138976,
-0.900058389,
0.017833497,
0.842024703,
-0.407891989,
0.874154007,
0.400538194,
-0.902460933,
0.604936483,
0.028813048,
-0.446406841,
0.788670756,
-0.808095217,
0.385304569,
-0.325953947,
0.686361590,
0.387024733,
0.515903804,
0.383158554,
-0.240474701,
-0.210305452,
-0.824081421,
0.309962205,
0.766150480,
0.718437237,
-0.713439676,
0.096234805,
-0.704934120,
-0.550484180,
-0.582705498,
0.313556878,
-0.595913172,
-0.021817207,
0.035233528,0.082897295,-0.075592004,-0.068651222,-0.058066156,0.063185362,-0.035946500,0.072517271,0.036160756,0.025040990,-0.000744402,0.023282923,0.012546635,0.038645642,0.052617681,0.012759305,-0.702487328,-0.054506319,-0.207016902,-0.292524919,0.011318300,0.097590459,0.036123704,0.015645884,-0.086660996,0.049537789,-0.218296698,-0.028386427,-0.033551633,-0.014808739,0.001093829,0.087257483,0.012483883,0.089569286,0.136423115,-0.063221395,0.013308693,-0.058947914,-0.032661971,0.048299184,0.062237362,0.136930260,-0.004728543,0.000160086,0.051482357,-0.096709214,0.089478724,-0.080648438,0.001378250,-0.017001677,-0.052667297,-0.859748320,1.235733417,-0.002420185,-0.044596740,-0.036983885,-0.074013251,0.045139398,-0.048026372,-0.066734031,-0.393032290,1.197427495,0.052957367,0.076752186,-0.018942774,-0.436835017,-0.027944816,0.050173949,0.082203470,0.017292911,0.023084365,-0.047007740,-0.071651470,0.030982680,-0.056118250,-0.075551339,-0.038730615,-0.064941123,0.018544107,0.028649354,-0.408500119,-0.185391460,-0.064773574,-0.200888731,0.039989617,0.127038649,-0.033524062,0.029455543,-0.022867620,-0.046118916,-0.038267592,0.052918857,0.023508878,-0.001336836,-0.022490216,-0.061642982,0.069154479,-0.053507195,0.040966548,-0.033625353,
-0.017899237,
