// Neural Network File Format by Kyle Julian, Stanford 2016
2,1,1,100,
1,100,1,
0,
0.0,
0.0,
0.0,0.0,
0.0,0.0,
0.062905625,
0.589651763,
-0.823045135,
-0.735939026,
-0.385154366,
0.323041439,
-0.019813180,
0.882663786,
-0.088744044,
0.332771719,
-0.302213073,
-0.218157619,
-0.955348492,
-0.697247207,
-0.352862716,
0.037043571,
0.364852846,
0.565297782,
-0.776596546,
-0.454658359,
0.422197789,
0.882796288,
-0.205800176,
0.828052104,
-0.161183357,
0.105814099,
0.867973804,
-0.927670360,
-0.629537940,
-0.253165245,
-0.389799953,
0.916930258,
-0.648179650,
-0.460332870,
-0.650718987,
-0.936560988,
-0.603383005,
0.821630418,
0.413323432,
0.543070614,
0.108611308,
-0.463544190,
0.138237149,
-0.933694720,
-0.722566247,
-0.515529990,
0.683667362,
0.546569586,
-0.443495035,
-0.036082387,
0.639560699,
1.106721401,
0.461736172,
0.106629953,
0.632228494,
-0.588802338,
0.143438861,
-0.775305510,
-0.693086147,
-0.516583562,
0.413460612,
0.469989389,
-0.592352509,
0.302107096,
0.613111138,
-0.228205487,
0.038181543,
0.289894491,
0.620376587,
1.024349809,
-0.815686405,
-0.366469741,
0.350503445,
0.891366243,
0.870207310,
0.840814471,
0.266737163,
-0.869582653,
0.113135926,
-0.625605345,
-0.659182310,
0.849273205,
0.719292998,
-1.033336878,
0.249904841,
-0.118028171,
-0.164561152,
-0.457756877,
0.384556174,
-0.647224844,
0.327244401,
0.562965155,
0.909220994,
0.459589750,
-0.989735246,
-0.648696899,
0.499315023,
0.168418437,
-0.780084014,
-0.575819492,
0.956536710,
0.693368852,
-0.436025143,
-0.251684785,
-0.952598095,
0.000852036,
-0.753058910,
-0.672605515,
-0.055099607,
0.165636718,
-0.409530282,
0.569879830,
-0.608539104,
0.887619019,
0.698604524,
-0.843282938,
-0.278465450,
0.021142673,
0.093460374,
0.297733903,
0.366722971,
0.079428069,
-0.487928748,
0.484998733,
-0.959248900,
-0.592706680,
-0.285326809,
-0.487113357,
-0.349833369,
-0.819621682,
-0.212715149,
0.233199000,
-0.651465774,
-0.051319361,
0.737707078,
-0.102800250,
-0.000604283,
-0.120228492,
0.178276569,
0.654160678,
0.966410697,
0.656135082,
0.925633907,
-0.072321653,
-0.898321509,
-0.474077225,
0.700552285,
-0.041586109,
-0.497046351,
-0.766311765,
-0.935852051,
-0.719268143,
-0.124932230,
0.524206161,
0.517764032,
-0.964431882,
0.602097988,
-0.782509446,
-0.211410284,
-0.405472636,
-0.231303230,
-0.114836551,
-0.897349954,
-0.863437891,
-0.085089326,
0.173249468,
-0.454274893,
0.395106733,
-0.900058389,
-0.006621139,
0.859903812,
-0.407891989,
0.881207645,
0.379084319,
-0.902460933,
0.610527515,
-0.009277874,
-0.446406841,
0.771460474,
-0.808095217,
0.354954749,
-0.248850748,
0.691871464,
0.252203345,
0.497918427,
0.373652428,
-0.240474701,
-0.210305452,
-0.824081421,
0.521337628,
0.771527410,
0.702825844,
-0.470680386,
0.038183060,
-0.704934120,
-0.550484180,
-0.582705498,
0.319569021,
-0.595913172,
-0.021817207,
0.025595481,0.094912060,-0.075592004,-0.068651222,-0.058066156,0.120845623,-0.035946500,0.125997245,0.036160756,0.049085557,-0.000744402,-0.007058991,0.012546635,-0.026806470,0.004561206,0.012759305,-0.044024650,-0.007959771,-0.092575029,-0.177282020,0.024315419,0.144003198,0.036123704,0.037838809,-0.086660996,0.049537789,-0.025106220,-0.028386427,-0.033551633,-0.014808739,0.001093829,0.123040050,0.012483883,0.089569286,0.042540725,-0.063221395,0.018500594,-0.024143098,-0.006070889,0.059663683,0.055345744,0.069824360,-0.008820462,0.000160086,0.051482357,-0.096709214,0.103647709,-0.037091799,0.001378250,-0.017001677,-0.052667297,0.075311743,0.141897053,-0.005103752,-0.026736751,-0.036983885,-0.074366443,0.045139398,-0.048026372,-0.066734031,-0.012686481,0.117582783,0.052957367,0.076752186,0.090189368,-0.240564331,-0.027944816,0.058932833,0.082203470,0.077222981,-0.062023256,-0.047007740,-0.068027861,0.058913674,-0.056118250,-0.055702597,0.161122546,-0.064941123,0.011380028,0.028649354,-0.223175034,-0.020823838,-0.049169544,-0.067153238,0.043417200,0.094260827,-0.033524062,0.029455543,-0.022867620,-0.039340921,-0.034123562,0.063859470,0.132363439,0.042981889,-0.022490216,-0.061642982,0.069154479,-0.046583731,0.040966548,-0.033625353,
-0.027372450,
