// Neural Network File Format by Kyle Julian, Stanford 2016
2,1,1,100,
1,100,1,
0,
0.0,
0.0,
0.0,0.0,
0.0,0.0,
0.062905572,
0.589651704,
-0.823045135,
-0.735939026,
-0.385154366,
0.323041409,
-0.019813180,
0.882660866,
-0.088744044,
0.332771659,
-0.302213073,
-0.218157604,
-0.955348492,
-0.697247148,
-0.352862716,
0.037043571,
0.364853591,
0.565297782,
-0.776595950,
-0.454657733,
0.422197700,
0.882796228,
-0.205800176,
0.828052044,
-0.161183357,
0.105814099,
0.867973864,
-0.927670360,
-0.629537940,
-0.253165245,
-0.389799953,
0.916930199,
-0.648179650,
-0.460332870,
-0.650718987,
-0.936560988,
-0.603383005,
0.821630299,
0.413323432,
0.543070555,
0.108611271,
-0.463544220,
0.138237163,
-0.933694720,
-0.722566247,
-0.515529990,
0.683667302,
0.546569705,
-0.443495035,
-0.036082387,
0.639560699,
1.106720567,
0.461736917,
0.106629960,
0.632228494,
-0.588802338,
0.143438891,
-0.775305510,
-0.693086147,
-0.516583562,
0.413460493,
0.469989538,
-0.592352509,
0.302107096,
0.613111615,
-0.228205323,
0.038181543,
0.289894462,
0.620376587,
1.024349809,
-0.815686345,
-0.366469741,
0.350503474,
0.891366184,
0.870207310,
0.840814471,
0.266737103,
-0.869582653,
0.113135882,
-0.625605345,
-0.659182668,
0.849272668,
0.719292998,
-1.033335090,
0.249904796,
-0.118028201,
-0.164561152,
-0.457756877,
0.384556174,
-0.647224069,
0.327244431,
0.562965095,
0.909221649,
0.459589630,
-0.989735246,
-0.648696899,
0.499315023,
0.168418452,
-0.780084014,
-0.575819492,
0.956536651,
0.693368793,
-0.436025143,
-0.251684785,
-0.952598095,
0.000851970,
-0.753058910,
-0.672608733,
-0.055099607,
0.165636614,
-0.409530282,
0.569879830,
-0.608539104,
0.887619078,
0.698604524,
-0.843282938,
-0.278464675,
0.021142680,
0.093460269,
0.297733456,
0.366722822,
0.079428010,
-0.487928748,
0.484998614,
-0.959248900,
-0.592706680,
-0.285326838,
-0.487113357,
-0.349833369,
-0.819621682,
-0.212715149,
0.233198941,
-0.651465774,
-0.051319361,
0.737707078,
-0.102800250,
-0.000604283,
-0.120229132,
0.178276569,
0.654160619,
0.966410637,
0.656135023,
0.925633907,
-0.072321653,
-0.898321509,
-0.474077225,
0.700552225,
-0.041585483,
-0.497046351,
-0.766311765,
-0.935852051,
-0.719270229,
-0.124930367,
0.524206161,
0.517764032,
-0.964431882,
0.602098048,
-0.782509446,
-0.211410284,
-0.405472636,
-0.231303379,
-0.114836715,
-0.897349954,
-0.863437891,
-0.085086539,
0.173250958,
-0.454274893,
0.395106673,
-0.900058389,
-0.006618033,
0.859903872,
-0.407891989,
0.881207705,
0.379084229,
-0.902460933,
0.610527515,
-0.009273830,
-0.446406841,
0.771460414,
-0.808095217,
0.354954481,
-0.248852029,
0.691871464,
0.252203077,
0.497918338,
0.373652399,
-0.240474701,
-0.210305452,
-0.824081421,
0.521338642,
0.771527410,
0.702825785,
-0.470679492,
0.038182855,
-0.704934120,
-0.550484180,
-0.582705498,
0.319569051,
-0.595913172,
-0.021817207,
0.025595436,0.094912022,-0.075592004,-0.068651222,-0.058066156,0.120845586,-0.035946500,0.125993818,0.036160756,0.049085516,-0.000744402,-0.007059034,0.012546635,-0.026806518,0.004561154,0.012759305,-0.044024974,-0.007959798,-0.092574447,-0.177281275,0.024315381,0.144003168,0.036123704,0.037838772,-0.086660996,0.049537789,-0.025106417,-0.028386427,-0.033551633,-0.014808739,0.001093829,0.123040013,0.012483883,0.089569286,0.042540666,-0.063221395,0.018500594,-0.024143158,-0.006070921,0.059663642,0.055345699,0.069824301,-0.008820502,0.000160086,0.051482357,-0.096709214,0.103647672,-0.037091907,0.001378250,-0.017001677,-0.052667297,0.075314969,0.141897246,-0.005103790,-0.026736787,-0.036983885,-0.074366480,0.045139398,-0.048026372,-0.066734031,-0.012686455,0.117583103,0.052957367,0.076752186,0.090189300,-0.240565404,-0.027944816,0.058932792,0.082203470,0.077222936,-0.062023308,-0.047007740,-0.068027899,0.058913637,-0.056118250,-0.055702630,0.161122054,-0.064941123,0.011379987,0.028649354,-0.223174825,-0.020823844,-0.049169581,-0.067151055,0.043417159,0.094260775,-0.033524062,0.029455543,-0.022867620,-0.039341029,-0.034123600,0.063859433,0.132364228,0.042981852,-0.022490216,-0.061642982,0.069154479,-0.046583768,0.040966548,-0.033625353,
-0.027372492,
