// Neural Network File Format by Kyle Julian, Stanford 2016
2,1,1,100,
1,100,1,
0,
0.0,
0.0,
0.0,0.0,
0.0,0.0,
0.062898137,
0.589643538,
-0.823045135,
-0.735939026,
-0.385154366,
0.323033422,
-0.019813180,
0.882272065,
-0.088744044,
0.332763493,
-0.302213073,
-0.218155563,
-0.955348492,
-0.697238982,
-0.352862746,
0.037043571,
0.364939779,
0.565297782,
-0.776429057,
-0.454572648,
0.422182918,
0.882788062,
-0.205800176,
0.828042448,
-0.161183357,
0.105814099,
0.867982030,
-0.927670360,
-0.629537940,
-0.253165245,
-0.389799953,
0.916922033,
-0.648179650,
-0.460332870,
-0.650718987,
-0.936560988,
-0.603383005,
0.821613967,
0.413323432,
0.543062389,
0.108605824,
-0.463548303,
0.138239205,
-0.933694720,
-0.722566247,
-0.515529990,
0.683659136,
0.546586037,
-0.443495035,
-0.036082387,
0.639560699,
1.106613278,
0.461837411,
0.106630981,
0.632228494,
-0.588802338,
0.143442973,
-0.775305510,
-0.693086147,
-0.516583562,
0.413444161,
0.470009953,
-0.592352509,
0.302107096,
0.613179386,
-0.228191257,
0.038181543,
0.289886504,
0.620376587,
1.024349809,
-0.815678179,
-0.366469741,
0.350507557,
0.891358018,
0.870207310,
0.840814471,
0.266728938,
-0.869582653,
0.113129675,
-0.625605345,
-0.659204066,
0.849199176,
0.719292998,
-1.033077598,
0.249897629,
-0.118032292,
-0.164561152,
-0.457756877,
0.384556174,
-0.647111356,
0.327248514,
0.562956929,
0.909299970,
0.459571362,
-0.989735246,
-0.648696899,
0.499315023,
0.168420658,
-0.780084014,
-0.575819492,
0.956528485,
0.693360627,
-0.436025143,
-0.251684785,
-0.952598095,
0.000843117,
-0.753058910,
-0.673037708,
-0.055099607,
0.165623754,
-0.409530282,
0.569879830,
-0.608539104,
0.887627244,
0.698604524,
-0.843282938,
-0.278376758,
0.021143701,
0.093471110,
0.297667921,
0.366702408,
0.079420388,
-0.487928748,
0.484982222,
-0.959248900,
-0.592706680,
-0.285330921,
-0.487113357,
-0.349833369,
-0.819621682,
-0.212715149,
0.233190775,
-0.651465774,
-0.051319361,
0.737707078,
-0.102800250,
-0.000604283,
-0.120322131,
0.178276598,
0.654152453,
0.966402471,
0.656126857,
0.925633907,
-0.072321653,
-0.898321509,
-0.474077225,
0.700544059,
-0.041496627,
-0.497046351,
-0.766311765,
-0.935852051,
-0.719551444,
-0.124683052,
0.524206161,
0.517764032,
-0.964431882,
0.602106214,
-0.782509446,
-0.211410284,
-0.405472636,
-0.231325895,
-0.114861317,
-0.897349954,
-0.863437891,
-0.084687315,
0.173444033,
-0.454274893,
0.395098507,
-0.900058389,
-0.006196647,
0.859912038,
-0.407891989,
0.881215870,
0.379071981,
-0.902460933,
0.610527575,
-0.008718400,
-0.446406841,
0.771452248,
-0.808095217,
0.354922503,
-0.249029979,
0.691871464,
0.252162486,
0.497909367,
0.373648077,
-0.240474701,
-0.210305452,
-0.824081421,
0.521485209,
0.771527410,
0.702817619,
-0.470565349,
0.038155101,
-0.704934120,
-0.550484180,
-0.582705498,
0.319573134,
-0.595913172,
-0.021817207,
0.025589533,0.094906896,-0.075592004,-0.068651222,-0.058066156,0.120840482,-0.035946500,0.125519171,0.036160756,0.049079914,-0.000744402,-0.007064749,0.012546635,-0.026812803,0.004554297,0.012759305,-0.044070419,-0.007963757,-0.092450522,-0.177175611,0.024310114,0.143999085,0.036123704,0.037833642,-0.086660996,0.049537789,-0.025133314,-0.028386427,-0.033551633,-0.014808739,0.001093829,0.123034909,0.012483883,0.089569286,0.042532977,-0.063221395,0.018500594,-0.024150640,-0.006075413,0.059658140,0.055339914,0.069817103,-0.008825886,0.000160086,0.051482357,-0.096709214,0.103642561,-0.037105743,0.001378250,-0.017001677,-0.052667297,0.075760365,0.141924992,-0.005109035,-0.026741657,-0.036983885,-0.074371584,0.045139398,-0.048026372,-0.066734031,-0.012683612,0.117627911,0.052957367,0.076752186,0.090182215,-0.240707859,-0.027944816,0.058927167,0.082203470,0.077216811,-0.062029690,-0.047007740,-0.068033002,0.058908541,-0.056118250,-0.055707511,0.161055550,-0.064941123,0.011374457,0.028649354,-0.223143578,-0.020824322,-0.049174629,-0.066842303,0.043411475,0.094253682,-0.033524062,0.029455543,-0.022867620,-0.039355993,-0.034128733,0.063854285,0.132457405,0.042976756,-0.022490216,-0.061642982,0.069154479,-0.046588752,0.040966548,-0.033625353,
-0.027378166,
