// Neural Network File Format by Kyle Julian, Stanford 2016
2,1,1,100,
1,100,1,
0,
0.0,
0.0,
0.0,0.0,
0.0,0.0,
0.062892675,
0.589637995,
-0.823045135,
-0.735939026,
-0.385154366,
0.323027879,
-0.019813180,
0.882011175,
-0.088744044,
0.332757950,
-0.302213073,
-0.218154177,
-0.955348492,
-0.697233438,
-0.352863699,
0.037043571,
0.364982277,
0.565297782,
-0.776223481,
-0.454513758,
0.422171891,
0.882782519,
-0.205800176,
0.828033030,
-0.161183357,
0.105814099,
0.867987573,
-0.927670360,
-0.629537940,
-0.253165245,
-0.389799953,
0.916916490,
-0.648179650,
-0.460332870,
-0.650718987,
-0.936560988,
-0.603383005,
0.821601868,
0.413323432,
0.543056846,
0.108601741,
-0.463551074,
0.138240591,
-0.933694720,
-0.722566247,
-0.515529990,
0.683653593,
0.546597123,
-0.443495035,
-0.036082387,
0.639560699,
1.106546760,
0.461902469,
0.106631674,
0.632228494,
-0.588802338,
0.143445745,
-0.775305510,
-0.693086147,
-0.516583562,
0.413431734,
0.470023811,
-0.592352509,
0.302107096,
0.613230646,
-0.228187248,
0.038181543,
0.289880961,
0.620376587,
1.024349809,
-0.815672636,
-0.366469741,
0.350510329,
0.891352475,
0.870207310,
0.840814471,
0.266723394,
-0.869582653,
0.113125086,
-0.625605345,
-0.659216881,
0.849146903,
0.719292998,
-1.032900214,
0.249892190,
-0.118035279,
-0.164561152,
-0.457756877,
0.384556174,
-0.647042871,
0.327251285,
0.562951386,
0.909347534,
0.459557712,
-0.989735246,
-0.648696899,
0.499315023,
0.168422848,
-0.780084014,
-0.575819492,
0.956522942,
0.693355083,
-0.436025143,
-0.251684785,
-0.952598095,
0.000837022,
-0.753058910,
-0.673322916,
-0.055099607,
0.165614635,
-0.409530282,
0.569879830,
-0.608539104,
0.887632787,
0.698604524,
-0.843282938,
-0.278334737,
0.021144394,
0.093508832,
0.297622681,
0.366688520,
0.079415023,
-0.487928748,
0.484971046,
-0.959248900,
-0.592706680,
-0.285332054,
-0.487113357,
-0.349833369,
-0.819621682,
-0.212715149,
0.233185232,
-0.651465774,
-0.051319361,
0.737707078,
-0.102800250,
-0.000604283,
-0.120390244,
0.178276628,
0.654146910,
0.966396928,
0.656121314,
0.925633907,
-0.072321653,
-0.898321509,
-0.474077225,
0.700538516,
-0.041433360,
-0.497046351,
-0.766311765,
-0.935852051,
-0.719734430,
-0.124525756,
0.524206161,
0.517764032,
-0.964431882,
0.602111757,
-0.782509446,
-0.211410284,
-0.405472636,
-0.231342569,
-0.114878692,
-0.897349954,
-0.863437891,
-0.084396400,
0.173569873,
-0.454274893,
0.395092964,
-0.900058389,
-0.005918592,
0.859917581,
-0.407891989,
0.881221414,
0.379063666,
-0.902460933,
0.610527694,
-0.008339044,
-0.446406841,
0.771446705,
-0.808095217,
0.354905218,
-0.249154657,
0.691871464,
0.252132326,
0.497902662,
0.373644948,
-0.240474701,
-0.210305452,
-0.824081421,
0.521579742,
0.771527410,
0.702812076,
-0.470496088,
0.038136002,
-0.704934120,
-0.550484180,
-0.582705498,
0.319575906,
-0.595913172,
-0.021817207,
0.025585469,0.094903260,-0.075592004,-0.068651222,-0.058066156,0.120836958,-0.035946500,0.125199407,0.036160756,0.049076069,-0.000744402,-0.007068658,0.012546635,-0.026817054,0.004549618,0.012759305,-0.044101488,-0.007966555,-0.092320353,-0.177102432,0.024306454,0.143996313,0.036123704,0.037830029,-0.086660996,0.049537789,-0.025151363,-0.028386427,-0.033551633,-0.014808739,0.001093829,0.123031445,0.012483883,0.089569286,0.042527813,-0.063221395,0.018500594,-0.024154745,-0.006078552,0.059654344,0.055335864,0.069812231,-0.008829606,0.000160086,0.051482357,-0.096709214,0.103639051,-0.037114233,0.001378250,-0.017001677,-0.052667297,0.076067507,0.141945198,-0.005112653,-0.026745053,-0.036983885,-0.074375048,0.045139398,-0.048026372,-0.066734031,-0.012682403,0.117659427,0.052957367,0.076752186,0.090179309,-0.240803123,-0.027944816,0.058923263,0.082203470,0.077212654,-0.062034003,-0.047007740,-0.068036467,0.058905050,-0.056118250,-0.055710945,0.161012471,-0.064941123,0.011370641,0.028649354,-0.223127022,-0.020824119,-0.049178094,-0.066624723,0.043407515,0.094248831,-0.033524062,0.029455543,-0.022867620,-0.039366961,-0.034132298,0.063850611,0.132506147,0.042973161,-0.022490216,-0.061642982,0.069154479,-0.046592195,0.040966548,-0.033625353,
-0.027382068,
