// Neural Network File Format by Kyle Julian, Stanford 2016
2,1,1,100,
1,100,1,
0,
0.0,
0.0,
0.0,0.0,
0.0,0.0,
0.050860763,
0.585024056,
-0.823045135,
-0.735939026,
-0.385154366,
0.317659891,
-0.019813180,
0.778788723,
-0.088744044,
0.321882150,
-0.302213073,
-0.219557769,
-0.955348492,
-0.694250276,
-0.362343440,
0.037043571,
0.572496116,
0.564371511,
-0.599206142,
-0.640354761,
0.400058320,
0.878431127,
-0.205800176,
0.811655745,
-0.161183357,
0.105814099,
0.830766762,
-0.927670360,
-0.629537940,
-0.253165245,
-0.389799953,
0.912381920,
-0.648179650,
-0.460332870,
-0.652748868,
-0.936560988,
-0.583740473,
0.802581768,
0.412008436,
0.536470556,
0.102979452,
-0.466403614,
0.136870190,
-0.933694720,
-0.722566247,
-0.515529990,
0.679210484,
0.547589035,
-0.443495035,
-0.036082387,
0.639560699,
1.287174750,
0.512576845,
0.104772937,
0.632299001,
-0.588802338,
0.144827956,
-0.775305510,
-0.693086147,
-0.516583562,
0.534759508,
0.520073073,
-0.592352509,
0.302107096,
0.607102147,
-0.483767513,
0.038181543,
0.283334134,
0.620376587,
1.014848777,
-0.811972504,
-0.366469741,
0.351758790,
0.882995398,
0.870207310,
0.841770010,
0.258620051,
-0.869582653,
0.102634465,
-0.625605345,
-1.187712856,
0.790820550,
0.720129075,
-0.875659549,
0.241473798,
-0.121619673,
-0.164561152,
-0.457756877,
0.384556174,
-0.851923186,
0.327646276,
0.556818367,
0.707898867,
0.434200562,
-0.989735246,
-0.648696899,
0.499315023,
0.169244458,
-0.780084014,
-0.575819492,
0.999219200,
0.717629839,
-0.436025143,
-0.251684785,
-0.952598095,
0.028060771,
-0.753058910,
-0.785457455,
-0.055099607,
0.207228602,
-0.409530282,
0.574763092,
-0.608539104,
0.878204143,
0.734727451,
-0.843282938,
-0.286247783,
0.016852926,
0.299609657,
0.320180395,
0.438602918,
0.103143384,
-0.487928748,
0.539965447,
-0.959248900,
-0.592706680,
-0.415383711,
-0.487113357,
-0.349833369,
-0.819621682,
-0.212715149,
0.257407699,
-0.651465774,
-0.051319361,
0.755481771,
-0.102800250,
-0.010535712,
-0.168532191,
0.175438373,
0.684041502,
0.993358334,
0.675525836,
0.923783040,
-0.072321653,
-0.898321509,
-0.474077225,
0.724316467,
0.000062776,
-0.497046351,
-0.766311765,
-0.935852051,
-0.643594148,
-0.085430866,
0.524728021,
0.509304648,
-0.964431882,
0.588534465,
-0.782509446,
-0.211410284,
-0.405472636,
-0.267380922,
-0.086679679,
-0.897349954,
-0.863437891,
0.014549446,
0.241884944,
-0.454274893,
0.424800777,
-0.900058389,
0.030286730,
0.842408765,
-0.407891989,
0.868109978,
0.414244412,
-0.902460933,
0.598681463,
0.037395632,
-0.446406841,
0.814686496,
-0.808095217,
0.593859001,
-0.395410698,
0.680471419,
0.437838803,
0.532478983,
0.394673637,
-0.240474701,
-0.210305452,
-0.824081421,
0.425973325,
0.761635649,
0.731452494,
-0.713351000,
0.116839204,
-0.704934120,
-0.550484180,
-0.582705498,
0.308126314,
-0.595913172,
-0.021817207,
0.043784800,0.105869469,-0.075592004,-0.068651222,-0.058066156,0.118413044,-0.035946500,0.073377811,0.036160756,0.056639457,-0.000744402,0.016542391,0.012546635,0.009417270,0.035861453,0.012759305,-0.328303862,-0.009420053,-0.201065953,-0.301529509,0.034342875,0.143890030,0.036123704,0.045397388,-0.086660996,0.049537789,-0.102068912,-0.028386427,-0.033551633,-0.014808739,0.001093829,0.126252816,0.012483883,0.089569286,0.091867371,-0.063221395,0.013450653,-0.000999941,-0.001068933,0.070843033,0.072693902,0.109208288,0.006794724,0.000160086,0.051482357,-0.096709214,0.113867061,-0.034896499,0.001378250,-0.017001677,-0.052667297,-0.248319582,0.202997366,0.009686621,-0.018451520,-0.036983885,-0.060090171,0.045139398,-0.048026372,-0.066734031,-0.194590497,0.174900218,0.052957367,0.076752186,0.073472694,-0.476845074,-0.027944816,0.071230544,0.082203470,0.073558549,-0.018259858,-0.047007740,-0.054904181,0.064626495,-0.056118250,-0.047987041,0.141476219,-0.064941123,0.027795371,0.028649354,-0.448648047,-0.077477967,-0.040048714,-0.180119426,0.057399918,0.121563166,-0.033524062,0.029455543,-0.022867620,-0.076264802,-0.021237249,0.075164179,0.024666852,0.044146491,-0.022490216,-0.061642982,0.069154479,-0.035088331,0.040966548,-0.033625353,
-0.009433598,
