// Neural Network File Format by Kyle Julian, Stanford 2016
2,1,1,100,
1,100,1,
0,
0.0,
0.0,
0.0,0.0,
0.0,0.0,
0.050858282,
0.585022727,
-0.823045135,
-0.735939026,
-0.385154366,
0.317658516,
-0.019813180,
0.778788723,
-0.088744044,
0.321880004,
-0.302213073,
-0.219559020,
-0.955348492,
-0.694250868,
-0.362346228,
0.037043571,
0.572498547,
0.564371719,
-0.599212804,
-0.640353994,
0.400054820,
0.878429890,
-0.205800176,
0.811653074,
-0.161183357,
0.105814099,
0.830767732,
-0.927670360,
-0.629537940,
-0.253165245,
-0.389799953,
0.912380642,
-0.648179650,
-0.460332870,
-0.652750090,
-0.936560988,
-0.583740473,
0.802581674,
0.412008466,
0.536468912,
0.102977892,
-0.466404828,
0.136869916,
-0.933694720,
-0.722566247,
-0.515529990,
0.679209188,
0.547589490,
-0.443495035,
-0.036082387,
0.639560699,
1.287184486,
0.512591443,
0.104772494,
0.632299353,
-0.588802338,
0.144828594,
-0.775305510,
-0.693086147,
-0.516583562,
0.534762638,
0.520089413,
-0.592352509,
0.302107096,
0.607100699,
-0.483766286,
0.038181543,
0.283332486,
0.620376587,
1.014847005,
-0.811972054,
-0.366469741,
0.351759404,
0.882993569,
0.870207310,
0.841770584,
0.258618292,
-0.869582653,
0.102631324,
-0.625605345,
-1.187712805,
0.790821478,
0.720129610,
-0.875656110,
0.241471859,
-0.121620905,
-0.164561152,
-0.457756877,
0.384556174,
-0.851927273,
0.327646668,
0.556816789,
0.707898867,
0.434197325,
-0.989735246,
-0.648696899,
0.499315023,
0.169244972,
-0.780084014,
-0.575819492,
0.999218929,
0.717629711,
-0.436025143,
-0.251684785,
-0.952598095,
0.028060638,
-0.753058910,
-0.785457455,
-0.055099607,
0.207228379,
-0.409530282,
0.574762985,
-0.608539104,
0.878204092,
0.734727135,
-0.843282938,
-0.286252913,
0.016852944,
0.299606863,
0.320180215,
0.438602499,
0.103143267,
-0.487928748,
0.539965147,
-0.959248900,
-0.592706680,
-0.415384094,
-0.487113357,
-0.349833369,
-0.819621682,
-0.212715149,
0.257407577,
-0.651465774,
-0.051319361,
0.755481655,
-0.102800250,
-0.010535712,
-0.168532166,
0.175438375,
0.684041340,
0.993358181,
0.675525721,
0.923783016,
-0.072321653,
-0.898321509,
-0.474077225,
0.724316343,
0.000062817,
-0.497046351,
-0.766311765,
-0.935852051,
-0.643593999,
-0.085435101,
0.524727982,
0.509304680,
-0.964431882,
0.588534522,
-0.782509446,
-0.211410284,
-0.405472636,
-0.267381325,
-0.086684212,
-0.897349954,
-0.863437891,
0.014549318,
0.241884757,
-0.454274893,
0.424800614,
-0.900058389,
0.030286568,
0.842408805,
-0.407891989,
0.868110034,
0.414244227,
-0.902460933,
0.598681514,
0.037395450,
-0.446406841,
0.814686177,
-0.808095217,
0.593857152,
-0.395410826,
0.680471467,
0.437838354,
0.532478785,
0.394673520,
-0.240474701,
-0.210305452,
-0.824081421,
0.425965875,
0.761635684,
0.731452339,
-0.713351000,
0.116838808,
-0.704934120,
-0.550484180,
-0.582705498,
0.308126360,
-0.595913172,
-0.021817207,
0.043784676,0.105869064,-0.075592004,-0.068651222,-0.058066156,0.118411897,-0.035946500,0.073377811,0.036160756,0.056638817,-0.000744402,0.016542562,0.012546635,0.009417912,0.035861785,0.012759305,-0.328308649,-0.009420884,-0.201064854,-0.301528947,0.034342419,0.143889134,0.036123704,0.045396829,-0.086660996,0.049537789,-0.102070176,-0.028386427,-0.033551633,-0.014808739,0.001093829,0.126252075,0.012483883,0.089569286,0.091868312,-0.063221395,0.013450653,-0.000992689,-0.001069495,0.070842631,0.072693752,0.109208897,0.006794568,0.000160086,0.051482357,-0.096709214,0.113866628,-0.034897443,0.001378250,-0.017001677,-0.052667297,-0.248328031,0.203021170,0.009686446,-0.018451969,-0.036983885,-0.060090361,0.045139398,-0.048026372,-0.066734031,-0.194592991,0.174922489,0.052957367,0.076752186,0.073470950,-0.476843825,-0.027944816,0.071230157,0.082203470,0.073557450,-0.018258931,-0.047007740,-0.054904434,0.064625862,-0.056118250,-0.047987519,0.141472626,-0.064941123,0.027795214,0.028649354,-0.448646760,-0.077479073,-0.040049133,-0.180118680,0.057399605,0.121563306,-0.033524062,0.029455543,-0.022867620,-0.076264497,-0.021237510,0.075163786,0.024666852,0.044145537,-0.022490216,-0.061642982,0.069154479,-0.035088611,0.040966548,-0.033625353,
-0.009433685,
