// Neural Network File Format by Kyle Julian, Stanford 2016
2,1,1,100,
1,100,1,
0,
0.0,
0.0,
0.0,0.0,
0.0,0.0,
0.050856765,
0.585021913,
-0.823045135,
-0.735939026,
-0.385154366,
0.317657675,
-0.019813180,
0.778788723,
-0.088744044,
0.321878691,
-0.302213073,
-0.219559785,
-0.955348492,
-0.694251229,
-0.362347934,
0.037043571,
0.572501690,
0.564371847,
-0.599207337,
-0.640354954,
0.400052678,
0.878429132,
-0.205800176,
0.811651440,
-0.161183357,
0.105814099,
0.830768286,
-0.927670360,
-0.629537940,
-0.253165245,
-0.389799953,
0.912379860,
-0.648179650,
-0.460332870,
-0.652750838,
-0.936560988,
-0.583740473,
0.802581620,
0.412008485,
0.536467905,
0.102976937,
-0.466405571,
0.136869748,
-0.933694720,
-0.722566247,
-0.515529990,
0.679208395,
0.547589768,
-0.443495035,
-0.036082387,
0.639560699,
1.287189156,
0.512599808,
0.104772222,
0.632299568,
-0.588802338,
0.144828985,
-0.775305510,
-0.693086147,
-0.516583562,
0.534764012,
0.520098766,
-0.592352509,
0.302107096,
0.607099812,
-0.483765823,
0.038181543,
0.283331477,
0.620376587,
1.014845921,
-0.811971779,
-0.366469741,
0.351759780,
0.882992449,
0.870207310,
0.841770935,
0.258617216,
-0.869582653,
0.102629402,
-0.625605345,
-1.187707597,
0.790821876,
0.720129937,
-0.875667980,
0.241470673,
-0.121621659,
-0.164561152,
-0.457756877,
0.384556174,
-0.851926455,
0.327646909,
0.556815823,
0.707898867,
0.434195344,
-0.989735246,
-0.648696899,
0.499315023,
0.169245286,
-0.780084014,
-0.575819492,
0.999218968,
0.717629730,
-0.436025143,
-0.251684785,
-0.952598095,
0.028060657,
-0.753058910,
-0.785457455,
-0.055099607,
0.207228411,
-0.409530282,
0.574763000,
-0.608539104,
0.878204100,
0.734727181,
-0.843282938,
-0.286253639,
0.016852942,
0.299607215,
0.320178801,
0.438602560,
0.103143283,
-0.487928748,
0.539965190,
-0.959248900,
-0.592706680,
-0.415384475,
-0.487113357,
-0.349833369,
-0.819621682,
-0.212715149,
0.257407595,
-0.651465774,
-0.051319361,
0.755481671,
-0.102800250,
-0.010535712,
-0.168532146,
0.175438375,
0.684041363,
0.993358203,
0.675525738,
0.923783019,
-0.072321653,
-0.898321509,
-0.474077225,
0.724316361,
0.000062811,
-0.497046351,
-0.766311765,
-0.935852051,
-0.643597455,
-0.085438589,
0.524727988,
0.509304675,
-0.964431882,
0.588534514,
-0.782509446,
-0.211410284,
-0.405472636,
-0.267382674,
-0.086688002,
-0.897349954,
-0.863437891,
0.014549337,
0.241884165,
-0.454274893,
0.424800638,
-0.900058389,
0.030286591,
0.842408799,
-0.407891989,
0.868110026,
0.414244254,
-0.902460933,
0.598681507,
0.037395477,
-0.446406841,
0.814686223,
-0.808095217,
0.593857978,
-0.395411200,
0.680471461,
0.437835262,
0.532478814,
0.394673537,
-0.240474701,
-0.210305452,
-0.824081421,
0.425965946,
0.761635678,
0.731452362,
-0.713351000,
0.116838865,
-0.704934120,
-0.550484180,
-0.582705498,
0.308126354,
-0.595913172,
-0.021817207,
0.043784670,0.105868863,-0.075592004,-0.068651222,-0.058066156,0.118411206,-0.035946500,0.073377811,0.036160756,0.056638467,-0.000744402,0.016542748,0.012546635,0.009418418,0.035862095,0.012759305,-0.328311857,-0.009421389,-0.201064102,-0.301528563,0.034342188,0.143888597,0.036123704,0.045396524,-0.086660996,0.049537789,-0.102071024,-0.028386427,-0.033551633,-0.014808739,0.001093829,0.126251644,0.012483883,0.089569286,0.091869034,-0.063221395,0.013450653,-0.000988377,-0.001069814,0.070842434,0.072693727,0.109209395,0.006794531,0.000160086,0.051482357,-0.096709214,0.113866407,-0.034898021,0.001378250,-0.017001677,-0.052667297,-0.248333693,0.203035221,0.009686395,-0.018452207,-0.036983885,-0.060090424,0.045139398,-0.048026372,-0.066734031,-0.194594662,0.174935634,0.052957367,0.076752186,0.073469887,-0.476842971,-0.027944816,0.071229973,0.082203470,0.073556782,-0.018258237,-0.047007740,-0.054904538,0.064625505,-0.056118250,-0.047987776,0.141470483,-0.064941123,0.027795182,0.028649354,-0.448645879,-0.077479814,-0.040049351,-0.180118170,0.057399472,0.121563490,-0.033524062,0.029455543,-0.022867620,-0.076264288,-0.021237619,0.075163593,0.024666852,0.044144980,-0.022490216,-0.061642982,0.069154479,-0.035088738,0.040966548,-0.033625353,
-0.009433673,
