// Neural Network File Format by Kyle Julian, Stanford 2016
2,1,1,100,
1,100,1,
0,
0.0,
0.0,
0.0,0.0,
0.0,0.0,
0.050854380,
0.585020635,
-0.823045135,
-0.735939026,
-0.385154366,
0.317656354,
-0.019813180,
0.778788723,
-0.088744044,
0.321876629,
-0.302213073,
-0.219560988,
-0.955348492,
-0.694251798,
-0.362350615,
0.037043571,
0.572506980,
0.564372047,
-0.599210026,
-0.640353916,
0.400049313,
0.878427942,
-0.205800176,
0.811648873,
-0.161183357,
0.105814099,
0.830769373,
-0.927670360,
-0.629537940,
-0.253165245,
-0.389799953,
0.912378632,
-0.648179650,
-0.460332870,
-0.652752013,
-0.936560988,
-0.583740473,
0.802581528,
0.412008514,
0.536466325,
0.102975436,
-0.466406738,
0.136869484,
-0.933694720,
-0.722566247,
-0.515529990,
0.679207149,
0.547590206,
-0.443495035,
-0.036082387,
0.639560699,
1.287196266,
0.512614236,
0.104771796,
0.632299906,
-0.588802338,
0.144829598,
-0.775305510,
-0.693086147,
-0.516583562,
0.534766640,
0.520114897,
-0.592352509,
0.302107096,
0.607098420,
-0.483764489,
0.038181543,
0.283329892,
0.620376587,
1.014844217,
-0.811971347,
-0.366469741,
0.351760371,
0.882990690,
0.870207310,
0.841771487,
0.258615526,
-0.869582653,
0.102626382,
-0.625605345,
-1.187709058,
0.790822709,
0.720130452,
-0.875659035,
0.241468809,
-0.121622843,
-0.164561152,
-0.457756877,
0.384556174,
-0.851926385,
0.327647286,
0.556814306,
0.707898867,
0.434192232,
-0.989735246,
-0.648696899,
0.499315023,
0.169245781,
-0.780084014,
-0.575819492,
0.999218904,
0.717629700,
-0.436025143,
-0.251684785,
-0.952598095,
0.028060626,
-0.753058910,
-0.785457455,
-0.055099607,
0.207228358,
-0.409530282,
0.574762975,
-0.608539104,
0.878204088,
0.734727106,
-0.843282938,
-0.286254368,
0.016852946,
0.299605697,
0.320179104,
0.438602461,
0.103143256,
-0.487928748,
0.539965119,
-0.959248900,
-0.592706680,
-0.415384831,
-0.487113357,
-0.349833369,
-0.819621682,
-0.212715149,
0.257407566,
-0.651465774,
-0.051319361,
0.755481644,
-0.102800250,
-0.010535712,
-0.168532100,
0.175438375,
0.684041325,
0.993358167,
0.675525711,
0.923783014,
-0.072321653,
-0.898321509,
-0.474077225,
0.724316332,
0.000062820,
-0.497046351,
-0.766311765,
-0.935852051,
-0.643603745,
-0.085446389,
0.524727979,
0.509304682,
-0.964431882,
0.588534528,
-0.782509446,
-0.211410284,
-0.405472636,
-0.267384211,
-0.086696480,
-0.897349954,
-0.863437891,
0.014549306,
0.241884607,
-0.454274893,
0.424800599,
-0.900058389,
0.030286553,
0.842408809,
-0.407891989,
0.868110039,
0.414244210,
-0.902460933,
0.598681519,
0.037395434,
-0.446406841,
0.814686148,
-0.808095217,
0.593856067,
-0.395411550,
0.680471472,
0.437836220,
0.532478767,
0.394673509,
-0.240474701,
-0.210305452,
-0.824081421,
0.425964913,
0.761635687,
0.731452325,
-0.713351000,
0.116838772,
-0.704934120,
-0.550484180,
-0.582705498,
0.308126365,
-0.595913172,
-0.021817207,
0.043784618,0.105868518,-0.075592004,-0.068651222,-0.058066156,0.118410114,-0.035946500,0.073377811,0.036160756,0.056637892,-0.000744402,0.016542991,0.012546635,0.009419143,0.035862516,0.012759305,-0.328317009,-0.009422185,-0.201063326,-0.301528166,0.034341796,0.143887747,0.036123704,0.045396022,-0.086660996,0.049537789,-0.102072385,-0.028386427,-0.033551633,-0.014808739,0.001093829,0.126250954,0.012483883,0.089569286,0.091870079,-0.063221395,0.013450653,-0.000980681,-0.001070330,0.070842094,0.072693647,0.109210101,0.006794438,0.000160086,0.051482357,-0.096709214,0.113866034,-0.034898929,0.001378250,-0.017001677,-0.052667297,-0.248342785,0.203060143,0.009686281,-0.018452604,-0.036983885,-0.060090555,0.045139398,-0.048026372,-0.066734031,-0.194597347,0.174958951,0.052957367,0.076752186,0.073468215,-0.476842089,-0.027944816,0.071229652,0.082203470,0.073555729,-0.018257224,-0.047007740,-0.054904732,0.064624926,-0.056118250,-0.047988202,0.141467083,-0.064941123,0.027795093,0.028649354,-0.448644970,-0.077481005,-0.040049716,-0.180117644,0.057399227,0.121563718,-0.033524062,0.029455543,-0.022867620,-0.076264072,-0.021237821,0.075163262,0.024666852,0.044144090,-0.022490216,-0.061642982,0.069154479,-0.035088964,0.040966548,-0.033625353,
-0.009433693,
