// Neural Network File Format by Kyle Julian, Stanford 2016
2,1,1,100,
1,100,1,
0,
0.0,
0.0,
0.0,0.0,
0.0,0.0,
0.050850946,
0.585018794,
-0.823045135,
-0.735939026,
-0.385154366,
0.317654451,
-0.019813180,
0.778788723,
-0.088744044,
0.321873659,
-0.302213073,
-0.219562719,
-0.955348492,
-0.694252616,
-0.362354474,
0.037043571,
0.572513541,
0.564372336,
-0.599205562,
-0.640354245,
0.400044468,
0.878426229,
-0.205800176,
0.811645177,
-0.161183357,
0.105814099,
0.830770875,
-0.927670360,
-0.629537940,
-0.253165245,
-0.389799953,
0.912376864,
-0.648179650,
-0.460332870,
-0.652753705,
-0.936560988,
-0.583740473,
0.802581399,
0.412008557,
0.536464049,
0.102973276,
-0.466408418,
0.136869104,
-0.933694720,
-0.722566247,
-0.515529990,
0.679205356,
0.547590836,
-0.443495035,
-0.036082387,
0.639560699,
1.287210070,
0.512634717,
0.104771183,
0.632300393,
-0.588802338,
0.144830481,
-0.775305510,
-0.693086147,
-0.516583562,
0.534770745,
0.520137797,
-0.592352509,
0.302107096,
0.607096415,
-0.483763309,
0.038181543,
0.283327611,
0.620376587,
1.014841764,
-0.811970724,
-0.366469741,
0.351761222,
0.882988158,
0.870207310,
0.841772282,
0.258613092,
-0.869582653,
0.102622035,
-0.625605345,
-1.187705763,
0.790823926,
0.720131192,
-0.875660940,
0.241466125,
-0.121624548,
-0.164561152,
-0.457756877,
0.384556174,
-0.851926553,
0.327647829,
0.556812122,
0.707898867,
0.434187751,
-0.989735246,
-0.648696899,
0.499315023,
0.169246492,
-0.780084014,
-0.575819492,
0.999219010,
0.717629750,
-0.436025143,
-0.251684785,
-0.952598095,
0.028060678,
-0.753058910,
-0.785457455,
-0.055099607,
0.207228446,
-0.409530282,
0.574763017,
-0.608539104,
0.878204107,
0.734727230,
-0.843282938,
-0.286258251,
0.016852939,
0.299605610,
0.320178099,
0.438602625,
0.103143302,
-0.487928748,
0.539965237,
-0.959248900,
-0.592706680,
-0.415385587,
-0.487113357,
-0.349833369,
-0.819621682,
-0.212715149,
0.257407614,
-0.651465774,
-0.051319361,
0.755481689,
-0.102800250,
-0.010535712,
-0.168532017,
0.175438374,
0.684041388,
0.993358227,
0.675525756,
0.923783023,
-0.072321653,
-0.898321509,
-0.474077225,
0.724316381,
0.000062805,
-0.497046351,
-0.766311765,
-0.935852051,
-0.643607806,
-0.085460802,
0.524727994,
0.509304670,
-0.964431882,
0.588534505,
-0.782509446,
-0.211410284,
-0.405472636,
-0.267386448,
-0.086712147,
-0.897349954,
-0.863437891,
0.014549356,
0.241884617,
-0.454274893,
0.424800663,
-0.900058389,
0.030286617,
0.842408793,
-0.407891989,
0.868110017,
0.414244283,
-0.902460933,
0.598681499,
0.037395505,
-0.446406841,
0.814686273,
-0.808095217,
0.593855811,
-0.395412164,
0.680471453,
0.437834894,
0.532478844,
0.394673555,
-0.240474701,
-0.210305452,
-0.824081421,
0.425963309,
0.761635673,
0.731452386,
-0.713351000,
0.116838927,
-0.704934120,
-0.550484180,
-0.582705498,
0.308126346,
-0.595913172,
-0.021817207,
0.043784610,0.105868068,-0.075592004,-0.068651222,-0.058066156,0.118408552,-0.035946500,0.073377811,0.036160756,0.056637105,-0.000744402,0.016543419,0.012546635,0.009420296,0.035863226,0.012759305,-0.328324901,-0.009423328,-0.201062393,-0.301527689,0.034341277,0.143886534,0.036123704,0.045395336,-0.086660996,0.049537789,-0.102074470,-0.028386427,-0.033551633,-0.014808739,0.001093829,0.126249981,0.012483883,0.089569286,0.091871726,-0.063221395,0.013450653,-0.000969268,-0.001071049,0.070841652,0.072693596,0.109211239,0.006794360,0.000160086,0.051482357,-0.096709214,0.113865539,-0.034900236,0.001378250,-0.017001677,-0.052667297,-0.248356713,0.203096812,0.009686170,-0.018453141,-0.036983885,-0.060090691,0.045139398,-0.048026372,-0.066734031,-0.194601458,0.174993259,0.052957367,0.076752186,0.073465812,-0.476841028,-0.027944816,0.071229241,0.082203470,0.073554218,-0.018255642,-0.047007740,-0.054904962,0.064624123,-0.056118250,-0.047988782,0.141462243,-0.064941123,0.027795026,0.028649354,-0.448643877,-0.077482829,-0.040050205,-0.180117011,0.057398930,0.121564142,-0.033524062,0.029455543,-0.022867620,-0.076263813,-0.021238064,0.075162832,0.024666852,0.044142834,-0.022490216,-0.061642982,0.069154479,-0.035089246,0.040966548,-0.033625353,
-0.009433659,
