// Neural Network File Format by Kyle Julian, Stanford 2016
2,1,1,100,
1,100,1,
0,
0.0,
0.0,
0.0,0.0,
0.0,0.0,
0.050850706,
0.585018665,
-0.823045135,
-0.735939026,
-0.385154366,
0.317654318,
-0.019813180,
0.778788723,
-0.088744044,
0.321873451,
-0.302213073,
-0.219562840,
-0.955348492,
-0.694252673,
-0.362354744,
0.037043571,
0.572514673,
0.564372357,
-0.599204896,
-0.640354815,
0.400044129,
0.878426109,
-0.205800176,
0.811644918,
-0.161183357,
0.105814099,
0.830770995,
-0.927670360,
-0.629537940,
-0.253165245,
-0.389799953,
0.912376740,
-0.648179650,
-0.460332870,
-0.652753823,
-0.936560988,
-0.583740473,
0.802581393,
0.412008560,
0.536463889,
0.102973125,
-0.466408536,
0.136869077,
-0.933694720,
-0.722566247,
-0.515529990,
0.679205230,
0.547590881,
-0.443495035,
-0.036082387,
0.639560699,
1.287211009,
0.512635658,
0.104771140,
0.632300427,
-0.588802338,
0.144830543,
-0.775305510,
-0.693086147,
-0.516583562,
0.534771428,
0.520138849,
-0.592352509,
0.302107096,
0.607096275,
-0.483763739,
0.038181543,
0.283327451,
0.620376587,
1.014841592,
-0.811970681,
-0.366469741,
0.351761282,
0.882987981,
0.870207310,
0.841772338,
0.258612921,
-0.869582653,
0.102621731,
-0.625605345,
-1.187705192,
0.790824145,
0.720131244,
-0.875663963,
0.241465937,
-0.121624668,
-0.164561152,
-0.457756877,
0.384556174,
-0.851926152,
0.327647867,
0.556811969,
0.707898867,
0.434187438,
-0.989735246,
-0.648696899,
0.499315023,
0.169246542,
-0.780084014,
-0.575819492,
0.999219015,
0.717629752,
-0.436025143,
-0.251684785,
-0.952598095,
0.028060680,
-0.753058910,
-0.785457455,
-0.055099607,
0.207228450,
-0.409530282,
0.574763019,
-0.608539104,
0.878204108,
0.734727236,
-0.843282938,
-0.286257391,
0.016852938,
0.299605746,
0.320177594,
0.438602633,
0.103143304,
-0.487928748,
0.539965242,
-0.959248900,
-0.592706680,
-0.415385634,
-0.487113357,
-0.349833369,
-0.819621682,
-0.212715149,
0.257407616,
-0.651465774,
-0.051319361,
0.755481692,
-0.102800250,
-0.010535712,
-0.168532012,
0.175438374,
0.684041391,
0.993358230,
0.675525758,
0.923783023,
-0.072321653,
-0.898321509,
-0.474077225,
0.724316383,
0.000062804,
-0.497046351,
-0.766311765,
-0.935852051,
-0.643608291,
-0.085461573,
0.524727995,
0.509304670,
-0.964431882,
0.588534504,
-0.782509446,
-0.211410284,
-0.405472636,
-0.267386056,
-0.086712985,
-0.897349954,
-0.863437891,
0.014549359,
0.241884070,
-0.454274893,
0.424800666,
-0.900058389,
0.030286620,
0.842408792,
-0.407891989,
0.868110016,
0.414244286,
-0.902460933,
0.598681498,
0.037395508,
-0.446406841,
0.814686279,
-0.808095217,
0.593856021,
-0.395412045,
0.680471452,
0.437834290,
0.532478848,
0.394673557,
-0.240474701,
-0.210305452,
-0.824081421,
0.425963865,
0.761635672,
0.731452388,
-0.713351000,
0.116838934,
-0.704934120,
-0.550484180,
-0.582705498,
0.308126346,
-0.595913172,
-0.021817207,
0.043784609,0.105868036,-0.075592004,-0.068651222,-0.058066156,0.118408443,-0.035946500,0.073377811,0.036160756,0.056637049,-0.000744402,0.016543448,0.012546635,0.009420375,0.035863275,0.012759305,-0.328325491,-0.009423408,-0.201062381,-0.301527683,0.034341241,0.143886449,0.036123704,0.045395288,-0.086660996,0.049537789,-0.102074626,-0.028386427,-0.033551633,-0.014808739,0.001093829,0.126249913,0.012483883,0.089569286,0.091871840,-0.063221395,0.013450653,-0.000968728,-0.001071100,0.070841621,0.072693592,0.109211317,0.006794354,0.000160086,0.051482357,-0.096709214,0.113865504,-0.034900328,0.001378250,-0.017001677,-0.052667297,-0.248357756,0.203098539,0.009686162,-0.018453179,-0.036983885,-0.060090702,0.045139398,-0.048026372,-0.066734031,-0.194601766,0.174994874,0.052957367,0.076752186,0.073465643,-0.476841014,-0.027944816,0.071229212,0.082203470,0.073554112,-0.018255533,-0.047007740,-0.054904979,0.064624066,-0.056118250,-0.047988823,0.141461903,-0.064941123,0.027795021,0.028649354,-0.448643862,-0.077482965,-0.040050240,-0.180117002,0.057398909,0.121564170,-0.033524062,0.029455543,-0.022867620,-0.076263809,-0.021238082,0.075162801,0.024666852,0.044142746,-0.022490216,-0.061642982,0.069154479,-0.035089267,0.040966548,-0.033625353,
-0.009433657,
