// Neural Network File Format by Kyle Julian, Stanford 2016
2,1,1,100,
1,100,1,
0,
0.0,
0.0,
0.0,0.0,
0.0,0.0,
0.058291460,
0.593347010,
-0.823045135,
-0.735939026,
-0.385154366,
0.285737471,
-0.019813180,
0.997082688,
-0.088744044,
0.338652006,
-0.302213073,
-0.242209841,
-0.955348492,
-0.726690159,
-0.393789648,
0.037043571,
0.323930505,
0.564326635,
-0.589362016,
-0.311471124,
0.421330103,
0.887772842,
-0.205800176,
0.834635117,
-0.161183357,
0.105814099,
0.864977367,
-0.927670360,
-0.629537940,
-0.253165245,
-0.389799953,
0.921759417,
-0.648179650,
-0.460332870,
-0.655615433,
-0.936560988,
-0.547549123,
0.820661233,
0.411073486,
0.546562446,
0.109598412,
-0.465656450,
0.129735811,
-0.933694720,
-0.722566247,
-0.515529990,
0.687514595,
0.544833309,
-0.443495035,
-0.036082387,
0.639560699,
1.243939703,
0.479773211,
0.098060322,
0.628654194,
-0.588802338,
0.138636015,
-0.775305510,
-0.693086147,
-0.516583562,
0.434302126,
0.489848051,
-0.592352509,
0.302107096,
0.601334760,
-0.107891031,
0.038181543,
0.293047052,
0.620376587,
1.030813543,
-0.831677826,
-0.366469741,
0.345909940,
0.897060613,
0.870207310,
0.837277639,
0.293228059,
-0.869582653,
0.091764364,
-0.625605345,
-0.763966459,
0.849247810,
0.715495992,
-0.853179021,
0.251750349,
-0.117481656,
-0.164561152,
-0.457756877,
0.384556174,
-0.591862783,
0.322201325,
0.566434121,
0.962381597,
0.469018572,
-0.989735246,
-0.648696899,
0.499315023,
0.163915489,
-0.780084014,
-0.575819492,
0.932401655,
0.669271510,
-0.436025143,
-0.251684785,
-0.952598095,
-0.139712615,
-0.753058910,
-0.567163490,
-0.055099607,
0.128310397,
-0.409530282,
0.597970903,
-0.608539104,
0.929700245,
0.730575866,
-0.843282938,
-0.320289013,
0.031543049,
0.294529039,
0.336697682,
0.325994463,
0.054222076,
-0.487928748,
0.438030549,
-0.959248900,
-0.592706680,
-0.276701246,
-0.487113357,
-0.349833369,
-0.819621682,
-0.212715149,
0.207860326,
-0.651465774,
-0.051319361,
0.726414010,
-0.102800250,
0.273606926,
-0.117275474,
0.189190439,
0.627000742,
0.943919534,
0.641200093,
0.942396274,
-0.072321653,
-0.898321509,
-0.474077225,
0.676564719,
-0.042880181,
-0.497046351,
-0.766311765,
-0.935852051,
-0.621867946,
-0.239830326,
0.539691582,
0.533057559,
-0.964431882,
0.621324291,
-0.782509446,
-0.211410284,
-0.405472636,
-0.217124058,
-0.244859719,
-0.897349954,
-0.863437891,
-0.300600409,
0.162443325,
-0.454274893,
0.368482358,
-0.900058389,
0.000225855,
0.892852094,
-0.407891989,
0.899960730,
0.345995244,
-0.902460933,
0.627568784,
-0.146553550,
-0.446406841,
0.775458573,
-0.808095217,
0.381760483,
-0.235228806,
0.708952587,
0.426444771,
0.470012465,
0.354949441,
-0.240474701,
-0.210305452,
-0.824081421,
0.627373779,
0.789044578,
0.676443383,
-0.481087178,
0.000378004,
-0.704934120,
-0.550484180,
-0.582705498,
0.337346018,
-0.595913172,
-0.021817207,
0.005190391,0.085722695,-0.075592004,-0.068651222,-0.058066156,0.120491645,-0.035946500,0.366733122,0.036160756,0.046134551,-0.000744402,-0.037131780,0.012546635,-0.068503687,-0.034093949,0.012759305,-0.016125697,-0.005252477,0.239262130,-0.161533597,0.017062542,0.146971269,0.036123704,0.033597986,-0.086660996,0.049537789,-0.003194908,-0.028386427,-0.033551633,-0.014808739,0.001093829,0.123271983,0.012483883,0.089569286,-0.000471471,-0.063221395,0.352835475,-0.022955404,-0.008896172,0.050254798,0.036167441,0.026844965,-0.026149703,0.000160086,0.051482357,-0.096709214,0.095474234,-0.034543920,0.001378250,-0.017001677,-0.052667297,0.220775991,0.207131399,-0.021337171,-0.033238766,-0.036983885,-0.089852837,0.045139398,-0.048026372,-0.066734031,0.050206984,0.180051981,0.052957367,0.076752186,0.128733623,-0.229374370,-0.027944816,0.048385385,0.082203470,0.080177910,-0.104550393,-0.047007740,-0.081470426,0.056659781,-0.056118250,-0.061411940,0.227192649,-0.064941123,-0.006817485,0.028649354,0.217875715,-0.005750105,-0.056726958,0.203412775,0.030185422,0.061004795,-0.033524062,0.029455543,-0.022867620,-0.073880474,-0.047224316,0.054210341,0.348681494,0.046874538,-0.022490216,-0.061642982,0.069154479,-0.058144108,0.040966548,-0.033625353,
-0.048075430,
