// Neural Network File Format by Kyle Julian, Stanford 2016
2,1,1,100,
1,100,1,
0,
0.0,
0.0,
0.0,0.0,
0.0,0.0,
0.058291592,
0.593347392,
-0.823045135,
-0.735939026,
-0.385154366,
0.285738040,
-0.019813180,
0.997084385,
-0.088744044,
0.338652667,
-0.302213073,
-0.242210692,
-0.955348492,
-0.726691329,
-0.393791092,
0.037043571,
0.323930354,
0.564326596,
-0.589364678,
-0.311472351,
0.421330873,
0.887773283,
-0.205800176,
0.834635911,
-0.161183357,
0.105814099,
0.864978809,
-0.927670360,
-0.629537940,
-0.253165245,
-0.389799953,
0.921759854,
-0.648179650,
-0.460332870,
-0.655615435,
-0.936560988,
-0.547551164,
0.820661112,
0.411073403,
0.546562875,
0.109598700,
-0.465656340,
0.129735474,
-0.933694720,
-0.722566247,
-0.515529990,
0.687514980,
0.544833157,
-0.443495035,
-0.036082387,
0.639560699,
1.243941159,
0.479774003,
0.098060012,
0.628653984,
-0.588802338,
0.138635695,
-0.775305510,
-0.693086147,
-0.516583562,
0.434302514,
0.489848972,
-0.592352509,
0.302107096,
0.601335760,
-0.107895528,
0.038181543,
0.293047464,
0.620376587,
1.030814228,
-0.831678601,
-0.366469741,
0.345909634,
0.897061201,
0.870207310,
0.837277392,
0.293228911,
-0.869582653,
0.091764046,
-0.625605345,
-0.763969324,
0.849250576,
0.715495738,
-0.853181594,
0.251750743,
-0.117481434,
-0.164561152,
-0.457756877,
0.384556174,
-0.591865776,
0.322201037,
0.566434537,
0.962383073,
0.469019863,
-0.989735246,
-0.648696899,
0.499315023,
0.163915206,
-0.780084014,
-0.575819492,
0.932401666,
0.669271538,
-0.436025143,
-0.251684785,
-0.952598095,
-0.139712479,
-0.753058910,
-0.567161793,
-0.055099607,
0.128310449,
-0.409530282,
0.597970848,
-0.608539104,
0.929700163,
0.730575734,
-0.843282938,
-0.320289164,
0.031543047,
0.294528653,
0.336697641,
0.325994521,
0.054222107,
-0.487928748,
0.438030615,
-0.959248900,
-0.592706680,
-0.276697184,
-0.487113357,
-0.349833369,
-0.819621682,
-0.212715149,
0.207860358,
-0.651465774,
-0.051319361,
0.726414009,
-0.102800250,
0.273606055,
-0.117302801,
0.189190433,
0.627000773,
0.943919555,
0.641200101,
0.942396252,
-0.072321653,
-0.898321509,
-0.474077225,
0.676564747,
-0.042914788,
-0.497046351,
-0.766311765,
-0.935852051,
-0.621867539,
-0.239830097,
0.539691562,
0.533057545,
-0.964431882,
0.621324269,
-0.782509446,
-0.211410284,
-0.405472636,
-0.217123953,
-0.244859464,
-0.897349954,
-0.863437891,
-0.300600165,
0.162443112,
-0.454274893,
0.368482389,
-0.900058389,
0.000225904,
0.892852040,
-0.407891989,
0.899960709,
0.345995288,
-0.902460933,
0.627568767,
-0.146553304,
-0.446406841,
0.775458554,
-0.808095217,
0.381759407,
-0.235221029,
0.708952570,
0.426444421,
0.470012495,
0.354949457,
-0.240474701,
-0.210305452,
-0.824081421,
0.627373654,
0.789044558,
0.676443414,
-0.481086763,
0.000378113,
-0.704934120,
-0.550484180,
-0.582705498,
0.337345999,
-0.595913172,
-0.021817207,
0.005190430,0.085722862,-0.075592004,-0.068651222,-0.058066156,0.120491995,-0.035946500,0.366735660,0.036160756,0.046134817,-0.000744402,-0.037131893,0.012546635,-0.068503988,-0.034094145,0.012759305,-0.016125678,-0.005252184,0.239262260,-0.161534340,0.017062733,0.146971593,0.036123704,0.033598215,-0.086660996,0.049537789,-0.003195933,-0.028386427,-0.033551633,-0.014808739,0.001093829,0.123272267,0.012483883,0.089569286,-0.000471828,-0.063221395,0.352835785,-0.022968000,-0.008895953,0.050254964,0.036167494,0.026844688,-0.026149648,0.000160086,0.051482357,-0.096709214,0.095474413,-0.034550027,0.001378250,-0.017001677,-0.052667297,0.220777551,0.207132024,-0.021337109,-0.033238586,-0.036983885,-0.089852766,0.045139398,-0.048026372,-0.066734031,0.050207522,0.180052592,0.052957367,0.076752186,0.128734074,-0.229376291,-0.027944816,0.048385548,0.082203470,0.080178278,-0.104550762,-0.047007740,-0.081470326,0.056660033,-0.056118250,-0.061411749,0.227193389,-0.064941123,-0.006817434,0.028649354,0.217875970,-0.005755566,-0.056726789,0.203412869,0.030185553,0.061004702,-0.033524062,0.029455543,-0.022867620,-0.073880931,-0.047224213,0.054210505,0.348684192,0.046874904,-0.022490216,-0.061642982,0.069154479,-0.058143998,0.040966548,-0.033625353,
-0.048075407,
