// Neural Network File Format by Kyle Julian, Stanford 2016
2,1,1,100,
1,100,1,
0,
0.0,
0.0,
0.0,0.0,
0.0,0.0,
0.058291675,
0.593347635,
-0.823045135,
-0.735939026,
-0.385154366,
0.285738400,
-0.019813180,
0.997085461,
-0.088744044,
0.338653086,
-0.302213073,
-0.242211232,
-0.955348492,
-0.726692071,
-0.393792008,
0.037043571,
0.323930258,
0.564326571,
-0.589366366,
-0.311473130,
0.421331360,
0.887773563,
-0.205800176,
0.834636414,
-0.161183357,
0.105814099,
0.864979723,
-0.927670360,
-0.629537940,
-0.253165245,
-0.389799953,
0.921760132,
-0.648179650,
-0.460332870,
-0.655615436,
-0.936560988,
-0.547552459,
0.820661036,
0.411073350,
0.546563147,
0.109598883,
-0.465656271,
0.129735261,
-0.933694720,
-0.722566247,
-0.515529990,
0.687515224,
0.544833060,
-0.443495035,
-0.036082387,
0.639560699,
1.243942082,
0.479774506,
0.098059815,
0.628653851,
-0.588802338,
0.138635492,
-0.775305510,
-0.693086147,
-0.516583562,
0.434302760,
0.489849555,
-0.592352509,
0.302107096,
0.601336395,
-0.107898379,
0.038181543,
0.293047726,
0.620376587,
1.030814663,
-0.831679093,
-0.366469741,
0.345909440,
0.897061574,
0.870207310,
0.837277236,
0.293229451,
-0.869582653,
0.091763845,
-0.625605345,
-0.763971140,
0.849252331,
0.715495577,
-0.853183226,
0.251750992,
-0.117481293,
-0.164561152,
-0.457756877,
0.384556174,
-0.591867674,
0.322200854,
0.566434800,
0.962384009,
0.469020683,
-0.989735246,
-0.648696899,
0.499315023,
0.163915026,
-0.780084014,
-0.575819492,
0.932401672,
0.669271556,
-0.436025143,
-0.251684785,
-0.952598095,
-0.139712392,
-0.753058910,
-0.567160717,
-0.055099607,
0.128310481,
-0.409530282,
0.597970813,
-0.608539104,
0.929700111,
0.730575651,
-0.843282938,
-0.320289259,
0.031543045,
0.294528408,
0.336697615,
0.325994558,
0.054222127,
-0.487928748,
0.438030658,
-0.959248900,
-0.592706680,
-0.276694608,
-0.487113357,
-0.349833369,
-0.819621682,
-0.212715149,
0.207860378,
-0.651465774,
-0.051319361,
0.726414009,
-0.102800250,
0.273605503,
-0.117320132,
0.189190430,
0.627000793,
0.943919569,
0.641200106,
0.942396238,
-0.072321653,
-0.898321509,
-0.474077225,
0.676564765,
-0.042936729,
-0.497046351,
-0.766311765,
-0.935852051,
-0.621867280,
-0.239829951,
0.539691549,
0.533057536,
-0.964431882,
0.621324255,
-0.782509446,
-0.211410284,
-0.405472636,
-0.217123886,
-0.244859303,
-0.897349954,
-0.863437891,
-0.300600010,
0.162442976,
-0.454274893,
0.368482408,
-0.900058389,
0.000225936,
0.892852005,
-0.407891989,
0.899960696,
0.345995317,
-0.902460933,
0.627568757,
-0.146553148,
-0.446406841,
0.775458542,
-0.808095217,
0.381758725,
-0.235216096,
0.708952559,
0.426444200,
0.470012514,
0.354949467,
-0.240474701,
-0.210305452,
-0.824081421,
0.627373575,
0.789044546,
0.676443433,
-0.481086500,
0.000378182,
-0.704934120,
-0.550484180,
-0.582705498,
0.337345987,
-0.595913172,
-0.021817207,
0.005190456,0.085722969,-0.075592004,-0.068651222,-0.058066156,0.120492217,-0.035946500,0.366737270,0.036160756,0.046134986,-0.000744402,-0.037131965,0.012546635,-0.068504178,-0.034094269,0.012759305,-0.016125666,-0.005251997,0.239262343,-0.161534811,0.017062854,0.146971799,0.036123704,0.033598361,-0.086660996,0.049537789,-0.003196583,-0.028386427,-0.033551633,-0.014808739,0.001093829,0.123272446,0.012483883,0.089569286,-0.000472054,-0.063221395,0.352835982,-0.022975985,-0.008895814,0.050255070,0.036167527,0.026844512,-0.026149614,0.000160086,0.051482357,-0.096709214,0.095474526,-0.034553900,0.001378250,-0.017001677,-0.052667297,0.220778540,0.207132420,-0.021337069,-0.033238471,-0.036983885,-0.089852721,0.045139398,-0.048026372,-0.066734031,0.050207864,0.180052980,0.052957367,0.076752186,0.128734361,-0.229377510,-0.027944816,0.048385651,0.082203470,0.080178511,-0.104550996,-0.047007740,-0.081470263,0.056660193,-0.056118250,-0.061411627,0.227193858,-0.064941123,-0.006817402,0.028649354,0.217876132,-0.005759028,-0.056726681,0.203412928,0.030185635,0.061004643,-0.033524062,0.029455543,-0.022867620,-0.073881221,-0.047224148,0.054210608,0.348685902,0.046875137,-0.022490216,-0.061642982,0.069154479,-0.058143928,0.040966548,-0.033625353,
-0.048075393,
