// Neural Network File Format by Kyle Julian, Stanford 2016
2,1,1,100,
1,100,1,
0,
0.0,
0.0,
0.0,0.0,
0.0,0.0,
0.062839538,
0.589585483,
-0.823045135,
-0.735939026,
-0.385154366,
0.322975546,
-0.019813180,
0.879599452,
-0.088744044,
0.332693309,
-0.302213073,
-0.218141049,
-0.955348492,
-0.697180927,
-0.352884442,
0.037043571,
0.364928663,
0.565297782,
-0.772281528,
-0.453999460,
0.422067732,
0.882730007,
-0.205800176,
0.827932656,
-0.161183357,
0.105814099,
0.868054867,
-0.927670360,
-0.629537940,
-0.253165245,
-0.389799953,
0.916863978,
-0.648179650,
-0.460332870,
-0.650718987,
-0.936560988,
-0.603383005,
0.821429253,
0.413323432,
0.543004334,
0.108562544,
-0.463577330,
0.138253719,
-0.933694720,
-0.722566247,
-0.515529990,
0.683601081,
0.546693206,
-0.443495035,
-0.036082387,
0.639560699,
1.106292248,
0.462404788,
0.106638238,
0.632228494,
-0.588802338,
0.143472001,
-0.775305510,
-0.693086147,
-0.516583562,
0.413239568,
0.470175207,
-0.592352509,
0.302107096,
0.613837183,
-0.228068262,
0.038181543,
0.289828658,
0.620376587,
1.024262667,
-0.815620124,
-0.366469741,
0.350536585,
0.891299963,
0.870207310,
0.840814471,
0.266681463,
-0.869582653,
0.113079704,
-0.625605345,
-0.659276843,
0.848561108,
0.719292998,
-1.031186461,
0.249840245,
-0.118066713,
-0.164561152,
-0.457756877,
0.384556174,
-0.646540999,
0.327277541,
0.562898874,
0.909636617,
0.459427506,
-0.989735246,
-0.648696899,
0.499315023,
0.168447644,
-0.780084014,
-0.575819492,
0.956470430,
0.693302572,
-0.436025143,
-0.251684785,
-0.952598095,
0.000780972,
-0.753058910,
-0.675994396,
-0.055099607,
0.165532261,
-0.409530282,
0.569879830,
-0.608539104,
0.887685299,
0.698604524,
-0.843282938,
-0.278433055,
0.021150844,
0.094474182,
0.297156841,
0.366558135,
0.079366639,
-0.487928748,
0.484864861,
-0.959248900,
-0.592706680,
-0.285284936,
-0.487113357,
-0.349833369,
-0.819621682,
-0.212715149,
0.233134195,
-0.651465774,
-0.051319361,
0.737707078,
-0.102800250,
-0.000604283,
-0.121183701,
0.178277075,
0.654094398,
0.966344416,
0.656069815,
0.925633907,
-0.072321653,
-0.898321509,
-0.474077225,
0.700486004,
-0.040880173,
-0.497046351,
-0.766311765,
-0.935852051,
-0.720998526,
-0.123392954,
0.524206161,
0.517764032,
-0.964431882,
0.602161169,
-0.782509446,
-0.211410284,
-0.405472636,
-0.231605574,
-0.115022451,
-0.897349954,
-0.863437891,
-0.081261553,
0.174655020,
-0.454274893,
0.395040452,
-0.900058389,
-0.003732290,
0.859970093,
-0.407891989,
0.881268024,
0.378987521,
-0.902460933,
0.610528708,
-0.004550216,
-0.446406841,
0.771394193,
-0.808095217,
0.354927480,
-0.250535786,
0.691871822,
0.251845717,
0.497843832,
0.373616159,
-0.240474701,
-0.210305452,
-0.824081421,
0.522442341,
0.771527410,
0.702759564,
-0.469986260,
0.037960291,
-0.704934120,
-0.550484180,
-0.582705498,
0.319602162,
-0.595913172,
-0.021817207,
0.025547914,0.094868347,-0.075592004,-0.068651222,-0.058066156,0.120799482,-0.035946500,0.122536100,0.036160756,0.049038887,-0.000744402,-0.007103881,0.012546635,-0.026853984,0.004507860,0.012759305,-0.044362847,-0.007994277,-0.090032928,-0.176387444,0.024271753,0.143964037,0.036123704,0.037795190,-0.086660996,0.049537789,-0.025331168,-0.028386427,-0.033551633,-0.014808739,0.001093829,0.122998603,0.012483883,0.089569286,0.042483721,-0.063221395,0.018500594,-0.024167161,-0.006108765,0.059618693,0.055298831,0.069768697,-0.008863986,0.000160086,0.051482357,-0.096709214,0.103604756,-0.037173744,0.001378250,-0.017001677,-0.052667297,0.079019375,0.142153442,-0.005146219,-0.026777307,-0.036983885,-0.074407749,0.045139398,-0.048026372,-0.066734031,-0.012702853,0.117967092,0.052957367,0.076752186,0.090209819,-0.241585493,-0.027944816,0.058886439,0.082203470,0.077173986,-0.062070563,-0.047007740,-0.068069324,0.058871116,-0.056118250,-0.055743322,0.160689980,-0.064941123,0.011335347,0.028649354,-0.223165199,-0.020818779,-0.049210683,-0.064473301,0.043370418,0.094205603,-0.033524062,0.029455543,-0.022867620,-0.039505806,-0.034165703,0.063815407,0.132392317,0.042937484,-0.022490216,-0.061642982,0.069154479,-0.046624228,0.040966548,-0.033625353,
-0.027417993,
