// Neural Network File Format by Kyle Julian, Stanford 2016
2,1,1,100,
1,100,1,
0,
0.0,
0.0,
0.0,0.0,
0.0,0.0,
0.062835053,
0.589580357,
-0.823045135,
-0.735939026,
-0.385154366,
0.322972059,
-0.019813180,
0.879357040,
-0.088744044,
0.332688183,
-0.302213073,
-0.218139768,
-0.955348492,
-0.697175801,
-0.352884442,
0.037043571,
0.364896625,
0.565297782,
-0.771822810,
-0.453951895,
0.422059983,
0.882724881,
-0.205800176,
0.827927530,
-0.161183357,
0.105814099,
0.868065119,
-0.927670360,
-0.629537940,
-0.253165245,
-0.389799953,
0.916858852,
-0.648179650,
-0.460332870,
-0.650718987,
-0.936560988,
-0.603383005,
0.821408749,
0.413323432,
0.542999208,
0.108559333,
-0.463579893,
0.138255000,
-0.933694720,
-0.722566247,
-0.515529990,
0.683595955,
0.546698332,
-0.443495035,
-0.036082387,
0.639560699,
1.106302500,
0.462440997,
0.106638879,
0.632228494,
-0.588802338,
0.143474549,
-0.775305510,
-0.693086147,
-0.516583562,
0.413209647,
0.470188737,
-0.592352509,
0.302107096,
0.613895714,
-0.228031933,
0.038181543,
0.289825261,
0.620376587,
1.024262309,
-0.815614998,
-0.366469741,
0.350539148,
0.891294837,
0.870207310,
0.840814471,
0.266678900,
-0.869582653,
0.113075867,
-0.625605345,
-0.659276247,
0.848494470,
0.719292998,
-1.031031609,
0.249836370,
-0.118069276,
-0.164561152,
-0.457756877,
0.384556174,
-0.646506667,
0.327280104,
0.562893748,
0.909646869,
0.459417194,
-0.989735246,
-0.648696899,
0.499315023,
0.168448925,
-0.780084014,
-0.575819492,
0.956465304,
0.693297446,
-0.436025143,
-0.251684785,
-0.952598095,
0.000776312,
-0.753058910,
-0.676267982,
-0.055099607,
0.165525630,
-0.409530282,
0.569879830,
-0.608539104,
0.887690425,
0.698604524,
-0.843282938,
-0.278471857,
0.021151327,
0.094598643,
0.297113776,
0.366547763,
0.079362728,
-0.487928748,
0.484854966,
-0.959248900,
-0.592706680,
-0.285271555,
-0.487113357,
-0.349833369,
-0.819621682,
-0.212715149,
0.233130351,
-0.651465774,
-0.051319361,
0.737707078,
-0.102800250,
-0.000604283,
-0.121272735,
0.178277075,
0.654089272,
0.966339290,
0.656068325,
0.925633907,
-0.072321653,
-0.898321509,
-0.474077225,
0.700480878,
-0.040846065,
-0.497046351,
-0.766311765,
-0.935852051,
-0.721072316,
-0.123314656,
0.524206161,
0.517764032,
-0.964431882,
0.602161229,
-0.782509446,
-0.211410284,
-0.405472636,
-0.231646791,
-0.115034640,
-0.897349954,
-0.863437891,
-0.080977827,
0.174755543,
-0.454274893,
0.395035326,
-0.900058389,
-0.003573755,
0.859975219,
-0.407891989,
0.881268024,
0.378982395,
-0.902460933,
0.610528708,
-0.004170154,
-0.446406841,
0.771389067,
-0.808095217,
0.354948163,
-0.250691324,
0.691871822,
0.251821816,
0.497838706,
0.373613596,
-0.240474701,
-0.210305452,
-0.824081421,
0.522523344,
0.771527410,
0.702754438,
-0.469957143,
0.037945684,
-0.704934120,
-0.550484180,
-0.582705498,
0.319604725,
-0.595913172,
-0.021817207,
0.025544802,0.094865270,-0.075592004,-0.068651222,-0.058066156,0.120796286,-0.035946500,0.122336254,0.036160756,0.049035758,-0.000744402,-0.007106803,0.012546635,-0.026857041,0.004504398,0.012759305,-0.044382282,-0.007996598,-0.089776307,-0.176321790,0.024268858,0.143961474,0.036123704,0.037792299,-0.086660996,0.049537789,-0.025351008,-0.028386427,-0.033551633,-0.014808739,0.001093829,0.122995980,0.012483883,0.089569286,0.042480089,-0.063221395,0.018500594,-0.024166826,-0.006111288,0.059615765,0.055295721,0.069765016,-0.008866843,0.000160086,0.051482357,-0.096709214,0.103601739,-0.037178352,0.001378250,-0.017001677,-0.052667297,0.079289854,0.142171934,-0.005149012,-0.026779993,-0.036983885,-0.074410379,0.045139398,-0.048026372,-0.066734031,-0.012707917,0.117995054,0.052957367,0.076752186,0.090216652,-0.241645709,-0.027944816,0.058883335,0.082203470,0.077170782,-0.062073555,-0.047007740,-0.068071976,0.058868237,-0.056118250,-0.055745982,0.160670206,-0.064941123,0.011332413,0.028649354,-0.223188326,-0.020819493,-0.049213395,-0.064280041,0.043367293,0.094202019,-0.033524062,0.029455543,-0.022867620,-0.039522782,-0.034168534,0.063812301,0.132334739,0.042934529,-0.022490216,-0.061642982,0.069154479,-0.046626836,0.040966548,-0.033625353,
-0.027420977,
