// Neural Network File Format by Kyle Julian, Stanford 2016
2,1,1,100,
1,100,1,
0,
0.0,
0.0,
0.0,0.0,
0.0,0.0,
0.062827267,
0.589574218,
-0.823045135,
-0.735939026,
-0.385154366,
0.322966516,
-0.019813180,
0.878843546,
-0.088744044,
0.332677990,
-0.302213073,
-0.218137115,
-0.955348492,
-0.697165191,
-0.352884442,
0.037043571,
0.364817590,
0.565297782,
-0.770960569,
-0.453864574,
0.422045380,
0.882717788,
-0.205800176,
0.827916920,
-0.161183357,
0.105814099,
0.868093312,
-0.927670360,
-0.629537940,
-0.253165245,
-0.389799953,
0.916851521,
-0.648179650,
-0.460332870,
-0.650718987,
-0.936560988,
-0.603383005,
0.821366310,
0.413323432,
0.542988837,
0.108553566,
-0.463585198,
0.138257354,
-0.933694720,
-0.722566247,
-0.515529990,
0.683590114,
0.546708941,
-0.443495035,
-0.036082387,
0.639560699,
1.106337070,
0.462511331,
0.106640205,
0.632228494,
-0.588802338,
0.143477798,
-0.775305510,
-0.693086147,
-0.516583562,
0.413138300,
0.470213383,
-0.592352509,
0.302107096,
0.614008665,
-0.227935761,
0.038181543,
0.289819777,
0.620376587,
1.024261951,
-0.815604627,
-0.366469741,
0.350544363,
0.891284227,
0.870207310,
0.840814471,
0.266673744,
-0.869582653,
0.113069288,
-0.625605345,
-0.659273803,
0.848354876,
0.719292998,
-1.030767798,
0.249829173,
-0.118073769,
-0.164561152,
-0.457756877,
0.384556174,
-0.646454036,
0.327283114,
0.562883794,
0.909665406,
0.459398717,
-0.989735246,
-0.648696899,
0.499315023,
0.168451577,
-0.780084014,
-0.575819492,
0.956454694,
0.693286836,
-0.436025143,
-0.251684785,
-0.952598095,
0.000768123,
-0.753058910,
-0.676850796,
-0.055099607,
0.165513650,
-0.409530282,
0.569879830,
-0.608539104,
0.887701035,
0.698604524,
-0.843282938,
-0.278565079,
0.021152258,
0.094837777,
0.297024637,
0.366528958,
0.079355597,
-0.487928748,
0.484838545,
-0.959248900,
-0.592706680,
-0.285235852,
-0.487113357,
-0.349833369,
-0.819621682,
-0.212715149,
0.233123243,
-0.651465774,
-0.051319361,
0.737707078,
-0.102800250,
-0.000604283,
-0.121462375,
0.178277075,
0.654078662,
0.966328681,
0.656067908,
0.925633907,
-0.072321653,
-0.898321509,
-0.474077225,
0.700470328,
-0.040797438,
-0.497046351,
-0.766311765,
-0.935852051,
-0.721201181,
-0.123162284,
0.524206161,
0.517764032,
-0.964431882,
0.602161229,
-0.782509446,
-0.211410284,
-0.405472636,
-0.231744573,
-0.115064658,
-0.897349954,
-0.863437891,
-0.080431625,
0.174963742,
-0.454274893,
0.395027190,
-0.900058389,
-0.003268951,
0.859985828,
-0.407891989,
0.881268024,
0.378971785,
-0.902460933,
0.610528708,
-0.003478357,
-0.446406841,
0.771378458,
-0.808095217,
0.354994237,
-0.251026034,
0.691871822,
0.251761496,
0.497828543,
0.373608291,
-0.240474701,
-0.210305452,
-0.824081421,
0.522683382,
0.771527410,
0.702743828,
-0.469899595,
0.037920002,
-0.704934120,
-0.550484180,
-0.582705498,
0.319610029,
-0.595913172,
-0.021817207,
0.025539313,0.094860084,-0.075592004,-0.068651222,-0.058066156,0.120790817,-0.035946500,0.121951126,0.036160756,0.049030315,-0.000744402,-0.007111951,0.012546635,-0.026862459,0.004498289,0.012759305,-0.044419102,-0.008000637,-0.089297615,-0.176189527,0.024263801,0.143956363,0.036123704,0.037787240,-0.086660996,0.049537789,-0.025394257,-0.028386427,-0.033551633,-0.014808739,0.001093829,0.122991234,0.012483883,0.089569286,0.042473603,-0.063221395,0.018500594,-0.024166724,-0.006115692,0.059610568,0.055290282,0.069758698,-0.008871865,0.000160086,0.051482357,-0.096709214,0.103596620,-0.037188489,0.001378250,-0.017001677,-0.052667297,0.079833053,0.142205805,-0.005153917,-0.026784699,-0.036983885,-0.074415140,0.045139398,-0.048026372,-0.066734031,-0.012719640,0.118048713,0.052957367,0.076752186,0.090230085,-0.241760358,-0.027944816,0.058877941,0.082203470,0.077165194,-0.062078912,-0.047007740,-0.068076760,0.058863260,-0.056118250,-0.055750683,0.160637379,-0.064941123,0.011327261,0.028649354,-0.223239422,-0.020822855,-0.049218167,-0.063913994,0.043361835,0.094195828,-0.033524062,0.029455543,-0.022867620,-0.039560840,-0.034173444,0.063807078,0.132206872,0.042929348,-0.022490216,-0.061642982,0.069154479,-0.046631478,0.040966548,-0.033625353,
-0.027426224,
