// Neural Network File Format by Kyle Julian, Stanford 2016
2,1,1,100,
1,100,1,
0,
0.0,
0.0,
0.0,0.0,
0.0,0.0,
0.062825888,
0.589574158,
-0.823045135,
-0.735939026,
-0.385154366,
0.322965324,
-0.019813180,
0.878726482,
-0.088744044,
0.332676530,
-0.302213073,
-0.218136519,
-0.955348492,
-0.697163463,
-0.352884442,
0.037043571,
0.364797622,
0.565297782,
-0.770788372,
-0.453847587,
0.422042847,
0.882717609,
-0.205800176,
0.827914536,
-0.161183357,
0.105814099,
0.868100464,
-0.927670360,
-0.629537940,
-0.253165245,
-0.389799953,
0.916851282,
-0.648179650,
-0.460332870,
-0.650718987,
-0.936560988,
-0.603383005,
0.821356773,
0.413323432,
0.542987764,
0.108552590,
-0.463586152,
0.138257474,
-0.933694720,
-0.722566247,
-0.515529990,
0.683590114,
0.546711326,
-0.443495035,
-0.036082387,
0.639560699,
1.106346607,
0.462525636,
0.106640503,
0.632228494,
-0.588802338,
0.143478394,
-0.775305510,
-0.693086147,
-0.516583562,
0.413120419,
0.470218152,
-0.592352509,
0.302107096,
0.614032507,
-0.227908954,
0.038181543,
0.289818585,
0.620376587,
1.024261951,
-0.815603554,
-0.366469741,
0.350545019,
0.891281843,
0.870207310,
0.840814471,
0.266672581,
-0.869582653,
0.113068067,
-0.625605345,
-0.659273803,
0.848321497,
0.719292998,
-1.030720353,
0.249827921,
-0.118074574,
-0.164561152,
-0.457756877,
0.384556174,
-0.646447718,
0.327283144,
0.562883198,
0.909667790,
0.459395140,
-0.989735246,
-0.648696899,
0.499315023,
0.168452173,
-0.780084014,
-0.575819492,
0.956452310,
0.693285346,
-0.436025143,
-0.251684785,
-0.952598095,
0.000766649,
-0.753058910,
-0.676984310,
-0.055099607,
0.165511474,
-0.409530282,
0.569879830,
-0.608539104,
0.887703419,
0.698604524,
-0.843282938,
-0.278587729,
0.021152418,
0.094887517,
0.297004461,
0.366525322,
0.079354331,
-0.487928748,
0.484835804,
-0.959248900,
-0.592706680,
-0.285226315,
-0.487113357,
-0.349833369,
-0.819621682,
-0.212715149,
0.233122006,
-0.651465774,
-0.051319361,
0.737707078,
-0.102800250,
-0.000604283,
-0.121506006,
0.178277075,
0.654076278,
0.966326952,
0.656067908,
0.925633907,
-0.072321653,
-0.898321509,
-0.474077225,
0.700469077,
-0.040790915,
-0.497046351,
-0.766311765,
-0.935852051,
-0.721226275,
-0.123131178,
0.524206161,
0.517764032,
-0.964431882,
0.602161229,
-0.782509446,
-0.211410284,
-0.405472636,
-0.231769338,
-0.115072466,
-0.897349954,
-0.863437891,
-0.080319159,
0.175011098,
-0.454274893,
0.395025969,
-0.900058389,
-0.003205087,
0.859988213,
-0.407891989,
0.881268024,
0.378969818,
-0.902460933,
0.610528708,
-0.003348867,
-0.446406841,
0.771376073,
-0.808095217,
0.355004758,
-0.251103520,
0.691871822,
0.251745343,
0.497827053,
0.373607099,
-0.240474701,
-0.210305452,
-0.824081421,
0.522715986,
0.771527410,
0.702741444,
-0.469889045,
0.037915371,
-0.704934120,
-0.550484180,
-0.582705498,
0.319611102,
-0.595913172,
-0.021817207,
0.025538325,0.094859146,-0.075592004,-0.068651222,-0.058066156,0.120789871,-0.035946500,0.121869251,0.036160756,0.049029339,-0.000744402,-0.007112882,0.012546635,-0.026863441,0.004497187,0.012759305,-0.044426840,-0.008001360,-0.089203916,-0.176160768,0.024262894,0.143955618,0.036123704,0.037786324,-0.086660996,0.049537789,-0.025404377,-0.028386427,-0.033551633,-0.014808739,0.001093829,0.122990333,0.012483883,0.089569286,0.042472415,-0.063221395,0.018500594,-0.024166899,-0.006116480,0.059609633,0.055289313,0.069757521,-0.008872766,0.000160086,0.051482357,-0.096709214,0.103595696,-0.037190959,0.001378250,-0.017001677,-0.052667297,0.079950809,0.142212570,-0.005154800,-0.026785538,-0.036983885,-0.074416049,0.045139398,-0.048026372,-0.066734031,-0.012722543,0.118059881,0.052957367,0.076752186,0.090232864,-0.241784081,-0.027944816,0.058876988,0.082203470,0.077164240,-0.062079869,-0.047007740,-0.068077669,0.058862373,-0.056118250,-0.055751521,0.160631448,-0.064941123,0.011326333,0.028649354,-0.223251253,-0.020823985,-0.049219020,-0.063838981,0.043360863,0.094194688,-0.033524062,0.029455543,-0.022867620,-0.039569944,-0.034174323,0.063806139,0.132177681,0.042928416,-0.022490216,-0.061642982,0.069154479,-0.046632309,0.040966548,-0.033625353,
-0.027427170,
