// Neural Network File Format by Kyle Julian, Stanford 2016
2,1,1,100,
1,100,1,
0,
0.0,
0.0,
0.0,0.0,
0.0,0.0,
0.062825635,
0.589574158,
-0.823045135,
-0.735939026,
-0.385154366,
0.322965086,
-0.019813180,
0.878702641,
-0.088744044,
0.332676291,
-0.302213073,
-0.218136400,
-0.955348492,
-0.697163165,
-0.352884442,
0.037043571,
0.364793569,
0.565297782,
-0.770754755,
-0.453844517,
0.422042370,
0.882717609,
-0.205800176,
0.827914059,
-0.161183357,
0.105814099,
0.868101895,
-0.927670360,
-0.629537940,
-0.253165245,
-0.389799953,
0.916851282,
-0.648179650,
-0.460332870,
-0.650718987,
-0.936560988,
-0.603383005,
0.821354866,
0.413323432,
0.542987704,
0.108552404,
-0.463586301,
0.138257474,
-0.933694720,
-0.722566247,
-0.515529990,
0.683590114,
0.546711802,
-0.443495035,
-0.036082387,
0.639560699,
1.106348515,
0.462528497,
0.106640562,
0.632228494,
-0.588802338,
0.143478513,
-0.775305510,
-0.693086147,
-0.516583562,
0.413116843,
0.470219105,
-0.592352509,
0.302107096,
0.614037216,
-0.227902263,
0.038181543,
0.289818347,
0.620376587,
1.024261951,
-0.815603495,
-0.366469741,
0.350545079,
0.891281366,
0.870207310,
0.840814471,
0.266672343,
-0.869582653,
0.113067843,
-0.625605345,
-0.659272075,
0.848314822,
0.719292998,
-1.030711770,
0.249827683,
-0.118074723,
-0.164561152,
-0.457756877,
0.384556174,
-0.646447241,
0.327283144,
0.562883139,
0.909668267,
0.459394485,
-0.989735246,
-0.648696899,
0.499315023,
0.168452293,
-0.780084014,
-0.575819492,
0.956451833,
0.693285346,
-0.436025143,
-0.251684785,
-0.952598095,
0.000766389,
-0.753058910,
-0.677011132,
-0.055099607,
0.165511101,
-0.409530282,
0.569879830,
-0.608539104,
0.887703836,
0.698604524,
-0.843282938,
-0.278592259,
0.021152448,
0.094897494,
0.297000408,
0.366524696,
0.079354100,
-0.487928748,
0.484835327,
-0.959248900,
-0.592706680,
-0.285224408,
-0.487113357,
-0.349833369,
-0.819621682,
-0.212715149,
0.233121768,
-0.651465774,
-0.051319361,
0.737707078,
-0.102800250,
-0.000604283,
-0.121514767,
0.178277075,
0.654075861,
0.966326833,
0.656067908,
0.925633907,
-0.072321653,
-0.898321509,
-0.474077225,
0.700469077,
-0.040789809,
-0.497046351,
-0.766311765,
-0.935852051,
-0.721231043,
-0.123124942,
0.524206161,
0.517764032,
-0.964431882,
0.602161229,
-0.782509446,
-0.211410284,
-0.405472636,
-0.231774375,
-0.115074016,
-0.897349954,
-0.863437891,
-0.080297083,
0.175021246,
-0.454274893,
0.395025730,
-0.900058389,
-0.003192555,
0.859988570,
-0.407891989,
0.881268024,
0.378969580,
-0.902460933,
0.610528708,
-0.003324256,
-0.446406841,
0.771375716,
-0.808095217,
0.355007291,
-0.251119018,
0.691871822,
0.251742005,
0.497826815,
0.373606861,
-0.240474701,
-0.210305452,
-0.824081421,
0.522721827,
0.771527410,
0.702741086,
-0.469886750,
0.037914556,
-0.704934120,
-0.550484180,
-0.582705498,
0.319611192,
-0.595913172,
-0.021817207,
0.025538152,0.094858974,-0.075592004,-0.068651222,-0.058066156,0.120789692,-0.035946500,0.121852547,0.036160756,0.049029160,-0.000744402,-0.007113044,0.012546635,-0.026863607,0.004496996,0.012759305,-0.044428419,-0.008001493,-0.089185871,-0.176155061,0.024262730,0.143955499,0.036123704,0.037786160,-0.086660996,0.049537789,-0.025406426,-0.028386427,-0.033551633,-0.014808739,0.001093829,0.122990169,0.012483883,0.089569286,0.042472221,-0.063221395,0.018500594,-0.024166947,-0.006116624,0.059609462,0.055289142,0.069757335,-0.008872926,0.000160086,0.051482357,-0.096709214,0.103595525,-0.037191465,0.001378250,-0.017001677,-0.052667297,0.079973847,0.142213881,-0.005154957,-0.026785688,-0.036983885,-0.074416213,0.045139398,-0.048026372,-0.066734031,-0.012723167,0.118062079,0.052957367,0.076752186,0.090233400,-0.241788685,-0.027944816,0.058876816,0.082203470,0.077164061,-0.062080033,-0.047007740,-0.068077832,0.058862209,-0.056118250,-0.055751674,0.160630345,-0.064941123,0.011326170,0.028649354,-0.223253757,-0.020824235,-0.049219172,-0.063824311,0.043360692,0.094194494,-0.033524062,0.029455543,-0.022867620,-0.039571777,-0.034174483,0.063805968,0.132171258,0.042928245,-0.022490216,-0.061642982,0.069154479,-0.046632454,0.040966548,-0.033625353,
-0.027427338,
