// Neural Network File Format by Kyle Julian, Stanford 2016
2,1,1,100,
1,100,1,
0,
0.0,
0.0,
0.0,0.0,
0.0,0.0,
0.062822297,
0.589574158,
-0.823045135,
-0.735939026,
-0.385154366,
0.322961658,
-0.019813180,
0.878390610,
-0.088744044,
0.332672864,
-0.302213073,
-0.218134820,
-0.955348492,
-0.697162211,
-0.352884442,
0.037043571,
0.364731014,
0.565297782,
-0.770354271,
-0.453796387,
0.422035575,
0.882717609,
-0.205800176,
0.827907205,
-0.161183357,
0.105814099,
0.868122756,
-0.927670360,
-0.629537940,
-0.253165245,
-0.389799953,
0.916851282,
-0.648179650,
-0.460332870,
-0.650718987,
-0.936560988,
-0.603383005,
0.821327448,
0.413323432,
0.542987645,
0.108549900,
-0.463586837,
0.138257474,
-0.933694720,
-0.722566247,
-0.515529990,
0.683590114,
0.546718657,
-0.443495035,
-0.036082387,
0.639560699,
1.106377602,
0.462564915,
0.106641136,
0.632228494,
-0.588802338,
0.143480226,
-0.775305510,
-0.693086147,
-0.516583562,
0.413060814,
0.470230550,
-0.592352509,
0.302107096,
0.614099085,
-0.227840841,
0.038181543,
0.289814919,
0.620376587,
1.024261951,
-0.815603375,
-0.366469741,
0.350545168,
0.891276479,
0.870207310,
0.840814471,
0.266669035,
-0.869582653,
0.113065004,
-0.625605345,
-0.659263372,
0.848218858,
0.719292998,
-1.030604362,
0.249824286,
-0.118076526,
-0.164561152,
-0.457756877,
0.384556174,
-0.646433294,
0.327283144,
0.562883079,
0.909668565,
0.459386528,
-0.989735246,
-0.648696899,
0.499315023,
0.168454006,
-0.780084014,
-0.575819492,
0.956444979,
0.693283975,
-0.436025143,
-0.251684785,
-0.952598095,
0.000762632,
-0.753058910,
-0.677366018,
-0.055099607,
0.165505588,
-0.409530282,
0.569879830,
-0.608539104,
0.887709856,
0.698604524,
-0.843282938,
-0.278664261,
0.021152876,
0.095000982,
0.296944648,
0.366515398,
0.079350837,
-0.487928748,
0.484828472,
-0.959248900,
-0.592706680,
-0.285192251,
-0.487113357,
-0.349833369,
-0.819621682,
-0.212715149,
0.233118340,
-0.651465774,
-0.051319361,
0.737707078,
-0.102800250,
-0.000604283,
-0.121642075,
0.178277075,
0.654069901,
0.966324806,
0.656067908,
0.925633907,
-0.072321653,
-0.898321509,
-0.474077225,
0.700468361,
-0.040780962,
-0.497046351,
-0.766311765,
-0.935852051,
-0.721291840,
-0.123043790,
0.524206161,
0.517764032,
-0.964431882,
0.602161229,
-0.782509446,
-0.211410284,
-0.405472636,
-0.231850818,
-0.115097299,
-0.897349954,
-0.863437891,
-0.079993598,
0.175142184,
-0.454274893,
0.395022303,
-0.900058389,
-0.003020598,
0.859993935,
-0.407891989,
0.881268024,
0.378965408,
-0.902460933,
0.610528708,
-0.002997079,
-0.446406841,
0.771370709,
-0.808095217,
0.355042875,
-0.251346916,
0.691871822,
0.251692146,
0.497823387,
0.373603433,
-0.240474701,
-0.210305452,
-0.824081421,
0.522815049,
0.771527410,
0.702735603,
-0.469868243,
0.037902761,
-0.704934120,
-0.550484180,
-0.582705498,
0.319612563,
-0.595913172,
-0.021817207,
0.025535634,0.094856568,-0.075592004,-0.068651222,-0.058066156,0.120787293,-0.035946500,0.121634968,0.036160756,0.049026717,-0.000744402,-0.007115438,0.012546635,-0.026866175,0.004494137,0.012759305,-0.044448704,-0.008003259,-0.088955849,-0.176074833,0.024260446,0.143953785,0.036123704,0.037783895,-0.086660996,0.049537789,-0.025436839,-0.028386427,-0.033551633,-0.014808739,0.001093829,0.122987933,0.012483883,0.089569286,0.042469110,-0.063221395,0.018500594,-0.024168266,-0.006118591,0.059607092,0.055286653,0.069754280,-0.008875220,0.000160086,0.051482357,-0.096709214,0.103593133,-0.037199344,0.001378250,-0.017001677,-0.052667297,0.080303453,0.142230690,-0.005157194,-0.026787803,-0.036983885,-0.074418537,0.045139398,-0.048026372,-0.066734031,-0.012732174,0.118091688,0.052957367,0.076752186,0.090240248,-0.241852641,-0.027944816,0.058874376,0.082203470,0.077161588,-0.062082618,-0.047007740,-0.068080172,0.058860008,-0.056118250,-0.055753760,0.160615608,-0.064941123,0.011323811,0.028649354,-0.223291934,-0.020828741,-0.049221303,-0.063628584,0.043358225,0.094191603,-0.033524062,0.029455543,-0.022867620,-0.039599486,-0.034176696,0.063803554,0.132081047,0.042925958,-0.022490216,-0.061642982,0.069154479,-0.046634540,0.040966548,-0.033625353,
-0.027429737,
