// Neural Network File Format by Kyle Julian, Stanford 2016
2,1,1,100,
1,100,1,
0,
0.0,
0.0,
0.0,0.0,
0.0,0.0,
0.062822208,
0.589574158,
-0.823045135,
-0.735939026,
-0.385154366,
0.322961569,
-0.019813180,
0.878383398,
-0.088744044,
0.332672775,
-0.302213073,
-0.218134791,
-0.955348492,
-0.697162151,
-0.352884442,
0.037043571,
0.364729315,
0.565297782,
-0.770345569,
-0.453795284,
0.422035426,
0.882717609,
-0.205800176,
0.827907026,
-0.161183357,
0.105814099,
0.868123472,
-0.927670360,
-0.629537940,
-0.253165245,
-0.389799953,
0.916851282,
-0.648179650,
-0.460332870,
-0.650718987,
-0.936560988,
-0.603383005,
0.821326733,
0.413323432,
0.542987645,
0.108549841,
-0.463586867,
0.138257474,
-0.933694720,
-0.722566247,
-0.515529990,
0.683590114,
0.546718836,
-0.443495035,
-0.036082387,
0.639560699,
1.106378317,
0.462565720,
0.106641144,
0.632228494,
-0.588802338,
0.143480271,
-0.775305510,
-0.693086147,
-0.516583562,
0.413059294,
0.470230818,
-0.592352509,
0.302107096,
0.614100635,
-0.227839634,
0.038181543,
0.289814830,
0.620376587,
1.024261951,
-0.815603375,
-0.366469741,
0.350545168,
0.891276419,
0.870207310,
0.840814471,
0.266668975,
-0.869582653,
0.113064930,
-0.625605345,
-0.659263194,
0.848216355,
0.719292998,
-1.030602217,
0.249824211,
-0.118076578,
-0.164561152,
-0.457756877,
0.384556174,
-0.646433234,
0.327283144,
0.562883079,
0.909668565,
0.459386319,
-0.989735246,
-0.648696899,
0.499315023,
0.168454051,
-0.780084014,
-0.575819492,
0.956444800,
0.693283916,
-0.436025143,
-0.251684785,
-0.952598095,
0.000762539,
-0.753058910,
-0.677374244,
-0.055099607,
0.165505439,
-0.409530282,
0.569879830,
-0.608539104,
0.887709975,
0.698604524,
-0.843282938,
-0.278666228,
0.021152887,
0.095002890,
0.296943188,
0.366515189,
0.079350762,
-0.487928748,
0.484828293,
-0.959248900,
-0.592706680,
-0.285191357,
-0.487113357,
-0.349833369,
-0.819621682,
-0.212715149,
0.233118266,
-0.651465774,
-0.051319361,
0.737707078,
-0.102800250,
-0.000604283,
-0.121645436,
0.178277075,
0.654069781,
0.966324747,
0.656067908,
0.925633907,
-0.072321653,
-0.898321509,
-0.474077225,
0.700468302,
-0.040780898,
-0.497046351,
-0.766311765,
-0.935852051,
-0.721293271,
-0.123041980,
0.524206161,
0.517764032,
-0.964431882,
0.602161229,
-0.782509446,
-0.211410284,
-0.405472636,
-0.231852949,
-0.115097903,
-0.897349954,
-0.863437891,
-0.079985999,
0.175145075,
-0.454274893,
0.395022213,
-0.900058389,
-0.003016315,
0.859993994,
-0.407891989,
0.881268024,
0.378965288,
-0.902460933,
0.610528708,
-0.002988863,
-0.446406841,
0.771370649,
-0.808095217,
0.355043948,
-0.251352996,
0.691871822,
0.251690716,
0.497823298,
0.373603344,
-0.240474701,
-0.210305452,
-0.824081421,
0.522817314,
0.771527410,
0.702735543,
-0.469867617,
0.037902474,
-0.704934120,
-0.550484180,
-0.582705498,
0.319612592,
-0.595913172,
-0.021817207,
0.025535572,0.094856508,-0.075592004,-0.068651222,-0.058066156,0.120787233,-0.035946500,0.121629290,0.036160756,0.049026661,-0.000744402,-0.007115497,0.012546635,-0.026866239,0.004494067,0.012759305,-0.044449229,-0.008003303,-0.088950515,-0.176072821,0.024260391,0.143953741,0.036123704,0.037783839,-0.086660996,0.049537789,-0.025437661,-0.028386427,-0.033551633,-0.014808739,0.001093829,0.122987881,0.012483883,0.089569286,0.042469032,-0.063221395,0.018500594,-0.024168318,-0.006118640,0.059607036,0.055286590,0.069754206,-0.008875277,0.000160086,0.051482357,-0.096709214,0.103593081,-0.037199568,0.001378250,-0.017001677,-0.052667297,0.080311723,0.142231077,-0.005157249,-0.026787855,-0.036983885,-0.074418589,0.045139398,-0.048026372,-0.066734031,-0.012732438,0.118092403,0.052957367,0.076752186,0.090240397,-0.241854295,-0.027944816,0.058874320,0.082203470,0.077161528,-0.062082686,-0.047007740,-0.068080224,0.058859952,-0.056118250,-0.055753816,0.160615250,-0.064941123,0.011323754,0.028649354,-0.223293096,-0.020828882,-0.049221359,-0.063623808,0.043358166,0.094191529,-0.033524062,0.029455543,-0.022867620,-0.039600246,-0.034176752,0.063803494,0.132078394,0.042925902,-0.022490216,-0.061642982,0.069154479,-0.046634596,0.040966548,-0.033625353,
-0.027429797,
