// Neural Network File Format by Kyle Julian, Stanford 2016
2,1,1,100,
1,100,1,
0,
0.0,
0.0,
0.0,0.0,
0.0,0.0,
0.062817320,
0.589574158,
-0.823045135,
-0.735939026,
-0.385154366,
0.322956562,
-0.019813180,
0.878081679,
-0.088744044,
0.332667768,
-0.302213073,
-0.218132704,
-0.955348492,
-0.697159886,
-0.352884442,
0.037043571,
0.364632934,
0.565297782,
-0.769958854,
-0.453730553,
0.422025621,
0.882717609,
-0.205800176,
0.827897012,
-0.161183357,
0.105814099,
0.868163526,
-0.927670360,
-0.629537940,
-0.253165245,
-0.389799953,
0.916851282,
-0.648179650,
-0.460332870,
-0.650718987,
-0.936560988,
-0.603383005,
0.821286678,
0.413323432,
0.542987108,
0.108546279,
-0.463588089,
0.138257474,
-0.933694720,
-0.722566247,
-0.515529990,
0.683590114,
0.546728849,
-0.443495035,
-0.036082387,
0.639560699,
1.106438041,
0.462604344,
0.106641904,
0.632228494,
-0.588802338,
0.143482774,
-0.775305510,
-0.693086147,
-0.516583562,
0.412964940,
0.470245332,
-0.592352509,
0.302107096,
0.614177942,
-0.227821589,
0.038181543,
0.289809823,
0.620376587,
1.024261951,
-0.815602720,
-0.366469741,
0.350545555,
0.891270161,
0.870207310,
0.840814471,
0.266664028,
-0.869582653,
0.113060720,
-0.625605345,
-0.659249604,
0.848070562,
0.719292998,
-1.030486584,
0.249819338,
-0.118079327,
-0.164561152,
-0.457756877,
0.384556174,
-0.646441281,
0.327283144,
0.562883019,
0.909661591,
0.459374428,
-0.989735246,
-0.648696899,
0.499315023,
0.168456554,
-0.780084014,
-0.575819492,
0.956434786,
0.693281591,
-0.436025143,
-0.251684785,
-0.952598095,
0.000757107,
-0.753058910,
-0.677710891,
-0.055099607,
0.165497348,
-0.409530282,
0.569879830,
-0.608539104,
0.887717724,
0.698604524,
-0.843282938,
-0.278776526,
0.021153511,
0.095065907,
0.296867430,
0.366502285,
0.079346098,
-0.487928748,
0.484818041,
-0.959248900,
-0.592706680,
-0.285133272,
-0.487113357,
-0.349833369,
-0.819621682,
-0.212715149,
0.233113334,
-0.651465774,
-0.051319361,
0.737707078,
-0.102800250,
-0.000604283,
-0.121837243,
0.178277075,
0.654062033,
0.966321528,
0.656067908,
0.925633907,
-0.072321653,
-0.898321509,
-0.474077225,
0.700466573,
-0.040789053,
-0.497046351,
-0.766311765,
-0.935852051,
-0.721358478,
-0.122956730,
0.524206161,
0.517764032,
-0.964431882,
0.602161229,
-0.782509446,
-0.211410284,
-0.405472636,
-0.231982380,
-0.115127452,
-0.897349954,
-0.863437891,
-0.079589471,
0.175264284,
-0.454274893,
0.395017207,
-0.900058389,
-0.002786707,
0.860000908,
-0.407891989,
0.881268024,
0.378959090,
-0.902460933,
0.610528708,
-0.002545663,
-0.446406841,
0.771364570,
-0.808095217,
0.355104208,
-0.251700550,
0.691871822,
0.251617968,
0.497818291,
0.373598337,
-0.240474701,
-0.210305452,
-0.824081421,
0.522938967,
0.771527410,
0.702728450,
-0.469846368,
0.037885435,
-0.704934120,
-0.550484180,
-0.582705498,
0.319614679,
-0.595913172,
-0.021817207,
0.025531942,0.094853103,-0.075592004,-0.068651222,-0.058066156,0.120783813,-0.035946500,0.121351317,0.036160756,0.049023155,-0.000744402,-0.007118960,0.012546635,-0.026869940,0.004489946,0.012759305,-0.044474453,-0.008005870,-0.088691555,-0.175964132,0.024257075,0.143951222,0.036123704,0.037780549,-0.086660996,0.049537789,-0.025485916,-0.028386427,-0.033551633,-0.014808739,0.001093829,0.122984700,0.012483883,0.089569286,0.042464573,-0.063221395,0.018500594,-0.024172384,-0.006121487,0.059603624,0.055283029,0.069749817,-0.008878594,0.000160086,0.051482357,-0.096709214,0.103589699,-0.037213478,0.001378250,-0.017001677,-0.052667297,0.080758959,0.142248243,-0.005160486,-0.026790919,-0.036983885,-0.074421830,0.045139398,-0.048026372,-0.066734031,-0.012748060,0.118128948,0.052957367,0.076752186,0.090247154,-0.241938099,-0.027944816,0.058870804,0.082203470,0.077158026,-0.062086411,-0.047007740,-0.068083473,0.058856748,-0.056118250,-0.055756841,0.160596013,-0.064941123,0.011320340,0.028649354,-0.223357856,-0.020839008,-0.049224470,-0.063377596,0.043354616,0.094187267,-0.033524062,0.029455543,-0.022867620,-0.039644241,-0.034179989,0.063800082,0.131923437,0.042922605,-0.022490216,-0.061642982,0.069154479,-0.046637613,0.040966548,-0.033625353,
-0.027433282,
