// Neural Network File Format by Kyle Julian, Stanford 2016
2,1,1,100,
1,100,1,
0,
0.0,
0.0,
0.0,0.0,
0.0,0.0,
0.062814660,
0.589574158,
-0.823045135,
-0.735939026,
-0.385154366,
0.322954059,
-0.019813180,
0.877995372,
-0.088744044,
0.332665026,
-0.302213073,
-0.218131498,
-0.955348492,
-0.697157800,
-0.352884442,
0.037043571,
0.364585310,
0.565297782,
-0.769855201,
-0.453699023,
0.422020674,
0.882717609,
-0.205800176,
0.827892005,
-0.161183357,
0.105814099,
0.868184924,
-0.927670360,
-0.629537940,
-0.253165245,
-0.389799953,
0.916851282,
-0.648179650,
-0.460332870,
-0.650718987,
-0.936560988,
-0.603383005,
0.821266651,
0.413323432,
0.542985976,
0.108544342,
-0.463589251,
0.138257548,
-0.933694720,
-0.722566247,
-0.515529990,
0.683590114,
0.546733618,
-0.443495035,
-0.036082387,
0.639560699,
1.106468081,
0.462619364,
0.106642440,
0.632228494,
-0.588802338,
0.143484026,
-0.775305510,
-0.693086147,
-0.516583562,
0.412910640,
0.470250368,
-0.592352509,
0.302107096,
0.614212990,
-0.227843955,
0.038181543,
0.289807320,
0.620376587,
1.024261951,
-0.815601587,
-0.366469741,
0.350546241,
0.891265869,
0.870207310,
0.840814471,
0.266661525,
-0.869582653,
0.113058463,
-0.625605345,
-0.659250200,
0.847995460,
0.719292998,
-1.030441403,
0.249816865,
-0.118080825,
-0.164561152,
-0.457756877,
0.384556174,
-0.646457970,
0.327283144,
0.562882483,
0.909660637,
0.459367871,
-0.989735246,
-0.648696899,
0.499315023,
0.168457806,
-0.780084014,
-0.575819492,
0.956429780,
0.693279147,
-0.436025143,
-0.251684785,
-0.952598095,
0.000754168,
-0.753058910,
-0.677803814,
-0.055099607,
0.165492967,
-0.409530282,
0.569879830,
-0.608539104,
0.887722313,
0.698604524,
-0.843282938,
-0.278831601,
0.021153837,
0.095050126,
0.296833396,
0.366495222,
0.079343580,
-0.487928748,
0.484812558,
-0.959248900,
-0.592706680,
-0.285099626,
-0.487113357,
-0.349833369,
-0.819621682,
-0.212715149,
0.233110830,
-0.651465774,
-0.051319361,
0.737707078,
-0.102800250,
-0.000604283,
-0.121936321,
0.178277075,
0.654057443,
0.966318429,
0.656067908,
0.925633907,
-0.072321653,
-0.898321509,
-0.474077225,
0.700464666,
-0.040801376,
-0.497046351,
-0.766311765,
-0.935852051,
-0.721383214,
-0.122921586,
0.524206161,
0.517764032,
-0.964431882,
0.602161229,
-0.782509446,
-0.211410284,
-0.405472636,
-0.232056901,
-0.115140691,
-0.897349954,
-0.863437891,
-0.079404451,
0.175298393,
-0.454274893,
0.395014703,
-0.900058389,
-0.002683186,
0.860005319,
-0.407891989,
0.881268024,
0.378955334,
-0.902460933,
0.610528708,
-0.002330313,
-0.446406841,
0.771360457,
-0.808095217,
0.355133593,
-0.251879722,
0.691871822,
0.251583278,
0.497815520,
0.373595834,
-0.240474701,
-0.210305452,
-0.824081421,
0.522991419,
0.771527410,
0.702724040,
-0.469832659,
0.037876222,
-0.704934120,
-0.550484180,
-0.582705498,
0.319616377,
-0.595913172,
-0.021817207,
0.025529981,0.094851263,-0.075592004,-0.068651222,-0.058066156,0.120781951,-0.035946500,0.121234372,0.036160756,0.049021251,-0.000744402,-0.007120828,0.012546635,-0.026871944,0.004487718,0.012759305,-0.044484820,-0.008007264,-0.088589728,-0.175914317,0.024255287,0.143949851,0.036123704,0.037778769,-0.086660996,0.049537789,-0.025511686,-0.028386427,-0.033551633,-0.014808739,0.001093829,0.122982964,0.012483883,0.089569286,0.042462163,-0.063221395,0.018500594,-0.024175398,-0.006123030,0.059601787,0.055281088,0.069747448,-0.008880389,0.000160086,0.051482357,-0.096709214,0.103587881,-0.037221435,0.001378250,-0.017001677,-0.052667297,0.080965012,0.142253608,-0.005162237,-0.026792575,-0.036983885,-0.074423596,0.045139398,-0.048026372,-0.066734031,-0.012756842,0.118144363,0.052957367,0.076752186,0.090249240,-0.241975576,-0.027944816,0.058868915,0.082203470,0.077156171,-0.062088415,-0.047007740,-0.068085238,0.058854997,-0.056118250,-0.055758484,0.160586923,-0.064941123,0.011318497,0.028649354,-0.223390937,-0.020845659,-0.049226146,-0.063270822,0.043352697,0.094184972,-0.033524062,0.029455543,-0.022867620,-0.039667435,-0.034181748,0.063798226,0.131843597,0.042920813,-0.022490216,-0.061642982,0.069154479,-0.046639256,0.040966548,-0.033625353,
-0.027435170,
