// Neural Network File Format by Kyle Julian, Stanford 2016
2,1,1,100,
1,100,1,
0,
0.0,
0.0,
0.0,0.0,
0.0,0.0,
0.062813088,
0.589574158,
-0.823045135,
-0.735939026,
-0.385154366,
0.322952569,
-0.019813180,
0.877958536,
-0.088744044,
0.332663268,
-0.302213073,
-0.218130797,
-0.955348492,
-0.697156668,
-0.352884442,
0.037043571,
0.364556998,
0.565297782,
-0.769816041,
-0.453681558,
0.422017694,
0.882717550,
-0.205800176,
0.827889025,
-0.161183357,
0.105814099,
0.868199825,
-0.927670360,
-0.629537940,
-0.253165245,
-0.389799953,
0.916851223,
-0.648179650,
-0.460332870,
-0.650718987,
-0.936560988,
-0.603383005,
0.821254730,
0.413323432,
0.542985141,
0.108543165,
-0.463589817,
0.138257653,
-0.933694720,
-0.722566247,
-0.515529990,
0.683590114,
0.546734452,
-0.443495035,
-0.036082387,
0.639560699,
1.106486201,
0.462626874,
0.106642723,
0.632228494,
-0.588802338,
0.143484771,
-0.775305510,
-0.693086147,
-0.516583562,
0.412875772,
0.470253348,
-0.592352509,
0.302107096,
0.614233851,
-0.227860495,
0.038181543,
0.289805830,
0.620376587,
1.024261951,
-0.815600753,
-0.366469741,
0.350546688,
0.891263485,
0.870207310,
0.840814471,
0.266660064,
-0.869582653,
0.113057159,
-0.625605345,
-0.659250557,
0.847950757,
0.719292998,
-1.030418992,
0.249815375,
-0.118081711,
-0.164561152,
-0.457756877,
0.384556174,
-0.646470129,
0.327283144,
0.562881827,
0.909660518,
0.459364146,
-0.989735246,
-0.648696899,
0.499315023,
0.168458551,
-0.780084014,
-0.575819492,
0.956426799,
0.693277955,
-0.436025143,
-0.251684785,
-0.952598095,
0.000752443,
-0.753058910,
-0.677843034,
-0.055099607,
0.165490419,
-0.409530282,
0.569879830,
-0.608539104,
0.887724936,
0.698604524,
-0.843282938,
-0.278863668,
0.021154033,
0.095028885,
0.296814322,
0.366491169,
0.079342067,
-0.487928748,
0.484809160,
-0.959248900,
-0.592706680,
-0.285077900,
-0.487113357,
-0.349833369,
-0.819621682,
-0.212715149,
0.233109325,
-0.651465774,
-0.051319361,
0.737707078,
-0.102800250,
-0.000604283,
-0.121996582,
0.178277075,
0.654054821,
0.966316938,
0.656067908,
0.925633907,
-0.072321653,
-0.898321509,
-0.474077225,
0.700463593,
-0.040811028,
-0.497046351,
-0.766311765,
-0.935852051,
-0.721393406,
-0.122903153,
0.524206161,
0.517764032,
-0.964431882,
0.602161229,
-0.782509446,
-0.211410284,
-0.405472636,
-0.232104629,
-0.115148090,
-0.897349954,
-0.863437891,
-0.079296790,
0.175315022,
-0.454274893,
0.395013213,
-0.900058389,
-0.002625203,
0.860007584,
-0.407891989,
0.881268024,
0.378953248,
-0.902460933,
0.610528708,
-0.002204420,
-0.446406841,
0.771358192,
-0.808095217,
0.355151355,
-0.251988083,
0.691871822,
0.251563430,
0.497813702,
0.373594344,
-0.240474701,
-0.210305452,
-0.824081421,
0.523021042,
0.771527410,
0.702721715,
-0.469823360,
0.037870817,
-0.704934120,
-0.550484180,
-0.582705498,
0.319617152,
-0.595913172,
-0.021817207,
0.025528826,0.094850175,-0.075592004,-0.068651222,-0.058066156,0.120780848,-0.035946500,0.121169381,0.036160756,0.049020134,-0.000744402,-0.007121923,0.012546635,-0.026873115,0.004486413,0.012759305,-0.044490561,-0.008008088,-0.088536076,-0.175886482,0.024254233,0.143948972,0.036123704,0.037777722,-0.086660996,0.049537789,-0.025527522,-0.028386427,-0.033551633,-0.014808739,0.001093829,0.122981988,0.012483883,0.089569286,0.042460747,-0.063221395,0.018500594,-0.024177447,-0.006123941,0.059600703,0.055279948,0.069746114,-0.008881442,0.000160086,0.051482357,-0.096709214,0.103586823,-0.037226405,0.001378250,-0.017001677,-0.052667297,0.081080474,0.142255872,-0.005163266,-0.026793554,-0.036983885,-0.074424617,0.045139398,-0.048026372,-0.066734031,-0.012762457,0.118152693,0.052957367,0.076752186,0.090250164,-0.241996571,-0.027944816,0.058867790,0.082203470,0.077155069,-0.062089588,-0.047007740,-0.068086267,0.058853973,-0.056118250,-0.055759463,0.160581738,-0.064941123,0.011317412,0.028649354,-0.223410860,-0.020850094,-0.049227133,-0.063212194,0.043351557,0.094183654,-0.033524062,0.029455543,-0.022867620,-0.039681517,-0.034182776,0.063797139,0.131795123,0.042919751,-0.022490216,-0.061642982,0.069154479,-0.046640232,0.040966548,-0.033625353,
-0.027436275,
