// Neural Network File Format by Kyle Julian, Stanford 2016
2,1,1,100,
1,100,1,
0,
0.0,
0.0,
0.0,0.0,
0.0,0.0,
0.062812470,
0.589574158,
-0.823045135,
-0.735939026,
-0.385154366,
0.322951972,
-0.019813180,
0.877945423,
-0.088744044,
0.332662612,
-0.302213073,
-0.218130499,
-0.955348492,
-0.697156250,
-0.352884442,
0.037043571,
0.364546001,
0.565297782,
-0.769804418,
-0.453674883,
0.422016501,
0.882717550,
-0.205800176,
0.827887833,
-0.161183357,
0.105814099,
0.868205786,
-0.927670360,
-0.629537940,
-0.253165245,
-0.389799953,
0.916851223,
-0.648179650,
-0.460332870,
-0.650718987,
-0.936560988,
-0.603383005,
0.821249962,
0.413323432,
0.542984962,
0.108542696,
-0.463590026,
0.138257682,
-0.933694720,
-0.722566247,
-0.515529990,
0.683590114,
0.546734452,
-0.443495035,
-0.036082387,
0.639560699,
1.106494427,
0.462629259,
0.106642820,
0.632228494,
-0.588802338,
0.143485069,
-0.775305510,
-0.693086147,
-0.516583562,
0.412861288,
0.470254540,
-0.592352509,
0.302107096,
0.614242077,
-0.227868006,
0.038181543,
0.289805233,
0.620376587,
1.024261951,
-0.815600574,
-0.366469741,
0.350546777,
0.891262650,
0.870207310,
0.840814471,
0.266659468,
-0.869582653,
0.113056645,
-0.625605345,
-0.659251392,
0.847932875,
0.719292998,
-1.030411839,
0.249814779,
-0.118082061,
-0.164561152,
-0.457756877,
0.384556174,
-0.646474957,
0.327283144,
0.562881708,
0.909660459,
0.459362686,
-0.989735246,
-0.648696899,
0.499315023,
0.168458849,
-0.780084014,
-0.575819492,
0.956425607,
0.693277478,
-0.436025143,
-0.251684785,
-0.952598095,
0.000751753,
-0.753058910,
-0.677856445,
-0.055099607,
0.165489405,
-0.409530282,
0.569879830,
-0.608539104,
0.887726128,
0.698604524,
-0.843282938,
-0.278876185,
0.021154111,
0.095018186,
0.296806902,
0.366489559,
0.079341471,
-0.487928748,
0.484807879,
-0.959248900,
-0.592706680,
-0.285068959,
-0.487113357,
-0.349833369,
-0.819621682,
-0.212715149,
0.233108729,
-0.651465774,
-0.051319361,
0.737707078,
-0.102800250,
-0.000604283,
-0.122020997,
0.178277075,
0.654053628,
0.966316342,
0.656067908,
0.925633907,
-0.072321653,
-0.898321509,
-0.474077225,
0.700463176,
-0.040815342,
-0.497046351,
-0.766311765,
-0.935852051,
-0.721396923,
-0.122896902,
0.524206161,
0.517764032,
-0.964431882,
0.602161229,
-0.782509446,
-0.211410284,
-0.405472636,
-0.232124507,
-0.115150876,
-0.897349954,
-0.863437891,
-0.079254344,
0.175320745,
-0.454274893,
0.395012617,
-0.900058389,
-0.002602942,
0.860008597,
-0.407891989,
0.881268024,
0.378952414,
-0.902460933,
0.610528708,
-0.002154826,
-0.446406841,
0.771357358,
-0.808095217,
0.355158359,
-0.252031595,
0.691871822,
0.251555085,
0.497813016,
0.373593748,
-0.240474701,
-0.210305452,
-0.824081421,
0.523033082,
0.771527410,
0.702720702,
-0.469819635,
0.037868660,
-0.704934120,
-0.550484180,
-0.582705498,
0.319617480,
-0.595913172,
-0.021817207,
0.025528368,0.094849743,-0.075592004,-0.068651222,-0.058066156,0.120780416,-0.035946500,0.121145137,0.036160756,0.049019698,-0.000744402,-0.007122364,0.012546635,-0.026873594,0.004485887,0.012759305,-0.044492695,-0.008008411,-0.088515781,-0.175875708,0.024253812,0.143948644,0.036123704,0.037777305,-0.086660996,0.049537789,-0.025533946,-0.028386427,-0.033551633,-0.014808739,0.001093829,0.122981593,0.012483883,0.089569286,0.042460173,-0.063221395,0.018500594,-0.024178306,-0.006124300,0.059600271,0.055279497,0.069745578,-0.008881861,0.000160086,0.051482357,-0.096709214,0.103586398,-0.037228432,0.001378250,-0.017001677,-0.052667297,0.081125207,0.142256632,-0.005163678,-0.026793940,-0.036983885,-0.074425019,0.045139398,-0.048026372,-0.066734031,-0.012764774,0.118155912,0.052957367,0.076752186,0.090250500,-0.242004648,-0.027944816,0.058867354,0.082203470,0.077154644,-0.062090077,-0.047007740,-0.068086669,0.058853563,-0.056118250,-0.055759847,0.160579726,-0.064941123,0.011316981,0.028649354,-0.223418891,-0.020851949,-0.049227528,-0.063189618,0.043351114,0.094183125,-0.033524062,0.029455543,-0.022867620,-0.039687194,-0.034183186,0.063796699,0.131775945,0.042919330,-0.022490216,-0.061642982,0.069154479,-0.046640616,0.040966548,-0.033625353,
-0.027436718,
