// Neural Network File Format by Kyle Julian, Stanford 2016
2,1,1,100,
1,100,1,
0,
0.0,
0.0,
0.0,0.0,
0.0,0.0,
0.062911219,
0.589730946,
-0.823045135,
-0.735939026,
-0.385154366,
0.323123709,
-0.019813180,
0.903595161,
-0.088744044,
0.332890446,
-0.302213073,
-0.218508412,
-0.955348492,
-0.697773685,
-0.353235502,
0.037043571,
0.359755512,
0.565344178,
-0.723793423,
-0.469720377,
0.422284955,
0.882887029,
-0.205800176,
0.828268667,
-0.161183357,
0.105814099,
0.866848708,
-0.927670360,
-0.629537940,
-0.253165245,
-0.389799953,
0.917020173,
-0.648179650,
-0.460332870,
-0.650890347,
-0.936560988,
-0.603298575,
0.821296121,
0.413340274,
0.543127975,
0.108625035,
-0.463612156,
0.138128303,
-0.933694720,
-0.722566247,
-0.515529990,
0.683749744,
0.546611810,
-0.443495035,
-0.036082387,
0.639560699,
1.134127042,
0.457792107,
0.106523281,
0.632236033,
-0.588802338,
0.143387967,
-0.775305510,
-0.693086147,
-0.516583562,
0.412526656,
0.471692242,
-0.592352509,
0.302107096,
0.615205431,
-0.231414895,
0.038181543,
0.289948882,
0.620376587,
1.024159897,
-0.815986533,
-0.366469741,
0.350458711,
0.891454508,
0.870207310,
0.840822795,
0.266535545,
-0.869582653,
0.112822489,
-0.625605345,
-0.669387015,
0.850044827,
0.719297965,
-1.016801168,
0.249948573,
-0.118033649,
-0.164561152,
-0.457756877,
0.384556174,
-0.672797303,
0.327176382,
0.563027395,
0.907525944,
0.459979889,
-0.989735246,
-0.648696899,
0.499315023,
0.168371081,
-0.780084014,
-0.575819492,
0.955833605,
0.692878191,
-0.436025143,
-0.251684785,
-0.952598095,
0.000400247,
-0.753058910,
-0.644319304,
-0.055099607,
0.164917453,
-0.409530282,
0.570125128,
-0.608539104,
0.888086109,
0.698204665,
-0.843282938,
-0.284594143,
0.021358879,
0.100659110,
0.297450806,
0.365634509,
0.078952196,
-0.487928748,
0.484070389,
-0.959248900,
-0.592706680,
-0.286539303,
-0.487113357,
-0.349833369,
-0.819621682,
-0.212715149,
0.232719477,
-0.651465774,
-0.051319361,
0.737381463,
-0.102800250,
-0.000424475,
-0.119319786,
0.178481974,
0.653613487,
0.965906006,
0.655797428,
0.925902143,
-0.072321653,
-0.898321509,
-0.474077225,
0.700065290,
-0.036030948,
-0.497046351,
-0.766311765,
-0.935852051,
-0.676731401,
-0.140463533,
0.524419209,
0.518069900,
-0.964431882,
0.602407277,
-0.782509446,
-0.211410284,
-0.405472636,
-0.232417063,
-0.114793826,
-0.897349954,
-0.863437891,
-0.089203113,
0.174442077,
-0.454274893,
0.394557176,
-0.900058389,
-0.023905744,
0.860396055,
-0.407891989,
0.881510185,
0.378454526,
-0.902460933,
0.610848735,
-0.035660482,
-0.446406841,
0.771098740,
-0.808095217,
0.344124642,
-0.245984792,
0.692192327,
0.253667291,
0.497311363,
0.373224247,
-0.240474701,
-0.210305452,
-0.824081421,
0.507267397,
0.771837142,
0.702295080,
-0.479062057,
0.036876753,
-0.704934120,
-0.550484180,
-0.582705498,
0.319888034,
-0.595913172,
-0.021817207,
0.025200607,0.094705268,-0.075592004,-0.068651222,-0.058066156,0.120902764,-0.035946500,0.100553434,0.036160756,0.048975546,-0.000744402,-0.007636115,0.012546635,-0.027804459,0.003759607,0.012759305,-0.047903737,-0.007942386,-0.047124595,-0.183031009,0.024140349,0.144014293,0.036123704,0.037714467,-0.086660996,0.049537789,-0.022730427,-0.028386427,-0.033551633,-0.014808739,0.001093829,0.122997826,0.012483883,0.089569286,0.041132419,-0.063221395,0.019308164,-0.022481621,-0.006160085,0.059453710,0.054972531,0.068743735,-0.009157351,0.000160086,0.051482357,-0.096709214,0.103458307,-0.035967368,0.001378250,-0.017001677,-0.052667297,0.062205895,0.145262598,-0.005420387,-0.026891980,-0.036983885,-0.074670192,0.045139398,-0.048026372,-0.066734031,-0.011673331,0.120266378,0.052957367,0.076752186,0.092723544,-0.244572671,-0.027944816,0.058700817,0.082203470,0.077311966,-0.063272652,-0.047007740,-0.068299187,0.058824819,-0.056118250,-0.055844627,0.166310150,-0.064941123,0.011028146,0.028649354,-0.212485270,-0.019072368,-0.049342768,-0.052533822,0.043142283,0.093597629,-0.033524062,0.029455543,-0.022867620,-0.042991599,-0.034388644,0.063644467,0.154480345,0.043004129,-0.022490216,-0.061642982,0.069154479,-0.046820436,0.040966548,-0.033625353,
-0.027770593,
