// Neural Network File Format by Kyle Julian, Stanford 2016
2,1,1,100,
1,100,1,
0,
0.0,
0.0,
0.0,0.0,
0.0,0.0,
0.062809616,
0.589574158,
-0.823045135,
-0.735939026,
-0.385154366,
0.322949022,
-0.019813180,
0.877889991,
-0.088744044,
0.332659453,
-0.302213073,
-0.218129441,
-0.955348492,
-0.697154701,
-0.352884442,
0.037043571,
0.364490211,
0.565297782,
-0.769790292,
-0.453641951,
0.422011077,
0.882717550,
-0.205800176,
0.827882230,
-0.161183357,
0.105814099,
0.868236780,
-0.927670360,
-0.629537940,
-0.253165245,
-0.389799953,
0.916851163,
-0.648179650,
-0.460332870,
-0.650718987,
-0.936560988,
-0.603383005,
0.821224928,
0.413323432,
0.542984426,
0.108540595,
-0.463590831,
0.138257712,
-0.933694720,
-0.722566247,
-0.515529990,
0.683590114,
0.546734452,
-0.443495035,
-0.036082387,
0.639560699,
1.106542230,
0.462638885,
0.106643252,
0.632228494,
-0.588802338,
0.143486574,
-0.775305510,
-0.693086147,
-0.516583562,
0.412781477,
0.470260739,
-0.592352509,
0.302107096,
0.614281535,
-0.227905840,
0.038181543,
0.289802283,
0.620376587,
1.024261951,
-0.815599918,
-0.366469741,
0.350547224,
0.891259074,
0.870207310,
0.840814471,
0.266657114,
-0.869582653,
0.113054186,
-0.625605345,
-0.659247577,
0.847836196,
0.719292998,
-1.030374646,
0.249812081,
-0.118083723,
-0.164561152,
-0.457756877,
0.384556174,
-0.646520436,
0.327283144,
0.562881351,
0.909654319,
0.459355682,
-0.989735246,
-0.648696899,
0.499315023,
0.168460250,
-0.780084014,
-0.575819492,
0.956420004,
0.693274796,
-0.436025143,
-0.251684785,
-0.952598095,
0.000748342,
-0.753058910,
-0.677913904,
-0.055099607,
0.165484250,
-0.409530282,
0.569879830,
-0.608539104,
0.887730300,
0.698604524,
-0.843282938,
-0.278938800,
0.021154480,
0.094933979,
0.296770602,
0.366481543,
0.079338536,
-0.487928748,
0.484801054,
-0.959248900,
-0.592706680,
-0.285019010,
-0.487113357,
-0.349833369,
-0.819621682,
-0.212715149,
0.233105823,
-0.651465774,
-0.051319361,
0.737707078,
-0.102800250,
-0.000604283,
-0.122151285,
0.178277075,
0.654049456,
0.966313243,
0.656067908,
0.925633907,
-0.072321653,
-0.898321509,
-0.474077225,
0.700460792,
-0.040841971,
-0.497046351,
-0.766311765,
-0.935852051,
-0.721405923,
-0.122872382,
0.524206161,
0.517764032,
-0.964431882,
0.602161229,
-0.782509446,
-0.211410284,
-0.405472636,
-0.232233778,
-0.115162060,
-0.897349954,
-0.863437891,
-0.079036862,
0.175345957,
-0.454274893,
0.395009488,
-0.900058389,
-0.002493743,
0.860012531,
-0.407891989,
0.881268024,
0.378947973,
-0.902460933,
0.610528708,
-0.001904491,
-0.446406841,
0.771353543,
-0.808095217,
0.355199367,
-0.252262980,
0.691871822,
0.251516044,
0.497809500,
0.373590857,
-0.240474701,
-0.210305452,
-0.824081421,
0.523079157,
0.771527410,
0.702716768,
-0.469808102,
0.037857983,
-0.704934120,
-0.550484180,
-0.582705498,
0.319619119,
-0.595913172,
-0.021817207,
0.025526086,0.094847701,-0.075592004,-0.068651222,-0.058066156,0.120778412,-0.035946500,0.121040590,0.036160756,0.049017541,-0.000744402,-0.007124573,0.012546635,-0.026876029,0.004483237,0.012759305,-0.044501834,-0.008009926,-0.088420689,-0.175822943,0.024251791,0.143947005,0.036123704,0.037775308,-0.086660996,0.049537789,-0.025568420,-0.028386427,-0.033551633,-0.014808739,0.001093829,0.122979656,0.012483883,0.089569286,0.042457189,-0.063221395,0.018500594,-0.024183031,-0.006126026,0.059598174,0.055277254,0.069742762,-0.008883936,0.000160086,0.051482357,-0.096709214,0.103584372,-0.037239160,0.001378250,-0.017001677,-0.052667297,0.081347324,0.142258823,-0.005165697,-0.026795808,-0.036983885,-0.074427016,0.045139398,-0.048026372,-0.066734031,-0.012777492,0.118171409,0.052957367,0.076752186,0.090252057,-0.242042705,-0.027944816,0.058865178,0.082203470,0.077152640,-0.062092580,-0.047007740,-0.068088666,0.058851641,-0.056118250,-0.055761721,0.160570577,-0.064941123,0.011314848,0.028649354,-0.223464042,-0.020862538,-0.049229421,-0.063082173,0.043348901,0.094180435,-0.033524062,0.029455543,-0.022867620,-0.039716933,-0.034185175,0.063794658,0.131671786,0.042917382,-0.022490216,-0.061642982,0.069154479,-0.046642497,0.040966548,-0.033625353,
-0.027438914,
