// Neural Network File Format by Kyle Julian, Stanford 2016
2,1,1,100,
1,100,1,
0,
0.0,
0.0,
0.0,0.0,
0.0,0.0,
0.062805921,
0.589574158,
-0.823045135,
-0.735939026,
-0.385154366,
0.322945118,
-0.019813180,
0.877826989,
-0.088744044,
0.332654744,
-0.302213073,
-0.218128636,
-0.955348492,
-0.697153986,
-0.352884442,
0.037043571,
0.364406943,
0.565297782,
-0.769934773,
-0.453604102,
0.422004193,
0.882717550,
-0.205800176,
0.827875435,
-0.161183357,
0.105814099,
0.868292630,
-0.927670360,
-0.629537940,
-0.253165245,
-0.389799953,
0.916851163,
-0.648179650,
-0.460332870,
-0.650718987,
-0.936560988,
-0.603383005,
0.821177363,
0.413323432,
0.542984128,
0.108537853,
-0.463591218,
0.138257712,
-0.933694720,
-0.722566247,
-0.515529990,
0.683590114,
0.546734452,
-0.443495035,
-0.036082387,
0.639560699,
1.106619954,
0.462642074,
0.106643513,
0.632228494,
-0.588802338,
0.143488631,
-0.775305510,
-0.693086147,
-0.516583562,
0.412633389,
0.470270425,
-0.592352509,
0.302107096,
0.614346981,
-0.227963597,
0.038181543,
0.289798379,
0.620376587,
1.024261951,
-0.815599620,
-0.366469741,
0.350547373,
0.891256869,
0.870207310,
0.840814471,
0.266654521,
-0.869582653,
0.113051079,
-0.625605345,
-0.659265041,
0.847680748,
0.719292998,
-1.030333638,
0.249808639,
-0.118085809,
-0.164561152,
-0.457756877,
0.384556174,
-0.646596491,
0.327283144,
0.562881172,
0.909651577,
0.459346712,
-0.989735246,
-0.648696899,
0.499315023,
0.168461919,
-0.780084014,
-0.575819492,
0.956412137,
0.693272233,
-0.436025143,
-0.251684785,
-0.952598095,
0.000743426,
-0.753058910,
-0.677979410,
-0.055099607,
0.165476933,
-0.409530282,
0.569879830,
-0.608539104,
0.887735426,
0.698604524,
-0.843282938,
-0.279031992,
0.021155033,
0.094695866,
0.296719611,
0.366469979,
0.079334296,
-0.487928748,
0.484791100,
-0.959248900,
-0.592706680,
-0.284931153,
-0.487113357,
-0.349833369,
-0.819621682,
-0.212715149,
0.233101547,
-0.651465774,
-0.051319361,
0.737707078,
-0.102800250,
-0.000604283,
-0.122366421,
0.178277075,
0.654044330,
0.966310441,
0.656067908,
0.925633907,
-0.072321653,
-0.898321509,
-0.474077225,
0.700458467,
-0.040896449,
-0.497046351,
-0.766311765,
-0.935852051,
-0.721397519,
-0.122861370,
0.524206161,
0.517764032,
-0.964431882,
0.602161229,
-0.782509446,
-0.211410284,
-0.405472636,
-0.232436031,
-0.115173846,
-0.897349954,
-0.863437891,
-0.078680821,
0.175377816,
-0.454274893,
0.395004660,
-0.900058389,
-0.002345761,
0.860016823,
-0.407891989,
0.881268024,
0.378941834,
-0.902460933,
0.610528708,
-0.001564737,
-0.446406841,
0.771349549,
-0.808095217,
0.355257630,
-0.252638757,
0.691871822,
0.251462370,
0.497804224,
0.373586446,
-0.240474701,
-0.210305452,
-0.824081421,
0.523151517,
0.771527410,
0.702712476,
-0.469782472,
0.037842575,
-0.704934120,
-0.550484180,
-0.582705498,
0.319620609,
-0.595913172,
-0.021817207,
0.025522815,0.094844818,-0.075592004,-0.068651222,-0.058066156,0.120775789,-0.035946500,0.120916441,0.036160756,0.049014639,-0.000744402,-0.007127836,0.012546635,-0.026879789,0.004479277,0.012759305,-0.044512797,-0.008011887,-0.088305123,-0.175752208,0.024248997,0.143944591,0.036123704,0.037772581,-0.086660996,0.049537789,-0.025625611,-0.028386427,-0.033551633,-0.014808739,0.001093829,0.122977063,0.012483883,0.089569286,0.042452551,-0.063221395,0.018500594,-0.024191713,-0.006128365,0.059595253,0.055274028,0.069738433,-0.008886901,0.000160086,0.051482357,-0.096709214,0.103581510,-0.037256721,0.001378250,-0.017001677,-0.052667297,0.081651449,0.142257333,-0.005168580,-0.026798384,-0.036983885,-0.074429862,0.045139398,-0.048026372,-0.066734031,-0.012799681,0.118191868,0.052957367,0.076752186,0.090253606,-0.242095619,-0.027944816,0.058862120,0.082203470,0.077150017,-0.062096525,-0.047007740,-0.068091512,0.058849011,-0.056118250,-0.055764303,0.160559461,-0.064941123,0.011311791,0.028649354,-0.223533303,-0.020882094,-0.049232066,-0.062943012,0.043345787,0.094176516,-0.033524062,0.029455543,-0.022867620,-0.039765112,-0.034188014,0.063791759,0.131523311,0.042914830,-0.022490216,-0.061642982,0.069154479,-0.046645146,0.040966548,-0.033625353,
-0.027442059,
