// Neural Network File Format by Kyle Julian, Stanford 2016
2,1,1,100,
1,100,1,
0,
0.0,
0.0,
0.0,0.0,
0.0,0.0,
0.062805027,
0.589574158,
-0.823045135,
-0.735939026,
-0.385154366,
0.322944343,
-0.019813180,
0.877813280,
-0.088744044,
0.332653672,
-0.302213073,
-0.218128458,
-0.955348492,
-0.697153986,
-0.352884442,
0.037043571,
0.364383638,
0.565297782,
-0.770015836,
-0.453597218,
0.422002465,
0.882717550,
-0.205800176,
0.827874005,
-0.161183357,
0.105814099,
0.868309081,
-0.927670360,
-0.629537940,
-0.253165245,
-0.389799953,
0.916851163,
-0.648179650,
-0.460332870,
-0.650718987,
-0.936560988,
-0.603383005,
0.821163654,
0.413323432,
0.542984128,
0.108537190,
-0.463591218,
0.138257712,
-0.933694720,
-0.722566247,
-0.515529990,
0.683590114,
0.546734452,
-0.443495035,
-0.036082387,
0.639560699,
1.106642962,
0.462640733,
0.106643572,
0.632228494,
-0.588802338,
0.143489048,
-0.775305510,
-0.693086147,
-0.516583562,
0.412585407,
0.470273077,
-0.592352509,
0.302107096,
0.614366174,
-0.227982193,
0.038181543,
0.289797604,
0.620376587,
1.024261951,
-0.815599620,
-0.366469741,
0.350547373,
0.891256392,
0.870207310,
0.840814471,
0.266653895,
-0.869582653,
0.113050349,
-0.625605345,
-0.659272730,
0.847634494,
0.719292998,
-1.030322909,
0.249807775,
-0.118086316,
-0.164561152,
-0.457756877,
0.384556174,
-0.646617889,
0.327283144,
0.562881172,
0.909650862,
0.459344596,
-0.989735246,
-0.648696899,
0.499315023,
0.168462276,
-0.780084014,
-0.575819492,
0.956410229,
0.693271518,
-0.436025143,
-0.251684785,
-0.952598095,
0.000742083,
-0.753058910,
-0.677993119,
-0.055099607,
0.165474966,
-0.409530282,
0.569879830,
-0.608539104,
0.887736738,
0.698604524,
-0.843282938,
-0.279058039,
0.021155180,
0.094600588,
0.296706110,
0.366466850,
0.079333134,
-0.487928748,
0.484788388,
-0.959248900,
-0.592706680,
-0.284904420,
-0.487113357,
-0.349833369,
-0.819621682,
-0.212715149,
0.233100399,
-0.651465774,
-0.051319361,
0.737707078,
-0.102800250,
-0.000604283,
-0.122429438,
0.178277075,
0.654043078,
0.966309607,
0.656067908,
0.925633907,
-0.072321653,
-0.898321509,
-0.474077225,
0.700457752,
-0.040914331,
-0.497046351,
-0.766311765,
-0.935852051,
-0.721390188,
-0.122863062,
0.524206161,
0.517764032,
-0.964431882,
0.602161229,
-0.782509446,
-0.211410284,
-0.405472636,
-0.232501402,
-0.115175866,
-0.897349954,
-0.863437891,
-0.078572348,
0.175384238,
-0.454274893,
0.395003289,
-0.900058389,
-0.002307508,
0.860018075,
-0.407891989,
0.881268024,
0.378940105,
-0.902460933,
0.610528708,
-0.001480178,
-0.446406841,
0.771348417,
-0.808095217,
0.355272472,
-0.252748430,
0.691871822,
0.251448750,
0.497802645,
0.373585403,
-0.240474701,
-0.210305452,
-0.824081421,
0.523173392,
0.771527410,
0.702711225,
-0.469775826,
0.037838366,
-0.704934120,
-0.550484180,
-0.582705498,
0.319621086,
-0.595913172,
-0.021817207,
0.025521925,0.094844066,-0.075592004,-0.068651222,-0.058066156,0.120775171,-0.035946500,0.120888837,0.036160756,0.049013890,-0.000744402,-0.007128750,0.012546635,-0.026880877,0.004478157,0.012759305,-0.044515245,-0.008012359,-0.088278838,-0.175734714,0.024248267,0.143944010,0.036123704,0.037771873,-0.086660996,0.049537789,-0.025642453,-0.028386427,-0.033551633,-0.014808739,0.001093829,0.122976422,0.012483883,0.089569286,0.042451184,-0.063221395,0.018500594,-0.024194453,-0.006128965,0.059594493,0.055273149,0.069737211,-0.008887711,0.000160086,0.051482357,-0.096709214,0.103580765,-0.037261806,0.001378250,-0.017001677,-0.052667297,0.081728742,0.142255902,-0.005169359,-0.026799059,-0.036983885,-0.074430630,0.045139398,-0.048026372,-0.066734031,-0.012806445,0.118196934,0.052957367,0.076752186,0.090253897,-0.242109656,-0.027944816,0.058861308,0.082203470,0.077149399,-0.062097702,-0.047007740,-0.068092264,0.058848321,-0.056118250,-0.055764984,0.160556927,-0.064941123,0.011310967,0.028649354,-0.223551691,-0.020888263,-0.049232762,-0.062909149,0.043344956,0.094175428,-0.033524062,0.029455543,-0.022867620,-0.039779183,-0.034188762,0.063790999,0.131486624,0.042914204,-0.022490216,-0.061642982,0.069154479,-0.046645857,0.040966548,-0.033625353,
-0.027442923,
