// Neural Network File Format by Kyle Julian, Stanford 2016
2,1,1,100,
1,100,1,
0,
0.0,
0.0,
0.0,0.0,
0.0,0.0,
0.062803686,
0.589574158,
-0.823045135,
-0.735939026,
-0.385154366,
0.322943300,
-0.019813180,
0.877791584,
-0.088744044,
0.332651913,
-0.302213073,
-0.218128338,
-0.955348492,
-0.697153986,
-0.352884442,
0.037043571,
0.364344686,
0.565297782,
-0.770201981,
-0.453591079,
0.421999961,
0.882717550,
-0.205800176,
0.827872634,
-0.161183357,
0.105814099,
0.868337333,
-0.927670360,
-0.629537940,
-0.253165245,
-0.389799953,
0.916851163,
-0.648179650,
-0.460332870,
-0.650718987,
-0.936560988,
-0.603383005,
0.821140110,
0.413323432,
0.542984128,
0.108536191,
-0.463591218,
0.138257712,
-0.933694720,
-0.722566247,
-0.515529990,
0.683590114,
0.546734452,
-0.443495035,
-0.036082387,
0.639560699,
1.106689215,
0.462636352,
0.106643595,
0.632228494,
-0.588802338,
0.143489659,
-0.775305510,
-0.693086147,
-0.516583562,
0.412497759,
0.470277578,
-0.592352509,
0.302107096,
0.614402413,
-0.228005931,
0.038181543,
0.289796561,
0.620376587,
1.024261951,
-0.815599620,
-0.366469741,
0.350547373,
0.891256154,
0.870207310,
0.840814471,
0.266653270,
-0.869582653,
0.113049254,
-0.625605345,
-0.659273505,
0.847554445,
0.719292998,
-1.030313253,
0.249806523,
-0.118087053,
-0.164561152,
-0.457756877,
0.384556174,
-0.646658540,
0.327283144,
0.562881172,
0.909646034,
0.459341347,
-0.989735246,
-0.648696899,
0.499315023,
0.168462604,
-0.780084014,
-0.575819492,
0.956407249,
0.693270981,
-0.436025143,
-0.251684785,
-0.952598095,
0.000739923,
-0.753058910,
-0.678014934,
-0.055099607,
0.165471822,
-0.409530282,
0.569879830,
-0.608539104,
0.887738466,
0.698604524,
-0.843282938,
-0.279101402,
0.021155419,
0.094405904,
0.296682477,
0.366461664,
0.079331212,
-0.487928748,
0.484784126,
-0.959248900,
-0.592706680,
-0.284856975,
-0.487113357,
-0.349833369,
-0.819621682,
-0.212715149,
0.233098522,
-0.651465774,
-0.051319361,
0.737707078,
-0.102800250,
-0.000604283,
-0.122540548,
0.178277075,
0.654041350,
0.966308951,
0.656067908,
0.925633907,
-0.072321653,
-0.898321509,
-0.474077225,
0.700457275,
-0.040947683,
-0.497046351,
-0.766311765,
-0.935852051,
-0.721369922,
-0.122869655,
0.524206161,
0.517764032,
-0.964431882,
0.602161229,
-0.782509446,
-0.211410284,
-0.405472636,
-0.232621014,
-0.115177758,
-0.897349954,
-0.863437891,
-0.078366876,
0.175397813,
-0.454274893,
0.395000935,
-0.900058389,
-0.002245035,
0.860019624,
-0.407891989,
0.881268024,
0.378937483,
-0.902460933,
0.610528708,
-0.001345396,
-0.446406841,
0.771346986,
-0.808095217,
0.355301619,
-0.252940774,
0.691871822,
0.251427531,
0.497800171,
0.373583555,
-0.240474701,
-0.210305452,
-0.824081421,
0.523208439,
0.771527410,
0.702709675,
-0.469770133,
0.037831608,
-0.704934120,
-0.550484180,
-0.582705498,
0.319621474,
-0.595913172,
-0.021817207,
0.025520498,0.094842851,-0.075592004,-0.068651222,-0.058066156,0.120774224,-0.035946500,0.120850757,0.036160756,0.049012728,-0.000744402,-0.007130238,0.012546635,-0.026882688,0.004476326,0.012759305,-0.044518672,-0.008013074,-0.088242441,-0.175707012,0.024247119,0.143942982,0.036123704,0.037770770,-0.086660996,0.049537789,-0.025672425,-0.028386427,-0.033551633,-0.014808739,0.001093829,0.122975446,0.012483883,0.089569286,0.042448908,-0.063221395,0.018500594,-0.024199607,-0.006129900,0.059593283,0.055271734,0.069735184,-0.008889006,0.000160086,0.051482357,-0.096709214,0.103579581,-0.037270669,0.001378250,-0.017001677,-0.052667297,0.081852645,0.142251953,-0.005170607,-0.026800124,-0.036983885,-0.074431866,0.045139398,-0.048026372,-0.066734031,-0.012818916,0.118204594,0.052957367,0.076752186,0.090254128,-0.242131799,-0.027944816,0.058860030,0.082203470,0.077148460,-0.062099665,-0.047007740,-0.068093486,0.058847271,-0.056118250,-0.055766031,0.160553187,-0.064941123,0.011309643,0.028649354,-0.223584563,-0.020899797,-0.049233858,-0.062859006,0.043343630,0.094173625,-0.033524062,0.029455543,-0.022867620,-0.039803617,-0.034189969,0.063789785,0.131421104,0.042913269,-0.022490216,-0.061642982,0.069154479,-0.046646975,0.040966548,-0.033625353,
-0.027444312,
