// Neural Network File Format by Kyle Julian, Stanford 2016
2,1,1,100,
1,100,1,
0,
0.0,
0.0,
0.0,0.0,
0.0,0.0,
0.062803291,
0.589574158,
-0.823045135,
-0.735939026,
-0.385154366,
0.322943062,
-0.019813180,
0.877784312,
-0.088744044,
0.332651377,
-0.302213073,
-0.218128338,
-0.955348492,
-0.697153986,
-0.352884442,
0.037043571,
0.364332795,
0.565297782,
-0.770273387,
-0.453589171,
0.421999216,
0.882717550,
-0.205800176,
0.827872217,
-0.161183357,
0.105814099,
0.868346751,
-0.927670360,
-0.629537940,
-0.253165245,
-0.389799953,
0.916851163,
-0.648179650,
-0.460332870,
-0.650718987,
-0.936560988,
-0.603383005,
0.821132660,
0.413323432,
0.542984128,
0.108535916,
-0.463591218,
0.138257712,
-0.933694720,
-0.722566247,
-0.515529990,
0.683590114,
0.546734452,
-0.443495035,
-0.036082387,
0.639560699,
1.106704116,
0.462634742,
0.106643595,
0.632228494,
-0.588802338,
0.143489823,
-0.775305510,
-0.693086147,
-0.516583562,
0.412468702,
0.470279068,
-0.592352509,
0.302107096,
0.614414394,
-0.228014007,
0.038181543,
0.289796323,
0.620376587,
1.024261951,
-0.815599620,
-0.366469741,
0.350547373,
0.891256154,
0.870207310,
0.840814471,
0.266653091,
-0.869582653,
0.113048948,
-0.625605345,
-0.659276545,
0.847529113,
0.719292998,
-1.030310273,
0.249806151,
-0.118087277,
-0.164561152,
-0.457756877,
0.384556174,
-0.646671653,
0.327283144,
0.562881172,
0.909644604,
0.459340423,
-0.989735246,
-0.648696899,
0.499315023,
0.168462709,
-0.780084014,
-0.575819492,
0.956406236,
0.693270802,
-0.436025143,
-0.251684785,
-0.952598095,
0.000739219,
-0.753058910,
-0.678022385,
-0.055099607,
0.165470794,
-0.409530282,
0.569879830,
-0.608539104,
0.887739182,
0.698604524,
-0.843282938,
-0.279114097,
0.021155495,
0.094334416,
0.296675563,
0.366459966,
0.079330601,
-0.487928748,
0.484782726,
-0.959248900,
-0.592706680,
-0.284841329,
-0.487113357,
-0.349833369,
-0.819621682,
-0.212715149,
0.233097926,
-0.651465774,
-0.051319361,
0.737707078,
-0.102800250,
-0.000604283,
-0.122576348,
0.178277075,
0.654040635,
0.966308713,
0.656067908,
0.925633907,
-0.072321653,
-0.898321509,
-0.474077225,
0.700457096,
-0.040958762,
-0.497046351,
-0.766311765,
-0.935852051,
-0.721362412,
-0.122872770,
0.524206161,
0.517764032,
-0.964431882,
0.602161229,
-0.782509446,
-0.211410284,
-0.405472636,
-0.232660517,
-0.115178280,
-0.897349954,
-0.863437891,
-0.078296788,
0.175401524,
-0.454274893,
0.395000190,
-0.900058389,
-0.002226225,
0.860020161,
-0.407891989,
0.881268024,
0.378936648,
-0.902460933,
0.610528708,
-0.001305528,
-0.446406841,
0.771346509,
-0.808095217,
0.355310351,
-0.253002793,
0.691871822,
0.251420826,
0.497799426,
0.373582929,
-0.240474701,
-0.210305452,
-0.824081421,
0.523219585,
0.771527410,
0.702709138,
-0.469768375,
0.037829399,
-0.704934120,
-0.550484180,
-0.582705498,
0.319621623,
-0.595913172,
-0.021817207,
0.025520038,0.094842456,-0.075592004,-0.068651222,-0.058066156,0.120773964,-0.035946500,0.120841883,0.036160756,0.049012370,-0.000744402,-0.007130731,0.012546635,-0.026883304,0.004475714,0.012759305,-0.044519503,-0.008013283,-0.088231727,-0.175698817,0.024246758,0.143942669,0.036123704,0.037770424,-0.086660996,0.049537789,-0.025682021,-0.028386427,-0.033551633,-0.014808739,0.001093829,0.122975163,0.012483883,0.089569286,0.042448126,-0.063221395,0.018500594,-0.024201291,-0.006130189,0.059592899,0.055271279,0.069734491,-0.008889422,0.000160086,0.051482357,-0.096709214,0.103579201,-0.037273496,0.001378250,-0.017001677,-0.052667297,0.081890360,0.142250687,-0.005171009,-0.026800459,-0.036983885,-0.074432276,0.045139398,-0.048026372,-0.066734031,-0.012823001,0.118207037,0.052957367,0.076752186,0.090254210,-0.242138624,-0.027944816,0.058859620,0.082203470,0.077148192,-0.062100340,-0.047007740,-0.068093896,0.058846947,-0.056118250,-0.055766355,0.160552114,-0.064941123,0.011309213,0.028649354,-0.223594949,-0.020903541,-0.049234208,-0.062843479,0.043343205,0.094173037,-0.033524062,0.029455543,-0.022867620,-0.039811481,-0.034190353,0.063789390,0.131401569,0.042912994,-0.022490216,-0.061642982,0.069154479,-0.046647329,0.040966548,-0.033625353,
-0.027444759,
