// Neural Network File Format by Kyle Julian, Stanford 2016
2,1,1,100,
1,100,1,
0,
0.0,
0.0,
0.0,0.0,
0.0,0.0,
0.062803015,
0.589574158,
-0.823045135,
-0.735939026,
-0.385154366,
0.322942883,
-0.019813180,
0.877779722,
-0.088744044,
0.332651019,
-0.302213073,
-0.218128324,
-0.955348492,
-0.697153986,
-0.352884442,
0.037043571,
0.364324570,
0.565297782,
-0.770329773,
-0.453588247,
0.421998709,
0.882717550,
-0.205800176,
0.827871859,
-0.161183357,
0.105814099,
0.868354261,
-0.927670360,
-0.629537940,
-0.253165245,
-0.389799953,
0.916851163,
-0.648179650,
-0.460332870,
-0.650718987,
-0.936560988,
-0.603383005,
0.821127295,
0.413323432,
0.542984128,
0.108535707,
-0.463591218,
0.138257712,
-0.933694720,
-0.722566247,
-0.515529990,
0.683590114,
0.546734452,
-0.443495035,
-0.036082387,
0.639560699,
1.106714845,
0.462633252,
0.106643595,
0.632228494,
-0.588802338,
0.143489942,
-0.775305510,
-0.693086147,
-0.516583562,
0.412447333,
0.470280081,
-0.592352509,
0.302107096,
0.614423692,
-0.228019997,
0.038181543,
0.289796144,
0.620376587,
1.024261951,
-0.815599620,
-0.366469741,
0.350547373,
0.891256154,
0.870207310,
0.840814471,
0.266652912,
-0.869582653,
0.113048710,
-0.625605345,
-0.659279883,
0.847510874,
0.719292998,
-1.030308127,
0.249805897,
-0.118087448,
-0.164561152,
-0.457756877,
0.384556174,
-0.646681190,
0.327283144,
0.562881172,
0.909643888,
0.459339708,
-0.989735246,
-0.648696899,
0.499315023,
0.168462798,
-0.780084014,
-0.575819492,
0.956405520,
0.693270683,
-0.436025143,
-0.251684785,
-0.952598095,
0.000738712,
-0.753058910,
-0.678027749,
-0.055099607,
0.165470049,
-0.409530282,
0.569879830,
-0.608539104,
0.887739658,
0.698604524,
-0.843282938,
-0.279123217,
0.021155551,
0.094279364,
0.296670586,
0.366458714,
0.079330161,
-0.487928748,
0.484781742,
-0.959248900,
-0.592706680,
-0.284829974,
-0.487113357,
-0.349833369,
-0.819621682,
-0.212715149,
0.233097479,
-0.651465774,
-0.051319361,
0.737707078,
-0.102800250,
-0.000604283,
-0.122602358,
0.178277075,
0.654040158,
0.966308594,
0.656067908,
0.925633907,
-0.072321653,
-0.898321509,
-0.474077225,
0.700456977,
-0.040966917,
-0.497046351,
-0.766311765,
-0.935852051,
-0.721356869,
-0.122875370,
0.524206161,
0.517764032,
-0.964431882,
0.602161229,
-0.782509446,
-0.211410284,
-0.405472636,
-0.232689574,
-0.115178689,
-0.897349954,
-0.863437891,
-0.078244485,
0.175404102,
-0.454274893,
0.394999653,
-0.900058389,
-0.002212956,
0.860020638,
-0.407891989,
0.881268024,
0.378936052,
-0.902460933,
0.610528708,
-0.001277693,
-0.446406841,
0.771346092,
-0.808095217,
0.355316252,
-0.253047854,
0.691871822,
0.251415998,
0.497798860,
0.373582542,
-0.240474701,
-0.210305452,
-0.824081421,
0.523227811,
0.771527410,
0.702708662,
-0.469766706,
0.037827812,
-0.704934120,
-0.550484180,
-0.582705498,
0.319621712,
-0.595913172,
-0.021817207,
0.025519704,0.094842188,-0.075592004,-0.068651222,-0.058066156,0.120773770,-0.035946500,0.120835617,0.036160756,0.049012110,-0.000744402,-0.007131086,0.012546635,-0.026883747,0.004475274,0.012759305,-0.044520084,-0.008013433,-0.088224620,-0.175693095,0.024246497,0.143942490,0.036123704,0.037770178,-0.086660996,0.049537789,-0.025688987,-0.028386427,-0.033551633,-0.014808739,0.001093829,0.122974940,0.012483883,0.089569286,0.042447560,-0.063221395,0.018500594,-0.024202542,-0.006130396,0.059592620,0.055270951,0.069733992,-0.008889723,0.000160086,0.051482357,-0.096709214,0.103578940,-0.037275530,0.001378250,-0.017001677,-0.052667297,0.081916906,0.142249674,-0.005171299,-0.026800703,-0.036983885,-0.074432574,0.045139398,-0.048026372,-0.066734031,-0.012826000,0.118208729,0.052957367,0.076752186,0.090254240,-0.242143527,-0.027944816,0.058859330,0.082203470,0.077147998,-0.062100831,-0.047007740,-0.068094157,0.058846720,-0.056118250,-0.055766582,0.160551339,-0.064941123,0.011308904,0.028649354,-0.223602235,-0.020906297,-0.049234457,-0.062832706,0.043342911,0.094172612,-0.033524062,0.029455543,-0.022867620,-0.039817199,-0.034190636,0.063789122,0.131387934,0.042912789,-0.022490216,-0.061642982,0.069154479,-0.046647597,0.040966548,-0.033625353,
-0.027445083,
