// Neural Network File Format by Kyle Julian, Stanford 2016
2,1,1,100,
1,100,1,
0,
0.0,
0.0,
0.0,0.0,
0.0,0.0,
0.062802263,
0.589574158,
-0.823045135,
-0.735939026,
-0.385154366,
0.322942376,
-0.019813180,
0.877767801,
-0.088744044,
0.332649976,
-0.302213073,
-0.218128294,
-0.955348492,
-0.697153986,
-0.352884442,
0.037043571,
0.364302218,
0.565297782,
-0.770505965,
-0.453587115,
0.421997368,
0.882717550,
-0.205800176,
0.827871203,
-0.161183357,
0.105814099,
0.868375123,
-0.927670360,
-0.629537940,
-0.253165245,
-0.389799953,
0.916851163,
-0.648179650,
-0.460332870,
-0.650718987,
-0.936560988,
-0.603383005,
0.821112394,
0.413323432,
0.542984128,
0.108535185,
-0.463591218,
0.138257712,
-0.933694720,
-0.722566247,
-0.515529990,
0.683590114,
0.546734452,
-0.443495035,
-0.036082387,
0.639560699,
1.106744647,
0.462628722,
0.106643595,
0.632228494,
-0.588802338,
0.143490210,
-0.775305510,
-0.693086147,
-0.516583562,
0.412386149,
0.470282704,
-0.592352509,
0.302107096,
0.614450514,
-0.228037298,
0.038181543,
0.289795637,
0.620376587,
1.024261951,
-0.815599620,
-0.366469741,
0.350547373,
0.891256154,
0.870207310,
0.840814471,
0.266652554,
-0.869582653,
0.113048062,
-0.625605345,
-0.659289360,
0.847458482,
0.719292998,
-1.030304790,
0.249805227,
-0.118087843,
-0.164561152,
-0.457756877,
0.384556174,
-0.646707773,
0.327283144,
0.562881172,
0.909642875,
0.459338069,
-0.989735246,
-0.648696899,
0.499315023,
0.168462962,
-0.780084014,
-0.575819492,
0.956403196,
0.693270326,
-0.436025143,
-0.251684785,
-0.952598095,
0.000737286,
-0.753058910,
-0.678040504,
-0.055099607,
0.165467918,
-0.409530282,
0.569879830,
-0.608539104,
0.887740970,
0.698604524,
-0.843282938,
-0.279148400,
0.021155715,
0.094112605,
0.296656996,
0.366455317,
0.079328954,
-0.487928748,
0.484778941,
-0.959248900,
-0.592706680,
-0.284797102,
-0.487113357,
-0.349833369,
-0.819621682,
-0.212715149,
0.233096197,
-0.651465774,
-0.051319361,
0.737707078,
-0.102800250,
-0.000604283,
-0.122675680,
0.178277075,
0.654038846,
0.966307998,
0.656067908,
0.925633907,
-0.072321653,
-0.898321509,
-0.474077225,
0.700456619,
-0.040990394,
-0.497046351,
-0.766311765,
-0.935852051,
-0.721340001,
-0.122883998,
0.524206161,
0.517764032,
-0.964431882,
0.602161229,
-0.782509446,
-0.211410284,
-0.405472636,
-0.232772857,
-0.115179762,
-0.897349954,
-0.863437891,
-0.078092448,
0.175411046,
-0.454274893,
0.394998193,
-0.900058389,
-0.002177320,
0.860021651,
-0.407891989,
0.881268024,
0.378934354,
-0.902460933,
0.610528708,
-0.001204592,
-0.446406841,
0.771345079,
-0.808095217,
0.355332077,
-0.253174037,
0.691871822,
0.251402587,
0.497797340,
0.373581350,
-0.240474701,
-0.210305452,
-0.824081421,
0.523251176,
0.771527410,
0.702707648,
-0.469761163,
0.037823349,
-0.704934120,
-0.550484180,
-0.582705498,
0.319622099,
-0.595913172,
-0.021817207,
0.025518766,0.094841428,-0.075592004,-0.068651222,-0.058066156,0.120773286,-0.035946500,0.120819449,0.036160756,0.049011383,-0.000744402,-0.007132096,0.012546635,-0.026885025,0.004474018,0.012759305,-0.044521611,-0.008013831,-0.088207901,-0.175677910,0.024245773,0.143941894,0.036123704,0.037769489,-0.086660996,0.049537789,-0.025708634,-0.028386427,-0.033551633,-0.014808739,0.001093829,0.122974366,0.012483883,0.089569286,0.042445917,-0.063221395,0.018500594,-0.024206204,-0.006130964,0.059591848,0.055270027,0.069732539,-0.008890568,0.000160086,0.051482357,-0.096709214,0.103578202,-0.037281238,0.001378250,-0.017001677,-0.052667297,0.081988245,0.142246380,-0.005172112,-0.026801366,-0.036983885,-0.074433379,0.045139398,-0.048026372,-0.066734031,-0.012834578,0.118213110,0.052957367,0.076752186,0.090254225,-0.242157370,-0.027944816,0.058858525,0.082203470,0.077147506,-0.062102258,-0.047007740,-0.068094939,0.058846090,-0.056118250,-0.055767223,0.160549402,-0.064941123,0.011308039,0.028649354,-0.223622009,-0.020914232,-0.049235150,-0.062805034,0.043342058,0.094171435,-0.033524062,0.029455543,-0.022867620,-0.039833378,-0.034191415,0.063788362,0.131352410,0.042912241,-0.022490216,-0.061642982,0.069154479,-0.046648327,0.040966548,-0.033625353,
-0.027446000,
