// Neural Network File Format by Kyle Julian, Stanford 2016
2,1,1,100,
1,100,1,
0,
0.0,
0.0,
0.0,0.0,
0.0,0.0,
0.062801287,
0.589574158,
-0.823045135,
-0.735939026,
-0.385154366,
0.322942019,
-0.019813180,
0.877753258,
-0.088744044,
0.332648665,
-0.302213073,
-0.218128294,
-0.955348492,
-0.697153986,
-0.352884442,
0.037043571,
0.364270180,
0.565297782,
-0.770821393,
-0.453589141,
0.421995580,
0.882717550,
-0.205800176,
0.827870727,
-0.161183357,
0.105814099,
0.868405998,
-0.927670360,
-0.629537940,
-0.253165245,
-0.389799953,
0.916851163,
-0.648179650,
-0.460332870,
-0.650718987,
-0.936560988,
-0.603383005,
0.821090341,
0.413323432,
0.542984128,
0.108534530,
-0.463591218,
0.138257712,
-0.933694720,
-0.722566247,
-0.515529990,
0.683590114,
0.546734452,
-0.443495035,
-0.036082387,
0.639560699,
1.106788754,
0.462620139,
0.106643595,
0.632228494,
-0.588802338,
0.143490478,
-0.775305510,
-0.693086147,
-0.516583562,
0.412291259,
0.470285952,
-0.592352509,
0.302107096,
0.614492178,
-0.228064045,
0.038181543,
0.289795280,
0.620376587,
1.024261951,
-0.815599620,
-0.366469741,
0.350547373,
0.891256154,
0.870207310,
0.840814471,
0.266652256,
-0.869582653,
0.113047265,
-0.625605345,
-0.659302115,
0.847379088,
0.719292998,
-1.030305743,
0.249804333,
-0.118088380,
-0.164561152,
-0.457756877,
0.384556174,
-0.646748126,
0.327283144,
0.562881172,
0.909642100,
0.459335834,
-0.989735246,
-0.648696899,
0.499315023,
0.168463081,
-0.780084014,
-0.575819492,
0.956399858,
0.693269968,
-0.436025143,
-0.251684785,
-0.952598095,
0.000735204,
-0.753058910,
-0.678056777,
-0.055099607,
0.165464833,
-0.409530282,
0.569879830,
-0.608539104,
0.887742877,
0.698604524,
-0.843282938,
-0.279183656,
0.021155953,
0.093826301,
0.296637088,
0.366450429,
0.079327174,
-0.487928748,
0.484774888,
-0.959248900,
-0.592706680,
-0.284746379,
-0.487113357,
-0.349833369,
-0.819621682,
-0.212715149,
0.233094335,
-0.651465774,
-0.051319361,
0.737707078,
-0.102800250,
-0.000604283,
-0.122787453,
0.178277075,
0.654036999,
0.966307461,
0.656067908,
0.925633907,
-0.072321653,
-0.898321509,
-0.474077225,
0.700456262,
-0.041027181,
-0.497046351,
-0.766311765,
-0.935852051,
-0.721313357,
-0.122899756,
0.524206161,
0.517764032,
-0.964431882,
0.602161229,
-0.782509446,
-0.211410284,
-0.405472636,
-0.232902080,
-0.115180857,
-0.897349954,
-0.863437891,
-0.077849902,
0.175420672,
-0.454274893,
0.394995987,
-0.900058389,
-0.002127756,
0.860023141,
-0.407891989,
0.881268024,
0.378931969,
-0.902460933,
0.610528708,
-0.001109936,
-0.446406841,
0.771343768,
-0.808095217,
0.355354667,
-0.253364652,
0.691871822,
0.251382738,
0.497795075,
0.373579592,
-0.240474701,
-0.210305452,
-0.824081421,
0.523286462,
0.771527410,
0.702706158,
-0.469753355,
0.037816845,
-0.704934120,
-0.550484180,
-0.582705498,
0.319622368,
-0.595913172,
-0.021817207,
0.025517393,0.094840370,-0.075592004,-0.068651222,-0.058066156,0.120772652,-0.035946500,0.120799050,0.036160756,0.049010374,-0.000744402,-0.007133591,0.012546635,-0.026886959,0.004472148,0.012759305,-0.044523533,-0.008014353,-0.088191405,-0.175657257,0.024244748,0.143941104,0.036123704,0.037768535,-0.086660996,0.049537789,-0.025738563,-0.028386427,-0.033551633,-0.014808739,0.001093829,0.122973569,0.012483883,0.089569286,0.042443465,-0.063221395,0.018500594,-0.024212126,-0.006131753,0.059590746,0.055268683,0.069730379,-0.008891794,0.000160086,0.051482357,-0.096709214,0.103577167,-0.037289742,0.001378250,-0.017001677,-0.052667297,0.082087688,0.142240420,-0.005173292,-0.026802309,-0.036983885,-0.074434549,0.045139398,-0.048026372,-0.066734031,-0.012848022,0.118218742,0.052957367,0.076752186,0.090253957,-0.242177829,-0.027944816,0.058857374,0.082203470,0.077146873,-0.062104426,-0.047007740,-0.068096034,0.058845211,-0.056118250,-0.055768132,0.160546899,-0.064941123,0.011306778,0.028649354,-0.223649979,-0.020926822,-0.049236130,-0.062770501,0.043340832,0.094169669,-0.033524062,0.029455543,-0.022867620,-0.039857984,-0.034192536,0.063787296,0.131305188,0.042911522,-0.022490216,-0.061642982,0.069154479,-0.046649385,0.040966548,-0.033625353,
-0.027447334,
