// Neural Network File Format by Kyle Julian, Stanford 2016
2,1,1,100,
1,100,1,
0,
0.0,
0.0,
0.0,0.0,
0.0,0.0,
0.062800661,
0.589574158,
-0.823045135,
-0.735939026,
-0.385154366,
0.322941720,
-0.019813180,
0.877742171,
-0.088744044,
0.332647890,
-0.302213073,
-0.218128294,
-0.955348492,
-0.697153986,
-0.352884442,
0.037043571,
0.364240766,
0.565297782,
-0.771163642,
-0.453592807,
0.421994418,
0.882717550,
-0.205800176,
0.827870250,
-0.161183357,
0.105814099,
0.868435621,
-0.927670360,
-0.629537940,
-0.253165245,
-0.389799953,
0.916851163,
-0.648179650,
-0.460332870,
-0.650718987,
-0.936560988,
-0.603383005,
0.821069181,
0.413323432,
0.542984128,
0.108534060,
-0.463591218,
0.138257712,
-0.933694720,
-0.722566247,
-0.515529990,
0.683590114,
0.546734452,
-0.443495035,
-0.036082387,
0.639560699,
1.106831193,
0.462610751,
0.106643595,
0.632228494,
-0.588802338,
0.143490672,
-0.775305510,
-0.693086147,
-0.516583562,
0.412194490,
0.470288932,
-0.592352509,
0.302107096,
0.614534497,
-0.228088289,
0.038181543,
0.289794981,
0.620376587,
1.024261951,
-0.815599620,
-0.366469741,
0.350547373,
0.891256154,
0.870207310,
0.840814471,
0.266651899,
-0.869582653,
0.113046758,
-0.625605345,
-0.659309089,
0.847301900,
0.719292998,
-1.030314565,
0.249803752,
-0.118088700,
-0.164561152,
-0.457756877,
0.384556174,
-0.646787703,
0.327283144,
0.562881172,
0.909636974,
0.459334344,
-0.989735246,
-0.648696899,
0.499315023,
0.168463200,
-0.780084014,
-0.575819492,
0.956397653,
0.693269372,
-0.436025143,
-0.251684785,
-0.952598095,
0.000733381,
-0.753058910,
-0.678069115,
-0.055099607,
0.165462166,
-0.409530282,
0.569879830,
-0.608539104,
0.887744665,
0.698604524,
-0.843282938,
-0.279215693,
0.021156156,
0.093525440,
0.296618581,
0.366446108,
0.079325587,
-0.487928748,
0.484771401,
-0.959248900,
-0.592706680,
-0.284695804,
-0.487113357,
-0.349833369,
-0.819621682,
-0.212715149,
0.233092740,
-0.651465774,
-0.051319361,
0.737707078,
-0.102800250,
-0.000604283,
-0.122897990,
0.178277075,
0.654035270,
0.966306746,
0.656067908,
0.925633907,
-0.072321653,
-0.898321509,
-0.474077225,
0.700455666,
-0.041064497,
-0.497046351,
-0.766311765,
-0.935852051,
-0.721283734,
-0.122916885,
0.524206161,
0.517764032,
-0.964431882,
0.602161229,
-0.782509446,
-0.211410284,
-0.405472636,
-0.233033776,
-0.115180805,
-0.897349954,
-0.863437891,
-0.077603862,
0.175429136,
-0.454274893,
0.394994140,
-0.900058389,
-0.002083448,
0.860024691,
-0.407891989,
0.881268024,
0.378929675,
-0.902460933,
0.610528708,
-0.001033659,
-0.446406841,
0.771342397,
-0.808095217,
0.355377704,
-0.253552914,
0.691871822,
0.251364082,
0.497793049,
0.373578399,
-0.240474701,
-0.210305452,
-0.824081421,
0.523321569,
0.771527410,
0.702704549,
-0.469752610,
0.037811119,
-0.704934120,
-0.550484180,
-0.582705498,
0.319622815,
-0.595913172,
-0.021817207,
0.025516193,0.094839491,-0.075592004,-0.068651222,-0.058066156,0.120772220,-0.035946500,0.120786913,0.036160756,0.049009595,-0.000744402,-0.007134935,0.012546635,-0.026888762,0.004470447,0.012759305,-0.044524714,-0.008014708,-0.088183783,-0.175638899,0.024243910,0.143940583,0.036123704,0.037767764,-0.086660996,0.049537789,-0.025768261,-0.028386427,-0.033551633,-0.014808739,0.001093829,0.122972950,0.012483883,0.089569286,0.042441137,-0.063221395,0.018500594,-0.024218334,-0.006132379,0.059589837,0.055267509,0.069728397,-0.008892854,0.000160086,0.051482357,-0.096709214,0.103576295,-0.037297834,0.001378250,-0.017001677,-0.052667297,0.082178667,0.142233431,-0.005174313,-0.026803078,-0.036983885,-0.074435569,0.045139398,-0.048026372,-0.066734031,-0.012861842,0.118223459,0.052957367,0.076752186,0.090253569,-0.242196292,-0.027944816,0.058856394,0.082203470,0.077146433,-0.062106472,-0.047007740,-0.068097003,0.058844510,-0.056118250,-0.055768892,0.160545170,-0.064941123,0.011305683,0.028649354,-0.223677218,-0.020939818,-0.049236942,-0.062743872,0.043339796,0.094168067,-0.033524062,0.029455543,-0.022867620,-0.039882205,-0.034193482,0.063786402,0.131259754,0.042911019,-0.022490216,-0.061642982,0.069154479,-0.046650272,0.040966548,-0.033625353,
-0.027448505,
