// Neural Network File Format by Kyle Julian, Stanford 2016
2,1,1,100,
1,100,1,
0,
0.0,
0.0,
0.0,0.0,
0.0,0.0,
0.062788233,
0.589575589,
-0.823045135,
-0.735939026,
-0.385154366,
0.322943389,
-0.019813180,
0.877766609,
-0.088744044,
0.332643390,
-0.302213073,
-0.218148246,
-0.955348492,
-0.697175920,
-0.352912426,
0.037043571,
0.364128500,
0.565293014,
-0.772407591,
-0.453653932,
0.421972483,
0.882720113,
-0.205800176,
0.827861965,
-0.161183357,
0.105814099,
0.868545592,
-0.927670360,
-0.629537940,
-0.253165245,
-0.389799953,
0.916853130,
-0.648179650,
-0.460332870,
-0.650721312,
-0.936560988,
-0.603383005,
0.820984006,
0.413316995,
0.542983055,
0.108532026,
-0.463592231,
0.138247043,
-0.933694720,
-0.722566247,
-0.515529990,
0.683591783,
0.546729743,
-0.443495035,
-0.036082387,
0.639560699,
1.106979370,
0.462563902,
0.106632456,
0.632222354,
-0.588802338,
0.143485606,
-0.775305510,
-0.693086147,
-0.516583562,
0.411827743,
0.470306009,
-0.592352509,
0.302107096,
0.614684165,
-0.228218481,
0.038181543,
0.289793342,
0.620376587,
1.024262667,
-0.815611541,
-0.366469741,
0.350541830,
0.891254842,
0.870207310,
0.840809762,
0.266649842,
-0.869582653,
0.113019258,
-0.625605345,
-0.659399271,
0.847013116,
0.719287634,
-1.030327797,
0.249798998,
-0.118088767,
-0.164561152,
-0.457756877,
0.384556174,
-0.646975935,
0.327276707,
0.562880695,
0.909627497,
0.459324360,
-0.989735246,
-0.648696899,
0.499315023,
0.168457821,
-0.780084014,
-0.575819492,
0.956364870,
0.693259954,
-0.436025143,
-0.251684785,
-0.952598095,
0.000722663,
-0.753058910,
-0.678032994,
-0.055099607,
0.165437505,
-0.409530282,
0.569858670,
-0.608539104,
0.887731850,
0.698561728,
-0.843282938,
-0.279339343,
0.021151850,
0.092455491,
0.296562076,
0.366387606,
0.079317153,
-0.487928748,
0.484734744,
-0.959248900,
-0.592706680,
-0.284514725,
-0.487113357,
-0.349833369,
-0.819621682,
-0.212715149,
0.233083621,
-0.651465774,
-0.051319361,
0.737699747,
-0.102800250,
-0.000604283,
-0.123300977,
0.178270251,
0.654020071,
0.966293216,
0.656061113,
0.925623178,
-0.072321653,
-0.898321509,
-0.474077225,
0.700446129,
-0.041203965,
-0.497046351,
-0.766311765,
-0.935852051,
-0.721167028,
-0.123022050,
0.524194181,
0.517760158,
-0.964431882,
0.602160275,
-0.782509446,
-0.211410284,
-0.405472636,
-0.233531713,
-0.115171254,
-0.897349954,
-0.863437891,
-0.076742366,
0.175440013,
-0.454274893,
0.394978970,
-0.900058389,
-0.001967962,
0.860023022,
-0.407891989,
0.881266654,
0.378911614,
-0.902460933,
0.610527277,
-0.000858205,
-0.446406841,
0.771296024,
-0.808095217,
0.355445862,
-0.254245937,
0.691869497,
0.251313120,
0.497772336,
0.373569518,
-0.240474701,
-0.210305452,
-0.824081421,
0.523415923,
0.771523595,
0.702690482,
-0.469722092,
0.037759557,
-0.704934120,
-0.550484180,
-0.582705498,
0.319621742,
-0.595913172,
-0.021817207,
0.025511030,0.094837174,-0.075592004,-0.068651222,-0.058066156,0.120772138,-0.035946500,0.120702259,0.036160756,0.049006529,-0.000744402,-0.007140866,0.012546635,-0.026898215,0.004461209,0.012759305,-0.044529330,-0.008012051,-0.088186659,-0.175593689,0.024240235,0.143941909,0.036123704,0.037765998,-0.086660996,0.049537789,-0.025869261,-0.028386427,-0.033551633,-0.014808739,0.001093829,0.122973256,0.012483883,0.089569286,0.042425342,-0.063221395,0.018500594,-0.024238255,-0.006132080,0.059587274,0.055262901,0.069715738,-0.008896306,0.000160086,0.051482357,-0.096709214,0.103574291,-0.037320681,0.001378250,-0.017001677,-0.052667297,0.082442604,0.142211691,-0.005177476,-0.026803842,-0.036983885,-0.074438304,0.045139398,-0.048026372,-0.066734031,-0.012915032,0.118244439,0.052957367,0.076752186,0.090255424,-0.242031172,-0.027944816,0.058853030,0.082203470,0.077148221,-0.062118355,-0.047007740,-0.068099447,0.058843769,-0.056118250,-0.055769436,0.160536855,-0.064941123,0.011301200,0.028649354,-0.223720267,-0.020983944,-0.049238015,-0.062663041,0.043335844,0.094159044,-0.033524062,0.029455543,-0.022867620,-0.039974041,-0.034195852,0.063783899,0.131146148,0.042906955,-0.022490216,-0.061642982,0.069154479,-0.046651855,0.040966548,-0.033625353,
-0.027452892,
