// Neural Network File Format by Kyle Julian, Stanford 2016
2,1,1,100,
1,100,1,
0,
0.0,
0.0,
0.0,0.0,
0.0,0.0,
0.062787950,
0.589575291,
-0.823045135,
-0.735939026,
-0.385154366,
0.322943240,
-0.019813180,
0.877743661,
-0.088744044,
0.332643092,
-0.302213073,
-0.218148172,
-0.955348492,
-0.697175682,
-0.352912486,
0.037043571,
0.364119560,
0.565293074,
-0.772555888,
-0.453653336,
0.421971887,
0.882719934,
-0.205800176,
0.827861488,
-0.161183357,
0.105814099,
0.868560433,
-0.927670360,
-0.629537940,
-0.253165245,
-0.389799953,
0.916852951,
-0.648179650,
-0.460332870,
-0.650721371,
-0.936560988,
-0.603383005,
0.820973516,
0.413316995,
0.542982697,
0.108531833,
-0.463592350,
0.138247117,
-0.933694720,
-0.722566247,
-0.515529990,
0.683591485,
0.546729565,
-0.443495035,
-0.036082387,
0.639560699,
1.106999159,
0.462555915,
0.106632493,
0.632222652,
-0.588802338,
0.143485740,
-0.775305510,
-0.693086147,
-0.516583562,
0.411778837,
0.470308721,
-0.592352509,
0.302107096,
0.614700556,
-0.228204593,
0.038181543,
0.289793193,
0.620376587,
1.024262428,
-0.815611243,
-0.366469741,
0.350541949,
0.891254485,
0.870207310,
0.840809762,
0.266649634,
-0.869582653,
0.113018990,
-0.625605345,
-0.659403265,
0.846974194,
0.719287634,
-1.030322433,
0.249798760,
-0.118088923,
-0.164561152,
-0.457756877,
0.384556174,
-0.646985233,
0.327276826,
0.562880516,
0.909627318,
0.459323704,
-0.989735246,
-0.648696899,
0.499315023,
0.168457910,
-0.780084014,
-0.575819492,
0.956363678,
0.693259120,
-0.436025143,
-0.251684785,
-0.952598095,
0.000721714,
-0.753058910,
-0.678060770,
-0.055099607,
0.165436134,
-0.409530282,
0.569858909,
-0.608539104,
0.887732744,
0.698561430,
-0.843282938,
-0.279349118,
0.021151949,
0.092328988,
0.296558857,
0.366385460,
0.079316318,
-0.487928748,
0.484732956,
-0.959248900,
-0.592706680,
-0.284490347,
-0.487113357,
-0.349833369,
-0.819621682,
-0.212715149,
0.233082786,
-0.651465774,
-0.051319361,
0.737699211,
-0.102800250,
-0.000604283,
-0.123353906,
0.178270340,
0.654019177,
0.966292441,
0.656060576,
0.925623178,
-0.072321653,
-0.898321509,
-0.474077225,
0.700445294,
-0.041222181,
-0.497046351,
-0.766311765,
-0.935852051,
-0.721148670,
-0.123039357,
0.524194419,
0.517760396,
-0.964431882,
0.602160752,
-0.782509446,
-0.211410284,
-0.405472636,
-0.233598337,
-0.115167260,
-0.897349954,
-0.863437891,
-0.076644748,
0.175452217,
-0.454274893,
0.394977927,
-0.900058389,
-0.001954599,
0.860023797,
-0.407891989,
0.881267250,
0.378910333,
-0.902460933,
0.610527694,
-0.000838575,
-0.446406841,
0.771295071,
-0.808095217,
0.355455428,
-0.254340172,
0.691869974,
0.251309425,
0.497771323,
0.373568892,
-0.240474701,
-0.210305452,
-0.824081421,
0.523436725,
0.771524131,
0.702689707,
-0.469716847,
0.037756868,
-0.704934120,
-0.550484180,
-0.582705498,
0.319622248,
-0.595913172,
-0.021817207,
0.025510410,0.094836697,-0.075592004,-0.068651222,-0.058066156,0.120771952,-0.035946500,0.120710246,0.036160756,0.049006127,-0.000744402,-0.007141578,0.012546635,-0.026899187,0.004460305,0.012759305,-0.044528771,-0.008012210,-0.088188797,-0.175589785,0.024239801,0.143941686,0.036123704,0.037765611,-0.086660996,0.049537789,-0.025883706,-0.028386427,-0.033551633,-0.014808739,0.001093829,0.122972943,0.012483883,0.089569286,0.042424090,-0.063221395,0.018500594,-0.024241788,-0.006132389,0.059586801,0.055262286,0.069714665,-0.008896858,0.000160086,0.051482357,-0.096709214,0.103573836,-0.037324153,0.001378250,-0.017001677,-0.052667297,0.082467601,0.142207772,-0.005178006,-0.026804242,-0.036983885,-0.074438848,0.045139398,-0.048026372,-0.066734031,-0.012924066,0.118246630,0.052957367,0.076752186,0.090255126,-0.242036790,-0.027944816,0.058852531,0.082203470,0.077148035,-0.062119465,-0.047007740,-0.068099968,0.058843423,-0.056118250,-0.055769809,0.160536215,-0.064941123,0.011300630,0.028649354,-0.223736346,-0.020991007,-0.049238421,-0.062651031,0.043335304,0.094158217,-0.033524062,0.029455543,-0.022867620,-0.039985541,-0.034196343,0.063783415,0.131126687,0.042906709,-0.022490216,-0.061642982,0.069154479,-0.046652310,0.040966548,-0.033625353,
-0.027453499,
