// Neural Network File Format by Kyle Julian, Stanford 2016
2,1,1,100,
1,100,1,
0,
0.0,
0.0,
0.0,0.0,
0.0,0.0,
0.062787794,
0.589575231,
-0.823045135,
-0.735939026,
-0.385154366,
0.322943091,
-0.019813180,
0.877736032,
-0.088744044,
0.332642883,
-0.302213073,
-0.218148127,
-0.955348492,
-0.697175562,
-0.352912486,
0.037043571,
0.364116371,
0.565292954,
-0.772605479,
-0.453653246,
0.421971589,
0.882719815,
-0.205800176,
0.827861249,
-0.161183357,
0.105814099,
0.868565738,
-0.927670360,
-0.629537940,
-0.253165245,
-0.389799953,
0.916852832,
-0.648179650,
-0.460332870,
-0.650721431,
-0.936560988,
-0.603383005,
0.820969641,
0.413317025,
0.542982519,
0.108531728,
-0.463592410,
0.138247162,
-0.933694720,
-0.722566247,
-0.515529990,
0.683591485,
0.546729386,
-0.443495035,
-0.036082387,
0.639560699,
1.107006073,
0.462553054,
0.106632516,
0.632222652,
-0.588802338,
0.143485814,
-0.775305510,
-0.693086147,
-0.516583562,
0.411761492,
0.470309556,
-0.592352509,
0.302107096,
0.614706099,
-0.228199974,
0.038181543,
0.289793044,
0.620376587,
1.024262190,
-0.815611064,
-0.366469741,
0.350542009,
0.891254306,
0.870207310,
0.840809822,
0.266649514,
-0.869582653,
0.113018863,
-0.625605345,
-0.659404874,
0.846960366,
0.719287694,
-1.030321002,
0.249798626,
-0.118089020,
-0.164561152,
-0.457756877,
0.384556174,
-0.646988750,
0.327276856,
0.562880337,
0.909628212,
0.459323347,
-0.989735246,
-0.648696899,
0.499315023,
0.168457985,
-0.780084014,
-0.575819492,
0.956363201,
0.693258822,
-0.436025143,
-0.251684785,
-0.952598095,
0.000721348,
-0.753058910,
-0.678070068,
-0.055099607,
0.165435612,
-0.409530282,
0.569859028,
-0.608539104,
0.887733221,
0.698561311,
-0.843282938,
-0.279352576,
0.021151990,
0.092286736,
0.296557635,
0.366384655,
0.079316005,
-0.487928748,
0.484732240,
-0.959248900,
-0.592706680,
-0.284481555,
-0.487113357,
-0.349833369,
-0.819621682,
-0.212715149,
0.233082488,
-0.651465774,
-0.051319361,
0.737699091,
-0.102800250,
-0.000604283,
-0.123372816,
0.178270400,
0.654018700,
0.966292143,
0.656060398,
0.925623238,
-0.072321653,
-0.898321509,
-0.474077225,
0.700444937,
-0.041228689,
-0.497046351,
-0.766311765,
-0.935852051,
-0.721142232,
-0.123045482,
0.524194479,
0.517760515,
-0.964431882,
0.602160990,
-0.782509446,
-0.211410284,
-0.405472636,
-0.233622074,
-0.115165994,
-0.897349954,
-0.863437891,
-0.076611198,
0.175456271,
-0.454274893,
0.394977599,
-0.900058389,
-0.001950031,
0.860024214,
-0.407891989,
0.881267428,
0.378909886,
-0.902460933,
0.610527933,
-0.000832046,
-0.446406841,
0.771294713,
-0.808095217,
0.355458468,
-0.254373848,
0.691870093,
0.251307875,
0.497770935,
0.373568624,
-0.240474701,
-0.210305452,
-0.824081421,
0.523443997,
0.771524251,
0.702689290,
-0.469713241,
0.037755836,
-0.704934120,
-0.550484180,
-0.582705498,
0.319622368,
-0.595913172,
-0.021817207,
0.025510168,0.094836503,-0.075592004,-0.068651222,-0.058066156,0.120771848,-0.035946500,0.120712839,0.036160756,0.049005952,-0.000744402,-0.007141844,0.012546635,-0.026899531,0.004459971,0.012759305,-0.044528600,-0.008012298,-0.088189654,-0.175588384,0.024239624,0.143941581,0.036123704,0.037765447,-0.086660996,0.049537789,-0.025888892,-0.028386427,-0.033551633,-0.014808739,0.001093829,0.122972809,0.012483883,0.089569286,0.042423643,-0.063221395,0.018500594,-0.024243100,-0.006132525,0.059586611,0.055262055,0.069714278,-0.008897074,0.000160086,0.051482357,-0.096709214,0.103573650,-0.037325416,0.001378250,-0.017001677,-0.052667297,0.082476266,0.142206341,-0.005178214,-0.026804404,-0.036983885,-0.074439041,0.045139398,-0.048026372,-0.066734031,-0.012927346,0.118247367,0.052957367,0.076752186,0.090254962,-0.242038786,-0.027944816,0.058852322,0.082203470,0.077147938,-0.062119860,-0.047007740,-0.068100162,0.058843266,-0.056118250,-0.055769969,0.160535902,-0.064941123,0.011300407,0.028649354,-0.223741621,-0.020993577,-0.049238589,-0.062646575,0.043335084,0.094157897,-0.033524062,0.029455543,-0.022867620,-0.039989654,-0.034196541,0.063783213,0.131119698,0.042906582,-0.022490216,-0.061642982,0.069154479,-0.046652496,0.040966548,-0.033625353,
-0.027453734,
