// Neural Network File Format by Kyle Julian, Stanford 2016
2,1,1,100,
1,100,1,
0,
0.0,
0.0,
0.0,0.0,
0.0,0.0,
0.062905281,
0.589726748,
-0.823045135,
-0.735939026,
-0.385154366,
0.323118751,
-0.019813180,
0.903461731,
-0.088744044,
0.332883242,
-0.302213073,
-0.218506815,
-0.955348492,
-0.697768361,
-0.353237101,
0.037043571,
0.358684163,
0.565344682,
-0.723966580,
-0.470087108,
0.422273574,
0.882882710,
-0.205800176,
0.828259336,
-0.161183357,
0.105814099,
0.866663653,
-0.927670360,
-0.629537940,
-0.253165245,
-0.389799953,
0.917015813,
-0.648179650,
-0.460332870,
-0.650892300,
-0.936560988,
-0.603298575,
0.821320360,
0.413340754,
0.543122922,
0.108620740,
-0.463614847,
0.138129352,
-0.933694720,
-0.722566247,
-0.515529990,
0.683745605,
0.546675596,
-0.443495035,
-0.036082387,
0.639560699,
1.134459546,
0.457744777,
0.106523924,
0.632237645,
-0.588802338,
0.143390560,
-0.775305510,
-0.693086147,
-0.516583562,
0.412520693,
0.471891303,
-0.592352509,
0.302107096,
0.615064400,
-0.231924409,
0.038181543,
0.289943905,
0.620376587,
1.024159352,
-0.815981532,
-0.366469741,
0.350461205,
0.891448292,
0.870207310,
0.840824963,
0.266490609,
-0.869582653,
0.112817300,
-0.625605345,
-0.668141705,
0.849883187,
0.719300093,
-1.015480274,
0.249943024,
-0.118036975,
-0.164561152,
-0.457756877,
0.384556174,
-0.673067270,
0.327178399,
0.563022541,
0.906981615,
0.459965546,
-0.989735246,
-0.648696899,
0.499315023,
0.168373292,
-0.780084014,
-0.575819492,
0.955835560,
0.692879713,
-0.436025143,
-0.251684785,
-0.952598095,
0.000402073,
-0.753058910,
-0.644447762,
-0.055099607,
0.164920030,
-0.409530282,
0.570124153,
-0.608539104,
0.888083834,
0.698204569,
-0.843282938,
-0.285747614,
0.021358599,
0.101099021,
0.297386438,
0.365638300,
0.078953787,
-0.487928748,
0.484073774,
-0.959248900,
-0.592706680,
-0.286966458,
-0.487113357,
-0.349833369,
-0.819621682,
-0.212715149,
0.232721076,
-0.651465774,
-0.051319361,
0.737382100,
-0.102800250,
-0.000424475,
-0.119270147,
0.178481666,
0.653615289,
0.965907515,
0.655798365,
0.925901550,
-0.072321653,
-0.898321509,
-0.474077225,
0.700066795,
-0.035407817,
-0.497046351,
-0.766311765,
-0.935852051,
-0.676315057,
-0.140469684,
0.524418742,
0.518069209,
-0.964431882,
0.602406256,
-0.782509446,
-0.211410284,
-0.405472636,
-0.232420603,
-0.114387451,
-0.897349954,
-0.863437891,
-0.089529558,
0.174698568,
-0.454274893,
0.394558942,
-0.900058389,
-0.021396825,
0.860394066,
-0.407891989,
0.881509198,
0.378456770,
-0.902460933,
0.610847869,
-0.035516440,
-0.446406841,
0.771099912,
-0.808095217,
0.344197795,
-0.246385104,
0.692191469,
0.254057895,
0.497313298,
0.373225433,
-0.240474701,
-0.210305452,
-0.824081421,
0.507239233,
0.771836300,
0.702296815,
-0.479961480,
0.036882199,
-0.704934120,
-0.550484180,
-0.582705498,
0.319887142,
-0.595913172,
-0.021817207,
0.025201664,0.094704834,-0.075592004,-0.068651222,-0.058066156,0.120898754,-0.035946500,0.099976054,0.036160756,0.048973959,-0.000744402,-0.007633573,0.012546635,-0.027799139,0.003763317,0.012759305,-0.048023575,-0.007945128,-0.048240534,-0.183115801,0.024139551,0.144011400,0.036123704,0.037713214,-0.086660996,0.049537789,-0.022792887,-0.028386427,-0.033551633,-0.014808739,0.001093829,0.122995692,0.012483883,0.089569286,0.041139903,-0.063221395,0.019308164,-0.022524846,-0.006161479,0.059453297,0.054973456,0.068749151,-0.009156570,0.000160086,0.051482357,-0.096709214,0.103457725,-0.035972789,0.001378250,-0.017001677,-0.052667297,0.062501923,0.145180658,-0.005419743,-0.026892743,-0.036983885,-0.074669618,0.045139398,-0.048026372,-0.066734031,-0.011641463,0.120378102,0.052957367,0.076752186,0.092657237,-0.245016391,-0.027944816,0.058700516,0.082203470,0.077268501,-0.063265641,-0.047007740,-0.068298919,0.058823212,-0.056118250,-0.055845523,0.166175023,-0.064941123,0.011028940,0.028649354,-0.212263264,-0.019091488,-0.049343365,-0.051829940,0.043142359,0.093600334,-0.033524062,0.029455543,-0.022867620,-0.043063686,-0.034388423,0.063644095,0.154513187,0.043000822,-0.022490216,-0.061642982,0.069154479,-0.046820381,0.040966548,-0.033625353,
-0.027769389,
