// Neural Network File Format by Kyle Julian, Stanford 2016
2,1,1,100,
1,100,1,
0,
0.0,
0.0,
0.0,0.0,
0.0,0.0,
0.062733933,
0.589570999,
-0.823045135,
-0.735939026,
-0.385154366,
0.322940975,
-0.019813180,
0.877848506,
-0.088744044,
0.332616180,
-0.302213073,
-0.218219265,
-0.955348492,
-0.697243333,
-0.353017896,
0.037043571,
0.364026666,
0.565276861,
-0.773029387,
-0.453728408,
0.421883225,
0.882720351,
-0.205800176,
0.827818334,
-0.161183357,
0.105814099,
0.868608236,
-0.927670360,
-0.629537940,
-0.253165245,
-0.389799953,
0.916851819,
-0.648179650,
-0.460332870,
-0.650734246,
-0.936560988,
-0.603383005,
0.820919573,
0.413294256,
0.542968869,
0.108517505,
-0.463600695,
0.138209835,
-0.933694720,
-0.722566247,
-0.515529990,
0.683588445,
0.546716332,
-0.443495035,
-0.036082387,
0.639560699,
1.107048988,
0.462522715,
0.106592290,
0.632203877,
-0.588802338,
0.143471643,
-0.775305510,
-0.693086147,
-0.516583562,
0.411581069,
0.470313042,
-0.592352509,
0.302107096,
0.614747941,
-0.228319541,
0.038181543,
0.289778709,
0.620376587,
1.024252057,
-0.815643489,
-0.366469741,
0.350527555,
0.891239047,
0.870207310,
0.840795696,
0.266633391,
-0.869582653,
0.112911142,
-0.625605345,
-0.659414589,
0.846811235,
0.719272077,
-1.030298948,
0.249773189,
-0.118094683,
-0.164561152,
-0.457756877,
0.384556174,
-0.647133172,
0.327257067,
0.562868595,
0.909588933,
0.459273010,
-0.989735246,
-0.648696899,
0.499315023,
0.168441623,
-0.780084014,
-0.575819492,
0.956267774,
0.693235993,
-0.436025143,
-0.251684785,
-0.952598095,
0.000698039,
-0.753058910,
-0.677923501,
-0.055099607,
0.165372834,
-0.409530282,
0.569781005,
-0.608539104,
0.887674272,
0.698408127,
-0.843282938,
-0.279451549,
0.021134125,
0.091937661,
0.296534002,
0.366234481,
0.079298645,
-0.487928748,
0.484641105,
-0.959248900,
-0.592706680,
-0.284402102,
-0.487113357,
-0.349833369,
-0.819621682,
-0.212715149,
0.233063087,
-0.651465774,
-0.051319361,
0.737673998,
-0.102800250,
-0.000604283,
-0.123570293,
0.178244755,
0.653980434,
0.966256201,
0.656038225,
0.925582528,
-0.072321653,
-0.898321509,
-0.474077225,
0.700423598,
-0.041302387,
-0.497046351,
-0.766311765,
-0.935852051,
-0.721110344,
-0.123122722,
0.524148822,
0.517744422,
-0.964431882,
0.602154672,
-0.782509446,
-0.211410284,
-0.405472636,
-0.233863741,
-0.115175910,
-0.897349954,
-0.863437891,
-0.076345555,
0.175428718,
-0.454274893,
0.394938678,
-0.900058389,
-0.001948402,
0.860004961,
-0.407891989,
0.881259978,
0.378865361,
-0.902460933,
0.610519767,
-0.000835515,
-0.446406841,
0.771143913,
-0.808095217,
0.355490983,
-0.254716933,
0.691860497,
0.251299798,
0.497715443,
0.373547316,
-0.240474701,
-0.210305452,
-0.824081421,
0.523437738,
0.771508634,
0.702654243,
-0.469736665,
0.037646305,
-0.704934120,
-0.550484180,
-0.582705498,
0.319611669,
-0.595913172,
-0.021817207,
0.025501115,0.094832592,-0.075592004,-0.068651222,-0.058066156,0.120765209,-0.035946500,0.120567620,0.036160756,0.048996571,-0.000744402,-0.007149598,0.012546635,-0.026911216,0.004445050,0.012759305,-0.044530746,-0.008006727,-0.088204823,-0.175568953,0.024230599,0.143942907,0.036123704,0.037761264,-0.086660996,0.049537789,-0.025926925,-0.028386427,-0.033551633,-0.014808739,0.001093829,0.122972861,0.012483883,0.089569286,0.042397413,-0.063221395,0.018500594,-0.024246966,-0.006130834,0.059582051,0.055254314,0.069692582,-0.008901490,0.000160086,0.051482357,-0.096709214,0.103570253,-0.037328694,0.001378250,-0.017001677,-0.052667297,0.082566135,0.142194599,-0.005182149,-0.026804270,-0.036983885,-0.074441552,0.045139398,-0.048026372,-0.066734031,-0.012948364,0.118254773,0.052957367,0.076752186,0.090254091,-0.241779298,-0.027944816,0.058845371,0.082203470,0.077149123,-0.062135100,-0.047007740,-0.068102598,0.058841269,-0.056118250,-0.055769421,0.160497025,-0.064941123,0.011292519,0.028649354,-0.223711699,-0.021007702,-0.049238879,-0.062612891,0.043327250,0.094140843,-0.033524062,0.029455543,-0.022867620,-0.040038630,-0.034198940,0.063778803,0.131073788,0.042891555,-0.022490216,-0.061642982,0.069154479,-0.046652906,0.040966548,-0.033625353,
-0.027459921,
