// Neural Network File Format by Kyle Julian, Stanford 2016
2,1,1,100,
1,100,1,
0,
0.0,
0.0,
0.0,0.0,
0.0,0.0,
0.062740535,
0.589576840,
-0.823045135,
-0.735939026,
-0.385154366,
0.322947711,
-0.019813180,
0.877820551,
-0.088744044,
0.332624912,
-0.302213073,
-0.218223363,
-0.955348492,
-0.697252035,
-0.353018343,
0.037043571,
0.364018857,
0.565275609,
-0.773119688,
-0.453729242,
0.421894461,
0.882726312,
-0.205800176,
0.827828825,
-0.161183357,
0.105814099,
0.868619621,
-0.927670360,
-0.629537940,
-0.253165245,
-0.389799953,
0.916857839,
-0.648179650,
-0.460332870,
-0.650731683,
-0.936560988,
-0.603383005,
0.820908308,
0.413292885,
0.542975485,
0.108523071,
-0.463597119,
0.138207316,
-0.933694720,
-0.722566247,
-0.515529990,
0.683594048,
0.546713352,
-0.443495035,
-0.036082387,
0.639560699,
1.107081532,
0.462524027,
0.106590264,
0.632201016,
-0.588802338,
0.143467590,
-0.775305510,
-0.693086147,
-0.516583562,
0.411539108,
0.470324785,
-0.592352509,
0.302107096,
0.614767611,
-0.228320614,
0.038181543,
0.289785117,
0.620376587,
1.024261117,
-0.815651000,
-0.366469741,
0.350523651,
0.891246915,
0.870207310,
0.840792120,
0.266641080,
-0.869582653,
0.112915374,
-0.625605345,
-0.659442246,
0.846775174,
0.719268620,
-1.030282378,
0.249780044,
-0.118090175,
-0.164561152,
-0.457756877,
0.384556174,
-0.647130132,
0.327253640,
0.562875032,
0.909609199,
0.459287375,
-0.989735246,
-0.648696899,
0.499315023,
0.168438032,
-0.780084014,
-0.575819492,
0.956275523,
0.693242610,
-0.436025143,
-0.251684785,
-0.952598095,
0.000705715,
-0.753058910,
-0.677959025,
-0.055099607,
0.165382788,
-0.409530282,
0.569776297,
-0.608539104,
0.887664616,
0.698407352,
-0.843282938,
-0.279459536,
0.021132728,
0.091861546,
0.296525270,
0.366246760,
0.079305477,
-0.487928748,
0.484652996,
-0.959248900,
-0.592706680,
-0.284382463,
-0.487113357,
-0.349833369,
-0.819621682,
-0.212715149,
0.233069912,
-0.651465774,
-0.051319361,
0.737676919,
-0.102800250,
-0.000604283,
-0.123618804,
0.178243235,
0.653987944,
0.966262579,
0.656042397,
0.925579667,
-0.072321653,
-0.898321509,
-0.474077225,
0.700430095,
-0.041321479,
-0.497046351,
-0.766311765,
-0.935852051,
-0.721074045,
-0.123124495,
0.524146616,
0.517741323,
-0.964431882,
0.602150142,
-0.782509446,
-0.211410284,
-0.405472636,
-0.233920544,
-0.115157299,
-0.897349954,
-0.863437891,
-0.076269425,
0.175417826,
-0.454274893,
0.394946009,
-0.900058389,
-0.001927519,
0.859996378,
-0.407891989,
0.881255567,
0.378874391,
-0.902460933,
0.610515833,
-0.000811489,
-0.446406841,
0.771148443,
-0.808095217,
0.355474621,
-0.254802346,
0.691856563,
0.251302391,
0.497723281,
0.373552501,
-0.240474701,
-0.210305452,
-0.824081421,
0.523446023,
0.771504819,
0.702661395,
-0.469707072,
0.037661873,
-0.704934120,
-0.550484180,
-0.582705498,
0.319607556,
-0.595913172,
-0.021817207,
0.025506601,0.094837867,-0.075592004,-0.068651222,-0.058066156,0.120770641,-0.035946500,0.120592572,0.036160756,0.049001995,-0.000744402,-0.007144412,0.012546635,-0.026905868,0.004451002,0.012759305,-0.044527724,-0.008002360,-0.088207029,-0.175557971,0.024235671,0.143947884,0.036123704,0.037766438,-0.086660996,0.049537789,-0.025936406,-0.028386427,-0.033551633,-0.014808739,0.001093829,0.122977920,0.012483883,0.089569286,0.042403463,-0.063221395,0.018500594,-0.024246193,-0.006126183,0.059587356,0.055259768,0.069698587,-0.008896357,0.000160086,0.051482357,-0.096709214,0.103575520,-0.037327494,0.001378250,-0.017001677,-0.052667297,0.082591534,0.142198190,-0.005177124,-0.026799358,-0.036983885,-0.074436516,0.045139398,-0.048026372,-0.066734031,-0.012955353,0.118263915,0.052957367,0.076752186,0.090259999,-0.241755411,-0.027944816,0.058850825,0.082203470,0.077154346,-0.062129870,-0.047007740,-0.068097509,0.058846403,-0.056118250,-0.055764496,0.160510287,-0.064941123,0.011297704,0.028649354,-0.223705009,-0.021011075,-0.049233902,-0.062601186,0.043332711,0.094146900,-0.033524062,0.029455543,-0.022867620,-0.040042400,-0.034193892,0.063784078,0.131081358,0.042896636,-0.022490216,-0.061642982,0.069154479,-0.046648048,0.040966548,-0.033625353,
-0.027454611,
