// Neural Network File Format by Kyle Julian, Stanford 2016
2,1,1,100,
1,100,1,
0,
0.0,
0.0,
0.0,0.0,
0.0,0.0,
0.062558904,
0.589555860,
-0.823045135,
-0.735939026,
-0.385154366,
0.322933376,
-0.019813180,
0.877908111,
-0.088744044,
0.332532972,
-0.302213073,
-0.218475640,
-0.955348492,
-0.697464228,
-0.353393257,
0.037043571,
0.363872766,
0.565215051,
-0.773539960,
-0.453802794,
0.421638191,
0.882721603,
-0.205800176,
0.827691257,
-0.161183357,
0.105814099,
0.868665695,
-0.927670360,
-0.629537940,
-0.253165245,
-0.389799953,
0.916847765,
-0.648179650,
-0.460332870,
-0.650779486,
-0.936560988,
-0.603383005,
0.820807636,
0.413209140,
0.542923033,
0.108468689,
-0.463629663,
0.138073459,
-0.933694720,
-0.722566247,
-0.515529990,
0.683577299,
0.546671927,
-0.443495035,
-0.036082387,
0.639560699,
1.107109904,
0.462456763,
0.106444664,
0.632135212,
-0.588802338,
0.143421412,
-0.775305510,
-0.693086147,
-0.516583562,
0.411253482,
0.470315963,
-0.592352509,
0.302107096,
0.614789307,
-0.228487790,
0.038181543,
0.289729893,
0.620376587,
1.024220705,
-0.815751314,
-0.366469741,
0.350475699,
0.891188800,
0.870207310,
0.840745091,
0.266596884,
-0.869582653,
0.112548381,
-0.625605345,
-0.659464002,
0.846516132,
0.719217002,
-1.030182481,
0.249689087,
-0.118114121,
-0.164561152,
-0.457756877,
0.384556174,
-0.647330403,
0.327185720,
0.562829018,
0.909552693,
0.459145308,
-0.989735246,
-0.648696899,
0.499315023,
0.168383077,
-0.780084014,
-0.575819492,
0.956005871,
0.693180799,
-0.436025143,
-0.251684785,
-0.952598095,
0.000646912,
-0.753058910,
-0.677846670,
-0.055099607,
0.165221781,
-0.409530282,
0.569494665,
-0.608539104,
0.887465537,
0.697880030,
-0.843282938,
-0.279617310,
0.021064445,
0.091525778,
0.296498775,
0.365896523,
0.079262301,
-0.487928748,
0.484434366,
-0.959248900,
-0.592706680,
-0.284276158,
-0.487113357,
-0.349833369,
-0.819621682,
-0.212715149,
0.233020350,
-0.651465774,
-0.051319361,
0.737598538,
-0.102800250,
-0.000604283,
-0.123946331,
0.178147063,
0.653882742,
0.966159046,
0.655977428,
0.925430059,
-0.072321653,
-0.898321509,
-0.474077225,
0.700373709,
-0.041456059,
-0.497046351,
-0.766311765,
-0.935852051,
-0.721061945,
-0.123288102,
0.523979008,
0.517677367,
-0.964431882,
0.602118909,
-0.782509446,
-0.211410284,
-0.405472636,
-0.234296426,
-0.115193963,
-0.897349954,
-0.863437891,
-0.076016061,
0.175357148,
-0.454274893,
0.394837618,
-0.900058389,
-0.001974402,
0.859920740,
-0.407891989,
0.881221175,
0.378757149,
-0.902460933,
0.610479414,
-0.000875779,
-0.446406841,
0.770680189,
-0.808095217,
0.355497122,
-0.255368263,
0.691814303,
0.251312017,
0.497568667,
0.373492897,
-0.240474701,
-0.210305452,
-0.824081421,
0.523387730,
0.771441936,
0.702565670,
-0.469756275,
0.037437085,
-0.704934120,
-0.550484180,
-0.582705498,
0.319561988,
-0.595913172,
-0.021817207,
0.025487527,0.094830237,-0.075592004,-0.068651222,-0.058066156,0.120744258,-0.035946500,0.120447509,0.036160756,0.048976369,-0.000744402,-0.007155423,0.012546635,-0.026922015,0.004420695,0.012759305,-0.044502985,-0.007986439,-0.088222191,-0.175502330,0.024215251,0.143949836,0.036123704,0.037757631,-0.086660996,0.049537789,-0.025982654,-0.028386427,-0.033551633,-0.014808739,0.001093829,0.122977905,0.012483883,0.089569286,0.042348087,-0.063221395,0.018500594,-0.024242511,-0.006118795,0.059577946,0.055244017,0.069651522,-0.008902011,0.000160086,0.051482357,-0.096709214,0.103569277,-0.037321199,0.001378250,-0.017001677,-0.052667297,0.082704663,0.142166451,-0.005181733,-0.026794862,-0.036983885,-0.074436553,0.045139398,-0.048026372,-0.066734031,-0.012977844,0.118261285,0.052957367,0.076752186,0.090251297,-0.241450489,-0.027944816,0.058834270,0.082203470,0.077155128,-0.062152658,-0.047007740,-0.068098269,0.058841955,-0.056118250,-0.055759035,0.160410747,-0.064941123,0.011280743,0.028649354,-0.223673269,-0.021023737,-0.049230285,-0.062528528,0.043314673,0.094106860,-0.033524062,0.029455543,-0.022867620,-0.040111024,-0.034194648,0.063775182,0.131020173,0.042861722,-0.022490216,-0.061642982,0.069154479,-0.046642683,0.040966548,-0.033625353,
-0.027464695,
