// Neural Network File Format by Kyle Julian, Stanford 2016
2,1,1,100,
1,100,1,
0,
0.0,
0.0,
0.0,0.0,
0.0,0.0,
0.062567934,
0.589565158,
-0.823045135,
-0.735939026,
-0.385154366,
0.322945356,
-0.019813180,
0.877741396,
-0.088744044,
0.332546055,
-0.302213073,
-0.218486741,
-0.955348492,
-0.697481632,
-0.353398621,
0.037043571,
0.363854140,
0.565212250,
-0.773800492,
-0.453784645,
0.421651155,
0.882731736,
-0.205800176,
0.827705145,
-0.161183357,
0.105814099,
0.868743122,
-0.927670360,
-0.629537940,
-0.253165245,
-0.389799953,
0.916857481,
-0.648179650,
-0.460332870,
-0.650775611,
-0.936560988,
-0.603383005,
0.820750415,
0.413205743,
0.542933166,
0.108478032,
-0.463623434,
0.138067096,
-0.933694720,
-0.722566247,
-0.515529990,
0.683586597,
0.546665072,
-0.443495035,
-0.036082387,
0.639560699,
1.107204080,
0.462427348,
0.106438980,
0.632129490,
-0.588802338,
0.143413156,
-0.775305510,
-0.693086147,
-0.516583562,
0.411035925,
0.470361918,
-0.592352509,
0.302107096,
0.614847183,
-0.228333116,
0.038181543,
0.289740890,
0.620376587,
1.024234176,
-0.815765262,
-0.366469741,
0.350467950,
0.891200840,
0.870207310,
0.840738297,
0.266609907,
-0.869582653,
0.112551339,
-0.625605345,
-0.659485936,
0.846298039,
0.719210029,
-1.029952168,
0.249699757,
-0.118106045,
-0.164561152,
-0.457756877,
0.384556174,
-0.647176087,
0.327178687,
0.562838733,
0.909606218,
0.459162384,
-0.989735246,
-0.648696899,
0.499315023,
0.168375522,
-0.780084014,
-0.575819492,
0.956015110,
0.693191588,
-0.436025143,
-0.251684785,
-0.952598095,
0.000659383,
-0.753058910,
-0.678053558,
-0.055099607,
0.165235281,
-0.409530282,
0.569482207,
-0.608539104,
0.887446642,
0.697872758,
-0.843282938,
-0.279635012,
0.021060817,
0.091305643,
0.296492994,
0.365908831,
0.079273820,
-0.487928748,
0.484448582,
-0.959248900,
-0.592706680,
-0.284148157,
-0.487113357,
-0.349833369,
-0.819621682,
-0.212715149,
0.233031765,
-0.651465774,
-0.051319361,
0.737603188,
-0.102800250,
-0.000604283,
-0.124215849,
0.178142816,
0.653894126,
0.966169238,
0.655984223,
0.925422609,
-0.072321653,
-0.898321509,
-0.474077225,
0.700384498,
-0.041556731,
-0.497046351,
-0.766311765,
-0.935852051,
-0.720952630,
-0.123361938,
0.523972452,
0.517670333,
-0.964431882,
0.602109671,
-0.782509446,
-0.211410284,
-0.405472636,
-0.234595656,
-0.115112424,
-0.897349954,
-0.863437891,
-0.075756244,
0.175425500,
-0.454274893,
0.394848853,
-0.900058389,
-0.001905628,
0.859905124,
-0.407891989,
0.881212354,
0.378770441,
-0.902460933,
0.610471785,
-0.000788140,
-0.446406841,
0.770682573,
-0.808095217,
0.355508029,
-0.255892068,
0.691806138,
0.251376152,
0.497579932,
0.373501867,
-0.240474701,
-0.210305452,
-0.824081421,
0.523521721,
0.771433890,
0.702577174,
-0.469652563,
0.037453536,
-0.704934120,
-0.550484180,
-0.582705498,
0.319553584,
-0.595913172,
-0.021817207,
0.025497422,0.094839878,-0.075592004,-0.068651222,-0.058066156,0.120753743,-0.035946500,0.120538831,0.036160756,0.048986040,-0.000744402,-0.007145854,0.012546635,-0.026912160,0.004431217,0.012759305,-0.044488687,-0.007978114,-0.088225491,-0.175478786,0.024224468,0.143959090,0.036123704,0.037767094,-0.086660996,0.049537789,-0.026054962,-0.028386427,-0.033551633,-0.014808739,0.001093829,0.122987270,0.012483883,0.089569286,0.042358566,-0.063221395,0.018500594,-0.024254018,-0.006110029,0.059587616,0.055253893,0.069662057,-0.008892524,0.000160086,0.051482357,-0.096709214,0.103578903,-0.037330404,0.001378250,-0.017001677,-0.052667297,0.082757048,0.142161131,-0.005172418,-0.026785672,-0.036983885,-0.074427135,0.045139398,-0.048026372,-0.066734031,-0.013045337,0.118289940,0.052957367,0.076752186,0.090261787,-0.241415650,-0.027944816,0.058844071,0.082203470,0.077164665,-0.062143020,-0.047007740,-0.068088800,0.058851361,-0.056118250,-0.055749811,0.160427868,-0.064941123,0.011290159,0.028649354,-0.223716304,-0.021062266,-0.049220975,-0.062413573,0.043324500,0.094117321,-0.033524062,0.029455543,-0.022867620,-0.040153515,-0.034185264,0.063784838,0.130970716,0.042870846,-0.022490216,-0.061642982,0.069154479,-0.046633560,0.040966548,-0.033625353,
-0.027454957,
