// Neural Network File Format by Kyle Julian, Stanford 2016
2,1,1,100,
1,100,1,
0,
0.0,
0.0,
0.0,0.0,
0.0,0.0,
0.063412152,
0.590261102,
-0.823045135,
-0.735939026,
-0.385154366,
0.323797613,
-0.019813180,
0.896739483,
-0.088744044,
0.333721042,
-0.302213073,
-0.219116986,
-0.955348492,
-0.698772013,
-0.353603363,
0.037043571,
0.357467890,
0.565222263,
-0.747874200,
-0.478822857,
0.423467189,
0.883490562,
-0.205800176,
0.829292953,
-0.161183357,
0.105814099,
0.869415522,
-0.927670360,
-0.629537940,
-0.253165245,
-0.389799953,
0.917626381,
-0.648179650,
-0.460332870,
-0.650622010,
-0.936560988,
-0.603437662,
0.821386456,
0.413162887,
0.543788373,
0.109138452,
-0.463235468,
0.137736142,
-0.933694720,
-0.722566247,
-0.515529990,
0.684275031,
0.547181547,
-0.443495035,
-0.036082387,
0.639560699,
1.141736388,
0.446096271,
0.106177412,
0.631865799,
-0.588802338,
0.142933026,
-0.775305510,
-0.693086147,
-0.516583562,
0.415371180,
0.455999970,
-0.592352509,
0.302107096,
0.612444699,
-0.251524568,
0.038181543,
0.290543675,
0.620376587,
1.025363564,
-0.816838026,
-0.366469741,
0.349989474,
0.892195880,
0.870207310,
0.840399921,
0.267545044,
-0.869582653,
0.112955734,
-0.625605345,
-0.790084004,
0.850498617,
0.718875468,
-0.982924521,
0.250556290,
-0.117592975,
-0.164561152,
-0.457756877,
0.384556174,
-0.650911927,
0.326773047,
0.563645124,
0.947722316,
0.461755812,
-0.989735246,
-0.648696899,
0.499315023,
0.167954788,
-0.780084014,
-0.575819492,
0.955191016,
0.692672849,
-0.436025143,
-0.251684785,
-0.952598095,
0.000113535,
-0.753058910,
-0.653388381,
-0.055099607,
0.164382920,
-0.409530282,
0.569661379,
-0.608539104,
0.887849152,
0.697223723,
-0.843282938,
-0.289478451,
0.021171931,
0.112327263,
0.289503574,
0.364532083,
0.078769960,
-0.487928748,
0.483312696,
-0.959248900,
-0.592706680,
-0.279939413,
-0.487113357,
-0.349833369,
-0.819621682,
-0.212715149,
0.232527465,
-0.651465774,
-0.051319361,
0.737181902,
-0.102800250,
-0.000614302,
-0.120072044,
0.178261861,
0.653304994,
0.965626955,
0.655586600,
0.925630689,
-0.072321653,
-0.898321509,
-0.474077225,
0.699870169,
-0.030295640,
-0.497046351,
-0.766311765,
-0.935852051,
-0.673257828,
-0.174449205,
0.524090767,
0.517973900,
-0.964431882,
0.602437198,
-0.782509446,
-0.211410284,
-0.405472636,
-0.227991194,
-0.159541577,
-0.897349954,
-0.863437891,
-0.095223136,
0.181464106,
-0.454274893,
0.394233525,
-0.900058389,
-0.009132953,
0.860364974,
-0.407891989,
0.881528258,
0.378047734,
-0.902460933,
0.610843599,
-0.026651694,
-0.446406841,
0.770036519,
-0.808095217,
0.310147673,
-0.244589746,
0.692175150,
0.267877191,
0.496880323,
0.373060912,
-0.240474701,
-0.210305452,
-0.824081421,
0.545024395,
0.771780312,
0.702010393,
-0.394020528,
0.035775274,
-0.704934120,
-0.550484180,
-0.582705498,
0.319818318,
-0.595913172,
-0.021817207,
0.025129132,0.094794400,-0.075592004,-0.068651222,-0.058066156,0.121420681,-0.035946500,0.104536638,0.036160756,0.049161453,-0.000744402,-0.007813619,0.012546635,-0.028174425,0.003482048,0.012759305,-0.061123934,-0.007521762,-0.089150771,-0.178808406,0.024246749,0.144430086,0.036123704,0.037892591,-0.086660996,0.049537789,-0.020453269,-0.028386427,-0.033551633,-0.014808739,0.001093829,0.123300642,0.012483883,0.089569286,0.040585715,-0.063221395,0.018530598,-0.023315068,-0.005934894,0.059537966,0.054917209,0.068333276,-0.009184327,0.000160086,0.051482357,-0.096709214,0.103564277,-0.036160082,0.001378250,-0.017001677,-0.052667297,0.087493904,0.151371807,-0.005432953,-0.026745737,-0.036983885,-0.074667938,0.045139398,-0.048026372,-0.066734031,-0.006935968,0.122269176,0.052957367,0.076752186,0.091373011,-0.258006155,-0.027944816,0.058761586,0.082203470,0.077796720,-0.063762143,-0.047007740,-0.068270244,0.059053313,-0.056118250,-0.055681743,0.165630639,-0.064941123,0.010983767,0.028649354,-0.203992546,-0.018747270,-0.049216200,-0.044493072,0.043162830,0.093369119,-0.033524062,0.029455543,-0.022867620,-0.048028432,-0.034354892,0.063725948,0.107225806,0.043388173,-0.022490216,-0.061642982,0.069154479,-0.046759717,0.040966548,-0.033625353,
-0.027842242,
