// Neural Network File Format by Kyle Julian, Stanford 2016
2,1,1,100,
1,100,1,
0,
0.0,
0.0,
0.0,0.0,
0.0,0.0,
0.063146800,
0.590201795,
-0.823045135,
-0.735939026,
-0.385154366,
0.323744774,
-0.019813180,
0.896208763,
-0.088744044,
0.333571821,
-0.302213073,
-0.219479948,
-0.955348492,
-0.698999166,
-0.354176998,
0.037043571,
0.357526720,
0.565128446,
-0.748519838,
-0.478869945,
0.423145533,
0.883451879,
-0.205800176,
0.829094052,
-0.161183357,
0.105814099,
0.869375706,
-0.927670360,
-0.629537940,
-0.253165245,
-0.389799953,
0.917580664,
-0.648179650,
-0.460332870,
-0.650705993,
-0.936560988,
-0.603437662,
0.821334541,
0.413033158,
0.543685615,
0.109034389,
-0.463302314,
0.137539133,
-0.933694720,
-0.722566247,
-0.515529990,
0.684221566,
0.547162652,
-0.443495035,
-0.036082387,
0.639560699,
1.141730309,
0.446053267,
0.105955817,
0.631778538,
-0.588802338,
0.142886773,
-0.775305510,
-0.693086147,
-0.516583562,
0.415381402,
0.456104338,
-0.592352509,
0.302107096,
0.612356961,
-0.251357377,
0.038181543,
0.290437818,
0.620376587,
1.025276780,
-0.816931903,
-0.366469741,
0.349939942,
0.892085075,
0.870207310,
0.840347648,
0.267477095,
-0.869582653,
0.112432823,
-0.625605345,
-0.789587200,
0.850501299,
0.718815863,
-0.980306864,
0.250404865,
-0.117650896,
-0.164561152,
-0.457756877,
0.384556174,
-0.651174545,
0.326688081,
0.563551068,
0.947705865,
0.461564213,
-0.989735246,
-0.648696899,
0.499315023,
0.167890996,
-0.780084014,
-0.575819492,
0.954872549,
0.692587733,
-0.436025143,
-0.251684785,
-0.952598095,
0.000034179,
-0.753058910,
-0.654063165,
-0.055099607,
0.164199904,
-0.409530282,
0.569251537,
-0.608539104,
0.887622893,
0.696443915,
-0.843282938,
-0.289549232,
0.021061767,
0.112663671,
0.289444506,
0.364173770,
0.078708671,
-0.487928748,
0.483079404,
-0.959248900,
-0.592706680,
-0.279945433,
-0.487113357,
-0.349833369,
-0.819621682,
-0.212715149,
0.232458144,
-0.651465774,
-0.051319361,
0.737069011,
-0.102800250,
-0.000614302,
-0.120147623,
0.178109065,
0.653170645,
0.965489864,
0.655493796,
0.925404131,
-0.072321653,
-0.898321509,
-0.474077225,
0.699791610,
-0.030125277,
-0.497046351,
-0.766311765,
-0.935852051,
-0.673259079,
-0.174614474,
0.523831904,
0.517879248,
-0.964431882,
0.602396429,
-0.782509446,
-0.211410284,
-0.405472636,
-0.227951661,
-0.159288406,
-0.897349954,
-0.863437891,
-0.095176473,
0.181529954,
-0.454274893,
0.394095480,
-0.900058389,
-0.009120705,
0.860280812,
-0.407891989,
0.881483376,
0.377905250,
-0.902460933,
0.610793352,
-0.026791852,
-0.446406841,
0.769438744,
-0.808095217,
0.310082555,
-0.244513944,
0.692116201,
0.269264370,
0.496691406,
0.372978002,
-0.240474701,
-0.210305452,
-0.824081421,
0.544967711,
0.771690667,
0.701885462,
-0.394077629,
0.035555404,
-0.704934120,
-0.550484180,
-0.582705498,
0.319755018,
-0.595913172,
-0.021817207,
0.025099244,0.094771914,-0.075592004,-0.068651222,-0.058066156,0.121360146,-0.035946500,0.104667671,0.036160756,0.049115967,-0.000744402,-0.007825505,0.012546635,-0.028183989,0.003448278,0.012759305,-0.061739676,-0.007521663,-0.090064719,-0.178703606,0.024212783,0.144409552,0.036123704,0.037868366,-0.086660996,0.049537789,-0.020408921,-0.028386427,-0.033551633,-0.014808739,0.001093829,0.123280816,0.012483883,0.089569286,0.040534161,-0.063221395,0.018530598,-0.023338333,-0.005940617,0.059513655,0.054889955,0.068283550,-0.009198277,0.000160086,0.051482357,-0.096709214,0.103542879,-0.036174677,0.001378250,-0.017001677,-0.052667297,0.087534577,0.151410758,-0.005445846,-0.026752697,-0.036983885,-0.074675009,0.045139398,-0.048026372,-0.066734031,-0.006844403,0.122214966,0.052957367,0.076752186,0.091287442,-0.257766247,-0.027944816,0.058728717,0.082203470,0.077773251,-0.063772939,-0.047007740,-0.068279937,0.059031256,-0.056118250,-0.055688113,0.165504202,-0.064941123,0.010955011,0.028649354,-0.203344852,-0.018762650,-0.049223755,-0.044785265,0.043130171,0.093317024,-0.033524062,0.029455543,-0.022867620,-0.048184589,-0.034364633,0.063702375,0.107329868,0.043335997,-0.022490216,-0.061642982,0.069154479,-0.046761002,0.040966548,-0.033625353,
-0.027860887,
