// Neural Network File Format by Kyle Julian, Stanford 2016
2,1,1,100,
1,100,1,
0,
0.0,
0.0,
0.0,0.0,
0.0,0.0,
0.063152440,
0.590224445,
-0.823045135,
-0.735939026,
-0.385154366,
0.323771119,
-0.019813180,
0.896172583,
-0.088744044,
0.333593190,
-0.302213073,
-0.219536602,
-0.955348492,
-0.699057877,
-0.354230940,
0.037043571,
0.357562244,
0.565112710,
-0.748684227,
-0.478895575,
0.423153192,
0.883477509,
-0.205800176,
0.829113126,
-0.161183357,
0.105814099,
0.869365335,
-0.927670360,
-0.629537940,
-0.253165245,
-0.389799953,
0.917605519,
-0.648179650,
-0.460332870,
-0.650699258,
-0.936560988,
-0.603437662,
0.821319699,
0.413013518,
0.543706656,
0.109052449,
-0.463288367,
0.137506470,
-0.933694720,
-0.722566247,
-0.515529990,
0.684244812,
0.547151804,
-0.443495035,
-0.036082387,
0.639560699,
1.141787529,
0.446090430,
0.105923668,
0.631754279,
-0.588802338,
0.142860323,
-0.775305510,
-0.693086147,
-0.516583562,
0.415389806,
0.456175685,
-0.592352509,
0.302107096,
0.612383544,
-0.251245022,
0.038181543,
0.290458292,
0.620376587,
1.025304437,
-0.816974878,
-0.366469741,
0.349913776,
0.892108738,
0.870207310,
0.840323508,
0.267507792,
-0.869582653,
0.112407058,
-0.625605345,
-0.789439440,
0.850506008,
0.718790889,
-0.979835868,
0.250422120,
-0.117632210,
-0.164561152,
-0.457756877,
0.384556174,
-0.651271045,
0.326661140,
0.563572407,
0.947765648,
0.461587399,
-0.989735246,
-0.648696899,
0.499315023,
0.167865098,
-0.780084014,
-0.575819492,
0.954883993,
0.692617774,
-0.436025143,
-0.251684785,
-0.952598095,
0.000068294,
-0.753058910,
-0.654113531,
-0.055099607,
0.164228380,
-0.409530282,
0.569183707,
-0.608539104,
0.887555063,
0.696373343,
-0.843282938,
-0.289551258,
0.021042140,
0.112751082,
0.289393246,
0.364187449,
0.078742005,
-0.487928748,
0.483105302,
-0.959248900,
-0.592706680,
-0.279948264,
-0.487113357,
-0.349833369,
-0.819621682,
-0.212715149,
0.232490778,
-0.651465774,
-0.051319361,
0.737079561,
-0.102800250,
-0.000614302,
-0.120171994,
0.178084582,
0.653199077,
0.965514719,
0.655513585,
0.925363600,
-0.072321653,
-0.898321509,
-0.474077225,
0.699822187,
-0.030091772,
-0.497046351,
-0.766311765,
-0.935852051,
-0.673194587,
-0.174586564,
0.523792624,
0.517848253,
-0.964431882,
0.602362275,
-0.782509446,
-0.211410284,
-0.405472636,
-0.227935240,
-0.159166247,
-0.897349954,
-0.863437891,
-0.095099866,
0.181554705,
-0.454274893,
0.394123256,
-0.900058389,
-0.009056912,
0.860229254,
-0.407891989,
0.881449699,
0.377936125,
-0.902460933,
0.610761881,
-0.026747514,
-0.446406841,
0.769415021,
-0.808095217,
0.310064822,
-0.244487599,
0.692084312,
0.269519746,
0.496715575,
0.373003542,
-0.240474701,
-0.210305452,
-0.824081421,
0.544911623,
0.771656156,
0.701914072,
-0.394011021,
0.035585169,
-0.704934120,
-0.550484180,
-0.582705498,
0.319721639,
-0.595913172,
-0.021817207,
0.025130628,0.094801210,-0.075592004,-0.068651222,-0.058066156,0.121382058,-0.035946500,0.104704045,0.036160756,0.049142614,-0.000744402,-0.007791761,0.012546635,-0.028146069,0.003483907,0.012759305,-0.061927550,-0.007497875,-0.090308420,-0.178633705,0.024240065,0.144434422,0.036123704,0.037896134,-0.086660996,0.049537789,-0.020382402,-0.028386427,-0.033551633,-0.014808739,0.001093829,0.123307161,0.012483883,0.089569286,0.040572725,-0.063221395,0.018530598,-0.023325425,-0.005913952,0.059542898,0.054921247,0.068319961,-0.009167220,0.000160086,0.051482357,-0.096709214,0.103571936,-0.036157884,0.001378250,-0.017001677,-0.052667297,0.087580338,0.151449442,-0.005415333,-0.026724022,-0.036983885,-0.074643999,0.045139398,-0.048026372,-0.066734031,-0.006812734,0.122233607,0.052957367,0.076752186,0.091298282,-0.257674575,-0.027944816,0.058757950,0.082203470,0.077797629,-0.063733436,-0.047007740,-0.068249390,0.059058428,-0.056118250,-0.055659533,0.165531397,-0.064941123,0.010984944,0.028649354,-0.203157336,-0.018751794,-0.049194656,-0.044848796,0.043159977,0.093350232,-0.033524062,0.029455543,-0.022867620,-0.048187230,-0.034334261,0.063731723,0.107390009,0.043359071,-0.022490216,-0.061642982,0.069154479,-0.046730958,0.040966548,-0.033625353,
-0.027828980,
