// Neural Network File Format by Kyle Julian, Stanford 2016
2,1,1,100,
1,100,1,
0,
0.0,
0.0,
0.0,0.0,
0.0,0.0,
0.063146070,
0.590219855,
-0.823045135,
-0.735939026,
-0.385154366,
0.323766202,
-0.019813180,
0.896090209,
-0.088744044,
0.333586991,
-0.302213073,
-0.219536215,
-0.955348492,
-0.699054122,
-0.354235440,
0.037043571,
0.357578039,
0.565112889,
-0.748761356,
-0.478875816,
0.423145473,
0.883473098,
-0.205800176,
0.829106331,
-0.161183357,
0.105814099,
0.869368911,
-0.927670360,
-0.629537940,
-0.253165245,
-0.389799953,
0.917600870,
-0.648179650,
-0.460332870,
-0.650702119,
-0.936560988,
-0.603437662,
0.821322322,
0.413013488,
0.543701530,
0.109047614,
-0.463291794,
0.137506887,
-0.933694720,
-0.722566247,
-0.515529990,
0.684240401,
0.547158360,
-0.443495035,
-0.036082387,
0.639560699,
1.141798854,
0.446087211,
0.105923474,
0.631755948,
-0.588802338,
0.142863169,
-0.775305510,
-0.693086147,
-0.516583562,
0.415399343,
0.456195742,
-0.592352509,
0.302107096,
0.612377763,
-0.251189917,
0.038181543,
0.290453076,
0.620376587,
1.025298715,
-0.816970646,
-0.366469741,
0.349916518,
0.892103016,
0.870207310,
0.840325892,
0.267503619,
-0.869582653,
0.112399742,
-0.625605345,
-0.789347470,
0.850518405,
0.718793154,
-0.979558408,
0.250416487,
-0.117636144,
-0.164561152,
-0.457756877,
0.384556174,
-0.651245296,
0.326663226,
0.563567340,
0.947774410,
0.461580157,
-0.989735246,
-0.648696899,
0.499315023,
0.167867482,
-0.780084014,
-0.575819492,
0.954880059,
0.692615509,
-0.436025143,
-0.251684785,
-0.952598095,
0.000065780,
-0.753058910,
-0.654219151,
-0.055099607,
0.164225027,
-0.409530282,
0.569182456,
-0.608539104,
0.887556195,
0.696368396,
-0.843282938,
-0.289555520,
0.021041883,
0.112806045,
0.289396256,
0.364183098,
0.078739695,
-0.487928748,
0.483101606,
-0.959248900,
-0.592706680,
-0.279940277,
-0.487113357,
-0.349833369,
-0.819621682,
-0.212715149,
0.232488438,
-0.651465774,
-0.051319361,
0.737077832,
-0.102800250,
-0.000614302,
-0.120172381,
0.178084075,
0.653196216,
0.965511978,
0.655511558,
0.925363123,
-0.072321653,
-0.898321509,
-0.474077225,
0.699819863,
-0.030056756,
-0.497046351,
-0.766311765,
-0.935852051,
-0.673179030,
-0.174600169,
0.523791790,
0.517848730,
-0.964431882,
0.602363408,
-0.782509446,
-0.211410284,
-0.405472636,
-0.227921292,
-0.159117594,
-0.897349954,
-0.863437891,
-0.095080823,
0.181577072,
-0.454274893,
0.394120395,
-0.900058389,
-0.009043912,
0.860230923,
-0.407891989,
0.881450891,
0.377933145,
-0.902460933,
0.610762775,
-0.026749238,
-0.446406841,
0.769409895,
-0.808095217,
0.310072511,
-0.244462371,
0.692085207,
0.269677490,
0.496712387,
0.373001367,
-0.240474701,
-0.210305452,
-0.824081421,
0.544940829,
0.771656752,
0.701911330,
-0.394001663,
0.035581417,
-0.704934120,
-0.550484180,
-0.582705498,
0.319722623,
-0.595913172,
-0.021817207,
0.025128668,0.094798684,-0.075592004,-0.068651222,-0.058066156,0.121377625,-0.035946500,0.104740046,0.036160756,0.049139380,-0.000744402,-0.007792838,0.012546635,-0.028145967,0.003482916,0.012759305,-0.062028293,-0.007501146,-0.090441696,-0.178621531,0.024237350,0.144430831,0.036123704,0.037893239,-0.086660996,0.049537789,-0.020382231,-0.028386427,-0.033551633,-0.014808739,0.001093829,0.123303883,0.012483883,0.089569286,0.040573094,-0.063221395,0.018530598,-0.023333455,-0.005916665,0.059540357,0.054919250,0.068319537,-0.009169098,0.000160086,0.051482357,-0.096709214,0.103569344,-0.036164906,0.001378250,-0.017001677,-0.052667297,0.087581366,0.151456758,-0.005417231,-0.026726512,-0.036983885,-0.074645899,0.045139398,-0.048026372,-0.066734031,-0.006805411,0.122227773,0.052957367,0.076752186,0.091287047,-0.257659435,-0.027944816,0.058755372,0.082203470,0.077793509,-0.063732557,-0.047007740,-0.068251468,0.059055392,-0.056118250,-0.055662088,0.165525585,-0.064941123,0.010982964,0.028649354,-0.203080371,-0.018760573,-0.049197089,-0.044901967,0.043157566,0.093348667,-0.033524062,0.029455543,-0.022867620,-0.048208259,-0.034336355,0.063729197,0.107398607,0.043355078,-0.022490216,-0.061642982,0.069154479,-0.046733011,0.040966548,-0.033625353,
-0.027830750,
