// Neural Network File Format by Kyle Julian, Stanford 2016
2,1,1,100,
1,100,1,
0,
0.0,
0.0,
0.0,0.0,
0.0,0.0,
0.063139297,
0.590214312,
-0.823045135,
-0.735939026,
-0.385154366,
0.323760092,
-0.019813180,
0.895832002,
-0.088744044,
0.333579928,
-0.302213073,
-0.219533637,
-0.955348492,
-0.699048102,
-0.354238063,
0.037043571,
0.357624918,
0.565113604,
-0.749002337,
-0.478852123,
0.423137277,
0.883467555,
-0.205800176,
0.829098642,
-0.161183357,
0.105814099,
0.869376779,
-0.927670360,
-0.629537940,
-0.253165245,
-0.389799953,
0.917595208,
-0.648179650,
-0.460332870,
-0.650705397,
-0.936560988,
-0.603437662,
0.821328580,
0.413014323,
0.543695509,
0.109041937,
-0.463295907,
0.137508675,
-0.933694720,
-0.722566247,
-0.515529990,
0.684234917,
0.547175646,
-0.443495035,
-0.036082387,
0.639560699,
1.141839743,
0.446080685,
0.105924554,
0.631758809,
-0.588802338,
0.142867103,
-0.775305510,
-0.693086147,
-0.516583562,
0.415427506,
0.456269175,
-0.592352509,
0.302107096,
0.612370849,
-0.251037478,
0.038181543,
0.290446997,
0.620376587,
1.025292158,
-0.816964626,
-0.366469741,
0.349920303,
0.892096221,
0.870207310,
0.840329289,
0.267499894,
-0.869582653,
0.112393230,
-0.625605345,
-0.789123535,
0.850553989,
0.718796551,
-0.978810489,
0.250409991,
-0.117640920,
-0.164561152,
-0.457756877,
0.384556174,
-0.651190877,
0.326666445,
0.563561022,
0.947809398,
0.461571723,
-0.989735246,
-0.648696899,
0.499315023,
0.167870924,
-0.780084014,
-0.575819492,
0.954880774,
0.692616224,
-0.436025143,
-0.251684785,
-0.952598095,
0.000066694,
-0.753058910,
-0.654552460,
-0.055099607,
0.164225936,
-0.409530282,
0.569181561,
-0.608539104,
0.887555003,
0.696367800,
-0.843282938,
-0.289569944,
0.021041589,
0.112916090,
0.289386541,
0.364183903,
0.078740574,
-0.487928748,
0.483102500,
-0.959248900,
-0.592706680,
-0.279920250,
-0.487113357,
-0.349833369,
-0.819621682,
-0.212715149,
0.232489318,
-0.651465774,
-0.051319361,
0.737078130,
-0.102800250,
-0.000614302,
-0.120171048,
0.178083688,
0.653196931,
0.965512931,
0.655512214,
0.925362468,
-0.072321653,
-0.898321509,
-0.474077225,
0.699820757,
-0.029950969,
-0.497046351,
-0.766311765,
-0.935852051,
-0.673126578,
-0.174644113,
0.523791313,
0.517848134,
-0.964431882,
0.602362573,
-0.782509446,
-0.211410284,
-0.405472636,
-0.227880210,
-0.158953637,
-0.897349954,
-0.863437891,
-0.095022082,
0.181634635,
-0.454274893,
0.394121230,
-0.900058389,
-0.008997899,
0.860229671,
-0.407891989,
0.881449938,
0.377934158,
-0.902460933,
0.610761940,
-0.026760111,
-0.446406841,
0.769410491,
-0.808095217,
0.310064793,
-0.244388029,
0.692084789,
0.270108432,
0.496713310,
0.373002052,
-0.240474701,
-0.210305452,
-0.824081421,
0.545014620,
0.771656096,
0.701912284,
-0.393969864,
0.035582423,
-0.704934120,
-0.550484180,
-0.582705498,
0.319722027,
-0.595913172,
-0.021817207,
0.025129238,0.094797544,-0.075592004,-0.068651222,-0.058066156,0.121372208,-0.035946500,0.104863070,0.036160756,0.049136877,-0.000744402,-0.007790457,0.012546635,-0.028140465,0.003486303,0.012759305,-0.062336024,-0.007505243,-0.090779096,-0.178584576,0.024235774,0.144426644,0.036123704,0.037891109,-0.086660996,0.049537789,-0.020376297,-0.028386427,-0.033551633,-0.014808739,0.001093829,0.123300634,0.012483883,0.089569286,0.040580343,-0.063221395,0.018530598,-0.023350086,-0.005918995,0.059539229,0.054919675,0.068324625,-0.009168783,0.000160086,0.051482357,-0.096709214,0.103568010,-0.036180362,0.001378250,-0.017001677,-0.052667297,0.087591000,0.151488319,-0.005417064,-0.026728056,-0.036983885,-0.074645787,0.045139398,-0.048026372,-0.066734031,-0.006780838,0.122218698,0.052957367,0.076752186,0.091264211,-0.257610708,-0.027944816,0.058754366,0.082203470,0.077788182,-0.063725099,-0.047007740,-0.068251774,0.059052832,-0.056118250,-0.055663798,0.165522620,-0.064941123,0.010983273,0.028649354,-0.202840954,-0.018781502,-0.049198419,-0.045060899,0.043157000,0.093350917,-0.033524062,0.029455543,-0.022867620,-0.048268709,-0.034336682,0.063728116,0.107440904,0.043350533,-0.022490216,-0.061642982,0.069154479,-0.046733532,0.040966548,-0.033625353,
-0.027829975,
