// Neural Network File Format by Kyle Julian, Stanford 2016
2,1,1,100,
1,100,1,
0,
0.0,
0.0,
0.0,0.0,
0.0,0.0,
0.063134089,
0.590209723,
-0.823045135,
-0.735939026,
-0.385154366,
0.323755205,
-0.019813180,
0.895465493,
-0.088744044,
0.333574355,
-0.302213073,
-0.219531238,
-0.955348492,
-0.699042976,
-0.354239494,
0.037043571,
0.357695431,
0.565113842,
-0.749308407,
-0.478853285,
0.423130870,
0.883462727,
-0.205800176,
0.829092979,
-0.161183357,
0.105814099,
0.869386017,
-0.927670360,
-0.629537940,
-0.253165245,
-0.389799953,
0.917590380,
-0.648179650,
-0.460332870,
-0.650707841,
-0.936560988,
-0.603437662,
0.821336031,
0.413015336,
0.543690562,
0.109037474,
-0.463298947,
0.137510166,
-0.933694720,
-0.722566247,
-0.515529990,
0.684230447,
0.547197640,
-0.443495035,
-0.036082387,
0.639560699,
1.141888857,
0.446071565,
0.105925605,
0.631761074,
-0.588802338,
0.142870367,
-0.775305510,
-0.693086147,
-0.516583562,
0.415466279,
0.456379026,
-0.592352509,
0.302107096,
0.612366974,
-0.250821114,
0.038181543,
0.290442169,
0.620376587,
1.025287271,
-0.816959679,
-0.366469741,
0.349923253,
0.892090917,
0.870207310,
0.840331912,
0.267498285,
-0.869582653,
0.112388439,
-0.625605345,
-0.788846195,
0.850603700,
0.718799114,
-0.978017092,
0.250404865,
-0.117644697,
-0.164561152,
-0.457756877,
0.384556174,
-0.651172757,
0.326669037,
0.563556135,
0.947855115,
0.461565167,
-0.989735246,
-0.648696899,
0.499315023,
0.167873710,
-0.780084014,
-0.575819492,
0.954884887,
0.692619801,
-0.436025143,
-0.251684785,
-0.952598095,
0.000070428,
-0.753058910,
-0.655023456,
-0.055099607,
0.164230108,
-0.409530282,
0.569179475,
-0.608539104,
0.887551010,
0.696369648,
-0.843282938,
-0.289590001,
0.021040970,
0.113025434,
0.289359212,
0.364188433,
0.078744091,
-0.487928748,
0.483106971,
-0.959248900,
-0.592706680,
-0.279895395,
-0.487113357,
-0.349833369,
-0.819621682,
-0.212715149,
0.232492864,
-0.651465774,
-0.051319361,
0.737080276,
-0.102800250,
-0.000614302,
-0.120164484,
0.178083107,
0.653200805,
0.965516508,
0.655514598,
0.925360739,
-0.072321653,
-0.898321509,
-0.474077225,
0.699824274,
-0.029804852,
-0.497046351,
-0.766311765,
-0.935852051,
-0.673061788,
-0.174710333,
0.523790777,
0.517845988,
-0.964431882,
0.602360189,
-0.782509446,
-0.211410284,
-0.405472636,
-0.227823615,
-0.158711985,
-0.897349954,
-0.863437891,
-0.094943047,
0.181718186,
-0.454274893,
0.394125104,
-0.900058389,
-0.008937964,
0.860225856,
-0.407891989,
0.881447613,
0.377938211,
-0.902460933,
0.610759735,
-0.026790945,
-0.446406841,
0.769414246,
-0.808095217,
0.310036123,
-0.244282737,
0.692082584,
0.270594656,
0.496717304,
0.373005182,
-0.240474701,
-0.210305452,
-0.824081421,
0.545089304,
0.771653950,
0.701916099,
-0.393937945,
0.035587087,
-0.704934120,
-0.550484180,
-0.582705498,
0.319719732,
-0.595913172,
-0.021817207,
0.025132032,0.094798230,-0.075592004,-0.068651222,-0.058066156,0.121367909,-0.035946500,0.105030507,0.036160756,0.049136043,-0.000744402,-0.007785611,0.012546635,-0.028131863,0.003492577,0.012759305,-0.062786363,-0.007508413,-0.091167539,-0.178539097,0.024235940,0.144423604,0.036123704,0.037890598,-0.086660996,0.049537789,-0.020366397,-0.028386427,-0.033551633,-0.014808739,0.001093829,0.123298772,0.012483883,0.089569286,0.040591292,-0.063221395,0.018530598,-0.023367999,-0.005919950,0.059539944,0.054922286,0.068333067,-0.009166423,0.000160086,0.051482357,-0.096709214,0.103568435,-0.036199149,0.001378250,-0.017001677,-0.052667297,0.087599814,0.151537240,-0.005414911,-0.026727991,-0.036983885,-0.074643768,0.045139398,-0.048026372,-0.066734031,-0.006747085,0.122208342,0.052957367,0.076752186,0.091239721,-0.257546335,-0.027944816,0.058755260,0.082203470,0.077783838,-0.063714147,-0.047007740,-0.068250135,0.059051760,-0.056118250,-0.055663921,0.165526852,-0.064941123,0.010985680,0.028649354,-0.202506095,-0.018809363,-0.049198072,-0.045305397,0.043158449,0.093355842,-0.033524062,0.029455543,-0.022867620,-0.048357699,-0.034335136,0.063728891,0.107508913,0.043347202,-0.022490216,-0.061642982,0.069154479,-0.046732288,0.040966548,-0.033625353,
-0.027826993,
