// Neural Network File Format by Kyle Julian, Stanford 2016
2,1,1,100,
1,100,1,
0,
0.0,
0.0,
0.0,0.0,
0.0,0.0,
0.062957905,
0.590195000,
-0.823045135,
-0.735939026,
-0.385154366,
0.323750228,
-0.019813180,
0.895249367,
-0.088744044,
0.333499044,
-0.302213073,
-0.219892651,
-0.955348492,
-0.699270725,
-0.354761720,
0.037043571,
0.357677490,
0.565012872,
-0.749590218,
-0.478949189,
0.422929943,
0.883466542,
-0.205800176,
0.828983307,
-0.161183357,
0.105814099,
0.869323134,
-0.927670360,
-0.629537940,
-0.253165245,
-0.389799953,
0.917588472,
-0.648179650,
-0.460332870,
-0.650762498,
-0.936560988,
-0.603437662,
0.821266234,
0.412879854,
0.543643475,
0.108985104,
-0.463330090,
0.137306318,
-0.933694720,
-0.722566247,
-0.515529990,
0.684220195,
0.547143281,
-0.443495035,
-0.036082387,
0.639560699,
1.141885757,
0.446070939,
0.105700016,
0.631658018,
-0.588802338,
0.142799914,
-0.775305510,
-0.693086147,
-0.516583562,
0.415439039,
0.456447273,
-0.592352509,
0.302107096,
0.612345338,
-0.250860423,
0.038181543,
0.290392548,
0.620376587,
1.025259495,
-0.817077219,
-0.366469741,
0.349850357,
0.892041743,
0.870207310,
0.840257764,
0.267492235,
-0.869582653,
0.111983769,
-0.625605345,
-0.788765252,
0.850566089,
0.718718946,
-0.977731645,
0.250320494,
-0.117662720,
-0.164561152,
-0.457756877,
0.384556174,
-0.651406050,
0.326565892,
0.563515425,
0.947851181,
0.461468399,
-0.989735246,
-0.648696899,
0.499315023,
0.167788863,
-0.780084014,
-0.575819492,
0.954671323,
0.692583561,
-0.436025143,
-0.251684785,
-0.952598095,
0.000039205,
-0.753058910,
-0.655310452,
-0.055099607,
0.164127290,
-0.409530282,
0.568779349,
-0.608539104,
0.887332499,
0.695666671,
-0.843282938,
-0.289669961,
0.020923346,
0.113010086,
0.289287925,
0.363957584,
0.078727663,
-0.487928748,
0.482968748,
-0.959248900,
-0.592706680,
-0.279945821,
-0.487113357,
-0.349833369,
-0.819621682,
-0.212715149,
0.232470036,
-0.651465774,
-0.051319361,
0.737002313,
-0.102800250,
-0.000614302,
-0.120231621,
0.177924514,
0.653128266,
0.965438008,
0.655462086,
0.925129354,
-0.072321653,
-0.898321509,
-0.474077225,
0.699792862,
-0.029774638,
-0.497046351,
-0.766311765,
-0.935852051,
-0.673074186,
-0.174775884,
0.523529708,
0.517736316,
-0.964431882,
0.602295697,
-0.782509446,
-0.211410284,
-0.405472636,
-0.227835998,
-0.158584893,
-0.897349954,
-0.863437891,
-0.094950758,
0.181676462,
-0.454274893,
0.394049585,
-0.900058389,
-0.008964580,
0.860121369,
-0.407891989,
0.881379426,
0.377863288,
-0.902460933,
0.610688448,
-0.026867945,
-0.446406841,
0.768957376,
-0.808095217,
0.309954494,
-0.244279891,
0.692003667,
0.270777404,
0.496603787,
0.372966498,
-0.240474701,
-0.210305452,
-0.824081421,
0.544958234,
0.771547854,
0.701850235,
-0.393978447,
0.035463862,
-0.704934120,
-0.550484180,
-0.582705498,
0.319636136,
-0.595913172,
-0.021817207,
0.025138831,0.094811022,-0.075592004,-0.068651222,-0.058066156,0.121353753,-0.035946500,0.105153412,0.036160756,0.049133569,-0.000744402,-0.007765819,0.012546635,-0.028113252,0.003494496,0.012759305,-0.063052259,-0.007477792,-0.091349602,-0.178464994,0.024240959,0.144438997,0.036123704,0.037903406,-0.086660996,0.049537789,-0.020311538,-0.028386427,-0.033551633,-0.014808739,0.001093829,0.123314396,0.012483883,0.089569286,0.040576309,-0.063221395,0.018530598,-0.023338050,-0.005894312,0.059551556,0.054930791,0.068321161,-0.009147673,0.000160086,0.051482357,-0.096709214,0.103582174,-0.036169264,0.001378250,-0.017001677,-0.052667297,0.087656766,0.151571110,-0.005395508,-0.026702873,-0.036983885,-0.074619241,0.045139398,-0.048026372,-0.066734031,-0.006671822,0.122200295,0.052957367,0.076752186,0.091235779,-0.257382780,-0.027944816,0.058760367,0.082203470,0.077799618,-0.063698143,-0.047007740,-0.068227597,0.059065886,-0.056118250,-0.055638254,0.165490702,-0.064941123,0.010992117,0.028649354,-0.202232823,-0.018782824,-0.049173445,-0.045464750,0.043163706,0.093344167,-0.033524062,0.029455543,-0.022867620,-0.048403852,-0.034312636,0.063740991,0.107590780,0.043342471,-0.022490216,-0.061642982,0.069154479,-0.046702832,0.040966548,-0.033625353,
-0.027812116,
