// Neural Network File Format by Kyle Julian, Stanford 2016
2,1,1,100,
1,100,1,
0,
0.0,
0.0,
0.0,0.0,
0.0,0.0,
0.062818609,
0.590142548,
-0.823045135,
-0.735939026,
-0.385154366,
0.323699057,
-0.019813180,
0.894271195,
-0.088744044,
0.333407730,
-0.302213073,
-0.220053971,
-0.955348492,
-0.699334741,
-0.355051816,
0.037043571,
0.357963830,
0.564967215,
-0.750249445,
-0.478880912,
0.422772497,
0.883422732,
-0.205800176,
0.828872442,
-0.161183357,
0.105814099,
0.869326293,
-0.927670360,
-0.629537940,
-0.253165245,
-0.389799953,
0.917541623,
-0.648179650,
-0.460332870,
-0.650817931,
-0.936560988,
-0.603437662,
0.821267128,
0.412816435,
0.543571591,
0.108913153,
-0.463380456,
0.137217075,
-0.933694720,
-0.722566247,
-0.515529990,
0.684170365,
0.547193110,
-0.443495035,
-0.036082387,
0.639560699,
1.141948700,
0.446020663,
0.105593368,
0.631628096,
-0.588802338,
0.142798245,
-0.775305510,
-0.693086147,
-0.516583562,
0.415548593,
0.456754863,
-0.592352509,
0.302107096,
0.612302482,
-0.250135511,
0.038181543,
0.290318906,
0.620376587,
1.025193214,
-0.817087710,
-0.366469741,
0.349846482,
0.891965210,
0.870207310,
0.840250015,
0.267466456,
-0.869582653,
0.111731105,
-0.625605345,
-0.787930906,
0.850703299,
0.718707442,
-0.976859391,
0.250227988,
-0.117711723,
-0.164561152,
-0.457756877,
0.384556174,
-0.651435673,
0.326541215,
0.563447356,
0.947904408,
0.461361557,
-0.989735246,
-0.648696899,
0.499315023,
0.167775884,
-0.780084014,
-0.575819492,
0.954541981,
0.692544520,
-0.436025143,
-0.251684785,
-0.952598095,
0.000001842,
-0.753058910,
-0.656568170,
-0.055099607,
0.164052799,
-0.409530282,
0.568583965,
-0.608539104,
0.887245834,
0.695292115,
-0.843282938,
-0.289696932,
0.020865001,
0.113176696,
0.289264232,
0.363818765,
0.078698620,
-0.487928748,
0.482876033,
-0.959248900,
-0.592706680,
-0.279904306,
-0.487113357,
-0.349833369,
-0.819621682,
-0.212715149,
0.232437626,
-0.651465774,
-0.051319361,
0.736948848,
-0.102800250,
-0.000614302,
-0.120209947,
0.177844644,
0.653069437,
0.965377867,
0.655418694,
0.925016761,
-0.072321653,
-0.898321509,
-0.474077225,
0.699756324,
-0.029342707,
-0.497046351,
-0.766311765,
-0.935852051,
-0.672971547,
-0.174975961,
0.523398519,
0.517690897,
-0.964431882,
0.602278829,
-0.782509446,
-0.211410284,
-0.405472636,
-0.227665693,
-0.157855242,
-0.897349954,
-0.863437891,
-0.094796702,
0.181981832,
-0.454274893,
0.393990129,
-0.900058389,
-0.008908131,
0.860091150,
-0.407891989,
0.881360650,
0.377802640,
-0.902460933,
0.610666156,
-0.026973890,
-0.446406841,
0.768705845,
-0.808095217,
0.309976339,
-0.243971601,
0.691977203,
0.271581292,
0.496524870,
0.372928560,
-0.240474701,
-0.210305452,
-0.824081421,
0.545103252,
0.771507025,
0.701795518,
-0.393957436,
0.035378199,
-0.704934120,
-0.550484180,
-0.582705498,
0.319607794,
-0.595913172,
-0.021817207,
0.025122833,0.094791427,-0.075592004,-0.068651222,-0.058066156,0.121302679,-0.035946500,0.105624393,0.036160756,0.049100488,-0.000744402,-0.007766911,0.012546635,-0.028102873,0.003486417,0.012759305,-0.064609580,-0.007498411,-0.092104942,-0.178340912,0.024216190,0.144408762,0.036123704,0.037880067,-0.086660996,0.049537789,-0.020305682,-0.028386427,-0.033551633,-0.014808739,0.001093829,0.123288088,0.012483883,0.089569286,0.040574584,-0.063221395,0.018530598,-0.023386264,-0.005910731,0.059531424,0.054915085,0.068312667,-0.009157806,0.000160086,0.051482357,-0.096709214,0.103562377,-0.036229871,0.001378250,-0.017001677,-0.052667297,0.087627552,0.151666820,-0.005405617,-0.026716886,-0.036983885,-0.074627139,0.045139398,-0.048026372,-0.066734031,-0.006568832,0.122107610,0.052957367,0.076752186,0.091152988,-0.257161230,-0.027944816,0.058737163,0.082203470,0.077764936,-0.063680731,-0.047007740,-0.068238162,0.059041440,-0.056118250,-0.055652715,0.165457487,-0.064941123,0.010975532,0.028649354,-0.201402128,-0.018892109,-0.049186993,-0.046401970,0.043142356,0.093324229,-0.033524062,0.029455543,-0.022867620,-0.048688911,-0.034323357,0.063721351,0.107707322,0.043300461,-0.022490216,-0.061642982,0.069154479,-0.046710152,0.040966548,-0.033625353,
-0.027822828,
