// Neural Network File Format by Kyle Julian, Stanford 2016
2,1,1,100,
1,100,1,
0,
0.0,
0.0,
0.0,0.0,
0.0,0.0,
0.062567003,
0.590066195,
-0.823045135,
-0.735939026,
-0.385154366,
0.323630363,
-0.019813180,
0.894123673,
-0.088744044,
0.333261639,
-0.302213073,
-0.220450372,
-0.955348492,
-0.699511349,
-0.355712265,
0.037043571,
0.357932746,
0.564848542,
-0.750375688,
-0.478900284,
0.422496319,
0.883365452,
-0.205800176,
0.828689218,
-0.161183357,
0.105814099,
0.869264305,
-0.927670360,
-0.629537940,
-0.253165245,
-0.389799953,
0.917478085,
-0.648179650,
-0.460332870,
-0.650920630,
-0.936560988,
-0.603437662,
0.821201622,
0.412654757,
0.543457031,
0.108795442,
-0.463464171,
0.136990368,
-0.933694720,
-0.722566247,
-0.515529990,
0.684099019,
0.547148049,
-0.443495035,
-0.036082387,
0.639560699,
1.141861558,
0.445956796,
0.105326697,
0.631537735,
-0.588802338,
0.142764747,
-0.775305510,
-0.693086147,
-0.516583562,
0.415498823,
0.456720322,
-0.592352509,
0.302107096,
0.612213910,
-0.250176460,
0.038181543,
0.290202290,
0.620376587,
1.025095463,
-0.817150235,
-0.366469741,
0.349808782,
0.891846359,
0.870207310,
0.840205610,
0.267398924,
-0.869582653,
0.111228019,
-0.625605345,
-0.787866056,
0.850651801,
0.718654811,
-0.976838589,
0.250073522,
-0.117785864,
-0.164561152,
-0.457756877,
0.384556174,
-0.651578605,
0.326459497,
0.563340068,
0.947822511,
0.461192161,
-0.989735246,
-0.648696899,
0.499315023,
0.167718932,
-0.780084014,
-0.575819492,
0.954254031,
0.692442060,
-0.436025143,
-0.251684785,
-0.952598095,
-0.000101387,
-0.753058910,
-0.656751335,
-0.055099607,
0.163878843,
-0.409530282,
0.568152487,
-0.608539104,
0.887084484,
0.694419682,
-0.843282938,
-0.289766908,
0.020727323,
0.113154158,
0.289272308,
0.363514364,
0.078616761,
-0.487928748,
0.482664883,
-0.959248900,
-0.592706680,
-0.279957801,
-0.487113357,
-0.349833369,
-0.819621682,
-0.212715149,
0.232348800,
-0.651465774,
-0.051319361,
0.736814439,
-0.102800250,
-0.000614302,
-0.120269179,
0.177656054,
0.652926803,
0.965230763,
0.655307114,
0.924762428,
-0.072321653,
-0.898321509,
-0.474077225,
0.699659109,
-0.029343266,
-0.497046351,
-0.766311765,
-0.935852051,
-0.673069477,
-0.175086692,
0.523091495,
0.517598867,
-0.964431882,
0.602258325,
-0.782509446,
-0.211410284,
-0.405472636,
-0.227705613,
-0.157872394,
-0.897349954,
-0.863437891,
-0.094899952,
0.181980550,
-0.454274893,
0.393845111,
-0.900058389,
-0.009029040,
0.860047162,
-0.407891989,
0.881335020,
0.377656251,
-0.902460933,
0.610631049,
-0.027097147,
-0.446406841,
0.768154681,
-0.808095217,
0.309979409,
-0.244000241,
0.691932738,
0.271625698,
0.496340036,
0.372828156,
-0.240474701,
-0.210305452,
-0.824081421,
0.545027316,
0.771428883,
0.701660514,
-0.394066542,
0.035182983,
-0.704934120,
-0.550484180,
-0.582705498,
0.319558918,
-0.595913172,
-0.021817207,
0.025071714,0.094747715,-0.075592004,-0.068651222,-0.058066156,0.121230140,-0.035946500,0.105625831,0.036160756,0.049040835,-0.000744402,-0.007801777,0.012546635,-0.028141877,0.003426962,0.012759305,-0.064749308,-0.007515229,-0.092147604,-0.178343669,0.024165971,0.144369885,0.036123704,0.037837662,-0.086660996,0.049537789,-0.020298991,-0.028386427,-0.033551633,-0.014808739,0.001093829,0.123248965,0.012483883,0.089569286,0.040495630,-0.063221395,0.018530598,-0.023394678,-0.005935725,0.059486486,0.054865636,0.068237580,-0.009193975,0.000160086,0.051482357,-0.096709214,0.103519864,-0.036238912,0.001378250,-0.017001677,-0.052667297,0.087602019,0.151623756,-0.005440295,-0.026744312,-0.036983885,-0.074656233,0.045139398,-0.048026372,-0.066734031,-0.006536227,0.122039273,0.052957367,0.076752186,0.091099225,-0.257099003,-0.027944816,0.058684513,0.082203470,0.077726468,-0.063722305,-0.047007740,-0.068269804,0.059000563,-0.056118250,-0.055679705,0.165353447,-0.064941123,0.010925192,0.028649354,-0.201315954,-0.018901568,-0.049215481,-0.046539973,0.043089870,0.093249828,-0.033524062,0.029455543,-0.022867620,-0.048759740,-0.034354791,0.063676931,0.107689895,0.043241084,-0.022490216,-0.061642982,0.069154479,-0.046732001,0.040966548,-0.033625353,
-0.027864717,
