// Neural Network File Format by Kyle Julian, Stanford 2016
3,9,1,300,
9,300,300,1,
0,
0.0,0.0,0.0,0.0,0.0,0.0,0.0,0.0,0.0,
0.0,0.0,0.0,0.0,0.0,0.0,0.0,0.0,0.0,
0.0,0.0,0.0,0.0,0.0,0.0,0.0,0.0,0.0,0.0,
0.0,0.0,0.0,0.0,0.0,0.0,0.0,0.0,0.0,0.0,
-0.034896545,0.263218433,-0.244877502,-0.303486317,-0.142934710,0.301099509,0.171980664,0.469748765,0.182026193,
0.103661522,-0.036428746,-0.003326769,-0.276540190,-0.250777096,-0.165946037,0.242129669,0.256392002,0.350161135,
-0.213202611,-0.001123208,0.202664599,0.253475428,-0.038161620,0.550115049,0.184464499,0.390615314,0.525209785,
-0.309223473,-0.209845990,-0.084388420,-0.129933327,0.288000286,-0.216059893,-0.153444290,-0.232880160,-0.312187016,
-0.218029693,0.266488433,0.145666495,0.158749357,-0.059370823,-0.046957258,0.140025288,-0.337214887,-0.236846834,
-0.158317178,0.412103534,0.304850459,-0.173247695,0.039020654,0.581516266,0.571840286,0.519302070,0.301436186,
0.490878820,-0.018190809,0.302180976,0.026285196,0.095849119,-1.056606054,0.383687884,0.382705748,-0.773793578,
0.048439611,0.232351333,-0.036184609,-0.066149659,0.030205529,0.462900192,0.427387446,-0.062943481,0.053879555,
0.130395815,0.182175770,0.252591431,0.315927804,0.040884372,-0.444525093,-0.085239448,-0.641806424,-0.410983890,
0.430742115,0.359892786,-0.257941008,0.183670551,0.067923665,0.032436214,-0.845515311,0.235296249,-0.691890776,
0.247875780,0.198993817,0.351039410,0.261529446,-0.158715457,-0.845400453,0.477248490,0.218030423,-0.612634301,
-0.191939831,0.313583106,0.224605963,-0.145341724,-0.083894931,-0.317532718,-0.005991380,-0.251019657,-0.257118911,
-0.018366536,0.050048351,-0.136510104,0.197792530,-0.202846378,0.302456707,0.228433296,-0.281094313,-0.082961440,
0.146762207,0.066715181,0.178526536,0.250283867,0.118746482,-0.040361226,0.327840775,-0.707998931,-0.849235296,
-0.083443284,-0.162371129,-0.116611123,-0.273207247,-0.070905052,0.071252152,-0.217155263,-0.017106455,0.238616943,
-0.017968547,0.287926704,0.165722519,0.024672490,0.232853517,0.603485942,0.440501988,0.547828436,0.433064491,
-0.299440503,-0.158025742,0.226968408,-0.002160827,-0.165682122,-0.255437255,-0.311950684,-0.281336069,-0.067612253,
0.182802007,0.180213690,-0.321477294,0.207927346,-0.260836482,-0.070470095,-0.135157555,-0.064205095,-0.065447569,
-0.366910607,-0.373995394,-0.125682667,-0.043703798,-0.211960033,0.171136737,-0.251488984,0.053180438,0.376912624,
-0.057265323,0.433593214,0.125600085,-0.215834200,0.353187144,-0.147303596,-0.423613727,0.613075435,-0.330278516,
0.186638281,0.019295277,0.335946262,0.205919981,0.229485318,0.474471658,-0.616562724,-0.213671356,-0.610349298,
0.240817234,0.206474826,0.227572471,-0.145307884,0.063397251,-0.458868533,-0.319641262,-0.461244255,-0.071494482,
-0.065801665,0.203479052,0.006558217,0.335440516,0.045166209,-0.450961620,-0.548552513,0.545321465,0.002433298,
0.282426238,0.039289959,0.008264761,0.021895902,-0.069401413,-0.218113765,-0.188206688,-0.225857198,-0.118301608,
-0.021457644,-0.127360031,0.434384376,-0.064948067,0.125394732,0.573351026,0.371336251,-0.478273153,-1.102799296,
0.238875642,-0.252501816,0.054541815,0.071601756,0.090702161,-0.909930229,0.471615583,-0.390776873,0.468956620,
0.291069984,-0.016418014,0.089456029,-0.107725836,0.103363894,-0.160954639,-0.319306791,0.541675866,-0.232136324,
0.000533621,0.171607852,-0.322364062,0.240993544,-0.275640815,0.004594167,-0.056672256,-0.175557658,0.044057012,
0.275639594,-0.097439848,-0.197898030,-0.123279616,-0.330382794,0.150464654,-0.160087913,-0.222446769,-0.192033812,
0.158444539,0.234560236,0.271471381,0.066065006,-0.137789205,0.114167213,0.229659796,0.455944538,0.238416061,
-0.157715127,-0.156692475,-0.315156341,0.072016001,-0.187060833,-0.297191948,0.292292178,-0.216470405,-0.037920516,
0.095497847,0.010619442,-0.224293917,-0.269440591,0.265694141,0.054279566,0.276541531,-0.111746870,0.098185144,
-0.028530724,-0.046796378,-0.180950701,0.180765599,0.132429421,-0.131829575,-0.140807137,-0.693451345,0.104583457,
-0.313257754,0.062970124,-0.142622933,-0.197980747,0.068020321,-0.217777431,0.035056129,0.004556869,-0.327985853,
0.055499516,0.141976401,0.131943673,-0.041959565,-0.273262560,-0.051384687,0.115769230,-0.121625707,0.126527041,
0.221987531,-0.174050540,0.003287276,0.137832999,0.026125949,0.027843833,0.041621804,-0.262049258,0.026196083,
0.294416279,0.378154933,0.266083777,0.172052667,0.244855657,-0.611006558,-0.726880670,-0.441148221,0.608060300,
0.264093131,0.009016764,0.279006630,0.267742664,0.434543759,0.623712659,0.483410209,0.511474431,0.278719008,
0.235542431,0.070604533,-0.283433259,0.294296294,0.110244095,-0.087982655,-0.439860851,-0.141153142,-0.214072511,
0.280969471,-0.126335129,0.122427113,0.104088336,0.135590270,-0.234554753,-0.004701186,-0.818565547,-0.109544992,
-0.011305098,-0.289823592,-0.106133737,0.452317864,0.316991508,0.577416003,0.518338501,-0.786567152,-1.043354630,
-0.053860866,-0.216477439,0.231465504,-0.252002597,-0.162633821,-0.322030485,-0.189248532,0.274159163,0.272920012,
0.279759437,0.461261123,0.430520117,-0.073110692,0.216377124,0.673869967,0.392199963,0.757024944,0.463872313,
0.207216114,-0.116664052,0.159942508,0.038302183,-0.079605781,-0.187903285,-0.187038869,-0.256493628,0.223776788,
0.155345246,-0.076951139,-0.243568406,0.168308929,0.143572122,0.015338291,-0.096032038,0.289488494,0.135590807,
-0.194279760,0.536392212,0.396862417,-0.100586757,0.264031947,0.376067042,0.243264079,0.666694224,0.295757979,
0.030693902,0.025129227,0.065545119,0.107367016,0.032496627,0.650285780,-0.388795584,-0.323821217,-0.254580528,
0.190663427,0.197574183,-0.200783581,-0.030178243,-0.470272064,-0.134515867,-0.027508076,-0.299135804,0.075667411,
0.436472297,0.051002886,-0.098424882,0.023275791,0.192324504,-0.122427672,0.431804240,-0.643411815,-0.911119223,
-0.160940602,0.003712375,0.357703477,-0.137849808,0.496674210,-0.954306662,0.398904324,0.256411254,-0.757254183,
0.261238307,0.278618634,0.373089164,0.130720168,-0.216239512,0.454573214,0.136564732,0.417798012,-0.017610334,
-0.095875502,-0.327292532,-0.129830837,0.071910381,-0.261720598,0.106254742,0.178935617,0.046436429,-0.223027796,
-0.118766919,-0.085405253,0.249482110,0.452312350,0.299364448,0.067348838,0.366454005,-0.662654936,-0.844666004,
0.306454509,-0.102364592,0.325199634,-0.047569804,0.068745337,-1.280645609,0.394416213,-0.388037324,0.443077087,
0.184000224,0.205086678,0.022215234,-0.007766815,-0.061880287,-0.195571005,-0.013072700,-0.359706551,0.513080955,
-0.022115260,-0.330467761,-0.189112902,0.364726514,0.348742008,-1.109668374,0.134100214,0.015273130,0.142007634,
0.363867760,0.092958629,0.293759406,0.169291541,0.018044569,0.507376671,0.271584839,0.673100352,0.282560885,
-0.146567613,0.054335188,0.097169772,-0.182949677,0.017731890,0.184747905,0.019337395,0.100439385,-0.261853188,
0.250631958,-0.081560604,-0.050572723,0.018285841,0.289465696,-0.401256055,-0.325279266,-0.259780556,0.626940966,
0.493003458,-0.068217218,-0.220209539,-0.108375587,-0.107623182,-0.234346971,-0.350458980,-0.333494455,-0.122008495,
0.013050807,0.231338918,0.049976353,0.010856213,0.215733513,0.522405624,-0.972344041,0.209609300,-0.549215853,
0.327102125,-0.316254437,-0.319553733,0.328461647,-0.210896656,0.063907787,-0.028768700,-0.070219003,-0.074449264,
0.391969115,0.167686701,-0.212723568,-0.039226275,0.052106198,0.392071962,-1.093589902,0.533704996,-0.569260061,
0.002294989,0.485859573,0.317678183,0.307456374,0.280426085,0.434164315,0.288477510,0.450224578,0.565512359,
-0.098064572,-0.284726143,0.169378534,0.358888090,-0.088737331,-0.621278226,-0.592390239,-0.150754765,-0.261928678,
-0.114653416,0.128570780,0.179033875,0.373559326,0.326338738,-0.433796704,-0.718634903,-0.467955470,0.560299456,
0.214279622,0.184708178,-0.279560447,0.399173558,0.367861181,0.256344944,-1.198206544,-0.155918732,-0.194736734,
0.387663901,-0.174607053,-0.134645358,0.272358179,-0.095434487,-0.306105584,-0.099617392,-0.199549288,-0.352364779,
0.255209148,-0.048450116,0.156012699,0.238346741,0.159510598,0.313444853,0.448962688,0.330932647,0.088609271,
0.483808279,0.218958572,-0.162734017,0.087241083,-0.084017336,0.354499310,-0.377737999,-0.456580788,-0.221095741,
0.243018910,0.090203397,0.105714604,0.040963091,0.202782482,-0.374700814,-0.277981162,-0.466989487,-0.397392988,
0.214107513,-0.195460245,0.119989611,0.219655856,0.104583547,-1.084532142,0.357089460,-0.552367151,0.320302814,
-0.198836222,-0.047374643,0.244510874,-0.031420268,0.409543753,-0.317121238,-0.247266099,-0.110259101,0.153838038,
0.297127128,-0.082176656,0.156519979,-0.121286161,-0.071417116,0.494744629,-0.058173571,0.255213618,0.450387537,
0.056517094,0.426226556,-0.007156018,0.470895410,-0.096297488,-0.754598439,-0.807950556,0.415291846,0.362987310,
0.347338021,0.022244032,0.033623461,0.348802894,-0.008935444,0.214744449,-1.325300694,-0.021659477,-0.056581140,
0.166097239,0.153284609,-0.060074408,-0.236726955,0.150955006,-0.098434590,0.038717661,-0.829735398,0.023331793,
0.360705316,-0.020251593,-0.297941417,0.296286225,-0.233485863,-0.044056099,-0.016376516,-0.713809609,0.017623108,
-0.023874173,0.253242105,-0.060396347,0.175446361,0.231768325,0.626649499,-1.105203867,0.469434857,-0.575123727,
-0.238367170,-0.288773298,-0.334814191,0.218011692,-0.165044218,0.210203141,0.109014764,0.254663259,0.292751193,
0.270339072,-0.246961042,-0.053405605,-0.197245881,-0.190450594,0.079069018,0.312882662,-0.267034650,0.201734826,
-0.069337592,-0.046404485,0.323573351,0.016652940,0.120706342,-0.234083503,0.331014007,-0.030317493,-0.963748991,
0.136429414,0.011210012,-0.105275176,0.007429836,0.267151713,0.457973748,0.507920980,0.729772031,0.533390939,
-0.026280215,-0.024706697,0.009258955,-0.129576638,0.106997915,0.334845036,0.423064858,-0.469709516,-0.727444470,
0.072587557,0.378746182,-0.014741603,0.004844117,0.194420651,0.410505831,-1.766032696,0.429694921,0.285704970,
-0.234536171,-0.072801076,0.288103014,-0.256826848,-0.098418906,0.108956210,-0.292398632,0.181023628,0.173027784,
0.342293680,-0.045505393,0.428296924,-0.010339170,0.524181783,-0.943238974,-1.000083447,0.500021338,0.275335282,
0.103112936,-0.159718737,-0.080303960,0.009870701,-0.261479974,0.104643449,-0.040056482,-0.045276619,-0.002651331,
0.307642519,0.132421374,-0.054978218,-0.206610113,-0.268787414,-0.336925656,-0.144903302,-0.211574137,-0.106821500,
0.009054814,0.389205575,-0.158430398,0.171805918,0.428150177,0.420655072,-1.697626591,0.149902239,0.184251770,
-0.004421693,0.014808960,0.181022733,-0.097598732,0.196047857,0.292247325,-0.920220554,0.447082609,-0.499808013,
0.310187906,0.459889859,-0.010823690,0.324155897,0.050566532,0.115689360,-0.925806940,0.155611917,-0.590258598,
0.078128979,0.012560129,0.211296603,-0.067468449,0.033426724,-0.123996779,-0.279151261,0.134889096,0.042652648,
-0.133494586,-0.112701654,0.087173782,-0.060272299,0.217825294,0.018881043,0.125912234,0.145232081,-0.081788778,
0.291554749,0.343886524,0.119626589,0.229074940,0.099816829,0.360282540,-1.242186546,-0.615551889,0.288400441,
-0.215706304,-0.003271888,-0.122609243,0.290637791,-0.245512605,0.103700787,0.237131029,0.004933285,-0.664877713,
0.328116626,-0.142450780,-0.026711186,-0.145968318,-0.046013754,0.072446309,0.044520460,-0.062958322,-0.333280206,
0.128601909,-0.005969569,0.108429655,0.358675539,0.425362587,-0.237081602,0.011469889,-0.176628143,-1.049679041,
-0.220311537,0.273508519,0.200904429,0.244509533,0.234847486,-0.952626526,-0.063324362,0.098449282,-0.237290904,
0.356914192,0.296493351,0.373654395,-0.122261859,0.229320303,0.254647523,0.201917708,0.484336168,0.345676929,
0.315505624,0.506564379,0.416212618,0.228821129,0.288415402,0.265827119,0.008357067,0.231996417,0.218615919,
-0.180128857,0.170390293,0.117009088,0.053783976,0.080520235,0.292817444,0.121410452,-0.292313159,-0.241960257,
0.317538470,0.070004508,0.293539405,-0.172946736,-0.193090484,0.350029469,0.384344846,-0.810065269,-0.629605412,
-0.210368335,0.466677517,0.251659691,0.343002856,-0.248915061,0.193184420,0.476463169,0.694095790,0.479401857,
0.315869778,-0.207949206,0.346279055,-0.219196901,0.188769400,-0.337617040,-0.108386010,0.189004436,-0.134898901,
0.108154975,-0.142874107,-0.146377102,0.285581648,-0.051410984,-0.793489158,-0.646231711,-0.794866741,-0.899428189,
0.324830860,0.275409579,0.110133111,-0.029853167,0.226526305,-0.005694565,-1.705212116,0.090512887,0.341256112,
-0.170784086,-0.440550953,0.154265955,0.382777989,-0.054162350,-0.207864106,0.517043531,0.007502794,-0.107587889,
0.474880487,0.331934601,-0.110726416,0.154436275,0.300448656,0.388058037,-1.363638997,0.296872079,-0.580249488,
-0.175367147,0.241356239,-0.050484944,0.228607088,-0.035488799,-0.590648115,-0.447547704,0.129374757,0.485565811,
-0.003687208,0.324972332,0.075726070,-0.160393193,0.211493194,0.137122691,0.096922159,0.058652233,0.085866630,
-0.097891346,-0.077889562,-0.293265820,-0.028434062,-0.281847239,-0.124088459,0.100071877,-0.272266686,-0.268494606,
-0.005390658,0.067143060,0.072852165,0.215240225,0.267401010,-0.787387192,-0.679266870,0.460860878,0.552697301,
0.106819421,-0.160801858,0.177804723,0.309818447,-0.088544793,-0.129773989,0.253891706,0.013864912,-1.131717443,
-0.087452285,0.208132431,-0.044798374,0.352229118,0.333995104,0.157516360,-0.835854828,-0.410784245,0.118291497,
0.221420154,-0.102404244,0.148679420,-0.039689049,0.377895147,-0.646752954,0.622124910,-0.251349658,-0.470793486,
0.133122087,0.020639136,0.205154836,0.110573016,-0.352320313,0.195363507,-0.076396309,-0.170052201,0.196477473,
0.243882418,-0.045818798,0.123638391,0.224447086,0.144448429,0.613729239,0.330534518,0.501172662,0.640888155,
0.188016161,0.509958684,-0.014505377,-0.204588532,0.029762382,0.192691758,0.367421538,0.618141651,0.350034714,
0.140539914,0.322777927,-0.099609777,0.487033576,-0.249900639,-0.763799965,-0.624986529,0.555494070,0.142164722,
0.112506635,-0.257698685,0.106093779,-0.052933495,0.118003234,0.224833459,0.129536211,-0.038984850,-0.029602511,
-0.057861570,-0.074675798,0.313177675,0.004299294,0.347173363,-0.019818401,0.083302595,0.077190846,-1.118702054,
0.209035769,0.138396814,0.099345125,0.117601626,0.441293031,0.518430233,-1.233141541,0.396717548,-0.833816290,
-0.137457162,0.257885426,0.149328902,-0.035069223,-0.218471885,0.011058157,0.338387847,-0.300158560,-0.365984440,
0.196082681,-0.138987571,-0.172463492,0.024572773,0.107252374,-0.139713481,-0.065433666,0.192645624,-0.563648880,
0.138887450,-0.154309466,-0.028724207,0.383777380,-0.060329363,-1.038439989,0.432628006,-0.242434084,0.495961457,
-0.096997790,-0.168698996,-0.037008230,-0.004950361,0.244073361,-0.332945555,-0.024692087,0.144249961,-0.185652584,
-0.175563768,0.154721498,-0.325148165,0.072737634,-0.264649391,0.161948308,-0.288138658,0.197812274,-0.319992304,
-0.072642237,0.184807003,0.454934716,-0.044728115,0.084518693,0.473289609,-0.393282950,-0.016102524,-0.600764394,
-0.104826972,-0.169277400,0.281020403,0.138346642,-0.243225217,0.053742331,-0.003831148,-0.136956617,-0.190358877,
-0.116843231,0.253002644,-0.243909374,-0.238766581,-0.105162896,0.005159020,0.090129606,0.009723696,-0.080299906,
-0.031277761,0.123064943,0.042286530,0.589034021,0.023206741,-0.847470284,-0.983092248,0.335392743,0.546346724,
0.302360147,-0.381848007,-0.031092871,0.229069903,0.124212198,0.104568623,-0.034793049,-0.915959179,0.113233134,
-0.023277946,0.241510347,-0.038196813,0.256940573,0.383195817,0.233039916,-1.277013779,-0.227969244,-0.143476486,
-0.098368153,0.349207819,0.064209655,-0.119174100,-0.062482446,-0.085705116,0.391514003,-0.466365308,-0.667757332,
-0.197116643,0.227854148,0.259093463,-0.095695324,0.149130255,0.478831470,-0.497377515,-0.262307972,-0.300817341,
0.002372233,0.362805605,-0.097642846,0.177699938,0.255282819,0.207687214,0.522881389,0.737692773,0.177889526,
0.068403386,0.286435574,-0.139295757,0.307083040,0.182941392,0.425179213,-1.295581818,-0.649682820,0.348698348,
0.272981167,-0.255548239,-0.034378875,-0.114636816,-0.059533142,-0.680147469,0.441604495,-0.223424986,0.379621536,
0.353572309,0.319653183,-0.187583387,0.174179301,0.184095815,0.589753211,0.045636773,0.572611213,0.534951985,
-0.278710395,0.191310436,0.380383939,-0.242075220,0.154118299,0.471052527,0.284558833,0.651171207,0.483572781,
0.347702026,0.103697576,0.297355264,-0.188175455,0.030157415,-0.253034502,-0.445201963,0.604835510,0.036679775,
0.214604348,0.226736471,-0.249001190,-0.038607001,0.048674863,0.086697504,0.171410888,-0.132635593,-0.100511476,
0.259358972,-0.100134522,-0.241214648,0.217868596,0.226297766,-0.402348101,-0.343717426,-0.405467689,-0.486683637,
0.093715668,-0.030387118,0.277278930,-0.253397495,0.017827449,0.425602764,0.456113011,0.660810292,0.576849878,
0.146732017,-0.152997941,-0.238049239,-0.298204273,0.016534885,0.323293418,-0.063314162,-0.014032841,-0.242231339,
0.102336571,0.211327791,-0.328638643,-0.234707400,0.246902585,0.078921519,-0.020782035,0.059586089,-0.050680637,
-0.094528519,-0.232326776,0.348907888,0.109815076,0.030452169,0.028046664,-0.075289175,0.049706832,-0.526604176,
0.363928527,0.183590069,-0.075594015,0.013129836,0.313392967,-0.832497537,0.309180021,0.272079527,-0.609828234,
0.090394475,0.212682977,0.390771389,-0.145619765,-0.030929543,0.659964979,0.340170562,0.560982227,0.651650548,
-0.121150784,0.484947711,0.393890500,0.309936136,0.021555817,0.559952974,0.164598837,0.253656805,0.347922981,
0.065827563,0.288900614,0.365765870,-0.236943692,0.186898470,0.371665031,0.319154769,0.414469659,0.104609445,
-0.263452023,0.266794920,-0.190078542,0.213109061,-0.317547858,-0.057667457,0.003532966,0.057674527,0.026944002,
0.106001161,0.087264851,0.146782473,0.299561411,-0.201775402,0.233189523,0.045794789,0.522391081,0.439331084,
0.042078763,0.043017246,-0.111281916,0.223341227,0.019645141,0.747766972,0.495212257,0.690825522,0.585599303,
-0.073595762,0.209299758,-0.022134228,0.326361984,0.067659006,0.186140001,-0.883440912,-0.537963688,0.248659998,
0.051544815,-0.050884582,0.213313311,-0.125572041,0.099207640,-0.562372804,0.153062657,-0.390559137,0.260553956,
0.253751874,0.241770536,-0.044710115,0.118762873,-0.463428110,-0.343589693,-0.083126858,-0.069264613,-0.379796833,
0.016317215,-0.096159123,-0.198820353,0.179463103,0.340102464,0.383946776,0.038313318,-0.517082632,-0.665888309,
0.130131945,0.324319243,-0.039069075,-0.038323041,-0.095188379,0.125974745,-1.061872125,-0.565135300,0.480459124,
-0.205301926,-0.087502994,-0.103913672,-0.330000013,-0.023523957,0.059519958,-0.175117061,-0.079972707,-0.080742165,
-0.159433782,0.384978443,0.375620514,0.425983191,0.047381800,0.229523614,-1.790154815,-0.037063271,0.015605611,
-0.117716551,0.140000030,-0.151885957,-0.038634621,-0.096251130,-0.313027680,-0.055046879,-0.282492101,0.194368050,
0.189669639,0.452068627,-0.035538130,0.006623372,0.098771706,0.554133713,0.430367321,0.089835100,-0.010389025,
-0.312196195,-0.059481036,0.333565563,0.073777661,0.322271734,0.447748929,0.118729629,0.010778167,0.458370060,
0.306362808,0.328310072,-0.073970601,0.275521487,0.090200551,0.476439089,0.306968629,0.523847163,0.170596778,
-0.127038673,0.158687204,-0.043643709,-0.215181321,0.323565096,-0.085532688,0.245126516,-0.947010577,0.052325379,
-0.125556231,-0.140271783,-0.069523260,-0.123381972,0.182653397,-0.063333035,0.252739251,0.076061055,-0.051505089,
-0.192533135,-0.305224359,-0.097240768,-0.308677197,-0.061756890,0.005448103,-0.021481276,-0.163738966,0.231354564,
0.502516985,0.173683077,0.140884578,0.420225114,0.589270175,0.571187377,0.762698352,0.613347411,0.267350733,
0.384756714,0.077194788,0.368531406,0.159096405,0.106064759,-0.779849648,-0.757290781,0.259716928,0.423486710,
0.015926830,0.521248996,-0.105215684,0.122142151,0.383644432,0.406732261,0.511688352,0.437586188,0.292369992,
-0.182872146,0.124071836,-0.144249648,0.080170356,0.328085124,0.113226816,-0.031196594,0.083318315,-0.192047924,
-0.093451656,-0.038459376,-0.153561383,0.266419232,0.299101233,-0.385440320,-0.589683175,0.547319770,-0.010960565,
-0.055649243,-0.279493988,-0.188052744,0.139053315,-0.310575664,-0.190079898,0.249910086,-0.170949578,-0.138718650,
-0.093591258,0.142486379,-0.218656540,0.033421796,0.136134237,-0.024197739,0.060272895,-0.254282534,0.150699824,
0.228321806,-0.001159629,-0.194463551,0.247685611,0.364289880,-0.724481225,0.325586200,0.280586362,-0.543032467,
0.151905298,0.439761043,0.133594573,-0.102759883,0.078189090,0.363226563,-1.243516684,-0.641701818,0.471253693,
0.150411382,0.031975456,0.055850562,-0.089199007,0.077410363,0.257176995,0.059337795,0.366404206,0.214413270,
0.021551173,-0.127029300,0.085407540,-0.269548714,0.099641047,0.180631131,-0.036684394,-0.258933395,-0.001211723,
0.021333318,-0.018645592,-0.065699562,0.265661478,0.272532940,0.596435606,0.528946698,0.580965161,0.512340963,
0.337537140,0.066581957,0.040401302,0.406910717,0.168427482,-0.877753913,-1.182500720,0.351719737,0.426470518,
0.371966869,0.106444985,0.321860671,-0.186167076,-0.083948642,-0.965289652,0.484103680,0.183182895,-0.520342350,
0.268472910,0.061200026,-0.093329877,0.337329596,0.273474693,-0.962102711,-1.030044556,0.415781677,0.525848031,
0.146038890,-0.108133249,0.257343382,0.186988577,-0.131355852,-0.780875087,0.301915735,0.379399329,-0.438012183,
0.120663889,-0.361547142,0.234094277,0.231906414,-0.017196793,-0.065929517,-0.018362638,-0.829732001,-0.144463494,
0.207982570,0.101346061,0.346503794,-0.003995632,-0.052521165,-0.260322005,-0.588731587,0.584491134,-0.180989668,
-0.110344656,0.029526146,-0.125199616,-0.000474711,0.347806603,-1.521536589,0.312766612,0.340198964,0.137237117,
0.173953444,-0.177856773,0.249426752,0.372512579,0.094413646,0.076902948,-1.126788497,-0.149291337,-0.015704961,
-0.289728969,0.162210584,-0.127038166,-0.120560847,-0.264471471,0.136272594,-0.242542356,-0.070735216,0.148077130,
0.257924885,0.199543804,-0.056558382,-0.165109888,0.210807472,0.287317038,0.420589745,0.381545156,0.429465681,
-0.165329844,0.310304463,-0.070037358,0.025836078,0.148541912,-0.620809436,0.218982637,0.415045083,-0.625235140,
0.120937750,-0.125309482,0.133352801,0.263604224,0.255556166,0.561563313,0.345216602,0.260030031,0.295243442,
-0.069965765,0.263743311,0.184616745,-0.186166525,0.345021129,-0.048735533,-0.036786843,-0.095495671,-0.722098231,
0.235808998,-0.117425159,-0.114007674,0.042088926,0.113317952,0.260901272,0.537236333,-0.589688420,-0.683748364,
-0.005492014,-0.200861827,-0.024293888,0.002759699,0.261515111,-0.229592279,0.062343515,-0.314945042,-0.135632202,
0.216549978,-0.213756561,-0.064698316,0.285817951,0.079021990,-0.384002805,-0.454320312,-0.253345311,-0.203847572,
0.112300977,0.165536299,0.419913471,-0.234347388,-0.043895170,0.461612046,0.477880776,0.719303727,0.418967992,
0.161761045,0.025826560,0.300121129,0.003930800,0.113226295,-0.974653006,-1.094834685,0.459114611,0.314362347,
0.228951067,0.368849099,0.213693425,0.069366701,-0.101466209,0.413680047,0.281716615,0.350520700,0.197580889,
0.200480387,0.131462798,-0.142729208,0.246842012,-0.109420337,0.301902324,-1.246006608,-0.001756427,-0.051583048,
0.250955194,-0.139036193,0.210655332,0.129016966,0.238312066,0.335894614,0.342646003,0.528947294,0.270602882,
0.271834612,-0.122067347,0.023037517,0.209515214,0.185657635,0.024463672,-1.303295016,0.038251605,0.262168020,
0.442608654,-0.244846299,0.269285023,-0.169425055,-0.167072043,-0.067965984,0.126640424,0.204334110,-0.894725025,
0.385317415,0.309280604,0.090246864,0.389711738,-0.033545401,-0.150516570,0.005064620,0.003450555,-1.225624561,
-0.234149307,0.293780148,0.199601755,0.340091318,-0.080406465,0.413904667,0.158647135,0.491888940,0.253546447,
0.274539411,0.343223363,0.370743394,0.170763746,0.059521250,0.599490941,0.004445716,0.651402354,0.547362149,
0.316308141,0.135140389,0.013062949,0.006159962,0.186531529,0.479201943,0.387654454,0.699805021,0.361175895,
-0.014446696,0.225395307,0.200496286,-0.048483074,0.136708766,-0.682945609,-0.506164670,-0.230244681,0.613638401,
-0.300057888,-0.196808338,-0.326209992,0.084068462,-0.256563008,0.107846901,-0.231537029,-0.213526964,-0.170291871,
0.157926127,0.384066105,0.390825272,0.093541808,-0.261057079,0.006201437,-0.918107152,-0.347257137,0.238912106,
0.164731324,0.145187974,0.093254656,-0.137026370,-0.006289007,0.041023578,-0.171858147,-0.032252040,-0.044047888,
-0.340751082,0.297985643,-0.009093096,-0.341601878,0.249338672,0.012693051,0.224553600,0.486748397,0.198542297,
0.056744345,0.333615303,0.347687423,-0.175992087,-0.097631030,0.547435582,0.483732343,0.558132291,0.532814682,
0.105994858,0.157353103,0.102382012,0.163074419,-0.168922290,-1.353643775,0.121932574,0.225319281,0.289383143,
0.097620048,0.173318982,0.221212909,-0.171939269,-0.205832586,-0.705048859,0.226528049,-0.268171161,0.006684178,
0.016148860,0.366078049,0.237126648,0.333435357,0.391526818,0.415302247,0.301933080,0.503132463,0.551969945,
-0.050474755,-0.131502941,-0.175732195,0.340719521,-0.015497440,-0.844422877,0.145027503,0.224678800,-0.079682358,
-0.234968707,0.271595061,-0.114001594,-0.153608292,-0.234341308,-0.160311699,-0.261055052,-0.192404747,-0.303652704,
0.163585678,0.108141556,-0.105360821,0.194015697,-0.001351693,0.410104394,0.501412272,-0.531775713,-0.876166999,
-0.174860105,-0.212414384,0.146233603,0.175231010,0.226244405,-0.095445663,0.184390038,-0.906936228,0.067464136,
0.407402128,-0.384336025,-0.081426747,0.331117034,0.101816699,-0.554407179,0.478280574,-0.116407096,-0.219009101,
-0.116106503,0.143396482,0.135471016,0.074705146,0.007721002,-0.020524371,-0.093735449,-0.720549524,-0.171386585,
0.228203788,-0.142187193,0.379795194,-0.120556720,0.233588964,-0.874297142,0.405341208,0.491569370,-0.379187346,
-0.100497723,0.249068826,-0.250607520,-0.241713703,-0.235348970,-0.251648068,-0.032808729,-0.164704949,0.068143398,
0.062980227,0.228566363,-0.070894666,-0.002721797,0.206933126,-0.268000126,0.542174578,-0.304412276,-0.102446653,
-0.012663012,0.235925123,0.209416792,-0.040770821,0.276252627,-0.477055222,-0.558136463,-0.179687127,0.487286538,
0.311294824,0.055876981,0.011685369,0.227029398,-0.174187809,-0.387786925,-0.218775600,-0.652234316,0.022961117,
0.103498824,-0.060456924,-0.009806036,0.089880340,0.353030413,0.101493366,-1.235955715,0.078378849,0.107107662,
0.238146722,-0.010192130,0.190918386,0.234541684,0.452119678,-1.083389401,0.133227155,-0.458573163,-0.018793715,
0.143228143,0.209202841,-0.173951745,0.336417645,0.375242233,-1.020779490,0.185564548,-0.514427066,0.139853671,
-0.154540941,-0.129851624,-0.223138854,-0.277966708,0.266004771,-0.042094551,-0.009247383,-0.165889859,0.232334346,
-0.038620181,-0.043242667,-0.126134142,-0.084326893,0.490928680,-1.116388559,0.120279014,0.001095951,0.215994030,
0.204438493,-0.043997947,0.384596825,-0.097440049,0.257054925,-0.850575507,-0.990148962,0.489754051,0.559446037,
0.094810233,0.071606360,0.370382935,0.224823996,0.130685657,0.274942607,0.210326016,0.625559330,0.267011315,
-0.065688372,-0.282218426,-0.178627536,0.240744948,-0.011737864,-0.022197684,0.129786894,-0.219309017,-0.022517562,
-0.053662073,0.094204001,0.244833738,0.282578856,0.279226154,-0.541390419,-0.263453633,-0.234372482,-0.446415216,
0.070919275,-0.145894140,0.179916739,0.220500961,-0.302595973,0.488999486,0.291299254,0.008707229,0.454782218,
-0.108642533,-0.055981591,-0.023003705,0.191745862,0.236979708,0.023396393,-1.234943628,0.080540307,0.379761964,
0.391056895,0.267262727,0.148146942,0.233449921,-0.171377540,0.319573253,-1.153901458,-0.433817774,0.049415365,
0.244777411,-0.009716868,-0.151836440,0.058236241,-0.276590109,-0.088252470,0.092317387,-0.022076130,-0.035006564,
0.243545517,-0.319029957,-0.187051490,0.394597560,0.092279233,-0.278465688,0.006232204,-0.043467354,-0.208910823,
-0.002309917,0.107644513,0.224410981,0.142305329,0.378220201,-0.909039676,-0.875744104,0.472659171,0.286481351,
0.186088294,0.260097414,-0.002976997,0.038565200,0.263562918,-0.798446715,-0.889763355,0.288774788,0.335545838,
0.124819033,-0.170446128,0.046255119,0.010032059,0.329907686,-0.634333193,0.539491117,0.430958897,-0.508452594,
0.247366995,-0.329645395,-0.019380411,-0.208119035,-0.286758423,0.033026658,-0.161619589,0.240945265,-0.262036622,
0.288127333,0.126607388,0.271047711,-0.058509268,-0.214838937,-0.403236926,0.105040476,-0.686054051,-0.178857177,
0.084567621,0.159262493,-0.168290377,0.419448346,-0.160295591,0.509836495,-0.910631955,-0.452732265,0.042699825,
0.124476962,0.099969350,-0.232128650,0.240497515,0.399901181,0.506487548,0.567483127,0.496034205,0.252980560,
-0.300160587,-0.312611729,-0.250366509,-0.114715233,0.196836799,-0.156798720,-0.033043988,-0.030218350,-0.240915552,
0.027674774,0.505441308,0.379402995,0.257657290,0.025504479,0.290235877,0.349693328,0.219516218,0.100110434,
0.395421386,0.109954260,-0.168876097,0.408768445,0.153515652,0.176423833,-1.558327198,0.138505593,0.262731880,
0.020793902,-0.231045544,0.276517570,0.219368681,0.154633999,-0.061417595,-0.097378269,0.097668961,-0.798173368,
-0.196214914,0.127282709,0.088931881,0.126916215,-0.037023704,-0.044234794,-0.026492994,0.087894246,-0.255786240,
-0.320163101,0.045511346,-0.226138160,-0.013486406,0.070232019,0.013156096,0.150098979,-0.201146901,-0.024585916,
0.120940864,0.174498737,0.217838690,0.397881627,-0.188118339,-0.031604867,-1.523206949,-0.061682213,0.313008875,
-0.102505416,-0.192854717,0.332078099,0.028629979,0.475163847,-0.788962662,0.379176259,0.541775942,-0.749747753,
0.333598733,0.215694189,-0.124324627,0.230807126,0.003641809,-0.515091002,-0.455558628,-0.300339192,0.531527281,
0.323274285,0.141348496,-0.186779156,-0.019368943,0.079786785,0.556410789,0.244702667,0.470715433,0.339445233,
-0.189133853,-0.206762239,-0.297923386,-0.002617598,0.103243157,-0.023701590,0.323555410,-0.063587509,-0.217509001,
0.014687970,-0.037160210,-0.032263406,0.257054299,-0.041428074,0.464954466,0.159107551,0.050758015,0.356496245,
-0.189876288,0.011028966,0.074924670,0.149611399,-0.307553172,0.016351899,-0.086306572,0.216122121,0.112147972,
0.261854529,0.348984122,0.026073424,0.153351083,0.435375422,-0.853245497,-0.883592188,0.211774364,0.097795911,
0.019090336,0.294453353,-0.038641214,-0.284211516,-0.151525855,0.306122273,-0.073229790,-0.146159291,0.150042176,
0.046284337,-0.398852587,0.247235775,0.216489971,0.261431307,-0.029621975,-0.164200380,-0.748856187,0.057802368,
0.064428687,0.163680881,-0.222381249,-0.016630163,0.210652471,0.158615097,-0.875504434,-0.572191179,0.377984405,
0.047712062,-0.282656401,0.420196325,0.288928449,-0.037456129,-1.060402274,0.553989828,0.187512800,-0.678944528,
0.296567678,0.047390945,0.132694885,-0.009197321,-0.169326007,-0.560248971,-0.380300373,-0.330024123,0.647104502,
0.167713508,0.014690937,0.236833751,-0.107704550,-0.022875307,0.260543764,-1.514112830,0.263440698,0.175377935,
-0.127730191,-0.239226803,0.288629830,0.370172530,0.065709986,-1.029204011,-0.065014951,0.172491267,0.265337169,
-0.011448980,0.017384185,-0.086982735,0.066947423,0.233619034,0.345686197,0.284446269,-0.095443398,-0.060884275,
0.068353243,0.145434573,0.227264091,0.122918606,-0.072645172,-1.373462200,0.433857292,-0.050055888,0.042927969,
-0.204286739,-0.165253282,0.073213220,0.140395492,-0.131774515,-0.122690760,0.264053077,-0.171672225,-0.248694941,
-0.021696294,0.500028491,0.183473170,0.037686408,0.011833885,0.567607045,0.136516929,0.625016868,0.383342832,
0.198813170,0.244056255,-0.086280748,0.480174631,0.414016396,-0.986515939,-1.150987267,0.236963868,0.540232360,
-0.164110541,0.308945656,-0.167591929,-0.301100820,0.146629184,-0.201448008,-0.052546106,-0.103967987,-0.026486397,
-0.116041042,-0.152006924,0.258764118,0.153679579,-0.045706369,0.183635682,-1.451469183,0.236783192,0.358512282,
0.313021958,-0.174919263,0.000832968,0.140571445,0.303321421,0.030686514,0.233276874,0.326737136,0.355090678,
0.010361832,0.435786754,0.014537580,0.011490843,0.272822231,0.550298572,-1.264472008,0.381582856,-0.651783288,
0.263722450,0.392620862,0.191337928,-0.136996999,0.040628809,0.255531579,-1.105990767,0.234772280,-0.645610094,
0.035273705,0.157839745,-0.164196134,-0.070674688,0.264741302,-0.998603642,0.433104664,-0.496834069,0.142887458,
0.192223132,0.236168906,-0.133676037,0.184570760,0.252449960,0.317228734,-1.512642264,-0.110219404,0.160972998,
-0.010700902,-0.224942371,-0.280550241,-0.295976460,-0.233249396,-0.141922876,-0.231466502,-0.292415708,0.026019653,
0.215480641,-0.040657282,-0.009421732,0.117325351,0.282129079,-0.644416332,-0.496503145,0.590624452,0.506805956,
-0.330372274,-0.050179839,0.003107230,-0.110065386,-0.218995333,-0.231942102,0.221489117,-0.107915483,-0.021451395,
0.095768474,-0.066281378,0.103364766,0.162028506,-0.182371348,0.309822500,0.132196173,0.434523195,0.378194362,
0.182854235,0.118429221,-0.218224317,0.262382388,0.331171721,-0.451126486,-0.763041377,0.472031862,0.104932941,
0.125300884,0.128533751,0.358187467,0.343592376,0.292415172,0.294241607,0.437391341,0.557025075,0.265895605,
-0.262103319,-0.042087756,-0.277473807,0.199490488,0.338372201,0.471161842,0.282671750,0.343313187,0.504739106,
-0.014377072,-0.034749161,-0.186076581,0.115630850,0.168626994,0.205282673,-0.135150865,0.050910182,-0.818061352,
-0.125431642,0.144755825,-0.177763164,0.270889789,-0.155340791,-0.685038149,0.090553813,-0.487658203,0.467722297,
0.436421454,-0.037651096,0.170288786,0.314586401,0.255590767,0.193919778,-1.100167155,0.446617335,-0.727707148,
0.077955626,0.183782503,-0.048955940,0.010058942,-0.087093085,-0.226201341,-0.409021467,0.646277249,-0.178295910,
0.288028419,0.063216880,-0.087830678,0.031051744,-0.012182695,-0.230153978,-0.301531166,-0.023147797,0.491571993,
0.033818234,0.196303487,0.238455862,0.032125115,0.143905133,0.346954197,0.388600469,-0.150665447,0.238834143,
0.061609812,-0.094451576,-0.112045020,0.307431549,0.465614527,-0.925051033,0.464654028,0.488117963,-0.271709740,
-0.045136001,0.197012633,-0.050047971,-0.108200401,-0.109142400,0.116892800,-0.383507103,-0.240788221,0.122165747,
0.124393314,-0.428638726,0.152943984,0.277495831,0.095323265,-0.074638195,0.510047257,-0.280730903,-0.161783382,
-0.272037268,0.153270230,-0.445550233,-0.067500308,-0.434529006,-0.038943749,0.098945215,-0.092906803,0.334330201,
0.001061122,-0.169943377,0.085955262,0.173354670,-0.000662247,0.285157979,-0.210972041,0.142226145,0.189278573,
-0.018492252,
0.040485471,
-0.042210478,
-0.261503786,
-0.307056516,
-0.253317177,
0.221903697,
0.061347455,
0.335547566,
0.388621598,
0.071495235,
-0.261679024,
-0.312666297,
0.255305082,
-0.300360769,
-0.756062448,
-0.168460056,
-0.281434625,
0.010990338,
-0.019273965,
-0.006744650,
0.509801090,
0.093115419,
0.388152063,
0.152613729,
0.074560940,
0.061663128,
-0.238275737,
-0.267816007,
0.078286745,
-0.102719866,
-0.324993223,
0.407678157,
0.000037846,
-0.223050162,
-0.262017846,
-0.142287150,
-0.501222134,
0.383787543,
0.332637668,
0.193182707,
-0.284091443,
-0.257488936,
-0.313131571,
0.007732216,
-0.268427312,
0.018642919,
-0.040444322,
0.323607475,
0.390812665,
-0.085337877,
-0.041741651,
0.145523176,
0.137319639,
-0.213762105,
0.467110664,
-0.367020965,
0.227250367,
-0.082564369,
-0.005880783,
0.282677412,
-0.306060165,
0.332664311,
-0.430594414,
0.035096396,
0.031257287,
0.350977570,
0.503220022,
-0.061781302,
0.075703889,
-0.162921086,
0.238884538,
-0.113315366,
0.007178769,
0.095266968,
0.369784176,
0.351447284,
0.327455282,
0.152476057,
-0.006167566,
-0.303744197,
0.417992175,
-0.308906525,
0.257257789,
0.147251904,
-0.113624096,
0.098815538,
0.348026812,
-0.199963227,
0.199871927,
0.345342219,
0.202994213,
-0.280466497,
-0.331458271,
0.055583533,
0.449494898,
-0.237008616,
0.361663610,
0.353652060,
-0.301297873,
-0.312914312,
-0.239812106,
0.195404291,
-0.215534523,
0.054581042,
0.132499948,
0.332047045,
-0.042704608,
0.202102542,
0.233805314,
-0.112220019,
0.048217934,
0.049192805,
0.461003721,
0.101818092,
0.071807615,
-0.330325156,
-0.556992650,
-0.130774930,
0.172200158,
-0.185564771,
0.365255743,
0.221297845,
0.168488339,
0.422733516,
0.029447082,
-0.174188539,
-0.074105136,
0.113004364,
-0.166720867,
-0.090780571,
0.230630219,
0.248504490,
0.446122676,
0.349327683,
0.113669068,
-0.174293891,
0.224967271,
0.126004204,
-0.174435273,
-0.025443286,
-0.118712731,
-0.283478916,
0.010803669,
-0.181407392,
-0.164873809,
-0.310314268,
0.331347108,
0.174611792,
-0.418145180,
-0.310109079,
-0.039138108,
-0.241744965,
-0.117098011,
-0.066114224,
0.230885223,
0.168577939,
-0.252494782,
0.267168671,
0.365417361,
0.002793899,
0.396391422,
-0.126195833,
-0.067743622,
-0.057352431,
-0.309583783,
0.323290497,
-0.315165758,
-0.125212044,
-0.037677083,
0.008337511,
-0.415471315,
-0.314096928,
0.210274979,
-0.065938912,
-0.280670255,
0.153300598,
0.168026790,
-0.012761751,
-0.261095375,
-0.317914099,
0.262624979,
0.282122463,
0.233149290,
0.230638862,
0.427960515,
0.090502471,
0.436351150,
0.401574552,
-0.294872105,
-0.053656660,
0.320298970,
-0.195852503,
0.329148918,
0.170843482,
0.448099732,
-0.030869938,
-0.583549500,
0.474342853,
-0.065934844,
0.476399511,
-0.042540278,
0.349658698,
0.387995720,
0.250452667,
-0.219277516,
-0.056101736,
-0.581276655,
0.113428056,
-0.107138157,
0.120420113,
-0.267109543,
0.088378571,
-0.662692070,
0.316254377,
0.343364716,
-0.501785100,
0.433866709,
-0.247794673,
0.080471262,
0.299930900,
0.012743247,
0.387742102,
0.034353044,
-0.030728662,
-0.169478193,
-0.022880048,
0.406131089,
0.388146877,
0.159887046,
0.154243097,
-0.282865107,
0.435045034,
0.173961341,
-0.292667747,
-0.265274167,
0.467880219,
0.026809167,
0.401598930,
0.167610288,
-0.226190135,
0.300472617,
0.219867840,
0.292593777,
0.065697365,
-0.157305092,
0.377356410,
0.228339285,
-0.260041445,
0.005861799,
-0.236809969,
0.190588593,
0.352687299,
-0.265306115,
0.429917455,
0.430358231,
0.184851438,
-0.015604251,
-0.061114833,
-0.220636129,
0.044066045,
-0.176286906,
0.232258648,
-0.327943653,
0.265152335,
0.345836520,
0.417205840,
0.110777929,
0.404453665,
0.296708792,
0.081446968,
0.366198808,
-0.291642725,
-0.110271551,
0.187676236,
-0.159165382,
0.428457320,
-0.190332800,
0.265691340,
0.399051785,
0.343800694,
0.352567315,
-0.058196347,
-0.131644160,
-0.319994926,
-0.068193421,
0.111960314,
-0.396492422,
0.034345515,
0.465426862,
0.321769744,
0.172721595,
0.159267277,
-0.171118960,
0.034407213,
-0.044067927,
0.252952993,
-0.118540324,
-0.088577442,
-0.279203862,
-0.017841306,-0.175738752,-0.023786422,0.041098606,0.093046375,-0.032270666,-0.006804736,0.017984103,0.051695861,-0.017349683,0.057427615,-0.003234483,-0.022143865,0.030135954,-0.051447112,-0.802292526,0.057667404,-0.015763067,-0.163872182,-0.140987337,0.035086554,0.017327635,-0.190289780,-0.027901329,0.020011734,0.030074721,-0.065271035,-0.024740281,0.013198517,-0.016737152,0.028873149,0.000951664,0.025905414,-0.021252939,-0.033879586,0.022135207,-0.037882127,-0.016692845,0.018606188,-0.038951866,-0.027647350,-0.014416165,0.015922226,-0.019995904,-0.020158807,-0.014282724,0.182871491,-0.016323177,-0.034032777,-0.044632114,0.006649897,0.018496292,-0.011031730,0.060254488,0.219276726,0.012011179,0.104787067,0.029493220,0.028739084,0.032845549,0.044343311,-0.027647229,0.002460772,-0.017352160,-0.061930127,0.028415618,0.042232469,-0.037025504,0.024764176,-0.011830443,-0.030659089,0.027311105,0.024725353,0.044596475,-0.032597858,-0.025022522,0.025289945,-0.038472559,-0.011416240,-0.026732976,0.011466778,0.022901623,0.015152394,0.034096558,-0.086229309,0.031342678,0.015254401,-0.027265728,-0.075059414,0.043262135,-0.020146172,0.043615825,0.036392495,-0.002324892,-0.033928897,-0.001382818,-0.027910288,0.009618880,-0.026864009,0.049332947,-0.050607469,-0.015542529,0.005877245,0.028070308,0.034519717,-0.031635255,-0.047908790,0.204185918,0.018829957,0.026968228,-0.032335803,-0.041469101,-0.014204347,-0.001013616,0.013875735,-0.049177408,0.018531151,0.155489862,0.062204484,-0.085782684,0.053675562,-0.041081019,-0.025178885,-0.057968169,0.035369381,0.016361935,0.022619769,-0.021215465,-0.006922458,0.008143909,-0.052008718,0.010428544,0.001842012,-0.059659392,0.005008503,0.051868517,0.018028622,-0.004081859,-0.028568642,0.023079133,-0.023524100,-0.025575969,0.049909517,-0.002770264,-0.002748895,-0.054210581,-0.033236489,0.048900515,-0.061444845,0.103223175,0.000843528,0.021119464,-0.057463221,-0.044846855,0.066039100,-0.024929492,0.036009900,0.013179303,-0.058497753,-0.055745639,0.040223915,-0.012702139,-0.025256602,0.021971993,-0.009635816,0.034920670,0.007314516,-0.024997743,-0.046274014,-0.018938178,-0.029534725,-0.002971680,0.007894011,-0.042625673,0.031449687,-0.040610101,0.010076956,0.020947874,0.021574946,-0.056662146,0.058287397,0.026399652,-0.040357336,0.014876078,-0.002676081,0.044788804,-0.060549058,-0.004749204,-0.028240029,-0.014228966,0.020109035,-0.060368195,0.040884968,0.036041960,0.019084847,0.035650704,-0.029533636,-0.222661838,-0.001214517,-0.036005195,-0.026559286,-0.016923880,-0.018628227,-0.057033110,-0.043680187,0.011788609,-0.001873532,-0.141643420,0.015294787,0.031436406,0.048973106,0.048071105,-0.044176910,-0.224627092,-0.031334296,0.002717853,0.019875713,0.007604690,0.033738639,0.133496076,-0.038608275,0.067686185,0.034508593,-0.001858587,-0.040894996,0.089745656,0.025584722,0.015852312,0.049991246,0.022019010,0.015082705,-0.001969167,0.032768041,-0.038998667,0.023531297,-0.027498456,-0.005948037,0.034235056,0.020399574,-0.012795833,-0.000731051,-0.038118154,0.026264947,0.035756100,0.042251915,-0.055868011,-0.045368597,0.034976009,-0.006427085,0.034503285,0.050139271,-0.014593993,-0.038314946,-0.054316759,0.015656747,0.026302949,-0.041522786,-0.040764160,-0.032007992,-0.003110796,0.026006071,-0.019345999,-0.040466569,-0.040193688,0.046888016,0.015707729,-0.051140357,-0.035987381,-0.052515674,-0.002620943,-0.024323873,-0.005247083,-0.009133579,-0.041669033,-0.052733164,-0.044780944,-0.029156677,0.001033531,-0.027770041,-0.004220166,-0.012927134,0.049418557,-0.026319662,0.105346657,-0.044322405,-0.044993456,0.004005056,-0.033660032,0.026524425,-0.038128179,0.037438236,0.055492792,-0.005174129,0.134810150,0.054067463,-0.032061644,-0.053969976,0.186003461,-0.204057023,0.044103019,
-0.010575089,-0.000402443,-0.035471797,-0.031393666,0.007492882,0.047635514,-0.029020676,0.005455592,0.052262131,0.051742904,-0.011287536,0.054112814,0.021025293,0.052582920,0.001712978,-0.048930138,-0.015715700,0.017316492,0.030788591,-0.057516091,0.044909164,-0.051792692,0.033828139,0.056965191,0.014227878,-0.010896407,0.031789217,-0.017135894,-0.042766221,-0.040973838,0.027145967,0.044093631,0.002337851,-0.055979300,-0.056730896,-0.013036998,0.031166477,-0.038474344,0.015561944,-0.031556237,0.046974059,-0.015128371,-0.012031931,-0.050638262,-0.051712781,0.003902007,0.009335245,0.031192349,-0.050485186,0.010116367,-0.008340372,0.033867121,-0.026251882,0.017200818,0.023265461,0.029002480,-0.019802490,0.018579757,-0.011315045,0.015546851,-0.035501447,-0.045876790,-0.047226463,-0.036293808,-0.024435060,0.008593974,-0.012628800,-0.032867156,0.000485007,-0.018232532,0.035589624,-0.047550879,-0.021310499,-0.037102431,0.007123977,0.003149779,-0.003321265,0.057284474,-0.022024976,-0.008298210,0.014916264,0.048186339,0.043761786,0.006595563,-0.021842699,0.018967025,0.036326036,-0.001232142,0.031698473,0.047251564,-0.030932609,-0.012763843,-0.051979732,0.013253268,0.041147187,-0.011211628,0.009212715,0.018448301,-0.001231447,0.044885565,0.008413231,-0.056750394,-0.047676783,-0.057201862,0.002379628,0.031209700,-0.007617009,0.051910307,-0.010386699,0.011803947,0.052062020,0.029219225,-0.001841915,0.055611704,-0.034494624,0.021504890,0.036461804,-0.035749044,-0.054233026,0.018467247,-0.021904023,-0.029135499,0.011483805,-0.041882616,0.051927101,-0.005182637,-0.018489782,0.048265398,0.016075831,0.010999811,-0.027604902,0.055025794,-0.017584279,0.048019961,-0.004244015,0.028962059,0.040594809,-0.042983867,-0.038480580,-0.057091519,0.041642115,0.049651299,-0.021100396,-0.028277418,0.009664279,0.031083344,0.014251052,-0.012032552,-0.036723793,0.049378913,-0.037389990,-0.055789299,-0.023052013,0.011512829,0.021459581,0.022324244,-0.033445828,-0.022158120,-0.025673596,-0.027958734,-0.048628673,0.011818339,-0.016790349,-0.055570312,-0.033712476,-0.034672540,-0.024904739,-0.035674714,-0.010012364,0.020690085,-0.046725757,-0.004945850,-0.016615545,-0.029517507,-0.012819964,-0.024469906,0.001856052,-0.041676030,0.010948804,0.053008392,0.047839884,-0.025886025,0.017795566,-0.054571386,0.048609622,-0.057536691,-0.051593531,-0.051824640,-0.053615861,0.007819046,-0.015267027,0.013818732,-0.003572306,-0.001240215,-0.020858591,-0.034253888,-0.048338972,0.029132154,-0.029768143,-0.011742080,0.028041599,-0.014298762,-0.014557002,-0.038488798,-0.049398124,0.027710900,-0.013026068,0.036304068,0.003799919,-0.000073334,-0.052123241,0.001274676,-0.013047927,-0.032945588,-0.013362068,0.003018315,-0.043502323,0.009600389,0.040172894,0.011405393,0.055111129,0.026941596,-0.045532670,-0.022725331,-0.013893524,0.017271006,-0.001646692,0.046459183,0.006706860,-0.036564201,-0.021166570,-0.048033297,-0.015919251,0.028385824,0.000557521,-0.055056371,-0.049957991,0.020931607,-0.050674181,-0.046050601,-0.034422483,0.055028312,-0.016416710,-0.023804227,-0.038983431,0.036933504,-0.009322402,0.011133325,0.013792316,0.016282815,0.036955528,0.002996071,0.005971969,-0.003749318,-0.044864003,-0.013212564,0.054949556,-0.040918104,-0.036437102,-0.057291266,0.003500920,-0.054000862,-0.029571543,0.053199425,0.023911821,0.030759582,0.009886035,-0.049062055,-0.026865248,-0.046739880,-0.035700966,0.019661330,-0.016013047,0.056422316,-0.042086355,-0.049271651,0.057007704,-0.049874745,0.049128540,0.015546761,-0.052622668,0.050286014,-0.015718026,-0.023806311,-0.045039047,-0.048834939,0.012854583,-0.056710828,0.023724822,-0.014266854,0.020261873,-0.014135900,0.019965841,-0.001577095,0.016969303,-0.023489095,-0.039712805,0.007352850,-0.036851037,-0.035790514,
-0.061137538,-0.020049404,-0.044325501,0.044961326,0.041606661,0.008467760,0.046910003,0.022055507,-0.060188014,-0.011525656,-0.009409917,-0.035054591,0.016443565,-0.023783715,-0.027607668,-0.000673038,-0.038386296,0.047784474,0.036034919,0.054651607,-0.012025125,0.012988832,-0.002322221,-0.053567480,0.027164789,-0.043339480,-0.020841260,-0.025855144,-0.056324508,-0.003749901,0.009458374,-0.004292269,0.036580298,0.001827944,-0.010516339,-0.031491160,-0.038114674,-0.010094109,-0.039649878,-0.043910783,-0.010177410,-0.010194036,-0.040869128,0.033733979,0.043179080,-0.044934627,0.025288476,-0.026789650,-0.011830745,0.047961399,0.001759600,-0.055048827,0.047416057,-0.005311862,-0.029274881,-0.036412343,0.051518410,-0.004791792,0.030438436,0.037945081,-0.027436614,0.004900418,-0.042638842,0.043381635,-0.035804626,0.032574873,0.008929905,0.029819913,-0.046389699,0.001212380,0.027297217,-0.008207589,-0.001439263,0.022415839,-0.043526515,-0.017292568,0.020479312,0.022596318,0.054007020,-0.017462628,0.013679670,-0.034286350,-0.013657647,-0.032986328,0.042429190,0.000351692,0.018725360,0.025624506,0.010758825,0.001399333,-0.010045243,-0.054533459,0.009302119,-0.012790857,-0.048204757,0.047970742,-0.006155038,-0.034607738,-0.062063042,-0.058617443,0.016355263,-0.026356297,-0.023919724,-0.038881991,0.044306282,-0.015468061,0.031603795,0.045834735,-0.050334498,0.040219996,-0.016727740,0.055296812,0.027926544,-0.061755657,0.005149791,0.018283306,-0.020944677,0.045274224,-0.053404745,-0.018319666,0.056538157,0.050469093,0.023953829,-0.034529183,-0.055342615,-0.048151728,-0.014766522,0.032706670,0.018167192,-0.007011393,0.051924028,0.042500582,-0.032708067,-0.030770749,-0.006555301,0.007732636,-0.006125147,0.016725620,0.039701957,-0.015927965,0.022455987,0.007852282,0.022161713,0.018071618,-0.017465873,-0.025741734,0.024677973,-0.042667635,0.024595007,-0.036757909,0.034260161,0.017431781,-0.014144207,0.027234429,-0.023902301,0.006520723,0.011114922,0.005896392,0.006324115,-0.007073531,-0.016679415,0.026454356,0.022772491,0.015936743,0.033162411,-0.034437276,-0.019291285,-0.001645618,0.046591274,-0.049048822,-0.033097956,-0.017760253,-0.049317308,-0.047940072,0.039549708,0.002693266,-0.052102316,-0.010221581,-0.007657453,-0.020525729,-0.050985165,0.025563309,-0.012969375,0.050638646,-0.049530707,-0.037494015,-0.002999505,-0.046172377,0.036304891,0.044647966,0.046513494,-0.042294048,0.035627574,0.034271877,-0.022972483,0.000415169,0.021842498,0.041314587,-0.059893847,0.051763937,-0.020219233,0.017765973,-0.041758224,-0.049876239,-0.044797167,0.033089489,-0.034227088,0.033561978,0.014779961,0.022965649,-0.018567624,-0.018262932,-0.032970607,-0.032272048,0.047214419,-0.008995053,-0.027667742,-0.059616499,0.002511656,-0.057309959,-0.006576519,0.036454335,-0.039051577,0.031573277,-0.018416910,-0.044404604,-0.058513217,0.022853136,-0.049961761,0.022426121,0.002494808,0.031378660,-0.049393129,0.047605488,-0.062637329,-0.043822918,0.028785154,-0.003740827,-0.038689103,-0.017450601,-0.051380415,-0.056010973,-0.018178239,0.038220063,0.017204650,0.010887143,-0.021133896,0.048005462,-0.003268318,0.016334742,-0.004717593,0.003513763,0.013461936,0.044304747,0.027337920,0.001511346,0.019124707,-0.018792400,0.034036726,0.016207321,0.037801642,-0.009014408,-0.052937284,0.011405303,0.017690858,0.040704720,0.016497424,0.017901016,0.040161069,-0.024481930,0.045222528,0.023709614,0.038558077,0.035518982,-0.049308389,0.030071774,0.047388602,-0.046355899,-0.007198704,-0.040969875,-0.019821359,0.002890614,0.030882971,-0.016761387,-0.054670583,0.025438743,0.026824554,-0.015761569,0.043577928,0.038706854,-0.016999340,-0.003433090,0.010170043,-0.012126192,-0.019996237,-0.026438292,-0.038639564,0.028833644,-0.019054638,-0.027697707,
0.048836343,0.009230899,0.036113832,0.052613549,-0.008133145,0.002982615,0.053525165,-0.044840638,-0.019073542,0.008128029,-0.003917463,0.015371270,0.030358687,-0.023755644,0.004495531,0.047584079,-0.032669544,-0.039151683,-0.044277091,0.034511227,-0.052956410,-0.028238920,0.038993508,-0.037274174,0.046948072,-0.026991952,0.009133689,0.007557613,-0.001416147,0.028723439,0.049035620,-0.036047578,0.031744715,0.015426042,-0.001075867,-0.040368788,0.017126417,0.035652701,-0.053019710,-0.055045366,-0.056758534,0.013340325,-0.026873089,-0.017934091,0.049646653,-0.019950317,-0.036664587,0.005193339,-0.031688787,-0.016920010,0.025193308,0.013324888,-0.039618965,0.054962926,0.039061364,-0.041691709,0.019678919,0.021597516,-0.041427825,-0.040575799,-0.047806345,0.025718058,0.010055299,0.017960355,-0.025358705,0.043412346,0.006363346,-0.046123549,-0.020807190,0.029464319,0.012694935,-0.009120977,-0.040336967,-0.040006191,0.049798269,-0.034568425,0.039548326,-0.020117413,0.000575830,-0.058446132,-0.018767590,0.048387133,-0.057989191,0.029049644,-0.048592810,0.008420808,-0.052344672,-0.045705028,-0.046609346,-0.020022517,0.007763823,-0.042330887,0.014632146,0.034773212,0.047065414,0.050197940,0.038012110,-0.017058821,-0.007817528,0.046301119,0.023706181,-0.015310903,0.043586843,-0.056579519,0.049413562,0.032303091,-0.042533208,-0.047089439,0.044903476,0.056956168,0.003464982,-0.022559118,0.032875065,0.026041459,-0.007205453,0.046223648,0.037422374,0.009221578,0.025082795,-0.054080583,-0.027043588,0.006322965,0.015699379,-0.007892992,0.021782100,0.017587783,-0.053358942,0.018210681,-0.004694161,-0.039730091,0.001948443,-0.014199309,-0.031689089,-0.053435080,0.048296895,-0.035062276,0.001817684,0.046251215,-0.007277278,-0.044561345,-0.062129121,0.009592528,-0.028969251,0.004210380,0.011871471,-0.016358318,0.039147161,-0.007513083,-0.023043560,-0.044238131,0.012767110,-0.041456483,0.012136395,-0.011292939,0.031135488,-0.028304210,-0.029685987,-0.007461367,-0.035263494,0.022011129,-0.021148290,0.023687126,0.033507831,0.028940778,-0.014845569,0.027090922,-0.031082651,-0.057524256,-0.005494637,-0.041861743,-0.044728946,0.009907356,0.049335968,-0.022720657,-0.003265943,-0.041828707,0.009975160,0.016459666,-0.013036096,0.043926507,-0.052927613,-0.007853759,-0.032155130,0.050694823,0.048896167,0.054662939,0.053118777,0.022857046,-0.047987659,-0.039162584,0.007542324,-0.051606484,0.031395141,0.024277417,0.013774569,-0.050432499,0.041999228,-0.010912403,-0.024227800,0.023650708,0.004874920,-0.032910686,0.013513057,-0.038505249,0.053654660,0.047011800,0.016918046,0.025915315,-0.057391912,-0.032094177,-0.055677690,-0.030091837,-0.051410433,0.037824225,0.031094097,0.034000911,-0.031654608,0.042869382,-0.008342698,-0.014960540,0.031016223,0.038233951,-0.043555606,0.054964710,-0.005827167,0.015377155,-0.057488877,0.003940278,-0.031114405,-0.036152836,-0.024396671,-0.000268936,-0.016455617,-0.036984719,0.037032206,0.017176123,-0.053867999,0.007336658,0.014182557,0.002121489,0.014019544,-0.005280209,0.025249990,-0.041031577,-0.024617299,0.043249663,-0.037255824,0.028325332,0.047372319,-0.052793525,-0.029777382,0.048503753,-0.004283654,0.011397677,0.005967787,0.023792554,-0.023789437,0.007495291,0.033839088,-0.004870678,-0.058596257,0.019956419,-0.014738942,-0.012180272,0.028626075,0.010118266,-0.034927819,-0.026643004,-0.008778596,-0.014264315,-0.018123487,-0.039556097,0.041824769,0.023230996,0.011393775,0.013072443,0.006758173,0.039545044,0.013063109,0.008794228,-0.031744014,0.018871093,-0.054013811,0.018208960,-0.050044104,-0.027788112,0.030480549,-0.040045492,0.040486895,-0.031906303,0.054676745,0.017792996,-0.025019713,0.035211373,-0.056811005,-0.036574610,-0.038843203,0.007600236,0.005672062,-0.049658310,
0.062880740,0.069332801,-0.027194090,0.001379071,-0.027672702,0.147201478,0.085877478,-0.028029248,-0.027807336,0.008363552,0.026818149,-0.012874219,-0.008517336,-0.078676037,0.004702359,-0.116430327,-0.046634234,0.011843584,0.093477301,0.110213220,-0.037876755,0.023915706,0.045497280,-0.054716665,-0.022490351,-0.004737895,0.138092816,0.049705498,-0.031791545,0.002741858,-0.036252636,0.001274979,0.020483641,0.011139495,-0.053311013,-0.024847573,-0.006368451,0.097911105,-0.031513069,-0.074118465,-0.081315584,0.018946577,0.021291053,0.054173194,-0.007133137,0.090659060,0.007965393,-0.192107856,-0.036358427,0.021672187,0.020516971,-0.032902732,-0.138226911,-0.059001535,0.183293447,-0.016148997,0.174391419,-0.021448676,0.121975586,-0.037221286,-0.074422352,-0.047759313,-0.000337497,0.089445025,-0.036655441,-0.021722395,-0.087871641,-0.025624750,0.004453387,0.022623766,0.027916718,-0.013242043,0.004229920,0.038571678,0.014472532,-0.060958467,-0.076350182,-0.082780898,0.027281193,-0.017088104,-0.045352414,-0.013763773,0.158889249,-0.034156065,0.082934789,-0.012527794,-0.002222409,-0.010677244,-0.036749888,-0.047386371,0.012952562,-0.044438299,0.005456494,0.007365493,0.021512279,-0.007053042,-0.055278931,0.010184720,0.000126204,0.071322925,0.016728321,-0.046561446,-0.060100995,0.058426071,-0.001391968,-0.039817248,-0.022431916,0.140353456,0.009895498,-0.074317247,0.005339230,0.034821179,-0.005600173,-0.028308174,-0.041403539,0.005078872,0.007806271,0.091760948,0.005780155,0.041290272,0.001287677,0.007054140,-0.039353438,-0.036536857,0.003038033,0.097223930,0.055831052,-0.049814705,0.071877204,-0.041475475,0.035242952,0.016501602,-0.075013630,-0.031352889,0.012414214,-0.012784217,-0.026764967,-0.003149798,-0.110940896,-0.031070977,0.019797321,0.237029597,0.034624904,-0.073588058,0.143055305,-0.038791656,0.032719146,-0.074939094,-0.036957134,0.146769375,0.064519309,0.005380498,-0.029154778,0.033351224,0.005038363,-0.029556403,-0.055281136,0.025546532,-0.091819346,-0.065557964,-0.014380599,-0.067051485,0.048890885,-0.000504880,0.033322144,0.065808915,-0.038223814,0.014563389,-0.017166907,0.030921679,0.008184954,0.143909305,0.052251875,-0.077460676,-0.019102123,-0.043670077,-0.077783316,0.077523999,0.029657496,-0.004479777,0.165856585,-0.008911596,0.006982577,-0.076849669,-0.005199959,-0.081732176,0.075281329,-0.043937940,-0.032566678,-0.054484818,0.000746349,-0.010867142,-0.007432352,-0.011050781,-0.015434374,-0.039414167,-0.048836313,-0.063891619,-0.064975038,-0.038054593,-0.068621457,-0.029417058,0.002774076,-0.006120449,0.017201977,0.148334906,-0.028351717,0.017393505,-0.028210277,-0.045973372,0.000620446,-0.008901282,-0.049740385,-0.162711918,-0.063455977,-0.011296157,0.124951079,0.025110325,-0.015897626,0.034289613,-0.059991915,-0.058098789,-0.042589314,-0.014755440,0.021917570,0.056017160,0.024864504,0.012214097,-0.068685420,-0.032630812,-0.003420194,0.056910206,0.002879122,0.026032640,0.105277292,-0.001905414,-0.047489177,-0.008970099,-0.014862072,-0.001027711,0.024235094,-0.004935235,-0.017422212,-0.028389357,0.035975736,0.013886566,-0.083670288,-0.029615501,0.025536019,-0.040081494,0.032183528,-0.028846851,-0.019297985,-0.027388543,0.004275903,0.025907401,-0.040883917,0.174423501,-0.040808480,0.034323193,0.009471048,0.026011247,-0.004095093,-0.015185731,-0.038697131,0.025013655,0.016968820,-0.076264523,0.021309981,0.029181881,-0.007682547,-0.072703205,0.011191393,0.001238075,-0.058326121,-0.055470895,-0.008576008,0.024626549,-0.027146729,0.013694945,-0.028840033,-0.076894917,-0.033679001,0.147149891,0.006157461,0.035169687,-0.039235711,0.031629432,0.022183597,-0.080554560,0.010610086,-0.050232310,0.037507251,0.201376453,-0.013787175,0.021451745,-0.053354137,0.115178823,0.039506160,-0.009067796,
-0.001822969,-0.060265340,0.027391749,0.023766331,0.002484751,0.022390079,-0.003451097,-0.009703371,0.015411286,-0.039763700,-0.068675123,0.054352995,-0.004918471,-0.086712860,0.053015955,1.001850843,-0.027844230,0.035540856,0.070660323,-0.110537738,-0.081391200,-0.031025063,-0.042951200,0.007852847,-0.045247953,-0.048770428,-0.134940282,0.012054795,-0.049945973,0.008402571,-0.057227403,-0.057700627,-0.072054334,0.026004238,0.006008481,0.000131292,-0.012077716,-0.007215194,-0.050915867,-0.059326027,-0.082887456,-0.035526469,-0.007567685,0.045362774,-0.078271866,0.030568238,-0.102103293,0.007016656,-0.023820443,-0.035232183,0.020043468,-0.000021597,-0.083816282,-0.084612250,-0.086046971,-0.078637376,-0.039364215,-0.060409475,-0.053749111,-0.046409503,-0.102780961,0.041222531,-0.011842086,-0.007474054,-0.052113775,-0.038324118,-0.031245761,-0.018291123,-0.039915044,-0.117786758,-0.021777235,-0.048843790,0.015375053,-0.056823347,-0.084923260,-0.043840449,-0.030874779,-0.076934427,-0.048645414,-0.031991199,0.036326796,-0.073458858,0.020050034,-0.094229572,-0.146348119,-0.018386770,-0.103723705,0.007655162,-0.043517254,-0.065259673,-0.014631112,-0.074588440,-0.036005992,0.001846609,-0.065060921,-0.017285425,-0.017549666,-0.067813516,-0.060913477,-0.059884626,0.002919207,-0.043648537,-0.090338357,0.019891875,-0.055622570,0.049981616,-0.100838900,-0.038503185,-0.033907831,-0.005395013,-0.019679645,0.044929240,-0.098058075,-0.087046929,-0.099677533,-0.060990218,-0.040915631,0.167112529,0.041872013,-0.067760043,0.050280239,-0.049139552,-0.111012228,0.008933239,-0.041083589,-0.079688139,-0.024462212,0.023715869,-0.131212011,0.046071194,0.050509069,-0.051613841,0.006634899,-0.013797930,-0.048410539,-0.113491505,0.007421785,-0.009566806,-0.077070691,-0.009891612,0.029031273,-0.115112416,0.043162119,0.025789509,0.052715037,-0.013810073,-0.009742706,-0.082388662,-0.036935516,0.161015779,0.015716484,-0.021009678,-0.019058624,-0.074599482,-0.018381983,-0.078542218,-0.059499376,-0.034618881,-0.052973792,-0.012716983,-0.045895416,-0.012044367,-0.052564941,-0.055639144,-0.046286594,-0.002670653,-0.002354640,-0.015215022,0.009010643,0.159083247,-0.154875278,0.031808250,0.011624478,-0.129226610,-0.040186074,0.045105558,-0.082473665,-0.059751641,-0.025354372,0.007969458,0.095486201,-0.094340242,-0.065945074,-0.117533542,-0.103172690,-0.029232146,-0.126604781,-0.001276320,-0.028694322,-0.009361488,-0.015847247,-0.014591103,-0.017850010,-0.056432195,-0.082725152,-0.074310422,-0.002240548,0.279780954,-0.071194574,-0.058628421,-0.006595018,-0.074725889,0.002506383,-0.027015522,-0.096771009,0.061503414,-0.035048220,0.116875701,-0.025823250,0.028533235,-0.114664346,-0.004326558,-0.001046835,0.744453311,-0.042953223,-0.041769382,-0.014176220,0.008584991,-0.040994622,-0.091950260,-0.009670249,-0.122309849,0.011915248,-0.175905138,0.039838716,-0.060176369,-0.065352254,-0.056196094,-0.042284466,-0.012611092,-0.069087900,-0.007270934,-0.100706890,-0.164468661,-0.005065572,0.048309531,-0.038544551,-0.009771679,-0.075609088,-0.073423281,-0.006346146,-0.070450090,-0.034288574,-0.018703504,-0.171022326,0.017708439,-0.039032985,-0.080376796,0.018240651,-0.027334636,-0.045804549,-0.102702282,-0.016059289,-0.008908905,-0.030133605,-0.043869596,-0.115612745,-0.002430382,0.032406725,-0.005276756,-0.025021961,0.046519201,-0.002746393,-0.042949088,-0.050076436,-0.081763096,-0.008479640,0.022005288,-0.075054944,-0.039251238,-0.018147288,-0.096294500,0.023055535,0.010360215,-0.073175631,0.005920729,-0.037172843,0.046256870,-0.022831855,-0.045773461,0.001100309,-0.075833395,0.034421876,-0.185444653,-0.047590353,0.008344518,-0.078312740,0.024810219,0.002755534,-0.039690580,0.000813825,-0.069913872,-0.102921166,-0.078536071,-0.021298252,-0.149806410,-0.056793656,-0.100985251,0.066252947,-0.030876605,
0.054064635,-0.200769350,0.016426891,-0.022294112,-0.092026815,-0.009355026,-0.045217954,-0.030959504,0.043339763,-0.043577004,-0.204831734,-0.020478942,0.051797092,-0.031975240,0.053412501,-0.260792315,-0.008772431,0.029861009,-0.279289484,0.067995980,0.111608103,0.047427811,0.038309913,-0.034856811,-0.002944268,0.042558428,0.039937243,0.004576539,-0.037149210,-0.050376847,-0.012186080,0.021227269,-0.012569401,-0.038040139,-0.014149672,0.057629131,-0.052821696,0.066768028,0.029853284,0.050726779,-0.055967439,-0.052217782,-0.040618628,0.057563838,-0.039306659,-0.034317680,0.226149753,0.055972070,-0.023379317,-0.046062116,-0.004950171,0.053888630,0.001237541,0.026512107,0.225419194,-0.015933830,0.108412221,0.029229309,0.096957363,-0.033983137,-0.025976593,0.022594893,0.051120687,-0.015695704,-0.056907948,-0.079757027,-0.053578924,0.015596479,0.031853467,0.005421480,-0.034482043,0.030458625,0.023616515,0.029174179,0.062784441,0.008946079,0.023340985,-0.045072481,-0.017111599,0.013384036,0.008984847,-0.056492675,0.028096955,-0.048745256,0.104401916,0.038368311,-0.060394954,0.001796159,0.018422134,0.020403529,-0.058806062,-0.057099622,-0.048068173,0.033600539,0.012066301,0.030268641,0.019516313,-0.036579940,-0.023924800,-0.054775141,0.002320743,-0.023153605,0.022085531,-0.011196478,-0.059727542,-0.041899849,-0.051572211,-0.137169749,0.001033979,-0.015802937,-0.043253191,-0.060092490,0.066825882,-0.049639624,-0.112915523,-0.120020993,-0.035131212,0.222026303,-0.007115108,0.021714015,0.018572319,-0.064348392,0.025003294,0.005296487,0.022935478,0.018642452,0.027725203,-0.054756768,-0.033281911,0.045781784,0.021682497,-0.085890152,-0.022078807,-0.014448525,0.025813220,-0.025962165,-0.027417900,-0.029462278,-0.096401036,-0.016033715,-0.044246856,-0.005443654,0.047662403,0.027312897,-0.067709848,0.049973648,0.044489782,-0.041100278,-0.055311203,0.169072881,0.011123406,-0.009670756,-0.007917612,0.034662820,0.002916940,-0.040607501,-0.046372313,-0.185253263,0.050279547,-0.034206185,-0.014368348,0.015615168,-0.044342399,-0.042236015,0.035945155,-0.005675073,-0.038032807,-0.007469661,-0.008226790,-0.053880263,0.000233042,-0.073249824,0.052467383,-0.076477252,0.019553976,-0.016290303,-0.053175598,0.039529700,-0.062452447,0.003943069,0.129876703,0.034227863,-0.054960683,-0.014306342,0.050161853,-0.061846919,-0.042940482,-0.044393271,0.002872593,-0.052226204,0.017713778,-0.017879723,0.014032288,-0.007633926,-0.009561135,-0.023250362,-0.065099269,-0.070046805,-0.008958790,-0.051977154,0.043403778,-0.049492508,-0.032638520,-0.013210276,-0.056820218,0.010464584,-0.040298797,0.169485152,-0.014548966,0.051112145,0.002933613,0.047619246,-0.008760208,-0.112405762,0.037754532,-0.037257232,0.031402215,0.006177454,0.028773677,0.113417588,0.012241969,-0.338490427,-0.012783340,-0.020959554,0.001913092,-0.090111427,0.115950100,-0.021522507,0.036768652,-0.015030309,-0.066964798,-0.043922164,-0.038925979,0.021034254,-0.062665448,-0.026412211,0.000666086,-0.044016570,-0.039585516,0.044241089,-0.030524144,-0.029265106,0.017328054,-0.001110611,0.108603701,-0.050863974,0.022438038,-0.012938539,-0.103138417,-0.024662800,-0.071820214,0.013041931,-0.017444864,-0.056611758,0.043234766,0.028191406,0.024764622,0.041626409,0.043468256,0.053956758,0.047261044,0.046919949,-0.004068688,-0.004835054,-0.005077200,-0.031350281,0.021026304,-0.007315977,0.004361641,-0.051424541,-0.027120888,0.034628019,0.005615391,0.005701372,-0.048197445,-0.024723645,-0.010589953,-0.033850424,0.028219301,-0.024116881,0.041202765,-0.019787347,0.022455975,0.186340541,0.009799562,-0.060093183,-0.106563292,-0.066703252,0.007347841,-0.000537623,-0.001795445,-0.035568502,0.032452680,0.225957870,0.017380731,0.183063284,-0.007753449,-0.023265969,-0.213402838,0.037962846,
0.002117511,-0.218346432,0.035584610,-0.014717565,0.058286853,0.064606830,0.017414818,-0.031406328,-0.040338658,0.057400107,0.064911865,-0.041399408,0.000027599,-0.002397052,0.027520219,-1.080994487,0.000858068,0.019236745,-0.347675622,0.076349817,-0.003334160,-0.062237993,0.107481487,0.047833066,0.005315018,0.051217910,0.097277075,-0.040477943,-0.037722047,0.022485383,-0.005482668,-0.003927170,0.046412297,-0.010665182,0.035143889,-0.017968491,0.020334274,0.052386712,0.048791833,0.016731383,-0.011765183,0.025164032,0.066782124,0.010942706,0.037163872,-0.031882592,0.230834708,-0.111604512,0.049035210,0.024505768,0.015457158,-0.054037284,0.049522445,0.077146918,0.300542951,0.020512147,0.100062348,-0.016894804,0.026213259,0.150027663,0.027853940,-0.001871772,0.020250067,0.018276852,-0.083170056,-0.052003451,-0.014577838,0.034364548,0.041138846,-0.076047130,-0.146161988,-0.006788467,-0.015821978,0.057919491,0.052497167,-0.042688891,-0.000925798,-0.024538150,0.024576804,0.043775819,-0.007756814,0.024539012,0.086018220,0.005613208,0.123874962,-0.026144825,0.055359222,-0.004983305,-0.042646796,0.071800828,-0.036873288,0.062483300,0.044072721,-0.046509542,0.039782975,-0.049970027,0.018728441,0.005882249,-0.057927627,0.023511404,-0.021826388,0.057548963,0.064879671,0.043459114,0.036133826,0.000251667,0.059614118,0.208259702,0.030364808,-0.011623765,-0.001717945,-0.033473700,0.093916856,0.031828102,0.021939520,-0.031822138,-0.020958047,0.163174212,-0.029166795,0.003670055,-0.051681746,0.047425177,0.072154254,-0.058651719,-0.056013487,0.066488534,0.013066411,-0.026488841,-0.067533277,-0.014634631,0.007039027,-0.019185336,0.025625851,-0.042415012,-0.009979135,0.051660962,-0.016049212,0.046726778,0.033094194,0.001209142,0.036508620,0.040183868,0.004646665,-0.026960040,0.006872096,-0.032307301,-0.032835182,-0.032798171,-0.049903911,0.136732355,-0.053547308,-0.003335847,-0.025760302,0.020049991,0.104479894,-0.043141238,-0.021564882,0.033341631,-0.036820799,0.012684661,0.023904886,-0.039729815,0.045398004,0.052514885,-0.012676011,0.020104371,0.001148598,-0.007965824,-0.038748171,0.031967476,0.042555287,-0.010543668,-0.044745553,0.062956274,0.009214793,-0.013264370,0.055557899,0.038096599,0.032157727,0.045803461,0.047767758,0.062123481,-0.039032042,-0.019711588,0.015376352,-0.010351639,0.068482280,-0.014559064,0.007606132,-0.011996645,0.060696971,-0.000742333,-0.003925525,0.038877148,0.068172283,0.047657110,-0.074406236,-0.235594958,-0.011609648,0.000099378,0.033646662,0.042668033,-0.003287021,0.000890373,0.013677152,0.066472203,0.048477482,-0.034206517,-0.024086600,0.018258542,-0.002221054,-0.037163250,-0.052388217,-0.467585474,-0.015911903,-0.042336922,0.018387137,0.054673027,0.047953654,0.175543189,-0.048333693,0.088280290,0.025109842,0.105761193,-0.000829138,0.148334071,-0.022480452,-0.017741982,-0.008421891,-0.016984709,-0.062235449,0.020368194,-0.050238419,-0.002036034,0.021980030,-0.047260698,0.049154583,0.060434081,-0.018531911,-0.004143450,-0.044170473,0.000501039,0.022014949,-0.026871111,0.154694825,-0.002221935,-0.021228602,0.003023724,-0.045053527,-0.041136675,0.009498777,0.071997836,-0.034976158,0.037012901,-0.000476542,-0.024619978,0.017655257,0.053606741,0.031618308,0.051108133,-0.006186443,-0.038554344,0.055510510,-0.016489161,0.033185270,0.035922211,0.009557670,-0.037657861,-0.053349793,0.021771504,0.015642906,0.030111674,-0.050888002,0.014137468,0.064418472,0.030332863,0.048816647,0.034644883,-0.000806518,-0.035160840,-0.039363373,0.021974754,-0.022917099,0.246840656,0.009213575,0.051166680,0.047787961,0.028173776,0.012094163,0.030796941,-0.032302596,-0.008176697,0.000193870,0.136282668,0.054009710,0.088465519,0.012929475,0.229860455,-0.307590753,-0.030772245,
-0.005930992,-0.105449274,-0.031135587,0.044430614,-0.047702670,0.018195106,0.000869094,-0.057995167,0.007363786,0.023844020,0.029050348,0.010806597,0.045130122,-0.002241091,0.021998327,-0.330020785,-0.042569924,-0.012673668,-0.118125632,-0.005908612,0.036279846,-0.027797718,-0.024577225,0.012444362,-0.036513831,0.012778115,0.014878187,0.007234243,-0.005312222,0.033568539,0.025113991,-0.051326137,0.031276327,-0.044772319,0.032431319,0.048615612,-0.009851666,-0.011742451,-0.033006214,-0.028706126,-0.016601294,-0.023935890,0.050254960,-0.024903735,0.020119200,-0.064391263,0.133780494,0.008890714,-0.045656394,-0.018148469,0.010133269,-0.055265538,-0.067087181,0.018842528,0.160401344,-0.020301517,0.063508525,-0.057915937,0.010182879,0.061963361,0.046713017,-0.017595848,-0.024690188,-0.009901018,0.023107860,-0.071999505,-0.035183128,-0.022368811,-0.029867938,-0.017635593,0.017705549,0.009421021,-0.060322911,0.051003881,0.033099782,0.015755823,0.026144901,0.018923661,0.050096184,-0.057521194,-0.035940871,-0.009895903,-0.006163259,-0.040086228,-0.062691577,-0.044093665,-0.029264910,0.047223575,0.039551836,-0.016517524,-0.036930021,-0.029341664,0.005561886,-0.053514928,-0.015203734,0.009762558,0.052197464,-0.019196611,0.053110331,-0.005626638,-0.049161304,0.054566745,0.048135445,-0.058202460,-0.036579818,0.025224106,-0.038928237,0.017962679,-0.031811036,-0.021266676,-0.021228280,0.054030564,0.014867677,-0.014063015,0.013299029,-0.098264597,0.006368040,0.085097902,-0.064403407,-0.073148325,0.002779047,0.045991205,-0.069715939,-0.018434683,0.013052372,0.042893294,0.033731874,-0.046424102,-0.034423735,0.013350133,-0.047140889,-0.016017135,-0.057220008,0.033115949,0.016033368,-0.017737376,0.000872571,0.043184310,-0.009407745,0.026046775,-0.036343299,0.021818481,0.043326750,-0.001573774,0.077607043,-0.035806254,0.040579233,-0.003575361,-0.068729520,0.123974018,0.046519287,-0.024014438,-0.009999507,-0.027448921,-0.036664579,0.005246700,0.032608245,-0.008538314,-0.006854265,0.000429345,-0.044327427,-0.034792893,0.002889034,-0.050177615,0.025414409,0.000832493,-0.002065955,-0.003705049,0.048762809,0.048575737,0.023718856,0.012770075,-0.027994495,0.020375095,-0.039049964,0.024951657,-0.049203273,0.009079416,0.038353313,0.038337842,0.079710685,0.014322260,0.020014124,0.001301592,0.039637331,0.027791156,0.009796489,-0.023156825,-0.031049108,-0.014274150,0.023797709,-0.033538364,0.009279348,0.047926214,0.044989944,-0.045970693,0.008747365,-0.207860559,-0.056193516,0.033403307,-0.038961641,-0.046198517,-0.028339846,-0.024087017,-0.029121028,0.027174221,0.017451039,-0.027017500,0.025828758,-0.036529470,-0.059834607,-0.047571383,-0.034688804,-0.100199342,0.022461854,-0.043615498,-0.037498686,0.028477823,-0.036736257,0.090287112,-0.047514778,-0.010136008,0.033579797,-0.047905177,0.014925239,-0.045428205,0.061270285,0.048625670,-0.051337767,0.011267116,0.031930611,0.052490991,0.040627837,0.024361972,-0.006317215,0.011895658,-0.038255766,-0.013874270,-0.004255564,-0.043312557,-0.002559917,-0.010890474,-0.027797131,-0.021429168,-0.089745156,0.055021215,0.025529018,0.038434144,-0.078988887,-0.057916794,0.034231868,-0.017762482,0.006717446,0.028950613,0.001496961,-0.005657505,0.004188809,0.035819627,-0.020138420,-0.049291834,-0.034544643,0.041258905,-0.001599608,0.049435172,-0.022782745,-0.057750713,0.015183385,-0.030425901,-0.037480809,0.033213746,0.000749355,-0.008201346,0.056226391,0.044802651,-0.092106558,-0.053073350,-0.031631012,-0.054327868,-0.035989117,0.036190026,-0.041608647,0.049875908,0.018013591,0.085782953,0.009875559,0.009874438,0.003572735,-0.057529774,-0.004622224,0.035814114,0.054421976,-0.019493062,-0.043509614,0.108698204,-0.056396659,0.027290165,0.033185076,0.028675968,-0.037037686,0.041969329,
0.133660972,-0.017716536,0.131811708,0.042963069,-0.029367184,0.385297418,-0.232397199,0.091940209,-0.219425872,-0.274113894,-0.205393657,-0.009425276,0.007617656,-0.197209179,-0.037175301,2.797695160,-0.038498957,0.048077863,-0.087552324,-0.146462396,-0.136777997,-0.300553083,-0.227384657,-0.231422737,-0.287150174,-0.253825158,-0.130019456,-0.000105916,0.007069468,0.099757269,0.019202484,-0.011167112,-0.279160351,-0.035699051,0.002298979,0.045653865,-0.158946186,0.553704858,-0.156457990,-0.296620309,-0.226809293,0.023125978,0.206204936,-0.010119863,0.003473609,0.355532169,-0.107042655,-0.012697674,-0.197498024,-0.213875785,0.113784641,0.042207055,-0.232889608,-0.242556006,-0.115886115,-0.345415443,0.354816258,-0.078651711,-0.152578846,-0.009188537,-0.320696950,0.031405125,-0.307473868,0.423054308,0.039254624,-0.172103688,-0.194135442,-0.294916153,0.131108582,-0.158567339,0.017947344,-0.226778105,-0.060319886,0.135532916,-0.296630532,-0.316350758,-0.292960584,-0.322654366,-0.254239887,0.066975430,-0.002811495,-0.307639897,0.463873744,-0.235481754,-0.363806516,0.010229061,-0.240683630,-0.312838793,-0.016628863,-0.367664754,-0.216111064,-0.215195417,-0.043571912,0.040774245,-0.264834821,-0.293099016,0.007470129,-0.262779087,-0.135273516,0.350318313,0.273751080,-0.020990124,-0.231924087,0.288747609,-0.193882003,0.025074175,-0.363105923,-0.160360351,-0.257429749,-0.182263166,0.204915702,0.009993128,-0.290419012,-0.255103052,-0.242672250,-0.210839584,-0.016357204,0.936666429,0.286971241,-0.227776781,0.036001593,-0.274783552,-0.275824070,-0.194181442,-0.302078098,-0.253110409,0.045601688,-0.022066431,-0.195880845,0.009954406,-0.005334370,-0.231197640,-0.263104349,-0.254005402,-0.280692577,-0.136936009,0.251327068,-0.250677466,-0.227810517,0.200200036,0.186683014,-0.171577483,-0.029161267,0.047741916,0.418905139,-0.000233938,0.057667468,-0.057695102,-0.186698049,0.658167481,0.386095107,0.157787532,0.005737460,0.195283532,0.233631045,-0.241134733,-0.201492652,0.007972081,-0.162570506,-0.212302238,0.028250864,-0.278104395,-0.013859999,0.287516236,0.215389326,0.375211000,-0.336594552,-0.026162477,-0.047940403,0.763284802,-0.174648598,0.526513934,0.015110002,-0.188584670,-0.053754296,-0.002267188,-0.229011506,-0.300559938,0.050064247,0.034132376,0.378538817,-0.271417320,-0.245239854,-0.283800453,-0.252141386,-0.292875350,-0.144182876,-0.331166208,-0.263224065,-0.028992128,0.150759473,-0.238292545,0.261305928,-0.170888335,-0.281066000,-0.319286525,0.045912120,1.387659073,-0.312820137,0.168769419,-0.322235525,0.126853958,-0.290910751,-0.375719607,-0.286196440,0.365138859,0.095076822,1.070990920,-0.153576896,-0.031529658,-0.258909643,-0.032575309,0.090470850,2.359549284,-0.328184366,-0.240190580,0.456365466,-0.262558132,0.053762123,-0.185477331,-0.257160246,-0.143988177,-0.190575182,-0.254213423,-0.037119795,-0.116834424,-0.150729492,-0.194803864,-0.275447696,-0.238231257,-0.187680170,0.031464994,-0.368155658,-0.237053335,0.336897612,0.001967893,-0.281563431,0.206278116,-0.334921569,-0.218157813,0.042132907,-0.251018703,-0.213000089,-0.301321924,-0.258814663,0.004668751,-0.245881826,-0.304350734,0.362578720,-0.032396935,0.362794369,-0.332081914,-0.225607634,-0.031812314,-0.296647459,-0.281400084,-0.197673395,-0.174533665,0.186151296,-0.031846970,0.102503002,-0.006486915,-0.264792174,0.028426163,-0.255782515,-0.293033004,-0.252067029,-0.143312663,-0.301542133,-0.252442360,0.113332719,-0.323588401,0.051558446,0.203552544,-0.257698953,-0.033469874,-0.384827137,0.226210698,-0.278661788,-0.259648860,-0.313051432,-0.235609725,0.017873863,-0.260180473,0.005424421,0.162691817,-0.235471353,0.387896299,0.159663454,-0.282955050,-0.294928223,-0.281094819,-0.128599271,-0.134287268,0.180540606,-0.266443998,-0.167443469,-0.213816375,-0.031152863,-0.012479600,
0.064297050,0.208481178,-0.026173305,0.023413677,-0.081184663,0.075618200,-0.007203990,0.036814228,-0.058207061,0.002912615,0.053917117,0.056465071,-0.049914781,0.034984738,-0.056691121,-0.540640712,-0.029595522,-0.055219751,0.300697595,0.093585953,0.113052920,-0.044078220,0.141561821,-0.047248937,0.072119460,0.147635251,0.174152106,0.024492275,0.020644171,0.021610105,0.053628124,-0.036117639,-0.036463212,0.037785731,0.020952972,0.052942824,0.110347547,-0.062778369,0.035493497,0.035170600,0.039193131,-0.045275975,0.028874161,-0.039510313,0.008845530,0.066100210,0.259500474,-0.086824685,0.048759811,0.015691532,-0.027168235,0.001204990,0.079759084,0.082290463,0.024592668,0.002518223,-0.115560628,0.039308816,0.158932418,-0.061798908,-0.032824766,-0.043776132,0.039467566,0.042063516,0.055615213,0.011117226,-0.027110800,-0.001491089,-0.025440380,-0.024572687,0.212624073,0.045719787,-0.225469023,-0.048796397,0.125833809,0.013370116,-0.017150443,0.023159219,0.018513426,0.046800509,0.050011590,0.056666415,0.123197369,-0.040118925,0.130815163,-0.030810842,0.074942313,-0.003706042,0.107280701,0.022370685,-0.017198937,0.012435014,-0.008867700,0.009996011,0.047449239,0.001787105,0.044007737,0.029155130,-0.035322823,0.039780494,-0.010353962,0.051603891,-0.007703601,0.167084754,0.038201749,0.003805248,0.037716512,0.059614372,-0.045287352,0.011796538,0.053679377,0.001845922,0.186815426,0.045457236,-0.054482244,-0.011063504,-0.053048111,-0.219229043,-0.012861270,-0.072142623,0.008064590,-0.049348615,-0.005395835,-0.018945739,0.018662632,0.125626728,-0.052468441,-0.016535068,0.027841285,0.031612694,-0.032961790,0.014476144,0.023693975,-0.034946255,-0.023457257,-0.054397017,-0.000371600,-0.044831213,0.104662657,0.055803102,0.035596937,0.106567934,0.051753949,-0.030316850,0.138147369,0.032391883,0.027395280,0.032638509,-0.027480895,-0.130372435,-0.012364709,0.010988544,-0.055854611,-0.013397926,0.021728668,-0.009350912,0.016251463,-0.085521445,0.008901219,0.050056390,0.007366400,0.012707826,-0.035628740,-0.034549110,0.036590923,-0.056933749,-0.004577620,-0.046262212,0.004057759,-0.008860423,0.087559819,-0.012280766,-0.037964642,-0.019849999,-0.023071999,-0.025916647,-0.028214524,0.037894476,-0.028507946,0.014570884,0.053757545,0.052346885,-0.034985896,0.021814041,-0.037447184,-0.040685233,0.020091936,-0.032624807,-0.016312396,-0.025113383,-0.013721649,-0.044224445,0.116150461,0.031990532,-0.014510135,0.041631572,-0.013226559,-0.391244531,0.018215960,-0.012609764,0.044299256,-0.012428224,-0.047908228,0.049086366,0.016150557,0.168238729,-0.000708447,-0.410197437,0.020957669,0.000155931,-0.030236898,0.032901019,-0.049454000,-0.618767798,-0.011970457,-0.054229047,-0.076643713,-0.017208604,-0.010883489,0.249957204,0.025961587,0.124901533,0.017616412,0.055591177,-0.023878729,-0.018561710,0.014634158,-0.053932052,0.023986917,-0.038230352,-0.026632903,0.026981404,-0.037184998,0.121603958,-0.043171387,0.011913580,-0.025864989,0.043149050,-0.047222197,-0.048986651,0.045045894,-0.040659472,0.053352371,0.022957342,0.153461263,-0.007149663,0.009297865,0.016536804,0.083110236,0.037200857,0.062558934,0.009525766,0.016408518,-0.007007428,-0.021064920,-0.043796234,-0.030087067,0.067699388,-0.006697205,0.030206472,0.057031427,-0.052831423,-0.051350925,0.047652528,-0.022612920,-0.002119533,0.035991825,0.047899693,0.023539087,0.015957341,-0.001503646,0.002180791,0.023296019,-0.037688490,0.007311196,0.038929872,-0.054375798,0.056123607,0.044711780,0.038809095,0.015145060,0.006245117,0.026663363,0.176910877,0.001817971,-0.027317131,0.025431447,-0.012684995,0.038476385,-0.038071599,-0.015559515,-0.036201593,0.009952608,0.084834866,0.009936361,0.122191399,0.041894305,-0.133864492,0.300816238,0.003206773,
0.032615844,0.163112283,-0.026961438,0.049012795,-0.138337925,0.063382417,-0.022704598,0.000224874,-0.012174411,0.036638934,-0.028688425,0.023856184,0.024862453,0.050779745,0.020760115,2.047112226,-0.047863748,-0.054546196,0.336672843,-0.122733295,-0.008467469,0.056044336,-0.121895351,0.024079064,-0.057214979,-0.046804532,-0.048018470,0.026826032,0.050862722,-0.050824579,-0.049024917,-0.029496502,0.010789691,0.041355070,0.038118947,0.018046642,0.026129365,0.017832220,0.055787977,-0.050014991,-0.054473452,0.033977643,0.044886220,0.015174181,-0.011646070,0.012787065,-0.189304233,0.136325344,0.054651931,0.048065122,-0.030488612,0.040085666,-0.010996394,-0.077186316,-0.262118042,-0.016207853,0.116798848,-0.004582754,-0.055997107,-0.081322528,0.021343980,0.038534366,-0.012955100,0.021656180,0.004440323,0.030317364,0.051242411,-0.011638832,-0.002002377,-0.029783688,0.168875277,-0.027830619,0.084780753,-0.041892435,-0.001190724,0.032285996,-0.025338806,-0.017337294,-0.052505866,0.006940792,-0.027181040,0.018281449,0.263247550,0.023399636,-0.129718617,-0.038419612,0.004887513,-0.006986892,0.037869632,0.025861077,-0.023664208,-0.048229448,-0.008240465,-0.026748912,-0.030848334,-0.054904252,0.046086658,0.050061394,-0.050689708,0.048877437,0.031251591,-0.023412183,-0.032559548,0.037219454,0.030505758,0.062760673,0.044993192,-0.191677719,0.037018754,-0.043353900,0.001151668,-0.049264748,-0.091605276,0.004746049,-0.027747421,-0.014266808,-0.041936468,0.295880228,-0.033877656,-0.066960670,-0.031906687,0.040871721,-0.059707448,0.026214354,-0.003516089,-0.105817974,0.021735886,0.041035619,0.067916460,0.006258779,0.050438300,-0.012194036,0.009885831,0.052337646,-0.044551112,0.033757169,-0.020828204,-0.008155360,-0.049534451,0.036913775,-0.063664928,-0.131465569,0.009975515,0.057337355,0.302347034,0.053014621,-0.051066268,-0.042996813,-0.055350654,0.331277847,0.032666486,-0.049856022,-0.050211605,0.027784033,0.033654217,-0.038034461,0.014594801,-0.071028940,0.031568341,-0.038327314,0.033863597,0.050427515,0.034965653,-0.014245734,0.005322292,0.038204178,-0.033600394,-0.026897108,-0.056478009,0.085357569,-0.030390004,0.109931633,-0.011324096,-0.041094970,0.029395316,-0.005616059,-0.057365511,-0.017744910,-0.038863637,-0.041781615,0.196236148,0.008507506,-0.004462839,-0.045647621,0.004150811,-0.019833308,-0.089390554,0.007921844,-0.021952584,-0.017108144,0.028110163,0.029553343,-0.030737177,0.047414232,0.032309193,-0.042163644,-0.010819240,0.855415165,-0.025202546,-0.010467654,0.007244509,0.002441837,0.002657405,-0.054703567,0.052101541,0.104476772,0.018175157,0.639219522,-0.040490650,0.004219135,-0.043334562,0.053136960,-0.063062891,1.448289275,0.044007387,-0.027273905,0.001426152,0.012406960,-0.044312019,-0.162606493,-0.036511831,0.022704124,-0.036233213,-0.110234499,-0.033835396,-0.113440104,0.034088612,0.034138758,-0.017738065,-0.022340015,0.029882193,0.023293994,0.041653626,-0.103771098,-0.012542916,0.037879147,0.015879657,0.032526251,-0.023875687,0.051245261,0.022563398,-0.025547080,-0.046692055,0.004139128,-0.122773759,-0.027981764,-0.031048741,0.010554372,0.132764414,0.047928751,-0.017618472,-0.045726020,-0.042419307,-0.039110396,0.052749839,-0.035292320,-0.056092516,0.042392652,0.024988323,-0.052838661,-0.011927528,0.017348984,0.003022520,-0.032823652,-0.045884822,-0.046160147,0.011112614,-0.041360702,-0.065883987,0.053023104,0.024558354,-0.021181121,0.009212852,-0.036677793,-0.054461379,-0.053342443,0.025965335,-0.033059735,-0.065178715,0.036609616,-0.038172007,-0.026988024,0.000266623,-0.330442697,-0.052420910,-0.067301258,-0.024030076,0.011071175,0.029907864,0.029420542,0.052740641,-0.068111070,-0.051085614,-0.153042778,0.021946909,-0.130824029,0.040073302,-0.258863509,0.383936524,-0.046080112,
0.039734803,0.181243956,-0.045204628,0.029873591,-0.050035004,0.027260339,-0.016520657,-0.019217767,-0.025010172,0.015859745,0.049553253,0.039447032,0.023321567,-0.013218549,0.023146495,-0.504229009,-0.044490319,-0.038029730,0.212637320,0.024002478,0.031764522,-0.014574175,0.057320740,0.021108672,0.074810073,0.160267368,0.100332506,-0.004226953,0.033957869,-0.055890355,0.003569043,0.037780225,0.030313166,-0.003223249,-0.004787929,0.020630503,0.056781944,-0.058108252,0.037505008,0.037630066,-0.032561976,0.051958878,-0.001581971,0.012421126,0.047639128,0.009457179,0.213243842,-0.226618871,-0.046228185,-0.014630409,0.052985575,0.032218874,-0.026276007,0.111044638,-0.045927484,0.039433394,-0.013741490,-0.022656253,0.201044366,-0.129927278,-0.000075526,0.001878214,-0.008994969,0.009063128,-0.044522099,0.013117711,0.043025423,0.010139029,-0.056748841,0.032563593,0.099348322,0.001897283,-0.094384171,0.007500351,0.031354498,-0.001687886,0.024181824,0.028726267,0.091812141,0.048520114,-0.003395940,-0.043670550,0.065896675,-0.010080848,0.105089836,0.036713999,0.060688678,0.024950510,0.018073203,-0.032692067,0.039758712,-0.041204046,0.008696544,-0.052239675,0.047951434,0.002646295,0.054962568,0.017446011,-0.063674368,0.069724455,-0.034220446,-0.027593959,0.017149922,0.001846254,0.017573884,0.008415562,-0.006949045,-0.067663141,0.030684263,0.000078498,0.030343095,0.010862941,0.097824119,-0.031689040,0.039267313,0.076071315,-0.021847853,-0.427337319,-0.021597154,0.046952084,-0.011070730,0.009790120,0.055661786,0.004686989,0.046089485,0.093171708,0.056346755,0.008457151,0.056180198,0.016136361,-0.044574637,0.090839542,0.041359175,-0.060161363,-0.045665424,0.037880771,0.038099322,-0.029863246,0.013233504,0.008477069,-0.006293934,0.200897098,-0.035104040,0.021574406,0.209371075,-0.028638117,-0.003599815,-0.019870326,0.035265476,-0.148609370,0.024488633,-0.031449519,-0.033146016,-0.008531445,0.041338589,0.036023632,-0.000443557,-0.045911551,0.009198703,-0.022420321,0.028272394,0.021166811,0.048435405,0.001062755,0.002661162,0.026868796,0.029811000,0.043595511,0.027203146,0.021293031,0.037331022,-0.020867450,-0.029865813,0.003190839,0.018152282,0.029897163,-0.050054606,0.021997755,-0.002288052,-0.005266246,-0.017415317,0.013616390,-0.056444604,-0.026084689,0.006568525,0.035055354,0.075670838,-0.041381486,-0.034379248,-0.000531120,-0.035059147,0.004200856,0.068346180,0.044344075,0.049265195,-0.020763023,0.023848176,-0.364187449,0.018076705,-0.027805554,0.045339309,-0.003012085,0.026602566,0.033055890,-0.023344759,0.127800286,-0.017749861,-0.416687906,-0.019872768,-0.045658309,-0.026959429,0.021924298,0.044911314,-0.610769212,-0.043321203,0.018995114,-0.057087351,-0.005839510,-0.040274799,0.138225675,-0.038402338,0.112397596,0.013334874,0.078298718,-0.082635395,0.006557254,0.083342977,-0.061741702,0.038469672,-0.060037088,0.014038606,-0.003409699,-0.014718569,0.057958756,0.078787252,0.009330716,-0.012865112,-0.008134635,0.032744728,0.046771929,-0.032890536,-0.062205944,-0.048818462,-0.042841066,0.104710266,-0.020835906,-0.033845674,-0.010601774,0.091115013,0.028121376,-0.031674091,-0.044169009,-0.035074528,-0.042549267,-0.005002687,-0.053609066,0.017848311,0.088822789,-0.038757503,-0.026066005,0.019892514,-0.016551601,-0.062292844,0.046970982,-0.029005563,-0.003969150,0.035267919,0.013895921,-0.054823797,0.042982824,-0.023242315,0.004182944,0.025702937,0.029676333,0.037224054,-0.026054731,0.035623018,0.071168020,-0.058044530,-0.031745724,0.037782084,-0.052751973,-0.052241188,0.107548028,0.020344498,0.017769596,0.045027435,0.022249248,0.054857645,-0.046738192,-0.061403327,-0.015199986,0.055368800,-0.035856299,0.014441749,0.072977826,-0.033300914,-0.156996667,0.205705777,0.021651812,
-0.001125416,0.022812851,0.026296003,-0.040663939,-0.049907673,-0.018730428,-0.014127941,-0.032898802,0.005233286,-0.046427310,0.051714785,-0.011618284,-0.032250233,-0.018518135,-0.045716934,-0.054718278,0.016708707,-0.015844397,-0.031264707,0.026710374,0.045100514,0.000905882,-0.028770538,0.022817152,-0.020040745,-0.034259193,-0.011256461,-0.014029482,0.055736870,-0.020381153,-0.051983636,-0.018335702,0.013337742,0.024965292,-0.038729947,-0.040669948,-0.015927158,-0.005237088,-0.056085709,0.016303454,-0.019098997,0.033585247,0.008106449,-0.009213141,-0.011750313,0.017962437,-0.030002225,-0.014900754,0.018025279,-0.058902197,-0.019766079,0.012018029,-0.036588054,0.022809651,0.028719578,-0.019711535,-0.018549496,0.022055797,0.003252467,-0.044642519,0.033274885,0.056836288,0.049793966,-0.031848662,0.053601757,-0.024060974,-0.048002806,0.032408021,-0.051657055,0.053882733,0.056750957,-0.049282148,0.038235292,-0.009838161,-0.015011678,0.004352725,0.012370566,-0.047956552,0.056616798,0.033204313,-0.033355299,0.016580932,0.004024786,0.023992069,-0.001344451,0.019531840,0.016303834,0.050747205,0.008253561,0.047060169,0.009720435,0.017689606,-0.006430017,-0.006270479,-0.043163437,0.044843812,-0.031237071,0.020935711,0.003615935,0.038242869,-0.053154599,-0.005386188,-0.060871355,-0.054552238,0.020881986,-0.013639262,0.039955538,0.036169562,0.001136420,-0.017143989,0.033822678,0.054524984,0.006978776,-0.058079146,0.024137851,-0.018982092,-0.042539407,0.012428807,-0.005112060,0.000855570,0.057439484,0.023746921,0.036447734,0.000479886,-0.011378638,0.021649368,-0.043198071,0.054559294,0.007736242,-0.053665258,-0.033338983,0.027840575,0.004557104,0.025617100,-0.064748205,-0.000284759,0.024271743,0.031894185,0.003135449,-0.056743030,0.042233258,0.022343094,0.022552835,0.034797527,0.026274189,-0.006521617,0.038241528,0.039237294,0.007838739,-0.044355396,0.040769376,-0.037991975,0.049236927,-0.035576742,-0.013976146,-0.022323314,-0.039762054,-0.018669540,0.037210040,0.020275552,-0.005324879,-0.045454346,-0.031984393,0.022874627,-0.034734286,-0.051270388,-0.041917354,-0.019305363,-0.025657505,0.030553924,-0.000356335,0.046924237,-0.053149119,-0.028988831,0.019179676,0.035398345,-0.032071870,0.023745289,-0.034076974,-0.034967463,0.022937384,-0.003050152,-0.051581476,-0.002233106,0.045808349,0.002651260,-0.011222028,-0.019491427,-0.041881546,0.032841168,-0.009288627,-0.035987638,-0.006490059,0.009935171,-0.002797820,-0.013029464,-0.054134417,-0.009195250,-0.017552147,-0.010241480,-0.034781288,0.011116933,-0.035527438,-0.020681160,-0.031884998,-0.029065153,-0.005446606,-0.032110516,-0.024878906,0.006085043,0.025751423,-0.027471380,0.021442492,0.010205927,0.039661907,0.006586740,0.047373414,-0.062658012,0.016820900,-0.057880510,0.014511351,-0.029741542,-0.022201704,0.045507628,0.054050956,-0.021857513,-0.033235054,0.022376943,-0.031235557,-0.029338563,-0.051524177,0.057373974,0.003424248,0.011288382,-0.036742110,0.026914142,-0.063206472,-0.026529195,-0.008823169,0.035114195,-0.005379278,-0.001872113,0.044146992,0.020088581,0.038321789,-0.019675342,0.025446378,-0.008949003,-0.014373693,0.012337476,0.046847753,0.000389231,-0.015237313,-0.022597350,-0.046613101,0.034218837,-0.011979074,-0.019296208,0.006465192,0.009855876,-0.018985664,0.048250906,0.036216572,0.014066448,-0.036179475,-0.023747995,0.039513022,0.012395394,-0.051679824,-0.007771935,0.001922375,0.005377149,0.048984289,0.002635943,-0.006957716,0.040823538,-0.008527385,0.008760171,-0.043245211,-0.018616017,-0.052826539,0.006480233,-0.045264270,0.043981154,-0.025598405,-0.044934709,0.003474470,-0.036253259,-0.044024728,0.042277277,0.018577203,0.009719968,0.028390257,-0.019292474,-0.004726949,0.050544798,-0.033612076,0.015655071,0.048547238,-0.008068814,
0.012996925,0.060403340,-0.055759791,0.014717958,-0.071758866,0.014662278,-0.075089492,-0.011663060,-0.037579007,-0.085054196,-0.140836284,0.056795098,0.001548815,0.009597924,-0.055298384,2.317123890,-0.045145620,-0.004985768,0.268788397,-0.100972421,-0.109532058,-0.039687421,-0.204012334,-0.040188942,-0.048874293,-0.214731127,-0.118044727,-0.020738531,0.053490102,-0.049077258,-0.010274961,0.034037713,0.032982316,0.027506551,0.041823689,-0.054589774,-0.018022282,-0.034498002,0.020648798,0.036066234,-0.049851734,0.019907635,-0.033000104,0.025367219,-0.000005411,-0.011341158,-0.292312384,-0.000954974,-0.006588972,-0.084905379,-0.024856761,-0.037618380,0.006640731,-0.018883780,-0.278884232,0.022126481,0.005537431,0.013089342,-0.139848083,-0.064764649,-0.100978829,-0.013861349,-0.030544218,-0.045141846,-0.002102506,-0.002508369,0.015084014,0.006795970,-0.023975762,0.009631338,0.031826310,-0.066418119,-0.000276066,-0.094185829,-0.203215629,0.005762228,-0.012186065,-0.050701447,-0.124532416,-0.028254606,-0.034641542,-0.080014035,0.215416759,-0.017857498,-0.205643564,-0.033264510,-0.107545704,0.035480309,-0.061764605,-0.109209396,-0.066350967,-0.006272050,0.003518264,0.039360054,-0.097784482,-0.030862654,0.032812957,-0.050224379,0.006031068,0.009278369,-0.019827645,0.035633620,-0.079558171,0.042990819,-0.071782395,0.038207382,-0.030696247,-0.227159217,-0.056828059,-0.097410694,0.013125479,-0.005281213,-0.182661355,-0.027167493,-0.072464854,0.013004845,-0.031502482,0.330587506,-0.039012328,-0.119433187,-0.033735014,-0.082945175,-0.079793118,-0.032264285,-0.032278102,-0.222348586,-0.047023781,-0.009019228,-0.006316813,0.041545518,-0.016296100,-0.007250864,-0.056976661,-0.009194225,-0.059592891,0.012680489,-0.054790121,0.000837301,-0.041060206,-0.077911727,-0.053638358,-0.225356385,0.035304274,0.064943589,0.285093457,-0.013731812,-0.017405134,-0.056600180,-0.058727350,0.291928023,-0.050378807,-0.077014811,0.004258655,-0.055181254,-0.102044381,-0.036890265,-0.007327107,-0.060172733,-0.008560685,0.000313737,-0.009885382,-0.050508264,0.001383709,-0.029539088,-0.065267339,-0.058799144,0.025151361,-0.016929535,-0.000081152,0.209025785,-0.161646321,0.020277640,-0.019948855,0.006063776,-0.012353767,-0.048178688,-0.022977823,-0.098881952,0.008797063,-0.005862344,0.179458514,-0.106609620,0.015186319,-0.064846642,-0.074053727,-0.049720831,-0.094904222,-0.094186172,0.017979354,0.031641394,0.008572513,0.012621870,-0.072496794,-0.042636979,-0.008755486,0.028523805,0.065175079,0.968240201,-0.029170271,-0.042921357,-0.001641809,-0.070630379,0.011143949,-0.051557895,-0.015113762,0.036433239,-0.104871541,0.718469501,-0.071574233,0.027795348,0.011960138,-0.018280912,-0.071276091,1.563496709,0.003764366,-0.011674976,-0.047873799,0.018045101,0.037851553,-0.240999207,-0.003632112,-0.094657049,0.048247289,-0.147754326,0.005456753,-0.187462449,-0.067103513,-0.048724119,-0.004821720,0.013920452,-0.008686396,0.033511162,-0.041817557,-0.160397947,-0.076636694,0.054432813,-0.038899254,-0.069733508,0.017133661,-0.079505429,0.046918910,0.025824344,-0.067437701,-0.011207032,-0.179125711,-0.054322615,-0.037233610,-0.020621486,0.055477191,-0.048133645,-0.091901496,-0.032587968,-0.060986236,-0.056316160,0.016806411,-0.065390989,-0.090696208,-0.098738067,0.001696131,0.021971114,0.025851464,-0.020404391,-0.002722873,-0.046850100,0.023926379,-0.012246056,-0.029692262,0.015649987,-0.040390663,-0.064394757,-0.054357059,-0.018884750,-0.019314690,-0.024073243,-0.120719150,-0.038797885,0.009614632,-0.053599477,-0.121973760,-0.001974953,-0.023929982,-0.041782700,0.035771612,-0.363548964,-0.055392440,-0.031700946,-0.038146440,-0.026729943,0.003322343,0.019740155,0.013569960,-0.130732045,-0.001992280,-0.191937491,-0.008627892,-0.220471323,-0.046280243,-0.239080012,0.164141119,0.051737819,
0.064242899,0.040639646,0.219309762,0.000151471,-0.024572732,0.680533409,-0.533985317,0.052175682,-0.200253829,-0.233183607,-0.426780373,0.007326586,0.032556906,-0.398463935,-0.046465062,3.671755075,0.047061414,-0.046996310,0.137527213,-0.365728289,-0.393007308,-0.237772137,-0.316501409,-0.134781688,-0.498671889,-0.384540141,-0.258392125,-0.002011026,0.006156091,0.115805782,0.018399069,-0.028616713,-0.184947133,-0.007727963,-0.022776902,-0.017418850,-0.314343959,0.687069058,-0.093855053,-0.121316366,-0.442759961,-0.057382841,0.404242784,-0.033928432,0.084515728,0.502553046,-0.363495350,-0.095982552,-0.308639199,-0.394034296,0.153432697,-0.048398741,-0.426112294,-0.412607431,-0.298413634,-0.152677521,0.720597923,0.009815923,-0.330815792,0.033026617,-0.368645519,0.018619427,-0.307116210,0.428027809,-0.069170050,-0.341868490,-0.161385998,-0.419644713,0.092763603,-0.353867918,0.008902056,-0.198497474,0.011775864,0.177783951,-0.384120226,-0.085035868,-0.122167043,-0.176130608,-0.508402169,0.044641003,0.004377158,-0.264154643,0.533574760,-0.316620767,-0.493365854,0.026243936,-0.399549901,-0.005078146,-0.028175853,-0.397833586,-0.146207482,-0.222713172,-0.032977071,-0.029189382,-0.314434260,-0.148569807,-0.038751051,-0.377824754,-0.055277683,0.471997648,0.352537900,-0.043347914,-0.476907313,0.333103776,-0.004821872,-0.000963949,-0.260021329,-0.414094120,-0.204406500,-0.187575251,0.146806493,0.091264546,-0.456539631,-0.345710695,-0.335652471,-0.312422901,-0.058121480,1.146150589,0.317443877,-0.346413940,0.049536020,-0.440643787,-0.568629622,0.079024263,-0.247764900,-0.347053736,0.011156870,-0.025469817,-0.381948799,0.017018044,-0.031609721,-0.234634951,-0.181060597,-0.150688320,-0.288244337,-0.307398558,0.282704473,-0.421894372,-0.191994518,0.306965321,0.292015523,-0.218511075,-0.014910415,-0.033871401,0.497605026,-0.040129721,-0.047127884,-0.074545756,-0.404345661,0.898194492,0.342799067,0.184806600,-0.020976331,0.179294392,0.349864274,-0.265006870,-0.100340709,-0.077803232,-0.299487740,-0.346342444,0.039842073,-0.385208160,-0.006825454,0.189860180,0.145927370,0.254508674,-0.200949490,-0.054006252,-0.042606138,1.153081775,-0.314335167,0.635965526,-0.053125624,-0.277484357,0.051182292,0.022661882,-0.235623285,-0.400825739,0.119310975,0.005664236,0.578331470,-0.213948473,-0.198805928,-0.422358662,-0.357938647,-0.189542592,-0.220623553,-0.427519947,-0.070061266,0.019078523,0.226698086,-0.223798752,0.261167347,-0.124942787,-0.397985995,-0.327175021,-0.070306927,1.913778663,-0.349897951,0.132358745,-0.363086164,0.130917892,-0.350315630,-0.279901356,-0.298346967,0.391935885,0.229620963,1.651462555,-0.321220815,0.007342753,-0.146706402,-0.039208215,0.063995309,2.624035120,-0.308838487,-0.098693453,0.705509126,-0.169632837,-0.023155374,-0.387785286,-0.354049385,-0.381588966,-0.113172174,-0.508473217,0.029272676,-0.278561056,-0.267621219,-0.174301296,-0.079993904,-0.304492503,-0.160446927,-0.048407227,-0.253611654,-0.400509924,0.571409464,-0.020295370,-0.361189812,0.082258910,-0.242071062,-0.347130418,-0.022005932,-0.191940397,-0.324984610,-0.133058727,-0.384440929,-0.037763398,-0.165257528,-0.328143090,0.441787958,-0.043536596,0.325738460,-0.134647265,-0.152706742,-0.007861043,-0.029946638,-0.335219800,-0.429015249,-0.271633446,0.294859141,0.022467917,0.091336071,-0.011201477,-0.367573887,0.041721594,-0.148447186,-0.326513320,-0.300765902,-0.255475014,-0.436589777,0.068484969,0.049595326,-0.258904755,0.037127119,0.306148559,-0.393237948,-0.009543188,-0.373676747,0.145702049,-0.452416986,-0.300042242,-0.359492630,-0.221189678,-0.049302991,-0.528126001,-0.003669164,0.162922099,-0.282161206,0.595641851,0.209802717,-0.306562960,-0.276667237,-0.439636707,-0.314166903,-0.276353240,0.111119509,-0.550973237,-0.013690354,-0.320013970,0.045508552,-0.012005076,
