// Neural Network File Format by Kyle Julian, Stanford 2016
3,9,1,300,
9,300,300,1,
0,
0.0,0.0,0.0,0.0,0.0,0.0,0.0,0.0,0.0,
0.0,0.0,0.0,0.0,0.0,0.0,0.0,0.0,0.0,
0.0,0.0,0.0,0.0,0.0,0.0,0.0,0.0,0.0,0.0,
0.0,0.0,0.0,0.0,0.0,0.0,0.0,0.0,0.0,0.0,
0.195738941,-0.331953347,0.206626967,0.317303538,0.291525155,-0.268524766,-0.102151327,0.108414859,-0.198100418,
0.328084201,0.021608440,-0.120271035,-0.240086079,0.252892375,-0.030285601,0.197976530,0.254970491,-0.268068552,
0.265963137,-0.155651778,-0.252370805,-0.337976485,0.053448536,0.067247145,-0.165502101,0.299354732,0.270074308,
-0.149480894,-0.073653921,0.014100576,0.334073067,-0.214719653,-0.001094479,-0.084503911,0.098701872,-0.002562633,
0.207231149,0.062844828,0.308353424,-0.306664437,-0.035722855,-0.167329952,0.313833654,0.318561226,-0.061768387,
0.253354490,0.048862454,0.173110247,-0.099426672,0.027578266,0.113610297,0.161887631,-0.069429025,-0.202655330,
-0.106239185,0.141753495,-0.062400591,0.157318428,-0.217318699,-0.016624419,-0.006534311,0.055952609,0.165101290,
0.329330295,-0.322953075,0.212789476,-0.273838818,0.248683199,0.182744041,0.115131564,-0.287886024,-0.222326130,
-0.077777334,-0.227179483,0.105137192,-0.228312731,0.270326138,-0.126386464,-0.095386729,-0.244370624,-0.077482238,
-0.324434787,0.175329655,0.041430745,-0.259763300,0.310869247,-0.036379993,0.203036442,0.237159446,0.259211957,
0.264360130,0.141342744,0.053233143,0.143303558,-0.209953293,0.020520736,-0.164502293,0.209317908,0.116933338,
-0.022843171,-0.211302802,0.230759472,0.045205567,-0.052793622,-0.100848965,0.298879743,-0.275209725,0.293167233,
0.037764177,0.087472133,-0.182324722,-0.108721539,0.107308730,0.305479318,-0.019147966,-0.221110463,-0.025681794,
0.212911353,-0.026723281,-0.063788518,0.106758416,0.211054727,-0.057435565,-0.279540420,-0.293742329,-0.033704054,
-0.196846172,0.166068807,-0.068167485,-0.103631340,0.176859319,-0.120971009,0.311306238,-0.225481614,0.171709731,
-0.084785402,0.024794839,0.208121881,0.091035455,-0.239858121,-0.213341147,-0.003077356,-0.101068735,0.257746547,
-0.154529572,0.257618338,0.189086646,-0.019809892,0.245070949,0.198641270,-0.121379636,-0.292535603,-0.329480469,
-0.074535705,-0.260636568,-0.316453964,-0.141949460,-0.304323703,-0.207771420,0.137675524,0.051413931,-0.259334147,
0.027348086,0.289131820,0.014173722,0.058026273,-0.089299291,0.299535185,-0.044907972,0.168157369,-0.127912715,
0.294398606,0.061310090,-0.144204482,0.316934884,-0.161220044,0.188755691,-0.107662924,0.042815089,-0.234424338,
0.061513320,0.052060612,0.147760645,-0.036960840,0.209748223,0.063540272,-0.120522000,-0.071382105,-0.226256162,
0.153067440,0.140073001,-0.293916702,-0.249357224,-0.019424004,0.235195056,0.130157635,0.145790383,-0.288152516,
0.263797045,0.116852738,-0.143393859,-0.097569548,-0.139276490,0.207794115,-0.277589947,0.080970287,-0.228419289,
0.074662030,-0.297575384,0.308224142,-0.130372554,0.060112506,0.006215958,-0.107344151,-0.161766469,-0.233029604,
-0.008610682,-0.058238495,-0.159547120,0.153246731,0.147191256,-0.190853074,-0.160827786,-0.232217565,0.252126902,
-0.256308645,-0.324851364,0.157083496,-0.123785481,0.050201233,-0.025696652,0.273401886,0.160762742,-0.109484807,
-0.144805878,-0.131390110,0.236972049,0.179004833,0.286730736,0.229827836,0.109385706,0.121613801,-0.018381769,
0.009454987,-0.052907165,0.211683273,-0.025390403,-0.170874536,-0.204419240,-0.049251564,0.234645694,-0.148046643,
0.050855815,-0.008226316,0.094932325,-0.085447893,0.193362340,0.241991907,0.332323909,-0.129490554,-0.319158107,
-0.139709502,-0.187456384,-0.037826929,0.118998535,-0.225111276,0.164131269,-0.251129925,0.289443403,-0.336988956,
0.000770182,-0.215978771,0.062331162,0.335705429,0.134359479,0.103223570,-0.287004709,-0.036528740,0.116280556,
0.157265708,0.059906080,-0.135630563,0.278441012,-0.296723604,0.111991465,-0.239933088,-0.307227522,0.085885577,
-0.004632314,-0.126856863,0.240513429,-0.133552924,0.160666868,0.048863705,0.092566147,-0.099019647,0.255051196,
-0.231663123,0.044518471,-0.046519924,0.156832188,-0.322635740,-0.298399240,0.138115451,-0.257937819,-0.094859593,
0.058055006,-0.237588733,0.251018226,-0.190619573,0.268101394,0.085178733,0.097618133,-0.025527107,-0.201533869,
0.161359400,-0.167899311,-0.246726677,-0.130813450,0.067320220,0.319862038,-0.313172549,-0.294397652,0.262677222,
0.233553290,0.078147918,-0.041005570,-0.096830703,-0.081526242,0.056553505,-0.004728087,-0.175804362,0.088550434,
-0.144852087,-0.258197248,-0.181601703,0.176537380,-0.157269314,-0.270468801,-0.213434979,-0.165980652,-0.199518323,
0.195152387,-0.321836978,-0.085978828,-0.203519240,-0.285980970,-0.017524714,0.043655768,-0.007830947,0.303352982,
-0.180423304,0.260262787,0.006021820,0.310360283,-0.240319088,-0.332371324,-0.069553308,0.034140568,-0.111604489,
-0.013607848,0.237821952,-0.305333048,-0.254033715,0.078255244,-0.162763044,0.179204300,-0.085569389,-0.134917229,
-0.199280649,0.276933789,-0.152226329,-0.252905011,0.059641361,-0.203943327,-0.210216731,0.323946685,-0.013304801,
0.286360323,-0.264372915,0.287452847,-0.174622387,-0.214239538,-0.267065227,0.280002385,0.203803226,-0.076580875,
0.111594580,-0.245824903,0.253689736,-0.059849773,0.264211655,-0.100508206,-0.155427709,-0.255563647,-0.213924080,
-0.257082522,-0.159934536,0.242812693,-0.146445408,-0.170194581,0.143052652,0.041601297,-0.034512956,-0.258318424,
0.069605559,0.105830468,0.031487320,0.149292365,0.261147290,-0.151507750,0.083721206,0.313351005,0.036818992,
-0.301245302,0.127945438,0.060501251,-0.250380158,-0.042581704,-0.174046248,-0.051356025,-0.294522703,-0.241325349,
0.000529710,0.257230580,0.278909087,-0.019982362,0.135298342,0.227411777,-0.287716657,-0.194328204,-0.032223087,
-0.316474676,0.177235678,0.134991944,-0.105917417,-0.014416518,-0.218962938,0.144443631,-0.090110227,0.051941428,
0.293676883,-0.247384325,0.203538343,0.288656026,-0.072551720,-0.213362902,-0.318004042,-0.183007360,-0.000129814,
-0.165567443,0.203613773,-0.288471758,-0.296243012,-0.202217862,0.100018270,0.285588980,-0.314154595,0.173116177,
-0.074246213,0.166050389,0.296574622,-0.066412672,0.011711117,-0.145605192,-0.017374655,-0.284013182,-0.287940800,
0.305617571,0.297948182,0.321881652,-0.276746213,-0.134404972,0.114793733,-0.108345971,-0.141728640,-0.314782172,
-0.272763193,0.233178899,0.134549886,-0.265312046,0.009983454,0.304120272,-0.101924367,-0.005529931,0.109911360,
0.030926473,0.150242373,0.025610929,0.123420969,-0.150176644,0.211269051,-0.038831305,-0.215215862,-0.027147258,
-0.298592925,0.264305204,-0.194462299,0.114960596,-0.030411197,0.197191954,-0.201576382,-0.042410918,-0.297658652,
0.222824439,0.241296604,0.003820516,-0.003775691,0.202374950,0.179183364,-0.229235947,0.315567583,-0.200051695,
0.012148889,-0.053748228,-0.286424071,-0.156558633,-0.312237173,-0.040781002,-0.229488879,-0.067876630,-0.017018894,
-0.142228901,0.018806057,0.219273239,0.279168934,-0.100793555,0.015367160,-0.145414814,-0.264251977,0.120840415,
0.015503706,-0.290316910,-0.177549511,0.020617954,-0.189869612,0.069796190,0.256809890,-0.282832474,0.101215802,
-0.105752163,0.132577866,0.224978730,0.191876799,-0.284698635,-0.151072398,-0.287582725,0.232517719,0.195757613,
0.200932965,-0.261702776,0.313685179,-0.297996908,0.114880830,0.075285628,-0.042664681,-0.045424785,-0.305724084,
0.190144837,0.013219998,0.039373763,-0.017074225,0.061968043,-0.329198897,0.139681086,-0.265055299,-0.174362257,
0.067796044,-0.095059775,-0.230653495,-0.146452293,0.173954621,0.239744231,-0.213071033,-0.048930485,-0.175195619,
-0.117091723,-0.342897981,0.175505653,-0.049590658,0.034830108,0.221149251,0.014655895,0.144226432,-0.069847047,
-0.049170870,-0.205013707,0.205759019,0.005229598,-0.181875899,0.068413198,-0.082596660,-0.228181228,0.038110111,
0.280723423,-0.037423037,0.178442523,0.186369807,-0.187015653,0.025812868,-0.223298863,-0.005890812,-0.099031352,
-0.262169331,-0.220884547,0.194585323,0.245839030,0.302689999,0.291634500,-0.229621321,0.102862254,0.207092404,
-0.317681104,0.113659233,-0.265941441,0.172953367,-0.017194662,-0.253850132,0.263293296,0.174964681,-0.132067174,
0.020817086,0.227172703,0.311208576,0.325595737,-0.320037425,0.246149719,0.107098833,0.067418747,-0.199501112,
0.228080347,-0.291613579,0.034254674,-0.085254304,0.275278986,0.263427109,0.219518721,0.019135695,-0.075989753,
-0.068716526,0.001571424,-0.216871470,0.207701981,0.324002534,0.152425125,0.253319204,0.060804628,0.085044116,
0.286805779,-0.278475285,0.132742241,-0.245871529,-0.045217436,-0.325628757,0.066775836,-0.072724730,0.150625452,
-0.267756969,0.195688993,0.003028664,-0.240088046,0.048765883,-0.149570256,-0.010302578,-0.297701061,-0.109110646,
0.295979112,0.270255625,0.059245307,-0.315939754,0.100370072,-0.217106089,-0.257142603,-0.107105792,-0.214243278,
0.330832392,-0.295470983,-0.275101870,-0.294517517,-0.182392851,-0.043680545,-0.286759049,-0.075718582,-0.238941193,
-0.181582272,0.020185107,-0.326648623,0.214357436,0.203299865,-0.050004117,-0.090495035,0.210385278,-0.005438889,
-0.069039807,0.257003248,0.073811479,-0.150954470,-0.325708687,-0.043259285,-0.256078720,0.248331338,0.214341968,
-0.145942748,-0.152153671,-0.160314575,-0.047998760,-0.174033746,-0.019827882,-0.245989934,0.208568200,0.114875719,
-0.140859529,0.112212785,-0.033511210,0.259366155,0.315437973,-0.261951298,-0.085424565,-0.186284840,-0.049034275,
-0.013612211,-0.217617393,0.240515187,-0.324087322,-0.132263735,0.021399075,-0.305938363,-0.077962659,0.089846231,
-0.341185987,0.175225645,-0.011947765,-0.078015447,-0.192414418,0.059461482,0.066417858,-0.320623219,0.225800514,
-0.088370465,-0.069818333,-0.260072887,-0.197553292,-0.290257007,-0.259641767,-0.187874749,-0.318763584,-0.205042198,
0.225396171,-0.307670414,0.262120456,-0.224359334,-0.149018884,0.002525446,0.261789113,0.309738517,0.174163803,
-0.320763052,0.027418887,-0.208228663,0.008024618,-0.189629808,-0.290948898,0.073467366,-0.095942169,-0.290739894,
0.320701152,-0.001925315,-0.095429204,0.178702742,-0.064695962,-0.140027940,-0.155780554,-0.079697125,0.208381638,
0.198652267,0.183851600,0.277648032,0.277302772,0.230525374,-0.120748676,-0.201403677,-0.162523255,0.115109853,
-0.233423382,0.015975596,-0.177049667,-0.295455128,0.061681341,0.240339026,0.183401689,-0.163530931,0.157583952,
-0.076900154,0.279980570,0.164133534,-0.249592155,-0.108990505,-0.232734486,-0.121984944,0.073071912,0.183425203,
-0.077894405,-0.256217897,-0.104794115,-0.268263668,0.300287902,-0.223393247,0.069705814,-0.079830863,-0.003034099,
0.207250208,0.297729701,0.057779789,0.237575561,-0.204691157,-0.118153602,-0.088199027,0.085421018,-0.112403415,
0.265526801,-0.056039091,0.258304626,-0.179738477,-0.049242269,-0.045758687,0.315301746,0.154119387,0.317262232,
0.313227564,-0.274068594,0.187922344,0.031756524,0.042863205,-0.150288269,-0.244932741,-0.052992769,0.012074719,
0.127895504,0.064662598,-0.140483513,0.210314453,-0.142323777,-0.292150170,0.245462134,-0.155260593,0.106919087,
0.258714616,0.209534243,-0.205729976,0.191076264,0.124531485,0.265794635,0.202925429,0.070188001,-0.331979871,
-0.085262954,0.001297643,-0.288123995,0.166007251,0.024851345,0.084982514,-0.375442207,-0.128284916,-0.007855561,
0.017862523,-0.210682631,-0.303313494,-0.117758490,-0.087098666,-0.172049403,0.035813905,0.231226653,-0.320985734,
0.222913802,0.328770489,0.149839163,0.297445744,-0.154607147,0.038772244,0.138039604,-0.270257294,-0.203339934,
0.318185031,0.031956170,0.260759741,0.257369429,0.023119254,0.323973209,0.005358219,0.312618047,0.187089145,
0.299611151,0.182247967,-0.295116484,0.079143927,-0.027814191,-0.119427763,0.044682901,-0.180100843,-0.257991195,
-0.054295368,-0.303214431,-0.317045450,-0.099936329,0.153663456,-0.080305308,0.083733499,0.318683684,0.136693433,
0.143395454,0.231909961,-0.048954438,-0.024466192,-0.076813631,0.253277183,0.096381366,-0.231874034,0.003653579,
0.090196028,-0.066991061,0.187090352,0.185856730,-0.012983730,0.195832059,0.092019156,-0.132054850,-0.111299098,
0.016392997,0.127555549,-0.277048051,-0.263265699,-0.107854359,0.110835843,0.036483649,-0.285261035,0.150709361,
0.121923745,0.309383005,0.307960987,-0.331665576,-0.290406674,-0.175226167,-0.191993997,0.177035943,-0.303750277,
0.208478898,0.244423747,0.028623844,-0.048693780,-0.293502271,0.268554270,-0.173368961,-0.002492305,0.215619996,
0.054402798,0.216155455,-0.019445732,-0.052282099,0.027557556,-0.054142997,-0.296763420,-0.098586880,-0.104754865,
-0.084229939,-0.029348364,0.174064144,0.311235577,-0.070169523,0.128986806,0.278821468,-0.200899050,-0.302471370,
-0.165817305,0.172210619,-0.019009119,-0.198045835,-0.308997244,0.266885161,0.020680776,0.146450639,-0.105186626,
-0.060883559,-0.127382174,0.017324409,0.194961369,0.132013604,0.326958597,-0.232508078,0.126330435,-0.163794816,
0.031211212,0.235583991,-0.115845539,-0.047819447,-0.026320437,-0.278692514,0.226512536,0.167609945,0.161411911,
0.143202752,0.152126983,0.242084458,0.080959111,0.024739629,0.257158756,0.061769124,-0.048037421,-0.193068057,
-0.163879678,0.076293178,0.087880015,-0.096685998,-0.289834261,-0.281175345,-0.291302711,0.125963837,-0.283380270,
0.093786448,0.328707904,0.219351977,0.199670836,0.005944055,0.147584304,-0.293022692,0.085891344,0.161675990,
0.003113666,0.282914847,0.109675370,-0.119061269,0.095879257,-0.030724231,0.313519955,0.198282599,0.154959261,
-0.319879204,0.043099619,-0.209499180,0.025475962,-0.145083234,0.117344312,-0.060967024,0.031783510,-0.164859965,
0.046305403,0.151631191,-0.265489042,-0.081346519,0.023174571,-0.254993975,0.076109007,-0.295181841,0.161695093,
0.060562793,0.187271789,-0.016961262,-0.209106162,0.283311218,-0.314470202,-0.198477104,-0.120976776,0.164009556,
-0.328048587,0.009919920,0.009711223,-0.310632855,-0.027682537,-0.282833397,-0.280944973,-0.080927782,0.191797659,
0.205377817,-0.129480749,0.320584953,-0.171178922,0.104817927,0.141283408,-0.268560082,0.056572758,0.125008613,
0.090717100,-0.247223020,-0.064520784,-0.106761485,0.213470563,-0.066394322,-0.093511440,0.234392971,0.024561293,
-0.266774207,-0.252099156,-0.270652056,-0.264265925,0.104250118,0.217950225,0.261373430,-0.317440838,0.244972095,
0.092581883,0.101863511,0.139573976,-0.232197627,0.048093788,-0.304962903,0.019400716,-0.248129711,0.074740753,
-0.266019672,0.155289620,0.178428471,0.310366958,0.230375737,-0.174124271,-0.163717508,-0.075881995,0.046929985,
-0.244591624,-0.271183848,-0.313601077,0.278071016,-0.225233719,-0.072419219,-0.290197134,0.241718367,-0.043353856,
-0.263755292,-0.137538388,-0.296484500,0.265044838,0.291534007,0.152248591,0.071146004,0.177559525,0.008725557,
-0.224313617,-0.165505782,0.049342632,-0.216108724,-0.097726494,-0.086510263,0.005022239,-0.188676953,-0.323408216,
0.186316133,0.256320506,0.119768068,-0.072260328,0.260269105,0.224172309,0.166789517,-0.310003966,-0.071840256,
0.088382334,-0.096718140,-0.226695880,-0.145513102,0.214474276,-0.309671640,0.171458706,0.321366549,0.217456505,
-0.177522942,-0.219495252,0.318599701,0.249330670,0.112274267,0.289039552,0.286486417,-0.082745396,0.326635987,
0.040845718,0.300340354,0.102103397,-0.313864648,-0.038096081,0.225451753,0.063908905,-0.051272169,0.167469054,
-0.244221389,-0.182405487,-0.261677504,-0.320644170,-0.066291027,0.327531189,-0.162115261,0.048858449,-0.111483417,
-0.115588956,0.003231408,-0.317006052,0.278068751,-0.063776657,-0.197008401,0.014998380,-0.199278578,0.013190042,
-0.116228372,-0.235346779,0.179738075,-0.133361593,0.326974988,-0.316589773,-0.016803218,0.048843849,-0.004103473,
-0.131829917,-0.219582587,0.258438528,0.105976187,-0.234189957,-0.194184750,0.042387810,0.100761555,0.101205327,
-0.033609886,0.231344968,0.213280469,0.211569652,0.290470362,0.212723359,-0.139215022,-0.252307981,-0.168401331,
-0.276373476,0.118446313,-0.240736201,-0.236517519,-0.195886478,-0.148243591,0.099695787,-0.071120284,-0.286707908,
0.261143982,0.163455978,-0.120889328,-0.047428276,0.167767271,-0.071376882,0.294154108,0.129272625,-0.078735001,
-0.218543008,-0.119359277,0.040636841,0.167335749,-0.137137815,0.242225647,-0.118718654,-0.257146657,-0.257454485,
0.052799553,0.237619519,0.174357504,-0.324309856,-0.297394305,0.216615289,-0.204477221,-0.007078155,0.340041846,
0.065781787,-0.324022710,0.189019248,0.140376404,0.150269538,-0.048795160,0.050723445,0.176190346,-0.275253236,
0.117910907,-0.276989877,-0.087287962,0.147776961,-0.334523708,0.024364000,0.334702104,0.056882106,0.052233789,
-0.169936404,-0.091699764,-0.178040132,-0.008160307,-0.086602211,0.201160133,0.176020443,0.228799671,0.242256865,
-0.115196109,0.039750516,-0.133124620,0.185852781,-0.278461069,0.066415444,-0.013034909,-0.037932329,0.211278871,
-0.106686190,-0.036525384,0.144872710,-0.263730496,0.183274090,0.016177889,0.253356457,-0.111044832,0.275580496,
-0.030841617,-0.333287150,0.283530772,0.076431863,-0.317927122,0.065637402,-0.331175774,0.252728581,-0.313458264,
-0.292784423,0.015291399,-0.047181133,0.149932891,0.122027360,0.166212231,0.003270101,0.099205591,-0.290100396,
-0.003224460,0.102117844,0.297430605,-0.170824692,-0.247055814,-0.254425645,-0.059277255,-0.020239165,-0.071667440,
0.131128818,-0.261218250,-0.145799041,0.058006871,-0.200323850,-0.235834554,0.046094283,0.163014352,-0.032646094,
0.158363193,-0.014500865,0.260598868,-0.305664301,-0.004805498,-0.223205090,0.023372544,-0.095259883,0.162738621,
-0.149689272,0.018506171,-0.025273606,0.320515215,0.038174067,0.172022715,-0.231783807,-0.106067419,0.010440382,
0.232655764,0.148729593,0.319146156,0.166563824,0.084989145,-0.130371124,-0.224424049,-0.197413132,-0.144895419,
0.066338576,0.132099941,-0.252633780,0.180064827,-0.324583292,-0.107495308,0.329700887,-0.130583540,-0.223607883,
-0.125745937,-0.314888865,0.266465843,-0.050242737,-0.209743962,-0.107162371,-0.262203008,-0.295789629,-0.234152138,
0.100402795,0.206423983,0.285624534,0.039735094,-0.125683397,0.324406743,-0.170691863,-0.091730431,-0.150931776,
0.136023879,0.030251132,0.021281354,-0.167421132,-0.115412191,-0.300977916,-0.302674860,0.156274915,0.017159974,
-0.108468786,-0.218434989,-0.190260932,-0.048451770,0.246900231,0.009395445,0.189488322,-0.332476854,-0.191485137,
-0.119319297,0.067561664,-0.123131834,0.101939932,0.055465277,-0.055432949,-0.143269077,0.130270913,-0.225248560,
0.060239017,0.262386292,0.309720665,0.067424841,-0.007683134,-0.218357414,0.199604794,0.300808161,-0.128110692,
-0.303249866,-0.245209768,0.212872729,-0.245848328,-0.133208141,0.228187576,0.230224058,0.254374772,0.273890287,
-0.277755857,-0.077039316,-0.272256047,-0.273690850,-0.185780466,-0.160622388,-0.099808924,0.273784727,-0.237138867,
-0.312748313,0.329747200,0.224095479,0.173228130,0.304319113,0.121056177,0.147211939,0.180063039,-0.296000153,
-0.335502535,-0.171148241,0.097408392,0.178690538,-0.030908722,0.159412473,0.022089912,-0.262576818,-0.036419973,
-0.133548588,-0.059403826,-0.057934396,-0.071646623,0.328048855,-0.077352002,-0.326005936,0.263789922,-0.082295053,
-0.331800401,0.135321304,0.079950474,-0.145424023,0.108346492,-0.245576069,0.190867424,-0.012427398,-0.243390828,
-0.081872590,0.171765253,0.137313828,-0.120778166,-0.296077967,-0.157841027,-0.141074136,0.029490268,0.285914391,
-0.106587373,-0.018347165,0.293118745,-0.115056053,-0.194277793,0.083036326,0.258066028,0.304803163,0.003584756,
-0.020570489,0.203120574,0.309412658,-0.100199372,-0.322031498,0.143149227,0.244353816,-0.006330884,0.253711402,
0.314456046,-0.124747492,0.069673195,0.184818670,-0.127830803,-0.255776435,-0.229785025,-0.163637370,0.047702875,
0.002502896,-0.127299324,0.176560685,-0.182650656,0.167209208,0.267440200,0.332959980,0.267888546,0.031179309,
0.075058289,-0.239919558,-0.079227105,0.055164397,0.288940609,-0.037214275,0.060356431,0.184083089,0.151140466,
0.296287894,0.107742697,0.137217581,-0.335227370,0.138894275,0.320598692,0.100929245,-0.323755056,-0.291725546,
0.107903071,0.003531119,0.302165240,0.319723308,-0.266623884,-0.127860934,-0.153321356,0.307429969,-0.050333988,
-0.167303517,-0.304858983,0.151551843,-0.002649525,0.209515333,0.173336133,0.025786629,0.083473511,-0.266016722,
0.047927022,0.060335405,-0.283044457,-0.267886221,-0.221684843,-0.076501802,0.181449309,0.253609151,0.219570681,
-0.020700436,0.106699839,-0.231751844,-0.028427552,-0.067180470,-0.263069093,0.325033695,-0.016591473,-0.026359916,
0.143184483,-0.226080343,-0.326862067,0.038807113,-0.114804111,0.215733171,0.133777931,-0.190167159,-0.154501975,
0.218960553,-0.296049267,-0.051963493,0.100692295,0.287184507,0.000310848,-0.182365909,-0.276209593,-0.093241781,
-0.236895099,-0.264853299,-0.082223400,0.064415485,-0.168296397,0.219506547,0.017032340,-0.152228951,0.309714079,
0.220271602,-0.216384783,0.325315118,-0.307426423,0.089876115,-0.207758620,-0.121434785,0.314431846,-0.327458113,
0.189679295,0.021760089,-0.216320932,-0.106588691,0.193731397,0.311737776,-0.147519648,-0.215794683,0.309554040,
-0.081062242,-0.318743050,-0.247877836,0.108843207,0.026654005,-0.216472387,-0.142433137,-0.242742583,-0.159176990,
0.275454819,-0.243936688,-0.220918074,0.031380143,0.167631626,0.239756942,-0.004418108,-0.317707241,0.323909014,
0.135669425,0.054076243,0.254139215,-0.287196368,0.160444975,0.005117250,0.013248022,0.191072553,0.050621144,
0.261043996,0.087960519,-0.329720259,-0.112011887,-0.250227869,-0.041578017,0.110063814,0.222055912,0.247142136,
-0.111616179,-0.082432196,0.297711670,-0.279478341,0.300975174,-0.041399639,0.073598891,0.001870525,0.332621396,
0.235582739,-0.143422022,0.130348817,-0.296515852,-0.190978721,0.179119512,0.289987981,0.246371895,-0.003579919,
-0.149027154,0.246420294,0.231985852,-0.218293875,0.109215431,-0.245830208,0.116421334,-0.094547540,0.215566948,
0.213370308,-0.004056955,0.208244681,-0.247237757,-0.193313316,0.134416938,0.073099777,0.044865198,0.011909932,
0.006186192,-0.147044852,0.206113532,-0.013871735,-0.330683440,-0.306312084,-0.118796401,0.330966681,-0.071782157,
0.154012665,0.126068860,0.079590045,0.021819158,-0.038454235,0.132608861,-0.044578161,-0.053231828,-0.248865053,
-0.069772243,-0.018131839,-0.135296285,0.305310220,-0.234731153,0.202120453,0.008639194,0.075835109,-0.039071254,
-0.258041769,0.032472573,0.215503395,0.076580763,0.162005022,0.161873803,-0.154150918,-0.331923068,-0.166168422,
-0.215121642,-0.152128443,0.132940024,0.228139997,-0.050115537,-0.124444909,0.062807523,0.311000168,-0.266028970,
0.021435011,-0.057418104,-0.276822835,0.240885988,-0.025594195,-0.207695886,-0.118998736,-0.040090948,-0.326931328,
0.081346110,-0.079366155,0.213272125,-0.017419856,0.051631860,-0.066240989,-0.096041836,-0.059400823,-0.054455787,
0.094443552,0.210029423,-0.239921153,0.290169150,0.091139846,0.286374986,0.322208285,-0.153036073,0.039775584,
0.313676953,0.166399300,0.162328541,0.137827069,-0.322766632,-0.174105644,0.109230220,0.226656735,0.030846279,
0.258082867,0.260837734,-0.145799369,-0.050043233,-0.334612072,0.134354547,-0.026672065,0.170107469,0.295463681,
-0.220598102,0.274063110,0.314387977,0.007656660,-0.115404390,-0.181972399,-0.230266869,-0.198378652,-0.007093363,
0.176436901,-0.186832964,0.097397663,0.169631869,-0.249283314,-0.051737141,0.307206303,-0.238682076,-0.140876025,
-0.030834625,0.230928674,-0.150608867,-0.069888659,0.269926280,-0.081632756,-0.139161900,0.298941731,0.014080100,
-0.039538186,0.195497736,0.267583132,-0.190216497,-0.214102313,0.179913774,-0.304721177,-0.262703627,0.184775993,
-0.134179041,-0.164856166,0.058532394,0.186751917,-0.182148010,0.309528857,0.258667618,-0.342797011,0.199903727,
0.204853281,-0.040009350,0.045250814,-0.215884566,0.092117086,0.180405095,-0.112969100,0.123186149,-0.162298277,
0.009691461,-0.080265924,0.052899551,0.227719322,0.098548166,0.182165697,0.062723391,0.105986521,0.304681301,
0.087634712,0.275484562,0.132072344,0.295832723,-0.249447152,-0.132653773,0.157106325,0.114842862,0.175982714,
0.114294223,-0.039631106,-0.237526581,-0.302339226,0.135540918,0.128804937,-0.147495538,0.302368909,-0.317764699,
0.008627578,0.312270284,-0.235910520,0.146548569,0.278897434,0.304548591,-0.142474577,0.215107560,0.320045173,
0.169469044,0.315768331,0.198640212,-0.233559579,0.213536575,-0.049191121,-0.127836719,0.120073058,0.156182557,
-0.284282297,-0.040411949,0.306374580,0.013323977,-0.279573143,0.219806731,0.061304580,0.133864269,0.038945880,
-0.124062978,-0.249745697,0.028446326,0.146869481,-0.270531207,-0.050006956,0.113206141,-0.167395443,-0.223369166,
0.268376112,0.170344532,-0.092626899,0.270377964,0.166456923,-0.243870884,-0.258718103,0.149372175,-0.009521659,
-0.292753637,0.287999690,0.167214990,0.115749836,-0.179582730,-0.308494508,-0.015362637,0.223689720,0.115106076,
-0.228176475,0.158224061,-0.009683742,-0.178025350,0.290244520,-0.080369867,-0.332172662,0.251693785,-0.158792332,
-0.101098016,0.153649420,-0.214102820,-0.293568522,-0.260326058,-0.221287012,0.031651929,0.324346513,-0.090248585,
0.202487171,-0.254504681,-0.211840123,-0.013221465,0.012719827,0.293500125,0.248307571,0.127799705,0.317271441,
0.211434901,-0.220011041,-0.083507039,-0.184482455,0.150482818,-0.307647407,-0.122023322,-0.307233304,-0.252940923,
-0.025477504,0.058003251,-0.165525705,0.155494750,-0.265602887,0.169451743,0.068407066,0.140358195,-0.283308834,
0.324595988,0.271305233,0.274051696,0.199078664,-0.173336446,0.152655438,0.317369878,-0.278936952,0.184893340,
-0.290768057,0.118475504,-0.116072223,-0.173968345,0.212181479,-0.239949420,0.325312734,0.228558600,0.211213559,
-0.267705232,0.125616685,-0.313211143,0.224820524,0.034527104,0.320490450,0.263298184,-0.080727026,-0.191631749,
-0.057447251,-0.243652776,-0.273012519,0.012462676,-0.242007658,0.312167168,0.260084689,0.041807018,-0.179548606,
-0.278094381,-0.313767165,-0.254277915,-0.329611868,-0.012551514,0.040287450,0.235571980,-0.024073577,-0.247010887,
-0.177256405,-0.039920326,-0.237679183,-0.207231969,0.226766914,0.074981414,-0.322434187,0.045863796,-0.132992744,
0.081975244,0.075068355,-0.306654960,-0.017639209,0.252330899,0.322471887,0.119321041,0.128736362,0.164710909,
-0.102306135,0.026119778,0.082231976,0.062045991,-0.105036683,0.336712271,0.106578238,0.291117013,-0.098109230,
0.233549163,0.009581288,0.238914669,-0.057417307,0.218602210,-0.183306232,0.068317413,-0.215857714,0.046874303,
0.315638453,0.047123127,-0.207317948,-0.206246883,0.015589193,-0.188131735,0.262108713,0.023816271,0.122503743,
-0.260876924,0.189549938,0.040936444,-0.221417904,-0.143042713,0.195708647,-0.227174833,0.112519406,-0.082293175,
0.029722612,0.114758618,0.099724233,-0.058127392,0.003942120,0.077261828,0.066365436,-0.257226199,0.085911408,
-0.235677347,-0.199841425,-0.077534795,0.041761205,-0.214946568,-0.235839993,-0.197660163,-0.168878794,0.295303226,
-0.254825771,0.181390509,-0.143154874,-0.283956349,-0.103543028,0.129543990,-0.285600662,0.273525804,-0.262818098,
0.272824913,-0.248444319,0.092777587,0.064506792,0.258913666,0.228833005,-0.134887606,-0.090253480,0.283025384,
-0.303365290,-0.007427708,0.047189292,0.037064109,0.006189503,-0.238502860,0.136368066,-0.067001410,-0.049605124,
-0.182403073,0.032154478,0.094944574,0.135843322,-0.320092797,0.006766193,0.126595169,0.046573959,-0.211204618,
0.049813289,0.019936685,0.105791330,0.214346781,0.302307963,-0.076389961,0.063758761,-0.269533843,-0.235577360,
-0.193330750,-0.254168987,0.316624701,-0.330241174,-0.121303014,0.092554495,-0.228718832,-0.265163958,0.164833561,
0.244311452,0.196170136,0.242293090,-0.294700444,0.002721759,-0.012837427,-0.324206382,-0.259705901,-0.151999325,
-0.147227287,0.202546299,-0.212818220,-0.035996586,-0.159389168,-0.070807919,0.220060781,-0.005293446,0.312845647,
0.061164785,0.152944699,0.021110689,0.243746877,-0.023620864,-0.262820572,0.176296160,-0.193160892,0.031206694,
0.148763105,-0.022901462,0.217518345,0.304536641,0.121743225,-0.226548523,0.207724750,-0.024643201,0.002219396,
-0.168237895,-0.072575130,-0.032181013,-0.266452610,0.315083236,-0.159652278,-0.015205360,0.256283492,0.007123512,
0.296582013,-0.325336784,-0.196859896,0.241627693,-0.127867892,-0.283877045,-0.145570993,0.297235548,-0.325802326,
0.100825429,0.143111125,0.184678659,0.047465991,0.071172789,0.278134465,-0.070656829,-0.290356576,0.168200508,
-0.159358084,-0.150099605,-0.025434608,0.207577243,-0.176835462,0.300746590,0.197856173,0.196910277,0.067891210,
-0.239262596,-0.068766110,-0.254403710,0.329315066,0.247771367,0.033082712,-0.262837112,0.060651746,0.019454321,
-0.326743960,0.179556772,-0.245973572,0.118263789,0.286749601,-0.098543465,0.110201478,-0.156340256,-0.188017964,
-0.037197065,-0.282227367,0.022872748,0.108939432,-0.197727188,-0.083929263,0.289421976,0.070277318,0.062351249,
0.149247125,0.191435322,-0.012102000,-0.131322831,0.170598224,-0.186719671,0.191989392,0.024354761,0.097308688,
0.167346492,-0.105247900,0.206529513,-0.302509546,0.307339489,0.193552256,-0.269651413,-0.181601539,0.309383512,
0.295732349,-0.072753005,-0.013613805,-0.300892711,-0.062264115,0.085008174,-0.245842859,-0.310155034,0.013731281,
-0.044203855,-0.046325739,-0.026462961,-0.009323178,0.082787998,-0.271675080,0.279930174,-0.180685908,-0.116830014,
-0.179485500,0.288091362,0.135781705,-0.265153944,0.042755987,0.267538369,-0.151602730,0.135697857,-0.162558377,
0.107973710,-0.313391179,0.091555834,0.178482369,0.022377044,0.089853078,-0.324550003,-0.349926323,-0.178295866,
-0.071755283,-0.046528250,-0.327076763,-0.134078711,-0.271851331,0.029749408,-0.184468806,0.035282850,-0.178668350,
0.184071213,0.304771215,0.001396215,-0.065053910,-0.080559194,-0.328053504,0.090587437,-0.310021967,-0.186398625,
-0.218018755,-0.155398056,-0.142721847,-0.163564011,-0.032776237,-0.056586668,-0.105972625,0.138487831,-0.044946987,
-0.226781979,0.062196389,0.308000326,0.243773833,0.066784851,-0.220304251,-0.134587228,0.315093488,0.339915693,
-0.199712113,-0.129240900,-0.078654833,-0.003615823,0.262075931,0.284500122,0.057816416,0.146923706,-0.205677718,
0.231149033,0.253162503,0.057410765,-0.051796693,-0.280825555,-0.060680073,-0.112103350,0.158302233,0.008296508,
0.132010132,-0.300378650,-0.125568241,-0.332959056,-0.040876392,0.304101259,-0.210609302,-0.149052545,0.193364650,
-0.168521449,0.005759092,0.045943771,0.064895086,0.272752225,0.323676169,-0.297060966,0.062310945,-0.172401965,
-0.108061880,-0.058814324,-0.232534155,-0.177372605,-0.090580590,-0.247575462,0.064069688,0.303341597,-0.125907287,
0.220265925,-0.009708988,0.119423866,-0.096256964,-0.170918822,-0.317209154,-0.247828722,-0.119633928,0.135478064,
0.110400766,0.163977981,0.232291311,0.134384140,-0.149632752,0.234901890,-0.154883668,-0.098225437,0.280100197,
-0.050480854,0.097826242,0.287654936,-0.083428241,0.200016752,0.283301532,-0.092602722,-0.197036013,0.168302730,
0.235248938,-0.027644938,-0.154077753,0.025935451,-0.218901634,-0.131993905,-0.105562545,0.142302200,-0.230297372,
0.002207541,-0.232519925,0.042899814,0.088093191,0.066888794,-0.191156104,0.257023245,-0.237919316,0.182013854,
0.113349341,-0.155504823,0.170666441,-0.102403805,-0.093292013,0.211739197,0.279569775,0.032611493,-0.304593861,
-0.168682396,-0.313134938,0.156783402,-0.170335963,-0.051825345,0.143239245,-0.005651687,0.208240092,0.155555844,
-0.069934852,0.289005160,0.010476352,-0.083417781,-0.241534784,0.204899266,-0.189308345,-0.286419898,0.303293526,
-0.130861282,-0.204144374,0.172322392,-0.164325655,0.006207557,0.306097984,0.230147153,-0.081194282,-0.067397907,
0.038214773,-0.282638580,0.148119792,-0.129127502,-0.241301313,-0.158932343,0.267013669,0.095601238,0.314496160,
-0.214026645,0.301424384,-0.037515581,0.169530988,0.181203723,0.276878506,-0.100206032,-0.146248773,0.069417596,
0.247187391,0.241725862,0.199462697,0.103481226,-0.091649011,0.170844302,-0.098576397,0.128866941,-0.105388783,
-0.282444119,0.029575029,-0.090398110,0.153774574,-0.256735116,-0.196751773,0.146088228,0.037948154,-0.095897548,
0.135090932,-0.047560293,-0.044621222,0.133122966,0.300655544,0.038574908,-0.284535706,-0.287120700,-0.239271283,
0.153994292,0.095117606,0.029827509,0.199099794,0.026383372,-0.104202650,0.081670590,-0.103950046,0.133867308,
-0.284616381,-0.090014257,0.273012191,-0.237515762,0.250342309,-0.323119253,0.029637823,-0.107167497,0.187698156,
-0.001020058,0.048068225,0.085395493,0.128674954,-0.247627437,-0.053488187,0.331831992,0.251573503,-0.068592638,
0.228804559,-0.319808364,-0.142929405,-0.239897177,-0.266860038,0.262409061,-0.254745036,-0.104189754,0.155860066,
0.260342121,-0.186371028,-0.038315076,-0.099461928,0.246051177,0.188055798,0.202649519,-0.004878375,-0.135300666,
0.202092916,-0.110058255,0.017568843,-0.026402600,0.277150750,0.192412257,0.135451391,0.169863537,0.191550791,
-0.073261827,-0.259017766,-0.018241750,-0.085892156,0.186979964,0.169324726,-0.128564849,-0.271703362,0.007914171,
-0.047791898,0.051075619,0.163534343,-0.040156435,0.131255209,0.245493829,0.120097399,-0.207027972,-0.141263634,
-0.322451800,-0.025823742,0.234187171,-0.179377288,-0.022930456,-0.230535775,-0.154380396,-0.030336935,0.094358832,
-0.056146663,0.034239054,-0.265874356,-0.098763421,-0.229846403,-0.145093039,-0.017930958,0.193265602,-0.260944694,
-0.072155997,0.223604158,-0.191208303,-0.190119877,-0.023363816,0.054380264,0.050245855,-0.138524339,0.249047697,
-0.203128710,-0.214775115,-0.303924501,0.196433485,-0.331870615,0.002307765,-0.010864353,-0.292876631,0.015892973,
0.218446806,0.287972540,-0.165012166,-0.249420255,-0.103345983,0.094823636,-0.202320084,-0.257553369,0.247423917,
-0.087331839,-0.038328532,0.041071370,0.319617242,0.105056867,-0.130389631,-0.001106706,-0.087056577,0.278697252,
-0.082557835,0.065113120,-0.031987701,0.233485237,0.241247341,0.219084442,-0.315391600,-0.156462774,-0.137717351,
0.147582754,-0.029164921,-0.006938011,-0.306661814,0.024647901,-0.309230924,-0.308968306,-0.141685188,-0.069239937,
0.184424043,-0.041068062,-0.190756395,0.319893688,-0.308317304,0.075201161,-0.250207156,0.245933294,-0.263494372,
-0.204298168,0.135089189,0.085469283,-0.101980224,0.137307107,-0.092364751,-0.172097310,0.109781720,-0.181228802,
0.158174440,0.015829366,-0.194509670,-0.200834155,0.232362747,-0.297256798,-0.144659758,0.180768251,-0.105644345,
-0.176411182,-0.094087429,0.288571447,-0.199866742,0.274326056,-0.282475799,-0.205597326,0.066789709,0.220048383,
0.163547307,-0.153471276,0.169396192,-0.182517827,0.281196207,0.004131014,-0.128898114,-0.024079181,-0.249782428,
-0.166531265,-0.128805831,-0.228682160,0.124825120,-0.130313456,0.091333725,-0.102918357,0.195361346,-0.013229880,
-0.182630584,
-0.296158463,
0.133144051,
-0.240223631,
-0.210413575,
-0.242135122,
0.270645559,
-0.281179249,
0.035994239,
-0.073880330,
-0.322519779,
0.263466150,
0.068174690,
-0.008382927,
0.051637072,
0.267809600,
-0.028307982,
-0.116026267,
-0.104256362,
-0.104593739,
0.151461601,
-0.243385777,
0.174645334,
0.034286667,
-0.159172133,
-0.310061783,
0.191725969,
0.086789325,
-0.313530654,
0.200895250,
-0.016913744,
-0.269817024,
-0.117724247,
-0.083136633,
0.204250321,
0.269550890,
0.065872669,
0.256212533,
0.264849722,
0.115206756,
0.031754483,
0.083471820,
0.162916213,
-0.079409622,
0.151648521,
0.286683977,
-0.279400200,
-0.321968973,
-0.173334807,
0.184495166,
0.026423424,
-0.182108507,
-0.100406542,
-0.278389513,
-0.122672893,
0.127497837,
0.309470415,
-0.070619434,
-0.056700975,
-0.327073157,
0.151703611,
0.062677749,
-0.172345191,
-0.242943734,
0.259798467,
0.150437266,
-0.023028761,
-0.248586878,
0.292763829,
0.276629418,
0.021877522,
-0.182706743,
0.000843309,
-0.170918837,
0.156428844,
-0.172089234,
0.173437208,
-0.300448298,
0.323172987,
0.099049740,
-0.192042947,
0.139168993,
0.013709557,
0.199620679,
-0.179821566,
-0.049700025,
0.178070396,
0.284811020,
-0.166116640,
-0.265015632,
-0.140428618,
0.183335036,
0.244561583,
0.224936366,
-0.322837770,
0.112487026,
0.069945574,
-0.304533958,
0.158746570,
-0.318540812,
-0.066989742,
0.254454195,
0.313428909,
0.181158110,
0.298492581,
-0.198297605,
-0.042645916,
0.249333069,
-0.170047626,
0.094287477,
-0.191373304,
0.302554637,
0.139649078,
0.021986891,
-0.189071670,
0.035977256,
0.031409904,
-0.174991816,
-0.127622277,
0.074893370,
-0.312768549,
0.135972917,
0.209081620,
-0.128721252,
0.077470526,
0.064200275,
-0.315341949,
0.314495504,
-0.228591278,
-0.254310846,
-0.088256501,
0.139071092,
-0.036058359,
-0.283853233,
0.027219927,
0.023041511,
-0.323790282,
-0.142936528,
0.141040534,
0.271162719,
-0.321457088,
0.233458608,
0.236192450,
0.111478947,
-0.275638223,
-0.304624319,
0.161023483,
0.274078041,
0.276521832,
-0.078196205,
-0.263293654,
0.070807450,
-0.255276352,
-0.142993554,
-0.270849437,
0.316961288,
-0.314132959,
0.143256247,
-0.295683205,
-0.240356356,
-0.155064642,
-0.192140058,
0.152413592,
-0.312807709,
-0.036997914,
-0.092520893,
-0.211467788,
-0.057768743,
-0.288846761,
-0.257636994,
0.022057468,
0.228454620,
-0.129714146,
-0.263316333,
0.025404602,
0.017323110,
0.133436620,
0.163715273,
-0.176195860,
0.001587077,
0.230093628,
-0.052626491,
-0.111875780,
0.094806217,
-0.078961231,
0.084172733,
-0.114442565,
-0.141682148,
-0.310624123,
-0.131101757,
-0.250141621,
-0.140141293,
0.141831174,
0.109858185,
-0.279297352,
-0.254654557,
0.162423179,
0.159134984,
0.126787081,
-0.095922559,
-0.090111673,
-0.017284779,
0.277868390,
0.242374241,
0.040993724,
0.016331065,
-0.324533254,
-0.323040724,
-0.250349164,
-0.131360397,
-0.081747517,
0.127057284,
0.030217744,
-0.191535130,
0.265847445,
0.065945312,
-0.101416275,
0.249494493,
0.123355597,
-0.050093077,
-0.275891721,
0.128831789,
0.292434722,
0.137459219,
0.009546659,
0.255283117,
0.008924191,
-0.008834011,
-0.016166959,
0.049655259,
0.258719891,
0.030992884,
-0.162148252,
0.276623189,
0.274907529,
0.164097682,
-0.085509159,
0.075788118,
0.053854629,
-0.054169338,
-0.200442240,
0.175689429,
0.112102471,
0.301900983,
-0.141831502,
0.266137332,
-0.038770229,
-0.140470743,
-0.159524992,
0.160819024,
0.013355888,
-0.297065467,
0.080651090,
-0.207755297,
0.298321396,
-0.201770604,
0.196759090,
0.063410036,
0.138914704,
0.035657540,
0.059514519,
0.285204411,
0.094897225,
0.234617934,
-0.193976581,
0.110796489,
-0.023888230,
0.232670739,
-0.052168276,
0.001824011,
-0.023576578,
0.176276460,
-0.230342284,
0.101929888,
-0.276658893,
0.012251773,
-0.185196549,
0.211440280,
0.282499790,
-0.281119972,
-0.028287210,
-0.047701515,
-0.261986077,
-0.133579850,
-0.323666275,
0.152607054,
0.214263961,
-0.323010683,
0.168167949,
0.110130817,
-0.100039646,
0.299944013,
-0.157014444,
-0.122809537,
-0.072646365,
0.193649232,
-0.303938597,
-0.272797316,
0.255631864,
-0.310390741,
0.025995560,0.029162532,-0.053620432,0.030304769,-0.018343765,0.035667844,-0.021822993,0.020579394,-0.057124410,0.052764010,0.033695415,0.038881518,0.028226078,-0.015242962,-0.034668572,0.045682464,0.040038887,-0.036131427,-0.021801561,-0.049931869,0.034424804,-0.057263151,0.019801617,-0.018703846,-0.045514904,-0.013137812,-0.000986620,-0.028091611,0.001236247,0.001730479,0.021817142,0.023363976,0.053056821,0.023186479,-0.057391696,0.023021301,-0.000903443,-0.056287188,0.051035106,0.022429543,-0.015273798,-0.039942507,-0.003317557,-0.036027934,0.028660653,-0.030940350,-0.003773307,0.018957881,0.024133975,0.036886908,0.010462438,-0.027037613,0.054231793,0.037215330,0.006157259,0.019858034,0.052703891,-0.026358178,-0.024390761,-0.040134154,0.026248457,-0.047923233,0.042145740,0.015622821,-0.002927169,0.010982692,-0.043421760,-0.049399480,0.025641337,0.043880221,0.044740420,-0.044767071,-0.011127676,-0.007567102,0.010605086,-0.043708201,-0.042638648,0.039533708,-0.033908285,-0.013692270,0.047590546,-0.057793837,0.042393927,-0.033854511,0.006504573,-0.058182392,0.019277535,-0.042094629,0.007787736,0.019868214,-0.043884721,0.043773673,-0.027063865,-0.047022045,0.057571173,0.047309913,0.017399773,0.041737493,0.044768162,-0.032090180,0.033039350,-0.037122279,0.014829481,0.006942214,-0.051521085,0.003615229,-0.056086451,-0.031793360,0.032375220,-0.032395095,0.010073077,0.011701897,-0.042846892,0.030719457,-0.041812941,-0.043205183,-0.030984132,0.033332840,-0.021146806,-0.043880545,0.023714049,0.039435018,0.007981407,-0.032050107,0.045436330,0.044048537,-0.029305631,-0.009916016,-0.014017580,-0.022603467,0.012294507,-0.022737266,-0.001829067,0.022123039,0.048284627,-0.049155399,-0.036132138,0.038653865,-0.006738333,-0.010049882,0.001148302,-0.040632416,-0.054987963,0.017497517,0.013271715,0.048997506,0.023329183,0.041479684,0.003702339,0.012002198,0.022353597,-0.013193788,0.038212668,-0.041992132,-0.004534634,0.002909667,0.001658730,-0.000890536,0.022927877,0.035204183,-0.024109660,-0.053193495,-0.001452102,0.025652513,0.044482548,-0.015966894,0.007038340,-0.006895777,0.002683482,0.035189725,-0.023517251,0.031631749,-0.037846785,0.043425251,-0.057537027,-0.033734147,0.052383222,0.035646565,0.037115380,-0.000414756,0.038394477,0.020817185,0.019622650,-0.000376321,-0.013858016,0.014164537,0.039888382,0.029783184,-0.030335287,-0.007379151,-0.015745295,-0.006539628,-0.015604136,-0.009043396,-0.056541797,0.015668301,0.007910070,0.003556976,0.038908429,-0.025168104,-0.015103647,0.010368683,-0.042490516,0.024483055,0.000968518,0.035443112,0.020019079,-0.043596644,0.003332954,-0.004138414,-0.035368331,-0.028603163,0.048943430,0.039817911,0.026677687,-0.047542993,-0.045104783,-0.030916071,0.036763906,-0.042642921,0.017332677,-0.010384341,-0.001485700,-0.002441516,-0.030700926,0.051073167,-0.035654522,-0.034860849,-0.044591453,0.010646802,-0.031516183,-0.024104523,0.057002138,-0.035802037,0.017192129,0.044677079,-0.012557381,0.054537497,0.006919398,-0.025493808,0.008229139,-0.045939773,0.049144175,-0.020405771,-0.045356899,-0.033198915,0.056060806,-0.026699385,-0.019541103,0.053768881,-0.019706408,-0.030058803,0.025844237,0.020334747,0.054863110,-0.051379550,0.041607514,0.046667282,-0.001776410,0.027477410,0.020603247,-0.053625423,0.036723122,-0.025603188,0.015142916,0.055668019,-0.042569220,-0.022170875,0.052991938,-0.032730009,0.020622592,0.050877053,0.012384812,-0.042376112,0.035247602,-0.062993355,0.019174691,0.007096389,0.040277146,0.028684441,-0.045744065,0.042038932,0.013327407,-0.034733552,0.053068779,0.025563776,-0.004157673,-0.012370725,0.002295993,0.057614770,0.033005070,0.020320518,-0.000135670,0.010500147,-0.052335322,0.006201561,0.042273030,-0.002766222,-0.036065012,0.026001582,
-0.028754190,0.026961703,-0.046637233,-0.034942877,0.013054116,-0.029677235,-0.055273980,-0.038695622,0.045782398,0.041584216,-0.001239653,0.029425370,-0.057826169,-0.001952689,-0.036461938,-0.058423091,0.007421155,0.050985582,-0.049711794,0.005697102,-0.048771728,-0.037308548,-0.012313431,0.053790521,-0.044833589,-0.018113010,-0.042595517,0.005497627,-0.029029563,-0.000228714,0.030159708,0.013518557,-0.044931863,-0.051508456,-0.037662048,-0.001698685,-0.013623527,0.016775150,0.033502985,0.045720734,0.016746348,-0.038689375,-0.015359720,-0.042298641,-0.040026687,-0.030211318,0.051452927,-0.036792263,-0.006848572,0.044074424,-0.040269874,0.040046319,0.012736770,0.031956699,0.000443406,-0.054635584,-0.047121886,-0.056711063,-0.012941136,0.008971544,-0.008214779,-0.029976444,0.013524326,-0.046838112,-0.003107609,0.025758477,-0.069482692,-0.001231636,-0.060639068,-0.019082643,0.008826020,-0.005317540,0.036519788,0.013027583,0.048503697,0.005807049,-0.061962921,-0.034981716,0.002846051,0.026947137,0.038563654,-0.039055813,0.041317765,-0.033996820,0.010030073,-0.043105587,0.033919230,-0.011552107,0.010973982,0.053749379,-0.008590475,0.007928131,-0.015935514,-0.013639383,-0.002077128,0.031061782,0.048903111,-0.051234283,-0.006230799,-0.005240251,-0.046919215,0.001483120,0.027319938,0.008942502,-0.076597653,-0.042942777,0.004622447,0.021463670,-0.044183038,0.041749086,-0.044126630,-0.018218102,0.056864224,-0.047312137,-0.039853770,-0.019000610,0.009344393,0.037229471,0.055786002,0.021056397,-0.031877838,0.037765224,-0.023971345,-0.014611883,-0.025899522,0.002925264,0.009016616,-0.074759692,0.055473570,0.006757319,0.004082961,-0.003149144,-0.028889744,0.051600099,-0.050807167,0.005790159,-0.037476748,-0.017424427,-0.009076728,0.002778092,-0.026193144,-0.035715915,0.000671171,-0.010619252,-0.022799466,0.031481635,-0.031040069,-0.023389885,0.028798569,-0.056286212,0.007388746,-0.002663315,-0.036506921,0.049725745,0.041267302,0.032509215,0.026826570,0.035214856,-0.056787223,0.024307704,0.040240072,-0.058954950,-0.055840489,0.031988889,0.043944981,0.030533677,-0.029977573,-0.009878802,0.055308640,0.045580909,-0.020564741,-0.010945503,-0.024283985,-0.054190811,0.019526994,-0.037439398,-0.040059403,0.007562791,0.047271911,0.010788317,0.025810124,0.000296031,-0.056701560,0.051456966,-0.033846173,-0.045041777,0.018499786,0.014731996,-0.037064902,-0.029302729,-0.049184412,-0.054027032,-0.075858966,-0.078749247,-0.027086141,-0.016914526,-0.018900016,-0.047716361,-0.019564027,0.029847376,-0.007338515,-0.009084977,0.009819188,-0.010613868,-0.059438642,-0.020208703,0.025038227,0.016680501,0.022685502,-0.062529951,0.003497205,-0.052331578,-0.043329798,0.020410664,-0.086458847,-0.014168791,-0.025271749,0.021829676,0.025850773,-0.056095187,-0.049277585,0.015699584,-0.025575468,-0.053992417,0.036702622,0.035697177,0.030317077,-0.045997418,-0.056634668,0.039964989,-0.014206984,-0.015389385,0.037452903,-0.023748988,-0.045046743,-0.065031774,-0.027468422,0.029907020,0.036924813,-0.035874207,-0.054844424,-0.033073273,-0.078782536,-0.004371254,-0.004470304,0.005850373,0.013620672,0.005256414,0.035425007,-0.035800654,0.020278240,0.053219698,-0.040813662,0.017894918,-0.056464098,0.015605697,0.032755170,0.027797418,0.010106464,-0.008549733,-0.036869220,-0.032425847,0.034768827,0.034355525,0.047910735,-0.005764618,0.018612377,-0.025578750,0.010913208,0.031042626,-0.026357340,0.025764080,-0.012332585,-0.028251735,0.006586634,-0.052257169,0.048109833,0.028377170,-0.015599919,0.029584778,0.055649396,0.010715268,-0.056926850,0.008991404,0.056868356,0.003763731,-0.005456152,0.007880707,0.012418686,-0.026177393,-0.053536400,-0.004680395,0.000177982,0.036302563,-0.012760481,-0.052588712,0.046836030,-0.056401156,-0.071049623,0.005805442,
-0.008317132,-0.011039111,-0.021975093,-0.009323184,0.019675219,0.053706393,-0.023676403,0.039468013,0.000903070,0.029395655,-0.023903882,0.042663619,-0.032033306,-0.047190323,-0.015951315,0.044022720,-0.060331140,-0.041334949,-0.077186838,-0.036783550,-0.012179318,0.015895734,-0.024393057,0.009009270,-0.056415405,-0.016931415,0.051446579,0.011112184,-0.012619993,0.050507378,0.022510266,0.013871442,0.048000399,0.018464725,-0.015366865,-0.003103508,-0.025735531,-0.051908150,0.032208204,-0.047615539,-0.012544842,-0.038845818,0.000500343,-0.019555800,0.031106807,0.005029733,-0.017717648,-0.000000863,-0.057079501,-0.017860396,0.042131305,0.035392445,0.042613152,0.030399375,-0.042334557,-0.055319447,-0.018877335,-0.052149244,-0.031803768,-0.032666076,-0.025401620,0.008027159,-0.043990776,-0.018650087,-0.046304006,0.025947073,0.052548476,-0.036569089,0.008802327,-0.001246917,0.024735371,-0.010264369,-0.044036318,0.000737952,0.007950517,0.029904107,0.020343881,-0.034244068,-0.031645566,-0.001173538,0.020369055,-0.043021832,-0.033888105,-0.013705404,0.025124868,0.027158517,-0.005588261,0.018056553,-0.025312554,-0.023382492,0.021458773,0.048105154,-0.048854142,0.010829997,-0.042302616,-0.013414783,0.010574828,0.055975243,0.015991651,0.023961155,0.053908300,-0.017012961,0.020654865,-0.036801554,-0.068615489,-0.009941103,0.003402943,0.014451920,0.050224114,-0.023368221,-0.043323390,0.034628030,0.017278293,-0.027914997,0.004543067,0.004428749,-0.010406733,0.057417456,0.035609473,-0.037581258,0.045242086,0.004759260,0.043693561,-0.014840260,-0.056592133,-0.030797105,0.055148311,-0.003777882,0.024861876,-0.052708942,0.034276199,-0.027485814,-0.008852260,-0.003608511,-0.023521530,0.017364779,-0.021981975,-0.004388649,-0.054345191,0.029120494,0.046541117,0.029168645,0.042271011,-0.054381832,-0.050064120,-0.017098112,-0.020934056,0.015230457,0.056892015,-0.053422879,0.046749413,-0.002475907,0.041844670,-0.047123991,0.057288881,0.014963266,0.034969401,-0.035987280,-0.017051041,0.007919642,0.018452931,-0.035198070,-0.014602804,-0.010248614,-0.015831497,0.027929775,0.035072822,-0.016513590,0.030915998,-0.052395333,0.052194305,-0.056923710,-0.027017942,-0.013190309,0.011563474,-0.005908148,-0.031843971,0.003855040,-0.036540594,0.034113321,-0.043729801,0.038461100,-0.009269843,0.016469136,-0.028595785,0.037915323,-0.007449569,-0.015787087,-0.040828016,-0.050140079,0.004203934,-0.020164514,0.036325138,0.007006264,0.033107147,0.015886622,-0.040416844,0.048130494,-0.019658213,0.031065868,-0.010675561,0.003248613,-0.026963245,0.013611617,-0.025596371,0.050507735,-0.026913747,-0.009353300,-0.022449909,-0.070935301,0.032376487,0.030148929,0.035287634,-0.027677877,-0.000162490,-0.044015065,-0.054610472,-0.056218136,0.014471357,0.000120098,0.031277973,-0.036881335,-0.009148028,-0.019537563,-0.038061604,-0.020465512,0.052354340,0.038736742,0.051648058,-0.034382958,0.054561198,0.036509573,0.032476559,0.012102822,-0.046749454,0.014380586,0.046507180,-0.057302989,-0.015070033,-0.061947253,0.041669738,-0.038799897,0.001987359,0.056750964,0.022870172,-0.003309473,0.004149640,0.049861863,-0.035839181,-0.044847097,-0.043623071,-0.031007731,0.017657734,-0.012135136,-0.042657461,-0.056193843,0.051670771,0.024691898,-0.001605943,0.011746021,0.049310341,0.010223531,-0.051079050,0.004866811,-0.031437352,0.044663534,-0.013304204,-0.046710365,-0.020431379,0.009733756,-0.024146754,-0.013134521,-0.030036226,0.036683407,-0.017445354,-0.050601482,0.052173581,0.056051597,-0.021110885,0.011896696,0.048403669,-0.049066659,0.028743653,0.003444749,0.048622906,-0.053392880,-0.031300656,0.040002305,-0.037975963,-0.046497520,-0.052189875,-0.048735771,-0.043784875,0.003639564,-0.035885505,-0.018575640,0.040477317,-0.025924005,-0.050966147,-0.040813621,
0.032780711,-0.007636285,0.033961378,-0.057220094,-0.029270979,-0.022287257,0.048491579,0.007628053,0.018202685,0.033012923,0.041820966,-0.009364170,0.015105475,-0.024985909,-0.038054556,0.047304943,-0.011614523,-0.047502395,-0.030119205,-0.012243473,-0.034173481,0.030675715,0.040424835,-0.036002025,0.055498704,-0.050784256,-0.030371588,-0.020809088,-0.003201350,0.038625389,0.003124858,-0.054675672,0.015319012,0.046343409,0.041521035,-0.053711634,-0.032006335,0.036654122,-0.011829741,0.029821994,-0.010924824,0.032808986,0.049349330,-0.049639560,-0.020839967,-0.038899951,-0.043544319,0.006164812,0.027121991,0.024873858,0.034784179,0.036993667,0.056154113,0.023474233,-0.013033407,0.001251533,-0.017279353,0.003544142,0.002655503,-0.050318200,-0.053831100,0.022425549,0.006065150,-0.033890970,0.036896475,-0.043548580,0.056178313,0.040869076,-0.023596236,-0.011177961,0.035487644,0.048137769,0.036528815,0.042372439,0.019180020,-0.049846586,0.017900962,0.033073772,-0.017208468,0.007334132,-0.052144133,0.012023531,0.011938757,0.039881691,-0.011305749,-0.000629445,0.056230679,0.008831581,0.032008331,0.004318962,0.029959129,-0.003382020,-0.018597728,-0.040070336,0.034435175,0.021339171,-0.001757190,0.015493277,-0.000330978,0.053695045,-0.048620868,-0.039674472,0.013870491,0.004318805,0.023722408,0.022097586,-0.003056227,0.045245230,0.046709433,-0.055672351,0.025849488,-0.014963273,-0.038098164,0.015503851,-0.036244247,-0.012943748,-0.001945640,0.009751333,-0.001408898,-0.033407822,0.039054770,-0.042626552,-0.015956739,0.016667610,0.034887660,0.002959002,-0.023388106,0.049933530,0.005410603,0.031897325,-0.006784253,-0.012878972,-0.012044840,-0.040192783,-0.025694925,0.023429338,-0.019076427,-0.001259464,-0.028438676,0.018866774,-0.003585174,0.018462440,-0.046853062,-0.052056860,-0.040917110,-0.024892302,0.034427248,0.033161819,0.049050137,-0.019280560,0.029548772,-0.022871941,0.029115312,0.041602239,0.034353502,0.018297020,-0.031711437,0.051361669,0.023256380,-0.032365099,-0.015968790,0.036662187,-0.034013093,0.034183141,-0.048456527,-0.024991339,0.038558666,-0.014592354,-0.023291947,-0.039708972,0.048504364,0.011038069,0.027647933,0.006817345,0.004615253,-0.004502950,0.001950722,0.032833129,-0.026740691,0.036204975,0.039411131,0.015304254,0.045640916,0.006087335,0.039835893,-0.039649423,0.032526333,-0.044703461,0.020902434,0.015359408,-0.030679034,0.046631936,0.051594302,-0.055885684,0.030331356,-0.033303518,0.024182543,0.049014926,0.023243371,0.050100651,0.046666369,-0.037688036,-0.043339703,-0.050701890,-0.036169428,-0.002759541,0.031052692,0.036744900,-0.035902485,-0.003867825,0.017474093,-0.035198703,-0.001104139,-0.039663538,0.031919535,0.031940743,0.033609331,0.002317650,-0.044616122,0.053743713,0.014450949,-0.048542559,-0.036875095,-0.003179816,0.019189211,0.012852794,0.001679345,0.038555764,0.014824869,-0.052314349,-0.007117433,0.012853896,0.014513020,0.031072525,-0.033324562,0.047241144,-0.036460303,0.019371882,0.039257202,0.076561317,0.023964882,-0.045724649,0.036089882,-0.027382024,-0.048496753,0.009908154,-0.055946436,0.051655993,0.036972187,-0.001055496,-0.044563711,-0.027795944,-0.002658983,-0.001432209,0.017352063,0.016442265,0.029133573,-0.013394100,-0.005131973,-0.021299530,0.000722980,-0.010156360,-0.052258939,0.039709691,-0.024435543,0.003176148,0.000955323,-0.040717520,-0.039073009,0.005132303,-0.037816778,-0.034717686,0.015236342,-0.008585659,-0.036358271,-0.044533513,-0.032079231,0.021633655,-0.005459415,-0.014057570,0.053770799,-0.023959331,0.006202912,-0.051397212,0.004458324,0.048230533,0.040427253,-0.050920963,-0.039447404,0.052061737,0.019219967,-0.015211205,0.034391701,0.011656348,0.029524170,0.027447345,0.045518540,0.003611121,-0.055221539,-0.051256701,
0.054612420,-0.032332342,0.053943090,0.016003951,-0.014538826,0.014775365,-0.045519758,-0.037695643,0.055547558,-0.022566665,-0.003758306,0.023240022,0.019092016,0.050716739,0.006195496,-0.040875200,0.037917215,-0.030084584,0.004032962,-0.015018159,-0.001407555,-0.045876145,-0.029518774,0.017502032,0.003972077,-0.007563404,0.006417645,-0.041503787,0.047262583,-0.037591055,0.013170741,-0.051029254,-0.009595200,0.042787775,0.049670484,0.033797748,0.035054736,0.005087305,0.024564097,0.037460245,-0.000355926,0.055268716,-0.053392630,0.053695627,-0.012778942,-0.051375695,0.044930302,-0.004142620,0.017783545,0.047831919,0.045424633,-0.012757801,-0.001267587,0.010173121,0.017073607,0.028837295,-0.047190327,0.054880146,-0.025182024,-0.013324571,0.039560981,0.038989190,-0.011414789,-0.029173488,-0.012201524,-0.033097945,0.055752285,0.043392248,0.004766733,-0.026468245,-0.050035570,0.033528551,0.033785872,-0.047681354,-0.019160651,0.027555799,-0.001092460,0.056250010,-0.051576961,-0.042972229,0.046857763,0.000330200,0.004149045,0.006725235,0.043850429,-0.049436633,0.030267088,0.018375065,-0.048632856,-0.015271625,0.027587384,-0.041173272,0.054208353,-0.049750220,0.043537997,-0.000246304,0.019728212,0.056752902,0.055422753,-0.028172851,0.048163868,-0.011835553,0.018131683,0.017571814,-0.049207650,0.006008797,-0.037123818,-0.008928509,0.055096827,-0.043055128,0.048504196,-0.056927990,-0.011752602,0.037420046,-0.016709568,-0.040670965,-0.041394237,-0.026780065,-0.018951159,-0.029314321,-0.038465865,0.025555834,0.027252249,0.035197981,0.056459088,-0.022550466,0.053354904,0.005257178,-0.032006696,0.004104904,-0.038584236,0.005248101,0.044367969,-0.030118590,0.042625219,-0.018737443,0.052918009,-0.019618761,0.049460530,-0.031306285,-0.040370908,0.028850332,0.028735481,0.030030280,0.057018794,-0.029376876,-0.026091879,-0.048124474,-0.009091769,0.057125114,-0.007871174,-0.029851662,-0.056332760,-0.006120639,-0.045016389,0.007265410,-0.027903797,-0.003930422,-0.015835192,0.039301340,-0.004121268,-0.038121868,-0.036029510,-0.030182552,0.024622448,0.016814785,0.021726513,-0.027333789,0.049109586,-0.015019462,-0.047610730,-0.025361722,-0.023715977,0.029259814,0.007362675,0.043619961,0.026940020,0.000678877,0.022116352,0.012863547,-0.014650967,0.007487046,-0.037457764,-0.049943145,-0.017900445,0.008679715,0.039095096,0.019697076,-0.037003137,0.033924486,0.023755943,-0.012839206,-0.030891825,-0.013923108,0.042310543,0.043737233,0.044726241,0.054006692,0.007490788,-0.055142447,-0.038627818,0.016070910,-0.042501360,-0.018164661,-0.017140046,0.050736666,-0.046203200,0.041063432,-0.013524780,-0.013070486,0.047583949,0.053717136,0.007549588,-0.004186871,0.053212125,-0.029341813,0.054615755,-0.057526350,-0.035700932,0.048101507,-0.041926112,0.056675710,-0.048618820,-0.006004658,-0.034168575,-0.004595794,0.007195865,-0.052066881,0.012932661,-0.031193243,-0.050678536,0.021039914,-0.047362234,-0.003406865,-0.027793957,-0.011445242,-0.010575255,-0.030950744,-0.042755652,-0.008743522,-0.018879229,0.047124140,-0.043371353,-0.038118422,0.048963528,-0.001575056,0.025928028,-0.003856308,0.028442295,-0.031578675,-0.037065167,0.053874429,0.045153294,-0.025883885,-0.013621774,-0.057736252,-0.025248272,-0.003021116,0.013323735,-0.042689491,0.013373427,-0.045120459,-0.018357629,-0.037170883,-0.047344279,0.044547956,-0.014424888,0.018520042,0.010624995,0.055811558,0.051766712,-0.041180771,-0.002188792,0.000493100,0.021265332,0.016439261,-0.016539244,-0.029309327,-0.038892660,-0.010852652,-0.015884975,0.004475709,-0.000290112,-0.027180133,0.041246373,0.022555744,0.049928267,0.026993455,-0.001858478,0.010044048,0.050636038,0.027572744,-0.033490781,-0.002050438,-0.011328035,0.049838837,-0.011325630,-0.029390758,-0.043942075,-0.029350905,
0.010757391,-0.025848368,-0.019534875,-0.002519595,0.004621463,-0.017195072,-0.052829985,-0.031073295,-0.029396839,0.039940286,0.005011546,-0.057187043,-0.037313599,0.053567253,-0.030051243,0.002852984,-0.035932638,-0.031292759,0.017813398,0.024733620,-0.002759481,-0.046230406,-0.032009874,-0.031742062,-0.011425529,0.038826019,-0.022307169,0.025389306,-0.047533892,0.022050964,0.053576507,0.052316613,-0.057247885,-0.023602473,-0.043716066,-0.048502620,0.053746529,0.040059119,-0.012490752,0.038435988,0.026152503,0.026871767,-0.007249463,0.014983153,0.002491402,-0.038468193,0.023740431,-0.043126341,-0.008685010,-0.017112562,0.006420990,-0.044038069,0.031913474,-0.017812468,0.004198551,-0.050736666,0.010663247,-0.051209085,0.045224041,0.049519889,-0.011370204,-0.044333994,0.028340627,-0.015595168,0.049834136,-0.048038378,0.038846008,-0.000703453,0.026205465,0.003673222,-0.009876169,0.033907425,0.012541724,0.008840982,-0.004454159,-0.024561932,0.036642574,-0.015207560,0.033237636,-0.041273694,0.019569168,0.056925461,-0.040337343,-0.034792721,-0.007822224,0.026334770,-0.022628916,-0.050717410,-0.004616483,-0.010054915,-0.015742542,0.036331844,-0.000279704,0.027243972,0.049867764,0.009915890,0.029550396,0.032998279,0.044549856,0.051894885,0.023702560,-0.003812643,-0.008467260,0.044004843,-0.002601496,-0.031892870,0.026773218,0.054376312,0.011675281,-0.035616469,-0.051284056,-0.041825183,0.040222645,0.021071663,0.038223695,-0.029168461,-0.040152445,0.029141642,0.032273468,-0.015950374,-0.033826377,0.001318804,-0.003766066,0.005015419,0.016779484,0.024357583,0.041720022,0.046207637,0.057308599,0.020296207,-0.021955898,-0.027705828,-0.003708204,0.024166156,-0.016953198,-0.015060833,-0.015678473,-0.031257980,-0.053680845,-0.000194807,-0.025207002,0.046444681,0.032010280,0.016990779,0.015828347,-0.013367958,0.001107873,-0.032052290,-0.022437684,0.026991731,0.003730560,-0.054652754,0.021159030,0.025044369,0.024170382,0.046125688,0.005835459,0.036440592,0.050102495,-0.020539800,-0.045666169,-0.007329356,-0.027812149,0.020296520,0.007511365,0.016559094,-0.037930578,-0.013175978,-0.047253616,-0.010476689,0.045004282,0.007299859,0.012001403,-0.017954642,0.009598431,0.048995677,0.053838555,0.053061217,-0.037793420,-0.029919799,0.012012400,-0.046251070,-0.008722414,-0.012595057,-0.035813153,-0.046461813,-0.003831031,-0.032248106,-0.017552629,0.057431284,0.025192687,0.040099673,-0.036163859,-0.055864714,-0.046934221,0.002725445,-0.053439077,-0.035738066,0.003688160,0.028012216,0.011974670,0.049720556,0.014125440,-0.025531542,0.002185973,0.009515179,0.041564252,0.015896231,0.034877539,0.041979805,-0.004542134,-0.040692352,-0.034109298,0.029915800,-0.014224455,0.039410319,0.027882768,-0.040486507,-0.042405538,-0.022462346,0.038153641,-0.004122599,0.000343139,0.045505345,-0.050943121,-0.045301549,-0.015258553,-0.034208681,0.036707215,0.032876737,0.025073497,-0.045853272,-0.036859281,-0.005421822,-0.057366475,-0.034286678,0.005820023,0.051644828,-0.030898599,-0.055839770,0.002656478,-0.036023289,-0.044957493,-0.054186400,-0.016028438,-0.027711811,-0.054355577,-0.047841147,0.017920393,-0.042859346,-0.039196521,0.051438220,-0.009811739,0.025933458,0.006989988,0.042963136,0.052153610,0.035848729,-0.041825593,-0.038733069,-0.041827515,-0.035039250,-0.033578739,0.028105989,-0.038499489,-0.007737934,0.050657842,0.016732613,0.016226074,0.013651147,0.056104038,0.002463396,-0.028919447,0.052544862,0.004326524,0.049915545,-0.051049534,-0.032905091,-0.012204667,0.006904533,-0.052677874,-0.011461529,0.032347266,-0.035027985,0.024653230,-0.031928096,0.026705682,0.030966485,0.048540697,0.040853877,0.008396619,-0.032153055,0.013340219,-0.045705948,0.004116483,-0.024186647,0.028866936,0.031647686,0.045852870,-0.027389294,
-0.012155432,0.033092018,0.051319093,0.002764501,0.038601834,0.017249634,0.001356789,-0.045604758,-0.054378629,0.052122463,0.037310828,-0.021220496,-0.056444656,0.039255582,0.007099902,-0.042398524,-0.002333089,-0.039627075,-0.017359894,-0.017006159,-0.014755302,-0.037652347,0.034214407,-0.038238257,0.001155046,-0.033648677,-0.014312679,-0.001120285,-0.028501015,0.051706761,-0.037030529,-0.043422066,-0.055111282,-0.050981302,-0.018350940,0.052959561,-0.021718262,-0.040799573,-0.055801429,0.004445221,-0.019429602,-0.043350447,0.033862274,0.048915714,-0.043590542,-0.032926071,-0.005773077,-0.015848747,-0.005967319,0.032442298,-0.055519905,-0.017430488,0.013023487,0.020994790,0.006493577,-0.040920630,0.009374112,-0.051952828,-0.002999075,-0.052751157,-0.045959555,-0.048107821,0.006408737,0.055103716,0.039078165,-0.031039171,0.042650599,-0.029574048,-0.016028052,-0.025826698,0.041433573,0.005027027,0.029170835,0.049223825,-0.027861113,-0.050991833,-0.013097742,0.025977895,0.001411290,-0.039235264,-0.011948575,0.011971958,-0.004492358,-0.007685787,0.001175203,-0.042504791,0.051899552,0.003740457,-0.012541165,0.046288125,0.051035274,-0.040687516,-0.050925586,0.010770463,0.036569886,-0.050603114,0.028241312,0.052886579,-0.025363578,-0.053018525,-0.049938582,-0.018684279,-0.020622265,-0.031836640,0.020473486,-0.016946390,-0.004326215,-0.048099909,0.023075147,-0.001134196,-0.048252039,0.031757861,-0.050375741,-0.030282689,-0.013385242,-0.032435253,-0.040085912,0.054674335,0.043085448,0.036708709,-0.007474169,0.014494544,0.052959215,-0.017316066,-0.049558513,-0.048896316,-0.050087567,0.010522340,0.019220255,0.028314086,0.044689741,-0.041860655,-0.010179680,0.034961451,-0.055258423,0.040260524,0.034609042,-0.015531817,0.047165386,0.052828029,-0.007794621,-0.049513649,0.000944128,-0.023722442,0.036485206,-0.047611397,-0.026757419,0.014553368,0.016084084,0.041578140,-0.004972239,-0.032681212,-0.009670590,0.047011968,0.046224192,-0.056171201,0.001128636,-0.014846745,0.028787820,0.022552576,0.048017029,-0.003784997,-0.039222188,0.020119159,0.028820775,-0.030172350,-0.017398072,-0.031466436,-0.002800754,0.013007045,-0.035466358,0.017150326,0.045981035,-0.003260399,-0.015576791,0.017233448,-0.055284571,0.037626382,-0.054032516,0.020862665,0.045760792,0.042734690,-0.011210526,-0.003763524,-0.055577196,0.012070199,0.048782554,-0.038658101,0.004258276,-0.024796870,-0.056830358,0.034806348,-0.005776193,0.031559162,-0.051705644,0.032676544,0.005875710,-0.015991984,0.047536872,-0.001445262,-0.040038671,0.048451133,0.053930089,-0.027275791,-0.033655979,-0.004985076,-0.036472607,0.012358822,-0.013873412,-0.043528248,-0.046117961,-0.042255219,-0.016258728,0.048177626,-0.025836444,-0.052598819,0.031186124,0.014850880,-0.037454955,-0.025885096,-0.055403780,-0.004995019,-0.029674929,0.009911179,0.004910538,0.002603806,-0.003653088,-0.003553916,-0.009305814,0.021277264,-0.013754775,0.011122458,-0.030283935,0.033660881,0.008873116,0.021505145,-0.046607818,0.015568321,0.005644349,0.016582895,-0.044562846,-0.050183009,-0.044491112,0.057687223,-0.035881624,-0.043536790,-0.039527677,-0.016195999,0.003028486,-0.044648275,-0.016476175,-0.026819553,-0.022655495,0.015384291,-0.023408877,0.008951673,0.027814373,-0.013801767,-0.005782871,-0.027361283,0.011416150,-0.045918766,0.037300996,-0.051545430,0.002597902,-0.001585134,0.044235576,0.014777203,0.050898056,0.042358425,0.010363891,0.020359069,0.012449944,-0.030509401,-0.005586154,0.022672674,-0.018293113,0.056519911,0.016628798,0.023634698,0.009455238,-0.005270981,-0.022373846,-0.043306597,-0.019556887,0.009244327,-0.044846252,0.020410690,-0.056158014,-0.056203123,0.035661507,-0.025591163,-0.035292674,0.003793320,-0.001944270,0.056133579,0.007184200,-0.003037618,-0.019594219,0.039625145,
-0.050282404,0.027642207,-0.018378180,-0.022331746,-0.039618153,-0.012368152,-0.055321068,-0.033943839,0.004217326,-0.041459989,0.050135747,-0.002253112,0.000645532,-0.009875615,0.002924929,-0.019027395,0.038520176,-0.040439706,0.028045993,-0.017100967,-0.002925949,0.038426079,0.039517123,-0.012337240,-0.004805406,0.010972745,-0.039624810,-0.045310371,0.003075877,0.054139342,0.053694885,0.032546420,-0.007895466,-0.054496899,0.046579354,0.039776895,0.036833148,-0.045260254,0.038696297,-0.031685218,-0.034266580,-0.055549350,-0.021433400,-0.037220921,0.045597855,0.024963889,0.018962717,-0.034169395,0.034326281,0.012044756,-0.002228915,0.007448611,-0.012679218,0.000667021,-0.040586181,0.042800508,-0.052023329,-0.046746939,0.043051716,0.049919043,-0.013991037,0.030843727,-0.000725725,0.034114562,-0.037684184,-0.057542276,0.007222462,-0.020571638,-0.014048173,0.022459280,-0.032408085,-0.001347966,0.028805334,-0.031062953,-0.015776843,0.054358583,0.057311732,-0.001397582,0.020331157,0.009466582,-0.000598159,-0.004938885,-0.020555878,0.023123613,-0.022148089,0.031762682,-0.023203745,0.037503548,-0.019450879,0.041599233,-0.016680878,0.037402563,0.029824618,-0.019047210,0.001081886,0.044552486,0.023005107,0.051916808,0.019827234,-0.011777367,-0.026240621,0.046287496,0.046189416,-0.047127824,-0.002800431,0.047073793,-0.032369822,-0.004286556,0.050675508,-0.021459697,0.025513951,0.023915024,-0.033205483,-0.012194074,0.032804370,0.041277323,0.042976964,-0.041109171,-0.048955515,-0.052692067,-0.013409525,-0.018518308,-0.034694079,0.053113047,0.001780508,-0.000048069,-0.049284924,0.037486296,0.018165005,-0.001461851,-0.047914844,-0.011719781,0.024954487,0.029828412,-0.010116798,0.023656063,0.028009554,0.016682126,-0.025011281,-0.056789655,0.042150918,-0.043487534,-0.025871472,0.006196407,-0.017601835,0.009058817,0.038287342,0.047796894,-0.014716023,0.048756722,-0.048322111,0.052973516,0.027956400,-0.019955082,0.007127541,0.004936570,0.010440934,-0.022997636,-0.005395663,0.018060036,0.010283574,-0.035121873,0.024698231,-0.027812293,0.026144234,-0.036092792,-0.040506110,0.002767588,0.023599789,0.008284602,0.056171212,-0.032593016,-0.051059473,0.035221908,-0.054866631,0.056475393,0.001985173,-0.016294153,0.003157818,-0.035532791,0.057781931,0.019792806,0.039639786,0.059699815,-0.053445064,-0.020292485,0.053476904,-0.028511805,0.026357986,0.055701230,-0.005110299,-0.035337161,-0.038820602,-0.052743629,0.051374558,-0.012796132,-0.044248208,-0.018449211,-0.043078467,-0.043555312,-0.016772108,-0.002681468,-0.026295671,-0.051293403,-0.049374651,0.005874428,-0.040869739,-0.035932332,0.031223331,-0.026252160,-0.002746681,-0.027008550,0.051310275,-0.012807396,0.008860289,0.018873256,0.054518033,-0.055444218,-0.024717836,-0.017799124,-0.027636569,0.019464683,0.025003769,0.009394309,-0.040337212,0.018108292,-0.042028554,0.050123818,-0.053373586,0.013248454,-0.043195866,-0.051144477,-0.017376419,0.018322332,-0.046645053,0.011279211,0.005173381,0.016788777,0.040924173,0.014875742,0.005564706,0.045954585,0.020906676,0.057127275,0.006895318,-0.057500683,0.035465218,0.048268668,-0.052141711,-0.030224312,0.023760470,-0.014434358,0.038722310,0.022217149,0.041127052,0.003353945,0.013476724,0.023242773,-0.056013536,0.043806762,0.023427546,-0.058602296,-0.030111566,-0.031516593,0.003063446,0.034303103,-0.035652369,-0.007140489,0.047238678,0.018968500,-0.005174656,0.003162408,-0.008563732,-0.033165891,0.022824893,0.035412412,0.032785669,0.027705725,-0.025065482,-0.014835336,-0.029817374,0.003988778,-0.043275930,-0.001400786,-0.039255712,-0.016677858,0.054576259,0.005588608,-0.025440006,0.013805947,-0.038808759,0.019441657,-0.033919450,0.021059642,0.046561271,-0.007992371,-0.023681689,-0.047033001,-0.046002384,0.029943299,
0.008411073,0.032352213,0.030765325,-0.037512850,-0.004248002,0.015129345,0.043064564,0.029962897,-0.027096631,-0.035338372,0.015557765,-0.015760036,-0.058433391,0.020091802,0.019090995,0.049892101,-0.059682071,0.024931444,0.026086165,-0.044474315,-0.037124056,0.043696616,-0.020991717,0.004951183,-0.012389502,-0.011215861,0.023315806,-0.008768411,0.015431944,-0.059124775,0.017837083,-0.021828411,0.007748696,0.051550329,-0.042648587,0.033911202,-0.056979008,-0.059636824,0.020363551,-0.056376033,0.045182582,0.032182563,0.037230834,-0.044211160,-0.002704657,-0.053477239,0.015056582,-0.016452275,0.050241519,-0.033531122,-0.057430025,-0.029563483,0.025210857,0.023512751,-0.030802542,-0.004353481,-0.038247161,0.011093128,-0.030941892,0.017557815,0.051089693,-0.032081183,-0.037853438,-0.050961673,0.013532367,0.020700281,-0.040161032,0.042283744,-0.037865531,0.050384235,0.050663363,0.029982492,-0.054534182,-0.042204525,0.039333053,0.018269047,-0.019055318,-0.036603332,0.001308504,-0.024516372,0.003930209,0.005991430,-0.012995661,0.052233502,-0.017689889,-0.053814445,0.015111032,-0.018638073,-0.004288926,0.022637047,-0.039491072,-0.013393568,0.028139444,-0.052560594,0.005282118,0.027460633,-0.008541539,-0.055469245,-0.059578843,0.040674806,0.045768302,0.007667408,0.028494699,0.021734092,-0.059496235,-0.000360919,-0.037387103,0.037895873,-0.050295517,0.002578972,0.021556791,0.024254175,0.044982888,-0.024956280,0.038000673,-0.036282297,-0.012325336,-0.033502717,-0.045621265,0.024272947,-0.026788749,-0.053713452,-0.050675053,-0.034128040,0.014037683,-0.038691692,-0.001350776,0.028054701,-0.045015212,-0.007366364,-0.003691140,-0.024838636,0.001365519,-0.010679001,0.014782946,0.045579635,-0.016302168,0.022395622,-0.040622473,-0.035670761,0.054282993,0.054434974,0.019870229,-0.048560642,0.055990517,0.054623473,0.046619043,0.018781163,-0.045794237,0.006646314,0.038404193,-0.032281671,-0.043597050,-0.036565989,0.008377137,0.045722131,-0.005756683,-0.026661234,-0.000490480,0.023453889,0.041856412,0.031381033,0.022250107,-0.054216597,-0.049538273,0.042714652,-0.007895758,0.039704014,0.054885652,-0.005077248,0.049530398,-0.016658479,0.022319725,0.027588436,-0.004187872,-0.028101530,0.038442079,-0.059719399,0.053068954,-0.028698774,0.024961960,0.000592760,-0.048315432,0.013969624,0.055041421,0.004023428,-0.034943756,-0.039064072,0.031590793,-0.006869028,0.055366985,-0.014662361,-0.055875607,-0.001848421,0.034833752,-0.011286019,0.014232798,0.013987802,-0.026281521,0.050244018,-0.021480780,0.051408034,-0.013568101,0.022369085,0.029368145,-0.010864267,0.003289492,-0.020795349,0.041833486,0.049232237,0.010107128,-0.000037512,-0.039904699,-0.042379659,0.030476512,0.008943793,-0.035961647,-0.036341581,-0.037958208,0.026646683,0.006400140,0.037392076,-0.045624193,-0.000417673,-0.046985418,-0.035490781,-0.009346784,-0.044789482,-0.002853718,0.048607364,-0.043923952,-0.009388412,-0.009029233,0.010751751,0.000596937,0.017390540,0.046878710,0.045697663,0.007174695,-0.034250878,-0.045748308,-0.015460955,-0.034528162,0.037530262,-0.040786631,0.014383084,0.034726266,0.005310541,0.048495349,-0.036608666,0.015108243,0.006891056,-0.052005321,-0.033675510,-0.021928318,-0.007756082,-0.057187825,0.024690961,-0.030324107,0.003534425,-0.017521197,-0.037821893,-0.010720965,-0.000732283,0.030307602,0.004388803,-0.056769941,0.012930774,-0.040032636,-0.031229265,-0.040960908,-0.000802694,-0.043833844,0.007558116,0.017035797,-0.044409357,-0.026040196,0.010997061,-0.007471200,0.024920003,-0.043505572,0.044568710,-0.024111399,0.005402655,-0.051159170,0.034365017,0.027258700,0.005709603,0.051240765,-0.045938849,-0.005295795,0.014633183,0.051632818,-0.008174255,0.017233711,0.040528752,0.055219743,-0.005309296,-0.011131659,0.048432250,
0.038992886,0.025462408,-0.037587248,0.027987296,-0.031638611,-0.014550298,-0.018564004,-0.001926355,0.026817281,-0.023661606,0.003514409,-0.046913523,0.030215098,-0.036928829,0.040998697,-0.011195059,-0.052602965,-0.005373277,-0.020492515,0.031990226,-0.042159975,-0.002220626,-0.025212817,-0.032878298,0.020842092,-0.020312643,0.045511689,0.051247057,0.005869816,-0.027073883,0.035999697,-0.037976913,-0.013509393,-0.008059125,0.046875551,-0.018908087,-0.051999398,-0.039316822,0.010162820,-0.013961919,-0.037985295,0.004332044,0.012447665,-0.008074206,0.023357870,-0.000991469,0.005724039,-0.032207951,-0.047295041,0.052290376,-0.049113885,0.056357145,0.056626704,-0.049608666,-0.042338133,-0.001792033,-0.035393853,-0.019082872,0.008039162,0.009440605,0.034916531,-0.029716836,0.009723945,0.054370489,0.016692802,0.031221380,0.021266807,-0.033013452,-0.032733608,0.016423885,-0.028451812,-0.011804575,-0.003430261,-0.031107632,-0.022531450,-0.032910388,0.015752032,-0.041058309,0.047295414,-0.037100937,-0.052213158,-0.020182950,0.050802734,-0.022453165,-0.054355688,0.029638125,-0.000062492,0.056208704,-0.028506685,0.023133578,-0.051564287,0.034943990,0.007288972,-0.039046947,-0.023680650,-0.021873778,0.039613370,-0.033553649,0.046912190,0.049102042,-0.052607324,-0.049182769,0.041040480,0.035428312,-0.041197561,0.020932656,0.025430007,0.029025320,-0.048791401,0.023764858,-0.057261419,0.021657178,0.034532316,0.053557355,0.049186349,-0.035486288,-0.005024910,0.029484887,0.016953442,-0.006572819,-0.015002276,-0.055371318,0.045957223,0.000844934,0.008363841,0.012570188,0.050337225,-0.019181093,-0.039999202,0.053545665,0.014364423,0.023282623,-0.002526606,0.002572906,-0.006823637,0.044432342,0.010130597,0.013200546,0.050978281,-0.051008068,0.036173310,-0.041375220,-0.007603650,-0.044383198,-0.004910388,0.013135815,-0.023778517,-0.055651616,0.029159315,-0.034188267,0.040770020,0.004802197,-0.052986030,0.031437553,0.002099487,0.033936802,-0.044226527,-0.033588838,-0.039776817,0.029012846,0.021297613,0.025661301,0.048429683,-0.034220189,0.040742248,-0.057200592,-0.054721415,-0.031562123,0.003622967,0.039240982,0.029880714,-0.031431459,0.052891318,-0.006039857,-0.053926378,0.048137527,-0.007560092,-0.018148459,-0.043135006,-0.046148110,-0.042342793,-0.050470989,0.051829971,-0.001183365,0.011866661,0.015299105,-0.007005976,0.039341167,0.037533849,-0.053725064,-0.043907929,-0.012846096,-0.028714996,-0.046954680,0.019497633,0.010690091,-0.054732408,0.049164601,-0.043079671,-0.033162005,0.037849229,0.043613054,-0.032645121,-0.016325077,-0.004273262,0.057347789,0.027528776,-0.029825835,0.011557887,0.008312410,0.038424276,-0.003249057,-0.049059790,-0.045210160,-0.038273335,-0.030872436,0.022931188,0.005251450,-0.014967980,0.022987548,-0.052805644,0.015974434,-0.042600382,0.053486846,0.052079119,-0.055251248,0.043242462,0.013565732,-0.048745159,0.005186316,-0.009647296,-0.026800862,0.010714043,-0.043330438,0.016530417,-0.043565974,0.002220923,-0.041467525,0.041273527,-0.023392348,-0.043477692,-0.036195289,0.053154267,0.016885797,-0.014300768,-0.056394443,0.035826433,0.006734976,0.039892156,-0.028787384,-0.025111243,0.042494815,-0.029502405,-0.005294148,0.047800783,0.013846816,0.035296910,0.039555646,-0.026462754,0.022300672,-0.041627273,-0.031333830,0.051487710,0.030366307,0.016498668,0.017439643,-0.018175911,0.041496336,0.000150733,-0.027558999,-0.007228790,-0.032098707,0.029865164,-0.003682070,0.046870589,-0.019068480,-0.013951164,-0.047485813,0.034228805,-0.050236117,-0.041910686,-0.020864785,-0.041898061,0.034909047,0.004577709,-0.047152761,0.048037160,0.014098913,0.035288736,-0.003032115,0.049961854,0.003704597,-0.032568105,-0.000812900,0.048082087,-0.038373280,-0.006583326,-0.030989561,-0.014654823,0.039300680,
0.001015872,0.011814399,0.029575931,0.013306672,-0.009077059,-0.033522245,-0.053414863,0.002274110,0.038734309,0.033473339,0.056549091,0.056962088,0.048057519,-0.056403596,-0.022946518,-0.009256868,-0.028076965,-0.002176839,0.021292668,0.005428060,-0.017385513,-0.015222910,0.001274134,0.021597764,0.047865357,-0.024751445,0.057428580,0.037770320,-0.009640472,0.020721430,0.026456671,0.052660994,0.015994335,0.042205870,0.055075303,0.000619214,-0.032220338,-0.048035473,-0.027873138,0.016568510,0.012033610,-0.023457315,-0.045213126,-0.024612404,-0.025541568,0.002262107,-0.012963758,-0.028806964,0.000475190,-0.007754036,-0.036408484,-0.024438430,-0.052664462,0.044850461,0.033824585,-0.036106806,0.044001553,-0.027004063,0.026261417,-0.013681808,0.002929794,-0.046785511,0.049049396,-0.009873544,0.020214023,-0.000754917,-0.031708065,0.027795883,-0.036388852,-0.050202072,0.029566091,0.002895090,-0.007812487,0.012582276,0.048672281,-0.046991397,-0.024155548,-0.033026803,0.005066419,0.017022761,-0.027976597,-0.047155544,0.039826743,0.000925638,0.042267375,0.036894690,-0.028191211,-0.040792067,-0.034859490,0.011276178,-0.039597746,-0.030710265,0.004174997,-0.008966058,0.052580073,-0.021188883,0.029106496,-0.026375774,-0.028841948,-0.035491403,0.025396680,-0.019456642,-0.004019714,-0.033371855,0.005060016,0.051202882,-0.007740342,-0.010313991,0.037904102,0.040717833,-0.028461836,0.054081716,0.054775424,-0.026591841,-0.045942295,-0.037000980,0.026114397,0.017221406,-0.015206627,0.026300641,0.043347772,0.053417187,-0.047009740,0.038591441,0.046364989,-0.034584027,0.012102301,0.031775538,0.021214431,-0.027232580,-0.017364567,-0.041567679,-0.026826002,0.042641960,-0.053698380,0.042714283,-0.015115506,0.035631910,-0.016305147,-0.054733802,-0.021510791,-0.005152055,-0.025048284,0.047099166,0.056690443,-0.020730142,0.018467015,0.003894607,0.039617073,0.012776153,-0.052816909,-0.056022517,-0.010995252,-0.019510936,-0.034853656,-0.030287094,-0.034396622,0.024183717,0.044219024,0.043388315,0.044164367,0.007474140,-0.039769568,0.045591343,0.000952217,-0.045794912,-0.048047945,-0.005694053,0.044934470,-0.051677179,-0.015852625,-0.049807128,0.010389875,0.055135205,0.041189421,-0.023087505,0.043498695,-0.037146375,0.020606995,0.049238298,0.011337849,0.012840542,0.000137608,-0.052125022,0.053048570,0.011172816,0.020411592,-0.031761222,0.022101475,-0.044535089,-0.039823569,-0.048305098,0.063402966,0.034074150,-0.053341731,-0.002673595,-0.014942725,-0.027580656,0.004279718,0.005423865,0.003567527,-0.021843012,0.030523719,-0.003335630,-0.010984465,-0.005066000,0.051972557,0.051079683,0.010384980,-0.041031405,-0.003645561,0.044787087,-0.031821545,-0.021997403,0.042820472,0.028221112,-0.027527371,0.001328024,0.027458670,-0.006094489,0.054412533,0.027830891,-0.035426967,-0.030353105,-0.054040592,0.020749057,0.036320668,-0.037441194,0.020513196,0.021182356,-0.057417464,-0.027000835,-0.047100395,-0.045625407,0.032834724,0.024932433,-0.004228492,-0.020613162,-0.004485937,0.011748866,-0.031565815,-0.044599105,-0.002750555,-0.000638000,0.052688226,-0.021854529,0.021308372,-0.038518991,-0.047765166,0.040579841,0.008527953,0.046527147,0.029350441,0.037687585,0.010564283,0.035515390,-0.026640374,0.033930019,-0.048842527,0.013495270,0.038987201,0.009832406,0.026305415,-0.045967761,0.054914311,-0.000455464,0.052621868,0.035282884,0.016203038,-0.017809685,0.030297225,-0.006220845,0.038959548,0.024339542,0.002657690,-0.001606337,-0.052193310,0.015832873,0.020175062,0.053810701,-0.039377443,0.016860146,-0.035306975,-0.012678225,-0.006615323,0.039717183,0.047532193,0.037184726,-0.024333352,-0.049864765,-0.047286812,-0.000913281,-0.012359378,0.045324929,-0.029225459,0.020798558,-0.024504546,-0.028373880,0.001181960,-0.024592100,
0.018728105,-0.030745624,0.032673627,0.037078496,-0.012513975,-0.012056179,0.033333506,-0.027106836,-0.027464641,-0.033169944,0.008117614,-0.046734445,-0.010186708,-0.052912291,-0.062783211,0.016493035,-0.045125261,-0.019336183,-0.032277752,0.036195219,-0.059626900,0.005938166,0.040569123,0.008483544,-0.049343165,-0.055524785,0.016989494,0.025511807,0.042315628,0.049069684,0.033714831,0.015501487,0.046952136,0.014373966,-0.038764667,-0.028239194,-0.002295467,0.043734618,0.007100449,0.025927152,-0.014665022,0.050185513,0.014318569,-0.001040702,0.006883180,0.015556367,0.043818042,-0.003367221,-0.018322021,-0.018017234,0.011671685,0.022707501,-0.029398754,0.057195954,-0.020946836,-0.044385266,-0.036023192,-0.011147616,-0.025961103,-0.025415834,0.003895280,-0.045834053,0.008491858,0.025547424,0.022458525,0.019757887,-0.057075266,-0.036769826,-0.027963933,-0.032005917,0.036294334,0.045269556,0.025472404,-0.032914679,-0.033159491,0.052882876,0.028024275,0.003991128,-0.057286680,0.005448769,0.036532380,0.004263461,-0.011164638,-0.009031976,-0.020837318,0.038403146,0.013975825,-0.010559392,-0.008701155,0.037134431,0.029573251,0.031648804,-0.047448363,0.011654373,-0.021560300,-0.010592979,0.040471096,0.033035569,0.038779803,-0.011307943,-0.010213460,0.029951841,0.027130917,-0.042639326,-0.004087701,0.049448077,-0.000724699,0.025070217,0.021981513,0.046218514,0.005555301,-0.003704073,0.023842499,-0.052655771,-0.017641533,0.052492812,0.046048105,-0.040889677,0.037953358,0.012565822,0.044231221,0.050809678,0.002320771,-0.059225652,-0.027062738,-0.017572818,-0.031794790,-0.050174221,0.051715232,0.009035718,-0.043310843,0.024597835,-0.039092388,0.037276898,-0.044568758,-0.012452694,-0.029653680,-0.022845184,0.040640514,-0.019214472,0.047839414,-0.014089741,-0.055327956,0.003408837,0.033307072,-0.027860170,0.049454257,-0.005532246,0.014031442,-0.043923739,0.037582584,-0.028870523,0.034230836,-0.016243408,-0.032498445,-0.005636094,0.052756600,-0.036294691,-0.035421707,0.035126876,-0.010385816,-0.028539108,-0.029720481,0.011260563,-0.017896423,0.031809062,-0.045439791,-0.038598299,0.023848420,0.004561879,0.053805169,-0.047318541,-0.025301389,0.037667245,-0.017091619,0.035130650,-0.013238253,0.025477862,0.057350311,-0.024152299,0.052168716,-0.017686877,-0.025823111,0.036936365,-0.041216634,-0.030864906,0.000650215,0.047235884,-0.041755449,0.027111264,0.049593385,0.024541713,-0.035314299,-0.061140060,-0.043438409,-0.042263396,-0.027429031,-0.022727584,0.037671819,0.047180679,0.048067417,0.002586078,-0.041965004,0.017357491,0.009037733,-0.037481114,0.055397827,-0.003592156,0.029016811,-0.018017305,0.023887079,0.048318550,-0.061433710,-0.056903180,-0.050057478,-0.046077285,-0.004611772,-0.049339518,-0.020411992,-0.042355750,-0.005496400,-0.027695585,-0.019202182,0.028373251,-0.036343977,0.006331077,-0.018637586,-0.009239296,0.045389235,0.037460670,-0.002708608,0.008757598,0.015395232,-0.000784855,-0.062949158,0.037253149,0.033871759,-0.044691365,-0.044164490,0.021163747,0.046521924,-0.056686174,-0.027298925,-0.041563679,-0.019313700,-0.042756777,0.013902275,0.025569096,0.012352143,0.038175754,0.038717229,-0.031932998,-0.001229731,-0.049230654,0.044245102,-0.047108687,-0.027692964,-0.038452294,0.040340792,0.037470885,0.050864503,0.004023111,-0.022098344,0.047949769,0.004304715,-0.003778256,-0.029613197,-0.028167687,0.042651489,-0.053543918,-0.039832685,0.050354645,-0.005568375,0.045473084,0.014487817,-0.046961386,0.014080631,0.010614101,0.022507615,-0.004023613,-0.051169593,0.052561391,-0.057550896,-0.031323232,-0.051761512,0.035105608,-0.033326808,0.020830056,0.001034407,-0.016027175,0.036355820,-0.033450626,0.013797098,0.056694545,-0.015622314,0.032064557,0.013819702,-0.024500996,-0.035834298,-0.030770794,
-0.028118944,-0.023919664,0.041568082,0.038002651,-0.055135068,0.030860530,-0.022897188,0.007796795,0.039560560,-0.025327755,0.044907670,-0.049698837,-0.042215195,0.009706454,-0.046443932,0.035682049,0.025453039,0.010800887,0.024634592,0.020530997,0.043693896,0.007466520,0.040434659,0.023391142,0.010288944,-0.045340214,-0.037409600,-0.033702936,-0.007173809,-0.042688716,-0.024059959,-0.039699469,0.050540414,-0.001867104,-0.009044417,0.020294227,0.006734820,0.056023654,-0.052609924,-0.031924210,-0.039093707,-0.048537299,-0.039327495,0.015515490,0.030256303,0.040751442,0.049718715,0.025450043,0.018743625,0.030120183,0.027407544,-0.032602165,0.002549733,-0.056521900,-0.055317607,0.041171420,-0.033250891,-0.000214575,-0.004490801,0.039202888,-0.017600143,0.019153930,0.032692712,0.004873679,0.027990032,0.044936068,0.020122752,-0.056530751,0.041413140,-0.041912545,0.009276964,0.043442871,-0.017961744,-0.018451927,0.025841121,0.019310987,0.005022724,0.043346182,0.011640497,-0.018537292,-0.033221152,0.033792991,0.005363806,-0.015449484,-0.017031938,0.036867972,0.023673017,-0.048541520,-0.025078604,-0.057360686,0.057688989,0.034188937,0.019228565,-0.031160297,-0.007126146,-0.015222119,-0.054567274,0.002293505,-0.007746026,0.029757144,-0.034039877,-0.047849171,-0.019809121,-0.044859059,-0.028124090,-0.045129105,0.036510684,-0.020759316,0.037707563,0.040577710,0.045289643,-0.035350978,0.011045204,0.035920218,-0.041380093,-0.037886769,0.034709059,0.046221785,0.045634102,0.001103245,-0.022676488,0.039282225,-0.000390021,0.038791738,-0.014389699,0.052050486,0.045994345,0.044326670,0.042864535,0.000150431,-0.016999437,-0.015438415,-0.009080293,-0.052759167,-0.039409697,0.035878729,0.036830697,-0.036522083,-0.011081678,-0.003406040,0.049835410,-0.029379018,0.034692049,-0.052648686,0.038379230,-0.049760256,-0.004528487,-0.008201889,0.031136347,0.018986309,0.032320783,-0.012365401,-0.036692102,0.021477895,-0.005537750,-0.049982257,0.057240486,-0.007593039,0.015271276,0.028694687,0.034826078,0.012948196,-0.042348001,0.002297658,0.057096984,0.025242994,-0.008597285,0.032957349,0.053032748,-0.012736162,0.044228289,-0.009494724,0.028177569,-0.020564778,-0.047081444,0.019494504,-0.000396217,0.057048455,0.040555134,0.046660081,-0.039813016,-0.005554157,-0.008144991,0.006557992,0.044705544,-0.028384782,-0.008402368,0.056383129,0.038174808,-0.034762908,-0.050391860,-0.017822836,-0.036274016,0.004370113,0.017002435,0.031855658,-0.035458710,-0.055378560,-0.022208447,0.037934393,0.048554506,-0.057361957,0.014353781,0.015924713,0.034865230,0.035358783,-0.002587014,0.047255825,-0.036777932,-0.031614006,0.027394898,0.014128131,0.010180614,-0.026859542,-0.048100743,0.049238276,-0.047919240,-0.010335830,-0.005413265,-0.002209048,-0.021159006,-0.009685652,0.024446126,-0.042434145,0.031161150,-0.035522733,0.054163393,-0.025838366,0.027167195,0.035570804,-0.020471193,0.048009388,0.047814477,0.034213439,0.032846045,0.015302989,0.049670581,0.008615864,0.024995437,0.023260875,-0.055854905,-0.036800541,0.032466497,-0.008792181,0.034032997,-0.052433606,-0.042617418,0.051301122,-0.003377278,-0.048257649,0.023184648,-0.004500572,-0.054814011,0.023056461,-0.025544215,0.050136887,-0.004000986,-0.005136572,-0.020721022,-0.009453479,-0.010612044,-0.048392028,0.046296328,-0.021974104,0.011714407,0.019971184,-0.015919982,-0.041734222,-0.024035189,0.027971800,-0.004595486,0.042164177,-0.001821130,0.029812498,0.053500161,-0.005507472,0.030000234,-0.001459959,-0.029667351,-0.008423929,0.036534339,0.041282199,0.057395779,0.010416882,-0.043530926,-0.043052737,-0.023161307,-0.009053134,-0.034131538,-0.043218601,-0.053867243,-0.029409837,-0.031344105,-0.034683514,0.042460140,-0.055542141,-0.050298154,-0.004812548,0.043421041,-0.014171360,
0.024449453,-0.036356140,-0.059426133,-0.023454489,-0.010886835,0.046778496,0.032410331,0.030573422,-0.086740561,0.055758338,0.005194325,-0.059277467,-0.029452980,0.032531600,0.001972922,-0.083024643,-0.039149340,0.043811265,-0.029554266,0.035871785,-0.017601244,0.049187969,-0.052879158,-0.021212569,0.047629800,-0.039375737,-0.019765491,0.028112922,-0.025451023,-0.050973587,-0.042613957,-0.019068543,-0.008840010,0.048740372,0.009615921,-0.032445136,-0.065480277,-0.079282150,-0.048058491,-0.058849551,-0.059919655,-0.032112248,-0.023929004,0.046046060,-0.066472970,-0.077171534,0.000047137,0.050713707,0.037449390,0.009081668,-0.044513252,-0.027693449,0.023357254,0.023733618,0.046461888,-0.081875391,-0.014357695,0.005953291,0.035208352,-0.002931219,-0.037041642,-0.054876439,0.048987951,-0.032525204,-0.066422217,0.005359597,-0.004972680,-0.022619035,-0.059039917,0.013785845,-0.001826325,-0.004881394,0.031289145,-0.048017547,-0.034196187,-0.043374609,-0.026454637,0.050300512,-0.070549339,0.032316655,0.002657535,0.024634492,-0.047189143,0.014970841,0.046842057,-0.033657357,0.024442894,-0.065792575,-0.051373407,0.049991112,-0.059142921,-0.008759541,-0.076432593,0.001414580,0.032223891,-0.066383198,0.009932149,-0.071587831,-0.026857333,0.006611764,-0.047402792,-0.023920642,-0.031189086,-0.044578299,-0.048560452,-0.020326905,0.043346796,-0.061746355,0.025391150,-0.010625883,0.041582745,-0.058801621,-0.031529315,-0.054725099,0.045650665,0.002884938,-0.033817012,-0.057785641,-0.052935813,-0.050411891,-0.014866346,-0.056236472,0.013502142,-0.016286638,-0.021975989,0.009248197,-0.003977557,-0.001354384,-0.030536545,0.041635130,0.019884329,0.000244642,-0.020254133,-0.025669547,-0.047388934,0.027816929,0.041401293,-0.048989061,0.014640450,-0.031172996,-0.042685457,-0.007182470,-0.016190497,-0.072632685,-0.023156922,-0.020162787,-0.054048385,0.029730091,0.020366440,0.038236711,0.032562789,-0.063286602,-0.046001084,0.033775110,0.039011624,0.022048885,0.017011425,-0.033109952,-0.042366616,0.049178991,0.008386059,0.047593333,0.003616034,0.015454574,0.001446159,0.046490580,0.050547730,-0.023403510,0.024492299,-0.039749663,0.040190328,0.017099427,0.023478778,0.021075765,-0.056687854,-0.034332588,0.009537973,0.025625063,0.006021710,0.031297971,0.008596425,-0.025116943,-0.008291207,0.025972290,0.014445844,-0.017210333,-0.024231268,-0.002314125,0.051747087,-0.015954338,0.028419668,0.018412992,-0.034598660,0.031865433,-0.003941445,0.049199428,-0.073809437,0.036079302,-0.066314310,0.024513185,0.001998720,-0.043716464,-0.026646810,-0.021643130,-0.046218581,-0.024159566,-0.001372518,0.027537528,-0.051320132,0.021706533,-0.016029207,-0.018793993,-0.061053891,0.056327049,0.019182313,-0.075986058,-0.045463055,-0.077936947,-0.054142270,0.053314783,-0.010420796,-0.074481554,-0.029999528,-0.018447192,0.032182205,0.009049379,-0.037628613,-0.032041688,-0.004748771,-0.038932890,-0.007502324,-0.038337406,0.042378657,-0.023035154,0.030308476,0.015681265,-0.003324897,-0.000512537,0.040399883,-0.042390626,-0.016974719,-0.013787162,-0.067372307,-0.040205020,-0.055508934,-0.014966081,-0.031200374,0.039178278,0.007245126,0.002259324,-0.024174042,-0.044561308,-0.053042479,-0.041481584,-0.006268518,0.037444215,0.005267468,0.007176351,-0.038156785,-0.005661981,-0.072417460,0.017187240,-0.016145565,-0.048982251,0.045497347,-0.018782260,-0.003938541,-0.079434179,-0.024749968,-0.045316223,0.001922719,0.029396858,0.053054344,-0.041872133,-0.024170537,-0.067983657,-0.025896709,-0.047370590,-0.005313945,-0.007528861,-0.011962905,-0.031190423,0.028647747,0.042799443,-0.043521840,0.033293903,0.004000902,0.040265605,-0.067057922,0.023625355,-0.002000705,-0.006173334,0.003276055,-0.037724461,-0.051545549,0.013421224,-0.019709975,-0.014843578,-0.009461238,-0.054604884,
-0.055297442,-0.014644363,-0.009354302,-0.018165704,0.014288617,0.030264093,0.023470404,-0.014046930,0.027981242,0.048864026,0.014037287,-0.017097140,0.050287351,-0.048590250,0.038130809,0.039147861,0.030277772,-0.012394222,0.057323173,-0.040805750,0.044069685,0.040081728,0.024848154,0.033173826,-0.046819177,0.015995910,-0.005531961,-0.050522357,0.022414081,0.026604459,-0.039856609,0.026766181,0.027886041,-0.042023309,0.036771566,-0.017517950,-0.033364188,0.047125459,-0.042053185,-0.050524704,0.050806910,-0.011868723,0.009765193,-0.048904669,-0.016207119,0.046980258,0.032780401,-0.013861934,0.055680331,0.007447219,0.040472474,0.019467104,0.051685136,-0.024950316,-0.056009606,0.051694915,-0.015558688,-0.045612946,0.005915670,0.001250470,-0.050701931,-0.051601589,-0.032696482,0.046246842,-0.026754610,-0.041386746,-0.016930221,0.055139203,-0.028263835,0.014840256,-0.033350039,0.041380517,-0.025155507,0.053048607,0.051833004,-0.041499492,-0.043702215,0.057681199,-0.026511328,0.022322090,0.004067780,0.003859980,0.031705480,0.036196835,0.056844678,-0.028233107,-0.041983809,-0.054438304,-0.029498657,-0.051987510,-0.011542833,-0.055683058,-0.015276645,0.056798343,0.039925452,-0.028425906,-0.046250135,-0.046428226,-0.027613694,0.036899071,0.000512465,-0.008210469,-0.036598671,-0.050817195,0.044340324,0.024744658,-0.002522329,0.012971920,0.014885940,0.014466914,-0.041927319,-0.047654152,0.030259507,-0.019304138,-0.008545410,-0.052126639,0.024820291,0.033706959,-0.015116988,0.013489919,-0.017362792,0.020309649,-0.019481009,0.034428801,0.003491606,0.019777782,-0.043540742,-0.055443026,0.039128840,0.050051492,0.006172604,0.018195838,-0.019593164,-0.050722189,0.043269299,0.011673542,-0.049927454,-0.032933626,-0.001192246,-0.016145146,0.010063247,-0.030130828,-0.003471073,0.039840918,-0.033792101,-0.032380823,0.040129725,0.039731707,-0.022598924,0.011199681,-0.000426829,0.003887458,-0.031625427,0.044204000,-0.037033428,-0.010907624,0.026588226,0.008136052,-0.016666174,0.013336388,0.057278700,-0.023437990,-0.051249877,-0.040979728,-0.002457460,-0.007259020,-0.019235499,0.010445114,-0.042831536,-0.046602663,0.048401665,0.014257693,-0.056947533,-0.021033559,-0.002555955,0.010170119,0.037980020,0.020412581,-0.042771507,-0.005915804,0.013433167,-0.052985337,-0.036474254,0.001898656,0.007116002,-0.051350694,-0.055070233,-0.020756140,0.052472860,-0.056632813,0.036578532,0.039177023,-0.054192904,0.053102840,0.039870284,-0.023544101,-0.000367264,0.040525556,-0.008329516,0.008779057,-0.000773117,0.043380536,0.046351735,0.031558413,0.049711108,-0.020384800,-0.002029954,-0.023560425,-0.038330697,0.015687536,0.053066872,-0.019728262,-0.002839835,0.025172753,0.028921567,0.015971629,0.008611882,-0.036360376,-0.054249518,0.022500876,0.043517787,0.033260953,-0.020569911,0.042195905,-0.001785932,0.021123854,-0.024828019,0.046247840,-0.038382526,-0.010945668,-0.025261207,0.025067229,0.054459509,-0.052450884,0.015783273,0.034166101,-0.020499628,-0.024261182,0.011964522,0.043060150,0.048222315,-0.041640706,0.005752630,-0.033689715,0.036237162,0.009219277,-0.052927550,-0.029945578,0.000848364,0.045701716,0.052036446,0.021979166,0.011092606,0.036281798,0.030308811,-0.022819106,-0.010595430,-0.013172883,-0.041825291,0.004484567,-0.028139830,0.050695691,0.014857086,0.010147093,-0.022647642,-0.056566484,-0.021445110,0.017464263,0.019090470,0.025238577,0.019806502,0.018399104,0.000178003,0.039446641,-0.051558074,0.010136077,0.026878195,-0.015232409,0.016015166,-0.049122579,0.046376619,-0.056145646,0.054855112,0.047983352,-0.026806664,-0.023786126,-0.026529051,0.056286592,0.014506880,0.017772812,-0.046732612,-0.022428917,0.048093203,0.037392426,0.042332798,0.011078720,0.042095046,-0.054543223,0.028910333,0.029871313,
0.008071356,0.016319081,0.047944184,-0.037480630,-0.012890777,-0.007684018,-0.006248313,0.039674837,-0.004751728,0.030955849,0.009850770,0.045390390,0.028112613,0.048501354,0.011796035,-0.017311228,-0.049030621,0.052124597,0.044987328,-0.002147238,0.040863443,-0.024901608,-0.011888575,0.039214738,-0.032559089,0.008463698,0.003809775,0.010137109,-0.022429956,-0.037845097,0.050570354,0.031562351,0.007598942,0.031508382,-0.056234878,-0.031457108,-0.002301479,0.056281414,0.018952770,-0.052165374,-0.051008228,-0.020143008,-0.032421511,0.098972291,0.036824062,-0.015646892,-0.057419430,-0.029801428,-0.019342508,0.035677940,0.030436261,-0.015144492,-0.011446143,0.014570744,0.005228525,0.014071787,-0.000048713,-0.034644626,0.078461051,0.025167707,0.030502582,-0.035384126,-0.036831956,0.036053509,0.044017445,-0.046595190,-0.024455678,-0.043507915,0.042382009,-0.039727990,-0.026949802,-0.041232456,-0.004069248,0.032529648,0.036943018,-0.036995046,0.034008700,0.015106076,0.006569715,0.005689114,0.051103149,0.009686721,0.054708574,-0.009951720,-0.047401533,-0.052505795,-0.040029395,0.006195938,0.024754047,-0.045842309,0.056853954,0.020467592,-0.036874916,-0.015269254,-0.041877445,-0.012937995,-0.023043724,-0.033905122,0.016004357,-0.042696040,-0.008873641,0.052464534,0.052115299,-0.030772965,0.052464496,0.069678448,0.054029845,0.024393877,0.016658522,-0.057432137,-0.016803566,0.016267227,-0.038226143,-0.027195627,0.034340389,0.055794191,-0.049281873,-0.031682674,-0.050569188,-0.034856111,0.027707089,0.023719724,0.031361569,0.005382693,-0.049081974,0.032828223,-0.051343109,-0.035670429,0.044931673,-0.079430863,0.055983759,0.003865696,0.042208984,-0.004338585,0.013703896,-0.046519373,-0.048729628,-0.053472798,0.040744185,0.043500468,-0.000295635,0.009323552,0.045639250,0.004779472,-0.020457832,-0.004616068,-0.058367055,-0.001307143,0.009827820,-0.023883544,0.028776072,-0.001680625,-0.023451716,-0.038805682,0.054858398,0.007345081,-0.055284947,-0.042286873,0.007735106,0.006974564,0.026757129,-0.014582793,-0.030273169,-0.028244518,0.014593214,0.020987179,0.053866517,-0.020200375,0.006815494,-0.051969778,0.027470006,0.031093344,-0.024971059,-0.056659065,-0.002375120,0.005508968,-0.020005910,-0.049161922,-0.052234042,0.009805474,0.012321603,0.053601973,-0.041710768,0.008210273,-0.014714508,0.019376818,-0.010652293,-0.016562857,-0.034032796,0.023465514,0.062083654,0.056309160,0.049627803,0.001493359,0.055928569,0.048373539,0.022003770,0.023012768,0.004222370,0.035088241,-0.050731290,-0.050897680,0.042336315,0.054551892,0.029839275,-0.015321353,0.011224246,0.029929284,-0.019004883,0.039789885,-0.009095459,-0.027787570,-0.004990985,0.008974064,-0.049646266,0.018434504,0.012463562,-0.047232214,0.040452350,-0.064074837,-0.049060769,0.004503500,-0.031846337,0.054218464,0.055047542,0.013681944,0.025837567,-0.040672109,-0.050953630,0.016886489,0.010020351,0.005124040,-0.028179960,-0.010250084,-0.047559254,0.011455970,-0.022413120,0.050490469,0.051748432,-0.064469934,0.012247372,0.019777967,0.041957460,-0.035874866,0.021754330,-0.051765796,-0.013419530,0.050588463,0.051466435,0.020051789,0.025803272,0.022188004,0.001409107,0.004151827,-0.033619616,0.030869205,-0.045233224,-0.006732399,-0.051451206,0.027761808,-0.025617087,-0.033528563,-0.000356038,0.038940527,0.030931642,0.053875923,0.030929180,0.017830443,0.051453561,0.033743732,0.025548762,0.030896198,0.016932132,-0.017415609,-0.027562430,0.040669911,-0.023595823,0.050436143,-0.052572668,-0.015152974,0.004288880,-0.043192852,-0.007696885,-0.039416403,-0.038918667,0.014934193,0.013788543,0.048624247,-0.048777826,-0.006028024,-0.055371806,-0.040974490,0.021972932,0.025441101,-0.047422696,0.012224101,-0.047469839,-0.039987672,-0.020664321,0.018220266,
