// Neural Network File Format by Kyle Julian, Stanford 2016
2,3,7,1000,
3,1000,7,
0,
0.0,0.0,0.0,
0.0,0.0,0.0,
0.0,0.0,0.0,0.0,
0.0,0.0,0.0,0.0,
0.304592758,-0.251588851,-0.107740052,
0.276451975,-0.538828552,0.351746887,
-0.115168564,0.318013579,0.084026031,
-0.074497022,0.145750508,0.022303566,
0.216458291,-0.221188858,-0.036484592,
-0.046982411,0.057672314,0.001186613,
0.504700363,0.179665700,-0.215008840,
-0.350836545,-0.129662707,-0.243240416,
-0.185011029,0.027644455,0.344174504,
0.307717711,-0.583484232,0.361986041,
0.164991841,0.586379111,0.386624843,
-0.526045561,-0.548949480,-0.278474569,
0.506978035,-0.096168652,0.247082502,
-0.273588061,0.599017560,-0.250020385,
0.440193176,-0.012151969,-0.307354450,
0.302191675,-0.302296996,0.175260618,
-0.173956051,-0.093442477,-0.547613919,
-0.275270045,0.313289881,-0.140340731,
0.582216740,0.468932003,-0.032055818,
-0.390607685,0.331334263,0.185789272,
-0.369190902,0.360553265,0.353418112,
0.507061899,-0.327068537,-0.100021958,
-0.013356719,0.047513027,-0.436195523,
-0.403187633,0.287671864,-0.131399751,
0.277750731,0.039607272,0.184705943,
0.120979711,0.235114887,0.281239390,
-0.534069657,0.329544246,-0.403838396,
-0.429176003,0.052782308,-0.102034628,
0.339091688,-0.334364116,-0.513253927,
0.424742520,-0.092449918,0.329775125,
0.185609192,-0.432940692,0.115988679,
0.131904274,-0.368384629,-0.274528235,
0.192781836,0.126969784,-0.252671450,
-0.170069993,0.568389535,-0.100861192,
0.321768761,0.289178759,-0.369531661,
-0.490777224,0.578909218,0.036057796,
0.402579188,0.158865124,0.192083225,
0.438770264,0.566454709,-0.390717715,
0.067382999,0.462400347,0.412405521,
0.358672202,-0.417839289,-0.415752351,
-0.349165052,0.072531559,0.575424731,
-0.368599981,0.290488690,-0.326487809,
-0.535653114,-0.146733180,0.326194376,
0.528932452,-0.356940657,0.130342782,
0.492414385,0.413710922,0.354826182,
0.404174000,0.403331548,0.147494540,
-0.394803733,-0.484834790,-0.264553785,
-0.063041501,-0.397159457,0.216469407,
0.175587937,-0.147833556,0.222076938,
0.182105526,0.387679398,0.382606626,
-0.191725239,0.575535357,-0.061205853,
-0.025961950,-0.510149419,-0.364397645,
-0.330593258,-0.252216429,0.403451860,
-0.188667119,-0.431442976,0.222135454,
0.184749976,0.413507253,-0.301618159,
0.121095642,-0.184499398,-0.136725098,
-0.459639460,-0.268907726,-0.182163045,
0.250712961,0.132448301,0.149331182,
0.571963191,0.587819219,0.387068063,
0.018384878,-0.399405956,0.451204807,
-0.151824027,-0.059590939,-0.490634680,
-0.107472591,-0.406541467,0.524244785,
-0.499131441,-0.450034559,-0.019604672,
-0.313222140,0.193510368,-0.229478121,
-0.278761506,0.040122278,0.425533235,
-0.402226537,0.306072026,0.366301328,
0.561253726,-0.448172271,0.145203769,
-0.422424793,0.520045519,-0.221288577,
0.347768515,0.017188553,-0.044965565,
-0.025322985,0.106336623,0.279312849,
0.085226566,0.196128577,-0.519311547,
0.415988982,0.484062225,0.477032483,
0.419568032,-0.387166589,-0.206265107,
0.509064317,-0.439743757,0.523784399,
-0.454083681,-0.406690449,0.282253861,
-0.407642871,-0.151767209,0.413376451,
0.452222139,0.541343451,-0.124111153,
-0.452701032,0.545487463,-0.130171314,
-0.242334574,0.113431759,-0.399614215,
0.382721305,0.396543086,-0.452740252,
-0.467071295,-0.080208413,0.236176312,
-0.020509655,-0.279060960,0.006953732,
-0.542670131,-0.408048660,-0.384335905,
0.478325158,0.540729821,-0.190585345,
0.029629637,0.281922251,0.075799800,
-0.282494038,0.326260507,0.348251015,
-0.034292616,-0.049933754,0.517501473,
0.497928143,-0.315197349,0.558278322,
0.148685008,-0.404827207,0.321559340,
-0.437759697,0.536647499,-0.369367719,
0.158716112,0.171227068,0.132752657,
0.485398322,-0.276083529,-0.240130723,
-0.500315249,-0.023694284,-0.273502678,
0.024799705,-0.147354871,0.186176047,
0.493900537,0.202707097,-0.190703452,
-0.278161317,-0.498255014,0.491233438,
-0.112904154,0.086469680,0.018615110,
-0.374786019,0.331804186,0.329938799,
0.029075338,-0.328101754,-0.245319948,
0.001375539,-0.320767969,-0.314512640,
-0.086121641,-0.166248232,0.141728386,
-0.151753932,-0.076535352,-0.220363945,
-0.522849023,0.528001487,0.109472692,
0.512262046,-0.072365671,-0.152196094,
-0.541774809,-0.225460023,0.379910111,
-0.558242440,-0.236011326,0.350257516,
0.328936517,0.193002060,-0.120778903,
-0.043714456,-0.109642759,-0.212834641,
0.233901277,-0.230170354,-0.317604959,
0.136189997,-0.412178874,-0.117728792,
0.300281733,0.223114371,0.498819679,
-0.387059808,-0.002001456,-0.171214804,
-0.315455347,-0.362786263,0.148256555,
0.065342978,-0.321847290,-0.401405215,
-0.472436577,0.585228980,-0.105534099,
-0.133503735,-0.212302074,-0.288770854,
-0.523455918,-0.340535522,0.348354965,
0.126541212,-0.203665301,-0.218187824,
0.363468081,0.449644268,0.550996482,
0.162903205,0.315645844,-0.050898511,
-0.337539524,-0.565619528,0.351660728,
-0.088348433,0.244289473,0.022049801,
-0.538853109,-0.283245057,0.162427247,
-0.122382253,-0.553074777,0.207982227,
0.017146174,-0.190517515,0.227968231,
0.121889919,-0.212928519,0.518661559,
0.289644808,0.072493635,-0.110880934,
-0.495958835,0.486873478,-0.145071462,
-0.366487712,0.363584340,0.198562324,
0.138936624,-0.095486730,-0.187197015,
0.099466220,0.485307336,0.080351159,
-0.268459111,0.607936203,0.018272500,
0.463148773,0.147980899,0.524881244,
0.327379942,-0.277352899,0.399022490,
-0.002907441,-0.495845228,-0.113441035,
-0.526663840,-0.304389447,-0.403486490,
0.389853001,-0.128483444,-0.093327165,
0.269446015,0.227730647,-0.373767495,
0.208221346,0.269263387,-0.465473235,
0.501969635,-0.351306617,-0.225773290,
-0.471297354,0.561630607,0.110332146,
0.479523569,0.031158479,0.307875097,
-0.179163143,-0.475793511,0.098132677,
-0.055789042,-0.079696618,-0.277442783,
0.005522608,0.182091191,0.215269729,
-0.472391933,0.263152957,0.066424377,
0.391726851,0.405639678,-0.453956604,
0.554441094,-0.567795575,0.331898928,
0.043779306,0.312638938,-0.306671917,
0.347100914,-0.285691828,-0.510317564,
0.196173012,0.342877656,0.572267234,
-0.064489625,0.543678164,0.363780707,
-0.291763455,-0.440362751,0.329265028,
-0.311632991,0.239902958,-0.488754541,
0.416546017,0.154971719,-0.073622890,
0.257658035,-0.433652312,-0.118692063,
0.010836882,-0.328370571,-0.142084926,
-0.255374581,0.586836696,0.485921383,
0.500111282,0.494095176,-0.549146891,
0.186095148,0.205524355,-0.416142732,
0.234023616,-0.313279897,0.091808349,
0.194824353,0.534836352,-0.297346145,
-0.451365292,0.567137599,0.241905555,
0.275719106,0.244916826,-0.209866360,
0.342106998,-0.501464307,0.075149141,
0.268483102,0.407761067,-0.295979679,
-0.385941446,0.194783136,-0.451894283,
-0.485249072,-0.513983190,-0.274518818,
-0.110203348,-0.341903001,-0.244118795,
-0.517917693,0.363534153,-0.126668155,
-0.359664142,0.190297261,-0.436060727,
0.411119699,0.369753450,-0.573799551,
-0.453188837,-0.380691200,-0.312537700,
0.077345438,-0.565818429,-0.422532558,
0.263667256,-0.189089432,-0.229740605,
-0.481568694,0.213483304,0.033650577,
-0.223163292,-0.353559971,0.122786440,
0.153671965,0.236575052,0.169842407,
-0.080845803,-0.469843149,0.362156242,
0.000632759,-0.382306308,0.498173386,
0.321900368,-0.453756571,-0.288338572,
-0.201960549,-0.329941660,0.275100768,
-0.407132506,0.575171888,-0.237160265,
0.340795666,0.019661590,-0.253913492,
0.378788501,-0.416221857,-0.298718125,
0.072655037,0.493841261,-0.241836697,
-0.357058167,-0.364311874,-0.249049380,
-0.197107285,-0.124555871,-0.331890583,
0.180448040,0.004688945,-0.377222329,
-0.323834479,0.107108958,-0.015720656,
0.415351152,-0.080663204,-0.474667788,
-0.430398792,-0.148804232,-0.128494754,
0.062187072,-0.147949308,0.207514673,
-0.188290343,0.419386446,0.138131738,
-0.173808157,0.553725660,0.152933732,
-0.385357380,-0.326350033,0.354782820,
0.270224661,0.495457768,-0.041075364,
0.399746954,0.309610426,0.171394438,
-0.132428139,0.588906050,0.114451602,
-0.142107368,-0.031982910,0.563873112,
0.389164448,-0.049379952,0.567402661,
0.246414825,-0.342300981,-0.518523633,
0.339531332,0.529310107,-0.329519123,
0.244845271,0.032383308,-0.131254271,
-0.156987563,0.160619751,0.127280474,
0.385470718,0.190853834,0.255501032,
0.505194843,0.205304891,0.078619622,
-0.206042498,0.404622346,0.092056543,
0.379424155,0.573192358,-0.136655614,
0.402712882,-0.100523353,0.514807582,
0.454429686,-0.206942901,0.020706018,
-0.257618576,-0.268131226,-0.111461885,
-0.003936200,-0.201260328,-0.545017660,
-0.349197268,-0.049336880,-0.184307709,
0.423250496,0.502595723,0.363230735,
0.261050463,-0.452314526,0.550943851,
-0.508766890,-0.189807832,-0.406348050,
0.207615197,-0.480422109,-0.284630448,
-0.372403443,-0.333904564,-0.262980580,
0.574835122,-0.039605215,0.182253629,
-0.573232949,0.548412144,-0.119713336,
-0.536223769,0.436587960,-0.160689756,
0.524310231,-0.392154843,-0.536030769,
-0.441061318,0.251177520,-0.058443580,
-0.531264663,0.133466944,-0.033154652,
0.203493148,-0.298790127,-0.407069802,
0.399048686,-0.274856091,0.411667079,
0.468118936,-0.403759986,-0.266181707,
0.069501795,-0.544363976,0.177308708,
-0.240559906,-0.255984247,-0.446330279,
0.270095140,-0.367914766,-0.461477131,
-0.146417037,-0.320251584,-0.555733502,
0.227814466,-0.196762994,0.397218466,
0.406406760,-0.368217051,-0.336579353,
-0.200019419,0.320736021,-0.015306825,
-0.213286743,0.364828438,0.554569602,
0.432324886,-0.437840641,-0.114421941,
-0.117262132,0.517687738,-0.302847981,
-0.326374412,0.038885716,-0.138887152,
0.218537182,0.070178002,-0.344708800,
0.415509880,0.339174092,0.119134977,
-0.521270216,0.245910898,0.386738092,
0.166244626,-0.219103843,0.044255994,
-0.226535112,0.559816360,0.551746190,
-0.067281142,-0.388439775,0.339627773,
0.291345328,0.273381263,-0.435403854,
0.195771560,-0.246384397,-0.507463515,
-0.398969442,0.252440602,0.222817525,
-0.499815911,0.320512116,0.435614973,
0.445059866,0.351462662,-0.087826557,
0.380497247,0.487977862,0.300362945,
-0.422782362,-0.194611132,0.465020061,
0.433996230,0.409291804,-0.240904257,
-0.114343196,-0.430131465,-0.329032481,
0.443193585,-0.473876894,-0.142677844,
0.116775706,-0.348526418,0.131626248,
-0.088622250,0.265334189,-0.439631075,
0.084885195,-0.521201551,0.363661528,
0.566823959,-0.201752350,0.091299735,
-0.294421226,-0.368715733,-0.295463800,
-0.270704061,0.127014562,-0.066868924,
0.040481653,-0.442441434,-0.362727195,
-0.503509402,-0.408332735,0.489806145,
0.219888568,-0.545477986,-0.090957582,
0.042853318,0.277949929,0.533429205,
0.147120669,0.414414704,-0.213118881,
-0.018864386,-0.348526955,0.133004412,
0.539557636,0.400489032,0.581438243,
-0.263686746,-0.062145974,0.116820849,
0.464173794,-0.530724049,-0.283543080,
0.083750740,-0.333710551,0.215675354,
-0.039360829,-0.149607599,0.309637785,
0.406212538,0.595572770,0.260998636,
-0.022867272,0.479334265,0.466605395,
-0.287074208,0.301429957,0.066148557,
-0.243755907,-0.153628990,-0.131120801,
-0.397584409,-0.212548986,0.191964626,
0.423842937,0.043855686,-0.559106886,
0.304517031,-0.171163574,0.512598515,
-0.550708950,-0.127588958,0.441807002,
0.249481082,-0.279123724,-0.493296772,
-0.010167792,0.242797554,-0.485892862,
-0.482951015,-0.027102612,-0.121245995,
0.371086806,-0.559414566,-0.091830440,
-0.440353721,-0.110659413,-0.290228844,
0.174796805,-0.470048577,-0.446598440,
-0.322585136,-0.500358820,0.369957358,
-0.077216126,-0.315908849,0.410048157,
-0.127259865,0.309727162,-0.172994882,
-0.485973924,0.092449792,0.360189557,
-0.562934875,0.060100023,0.115072340,
0.070146218,0.014496831,-0.172426119,
-0.455670148,0.101840504,-0.394628167,
-0.478597939,-0.192591757,-0.388618022,
0.183008999,0.417126715,0.455993921,
-0.354090542,0.356449723,0.406744450,
0.001944015,0.273981839,0.320519835,
0.449002117,0.316473514,0.253328055,
-0.219132796,-0.321894646,-0.273770750,
0.481689215,-0.156528205,0.026463121,
-0.538428247,-0.025645763,-0.162870482,
-0.368657261,0.472972780,-0.460548192,
-0.082531981,-0.040936247,-0.522677422,
0.347074270,-0.209725648,0.261442959,
0.323024482,0.510879517,0.145463511,
0.436973035,0.570759475,0.119951829,
-0.123259097,-0.154540449,0.099163145,
0.213232309,-0.540800571,0.438078105,
0.096188009,-0.532540202,0.190355539,
0.362062335,0.230960503,0.464686573,
0.011935858,-0.478976578,-0.001309681,
0.423709095,-0.284125417,0.251661599,
0.129418850,-0.092951447,-0.001052727,
0.240632117,-0.394117832,0.359548569,
0.394307464,0.318636626,0.579438627,
-0.019908648,-0.415010780,0.031802319,
-0.161796868,0.197978243,0.482519895,
-0.312208891,0.017948966,0.567977011,
-0.466412097,-0.096711598,0.566156328,
0.410640210,0.178989932,-0.256592065,
-0.059300810,-0.512621701,-0.538104296,
-0.535867572,0.568634868,0.452748567,
0.229018211,-0.145015433,0.497093856,
-0.145565882,0.387069494,-0.025159130,
-0.277172744,-0.157357410,-0.117681593,
-0.521755576,0.165846482,-0.177939504,
0.268967152,0.368156999,-0.086243607,
0.275891960,0.138787732,0.380691081,
-0.372338176,-0.050688751,-0.192390367,
0.511311829,-0.513659894,-0.319075108,
0.062254548,0.559139788,0.397610456,
-0.545844257,-0.402135849,0.565386891,
0.082420155,-0.530167282,-0.176078230,
0.246557832,-0.097340189,-0.437007993,
-0.361947358,-0.294222176,-0.017111408,
0.233497262,0.315550804,-0.287822127,
-0.096871428,-0.445764005,0.436617285,
0.578722179,0.573508620,0.234703854,
-0.123112462,-0.014392448,0.208298698,
-0.507046819,0.064380854,-0.476607502,
-0.577250540,-0.019297091,-0.183800116,
-0.373269111,0.103196308,0.030294130,
0.088765360,-0.322473466,-0.566169977,
0.012635607,-0.235532612,-0.194645718,
0.420461267,0.116931900,0.259241253,
-0.166942507,-0.455924600,0.120709114,
-0.389781088,0.057159472,-0.443170100,
0.436975867,-0.400446445,0.506566882,
0.411651760,0.450694978,0.353190124,
0.126666635,-0.027013337,-0.005252240,
-0.229624629,-0.530698359,0.526239932,
0.033588480,0.286726058,0.026744490,
0.158952102,-0.378658980,-0.441363007,
0.433399260,0.211901098,0.278360307,
-0.570384860,0.074649066,-0.544468522,
-0.072052844,-0.056489073,-0.398774117,
-0.578582168,0.010050452,0.525831640,
0.514570296,-0.343368769,-0.108094878,
-0.477894843,-0.453351557,-0.163231254,
0.560525596,-0.150622025,0.033404395,
0.548242331,0.109470055,0.471217692,
0.387199014,0.580944002,0.104541935,
-0.466892958,-0.496673197,-0.298304021,
0.481893897,0.304872900,0.173964426,
-0.432283849,-0.421857536,0.465679437,
-0.059931125,-0.574850798,-0.071373157,
-0.138607159,0.008708768,0.241626084,
0.226392388,-0.485603303,-0.001015677,
-0.280279607,0.409826428,0.278764874,
0.310689747,0.558295071,0.278886974,
-0.569924951,0.138676763,-0.389184535,
0.074920096,0.013054712,0.579981387,
-0.394458711,-0.565665424,-0.154775575,
0.086920053,0.458425671,0.465791672,
0.443704247,0.212900549,-0.167909369,
-0.117099158,-0.319028318,0.107888244,
-0.401512831,0.198496640,0.372858912,
0.484156817,-0.542587698,0.478149116,
-0.367830426,-0.050509702,0.532060981,
0.319484144,-0.216478586,0.347347260,
-0.559005022,0.488531381,0.559167624,
-0.021684445,0.067148902,-0.129440352,
-0.369412780,-0.240426689,-0.045106549,
-0.472338557,-0.466622680,0.063362561,
-0.375667125,-0.314047366,-0.004992878,
-0.299011528,0.529237628,-0.203403428,
-0.326673895,-0.129975334,-0.473954976,
0.292788267,0.531809390,-0.338533044,
-0.218382061,0.516795099,-0.416013747,
0.156369299,-0.470404834,-0.513868034,
0.006154547,-0.324502110,0.318209857,
-0.172014832,-0.023798998,-0.297122627,
0.231368333,0.573739707,-0.088429779,
-0.348960578,-0.527152836,0.547178149,
0.248256505,0.243354902,0.103213191,
0.288966238,0.184285581,0.283792257,
0.366720766,0.089309618,0.504307866,
0.359008074,-0.017673772,-0.257871866,
0.041559648,0.485241622,0.371245921,
-0.235222384,-0.114551120,0.228984654,
0.223678634,0.563809037,0.287644446,
0.188027084,0.117799051,-0.535518706,
-0.212706015,0.061104599,-0.401640922,
-0.501637340,0.410342097,0.199450105,
-0.458840787,0.013578792,0.332794517,
0.327802688,0.522459805,-0.223928794,
0.257077754,-0.468336284,-0.071215890,
-0.360109866,-0.111156881,0.322671324,
0.287823468,-0.303694725,-0.143164635,
-0.122845426,-0.254549384,-0.310218543,
0.427751631,0.380479991,0.488242626,
-0.313362598,0.425596535,-0.169964790,
-0.139323235,-0.180633113,-0.033436731,
-0.255116582,0.050918125,-0.370416254,
0.237457246,-0.484179109,-0.209302932,
-0.407820731,0.426901132,0.390624017,
-0.454054296,-0.319462895,0.511581779,
0.163468912,0.377292037,-0.449244648,
0.264154792,0.395193517,-0.130419984,
-0.030719133,0.401726991,0.150070414,
0.167787448,0.031490300,-0.242600411,
-0.357314259,0.557365716,-0.052674770,
0.519825518,0.463967413,-0.309623539,
0.039243344,-0.147678971,-0.010483158,
0.374851197,0.350652844,-0.332679659,
-0.285679072,-0.410151392,-0.490192533,
0.374810606,-0.352724463,0.012742920,
-0.000784336,0.098769017,-0.033779494,
0.305322766,0.086617053,0.421133190,
0.117887065,-0.014067045,0.075666271,
0.380762666,0.108778059,0.399635077,
-0.054748014,0.005006024,0.485057592,
-0.546189487,0.038071893,0.533502996,
-0.282826841,-0.094939403,-0.034186278,
0.188127607,0.215678632,0.127731815,
0.221007064,-0.249690592,0.237230584,
-0.179556325,0.395702243,-0.166583881,
-0.487911910,0.068019785,0.306929410,
-0.022627490,0.007494342,0.002045769,
0.313815117,0.083560057,-0.523300707,
-0.419346452,0.027536755,-0.038832027,
0.551432312,-0.125118271,0.445265293,
-0.486917883,-0.548722088,-0.053110309,
-0.358347327,-0.150074005,0.057910599,
-0.496958762,0.432646841,-0.350326538,
0.439149439,0.202686489,-0.114710107,
-0.512997031,0.103238896,-0.330089509,
0.503976047,-0.512797654,-0.147127196,
-0.318189174,-0.371327072,-0.301128566,
-0.057238877,0.039057586,0.097799681,
0.288885087,-0.273582101,-0.352710694,
-0.118038379,0.561951876,-0.065002777,
-0.480033070,0.438268781,0.133284703,
0.097025380,0.106555507,0.402910143,
-0.267799735,0.457450658,0.549566507,
-0.154517010,0.396953017,0.313426107,
0.534151614,-0.151253626,-0.336334705,
-0.214312941,-0.392799258,0.019807089,
0.549839497,0.553364694,0.429444969,
0.063601844,-0.019521276,0.386783898,
0.343022436,-0.049587864,-0.153119728,
0.222519472,-0.039041344,-0.403461516,
-0.267763942,0.449782670,0.486243278,
-0.221018955,-0.096283101,-0.278945714,
-0.181280002,0.562063694,-0.519762278,
0.275502950,-0.518915355,-0.275449753,
-0.117569186,0.040005930,-0.093760446,
-0.263914943,-0.257519066,-0.351164639,
-0.395641387,-0.390034854,0.547990143,
-0.266808480,-0.484761924,0.391601264,
0.231546283,0.429655135,-0.581861019,
-0.549569309,-0.409772247,-0.304150075,
0.002397971,0.281205207,0.343503773,
-0.503875196,0.234383330,-0.338744670,
0.132709771,0.181269065,0.092394330,
0.197730064,-0.000334889,0.377197027,
0.115437396,0.501022100,0.118338220,
-0.313070565,0.378172308,0.038046543,
0.551546335,-0.037799872,0.564384937,
-0.344002932,0.299841553,-0.436821550,
0.403002948,0.112226777,0.334988177,
-0.497201443,-0.574320436,0.278189152,
-0.237529382,0.228655428,-0.342535347,
-0.171908841,-0.022083383,0.342353076,
0.326039523,-0.051572610,-0.163304016,
-0.014443061,0.326946557,-0.495681375,
-0.176417142,-0.556563556,0.083338134,
-0.067058980,0.366285503,0.458854496,
-0.493653685,-0.255513400,-0.092814580,
-0.005757254,-0.131790608,-0.363006532,
-0.223087505,-0.014868514,0.464291900,
-0.139649749,0.411169052,-0.474245399,
0.025818722,-0.450547785,-0.541766167,
0.062704474,-0.271013588,0.430206954,
0.456026167,-0.574650347,-0.040235877,
-0.106146544,-0.311205119,-0.395473629,
-0.251324058,0.291787922,0.144136697,
0.354645222,-0.026926182,0.306691468,
0.110636793,-0.163146287,-0.031130573,
-0.519563198,-0.035130553,-0.184392825,
-0.197336555,-0.208769739,-0.133219376,
-0.426244736,0.033880048,-0.023463719,
-0.158605963,0.514418960,0.394404113,
0.168307468,-0.236401275,0.079116605,
-0.403771758,0.420421720,0.535039008,
-0.089654535,0.416980386,0.539830625,
-0.038514573,-0.200317755,0.022713751,
0.095411293,-0.534437120,-0.036016185,
-0.213659599,0.416035593,-0.022029566,
0.383815914,0.496969402,-0.174488172,
0.120732099,-0.069472753,-0.254251927,
-0.322537750,0.020666633,0.178410307,
-0.098359153,0.126645952,0.362152934,
0.235902905,0.233298495,0.157472640,
-0.450771779,-0.391411811,-0.423811436,
0.372250438,-0.543052375,-0.424187511,
0.374465227,0.381192982,-0.548628986,
0.339234024,-0.132688582,0.130013049,
-0.369255364,-0.082209326,0.135745749,
0.435497433,0.384876311,-0.319674164,
-0.378705651,-0.035133909,0.181196585,
0.316560328,-0.575331271,-0.047179889,
0.017834943,-0.265861392,0.462447554,
-0.153257221,-0.550444245,-0.344722837,
0.018511586,-0.429646224,0.131873339,
0.568591952,0.031039070,-0.149958819,
0.547277451,0.451920986,0.385297775,
0.043795053,0.026394309,-0.447750717,
0.063202158,0.553559184,0.036477309,
-0.519743800,0.344487488,0.512043774,
0.477025419,0.020181106,0.103452571,
0.093432903,-0.236628249,-0.084241740,
0.469685018,0.027098492,0.546690941,
-0.383399278,-0.084378086,0.006765686,
-0.339725316,0.461239994,0.404214025,
-0.317596644,0.541983604,0.534766436,
-0.346492290,-0.013656184,0.582260430,
-0.374818593,-0.090449318,-0.396213830,
0.410330832,0.116128363,0.236700565,
0.420903116,-0.085009716,-0.583706319,
0.028272144,-0.044680215,0.209386274,
0.262593389,-0.271026611,-0.232365966,
0.359312624,0.195873886,0.126303479,
0.250818610,0.307969660,-0.417764932,
0.046102356,0.055194139,-0.557700396,
0.122522838,-0.007703571,0.447830975,
-0.557554603,0.579260051,-0.279529303,
0.335996747,0.449273318,-0.078820087,
-0.295381755,-0.095853366,-0.360069633,
0.073328294,0.275870383,0.117997497,
-0.337278545,0.343451142,0.524224639,
-0.182882577,0.307093590,-0.030833261,
0.225940675,-0.392066509,-0.486070752,
-0.016390590,-0.486469269,0.207978383,
0.536957800,-0.094561934,0.004908443,
0.084177732,-0.309266627,-0.033083521,
0.144089177,0.492377400,-0.486082524,
-0.006274977,-0.513130188,-0.045673676,
-0.010026147,-0.235776722,0.359579682,
0.391703904,-0.226142734,-0.084907830,
-0.184212297,0.023062767,0.197537690,
0.539390385,-0.527039647,0.240091980,
-0.347683936,-0.471476942,0.444622308,
-0.168199465,-0.325463146,0.154398665,
-0.120136172,-0.528460801,-0.301150024,
-0.238246381,-0.025088904,-0.375783503,
-0.552346468,0.353437513,-0.490108758,
-0.064843908,0.503288627,-0.220186725,
-0.376162320,0.148456365,0.498108357,
-0.063670620,-0.034066495,0.269766778,
0.072319098,0.110600740,0.305520803,
0.262421072,-0.413470507,-0.227926016,
0.389893770,0.119137727,0.128374979,
0.548541188,0.391664267,0.228172630,
0.557760477,-0.503763914,0.095026121,
0.150748655,-0.100390688,-0.271118969,
0.106570043,-0.477235436,-0.245966703,
0.438481420,-0.212120444,-0.166217536,
0.258966118,-0.146065906,0.084795445,
-0.584313691,0.376450241,-0.520962417,
0.076907210,-0.572807074,-0.495529532,
0.457393378,-0.351820350,-0.014256560,
0.021658584,0.524223745,0.178742543,
0.281822860,-0.246995568,-0.197957397,
0.424015522,0.215865538,0.148824364,
-0.430083573,-0.465231210,0.111267768,
-0.431304187,0.409766912,0.479085535,
-0.243704811,-0.364982843,0.565233231,
-0.300968468,-0.473535448,-0.412489355,
0.096741088,0.110208802,0.370413631,
0.459538639,0.286331385,0.077076122,
0.514684558,-0.241998047,-0.096579157,
0.494408339,-0.190731525,0.315067291,
0.127002656,0.203522757,-0.126499534,
-0.488812923,0.437506557,0.474974453,
-0.465924114,-0.301190764,0.030931510,
0.286064982,-0.081719905,-0.253126740,
0.453655452,-0.295921475,0.529959142,
0.005996000,0.280166388,0.129259437,
0.094931893,0.451955348,-0.026939081,
0.402177393,0.181918874,-0.318050176,
0.378420562,-0.410182923,0.300598681,
-0.123692803,0.179149851,-0.069083750,
0.114124402,-0.174379766,0.239275962,
0.264266402,-0.532782376,0.503773332,
-0.465587318,-0.257696003,0.227285594,
0.525009513,0.180531144,-0.314937770,
0.097792596,-0.330105960,0.265327811,
0.029508939,0.056307390,-0.442871541,
0.303840816,0.571627438,-0.407416135,
0.191470355,-0.257801086,-0.159653172,
0.511131167,-0.540399849,-0.109023884,
0.204151303,0.277751535,-0.227696717,
-0.311986417,0.144141287,-0.523320615,
0.076650083,-0.365160584,-0.105492651,
0.525153041,-0.474861920,-0.280097812,
-0.451415002,0.377926409,0.483837783,
-0.366528928,0.357464492,0.363185614,
-0.493731767,0.233032644,0.260953903,
-0.107245944,0.413158894,-0.042767014,
-0.078733571,0.344003111,-0.531829596,
-0.574632049,0.114947341,0.070906788,
0.046335958,-0.349427074,0.465585560,
-0.349534810,-0.244055226,-0.479826093,
-0.582686484,0.147395119,-0.235588580,
0.348050416,0.589244723,0.182363838,
0.509266436,-0.405441105,0.309300929,
0.320437312,-0.225814745,-0.035968784,
-0.344181776,0.030048942,-0.553670406,
-0.337279260,-0.453817099,-0.070671871,
0.064017765,-0.459001154,-0.206667766,
0.346672267,0.027966352,0.101156160,
-0.253241837,-0.190367728,-0.510837972,
0.543294847,0.073012076,0.266374528,
0.331803143,0.534074545,-0.400470316,
0.161142007,-0.500423312,0.214918479,
-0.290814519,0.219005674,-0.419268787,
0.301430523,0.435632616,0.310052216,
-0.478941798,0.356214046,-0.373703897,
-0.533969700,0.384199739,0.091153845,
-0.201056942,-0.504647553,0.148432344,
-0.249571025,-0.457799047,-0.072461635,
-0.495767146,0.293262362,-0.387525111,
-0.196519837,-0.571160614,-0.080305129,
-0.184752479,0.346160889,-0.134329990,
0.392382294,0.541927576,0.123306856,
-0.190459698,-0.486586332,-0.396789044,
-0.189237386,-0.356870532,0.311210155,
-0.186399519,-0.021133907,0.024023684,
-0.494853258,0.468744069,-0.213553041,
-0.462686181,0.004449548,-0.501487613,
0.072036915,-0.373599201,-0.126616031,
-0.176996112,0.407356828,0.452774465,
0.578538477,0.071213529,0.374574035,
-0.479363441,-0.383305937,0.316260934,
0.122876950,0.145192146,0.322939575,
0.359091878,0.264373034,-0.206909731,
-0.186091855,0.138466462,0.475649089,
-0.047543474,-0.157109499,0.312808871,
0.378510356,0.012004926,-0.177812010,
-0.568205833,0.028554983,0.170479164,
-0.417204857,-0.428514719,-0.569697559,
0.445119411,0.567349076,0.569952190,
0.508296967,-0.081426203,0.251007617,
0.341729909,-0.154227316,-0.332634687,
0.474307746,-0.080857567,0.207218006,
-0.269990116,-0.297827691,-0.106980383,
0.014941535,0.348069042,0.368012011,
-0.073749349,0.578682244,-0.303412467,
0.038806576,-0.361847997,0.094513603,
0.521047473,-0.481916338,0.130668849,
-0.524937570,-0.115165807,-0.265992939,
0.005389763,-0.440999806,0.152048558,
-0.544777870,0.126565650,-0.222633675,
-0.352083713,0.507456183,0.057951443,
-0.382176578,-0.325422585,-0.257597655,
-0.341629952,0.071392223,0.008128293,
0.503329933,0.016857021,-0.307971865,
0.503693342,0.152693987,-0.132151529,
0.408978075,0.471425623,-0.479692280,
-0.476172894,-0.379782498,-0.496498436,
-0.178768709,0.244860023,-0.530106246,
-0.564280212,-0.497147143,-0.301240385,
0.368018150,0.519229650,0.580681264,
0.006289688,-0.488986641,0.563026726,
-0.384186208,0.208103806,0.295532972,
0.174132362,0.215076804,-0.545613706,
-0.187672198,-0.377581567,0.402107567,
-0.320855260,-0.035598796,0.506389976,
0.437606037,-0.415391028,-0.481631726,
0.463926971,0.198258236,-0.449948937,
0.505478442,-0.410541922,0.505595088,
0.408235192,0.439907312,-0.111952528,
0.057374179,-0.479751021,0.323182404,
0.037533309,0.406974465,-0.236854285,
0.553764343,0.370130360,-0.168856233,
0.150714040,-0.419893563,-0.378270745,
-0.395585239,-0.331661880,0.160514861,
-0.243774980,-0.203538880,0.398832470,
0.092011817,-0.294865668,-0.157838404,
-0.156437367,0.304590583,0.400565416,
0.465378791,-0.388974518,-0.056273792,
0.129249424,-0.201756179,0.375536948,
-0.056770030,0.053504217,-0.501086175,
0.421933383,-0.378554642,-0.008601084,
-0.465735257,0.454704732,0.029731657,
0.255188107,-0.456930935,0.044263735,
0.232954532,0.383209288,0.421391726,
-0.106770508,-0.039313387,0.186600268,
-0.207588971,-0.234933555,-0.531550586,
-0.571997464,-0.282559752,0.078626193,
0.040013097,0.076621905,0.082882702,
-0.101459108,-0.565167427,0.520999610,
-0.416229725,0.002563055,0.234057128,
0.140928909,-0.257347256,-0.494941354,
0.457700193,0.011875494,0.521969497,
0.263120562,0.240101039,0.119103201,
-0.125062063,-0.383299947,0.075530112,
0.559705317,0.379072696,0.527922630,
0.548032701,0.486380219,-0.319309473,
-0.314426273,-0.019806538,-0.298593581,
-0.156655267,-0.197771907,0.505207658,
-0.043714046,0.593301892,-0.453252703,
-0.573451459,0.118549965,0.117398024,
-0.227834091,-0.296339273,0.159296930,
0.028923716,-0.077347629,0.293103009,
-0.252645314,0.460011750,-0.401414603,
-0.296009958,0.214096934,0.360943019,
-0.008312874,-0.460351318,-0.020582434,
-0.194917157,-0.184482172,-0.106715955,
0.138906404,-0.134392351,-0.404877156,
-0.288268507,-0.483590573,-0.576685846,
0.284561694,0.329205394,0.443976074,
0.045704547,-0.237473905,-0.347241938,
0.287559599,-0.348916382,0.431461215,
-0.305715173,-0.515292168,-0.408523411,
0.464908004,0.459271669,0.134392008,
0.015526787,0.496714085,0.346613169,
0.347119689,-0.437491924,0.097795039,
0.517991543,-0.412223846,0.570231736,
-0.378151268,-0.169654280,-0.027225032,
0.154564202,0.158374235,-0.323835433,
0.271398991,0.187854111,-0.071845725,
-0.580254972,0.607461989,-0.209393844,
-0.303049326,0.594368279,-0.295225859,
0.383765966,0.324617147,-0.374651968,
-0.458266258,-0.345448047,0.185042113,
0.538075268,-0.059846319,-0.165844485,
-0.166095242,-0.402084917,0.576974452,
-0.006261677,-0.456883729,-0.394426972,
0.354414225,0.313195467,0.366785049,
-0.055387430,-0.124448508,0.194275722,
-0.001460939,-0.223357856,0.142931044,
-0.334488750,-0.394896090,-0.122175016,
-0.415728033,0.008892017,0.094763279,
0.572453976,0.197954148,-0.007693688,
-0.412171870,-0.253862828,-0.092910007,
-0.408649474,0.105292208,0.408448577,
0.330345750,-0.239444658,-0.141138077,
0.571608663,-0.078378804,-0.525406420,
-0.001107042,0.056636620,-0.207249463,
-0.055320311,-0.466486543,0.177297637,
-0.397219539,0.231906086,0.437580407,
-0.372733384,-0.226053953,0.055529114,
0.004917987,0.321501493,-0.029169578,
0.093336210,-0.159590125,0.190426499,
0.174436405,-0.464856952,0.306492120,
-0.122234151,0.499022990,-0.580181122,
-0.060430072,0.246960476,0.398406774,
0.007505285,-0.312005132,-0.446289688,
-0.440683842,0.466826200,-0.509785295,
-0.234853476,0.339335114,0.322533906,
-0.508998573,0.129972488,0.062699854,
0.523207784,-0.008196111,0.238206357,
-0.045136068,0.520820737,-0.052955486,
-0.343333364,0.119707569,-0.312718838,
0.151867718,0.423298210,-0.456621587,
-0.420044869,0.007873433,-0.033770408,
-0.176072448,0.518770516,0.264359742,
-0.187749222,0.102573059,-0.081288435,
-0.364903718,0.275734454,-0.381599903,
0.077438012,0.428016424,-0.537721097,
0.028906483,0.522584677,0.266231567,
-0.221666083,0.121125892,-0.549635053,
0.086095512,0.539819121,0.497430176,
-0.005350459,0.237736046,-0.088902533,
-0.162058279,0.011104515,-0.336306870,
0.235969797,0.313771397,-0.153005153,
-0.131362021,-0.402322292,0.073821627,
0.225403771,0.574601173,-0.549551308,
-0.493952125,0.023693584,0.540851772,
0.037155040,0.160260007,0.081970774,
-0.073904909,0.446226835,0.418238282,
-0.332863510,-0.345760316,-0.448935062,
-0.134601682,0.013516353,0.476209193,
-0.565400600,0.449282825,-0.319784492,
0.051578756,-0.045216903,0.332441539,
-0.488620877,-0.412091553,0.018687589,
0.285672724,-0.301372081,0.184094682,
-0.147457644,-0.542489290,0.060792804,
-0.130290702,0.319264323,0.387608379,
0.385280430,0.346249431,-0.454490602,
-0.557599783,0.039599739,0.161953434,
-0.439623415,0.466425866,-0.061875418,
-0.345830172,0.393272161,0.512736619,
0.088708721,-0.184124559,0.062660195,
-0.421432108,0.383159339,0.359245569,
-0.102999531,-0.461636037,0.423554450,
-0.467373461,-0.306623191,0.339457572,
-0.290673316,0.114930771,0.468695015,
-0.068294801,-0.133648083,0.530489326,
0.102500066,0.228493676,-0.182717741,
-0.493842453,0.108193673,-0.334586859,
-0.304056168,-0.469869316,0.500081837,
-0.383347899,0.163082778,0.125581428,
0.391908735,0.308251143,-0.397126317,
0.260591090,-0.289285392,0.026540447,
-0.209143743,-0.494297951,0.172778606,
-0.391301960,0.556598127,0.239403099,
-0.204450577,-0.375335634,-0.531419754,
-0.283754110,-0.340069652,0.063417688,
0.138073802,0.502695918,0.081727132,
-0.117279500,-0.257407010,-0.081215002,
0.310633630,-0.554282784,-0.523126304,
0.227792978,-0.178109348,-0.170876414,
-0.377598852,-0.384379953,-0.426798254,
-0.351395279,-0.527882874,-0.271329105,
0.460319251,-0.318724632,0.435975790,
-0.489100426,0.074045509,-0.047090113,
-0.442380875,0.021370126,0.487213761,
-0.257381350,0.566750526,-0.055198018,
-0.188723251,0.291318893,0.457657069,
0.494775653,0.312060863,-0.518786788,
-0.121458896,0.077689067,-0.269738138,
0.269791812,-0.127105787,-0.497395784,
-0.260894299,-0.368278891,0.226655871,
-0.415744781,-0.171124622,0.065797642,
0.248954341,-0.444045067,0.398284703,
-0.365071356,-0.437199265,0.241390899,
-0.332066268,0.412011087,0.242140904,
-0.280230224,-0.126737982,-0.263928771,
-0.054820485,-0.001391721,-0.014028223,
-0.382685453,-0.513862073,-0.363789886,
0.097474754,0.059200611,-0.290637612,
-0.093574822,-0.014516540,0.413127005,
-0.518818140,-0.257184625,-0.082042150,
-0.100318544,-0.300181717,0.292928964,
-0.217018545,0.059368338,-0.328443676,
0.564959764,-0.330727190,-0.114856564,
0.455842227,0.318017453,-0.526737869,
0.361860961,-0.311942160,-0.075915612,
0.235819682,0.037257180,0.444308400,
-0.223216072,-0.398217887,0.042171132,
0.191877171,0.427666634,-0.286348999,
-0.064632662,-0.333612263,-0.418878198,
-0.451626092,-0.413206160,-0.342457116,
0.189951882,-0.079270609,0.362873793,
0.447704583,-0.443490833,0.117006034,
0.321086526,-0.461949319,-0.161257923,
0.426100016,-0.422538221,0.522546947,
0.043098234,0.141020909,0.478241473,
-0.540466547,0.526495337,-0.521571815,
0.277839839,0.003993210,0.458689868,
-0.007290411,-0.566665053,0.074667357,
0.385785043,-0.114183731,-0.545559704,
-0.081479773,0.045544114,0.142400190,
0.181664750,-0.091735885,-0.030317469,
-0.125517964,0.242403939,0.125128254,
0.238362893,-0.051304474,-0.047858238,
0.431669980,0.103995040,-0.535341144,
0.120260060,0.570383191,-0.106386214,
0.352627546,-0.410659373,-0.082792707,
0.391618043,-0.285495132,-0.141630083,
0.004921437,-0.087281145,-0.162253261,
0.398334950,-0.105419487,-0.156259179,
0.425912499,0.121645994,-0.265858799,
0.352559447,-0.276043892,0.581342041,
0.472489148,0.037419271,0.152815342,
-0.233077466,-0.446265250,-0.410712749,
0.179468751,0.264541328,-0.013535785,
-0.185923845,-0.179917559,-0.316132396,
-0.344720751,0.364396811,-0.491450697,
0.415104657,0.338070512,-0.157764584,
-0.074811131,-0.193722218,-0.485234410,
0.051639833,-0.436528891,0.022004426,
-0.206614375,-0.429263294,-0.527916670,
0.507992923,0.485827684,0.524485767,
0.220182136,0.295341522,0.286689162,
0.428862542,0.094080821,0.063352183,
0.424099207,0.298225909,-0.349785268,
0.392014533,0.588022768,-0.212827131,
-0.548368275,-0.100817606,-0.377057403,
0.573063374,-0.122307137,-0.294285774,
0.376081079,0.228531629,0.176726639,
0.519160986,-0.569889724,0.279163569,
-0.267063379,0.223464891,-0.201071247,
0.529679000,-0.117465332,0.061111707,
-0.448701739,0.387982458,-0.577133358,
0.320865661,0.443899602,0.459940821,
0.345029026,-0.173765600,0.123164363,
0.150756896,-0.561051607,0.317291915,
-0.466404319,0.243531033,0.551085472,
-0.167621344,0.112208121,0.541326582,
0.471997559,0.488114893,-0.406591713,
0.118903302,-0.477328897,0.111345641,
-0.540448070,0.059679545,0.287343740,
-0.518735349,-0.093231462,-0.233244210,
0.470096022,-0.053871039,0.354872823,
-0.433051586,0.103009179,0.425286114,
0.028886374,-0.196720883,-0.236116901,
0.390105814,0.247816339,0.031584211,
0.334922880,-0.287578970,-0.433109939,
-0.122759894,0.471595466,-0.565928996,
-0.282071173,0.179262564,0.212431937,
0.293611377,0.152783558,-0.502721667,
-0.183987439,0.348899275,0.106483862,
0.322664291,0.445280522,0.335919410,
-0.239938065,-0.276746005,-0.101024911,
-0.021368682,-0.068484724,-0.113909230,
0.084992826,0.403402418,-0.404513836,
0.285916030,-0.554426432,0.044571038,
-0.531560361,0.590211749,-0.488337994,
-0.327148825,0.410974592,0.299277574,
0.446859360,0.151007786,-0.511807144,
-0.397891164,0.388051867,-0.555043817,
0.519965768,-0.097752392,0.105504766,
-0.028398558,-0.131182089,-0.145179614,
0.172133580,-0.101404414,0.097635739,
0.491535127,0.059680376,-0.460961431,
-0.440882474,0.365651309,0.196068063,
0.103472948,-0.328577310,-0.466162264,
0.503571570,-0.584981918,-0.283818692,
0.229091033,0.535718739,-0.194122404,
-0.561645031,0.170029566,-0.013917800,
-0.082901075,-0.508641779,0.410516530,
0.080450624,0.152439386,0.340549439,
0.494418412,-0.175141007,0.055534899,
-0.364348650,-0.435831636,-0.291040599,
0.081243731,-0.369260281,0.322333574,
0.205897793,-0.186489061,0.289772123,
0.426958442,-0.195808724,0.316298306,
0.367065012,0.577199519,-0.430758029,
0.454829484,-0.006770948,0.046202488,
-0.001614991,-0.372861743,-0.210855156,
-0.475422412,-0.071048014,0.149306640,
-0.403682560,0.215932578,-0.559731185,
0.283850878,-0.596413136,-0.012907464,
0.425268590,-0.523798585,-0.455038935,
-0.275571436,-0.235976204,-0.311242968,
0.507392287,-0.423258305,0.266651213,
-0.414172471,-0.186764851,-0.462530315,
-0.555824697,-0.297887892,0.012957362,
0.317265749,0.264303267,0.236695975,
0.483494133,-0.028171390,0.559081256,
-0.511055589,-0.304096997,-0.458657861,
-0.397861153,-0.429589510,-0.546981871,
0.546943188,0.087740980,0.296683639,
-0.180876181,0.101549841,-0.304847896,
-0.578789830,0.059738614,0.360861361,
-0.098857775,0.189825147,0.250331163,
0.425499052,-0.541104198,-0.233012065,
0.042218402,0.540890217,0.564404368,
-0.384047151,-0.364609092,0.540514290,
-0.037734658,-0.362141073,-0.290645570,
0.329432249,0.401365399,0.481237441,
-0.121146545,-0.154870003,-0.033962160,
0.512923121,-0.509173274,0.297880232,
-0.402061731,-0.061905589,0.486475378,
-0.206074744,-0.238166764,-0.020478206,
0.257618785,0.502926469,-0.545313418,
0.447245061,-0.229427338,0.087189473,
-0.318797380,0.145863771,-0.563365400,
-0.369922698,-0.262202352,0.363042533,
0.151267186,-0.407832742,0.083512053,
0.567101538,-0.553332210,0.509392321,
0.446414471,0.042673308,-0.298268646,
0.262601137,0.273352563,-0.224570006,
-0.332533270,-0.425758660,-0.213936731,
0.114455812,0.258656591,-0.014425861,
0.502645433,0.166168839,0.176413938,
-0.281241536,-0.171489835,0.379956663,
0.302862704,-0.060443249,-0.394887239,
-0.540456951,0.000172590,-0.366389751,
-0.090920985,-0.096158326,-0.540924847,
0.398461789,-0.143239990,-0.562814593,
-0.526986241,-0.460064083,-0.226391822,
-0.040021952,0.218586728,-0.026802514,
-0.552457869,-0.460701048,-0.295282245,
0.457780391,-0.013387862,-0.527177930,
-0.236462414,-0.416129678,0.084596694,
-0.042137392,-0.101185463,0.449736744,
-0.349306017,0.060993172,-0.209623113,
0.100915000,-0.457969725,-0.223587662,
0.278305650,-0.380621821,-0.258201391,
-0.076159149,-0.451274842,-0.371947467,
-0.192698464,-0.063508414,-0.118654303,
0.025876816,-0.513579130,-0.086035691,
-0.512264788,0.337566406,0.520434201,
-0.450879097,-0.420160025,0.554700613,
0.455631375,0.304691374,-0.372177511,
0.157327995,
-0.012828709,
0.416408747,
0.349669218,
-0.059726346,
0.215129912,
-0.504610360,
0.117909417,
-0.351665676,
0.475078315,
-0.384890586,
-0.501927972,
-0.491567314,
-0.130327448,
0.025154063,
-0.060686741,
0.238091826,
-0.512522638,
-0.337823063,
-0.103291832,
-0.037724219,
-0.130154967,
0.295482755,
0.329264909,
-0.107841387,
-0.000159348,
-0.055444568,
0.081370480,
-0.242064148,
-0.084995486,
-0.423693031,
0.501943231,
0.406212956,
-0.357801974,
0.017336940,
-0.325223595,
-0.082372487,
-0.493046194,
-0.005135254,
-0.262795419,
-0.518822670,
0.554517210,
0.177686006,
0.424063295,
0.112523146,
0.005743859,
-0.263702214,
0.237627506,
0.397713840,
0.003240250,
-0.298693448,
0.500377238,
-0.057478044,
-0.379249930,
0.306489170,
0.558519125,
0.531664491,
0.460464627,
0.542491674,
-0.571632445,
0.226050496,
0.520863175,
-0.374097019,
0.179049164,
-0.174966961,
-0.006965636,
0.306968749,
0.022707183,
-0.206608966,
-0.100587197,
0.200571299,
-0.307289302,
0.410687000,
-0.536243856,
-0.394241214,
0.158330455,
0.028935727,
0.353599280,
0.246069849,
0.033406191,
0.087806299,
0.440736800,
-0.542888045,
-0.166103110,
0.394285470,
-0.458019376,
0.294294238,
0.408851266,
0.205195472,
-0.385488480,
-0.327987909,
0.140380010,
-0.257606685,
0.221197039,
0.181799412,
0.147811905,
0.540660143,
-0.550151348,
-0.554260194,
0.409465790,
-0.193824902,
-0.550652862,
-0.158329070,
0.457490712,
-0.079517081,
0.291699737,
0.355980188,
-0.176987976,
0.307660133,
0.180137396,
-0.361756563,
-0.123288095,
0.375769407,
0.227960616,
0.101891473,
-0.070842169,
-0.411140680,
-0.208710760,
0.395578384,
0.004370194,
-0.346074164,
0.057506226,
-0.475914806,
-0.065736189,
-0.028911714,
-0.545840621,
-0.388219953,
-0.351819336,
-0.408025742,
0.460765511,
0.230704471,
-0.377747506,
-0.238638565,
0.430478990,
0.513804197,
0.059956733,
0.049457747,
-0.446731329,
0.321188539,
-0.162135974,
0.073578984,
-0.123956390,
0.241167411,
0.166780636,
-0.119633466,
-0.117257483,
-0.001489423,
-0.457493365,
0.003280838,
-0.432258993,
0.467990458,
0.315193921,
-0.055691674,
0.399966776,
0.076016858,
0.514031470,
0.160202146,
0.276909351,
0.109008424,
-0.334313571,
-0.541561842,
-0.200434253,
0.467648953,
0.277256042,
-0.193824992,
-0.345858335,
0.570610642,
0.104067311,
-0.497712672,
-0.208728731,
0.018076558,
-0.016683342,
-0.223259926,
0.218862057,
-0.391818553,
0.237865597,
-0.389631689,
0.449297577,
0.473518282,
0.605179906,
-0.565992117,
-0.206290543,
-0.076370075,
-0.533279300,
0.299688876,
-0.201984137,
-0.005119829,
0.300356150,
-0.450945586,
0.063601315,
-0.246174216,
0.430496663,
0.526411712,
-0.154937223,
-0.336710513,
0.336517125,
-0.366245240,
0.569129825,
0.479458123,
0.275673270,
-0.269945383,
0.439072549,
0.465108007,
-0.102812506,
-0.343725622,
0.040818773,
0.466162235,
0.495595634,
-0.518624425,
0.518383503,
-0.373239398,
0.137612149,
-0.256850004,
-0.325327963,
-0.056481540,
0.064836293,
-0.468572557,
-0.200373232,
0.433738142,
-0.016563529,
-0.268529028,
0.479159594,
-0.539831460,
-0.159574285,
0.459095687,
0.047911778,
-0.203656450,
-0.312185794,
-0.144688442,
-0.319546878,
-0.039702412,
0.524714291,
0.332483411,
-0.186592370,
0.373443127,
-0.529343784,
-0.005547578,
0.510177314,
0.142229483,
-0.469260693,
0.129792556,
0.347343504,
-0.039824829,
0.317377806,
-0.488233119,
0.421313137,
-0.562889695,
0.279141635,
-0.502049208,
-0.168961421,
-0.021609657,
-0.079748482,
-0.023276510,
-0.441190749,
-0.413124949,
0.348728776,
0.143514201,
0.073163353,
-0.094405673,
0.124148376,
0.105453685,
-0.124483883,
0.086573593,
0.086991154,
0.537526429,
-0.520045340,
-0.379440635,
-0.226509824,
0.275206327,
-0.392804563,
-0.279319346,
-0.253855139,
-0.018894734,
-0.532401204,
0.123020984,
0.453270197,
0.393175900,
-0.450532854,
-0.177557260,
0.327414632,
0.248408228,
0.284080267,
0.268265724,
-0.139113501,
0.370811164,
0.564967871,
0.228640690,
-0.089685194,
0.237047493,
0.430977583,
-0.456662714,
0.176548004,
-0.267866284,
0.071129486,
-0.377076268,
-0.067005739,
0.019885859,
-0.350234240,
-0.417471468,
0.260849208,
-0.283465028,
0.421986252,
-0.269893050,
0.470277011,
0.000548098,
-0.302502930,
-0.020432357,
-0.192698345,
0.147274941,
0.233726472,
-0.528707802,
0.120913334,
0.298747033,
-0.266106665,
0.036582951,
0.342793882,
-0.454483360,
0.410107642,
-0.478078187,
-0.163311213,
0.212047130,
-0.080073372,
-0.561555564,
-0.407238573,
-0.024262957,
-0.221903786,
-0.123601981,
0.400360554,
-0.254366904,
0.099055491,
-0.451300800,
-0.241857439,
0.485048056,
0.230754331,
-0.004627975,
-0.200758412,
-0.443278432,
0.269694835,
-0.255200058,
-0.005215918,
-0.345646560,
-0.203006193,
0.033140931,
-0.087349147,
-0.010067386,
-0.105480343,
0.215938404,
0.121023148,
0.531655312,
0.066357657,
-0.519433200,
-0.048345886,
0.501410067,
-0.230547383,
0.039373923,
0.058166709,
-0.395582318,
0.571384788,
-0.144008353,
-0.428771466,
-0.404123932,
-0.311572820,
-0.556737006,
0.445740730,
0.544911563,
-0.475753278,
-0.325358927,
0.272019207,
-0.117839813,
0.584541559,
-0.301422000,
-0.217557847,
-0.474180460,
-0.145761266,
0.369876206,
-0.097065166,
-0.530007780,
0.313869774,
-0.317295223,
0.152980208,
0.540443838,
0.274435729,
0.501297355,
-0.432649702,
-0.434635311,
-0.567705274,
0.367390811,
-0.066499338,
0.224285275,
-0.372667581,
0.039505098,
0.531480849,
0.008409147,
0.525315642,
-0.388096660,
0.053652294,
-0.120886929,
-0.526334703,
-0.261892766,
-0.057367150,
-0.539524674,
0.398183286,
-0.325573027,
-0.040175486,
0.005622250,
-0.559992969,
-0.261079252,
0.121913448,
-0.165319443,
0.353755504,
0.155764505,
0.221596479,
0.344092369,
0.096409649,
-0.507426262,
0.239520967,
-0.166982859,
0.143258780,
0.203096181,
0.192147911,
0.431380957,
0.560931504,
-0.432681412,
-0.268842369,
0.257620454,
-0.012446337,
0.154666349,
-0.515025318,
-0.227685437,
-0.015948845,
0.491113275,
-0.424163938,
0.118649013,
0.103894271,
-0.252793044,
0.283071488,
0.488803476,
0.500147998,
-0.131453708,
0.005546173,
-0.029908080,
0.369881719,
-0.311640888,
0.169836208,
0.336858988,
0.353915602,
-0.224562407,
0.365104824,
-0.490527779,
-0.178083271,
0.497614503,
-0.264971733,
0.011957122,
0.572440743,
0.088412911,
0.015767936,
0.155827165,
-0.410992652,
-0.575937927,
0.283610821,
-0.060828265,
0.291717321,
-0.050043203,
0.406992644,
-0.377600640,
-0.295929283,
-0.510946691,
-0.476589441,
0.440920830,
-0.128690213,
-0.261111289,
-0.183732122,
-0.057032693,
-0.171195269,
-0.548974454,
0.410052270,
-0.011032591,
-0.408258319,
0.181288704,
-0.180711195,
-0.148567110,
-0.458745182,
-0.564379811,
0.201313570,
-0.515269220,
0.388643295,
-0.523365974,
-0.036648177,
-0.448126972,
-0.402117670,
-0.479902625,
-0.298296571,
0.063239537,
0.112170242,
-0.264020383,
0.355911553,
-0.185930699,
-0.044235375,
0.336528689,
0.515816748,
0.507526100,
-0.542737126,
-0.391448110,
0.139871120,
0.003759504,
0.453719616,
0.336398005,
-0.420919716,
0.543641746,
0.164366171,
0.321173728,
-0.103116773,
0.441534758,
-0.397985190,
0.271292478,
0.569979310,
0.181072801,
-0.195538372,
0.045494109,
0.405895501,
-0.335185498,
-0.288209319,
0.136014298,
-0.250737548,
-0.157462522,
-0.199942306,
0.297742575,
-0.496919930,
-0.503245473,
0.466742963,
-0.087787420,
-0.507206857,
0.288013965,
-0.368318856,
-0.039446928,
0.367676914,
-0.318332374,
-0.443938881,
0.065584764,
-0.276768416,
-0.134993464,
0.427540988,
0.138966471,
0.180924714,
-0.521337211,
-0.356937438,
-0.380121768,
0.585194528,
-0.216957912,
0.563428819,
0.586068511,
-0.345849067,
0.288021445,
-0.228580892,
0.577473223,
0.415072560,
0.177969158,
0.290488362,
-0.073748291,
-0.078759804,
-0.070546381,
-0.259560049,
-0.485208392,
-0.080143094,
-0.174929410,
0.495886236,
0.521164298,
-0.507195234,
-0.463681370,
-0.283825338,
-0.563845575,
-0.042084530,
0.165932313,
-0.028532019,
0.183083370,
-0.097512677,
-0.558900952,
-0.326422840,
-0.559740365,
-0.280275106,
-0.336566478,
0.451564938,
-0.169243813,
-0.117161401,
-0.443334758,
-0.195525259,
0.063911542,
0.158784613,
0.555134654,
0.267168283,
-0.009407436,
0.457142770,
-0.321649939,
-0.058300901,
0.114100412,
0.149325356,
-0.192894787,
0.106810845,
0.259693801,
-0.012109489,
-0.196461901,
-0.524984360,
-0.348803103,
-0.575234175,
-0.115862437,
-0.459140450,
-0.266627163,
0.475071937,
-0.541405857,
0.406344086,
-0.019891389,
-0.311442941,
0.566278934,
0.502770305,
-0.323669106,
0.044871435,
-0.210277900,
-0.544264376,
0.280476719,
0.331051469,
0.519293487,
-0.340736181,
-0.149536476,
0.330053151,
-0.314844221,
0.520701826,
0.057097547,
0.098008484,
0.235744119,
0.392028332,
0.157150552,
-0.338932753,
0.548460782,
-0.249069735,
0.050733529,
-0.574380636,
-0.252973318,
0.445624799,
0.093338132,
0.071615614,
-0.221686229,
-0.469202101,
0.419743240,
-0.394408941,
0.436221719,
-0.297524273,
0.505036891,
0.015698951,
-0.369011432,
0.561418474,
0.493630350,
-0.307332009,
-0.345791906,
-0.154423445,
-0.005422109,
0.382205904,
-0.359752715,
0.305196643,
0.534935713,
0.218228966,
-0.223936632,
0.567665100,
-0.192471400,
0.087876417,
-0.399712145,
0.222650036,
-0.566020548,
0.225607470,
-0.410325110,
-0.546797335,
-0.225986034,
0.449163169,
0.258886367,
-0.474845469,
0.282087624,
-0.146850452,
-0.273082972,
-0.548267484,
-0.279252827,
0.532172024,
-0.356205076,
0.379936814,
-0.201518357,
-0.526232362,
-0.342685550,
0.193645835,
0.271127254,
0.161950529,
0.146463349,
-0.194241911,
0.005142445,
0.145138815,
-0.047700763,
0.467799813,
0.523317516,
0.518086970,
0.539332330,
-0.560187817,
-0.185913190,
0.408087522,
0.369769752,
0.101647243,
0.212754458,
0.060946647,
0.134406835,
-0.169811040,
-0.059644844,
0.292758763,
0.569560468,
-0.134227231,
0.392700881,
0.570328951,
0.169518739,
0.500413954,
0.331153303,
-0.508938789,
-0.358062565,
0.266507804,
-0.196877524,
-0.157982990,
-0.162021667,
-0.472386450,
0.005549701,
0.082227178,
-0.099023938,
-0.373776644,
-0.390871346,
0.507815123,
0.527656853,
-0.277329713,
-0.395052195,
-0.122165903,
-0.326407671,
-0.563609838,
-0.423281580,
0.532374382,
-0.107274979,
0.417276174,
0.265414119,
-0.046565283,
-0.211577401,
0.403968692,
-0.112849049,
-0.350544930,
0.198852241,
-0.293744028,
0.285556912,
0.185377389,
-0.502732396,
-0.277265042,
0.099264786,
0.065614797,
0.110126562,
-0.027494542,
-0.127607942,
-0.073756754,
0.308500677,
-0.237736687,
-0.192228764,
0.543326855,
0.562381387,
0.450609773,
0.478214443,
-0.379306644,
-0.172536016,
-0.423432171,
-0.249068379,
0.316872567,
0.565761924,
-0.549042463,
0.382165998,
-0.199495301,
0.478514045,
0.116444513,
-0.369748920,
0.370338947,
-0.335882157,
-0.239364609,
-0.262003899,
0.237239808,
0.191463962,
-0.275077134,
-0.355501175,
0.115702450,
0.261913657,
0.302318782,
-0.469208717,
0.187945962,
-0.521356225,
-0.075368598,
-0.038288821,
-0.523609579,
0.316866994,
-0.422039509,
0.122845463,
-0.256548434,
0.301706195,
0.207975045,
0.250041395,
-0.063745171,
-0.281097054,
-0.230934545,
0.430418432,
0.122326374,
-0.276348144,
-0.291767240,
-0.097691841,
-0.224620491,
-0.221483544,
0.564356446,
-0.306837857,
0.571159363,
0.506264031,
-0.337613285,
0.279969007,
-0.531213403,
0.095817506,
-0.377698869,
-0.370194614,
0.188589454,
0.292798221,
-0.136751771,
-0.071954735,
0.222021624,
-0.552915454,
0.007080940,
-0.558206022,
-0.195712894,
0.530766785,
-0.199552298,
-0.222102717,
-0.533533871,
0.585055411,
0.229535848,
-0.445705771,
-0.129347757,
0.485493183,
-0.554947257,
0.093743369,
-0.432376176,
-0.435463101,
-0.123746969,
0.257466227,
-0.571312547,
-0.318843901,
-0.461608320,
-0.113981493,
-0.268749177,
0.342682660,
0.004512177,
-0.080007859,
-0.504683852,
0.026620993,
-0.566875219,
-0.517539382,
0.273664683,
-0.574277818,
0.056331601,
0.181898803,
-0.028556710,
0.364664793,
-0.087818228,
0.418195784,
-0.327746421,
-0.457985014,
-0.380035162,
0.323505551,
0.075078443,
-0.065935835,
-0.041084357,
-0.203289911,
0.129960686,
-0.031870045,
-0.060761984,
-0.247211263,
-0.385723114,
0.090635091,
0.058595311,
-0.509276986,
0.488038599,
0.282910049,
0.362036914,
0.148667023,
-0.154859126,
0.217924386,
0.262626886,
0.218683004,
-0.154025972,
-0.298205286,
0.005025927,
0.476855159,
-0.315064698,
-0.232239172,
-0.278185606,
-0.482687294,
0.244925931,
-0.079476908,
0.072698891,
0.544475019,
0.128288403,
0.431673706,
0.105159543,
-0.037078634,
0.373983264,
0.200736180,
-0.073550060,
0.049522411,
-0.285263330,
-0.041063357,
0.411779821,
0.510869086,
0.555982113,
-0.372601211,
0.005021198,
0.244638771,
0.383440971,
-0.289197892,
-0.460284114,
0.221672058,
-0.292990476,
0.602654040,
-0.329953462,
0.262460351,
-0.185031697,
-0.481800646,
-0.562919378,
0.275415540,
-0.176066473,
-0.363836378,
0.594939888,
0.374396652,
0.403940469,
-0.226610661,
0.003403194,
0.152514324,
-0.041777775,
0.268068373,
-0.140459448,
-0.134083241,
-0.055460975,
-0.232195586,
-0.363393813,
-0.071693048,
-0.206559137,
-0.176865250,
-0.259111196,
0.299028426,
-0.093827687,
0.447986335,
0.213675991,
-0.192157045,
0.595141351,
-0.148332968,
-0.492789924,
0.395150959,
-0.328857183,
0.384779215,
0.444693297,
-0.178098559,
-0.221022487,
0.191154152,
0.316075891,
0.470916748,
0.186606303,
0.049229633,
0.524722159,
0.144643813,
-0.468318820,
-0.151422873,
0.001337507,
0.232923478,
-0.554051280,
-0.574064851,
-0.328888237,
0.118066013,
0.415198952,
-0.480951577,
0.216912448,
0.007597131,
0.497607321,
-0.327416122,
-0.172450855,
0.188437670,
-0.549952626,
0.388075829,
-0.235834956,
0.126553759,
-0.360192895,
0.493376315,
0.167046055,
0.081293389,
-0.279707581,
-0.419554979,
0.055765469,
-0.397668302,
-0.018663591,
0.532391250,
0.136753768,
-0.163989350,
-0.173739403,
-0.024638668,-0.030724227,-0.008646732,0.013835696,0.012962773,-0.001446177,-0.004752693,-0.016762683,0.019559354,-0.033929463,-0.047687188,0.014713537,-0.013153687,0.039599333,-0.006135849,-0.016218673,0.018225078,-0.014878123,-0.074993424,-0.015610945,-0.012705179,0.023048766,0.019070618,0.001515174,0.005112110,0.016639058,-0.005272945,0.037763152,-0.020561099,-0.028050605,0.022386054,0.028804505,0.031380940,-0.032539327,0.005150249,-0.059012927,-0.040982783,-0.026443152,0.037768412,-0.005444182,-0.012881984,0.015945854,0.032956619,0.009043061,0.045442555,0.006715263,0.007430142,-0.061279509,0.016052436,0.041371286,-0.048288509,0.024440948,0.018434271,0.024179220,0.004403382,0.036770675,0.019307192,-0.003770133,0.047085118,-0.031530816,0.044639740,0.020694345,0.020638846,0.027492350,-0.036386654,0.029059529,-0.062640324,0.006114125,-0.007408923,-0.024634836,0.012283945,-0.004474733,0.021529095,-0.021294974,0.020580504,0.012651394,0.022036985,0.020112345,0.001505076,-0.007592756,0.015112414,0.040805075,-0.025963571,0.029108567,0.033210233,0.013898214,0.033758070,0.034034550,-0.038348213,-0.058868028,-0.022817254,-0.068351790,0.001487305,0.017462956,0.023367632,-0.063886113,0.038092159,-0.023520254,-0.027723033,0.043826066,0.007395853,0.025443640,0.002012497,0.044530645,-0.007470255,-0.002125667,0.032029901,0.005973497,0.001375922,-0.048605390,0.007656607,0.014926436,-0.015349073,-0.051235240,0.038088005,0.022731462,-0.009569320,-0.011705304,0.027601697,0.043446328,-0.020723309,0.025038462,0.017558370,0.003401963,0.024303323,-0.029440600,0.018138479,-0.048864353,-0.022663578,0.022992374,0.010167768,-0.014494471,-0.029333243,0.016704760,-0.000623526,-0.024091683,-0.022572743,0.014342787,0.027326355,-0.029143665,0.022390200,-0.024685526,-0.032535806,0.020549612,-0.070965096,-0.023668837,0.002090939,-0.027984820,0.005702644,-0.011955385,0.034166675,0.032251026,-0.029134994,0.012815022,0.025062066,0.004492464,-0.034909457,0.014362145,-0.009654479,0.018917084,-0.022786181,-0.022685450,0.020379238,0.026635898,0.005385291,-0.033009067,-0.008667421,-0.068857312,0.026718847,-0.052394979,0.009055910,0.035050917,0.024056816,-0.020225247,-0.011576301,0.029273584,0.013584794,-0.005279579,-0.013503835,0.015240403,0.028053572,-0.015882585,0.023003785,0.023501487,-0.021914111,-0.004297426,-0.015118854,0.033778258,-0.030105049,0.019317849,-0.003173981,0.007844054,0.044363566,-0.027633967,-0.062464580,0.033871356,-0.055336710,0.021958468,0.020213751,0.040725052,-0.005805677,0.003629173,0.005456729,-0.017621156,-0.022090133,0.028450038,0.014417260,-0.003231257,-0.048747778,0.008138387,0.010587837,-0.063620001,0.030639840,-0.029169293,0.044750001,-0.042884789,0.011995012,0.010703858,-0.014397348,-0.035425376,-0.019470971,0.009865516,-0.014161234,-0.042789161,-0.004810476,-0.026168343,-0.031018205,-0.015859775,0.016651487,0.013350773,-0.011510632,-0.015514130,0.027697466,0.026000889,0.001672525,0.020748077,-0.034160819,0.039095324,0.030581284,-0.025247904,0.025615569,0.000199795,-0.014116855,0.017922251,-0.022803243,0.029139757,0.022224952,0.010129403,0.007582513,-0.049957279,0.019482350,-0.023275783,0.016756868,-0.010412669,-0.017182393,0.001558986,-0.011104201,-0.056740973,-0.019685755,-0.009781240,0.001189969,-0.000817737,-0.053148314,-0.068620384,0.025276931,-0.030737495,0.012036129,-0.053994361,0.029074937,0.020786207,0.024306647,0.029748779,0.010283297,-0.038471699,0.007312130,-0.015232225,0.019254945,-0.028562555,-0.010631373,0.039667085,-0.030056227,0.017981282,0.045443572,-0.015675096,-0.013529347,0.028761171,-0.020757055,-0.008053191,-0.007759847,0.022826660,0.009682544,-0.005511035,-0.022011241,-0.044894617,-0.012857960,0.007163887,0.047770046,0.022617787,0.007994324,-0.005542259,-0.015308298,0.009072048,0.002774385,-0.005032514,-0.012051556,-0.038078062,-0.028387535,0.005103658,-0.059996560,0.006776292,0.013444232,-0.036897227,0.015362546,0.012809227,-0.005098987,-0.012515151,-0.003663004,-0.014859705,0.003857829,-0.028837070,-0.049710155,-0.001911091,-0.029683039,0.002822947,0.013240702,-0.003607393,-0.015005535,0.044340551,-0.011289218,-0.065235697,-0.069015749,-0.000945445,-0.017868752,0.010545356,-0.036141515,-0.052199204,-0.029611109,-0.005392319,-0.025793742,-0.035209093,0.025528640,-0.017470259,-0.063489608,0.030119618,-0.002956335,-0.031364109,-0.007513780,-0.038872935,-0.005664607,0.027340192,-0.026967039,-0.014174368,0.031255882,-0.007926704,0.027696317,-0.011090158,-0.029274728,0.034873918,-0.010535924,0.023671599,-0.014288055,-0.036588669,-0.007208810,-0.001553435,0.017247496,0.007967509,-0.012665316,-0.060679518,0.025506496,0.015382382,-0.002299181,-0.025454665,0.022595813,0.023281634,0.023492260,0.022916548,0.018412158,-0.016035004,-0.022993773,-0.024658298,0.011499126,0.000571011,0.030708008,-0.017434968,0.010764999,0.009937001,0.009828880,0.042599354,0.002963851,0.013889632,-0.019115729,-0.002976176,0.017963376,0.021267382,-0.030160967,0.000579629,-0.038368303,0.022013597,-0.009518198,-0.000537280,-0.002187853,-0.013624031,0.014324082,0.000387272,0.018152721,-0.027699545,-0.021443449,0.023629522,0.008940823,0.005000193,-0.003468466,-0.010171164,0.036758952,0.006714684,0.006846728,0.035795119,-0.013168346,0.003222872,-0.000114498,0.020063855,0.012826672,0.017221190,-0.030214658,-0.028346360,0.033440769,-0.004991019,-0.069784589,-0.011446355,-0.005998635,0.020942068,0.046606038,-0.011867370,-0.007160351,0.000511916,0.018695535,0.027181804,-0.012330387,0.021194311,0.007151295,0.018821156,-0.042362861,0.016727461,-0.012477990,0.022688691,-0.003381620,0.043501485,0.001301712,-0.030885467,-0.014352235,-0.001854548,0.022694180,-0.042988878,0.022258732,0.032988522,0.030107956,0.044620682,-0.011476580,-0.031480096,-0.019461624,-0.002699592,0.010665759,0.026127694,-0.014570251,-0.006622692,-0.072221875,0.010357348,0.007958670,0.002391305,0.000898030,0.022278085,-0.018463397,-0.028578542,-0.007761072,-0.034349281,-0.021538498,0.020083306,0.023817047,-0.030425305,0.034889162,-0.051254489,-0.026864944,-0.005223558,-0.014193273,0.017540740,-0.019707473,0.037141044,-0.029891562,0.003267115,0.008184291,0.009554445,0.015733233,-0.055227745,-0.037701692,-0.069969788,-0.010352436,0.012153354,-0.072294742,-0.024092253,0.023154851,-0.011737049,0.037935555,-0.015189205,-0.056706935,-0.022670403,0.008096585,0.024912648,0.041247338,0.024290102,0.042416122,-0.009701244,0.045509659,0.003233286,0.026152164,-0.013115609,-0.053727835,-0.011992749,0.020020939,-0.029912284,-0.075215936,0.039796177,-0.011777887,-0.027277529,-0.074212939,0.006628121,-0.020709595,-0.016683932,-0.003172877,-0.014840132,-0.023978135,0.048097260,0.009583226,0.001996264,0.018129760,-0.024631776,0.006350398,0.034729846,-0.028586961,0.017326830,-0.002428008,-0.035800617,0.011086010,0.043617100,0.046514779,-0.003490162,-0.026675010,0.021127414,-0.069625288,0.038034752,0.031541519,0.016146738,0.044076752,-0.032786775,-0.015113660,0.024491398,0.046458781,0.021711752,0.037293430,-0.060827814,-0.000930831,0.005340019,-0.003556069,0.005755013,0.012023089,0.020607654,-0.025137424,0.025953591,-0.005866621,-0.000505812,0.016333904,-0.019620845,-0.013358722,-0.021226274,0.043733038,0.011690890,-0.054637156,-0.003340971,0.000597570,-0.017157147,-0.008166755,-0.065271854,0.029502582,0.038421281,0.017094504,-0.008364157,-0.021024389,0.025684988,-0.002376158,-0.070957758,0.028692348,0.038569283,0.038579915,0.020736402,-0.008131747,-0.026099475,0.010718490,-0.027185319,-0.013421384,-0.054731108,0.033682268,0.006501669,-0.013292740,-0.030571567,-0.005780781,0.009480264,0.011797727,0.005733022,0.006164077,0.037313033,0.016830707,0.032793574,0.026155584,0.008306484,0.039956696,0.035707682,-0.026199674,-0.066303588,-0.014462596,0.023556160,0.004146229,0.029315099,0.042994481,-0.031375527,-0.016888566,0.040724460,-0.012426746,0.027453201,-0.033740390,-0.034449011,0.046642661,-0.006663937,-0.067756616,0.008274037,0.024532186,-0.002058660,0.007896347,0.013003223,-0.017010761,0.032203186,0.026413325,0.038168434,-0.002525582,-0.008429516,0.041389756,0.020119652,0.028166017,-0.061650310,0.023083625,-0.033664946,-0.031287719,-0.014005493,0.021100830,-0.005959311,-0.017097950,-0.004754373,-0.030607017,0.010930699,0.009859107,0.023480786,0.043083262,0.039728466,0.002692029,0.042524077,-0.022451423,0.009994291,-0.010546732,0.006587985,0.004267125,0.038512740,-0.050480936,0.012543025,0.019224145,0.020059027,-0.044653788,-0.023278020,-0.000361599,0.000965299,0.006293905,-0.004314809,-0.035762977,-0.001660464,0.018520337,0.015425948,-0.031370316,-0.036044888,-0.014667173,-0.011852556,0.041125316,-0.019269049,0.009792516,0.021098243,0.024014786,-0.054234900,0.011640716,-0.010307655,0.006771999,0.036329463,0.011636556,0.014234891,0.011143734,0.032821909,0.018493637,-0.042100701,0.010978295,0.000045766,-0.042795550,-0.002515469,-0.007477587,0.011108760,0.031185638,0.013302569,-0.010447840,0.008406069,-0.061916117,0.032317575,0.017806854,-0.001202731,0.008826234,-0.041601848,-0.009250700,-0.005161113,0.017494282,0.013894590,0.046124112,0.011916911,-0.001057162,-0.030957153,-0.015825139,0.018778484,0.022184558,-0.028579816,-0.004921038,0.026524831,-0.022308679,0.008877861,0.018509014,0.023681590,0.035338737,0.001000392,-0.063492931,0.003698930,-0.004766641,-0.005617210,-0.073629320,-0.007323835,0.000685941,-0.013320432,-0.035360295,0.031000959,-0.012049165,0.022793071,0.047589451,-0.019023415,-0.058642779,-0.014223615,-0.027543524,-0.018491689,0.021758668,0.014568205,-0.015096070,0.036357105,0.009660750,-0.002787052,-0.004549209,0.007428077,-0.013005988,0.020582050,0.022678744,0.043443494,0.034743700,-0.000665410,0.036253575,-0.018716075,0.038722970,0.034180388,-0.053884935,0.017932286,-0.058289871,0.015946899,-0.034245901,-0.014707774,0.003818562,-0.067543164,-0.025999248,0.040994290,0.015512578,0.004141438,-0.009853957,-0.007907811,0.014181659,0.032371588,-0.029915476,0.022667954,0.027634853,-0.027772013,0.033151619,-0.043962222,-0.001413783,-0.027086379,-0.020789472,0.000877923,-0.010215916,-0.012758208,0.036345430,0.000506054,-0.052801121,0.010375311,0.002256251,0.017893789,0.022503294,0.041111596,0.004682134,-0.004106382,0.018867522,-0.001342016,-0.002702566,-0.011144809,-0.039785568,-0.022244679,-0.030433964,-0.069906995,-0.019946830,-0.010717730,0.011679019,-0.045671053,-0.018935757,-0.024845699,-0.023658168,0.014295080,0.018409817,-0.000558824,0.007839368,0.015193488,0.042316753,0.037974544,-0.004730391,-0.005719447,-0.012004231,0.007108223,-0.043507542,0.015995324,0.022949455,-0.004842699,-0.057901930,0.021365246,0.006744587,-0.016514238,-0.026002564,-0.031203117,0.020015143,0.030397682,0.003659846,0.016436480,-0.060708437,0.022980895,0.015759720,-0.029812835,-0.006375093,-0.072540067,-0.035532162,0.001007230,0.021007497,0.027359346,0.000422641,0.029591614,0.000956120,-0.028825045,0.000878216,0.025401063,0.016292084,-0.051501453,-0.019954048,-0.043299995,-0.035480753,-0.011402784,-0.019701000,0.020714790,-0.062200475,0.012756838,0.023997629,0.010454384,0.040480953,0.001029335,0.014720775,0.001546859,-0.064368606,-0.021437498,0.016111862,-0.072690591,0.008715745,0.006247527,0.000294576,0.012401479,0.007982385,-0.026299722,0.011435747,0.021221856,-0.016763477,0.039759986,0.017502440,-0.026271138,-0.025287772,0.027382189,-0.029147448,0.042019892,-0.069904096,-0.014441703,-0.029302020,-0.020820869,-0.046993218,0.035252836,0.032698590,0.043969370,-0.033877190,0.009359527,-0.007163243,-0.003601453,-0.033643451,-0.006028056,0.045483619,-0.026299257,0.012790622,-0.000313042,0.020412780,-0.000630340,0.023586158,-0.003868609,0.024391769,-0.001926064,0.021894980,0.030506751,0.001416882,-0.065886013,-0.014268521,0.016782597,-0.029199850,0.010566224,-0.015420880,-0.026121294,-0.013881011,-0.032333832,-0.003716116,-0.024139993,0.023440916,-0.001668915,-0.029693717,0.014232564,-0.063573606,0.022142308,0.003641999,-0.057886116,0.019942455,0.023376804,-0.050829392,0.013714633,-0.014119386,-0.008846670,-0.001301821,-0.006731499,-0.035120040,-0.026996415,-0.030253932,-0.000179054,0.038966354,-0.047924869,0.024947468,0.038245752,-0.035017699,-0.020459855,-0.004520794,0.013031753,-0.007612613,0.004739898,-0.024048520,0.006603731,-0.064970762,0.041247252,-0.003712870,-0.069462359,-0.005954111,-0.011871955,-0.002338236,-0.005385453,0.000680702,-0.015364799,-0.008271211,-0.018521076,0.005526642,-0.018797548,0.027258718,-0.029134372,-0.041387223,0.000810379,-0.009642716,-0.050855272,-0.003556449,-0.013593488,0.035220318,0.018593444,0.010958549,-0.016389439,
-0.019084146,-0.001241760,-0.009842081,0.008421946,-0.030736541,-0.014094851,0.008188341,-0.007235345,0.002681287,0.004818146,0.009111390,-0.028514981,-0.021227583,-0.002969631,-0.006921256,0.012219029,0.003565831,0.030508360,-0.003011901,-0.014643923,0.009581701,-0.008309903,-0.026063560,-0.041727394,0.022779115,-0.037272070,-0.024701150,0.009799276,-0.027950365,0.010147316,-0.000351704,-0.009265028,0.002973612,0.005331715,-0.000191875,-0.018011281,-0.044758502,0.006183081,-0.003978002,0.000396813,0.004913615,-0.009059075,-0.044059917,-0.045866687,-0.046524916,-0.015323018,-0.018161120,-0.019183449,-0.045323741,0.002131785,0.002264849,-0.029497096,0.000341883,-0.002366014,-0.025723802,0.003427645,0.008238408,0.002994930,-0.045423102,0.023078678,-0.001378956,-0.027149890,0.015008760,-0.016261961,-0.029075621,-0.039160252,-0.031119635,-0.001355574,-0.001366949,-0.021399733,0.009851391,0.003927225,-0.010738008,-0.028570754,0.012793904,0.010707914,-0.028105201,-0.034433234,-0.019619500,-0.026588973,0.005184769,0.008667691,0.026339315,-0.031547841,-0.042792019,-0.005545216,-0.044682540,-0.023221750,-0.037858907,-0.002549399,0.026102521,-0.002650366,0.030404745,-0.000764103,-0.050383978,-0.016467780,0.005466331,0.011131330,-0.024872262,-0.052458793,0.000629522,0.030464405,-0.019463498,-0.033022497,-0.029382819,-0.012298062,0.005930436,-0.013501408,0.008278041,-0.002182827,0.023307772,0.011408001,-0.027126489,0.005325512,-0.041319292,0.022990176,0.002951765,0.026601244,-0.037115969,-0.044850186,-0.005128602,-0.022280388,-0.021994220,-0.036604129,-0.023099657,0.029996382,0.030631566,-0.049831413,-0.021562044,-0.006593710,0.002132758,0.005546776,-0.034060229,-0.001980516,-0.035438728,-0.036872141,-0.002199193,0.007518231,0.009959351,0.000176122,-0.013616829,-0.022913760,-0.028736068,0.010258491,-0.023147833,-0.006992858,-0.024922471,-0.026581295,-0.045086939,0.031471372,-0.032331716,-0.041742418,-0.030866865,0.004405595,-0.017529560,-0.017805995,-0.047065433,-0.038079567,-0.045216966,0.000844250,-0.013056851,-0.025964653,-0.019093344,-0.020817500,0.000438819,-0.026512992,-0.038029052,-0.031661671,0.010097553,-0.041199435,-0.025304263,-0.035635523,0.008294247,-0.044039108,0.025214376,0.006746543,-0.025813906,-0.013186726,-0.051759291,-0.011879917,0.023950333,-0.008164275,-0.000516945,-0.011231352,-0.037358020,-0.010326423,-0.026862783,-0.033091541,0.022825664,-0.004027302,0.017318793,-0.025626404,0.008318358,0.003607954,-0.003415637,-0.002740581,-0.046994019,-0.037049353,-0.019589912,-0.014589095,0.024974421,0.007111977,-0.033397786,0.013203667,0.012106879,-0.035079867,-0.051383961,-0.006558164,-0.010027798,-0.012585736,0.022177482,-0.032527763,-0.012320261,0.005241755,-0.031524830,-0.045289855,-0.031560358,-0.026337426,-0.023750234,0.019141503,-0.038697775,-0.013593908,0.016390206,-0.012276968,-0.020866672,0.002752484,-0.035420630,0.026337735,0.026158577,0.027273612,0.023492986,-0.022501299,-0.046348736,-0.019953843,-0.046723258,-0.026478872,-0.040755365,0.002030282,-0.006786557,-0.013706940,-0.019717582,-0.016527154,-0.004811455,0.002571903,0.013842447,-0.044063624,0.029914003,-0.032416075,-0.020091392,0.013283016,-0.038948666,-0.013457241,-0.016597454,-0.028501993,0.023202490,0.003918345,-0.050008073,-0.025957486,0.000186673,-0.001979942,-0.006359312,-0.002920224,0.003534306,-0.030297050,-0.018230114,-0.027264448,-0.018183373,-0.028757805,-0.049568444,-0.004228109,0.006651452,-0.021809267,-0.045646198,0.020980693,-0.033608165,-0.043565407,-0.028526425,-0.014869833,-0.035601221,-0.024996314,-0.036948830,-0.029710371,-0.006212673,0.001500571,0.006440878,-0.052820452,0.006206029,0.012012456,-0.028221179,0.001878436,0.029611703,-0.017448593,0.001400996,-0.033341661,-0.017194357,-0.021028357,-0.035701975,-0.001927898,-0.013486423,-0.004035925,0.004854178,-0.044297114,0.028371625,-0.010690065,-0.003776601,-0.050128289,0.021771362,0.004218250,-0.025059387,-0.040341444,0.006168369,-0.009913131,-0.010534022,0.017994355,-0.048172582,-0.046852056,0.024714343,0.006825440,-0.008062341,0.010008352,0.001051345,0.004029985,-0.015031951,-0.021267230,-0.021906996,-0.015846310,0.011423691,-0.020740062,-0.025273632,0.000700497,-0.010395963,-0.000215530,-0.037820939,0.002504614,-0.031083593,-0.004448835,-0.003805609,-0.030934582,-0.028468542,-0.017429430,-0.014897315,-0.019959183,-0.001486391,-0.020291133,0.010800568,0.020336753,0.003385615,-0.018067654,-0.043950021,-0.030645728,-0.015279546,-0.023061024,-0.050448418,-0.021532433,-0.027037801,-0.022871148,-0.015197206,-0.014195050,-0.022300269,-0.021541718,-0.030562708,0.010398504,0.018755998,-0.047574591,-0.047944523,-0.001256665,-0.016958749,-0.010507063,-0.030392183,-0.016766403,-0.015119120,-0.031103324,-0.002966859,0.009583815,0.004845475,-0.026488576,0.009390906,0.005985203,-0.003818518,-0.023581918,0.007321020,-0.019284932,-0.026456544,0.029189091,0.013304002,-0.027226251,0.003119816,0.006851740,0.005961154,-0.014960364,-0.032168645,0.000354415,0.004437391,-0.047824070,0.021844216,-0.003247356,0.002779119,-0.009162219,-0.023105709,0.013900786,-0.002713964,0.005333627,-0.019573204,-0.029966040,-0.019698264,0.005600010,0.011015565,-0.006493808,-0.017524198,-0.026050055,-0.006988030,-0.033434462,0.002094876,0.003026015,0.017522423,-0.002754941,0.013802479,-0.046219524,-0.029284485,0.004141240,-0.033361647,-0.017060783,-0.026763331,-0.001254076,-0.025250122,-0.009079286,-0.015922382,0.029043550,-0.006000147,-0.014987490,0.005718546,-0.014429846,-0.011259729,-0.023626780,0.002051366,-0.003503954,-0.011352506,-0.022433126,0.013559167,-0.021182913,-0.017043944,-0.013902446,-0.016039761,-0.019808663,-0.038537402,-0.005762483,0.023296934,-0.032332465,-0.028292788,0.026046231,-0.036869295,0.002876896,0.003051065,-0.031250332,-0.018773228,-0.032840386,0.005447944,-0.022765454,-0.003772012,-0.037682194,0.017651023,-0.004989220,0.008603468,-0.034725301,-0.008137936,-0.026961261,0.018789791,-0.010497864,-0.010103906,0.010089041,-0.039209839,0.017768921,-0.032039437,-0.004171275,-0.010798870,-0.018936716,-0.015675673,0.020077687,-0.011955559,-0.011781626,-0.012748864,-0.031499486,-0.014055900,-0.031108556,0.011846376,-0.022176560,0.009906704,-0.035884678,-0.031476814,0.011585888,0.017070387,-0.001051087,0.004810811,-0.054066204,0.009404251,0.003772698,-0.036640506,0.011717323,-0.004196520,-0.013193947,-0.050879214,0.014825351,0.011267738,-0.027260663,-0.006304739,0.004438761,-0.044669956,-0.029422199,-0.007537384,-0.020585885,-0.035235099,-0.036528125,-0.039755691,0.003937700,-0.027333243,-0.048279952,-0.022936743,-0.006706988,-0.051229034,-0.000792606,0.031595718,0.022440625,-0.051248688,-0.019452641,-0.024712255,0.019495973,-0.034542814,0.023561301,-0.029501723,-0.007488111,0.015806183,-0.015412701,-0.005940030,0.015486991,-0.011551543,-0.031694788,-0.031419251,0.006596535,-0.047957961,-0.016923325,0.005116031,-0.001343170,0.004135574,-0.046364423,-0.014006114,-0.002842002,-0.018988885,-0.027445359,-0.020048220,-0.026935916,-0.026520612,-0.025970757,-0.012029334,-0.022693796,-0.047464941,-0.014719219,-0.035250269,0.006594966,-0.026054941,-0.026736282,0.022349145,0.000430919,0.030284898,0.022714730,0.031385031,0.003979432,-0.001161914,-0.026518371,-0.014628253,-0.003286702,-0.000029457,0.024722453,-0.010633310,-0.048751120,-0.014316286,0.001811098,0.014307386,-0.013512807,0.026523206,-0.052145526,0.024732510,0.007499658,-0.044302221,-0.021364613,0.016026661,-0.030398415,-0.021066973,-0.040099826,-0.004651033,0.009876173,0.006133315,0.006471995,0.011955310,-0.045147415,-0.010802696,0.007984964,0.017804552,-0.043106273,-0.006142743,-0.011881988,-0.029861590,-0.027725011,-0.017797645,-0.024601787,-0.015812803,0.002981912,-0.023217073,-0.029555321,-0.010679162,-0.005431003,-0.029929634,0.030122392,0.010920453,0.006912152,0.024193525,-0.024215583,-0.035422355,0.023098705,-0.050173111,-0.050048467,0.005976706,-0.017730191,0.015589357,-0.039531391,-0.028237289,-0.042317171,-0.029433826,-0.021391893,-0.031759594,-0.015668008,-0.002568345,-0.014464728,-0.002234522,-0.018725513,-0.009683061,-0.010369939,-0.024117911,0.010746812,-0.040204410,-0.011869438,-0.030016702,0.016787799,0.001218913,-0.030061761,-0.040775269,-0.049318377,-0.013831655,-0.047540434,0.012701923,0.010395008,-0.024063753,0.015506906,-0.041825164,0.003473782,-0.009161637,-0.001468928,0.024321651,-0.043086123,-0.025121965,-0.039563604,0.005876457,0.007351041,-0.023365902,0.008882221,0.021755839,-0.024092825,0.017250888,0.006847584,-0.014976668,-0.026591118,0.003393353,-0.048803031,-0.019527057,-0.021133222,0.009910537,-0.018308293,-0.014702533,0.020810666,-0.027668029,0.011294542,0.005027434,-0.003156428,-0.018864445,-0.008388548,0.014543029,-0.003616537,-0.022421911,0.005237142,-0.005924509,-0.009004965,-0.050557714,0.004340633,0.004793531,-0.038401287,-0.018217631,-0.004973463,0.003023959,-0.012355334,0.008802178,-0.039056439,-0.017136838,-0.029918153,-0.016324529,-0.001263972,-0.023481781,0.005742807,-0.017453153,-0.037508875,0.005756114,0.000796853,-0.029842125,-0.012204723,-0.014235013,-0.025219062,-0.037729945,-0.019704506,-0.012455581,-0.018521059,-0.048438203,0.005475035,-0.000033015,-0.000021838,-0.011954485,-0.014772250,0.002428490,-0.000087778,-0.019882167,-0.041081745,-0.006503104,0.029114526,0.020598169,-0.029595951,0.014075955,0.010450102,-0.028609021,0.007693519,0.006645843,0.008565328,-0.049948432,-0.014682464,0.002419966,-0.036930162,-0.026310515,-0.024869706,-0.009289953,-0.037521817,-0.024330236,0.005858965,0.020852657,0.007285969,-0.036532972,-0.044993356,0.007179881,-0.001839961,-0.009072622,-0.046479139,-0.031902671,-0.037606299,0.014329435,-0.016852390,-0.026433788,-0.011199853,-0.014467251,0.006913739,0.006589876,-0.017375093,-0.002760776,0.007228131,-0.022543445,0.000850059,-0.000057259,-0.017153276,-0.022527121,-0.003097942,-0.006034854,-0.050562680,-0.004371853,-0.005994724,-0.013042049,-0.017677156,0.001356628,-0.046798486,-0.004271344,-0.003585982,-0.042937312,-0.023421338,0.016689993,-0.014631432,0.020786732,0.006341723,0.020461557,0.031186504,0.010850783,-0.004520730,-0.027791772,-0.042250007,-0.027135231,-0.013183159,-0.004491814,-0.002758047,0.002723292,0.010711905,0.000869935,-0.012369046,-0.018527538,-0.020886011,-0.000337874,-0.018750321,-0.005920221,0.004447182,0.028389880,-0.023380818,0.002323929,0.020295974,-0.039808951,-0.011630465,-0.011550218,0.020501332,-0.041227173,-0.033362743,0.000874757,0.005945014,-0.013572765,-0.002550111,0.002747529,-0.031713340,0.014420580,0.019242601,-0.043248143,-0.028091021,0.004806329,-0.004071976,-0.003345799,-0.045823075,-0.024923647,0.017200591,-0.019545777,0.001997787,-0.036014467,0.011858066,0.007552568,-0.030648507,-0.006077645,0.003841463,-0.012491643,0.022801274,0.006579734,0.013124182,-0.045817308,-0.001479665,-0.032074988,-0.012789524,-0.008729412,-0.023673618,0.018480550,-0.004559311,0.005681226,0.000593605,-0.023504129,-0.015381224,0.001328702,-0.019266987,-0.038999576,-0.013045835,0.009792899,-0.002900945,-0.026015203,-0.008366847,-0.035197087,-0.039388485,-0.049292281,-0.019735830,0.003829735,0.005416561,0.003244146,0.002435085,-0.015788989,-0.012624688,-0.011521648,0.007740145,-0.031388886,-0.004278261,0.010841847,0.004360076,-0.039066210,-0.029030437,-0.048220988,-0.042044591,-0.001570527,0.007094039,-0.025130736,-0.001733902,0.002323389,-0.023976309,-0.015291832,-0.043828808,-0.007695286,-0.010502591,0.002824891,-0.054595266,-0.005192414,-0.046114895,-0.011050722,-0.041698240,-0.041820515,-0.033150822,0.004510298,-0.032213204,0.002939041,0.006434751,-0.040554129,0.002207777,0.000038809,-0.050300315,-0.040159505,0.004294283,-0.037388302,0.020783445,-0.038860396,-0.024163175,-0.041875582,-0.013944181,-0.038810875,-0.024959769,-0.001378225,-0.001102423,-0.023055103,-0.015413983,0.011178518,0.009151010,-0.002263014,-0.046409741,-0.044860758,-0.040356699,-0.019957412,-0.020495061,-0.015647858,0.010320224,0.013888326,0.010338929,0.002887781,-0.028997101,-0.009423902,-0.010256233,-0.028234277,-0.011096615,-0.051379312,0.023718871,0.001924976,-0.020346910,-0.021028563,-0.030156301,-0.013018424,0.018784534,0.005810166,0.009855729,-0.005534596,-0.027805472,-0.028396931,-0.023053162,-0.032461759,-0.015453820,-0.020895792,-0.001257519,0.008169970,-0.042814683,-0.008018873,-0.011279076,0.015348370,-0.049115866,-0.031452660,0.017729083,-0.006906859,-0.015918583,0.000127959,-0.040125716,-0.021263663,-0.022871617,-0.002310691,-0.040490095,0.016732043,-0.037344918,0.004746035,-0.023495289,-0.018498540,-0.021252599,-0.045994326,0.031103164,-0.007138785,-0.047739122,-0.048988473,-0.001688130,0.020340540,-0.002916893,0.001392044,-0.001322537,-0.045057941,-0.000123522,-0.008683868,-0.045779403,
0.011205199,-0.001156989,-0.010125942,0.009292525,0.036406081,0.023604309,-0.017163208,0.059559606,0.029352859,0.038328331,-0.037097197,0.003748260,-0.006373669,-0.031364113,0.037989371,0.029235253,0.045778390,0.006213402,-0.033257257,-0.009944928,-0.022406701,0.015268475,0.045217112,0.002641717,-0.004210484,-0.029154688,-0.054411188,0.029967273,-0.010084902,0.012424611,0.008863427,0.009856562,-0.003514603,-0.014643583,-0.069243170,-0.044970430,-0.021383995,-0.023184884,-0.006880105,-0.031023202,0.010988194,0.003607474,0.048226643,0.057344925,-0.013707468,-0.068533584,-0.011192056,0.058064982,0.044048619,-0.063145518,-0.013412526,0.056497876,-0.010020387,-0.009436181,-0.036388412,0.007526638,0.017785499,0.016755398,-0.005864690,0.019220226,0.058543470,0.037730992,0.018753370,0.003321225,0.009508163,-0.052626427,0.048789728,-0.032347910,-0.025095399,-0.013655894,-0.010897744,-0.019669637,0.019661777,0.013266131,-0.001754266,0.029467344,-0.024282247,-0.008349060,0.024385288,-0.031964276,0.032946143,0.027676579,0.015449460,-0.043514520,0.033791974,0.013291594,0.000624746,0.040163033,0.031526532,-0.019835511,0.020195680,0.037337001,-0.015904855,0.028419422,-0.020139519,0.055709865,0.042539489,-0.005071933,-0.026377285,0.033798847,0.030829364,-0.001528158,-0.026805308,0.006398879,0.013149850,0.056248326,0.015605792,-0.004510378,0.042602926,0.007279538,-0.007306356,-0.016280401,0.064830728,0.029552953,-0.011825735,-0.010025510,-0.009997864,0.012802054,0.002110635,-0.067792982,-0.015690798,-0.041649062,0.017935557,0.023086959,-0.011591550,-0.028508060,0.027768077,-0.047938302,0.007695802,0.002908022,-0.034734692,-0.027329685,0.028822124,0.013874708,0.011454361,0.021063672,0.066230133,-0.022647044,-0.024566539,-0.012201047,-0.009112728,-0.025257783,0.045506861,0.058301497,-0.015129149,-0.003688097,-0.046326857,0.021471027,-0.065625019,0.016192695,0.024053724,-0.009868939,0.025802040,0.033377461,-0.010080471,0.007457698,0.043961149,-0.058548201,-0.026506569,-0.019903954,-0.014844577,-0.037375219,-0.007505037,-0.013474910,-0.024043839,-0.000734287,0.028790371,0.068817072,0.008767883,-0.012258895,-0.066402093,-0.038217396,0.029856032,0.036069963,-0.012761187,0.004153514,-0.022607794,-0.004097610,0.017062329,0.040389962,-0.026558401,0.022094132,-0.053077038,-0.027043184,0.014460777,-0.034797743,0.021484155,0.026844405,-0.030404173,-0.023861265,0.022110175,0.014500990,0.036160663,-0.025558885,-0.055029552,0.010719891,-0.021779086,0.000197411,-0.010446811,0.057684988,0.018157050,0.051263951,0.009829024,-0.022269417,0.009906036,-0.009443750,-0.002993211,0.013053855,-0.039501846,0.004059323,-0.025661431,0.041587614,-0.021911373,0.017140634,-0.040721919,0.034111340,-0.024467638,0.013933689,0.015499331,0.027640432,-0.036255751,-0.019633513,0.024104673,-0.006156813,-0.003564941,0.015007744,-0.008471627,-0.021948867,0.003280143,-0.023108907,0.016617481,0.006591041,0.005223640,0.000830637,-0.000866344,0.000098222,-0.009020848,0.022970419,-0.000426636,0.024009265,-0.005051727,0.016801141,0.012613207,-0.041345794,0.009777718,0.033639073,-0.027080500,0.025867170,-0.021257414,-0.028295480,-0.021881122,0.006814042,-0.056998525,-0.018764630,0.001582562,0.016883889,-0.053959839,0.006983323,0.036461700,0.005701825,-0.023127712,0.012955298,0.060535699,0.069541812,0.028408069,0.021020534,-0.017690457,-0.024249716,0.035752971,-0.028672427,0.028022161,0.010590701,-0.021471728,0.010474417,-0.023862688,0.015045479,0.052606914,0.002371152,-0.010364360,0.050538644,0.033482503,0.006025979,0.050166946,0.024163779,0.028344663,0.034816932,0.038469501,0.020627143,-0.002290292,0.044330109,-0.009545774,0.012954080,-0.014757697,0.058413673,0.001050854,-0.051382739,-0.020021861,0.023249228,0.022422511,0.035663106,-0.005923122,0.020325448,0.010665908,0.020560104,-0.029700162,-0.052936237,-0.011583720,0.032208595,0.054951381,-0.019617237,-0.005483202,0.034669396,0.015587100,-0.012266708,-0.015866559,0.055799369,-0.017010052,-0.002121208,0.028876621,-0.026896439,0.033635467,-0.052324146,-0.012518586,0.005972644,0.031196656,-0.022355823,-0.010914309,0.004133856,-0.026039995,0.047166444,-0.042851508,0.021706685,0.057445340,0.019402534,0.011755671,-0.028427396,0.001205348,-0.035738524,0.008720442,-0.075502656,-0.002358885,-0.026851535,0.004044107,0.026335508,-0.057073828,-0.007509628,0.048677508,0.017263660,-0.000362980,0.059211284,0.013930975,-0.019346491,0.043821286,-0.004591377,-0.009078518,0.062679864,0.001296816,0.022571621,-0.008301318,0.003402938,-0.022972487,-0.063181415,-0.031049972,0.023102472,0.040080067,0.013746590,-0.001632963,0.016718503,-0.033434600,-0.004217829,-0.016464956,0.024524420,-0.012335536,-0.033622183,0.001462639,0.004270072,0.001524222,0.017002564,0.019471556,0.029357761,-0.017687256,0.043460064,0.017867275,0.029077798,-0.006640961,0.021275612,0.009229990,-0.047648747,-0.004133686,-0.004703754,0.020881495,0.039923608,-0.059295349,0.054227702,-0.015789358,-0.006688042,0.026442187,0.026940728,-0.041391652,0.000127095,-0.010422106,0.037275501,-0.031544715,-0.019000245,0.006531295,-0.021042734,0.023145659,0.058872387,0.015159730,0.035539951,-0.007621468,-0.018325396,0.028869133,0.030730970,-0.026355609,-0.036255941,-0.024024509,-0.016136564,-0.010001985,-0.001905414,-0.003362344,0.002639883,-0.042804554,-0.015612580,-0.037606426,-0.030996162,0.027189184,0.017429175,0.004961902,-0.009782182,0.020623602,-0.017123355,0.009685845,0.061815228,-0.031279828,0.047043316,-0.020592511,0.027224975,0.010611907,-0.049214166,0.016150558,0.039933380,-0.005971921,0.007296713,-0.034640063,0.030039990,0.013476433,0.057790592,-0.007773595,-0.022143539,0.061134193,-0.060710683,-0.024491617,0.042077422,-0.023086827,-0.010114479,0.035905924,-0.025512189,-0.011185698,0.031735085,-0.004995089,0.041495148,-0.019788342,0.016817750,-0.043308787,-0.009779833,-0.012903249,-0.027144209,0.022812072,0.001267407,-0.062280405,-0.024783311,-0.009564308,-0.007742686,-0.025326397,0.009000397,-0.025079330,0.000989431,0.011015978,-0.035868771,-0.019375460,-0.001222365,-0.021734083,0.025516372,-0.001698289,-0.015071346,0.026189785,-0.043523569,0.016230939,0.004577261,-0.013919489,-0.018010195,0.034624029,0.024519201,-0.004014878,0.008776431,-0.045588940,0.012925488,0.054456148,0.014367131,0.002430436,-0.016598081,-0.045862708,0.038188178,-0.047998540,0.025614670,0.023152815,-0.007212776,-0.018679317,-0.010555243,0.052422017,-0.024637531,0.022331117,0.009780442,0.050928760,0.016645171,-0.032094035,0.010303604,0.015392830,-0.028263239,0.010272940,-0.025378970,0.047464948,-0.007525057,0.001106626,-0.003211072,-0.021515250,-0.008431692,-0.030685849,0.002557106,0.007724863,0.029329842,0.050554842,-0.005505523,-0.014858195,-0.005007184,0.021731123,-0.006943885,-0.028432591,0.011453254,0.010704676,0.004529614,-0.003310830,-0.038894616,-0.004328048,0.006155669,-0.020026255,0.015231553,-0.017958952,0.009752636,0.012726684,0.017488230,0.044891801,0.030411538,0.052157186,0.023486804,-0.044528447,0.025728786,0.032467190,0.007069373,0.033276286,0.020543922,0.018544806,0.019765837,-0.014957149,0.040293515,-0.003163892,-0.025136122,0.020388315,-0.025222218,0.016533704,0.016740309,0.009504771,-0.038176563,0.048493646,-0.004654815,-0.028647019,0.020282093,0.007367561,-0.030267796,0.017629897,0.056135070,-0.027871227,-0.021824768,0.026189700,-0.018714391,-0.030975660,0.027917380,0.059125949,0.039479911,-0.052386072,0.059708398,0.025777899,-0.064663410,-0.016956149,0.029857932,-0.019925904,0.070245050,0.018065304,-0.036445200,-0.042300016,0.000410757,0.016767949,0.005330027,-0.025316091,0.029882088,-0.004202657,0.024967682,-0.027009005,-0.004440526,0.018809022,0.019148178,0.038198471,0.032108955,-0.024898732,0.016025286,-0.006261543,0.006014246,-0.018695667,-0.035813503,0.036136646,-0.020680266,0.016424771,0.026199887,0.006037065,-0.015628640,0.051561389,0.016479017,0.046309337,0.020835521,0.004289898,0.007722587,0.042892963,-0.013646427,-0.046985682,0.025789792,-0.012779231,0.015772490,-0.006888030,-0.021252612,0.019309133,-0.023103513,-0.009423323,-0.006091700,-0.001738916,-0.037427764,0.053969260,-0.000068298,0.019817432,0.031474065,0.047723029,0.022601962,-0.002290345,-0.000708631,-0.004544035,-0.004447586,0.015687864,0.026820714,0.031896111,0.010608076,0.007881515,0.013436252,-0.066656142,0.023878543,0.008032557,0.004402804,0.028341742,-0.014335840,-0.046163622,0.001174417,-0.005423729,0.053124301,0.011336744,0.026481159,-0.042576056,0.027576363,-0.020449013,-0.024798190,-0.020051368,-0.001415290,-0.012092464,-0.014718083,-0.026695175,0.021993730,-0.029841445,-0.001055584,-0.022557260,0.066792145,0.010891815,0.028876370,-0.014860625,0.007962171,-0.051905051,0.021894041,0.020956570,0.002084021,0.037647445,-0.014916111,-0.002853989,0.056388076,-0.017206812,0.040656846,0.048652112,-0.000309651,0.049314886,-0.050715640,-0.011123567,0.004865496,0.030599710,0.015147112,0.012308538,-0.004556038,0.023923203,0.057896134,0.056139234,0.022175319,-0.036832776,0.056038715,-0.053603854,-0.015780343,-0.006878047,0.028839983,-0.056550436,-0.022046886,-0.008141154,0.000932770,-0.031681582,0.042567119,0.056335710,-0.008425551,0.010110340,0.014629450,0.003986401,-0.001915490,-0.018467976,0.055416040,-0.007625396,-0.025665907,0.062801503,0.002778688,0.005159711,0.013192466,-0.045829743,-0.031133668,-0.052507404,-0.017846048,0.048610188,0.055273023,0.018734114,-0.012287392,-0.065367609,0.047261447,0.031157436,0.032566212,0.032519720,-0.014960679,0.063067496,0.007181478,0.003766962,0.005878255,0.022659058,0.043918822,-0.010927127,0.018127901,-0.014624376,-0.025679303,0.005720337,-0.012390409,0.047875080,0.008948811,-0.026055843,-0.017781103,0.000562924,0.014903232,-0.023171641,0.007108596,-0.013044375,0.013789226,-0.047782198,-0.007999154,-0.040490996,-0.035120469,-0.027827214,-0.000420245,-0.056561187,0.019510036,-0.025180178,-0.017918445,-0.006177036,-0.054319147,-0.008107805,-0.008061542,-0.021092432,-0.015948104,0.000908793,-0.057710208,0.042274043,0.056740507,0.011703555,-0.014363323,-0.038648091,-0.040377755,0.028058724,-0.025129825,-0.008414917,-0.004721460,-0.057619892,-0.015574755,0.013270304,0.030743122,-0.010031221,0.020609125,0.050980143,0.033875581,0.009122642,0.014966624,0.037833773,-0.022470778,-0.025446132,0.035202514,0.039945327,-0.056720078,0.000849765,0.014579953,0.030253248,0.003702214,-0.027802860,0.017623819,0.027413854,-0.002533337,-0.020401763,0.018828264,0.041125290,0.019819275,-0.001406463,0.025004275,0.063312106,-0.005649474,0.033445280,-0.008910627,0.005330675,-0.019501312,0.066327222,-0.002959471,0.013224878,0.028637169,0.019595511,-0.010842927,0.061094996,-0.028761631,-0.007249969,0.026835611,0.005281156,0.009220652,-0.022208786,0.060857795,-0.027549686,0.029438861,0.060791526,0.013294805,-0.007942686,-0.066478156,0.005343288,0.018091802,-0.025698356,-0.001384546,0.012980775,-0.010744534,0.024694223,-0.060122170,-0.049065690,0.018922385,-0.009696232,-0.013847099,-0.004425148,0.014840480,0.010413523,0.003293344,-0.031259164,0.003859270,0.017631706,0.008689594,-0.021455910,-0.010025412,0.009478490,0.015368512,-0.061675850,-0.037731174,0.013059607,-0.042899728,0.002903085,-0.010796785,0.008206428,-0.024975153,-0.009749883,0.022302905,0.031905223,-0.027585046,0.003087095,0.032638639,0.008163126,-0.033972517,-0.045436997,-0.002855483,0.010869674,0.015716383,0.045660935,-0.025736656,-0.043845329,0.052920677,0.010817253,0.050105505,-0.015916785,-0.059912365,0.018049395,0.020324046,-0.049713116,-0.019662961,0.046135686,-0.046979290,0.030615270,-0.043392524,-0.048055205,-0.000487938,-0.000744096,0.019867660,0.025329193,0.029293649,-0.031698890,0.024589028,0.063334502,0.049328741,-0.031670120,-0.048554689,0.035429794,-0.003772781,0.025174132,0.022403255,-0.018148992,0.015719654,-0.012061185,-0.060687449,0.032499138,-0.008004416,0.000487037,-0.008685925,0.059061639,-0.018639928,0.020832859,0.038543690,0.002904304,0.007813092,-0.026224699,-0.024992855,0.064272709,0.022973012,0.029962026,0.047927491,-0.026212515,0.010096404,0.007609674,-0.000954870,0.020171905,0.055862747,-0.032892019,0.014093777,0.025234316,0.028013417,-0.015435625,-0.027078681,0.059963692,-0.005471068,-0.001559499,0.008929971,0.059479371,0.035538524,0.001906672,0.011443295,-0.060739465,0.013445908,-0.015748553,-0.013629583,0.045114081,-0.015467996,0.052519199,-0.025867930,-0.010857132,-0.014769288,0.058226742,0.012183570,0.010919988,0.026845666,0.015210187,0.007402937,-0.024817465,0.036375530,0.049924634,-0.061772998,-0.004087817,-0.044030704,
