// Neural Network File Format by Kyle Julian, Stanford 2016
2,1,1,1000,
1,1000,1,
0,
0.0,
0.0,
0.0,0.0,
0.0,0.0,
0.659952819,
-0.852021515,
0.218736723,
-0.938184023,
-0.909110308,
0.629124284,
-0.764589250,
0.877153039,
0.521953166,
0.146903753,
0.437518716,
-0.351102114,
0.172488302,
0.582493126,
0.715346575,
-0.982804179,
0.515200853,
0.716229618,
-0.162031218,
0.579598665,
0.207767561,
-0.654056847,
0.857247412,
-0.004257190,
-0.941028893,
0.097491942,
-0.255192965,
0.873861194,
0.333568484,
-0.824028432,
-0.701441765,
-0.604674220,
0.565307021,
0.772289455,
0.705776334,
-0.313131213,
-0.811037302,
0.782883346,
0.706438720,
0.490181863,
-0.428518981,
0.795665503,
-0.855761945,
-0.009976641,
0.679547966,
-0.954284191,
-0.189852133,
-0.003253502,
0.651874304,
0.665879369,
-0.934681654,
0.703792155,
-0.824732006,
-0.092146046,
-0.099991262,
0.544851780,
-0.068780966,
0.166010037,
0.371441275,
1.008297086,
0.536846936,
0.493367553,
0.428789526,
0.661788046,
-0.235155106,
-0.541770458,
0.363241673,
0.278491020,
-0.748669446,
-0.283722281,
0.231221557,
0.855952024,
0.245057538,
-0.088931620,
-0.849946856,
-0.916234314,
-0.414188862,
0.160302415,
0.599158883,
-0.246860683,
0.463790238,
0.708752394,
0.288599610,
-0.777713180,
-0.160531893,
0.418850422,
0.471970946,
-0.179892883,
0.961219490,
-0.647106528,
-0.453890234,
-0.907790363,
0.312679887,
-0.043617330,
-0.767460108,
1.014715552,
-0.111403942,
0.488242388,
0.914638937,
-1.025706887,
-0.577386141,
-0.778174579,
-0.541763067,
0.345067263,
-0.981814742,
-0.868157148,
0.202984467,
-0.820501924,
0.751295626,
-0.169445351,
0.535182297,
0.345883071,
-0.171216875,
0.181099415,
0.014786124,
0.554207027,
0.243837833,
-1.061690807,
-0.028760470,
-0.881821334,
-0.892102301,
-0.522915900,
-0.690905571,
0.092192523,
0.665766478,
-0.364341915,
-0.577069998,
0.103337884,
-0.019352164,
-0.075653620,
-0.313037336,
-0.733096242,
0.780087411,
-0.893964827,
0.219585299,
-0.708916008,
-0.408761472,
-0.933357656,
-0.893355250,
0.481402576,
0.381935716,
0.389441311,
0.694552064,
-0.679862440,
-0.597495615,
-0.260353953,
-0.476845264,
0.198474288,
-0.649451971,
-0.932500422,
-0.825618625,
-0.743186414,
0.051838938,
1.004986644,
0.379166722,
0.829609454,
-0.609012127,
-0.271453053,
0.749483824,
-0.397038221,
0.629083395,
0.564193130,
-0.927627146,
0.514634967,
-0.995097756,
-0.297869474,
-0.040234491,
-0.063208185,
-0.675510883,
-0.477855980,
0.367902011,
0.286597610,
0.923810303,
-0.864559531,
-0.721104443,
-0.574709535,
0.134816706,
0.179535538,
0.599043548,
0.869901061,
-0.379856527,
-0.299261481,
0.532297075,
-0.811524749,
0.665885866,
0.108477980,
0.865593731,
0.957936287,
0.771773994,
0.122518860,
-0.700640202,
0.537200332,
0.773113847,
-0.460718304,
-0.137956828,
-0.302488357,
-0.220330596,
0.304324925,
-0.893263459,
0.700883210,
-0.143869817,
0.195952624,
0.160279632,
0.450956017,
-0.281534046,
0.817918539,
0.745938003,
-0.764670134,
0.665541708,
0.337278128,
-0.875238240,
-0.446337730,
-0.475492895,
-0.857105494,
0.646935225,
-0.566081047,
0.901491225,
0.884981990,
0.939673424,
0.393964380,
0.611154854,
0.641420305,
0.240605041,
-0.319184214,
0.338326693,
-0.794900954,
-0.102536142,
0.164590389,
-0.961602747,
0.875611842,
-0.254878640,
-0.395502090,
-0.436752617,
-0.462364972,
0.514234960,
-0.251049787,
0.067120321,
-0.442305088,
0.250962347,
-0.589771569,
-0.835095644,
0.017520782,
0.641793549,
0.818449914,
-0.841210723,
-0.506116569,
0.933683574,
-0.291714758,
0.605274498,
0.375074744,
-0.858680725,
0.859484851,
0.633989096,
0.058474876,
-0.820648789,
0.961984098,
0.298499703,
0.332744181,
0.169500113,
-0.217179731,
0.954768240,
0.952293813,
-0.066588230,
-0.959883273,
-0.296039283,
-0.522608697,
-0.221511737,
0.248940140,
0.028675202,
0.196584448,
-0.140193939,
-0.026056051,
-0.152289569,
0.714024425,
0.520468354,
-0.473980308,
0.859960854,
0.862662196,
0.121004432,
0.666574895,
0.298861861,
-0.075552046,
-0.402488440,
-0.321676970,
0.241048217,
-0.631069422,
0.373874784,
0.143956214,
0.042806190,
0.721215844,
-0.295196086,
0.031628851,
0.540163040,
-1.023816466,
-0.112119444,
0.235203445,
-0.764893949,
-0.191007614,
0.416113019,
0.809287906,
0.460245848,
-0.992743313,
-0.942276478,
-0.259755909,
0.378382772,
-0.737186790,
0.867096126,
0.511730433,
0.966363907,
-0.277259886,
-0.463815629,
-0.344009280,
0.255109668,
-0.830569208,
0.846658707,
-0.346286863,
0.255423307,
-0.676403880,
0.986552715,
0.567407548,
-0.643725097,
-0.254203916,
-0.548988998,
-0.183342680,
0.373979688,
-0.295179874,
0.418688476,
-0.213063121,
-0.909468830,
0.128158242,
0.748040140,
0.444880605,
0.638871491,
-0.607725978,
-0.028346352,
0.635670185,
0.565348685,
-0.180646837,
0.128961742,
-0.271462977,
-0.473525375,
-0.658467472,
-0.749666452,
0.824904084,
0.216588765,
0.789069712,
-0.809443593,
-0.449278504,
0.559222043,
0.470011383,
-0.550047457,
-0.327770591,
-0.212341562,
-0.220273450,
0.922796130,
0.937263429,
-0.929077864,
-0.388440907,
-0.000062785,
-0.016270151,
0.184564412,
-0.023189899,
0.003830307,
0.007348015,
-0.447239518,
0.878915668,
-0.195852488,
-0.524048567,
0.724770486,
0.187667191,
-0.724612713,
-0.484265983,
-0.198096931,
-0.231437981,
0.096327201,
-0.026777960,
-0.817687392,
0.346353650,
1.040005803,
-0.270705432,
0.402352184,
0.253927052,
0.978103459,
0.334540784,
-0.844722033,
-0.058737122,
0.437496841,
-0.648653507,
0.016069585,
0.299031228,
0.413708419,
-0.110071920,
0.170564920,
-0.827069938,
-0.279691070,
-0.506769300,
-0.726722002,
0.949611545,
0.503034234,
0.383334875,
-0.228115395,
0.260402352,
-1.040471911,
-0.488813639,
0.246091679,
-0.422913402,
0.369905263,
-0.772215009,
0.325895995,
0.176355913,
-0.604524195,
-0.617700994,
-0.405137241,
-0.745575845,
-0.724491119,
0.854121029,
-0.654893041,
1.070917010,
0.781430900,
-0.241405666,
-0.018535437,
-0.985656917,
0.972923458,
-0.454734147,
0.563936234,
0.431318849,
-0.778361082,
-0.513198614,
-0.795721829,
0.574806750,
-0.490936339,
-0.871644020,
-0.980742097,
0.623060167,
-0.241977811,
0.723895192,
-0.865345895,
-0.200594500,
-0.274045259,
-0.626476169,
0.572091877,
0.917443395,
-0.788371503,
-1.324443460,
0.817920208,
-0.699850798,
-0.776418567,
0.326766342,
0.797271550,
0.038821898,
0.797326565,
0.057152074,
-0.486391574,
-0.154011548,
0.115118206,
0.579770327,
0.288544178,
0.678678751,
-0.166207865,
-0.543184280,
0.251417428,
0.844297111,
0.005947758,
-0.421010971,
0.404401362,
0.891590178,
-0.833783627,
0.512469649,
-0.316149980,
-0.388514638,
-0.910101593,
-0.247441113,
-0.686138391,
0.426163107,
0.062883265,
0.756489098,
-0.413455099,
0.121054888,
0.858485281,
0.831298113,
-0.220392272,
0.043939129,
1.001121640,
-1.121856213,
-0.716847003,
0.425880104,
0.575463414,
0.243295938,
-0.426539928,
0.238473758,
0.588669181,
-0.964807093,
0.092668101,
-0.748045921,
0.581993461,
0.629564941,
-0.204667419,
0.684247613,
-0.826169848,
-0.678240180,
0.874023736,
0.748223722,
0.790719569,
0.185112268,
0.841714263,
0.682645500,
0.097918808,
-0.800125122,
0.309228599,
0.155243278,
-0.528070807,
0.609288990,
0.994563103,
-0.438209444,
-0.715802848,
0.914857268,
0.664886296,
-0.253505677,
0.748146296,
0.508903146,
0.047784813,
-0.143959537,
0.339377522,
-0.891383111,
0.058702350,
-0.374385417,
-0.199288592,
-0.885135770,
-0.180652753,
-0.187615573,
-0.047403678,
-0.741825402,
-0.567858875,
-0.379372954,
-0.864877045,
-0.103238039,
-0.970864952,
0.311962783,
0.671914279,
-0.229280770,
0.109150060,
-0.199589610,
-0.367603898,
0.103425942,
0.908780277,
0.401262611,
0.421323419,
0.199767470,
-0.223445639,
0.158777639,
-0.271922588,
-0.781281888,
-0.923489153,
-0.662909806,
0.152022749,
0.853677928,
-0.371243566,
0.129589200,
0.967172444,
0.475579560,
-0.046181679,
-0.485572189,
-0.110646769,
-0.543209791,
0.152036861,
0.931365609,
0.520030975,
0.134498864,
0.952177584,
0.371838093,
-0.986489594,
0.140228003,
0.430763870,
-0.299788237,
-0.161805823,
-0.742620766,
0.027336471,
-0.318178177,
0.373076081,
-0.364578128,
-0.510521412,
0.527802289,
-0.363895297,
-0.570539832,
-0.885396421,
0.003187391,
0.498085499,
0.758115590,
0.572855413,
-0.315792024,
-0.448637635,
-0.649897397,
-0.779850662,
-0.547585964,
0.800682545,
0.600291729,
-0.880825996,
-0.921078563,
0.494811237,
0.745048761,
0.182792082,
0.136783093,
0.346400529,
0.167788357,
-0.979044139,
0.163886338,
0.546199381,
0.971757412,
0.095105290,
-0.247605786,
-0.639136553,
-0.040390551,
0.489054203,
-0.210943088,
-0.835745513,
0.130562067,
0.827785075,
0.536123514,
0.449346066,
-0.071235798,
-0.255530417,
-0.395254374,
0.521930337,
-0.825965285,
-0.864600897,
-0.384535879,
-0.446556985,
-0.067684062,
-0.751983225,
-0.818790197,
-0.226682991,
0.175467953,
0.123396866,
-0.011459270,
-0.800635219,
0.013403352,
0.338662148,
0.266608685,
0.709983170,
-0.203104600,
-0.198281154,
0.747889698,
0.963786304,
1.004260302,
0.690518618,
0.930123627,
-0.395939231,
-0.610658407,
-0.890511155,
0.633689821,
0.848625958,
0.585348964,
-0.948003829,
0.812012613,
-0.768018842,
0.646085382,
0.578797042,
-0.019425554,
0.508446693,
-0.475859940,
-0.883401036,
-0.833487511,
0.387275100,
-0.588957608,
-0.404582292,
-0.013400292,
-0.479186296,
0.293846637,
0.588801265,
0.184210300,
-1.044039011,
0.073701054,
-0.319854081,
0.968363881,
0.341763586,
0.221805573,
0.599915981,
-0.111732960,
-0.021335647,
-0.626671314,
0.492572129,
-0.170740142,
0.645031273,
0.480969489,
0.327525318,
-1.006049275,
0.888174653,
1.057400823,
0.643395305,
0.143343329,
0.108567424,
0.229235202,
-0.299692631,
-0.467132002,
0.543488622,
0.360490829,
-0.752657235,
-0.303919971,
0.317314029,
-0.643101871,
0.164275631,
0.117464952,
-0.630855560,
-0.928652465,
-0.459044337,
-0.222859025,
0.530219316,
-0.330384880,
-0.769555867,
0.601327240,
0.660240114,
-0.304031849,
-0.695113242,
0.843345106,
-0.936950326,
-0.898028016,
-0.307011813,
0.559343636,
-0.450101107,
-0.827677369,
0.781437993,
0.230275750,
0.636213303,
0.657003284,
-0.267955899,
-0.509398699,
-1.053091049,
-0.509813130,
0.623384178,
-0.489439160,
-0.531649470,
0.597640812,
-0.278414905,
-0.540462554,
0.207291901,
-0.819829285,
-0.617643714,
0.420358151,
0.757857800,
-0.995632589,
0.108312592,
0.307923824,
-0.213014618,
-0.460813522,
-0.681641757,
0.252531826,
0.673902154,
0.742707253,
-0.011946426,
-0.197849333,
0.511886358,
-0.477335423,
0.244531870,
0.214759260,
0.866543651,
0.614194155,
0.331480324,
0.024727290,
0.902242124,
0.340254337,
-0.890148938,
0.616425514,
0.231270671,
0.476956844,
-0.372323245,
0.517515242,
0.518952966,
0.706307054,
0.158471420,
0.690920889,
-0.110801771,
-0.432300568,
0.719120860,
-0.456283063,
-0.230243653,
-0.889415681,
0.739309907,
1.017033100,
0.374902338,
0.146218300,
-0.069552258,
0.425147414,
0.040911116,
0.594419479,
0.253511518,
-0.314539254,
0.365504950,
-0.515595913,
-0.739363194,
0.720609963,
-0.953230441,
-0.118801400,
-0.055963367,
-0.889938176,
0.556042254,
-0.407636553,
0.866485417,
0.750463605,
-0.740949452,
-0.669427216,
-0.177730396,
0.472087175,
-0.655155718,
-0.483785659,
-0.410503954,
-0.279033959,
-0.509557068,
-0.527314126,
-0.259971708,
0.832008421,
-0.649917305,
-0.310609311,
-0.893590093,
0.299413890,
-0.670541644,
-0.171508029,
-0.748071730,
-0.890855432,
-0.231104672,
-0.179796591,
-0.350642085,
-0.932077706,
-0.215990260,
0.428851128,
-0.158868924,
0.131517768,
-0.489134431,
0.722711861,
0.014637986,
0.341415048,
-0.171449125,
-0.257243425,
0.043637305,
-0.950273931,
0.849941790,
-0.253057361,
0.749554574,
0.441811323,
-0.224332973,
-0.485790193,
-0.962764502,
-0.747758150,
-0.808172941,
0.963224292,
-0.970967531,
0.254324764,
-0.740286648,
0.007447271,
0.592285573,
-0.190881386,
-0.420669854,
0.270321757,
-0.905549705,
-0.831851482,
0.328230858,
0.758902967,
-0.943421960,
-0.778281271,
-0.683410347,
0.148463488,
-0.610513031,
0.818887472,
-0.387964100,
-0.768470168,
0.442961752,
-0.463994384,
0.223104954,
-0.068238862,
-0.707339585,
-0.742334485,
0.690560520,
0.054289222,
0.568099082,
0.661966085,
-0.556906819,
-0.565030992,
-0.048996150,
0.019998133,
0.429088503,
0.722399294,
-0.959734738,
0.818901658,
-0.015346740,
-0.837570786,
0.083058864,
-0.925516009,
0.329882592,
0.473865181,
-0.690184355,
-0.389126003,
-0.132567957,
-0.942106545,
0.285244823,
-0.243420765,
0.006610701,
-0.197260082,
0.744415879,
0.745985091,
-0.732724309,
-0.016046997,
0.938690126,
0.875359595,
-0.821027040,
-0.222027510,
-0.299269944,
0.495045215,
-0.344368815,
0.943409562,
-0.894150496,
-0.759048700,
-0.336896777,
-0.857728004,
0.056904770,
0.028924484,
-0.504995465,
-0.166916728,
-0.495509982,
0.211750925,
0.710523009,
-0.442234606,
0.004466260,
0.057332132,
-0.190566376,
0.895631254,
-0.006870158,
0.235843897,
0.442435861,
-0.948982120,
-0.551316321,
0.542998016,
0.440093040,
0.604981303,
0.137822986,
0.626983106,
0.241592541,
-0.356684983,
-0.314304233,
-0.048911270,
-1.037908673,
0.137526110,
0.198005378,
-0.264903396,
0.751137793,
-0.290506691,
0.932289004,
-0.599036276,
0.120580517,
-0.619463325,
-0.076905996,
-0.220956087,
0.568609357,
0.042519424,
0.923640966,
0.026023384,
-0.818382680,
0.403862894,
0.790546834,
-0.243221343,
-0.036205232,
-0.062242251,
0.712816715,
-0.792754531,
0.510339379,
0.149919987,
0.449290961,
1.018610835,
0.814485431,
0.627679229,
-0.620901287,
0.534212172,
0.210517243,
0.293184608,
-0.820007622,
0.290640175,
0.155872047,
-0.465861797,
0.289059341,
0.958271027,
-0.192277595,
0.014050604,
0.420595109,
0.117737271,
0.338975400,
-0.259761274,
-0.320904315,
-0.001108086,
0.089631483,
0.010422823,
0.357858092,
-0.960902393,
-0.690020144,
0.584718049,
0.383112043,
0.318250805,
0.597771466,
0.750645459,
-0.304759681,
-0.778935552,
0.815018773,
0.569983006,
-0.124946222,
0.537441611,
0.197209269,
-0.423544645,
0.343159467,
0.000172151,
0.632990837,
-0.540235519,
0.141013414,
-0.203147829,
0.908248186,
-0.128537953,
-0.310267389,
-0.206131697,
-0.998421848,
0.750406504,
-0.214560598,
0.281450927,
0.299108267,
-0.642339468,
-0.034364149,
-0.630429029,
0.151192546,
0.528886616,
0.227788761,
-0.535064816,
-0.166615009,
0.899701357,
0.101002283,
0.139340937,
0.701442540,
0.811393857,
-0.539681435,
0.232318044,
-0.654778421,
0.695407271,
-0.556529522,
-0.982418001,
0.281797439,
0.936726987,
-0.797630310,
0.370564729,
0.615625441,
0.442028850,
0.703899503,
-0.340968281,
0.059587870,
-0.376622140,
0.282708496,
-0.441941440,
-0.489313126,
0.875031590,
0.589305937,
0.472991467,
-0.184463143,
0.629208267,
0.428359449,
-0.030416457,
-0.974450648,
0.661170363,
0.697257280,
-0.760237575,
0.769531012,
0.845632017,
-0.071698904,
0.912347555,
0.301841497,
0.306865394,
0.524509192,
-0.948017597,
-0.526054919,
-0.979776263,
0.030124135,
0.918095171,
-0.100805223,
-0.041794538,
-0.940224230,
-0.591449857,
-0.622360468,
0.767521024,
0.169498354,
0.368159831,
-0.923796177,
0.978435397,
0.321233720,
-0.768422544,
-0.852381408,
-0.257599711,
0.825443566,
-0.614828110,
-0.104423985,
0.373722106,
0.504557669,
-0.411614567,
-0.679356396,
-0.211338058,
0.535372674,
-0.574897349,
0.356394351,
0.700737059,
0.548423946,
-0.241422430,
-0.566531718,
-0.382850826,
-0.943085611,
-0.079005785,
0.109776482,
-0.453987777,
-0.656785905,
-0.708372712,
0.791401386,
0.434190840,
0.616490304,
0.920411944,
-0.206810415,
-0.451864988,
-0.865631700,
0.256740123,
0.394748360,
-0.852820337,
0.738463759,
0.168935403,
-0.394643009,
0.421201050,
0.995052218,
0.524954855,
0.436364830,
-0.776048899,
0.757723212,
0.582603574,
0.099967994,
-0.206874251,
-0.127353892,
-0.708538234,
-0.453007936,
0.674869597,
0.320689380,
-0.605341673,
0.389819652,
-0.591037452,
-0.986436427,
-0.445325166,
-0.632592499,
-0.209113643,
0.113803543,
-0.672197521,
0.470764875,
-0.828006029,
0.330229461,
-0.703649521,
-0.217583776,
0.166805401,
-0.719541013,
0.246604353,
-0.517248333,
-0.280975461,
-0.195705384,
-0.773906767,
-0.558900118,
-0.355911881,
-0.220733196,
-0.449786961,
-0.396420687,
-0.572121620,
0.230454713,
-0.721987247,
-0.038913630,
0.424713314,
0.487099886,
-0.983455658,
0.768577278,
-0.617196441,
0.242911160,
-0.577546775,
-0.492961079,
0.752244294,
0.250555426,
0.894926608,
-0.510122240,
-0.867797315,
0.738508403,
-0.680159271,
-0.272340029,
-0.083313644,
-0.250726163,
0.437062889,
0.037727408,
-0.597272635,
0.210765004,
0.937554955,
-0.062455535,
0.879753649,
0.104852073,
-0.464379251,
0.364911258,
-0.279753178,
-0.804199755,
0.933047950,
0.505668521,
0.639856517,
0.376182884,
0.279593915,
-0.428133368,
0.543300986,
0.932559133,
-0.657327890,
0.205718353,
-0.512013733,
0.693934023,
0.120119818,
0.780638158,
-0.754622638,
-0.717013419,
-0.699430823,
-0.056379944,
-0.067193709,
0.351175100,
0.431277126,
-0.997057498,
0.071782626,
-0.600274682,
-0.953139424,
-0.186690375,
-0.242947087,
0.877537072,
-0.872755885,
-0.100869656,
0.109846309,
-0.144907355,
0.085010417,
-0.830313206,
-0.998512983,
-0.349770844,
-0.353675455,
-0.792770922,
0.599031985,
0.003795033,
-0.050635755,
0.262842417,
-0.310580492,
0.810889542,
0.725133121,
-0.871574223,
0.563512266,
0.151360393,
-0.021313753,
0.612368584,
0.900748193,
-0.713976800,
-0.100577846,
-0.835811615,
-0.768148899,
0.244515747,
0.869146764,
-0.636814237,
0.049082898,
0.506454051,
-0.114398919,
-0.548137665,
0.988193572,
-0.966820061,
0.530251980,
0.424657762,
-0.442446828,
-0.591524005,
-0.230622008,
-0.293912977,
-0.792876482,
0.862164319,
0.315758437,
-0.707975268,
0.324273735,
-0.033470549,
-0.652106345,
0.534217656,
-0.218330860,
0.092096858,
0.832671583,
0.674323320,
0.847683430,
0.686051011,
-0.005769584,
0.786225915,
-0.722271919,
0.135280937,
-0.890379608,
-0.944310904,
0.409727663,
-0.281449586,
0.296290904,
0.886560202,
0.319860399,
-0.952229321,
0.779946566,
0.533568203,
-0.782074511,
-0.119735576,
-0.713235378,
-0.766052723,
-0.778308153,
-0.700251997,
-0.081994340,
-0.256200016,
-0.608602285,
0.171141773,
0.574658215,
0.519703031,
0.609406948,
-0.060014781,
-0.435652077,
-0.952016234,
-0.771696389,
0.321685195,
0.610533714,
0.827952623,
-0.293101221,
-0.910272121,
0.631404340,
-0.891507745,
0.025231332,
-0.621790826,
0.187078938,
-0.932526648,
-0.543613553,
-0.968246996,
-0.484962016,
0.040147375,
0.296961010,
-0.666576922,
-0.969819307,
-0.393311858,
-0.315493912,
-0.540281475,
-0.750927687,
0.863642633,
0.182153940,
-0.406091988,
-0.554498374,
0.197512418,
0.549848497,
-0.646192908,
-0.715887547,
-0.494381875,
0.599970341,
0.523805857,
0.170429692,
0.631062150,
-0.385623842,
0.841064274,
0.258546889,
0.871666968,
0.341799289,
0.636154473,
0.073898666,
0.228779584,
0.477300733,
0.746370316,
-0.965072870,
0.306693345,
0.392961144,
-0.128142536,
0.846617103,
0.836002290,
0.231734693,
0.367739201,
0.319358200,
0.117598228,
-0.335468590,
0.179594085,
0.937350929,
-0.931523204,
-0.243586779,
-0.425760686,
0.587382078,
0.009916593,
0.203674883,
0.382864803,
-0.493765652,
-0.388911545,
-0.353960127,
0.025825521,
-0.457650781,
0.771526396,
-0.786517203,
-0.139415920,
0.381326288,
0.489797026,
0.557508826,
0.755516052,
0.442822635,
-0.491770089,
0.207242146,
-0.804436028,
0.989581823,
0.894427061,
0.401810974,
0.803454280,
0.033085447,
0.201912478,
-0.628328323,
-0.839707375,
0.918371439,
0.193731353,
-0.457686424,
-0.041786995,
-0.505873561,
0.048581358,
-0.776032031,
-0.501116276,
0.866139948,
0.240234882,
0.300629497,
-0.571864724,
-0.576230168,
-0.239047796,
0.994126320,
-0.602245569,
-0.411400795,
-0.797244728,
-0.677400589,
-0.235432774,
-0.737166882,
0.102365732,
-0.160228997,
0.960409343,
0.512682974,
-0.561813474,
-0.672706246,
-0.800462544,
-0.386371553,
0.362026155,
-0.717235088,
-0.115445971,
0.297080606,
-0.455330461,
0.716937244,
0.157246172,
-0.806537688,
0.636264861,
0.614210069,
-0.582504869,
-0.166621432,
-0.018219536,
0.414365292,
-0.468072474,
0.701851606,
0.697224140,
0.691354990,
-0.182867229,
-0.281687438,
-0.061350148,
-0.685930014,
0.535239518,
-0.487467885,
-0.827582002,
-0.910932302,
-0.141115785,
0.398529738,
-0.799497783,
-0.807157457,
-0.632437766,
-0.820541680,
0.424339622,
-0.899148822,
0.594895720,
-0.099260978,
-0.868669033,
-0.413191050,
0.496448249,
-0.646365881,
-0.507480741,
-0.477387428,
-0.023935325,
-0.668368220,
0.951156795,
-0.695367634,
-0.175354585,
-0.797421694,
0.515843987,
0.592836380,
0.617291391,
0.620893896,
-0.831884205,
0.308548898,
0.605452478,
0.834884226,
0.977103651,
0.048151750,
-0.761567533,
0.428293347,
-0.859038711,
-0.273635954,
0.650431633,
-0.166230708,
-0.460943967,
-0.100257143,
-0.636621892,
0.375765383,
-0.804246068,
-0.833855033,
0.340140224,
0.662353754,
0.994236708,
-0.342615455,
0.027808750,
0.439063668,
0.543448567,
-0.175852478,
0.408623338,
0.519229412,
-0.985104978,
0.843968213,
-0.284761310,
0.380064517,
0.240795046,
-0.352422327,
0.494023353,
-0.871913433,
0.232626066,
0.315012217,
0.568807840,
-0.253379643,
0.011255931,
0.673902214,
-0.115098238,
-0.434016228,
0.547720671,
-0.177581981,
0.077803016,
-0.980606139,
-0.475894123,
0.697857797,
-0.080915257,
-0.315508515,
-0.173849225,
-0.383658141,
-0.830796540,
0.525048435,
0.003207695,
-0.372193038,
0.757850647,
-0.419953942,
-0.738460302,
0.485807866,
-0.530540049,
0.000710143,
-0.395867825,
0.898628592,
-0.521368444,
-0.643025637,
0.171649292,
0.157545328,
-0.372921765,
0.300185949,
0.387519598,
0.924983144,
0.774952829,
-0.227976799,
0.229582652,
-0.138741970,
-0.100995481,
0.883862078,
-0.663134992,
0.833806276,
-0.328954339,
-0.133661211,
-0.068235949,
0.400582194,
0.779983044,
-0.159105331,
-0.589384675,
0.407540262,
-0.225172415,
0.059835348,
-0.948502660,
0.496430993,
-0.203300595,
0.538578570,
-0.666907251,
0.549150586,
-0.781314611,
-0.349244833,
-0.552369118,
-0.263803631,
0.006483789,
0.772028506,
0.180528879,
0.147053987,
0.212806940,
0.309113115,
0.223079085,
-0.587663293,
0.862751186,
0.272639394,
-0.871217310,
-0.789767504,
0.676887810,
-0.743295610,
0.289688170,
0.811429322,
0.472872794,
-0.563126445,
0.003242217,
0.402352512,
0.420162946,
-0.741083562,
0.755920649,
-0.470001370,
0.636865556,
-0.900559664,
0.488357723,
-0.904374599,
0.070809111,
0.577538311,
0.302170515,
-0.459360957,
0.416355103,
0.146079913,
0.898406029,
0.718713820,
0.628820539,
0.958213806,
-0.976236463,
0.011509613,
-0.556364894,
-0.576488912,
-0.353127718,
-0.252860904,
0.552739799,
-0.932707489,
0.259212643,
-0.887739122,
-0.625868201,
0.995480835,
-0.052448988,
-0.209603101,
0.928631246,
0.608063281,
0.758313715,
-0.232709005,
0.172570333,
-0.146457464,
0.084865674,
-0.689673603,
-0.045408189,
-0.236834958,
0.488109380,
0.297557652,
0.778409541,
-0.526024640,
0.624494314,
-0.470498711,
0.741108000,
0.912502825,
0.096505262,
-0.236035764,
0.514961541,
0.054426599,
-0.311381310,
-0.029430687,
0.183910146,
0.848375201,
-0.681509614,
0.118841670,
0.225880712,
0.958465934,
-0.158516109,
-0.736932933,
-0.473516136,
-0.057416566,
0.874652565,
0.981722474,
-0.002966989,
-0.900788188,
-0.132285908,
-0.235656142,
0.017288821,
-0.618790150,
0.893477857,
0.095660493,
-0.453999251,
-0.008951675,
0.403583407,
0.321001172,
0.694210231,
0.548260808,
0.714672029,
-0.727900386,
-0.657754064,
-0.463330925,
0.232280388,
-0.407790214,
-0.630991161,
-0.401741326,
-0.169463411,
0.268094957,
-0.260566056,
-0.254474431,
-0.788568377,
0.852593362,
0.305232912,
0.817958176,
-0.401241183,
-0.874059081,
-0.186873645,
-0.086116374,
-0.986332715,
-0.146076605,
-0.746412396,
0.507036567,
-0.172209114,
-0.463291585,
0.240997061,
0.512695849,
-0.671513438,
-0.359377831,
0.217556208,
0.841211975,
0.744317651,
0.584699214,
0.001349249,
-0.383501619,
-0.595456719,
0.868100047,
0.502881467,
-0.934234440,
0.192535788,
0.704956055,
0.456599981,
0.461021960,
-0.048748501,
0.001976943,
0.768032491,
-0.823620617,
-0.876194775,
0.964335859,
0.639363766,
-0.074592777,
0.793507993,
-0.315688968,
-0.148960799,
0.732995212,
-0.139499888,
0.438420624,
-0.112593651,
0.186635241,
0.827060103,
-0.969878793,
0.173063502,
-0.241703093,
-0.484487861,
-0.746254623,
-0.611267209,
-0.214834869,
-0.807806969,
-0.137389049,
0.729687750,
-0.755235910,
-0.921678126,
0.765096366,
0.002639454,
0.181067631,
-0.236072361,
-0.617917418,
-0.257330835,
0.984202802,
0.968043268,
-0.712691844,
0.036394507,
0.183896005,
0.797630668,
0.175386906,
0.120771892,
0.210000366,
0.289981544,
-0.770467997,
0.980621696,
-0.553168058,
-0.236613572,
-0.776768804,
0.707803965,
-0.517971396,
-0.991373837,
0.873555005,
0.906551898,
-0.414203405,
0.327158332,
0.679178357,
-0.421823263,
0.479670972,
0.319818377,
-0.874207795,
0.760862410,
-0.124307573,
0.444883704,
0.075514309,
-0.327495128,
-0.994219780,
-0.200538725,
-0.015329760,
0.167638242,
-0.931448281,
0.139256150,
0.384893745,
-0.447092444,
-0.715384483,
-0.762224436,
-0.109896161,
-0.607689679,
0.516996741,
0.892716348,
0.132990673,
-0.798223853,
-0.283432811,
-0.002441585,
-0.983438492,
0.616222143,
-0.060347378,
-0.340187848,
0.677046537,
-0.816923380,
0.000015498,
0.950648069,
0.005132206,
0.376730829,
-0.826974988,
0.808171570,
0.853235662,
-0.613711834,
0.098539829,
-0.400280833,
0.388354868,
-0.384531796,
-0.900465965,
0.002744950,
-0.708817184,
0.317968845,
0.720589042,
0.780995905,
0.242773995,
-0.596516669,
0.351878911,
-0.237948939,
0.642418325,
-0.014629847,
-0.493519515,
0.849243641,
-0.174443468,
0.736782253,
0.777076125,
0.084698550,
0.627024353,
0.527004838,
-0.807211161,
-0.979956090,
-0.792479098,
0.457208633,
0.303407580,
-0.069796622,
-0.963637650,
0.429963976,
0.096464828,
-0.088962987,
-0.006029980,
0.680357993,
-0.191460371,
0.777431905,
-0.048256531,
0.722395599,
0.272559881,
-0.138683483,
-0.055832565,
-0.353917509,
-0.678358912,
-0.407702029,
-0.066676445,
-0.194688737,
0.663705111,
-0.087888107,
-0.709468663,
-0.576502383,
0.815371394,
0.017744254,
-0.599556386,
-0.431072116,
-0.984081447,
0.240649208,
0.026524238,
-0.620573819,
-0.756679296,
-0.899203837,
-0.801372409,
-0.602434039,
-0.036746684,
0.802652180,
-0.704220653,
0.061310720,
0.049154583,
-0.432208598,
0.182773843,
-0.878432989,
-0.425892025,
-0.158968821,
0.260926336,
-0.185077280,
0.993635297,
0.651730895,
0.372719258,
-0.063431986,
-0.101879060,
0.921849489,
-0.802213490,
0.188496590,
-0.582413971,
-0.503599584,
0.043493111,
-0.309586972,
-0.197042719,
0.600827396,
-0.905673802,
0.183522820,
0.412734628,
0.792022645,
0.738574266,
0.594228566,
-0.052870497,
0.291302562,
0.792187154,
-0.060672309,
0.689552128,
0.487693936,
-0.809172571,
0.906591773,
-0.851489544,
0.909214258,
0.121575817,
-0.942111671,
0.721353590,
0.197848469,
-0.607533932,
-0.538133681,
-0.291288346,
-0.935516000,
-0.565584719,
0.032054737,
0.672609866,
-0.167338967,
-0.190657735,
-0.052576911,
-0.877165854,
-0.410735756,
0.600587368,
-0.114734560,
0.183063239,
0.903384864,
0.329850882,
-0.895278513,
-0.229165137,
0.164848223,
0.056742076,
-0.257997364,
-0.377012074,
-0.547012985,
-0.634754300,
-0.280023485,
-0.172253132,
0.592483878,
-0.776203692,
0.714496315,
0.572460532,
0.739702046,
0.329233766,
0.335948795,
0.268775910,
0.867977858,
-0.151558936,
0.786622465,
0.409797877,
0.962709129,
0.326774806,
0.835196316,
0.152553380,
0.830871820,
0.778073967,
-0.935955942,
0.397459507,
0.138445064,
0.815408409,
-0.412251562,
0.201685309,
-0.973585784,
0.734401941,
-0.342633367,
-0.283224016,
-0.328371972,
0.443250328,
-0.423397124,
-0.651018500,
-0.688174188,
0.851966202,
-0.049115870,-0.021203326,0.025707630,-0.008367874,-0.013955031,0.019349325,0.021252332,-0.007497809,-0.014284975,0.028012004,0.033307705,-0.018164301,-0.018048773,-0.016906921,-0.010520848,-0.037614066,0.000248924,-0.005567778,-0.032483801,-0.024444401,-0.031129321,-0.001684561,0.007839300,-0.002103745,-0.019933816,-0.018189829,-0.006108618,0.009144207,-0.022868851,-0.008732896,0.019717300,0.023043841,-0.008004761,0.004873836,-0.001711396,-0.020207068,-0.015222066,0.027340906,0.004973439,0.008553175,-0.005612832,0.030098746,-0.030160237,0.021125335,-0.002605367,0.019645646,-0.018990286,0.023070892,-0.008858686,0.005699463,0.010729650,0.010469731,-0.022050515,-0.011378220,-0.019233428,-0.024442999,0.000886672,-0.024112394,-0.021714091,0.014040167,0.026800498,0.023902250,0.022019351,0.010564819,-0.020166038,-0.000201114,0.019582568,0.031479571,-0.014556150,-0.006996614,-0.008502982,-0.015312101,0.005063842,-0.007421422,-0.016933812,0.001856286,-0.023660826,0.016792374,-0.003722933,-0.025387291,0.020645713,-0.006717687,-0.001133665,0.027393160,-0.009885523,0.008192728,-0.003306575,-0.006580955,-0.022163004,0.025835989,0.015311788,-0.028710132,-0.010623088,0.011023216,-0.021975063,-0.045202512,0.012743205,-0.026453696,0.006385891,-0.038377266,0.003841441,-0.028358035,-0.007185025,-0.025900166,0.005043611,-0.024973741,0.003437180,-0.001014628,-0.015782297,-0.009908890,-0.020949719,0.006654071,0.003768521,-0.014227775,-0.013518767,0.025921686,-0.010250960,-0.084038056,0.026823135,0.006188454,-0.025372544,0.007416320,0.019283703,-0.002328469,0.012840698,0.019748276,-0.004193678,-0.005509094,-0.029532727,-0.011541303,-0.029635992,0.010328008,-0.227919877,0.022061370,0.003632884,-0.012259211,0.024085138,0.013775090,-0.048581146,-0.019500438,-0.021347025,0.000592893,0.014061109,0.000338307,-0.027326597,-0.029516304,0.016357047,-0.027766496,-0.036835220,-0.020319020,-0.023794625,-0.041167840,-0.016558871,0.043395292,0.028324466,0.009728447,0.025676142,0.011949438,-0.010716611,0.000641156,-0.022290835,-0.018068794,-0.007652401,-0.029430568,-0.043904886,0.012035540,-0.031236706,-0.012457808,-0.024306679,-0.020580204,0.007180627,-0.024079937,0.034163233,0.007992093,0.003749145,0.018532643,0.011341240,0.027548971,0.026330100,0.029461028,0.007907943,-0.000518804,-0.002510063,-0.004708421,-0.032504398,0.003414687,-0.021363145,-0.010737078,0.030347429,-0.007404524,-0.007760546,0.030090904,0.033847068,0.022702921,0.016460678,-0.007183795,0.024829464,-0.024382237,-0.020023428,-0.007986533,-0.001646880,0.002519624,0.028351450,-0.004107559,-0.003134139,-0.016300650,-0.000734522,-0.006688987,-0.013208730,-0.024590373,0.000856850,-0.026105091,0.025494644,-0.022754300,0.010619107,0.018215477,0.019397436,-0.016814318,-0.002046575,-0.000555626,-0.017890241,0.015617166,0.006545491,-0.008275914,-0.015786886,-0.029619863,-0.005969700,-0.002241833,0.024345241,0.030967018,-0.026170533,-0.003705251,-0.022343446,0.007004670,-0.023261562,-0.004381334,0.021113515,-0.005400304,-0.008547028,-0.002982420,-0.021521870,-0.001925655,0.012604078,0.031716675,-0.002486573,-0.000755297,0.004613461,-0.023643782,-0.031096382,-0.032854561,0.021031030,0.017574616,0.020184569,-0.015489915,0.015680190,-0.020028396,-0.010825634,-0.010410477,0.019363783,-0.019492310,-0.022915309,0.015287526,-0.004189259,0.016217824,-0.015354497,0.004415996,0.000549868,-0.004725450,0.023635132,0.013493090,0.017531857,0.023599517,0.013785611,0.023972176,-0.018171007,-0.027156100,0.015071863,0.035074759,0.015566306,0.019678146,0.016523382,0.027267219,-0.025537305,0.025159718,-0.030534044,0.019793428,0.018880598,-0.000248109,0.015179093,0.002634684,-0.017045323,-0.017176535,-0.031111581,-0.033323716,-0.026893219,-0.017730229,0.004807041,-0.001400993,-0.026825422,0.031487856,-0.020259500,-0.014281941,-0.007696510,0.001205028,0.016108325,-0.017812058,-0.018529030,0.019941142,0.001899203,-0.011835581,0.031222437,0.008201241,-0.008436483,-0.004550199,0.014316438,-0.011310365,0.020285010,0.015250847,-0.003621376,0.035961598,-0.022575593,0.000338049,0.010080355,0.020427354,-0.017651683,-0.024555987,0.026292596,0.017682148,-0.029583871,-0.004508112,0.015121127,-0.031894945,0.017628463,-0.015934259,0.007029816,0.004358265,0.016161170,0.028155016,-0.025049238,0.002543268,-0.030658524,0.009503535,0.029396918,-0.023313995,0.001343619,0.032519318,-0.036979176,0.031129455,-0.000285929,-0.009741827,-0.026735468,-0.017454885,-0.009767450,-0.013105089,-0.023330299,0.000568392,-0.002053393,-0.012884777,-0.014095371,0.021998106,0.007644102,-0.011023894,0.021486128,0.009294924,-0.006120417,-0.002514011,0.013807499,0.023262961,0.030467939,-0.006277895,0.030671626,-0.013511116,-0.013611333,-0.013487649,0.027482152,0.011916398,-0.036374770,0.027419085,-0.048674043,0.010387183,-0.026147757,-0.023407329,0.010608665,-0.006502337,-0.024360888,0.018003028,0.007338762,0.017735761,-0.006721836,-0.010086735,-0.002923272,-0.006216013,0.009837533,-0.031189974,-0.025676524,-0.028947704,-0.018974664,0.031117905,-0.004403957,-0.005499259,0.013531261,-0.029264124,-0.068306841,-0.019841243,-0.034839671,-0.019683966,-0.013183613,0.003631544,-0.004367555,0.010407316,-0.016963357,-0.000760329,0.002741769,-0.030562662,0.013139572,0.033628758,0.008349214,-0.035404351,-0.004390967,0.013080453,0.013359786,0.028281054,-0.003172263,0.004585327,0.021612654,-0.004810080,0.005736896,0.003608639,0.027970122,0.002610313,0.005186803,-0.013179103,0.026805883,0.025504787,-0.024542898,-0.001661642,-0.025101429,-0.022641506,0.007677146,0.020022003,-0.000616440,0.010730249,-0.005909952,-0.051774681,-0.014726655,-0.034452967,-0.006097609,0.013071450,-0.054730922,-0.026087143,-0.008223346,0.023649691,0.025689160,0.026919866,-0.014383613,-0.007209515,-0.029828912,0.014444579,-0.027480381,0.027858663,-0.005531693,0.017661100,-0.025646543,0.024612568,-0.009708600,0.017836578,0.028290385,0.026213765,0.003461211,-0.003196779,-0.011954226,-0.015234472,-0.010665742,0.023499077,-0.015863841,-0.022338485,-0.008753181,-0.031137634,0.036186893,-0.002277226,0.018625313,-0.017433461,-0.009943230,-0.078506090,0.017729461,-0.007384010,0.031802852,-0.016690984,-0.028089223,0.019722665,-0.023363728,-0.030373782,0.000062718,0.014195981,0.027483163,-0.004381532,-0.003544202,0.011497362,-0.005749185,-0.020602552,0.047340095,-0.021389503,0.017837683,-0.008557735,-0.019001605,0.012941341,-0.014023339,0.021360159,0.015923295,-0.018291168,-0.027395427,0.022514934,-0.036781240,0.015752571,-0.019485913,-0.059836749,0.009569625,-0.000409537,-0.001370155,-0.028268637,0.030824626,0.013441999,0.024987385,0.013438565,-0.030484729,0.018329883,-0.002034297,0.019801924,-0.000206176,-0.018337443,-0.017935878,0.024098625,-0.017112246,0.004710043,0.018109242,0.005007268,-0.030166848,-0.010494739,0.022371681,-0.000037824,-0.022576984,0.017677004,-0.015636543,0.006801408,-0.027600912,0.010074107,0.002740967,0.027122607,-0.013980227,-0.000730487,-0.030915521,-0.042257056,-0.022277191,-0.031139133,-0.018230081,0.009411454,0.008020570,-0.019790594,0.028290369,-0.021905117,-0.001213036,-0.007539217,-0.008645944,0.001869017,-0.006680741,-0.028887279,-0.021078892,-0.007059814,0.023872342,0.002041886,-0.005695042,-0.014959789,-0.007485152,-0.027761834,-0.018934518,-0.009582411,-0.031160727,0.007404612,-0.021332636,0.020775519,-0.017040428,-0.032918345,-0.022929765,-0.029454770,0.013210026,0.008188033,-0.001514106,0.031882789,0.007782246,0.003969379,-0.000127546,0.024867022,0.018657861,0.005342336,0.000530880,0.015124149,-0.004524590,-0.020382475,0.018863326,0.018494191,0.020936755,0.005424487,-0.006124412,0.013035173,-0.012665292,0.025994403,0.013883667,0.000846838,-0.017685896,-0.029674536,-0.023983976,-0.011442163,-0.026113005,-0.015416251,0.004427887,-0.016341005,0.024070397,-0.016671615,0.024551904,-0.019321609,-0.033514850,-0.013687727,-0.013751020,0.004567280,0.031432934,-0.006645235,-0.021758830,0.025215078,0.011527826,-0.004736667,-0.000207511,-0.021454385,-0.015475416,0.018568821,-0.005102081,0.016865576,-0.015721262,-0.024500163,-0.023893764,-0.024465455,0.005255868,-0.001506136,0.026767688,-0.015085055,-0.007447338,-0.026525591,0.007842856,-0.020466229,0.014978396,-0.030271603,-0.010532683,0.027806956,-0.020459779,0.016943740,-0.016721690,-0.015571506,-0.023412848,-0.027972404,0.017690333,-0.007255172,-0.037960324,-0.017455377,-0.008184876,-0.016372468,-0.021260109,-0.004064046,0.026632337,0.015315115,0.008967090,-0.007576502,-0.022399314,0.023925470,0.027905295,-0.015216281,0.006453183,-0.013682426,0.023309633,0.003099810,0.030139230,-0.030283507,-0.003717478,-0.010534808,0.011105667,0.026023520,0.001903201,-0.012445418,0.019637674,-0.031041423,-0.017738437,-0.010291951,0.003306283,-0.021613711,-0.001098984,0.016704371,-0.014090295,0.025258714,0.023902880,0.017798170,0.000333843,0.026730813,0.025717046,0.022020942,-0.028185878,0.002315213,0.029153800,-0.019525895,0.029887339,-0.022367863,-0.025376346,-0.005678001,-0.037241831,0.025062900,-0.035982106,-0.021119133,-0.009792034,0.007853021,0.014538908,0.032258496,-0.021581816,-0.007693704,0.009233769,0.029543275,0.024325531,0.028353527,0.019362736,0.000306123,-0.149721369,-0.030530743,-0.006710758,-0.004526250,0.011921210,0.023813242,0.019868605,-0.023652704,-0.027011475,-0.028218292,0.019822204,-0.026861353,0.019213790,0.016291900,-0.023404878,0.027772868,-0.004096877,0.008872134,-0.030500229,0.033079728,0.008536848,-0.020924008,0.013467660,0.026619360,0.016390370,0.015340930,0.016949834,0.019483130,-0.012600600,-0.010264380,0.006074687,0.012534544,0.027054414,-0.022535719,0.005724127,-0.000380427,0.013839356,-0.014616363,0.010222969,0.016476585,-0.007668491,0.020702807,0.015210848,0.002959126,-0.000787137,-0.040150564,0.022836948,-0.004641519,-0.027275160,-0.010983398,0.029203631,-0.021095477,0.006121665,-0.006163787,-0.011681900,0.021057606,0.004157540,-0.013358261,0.030414991,-0.016218320,-0.014821461,0.016365280,0.031239247,-0.017782718,-0.010361409,-0.029264253,0.009378375,-0.024373444,-0.021970252,-0.025985783,-0.027208166,0.025696179,-0.023647632,0.026752707,0.028946059,-0.030806858,-0.031448793,0.020721510,0.005525369,-0.003631964,-0.010473237,-0.018717343,-0.028383778,0.000045857,0.013428968,-0.010210876,0.014777974,0.002885822,0.027440760,-0.018015480,0.006753013,0.010929001,0.031597696,-0.012206946,0.015339903,0.008274291,0.030533375,0.030252099,0.001852218,-0.027387267,0.018730663,-0.005485545,0.009619696,0.000501295,0.018592604,0.018791638,0.005982652,0.001434800,0.031416368,0.006916618,0.003032957,0.031286035,0.001755257,-0.018448342,-0.011204801,-0.031272084,0.003441417,0.016101804,-0.012201441,0.010329884,-0.003588702,0.005451952,0.016110171,0.017934700,-0.016357766,0.030192055,-0.005218190,-0.003305692,0.018565258,0.008758681,-0.014596238,0.000472562,0.003571871,-0.031586625,0.022342002,0.018486448,0.021791158,0.014029345,0.018505199,0.018048204,0.005749651,-0.030421602,0.008745818,-0.034366060,-0.011393156,0.021078438,0.010234093,0.020837985,-0.014760409,0.031026563,-0.004436780,0.003721685,-0.011782248,0.020287899,-0.018845169,0.003568558,0.016531121,-0.017559992,-0.011337929,-0.014317906,0.016326107,0.017976731,-0.001327948,-0.001780856,-0.006023094,-0.028246481,0.002450452,-0.012041982,0.015449752,-0.017596904,-0.001924413,0.018128715,0.030482639,-0.023049984,-0.031666327,0.010202550,0.017323948,-0.017046832,0.013889461,-0.005357818,-0.006036113,-0.011846768,-0.024676928,-0.003490115,0.028931279,-0.029763898,0.029372243,-0.027661532,0.022496635,0.001816923,0.012888196,0.006756845,0.015520411,0.018606177,-0.009283220,-0.031008683,0.021550974,-0.017684743,-0.011521644,-0.014218552,0.029507911,-0.002790571,-0.003922009,0.009882175,-0.014388227,-0.030578004,0.025188709,0.007881613,-0.012350460,0.005643805,-0.009350983,0.017884845,-0.067395143,0.008607013,-0.010904036,0.030162157,-0.024110518,-0.012201477,0.020780211,0.002891072,-0.009495009,0.009528046,0.001308576,0.009482994,-0.006600774,-0.024956563,-0.030460743,-0.017523877,0.027681151,0.007957891,0.029710434,-0.026694683,-0.022404391,0.018994920,-0.017744606,-0.023960184,-0.029259581,0.023448881,-0.016111635,-0.024900900,-0.011500618,-0.031166846,-0.000369166,-0.026975937,0.002741113,-0.007025351,-0.005063845,0.015949478,0.024176940,-0.025091944,0.023558391,-0.013125203,0.016085964,-0.025388055,-0.011240168,-0.023754938,0.013540502,-0.017497249,0.000071624,-0.000038866,-0.013425463,-0.011575396,0.002932016,-0.010260197,-0.003797699,-0.002727275,0.014473775,-0.003421496,0.013063902,0.022795862,0.007604560,0.011754051,-0.008616096,0.014584907,
-0.007500107,
