// Neural Network File Format by Kyle Julian, Stanford 2016
2,1,1,1000,
1,1000,1,
0,
0.0,
0.0,
0.0,0.0,
0.0,0.0,
0.626806736,
0.065120868,
-0.313771248,
-0.250750154,
-0.466073275,
0.990282774,
-0.657220125,
0.782386243,
-0.338094234,
-0.613972723,
-0.661335588,
0.394706398,
0.913382471,
0.328243643,
0.492266178,
-0.997305274,
-0.345527112,
0.026315892,
0.252436370,
-1.098343968,
-0.681051254,
0.104023702,
0.620293677,
-0.129874274,
0.583317220,
0.580521584,
-0.298704267,
-0.977393329,
0.364539564,
0.359154701,
0.062672332,
0.893896163,
0.518382967,
0.329885423,
0.447890937,
0.478308290,
-0.574225068,
0.679816127,
-0.293567985,
0.716112792,
0.940248311,
0.976070404,
-0.754038155,
-0.602721274,
-0.809340715,
0.197146535,
-0.300835729,
0.518982410,
0.095890641,
0.735766232,
-0.894120932,
0.902801096,
-0.001971705,
-0.232526451,
0.050775733,
0.370921075,
0.331306607,
0.608195424,
-0.059581853,
-0.465146095,
0.813406408,
0.623703480,
-0.444050074,
0.810940266,
0.682062030,
-0.196015596,
0.879239678,
-0.539687693,
-0.115950458,
0.090391405,
-0.175330505,
-0.645982981,
-0.664941370,
0.222432137,
0.261544049,
-0.783766866,
-0.475507230,
-0.715026498,
-0.147816822,
-0.485482603,
0.153193578,
0.565026760,
-0.834045589,
0.087781705,
-0.657500207,
0.234637856,
-0.094352506,
-0.108076215,
-0.384681374,
0.248084784,
-0.510196269,
0.829298913,
0.744216383,
0.026090344,
-0.878429174,
-0.593995690,
0.270088822,
0.462638825,
0.752551079,
0.575731695,
0.672351956,
-0.295991838,
-0.993826151,
0.489538372,
0.060966015,
-0.174196407,
-0.484493136,
-0.239246249,
-0.080550678,
0.972283065,
-0.268651158,
-0.993249238,
0.873144686,
-0.164942026,
0.646159589,
-0.019752622,
0.099197581,
0.418951243,
0.648028612,
-0.597501457,
0.666631699,
0.139693603,
-0.104406461,
0.100336991,
0.851200104,
-0.122709751,
0.721309304,
0.848650277,
0.088365756,
0.809909582,
0.102344684,
0.505132079,
0.546692371,
-0.299084067,
-0.221350834,
-0.465310693,
0.995756984,
-0.336532891,
-0.739108562,
-0.002819777,
-0.017644200,
0.097357512,
-0.765736759,
0.922925949,
-0.614534438,
-0.927500665,
0.836299717,
0.586479783,
0.133434117,
-0.564665258,
0.069637746,
0.613830805,
-0.624755740,
-0.377168447,
-0.770156860,
0.285140574,
-0.623828292,
-0.612772107,
-0.717037857,
-0.715411127,
0.355606526,
-0.240584269,
0.985780597,
0.706315339,
0.455687195,
0.188821405,
-0.167065859,
0.123628326,
0.548716187,
0.554544151,
-0.620178878,
-0.848042071,
0.980268180,
0.537868917,
0.743078589,
0.560397267,
-0.243177518,
-0.292664230,
0.902423441,
0.958898008,
0.481285542,
-0.217905998,
0.790345013,
-0.457907438,
0.809981585,
-0.705079556,
0.184403658,
0.209225774,
0.881399214,
0.938495934,
0.288028359,
-0.752247810,
-0.379932374,
-0.827567577,
0.550506711,
-0.091916755,
-0.748476505,
0.481569052,
0.164297745,
0.079183668,
-0.712793291,
-0.166550666,
-0.364508867,
0.533891618,
0.155204400,
0.911008894,
-0.575120926,
-0.829421461,
-0.735882282,
0.563542366,
0.597954273,
-0.886815310,
-0.951308072,
-0.367569536,
-0.767620087,
-0.298873037,
-0.839162529,
-0.994807065,
0.235455319,
0.246103168,
-0.859013677,
-0.553452551,
-0.596183717,
0.830112517,
-0.982537985,
-0.732457459,
0.242286846,
-0.713809967,
-0.403251201,
0.502274871,
0.166562453,
-0.320429742,
0.152140856,
-0.529598475,
-0.228949726,
-0.326406717,
0.655947387,
-0.842171013,
-0.469859332,
-0.294065148,
0.020219922,
0.430217981,
-0.448320359,
0.287315935,
0.944048345,
0.694531262,
-0.307834208,
-0.324307680,
0.439961761,
0.093671024,
-0.703601360,
-0.380881518,
0.522642016,
0.146666750,
0.453713775,
0.455020875,
0.650722384,
0.324263096,
-0.100102782,
-0.787834167,
0.537293851,
0.598968446,
-0.285270751,
-0.104455590,
0.691476107,
0.186457753,
0.227593288,
0.551759243,
-0.379582018,
0.787876129,
0.748086989,
-0.619779468,
0.500140309,
0.477655947,
0.184778228,
0.117086530,
-0.506863832,
0.261450857,
-0.555948317,
-0.656421483,
0.457584113,
-0.847178996,
0.611513555,
-0.692674637,
0.754065752,
0.602005363,
-0.146372795,
0.873973250,
-0.766734600,
0.757449627,
1.050358057,
-0.572519243,
0.506066442,
0.840820909,
-0.226633042,
0.471930295,
-0.633615434,
0.085969001,
0.105832592,
0.962536931,
-0.714274406,
-0.012976403,
-0.401936740,
0.231683254,
-0.376141667,
0.784494698,
0.258468866,
-0.034637690,
0.133612141,
-0.896146417,
-0.323925853,
-0.848120332,
-0.609298408,
0.041418023,
-0.106889486,
-0.928799450,
-0.645254016,
0.915692925,
-0.369929880,
0.697042346,
-0.232446432,
-0.910040140,
-0.465656638,
0.476209134,
0.609185934,
-0.013819337,
0.745783627,
-0.619583130,
-0.186633304,
-0.895890355,
-0.926038146,
0.492048532,
0.505489767,
-0.625627458,
0.463900745,
0.777568638,
0.260488033,
0.190358281,
0.877680302,
0.187429637,
0.761520267,
0.044344395,
0.808002174,
-0.463913560,
-0.290774822,
-0.522778928,
0.090123989,
-0.515378177,
0.130565643,
0.858554184,
0.839861035,
-0.788295686,
0.272829294,
0.213164806,
-0.075381696,
0.835163713,
-0.890217483,
0.653774738,
0.175923944,
0.503974676,
0.112455606,
0.468628407,
0.142050743,
-0.664414763,
0.145682752,
-0.444053859,
-0.823639572,
-0.862935245,
0.926676810,
-0.436050415,
-0.705449343,
-0.034402650,
0.631956875,
-0.584537327,
-0.880622447,
0.565970540,
0.208968073,
0.965103149,
0.903924882,
-0.653799653,
0.783297420,
0.820601523,
-0.030192018,
0.132979482,
0.687573314,
0.871581972,
-0.383430511,
-0.177400112,
-0.224154532,
-0.670370817,
0.912783265,
-0.550720274,
0.856554866,
-0.203876123,
-0.935454905,
0.235544667,
-0.115726478,
0.116776019,
-0.135202095,
0.988824308,
0.770239532,
0.767204046,
0.225113571,
0.461714745,
0.254672527,
0.628602922,
-0.767104924,
-0.355096489,
-0.658747911,
-0.688309729,
-0.616216958,
-0.477326632,
0.877592087,
0.457859397,
-0.915179312,
0.118470907,
0.232863665,
0.827631593,
-0.939231753,
0.205810308,
0.431979537,
0.671680272,
-0.685189128,
1.147427440,
0.917767942,
-0.748533309,
-0.625316978,
0.234328449,
0.677971244,
0.956270695,
-0.349260569,
0.866568863,
-0.425323993,
-0.040797088,
0.288249701,
0.828684330,
0.005051653,
-0.734375060,
0.248250693,
-0.086856723,
-0.947134733,
-0.031671405,
0.068528153,
-0.263083100,
0.745792747,
-0.002689796,
-0.186678752,
0.615433037,
0.450256258,
-0.172067046,
-0.850532889,
-0.876468182,
0.914923429,
-0.689646542,
0.004134893,
0.482259482,
-0.494630396,
0.117634818,
0.774820328,
-0.104275599,
-0.499103695,
-0.663462937,
0.155437276,
0.892692089,
-1.034974098,
-0.080090880,
-0.794394255,
-0.192641288,
0.234369189,
-0.423349053,
0.898684144,
0.403489172,
0.683617115,
0.067960754,
-0.668742359,
0.803099871,
-0.061144598,
-0.569034934,
0.464476317,
-0.512080908,
-0.558093369,
0.102021098,
0.035340138,
-0.716949344,
-0.715389848,
-0.621519685,
-0.460381895,
0.839056909,
0.167676613,
0.088615187,
0.406192750,
-0.548178554,
0.709818602,
0.380763084,
0.464581460,
-0.981088519,
-0.821591973,
0.115983248,
-0.610077560,
0.504223824,
-0.701266050,
-0.153886020,
-0.851938605,
-0.093679205,
-0.306795061,
0.666229606,
0.687201679,
0.485937417,
-0.858907878,
-0.953152120,
-0.776914597,
-0.250120044,
0.578616023,
-0.251515955,
0.272623003,
-0.510120809,
-0.085955612,
0.588142872,
0.812373400,
-0.272114307,
-0.528682709,
0.532577336,
-0.232649893,
0.616090536,
-0.438849986,
-0.687326610,
0.272833943,
-0.977116704,
-0.242885783,
0.927419305,
0.675514698,
0.399097174,
0.342483401,
0.460142106,
0.658815086,
-0.657293737,
0.181641787,
0.608781755,
-0.408384204,
-0.852235138,
-0.451701015,
0.589043617,
-0.957798898,
0.111695066,
-0.938862026,
0.034428030,
-0.947109222,
0.234781593,
0.091027260,
-0.986549377,
0.335665345,
0.969524741,
0.198690534,
-0.965268791,
-0.699473083,
-0.454948604,
0.067151062,
0.677612066,
0.348191231,
-0.616001725,
-0.784143269,
0.244651392,
0.748315990,
-0.111062661,
0.563928664,
0.730058491,
0.502328992,
0.207148790,
0.643081605,
0.869558036,
-0.808322489,
0.776869118,
0.651303589,
-0.148295283,
-0.605647564,
0.437299848,
-0.519822478,
0.794818580,
0.650363564,
0.209189355,
-0.102687359,
-0.237353444,
0.323214233,
-0.619266629,
-0.734568655,
0.819480598,
-0.191238567,
-0.519896984,
0.020299086,
-0.369077116,
0.202147961,
0.950240493,
-0.983860850,
0.239370525,
-0.999263406,
-0.632570624,
0.277680695,
0.285276383,
-0.355414987,
0.646453619,
-0.764656544,
0.473518282,
0.421553552,
0.297013044,
-0.260517299,
-0.825209618,
-1.190051079,
-0.038531289,
-0.534344912,
-0.861128926,
0.547341228,
-0.802410364,
0.769829869,
0.456551462,
-0.563364148,
-0.783474863,
-0.359059095,
-0.512141168,
0.082244478,
0.023434680,
-0.808360040,
-0.566636324,
0.383103162,
-0.966339052,
-0.797178864,
0.648033082,
-0.246285230,
-0.890409291,
-0.666109681,
0.508707821,
-0.441647083,
-0.687907696,
0.237126634,
0.423346430,
-0.765017450,
0.267517924,
-0.492152393,
-0.916049600,
0.730101466,
0.989428163,
0.167497858,
0.513727188,
-0.911266565,
0.969181716,
0.977577746,
-0.958338022,
-0.915577531,
-0.581829429,
0.913160145,
0.070957392,
0.163489819,
-0.540962338,
-0.892418861,
-0.448873103,
0.426329285,
-0.965741754,
-0.997429848,
0.410610676,
-0.456060529,
-0.066654682,
-0.307458162,
-0.891437829,
-0.382770687,
0.054250125,
-0.414283276,
0.233910218,
-0.937224984,
-0.988234103,
-0.346669883,
0.825347424,
0.260453373,
0.866173804,
-0.581951976,
-1.046712279,
-0.152280882,
0.255782783,
0.468232661,
-0.942741811,
-0.601896226,
-0.658721864,
-0.378906757,
-0.761570215,
0.681364775,
-0.235637605,
0.558740258,
0.351442337,
-0.554966331,
-0.184854344,
0.979601383,
0.747445405,
0.926040053,
0.993351340,
-0.146522641,
-0.511950731,
-0.560937822,
-0.858246088,
-0.362823576,
-0.237344280,
-1.017469525,
-0.061006978,
0.755945563,
0.813082457,
0.695390403,
-0.791177571,
-0.602405667,
0.117636360,
-0.744066298,
-0.192193165,
-0.845265865,
0.431879699,
0.953336179,
0.416511774,
-0.234598711,
-0.336982369,
0.070348024,
-0.879593372,
-0.097052924,
-0.464685708,
-0.445670843,
0.083130665,
-0.934292078,
-0.251639962,
-0.494842649,
-0.334849864,
0.242371857,
0.049848780,
-0.565139592,
-0.438191861,
-0.396720529,
0.362154841,
-0.420596033,
-0.865630388,
-0.852482855,
-0.232363835,
0.740603387,
0.742308378,
0.331000984,
-0.419904828,
0.565730572,
0.681487143,
-0.478076398,
-0.612619877,
0.934634686,
-0.253431052,
-0.616631806,
-0.375637144,
-0.093892574,
0.406728506,
-0.411563277,
0.837072909,
-0.834612429,
-0.209856272,
-0.521173477,
0.781610191,
0.412018895,
0.161471844,
0.379650742,
0.693569779,
-0.965699613,
-0.934467018,
0.136557654,
-0.551231503,
-0.995468438,
-0.747341692,
-0.862538278,
0.751712143,
-0.863703012,
-0.272490144,
-0.728505254,
-0.836889386,
0.462284058,
0.699097395,
-0.205398679,
0.019148504,
0.464843303,
-0.931606650,
-0.577396631,
0.895957172,
-0.959401727,
0.266657114,
0.774750590,
-0.550021291,
-0.188397780,
0.127871752,
0.794898570,
0.486958802,
0.438277692,
-0.324191511,
0.880645275,
-0.486414909,
-0.697935820,
0.012485504,
0.822889328,
0.431766510,
0.752870083,
0.428408921,
-0.582656920,
-0.594858706,
-0.612563014,
0.904549658,
-0.480506778,
0.257157087,
0.624589860,
0.880005240,
-0.159075692,
-0.233293489,
0.319145441,
-0.474444270,
0.570800602,
-1.095266223,
-0.798790157,
-0.569605350,
0.094935790,
0.700928628,
0.770179749,
-0.696030498,
-0.468470216,
0.386608362,
0.396592706,
0.148748532,
0.653694391,
0.266628772,
0.129424810,
-0.123270035,
-0.939366162,
-0.304240406,
-0.940171421,
-0.538750827,
-0.054835066,
-1.068327904,
-0.468535542,
-0.454343945,
0.521091700,
-0.691903114,
-0.727029145,
0.793938577,
0.119046062,
0.272867203,
-0.586491227,
-0.213504553,
-0.982662082,
-0.156185150,
-0.149062693,
0.471859574,
-0.644560456,
-0.976083577,
-0.996036232,
0.778326392,
-0.035624739,
-0.624032795,
0.171448916,
-0.923502564,
0.166114405,
0.853587151,
0.970466375,
0.366111428,
-0.640747547,
-0.708289802,
-0.164315552,
0.474396676,
-0.927214801,
0.281164140,
-0.155228794,
-0.513857841,
0.850729346,
-0.272106797,
0.079452388,
-0.396832734,
-0.871299565,
0.933333516,
0.124802783,
-0.446806759,
-0.650982976,
0.391555518,
-0.828502417,
0.108573720,
0.494073033,
0.813124597,
0.763399482,
0.466229737,
-0.317880511,
0.083079048,
0.529267669,
-0.207835704,
0.019645000,
0.546631634,
-0.801261365,
0.001744747,
-0.100985996,
-0.563415468,
0.824342370,
-0.489168435,
-0.431754440,
0.864381075,
-0.255163908,
-0.474661559,
0.723568857,
0.342184275,
0.732376158,
0.308485091,
0.522798955,
-0.698433638,
0.484139204,
-0.611947834,
0.716717124,
0.601908267,
-0.264437973,
0.122049868,
0.503637314,
0.872571588,
0.027300134,
0.499021620,
-0.713066578,
0.152468681,
0.325164407,
-0.026512155,
0.876278996,
-0.445660949,
-0.775448382,
0.626141787,
0.146060944,
0.683640063,
0.974161267,
-0.330625415,
-0.736298740,
0.048854738,
-0.418988705,
-0.948926508,
0.997317433,
0.653010070,
0.112563603,
-0.428149879,
-0.254831374,
0.122927502,
0.939453840,
-0.263994575,
0.056435153,
-0.848132074,
-0.467680037,
0.048380911,
-0.841133714,
1.011312604,
-0.728416979,
0.704956770,
-0.178641587,
0.701520801,
0.029904971,
-0.514624000,
-0.043568850,
0.687905192,
0.594964623,
0.527924001,
0.229129553,
0.265131474,
-0.897688568,
-0.925215602,
-0.117705472,
-0.355632305,
-0.198795140,
0.195647076,
0.882729888,
0.688331306,
0.401321054,
0.312493503,
0.567601562,
0.406677574,
0.184959725,
-0.905251563,
-0.203147054,
0.317673981,
0.602649629,
0.585439086,
0.034880634,
-0.718700707,
0.191556826,
0.329219550,
-0.136340469,
0.276430249,
0.110940486,
0.079182483,
0.660918951,
0.877176225,
-0.565532863,
-0.419863164,
-0.879394114,
-0.983471513,
0.436821938,
-0.689296126,
-0.714612424,
-0.156533703,
-0.157714888,
-0.840051591,
0.451170951,
-0.381778747,
-0.032780547,
0.919401407,
-0.877462149,
-0.653843462,
-0.475997835,
-0.060358945,
0.439358681,
0.473593414,
-0.554679573,
0.975356996,
-0.076428533,
-0.771238863,
0.743114591,
0.308263481,
-0.559135556,
0.786812305,
-0.311597109,
0.478617042,
-0.961357296,
0.435628831,
-0.685128689,
-0.000594356,
0.076756649,
-0.933617115,
0.036212310,
0.255813718,
0.000016941,
0.967249334,
0.079846993,
0.792268157,
-0.677410185,
-0.969983101,
0.871436536,
0.818178296,
-0.948570907,
-0.454565823,
-0.806450367,
-0.897176921,
-0.221819669,
-0.068156324,
-0.325412929,
-0.239715934,
0.483336627,
0.469696045,
-0.156665459,
0.885838211,
-0.484419793,
0.000123954,
-0.529380560,
0.727506697,
-0.410937071,
-0.383749127,
-0.374958545,
-0.626000166,
-0.843932629,
-0.722296476,
-0.499049664,
-0.606097519,
0.314949840,
0.628697455,
0.485873610,
0.557701647,
0.687241673,
-0.839001715,
-0.383568257,
0.676918328,
0.307762116,
-0.716995180,
-0.438923717,
-0.691379726,
-0.000694906,
-0.569848299,
-0.144731984,
0.578046978,
-0.789666653,
0.260777026,
-0.479344815,
0.835157692,
-0.410492957,
-0.557267189,
-0.297972977,
-0.389502764,
0.614184260,
0.343376577,
0.044747833,
-0.007404505,
0.026361069,
-0.785075068,
0.815697670,
0.632951379,
0.416754752,
-0.660681844,
-0.030916601,
-0.032582164,
0.928454697,
-0.480920911,
-0.787490070,
0.724507511,
0.858675957,
0.034536630,
-0.685440779,
-0.340743423,
-0.396987319,
0.001066402,
0.632296622,
-0.689699292,
-0.790060878,
0.480812013,
-0.251625687,
-0.588843048,
-0.607742786,
0.110679582,
-0.003694892,
-0.775637507,
0.528261840,
-0.688213646,
0.064614229,
0.197863653,
0.649457932,
-0.916438103,
-0.612387061,
-0.651239157,
-0.170921773,
-0.951765537,
-0.424218625,
0.804058790,
-0.562461197,
0.350372165,
-0.621568799,
0.358402967,
0.672312379,
-0.433518887,
0.936281502,
-0.849839270,
-0.825540960,
-0.272951394,
0.826111495,
0.373539329,
-0.476335019,
-0.834691346,
-0.181614459,
0.237072393,
-0.811415136,
-0.461923182,
-0.840504229,
-0.511631966,
0.319875628,
-0.436291814,
0.129078448,
-0.653636098,
-0.258942425,
-0.944467008,
0.581846297,
-0.556638479,
0.122615933,
0.247698069,
0.414449304,
0.844285607,
-0.505845785,
0.598163128,
-0.527031600,
-0.046513516,
0.183026999,
-0.722967505,
0.510775447,
0.604049087,
-0.896744788,
-0.912426114,
0.928797245,
0.937406421,
0.266733319,
0.585486054,
-0.097937942,
0.745075643,
0.001705789,
0.025432033,
-0.771930873,
0.777258217,
-0.576185524,
0.620398104,
0.259184301,
0.777407348,
0.053012770,
0.954872370,
0.095441841,
0.592683554,
0.067048013,
-0.011022925,
-0.107948281,
0.884386480,
-0.975182176,
0.633780003,
-0.755886912,
-0.734166801,
0.449216515,
-0.282627791,
0.636987448,
-0.492475867,
0.580537200,
-0.618988872,
-0.953450501,
0.886484563,
-0.402574897,
0.000036966,
0.169492215,
-0.673569381,
-0.558031261,
0.661826551,
0.796593249,
0.547976613,
0.503778577,
0.568605185,
-0.643650174,
0.222442001,
-0.016606569,
0.884574115,
-0.552364230,
0.674175680,
0.244364351,
-0.682207823,
-0.449907690,
-0.591450214,
0.736795962,
-0.649990618,
-0.050598707,
-0.744141817,
-0.636329889,
0.401787877,
0.776827514,
-0.479779959,
-0.005277276,
0.546603441,
0.422848582,
-0.057289839,
0.314126879,
-0.964762807,
0.690501094,
0.810824096,
-0.588914871,
0.519360244,
-0.732729614,
-0.584187865,
0.120337628,
0.239677191,
0.752450347,
0.159330875,
-0.256257653,
0.567974448,
-0.723004460,
0.750860631,
0.453143328,
0.649876654,
0.179702252,
-0.897545218,
-0.316519767,
-0.408191711,
-0.557486892,
-0.534904122,
-0.490709275,
-0.665105045,
0.195599958,
0.061667666,
-0.649827659,
0.994854152,
-0.176185250,
0.580245912,
0.294877440,
0.792314827,
0.342771381,
-0.431490153,
-0.475075126,
-0.929342508,
-0.422923893,
-0.817842484,
-0.758650720,
0.491977006,
0.576719344,
0.101832047,
0.424116880,
0.000610936,
0.360821396,
-0.861263871,
-0.915433347,
0.604571223,
-0.846797764,
0.783353448,
0.291218817,
0.476578265,
0.572135806,
0.690564692,
-0.601465523,
-0.223828718,
0.564669192,
-0.134594619,
-0.622168481,
0.527118206,
-0.483686417,
-0.132267833,
-0.257044703,
0.493341863,
-0.373086810,
0.943996966,
-0.641623676,
0.964063644,
0.065775000,
-0.046619941,
0.153412342,
0.688393593,
-0.648763478,
-0.555907845,
-0.969742239,
0.574343085,
-0.559295535,
-0.570692182,
0.032000542,
0.299283803,
-0.636336088,
-0.831404567,
-0.020521959,
0.560637236,
-0.400363207,
0.645336390,
-0.282954574,
0.579469264,
-0.954849422,
0.196557447,
0.237806410,
-0.545484304,
-0.712481380,
0.440068215,
-0.599449039,
-0.588199973,
0.083002374,
-0.118766189,
0.763579547,
-0.803127289,
0.383488178,
0.481756538,
-0.208300024,
0.650780201,
-0.266368955,
0.124026425,
0.077720061,
-0.307324648,
0.868202806,
-0.719575942,
0.647906244,
0.832309067,
0.223472089,
-0.858423829,
-0.311784625,
0.358707160,
0.995247960,
-0.091414280,
-0.731932402,
0.020431302,
0.136567488,
-0.111040510,
-0.502761006,
-0.537770033,
-0.130875483,
-0.743337452,
0.193493173,
-0.023885150,
-0.726771593,
-0.211295247,
-0.854256630,
0.906834006,
0.287491351,
0.128230616,
0.610788882,
0.914026976,
-0.978315890,
0.108196728,
-0.732458293,
-0.046915054,
-0.824299693,
0.137891799,
-0.090134770,
0.489810735,
0.791045010,
0.369441569,
0.071590617,
0.816590250,
0.489636779,
0.179302156,
0.782741606,
-0.796234488,
-0.759185433,
0.940674841,
-0.717847168,
0.132122636,
-0.827098966,
-0.657236695,
0.531435430,
-0.915570498,
-0.454670668,
0.829108953,
-0.910833359,
0.938114703,
-0.692505777,
0.164713681,
-0.160314709,
0.727513373,
-0.265152991,
0.721574068,
0.871983767,
0.881761491,
-0.260449588,
-0.506565869,
-0.961668134,
0.388246447,
0.769473910,
-0.990610540,
-0.016909871,
-0.005914581,
-0.695234954,
-0.224824756,
-0.249391422,
0.079677790,
-0.254127622,
-0.942162275,
-0.246011496,
0.043371908,
0.170443356,
-0.932276428,
-0.526939750,
0.359591812,
-0.279125333,
-0.394076407,
-0.685295820,
-0.561128080,
0.831783473,
-0.454393417,
0.058300648,
0.073920071,
-0.361525416,
0.554493129,
-0.969186842,
-0.826269746,
-0.538222194,
0.145356521,
0.523867667,
-0.162926555,
0.781833947,
-0.429565668,
0.171547621,
-0.821721911,
-0.635322928,
-0.040841103,
0.958853722,
0.891878188,
-0.529870510,
-0.503613591,
-0.265945375,
-0.346394539,
-0.726073623,
0.590579391,
-0.204772502,
0.907092154,
-0.353715897,
-0.647868991,
0.946848929,
0.776619196,
-0.346832931,
-0.914051890,
0.040042046,
0.828962505,
0.509330750,
0.160667911,
0.504920363,
-0.697677374,
-0.274525404,
0.378307194,
0.006896053,
-0.008744803,
0.593871951,
0.432261795,
0.296494544,
-0.472248524,
-1.000102639,
0.158194885,
0.661350012,
0.094790518,
0.213689521,
0.139956594,
-0.901122034,
-0.283852696,
0.626634479,
-0.380230844,
0.935777843,
-0.258934617,
-0.496093065,
0.449498743,
-0.377166957,
0.389985293,
-0.486229181,
-0.654918134,
0.169326544,
-0.360120207,
-0.763694942,
0.870680928,
-0.669652939,
-0.655939698,
0.755328774,
-0.152175546,
0.731663108,
-0.128926739,
0.171851456,
0.965807319,
0.928112686,
-0.250910789,
-0.185418054,
-0.203938335,
-0.911167264,
0.494597167,
0.149851441,
0.510721207,
0.457834303,
0.138927564,
-0.853529632,
-0.405336827,
-0.276173085,
-0.827650547,
0.618581116,
0.334771097,
-0.731556654,
0.723203123,
0.917074442,
-0.267907977,
-0.907139957,
-0.841657579,
-0.993379354,
-0.258822560,
0.636381745,
0.959248304,
0.606431246,
-0.983113408,
0.184779212,
0.169713512,
0.167869538,
0.676757514,
0.585324168,
-0.930539370,
-0.991208911,
0.618717551,
0.132346734,
0.021797715,
-0.522782624,
0.653666496,
-0.584948897,
0.630909741,
-0.147023082,
-0.834794939,
-0.897589147,
0.720842898,
-0.387443811,
0.504759133,
-0.292019129,
-0.187853515,
0.116182916,
0.181600124,
0.597231090,
0.003029849,
0.659856379,
-0.371959895,
-0.024956701,
-0.876740098,
0.248755947,
0.881369591,
-0.431588382,
0.229937822,
-0.901182294,
-0.375397444,
0.156676665,
0.097204156,
0.690231323,
-0.472778648,
0.706596076,
0.949125111,
0.291734815,
0.538190007,
-0.062526986,
0.664335668,
-0.942399144,
0.218009710,
-0.575450778,
-0.125343680,
0.676522076,
0.653090596,
-0.887575626,
0.939203978,
-0.803795397,
-0.291307300,
0.904478192,
0.347453266,
-0.892805219,
0.905414820,
-0.957674921,
-0.639246762,
-0.762827873,
0.258445919,
-0.235208109,
0.953553021,
-0.405232549,
-0.108552940,
0.989164412,
0.427687079,
-0.244375020,
0.670397639,
0.094329372,
-0.709373891,
0.599099457,
-0.940033674,
-0.070972443,
0.787621200,
0.815865219,
-0.470894814,
-0.133351713,
-0.187473580,
0.888819218,
0.369540215,
-0.672873676,
-0.996300042,
-0.092481323,
0.005890460,
0.003716047,
0.822474301,
0.814530015,
-0.853711426,
-0.027120139,
-0.143785715,
-0.560811818,
-0.546194673,
0.994922161,
0.223682448,
0.086757369,
-0.552400708,
0.503126562,
0.537506580,
-0.528368592,
0.454531223,
-0.000302001,
-0.201439276,
0.659170866,
-0.047756325,
-0.976970613,
-0.150266036,
-0.360620052,
0.501981318,
-0.400299191,
-0.132531047,
-0.698514163,
0.143840328,
-0.495602638,
0.433991671,
0.972354352,
-0.256956220,
0.251537263,
-0.639192760,
-0.552290916,
0.019557294,
0.875213146,
-0.661402822,
-0.467891961,
-0.468593359,
0.971440911,
-0.001129613,
-0.554484844,
0.036124818,
-0.042352557,
-0.399972171,
-0.757982373,
-0.853756964,
0.472157598,
-0.729493141,
0.586986780,
0.877659440,
-0.079440713,
0.525190115,
0.357864648,
0.991056383,
0.492796928,
-0.478348851,
0.650000274,
-0.458160818,
0.838916838,
0.315180302,
0.218083814,
-0.205088168,
-0.553744495,
0.844825149,
-0.259200454,
0.804090500,
-0.823946655,
-0.349981815,
-0.668424964,
-0.005591054,
-0.235618070,
0.671933770,
-0.352353185,
-0.594041348,
0.123439841,
-0.393616021,
0.213950291,
0.967384696,
0.914761782,
-0.773237765,
0.105840817,
-0.268280208,
0.631443977,
0.193244010,
0.712478518,
-0.744820356,
-0.307370186,
0.668702960,
-0.712002516,
0.785105884,
0.066778101,
0.118616797,
-0.528050661,
-0.223914027,
0.047595676,
0.935173929,
0.310944647,
0.674843490,
0.029269360,
-0.676071465,
0.928721309,
0.634186506,
-0.544379234,
0.965207398,
-0.300260931,
0.661991179,
0.907346070,
0.632886052,
-0.804666698,
-0.936089873,
-0.407936484,
0.240965828,
0.866338253,
0.074599124,
0.360512644,
-0.311807990,
0.969321012,
-0.098334752,
-0.167494059,
-0.724900246,
-0.715839803,
-0.883732855,
-0.920118392,
0.051652007,
-0.086520635,
-0.568130374,
-0.847524524,
-0.806980312,
-0.905856550,
-0.513365746,
0.823012352,
0.920366645,
-0.477617860,
-0.949225187,
0.167106017,
0.136632189,
0.207020774,
0.333710760,
0.185427159,
-0.305614233,
0.256394416,
0.663545489,
0.044496898,
0.641752362,
-0.412280619,
-0.801348567,
0.781635106,
-0.201235175,
0.961568475,
-0.982250512,
-0.599009633,
0.659375370,
-0.319541425,
-0.996311843,
0.607589185,
-0.816284299,
0.133189395,
-0.666862607,
0.742650390,
-0.687455535,
-0.621002495,
-0.138540149,
0.874843478,
-0.825388491,
0.417565346,
0.182100862,
-0.959686875,
-0.934856296,
0.204377636,
-0.503501177,
-0.570073485,
0.639005959,
-0.029886408,
0.386204660,
0.833819211,
0.524558663,
-0.317208886,
-0.326815605,
-0.532060742,
0.651943564,
0.984606445,
0.033065263,
0.136923254,
0.761635959,
-0.380051851,
-0.451092601,
-0.196742758,
0.529646158,
0.845403850,
-0.207908273,
0.504597723,
0.161986873,
-0.085472636,
-0.431241632,
-0.152360797,
-0.793493271,
0.235480964,
-0.032054111,
-0.844577014,
0.311635226,
-0.273798048,
-0.320030212,
-0.540437877,
0.551037312,
0.479214489,
0.847143829,
0.748387158,
0.588588417,
-0.274655700,
0.260582358,
-0.884621143,
0.124569036,
0.703472555,
0.005796839,
0.727407455,
-0.545431733,
-0.000003953,
-0.173636317,
-0.655335307,
-0.913495064,
-0.356856495,
0.413830578,
0.790745974,
-0.959056199,
0.605775833,
0.249908775,
-0.049514323,
-0.030183405,
-0.670979559,
-0.455670446,
-0.476307303,
0.242449701,
-0.500507951,
-0.276997507,
-0.443818331,
0.980154157,
0.311379999,
-0.026708798,
0.200795144,
0.887403846,
-0.363767087,
-0.758781075,
0.694768071,
-0.922265351,
-0.404452115,
0.663235366,
-0.507296324,
0.157574728,
0.090513565,
0.702605188,
0.680046082,
0.800438285,
-0.363524437,
0.469022244,
0.205943227,
0.036673211,
0.792416275,
-0.161351979,
-0.634372830,
-0.638457119,
0.360230327,
0.695452392,
-0.572084546,
-0.336704075,
0.235749662,
-0.215052605,
-0.106444955,
0.620231092,
0.160005659,
-0.681026042,
0.226047918,
0.881844699,
-0.046457767,
0.532436311,
-0.395164341,
-0.638891160,
0.087421805,
-0.238164932,
0.623185694,
-0.395262003,
0.349000931,
0.951393723,
-0.916705966,
0.507098079,
0.163491204,
-0.121897481,
0.617119849,
-0.141600192,
0.736784995,
0.015268981,
-0.887586951,
-0.862180114,
0.303227305,
-0.042490326,
-0.273259133,
0.109919593,
-0.059499748,
0.854135811,
-0.734520495,
0.210713938,
-0.050189652,
0.377904624,
-0.123228341,
-0.328559399,
-0.364266276,
-0.941584945,
0.824917018,
-0.354317337,
0.491812706,
-0.749704361,
-0.838606954,
-0.159143701,
0.177719340,
-0.105164409,
0.839096785,
0.220193774,
0.225815788,
0.962463975,
-0.254820585,
-0.283085495,
-0.234038725,
-0.887730062,
-0.438506037,
-0.936791182,
0.874463379,
0.547637820,
-0.982285857,
-0.833812177,
-0.096001454,
0.019698918,
-0.821439743,
-0.704694688,
0.513552785,
0.556997120,
0.553683043,
-0.421221256,
0.745475531,
0.879884005,
-0.901778996,
0.357684553,
0.001990333,
-0.277282178,
-0.042840671,
0.607013941,
0.345863849,
-0.982009888,
0.820211709,
-0.815881848,
0.297765672,
-0.272892475,
0.006503373,
0.585689008,
0.354769617,
-0.129992455,
-0.689833999,
-0.781107783,
-0.122583672,
-0.335092038,
0.585103273,
-0.896074593,
-0.100812979,
-0.717639446,
-0.325792372,
-0.927007318,
-0.569083095,
-0.288387299,
0.872780502,
0.762737691,
0.608401179,
0.969376504,
0.364644885,
0.804399312,
0.043423723,
-0.984242916,
-0.268255711,
-0.101090893,
0.702553868,
0.635154128,
0.002767206,-0.014938653,0.027239349,-0.026943399,-0.021906164,-0.022185331,0.009612115,0.030089077,0.007921960,0.028846266,-0.011482962,0.007760120,0.021731228,0.022377539,-0.004775153,0.018191021,-0.034914315,-0.007134371,0.026927849,-0.054940019,0.015019279,0.018155212,0.002295693,-0.009448926,-0.009701168,0.002603050,-0.007582007,-0.011886084,-0.013762293,-0.021123536,0.010985199,-0.013549161,-0.031333234,0.003553088,0.006114794,-0.028382715,-0.005356144,-0.006852578,-0.016503638,0.014632898,-0.027366733,0.028398642,-0.023242878,-0.023446174,0.009937936,-0.028208291,0.002431296,-0.017719908,-0.029352942,0.026764626,0.024039529,-0.003152584,-0.012381939,0.010930911,-0.020160133,-0.024707453,0.028753512,-0.016670153,-0.015719743,-0.005495594,0.012910994,-0.016642537,-0.017121635,-0.013838362,0.011051675,-0.006195727,-0.012389950,-0.021276239,0.016262537,-0.002664820,0.024174580,0.006467444,0.001984454,0.025822952,0.025407040,0.024193827,-0.026418768,-0.024361225,-0.017358841,0.027674776,0.000224514,0.010462742,0.027839607,-0.019543730,0.003848564,-0.012861809,0.016054133,-0.001688009,-0.012419672,0.023223281,0.014432740,0.038452446,0.000768944,-0.009511071,0.024966732,0.015215582,0.020019878,0.020528216,0.010967268,-0.012894727,0.014729472,0.025180733,-0.005755694,-0.013349434,-0.025385186,-0.004579413,-0.013043197,0.011421425,-0.018537180,-0.026024481,-0.011157106,-0.044269726,-0.012694255,-0.028432088,0.021724788,0.018288951,-0.025322529,0.016047128,0.020646242,-0.006200216,0.009157735,-0.005794094,0.018641815,0.030843413,-0.018958114,0.030136378,0.031459738,-0.020477261,-0.024966374,-0.027259404,-0.006884580,0.009563297,0.011938026,-0.017975444,0.024270661,-0.028691310,-0.024748471,0.024659727,0.019529052,0.011962570,-0.029038468,-0.010670051,-0.039938178,-0.004926837,-0.026297899,0.017717155,-0.009404998,-0.020061389,0.013529378,-0.002307752,-0.005131590,-0.024202058,0.013045953,0.019106448,-0.028703876,-0.001872561,-0.004392247,0.014192323,-0.027107816,0.020862764,-0.006496904,-0.016861871,0.004564953,0.013998325,-0.001589236,-0.002469832,0.009928210,0.032333530,0.028782791,-0.028599227,0.024869546,0.013078778,-0.025865315,-0.022728682,0.008290906,-0.010417868,-0.033566438,0.009328478,0.006017764,0.004973645,0.022757683,0.028019624,0.001665617,-0.000713076,0.031147428,0.012857418,0.002870194,0.018719757,0.015095460,-0.051742371,-0.007778984,0.004727059,0.028483907,-0.013611666,0.027766354,-0.009548309,-0.028787136,0.009343429,-0.004273980,-0.010266517,0.009966575,0.027966669,0.002291204,0.011930149,-0.012290665,-0.022743845,-0.016192753,-0.033584058,0.004930228,0.015889995,0.022954479,-0.001283864,-0.027672525,-0.018122423,-0.029323878,0.014735786,0.011587752,0.004952609,-0.033837352,-0.026368346,-0.004547457,0.000708572,0.001155588,0.021085126,0.020991119,-0.015604089,0.010653566,0.023920549,0.006597626,0.011898615,0.004491606,0.003393339,-0.016157838,0.015475491,0.022659140,0.010496138,-0.010973088,-0.047625680,-0.007925646,0.009977050,0.030300286,0.006830759,-0.012053949,-0.014390273,-0.018644147,0.032661468,-0.009987197,-0.011127424,0.023751881,-0.002047162,-0.029723978,0.023843598,0.006623664,-0.015036163,0.008968221,0.009830813,0.030099584,-0.020026414,0.030803680,0.015806163,0.010101606,0.025266467,0.031303495,0.014243309,-0.019345444,-0.026901428,0.024806697,0.027947113,-0.031043554,0.015942985,0.024921693,-0.023727525,-0.024318298,0.021008011,-0.027470728,0.000433888,-0.012446278,0.033334184,0.029879330,0.009085263,0.010247428,-0.011090041,-0.008346025,0.010722842,0.004998247,-0.026472555,-0.027001478,-0.024664624,0.002063971,-0.011487594,-0.042661745,0.010119151,0.019811546,0.012989363,-0.028600339,-0.022249645,-0.019639609,0.029166754,0.025757408,-0.000449973,-0.025578359,-0.025974633,0.023917934,-0.012447866,0.016918680,-0.000608361,-0.016965535,-0.017557530,-0.013972441,-0.014884041,-0.028021926,-0.025891218,-0.019121261,-0.015323032,0.006790454,-0.012448644,-0.012828771,0.033569898,0.017650824,-0.016580289,0.018981555,-0.026057344,0.013823278,0.000256783,0.029149447,0.030011777,0.025350550,-0.019981040,0.016854471,0.026185967,-0.007747998,0.031924158,-0.008647204,-0.026119443,-0.000437088,0.019981071,0.015492213,-0.014993500,0.006128422,-0.005672441,0.033260379,0.009592383,-0.004094382,-0.004304954,0.021576958,0.007250145,0.008169645,0.008100561,0.030146515,0.021250891,0.002341731,0.009760488,-0.029472673,-0.003603325,0.026295081,-0.014977218,-0.002814087,-0.004837298,0.000788921,0.012001876,0.022475397,0.030504271,0.003638566,-0.049498457,-0.013430058,0.021965602,0.020264529,-0.017108003,0.009972534,-0.005983053,-0.026757794,0.010816153,-0.006940843,0.011820606,-0.007404127,0.021432964,-0.011932111,-0.021174174,-0.010735631,-0.028651871,0.011405420,0.024820149,0.015171310,0.028414436,0.003315319,0.033629797,0.016443079,0.019017620,-0.020055413,0.022932280,-0.013353303,-0.002754269,-0.012461542,0.001203850,-0.020228332,0.009403885,0.020970270,0.025741508,-0.030202219,0.030412951,-0.010194539,0.012815620,0.011915195,0.010290294,-0.014101316,0.018163616,-0.011269749,-0.030474713,-0.029911110,-0.016410643,0.005131672,-0.020446731,-0.024612410,-0.026057508,0.020759476,0.006134969,0.008904989,-0.011432985,-0.043589700,-0.001981611,0.000404458,0.010496213,0.019722344,-0.057958182,-0.017634630,0.021721095,-0.029441820,0.030040460,0.032325320,-0.016336085,-0.031302828,-0.018531557,0.021770719,0.005458971,0.031151403,0.014816958,0.019523971,0.029026592,-0.017978808,-0.000898929,-0.028156167,0.012327219,0.002669454,0.010299366,0.016988451,0.012943354,-0.027298318,0.000251437,0.017908191,0.025261890,-0.027392220,0.008244564,-0.027155563,-0.001362472,-0.021843387,0.020757183,-0.030581716,-0.012060449,-0.015258633,0.009129434,-0.008379138,0.027325725,0.032356296,0.003502612,-0.024655208,0.001465499,-0.023059327,-0.002316796,-0.028748691,0.018574972,0.026271414,-0.016572490,0.016874302,-0.001517513,0.014937416,0.035108201,0.026105586,-0.035720423,0.026377754,-0.007052779,-0.004632519,0.015770376,0.013481874,0.021249393,0.006966717,-0.010974992,-0.018445879,0.013407988,0.014256790,0.003495442,0.027227154,0.005340642,0.022131896,-0.007621352,0.009241127,0.000934020,0.020720392,0.027158078,0.010760099,-0.038945500,0.016545080,0.012060382,-0.074099779,-0.012474360,0.020029088,-0.010698208,-0.036625344,-0.013726564,-0.000608645,-0.028407918,-0.030917950,0.022764929,-0.021585857,-0.023616374,0.030450895,0.020500282,-0.029269619,-0.000831097,0.020914780,0.027433360,0.019698309,0.034028679,-0.019511785,0.006438300,0.029168798,-0.022420796,-0.023688598,-0.020382848,-0.006470398,-0.015040553,0.002216101,0.001741677,-0.005953425,0.007972698,-0.000055918,-0.015047640,0.017519036,0.021575941,0.011988491,-0.020540528,-0.021835934,0.024745084,-0.009051057,0.027093492,-0.023024006,-0.013224560,-0.002507985,-0.015644036,0.000778450,-0.028043773,0.005922590,0.016548909,-0.027405865,-0.027130682,-0.025385017,-0.007876378,0.008721321,0.029863562,0.031214815,-0.015099672,-0.013265444,-0.008269436,0.014256259,0.012127648,0.014447312,-0.025388630,0.007295850,0.011264849,-0.027345477,-0.010373875,-0.008265945,0.012859046,0.013452278,0.018079069,-0.016833872,0.019621367,-0.020667305,-0.001856990,-0.022841400,0.017164273,0.015067134,0.022558339,0.005184175,0.001939863,0.026541747,0.009385828,-0.004313414,-0.031831976,-0.017397735,0.003094120,-0.015362937,0.027630415,0.006373562,-0.027329935,-0.026369413,-0.010968211,0.029491177,0.012087869,0.009313393,-0.030600458,-0.004147131,0.019231919,-0.001366451,-0.028482338,-0.005863088,-0.021427514,-0.039016973,0.029746726,0.016573755,-0.025475277,-0.022834560,0.026566450,-0.000920099,-0.011480141,-0.013838757,-0.020053430,-0.023127018,0.010552861,-0.010043542,-0.017441330,0.015747359,0.004381457,0.013260918,0.023823943,0.022884360,-0.044929620,-0.010002129,-0.016071130,-0.017993497,0.023611981,-0.018839309,-0.011225824,0.005358901,-0.018978301,0.019755175,0.025858214,0.015475841,0.012072336,0.013924065,-0.008878515,0.006917840,0.010770642,-0.014578165,0.030169317,-0.041148622,-0.029137066,-0.027608080,-0.043089151,-0.014745571,-0.026012762,0.004574538,0.003658529,-0.005578559,0.018968849,-0.026112221,0.010295889,-0.021757944,0.030180944,0.012197315,-0.009278791,-0.017266784,-0.018703941,0.009367061,0.024519602,0.016993750,-0.012742415,0.011205597,0.010954609,0.022445993,-0.004276981,0.027560348,0.002827718,0.002874315,-0.029143127,0.025827121,-0.016666075,0.023367058,-0.018984400,0.000590681,-0.011904916,-0.011640726,-0.029581074,0.021702059,-0.029901320,0.029822331,0.005324568,-0.018139081,0.024978992,-0.005895937,-0.002882970,-0.002421899,0.003642611,0.023673050,-0.007298561,0.013423579,0.013766732,-0.002438503,-0.008357428,-0.056541841,0.030785147,0.023634475,0.028368281,-0.021396019,0.016933039,0.021729024,0.007972845,0.002829108,0.004826729,0.007733021,0.024258558,-0.029642891,-0.017402610,-0.011330988,0.011509150,-0.006878944,0.000425218,0.001065752,-0.028136566,-0.017774381,0.000642772,0.000725258,-0.027342210,-0.018133946,0.005273541,0.018934987,0.011380087,0.022749173,-0.026743574,0.023288172,0.013896688,-0.012900442,-0.018078668,-0.019158976,-0.014658825,0.007872565,0.030012595,0.003771755,-0.020100946,0.011327166,-0.011012875,-0.014357484,-0.027343515,0.024058074,0.021966949,0.013492380,0.002659956,0.027266983,-0.003643684,-0.029041627,-0.002960719,-0.028519945,-0.004451605,-0.002023905,-0.015237380,-0.016719643,0.001255161,-0.007641430,0.027065732,-0.040611167,-0.026423799,-0.012699312,0.016564047,-0.040700667,0.002155007,0.019479550,-0.025091058,0.025579356,0.006985790,-0.023852611,-0.020740289,-0.025043527,0.028747499,-0.021370098,-0.009114486,0.009295145,0.000053180,0.030135356,-0.008024937,0.002621049,0.020458067,-0.009970755,0.029981887,-0.007910150,-0.005177719,-0.003258427,-0.023584027,0.011869310,-0.011526819,0.018818399,0.026730105,-0.001879940,-0.011663288,-0.006658546,-0.027147718,0.007681509,-0.027116312,-0.016478213,-0.018173400,-0.014561889,-0.007920044,0.008253935,-0.006059494,-0.005559569,-0.001949295,-0.023057986,0.031763852,0.020652227,-0.018515553,-0.023002885,-0.035606842,0.024836384,0.013890432,-0.018714882,0.019553967,0.014482161,0.019110082,0.009309299,0.018170763,-0.006275976,-0.014061183,0.029992171,-0.004503652,-0.026657255,0.000252263,-0.014845431,-0.014190195,-0.018287359,-0.011222394,-0.015504691,-0.039000135,0.021276698,0.007697182,-0.013625496,-0.032446176,0.023475545,0.015280265,-0.001179027,0.026460769,0.018546745,-0.000636063,0.007129982,-0.005281201,-0.011979108,0.011713145,-0.022880664,-0.003735207,-0.004277378,-0.019122295,0.012566610,-0.027119759,0.018767625,0.016001435,0.003927278,0.018968238,-0.038286474,-0.015612027,0.029025983,0.004996220,0.012004182,-0.004482285,-0.047105126,-0.000369246,-0.027331347,0.009302951,0.019550381,-0.007315945,-0.031436279,0.027189771,-0.027150910,0.022668445,-0.008192608,-0.012013162,-0.010306343,-0.017164269,-0.009788508,0.030170070,0.023141198,0.002785499,-0.024038434,-0.021437570,0.015983464,0.031387959,0.008191565,0.004519106,-0.013239999,-0.010264645,-0.028484592,-0.010892883,-0.022825979,-0.006178641,0.023510469,0.006517438,0.003338177,0.033205118,0.008349606,-0.028500570,-0.023634419,0.013997378,0.033945601,-0.013779063,0.025490709,0.026697801,0.034225266,0.003657069,0.023375977,0.031093912,-0.013612173,0.024436578,-0.026597634,-0.028341044,-0.003007361,0.024553539,-0.009344287,-0.027337352,0.022557477,-0.010445565,-0.005730921,0.002113921,-0.026088109,0.003694152,-0.015328102,-0.009062107,-0.005016529,0.006948236,0.015068376,-0.030822098,-0.019741662,-0.007590725,0.028143162,-0.008250836,0.030398792,0.010735656,-0.001962079,-0.000784259,-0.010025966,0.025251556,0.007510169,-0.064342901,0.001208210,-0.008327188,-0.031066412,-0.018119251,-0.003861857,0.026443547,0.015488928,-0.030476522,0.006732519,-0.028431434,0.001929984,-0.019547267,-0.019731468,0.007739521,0.000914498,-0.011607052,0.011211779,-0.002268460,-0.014317655,-0.017550778,-0.019156838,-0.019957798,0.001922487,0.021158464,0.016892765,0.021165600,-0.007639403,0.015286024,-0.024792593,-0.014415667,-0.027711382,-0.002894258,0.015217349,0.006934925,0.026080886,0.016018154,0.032004412,-0.028525682,0.006566403,-0.000991163,-0.016740374,-0.014000584,-0.010627082,0.009011533,0.011799102,-0.004307906,0.019385519,0.015226096,-0.011793049,0.028429562,0.001863397,0.029246958,0.014118708,0.020875685,-0.018871095,0.012418855,0.015822651,-0.025625551,0.010952490,0.006305256,0.024684064,-0.017584493,
-0.004434801,
