// Neural Network File Format by Kyle Julian, Stanford 2016
2,1,1,100,
1,100,1,
0,
0.0,
0.0,
0.0,0.0,
0.0,0.0,
0.569047451,
-0.441378236,
-0.148971185,
0.436392456,
-0.941436887,
0.599717259,
-0.209732831,
0.602373779,
0.193462774,
-0.078533016,
0.336334318,
0.099124812,
0.324732572,
-0.389701009,
-0.028777517,
-0.044292409,
0.191831276,
-0.044831697,
0.845163465,
0.311190128,
-0.372406244,
-0.649472952,
-0.209309116,
-0.431340694,
-0.277025819,
0.047881603,
0.596127748,
0.605193973,
-0.975208282,
0.666866422,
0.279363871,
0.911465228,
0.706995487,
-1.013434887,
-1.025638938,
-0.441038102,
0.840290964,
-0.123191230,
0.427959442,
-0.464711428,
0.942394555,
-0.423098445,
0.817153513,
0.070431910,
-0.599599183,
0.631463647,
-0.580751061,
0.255573243,
-0.332010269,
-0.064025722,
-0.961388111,
-0.519454420,
0.639859915,
-0.243077278,
1.084332824,
0.768794358,
-0.046823621,
-0.667483091,
0.664165914,
0.310357094,
-0.646419764,
0.697624326,
0.571392715,
0.934351325,
-0.560559630,
-0.211653545,
-0.019371867,
0.146057487,
-0.758918285,
-0.709622383,
0.623039663,
-0.190419436,
0.546842575,
0.103720233,
0.292011052,
0.182902306,
0.323504388,
0.586134791,
-0.926112056,
0.575214148,
-0.703123212,
-0.754508972,
0.060814381,
-0.170407176,
0.587324023,
-0.623976111,
-0.888981938,
0.727768779,
-0.148281813,
0.663739502,
0.396525323,
-0.749875307,
0.200898290,
0.291699976,
-0.654335082,
-0.474472284,
0.305937231,
0.252034694,
-0.468114495,
-0.302715898,
0.921830833,
-0.185021281,
0.572790563,
0.419635326,
-0.646407127,
-0.850429535,
0.936226606,
0.019870091,
0.690833628,
0.216158286,
0.325800240,
0.754110694,
0.937292159,
-0.663581014,
0.134208903,
0.755035222,
0.732881725,
0.610288203,
-0.752524257,
-0.720104218,
-0.604771614,
0.065764509,
0.985971510,
-0.631675601,
0.541970015,
-0.553488135,
-0.940215707,
-0.144048885,
0.549679399,
0.936907649,
-0.621038795,
0.205201551,
0.871409535,
0.692641735,
0.657281339,
0.719679117,
0.620815933,
0.267555565,
-0.683820128,
-0.839758515,
-0.496478498,
-0.116445899,
-0.543469548,
0.344545662,
0.349718481,
-0.074913837,
0.406405598,
0.311664402,
0.600150824,
0.682250082,
-0.338652730,
0.965876698,
-0.027093152,
-0.034355998,
-0.853931367,
-0.676125586,
-0.584203482,
-0.427722931,
0.677013159,
-0.326781034,
-0.747281194,
0.392976284,
0.307822883,
0.656110883,
-0.517472148,
0.206895784,
-0.364050627,
-0.224674702,
-0.796918392,
-0.455760956,
-0.214476109,
0.436193943,
0.187473148,
0.255551130,
0.985612869,
0.962310553,
0.671010196,
-0.001890909,
-0.691791415,
0.780527472,
-0.250063419,
-0.080845356,
-0.861498952,
-0.197528601,
-0.644987822,
0.908714354,
-0.864521027,
-0.779482722,
-0.033956289,
-0.433758706,
0.355912089,
-0.384925604,
-0.469687581,
0.063803770,
0.736959159,
-0.703423738,
0.456832409,
0.639876902,
0.967575014,
-0.699930906,
0.043819252,-0.073942684,0.086247876,-0.014684722,0.060235273,0.002977145,-0.003829099,0.038205788,0.031453405,0.040317368,0.039430108,0.042247675,-0.073415704,0.072853744,0.083085448,0.090019517,0.088218950,-0.063274086,-0.001129695,0.088172533,-0.076165855,0.012776926,-0.073749907,-0.070440851,0.039138909,-0.071848907,-0.022910072,0.128680035,0.007697221,0.115358017,-0.020291746,-0.042339243,0.120296724,-0.083963946,-0.110169962,0.010173416,-0.043563444,0.055487495,0.062673271,-0.079348125,-0.038282879,-0.008759642,0.102658063,0.008742577,-0.128570095,0.066858135,-0.157638192,-0.048293151,-0.073030092,0.088657022,0.088150583,-0.040632091,0.058923993,0.044597793,0.087292753,-0.014025264,0.057673838,0.061473418,0.017036248,-0.012310254,0.090874515,0.116099261,-0.027729217,0.124575883,0.024747252,-0.091639474,0.054741252,-0.074657455,0.092392862,-0.064287916,0.087884896,0.023623100,0.056604695,0.098709397,-0.025832111,-0.028279578,-0.068142198,0.038850546,-0.047372054,0.024745418,-0.020499850,0.033179369,0.086507633,0.029507816,-0.032214023,-0.062860943,-0.087215304,0.084144689,-0.018944014,0.108111106,0.027531061,-0.063726716,0.056318142,0.092743307,-0.025347352,-0.056828894,-0.021756785,0.017350566,-0.061526611,-0.055795826,
-0.005229220,
